// Neural Network File Format by Kyle Julian, Stanford 2016
3,6,1,16,
6,16,8,1,
0,
0,0,0,0,0,0,
1,38,1,1,1,1,
0,0,0,0,0,0,0,
1,38,1,1,1,1,1,
9.06296e-02,3.91528e-01,-7.85612e-01,2.33135e-01,4.98505e-01,1.99802e-01,
6.10764e-01,8.19491e-02,-2.00267e-01,2.98058e-01,5.87201e-01,-1.88322e-01,
8.47671e-02,4.70869e-01,2.80849e-01,6.40415e-04,4.32657e-01,3.63427e-01,
2.24081e-01,2.50950e-01,8.17511e-01,-3.55596e-01,4.16602e-02,-9.75186e-02,
-2.30366e-03,-8.32078e-02,-1.67563e-01,-6.80085e-02,-2.89320e-01,-2.13966e-02,
4.69649e-01,3.63859e-02,-3.92778e-01,2.89573e-01,-1.13172e-01,6.66670e-02,
-3.86033e-01,3.86605e-01,2.41871e-01,-5.25153e-01,3.02579e-01,-3.00611e-01,
-2.63790e-01,-3.53386e-01,-5.19775e-01,-1.69480e-01,3.83949e-02,-1.87367e-01,
1.09191e-02,1.54930e-01,5.44469e-01,-2.65242e-01,-1.72895e-01,4.62852e-01,
2.50221e-01,2.24552e-01,1.88148e-02,7.75933e-03,-2.26903e-01,-1.87247e-01,
5.51305e-01,-6.90746e-02,4.38925e-01,1.60664e-01,1.76538e-01,-4.60617e-01,
-2.44374e-01,2.16604e-01,-5.69206e-02,1.75462e-01,-2.20739e-01,2.29057e-02,
4.82092e-01,-4.69315e-02,2.53154e-01,3.88836e-01,-1.96361e-01,1.41221e-01,
-2.58223e-01,5.73638e-02,1.62262e-01,6.61901e-01,-9.62396e-02,2.50571e-01,
-2.37670e-01,-4.89717e-01,4.44710e-01,2.06330e-01,1.98852e-01,7.83445e-02,
-2.61625e-02,-3.44877e-01,-2.30360e-02,-1.38664e-01,-3.38894e-01,-1.82378e-01,
4.41342e-02,
1.08691e-01,
5.14443e-02,
7.88080e-02,
0.00000e+00,
3.20363e-01,
-2.36040e-01,
-4.88107e-02,
2.18299e-01,
1.19949e-01,
-6.50372e-02,
2.93080e-02,
9.11092e-03,
2.00602e-01,
-1.80666e-01,
0.00000e+00,
-1.78878e-01,2.22870e-01,4.82707e-01,5.36314e-01,3.24803e-01,-6.80104e-01,-6.76825e-02,2.33858e-01,1.49564e-01,7.48123e-02,-3.67270e-02,-2.28673e-01,-1.39225e-01,2.29721e-01,-1.64843e-01,-4.74231e-01,
2.82623e-01,-9.96149e-03,4.91274e-01,-4.94021e-02,-3.83667e-01,2.40812e-01,-3.41885e-01,5.28496e-01,-1.83420e-01,2.41778e-01,-5.47269e-01,-2.07844e-01,-7.00612e-03,-1.56202e-01,-2.77280e-02,4.88253e-01,
-3.66632e-01,-3.39625e-01,-1.64401e-01,-3.13186e-01,2.06380e-01,3.19324e-01,1.20675e-01,2.68661e-01,-2.62066e-02,-3.48125e-01,3.25400e-01,3.44682e-01,-4.23818e-01,-4.02823e-01,-3.71465e-01,4.10026e-01,
3.34511e-01,4.83614e-01,-3.46057e-01,2.44295e-01,-3.71033e-01,-1.68293e-01,4.60027e-01,-4.24466e-01,1.58926e-01,5.07116e-01,2.66504e-01,1.35558e-01,-2.81811e-01,-2.82737e-02,1.96397e-01,-2.06438e-01,
-2.31648e-01,-2.28856e-01,-1.60612e-01,5.93638e-02,2.00657e-01,2.96677e-01,5.02485e-01,3.51864e-01,4.78941e-01,2.44470e-02,-1.06145e-01,-3.53131e-01,-8.79413e-02,5.56823e-01,-3.27991e-02,6.07004e-02,
5.28712e-02,1.40742e-01,-2.82543e-01,-7.74648e-02,3.45920e-02,-4.02439e-01,-2.26731e-01,9.85139e-02,6.90114e-01,-1.90762e-01,2.73203e-01,-4.45266e-01,3.08346e-01,4.40083e-01,5.80485e-01,-2.84495e-02,
1.53174e-01,-2.98641e-01,-1.68979e-02,3.67150e-01,-4.85730e-01,-3.26210e-01,3.41439e-01,-2.45183e-01,6.59688e-02,3.01944e-01,-3.68480e-01,7.98201e-02,-1.67754e-01,-3.63875e-01,-1.99636e-02,-3.86192e-01,
2.52492e-01,1.39287e-01,2.26483e-01,-3.28791e-01,3.80645e-01,5.57427e-01,6.81863e-02,-2.33679e-01,1.83870e-01,2.49280e-01,3.20607e-01,2.48464e-01,2.54212e-01,6.82340e-02,-6.16039e-01,-3.12625e-02,
1.10472e-01,
1.76443e-02,
0.00000e+00,
-8.92374e-02,
1.68965e-01,
2.68542e-01,
1.95627e-01,
-4.44348e-02,
-6.53891e-01,6.01867e-01,-2.71348e-01,7.05565e-01,-3.08819e-01,-8.25559e-01,-4.29648e-01,5.24328e-01,
-1.25280e-01,
