// Neural Network File Format by Kyle Julian, Stanford 2016
4,6,1,200,
6,200,200,200,1,
0,
0,0,0,0,0,0,
1,38,1,1,1,1,
0,0,0,0,0,0,0,
1,38,1,1,1,1,1,
9.39259e-02,-6.61856e-02,1.93056e-01,8.54028e-02,1.26795e-02,-3.09572e-03,
-1.19093e-01,-7.45735e-02,-2.77983e-02,3.98778e-02,-5.62661e-02,1.21903e-01,
-1.33938e-01,-8.78973e-02,1.22923e-01,-4.41533e-02,1.17201e-01,1.01872e-01,
2.40285e-02,9.59966e-02,1.04999e-01,-1.60988e-01,-1.49700e-01,1.66300e-01,
-2.47555e-02,-6.58910e-02,-4.66581e-02,1.36342e-01,1.34264e-01,-1.36257e-01,
1.67295e-01,5.99372e-02,-1.03969e-01,-1.44054e-01,1.82895e-01,1.40657e-01,
-1.68068e-01,1.03359e-02,-8.95090e-02,5.20744e-02,-7.12517e-02,4.26009e-02,
-1.81031e-02,6.12829e-02,2.35061e-02,-5.06099e-02,-4.04249e-02,-1.96528e-02,
-1.12846e-01,-1.35769e-01,-1.65564e-01,-1.53746e-01,4.69814e-02,7.48249e-02,
-3.14120e-03,-1.21407e-01,5.37646e-02,1.68392e-01,1.26772e-01,3.42286e-02,
4.32800e-03,9.50493e-02,8.28568e-02,1.39110e-01,7.24956e-02,6.90536e-02,
-7.82679e-02,-1.99800e-02,-9.95611e-02,-2.55446e-02,1.29613e-01,-7.31824e-03,
8.37331e-02,-7.88869e-02,1.76694e-01,8.10882e-02,-1.05044e-01,1.37447e-01,
-5.32403e-02,9.72593e-02,1.35019e-01,1.00827e-01,1.53228e-01,5.96145e-02,
-1.64402e-02,-1.12370e-01,3.92961e-02,2.34179e-02,1.16789e-01,1.18714e-01,
1.66696e-01,8.77162e-02,-1.08161e-01,1.52141e-02,1.48294e-01,8.15676e-02,
-1.52392e-02,1.93810e-02,-3.69641e-02,1.38809e-03,-6.27495e-02,-1.63285e-01,
3.40306e-02,-1.51859e-01,-9.49292e-02,-1.01786e-01,-1.03508e-01,-2.20897e-02,
-1.60430e-01,-4.96311e-02,2.82572e-02,-1.58989e-02,4.10782e-02,9.44415e-02,
-5.41379e-02,-2.75197e-03,1.16147e-01,-2.47124e-02,2.13069e-02,-1.52545e-01,
1.00164e-02,-4.53453e-02,1.54576e-01,9.89652e-02,-1.00977e-01,1.73413e-01,
7.40506e-02,5.28619e-02,-1.56526e-01,1.06436e-01,-1.27757e-01,7.68929e-02,
-5.56908e-02,1.97181e-02,-1.54774e-02,9.96852e-02,8.18663e-03,1.65625e-01,
-9.31329e-02,-1.15450e-01,7.98994e-02,7.48646e-02,9.37915e-02,1.84734e-02,
-3.93370e-02,1.58724e-01,-1.20276e-01,6.59222e-02,1.79191e-01,-2.32455e-02,
1.11052e-01,1.21139e-01,-8.75328e-02,-8.45050e-02,-6.21405e-02,1.47802e-01,
3.91572e-02,-1.82836e-01,1.31590e-02,-1.43758e-01,8.52466e-02,1.43580e-02,
-2.06212e-01,1.10349e-01,-1.01033e-01,-9.17535e-02,1.32494e-01,-1.74354e-01,
7.31529e-02,-1.25196e-01,8.64490e-02,3.66640e-02,-1.04699e-02,1.65733e-01,
2.59083e-02,-1.80317e-01,5.53567e-02,-5.22958e-02,6.00582e-02,3.53925e-02,
1.25918e-01,-1.02649e-02,-5.25121e-02,-1.17772e-01,-1.58879e-01,-1.07645e-02,
1.49579e-01,4.56460e-02,-7.59858e-02,1.85074e-01,3.63134e-03,-1.35731e-02,
-1.27085e-01,-3.32175e-02,-4.41381e-03,5.45929e-03,-1.55504e-01,-7.91628e-02,
2.02679e-02,-3.43155e-02,-5.62073e-02,-6.18455e-02,-3.60255e-02,1.51716e-01,
-6.41982e-02,5.88889e-02,-6.30451e-02,-1.41774e-01,-6.28120e-02,-2.16110e-02,
1.70266e-01,-1.03298e-02,-3.51566e-02,-1.43028e-01,-4.32486e-02,-4.37019e-03,
-1.38300e-01,7.64637e-02,1.56674e-01,-1.07085e-01,4.88737e-02,3.55470e-02,
-1.50008e-01,-1.50806e-01,-1.64805e-01,-1.67086e-01,-6.10264e-03,1.29210e-01,
1.06718e-01,3.20784e-02,1.46366e-01,-2.20642e-02,-1.59905e-01,-4.53928e-02,
1.57669e-01,-1.67003e-01,4.46498e-03,-1.33648e-01,-1.62312e-01,-2.46422e-02,
-1.18322e-01,-1.27328e-01,-7.27925e-02,1.19971e-02,2.53614e-02,-1.39420e-01,
1.24270e-01,1.14246e-01,5.89707e-02,4.69429e-02,-1.38882e-01,3.78879e-02,
8.20446e-02,-6.04543e-02,-1.17011e-01,8.77800e-02,5.66270e-02,4.40181e-03,
7.75020e-02,9.32226e-02,7.66268e-02,-1.56633e-01,1.14631e-01,8.90369e-02,
5.92583e-02,8.94082e-02,-2.03342e-02,-5.58370e-02,-7.20854e-02,-1.41959e-01,
1.59555e-01,1.01845e-01,-1.01337e-01,-1.16567e-01,1.23472e-01,-4.34725e-02,
-4.52353e-02,6.95865e-02,-4.60688e-02,-1.69059e-02,3.60288e-03,2.06983e-02,
-1.55140e-01,-1.08062e-01,7.44043e-02,-7.11865e-02,-2.73229e-02,1.12857e-02,
6.94519e-02,1.08980e-03,1.59379e-01,3.76535e-03,-5.75910e-03,-5.56882e-02,
9.86474e-02,1.84974e-02,-4.81411e-03,2.71558e-02,-9.00498e-02,-9.96513e-03,
-1.21567e-01,-6.23270e-02,6.94309e-02,5.85532e-02,2.44551e-03,-7.34549e-02,
4.70979e-02,-1.73660e-01,1.45086e-02,-3.24267e-02,-5.81287e-03,9.97119e-02,
-1.00390e-01,-1.31460e-01,-1.28042e-01,4.67715e-02,-1.41317e-01,-8.10618e-02,
1.10735e-01,-6.58771e-02,-1.90826e-02,1.07809e-01,-5.72563e-02,-3.70444e-02,
-1.45186e-01,-1.19399e-01,4.05356e-02,9.03314e-02,7.87114e-02,1.28464e-01,
3.80059e-02,4.85842e-03,-1.08498e-01,-1.52907e-01,-5.38357e-02,-1.28564e-01,
3.87363e-02,9.54887e-02,-1.17578e-01,-1.92724e-02,6.27004e-02,5.96822e-02,
1.66059e-01,-1.17642e-01,8.11878e-03,-7.03895e-02,6.53616e-02,-2.39254e-02,
-1.20827e-01,1.95905e-02,-1.46095e-01,3.82410e-02,8.65929e-02,1.34240e-01,
-1.52117e-01,-1.39757e-01,1.01871e-01,3.64257e-03,-4.70585e-02,-4.07933e-03,
9.54546e-02,-1.50068e-01,-8.39555e-03,1.30908e-02,-1.27191e-01,1.12693e-01,
-1.40130e-01,-7.57126e-02,-1.20637e-01,-3.69888e-02,1.14320e-01,-1.20026e-02,
1.09916e-01,-4.49794e-02,4.34081e-02,9.16344e-03,1.56049e-01,1.31479e-01,
1.58648e-01,1.11468e-03,-3.82188e-02,-1.05227e-01,1.56040e-01,2.33324e-03,
1.02617e-01,6.09668e-02,3.45308e-02,-9.14865e-02,5.20967e-02,5.69323e-03,
-5.43823e-02,3.38184e-02,-1.42910e-01,1.22037e-01,1.84192e-02,9.85312e-02,
-8.33999e-02,-1.84349e-01,7.29196e-02,-3.41941e-02,-6.96854e-02,1.46230e-01,
1.66203e-01,-1.30824e-01,8.30874e-02,-1.35892e-01,-3.24603e-02,-1.18733e-01,
-4.20789e-02,1.22290e-01,1.48998e-01,-5.68941e-02,7.67996e-02,9.51487e-02,
1.28040e-01,7.05831e-02,7.94268e-02,5.20853e-02,-1.25102e-01,1.00931e-01,
-7.00338e-02,8.59068e-02,1.40981e-01,-4.57124e-02,1.24470e-01,-4.96711e-02,
1.12559e-01,9.54505e-02,1.78192e-01,-5.20455e-02,8.25412e-02,1.40017e-01,
-5.54505e-02,1.38313e-01,3.58149e-02,-1.50899e-01,-4.34292e-03,-1.28727e-01,
5.91814e-02,-1.10067e-01,-7.79762e-02,1.34329e-01,2.47006e-02,1.13020e-01,
1.25736e-01,2.92647e-02,-1.41834e-01,-3.52608e-02,1.67695e-01,-1.21270e-01,
-1.36915e-02,9.52191e-02,3.45182e-02,-6.30500e-02,-7.34901e-02,1.46315e-01,
-5.70584e-02,-5.77826e-02,-1.58476e-03,-9.79254e-02,-1.20365e-02,-1.31960e-01,
1.44150e-01,-1.29382e-01,-1.26703e-01,2.95230e-02,1.12431e-01,1.17271e-01,
-1.45530e-01,-7.34821e-02,1.19963e-01,4.68630e-02,-1.01671e-01,4.00052e-02,
2.81139e-02,1.23264e-01,-1.69997e-01,-1.33429e-01,1.38733e-01,6.06869e-02,
-7.91215e-03,8.03979e-02,-3.07749e-02,6.25655e-04,6.78295e-02,1.51058e-01,
-1.32733e-01,-4.74940e-02,-1.33620e-01,9.93957e-02,-8.17333e-02,-1.62958e-01,
8.88252e-02,6.38018e-02,9.15104e-02,-2.23919e-02,1.35152e-01,1.27032e-01,
1.55852e-01,-9.37611e-02,1.60449e-01,-1.78776e-01,-1.52986e-01,9.76766e-02,
-5.45316e-02,1.51369e-01,-1.51464e-01,-6.21304e-02,-3.22368e-02,1.36013e-03,
8.59607e-02,-6.84529e-02,4.04273e-02,-5.63165e-02,-4.51944e-02,1.57734e-01,
1.66603e-01,1.30700e-01,-1.47910e-01,5.05459e-02,-3.68396e-02,-9.13665e-02,
-3.88906e-02,5.67060e-02,1.05737e-01,1.23349e-01,2.07417e-02,1.45327e-02,
5.32900e-02,1.24806e-01,-1.21483e-01,-2.37227e-03,3.32137e-02,-1.63628e-02,
6.58646e-02,8.60436e-02,2.64322e-02,6.98775e-02,9.73330e-02,5.05676e-02,
1.14773e-01,5.59866e-02,-1.41744e-01,3.16514e-03,1.15650e-01,-1.28437e-01,
-1.51880e-01,-7.73164e-02,-1.22702e-01,1.14532e-01,-4.57518e-02,1.49720e-03,
-2.36499e-02,-2.08854e-01,-9.04677e-02,-8.46151e-02,1.17596e-01,1.14875e-01,
1.78217e-01,1.04878e-01,-6.77765e-02,8.02374e-02,1.36878e-01,-1.63112e-01,
-1.44220e-01,2.19794e-02,-7.32312e-02,-4.63323e-02,1.14983e-01,2.45422e-02,
1.52720e-01,-1.53721e-01,-1.08485e-01,5.81085e-02,-4.99479e-02,-2.25763e-02,
-1.40464e-01,8.23781e-02,9.97701e-02,-8.04933e-02,1.04021e-01,-1.58802e-01,
-6.26842e-02,1.18744e-02,1.37050e-01,-6.27137e-02,4.00034e-02,-4.25578e-03,
5.92177e-02,1.47974e-01,3.82620e-02,1.35686e-01,5.33977e-02,2.72821e-02,
4.84804e-02,1.56027e-01,-1.58643e-01,1.47415e-01,6.19546e-02,-1.28476e-01,
-4.93615e-02,-3.22816e-02,-1.17807e-01,-2.08852e-02,1.67854e-01,8.69541e-02,
-9.79913e-02,-1.51066e-01,-2.99347e-03,7.32376e-02,-2.44453e-02,-1.12461e-01,
9.83907e-02,1.03804e-01,-1.56423e-01,-2.65872e-02,-7.89105e-02,-9.19672e-02,
-1.45583e-01,-2.18218e-02,1.73641e-01,4.20660e-02,-2.19958e-02,-8.38134e-02,
9.04227e-04,2.53170e-02,7.36533e-02,-1.58863e-01,-5.62797e-02,-5.91250e-02,
-4.97002e-02,-3.07800e-02,-8.42831e-02,1.98232e-02,1.45722e-01,-1.29526e-01,
1.12447e-01,6.95478e-03,3.38277e-02,6.50246e-03,1.29001e-01,-2.84645e-02,
1.31425e-01,2.65053e-02,-1.23159e-01,-7.41483e-02,6.14236e-02,-1.21000e-01,
-5.66167e-02,-5.64965e-02,7.36801e-02,1.42813e-01,1.05202e-01,-8.84929e-02,
7.59225e-02,1.04546e-02,-4.98339e-02,-6.43945e-02,-1.60225e-01,1.09526e-01,
-6.05000e-02,-4.01021e-02,5.38869e-02,-1.46831e-01,-7.17171e-02,1.57433e-01,
1.38031e-01,-4.02060e-02,-3.21328e-02,1.10248e-01,2.64418e-02,1.16137e-01,
1.52474e-01,9.41660e-02,4.95042e-02,1.45256e-01,7.88594e-02,2.66064e-02,
-6.42523e-02,-1.62069e-01,1.65562e-01,1.51668e-01,1.39614e-01,-7.11180e-02,
-9.25049e-02,8.51507e-02,8.67146e-03,3.65628e-02,-2.17184e-02,1.46343e-01,
-6.41897e-02,1.11147e-01,1.14258e-01,1.66919e-01,-8.96945e-02,7.46375e-02,
-1.65174e-01,-1.20043e-01,9.23859e-02,-1.26923e-01,-4.31268e-02,7.58263e-02,
9.12122e-02,-8.55769e-02,1.92923e-01,1.18319e-01,1.54292e-01,1.06393e-01,
-3.04298e-02,5.82107e-02,1.53318e-01,-1.71584e-01,-1.69816e-01,-9.94573e-02,
-1.16320e-01,7.68506e-02,7.85261e-02,-2.17983e-01,-1.68769e-01,1.42846e-01,
-8.52006e-02,-7.23263e-02,-1.11699e-02,5.65460e-02,6.29240e-02,-1.22290e-01,
2.21175e-02,1.03473e-01,-5.17300e-02,3.65459e-02,-3.65000e-02,4.81562e-02,
1.52201e-01,1.96305e-02,-1.26386e-01,1.77077e-01,-8.11611e-02,-7.80447e-02,
-5.86846e-03,9.80183e-02,5.59519e-02,-5.39785e-02,-5.51320e-02,-7.91476e-02,
6.00149e-02,9.01074e-02,-1.84335e-01,-1.39876e-02,1.21893e-01,6.28939e-02,
-1.72988e-01,-1.20822e-02,1.88210e-02,1.31710e-01,-1.56858e-01,-1.39988e-01,
-8.66015e-02,9.49155e-02,2.75487e-03,-1.00821e-01,-3.93577e-03,-3.90044e-02,
-8.98089e-03,1.05267e-01,-7.54171e-02,8.55957e-02,-1.33441e-02,3.06597e-02,
6.05386e-02,1.13304e-01,-1.08268e-01,-9.44265e-02,-7.29056e-02,-1.71799e-01,
-3.82699e-02,-1.51557e-01,6.74479e-02,-1.15979e-02,1.29949e-02,5.34902e-02,
-3.47928e-02,1.28299e-02,1.22697e-01,-7.76876e-02,-1.21258e-01,-5.61486e-02,
5.13523e-02,-1.48804e-02,1.54280e-01,-4.61377e-02,2.98550e-02,-3.06689e-02,
1.21218e-01,1.58301e-01,-1.06331e-01,-1.13755e-01,4.73171e-02,-1.12458e-01,
-1.72991e-01,1.09907e-01,-7.64567e-02,-1.77054e-01,-1.73631e-01,5.23462e-02,
-1.57753e-01,2.83856e-02,1.49126e-01,9.76304e-02,1.08920e-01,1.11558e-01,
-1.22565e-01,-8.21626e-02,1.98495e-01,1.55003e-01,3.17803e-02,1.91615e-01,
-7.85477e-02,-1.33463e-01,-6.30431e-02,-1.07314e-03,-8.35780e-02,-1.01522e-01,
-1.21675e-01,1.17885e-01,1.49031e-01,-1.35030e-01,1.01414e-01,-1.12233e-01,
1.59834e-01,-5.56767e-02,-1.18562e-01,7.10413e-02,1.49454e-01,-5.20247e-02,
6.52774e-02,-1.41269e-02,-7.43142e-02,6.02295e-02,-1.66696e-01,-3.40582e-02,
-6.68023e-02,1.26244e-01,6.05280e-02,-1.08146e-01,1.43495e-02,-9.25718e-02,
1.43831e-01,6.94865e-03,-5.01050e-02,5.33100e-02,2.53517e-02,1.19589e-01,
-1.49283e-01,9.77338e-02,1.39275e-01,-1.91794e-01,-1.43366e-01,-7.37902e-03,
7.39585e-03,-1.00506e-01,-6.26426e-02,1.22297e-02,-4.37413e-02,2.65907e-02,
1.85390e-01,7.60930e-02,-1.59813e-01,7.19162e-02,-4.20823e-02,-8.59759e-02,
1.92447e-02,1.51337e-02,-1.89797e-01,1.33220e-01,1.38930e-01,-1.98994e-02,
1.70701e-02,1.22799e-01,7.72109e-02,1.48857e-01,-1.35345e-01,-1.65631e-01,
3.13138e-02,-1.63596e-01,5.44898e-02,1.07744e-01,1.22299e-01,-1.44911e-01,
1.07278e-01,1.58194e-01,2.82478e-02,1.05245e-01,-5.48592e-02,-2.27664e-02,
-1.11652e-01,1.22343e-02,1.06140e-01,-1.37137e-01,-1.16128e-01,1.29629e-01,
1.29932e-01,-8.59301e-02,-8.67812e-02,7.51574e-02,3.04618e-02,-1.46299e-01,
-1.42073e-01,3.46035e-02,1.73495e-01,-2.79144e-02,1.11974e-01,5.38798e-02,
9.85270e-02,-7.50199e-02,-1.43220e-01,-2.00782e-02,-1.37923e-01,-8.19268e-03,
1.85667e-01,5.04731e-02,-1.67555e-01,1.76860e-01,6.79866e-02,9.56429e-02,
-1.64667e-01,-1.12694e-01,4.76208e-02,-1.19424e-01,7.06588e-02,-1.24924e-01,
-2.24841e-02,5.45727e-02,4.44219e-03,9.01196e-02,5.28787e-02,1.36244e-01,
-1.39220e-01,6.76343e-03,-9.34523e-02,-1.08834e-01,1.36061e-01,-1.13575e-01,
-1.68794e-01,8.54032e-02,1.25763e-01,-1.36437e-01,-1.68064e-01,-5.87843e-02,
-1.22110e-01,1.26925e-01,-1.08526e-01,7.29111e-02,3.90192e-05,1.04883e-01,
9.74657e-02,-1.50225e-01,-6.55309e-02,6.36772e-03,9.80160e-02,-1.25914e-01,
-8.27950e-02,-1.13340e-02,-2.88104e-02,1.19697e-01,-5.09728e-02,1.57689e-01,
8.31936e-02,-1.29522e-01,6.21335e-02,-1.41196e-01,1.77897e-02,-1.72840e-01,
8.71280e-02,3.46119e-03,7.43812e-02,1.37085e-01,8.97312e-02,1.48111e-02,
9.16702e-02,1.05566e-01,3.83951e-02,-1.87570e-01,-1.03175e-01,3.63762e-02,
-1.51089e-02,1.12571e-01,9.41588e-02,4.59146e-02,1.51944e-01,1.47860e-01,
-5.65679e-02,-9.81857e-03,-8.51752e-02,-1.18449e-01,-5.47898e-02,-7.97915e-02,
9.71829e-02,6.79032e-02,4.01661e-03,-1.26888e-01,-1.77794e-01,-8.72120e-02,
-1.32851e-01,-1.59922e-01,-1.37988e-01,-1.41744e-01,-1.70557e-03,-6.55860e-02,
1.10570e-01,-6.41883e-02,6.05323e-02,4.38717e-02,-1.38717e-01,1.60058e-01,
-4.30707e-02,1.96653e-02,-9.05092e-02,5.27813e-02,-4.94682e-02,2.09873e-02,
-4.30356e-02,2.82090e-02,-1.69383e-01,8.10323e-02,1.13137e-01,1.94376e-02,
1.30694e-04,-6.79948e-02,1.84355e-01,1.21872e-01,-7.59352e-02,1.55052e-01,
-1.81640e-02,-1.42791e-01,1.19207e-01,4.51847e-02,-8.39319e-02,2.72420e-03,
6.96549e-02,1.64529e-03,-1.80500e-01,2.22676e-02,1.34823e-01,-3.36680e-02,
5.93314e-02,7.77157e-02,1.25086e-01,-5.71402e-02,-9.29201e-02,1.39847e-01,
1.58214e-01,8.46300e-02,-1.86818e-01,-3.08140e-02,2.82017e-02,-1.15671e-02,
-1.28613e-03,1.09087e-01,1.78169e-01,-1.17867e-01,9.51191e-02,1.85043e-01,
7.54071e-02,-6.23872e-02,-7.23281e-02,9.10584e-02,-1.54430e-01,4.40926e-02,
-6.23194e-02,-2.01057e-02,1.00137e-01,6.37187e-02,5.95048e-02,2.33177e-02,
1.25270e-01,-5.98588e-02,-1.65055e-01,1.07856e-01,5.11544e-02,-9.13924e-02,
1.08230e-01,1.22394e-01,9.52239e-02,-9.65235e-02,1.26795e-01,1.08814e-01,
1.98524e-01,1.60933e-02,-1.22552e-01,-2.14769e-02,-6.40794e-02,-1.39932e-01,
-1.64734e-01,-1.35100e-01,-9.33592e-02,-1.57615e-01,5.36727e-02,9.46634e-03,
1.34991e-01,2.13031e-02,-1.38000e-01,-9.50535e-02,-1.53162e-02,-6.66906e-02,
1.45128e-02,-3.52581e-02,3.92784e-02,1.05495e-01,1.23630e-01,1.16660e-01,
9.52558e-02,1.04120e-01,-4.96581e-02,-1.59539e-01,1.25289e-01,1.13578e-01,
3.70843e-02,-1.06470e-01,6.68634e-02,1.23366e-01,3.31016e-02,-2.32778e-02,
-1.71480e-01,-8.16650e-02,6.96285e-02,1.51492e-01,4.65416e-02,1.27826e-01,
8.79235e-02,3.88705e-02,-1.42924e-01,3.52188e-02,1.51033e-01,1.10276e-01,
1.55680e-01,6.72942e-02,1.73883e-02,6.85616e-02,-2.26114e-02,-9.30967e-02,
-4.83318e-02,1.33044e-01,1.56114e-01,1.29493e-01,1.19445e-01,-3.79424e-03,
9.98070e-02,-5.24427e-02,-1.70887e-02,-1.24625e-01,1.45054e-01,6.34646e-03,
-1.02773e-01,1.29766e-01,1.13349e-01,6.79042e-02,-1.10590e-01,-2.11163e-02,
1.27126e-03,-1.08988e-01,1.79180e-01,7.75763e-02,-6.83758e-02,-4.91740e-03,
-1.30355e-01,9.61033e-03,-1.25565e-01,-2.14510e-02,5.26910e-02,-5.38910e-02,
-9.34876e-02,-1.33127e-01,3.74173e-02,-9.62999e-02,-1.56816e-01,-1.59604e-01,
1.91120e-01,1.53324e-01,-1.83168e-01,3.71336e-02,-1.38652e-02,1.26199e-01,
-6.73194e-02,-1.50726e-04,1.05104e-01,1.76621e-02,9.83173e-02,5.33566e-02,
8.94239e-02,-1.10700e-01,-2.70917e-02,-1.33779e-01,1.22192e-01,2.27788e-02,
3.72402e-02,1.19089e-01,4.01928e-02,1.78664e-01,-6.70047e-02,-1.25061e-01,
1.67150e-02,
-1.50581e-02,
2.32482e-02,
1.75363e-03,
-5.82105e-03,
-4.48321e-03,
6.88088e-04,
-3.21502e-02,
-6.46495e-03,
1.26683e-02,
-9.92924e-03,
-9.71035e-03,
2.07953e-02,
6.33897e-04,
-9.38727e-03,
-4.03710e-03,
-2.41454e-02,
-2.18125e-02,
-3.07843e-02,
1.00945e-03,
9.05856e-03,
-8.00389e-03,
-9.53391e-03,
1.96899e-02,
4.62580e-04,
-6.15172e-03,
-1.14638e-02,
-3.26457e-02,
1.28024e-02,
1.15068e-03,
1.01109e-03,
-3.44791e-03,
-1.05692e-02,
-1.63459e-02,
-1.97545e-02,
-1.05448e-03,
-8.45125e-03,
-1.42283e-02,
9.21100e-03,
3.17050e-05,
-2.09646e-02,
-3.02989e-02,
-9.36217e-03,
-6.63096e-04,
-2.38037e-02,
-2.80331e-03,
-2.10594e-03,
4.75267e-02,
-6.24336e-03,
4.51936e-03,
-2.18461e-02,
-2.48180e-02,
2.90432e-02,
-1.17035e-02,
1.04509e-02,
-8.47663e-03,
7.04611e-04,
-2.67542e-04,
1.37096e-02,
2.88354e-02,
-2.44729e-02,
-6.11393e-03,
1.50165e-02,
-1.49292e-03,
-2.99161e-02,
-6.28123e-03,
1.27453e-02,
3.03488e-03,
1.49844e-02,
-4.17041e-02,
-5.95260e-03,
-1.14532e-02,
-2.26893e-02,
-3.21785e-02,
4.00812e-02,
1.85226e-02,
-5.22309e-03,
-9.13824e-03,
2.05006e-02,
9.77276e-03,
-1.82922e-03,
-1.67837e-03,
1.19230e-02,
2.01587e-02,
-6.51964e-03,
2.36683e-02,
-2.66412e-03,
2.36500e-03,
-2.11774e-02,
-1.51435e-02,
-1.45080e-02,
-2.37183e-04,
-3.30694e-02,
-2.66081e-03,
-2.49801e-03,
-2.22236e-03,
-1.48285e-02,
1.27367e-02,
-2.47072e-02,
-2.01550e-02,
-1.08948e-02,
-1.81829e-02,
-5.95434e-04,
3.40723e-02,
3.14855e-02,
-1.78584e-02,
-8.15394e-03,
2.41824e-02,
-1.25665e-02,
-1.86266e-02,
2.01192e-02,
-2.89818e-03,
-1.82963e-02,
7.31649e-03,
1.32651e-02,
-3.08957e-02,
5.71982e-02,
1.49158e-02,
2.53954e-02,
2.98452e-02,
-4.38325e-03,
-2.06128e-02,
2.10352e-02,
1.04163e-03,
2.88456e-03,
-2.20614e-02,
1.30612e-02,
-4.05569e-03,
4.71411e-03,
-1.60017e-02,
2.92646e-02,
3.99228e-02,
-1.47978e-03,
-2.44345e-02,
-1.16913e-02,
3.21221e-02,
0.00000e+00,
2.28480e-02,
5.88773e-03,
-2.68518e-02,
-1.88876e-02,
2.51525e-03,
8.16387e-03,
-9.25285e-03,
4.06497e-03,
1.67941e-02,
-6.91539e-03,
-1.93015e-02,
-1.06823e-02,
3.04840e-02,
-1.78504e-02,
1.58555e-03,
-6.45984e-03,
2.12059e-03,
-1.28870e-02,
9.70498e-03,
-8.26531e-03,
2.81546e-02,
-8.95622e-03,
-1.19982e-02,
3.96609e-03,
-2.90425e-02,
-7.71175e-03,
-2.33380e-02,
1.46208e-02,
0.00000e+00,
-3.19045e-02,
-4.99931e-03,
3.18712e-02,
9.14080e-03,
2.04909e-02,
2.34370e-02,
3.83708e-02,
5.10301e-03,
2.11981e-03,
9.00646e-04,
1.32743e-02,
-6.68244e-03,
9.77270e-03,
-1.39534e-03,
-2.20990e-02,
3.37104e-02,
-1.63965e-02,
1.27053e-02,
-9.91586e-03,
-2.56877e-02,
8.62350e-03,
-2.76966e-03,
-2.15046e-03,
-1.65557e-02,
8.01125e-03,
2.12324e-04,
-3.07738e-02,
2.86947e-02,
-1.24507e-03,
5.16806e-02,
5.55377e-03,
1.56428e-02,
3.53276e-03,
-4.61439e-03,
5.67607e-02,-1.24811e-01,-8.00343e-02,8.47148e-03,4.37577e-02,-2.36486e-03,1.15154e-01,-5.82742e-03,1.02428e-01,5.06690e-02,-8.10652e-02,4.43610e-02,-1.33010e-01,5.82113e-02,6.11319e-02,1.10682e-01,1.26434e-02,-3.04028e-02,9.26090e-02,4.37594e-02,8.64165e-02,2.95566e-02,3.54631e-02,8.24190e-02,2.07097e-02,3.90347e-02,-7.65252e-02,-4.89347e-02,6.18632e-02,8.18894e-02,9.83210e-02,1.08347e-01,3.57721e-02,-4.20609e-02,9.14947e-02,-5.19010e-02,3.47749e-02,8.51071e-02,-4.69818e-02,9.16379e-02,-1.26110e-01,-4.82303e-02,9.55488e-03,9.41525e-03,-2.22324e-02,-3.52330e-02,2.49381e-02,3.05537e-02,-2.11038e-02,2.17485e-02,5.28847e-02,-5.40999e-02,-7.62115e-02,8.99993e-02,-1.97774e-02,9.28880e-02,3.22231e-02,4.91886e-02,2.65301e-02,-2.24475e-02,1.16716e-01,-5.14228e-02,-2.88776e-02,-7.45480e-02,-1.12446e-01,-8.86524e-02,5.67392e-02,-5.36443e-02,2.69731e-02,-3.45622e-02,-5.91254e-02,-5.34318e-02,-5.60319e-02,-7.16430e-02,-4.18680e-02,7.83997e-02,4.59236e-02,-6.85966e-02,-2.47440e-02,1.13815e-01,-6.15406e-02,1.12809e-01,-4.58453e-02,7.55543e-02,7.79257e-02,-6.47255e-02,8.20990e-02,1.04892e-01,3.81980e-02,-3.80897e-02,1.09898e-01,-9.10530e-02,5.21366e-03,3.48350e-02,3.17418e-02,-9.17368e-02,9.86321e-02,-5.97389e-03,-9.78281e-02,2.80236e-02,-4.67999e-02,5.92274e-02,1.51067e-02,3.37385e-02,-4.19882e-02,-7.40976e-02,9.10813e-02,-8.77882e-02,3.75637e-02,9.37576e-02,-1.17755e-01,-5.17063e-02,1.26446e-02,1.56179e-02,2.16989e-02,-1.13752e-01,-1.24201e-01,9.39033e-02,-8.02385e-02,-5.93704e-02,2.17469e-02,-1.32783e-02,-3.07928e-03,1.14396e-01,6.19098e-02,6.14178e-03,-5.55899e-02,-6.70176e-02,-1.30583e-02,1.15146e-02,-8.56352e-02,-7.44418e-02,8.19520e-02,-6.25751e-02,-1.16652e-01,-3.43869e-02,-7.19229e-02,-1.80731e-02,-8.59522e-02,1.28515e-01,-1.11290e-01,2.98826e-02,3.12615e-02,-1.17948e-02,-6.85273e-02,8.48118e-02,-5.90418e-02,-9.41872e-02,6.50120e-02,1.52796e-02,-7.97737e-02,6.30027e-02,1.14500e-02,9.51058e-02,1.84305e-02,-9.30108e-02,1.45476e-01,7.46473e-02,-7.23992e-02,1.26978e-01,-7.44427e-02,1.05940e-01,-6.67448e-02,1.06434e-01,-1.20749e-01,7.28156e-02,3.04081e-02,9.40256e-02,-7.37716e-02,-9.09164e-02,1.24999e-01,-5.30767e-02,5.28365e-02,-4.46656e-02,-1.12868e-01,9.87995e-02,1.11467e-01,-6.82908e-02,1.07245e-01,-3.17537e-02,2.64525e-02,-2.41188e-02,-4.46038e-02,-1.16107e-02,-6.15784e-02,-6.97703e-02,-9.62939e-02,-5.99881e-02,6.85543e-02,7.30164e-02,1.98858e-02,1.36074e-01,3.20898e-02,-4.94683e-05,7.41754e-02,4.08533e-02,1.19003e-01,-4.15045e-02,5.81325e-02,9.38549e-02,
-1.80394e-02,-3.97212e-02,-8.21269e-02,-2.80094e-02,1.20963e-01,9.61469e-02,-7.79466e-02,1.05518e-01,8.41751e-02,-6.03403e-02,1.09646e-01,9.57852e-02,-1.14212e-02,6.19875e-02,-5.96926e-02,-1.16835e-01,-7.96680e-02,-9.80784e-02,-9.60724e-02,-8.23887e-02,1.35936e-01,1.94197e-02,2.42385e-02,2.95649e-02,-4.77893e-02,1.06624e-01,6.84690e-02,3.30829e-02,1.12623e-01,1.09440e-01,8.88932e-02,1.07053e-01,1.06854e-01,2.17690e-02,-9.58825e-03,-1.00785e-01,8.63199e-02,5.09104e-02,6.15125e-02,-9.20349e-02,5.16437e-02,-6.59954e-02,-9.33018e-02,1.28640e-02,-1.15189e-01,-8.81141e-02,-1.58632e-02,1.31636e-02,9.15877e-02,-8.04995e-02,2.45102e-02,1.30670e-01,-4.37752e-02,-6.59676e-02,2.54422e-02,-3.34018e-02,9.96430e-02,-7.86791e-02,2.85315e-02,1.11679e-01,-1.30957e-02,4.25686e-02,-3.96432e-02,9.09438e-02,-1.11566e-02,-5.19575e-02,-8.99793e-02,-1.24974e-01,9.38451e-02,-1.20635e-01,4.22652e-02,-9.54989e-02,-3.68778e-02,-6.97267e-02,-8.93027e-02,-1.05250e-01,-4.57687e-02,7.10789e-02,5.39159e-02,-1.08292e-01,-1.15273e-01,8.36408e-02,-4.27189e-03,1.32670e-01,-2.92899e-02,8.00216e-02,-4.67513e-02,-6.84164e-02,-3.84939e-03,3.39357e-02,6.04701e-02,-1.07066e-01,9.66660e-02,-2.31934e-02,-8.79907e-02,1.11136e-02,-4.44413e-02,-8.30212e-02,8.35491e-02,-1.03216e-01,6.18556e-02,8.45070e-02,-4.48773e-02,8.86323e-02,-8.71660e-02,1.12853e-01,6.82364e-02,8.69242e-02,-4.53914e-02,-9.75869e-02,-7.75941e-02,4.58968e-02,4.94013e-03,-5.47375e-02,1.23584e-02,-3.38727e-02,-4.84006e-02,3.00379e-02,-3.94012e-02,-6.24598e-02,-1.31279e-02,8.79317e-02,6.91400e-03,6.50677e-02,-3.02311e-02,8.63742e-02,-4.35177e-02,4.64250e-02,2.34324e-02,-6.74014e-02,1.58388e-01,-6.01917e-02,-6.34562e-02,-4.75971e-02,-3.89057e-05,1.35063e-01,6.81032e-02,-2.54807e-02,-1.29253e-01,3.10340e-02,-1.48327e-02,-9.87891e-02,-9.65977e-02,-9.60833e-03,-4.68225e-02,2.06617e-02,1.12474e-01,7.50044e-02,-1.12906e-01,7.96787e-02,-1.13967e-01,-1.01674e-01,-1.00610e-01,1.40767e-02,-6.14611e-02,-2.44577e-02,-3.16551e-04,2.49152e-02,5.81376e-02,-1.31823e-01,-9.83775e-02,-2.75220e-02,3.31364e-02,1.08382e-01,1.18434e-01,5.22513e-02,1.19778e-01,1.20714e-01,9.74879e-05,-1.01005e-01,-1.51253e-01,1.92226e-02,4.35006e-02,-3.40436e-02,7.06544e-02,-3.89944e-02,-7.27476e-02,-1.23141e-01,1.08600e-01,-1.49566e-02,-1.43341e-02,-2.25714e-02,-1.13463e-01,-9.30167e-02,-1.11460e-01,8.87037e-03,-6.65312e-02,1.29420e-01,4.33263e-02,7.55970e-02,-2.33247e-02,5.62574e-02,-1.09726e-03,-7.91759e-02,2.86945e-02,-6.82931e-02,2.92208e-02,1.20461e-01,8.62314e-02,4.06176e-02,
1.04428e-01,7.51910e-02,1.79418e-02,1.11731e-01,7.34315e-02,6.85571e-03,-1.26359e-01,7.56575e-02,-3.80762e-02,-6.35268e-02,7.36685e-03,-3.02656e-02,9.45075e-02,-1.03612e-01,-6.35468e-02,3.19559e-03,9.84169e-02,-1.01111e-01,1.05066e-01,7.05870e-02,-3.73961e-02,6.46499e-02,4.50184e-02,-4.05596e-02,-4.69411e-02,-4.65678e-02,-6.18279e-02,-8.23550e-02,-5.25544e-02,1.25469e-01,-4.89271e-03,-1.30245e-01,7.18103e-02,-6.59402e-02,-9.44221e-03,9.26135e-02,-3.31830e-02,-1.18176e-01,1.08236e-01,-1.30515e-01,3.86558e-02,-1.22524e-01,9.31743e-02,2.32760e-03,-1.26446e-01,2.92608e-02,-7.47071e-02,-9.70590e-03,3.57730e-02,5.44367e-02,-1.08502e-01,-7.51458e-02,7.31145e-02,-1.09747e-01,6.65219e-02,7.27501e-04,5.43655e-03,-1.15125e-01,6.30207e-02,1.14007e-01,5.86503e-02,-8.67841e-02,1.21149e-01,-6.44118e-02,4.77490e-02,5.56410e-02,1.14749e-01,4.72898e-02,-8.69549e-03,7.67544e-02,4.55012e-02,-3.61206e-02,-1.87416e-02,-8.03317e-02,-5.87935e-02,-8.63396e-02,1.21769e-01,-7.95589e-02,-2.85996e-02,-2.59328e-04,1.02959e-01,-5.44588e-02,-5.66497e-02,-1.73568e-02,-1.01934e-01,1.30582e-01,-8.81895e-02,8.55816e-02,-9.61889e-02,6.78322e-02,9.26575e-02,-1.01159e-01,-7.70895e-02,-1.06023e-01,7.45351e-02,-8.91967e-02,5.35392e-02,-9.75520e-02,9.30101e-02,7.89885e-02,-1.91603e-02,-4.54925e-02,3.69491e-02,-8.82936e-02,1.11434e-02,8.56978e-02,-8.65984e-02,-1.08311e-01,-3.23950e-02,1.07216e-01,1.29391e-01,-5.48432e-02,-7.21046e-02,-6.39387e-02,-1.12408e-01,-4.93547e-02,-6.99041e-02,1.06712e-01,-6.98903e-03,6.92969e-02,-6.11258e-02,-5.18896e-03,-1.15290e-01,-6.27273e-02,-3.99547e-02,2.52650e-02,-3.77901e-04,-1.00073e-02,-9.57124e-03,-9.07924e-02,-9.29205e-02,4.11732e-02,5.52190e-02,9.72745e-02,-7.10261e-02,-8.81635e-02,-8.02524e-02,-1.00444e-01,6.49764e-03,1.04666e-01,2.39068e-02,8.55067e-02,1.04227e-03,4.71694e-02,-1.21235e-01,8.94601e-02,7.28452e-02,-1.18650e-02,-3.57487e-02,1.20408e-03,-4.81785e-02,-4.98244e-02,1.02056e-01,-3.51970e-02,1.12721e-01,2.93536e-02,-1.27829e-01,-2.31950e-02,-9.34583e-06,2.88125e-02,9.30572e-02,-1.08052e-01,9.58540e-03,3.69181e-02,6.10054e-02,1.05980e-01,8.58907e-02,-1.38810e-02,-8.76286e-02,-1.21754e-01,-9.19147e-02,6.48487e-02,9.65686e-02,7.91831e-02,-1.22737e-01,4.78426e-03,1.18190e-01,-4.88510e-02,1.25695e-01,4.65209e-03,-4.07549e-02,-9.31134e-02,-3.30911e-02,-3.20948e-02,-1.17316e-01,-6.19162e-02,4.38954e-03,8.19266e-02,-8.30099e-02,-5.08021e-02,2.06934e-02,4.01536e-02,-9.67788e-02,-1.71196e-02,2.17462e-02,5.68236e-02,1.07449e-01,-2.53744e-02,8.73422e-02,-8.27592e-02,
-7.43036e-02,-4.73828e-03,-3.60019e-02,7.59828e-02,3.59524e-02,-7.61646e-02,9.01549e-02,-8.80715e-02,4.66871e-02,9.25706e-02,5.47893e-02,9.55849e-02,-9.36471e-02,-9.86948e-02,1.16636e-01,7.85578e-02,-1.28772e-01,-5.94738e-02,5.33695e-02,-1.00088e-01,4.45834e-04,5.80524e-02,1.63970e-02,-9.52820e-02,-1.28109e-01,6.91615e-02,-1.01195e-01,-1.23797e-01,1.21614e-01,-9.23632e-02,8.88764e-02,-9.40373e-02,7.65969e-02,8.51474e-02,9.18077e-02,-8.98878e-02,1.30486e-01,4.35966e-02,2.92029e-02,2.16405e-02,7.97251e-02,5.13285e-02,3.57606e-02,-7.71450e-02,4.30144e-02,-1.00308e-01,-1.41551e-02,1.13952e-02,9.71076e-03,-4.72810e-02,2.69503e-02,1.17052e-01,-2.78136e-02,-2.93139e-02,1.29122e-01,9.55991e-02,-9.18486e-02,-6.88603e-02,-1.17337e-01,1.53878e-01,9.29015e-02,-3.14837e-02,-1.26213e-01,2.95573e-02,-3.76317e-02,-1.40948e-01,6.60560e-02,6.51344e-02,-1.08608e-01,9.38834e-02,1.10624e-01,-4.19879e-02,-5.77737e-02,-2.66804e-02,3.70298e-03,4.34323e-03,3.41373e-02,5.27219e-02,1.04993e-01,1.17631e-01,-7.83329e-02,4.90710e-02,-9.24943e-02,3.99698e-02,1.24078e-01,5.66224e-02,-1.16295e-01,7.65268e-02,3.90092e-02,-2.52109e-02,-1.57385e-03,1.01516e-01,-6.49887e-02,-8.56962e-02,-3.54012e-03,-1.22713e-01,-7.44241e-02,4.56067e-02,5.11415e-03,5.13288e-02,-1.55771e-01,2.96903e-03,-1.26973e-01,-8.01536e-02,1.07914e-01,9.54262e-02,5.12453e-02,-1.04068e-01,-1.08165e-01,2.85648e-02,1.36744e-01,-6.93890e-03,6.76721e-02,-2.91719e-02,8.96358e-03,-6.38416e-02,1.37597e-01,1.12328e-01,-6.16629e-02,1.39505e-02,1.11935e-01,-9.60984e-02,-2.11133e-02,-1.25247e-01,-7.96230e-02,9.31157e-02,1.01557e-02,-9.21869e-02,3.55916e-02,-7.10652e-02,4.33270e-02,1.02091e-01,7.83728e-02,1.50266e-02,-4.95116e-02,-9.33478e-02,7.72371e-02,3.25098e-02,-8.49679e-03,5.03253e-02,-5.91476e-02,6.92715e-02,5.81563e-03,-9.93415e-02,-1.56531e-02,9.07042e-02,-2.72463e-02,-4.21599e-02,-6.37168e-02,1.52312e-01,-7.24949e-03,-3.57356e-02,5.61349e-02,7.71503e-02,-3.35026e-02,6.88426e-02,1.14287e-01,1.12241e-01,-2.27723e-02,-1.24632e-01,9.17483e-02,-6.00664e-02,3.20959e-02,-7.38787e-02,-3.19816e-02,-8.54660e-02,-9.72994e-02,-1.00345e-01,-1.23283e-01,-1.14660e-01,6.53041e-02,6.43601e-02,-3.68863e-02,-1.89880e-02,1.08971e-01,5.11649e-02,-5.82726e-02,3.37604e-02,6.16306e-02,-5.32316e-02,-2.37676e-02,-6.39841e-02,-3.62410e-02,2.60404e-02,-1.23468e-01,7.26419e-03,-7.83863e-02,-8.05422e-02,-9.50681e-02,-7.44636e-02,-2.28629e-02,-8.37238e-02,1.05692e-01,-6.67472e-02,-1.05125e-01,1.42367e-01,-1.17848e-02,-6.69679e-02,-1.37198e-01,-2.23255e-02,
3.21442e-02,9.90745e-02,1.67225e-02,-1.64877e-02,-4.87273e-02,1.06463e-01,1.24502e-01,-1.24463e-01,2.38330e-02,-3.41531e-02,1.03679e-01,-5.06161e-02,-6.29958e-02,-4.04732e-03,-1.03315e-01,9.54045e-02,7.31310e-02,4.07833e-02,4.45329e-02,-1.50311e-01,1.01762e-01,6.03285e-02,1.02785e-01,-6.13745e-02,-9.73165e-02,1.14454e-01,6.41364e-02,8.47133e-03,1.70531e-02,9.07574e-02,-1.11751e-01,1.34499e-02,1.12721e-01,-9.80896e-02,9.74356e-02,6.97612e-02,9.79642e-02,9.56808e-02,-1.97839e-02,-9.76058e-02,6.05628e-02,-9.71799e-02,6.67108e-02,-9.86493e-02,6.57139e-02,-6.46019e-02,1.40999e-02,5.12621e-02,-3.27542e-02,-1.05894e-01,-1.11715e-01,-1.97907e-02,4.93949e-02,-1.45117e-02,-1.08101e-01,4.73789e-02,5.85077e-02,-6.45552e-02,-5.23591e-02,-3.39451e-02,-1.90759e-02,5.76089e-02,-9.88121e-02,2.83975e-03,-1.31524e-01,-7.35081e-02,-9.67923e-03,3.48792e-02,-4.96881e-02,3.04574e-02,-3.25106e-02,-8.86421e-02,8.39979e-02,-1.50896e-02,-9.57183e-02,7.45476e-02,-6.60203e-02,-3.92658e-02,-1.23259e-01,-3.83109e-02,-7.24179e-02,3.11802e-02,-2.68419e-02,-1.09496e-01,-1.00976e-01,-6.99191e-02,-2.73994e-02,-3.06212e-02,1.00918e-01,3.02680e-02,-7.49744e-02,-1.09401e-01,-3.20161e-02,1.09435e-01,-5.28832e-02,2.66169e-02,-1.94985e-02,9.03937e-02,-7.49378e-02,7.19427e-02,-1.27528e-01,-1.30182e-01,1.00225e-01,8.06865e-03,-4.66391e-02,-4.89112e-02,2.39745e-02,-6.83075e-02,-5.13281e-03,-8.77832e-02,7.68472e-02,6.69488e-02,-1.20905e-01,3.57281e-02,-5.22115e-02,7.61738e-02,-5.42210e-02,-1.31804e-01,-5.22458e-02,3.37681e-02,-4.24951e-02,6.23975e-02,-3.67112e-02,-9.47215e-02,-9.98656e-02,4.46313e-02,-1.69448e-02,8.66564e-03,-7.55586e-03,6.24609e-02,-1.62793e-02,8.46494e-02,-1.28032e-02,4.00934e-02,1.02354e-01,-8.30760e-02,5.54669e-02,-5.54368e-02,2.93523e-02,4.68469e-02,-1.08088e-01,-3.61904e-03,-5.47214e-02,6.70849e-02,7.29383e-02,-6.57113e-02,6.28095e-02,-5.85474e-02,1.12045e-01,3.20178e-02,2.75796e-02,8.95158e-02,7.27380e-02,1.15885e-01,-3.38154e-02,1.10823e-01,7.11348e-02,-7.98870e-02,1.08060e-01,9.74712e-02,3.88007e-03,6.12039e-02,-9.03106e-02,-1.82095e-02,-1.15242e-01,-5.26999e-03,8.51346e-02,-3.79076e-02,-6.30361e-02,3.58893e-03,-2.16260e-02,9.01291e-02,-5.21715e-02,5.37165e-02,-1.27119e-01,-2.75658e-02,-1.79509e-02,1.30999e-02,7.13731e-02,4.81242e-02,-2.35998e-02,8.30039e-02,7.86967e-02,4.86666e-02,9.25867e-02,-1.11929e-01,8.15939e-02,-1.02361e-02,-3.85348e-02,-4.11571e-03,-1.11268e-01,-4.37391e-02,-6.71879e-02,1.06455e-01,-5.76740e-02,-5.24162e-02,-2.75485e-04,-2.92702e-02,-4.66798e-02,-1.04084e-01,
9.00470e-02,3.17031e-02,-1.05374e-01,9.86489e-02,-5.94240e-02,-6.47382e-02,2.34712e-02,7.21449e-02,3.14615e-02,9.47583e-02,9.67991e-02,1.24873e-01,-3.93555e-02,-5.52119e-02,-1.00270e-01,-9.46008e-02,9.24460e-02,7.30329e-02,-8.91955e-02,-1.77175e-02,-4.88544e-02,1.13875e-01,1.40489e-02,-6.88051e-02,-7.22983e-02,3.75838e-02,1.97603e-02,-6.59599e-02,4.71900e-02,-1.05680e-01,5.98422e-03,-6.30417e-02,3.01322e-02,5.92649e-02,-1.04127e-01,9.48115e-02,-4.87778e-02,1.35880e-03,-1.13760e-01,2.50332e-02,-5.53800e-02,-3.38761e-02,-9.36403e-02,5.74571e-03,2.70048e-02,-3.71246e-02,-3.11447e-02,-1.97974e-02,-1.24156e-02,-1.09194e-01,6.24127e-03,6.35490e-03,-2.45405e-02,-2.40311e-02,1.31390e-01,1.24227e-02,-1.00934e-01,2.20730e-02,-4.87484e-02,-3.36501e-02,3.44445e-02,5.28372e-03,-1.15327e-01,-1.07346e-01,3.93570e-02,6.29530e-02,3.28264e-02,8.31351e-02,-3.92490e-02,-2.76444e-02,-6.27682e-02,-4.38422e-02,5.67472e-02,-6.40080e-02,6.45126e-02,-9.19575e-02,2.98735e-02,-9.86085e-02,-1.62537e-02,-8.95360e-02,4.30830e-02,1.03026e-01,-1.36009e-02,5.94967e-02,7.71332e-02,7.17362e-04,-3.10806e-02,1.15815e-01,2.95228e-02,2.78048e-02,-3.26466e-02,4.01816e-02,-1.01199e-01,-4.84784e-02,2.08184e-02,6.10809e-02,-1.17931e-02,-5.47117e-03,-7.42842e-03,5.90824e-02,-2.75421e-03,-8.37593e-02,-6.97885e-02,-1.13123e-01,1.09079e-04,3.17568e-02,4.62735e-02,-7.05099e-02,-8.16326e-02,-5.74030e-02,-2.70792e-03,-2.28108e-02,9.22852e-02,1.03117e-01,8.71829e-02,5.99979e-02,1.75037e-02,-9.88188e-02,6.38450e-02,-1.51772e-02,9.18266e-02,4.52126e-02,4.45646e-02,2.91546e-02,2.33029e-02,2.11882e-03,1.67159e-02,-1.21394e-01,1.23763e-01,3.96909e-02,8.92195e-02,-7.37057e-02,-1.12854e-01,7.17051e-02,-6.71787e-02,-9.90374e-02,-5.36330e-02,-9.64875e-02,7.14958e-02,-1.42792e-02,3.16703e-03,4.75037e-02,1.01039e-01,5.12859e-03,-1.13499e-01,-5.51359e-02,-9.58800e-02,5.94095e-02,-1.04984e-01,-1.04677e-01,-1.01273e-01,-9.04669e-02,-1.19055e-01,8.20457e-02,-1.03470e-01,-2.89255e-02,3.42152e-02,1.51222e-02,7.02379e-02,-4.45662e-02,8.53266e-02,-8.14517e-02,3.08420e-02,1.59285e-02,-2.34310e-02,-7.23749e-02,8.42191e-03,-2.55399e-02,-5.87128e-03,-1.07077e-01,8.29666e-02,-1.25913e-02,-1.47007e-02,4.88299e-02,-4.65327e-02,-3.12181e-02,-1.29566e-01,-8.04208e-03,-5.44384e-02,-3.98450e-02,-1.12116e-01,-4.35627e-03,7.62846e-02,1.11965e-01,2.33344e-02,4.43782e-02,-1.46337e-02,1.18865e-01,6.21228e-03,-4.42975e-02,5.56506e-02,-1.01238e-02,-5.97166e-02,-1.21868e-01,4.56380e-02,8.99751e-02,-1.09131e-01,6.78392e-02,-1.31504e-01,-2.50791e-02,
2.30746e-02,9.36338e-02,3.07116e-02,-1.23605e-01,6.30266e-02,-1.13296e-01,9.94821e-03,7.76130e-02,8.96463e-02,-1.11526e-01,8.00536e-02,-8.78618e-02,-3.20953e-02,7.70606e-02,4.94091e-02,1.04983e-01,4.44567e-02,3.98744e-03,4.65125e-03,7.84244e-02,2.79020e-02,-9.96953e-02,-5.45834e-02,4.88362e-02,8.65866e-02,5.00597e-02,8.78126e-02,6.68196e-02,5.61331e-02,-6.18667e-02,-2.00466e-02,-8.73022e-02,-2.50097e-02,-8.29484e-02,-3.38982e-02,3.48333e-02,-6.80917e-02,-7.28005e-02,-2.07307e-02,9.92444e-02,1.49606e-02,-5.91620e-02,-9.00112e-02,1.64551e-02,-9.12091e-02,4.28284e-02,-1.21781e-01,-1.06492e-01,-1.27730e-01,1.51242e-02,8.58035e-02,7.73121e-02,9.68493e-02,-1.22974e-02,-3.66029e-02,-7.65908e-02,-8.26090e-02,8.05949e-02,-3.76054e-02,-2.96250e-03,7.48459e-02,-1.99942e-03,-4.86896e-02,-3.08115e-02,-2.52128e-02,-1.94673e-02,1.00429e-01,-1.56361e-02,6.35845e-02,-6.41300e-02,1.06644e-01,-7.65596e-02,3.88903e-02,9.08324e-02,1.09774e-01,-7.75399e-02,-7.17242e-02,-8.66229e-02,-3.29922e-02,-8.68902e-02,-1.19788e-01,-5.96959e-02,7.17005e-02,1.10752e-01,9.09349e-02,-2.79924e-02,-1.21154e-01,8.48707e-02,-1.31298e-01,-5.58646e-02,-6.88264e-02,-3.24796e-02,-5.03139e-02,1.87002e-02,-1.74050e-02,1.04722e-01,3.15902e-02,1.00413e-01,3.07133e-04,2.55227e-02,5.32774e-02,-6.20335e-02,2.05610e-02,-1.21370e-01,1.34858e-02,-4.87190e-02,-1.14486e-01,9.40510e-02,-5.07640e-02,-8.29304e-02,-5.72093e-02,-2.18738e-02,2.17458e-02,-4.39581e-02,-9.88234e-02,6.76129e-02,-3.62735e-02,4.87883e-02,-1.04829e-01,-2.03203e-02,7.53590e-02,-2.23450e-02,-1.09050e-01,6.51892e-02,6.84337e-02,8.37337e-03,1.45154e-02,-9.95715e-02,-5.45690e-02,8.35932e-02,-7.74132e-02,4.06449e-02,9.14105e-02,-1.01587e-01,4.31794e-02,-1.29548e-01,1.02543e-01,-1.87363e-02,-4.36178e-02,-9.51263e-02,-9.47107e-02,-1.29322e-01,7.50083e-02,4.55956e-02,-7.58745e-02,-1.09063e-01,9.66264e-02,-2.18951e-02,6.51769e-02,9.07217e-02,-1.13897e-01,-1.13931e-01,6.21969e-02,-3.99838e-02,2.08971e-02,3.53448e-02,1.05079e-01,8.16915e-02,-9.53886e-02,-4.56277e-02,7.00331e-02,-2.65296e-02,-5.18400e-02,-8.30154e-02,9.19837e-02,5.31511e-02,4.65725e-02,4.23858e-02,5.33624e-02,-1.14257e-01,7.97441e-02,3.71830e-02,7.00545e-02,-1.23719e-01,-1.28420e-01,9.15356e-02,-1.89222e-02,-6.64862e-02,1.06307e-01,-9.26367e-02,-6.68109e-02,-1.40088e-02,1.00555e-01,7.81502e-02,2.79060e-02,-4.31764e-02,3.57006e-02,5.90276e-02,-1.15098e-01,1.03396e-01,-9.42431e-02,8.00292e-02,1.68743e-02,-5.41396e-02,8.53354e-02,-6.41434e-02,7.63321e-03,-1.14625e-01,8.40391e-02,-6.55065e-02,
1.72679e-02,1.22788e-01,-9.48777e-02,3.32192e-02,5.97362e-02,7.00319e-02,1.21256e-01,4.08156e-02,2.84658e-02,-5.79348e-02,-1.17262e-02,-9.21062e-03,-8.81114e-02,-7.48627e-02,-1.14679e-01,1.13439e-01,1.33016e-02,-5.58121e-02,2.31379e-02,-9.24844e-02,3.51928e-02,1.83938e-02,-1.90957e-02,-3.86092e-02,-2.63840e-02,8.85852e-02,-3.56018e-02,-9.58469e-02,7.58730e-03,7.75515e-02,2.06457e-02,-5.77824e-02,5.78193e-02,2.97272e-02,-4.71926e-03,-3.68473e-02,-2.58942e-02,9.17238e-02,-4.28947e-02,6.54361e-03,4.57711e-03,2.94784e-03,1.00374e-01,2.41848e-02,-2.81917e-02,-1.20738e-01,2.79823e-02,1.12381e-01,7.39000e-02,1.06281e-01,2.34614e-03,5.44368e-02,7.38480e-02,-1.18873e-01,-1.03981e-01,-5.57057e-02,4.15535e-02,1.69084e-03,1.08664e-01,-5.17145e-02,9.51930e-02,-6.26530e-02,-1.48853e-02,-8.15201e-02,9.09223e-02,-8.85130e-02,-7.46561e-02,9.79247e-02,1.00438e-01,-8.51164e-02,-4.55460e-02,-5.18968e-02,-6.48568e-02,1.58357e-02,-4.45126e-02,-1.16259e-01,1.15557e-01,-7.20845e-02,-3.22287e-02,5.16710e-02,8.12734e-02,3.21464e-02,-1.34014e-03,-7.21880e-02,-9.30487e-02,2.58278e-02,-2.87543e-02,-2.45947e-02,2.11848e-02,9.10537e-02,8.44341e-02,9.53452e-03,8.53465e-02,-1.01173e-01,-1.04260e-01,-1.15875e-01,-9.48439e-02,-7.26867e-02,6.17983e-02,-9.46571e-02,-6.12312e-02,-9.87661e-02,6.71159e-02,-1.83761e-02,4.64968e-02,1.07608e-01,-5.12151e-02,-4.80812e-02,5.96232e-02,-1.07895e-01,3.63998e-02,-4.36315e-02,-4.83514e-02,-7.36825e-02,4.82728e-02,6.91689e-02,-1.58960e-02,-3.83018e-03,-7.33172e-02,-5.65963e-02,1.19667e-02,-1.26665e-01,1.04406e-01,8.62993e-02,4.48334e-02,-1.97194e-02,1.07284e-01,-2.96825e-02,6.70799e-03,4.52036e-02,-5.62646e-02,6.04419e-02,8.76422e-02,-7.28119e-02,1.22363e-02,-2.78272e-02,-3.19731e-02,3.67329e-02,-1.03554e-01,-4.50964e-02,5.31551e-02,-1.07976e-01,6.39451e-02,-4.37442e-02,5.32807e-02,8.98010e-02,8.84563e-02,6.70814e-02,3.04559e-02,-1.31325e-01,-7.73222e-02,9.96073e-02,2.36372e-02,-4.47695e-02,-2.04855e-02,5.25647e-02,-5.97999e-02,-3.32407e-02,4.32197e-02,7.93218e-02,1.34201e-02,-1.21876e-01,2.39424e-02,-7.64966e-03,-8.09110e-02,1.10081e-01,-8.69910e-02,1.61381e-03,-7.01330e-02,-1.30614e-01,-6.28325e-02,2.08306e-02,-3.38246e-02,7.15913e-02,-6.19028e-02,-9.89810e-02,-1.23913e-01,-3.66732e-02,1.73211e-02,3.07373e-02,1.11524e-01,-4.16820e-03,-4.24080e-03,-5.80838e-02,6.33052e-02,8.82788e-02,-4.49369e-02,2.90228e-02,1.04509e-01,4.69160e-02,-4.77531e-02,-5.85991e-02,-3.61706e-02,-1.02904e-01,-9.91071e-02,-7.52381e-02,-1.03219e-01,-1.02310e-01,-7.82482e-02,-1.74312e-02,
4.59076e-02,-7.90107e-02,7.81989e-02,5.72329e-02,6.50895e-02,1.00678e-01,-1.54966e-01,3.06459e-02,-3.20909e-02,1.21988e-01,5.03757e-02,5.56308e-02,-5.51737e-02,9.98246e-02,1.40984e-02,-1.41024e-02,-1.20415e-01,1.04273e-01,-7.26620e-02,-1.95183e-02,1.23936e-01,-1.10912e-01,1.87707e-02,-8.36820e-02,-8.59009e-02,-5.22271e-02,1.03981e-01,9.50735e-02,1.15778e-02,8.77199e-02,-1.14357e-01,1.66303e-02,-1.10088e-01,-1.26853e-02,6.17190e-02,1.86276e-02,-5.01085e-02,-1.27096e-01,-4.90907e-02,-7.15483e-02,9.31362e-02,6.86331e-03,-5.36347e-02,1.14044e-01,-2.54091e-02,-1.03377e-01,-1.15905e-01,8.76076e-02,4.21097e-02,5.51857e-02,5.85525e-03,1.01875e-02,4.31586e-02,-6.53011e-02,9.30967e-02,-1.70265e-02,-7.95639e-02,-5.19833e-02,-1.55610e-01,-7.05788e-02,-5.72724e-02,-7.79363e-02,8.03584e-02,1.10050e-01,-1.07326e-01,3.79089e-02,2.94723e-02,6.08408e-02,1.34310e-01,-7.26813e-02,1.15285e-01,-4.62082e-02,-7.76573e-02,1.29820e-02,1.98575e-02,4.58927e-02,-9.05108e-02,-9.99515e-02,-6.63979e-02,6.97089e-02,-5.35014e-02,3.37835e-02,9.00816e-02,1.04348e-01,-3.64584e-02,1.16344e-01,-1.16342e-01,8.51459e-02,1.20155e-03,1.13415e-02,3.64708e-02,2.89438e-02,6.73500e-02,-5.67874e-02,-8.78007e-02,6.88758e-02,1.21153e-01,6.73641e-02,7.29112e-02,-2.14154e-02,-1.27095e-01,2.90232e-02,2.78843e-02,-3.62519e-02,-3.63451e-02,-1.15654e-01,-2.86038e-02,6.90155e-02,5.46551e-02,-7.38843e-02,5.87932e-02,-9.68515e-02,-5.70774e-02,9.69683e-02,1.23469e-02,-3.84952e-02,1.05868e-01,-1.37184e-02,4.06130e-02,-9.81866e-02,5.42634e-02,-6.41465e-02,8.13979e-02,8.83338e-02,-1.23775e-01,1.05558e-01,1.01189e-01,9.70049e-03,-6.23811e-02,-2.12560e-02,1.47142e-01,1.38793e-01,7.19145e-02,4.81314e-02,-9.98443e-03,1.11861e-01,-6.96557e-02,1.13971e-01,-1.11976e-01,-1.46234e-02,3.98207e-02,1.07751e-01,-7.16984e-02,-9.73562e-02,-1.28763e-01,-9.75310e-02,-1.07746e-01,3.65398e-02,9.88073e-02,1.27455e-01,5.06782e-02,-4.49983e-02,1.87878e-03,-3.84651e-02,9.11683e-03,1.19041e-01,1.23686e-02,5.68162e-02,-6.13508e-02,-1.07329e-01,8.53521e-02,-1.05424e-01,-1.06005e-01,4.88606e-03,-1.03754e-02,9.17121e-02,-8.28969e-02,1.18324e-01,1.11794e-01,5.59141e-02,-1.48897e-01,-5.77521e-02,5.41698e-02,-1.14839e-01,8.52511e-02,-3.84804e-02,7.83641e-02,1.10032e-01,-3.70853e-02,-6.20622e-02,5.03528e-02,8.98789e-02,-6.90469e-02,-1.47411e-02,6.27661e-02,2.73769e-02,6.66473e-02,1.05237e-01,-6.46377e-02,1.85341e-02,-1.77443e-02,-1.58360e-02,2.21387e-02,1.07226e-01,-1.37711e-01,1.43734e-01,4.78857e-02,1.14126e-01,-2.06485e-02,-1.29443e-02,
-7.33408e-02,1.19390e-01,1.10526e-01,-3.94871e-02,4.88131e-02,-5.14348e-02,-6.99058e-04,1.03587e-01,-1.30114e-01,2.34069e-02,5.21626e-02,4.47184e-02,2.61394e-02,-6.25373e-02,-7.32728e-02,-7.74420e-02,7.83656e-02,1.01346e-01,-3.73575e-02,-2.28587e-02,-2.69160e-02,9.23009e-02,6.34721e-02,-8.10181e-02,1.61354e-02,-2.01684e-02,-8.93846e-02,-8.38104e-02,3.97020e-02,-9.00752e-02,-1.56176e-03,9.69091e-02,-7.48513e-02,5.60048e-02,1.60262e-02,-7.53148e-02,1.71118e-02,-7.63566e-03,-2.19497e-02,-6.05290e-02,-3.44560e-02,-6.19961e-02,2.08743e-02,-9.72121e-03,8.62151e-02,-1.07479e-01,-1.24419e-01,-2.76538e-02,1.15579e-02,2.37970e-02,1.78832e-02,-8.77693e-03,4.10917e-04,3.65851e-02,-7.74358e-02,6.65388e-02,8.13383e-02,3.82742e-02,3.06427e-03,1.05901e-02,-2.44790e-02,4.90993e-02,-2.47956e-02,-6.94151e-02,-4.74581e-02,8.51630e-02,1.15445e-01,9.19374e-02,5.53902e-02,8.32568e-02,-1.18705e-02,-6.59921e-03,-5.04271e-02,1.02794e-01,-7.05079e-02,-2.38035e-02,5.82121e-02,1.16263e-01,-7.21307e-03,1.11545e-01,8.60057e-02,4.66230e-02,1.46551e-02,9.36612e-03,-7.68892e-02,5.29095e-02,-6.50278e-02,4.18080e-02,6.93592e-02,-1.14423e-01,-1.29782e-02,-2.01401e-02,-2.08727e-02,-1.12821e-01,-1.15796e-01,-7.02002e-02,-6.39952e-02,-1.09739e-02,-6.94042e-02,3.65192e-02,-1.03778e-01,-1.07986e-01,2.39445e-02,8.17922e-03,-9.88636e-02,-7.06357e-02,-1.03503e-01,2.28517e-02,8.16789e-02,-7.51028e-02,-5.51933e-02,5.52818e-02,4.07040e-02,1.43427e-01,-5.81080e-02,1.24773e-01,-3.48174e-02,7.98644e-02,3.05684e-02,4.62237e-03,6.82859e-02,-1.20350e-01,-1.44145e-01,-8.60196e-03,-9.68377e-02,-4.04812e-04,4.07843e-02,3.96332e-02,1.01313e-01,6.48557e-02,-7.03316e-02,-2.22312e-02,-1.01905e-01,-4.28253e-03,9.49012e-02,2.88250e-02,-6.57409e-02,1.24908e-01,-7.73728e-02,-1.12167e-02,-6.17774e-02,1.01987e-01,8.66379e-02,-5.43474e-02,6.56667e-03,-3.17768e-02,-7.61504e-02,8.96316e-02,-2.39938e-02,1.42202e-01,1.46461e-02,-7.63872e-02,-7.05661e-02,-5.37458e-02,1.16707e-01,7.00795e-02,1.06944e-01,-2.58220e-03,9.34150e-02,8.36520e-02,8.87948e-02,2.36056e-02,1.10688e-02,-8.78670e-02,1.20956e-01,-9.41532e-02,-7.13997e-02,-6.67269e-02,-2.64881e-02,-2.09980e-02,-1.33279e-01,-3.28357e-02,-8.78803e-02,4.28093e-02,2.21629e-02,-1.19134e-01,1.29323e-01,8.10409e-02,1.12213e-01,-3.44416e-02,-4.89382e-02,6.96125e-02,4.05353e-02,-1.59024e-01,4.66613e-05,6.41694e-02,3.65910e-02,-2.12834e-02,4.01217e-02,4.60070e-02,7.13438e-03,9.75396e-02,-9.15424e-02,-4.09890e-02,6.52012e-02,-3.24486e-02,-2.51501e-02,1.00094e-01,-6.90266e-02,6.49347e-02,
9.70932e-02,-5.64720e-02,-1.10021e-01,-3.20551e-02,1.05248e-01,4.65707e-02,6.86135e-02,-7.87020e-02,-1.64543e-03,-2.55878e-02,8.68371e-02,2.68372e-02,-1.13542e-01,9.01959e-02,2.13817e-02,-2.73260e-02,7.46624e-02,7.55346e-02,6.06613e-02,9.85544e-02,-1.36366e-01,-2.54273e-03,8.10508e-02,-8.23271e-02,1.22183e-01,-4.84532e-02,9.61017e-02,-7.03092e-02,5.13476e-02,8.06592e-02,-1.90496e-02,1.70055e-02,6.25847e-02,5.10595e-02,-8.52440e-02,-9.31577e-02,3.69969e-02,1.23561e-01,-1.20948e-01,-2.37216e-02,1.90304e-02,-1.09232e-01,7.60761e-02,-3.95210e-02,7.68819e-02,1.56868e-02,-8.03939e-02,-2.57298e-02,6.61342e-02,1.14878e-01,-9.73328e-02,-4.11489e-03,2.18384e-02,-1.70917e-02,-7.96027e-02,-1.00974e-01,1.02095e-01,1.17416e-01,4.11064e-02,-5.34525e-02,3.20533e-02,-2.17489e-02,2.92109e-04,-8.75268e-02,1.47714e-02,-1.85538e-02,-8.31678e-02,-1.86020e-02,-1.01054e-01,-1.23604e-02,1.10167e-01,7.15023e-02,-2.02509e-02,-1.83628e-02,-3.48703e-02,-3.65240e-02,1.55007e-02,1.19557e-01,3.10222e-02,-1.52970e-02,8.96381e-02,8.46703e-02,2.06296e-02,-1.17653e-01,-4.39394e-02,-7.87113e-02,-5.47852e-02,-7.79239e-02,-4.28135e-02,4.47110e-02,2.08359e-02,8.81811e-02,1.32601e-01,6.33707e-02,-2.86562e-02,-1.11121e-01,6.85404e-02,-7.08174e-02,-1.00080e-01,-2.78817e-02,-9.00652e-02,1.08198e-03,8.10553e-02,-2.50718e-02,1.02952e-01,1.19530e-02,-4.84622e-02,2.15104e-02,-8.34047e-02,-2.50074e-02,7.84417e-02,2.44559e-02,5.58504e-02,-1.25299e-01,3.81726e-02,8.60777e-02,-9.35480e-02,-1.13214e-01,6.42974e-02,4.42149e-02,8.09966e-02,-5.47566e-02,-7.24171e-02,1.19091e-02,4.90526e-02,-1.14016e-01,-1.24624e-02,1.00292e-01,2.04989e-02,1.00365e-01,3.73244e-02,-8.83398e-02,9.13614e-03,5.96411e-02,1.19440e-02,-4.64043e-02,-8.12927e-02,-6.88449e-02,-3.37738e-02,-1.83602e-02,9.99316e-02,-1.40921e-02,-1.22737e-01,-6.63929e-02,8.53691e-02,-7.84259e-03,-7.68784e-02,-6.10267e-02,1.24290e-01,-5.46009e-02,7.57159e-02,6.78934e-02,7.90786e-02,9.08520e-02,-7.67829e-02,1.21110e-01,1.40807e-01,-7.21325e-02,6.35184e-03,-8.73685e-02,8.90392e-02,1.22078e-01,4.49803e-02,1.11178e-01,-2.05546e-02,6.94773e-02,1.39953e-02,-3.90061e-02,1.36635e-02,-3.47375e-02,4.18406e-05,-4.34538e-02,-1.09244e-01,-1.23300e-02,-1.69924e-02,9.82866e-02,-4.44732e-02,3.55573e-02,-7.93521e-02,-6.22369e-02,6.35054e-02,8.27720e-02,-3.84917e-02,5.64461e-02,-4.69849e-02,8.93344e-03,2.64956e-02,-8.42780e-02,1.40525e-01,-6.88244e-02,1.20713e-01,3.45892e-02,4.12054e-02,-1.00841e-01,-8.79648e-02,7.70642e-02,-4.55028e-02,-2.85979e-02,1.65031e-02,-7.10207e-03,
9.70831e-02,9.05175e-03,1.01515e-02,-1.90922e-02,1.52412e-02,-1.38102e-02,-4.55917e-02,-1.10786e-01,1.04243e-01,8.97780e-02,-1.23552e-01,-1.06531e-01,-1.10496e-01,-2.59156e-02,6.50956e-02,-1.31870e-01,-3.61217e-02,9.37049e-02,2.52048e-02,-8.67516e-02,7.87557e-02,7.58902e-02,-1.04248e-01,-5.84965e-02,1.08127e-01,-1.06222e-01,-3.53540e-02,4.10908e-02,7.85849e-02,-3.47027e-02,3.22778e-02,4.85594e-02,-1.15191e-02,-1.26318e-01,-1.55813e-02,-9.62413e-02,2.04846e-02,8.22252e-02,2.82840e-02,-8.52296e-02,1.14899e-02,4.77752e-02,-1.17491e-01,-1.10854e-01,-1.10944e-01,2.65513e-02,-2.41868e-02,-5.77357e-02,-5.92923e-02,-2.16237e-02,-9.02157e-02,6.40269e-03,9.33652e-02,-5.12968e-03,4.25874e-02,-8.66441e-02,-3.79102e-02,-9.77477e-02,5.26670e-03,-5.94993e-02,7.68790e-02,-4.45653e-02,-8.18230e-02,6.49410e-02,-3.64442e-02,-3.09157e-02,-4.23479e-02,9.52929e-02,2.23426e-02,-2.67376e-04,5.39177e-02,-9.43507e-02,1.04005e-01,-1.84886e-02,-4.49461e-03,6.06212e-02,-1.65182e-03,-8.87221e-02,9.82260e-02,2.39502e-02,-6.27935e-02,3.38916e-02,5.91907e-02,1.57892e-02,-1.05571e-01,2.16979e-02,-3.51561e-02,1.04638e-01,-1.25510e-03,1.67360e-02,-8.93613e-02,2.38119e-02,6.71923e-02,8.49930e-02,6.86581e-02,9.52866e-02,6.38112e-02,-8.71665e-02,-9.29916e-02,-2.63595e-02,-2.56981e-02,6.79858e-02,1.33427e-02,-4.00069e-02,3.69260e-02,-4.24948e-02,9.15593e-02,-2.00189e-02,1.69651e-03,-1.19111e-01,-7.88390e-02,-6.32991e-02,-4.04991e-02,7.15000e-02,-2.77795e-02,-9.64909e-02,1.16680e-01,-5.61036e-02,1.00267e-01,3.71303e-05,-7.57586e-03,8.00792e-02,1.75741e-02,-1.09439e-01,5.25101e-02,2.68558e-02,1.27719e-01,-1.08385e-01,1.15381e-01,1.02091e-02,2.00296e-02,6.86559e-02,6.76370e-02,-5.48621e-02,-6.44258e-02,9.14548e-02,5.92243e-02,3.77014e-02,-1.21332e-02,6.40811e-02,-1.12834e-01,-5.18145e-02,-4.47155e-02,-6.66159e-02,-8.01950e-02,9.82549e-02,-5.18974e-02,-1.01588e-01,1.42140e-02,2.72869e-02,3.49548e-02,-8.97768e-02,-6.09286e-02,-3.11170e-02,9.80453e-02,-7.02205e-02,-3.74393e-02,6.91746e-02,3.09135e-02,5.73561e-02,-1.87477e-02,7.26619e-02,-1.30327e-01,-9.48671e-02,-6.20468e-03,1.06497e-01,-5.60017e-02,-4.18012e-02,-1.10969e-01,-7.43409e-02,-1.17442e-01,-6.18431e-03,2.54012e-02,7.95822e-02,-7.24962e-02,-7.61952e-02,-8.72668e-02,1.13027e-01,-6.82671e-02,-8.05980e-02,8.12669e-02,3.73673e-02,3.50020e-03,-9.74631e-02,4.05448e-02,7.61396e-02,-6.75452e-02,8.40770e-02,-5.90029e-02,7.23366e-02,-6.82241e-02,3.09794e-02,-8.69206e-02,-5.89710e-02,-7.30123e-02,6.17323e-02,2.79263e-02,6.87710e-02,-5.98262e-02,8.34920e-02,
3.03360e-02,8.61383e-02,1.46120e-01,-4.90879e-02,-1.21880e-01,4.95144e-02,6.91439e-02,1.05802e-01,-9.67347e-02,-1.01062e-01,4.12125e-02,5.19945e-02,1.31352e-01,8.43957e-02,-1.79991e-03,1.37046e-02,-4.31647e-02,-1.51589e-02,-5.45904e-02,-1.92987e-02,1.02488e-01,-1.15450e-01,-3.79967e-02,2.89405e-02,1.03427e-01,1.02938e-01,-3.69606e-02,-1.09095e-01,1.29882e-01,-6.75425e-02,-6.30571e-02,-1.08952e-02,-8.84899e-02,1.00494e-01,8.94222e-02,-8.10235e-02,-4.77469e-02,3.12516e-02,9.13671e-02,-5.41065e-02,-3.99201e-03,2.38617e-02,6.84372e-02,-5.78866e-02,-4.50333e-02,-3.43123e-02,-7.29791e-02,1.51307e-03,-3.70841e-02,9.31267e-02,-7.50056e-02,3.92583e-02,2.73318e-02,-1.20753e-01,4.71298e-02,-3.63394e-03,-1.25093e-01,-1.53494e-01,3.62959e-02,1.69060e-01,-7.67067e-02,-1.12703e-01,6.87448e-02,-1.13672e-01,-4.27493e-02,6.03949e-02,1.53036e-01,-1.49934e-01,-2.48991e-02,6.09597e-02,8.37140e-02,8.42964e-02,1.05619e-02,8.15274e-02,6.68747e-02,-5.74137e-02,-3.32475e-02,1.09446e-02,1.20747e-02,-1.12825e-05,-9.36148e-02,-6.97505e-02,-3.92199e-02,5.95949e-03,-1.08522e-01,9.26512e-03,2.36707e-02,-1.07870e-01,1.87372e-02,6.79601e-02,8.21648e-02,7.77561e-02,-4.69200e-02,-7.91948e-02,4.25045e-02,-5.96718e-02,5.75393e-02,8.50618e-02,-9.83771e-02,1.55312e-02,9.72893e-03,6.63412e-02,9.48881e-02,-4.77255e-02,-9.38129e-02,9.50199e-02,5.18807e-02,-1.85474e-02,-6.04904e-02,2.68501e-02,1.51360e-01,2.55567e-02,-1.59024e-02,-4.09438e-02,7.69760e-02,-6.42397e-02,1.52690e-01,1.78331e-02,1.20094e-01,1.50672e-01,-3.58795e-02,-8.30392e-02,-1.51002e-01,5.74887e-02,-8.86072e-02,-8.23614e-02,8.82830e-02,-8.77495e-02,-9.56474e-02,-1.08914e-02,-6.72433e-02,1.07807e-01,-5.32993e-02,-3.87698e-02,-4.90599e-02,-8.23839e-02,6.04539e-02,-7.37490e-02,6.39466e-02,6.68146e-02,-6.57135e-02,-8.24214e-02,-5.79151e-02,2.01265e-02,-1.32759e-01,-1.24731e-01,-3.20571e-02,-5.25753e-02,3.91451e-03,7.75746e-02,-1.29512e-02,5.17866e-02,-9.66498e-02,-1.69861e-02,1.25272e-01,1.28777e-02,-1.13014e-01,3.54954e-02,-4.19936e-02,-7.22275e-02,1.07528e-01,-1.15735e-01,-3.53432e-02,-3.11750e-03,6.46956e-02,8.72490e-02,1.10279e-02,-2.42346e-02,7.47462e-02,-1.46189e-02,-4.74752e-03,-4.69375e-02,1.46663e-01,-1.23816e-01,5.63989e-02,-5.72265e-02,7.37145e-02,-1.02593e-01,-6.90052e-02,-8.63599e-02,-9.77414e-02,7.59013e-02,8.45093e-02,5.76817e-02,-2.44143e-02,-1.97921e-02,-8.39320e-02,-8.85368e-02,-9.83673e-02,4.29951e-02,-8.63640e-02,-4.05101e-02,-3.56466e-02,-5.97418e-02,1.04841e-01,-3.16854e-02,-3.75893e-02,-6.70409e-02,-1.20713e-01,-1.01027e-01,
1.25944e-01,-3.31354e-02,7.41358e-02,1.26801e-01,-1.80828e-02,3.86707e-02,1.22696e-01,-1.10219e-01,-6.67843e-02,-7.06568e-03,-9.15216e-04,-1.06400e-01,1.05077e-01,6.71473e-03,-2.47077e-02,-1.25713e-01,-2.62159e-02,-6.21200e-02,3.57021e-03,-1.03316e-01,7.59829e-02,3.80814e-03,-4.87715e-02,-2.07940e-02,-7.99667e-02,3.95136e-02,-5.78913e-02,-5.08530e-02,9.76064e-02,-8.45498e-02,1.11998e-01,-2.26122e-02,7.28028e-02,-4.47793e-02,1.37776e-01,-6.12204e-02,4.30262e-02,6.69019e-02,-1.60696e-02,4.71614e-02,-2.68317e-02,9.86546e-03,2.09564e-02,-3.77623e-02,-1.17620e-01,-3.87918e-02,-1.11268e-01,3.21065e-02,-6.42018e-02,-9.36640e-02,-1.52231e-03,1.38245e-01,9.70925e-03,-5.77449e-02,-1.33336e-02,-9.72500e-02,-8.78394e-02,7.69247e-02,-2.16538e-02,-7.79660e-02,-8.25646e-02,-1.04197e-01,1.38440e-01,-6.93810e-02,-3.16147e-03,-8.97100e-02,4.35754e-02,-2.24848e-04,-8.49964e-03,1.42508e-02,5.55790e-02,1.00626e-01,1.14719e-01,-9.75186e-02,-9.93575e-02,1.10904e-02,-3.80586e-02,-1.69292e-02,1.47657e-01,2.45744e-02,2.22657e-02,1.31409e-01,1.33218e-01,-1.11862e-02,-1.27543e-01,-4.88359e-03,8.17859e-04,-6.22840e-02,-1.15125e-01,-1.15009e-01,-8.08230e-02,-9.22154e-02,9.06805e-03,-8.21257e-02,-7.84314e-02,7.75341e-02,-2.22830e-03,7.66100e-03,-6.35591e-02,-1.19148e-02,-5.69934e-02,-7.53656e-02,6.81244e-02,6.22573e-02,-4.38570e-02,6.18477e-02,3.39788e-02,-2.73282e-02,1.29996e-01,7.79167e-02,1.71091e-01,1.40147e-01,1.63099e-02,4.76933e-02,-8.19721e-02,1.28196e-01,9.46062e-02,-5.12656e-02,-1.89658e-02,4.24980e-02,-8.42229e-02,1.03609e-02,-5.16684e-02,-4.82379e-03,-9.01220e-02,1.24079e-01,-1.19196e-01,2.57423e-02,-1.02415e-01,-1.63825e-03,-2.73765e-02,1.33940e-01,7.36599e-02,-8.13655e-02,5.20920e-02,-3.47767e-02,-1.86939e-02,1.29823e-01,-5.67630e-02,-1.96041e-02,-5.43430e-02,1.02771e-01,-7.04529e-02,5.23529e-02,-2.15917e-02,-1.87096e-02,2.75052e-02,-6.90257e-02,-1.12350e-01,-5.32668e-02,5.70571e-03,4.26971e-02,1.30716e-01,-9.41026e-02,3.15842e-02,-1.07598e-01,9.54623e-02,-1.68639e-02,2.69541e-02,9.79223e-02,-6.26976e-03,5.42605e-02,1.39748e-02,-8.48454e-02,1.11858e-02,5.61577e-02,2.62981e-02,-5.72450e-02,9.98365e-02,3.35070e-02,3.57644e-02,-2.54628e-02,8.77704e-02,1.86130e-02,-9.69890e-02,-4.71120e-02,7.01572e-02,-2.35714e-02,1.05916e-01,-1.09027e-01,2.74814e-02,-1.63737e-02,-6.34821e-02,-1.26733e-01,1.04584e-01,1.21805e-01,1.22871e-01,-7.90934e-02,-1.86616e-02,2.43155e-02,3.73788e-03,-9.98421e-02,-3.94676e-04,-8.49726e-02,1.12577e-01,-3.15778e-02,-1.84496e-02,5.21480e-02,-9.43994e-02,3.07650e-02,
4.80857e-02,7.89618e-02,6.03601e-02,1.17124e-01,7.63563e-02,-9.09458e-02,-2.50831e-02,-8.16166e-02,-5.56382e-02,-7.12475e-02,9.14575e-02,-5.65402e-02,-5.45687e-02,-2.16125e-02,8.48655e-02,-6.94466e-02,-7.00413e-02,-7.39168e-02,1.44285e-02,6.66401e-02,-7.39049e-02,-6.01613e-02,8.67228e-02,4.25334e-03,-4.55555e-02,-7.06711e-02,7.54757e-02,4.39291e-02,6.74170e-02,8.76322e-03,-1.22199e-01,-1.44618e-01,3.90251e-02,1.29998e-01,5.95298e-02,-1.25702e-01,1.04470e-01,-3.34245e-03,-2.48986e-04,-1.05054e-02,-7.26288e-02,-6.31948e-03,5.82302e-02,1.16722e-01,5.06247e-02,-1.06745e-01,-9.34685e-02,-3.85403e-02,3.74250e-02,-6.61186e-02,-8.63712e-02,5.22845e-03,1.18590e-01,3.86991e-02,2.82827e-02,-5.09988e-02,6.70977e-02,-3.55274e-02,6.14006e-02,7.27616e-02,3.70220e-02,4.07364e-02,7.18398e-02,-1.23704e-01,-1.16229e-01,-4.62278e-02,1.11247e-01,-4.01954e-02,7.33843e-02,1.28075e-03,-1.08681e-01,-5.60281e-02,4.17797e-03,2.33445e-02,9.04366e-03,6.24127e-02,-1.20868e-02,4.84350e-02,1.18537e-01,-8.59657e-02,-1.03945e-01,-8.84598e-02,1.04873e-02,-2.72397e-02,-1.94942e-02,-3.76674e-02,4.41518e-03,8.00224e-02,-9.14226e-02,-1.01089e-02,1.46204e-02,-3.97649e-02,-1.80501e-02,-4.62117e-02,-4.84268e-02,7.16936e-02,1.10463e-01,3.88765e-02,-3.56680e-02,-5.88433e-02,-4.08577e-02,-1.12928e-01,5.75545e-02,1.34386e-01,9.28279e-02,-9.54085e-02,-1.37170e-02,9.76186e-02,4.51946e-02,1.01089e-02,-9.87731e-03,1.05591e-01,9.06263e-02,-8.32120e-02,-4.07681e-02,-2.87147e-02,6.07462e-02,1.18033e-01,7.14887e-02,3.13518e-02,-3.16886e-02,-9.72255e-02,-2.02075e-02,-7.88943e-02,4.50429e-03,-1.04592e-01,9.75710e-02,-5.61000e-02,9.78073e-02,3.02177e-03,1.44992e-01,-6.32273e-02,-3.03133e-02,1.06052e-01,-3.56381e-02,8.22769e-02,1.08787e-01,-8.45684e-02,6.54173e-02,6.67057e-02,-6.76818e-02,8.93327e-02,-8.30412e-03,1.09016e-01,1.00092e-01,-5.71174e-02,3.79742e-02,-3.78673e-03,-7.95342e-02,-6.64590e-02,7.92808e-02,-1.13603e-01,1.01368e-01,-1.22079e-01,-5.85305e-02,-1.97059e-02,-6.95697e-02,1.08433e-01,9.21331e-03,3.18604e-02,1.83888e-02,-1.51618e-02,2.22375e-02,5.55594e-02,4.11990e-02,3.01175e-02,8.40332e-02,-1.13511e-01,-1.13939e-01,1.03850e-01,5.21071e-03,-6.55273e-02,-6.39286e-02,-1.50011e-01,-7.91373e-02,-5.41964e-02,-8.27217e-02,5.66179e-02,-9.38369e-02,7.05504e-02,-5.54037e-02,3.19194e-02,-6.13376e-02,2.52216e-02,1.06130e-01,-8.00813e-02,3.95646e-02,6.06709e-03,9.12934e-02,5.37279e-02,3.77260e-02,-8.06119e-02,-3.94440e-02,1.10615e-01,8.45085e-03,4.57846e-02,7.73340e-02,2.20767e-02,6.24505e-02,1.70782e-02,
-6.83742e-02,-6.26860e-02,6.97681e-02,-2.32988e-02,-2.29552e-02,-7.95489e-02,7.42583e-02,4.66224e-02,-6.40488e-03,-1.39232e-02,1.16752e-01,-9.98949e-02,5.81338e-02,9.11137e-03,1.04670e-01,-8.08878e-03,7.96266e-03,4.37581e-02,2.66274e-02,3.93306e-03,-1.16771e-01,-6.17109e-02,9.06060e-03,-8.77666e-02,-5.39291e-02,-1.12525e-01,2.81148e-02,7.89678e-02,-5.68011e-02,-3.93990e-02,1.14090e-01,7.48878e-02,1.12413e-01,6.08143e-02,-8.41510e-02,7.42104e-02,7.04205e-03,6.81032e-02,-4.52289e-02,8.97499e-02,6.22481e-02,-4.39929e-04,-2.29564e-03,8.70319e-02,-3.26511e-02,1.82712e-02,-2.36681e-02,2.39883e-04,-3.02573e-02,-4.52009e-02,1.01143e-01,-6.46784e-02,-1.03248e-02,-4.94617e-02,1.16631e-01,5.27130e-03,5.33518e-02,4.13863e-03,3.88756e-02,-2.67942e-02,-1.07864e-01,-6.51000e-03,-6.73785e-02,1.08067e-01,1.07291e-01,-9.03125e-03,1.09456e-02,-4.29985e-02,1.05698e-01,1.03912e-01,-5.32136e-02,-3.94040e-02,5.92270e-02,6.70439e-03,1.06109e-01,9.17645e-02,1.21239e-01,-9.75251e-03,9.11338e-02,1.00234e-01,-8.37944e-02,2.53243e-02,7.12618e-02,-4.53403e-02,3.98600e-02,9.96299e-02,5.69932e-02,1.12544e-01,2.08722e-02,9.13904e-03,-6.62055e-02,1.01724e-01,-3.41456e-02,-7.36527e-02,3.99887e-04,2.33763e-02,-4.97964e-02,-8.00481e-02,-8.65873e-02,-2.47527e-02,-7.58881e-02,-3.21008e-02,9.61357e-03,2.42251e-02,8.67933e-02,-6.73675e-02,-2.66684e-02,4.65847e-02,-6.11386e-02,1.18328e-01,-3.24825e-02,1.12333e-01,-3.27784e-03,-1.12057e-01,5.39312e-02,-1.21421e-01,-4.68116e-02,-5.49036e-02,5.59697e-02,-3.21953e-02,1.21935e-03,-2.74544e-02,7.07292e-03,-1.17733e-01,-9.34169e-02,-4.37725e-02,9.41060e-02,-7.50554e-02,1.05719e-01,1.16665e-01,4.45744e-02,-1.05340e-01,-2.69935e-04,2.41958e-02,-1.04402e-02,-6.57433e-03,9.21618e-02,6.94330e-02,1.29098e-01,-5.54317e-04,5.33218e-02,1.15191e-01,-8.33694e-02,5.77965e-02,3.02487e-02,5.34502e-02,-5.11402e-02,-5.77324e-02,-1.17100e-02,-6.69314e-02,7.30213e-03,-3.28684e-02,3.50480e-02,7.90055e-02,8.52476e-02,-1.07490e-02,7.89766e-02,6.91969e-02,8.39017e-02,2.19115e-02,1.14160e-01,7.64273e-02,-4.02222e-02,-7.98102e-03,-4.56233e-03,-2.02356e-02,3.46298e-02,-1.61300e-02,-3.41397e-02,-6.90308e-02,1.33476e-01,-1.43248e-01,-5.99760e-02,-1.73442e-02,2.61690e-02,1.30312e-01,-9.94765e-02,8.91562e-02,-5.10150e-02,-1.74601e-02,-1.18757e-01,1.38256e-01,1.17234e-02,-7.17715e-02,8.56705e-02,1.06635e-01,-6.91385e-02,4.29109e-02,-3.93608e-02,6.42378e-02,-8.60928e-02,1.44831e-01,-6.80398e-02,-1.38031e-01,-1.47064e-02,-9.18693e-02,1.01563e-02,-8.71054e-02,9.79962e-02,-6.27682e-02,
-3.28110e-02,6.35715e-02,-7.60022e-02,1.03410e-01,-4.72375e-02,-3.76706e-02,-3.20120e-02,-6.66857e-02,-6.82730e-03,3.06869e-02,-8.33350e-03,-5.51027e-02,-8.69068e-02,-2.55031e-02,3.51657e-02,-4.98440e-02,9.96849e-02,-1.97445e-02,1.02901e-01,4.43905e-02,-1.21337e-01,5.06178e-02,-1.40292e-02,4.29647e-02,8.96853e-02,1.09784e-01,-4.88576e-02,8.14932e-02,6.81016e-02,8.17293e-02,-4.71652e-02,-1.09076e-01,1.07504e-01,-6.10030e-02,-9.43120e-02,-9.54034e-02,7.07677e-03,1.20362e-01,-5.00917e-02,7.02919e-02,6.79508e-02,-1.11607e-01,-9.85158e-02,9.05726e-02,-9.80680e-02,3.22347e-02,-9.70664e-02,6.57798e-02,-6.74843e-02,-1.01084e-01,-1.52986e-02,-2.11187e-02,-8.55853e-02,-4.79867e-02,-1.17505e-01,9.56538e-02,4.57993e-02,-6.37005e-03,1.46464e-03,-5.98499e-02,-2.16158e-02,-1.59894e-02,1.06319e-01,-4.98271e-02,8.99117e-02,2.41380e-02,-9.06941e-02,-1.16605e-01,5.64281e-02,-2.39257e-02,-1.19229e-01,-9.16401e-02,1.03621e-01,-5.01613e-02,2.82394e-02,5.72773e-02,-7.25704e-02,-8.66728e-02,8.62488e-02,-6.31319e-02,9.12758e-02,-1.01836e-01,1.59131e-02,-1.03423e-01,-8.69491e-03,-1.37352e-01,6.98976e-02,3.07515e-03,4.38113e-02,6.58827e-02,-4.24831e-02,-1.23752e-01,-1.29046e-01,4.72241e-02,5.60217e-02,-1.26925e-02,8.99348e-02,7.29442e-02,5.37056e-02,4.91075e-02,-1.12838e-01,-2.37594e-02,-3.87411e-02,-5.89940e-03,-1.46827e-02,3.49026e-02,1.62095e-02,-1.23428e-01,4.02809e-02,-8.09117e-02,-8.47435e-02,5.13080e-03,4.88956e-02,-1.10386e-01,-4.99987e-02,3.56889e-02,2.23359e-02,-6.75467e-03,-9.79640e-02,-5.66979e-02,-1.49780e-02,-9.83183e-02,-7.16825e-03,1.09512e-01,-1.27211e-02,-6.05977e-02,-9.75741e-02,-1.00272e-01,5.60530e-02,-2.70042e-02,5.98546e-02,-3.36374e-03,-3.00587e-02,-2.06349e-02,-9.98328e-02,-1.31841e-01,-6.27708e-02,-9.88791e-02,-3.72288e-02,3.49991e-03,9.49669e-02,7.59892e-02,-1.32726e-01,1.04414e-01,-8.79624e-02,6.88684e-02,7.48992e-04,-3.94902e-02,3.11730e-02,8.48712e-02,-8.09590e-02,-2.72805e-02,-6.11076e-02,-8.98113e-02,3.10250e-02,3.35163e-02,-4.68556e-02,-2.45946e-02,9.18511e-02,3.84571e-02,-1.68137e-02,-1.28014e-01,-6.09372e-03,1.03450e-02,9.39668e-03,1.21728e-01,2.38682e-02,-3.65637e-02,6.40269e-02,-7.49867e-02,-3.09243e-02,-6.30100e-02,-1.03900e-01,1.16075e-01,-1.06146e-02,1.72258e-02,-1.34659e-01,-6.14221e-02,-5.53795e-02,7.99699e-02,4.34152e-02,4.25477e-02,3.95297e-02,5.98994e-02,3.89967e-02,9.25308e-02,7.83726e-02,-3.70152e-02,6.70562e-02,-6.80023e-02,1.10312e-01,-8.82199e-04,3.94053e-02,-2.53934e-02,-9.13953e-02,-9.27169e-02,-7.98945e-02,3.99278e-02,4.42197e-02,-3.61198e-03,
8.67838e-02,-8.06300e-02,4.38200e-02,-5.56491e-02,9.40640e-02,3.91971e-02,-3.54915e-02,5.63681e-02,6.23982e-02,-8.14272e-02,7.83479e-02,1.31154e-02,-1.35761e-01,9.69583e-02,5.28248e-02,-3.37348e-02,-9.97732e-02,6.31714e-02,4.82472e-03,8.57230e-02,-6.19998e-02,2.86983e-02,8.60262e-02,7.70536e-02,6.48967e-02,2.43552e-02,5.84355e-02,-4.45855e-02,-9.05737e-02,-3.56155e-02,-1.02606e-01,3.33514e-02,2.71981e-02,-3.10430e-02,1.04924e-03,-9.76983e-02,-2.31672e-02,9.71063e-02,-1.28141e-01,-1.18511e-01,1.18748e-01,-1.10445e-01,-1.97719e-02,8.67316e-02,8.22499e-03,2.26026e-02,1.15262e-01,-3.71271e-02,8.81742e-02,-2.09564e-02,3.62784e-02,9.00876e-02,-4.69336e-02,5.66857e-03,-8.77850e-02,-1.59145e-02,7.28617e-03,7.58750e-02,9.10046e-02,-9.85515e-02,-8.46653e-03,5.96717e-02,-9.90801e-02,4.27698e-02,-1.13185e-01,1.13883e-01,2.49757e-02,6.75528e-02,4.80584e-02,-4.11888e-02,3.83461e-02,-1.32769e-01,2.80660e-02,6.65605e-02,-4.99699e-02,-1.36156e-02,8.08235e-02,7.54414e-02,2.40788e-02,8.09836e-02,-8.87893e-03,3.70685e-02,-6.33380e-02,5.40217e-02,-8.76220e-02,-6.65619e-02,-1.45521e-02,-6.42631e-02,9.55058e-02,3.11183e-02,6.18216e-02,-2.22603e-02,-1.21575e-01,5.01926e-02,-8.76802e-02,-1.20318e-01,-5.80664e-02,9.24445e-02,2.96254e-02,1.12647e-01,-1.17523e-01,-1.09327e-01,-5.73710e-02,-6.47122e-02,1.01552e-01,1.15497e-02,5.82016e-02,7.75368e-02,-1.36369e-01,6.86603e-03,-1.37785e-01,-1.56933e-02,1.07099e-01,7.31245e-02,2.69617e-02,1.61605e-02,-1.28247e-01,2.76904e-02,-6.57961e-02,-9.88075e-02,-1.15771e-01,-3.68199e-02,1.21377e-01,5.80078e-02,-8.71443e-02,-1.53269e-02,1.14249e-01,8.72145e-02,-3.80769e-02,5.17322e-03,-1.80522e-01,9.40997e-02,1.18762e-01,1.94692e-03,-4.37641e-02,-4.66663e-02,-6.44797e-02,-2.84138e-02,5.94646e-02,1.55452e-02,-9.99698e-03,9.65182e-03,-1.18395e-01,7.94721e-02,1.12890e-01,2.69096e-02,-3.11641e-02,9.81915e-02,5.88166e-02,7.68309e-02,-7.88739e-02,7.55853e-03,-4.54313e-03,-1.14256e-01,-1.04613e-01,-9.39525e-02,1.64670e-02,-8.47008e-02,9.61518e-04,-6.24627e-02,-1.11666e-01,-2.75740e-02,1.29240e-02,-1.00577e-01,7.91662e-02,3.74231e-02,2.66341e-02,9.99147e-02,-6.10171e-02,-1.75430e-02,-7.41203e-02,5.56403e-02,6.72795e-02,9.67019e-02,3.14772e-02,-4.77771e-02,-9.79100e-02,2.46194e-02,7.86923e-03,-4.61046e-02,-6.38730e-02,-8.27151e-02,8.25098e-02,2.18895e-02,6.85252e-03,-2.66293e-02,6.97576e-03,6.36836e-02,5.22035e-02,-3.02138e-02,-2.50242e-02,-3.88647e-02,-6.87492e-02,-6.74254e-02,-8.53082e-02,3.87762e-02,2.61867e-02,-8.14118e-02,-4.01692e-02,-5.04391e-02,
-7.05701e-02,1.05298e-01,7.94108e-03,-2.10524e-02,9.04410e-02,-7.64522e-02,-1.24955e-02,-5.68946e-02,-2.57780e-02,-1.17040e-02,-6.29305e-03,2.23583e-02,-1.37342e-02,1.32880e-02,-1.90795e-02,-3.25970e-03,-6.52746e-02,-8.27399e-02,-1.12776e-01,9.11928e-03,-5.40748e-02,-1.60568e-02,1.01856e-01,7.94720e-02,-8.31004e-02,4.36739e-02,-1.15169e-01,-9.83771e-02,-2.79800e-02,1.67996e-02,1.18126e-01,-7.47870e-02,3.68286e-02,-4.24506e-02,5.38750e-02,4.36588e-02,6.10395e-02,1.10363e-01,-3.05534e-02,-1.89955e-02,-3.47466e-02,-3.31990e-02,9.71967e-02,5.10046e-02,1.21015e-02,-1.27139e-01,-3.21498e-02,-2.95029e-02,-7.98354e-02,-2.06881e-02,-8.13501e-02,5.18133e-02,-5.68843e-02,-6.88109e-03,5.41014e-02,4.13189e-02,-1.08810e-01,6.83052e-02,1.14092e-01,-2.16667e-02,5.73142e-02,-2.11255e-02,-1.05618e-01,2.13473e-02,-1.07541e-01,8.38388e-02,-1.09233e-01,2.33355e-05,2.85720e-02,7.97525e-02,1.12115e-01,-1.10918e-01,2.11234e-02,9.16557e-02,1.07962e-01,-5.49322e-02,9.11240e-02,-8.66707e-02,-3.53538e-02,-9.08032e-02,8.25575e-02,7.98727e-02,1.92006e-02,-8.09130e-02,-8.47641e-02,-1.63172e-02,9.29123e-02,-5.65404e-02,7.92655e-02,-1.12669e-01,7.71849e-02,3.73179e-02,-4.20809e-04,1.69769e-02,5.55018e-02,5.71826e-02,2.60411e-02,1.98706e-02,-4.29247e-02,4.65031e-02,2.21416e-02,3.19896e-02,-7.93830e-02,-8.75000e-03,-7.18095e-02,-7.47245e-02,-9.98378e-02,1.44240e-02,9.86996e-02,1.04256e-01,-6.86144e-02,2.96316e-02,-6.85272e-02,-4.66001e-02,-9.70741e-02,6.86280e-02,1.25342e-02,-5.10163e-02,-1.24512e-01,-7.70589e-02,7.61847e-03,3.93056e-02,8.08983e-02,-7.40685e-02,1.07220e-01,1.68815e-02,-1.42116e-02,3.67167e-02,-3.46908e-02,1.31774e-02,-1.35101e-01,-1.02484e-01,2.13272e-03,5.76832e-02,-1.12394e-02,1.12716e-01,8.18839e-02,5.92803e-02,-1.57372e-02,1.10807e-01,6.92618e-02,3.68522e-02,-5.21954e-02,4.71632e-02,4.31279e-03,-3.18706e-02,-7.65805e-02,8.01998e-02,-6.70517e-02,-1.08561e-02,6.74771e-02,-1.06129e-01,-2.52803e-02,6.17149e-02,8.83385e-02,6.19935e-02,5.34094e-02,3.89057e-02,1.21661e-01,1.15360e-01,1.03378e-01,-1.07059e-01,-9.00989e-03,-8.33206e-02,-1.05414e-01,3.14341e-02,-6.41830e-02,-7.56963e-02,-1.11001e-01,1.01239e-01,-9.45907e-02,4.82593e-03,-8.79272e-02,-1.24404e-01,-6.22055e-02,1.96306e-02,4.98829e-02,1.03997e-01,9.73226e-03,-6.56208e-02,6.57588e-02,3.37870e-02,8.05486e-02,-1.30616e-02,-1.07967e-01,-5.89802e-02,2.43073e-02,-4.05881e-02,-3.09864e-03,4.72221e-03,7.94968e-02,1.28242e-02,1.04827e-01,-1.05047e-01,1.17225e-02,8.44981e-02,-9.84614e-02,7.45974e-02,3.41228e-02,-2.80300e-02,
-9.47197e-02,6.03773e-02,7.82455e-02,8.68374e-03,4.19397e-02,5.77733e-04,-6.80221e-02,-1.12788e-01,-8.20699e-02,4.69622e-02,2.59718e-02,-5.23294e-02,-1.08317e-01,8.36506e-02,8.89938e-02,3.35192e-02,-2.25403e-02,6.26774e-02,3.27430e-02,8.56199e-02,-7.14593e-02,-2.43265e-02,5.04408e-02,1.15247e-01,1.07380e-01,-4.42608e-02,-8.09655e-03,-4.55467e-02,-4.37559e-02,4.86361e-02,-9.00726e-02,8.63075e-02,1.17697e-01,1.12695e-01,3.89545e-02,-1.03947e-01,-1.18302e-01,2.49264e-03,8.86307e-02,-9.67505e-02,5.54418e-02,3.46162e-02,-7.80100e-02,4.70939e-02,-1.06756e-01,-1.44425e-02,8.34749e-03,-1.22253e-02,9.13322e-02,-1.23633e-01,1.33193e-01,-3.51917e-02,-5.93854e-02,7.94009e-02,1.19690e-01,-8.73035e-02,-1.71869e-02,6.33535e-02,2.49346e-03,-3.09381e-02,-5.30663e-02,-9.83301e-02,1.11404e-01,1.40346e-02,-1.90411e-02,3.96222e-02,-1.09765e-02,-8.54764e-02,1.60059e-02,4.94906e-02,-1.04507e-01,2.45466e-02,-2.11271e-02,6.89867e-02,8.57857e-02,-1.33685e-02,2.61495e-02,-8.71728e-02,1.61229e-02,7.13968e-02,8.22727e-02,9.18149e-02,7.02340e-02,7.91004e-02,-1.11144e-02,-8.92301e-02,8.90085e-02,1.02092e-01,-1.08686e-02,1.03293e-01,1.48996e-02,-1.69213e-02,-7.49288e-02,9.91802e-02,1.16070e-01,-7.87697e-02,-5.62011e-02,1.66290e-02,5.94349e-02,9.23168e-02,-5.13930e-03,-2.45042e-04,-3.30302e-02,-1.05657e-01,-7.04658e-02,-3.46915e-02,-9.97288e-03,9.59279e-02,-1.52372e-02,-1.45373e-02,4.38254e-02,9.12483e-02,-1.06900e-01,8.46571e-02,-4.03045e-03,-1.19197e-01,-7.30135e-02,1.11038e-01,4.37047e-02,-5.52010e-02,4.04732e-02,-9.02173e-02,1.19205e-01,1.00338e-02,4.35702e-02,-8.36600e-02,9.86001e-02,-3.96031e-03,-6.03328e-02,1.29649e-01,-5.39508e-02,-7.18296e-02,-5.95229e-02,-6.09843e-02,-1.05776e-01,-2.01039e-02,1.37411e-02,7.25393e-02,2.40172e-03,5.18034e-02,-6.06803e-02,8.34497e-02,-7.34252e-02,-1.01806e-01,1.02683e-01,8.63288e-03,2.03808e-02,-7.27448e-02,8.94094e-02,-9.92682e-02,7.03419e-02,8.97150e-02,-9.56585e-02,-1.15677e-01,-7.65333e-02,-7.66775e-02,1.31349e-02,-7.68385e-02,-9.36633e-02,4.69959e-02,8.50278e-02,-2.85357e-02,5.91870e-02,1.09684e-01,-4.81991e-02,-6.97409e-02,-1.01189e-01,8.54132e-02,1.25035e-01,-4.72497e-02,1.39936e-02,2.05850e-02,6.38042e-02,1.50673e-02,4.71710e-02,-8.76976e-02,4.61864e-02,2.59938e-02,1.14384e-01,-1.15175e-01,-1.14996e-01,8.69703e-02,9.80481e-02,-1.15925e-01,-6.18034e-02,-1.22062e-01,1.01910e-01,-8.66934e-02,1.03112e-01,4.64665e-02,9.57253e-02,1.02257e-02,-1.02460e-01,-2.15505e-02,-2.70491e-02,-1.18014e-01,1.27606e-02,4.92145e-02,1.95487e-02,-9.93863e-02,
1.22035e-01,1.26920e-01,-1.52285e-02,4.71999e-02,6.98563e-02,-8.01810e-02,-1.05591e-01,-3.61213e-02,-9.85426e-03,2.15018e-02,-5.07969e-02,-8.08128e-02,-6.95023e-02,4.96030e-02,-8.43305e-03,-1.07423e-01,-6.60184e-02,-5.55333e-02,8.00952e-03,-4.06203e-02,1.45230e-01,1.07550e-01,5.53484e-02,-7.62128e-04,4.20581e-02,2.44149e-02,-1.03842e-01,-1.12000e-01,-1.93708e-02,9.87888e-02,5.25379e-02,-5.45954e-02,6.62185e-02,4.28201e-02,4.68927e-03,-2.49727e-02,-9.36657e-02,8.21485e-02,-4.23477e-02,7.57497e-02,-1.20041e-02,4.31009e-02,1.26216e-01,3.56916e-02,7.12007e-02,-1.00015e-01,9.81584e-02,1.52100e-01,5.22064e-02,-6.23935e-02,-3.58992e-02,-8.05756e-02,1.24106e-01,8.31123e-02,1.15807e-01,1.26703e-01,9.03509e-02,-1.32414e-01,4.72952e-02,-7.68178e-02,-6.30934e-02,8.06364e-03,-7.06919e-02,-4.89854e-02,-5.04885e-03,-1.31332e-01,5.07017e-03,1.14447e-02,8.16169e-02,-1.56611e-02,-1.08251e-01,1.02521e-01,-9.50583e-02,-1.00000e-01,-1.02026e-01,1.10581e-01,5.20244e-02,3.75900e-05,1.53421e-02,6.79606e-02,-1.03433e-01,7.10284e-02,1.19242e-01,-2.58898e-02,6.89803e-02,7.33778e-02,-1.02501e-01,7.23438e-02,7.74990e-02,2.91027e-02,-5.78266e-02,1.99999e-02,-6.95596e-02,4.26736e-02,2.52861e-03,-5.15296e-02,1.31461e-01,-5.12915e-02,-4.99760e-02,5.31793e-02,2.61711e-03,1.17960e-01,-1.94968e-02,7.01491e-02,1.24028e-01,4.92605e-02,5.69795e-02,5.65043e-02,-1.07148e-01,6.89563e-02,1.09016e-01,9.85559e-03,4.64603e-02,4.90037e-02,8.02041e-03,1.26447e-01,1.47062e-01,1.02179e-01,8.76891e-02,-9.11478e-02,-1.91068e-02,4.57865e-02,-1.30557e-01,-1.68093e-02,-5.96861e-02,-5.63239e-02,-2.18669e-02,8.54741e-02,-1.07228e-01,-2.78216e-02,-3.96125e-03,1.48876e-01,-9.35457e-02,-8.30417e-02,-9.11252e-02,7.99033e-02,5.56244e-02,1.07642e-01,-2.27531e-02,-1.99139e-02,-2.05301e-03,-1.03803e-01,1.35220e-01,1.14211e-01,-6.22314e-02,-1.03022e-01,-1.07798e-01,-1.00570e-01,1.00899e-01,-3.23546e-02,-9.40594e-02,5.87006e-02,1.37730e-03,-2.47456e-02,3.60052e-02,1.21516e-01,-2.22627e-02,6.96867e-02,2.09764e-02,9.21036e-03,-3.17605e-02,-1.19008e-01,6.18772e-02,1.27247e-03,4.57937e-02,-1.81632e-02,-8.93625e-02,1.73905e-02,-6.86212e-02,7.18520e-02,-5.57871e-02,7.95614e-03,9.60330e-02,-6.97543e-02,6.44284e-04,6.88420e-02,-8.61490e-03,1.05299e-01,-1.78232e-02,-1.21871e-01,-3.49215e-02,-9.67364e-03,-9.52258e-02,4.42192e-02,7.63560e-02,-4.87826e-02,9.47990e-02,8.77096e-02,-1.22034e-01,-4.44181e-02,1.05779e-01,-8.17786e-02,7.31100e-02,1.38802e-01,-1.14195e-01,1.20801e-01,-7.28760e-02,1.00355e-01,7.20426e-02,-5.04156e-02,
6.81695e-02,-3.41325e-02,-9.64504e-02,-8.36746e-02,-3.40584e-02,-9.49955e-02,9.98280e-02,7.99104e-02,-3.27105e-02,-9.10971e-02,2.06205e-02,1.81012e-02,-5.80127e-02,5.64011e-02,-6.92754e-02,-1.46752e-02,-7.83291e-02,7.34819e-02,-1.06057e-01,-1.11623e-01,-1.44451e-01,6.25773e-02,-8.54591e-02,4.49614e-02,-7.74473e-02,3.41336e-02,-4.08799e-03,2.61383e-02,-2.97223e-02,-1.36787e-02,-8.37299e-02,1.15650e-01,-1.19999e-01,5.40462e-02,-1.91175e-02,9.00678e-02,-6.50886e-02,1.31691e-02,1.09767e-01,-7.51424e-02,9.59064e-02,-2.19145e-02,1.10565e-01,-1.03323e-01,1.07351e-01,4.37586e-02,-9.26748e-02,5.78536e-02,-1.78201e-02,-9.36826e-02,5.92170e-02,3.78375e-02,-8.66778e-02,3.87970e-02,-1.18828e-01,6.29466e-02,9.55994e-02,-9.44281e-03,1.28228e-01,1.17749e-01,3.27522e-03,1.06885e-01,4.79277e-02,-8.73635e-03,-8.67511e-02,-4.51061e-03,7.98582e-02,1.09077e-01,1.61728e-02,5.31903e-02,4.98829e-03,-2.07160e-02,6.77781e-02,2.29431e-02,8.56733e-03,-1.17012e-01,1.10440e-01,-7.38758e-03,7.76397e-02,1.68159e-02,-1.55739e-02,-9.13916e-02,-1.02623e-01,1.27501e-01,1.12413e-01,-1.23383e-03,7.51597e-02,-1.87095e-02,3.47012e-03,2.94030e-02,3.13990e-02,-1.07010e-01,-7.47545e-02,1.13665e-01,8.24875e-02,2.40259e-02,-1.22994e-01,5.53694e-02,-7.11303e-03,6.46819e-02,5.88255e-02,1.02290e-01,-3.38678e-02,-4.77551e-03,1.33328e-02,8.34768e-02,-5.94700e-03,-4.68461e-02,-8.24770e-02,-1.54154e-02,-1.07300e-01,2.99248e-02,9.50725e-02,-7.89745e-02,1.28207e-01,5.45356e-02,-7.93981e-02,-4.40672e-02,-1.14823e-02,-1.06985e-01,1.13868e-01,8.85201e-03,-8.55440e-02,2.02178e-02,8.36245e-02,-3.83644e-02,8.28079e-02,-1.12596e-01,7.19884e-02,-4.45375e-02,-1.44620e-01,-5.29471e-02,6.02317e-02,3.89327e-02,-9.54953e-02,-1.31100e-01,-7.18511e-02,8.96865e-02,-4.44726e-02,-3.96428e-02,5.34189e-02,7.87577e-02,2.63562e-04,-3.10185e-02,-1.81268e-02,1.37896e-01,-7.88974e-02,9.93347e-02,-3.82181e-03,-5.67183e-02,-5.91331e-03,2.23932e-02,2.62702e-02,-4.28300e-02,6.13174e-02,-1.09078e-01,5.88277e-03,-1.30389e-01,-1.40571e-02,-3.36181e-02,9.16898e-02,2.73934e-02,1.28575e-01,1.28758e-02,2.61795e-02,-6.25062e-02,4.24203e-02,1.54726e-02,-2.50396e-02,1.18955e-01,1.54811e-01,-3.10962e-02,-8.02102e-03,-5.40806e-02,-1.09489e-01,6.16386e-02,1.06513e-01,1.14298e-01,-6.49066e-02,1.76831e-02,1.04616e-02,1.30252e-01,-8.36607e-02,1.05221e-01,-1.06018e-02,-7.17479e-02,9.74841e-02,-1.07620e-01,-3.18912e-02,4.19294e-02,9.25232e-04,-6.37645e-04,8.74619e-03,1.68712e-02,-4.19657e-02,-6.22141e-02,-8.26120e-02,1.02509e-01,-4.05049e-02,7.52361e-02,
-4.07792e-02,-1.91253e-02,4.50800e-02,1.11786e-01,-2.04492e-02,-1.68457e-02,1.05318e-02,-9.32439e-02,2.93389e-02,1.81850e-02,4.45555e-02,7.91265e-02,-1.31176e-01,-4.29480e-02,6.57411e-02,8.93588e-02,-4.97606e-02,-5.91262e-02,-1.08919e-01,7.13719e-02,4.50991e-02,-7.17219e-02,-1.71424e-02,-8.34306e-02,1.13682e-01,-4.45313e-02,-4.80929e-02,-3.24039e-02,-9.47561e-02,-2.79616e-02,-1.71410e-03,5.90478e-02,9.28209e-02,4.77136e-02,1.49816e-02,-8.03646e-02,3.39019e-02,1.03989e-01,-4.38096e-02,-9.83246e-02,5.23040e-02,-8.75018e-02,8.23941e-02,-6.18054e-02,-6.40397e-02,5.36527e-02,3.15406e-02,-4.40822e-02,-7.31472e-02,-6.42890e-02,-3.93907e-02,5.17418e-02,-1.40827e-01,-4.86607e-02,1.77977e-02,6.07614e-03,9.08689e-02,3.47472e-02,-4.47367e-02,-1.36372e-01,3.28422e-02,-5.76077e-02,1.04361e-01,1.01049e-01,-7.80727e-02,-5.49164e-02,8.98953e-02,8.14983e-02,-1.02479e-01,7.45059e-02,1.18673e-01,-3.16762e-02,-8.72366e-02,-3.47158e-02,8.80886e-02,2.50649e-02,7.49121e-02,-5.19223e-02,-1.94658e-02,1.06752e-01,5.31153e-02,2.17810e-02,-6.72620e-02,-1.53789e-01,1.06022e-01,1.04274e-01,1.19148e-01,7.12904e-02,6.01077e-02,1.29915e-01,-8.99900e-03,6.84590e-02,-7.41423e-02,9.35317e-03,-3.26119e-02,7.99498e-02,1.14055e-01,-8.83041e-02,5.60971e-02,-9.60792e-02,1.11198e-01,4.83151e-02,1.06691e-01,1.52511e-02,-1.38019e-01,6.62150e-02,-3.19660e-02,7.35420e-02,-8.79473e-02,5.35305e-03,-2.15214e-02,-3.43457e-02,9.65759e-02,8.43959e-02,-6.02693e-02,2.19611e-02,-9.97560e-02,-4.55021e-02,5.12110e-02,9.92724e-02,-6.51243e-02,-8.31003e-02,-3.84060e-02,-2.69483e-02,-6.18628e-02,-3.76319e-02,6.74869e-03,5.32757e-02,-7.68211e-02,6.45375e-02,-2.15813e-02,1.44693e-02,1.12969e-01,1.21736e-01,-4.70824e-02,-7.53854e-02,4.36509e-02,-9.21632e-02,1.02644e-01,2.67037e-02,-5.45665e-02,9.86479e-02,2.67798e-02,-1.20991e-01,9.40246e-02,2.93423e-02,7.49420e-02,7.51128e-02,-9.71750e-02,6.97130e-02,-6.20336e-02,-1.06375e-01,8.73887e-02,-4.20530e-02,-9.04159e-02,-7.52352e-02,1.01414e-01,-1.15739e-01,3.45331e-02,2.87214e-02,-8.49978e-02,-5.88853e-02,6.79342e-03,-2.29160e-02,-8.22728e-02,-6.05158e-02,6.25208e-02,-5.10831e-02,-7.69575e-02,-4.30037e-02,1.63212e-01,-1.35358e-01,-1.01856e-01,3.63650e-02,-5.22282e-02,1.34547e-01,6.96015e-02,7.04664e-02,2.80295e-02,7.68387e-02,-9.21046e-02,1.01242e-01,1.20268e-01,9.47524e-02,-1.66990e-02,5.99263e-02,9.94567e-02,-1.05018e-01,1.16904e-01,-1.06592e-01,5.67294e-02,7.10556e-02,1.17782e-01,-6.50986e-02,-8.12777e-02,-3.43797e-02,2.12225e-02,-5.79739e-02,2.04514e-02,-6.83611e-02,
-1.30090e-01,4.03982e-02,1.88905e-02,-1.00601e-01,4.26407e-02,7.12926e-02,1.20732e-01,-9.40124e-02,9.10689e-02,-7.20353e-02,1.08683e-01,1.30133e-01,-1.01323e-01,-9.27753e-02,2.99723e-02,-9.86453e-02,3.91452e-02,-5.15163e-02,-9.11422e-02,-1.21796e-01,-1.38568e-01,5.67275e-02,1.11596e-01,-8.56615e-02,5.36683e-02,8.27871e-02,2.72694e-02,-1.08663e-01,-1.13585e-01,-4.22281e-02,9.91776e-02,4.73459e-02,-1.72816e-02,-9.94618e-02,4.45116e-02,1.03600e-01,1.02251e-01,-2.66280e-02,1.06706e-01,3.51065e-02,1.22377e-01,-1.19031e-01,5.19418e-02,-6.14285e-02,1.96238e-02,1.85684e-02,8.44722e-02,8.30739e-02,-1.08549e-01,1.16165e-01,-3.43166e-02,-9.83163e-02,6.19791e-02,8.28518e-03,-1.19676e-01,4.00028e-03,1.19671e-01,-5.61600e-02,6.86539e-02,-8.40964e-02,-9.74797e-02,1.34825e-01,-1.69353e-02,-4.62843e-02,-3.10170e-02,-1.00705e-02,4.11359e-02,-8.37435e-02,2.71567e-02,2.57368e-02,3.53685e-02,5.61238e-02,9.94049e-02,5.21236e-02,8.80870e-02,1.05797e-01,1.55616e-02,9.83749e-02,-1.35648e-02,9.35414e-02,-1.14589e-01,-8.63677e-02,1.19760e-01,1.94257e-02,1.08024e-01,-1.19462e-01,-9.91865e-02,-1.18504e-02,-9.91223e-03,7.85727e-02,1.15258e-01,-3.42899e-02,-4.32225e-02,-7.77505e-02,-5.15241e-03,1.02671e-01,-1.08579e-01,-2.67993e-02,2.87432e-02,6.13223e-02,3.56924e-02,5.89845e-02,-9.89950e-02,-5.34940e-02,3.03355e-02,-4.23360e-02,6.46227e-02,2.48410e-02,5.34716e-02,1.07035e-01,-9.80906e-02,-1.04171e-02,2.22285e-02,-7.01825e-02,-1.49925e-02,1.13464e-01,-3.93528e-02,-1.14389e-01,1.71190e-02,2.03822e-02,-8.02751e-02,9.38413e-02,2.44706e-02,-9.34705e-02,8.89666e-02,9.42912e-02,-1.61778e-02,1.06195e-01,6.15699e-02,-7.60718e-02,-7.62565e-02,7.92326e-02,-9.47174e-02,2.08342e-02,7.14050e-02,-7.09098e-02,-1.63586e-02,-3.88101e-02,-7.17582e-02,5.61543e-02,1.00907e-01,-2.63873e-02,-1.02827e-01,-3.67883e-02,-6.97992e-02,1.39297e-01,-5.79408e-02,-6.93920e-02,8.36391e-02,-1.41883e-01,-5.29325e-02,5.54179e-02,9.38361e-02,1.38828e-02,-7.23941e-02,-7.40442e-02,-5.69690e-02,-4.00032e-02,2.82837e-03,1.20757e-01,9.05401e-02,1.22320e-01,-2.33188e-02,1.15881e-02,-6.02196e-02,-3.50726e-02,-1.03153e-01,-6.90047e-02,3.97974e-02,7.32391e-02,8.30689e-03,8.92567e-02,1.38803e-02,1.27083e-01,-3.31377e-02,-1.82078e-02,4.40576e-02,9.88033e-02,-3.89724e-02,7.83261e-02,9.41762e-02,1.13869e-01,-8.01407e-02,-8.60013e-02,5.39208e-02,9.54969e-02,-1.10097e-01,-3.49564e-02,-4.06150e-03,1.21499e-01,-2.16373e-02,5.71397e-02,7.66501e-02,6.80282e-02,2.57987e-02,2.70765e-02,1.17717e-01,-9.77218e-02,-2.58989e-02,6.17057e-04,
1.23719e-01,1.92882e-02,1.36108e-01,-8.05407e-02,1.16492e-01,-1.16591e-01,-1.53526e-01,-3.44907e-02,-4.01217e-02,-5.24396e-02,4.29703e-02,2.73599e-02,1.33211e-01,8.92171e-02,9.51906e-02,-1.06235e-01,-1.28133e-02,9.78103e-02,6.62868e-02,6.96428e-02,-5.80578e-02,1.04736e-01,4.47875e-04,2.48859e-02,-8.37892e-02,-7.63234e-02,-4.33454e-02,4.45345e-02,1.03469e-01,1.12484e-01,3.74564e-02,2.77322e-02,6.78729e-02,9.87945e-02,5.55492e-02,1.06305e-01,5.92599e-02,2.43283e-02,-1.02199e-02,3.74307e-02,4.49056e-03,-2.44916e-02,-2.84656e-02,-3.59415e-02,4.22059e-02,6.42716e-02,-1.82952e-02,8.77778e-02,-7.82662e-02,7.38722e-02,-6.98408e-02,-1.61752e-02,1.17352e-01,-1.94882e-02,-1.50102e-02,-3.23319e-02,-1.21716e-01,3.24979e-02,-3.06948e-02,1.52595e-01,1.03040e-01,-6.25922e-02,6.28832e-02,1.05258e-01,8.28281e-02,-1.12417e-01,-7.18104e-02,-6.08410e-02,3.04420e-02,2.49570e-02,-7.33912e-02,5.24419e-02,2.43613e-02,1.02494e-01,3.92343e-02,3.90959e-02,-8.58641e-02,-1.18879e-02,5.04284e-02,-8.62240e-02,4.23230e-02,2.69499e-02,1.12660e-01,2.83498e-03,1.05186e-01,4.47481e-02,-5.72739e-02,8.50735e-02,-9.60479e-02,-1.04102e-01,2.88904e-02,1.07179e-01,-4.60629e-02,-1.85300e-02,-7.75165e-02,1.40090e-02,1.07991e-01,5.45502e-02,1.14253e-01,-8.43400e-02,4.12856e-02,8.24820e-02,-5.73515e-02,1.20149e-02,1.05120e-01,4.96889e-02,2.93136e-02,-8.62543e-02,4.91297e-02,-1.00479e-01,7.30622e-02,-7.15214e-02,-6.48749e-02,4.33915e-02,5.84027e-02,4.42202e-02,8.66557e-02,1.97423e-02,4.70258e-02,6.36593e-02,-1.18474e-01,-1.93368e-02,-9.56798e-02,1.17675e-01,-5.74072e-02,-8.26781e-02,4.33278e-02,4.48733e-02,-6.51923e-02,-7.17961e-02,8.18177e-02,1.40231e-01,-4.64563e-02,-1.05934e-02,-8.25163e-02,1.10705e-01,-7.29983e-02,-4.44451e-02,1.07747e-02,1.91021e-02,-8.96340e-02,-3.54911e-02,-8.08541e-02,-2.17942e-02,-3.83947e-02,-4.85214e-02,-6.71482e-02,-5.92267e-02,6.45420e-02,1.11298e-01,9.87602e-02,4.41878e-02,-1.13370e-01,-3.49485e-02,4.36983e-02,4.86127e-02,-3.66647e-02,6.02756e-02,1.10455e-01,5.34639e-02,2.58314e-02,-5.15389e-02,9.20411e-03,-2.65729e-02,9.97878e-02,-9.78606e-03,8.14390e-02,-1.02665e-01,7.63062e-02,-5.32933e-02,3.91926e-02,3.07815e-02,-1.66422e-02,-1.20421e-01,6.76162e-02,-6.29573e-02,8.33211e-02,-5.88924e-02,6.07215e-02,-1.16749e-01,-1.41091e-02,1.02773e-02,9.02517e-02,5.71484e-02,-6.32318e-03,-6.85517e-03,1.05071e-01,2.29951e-02,-1.29018e-01,-1.03952e-01,7.81787e-02,3.80505e-02,1.16933e-01,6.25297e-03,-1.41953e-02,-3.09083e-02,-6.55963e-02,1.34403e-01,8.17038e-02,4.57765e-02,
-9.03586e-02,3.42377e-02,-2.71449e-02,-6.93716e-02,5.45816e-02,7.87962e-02,7.88690e-02,5.15347e-02,1.47125e-01,5.33389e-02,9.04139e-02,2.97861e-02,4.12396e-02,1.28539e-01,-1.00200e-02,2.74076e-02,6.08217e-02,-9.65672e-02,8.57170e-02,-7.99115e-02,4.11508e-02,3.11379e-02,5.60601e-02,7.83847e-02,-1.36926e-02,5.64311e-03,-2.23910e-02,-3.30400e-02,1.21958e-01,-1.00775e-01,1.79546e-03,1.42143e-02,7.92074e-02,9.54406e-02,1.01380e-01,1.15221e-01,4.32504e-02,1.21162e-01,8.19855e-02,-3.88517e-03,1.02330e-01,-6.47287e-02,2.38149e-02,-4.83374e-02,6.37400e-02,1.44698e-02,2.05757e-02,9.56734e-02,-9.73325e-02,-1.16143e-01,-8.11357e-02,-4.56949e-02,1.63951e-02,1.12766e-01,-7.66606e-02,-2.94966e-02,1.07522e-01,9.13454e-02,1.08251e-01,-9.85856e-02,-1.08239e-02,6.38465e-02,-3.05936e-02,1.27543e-01,-2.20210e-02,-7.09165e-05,1.25876e-01,2.00655e-02,-9.42469e-02,-1.87227e-02,-4.65320e-02,-8.70787e-02,1.07766e-01,3.72684e-02,-6.27415e-02,-6.30714e-02,-7.59799e-02,4.53937e-02,-8.56205e-02,1.24027e-01,1.33657e-02,3.50749e-02,1.07436e-01,-1.24041e-01,-2.07631e-02,-7.61648e-02,1.92249e-02,-6.39791e-02,4.15978e-02,-9.60336e-02,-2.57255e-02,9.48903e-02,-7.24327e-02,3.20806e-02,-5.67189e-02,-1.68162e-02,1.07722e-01,-1.33987e-01,-2.72432e-03,-4.78073e-02,7.71885e-02,-8.88203e-02,1.30447e-01,-8.03298e-02,6.56171e-02,-8.10147e-02,3.78695e-02,-4.16660e-02,1.59989e-02,5.89786e-02,4.39334e-02,-1.06155e-01,-6.22038e-02,-1.09171e-01,7.90415e-02,8.88718e-02,-5.69963e-02,-7.40160e-02,2.03137e-02,-6.66544e-02,3.65777e-02,3.54309e-02,-7.45201e-02,-1.03291e-01,7.22356e-02,3.03982e-02,4.17390e-03,2.01744e-02,-2.86093e-02,-8.38619e-02,-1.36408e-01,1.11452e-01,-8.00110e-02,8.24739e-02,-5.28633e-02,-4.96850e-02,-2.14400e-02,-4.11409e-02,-1.02096e-01,8.11714e-02,1.50535e-02,-6.80072e-02,-5.96384e-02,2.19051e-02,1.06209e-01,-3.41632e-02,1.11229e-01,-1.35773e-01,3.33913e-02,-1.14060e-01,5.88585e-02,1.14524e-01,-1.27462e-01,-3.52217e-02,2.98273e-02,2.21077e-02,-1.54629e-02,-1.17926e-01,-3.08036e-02,-9.23577e-02,6.39597e-02,9.18826e-02,-1.17366e-02,8.44124e-02,8.18164e-02,8.79892e-02,-9.26156e-02,1.33720e-02,-4.99998e-02,3.67346e-02,1.57770e-01,9.61508e-02,-1.10285e-01,1.33738e-01,-8.29236e-02,-9.71655e-02,-7.80009e-02,1.16950e-01,-7.64303e-02,9.64010e-02,-1.12157e-01,1.40775e-01,-4.68136e-02,-3.58985e-02,-2.94017e-03,-1.11628e-01,-6.98428e-02,-1.62222e-02,6.40568e-02,1.00724e-01,4.59103e-02,1.42901e-01,2.39695e-02,-5.83255e-02,-5.58103e-02,-1.04163e-01,1.30872e-01,2.12856e-02,-3.06186e-02,-9.89358e-02,
1.57784e-02,3.21309e-02,-2.49243e-02,-3.76200e-02,-4.67857e-02,-5.67180e-02,2.92434e-02,1.21859e-01,-7.96802e-02,7.01657e-02,-2.51017e-02,2.40673e-02,-4.08884e-02,-7.14429e-02,-1.06540e-01,6.60206e-02,1.00020e-01,-8.05301e-02,-9.52919e-02,1.08246e-01,6.25176e-02,1.06090e-01,1.07325e-01,-1.22629e-01,1.11366e-01,6.11377e-02,3.16880e-02,-2.94289e-02,7.08188e-02,6.81887e-02,-3.21993e-02,-1.68544e-02,-1.04395e-02,-1.05668e-01,1.16965e-01,-4.83246e-02,-2.75516e-02,-4.45086e-02,-4.19529e-02,-4.68198e-02,8.47597e-02,9.99395e-02,-1.01128e-01,-3.93419e-02,5.44770e-02,-2.50581e-02,-4.51388e-03,-4.64327e-02,-7.73622e-02,3.42508e-02,3.20506e-02,1.12014e-01,-1.15685e-01,-6.50440e-02,-1.10447e-01,-8.84138e-03,-1.22977e-02,4.16875e-02,2.43009e-02,2.70519e-02,-1.20896e-01,-8.30100e-02,1.55017e-02,-7.99832e-02,-9.15248e-02,-7.16781e-02,9.52547e-02,-1.09733e-01,-8.79121e-02,-1.01848e-01,1.20677e-01,-1.06172e-01,-7.12104e-04,-4.33244e-02,-1.14520e-01,-4.85168e-02,7.87452e-02,-6.55828e-03,1.10971e-01,6.59496e-02,-1.00194e-01,-3.19975e-02,1.18356e-02,5.90533e-02,4.97303e-02,-8.33681e-02,6.60171e-02,2.50643e-02,-2.31407e-02,8.82571e-02,-9.95578e-03,9.69861e-02,6.26621e-03,-3.98844e-02,2.82202e-03,-3.94331e-02,-2.63788e-02,7.93510e-02,-3.64848e-02,1.17212e-01,-1.03691e-01,-2.29393e-02,3.43862e-02,1.55993e-02,1.04584e-01,-5.61864e-02,7.38802e-02,-1.17654e-01,8.43764e-02,6.92577e-02,2.91846e-02,-6.07058e-02,5.04748e-02,-1.10053e-01,3.51122e-02,-1.20540e-01,-7.27792e-02,9.20275e-02,4.20213e-02,6.76420e-02,4.68746e-02,-3.04073e-02,4.41449e-02,-9.88300e-02,-1.22195e-02,1.04620e-01,-1.42348e-02,-5.31778e-02,-8.85196e-02,-6.26832e-02,1.16096e-01,9.38294e-02,-1.22763e-02,-1.06072e-01,-2.03446e-02,-5.49638e-02,1.14141e-02,-1.13774e-01,9.08840e-02,-8.74612e-02,-5.19267e-03,-4.48721e-02,-9.94418e-02,4.55602e-02,9.01437e-03,-3.82172e-02,1.81186e-02,9.01672e-02,-1.86360e-02,2.16461e-02,-2.96987e-02,-5.13690e-02,6.90265e-02,-1.02619e-01,8.31973e-02,-8.51186e-02,-1.05663e-01,5.10506e-02,4.17067e-02,4.26951e-02,-1.14252e-01,-1.17720e-01,-2.27439e-02,1.49590e-03,-1.11017e-01,4.78035e-02,-9.52370e-02,-3.62526e-02,2.09532e-02,8.87683e-02,-3.88463e-02,-8.88471e-02,6.75927e-02,4.58459e-02,-7.76749e-02,4.35484e-02,-4.49811e-02,2.21888e-02,4.59014e-02,-6.41628e-02,9.32373e-02,3.32119e-02,-9.24961e-02,1.15077e-01,-9.63036e-02,8.09423e-02,-8.06711e-02,9.01519e-02,3.78976e-02,-1.11560e-02,-1.08741e-01,-3.46212e-02,-3.14754e-02,-3.60725e-02,-1.09212e-01,5.70424e-02,9.41825e-02,-9.78256e-04,2.07932e-03,2.59317e-02,
9.93169e-02,1.10962e-01,-2.78948e-02,4.07894e-02,1.16911e-01,6.53514e-02,-3.88575e-02,-1.01206e-01,-1.38623e-01,2.77667e-02,-2.52189e-02,5.06747e-02,8.40532e-02,3.70136e-02,-4.26407e-02,-2.55565e-02,7.91218e-02,-4.93186e-02,8.68820e-03,-7.65307e-02,-8.95373e-02,-4.19324e-02,4.30213e-02,3.62542e-02,-9.73659e-02,2.80402e-02,-5.60407e-02,-9.22969e-02,-2.52094e-02,1.04955e-01,8.25780e-02,-1.14891e-01,-5.79192e-03,-5.21820e-02,8.85608e-02,5.84345e-02,5.28753e-02,-3.08229e-02,5.59619e-04,3.34122e-02,6.96203e-02,-5.13421e-02,-8.31673e-02,-6.16803e-02,3.79344e-02,3.50294e-02,1.27251e-03,1.06808e-01,-1.08874e-01,3.10915e-02,-6.43165e-02,-3.08838e-03,1.23413e-01,7.54511e-03,-9.43884e-02,-5.98927e-02,-7.42682e-02,5.66395e-02,-8.53008e-02,-7.27681e-02,4.46304e-02,-6.88656e-02,1.14256e-01,2.96494e-03,5.27978e-02,-1.03994e-01,1.25518e-01,7.59883e-02,-4.50483e-02,6.45574e-02,-7.20990e-02,4.38450e-03,1.18038e-01,1.11410e-01,-8.23998e-02,4.04367e-02,-1.10399e-01,-7.30525e-02,-9.13532e-02,1.06171e-01,-4.88762e-02,5.52186e-02,-5.73735e-02,-8.59415e-02,-4.04600e-02,4.50225e-02,-9.74067e-02,-1.00042e-01,8.83423e-02,1.04065e-01,-1.21993e-01,-1.12751e-02,-1.23719e-01,8.25798e-02,-8.65633e-02,7.06588e-04,9.33360e-03,5.09785e-02,3.56479e-02,7.51565e-02,-1.14560e-01,2.78798e-04,2.31781e-02,-2.05104e-02,4.51628e-02,6.22622e-02,6.05305e-02,2.11325e-02,8.66130e-02,4.25810e-02,-4.69871e-03,-9.08925e-02,-7.68170e-03,8.35303e-02,-7.37798e-02,-1.05074e-01,9.10580e-02,7.68566e-02,1.03491e-01,1.02621e-01,8.05115e-02,-2.30644e-02,-1.31307e-01,6.74572e-02,3.20894e-03,3.04369e-02,9.48954e-02,-8.71976e-02,9.04885e-02,6.75254e-02,-7.40509e-02,-6.10544e-02,-7.37772e-02,1.93230e-02,9.68463e-02,1.08054e-01,-2.11668e-02,-9.88994e-03,-1.09333e-01,-1.31171e-01,-8.07577e-02,-1.02850e-01,-8.66522e-03,4.12646e-02,2.64699e-02,5.05676e-02,6.56642e-02,1.23283e-02,-4.59735e-02,1.28786e-01,6.25776e-02,9.78547e-02,9.65993e-02,-1.24943e-01,3.71355e-02,1.04976e-01,1.19320e-01,-4.26240e-02,-7.49073e-02,1.03192e-01,8.10964e-02,1.26708e-02,1.04837e-01,1.01562e-01,4.04634e-02,1.04270e-01,1.32986e-02,5.70191e-02,1.03187e-02,-4.22457e-03,4.13026e-02,3.64125e-02,-8.26708e-02,-1.36625e-01,-6.14045e-02,9.76408e-02,1.25548e-01,5.02696e-02,-9.17586e-02,2.11949e-02,5.85821e-02,7.92987e-02,-3.65317e-02,-2.78031e-02,7.96165e-02,9.67122e-03,-1.14134e-01,-7.52345e-02,-8.85215e-03,-5.23109e-02,4.92419e-03,-1.05473e-01,-7.52269e-02,1.81621e-02,2.77277e-02,5.86902e-02,-2.52890e-02,1.29562e-01,8.29621e-02,-5.09347e-02,
5.16686e-02,-6.51665e-03,-5.77008e-04,5.47370e-02,3.44168e-02,-6.49991e-02,1.38041e-01,1.03238e-01,-3.70723e-02,-7.05267e-02,-7.81621e-02,2.86938e-03,-5.72133e-02,1.16684e-02,-1.61216e-02,3.13146e-02,4.61563e-02,-2.07583e-02,-1.10460e-01,-5.96521e-02,1.00675e-02,-1.13775e-01,-3.14288e-02,-1.07744e-01,1.17427e-01,-5.44342e-02,7.27310e-02,9.86849e-02,-2.63397e-02,-7.21482e-02,-1.03316e-01,-1.51782e-02,1.73404e-02,-7.43082e-02,4.77275e-02,-9.79401e-02,3.96489e-02,7.52763e-02,-6.61454e-02,-5.18551e-02,-7.68627e-02,-7.33043e-02,1.07829e-01,9.71676e-02,-4.70512e-02,1.14985e-02,-6.81967e-02,4.98059e-02,7.90841e-02,-8.37601e-02,-2.66014e-02,-7.94311e-02,2.70569e-02,-4.61784e-02,-2.76052e-02,-2.52724e-02,1.18673e-02,1.94766e-02,-7.28645e-02,7.10345e-02,-6.42194e-02,1.22900e-01,2.38572e-02,-2.81363e-02,-7.82263e-02,-2.02480e-02,-2.94859e-02,-4.55161e-02,-1.55542e-02,-1.29345e-02,-9.88275e-02,4.12111e-02,6.10433e-02,7.18681e-02,1.05920e-02,-1.21788e-01,9.14822e-02,7.47411e-02,-9.90210e-02,-3.14045e-02,-3.57391e-02,1.03920e-01,-3.53760e-02,-1.34369e-01,2.98993e-02,-5.71155e-02,-6.80493e-02,5.60888e-02,1.15273e-01,-1.06801e-01,1.05283e-01,-4.87359e-02,4.69148e-02,1.00449e-01,4.16260e-02,5.30850e-03,8.00190e-03,-3.43174e-02,-7.88235e-02,6.81484e-02,-6.92209e-02,6.40266e-02,5.35866e-02,-1.32862e-01,5.41925e-02,3.20978e-02,1.31655e-01,-3.30899e-02,-6.78864e-02,-8.80693e-02,9.58127e-02,9.58733e-02,-8.14651e-02,-9.19968e-03,7.42231e-02,9.20443e-02,7.83349e-03,2.77282e-02,1.07025e-02,-7.63898e-02,-1.20804e-01,5.34354e-02,9.48026e-02,-2.57148e-04,1.23080e-01,-6.31906e-02,6.58500e-02,6.50689e-03,-6.96148e-02,8.13725e-02,1.65453e-02,-2.11042e-02,6.56768e-02,-5.07076e-02,8.18613e-02,-1.22439e-01,1.13356e-01,-1.07644e-01,-8.43205e-02,3.81085e-02,-4.07517e-02,-1.61908e-02,-1.21595e-01,-2.98871e-03,6.32340e-02,-1.23186e-02,-7.50315e-02,1.17834e-01,3.66420e-02,7.86604e-02,6.96386e-02,-8.13245e-02,-7.66358e-02,2.14344e-02,4.36781e-02,1.07774e-02,-3.27605e-02,1.05548e-01,-8.74394e-02,-6.29653e-02,4.78918e-02,4.20675e-04,-4.41518e-02,3.16429e-02,7.62060e-02,-1.05320e-01,-9.06326e-02,-6.90612e-02,9.91230e-02,-5.48657e-02,-4.72216e-02,-4.83620e-02,4.87739e-02,7.32614e-03,4.32592e-02,3.39099e-03,7.29500e-02,1.27900e-01,-4.66646e-02,1.31552e-01,2.31135e-02,1.08582e-01,-9.83494e-02,-4.14193e-02,-3.39385e-02,-3.24090e-02,-2.59074e-02,6.93057e-02,-1.05343e-01,-1.16733e-01,-9.25004e-02,3.38145e-02,6.09497e-02,-4.66476e-02,-6.24792e-02,5.84033e-02,5.88349e-03,1.12748e-01,1.18639e-01,4.60944e-02,
4.50526e-03,6.44060e-02,1.23408e-01,1.13009e-01,1.19022e-01,3.44733e-02,-9.75196e-02,-7.73023e-02,8.48971e-02,-3.52854e-02,-3.50195e-02,1.03813e-01,2.58205e-02,-8.70370e-02,-9.07668e-02,5.82152e-02,3.05478e-02,-7.42829e-02,1.01529e-01,-1.31824e-03,-3.82508e-02,-2.29271e-02,-9.58853e-03,8.32115e-03,9.56250e-03,5.99158e-02,-6.63289e-02,3.29385e-02,-6.49948e-02,2.94746e-02,1.11820e-02,-1.11326e-01,-2.79737e-02,-3.71478e-05,8.30215e-02,-4.28919e-02,-1.05773e-01,2.90258e-02,-1.09190e-01,-7.71459e-02,5.20671e-02,-1.17868e-02,3.95892e-03,-1.68329e-02,5.95826e-02,2.16017e-02,4.64636e-02,2.27389e-02,1.60001e-02,6.28316e-02,3.29196e-02,-9.79949e-02,-1.14449e-01,8.71534e-02,1.20897e-01,-7.67699e-02,8.31258e-02,-2.52140e-02,-1.22995e-01,8.64685e-02,3.28524e-02,-7.24747e-02,5.25576e-02,1.66813e-02,2.86720e-03,-5.49731e-03,4.57808e-02,-6.57911e-02,-8.58892e-02,9.84814e-02,1.08333e-01,4.35182e-02,9.31304e-02,-1.20087e-01,-3.75027e-02,-1.23715e-01,1.63418e-02,1.17849e-01,-1.29200e-01,-7.02371e-02,2.89925e-02,3.96306e-02,-7.59629e-02,9.78252e-02,-1.17808e-01,-6.20014e-02,7.48467e-02,-3.92927e-02,-8.48741e-02,6.33166e-02,3.14000e-03,-8.18242e-04,-9.95603e-02,1.04877e-01,5.42337e-03,-9.64076e-02,-4.86829e-03,3.08962e-03,-4.02524e-03,-8.22793e-02,5.43839e-02,3.39741e-02,-2.98732e-02,-1.33718e-01,6.67348e-02,3.97116e-02,8.23912e-02,-4.62723e-02,1.12850e-01,3.39028e-03,-1.08264e-01,1.47008e-02,-1.16498e-01,-5.80262e-02,-1.07231e-01,-3.02861e-02,1.42062e-03,-6.33083e-03,-2.54470e-02,3.83341e-02,-3.76487e-02,4.02995e-02,9.22310e-02,-5.83496e-02,-6.86123e-02,-9.93076e-02,-7.56815e-02,7.80675e-02,-2.63574e-02,9.66899e-02,3.84374e-02,-4.01631e-03,-2.09031e-02,-1.28690e-01,6.46992e-02,-7.53080e-02,-1.03540e-01,7.84083e-02,8.93807e-02,-2.08122e-02,9.15963e-02,-9.15264e-02,8.14827e-02,-1.24960e-01,5.03057e-02,-4.26746e-02,-8.21925e-02,1.95501e-02,1.08596e-01,-9.13308e-02,-2.03238e-02,-6.21069e-02,1.14569e-01,1.00752e-01,4.27694e-02,2.50411e-02,-1.02040e-01,-2.52490e-02,2.65378e-02,-9.05611e-02,-3.62506e-03,-4.74647e-02,-9.41363e-02,-1.17554e-01,3.65788e-02,-1.09223e-01,-1.05762e-01,-4.83480e-02,6.94598e-02,-1.68823e-02,-1.24539e-01,2.25519e-02,-1.03214e-01,-9.10146e-02,6.50830e-02,-2.58747e-03,-6.40714e-02,-3.05281e-02,-6.40365e-02,5.72590e-02,-3.33022e-02,6.64750e-02,-5.56280e-02,-6.15579e-02,9.36101e-02,-5.76629e-02,-4.03957e-02,2.98804e-02,8.87653e-02,-1.14715e-01,-1.14347e-01,-3.15102e-03,-9.28913e-02,-9.68542e-02,-6.82992e-02,1.50531e-02,1.99127e-02,1.75204e-04,-3.96454e-02,-4.73164e-03,
2.94689e-02,-3.17244e-03,1.54067e-01,5.75669e-02,1.22393e-01,-2.86244e-02,-1.05224e-01,-6.06191e-02,-4.07141e-02,5.09828e-02,5.86291e-02,1.15980e-01,1.27154e-01,-5.41462e-02,1.44780e-01,-9.34284e-02,-2.25123e-02,1.01494e-01,3.79043e-02,-5.80405e-02,4.65788e-02,-9.70128e-02,1.18333e-01,1.38977e-02,-2.45831e-02,-1.18697e-01,-1.56175e-03,1.12269e-01,-3.35432e-02,3.31120e-02,-9.62130e-02,1.02891e-01,-6.19193e-03,3.82577e-03,7.75152e-02,-1.12417e-01,1.45473e-01,7.80632e-02,4.24721e-02,-8.33463e-02,4.27066e-03,-6.91216e-02,2.07272e-02,1.11350e-02,-1.21698e-01,8.27903e-02,-8.77627e-04,1.69328e-02,6.83377e-02,-3.31397e-02,1.37189e-01,1.23704e-01,-6.97585e-02,-6.99910e-02,-5.04339e-02,7.00442e-02,-6.43571e-02,-6.23869e-02,2.54798e-02,8.49713e-02,6.65179e-02,-7.98203e-02,7.80447e-02,-4.47388e-02,-2.92568e-02,6.00130e-02,9.27092e-03,8.13139e-03,-8.71016e-02,-1.20833e-01,-7.27566e-02,-1.25637e-02,-2.29893e-02,4.55880e-02,-7.16248e-02,4.47598e-02,5.20214e-02,-4.04363e-02,1.42771e-02,-8.56934e-02,-2.16226e-02,-7.11652e-02,-1.02385e-01,-2.72299e-02,-7.22561e-02,1.19750e-01,3.79726e-02,-1.00836e-02,-8.65590e-02,-7.63773e-02,-7.72318e-02,-1.22192e-01,-3.84509e-04,-7.04998e-03,-8.76119e-02,8.79323e-02,5.10977e-03,1.21875e-01,4.16948e-02,-7.26613e-02,-8.04498e-02,1.08542e-01,-6.24241e-02,3.44191e-02,7.62481e-02,-2.57535e-02,6.19374e-02,7.57077e-03,-4.43578e-02,1.00903e-01,-6.07916e-03,8.89336e-02,-4.60004e-02,1.32732e-01,-1.02755e-01,1.00295e-02,1.69040e-01,-8.04131e-02,1.35632e-01,7.85996e-03,5.08628e-02,1.80564e-02,5.76217e-02,-1.23746e-01,-6.87462e-02,1.22135e-01,-1.19408e-03,1.11105e-02,-7.89196e-02,7.00187e-02,-9.55371e-02,6.35179e-04,-1.34734e-02,5.22256e-02,-5.96270e-02,7.58653e-02,-6.12142e-02,-5.34710e-03,4.47704e-02,1.71443e-02,2.58668e-02,1.09648e-01,5.22044e-03,2.48766e-03,9.45004e-02,8.19642e-02,-3.73166e-02,-1.09626e-01,-3.10996e-02,1.06972e-01,-1.15861e-01,-9.30279e-02,-9.64302e-02,-3.69169e-02,-3.19801e-02,8.57828e-02,7.67336e-02,1.03497e-01,-1.15305e-02,-4.84298e-02,7.83878e-02,4.73956e-02,-1.81295e-02,-7.03173e-02,-7.69091e-02,-1.27769e-02,9.24401e-02,-9.17889e-02,-3.78412e-02,-7.27669e-03,2.12103e-02,4.73710e-03,8.48863e-03,-2.95914e-02,-5.45773e-02,-1.16540e-01,9.70164e-02,6.07864e-02,1.03911e-01,8.11388e-02,-6.41787e-03,1.25860e-02,-9.45435e-02,-8.71886e-02,9.87743e-02,7.26605e-02,-9.73308e-02,-3.63180e-02,-3.78207e-02,9.51197e-02,4.47712e-02,-7.24711e-02,-8.04223e-02,-2.74711e-02,-6.35722e-02,1.53340e-01,2.48242e-02,1.25971e-01,-7.40968e-02,2.14759e-02,
-3.06382e-02,1.02372e-01,8.26481e-02,8.90345e-02,-6.51715e-02,9.97003e-02,-4.41014e-02,-9.85984e-02,-5.29071e-02,-9.83964e-02,5.14400e-02,-5.48187e-02,-3.35665e-02,-4.20801e-02,-4.29575e-02,1.28681e-01,-9.14061e-03,-6.13512e-02,9.21113e-02,5.50673e-03,1.84622e-02,-9.08213e-02,2.24289e-02,-7.66785e-02,8.26191e-02,1.58588e-02,1.14062e-01,1.09780e-01,9.21100e-02,-8.03625e-02,-7.85561e-02,9.10059e-02,-2.83123e-02,2.99010e-02,8.64721e-02,-3.78009e-03,-1.06633e-01,9.07988e-02,-6.50551e-02,9.44573e-02,9.20097e-02,-3.39311e-02,-7.86437e-02,9.21891e-03,5.09557e-02,2.42414e-02,8.30478e-02,-5.24794e-02,-9.90387e-02,2.84093e-02,-3.81308e-02,8.98095e-02,6.53353e-02,-3.34727e-02,-1.19800e-01,2.41925e-02,1.55187e-02,-7.14951e-02,1.52529e-01,3.07198e-02,1.83546e-02,-1.58010e-02,4.92411e-02,-9.13889e-02,1.15791e-01,-8.94933e-02,-3.06994e-02,-1.18761e-01,7.80892e-02,6.73744e-02,-7.86518e-02,-1.21038e-01,-5.14616e-02,6.97216e-03,-6.38357e-03,-7.86278e-02,4.04093e-02,-2.63509e-02,9.03386e-02,2.05636e-02,5.51722e-02,2.94556e-02,1.17642e-01,-1.20041e-01,-1.61820e-02,8.05803e-02,1.42155e-02,1.14664e-01,4.49568e-02,-6.95520e-02,4.10676e-02,1.11290e-01,-2.42802e-02,9.34863e-02,-8.05569e-02,1.12305e-01,1.06854e-01,6.75775e-02,-7.86213e-02,-2.87206e-02,1.17125e-01,-2.35197e-02,8.57860e-02,-1.53864e-01,-6.87382e-02,-7.51273e-02,8.01698e-02,1.24580e-01,-1.00304e-01,1.40219e-02,-1.29426e-01,-4.52364e-02,-5.99018e-02,-4.74957e-02,3.84100e-02,-6.04311e-04,-1.01964e-01,-5.12274e-03,-1.19479e-01,-5.13917e-02,-1.02925e-01,1.22380e-02,1.29587e-01,1.13656e-01,6.36107e-02,-3.95245e-02,9.44897e-02,-9.92798e-03,-4.29531e-02,-1.17972e-01,1.59795e-02,2.24374e-03,6.60438e-02,3.92097e-02,8.13496e-02,-6.62372e-02,-3.61196e-02,7.04751e-02,-1.44443e-02,4.83881e-02,-9.75926e-03,-6.04808e-02,2.82773e-02,-9.22133e-02,1.33591e-01,-2.74587e-02,4.43748e-02,1.62900e-02,-6.42205e-02,-1.12643e-02,-8.12477e-02,-1.11193e-01,5.30386e-02,1.54944e-02,-8.39740e-02,2.34528e-02,-1.37820e-02,1.20844e-02,-3.93768e-02,-3.02589e-02,2.89380e-02,-3.38323e-02,9.74786e-02,-8.95968e-02,-5.08071e-03,1.06058e-03,7.50634e-02,3.40186e-02,4.82276e-02,7.58048e-03,9.39031e-02,5.18501e-02,-9.10836e-02,2.39342e-03,2.91685e-02,-9.35314e-02,-8.14281e-02,6.37870e-02,-4.59815e-03,4.48617e-02,5.13642e-02,3.09050e-02,-3.83594e-02,1.57740e-02,-8.99018e-02,2.31826e-02,1.02517e-01,-7.21862e-02,8.66822e-02,9.23841e-03,-4.22104e-02,3.44393e-02,1.14675e-01,-8.44180e-02,8.35234e-02,-1.27687e-01,-3.63970e-02,3.30103e-02,-2.98789e-02,1.09778e-02,
