// Neural Network File Format by Kyle Julian, Stanford 2016
6,6,1,64,
6,64,32,16,8,4,1,
0,
0,0,0,0,0,0,
1,38,1,1,1,1,
0,0,0,0,0,0,0,
1,38,1,1,1,1,1,
-1.22814e-01,-3.62616e-01,-3.20465e-01,6.58489e-02,2.26220e-01,5.50988e-02,
2.84293e-01,7.06500e-02,-2.03840e-01,-3.30026e-01,2.92204e-01,-3.65825e-02,
-2.08523e-01,2.15145e-01,1.78507e-01,2.64871e-01,1.79243e-01,2.74411e-01,
-2.40846e-01,-2.82961e-01,3.01884e-01,-1.20233e-01,8.53494e-02,3.24636e-02,
-6.65028e-02,1.07248e-01,1.28352e-01,-3.14537e-01,9.31832e-02,-2.58498e-01,
1.90743e-01,-1.67566e-01,2.07244e-01,-3.12781e-01,1.87247e-01,-1.72242e-01,
2.11036e-01,-2.01042e-01,3.26959e-01,1.58224e-02,1.45012e-01,2.09778e-02,
-9.54828e-02,-1.05091e-01,2.96130e-01,-1.52324e-01,1.35216e-02,2.73948e-02,
1.63176e-01,-2.48965e-01,9.65940e-02,-6.01026e-02,-1.38910e-01,-1.17263e-01,
-1.40493e-01,1.56325e-01,1.29473e-01,2.27688e-01,-1.99193e-01,4.95467e-02,
2.41438e-01,-4.38014e-01,2.23733e-01,-2.64125e-01,-5.93715e-02,-1.32844e-01,
2.18792e-01,9.62885e-02,-1.65203e-01,2.95966e-02,4.50275e-02,-7.44310e-03,
2.64734e-02,1.75486e-02,1.22352e-01,-4.18055e-01,-2.26833e-01,1.54238e-01,
4.96417e-02,2.63113e-03,-2.29770e-01,1.56622e-01,-1.40762e-01,-1.59234e-01,
2.16150e-02,9.33394e-02,1.87512e-01,-1.84089e-01,-3.93953e-02,2.10891e-01,
7.08678e-02,-9.43729e-02,-6.47785e-02,1.40781e-01,-1.66039e-01,3.09344e-01,
3.39347e-02,-1.82067e-01,-1.82185e-01,-1.42142e-01,-1.65033e-01,-2.14959e-01,
1.06033e-01,4.15342e-02,-2.38239e-01,3.10802e-01,2.48055e-01,1.94995e-01,
2.87159e-01,3.00611e-02,-2.50494e-01,-1.11393e-02,6.68319e-02,-3.38904e-01,
9.72824e-02,-3.01483e-01,-1.68068e-01,-2.57279e-01,1.21875e-01,2.25032e-01,
5.43802e-02,-9.19696e-02,2.49920e-01,2.76948e-01,-2.22252e-01,-2.11216e-01,
-1.83137e-02,-2.21574e-01,-2.01296e-01,-3.05158e-01,3.49015e-01,1.78528e-01,
3.28166e-01,-9.62105e-02,-3.17832e-03,1.25328e-01,-1.97370e-01,1.90155e-01,
1.71518e-01,-7.23728e-02,7.67668e-02,-2.29522e-01,1.61129e-01,2.03065e-01,
-2.73393e-01,-6.24089e-02,3.12818e-03,-2.79809e-01,2.12539e-01,-1.54510e-03,
2.26863e-01,1.45138e-01,2.37343e-02,-2.80594e-03,2.40335e-01,-1.54092e-02,
2.88427e-01,-2.24338e-02,3.41685e-02,-3.30355e-01,1.12506e-01,-1.84041e-01,
1.65024e-01,9.20682e-03,-5.97857e-02,2.96302e-01,1.33063e-01,-8.87720e-02,
3.09669e-01,1.09757e-01,-2.79484e-01,-8.24092e-02,-2.42752e-02,1.96937e-01,
-1.15456e-01,3.02049e-01,-2.45893e-02,2.33677e-01,-1.14801e-01,4.73982e-02,
3.30920e-01,1.33857e-01,-1.52755e-02,3.09018e-02,-5.94768e-02,1.38069e-01,
5.21401e-02,-1.50438e-01,1.63399e-01,9.61720e-02,6.10900e-02,3.17182e-01,
1.42448e-01,1.46220e-01,-2.68055e-01,-1.96603e-01,8.24029e-02,-2.18976e-01,
-1.04429e-01,1.95105e-01,-2.73945e-01,1.23298e-01,-1.94420e-01,-1.16997e-01,
5.11359e-02,1.61824e-03,3.55388e-01,-1.51057e-01,-1.00645e-02,-1.53356e-01,
-1.60686e-01,-1.01773e-01,-5.41702e-02,-1.34173e-01,-2.78010e-01,3.46160e-02,
1.81245e-01,-1.78961e-02,-3.51797e-01,2.10431e-01,-2.06824e-01,1.30189e-01,
-1.23750e-01,6.14569e-03,1.42916e-01,8.42543e-02,-7.00304e-03,-7.01498e-02,
-2.86623e-01,7.50125e-02,-4.62137e-02,1.30845e-01,-2.08535e-01,-3.71802e-01,
-1.86727e-01,-1.01610e-01,-4.69561e-02,-2.50190e-01,-2.49153e-01,2.43936e-01,
2.15198e-01,1.19689e-01,6.60592e-03,-2.70625e-01,-2.57232e-01,1.09764e-01,
-4.77405e-02,4.09146e-02,3.16074e-01,-9.90009e-02,1.17142e-01,1.84752e-01,
-1.63608e-01,-1.92505e-01,2.16654e-01,-1.90214e-01,2.08071e-01,-3.09612e-01,
-2.55654e-01,2.48446e-01,8.06292e-02,1.79060e-01,-3.28727e-02,-1.76312e-01,
2.14073e-01,-1.02137e-01,3.34197e-01,4.35127e-02,1.82261e-01,7.36756e-02,
-2.53662e-01,-2.75875e-01,1.36249e-01,1.10865e-02,-1.76444e-01,-2.54916e-01,
1.31003e-01,-2.13818e-01,-3.42266e-01,3.94348e-02,2.28323e-01,1.26750e-01,
2.19285e-01,9.06310e-02,3.91179e-02,4.52469e-02,-1.86422e-01,1.03022e-02,
-1.43755e-01,-2.76728e-01,-2.04429e-01,1.67845e-01,3.51327e-02,3.88278e-01,
1.11856e-01,-2.49269e-01,-3.13799e-01,-1.79056e-02,-6.99542e-02,2.92071e-01,
-2.47061e-01,-1.96888e-01,-1.27140e-01,-2.19299e-01,9.41613e-02,1.44299e-01,
-5.95342e-02,4.05578e-02,-3.01771e-01,1.59290e-01,1.69336e-01,1.56707e-01,
-1.85413e-01,2.48687e-01,3.14220e-01,-3.39735e-01,-7.39652e-02,-1.07208e-01,
2.30090e-01,1.75433e-01,-2.92821e-01,-8.95068e-02,-8.68642e-02,1.72131e-01,
7.54026e-02,-2.84347e-01,2.21455e-01,-2.23762e-01,-7.79103e-02,5.58102e-02,
2.21576e-03,2.18245e-01,-3.13942e-01,7.78602e-02,-3.82107e-02,-9.87665e-02,
-1.71757e-01,-2.74013e-01,7.16854e-02,2.11555e-01,1.71214e-01,1.74540e-01,
1.75163e-01,8.30417e-02,-8.98729e-02,2.20734e-01,2.38923e-01,-9.61201e-02,
-1.07580e-01,-2.05459e-01,2.12332e-01,-2.22965e-01,2.82086e-01,2.65346e-01,
1.74675e-01,2.26841e-01,-1.70979e-01,-1.10567e-01,2.44125e-01,-4.88682e-02,
-2.25588e-01,-2.75892e-01,3.37346e-02,-2.21272e-01,1.96040e-01,-1.23491e-02,
-2.81240e-01,2.53372e-01,2.33485e-01,-1.55489e-01,-2.11473e-01,-1.13130e-01,
-1.62905e-01,4.90709e-02,2.67773e-01,-2.14558e-01,2.51843e-01,3.31233e-01,
-2.88692e-01,-1.81950e-01,-1.29937e-01,2.35086e-01,-3.89398e-03,8.25761e-03,
-8.74222e-03,
-4.54346e-03,
6.67396e-02,
3.43709e-02,
-7.04241e-02,
-4.37169e-02,
4.52852e-02,
4.90203e-02,
-1.32006e-02,
6.65412e-02,
-3.87287e-02,
-3.40495e-03,
1.98998e-02,
1.86553e-02,
-4.77367e-03,
1.82235e-02,
1.38850e-01,
2.05077e-02,
5.54199e-02,
-6.85180e-02,
-1.31146e-02,
-8.19692e-04,
6.43225e-02,
8.88997e-02,
2.59065e-03,
-3.45736e-02,
3.34571e-02,
-3.74906e-03,
2.16932e-02,
-4.29366e-02,
-3.78867e-02,
7.57437e-02,
1.70667e-04,
1.61070e-03,
1.12930e-01,
-3.82871e-02,
-6.81462e-03,
8.22033e-02,
-4.14243e-02,
-3.03796e-02,
-8.02160e-02,
3.32011e-02,
-5.82765e-02,
5.56355e-02,
6.79094e-02,
8.80880e-02,
-2.71984e-02,
-4.48755e-02,
7.85724e-02,
-1.52475e-02,
-4.72119e-02,
1.32385e-02,
1.94769e-02,
3.63915e-02,
-4.32969e-03,
-5.43400e-03,
6.90333e-02,
3.50424e-02,
5.07476e-02,
1.20210e-02,
-3.19206e-02,
6.09608e-02,
8.13437e-02,
3.47139e-02,
3.67146e-03,1.35294e-01,1.17977e-01,-2.19186e-01,5.15082e-02,-1.94596e-01,-2.20528e-01,1.69791e-01,6.54058e-02,2.28109e-01,-1.84657e-01,7.07637e-02,9.38631e-02,-3.22555e-02,5.51946e-02,1.74254e-01,-2.16526e-01,-1.63603e-01,1.57834e-01,-1.54163e-01,1.52578e-01,3.00477e-02,-2.09996e-01,-2.32516e-01,4.98418e-02,-1.26549e-01,-3.59428e-02,-3.55703e-02,-1.19874e-01,1.79028e-01,-1.05257e-01,1.58877e-01,-5.39716e-02,-3.79224e-02,-9.62636e-02,1.24133e-01,7.68234e-03,-1.98535e-01,-2.09870e-01,1.70663e-01,-1.53549e-01,-2.57546e-01,5.99899e-04,-1.95983e-01,-1.72452e-01,2.22947e-01,-1.07059e-01,-1.81924e-02,4.81605e-02,-1.64745e-01,1.72244e-01,-1.85575e-01,1.17466e-03,-1.80218e-01,-1.20541e-01,-1.89118e-01,-1.65043e-01,2.22975e-01,-2.22183e-01,1.87807e-02,-1.75126e-01,1.16178e-01,-2.32950e-01,-2.41916e-01,
2.40754e-01,-4.19225e-02,1.13665e-01,-2.32106e-01,-5.57058e-02,1.10731e-01,-9.23457e-02,1.71077e-01,2.49773e-01,1.10989e-01,2.13051e-01,-1.07123e-01,-1.90485e-01,1.93640e-01,-1.80607e-01,-1.42310e-01,-2.87810e-01,-1.54833e-02,1.51846e-01,2.80624e-01,1.04991e-01,-5.22094e-02,-5.83816e-03,1.79937e-01,3.28882e-01,1.25578e-01,9.18094e-02,1.69784e-01,2.09123e-01,2.28689e-01,-8.71182e-04,-2.72371e-01,2.53533e-01,1.98593e-01,-6.65216e-02,-5.76670e-02,1.05953e-01,-8.73817e-02,-3.11782e-02,-9.58663e-02,1.53774e-01,2.03220e-01,2.49550e-02,-1.74189e-01,2.11055e-01,-6.52036e-02,1.08682e-01,1.15843e-01,-1.72839e-01,-1.24208e-02,-1.19085e-01,2.12115e-01,1.66026e-01,1.38715e-01,-2.42173e-01,-4.56157e-02,1.00718e-02,5.91970e-02,1.84287e-01,9.87568e-02,1.73143e-01,-1.79710e-01,7.12544e-02,-2.84753e-01,
-3.71335e-02,1.76198e-01,1.26742e-01,1.25345e-01,-6.52202e-02,2.28979e-02,1.18454e-01,6.89584e-02,-1.46739e-01,3.40215e-02,1.09927e-01,1.30070e-01,1.71780e-01,2.25087e-02,-7.90970e-02,2.39558e-01,1.71383e-01,-1.26778e-01,1.21816e-01,-1.93621e-01,-1.23472e-01,5.24718e-02,2.67247e-01,1.11945e-01,-3.93507e-01,-3.42364e-02,-3.23157e-02,-2.42037e-01,-4.67685e-02,2.49070e-02,-1.83860e-01,-1.25558e-01,8.17930e-02,-6.50209e-02,2.71189e-01,7.20287e-02,-1.90140e-01,6.59450e-02,-2.33784e-01,-4.21469e-02,1.61874e-01,1.36046e-01,-1.22671e-01,1.98261e-01,2.22237e-01,-2.43020e-01,2.34793e-01,-1.65419e-01,-3.39573e-02,1.07841e-01,4.61404e-02,-1.22584e-01,1.80507e-01,1.35256e-01,2.08608e-01,1.26334e-01,-6.70415e-02,2.25676e-01,1.50940e-01,-3.73772e-02,-1.67351e-01,1.52088e-01,1.58660e-01,5.03469e-02,
-1.45859e-01,-1.58845e-01,-3.56645e-01,7.83609e-02,-3.18010e-01,2.69002e-01,-6.30919e-02,-1.09917e-01,6.84803e-02,-6.00243e-02,2.83407e-01,-8.60007e-02,2.82877e-01,-7.29250e-03,2.23142e-01,5.15399e-02,6.92675e-02,-1.18151e-03,-9.38428e-02,2.75749e-01,1.58472e-01,1.55472e-01,2.19875e-01,6.73749e-02,9.64633e-02,-1.28194e-01,1.00085e-01,9.31136e-02,1.08434e-01,-3.78932e-01,-6.29228e-02,-1.69500e-01,1.70861e-01,-1.06932e-01,1.63620e-01,8.44013e-02,4.97324e-02,3.07945e-02,-1.33268e-01,-9.80524e-02,1.50881e-01,-5.33211e-03,-2.25647e-01,-4.72779e-01,-1.92573e-01,-2.36700e-01,2.30941e-01,2.41818e-02,5.45749e-03,2.11999e-01,1.44265e-01,-7.62609e-02,1.06673e-02,-9.42809e-02,3.52276e-01,1.38844e-01,-2.50934e-01,2.17551e-01,-1.85588e-01,-2.60459e-01,7.44971e-02,-4.84446e-02,1.26531e-02,2.57237e-01,
2.87547e-01,3.17911e-01,3.50591e-02,-9.12451e-02,-5.81659e-02,-9.45140e-02,1.47393e-01,5.26987e-02,-1.09387e-01,6.16798e-02,-2.48144e-01,2.43665e-01,-1.43439e-01,-1.70696e-03,-1.89873e-01,-2.38555e-01,-1.30971e-01,-1.33726e-01,3.53696e-01,2.84223e-01,3.54385e-02,2.61808e-01,-1.01620e-01,-1.23975e-01,2.16762e-01,-1.11858e-01,2.22385e-01,1.96216e-01,2.60774e-01,-1.99122e-01,-7.36277e-02,-1.20542e-01,-5.56649e-02,8.65554e-02,-2.53948e-01,-1.76769e-01,-1.31432e-01,5.78137e-03,-2.88817e-02,-2.41408e-01,2.27535e-01,1.31691e-01,1.54028e-01,8.64923e-02,-2.32707e-01,-1.90184e-01,2.01475e-01,-1.30212e-01,-7.30927e-02,5.83841e-02,-5.27529e-02,3.17324e-01,-2.23026e-01,2.25001e-01,-1.15363e-01,6.43118e-02,2.10371e-02,7.84378e-03,2.44679e-01,2.28833e-01,6.64160e-02,1.35510e-01,-4.06941e-02,-1.45656e-01,
4.31881e-02,1.62372e-01,-8.50785e-02,1.38429e-01,9.05412e-02,-1.86772e-02,2.44391e-01,-1.33119e-01,-1.16775e-01,-9.43855e-03,-1.59142e-01,2.26527e-01,3.32608e-02,1.90161e-01,-2.19766e-01,9.12750e-03,1.79708e-01,2.29211e-03,1.95221e-01,3.94684e-01,3.43518e-02,3.59159e-01,-7.90823e-02,2.92725e-01,2.87967e-01,-3.40003e-02,1.95382e-01,-1.05496e-01,1.89032e-01,-2.13734e-01,-1.16699e-01,-1.32319e-01,2.54898e-02,-1.29003e-01,-2.55205e-02,7.41637e-03,1.43109e-01,-1.91538e-01,5.92324e-04,-2.17956e-01,-6.02385e-02,9.20248e-02,1.32520e-01,-2.05610e-01,1.98755e-02,-3.04381e-01,-9.96024e-02,-2.43336e-01,-1.01820e-02,2.93525e-01,-6.84944e-02,-1.67588e-01,5.51486e-02,6.78957e-02,-5.67093e-02,-2.63674e-02,1.77624e-02,1.95997e-01,1.01113e-01,-1.84193e-01,-2.23418e-02,9.42509e-02,-1.09647e-01,-1.70538e-02,
-1.18057e-01,-1.38083e-01,-1.40768e-01,3.46335e-02,-2.16302e-01,6.19343e-02,1.47521e-01,6.89014e-02,-1.58040e-01,-5.63635e-02,-1.18756e-01,-7.80945e-02,-1.00660e-01,7.79101e-02,1.92103e-01,-2.01928e-01,2.51117e-02,-1.73950e-01,1.79783e-01,2.34585e-01,-6.22589e-02,-1.62347e-01,8.50022e-03,-6.92775e-02,-2.01230e-01,-3.60027e-02,-1.75995e-01,-9.54699e-02,-7.74224e-02,-9.54028e-02,-7.88941e-02,5.70238e-02,-2.47491e-01,9.21541e-02,-1.23125e-01,-2.36452e-01,9.63707e-02,7.23722e-02,3.92797e-02,-9.16075e-02,1.61994e-02,-1.99898e-01,1.36969e-01,6.84267e-02,-2.14891e-01,-1.22914e-01,-2.15240e-01,-1.96142e-01,-1.42931e-01,1.92713e-01,-2.26258e-01,-2.01168e-01,8.12053e-02,1.81249e-01,3.71834e-02,-1.83433e-01,5.18070e-02,3.40691e-02,2.07026e-01,1.07726e-01,8.27752e-03,-6.14072e-02,5.18024e-02,1.09492e-01,
2.77097e-02,2.62746e-01,2.21555e-01,1.56332e-01,1.78267e-01,1.74828e-01,1.47592e-01,3.24915e-01,2.53274e-02,-8.88970e-02,-9.69641e-02,2.25310e-01,2.57105e-01,1.42476e-01,2.28829e-01,-2.06761e-01,2.05364e-01,-1.59194e-01,1.62347e-01,-1.71032e-01,-1.00264e-01,2.10845e-02,-9.54733e-02,1.99909e-01,8.17287e-02,-9.12291e-02,-1.96544e-01,-9.98989e-02,1.25374e-03,-2.10756e-01,-1.00266e-01,2.48894e-01,7.86100e-02,8.74857e-02,5.64769e-02,-1.95257e-01,1.15261e-01,-7.78940e-03,-1.14539e-01,1.51502e-01,3.00366e-01,2.09969e-02,-2.63129e-02,-1.89410e-01,-1.08883e-02,1.46789e-01,-2.26223e-01,-1.21567e-02,3.05317e-01,-2.76625e-01,-1.96254e-03,-2.50056e-01,2.54838e-01,-9.59913e-02,-9.48596e-02,1.28977e-01,-1.79514e-01,-5.52823e-02,3.31912e-01,1.82535e-01,1.60840e-01,2.65664e-01,-7.62351e-02,9.41824e-02,
-1.71863e-01,-2.29358e-01,1.61954e-01,2.87263e-01,-5.26967e-02,-1.58104e-01,-1.93203e-01,1.46520e-01,1.75395e-01,-3.51774e-02,3.86009e-02,2.21601e-01,2.01688e-01,2.74452e-01,-1.80739e-01,8.50163e-02,1.59047e-01,2.56893e-01,-1.01780e-02,-1.87469e-01,-1.22682e-01,2.87176e-01,-1.60542e-01,2.50646e-01,-3.44858e-01,3.51934e-03,5.10345e-02,3.40841e-02,2.18469e-01,-3.47710e-02,-1.18953e-01,1.39812e-01,-1.36147e-03,1.00487e-01,-6.76354e-02,-5.40908e-02,-1.38070e-01,9.30905e-02,1.35513e-01,-1.54175e-02,8.91276e-02,-2.56061e-01,1.15930e-01,1.84836e-01,8.86812e-02,-2.42826e-01,3.04448e-01,1.36139e-01,1.15171e-01,1.60710e-01,2.38056e-02,3.10991e-02,-1.61084e-01,-1.55471e-01,-1.55280e-02,6.95679e-02,1.26669e-01,-1.25474e-02,3.10226e-01,-2.28118e-01,-1.74769e-02,2.54156e-02,8.13066e-02,1.93042e-01,
-1.88765e-01,-1.67305e-01,-2.66594e-02,-1.48359e-01,9.53847e-02,1.16598e-01,2.72152e-01,2.36509e-01,8.46896e-02,-2.06916e-02,9.39962e-02,-2.12019e-01,3.48900e-01,-6.22650e-02,6.83289e-03,-1.45646e-01,3.61232e-01,-1.88146e-01,9.17880e-02,-2.67270e-01,8.11532e-02,-4.54550e-02,2.59954e-02,1.05214e-01,-4.08019e-01,-3.19587e-02,-3.96414e-02,-4.75121e-03,2.36369e-01,2.02221e-01,2.12990e-01,2.45879e-01,-4.92061e-02,-8.64442e-02,2.97470e-01,1.54186e-01,-3.18899e-01,7.72077e-03,1.08345e-01,-7.05873e-02,-1.55788e-01,1.46384e-01,8.66532e-02,1.42324e-01,-1.85376e-01,1.61642e-01,-1.42315e-01,7.52812e-02,2.24252e-01,4.92582e-02,1.56835e-01,-1.80178e-02,1.97587e-01,-1.76618e-01,-1.36865e-01,7.25076e-02,-1.18700e-01,-2.30160e-01,2.15468e-01,-2.09829e-01,3.97570e-02,-5.18117e-02,3.01700e-01,-1.95428e-01,
8.68842e-02,7.60701e-02,-1.67336e-01,1.74188e-01,-1.45577e-01,-3.32305e-02,8.12692e-02,2.10621e-01,2.27136e-01,1.40522e-01,1.36717e-01,-1.79848e-01,-2.22387e-01,-2.58804e-02,4.81942e-02,-1.13025e-02,1.64839e-01,-2.20979e-01,-6.86420e-03,1.93998e-01,-1.22075e-02,1.38516e-01,-1.49216e-01,-1.27360e-01,-3.51771e-01,2.28678e-01,-2.61108e-01,1.43798e-01,-1.56925e-02,-1.95834e-01,-3.15326e-02,-3.54981e-02,2.23993e-01,2.25915e-01,9.46261e-02,1.17726e-01,3.91890e-02,-1.90734e-01,8.65474e-02,3.93342e-02,-2.44110e-01,-7.29619e-02,1.97096e-01,4.88341e-02,-2.04932e-01,1.15606e-01,-2.07608e-01,1.92664e-01,-1.32501e-01,1.91104e-01,2.16933e-01,-1.63747e-01,9.86896e-02,8.79489e-02,-1.23586e-03,7.62491e-02,1.67437e-01,-4.48169e-03,9.64926e-02,-2.08995e-01,2.08359e-01,-1.50063e-01,-3.24205e-03,1.06036e-01,
2.97960e-01,9.22239e-03,-2.25709e-01,7.28584e-02,-2.21273e-01,8.27346e-02,-3.94661e-02,-1.51174e-01,3.31633e-01,-1.51710e-01,1.79613e-01,8.78337e-02,-1.03122e-01,4.59907e-02,-5.47159e-02,4.92424e-02,-1.45769e-01,2.52162e-01,3.62193e-01,-4.09156e-02,-1.45117e-01,1.83190e-01,1.48379e-01,1.77303e-01,2.24953e-01,8.64360e-02,3.38528e-01,-4.10800e-02,1.74570e-01,1.90131e-01,1.24937e-01,-1.98624e-01,2.06347e-01,-4.55697e-02,-1.24621e-01,-1.90034e-01,3.07155e-01,2.43421e-01,-1.24188e-01,-1.22060e-01,-1.68226e-01,-1.63917e-01,4.81121e-02,-1.51642e-01,-2.30489e-02,-1.10721e-02,2.48881e-01,-1.26784e-01,2.47885e-01,-9.94860e-02,2.52394e-01,1.96767e-01,1.33684e-01,2.83616e-02,2.19729e-01,2.05276e-01,2.05633e-01,1.84033e-01,1.45358e-01,2.12564e-01,-5.47917e-02,-2.92803e-02,-2.49326e-02,-5.88292e-02,
3.27382e-02,-1.91961e-01,-6.08659e-02,1.06963e-01,-1.67802e-02,6.52235e-03,-4.64278e-02,1.18825e-01,-1.23259e-01,5.48289e-02,-1.60466e-02,-7.75889e-02,2.64488e-01,-1.91050e-02,-1.46995e-01,1.15960e-01,-1.04822e-01,-2.19961e-01,-1.44023e-01,1.22555e-01,-3.77253e-02,-6.46027e-02,3.94917e-02,-4.55182e-02,8.87465e-03,6.42703e-02,1.04678e-01,1.64987e-01,1.95360e-01,2.36682e-02,-1.66372e-01,-1.47369e-01,-2.48842e-02,-1.24931e-01,1.16084e-01,-1.84396e-02,-1.01250e-01,7.76259e-02,1.52790e-01,9.24626e-02,1.81349e-01,-1.11515e-02,-1.41811e-01,-1.59187e-01,-3.54114e-02,5.25382e-02,1.41092e-01,6.76980e-02,5.77391e-02,1.16588e-01,1.19448e-01,9.95711e-02,2.48532e-01,8.88070e-02,8.19017e-03,2.34467e-01,2.14501e-01,-2.29524e-01,2.96778e-02,7.36622e-02,-1.52492e-01,1.16755e-01,2.16400e-01,-6.36247e-02,
-1.98090e-01,-1.02421e-01,-5.75675e-02,2.69379e-01,7.36466e-02,8.78840e-02,1.97447e-01,1.41416e-01,-2.51850e-01,2.42048e-01,1.28865e-01,-1.22078e-01,2.44652e-01,-7.71044e-02,2.37507e-01,2.69382e-02,4.10583e-01,-1.35194e-01,-2.71469e-01,-1.19686e-01,2.37658e-02,-3.17995e-01,7.06211e-02,-1.00657e-02,-1.40577e-02,-1.90330e-01,-1.09921e-01,4.67536e-02,1.24718e-01,1.47105e-01,-1.95565e-01,6.32551e-02,-3.52930e-02,-1.85952e-01,-3.09403e-02,-6.76080e-03,-1.59308e-01,9.50186e-02,-2.05938e-02,1.09319e-01,-1.08751e-01,9.08490e-03,2.17470e-02,1.62254e-01,1.56015e-01,-6.01918e-02,7.37905e-03,-2.44405e-02,3.14190e-01,-1.84290e-01,-4.68359e-02,-1.27362e-01,7.96368e-02,-3.07877e-02,-2.14716e-02,2.22852e-02,9.42247e-02,-2.31129e-02,2.70315e-01,3.21278e-02,-2.38935e-02,8.53150e-02,2.59252e-02,-1.86547e-01,
-5.39965e-02,-3.01634e-01,2.06284e-01,2.04598e-01,-9.08057e-02,-5.23899e-02,-3.32972e-02,2.97000e-01,-9.13397e-02,1.90796e-01,-1.12957e-01,-1.82725e-01,-7.50666e-02,-4.15474e-02,-2.97508e-02,-6.44990e-02,1.54990e-01,-8.71138e-04,-1.21530e-01,-2.42453e-01,4.91137e-02,-1.40676e-01,1.70181e-01,6.26810e-02,-1.68950e-01,5.80663e-03,5.58479e-02,-1.15045e-01,-2.41466e-01,-1.85214e-01,9.30132e-02,2.06103e-01,-1.34493e-01,-1.33048e-01,3.01643e-01,-1.08905e-01,-1.40803e-01,7.72321e-02,1.24340e-01,3.24060e-01,-6.57843e-02,1.48041e-01,5.40095e-03,8.90654e-02,-4.18857e-02,2.62396e-01,-3.27414e-02,-1.11644e-01,1.44320e-01,-5.57497e-02,-2.17294e-01,-1.25678e-01,-1.38443e-01,6.56205e-02,9.00038e-02,-1.04684e-01,2.51375e-01,2.08039e-01,2.54099e-02,-2.39802e-01,-9.68331e-02,2.35770e-01,1.40165e-01,2.53944e-01,
-1.08132e-01,6.06101e-02,7.81286e-02,-1.14519e-01,-5.49949e-02,-2.80620e-01,-9.14656e-02,2.40298e-01,8.82791e-02,-9.64304e-02,-5.21995e-02,-1.83973e-01,5.25658e-02,4.55388e-02,1.99480e-02,4.90790e-02,-1.60883e-02,9.01277e-02,-2.39505e-01,1.45673e-02,-4.41311e-02,-1.68201e-02,-2.26492e-01,2.08523e-01,-3.29304e-01,2.29639e-01,-4.00421e-02,3.81459e-02,1.16874e-01,-2.06495e-01,2.48213e-02,1.31924e-01,1.72131e-01,-2.31084e-01,-1.25720e-01,1.62472e-01,-2.84611e-01,1.62417e-01,-1.90477e-01,1.82920e-01,-7.46877e-02,2.10661e-02,-2.33933e-01,-2.68307e-01,7.37162e-02,2.77231e-01,2.63659e-02,-2.32684e-01,8.30975e-02,-2.63848e-01,-4.56011e-02,-1.78373e-01,2.05440e-01,1.43941e-01,-4.05793e-02,9.62573e-02,-1.26456e-01,-1.99944e-01,2.13506e-01,-7.75281e-02,-3.26961e-01,9.15465e-03,1.45086e-01,1.63363e-01,
-6.07785e-02,-1.41715e-01,2.07358e-01,6.75699e-02,1.68082e-02,6.15368e-02,-1.44538e-01,2.25447e-01,1.16510e-01,-9.55247e-02,1.27225e-01,1.59938e-01,-3.24050e-01,1.07897e-01,1.22877e-01,-1.94695e-01,2.06100e-02,-6.08107e-03,2.81680e-01,8.07456e-02,2.31219e-02,4.74579e-02,1.18874e-02,-1.51082e-02,3.15697e-01,1.68227e-01,3.44204e-01,2.39899e-01,7.17301e-02,2.44552e-01,1.46319e-01,-4.10193e-02,9.76773e-02,1.39453e-01,1.51291e-01,-2.05665e-01,-1.22070e-01,-6.83586e-02,-6.78700e-02,-1.94360e-02,-1.96917e-01,-3.37006e-02,-1.97664e-01,-1.56127e-01,1.05437e-01,-3.75785e-03,6.62511e-02,9.79482e-02,-3.39712e-01,-1.68711e-01,6.63385e-02,-8.23044e-02,1.39032e-01,9.52488e-02,-2.55118e-02,2.35865e-01,1.45997e-01,1.99908e-01,-1.67049e-01,1.11363e-01,7.13702e-03,-1.05420e-01,-1.66213e-01,-2.64611e-01,
2.84830e-01,-1.31319e-02,-1.59019e-01,1.07054e-01,1.92497e-01,4.30480e-02,1.12286e-02,-8.24126e-02,3.00194e-01,-1.25317e-01,1.68473e-01,2.73478e-01,-2.72399e-01,2.15711e-01,1.43632e-02,-1.26749e-01,-1.37433e-01,-2.35099e-01,6.32494e-02,1.47014e-01,-9.81065e-02,1.19268e-01,1.91590e-01,-7.28655e-02,3.22191e-01,5.85007e-02,2.70303e-01,2.10534e-01,1.91288e-01,6.64961e-02,2.31241e-01,2.17573e-01,7.36002e-02,3.82826e-03,1.85895e-01,-6.09575e-02,2.77857e-01,-1.21399e-01,-4.75202e-02,-3.48284e-01,2.12793e-01,-9.12813e-02,-1.76864e-01,-2.23292e-01,1.88214e-01,-2.61503e-01,-1.19720e-01,-8.92026e-02,5.06086e-02,-9.60365e-02,2.17113e-01,2.78359e-01,6.92746e-02,-1.41320e-01,2.07307e-01,1.29376e-01,1.02580e-01,-1.24901e-01,-1.82795e-01,5.82106e-02,2.96691e-01,-1.79874e-01,-1.23223e-01,1.85587e-01,
6.46387e-02,-1.27026e-01,-1.48351e-01,-1.50498e-01,-1.45021e-01,-1.40474e-01,-3.21192e-02,-2.59059e-01,-5.70464e-03,-2.03419e-01,5.84486e-02,-1.83085e-01,8.35213e-02,-3.54574e-02,1.18502e-01,-1.24365e-01,-1.00779e-01,-1.73514e-01,-3.72782e-02,-2.31377e-01,8.83019e-02,2.51139e-02,2.23298e-01,2.09287e-01,-1.19850e-01,1.78474e-01,-1.53927e-01,-2.24863e-01,1.16684e-01,-2.19415e-01,-1.45828e-01,-6.34096e-02,-1.08770e-01,-2.35545e-01,2.08019e-01,7.41363e-02,1.01006e-03,1.50880e-01,-1.49511e-01,-2.42836e-01,-1.79488e-01,-1.85000e-01,1.11343e-01,8.94576e-02,-5.65876e-02,-1.88567e-01,-1.74018e-01,1.96960e-01,1.62779e-01,8.52094e-02,1.98180e-01,1.37392e-01,4.06861e-02,1.24383e-01,-2.43678e-01,7.44716e-02,9.86867e-02,-2.48572e-01,2.67288e-02,-1.52043e-01,-1.79725e-01,-1.18018e-02,-2.30778e-01,-2.32771e-01,
1.68211e-01,-1.44372e-01,-2.01900e-01,8.81064e-02,2.01568e-01,-2.22539e-01,-2.04570e-01,-1.08930e-01,1.04087e-01,-2.13491e-01,2.32364e-01,-1.51757e-01,-3.77858e-02,2.43294e-01,1.48809e-01,1.50415e-01,-6.37712e-02,-1.67783e-02,-1.41790e-01,1.85544e-01,1.89158e-01,2.00568e-01,-1.00640e-01,1.02671e-01,1.04976e-01,-2.11592e-01,-2.62869e-02,-2.48069e-01,4.75336e-02,1.50668e-01,-2.56047e-01,-2.18522e-01,9.66747e-02,3.89148e-02,1.44419e-01,-6.08742e-02,5.42365e-02,-2.46461e-01,1.24745e-01,1.00672e-02,-5.32190e-02,1.95974e-01,7.11622e-03,-1.17706e-01,2.16228e-01,-1.93177e-01,3.38354e-02,-1.38124e-01,-2.06148e-01,-1.58998e-01,-3.84225e-02,-1.33995e-01,2.18395e-01,3.62098e-02,-3.32031e-02,-4.05536e-02,6.35652e-02,-3.22135e-02,1.20651e-02,2.09163e-01,1.07003e-01,-1.16363e-01,-2.65470e-01,-1.83103e-01,
2.28712e-01,9.37574e-02,-1.27718e-02,-8.50875e-02,2.51891e-01,-1.49574e-02,-1.75309e-01,-2.70191e-02,7.08132e-02,8.05216e-02,-1.38879e-01,-7.71270e-02,-9.21095e-02,-8.33400e-02,1.77550e-01,2.35825e-01,-2.49606e-01,1.89256e-01,-7.69137e-02,-7.47699e-03,1.22017e-01,-2.22182e-01,2.20206e-01,1.77571e-01,4.41946e-02,1.76234e-01,-6.33335e-02,2.40039e-01,-9.45858e-02,1.83718e-01,-7.52930e-02,-1.73847e-02,-1.56851e-01,-1.46368e-01,2.01090e-01,3.84955e-02,-4.20233e-02,-1.26017e-01,1.28378e-01,2.37117e-01,1.18138e-01,2.00085e-01,-2.49082e-01,-5.04523e-04,-1.97220e-01,3.46123e-03,-8.53017e-02,-1.65605e-01,8.15710e-02,8.78156e-02,2.33629e-01,-2.16536e-01,-1.93277e-01,-2.25893e-01,1.02211e-01,8.87043e-02,-9.53245e-02,-1.98109e-01,3.23436e-01,-1.38075e-02,-1.69231e-01,1.10872e-01,2.64721e-02,-1.09837e-01,
-1.50032e-01,3.66230e-02,1.77996e-01,-1.93561e-01,2.55419e-02,-3.35918e-02,-1.36079e-01,-1.54729e-01,4.08649e-02,-1.31170e-01,1.93738e-02,9.19424e-02,-2.93491e-01,3.52901e-01,-1.05884e-01,-2.04505e-01,-2.56083e-01,1.64277e-01,1.59634e-01,1.85767e-01,-1.89978e-01,-2.74755e-01,-8.07002e-02,-7.04601e-02,1.31761e-01,-1.35744e-01,1.40167e-01,3.76075e-02,-1.76934e-02,2.65819e-01,7.00887e-02,-1.28081e-01,-2.00884e-02,2.15708e-01,1.36089e-01,-1.27910e-01,1.92795e-02,1.85497e-01,-8.58767e-02,-2.55709e-01,-6.53541e-02,5.42507e-03,-7.55312e-02,1.55410e-02,-2.86911e-01,-9.00315e-03,-7.30459e-02,-1.19325e-02,6.32551e-02,-1.38241e-01,3.92520e-02,3.07682e-01,-1.12383e-01,2.49048e-01,-2.45894e-01,3.67834e-02,-1.99934e-01,-2.19162e-02,-1.41924e-01,1.43038e-02,-2.08848e-01,2.09977e-01,4.01856e-02,-1.39798e-01,
4.04569e-01,-8.33931e-02,-2.11412e-01,-5.73238e-03,1.45142e-01,-1.73320e-01,-5.77033e-03,2.47127e-01,-1.76791e-01,-1.82628e-01,9.06819e-02,-1.94078e-01,-2.79932e-02,2.03649e-01,2.15622e-01,4.07899e-02,3.38762e-01,-1.42848e-01,-2.26244e-01,3.43648e-02,2.66002e-03,-2.30055e-01,-6.43215e-02,-2.14368e-01,2.67115e-01,4.35514e-02,-7.03471e-02,-2.54200e-01,3.88924e-02,1.61344e-01,1.33334e-01,-2.75745e-02,1.25968e-01,-2.03424e-01,2.56911e-01,1.47619e-01,6.79853e-02,-1.45002e-01,1.13612e-01,-5.79706e-02,-1.04422e-01,-1.68196e-01,4.88415e-02,2.11013e-01,3.36931e-02,1.61919e-01,5.12361e-02,-7.62021e-03,3.79418e-01,9.07639e-02,-1.77573e-01,-2.28479e-01,2.53455e-01,3.93465e-02,-1.10440e-01,-2.09996e-01,-1.16404e-01,-1.03581e-01,-1.16466e-01,5.21167e-02,-9.47595e-02,-6.21191e-02,3.01646e-02,3.52471e-01,
-9.46629e-02,1.62511e-01,-2.04951e-01,-1.01223e-02,-2.11982e-01,-1.48754e-02,-6.24105e-03,-2.66373e-02,2.16115e-01,-5.73577e-04,1.05765e-01,-1.14597e-01,9.69504e-02,1.61032e-01,-3.57818e-02,-7.57076e-02,-9.00752e-02,5.26997e-03,1.42191e-01,1.52881e-01,2.73019e-01,-1.89882e-02,2.78173e-01,-2.04574e-01,3.76328e-03,-1.15571e-01,2.04228e-01,2.15748e-01,-2.21693e-03,-2.15170e-01,1.36218e-01,-1.13839e-01,1.58779e-01,1.78361e-01,-1.45264e-01,2.05560e-01,3.07655e-01,-4.86921e-02,1.06631e-01,3.05917e-02,1.34268e-01,4.13393e-02,-3.11397e-01,-1.76747e-02,-5.14902e-02,4.38969e-02,-3.37369e-02,6.06395e-02,1.79771e-02,3.97537e-03,2.52613e-01,2.56692e-01,-1.05186e-01,4.35474e-02,-1.05179e-01,1.91689e-01,7.71615e-02,1.95529e-01,-1.32040e-02,-5.53758e-02,-1.26666e-01,1.99358e-01,9.98371e-02,-1.32542e-01,
3.69245e-01,1.46174e-01,1.82121e-01,6.13940e-02,3.36817e-02,1.17405e-01,1.45879e-04,8.34405e-02,-2.25208e-01,-1.94621e-01,-1.74524e-01,-9.72306e-02,-2.70095e-01,1.18753e-01,-2.03870e-01,-2.31201e-01,-1.53609e-01,1.58005e-01,1.68367e-01,2.82348e-01,-1.62186e-01,-4.21680e-02,-9.87785e-02,-1.02283e-01,-1.46918e-02,3.42959e-02,3.91711e-01,1.17829e-01,2.74185e-01,7.73159e-02,1.26599e-01,-1.44542e-01,-4.53628e-02,-1.44109e-01,-8.05697e-02,-2.45208e-01,3.08707e-01,-1.00350e-02,2.49650e-03,-2.40903e-01,-2.46360e-01,-6.17626e-02,-2.29529e-01,6.83019e-02,-8.44263e-02,2.32635e-02,1.96392e-01,-8.63715e-02,4.59993e-02,-1.51752e-01,1.21146e-01,3.15879e-01,1.08038e-01,6.96587e-02,-1.49106e-01,1.22036e-01,2.34451e-01,1.28782e-01,-9.99658e-02,-8.22458e-03,3.10994e-01,-1.65255e-01,-1.20870e-01,-2.32258e-01,
-2.15456e-02,-6.53890e-02,-1.86086e-01,1.91999e-01,-1.69515e-02,2.82697e-01,-1.32154e-01,-1.89638e-01,1.13242e-01,-2.92248e-02,-5.68434e-02,1.97375e-01,9.90563e-02,-2.49262e-02,2.29624e-01,3.28686e-02,-1.18480e-01,-1.24648e-01,2.30782e-01,2.50310e-01,-2.55528e-02,-5.59402e-02,-6.30361e-02,1.75117e-01,-1.56300e-01,-6.89893e-02,1.34313e-01,-2.79728e-02,2.45117e-01,2.08173e-02,1.80137e-02,1.70420e-02,1.17758e-01,-6.02937e-02,-5.90646e-02,1.27984e-01,3.16813e-01,1.01052e-01,-9.89041e-02,-1.31453e-01,5.15956e-02,6.55958e-02,-2.03278e-01,-2.57330e-01,1.81818e-01,-2.20661e-01,6.63453e-02,-1.72016e-01,2.03439e-01,2.12482e-01,-1.68553e-01,1.37068e-01,-5.85888e-02,1.12061e-01,-1.84410e-01,6.77040e-02,2.57333e-01,2.00699e-01,-1.31402e-01,-9.32768e-02,-2.59684e-01,2.18899e-02,1.34313e-01,2.01644e-01,
-3.37434e-01,-1.97820e-01,9.72683e-02,1.24818e-01,-3.97575e-02,-2.04582e-01,7.54028e-02,-1.46162e-01,-2.47466e-01,1.46715e-01,-8.21702e-02,-1.94028e-01,2.80317e-01,-2.08837e-01,-3.28924e-02,1.27767e-01,3.31687e-01,-6.36287e-02,4.36650e-02,4.57678e-02,-3.59068e-02,-3.17490e-01,1.38107e-01,1.52390e-01,-1.24964e-01,7.83184e-02,-3.15598e-01,1.90859e-01,-3.23535e-02,-5.51932e-02,-5.66785e-02,1.77233e-01,2.87658e-02,1.27503e-01,3.35970e-01,-2.02270e-01,-3.13479e-02,1.06797e-01,9.66036e-02,-8.36803e-02,-1.16024e-01,1.82557e-01,-1.67232e-02,-1.46828e-01,3.09600e-01,2.03481e-01,-1.78818e-01,-8.68828e-03,5.32497e-02,-2.27314e-01,-2.85423e-01,-2.15252e-01,9.64544e-02,5.12124e-02,3.44205e-02,-3.73879e-03,3.20153e-01,-6.51845e-02,-1.66489e-01,-7.90167e-02,-2.06660e-01,1.53864e-02,1.58118e-01,-2.08170e-01,
-2.01368e-01,1.03728e-01,-8.75437e-02,1.53120e-01,-1.55973e-02,-9.62107e-02,-4.48568e-02,-5.66120e-02,-1.34477e-01,2.10296e-01,6.67926e-02,7.24057e-02,1.58356e-01,-1.02331e-01,-2.16160e-01,-1.03413e-01,6.04496e-02,3.06930e-02,-1.97957e-01,-8.92188e-02,-2.51331e-01,-1.82715e-01,-1.43709e-01,1.41585e-01,4.48766e-02,-2.32504e-01,8.15783e-02,1.80129e-01,1.23750e-01,-1.17121e-01,-6.99272e-02,-2.00643e-01,2.04220e-01,2.43465e-01,8.08122e-02,4.31581e-03,-2.32395e-01,-2.89660e-02,9.67507e-02,2.15461e-02,9.19520e-02,-2.24102e-01,1.02126e-01,-2.45695e-01,6.58232e-02,6.34524e-02,9.17825e-02,-3.06376e-03,4.97095e-02,1.34976e-01,5.67118e-03,1.13933e-01,-3.70593e-02,9.06166e-02,1.74405e-01,1.60451e-01,-5.22060e-02,-2.07177e-01,9.80945e-02,-2.51078e-01,2.27975e-01,1.58902e-01,8.04677e-02,1.44096e-01,
7.60916e-02,2.43312e-02,-2.52929e-02,-4.22604e-02,3.22588e-02,8.99252e-02,2.91107e-01,1.27260e-01,6.94198e-02,1.45832e-01,-1.54457e-01,3.99242e-02,-6.54084e-02,-5.11169e-02,-1.64073e-02,-1.18957e-01,9.44168e-02,-6.84401e-02,-2.56538e-01,4.83896e-02,2.10799e-01,-1.73026e-01,2.18633e-01,-1.03989e-01,-1.28769e-01,5.31771e-02,-3.68958e-01,2.25074e-01,-1.16294e-01,-1.27310e-01,-1.04370e-01,2.74178e-01,2.04072e-01,8.05535e-02,2.09032e-02,-1.41661e-01,7.09314e-02,2.16576e-01,-1.24366e-01,3.32022e-02,-1.16591e-01,2.70875e-01,2.05148e-01,-1.40535e-01,7.33069e-02,2.72586e-01,-2.44102e-01,2.38852e-01,1.33680e-01,1.73958e-01,1.90979e-01,-2.95317e-01,2.16778e-01,2.45836e-01,1.29248e-01,-1.61982e-01,2.17831e-01,-1.26721e-01,8.42835e-02,2.57779e-03,-1.68470e-01,-4.86561e-03,4.94333e-02,1.26471e-01,
4.69590e-02,-1.36099e-01,-1.02510e-01,1.84718e-01,1.17693e-01,-2.47927e-02,-2.15112e-01,-1.45759e-01,8.95802e-02,-3.96587e-02,-1.34674e-01,6.20962e-02,-1.25027e-01,-6.57046e-02,3.82122e-02,-2.23699e-02,-2.37125e-02,-2.53002e-02,4.39569e-02,1.81912e-02,1.44664e-01,-1.31009e-01,-3.53981e-02,1.20428e-01,-2.03436e-01,3.55604e-02,-1.92864e-01,-2.59750e-01,-1.40914e-01,3.75179e-02,-2.41525e-01,7.71139e-02,-2.45151e-01,2.06012e-01,1.69097e-02,2.37179e-01,-1.72650e-01,-2.02636e-02,2.04370e-01,7.85659e-02,4.98756e-02,-1.70493e-01,1.40342e-01,4.07306e-02,9.65399e-03,1.00833e-01,3.86220e-02,-1.33627e-01,-1.87801e-01,3.70154e-02,1.13916e-01,1.09697e-01,-2.52657e-01,6.46288e-02,-9.31085e-02,1.91955e-01,-1.86969e-01,5.53053e-02,-2.09251e-01,-2.48223e-01,-2.34829e-01,1.63699e-01,1.27672e-01,6.32336e-02,
1.36011e-01,1.62518e-01,2.00061e-01,1.77510e-02,1.40766e-01,2.45536e-01,-1.13117e-01,1.16563e-01,1.26148e-01,1.33711e-01,-1.81117e-01,1.42738e-01,4.97389e-02,5.10912e-02,-1.21843e-01,-4.90294e-02,-1.87578e-01,3.71899e-02,4.50997e-02,-1.46858e-01,4.77013e-02,9.30399e-02,3.87683e-02,3.10628e-02,1.64027e-01,1.60047e-01,2.86186e-01,1.81382e-01,1.63632e-01,-1.67091e-02,-8.35710e-02,-6.13784e-02,1.25942e-01,-2.11924e-01,1.53454e-01,-2.16746e-01,1.71587e-01,4.89944e-02,-1.44924e-01,-2.43697e-01,-1.91499e-01,1.03398e-01,9.15389e-02,1.44217e-01,-2.30231e-01,1.03127e-01,1.43198e-01,-1.43592e-01,-1.27493e-01,2.88180e-01,1.91836e-01,2.41894e-01,1.44623e-01,-6.17784e-02,1.79300e-01,-4.41983e-02,-4.80205e-02,6.66525e-02,-1.57032e-01,-1.65650e-01,-1.09016e-01,2.32861e-01,-1.27521e-01,2.57112e-01,
-1.75267e-01,-1.59730e-01,3.70738e-02,-2.82697e-01,1.04190e-01,8.41233e-03,-1.04120e-02,-2.94234e-01,1.12525e-01,-1.49718e-01,-3.72435e-02,-1.01551e-01,-1.10581e-02,-7.08766e-02,6.47230e-03,-4.45248e-02,1.91850e-02,2.79087e-01,2.46539e-02,-3.86347e-02,2.12444e-01,5.68349e-02,1.52363e-01,3.03855e-01,3.10680e-02,-2.54541e-02,2.35387e-01,-7.22978e-02,2.27452e-01,2.17639e-01,-7.13778e-02,-1.43558e-01,-3.78889e-02,1.64220e-01,-1.00217e-01,5.65807e-02,5.28175e-02,-1.04930e-01,2.32373e-02,-1.08242e-01,-1.41827e-01,-6.48833e-04,-2.53413e-01,-2.42017e-01,-1.41491e-01,-4.01672e-02,5.36347e-02,9.35682e-03,-9.81055e-02,1.78352e-01,-1.93896e-01,2.45544e-01,-8.55003e-02,2.06451e-01,6.31060e-03,1.31664e-01,8.44200e-02,-6.04675e-02,-1.67859e-01,-1.22259e-01,1.22526e-01,1.05503e-01,-2.32611e-01,-1.73606e-01,
-3.18233e-02,
-1.98765e-02,
7.22780e-02,
7.83584e-03,
2.11744e-03,
2.17082e-02,
-1.01290e-02,
5.01936e-02,
6.63164e-02,
2.51400e-02,
-2.04907e-02,
3.78335e-02,
-4.31963e-02,
6.72820e-02,
8.11713e-02,
2.46675e-02,
-1.19213e-02,
1.17757e-04,
-1.77605e-02,
-9.44453e-03,
1.91970e-02,
2.65293e-02,
4.76943e-02,
1.67053e-02,
2.73334e-02,
4.58712e-02,
6.33354e-02,
-2.87461e-02,
4.88110e-02,
-2.60752e-02,
-1.71468e-02,
5.00338e-02,
4.33378e-02,3.00816e-01,2.39213e-01,4.00920e-02,1.47106e-01,-3.57572e-01,7.95528e-02,-1.63130e-01,-1.55237e-01,2.94619e-01,-2.96939e-02,-1.27773e-01,-3.75482e-01,1.26088e-01,1.34338e-02,2.26305e-01,-2.50553e-01,2.85471e-01,1.73109e-01,2.35428e-01,-3.11276e-02,-2.70672e-01,-2.75343e-01,1.14598e-01,-2.31657e-01,-3.55671e-01,2.57910e-01,5.90732e-02,1.31490e-02,-2.92757e-01,-1.51127e-01,2.50492e-01,
2.45314e-01,-3.35157e-01,1.85775e-01,2.88681e-01,-3.35490e-01,-4.37210e-01,-3.17746e-01,-5.87990e-02,2.86905e-01,1.55427e-01,2.60817e-01,2.09436e-01,2.37193e-01,-2.27394e-01,1.26465e-01,-2.75880e-02,-3.27250e-01,8.72273e-02,-3.04583e-01,2.99965e-01,2.47989e-01,-4.14952e-03,2.92958e-01,1.66846e-01,2.53804e-01,2.90538e-01,2.71138e-02,3.43934e-01,-2.39896e-01,3.19745e-01,2.83324e-01,1.77393e-01,
6.80090e-02,3.33364e-01,1.77667e-01,3.49074e-01,3.53099e-01,8.92436e-03,-3.34613e-01,3.05725e-01,3.53444e-02,2.02563e-01,-1.38745e-01,3.90554e-01,-1.81417e-01,-1.55342e-01,-1.47034e-01,-3.55785e-01,1.84753e-01,3.44068e-01,2.94877e-01,3.26168e-01,2.16647e-01,3.49851e-01,-2.76338e-01,3.50840e-01,-1.19596e-01,1.91831e-01,-2.08099e-01,1.31467e-01,-5.80765e-02,-2.66483e-01,1.40874e-02,-6.56617e-02,
2.45600e-01,-3.10701e-01,2.72757e-01,-3.75906e-01,-9.34764e-03,-1.59428e-01,-3.11876e-01,-1.52390e-01,2.41918e-01,-1.78842e-01,1.90671e-01,1.28150e-01,-3.43304e-01,9.44788e-02,3.51570e-01,7.62092e-02,1.89852e-01,-1.35435e-02,-2.09883e-01,3.15238e-01,-1.48624e-01,-3.75787e-02,-1.78646e-01,2.65506e-01,-2.94257e-01,1.56428e-01,2.88675e-01,3.57483e-01,2.25436e-01,-1.32957e-01,-2.24936e-01,1.47412e-02,
-1.33379e-01,-7.95721e-02,2.71040e-01,4.44131e-02,-2.91114e-01,-1.56837e-02,-3.38985e-01,1.85130e-01,2.58032e-01,-7.86401e-02,3.04767e-01,-6.16659e-02,4.36686e-02,1.46181e-01,4.79258e-02,-1.49938e-02,3.29510e-01,2.10221e-01,-1.48270e-01,2.22438e-01,-1.18616e-01,1.17019e-01,-2.60101e-02,8.08968e-02,3.67112e-01,1.48997e-01,2.96279e-01,-2.62650e-01,-1.05051e-01,-1.18436e-01,-1.78534e-01,2.52358e-01,
1.68051e-01,-3.12415e-01,-2.62980e-01,-2.92841e-01,-1.70657e-01,1.11358e-01,2.08398e-01,9.75377e-02,-1.88679e-01,-2.46317e-01,3.48373e-01,-2.39781e-01,1.62587e-01,1.19601e-04,2.40664e-01,-1.20317e-01,-3.38407e-01,-2.47282e-01,3.47520e-01,2.74448e-01,-4.30333e-02,-2.26188e-01,-1.67210e-01,-2.21026e-01,1.84678e-01,-6.09294e-02,2.66652e-01,2.12210e-01,-1.22800e-01,6.05410e-02,-3.31447e-01,1.77798e-01,
1.81845e-01,-1.63290e-01,-2.63672e-01,-2.33227e-01,-2.79412e-01,5.66001e-02,1.35784e-01,-5.12699e-01,-1.99291e-01,-2.07297e-01,-3.52158e-01,2.90314e-01,2.17394e-01,2.22399e-01,3.10136e-01,-9.58048e-02,-3.69943e-01,2.76330e-01,-1.76243e-01,-2.20213e-01,1.25725e-01,-9.12410e-02,-1.95045e-01,-7.11257e-02,3.43191e-01,2.86542e-01,2.17085e-01,-1.41595e-01,-2.86796e-01,2.04869e-01,2.04550e-01,5.70946e-02,
2.89250e-01,-3.06575e-01,2.66544e-01,-4.13907e-02,-3.29234e-01,2.58979e-01,-1.53794e-01,1.57659e-01,3.46607e-02,2.70371e-01,-1.00853e-01,-7.45796e-02,-2.63058e-01,-8.84118e-02,1.54412e-01,2.53005e-01,-3.66119e-02,-2.66401e-01,1.70381e-01,-2.99658e-01,-7.39330e-02,-3.60182e-02,-1.39340e-01,3.02400e-01,-2.76776e-01,2.26468e-01,-1.44048e-01,-2.05299e-01,-1.10302e-01,-4.87884e-02,1.48260e-01,-1.60574e-01,
-1.24290e-01,-7.38423e-02,1.73628e-01,-4.87889e-01,2.53781e-01,1.33426e-02,-1.77997e-01,3.04689e-01,3.49322e-01,3.75934e-01,-2.25293e-01,-3.40808e-01,3.94160e-01,2.29144e-01,2.92045e-01,-1.53040e-01,-7.94091e-02,-2.76182e-01,-2.83288e-01,-1.25700e-01,2.83788e-01,-2.22408e-01,2.43689e-01,7.40717e-02,1.50627e-02,-1.30832e-01,1.90114e-01,2.21076e-02,-1.37132e-01,1.02235e-02,-1.16464e-01,-8.50368e-02,
2.42175e-01,1.40115e-01,-2.96804e-01,-4.42831e-02,4.37259e-01,5.52195e-02,-9.00354e-02,1.47745e-01,-2.23490e-01,-1.52261e-01,-2.44123e-01,-1.78356e-02,7.57894e-02,-1.76348e-01,2.33430e-01,-2.31479e-01,2.87627e-01,1.17972e-01,-6.68121e-02,-8.13010e-03,-2.38433e-01,2.79347e-01,1.93431e-01,-2.89564e-02,-1.64828e-01,-1.28720e-01,-3.86797e-01,-1.27340e-01,6.58578e-02,2.07863e-01,1.48946e-01,1.70238e-01,
-2.43002e-01,-2.88108e-01,2.94219e-01,1.30964e-01,-1.21817e-02,-9.21935e-02,-1.43065e-01,3.47004e-01,-1.89320e-01,3.60167e-01,8.52748e-02,7.36135e-03,-1.42550e-01,3.04264e-01,2.47418e-01,-6.32675e-02,-1.35472e-01,2.13104e-01,8.71628e-02,-7.09622e-02,-1.11244e-01,1.41324e-01,-3.54656e-02,-2.90092e-01,-1.75953e-01,-9.83798e-03,3.20475e-01,1.29630e-01,1.17449e-01,2.44791e-02,1.56653e-01,3.11650e-01,
-2.19567e-01,2.08786e-01,-2.21642e-01,-3.70519e-01,4.04484e-01,-2.32582e-01,-1.49732e-01,-3.91289e-01,2.37182e-01,-2.43124e-02,-3.27676e-01,-3.30345e-02,-2.20549e-01,-3.78036e-01,-5.82575e-02,4.01396e-01,-2.42038e-01,3.35406e-01,-1.57451e-01,3.50730e-01,-1.90124e-01,2.30464e-01,-2.95850e-01,4.10605e-01,3.31478e-01,-6.41419e-02,-1.00181e-01,-6.58231e-02,-1.57523e-01,-1.34916e-01,9.96235e-02,1.78496e-01,
1.33796e-01,3.56504e-01,1.37428e-01,6.51999e-02,-2.54412e-01,-6.73949e-02,1.50672e-01,1.78347e-02,-6.07556e-02,-5.11676e-02,-2.06592e-01,-9.82898e-02,1.86308e-02,1.00751e-01,3.89667e-01,4.20266e-01,-3.39884e-01,-2.28559e-01,2.34156e-01,3.68462e-01,2.33283e-01,9.61065e-02,2.83137e-01,-3.82143e-01,2.02345e-02,2.51790e-01,4.19305e-01,-4.39766e-02,2.05272e-01,-8.53903e-02,-2.64078e-01,-3.23300e-01,
2.17685e-01,1.28712e-01,-1.39924e-01,-3.66268e-01,3.40724e-01,-1.29946e-02,-2.30409e-01,-1.93786e-01,-2.58987e-01,2.56670e-01,1.85855e-01,-2.99159e-01,-1.12856e-01,2.00433e-01,-1.67690e-02,-2.59756e-02,1.65996e-01,-2.73266e-01,-3.16000e-01,2.29852e-01,9.56611e-02,3.64816e-02,2.91069e-01,-3.59404e-01,-9.51150e-02,-2.16774e-02,1.78812e-01,-3.55263e-01,-2.43363e-02,-2.04564e-01,-2.45121e-01,-6.95710e-02,
-2.08975e-01,-7.89370e-02,-2.43633e-01,2.94702e-01,-8.98855e-02,2.38388e-01,4.67883e-02,-1.44998e-01,-1.93193e-01,2.96494e-01,1.81237e-01,-4.01799e-01,4.61154e-02,-3.23719e-01,-4.79145e-02,-2.17562e-01,3.24605e-02,-6.16075e-02,-4.37427e-03,-2.30405e-01,-2.89433e-01,1.23417e-01,-3.26604e-02,2.73260e-01,-6.19646e-02,-1.92269e-02,-1.09633e-01,-2.97348e-02,-3.18031e-02,-8.74407e-02,3.69124e-03,3.06636e-01,
-2.79858e-02,-2.61796e-01,3.27138e-01,-3.01788e-01,-1.59902e-01,5.71096e-03,-2.98952e-01,-2.12073e-01,3.55489e-01,-2.29126e-01,-3.33112e-02,4.25665e-01,-3.17705e-02,-2.19222e-01,-1.79003e-01,6.99044e-02,3.06880e-01,-2.96740e-01,-2.35436e-01,6.87558e-02,-3.90110e-02,2.21109e-01,6.13530e-02,3.74665e-02,3.33889e-01,3.80790e-01,-3.74585e-01,-2.91959e-01,-3.16184e-01,-1.32697e-01,2.88116e-02,2.71015e-01,
-2.65310e-02,
9.46218e-03,
-1.23288e-02,
4.40368e-02,
1.03762e-01,
-2.08527e-02,
1.82003e-02,
2.94857e-02,
5.25298e-02,
2.82661e-02,
5.85491e-02,
6.35296e-02,
6.71344e-02,
4.56832e-03,
-4.15468e-02,
4.62308e-02,
5.28056e-02,-3.69653e-02,1.69365e-01,4.54602e-01,8.72335e-02,4.18260e-01,5.33383e-01,2.03709e-01,-3.78208e-01,-2.60746e-01,2.18564e-01,-3.86485e-01,-3.78239e-02,1.68606e-01,-2.63623e-01,3.35556e-01,
4.72567e-01,2.57925e-01,-4.25462e-01,3.80695e-01,-3.76222e-01,4.27454e-01,5.05173e-02,-2.23912e-01,9.38977e-02,-4.87079e-01,-4.95535e-01,-2.42171e-01,-2.73426e-01,6.51278e-02,-2.90096e-01,1.17113e-01,
-2.41715e-01,1.29349e-01,4.54516e-01,-3.25739e-01,4.82654e-01,-2.77483e-01,-5.25698e-01,-4.63147e-01,-4.90819e-01,1.89394e-01,-2.73824e-01,6.30279e-02,-2.38177e-01,9.32530e-02,4.48111e-01,4.62079e-01,
-5.26934e-02,-1.75500e-01,4.99641e-01,-2.91627e-01,2.20435e-01,-1.65486e-01,-5.01735e-01,-6.41252e-02,-3.26384e-01,-1.67265e-01,-2.74304e-01,1.86506e-01,-4.65561e-01,1.64045e-01,4.64392e-01,3.42966e-01,
-3.22608e-01,4.07578e-01,3.32980e-03,2.84280e-01,-2.61594e-01,1.63222e-01,3.62071e-01,2.03099e-02,2.41291e-01,3.13195e-01,-1.63410e-01,-5.04495e-02,-1.75948e-01,3.70577e-01,1.25510e-01,-4.72273e-02,
4.43372e-02,4.09017e-01,-3.41796e-01,1.82152e-01,4.17402e-01,3.71155e-01,-4.00518e-01,5.48202e-01,-2.60237e-02,-2.89910e-01,5.16625e-01,1.75661e-01,7.55324e-02,-2.56581e-01,-4.56178e-01,-7.89083e-02,
-1.01483e-01,-4.24202e-01,-4.13386e-01,4.01367e-01,-6.46714e-02,-4.76886e-01,8.69588e-02,-1.97538e-01,5.37998e-01,-1.72954e-01,1.83381e-01,-3.11961e-01,5.28662e-01,-1.44450e-01,-3.17667e-01,-5.17361e-01,
-4.34445e-02,-2.25434e-01,-1.72049e-01,-1.02163e-01,-5.14694e-02,4.47204e-01,-1.45385e-01,-2.61098e-01,-2.60063e-02,4.69625e-01,-3.42473e-01,1.85468e-01,-3.91493e-01,2.46415e-01,-3.70374e-01,5.38733e-01,
-8.14962e-02,
1.47639e-02,
5.19334e-02,
6.31219e-02,
-1.41181e-02,
5.06783e-02,
5.07727e-02,
8.38891e-02,
9.37558e-02,7.09544e-01,5.38252e-01,-5.73215e-01,-4.59121e-01,-6.37127e-02,1.65614e-01,4.86799e-01,
-1.76237e-01,-3.42226e-01,-5.64813e-01,5.40786e-01,-5.98102e-01,1.30791e-01,2.18521e-01,-1.64025e-02,
-5.02373e-01,-2.67460e-01,5.77489e-01,3.11173e-01,-1.40210e-01,-9.16771e-02,-1.53338e-01,5.23486e-01,
-8.65220e-02,2.78028e-01,3.41561e-01,-4.96161e-01,1.43502e-01,7.28963e-01,7.42824e-01,3.14751e-01,
4.97217e-03,
5.40265e-02,
7.17918e-02,
-7.07652e-03,
3.53956e-01,-1.01431e+00,6.41467e-01,-6.27155e-01,
8.43278e-03,
