// Neural Network File Format by Kyle Julian, Stanford 2016
10,6,1,10,
6,10,10,10,10,10,10,10,10,10,1,
0,
0,0,0,0,0,0,
1,38,1,1,1,1,
0,0,0,0,0,0,0,
1,38,1,1,1,1,1,
3.61047e-01,-7.49333e-02,4.22065e-01,9.76217e-02,2.94881e-01,7.39106e-01,
-1.79848e-01,-2.69077e-02,6.37501e-01,-3.64051e-01,3.10419e-01,3.46083e-01,
2.39311e-01,-1.76906e-01,-5.80823e-01,-5.72936e-01,-5.98752e-01,1.11741e-01,
5.67409e-01,5.96755e-01,-3.62310e-01,-5.20764e-01,-5.58558e-01,-7.25375e-02,
7.96463e-01,1.82009e-01,-6.01219e-01,-1.26210e-01,3.88014e-01,-1.50409e-01,
5.44599e-01,-2.35987e-01,-2.55726e-01,7.00627e-04,-4.78935e-01,1.73150e-01,
5.18847e-01,3.78381e-01,-7.72482e-01,4.83542e-02,4.41259e-01,2.25603e-01,
-3.09545e-01,-2.81333e-01,3.11870e-01,-3.35537e-01,3.30724e-01,-4.11518e-01,
-1.46562e-01,-8.04880e-01,-3.56007e-01,-2.78700e-01,5.66264e-01,2.97022e-01,
-9.10663e-02,-3.49192e-01,3.48411e-01,-3.87431e-01,-2.25818e-01,2.95946e-01,
-3.00484e-02,
1.54995e-01,
1.39950e-02,
1.47777e-01,
1.33011e-01,
-1.62086e-03,
4.70813e-02,
-1.17569e-01,
2.68258e-02,
1.21347e-01,
6.45522e-01,1.82781e-01,6.13656e-01,-1.32180e-01,1.01405e-01,-1.15388e-01,2.74298e-01,1.00091e-01,-3.06564e-01,-6.39388e-01,
5.05478e-01,8.86670e-02,1.81734e-01,-6.26197e-01,-7.58091e-01,-5.79613e-01,-5.73738e-01,9.40170e-02,-2.41630e-01,3.76150e-01,
-9.39781e-02,1.63506e-02,-3.51826e-01,2.65743e-01,2.49689e-01,4.61635e-01,5.31057e-01,3.44864e-01,4.99596e-02,1.33379e-01,
-3.90661e-01,-2.78324e-01,-2.07486e-01,-1.45466e-01,2.36784e-03,-4.98592e-01,-5.71440e-03,-2.25898e-01,4.40039e-01,3.74988e-01,
4.00166e-01,3.67280e-01,5.05055e-02,1.58394e-01,3.32688e-01,-4.99635e-01,-4.57683e-01,-3.97791e-02,-5.97440e-01,1.04072e-01,
-2.03757e-01,-2.63018e-01,1.51628e-01,-1.23034e-01,3.51693e-01,-4.74608e-01,4.64491e-01,5.17555e-01,8.83164e-02,1.66863e-02,
-1.76323e-01,6.30506e-01,-2.05899e-01,4.06819e-01,-3.08415e-02,-4.80255e-01,-3.96485e-01,-1.45383e-01,2.10107e-01,5.02153e-01,
-3.32101e-01,-1.57040e-01,1.36678e-02,-3.17890e-01,-2.01200e-02,-2.46448e-01,-2.29091e-01,-4.63517e-02,-4.10462e-01,-7.97191e-02,
2.68017e-01,9.98307e-02,-3.50008e-02,2.26713e-01,5.89236e-01,1.40391e-01,-4.80919e-02,1.50454e-01,7.24452e-01,-5.38513e-01,
7.05005e-02,4.67000e-01,-1.19044e-02,2.10316e-01,5.55249e-02,2.57793e-01,-2.51524e-01,-1.13282e-01,-2.65231e-01,2.50327e-01,
-8.79097e-02,
2.87608e-03,
5.55120e-02,
-1.55382e-02,
-2.43165e-02,
4.09874e-02,
-1.04534e-02,
0.00000e+00,
6.04849e-02,
-1.71493e-02,
3.18652e-01,-3.67079e-01,1.87056e-01,6.20246e-02,2.39537e-01,-3.60156e-01,4.69898e-01,2.21224e-01,-7.80615e-02,1.21303e-01,
-4.75403e-01,4.03533e-01,5.68788e-01,-3.57803e-02,-3.07337e-01,2.41986e-01,-5.37827e-01,9.27453e-02,4.48995e-01,1.57157e-01,
-3.29674e-01,-5.62054e-01,-2.72227e-01,4.44412e-01,-2.16708e-01,-1.43003e-02,2.12448e-01,4.18275e-01,6.65253e-02,-4.02401e-01,
3.62428e-02,2.16471e-01,4.42195e-02,3.56661e-01,-3.52981e-01,1.99005e-02,1.57219e-01,-4.71441e-01,-4.42224e-01,-1.19086e-01,
-4.27865e-01,-9.31907e-02,1.22089e-02,1.94107e-01,-4.42430e-01,1.52237e-01,6.79820e-01,4.88057e-01,-1.04070e-01,-5.73960e-02,
-5.69644e-02,3.25399e-02,5.15977e-01,4.61744e-01,-3.85942e-02,3.69694e-01,-6.66013e-01,3.49428e-02,1.66073e-01,-6.18120e-01,
-3.71896e-01,-2.17841e-01,2.45380e-04,-3.88141e-02,4.52580e-01,1.94387e-01,-2.83427e-01,-1.70598e-01,-5.65196e-01,9.25211e-02,
-1.36994e-01,-5.52069e-01,2.01898e-01,-4.90739e-01,-2.36375e-01,5.78275e-02,4.78302e-01,2.74013e-01,5.55338e-01,3.27312e-01,
-1.28768e-01,2.41001e-01,4.53186e-01,-6.47987e-02,3.85199e-01,-3.71484e-01,-2.52495e-01,-4.04684e-01,-4.76293e-01,-5.48030e-01,
-9.77909e-02,3.91720e-01,-2.45966e-01,-2.32456e-01,3.37783e-01,-3.39000e-01,3.48381e-01,3.38810e-01,-7.69475e-02,5.85561e-02,
-7.90006e-03,
7.06080e-02,
5.41442e-03,
-6.38763e-03,
-2.64482e-02,
7.32435e-02,
-2.88047e-02,
1.40186e-02,
-5.58375e-02,
5.12627e-02,
1.85879e-01,-2.73421e-01,5.20171e-01,-1.20334e-01,-1.36362e-01,-2.35723e-01,-2.78935e-01,9.37503e-03,4.10757e-01,4.87227e-01,
-4.20736e-01,-3.71480e-01,-3.40950e-01,4.29490e-01,-2.93680e-01,9.26760e-02,7.59385e-02,9.12192e-02,3.60702e-01,-3.89245e-01,
-1.27906e-02,1.09584e-01,1.63629e-01,-5.35912e-01,-5.29183e-01,5.64006e-01,-1.50565e-01,-4.40123e-01,-2.34777e-01,5.43525e-01,
1.40516e-01,1.42961e-01,5.05785e-01,-2.23311e-01,7.02998e-01,-2.80589e-01,9.24168e-02,1.29249e-01,-4.04062e-01,6.97446e-01,
-6.13550e-01,2.67408e-01,-3.79498e-01,-3.57031e-01,-1.97957e-01,2.82238e-01,-3.86592e-01,2.85678e-01,-8.26006e-02,-5.48900e-01,
-7.50812e-02,4.56319e-01,-1.90225e-01,-3.24154e-01,-1.52398e-01,4.60145e-01,-4.19946e-01,4.55615e-01,-7.80324e-02,5.76419e-03,
-3.74620e-01,-1.46448e-01,-4.85941e-01,-4.74054e-01,3.23182e-01,8.72508e-02,-1.45056e-01,-3.80323e-01,4.67009e-01,-2.28412e-01,
-2.41486e-01,-2.12025e-01,1.71885e-01,-2.55811e-01,1.13556e-01,-2.91948e-01,-2.04356e-01,-4.79864e-02,-2.48344e-01,7.98009e-02,
-2.38376e-01,7.23699e-02,1.30730e-01,-2.56832e-01,3.02432e-01,-5.11804e-01,-5.43142e-01,-4.99961e-01,2.12121e-01,4.79517e-01,
-6.97933e-01,5.21015e-01,2.91443e-02,4.72933e-01,4.38937e-02,-2.13558e-02,3.57111e-01,-3.72159e-01,1.24370e-01,9.59878e-02,
-8.41158e-02,
0.00000e+00,
-2.94022e-02,
2.89590e-02,
3.54120e-02,
3.56103e-02,
-9.48575e-03,
-1.19121e-02,
5.22238e-02,
8.25697e-02,
-3.27430e-01,4.28540e-01,-9.05119e-02,-2.56060e-01,-2.34602e-01,2.96109e-01,9.67823e-02,3.31714e-01,-1.87811e-01,-5.81412e-01,
-5.17696e-01,3.57669e-01,-1.02862e-01,-5.25957e-01,-2.52444e-01,-1.92093e-02,4.63988e-01,-1.83803e-01,-4.22630e-01,-1.93909e-01,
2.43811e-01,-1.18845e-01,2.62661e-01,4.39848e-01,-2.42756e-01,-5.42648e-01,-1.87040e-01,-4.29603e-01,6.39275e-01,-4.12647e-01,
2.36747e-01,-5.36626e-01,4.83171e-01,1.26519e-01,6.21701e-01,1.06033e-01,2.43387e-01,-3.24717e-01,1.16183e-01,3.82507e-01,
-3.93017e-02,5.18673e-01,-6.68216e-02,-4.03040e-01,-5.43606e-01,2.31008e-01,-1.13742e-01,3.79683e-01,-5.91530e-02,7.14613e-02,
-2.11281e-01,3.97643e-01,2.37973e-01,-2.78938e-01,1.50314e-01,6.18139e-01,-5.15853e-01,-1.40716e-01,-4.07804e-02,4.32594e-01,
4.18046e-01,5.20505e-01,2.40872e-01,-5.19907e-01,4.31305e-02,-2.12805e-01,-3.30853e-01,3.10922e-01,-2.81101e-01,8.33317e-02,
3.67076e-01,2.82642e-01,-1.36042e-03,3.96950e-01,-3.47083e-01,-3.40728e-01,4.06163e-01,5.12088e-01,6.54777e-01,7.13729e-02,
4.03474e-01,1.42334e-01,-6.37202e-01,-3.61442e-02,2.01334e-01,-1.31320e-01,-2.42835e-01,-1.62055e-01,7.84530e-02,3.01671e-01,
-1.17629e-01,-4.59258e-01,-6.05369e-03,7.48973e-01,-1.74317e-01,1.14957e-01,-3.92812e-01,-4.88687e-01,1.22961e-01,-2.39475e-01,
2.72424e-02,
0.00000e+00,
1.86428e-02,
1.02868e-02,
1.19942e-01,
4.58209e-02,
-2.92973e-02,
1.00777e-01,
-4.14557e-02,
7.92717e-02,
-2.01922e-01,3.02717e-01,3.95302e-01,3.79305e-01,-5.24552e-01,-1.20770e-02,1.28715e-01,-5.24140e-01,2.00595e-01,-5.63170e-01,
2.24742e-01,-1.34787e-01,1.22704e-02,5.87958e-01,-1.12833e-01,6.44734e-01,-1.09257e-01,-5.38209e-01,1.21447e-01,-4.45539e-01,
4.23102e-02,-4.23556e-01,-3.74104e-01,-3.24645e-02,-6.99790e-01,2.97519e-01,4.57584e-01,-3.30469e-01,4.21368e-01,-4.66872e-01,
-4.07259e-02,2.53667e-02,2.03368e-02,6.09387e-01,2.33044e-01,2.82731e-01,-1.99835e-01,-1.81943e-01,4.40285e-01,-2.60980e-01,
-6.85333e-02,-4.54760e-02,5.02722e-01,2.66100e-01,-3.45904e-01,-3.24742e-01,-4.20580e-01,4.64198e-01,-4.37615e-01,3.56601e-01,
-3.45950e-02,-2.33389e-01,6.09384e-01,5.02041e-03,-1.93262e-01,4.85674e-02,-2.50947e-01,5.11379e-01,5.46793e-01,6.46237e-01,
1.72932e-02,-4.58383e-01,5.94928e-01,3.95385e-01,3.03929e-01,-3.66286e-01,-2.70870e-01,1.18961e-01,-2.08984e-01,1.19674e-01,
-3.77061e-01,9.09890e-02,4.70725e-01,-2.33333e-01,9.82648e-02,-1.81840e-01,-3.31920e-01,3.33463e-01,-8.09469e-02,-2.77570e-01,
5.09679e-01,8.63998e-02,-3.52333e-01,-3.42302e-01,4.40359e-01,-4.20246e-01,1.31710e-01,-3.53773e-01,2.88425e-01,1.84732e-01,
-5.16648e-01,3.59114e-01,9.04754e-02,6.38360e-01,-4.51018e-01,6.04130e-01,4.03464e-01,-3.66511e-02,-4.48937e-01,-4.15063e-01,
6.48834e-03,
1.30139e-02,
6.37849e-02,
3.76602e-02,
-6.15055e-03,
7.05490e-02,
4.40531e-02,
1.28888e-02,
-5.62467e-02,
2.95743e-02,
-1.43352e-01,-2.65685e-01,-2.32947e-01,-5.30495e-01,2.27812e-01,-2.64883e-01,2.76940e-02,-3.84749e-01,4.94696e-01,3.58220e-01,
6.40965e-02,-3.60070e-01,4.06373e-01,2.29653e-02,5.25135e-01,6.01292e-01,2.59386e-01,4.77647e-02,-1.77276e-01,-7.18317e-02,
3.35852e-01,1.65687e-02,3.70296e-01,-3.88660e-01,-2.27884e-01,5.87619e-02,-1.40788e-01,2.17974e-01,4.06742e-02,-4.24971e-01,
-3.07267e-01,3.84239e-01,-3.17011e-02,-5.29943e-01,4.68924e-01,-5.58265e-01,2.39877e-01,-1.15392e-01,2.61174e-01,-3.89426e-01,
3.05758e-02,-1.40618e-01,-3.73682e-01,-3.11004e-01,-2.22308e-01,-4.39565e-01,2.72527e-01,3.28142e-01,2.14813e-01,1.95576e-01,
3.21916e-01,-1.35237e-01,-1.49372e-01,-3.63613e-03,-7.15440e-02,8.01972e-02,1.64788e-02,2.38496e-01,4.31186e-01,5.91765e-01,
-2.09699e-01,-1.81181e-01,-3.30975e-01,-1.70807e-01,-2.53820e-01,3.87587e-01,-3.85929e-02,3.76876e-01,-3.55792e-01,3.91017e-01,
2.30061e-01,-1.83935e-01,2.47532e-01,9.11905e-02,3.93788e-01,-5.55683e-01,-1.90448e-01,1.49251e-01,3.13773e-01,-1.65914e-03,
-4.30490e-02,3.43267e-01,5.80075e-01,5.29814e-01,-5.66588e-01,-4.06917e-01,-5.85263e-01,-2.82165e-01,-4.27149e-01,6.34774e-01,
2.83926e-01,5.02088e-01,5.62335e-01,-4.89134e-02,-5.60582e-01,6.87252e-03,4.41132e-01,-4.33258e-01,7.88746e-02,6.04725e-01,
0.00000e+00,
1.03452e-01,
-1.59493e-02,
-1.70328e-02,
0.00000e+00,
-2.72301e-03,
2.63720e-03,
-9.58885e-03,
5.15744e-02,
2.31956e-02,
2.83105e-01,-5.04768e-01,-2.92476e-01,-2.58613e-01,2.29973e-01,1.17514e-01,4.53072e-02,-3.58150e-01,-7.66649e-02,5.77162e-01,
-3.07522e-02,4.53209e-01,-5.06301e-01,3.45738e-01,1.60154e-01,-3.25131e-01,4.26371e-01,-4.94017e-01,1.10869e-01,-1.72528e-01,
1.57276e-01,1.00642e-01,5.45221e-01,2.97902e-01,-1.16695e-01,-4.81012e-01,-4.12956e-01,-1.13898e-01,3.57823e-01,-2.58795e-01,
-1.70154e-01,1.70578e-02,2.14572e-01,-4.74418e-01,5.06115e-01,-1.38256e-02,1.34109e-01,-4.95101e-01,2.30942e-01,-7.11272e-02,
1.06524e-01,4.24396e-01,5.48623e-01,2.69982e-01,1.74486e-01,1.01839e-01,-6.09257e-02,-4.01261e-01,1.09997e-01,-2.82442e-01,
-4.46463e-01,4.21964e-01,-2.71585e-01,-2.42649e-01,2.54840e-01,-5.20520e-02,-4.59653e-02,-1.86822e-01,-4.47692e-01,-2.04614e-01,
-3.52436e-01,8.04223e-03,3.13564e-01,4.88802e-01,-4.03371e-01,1.17722e-01,-7.83563e-02,1.73001e-01,2.17720e-01,9.53361e-02,
-4.12128e-01,-4.00242e-01,-4.09401e-01,-4.36674e-01,2.26229e-01,4.33008e-01,-3.37991e-01,1.33312e-01,-1.31857e-01,-4.24628e-01,
3.32639e-01,7.05380e-01,-2.86267e-01,4.04355e-01,-4.46303e-01,2.68524e-01,-4.78571e-02,-2.39059e-01,4.03096e-01,1.07729e-01,
6.82244e-02,4.29378e-01,2.25095e-01,-1.24463e-01,3.62998e-01,4.49887e-01,3.61314e-02,-3.67653e-01,-4.82677e-01,-4.57605e-01,
3.87733e-02,
1.09960e-01,
-3.22575e-02,
-1.12797e-01,
1.50143e-01,
6.74124e-02,
-2.48835e-02,
0.00000e+00,
1.30433e-01,
9.15438e-02,
-4.46464e-02,6.23264e-02,-2.36062e-01,-3.11680e-01,3.76008e-01,-3.54797e-01,-4.60797e-01,1.37158e-01,2.12161e-01,-1.43257e-01,
-4.73442e-01,-9.96774e-02,5.08830e-02,-8.09421e-02,2.74140e-01,4.64878e-01,-3.53335e-01,4.75989e-01,3.90931e-01,6.48146e-01,
4.54497e-01,1.52594e-01,-5.03342e-01,-9.50112e-02,1.40217e-01,6.18468e-03,2.25202e-01,2.53989e-01,6.73321e-02,-1.89092e-01,
-3.23986e-01,-4.66282e-01,-5.17678e-01,5.39347e-01,5.19114e-01,5.44795e-01,-1.60263e-01,-7.54746e-02,-2.84198e-01,-2.00854e-01,
-8.52855e-02,-4.04371e-01,1.31298e-01,2.94328e-03,-4.60400e-01,-3.36409e-01,5.30691e-01,-5.19762e-01,-4.31578e-01,2.93863e-01,
-1.22526e-01,5.04380e-02,-9.89113e-02,-2.22193e-01,2.02656e-01,4.07490e-01,-2.18926e-01,7.14868e-02,-5.31786e-01,-2.26782e-01,
4.56606e-02,5.57701e-01,3.13879e-01,2.36268e-01,1.88935e-01,5.78971e-01,1.35599e-01,3.69228e-01,-2.67380e-01,-2.23809e-01,
7.88628e-02,1.53216e-01,-4.82864e-01,-3.71755e-01,-2.47156e-01,-6.39585e-01,5.61699e-01,-1.77782e-01,2.25642e-01,3.64916e-01,
4.08597e-01,1.04998e-01,3.51052e-02,5.83891e-01,2.43539e-02,-1.24108e-01,6.43404e-01,1.99683e-01,2.42167e-01,-3.99156e-01,
-9.64646e-02,7.02237e-01,-1.17703e-01,-4.69637e-01,2.24003e-01,3.61640e-01,-5.18823e-01,2.23301e-01,3.01202e-01,5.90206e-01,
9.48849e-02,
1.14320e-01,
3.77430e-02,
0.00000e+00,
0.00000e+00,
0.00000e+00,
1.15159e-01,
2.69502e-02,
-2.63286e-02,
9.43469e-02,
-4.70079e-01,-2.93347e-01,1.42499e-01,-5.71816e-01,-2.77635e-01,2.33708e-01,-2.41806e-01,6.36427e-01,4.71991e-01,-7.18234e-01,
-2.53134e-02,
