// Neural Network File Format by Kyle Julian, Stanford 2016
2,16,1,16,
16,5,1,
0,
0,0,0,0,0,0,0,0,0,-3,0,1,0,0,0,0,
10,2,6,1,1,1,1,11,6,1,5000,50,999,7,2,1,
5,1,3,0.5,0.5,0.5,0.5,5.5,3,-1,2500,25.5,499.5,3.5,1,0.5,0.5,
10,2,6,1,1,1,1,11,6,4,5000,49,999,7,2,1,1,
9.67012e-01,5.36642e-01,4.04212e-01,9.92085e-01,-7.94696e-02,4.97386e-01,5.40415e-01,4.82518e-01,1.97170e-01,1.03028e+00,-6.90213e-02,1.10104e+00,1.10337e+00,2.15038e-02,8.72456e-01,7.84967e-01,
2.52393e-01,-1.81866e-01,1.09753e-01,3.69005e-01,8.57280e-01,4.22949e-02,2.64488e-01,8.01395e-02,1.57924e-01,-1.08451e-01,2.86699e-01,6.28225e-01,-2.19871e-01,1.15346e-01,-3.52479e-01,1.51885e-01,
-5.21421e-01,2.84865e-01,1.41315e-01,-5.95990e-01,-1.64771e-01,2.70653e-01,1.53181e-01,-2.58335e-02,-2.18783e-02,2.52091e-02,5.28143e-02,-2.93001e-02,-3.18699e-01,3.76187e-01,-2.07339e-01,-1.53891e-01,
-8.82787e-02,1.23739e-01,2.67910e-01,5.10830e-01,-3.33622e-01,-8.26786e-02,-2.09858e-03,-2.87985e-01,3.88080e-01,4.00139e-02,1.67517e-01,1.47851e-01,3.23528e-01,-3.65470e-03,6.48906e-02,3.11026e-01,
1.35584e-01,4.60323e-01,4.04429e-01,-2.74861e-01,4.43255e-01,1.67380e-01,-4.93090e-02,-1.62583e-01,4.40632e-01,-1.40411e-02,6.06036e-02,5.68295e-01,2.35471e-01,2.30173e-01,2.84108e-01,-3.90257e-02,
9.69215e-01,
4.03197e-01,
-3.51194e-01,
-8.65308e-02,
3.73098e-01,
-1.01462e-01,-5.13677e-01,6.50666e-01,9.68423e-01,-7.93413e-01,
-3.73178e-01,
