// Neural Network File Format by Kyle Julian, Stanford 2016
3,16,1,64,
16,64,16,1,
0,
0,0,0,0,0,0,0,0,0,-3,0,1,0,0,0,0,
10,2,6,1,1,1,1,11,6,1,5000,50,999,7,2,1,
5,1,3,0.5,0.5,0.5,0.5,5.5,3,-1,2500,25.5,499.5,3.5,1,0.5,0.5,
10,2,6,1,1,1,1,11,6,4,5000,49,999,7,2,1,1,
6.06541e-03,1.41700e-01,-1.26927e-01,7.23978e-02,2.40293e-01,1.12253e-01,1.07346e-01,5.53396e-03,-1.56762e-01,-3.33490e-02,-4.76174e-02,2.55839e-01,-8.12142e-02,-2.37074e-01,-2.13658e-01,-9.45299e-02,
1.60889e-01,4.58453e-01,2.90550e-02,1.47198e-01,5.70107e-01,-3.93970e-01,-6.37897e-01,-4.29548e-01,-2.93378e-01,1.95274e-01,-4.60392e-01,6.03353e-01,8.59562e-01,-9.75627e-03,2.66730e+00,-9.16475e-01,
-2.93257e-01,4.46014e-01,-3.18367e-01,1.50189e-01,8.68864e-01,5.13580e-01,-1.73170e+00,-1.37939e+00,-2.80898e-01,-1.11649e+00,-1.40003e+00,1.65488e+00,1.27794e+00,-8.67165e-02,3.00684e+00,-7.27637e-01,
-1.47533e-01,8.55208e-02,3.28738e-02,-1.80980e-01,2.38566e-01,-1.49994e-01,-2.23343e-01,-1.80068e-01,-4.87125e-02,-3.44879e-01,-6.26328e-02,2.16658e-01,5.33196e-02,-2.62645e-01,-1.59659e-01,-8.73499e-02,
-1.73832e-01,-1.43694e-01,-2.22917e-01,-2.41547e-01,-5.67642e-03,-3.18175e-01,-3.74300e-02,-2.63180e-01,1.54897e-01,8.97835e-02,-5.83134e-02,-1.70334e-01,6.17707e-02,-3.30913e-01,1.95533e-01,-3.40796e-01,
-3.66193e+00,1.58262e+00,-1.76390e+00,2.82134e+00,-9.22537e-01,3.33299e+00,7.43662e+00,-4.22128e+00,3.57415e-01,4.60331e-01,4.00586e-03,-2.86975e+00,-3.33302e+00,-1.34247e+00,5.72256e+00,5.90450e+00,
-2.39008e-01,-1.16277e-01,6.29002e-02,2.80117e-02,-1.61763e-01,2.43600e-01,2.42669e-01,1.60066e-01,1.35527e-01,-2.15307e-01,-2.15288e-01,-1.23352e-01,1.99192e-01,-2.67908e-01,-1.96243e-01,6.36492e-02,
-2.52645e-01,-1.61720e-01,-2.00689e-01,-3.80197e-01,-5.26874e-02,2.00426e-01,-3.39942e-01,-4.43056e-01,-3.52679e-01,2.88119e-02,-3.88048e-01,5.63753e-01,-2.45389e-01,-1.22302e-01,9.91205e-02,-7.31590e-02,
-2.24787e-01,3.03968e-01,3.03580e-01,-3.79401e-01,-2.56174e-02,-4.13263e-02,-4.76475e-01,-1.67477e-01,-2.79067e-01,-1.87059e-01,-4.64395e-01,4.09625e-01,-4.23281e-01,-1.30308e-01,-1.32708e-01,-1.38714e-01,
-1.75029e-01,-6.07047e-02,-8.64717e-03,-2.78535e-02,-2.80161e-02,-2.12330e-01,2.47753e-01,1.91788e-01,3.65079e-02,1.69808e-01,-1.42856e-01,-9.52518e-02,-2.43620e-01,-1.43885e-01,-1.49638e-01,-2.47797e-01,
2.68559e+00,-2.74876e-01,-1.96198e+00,-3.15133e+00,4.40673e+00,-1.15850e-01,2.27268e+00,5.61653e+00,1.69823e+00,-9.38584e-01,-2.21179e-01,2.34704e+01,5.81172e-01,1.99779e-01,4.96974e+00,-5.02171e+00,
-2.86302e+00,4.00924e-01,1.73807e-01,9.47179e-01,-1.85224e+00,3.25787e-01,6.58516e-01,-6.39239e+00,-3.01574e+00,9.32199e-01,-2.40527e-01,-8.57877e+00,-1.21559e+00,-6.00904e-02,-1.08120e+00,2.63909e+00,
-2.05996e+00,-3.75750e-02,-1.39407e+00,6.84829e-01,-2.08083e-02,-3.59792e+00,-4.90703e-01,-1.15758e+00,1.71162e+00,8.69736e-01,-3.18666e-01,-1.65540e+00,-1.01489e+00,-2.36565e+00,1.50754e+00,6.79873e-01,
-5.93076e-02,-8.45130e-02,-3.22616e-02,-8.29926e-02,-3.59431e-02,-1.32745e-01,-1.29971e-01,-2.53531e-01,-4.16829e-02,-3.74748e-01,-2.57927e-01,6.62148e-01,-3.78684e-01,2.70751e-03,-7.09740e-01,-1.48824e-01,
-3.16397e-01,-1.82189e-01,-1.89801e-01,-9.89350e-02,-2.69584e-02,-1.94601e-02,-1.13828e-01,-2.29571e-01,-2.61412e-01,-2.44947e-01,-4.26411e-02,2.50361e-01,-4.75302e-02,-2.08536e-01,1.12588e-01,-2.80089e-01,
-3.63477e-01,7.66272e-02,-2.89046e-01,-2.86909e-01,1.08461e-01,-2.66914e-01,-4.97195e-02,-8.91604e-03,-2.85882e-01,-2.66056e-01,-2.79282e-01,-4.89085e-01,-9.73851e-02,1.04385e-03,-7.80952e-01,2.45097e-01,
-2.98189e-01,-2.14667e-01,-6.89168e-02,1.85146e-01,4.14456e-01,1.68091e-01,-4.80815e-02,5.13175e-02,1.76580e-02,-2.94173e-01,-2.21750e-01,6.50631e-01,-1.23415e-01,-8.77479e-04,2.37297e-02,-8.71213e-02,
-7.92398e-02,-1.14947e-01,-1.20716e-01,-3.11494e-01,1.20308e-01,-1.19862e-01,1.22248e-01,-2.18222e-01,1.32321e-01,-4.24392e-02,-3.99652e-02,2.38227e-01,-8.38158e-03,-1.08667e-01,1.44123e-01,7.57971e-02,
-4.03179e+00,1.06791e-01,9.51707e-01,1.14384e+00,-3.38412e+00,-1.10498e+00,-2.21073e+00,1.22021e+01,4.55164e-01,1.69529e+00,-2.22666e-01,-1.70735e+01,-5.45847e+00,7.28559e-02,-5.46301e+00,3.89286e+00,
-1.26616e-01,9.56900e-02,-2.40770e-01,-1.35456e-01,1.68949e-01,1.37888e-01,6.37441e-02,-1.35848e-01,1.75379e-01,8.72386e-02,-1.57295e-03,3.20508e-01,-2.57669e-01,-9.18090e-02,-2.57084e-01,-3.33929e-01,
-5.61244e-01,9.51011e-02,-3.95701e-01,1.87074e-01,-1.13806e-01,-3.89124e-02,-1.36106e-02,-5.15496e-01,2.02354e-01,2.55231e-01,-3.82560e-02,4.93205e-01,-6.03799e-01,-3.67380e-01,1.99405e-01,-1.99421e-01,
1.06041e-01,-5.34722e-01,-1.16221e+00,-1.45591e+00,1.88312e+00,-3.30768e-01,-7.02569e-01,2.90803e+00,-1.02935e-02,-1.12369e+00,-3.44664e-02,7.04116e+00,-4.08588e-01,-1.02411e-02,-6.39154e-01,-2.50328e+00,
1.90354e-01,6.16816e-02,2.08830e-01,-1.62221e-01,1.48970e-01,-2.57495e-02,1.25535e-01,-1.22784e-01,2.48939e-02,2.36615e-01,-2.45761e-01,1.74017e-01,-1.03590e-02,-9.50326e-02,-1.46758e-01,-2.50282e-01,
-2.35735e-01,8.86729e-01,-7.04982e-01,1.32128e+00,3.72016e+00,1.80473e+00,-4.10303e+00,-6.53446e+00,-1.56521e+00,-2.26854e+00,-2.55193e+00,6.93725e+00,4.33013e+00,3.02313e-01,1.17702e+01,-2.91808e+00,
1.56517e-02,-3.88458e-01,-4.33521e-01,-5.12412e-01,-1.01086e-01,-4.98297e-01,-9.58610e-02,-4.10121e-02,-5.93515e-02,-2.35222e-01,-2.48170e-02,2.03634e-01,-3.83690e-01,-2.63855e-01,-1.01492e-01,-5.20103e-01,
2.08034e-01,-4.49267e-03,-1.92566e-01,1.13596e-01,6.01543e-02,-2.48437e-01,-1.53137e-01,5.90400e-02,7.73193e-02,1.36674e-01,-2.23608e-01,9.92217e-02,3.23913e-02,-7.16618e-02,-8.22617e-02,1.65452e-01,
7.84008e+00,7.13570e-01,6.46153e+00,9.90533e-01,6.51181e-04,3.93217e+00,7.34515e+00,8.08815e+00,-6.19316e-02,1.04464e+00,-2.90591e-01,2.65953e-01,4.05938e+00,-2.08541e-01,1.41516e+00,2.49316e+00,
1.35286e+00,-5.17788e-01,-1.27958e+00,-1.54441e+00,3.74575e+00,-7.55821e-01,1.98427e+00,4.31536e-01,-3.45899e-01,-3.53249e-01,-3.26938e-01,1.78496e+01,2.28989e+00,4.05046e-03,4.61895e+00,-3.66433e+00,
-3.19839e-01,-1.11585e-01,-1.69313e-01,1.02575e-01,-1.45330e-02,-3.03822e-01,-2.23926e-01,5.02315e-02,-4.07801e-03,1.21890e-01,-5.83183e-02,-2.63963e-01,6.64594e-03,-9.09633e-03,-8.89444e-02,-1.99006e-01,
-2.16076e-01,2.44753e-01,-3.81593e-01,-1.33111e-01,9.31274e-01,-6.95061e-02,8.09332e-01,-2.57029e-01,-8.53283e-02,1.18671e-03,-3.63510e-01,5.31963e+00,7.52713e-01,-1.34984e-01,5.45860e-01,-3.63631e-01,
3.65734e-01,9.86237e-01,-4.17244e-02,4.18119e-01,2.07315e-01,-7.44558e-01,1.15751e-01,7.40606e-01,5.74475e-01,1.52571e-01,-5.99712e-01,4.28864e-03,2.58370e-01,-2.26335e-01,7.35561e-01,1.79963e-01,
8.23424e-03,-2.32086e-01,1.00241e-01,-3.48582e-02,3.19326e-01,-4.07887e-01,-1.24391e-01,-2.92098e-01,9.40765e-02,-2.97433e-01,-2.27093e-01,-2.95394e-01,7.14175e-02,-5.61791e-04,9.34674e-01,-2.72545e-01,
-3.60619e-01,-5.04394e-01,-1.74186e-01,-5.07397e-01,-9.04955e-02,-5.33358e-01,-8.66992e-01,-5.11871e-01,-3.28383e-01,-4.69264e-01,-2.62657e-02,3.99144e-01,-3.63828e-01,-4.64151e-01,-5.65719e-01,-4.07796e-01,
8.17807e-01,-8.83673e-01,-1.18147e+00,-1.33474e+00,2.28777e+00,-1.74174e+00,2.91990e+00,-2.02842e+00,-4.71855e-01,-8.81501e-01,-2.54365e-01,1.54900e+01,2.21774e+00,-5.54755e-02,3.59459e+00,-2.67616e+00,
-9.98401e-02,-6.40105e-02,-1.52418e-01,-2.96594e-01,1.23187e-01,-9.85661e-02,-1.06279e-01,-4.74172e-02,-3.41395e-02,1.87066e-02,-3.23696e-02,-3.07687e-02,1.00085e-01,-1.18205e-01,-3.01538e-01,5.40944e-02,
-2.46067e-02,4.27286e-02,-3.10713e-01,-2.05264e-01,-2.55150e-01,-1.48457e-01,-6.50224e-02,-3.40556e-01,-2.07166e-01,-4.75769e-02,-1.31221e-01,-1.15687e-01,-3.49967e-01,-1.92566e-01,-1.78797e-01,7.01008e-02,
-4.35737e-01,-2.56981e-01,-1.90916e-01,-1.87157e-01,-4.28700e-02,7.37522e-02,-1.35256e-02,-6.75716e-02,-2.80090e-01,-1.35336e-01,-2.02999e-02,-1.63467e-01,-2.50222e-01,-1.56584e-01,3.35430e-02,-1.08055e-02,
-1.46973e-01,-2.83589e-01,3.11769e-02,-1.83047e-01,-2.35206e-01,-3.61196e-02,1.10236e-01,-2.23854e-01,-1.14665e-01,-1.01002e-01,-1.10475e-02,-9.37313e-02,-2.74998e-01,-1.80298e-01,-3.43418e-01,-2.01961e-01,
-1.05601e+00,-3.28394e-02,6.62353e-01,1.48078e+00,-1.80556e+00,-3.32935e+00,3.84167e-01,4.45608e+00,1.51701e+00,3.94851e-01,-2.57329e-01,-8.84353e+00,-9.58922e-01,-3.56101e-01,-1.07581e+00,2.22461e+00,
-1.81663e-01,-8.64517e-02,-5.85008e-02,-2.60977e-01,-1.80774e-01,-1.41433e-01,-3.39846e-01,4.54411e-02,-3.26324e-01,-4.14339e-01,-2.07901e-02,-2.58332e-02,-6.21527e-02,-1.22253e-01,-1.29200e-01,-2.00559e-01,
-2.05673e-01,5.68797e-02,2.23886e-02,6.04848e-02,-1.50410e-01,-3.60977e-01,-2.14401e-01,1.92023e-01,1.23510e-01,-2.19495e-01,-1.30372e-02,2.20660e-01,4.14460e-03,-1.06441e-01,-1.86749e-01,-3.41317e-01,
5.52579e+00,1.38011e+00,3.78041e+00,1.27734e+00,1.51215e+00,9.29664e-01,6.37341e+00,9.06314e+00,1.61308e+00,1.51590e+00,-1.68724e-01,6.86971e+00,1.36020e+00,-6.67720e-02,2.22301e+00,-3.08501e+00,
8.84575e-02,-4.07307e-01,-8.84400e-02,1.72870e-01,-1.17221e-01,3.03790e-01,3.84139e-01,5.39522e-01,-6.69810e-02,-3.36759e-02,-2.53128e-01,1.44677e-01,5.80897e-01,-2.82453e-01,-1.80390e-01,3.21705e-01,
-1.23507e-02,-1.93199e-01,-2.18732e-01,1.92708e-01,2.01751e-01,1.70204e-01,3.08255e-03,-1.74756e-01,1.83932e-01,-1.63718e-01,-6.91703e-02,3.22523e-01,-8.29766e-02,-4.93672e-02,1.77238e-01,-1.54833e-01,
6.28495e-02,-3.33197e-01,-4.08214e-01,4.25218e-02,1.85225e-01,8.56731e-02,-1.88977e-01,1.23669e-01,1.04433e-01,-3.25258e-01,-7.84518e-02,3.60056e-01,-2.64648e-01,-2.94556e-01,8.99561e-02,-1.42146e-02,
-4.82646e-01,7.77807e-02,-2.03354e-01,2.27748e-01,-6.76881e-01,-8.44884e-01,-6.92059e-01,-2.86536e-01,-4.38012e-01,-3.32329e-01,-3.81800e-01,-1.48352e+00,3.83878e-01,-4.47634e-03,-6.96427e-02,-4.86864e-01,
-7.03163e-02,-1.01211e-01,-2.30872e-01,-2.07395e-01,2.60123e-01,1.96738e-01,-2.79986e-01,6.93920e-02,-2.88085e-01,7.09181e-02,-2.34286e-01,1.00273e-01,-2.40025e-01,-3.63701e-02,-1.81554e-01,1.37511e-02,
-6.39551e-02,-9.04278e-02,-1.06319e-01,-4.26259e-02,-2.35502e-01,-1.44076e-01,-6.51198e-01,1.29318e-01,-1.51849e-01,-1.81196e-01,-8.18257e-04,-3.51438e-02,1.79883e-01,-5.99787e-03,-5.76866e-01,7.77551e-02,
-4.09775e-02,-3.75041e-01,-3.36079e-01,-2.59706e-01,1.02616e-02,6.32867e-02,-3.64597e-01,1.68112e-01,-1.23043e-01,-1.96679e-01,-2.21376e-02,-2.22630e-02,-8.23085e-02,-7.52661e-02,-2.72327e-01,-2.08374e-01,
1.29189e-01,-2.13692e-01,7.84580e-01,1.24233e-01,-1.06009e+00,2.00325e+00,-2.96579e-01,3.90346e+00,3.31267e-01,1.04436e-01,-4.04975e-01,-3.99591e+00,-3.97966e-01,-4.35569e-02,-8.61312e-02,1.62874e+00,
2.08081e+00,-8.91161e-01,-2.11418e+00,-2.94491e+00,3.48456e+00,-1.16951e+00,2.96355e+00,4.29456e+00,7.18149e-01,8.52836e-01,-2.71007e-01,2.15572e+01,5.82898e-01,1.43525e-01,2.74577e+00,-3.82946e+00,
2.16630e-01,4.10520e-02,1.72179e-01,-4.19903e-02,-2.70311e-01,2.15704e-01,-1.92438e-01,-1.77037e-01,-4.25490e-02,-9.42400e-02,-2.04316e-01,-2.43735e-01,1.76848e-01,-8.99670e-02,-1.62046e-01,-9.14885e-02,
-2.81062e-02,2.11898e-01,1.01161e-01,-2.40901e-01,1.43677e-01,-1.23075e-01,-2.71251e-02,-7.83028e-02,9.46673e-02,1.20996e-01,-2.39657e-01,-3.42245e-02,1.27155e-01,-1.17694e-01,-2.42115e-01,2.42283e-02,
-4.64877e-01,-1.21246e-01,-4.50267e-01,-1.22492e-01,1.08772e-01,-1.31138e-01,1.02889e-01,-5.43128e-01,-3.91155e-01,-8.43981e-02,-1.49940e-02,1.62767e-01,-4.02591e-01,-2.86921e-02,8.19394e-01,-1.59321e-01,
-2.15694e-01,-2.47306e-01,2.32537e-01,-2.24445e-01,1.96868e-01,-1.59374e-01,-1.26440e-01,-2.49442e-01,-1.60170e-01,2.56401e-01,-9.04357e-02,-3.48621e-02,-2.22697e-01,-1.80942e-01,1.44343e-01,2.01139e-02,
-3.96597e-01,-3.78532e-01,-3.89066e-01,-3.96859e-01,2.08294e-03,-1.06271e-01,2.35925e-01,2.16417e-01,-1.05726e-01,-1.43819e-01,-4.43429e-02,2.83488e-03,-2.67064e-01,-3.95806e-01,9.61341e-02,-4.25947e-01,
-1.34746e-01,5.68628e-02,-1.14147e-01,-9.49241e-02,-1.92088e-01,2.56921e-01,2.55113e-01,-1.08459e-01,-1.86850e-01,1.02488e-01,-2.63048e-01,2.44744e-01,-1.18438e-01,-1.50901e-01,-2.22117e-01,-1.01409e-01,
1.23103e+00,-7.50700e-01,-8.62075e-01,-1.18910e+00,3.35206e+00,-1.65514e+00,3.62353e+00,-3.52546e+00,-6.73497e-01,1.98606e-01,-3.40913e-01,1.86476e+01,3.09095e+00,-5.34413e-02,2.74431e+00,-2.55845e+00,
2.23382e-01,-2.47234e-01,-7.22627e-02,-7.69982e-02,2.55160e-01,-2.44807e-01,-1.80622e-01,1.27135e-01,-2.33166e-01,9.57391e-02,-3.59783e-02,-7.25881e-02,-1.57676e-01,-2.35895e-01,6.33416e-02,8.06869e-02,
-3.98021e-02,-8.99366e-02,-2.16230e-01,-1.69444e-01,1.83401e-01,-1.97017e-01,-2.17520e-01,7.53781e-02,1.47022e-01,-1.16204e-01,-1.66121e-01,2.87805e-02,1.20594e-01,-1.62564e-01,-1.32056e-01,7.03382e-02,
-2.45595e-01,2.14715e+00,1.68727e+00,5.33639e-01,-6.13392e-01,3.31859e+00,-1.18769e+00,2.48541e+00,-2.68510e+00,7.98502e-01,-1.60293e-01,-2.90827e+00,-2.63719e+00,-4.89539e-02,3.20149e+00,1.55184e+00,
-3.97938e-01,1.47585e-01,-1.68895e-01,-1.96681e-02,9.97240e-02,-1.10714e-01,2.11509e-01,-9.44129e-02,4.73346e-02,1.28270e-01,-1.24523e-02,-1.85951e-01,-3.22917e-01,-3.02349e-02,-1.39965e-01,-2.64032e-01,
-2.99594e-01,-8.40402e-02,7.63932e-02,-7.56706e-02,1.43180e-01,-1.52929e-01,-3.38081e-01,-2.84991e-01,8.47594e-02,9.76467e-02,-3.18442e-01,2.01076e-01,-2.37249e-01,-1.32579e-01,2.83463e-01,-3.08244e-01,
-4.18615e-02,-6.45415e-03,-1.72095e-01,-3.64807e-02,-8.11651e-03,1.34490e-02,-3.71508e-02,1.23076e-01,-2.63704e-01,-2.43314e-01,-4.55792e-02,3.15503e-01,4.91421e-02,-2.84251e-01,-2.25318e-01,4.54067e-03,
-8.04378e-04,
-5.08987e-02,
-1.44857e-01,
-8.06342e-02,
-7.24443e-02,
-2.56457e+00,
0.00000e+00,
-3.02689e-01,
-2.57644e-01,
0.00000e+00,
1.69008e-02,
-6.82261e-01,
-1.69683e+00,
-1.99972e-01,
-8.18000e-02,
-1.09343e-01,
-4.64167e-02,
-5.87663e-02,
-9.46372e-01,
-8.80191e-02,
-3.96514e-01,
-5.11608e-01,
0.00000e+00,
1.93677e-01,
-2.56717e-01,
0.00000e+00,
9.01247e+00,
-3.32528e-02,
-1.10576e-01,
-2.40964e-01,
1.77649e-01,
-1.39219e-01,
-4.04712e-01,
-2.90920e-01,
-4.31748e-02,
-1.04814e-01,
-1.61419e-01,
-1.14686e-01,
-5.23177e-01,
-1.59115e-01,
-3.72370e-02,
3.30238e+00,
1.22975e-01,
-2.46791e-02,
-1.32183e-01,
-2.18096e-01,
-5.34415e-02,
7.46672e-02,
-1.07730e-01,
5.91468e-01,
-4.11292e-02,
0.00000e+00,
0.00000e+00,
-3.50084e-01,
0.00000e+00,
-1.50071e-01,
0.00000e+00,
-1.26665e-01,
0.00000e+00,
0.00000e+00,
1.40218e+00,
-1.40144e-01,
-1.13219e-01,
-6.92419e-02,
-5.85779e-02,-1.58076e-01,-1.07036e-01,2.05448e-02,-5.02026e-02,-7.12295e-02,-2.36864e-02,4.37139e-02,2.44692e-01,-5.88638e-02,-1.47824e-01,-2.96803e-02,-1.81114e-01,1.31956e-01,2.22104e-01,1.97158e-01,-2.29538e-01,1.22320e-01,-6.92254e-02,6.83634e-02,-6.82045e-02,-8.69152e-03,1.56716e-02,4.86103e-02,1.72284e-01,1.09688e-01,2.02566e-02,-2.54929e-01,3.03781e-03,-7.02808e-02,2.58691e-01,-2.05464e-01,-4.57702e-02,-2.07595e-01,-9.47644e-02,1.90838e-01,4.12914e-02,3.92035e-02,-1.29109e-01,2.84733e-02,9.54603e-02,-5.20036e-02,-1.79361e-01,1.02406e-01,4.44044e-02,-7.12955e-02,-5.83230e-02,2.09353e-01,2.99583e-02,1.61243e-01,-4.53144e-02,1.40992e-01,-2.20989e-01,1.48135e-02,-7.58263e-02,2.27876e-01,1.91504e-01,-2.40560e-01,-1.70674e-01,8.71858e-02,-7.93260e-02,-1.36673e-01,-1.70803e-02,1.38577e-01,
-9.15434e-02,-1.68591e-01,5.54206e-02,-1.37274e-01,-1.80872e-01,-8.31881e-01,-1.00782e-01,-1.35643e-01,-1.72573e-01,-1.49348e-01,-1.18040e+00,-1.66740e-01,1.94736e-01,1.05988e-01,-6.41298e-02,-2.42435e-01,-1.92226e-01,-6.79632e-03,-3.00365e-01,-2.10134e-01,-1.77780e-01,-2.37478e-01,-1.38809e-01,-3.34892e-02,-1.81786e-01,6.00991e-02,-2.66561e-01,-5.69117e-01,-3.77222e-01,-1.98883e-01,9.47816e-02,-2.11628e-01,1.46434e-01,-3.57424e-01,1.07618e-01,-1.86194e-01,-2.38964e-01,1.78923e-01,-2.10271e-01,2.47950e-02,1.00958e-01,-7.04688e-01,1.94837e-01,-1.83396e-01,-1.80012e-01,-5.90314e-01,2.34923e-01,-3.01091e-01,1.67133e-01,6.00229e-02,-1.58602e+00,2.12449e-01,-1.80343e-01,-6.46045e-02,8.96965e-02,2.11539e-01,-4.14192e-02,-4.93784e-01,-2.46433e-02,2.46142e-01,1.02767e-01,1.24658e-01,-1.95265e-01,1.81819e-01,
-1.00672e-01,-2.83033e-01,-2.95019e-02,2.54869e-01,1.47901e-01,-2.44702e-01,7.13761e-02,-3.80380e-01,-1.86394e-01,2.50519e-01,-3.74653e-01,-4.06423e-02,-2.25237e-01,1.11166e-01,-2.76122e-02,1.11276e-01,1.01234e-01,-5.43965e-02,-1.41946e-01,-2.52160e-01,-3.38372e-02,-2.61021e-01,-3.02247e-02,3.12276e-01,2.02796e-01,5.68717e-02,-1.03248e+00,-3.72311e-01,-1.53067e-01,4.71696e-02,-2.19204e-01,4.03288e-03,-2.27477e-01,-1.77260e-01,-1.07994e-01,-2.72507e-01,6.96986e-02,-1.73276e-01,5.64254e-02,-1.60410e-01,9.08969e-02,-1.32515e+00,1.51198e-02,-1.25620e-01,-3.13818e-02,-2.23079e-01,1.11405e-01,6.25819e-02,6.00101e-02,-1.20971e-01,-4.78866e-01,-2.35524e-02,-8.54890e-02,-3.10464e-02,6.11439e-02,1.77950e-01,-1.98567e-01,-3.10154e-01,4.54357e-03,-1.71550e-01,3.00423e-03,9.00010e-03,1.33028e-01,2.63764e-01,
-4.56329e-02,4.58995e-02,2.62808e-01,2.44697e-01,1.76197e-01,-2.00917e-01,-8.95302e-02,5.32086e-01,2.20927e-01,1.59089e-02,2.18848e-01,2.80405e-01,-6.61107e-01,-1.24074e-01,-2.68676e-01,-1.45302e-01,1.99536e-01,-4.66622e-02,-8.44620e-02,9.70238e-02,-3.24851e-01,8.61811e-02,5.60102e-02,2.66602e-01,1.43508e-01,-2.92314e-02,7.09258e-01,1.79049e-01,2.03430e-01,-1.90892e-01,3.55269e-01,-4.40181e-02,-2.93775e-01,1.45046e-01,-2.48242e-02,-1.63964e-01,-2.26627e-01,1.59289e-02,-7.21764e-01,1.05869e-01,-1.03858e-01,-2.09580e-01,4.09010e-01,1.96268e-01,1.20686e-01,8.56700e-02,1.22339e-02,-2.00626e-01,2.18617e-01,-3.77229e-02,2.04296e-01,-2.13220e-01,-1.35907e-01,1.78542e-01,-1.34319e-01,2.28409e-01,4.75919e-02,1.98392e-01,-1.70152e-01,-2.75102e-02,8.92139e-01,2.68135e-01,-1.93614e-01,-3.22271e-02,
9.03508e-02,1.88450e-01,3.32106e+00,2.01827e-01,1.24317e-01,-6.81296e-01,-1.73104e-02,-3.48930e-01,7.68619e-02,-2.08858e-01,-6.38914e-01,-3.05583e-01,-2.49349e-01,-5.29570e-02,9.00324e-02,-2.33458e-01,1.13205e-02,-2.29335e-01,-5.84797e-01,1.86318e-01,-3.08307e-01,-5.43523e-02,-2.34091e-01,3.32025e-01,-3.38815e-01,1.20082e-02,-5.00126e-01,-5.66557e-01,-2.87141e-01,-3.13190e-01,-5.49715e-01,7.18765e-02,1.24270e-01,-2.46908e-01,-2.86222e-01,-5.10812e-03,-8.59793e-02,-7.49474e-02,-9.42469e-01,-4.00719e-01,-1.67856e-01,3.47246e-02,-3.48674e-01,-1.37489e-01,2.02257e-01,-3.62998e-01,2.45813e-01,1.10099e-01,-2.06171e-03,-5.31703e-01,-1.21064e-01,-4.40731e-02,-2.02530e-01,-1.56741e-01,-1.32866e-01,-3.06481e-02,-3.24172e-02,-6.12554e-01,-7.78412e-02,-2.04026e-01,-2.90465e-01,-2.73460e-01,-1.01913e-01,-1.34434e-01,
1.37183e-03,4.38793e-02,-2.94550e-01,2.11898e-01,-1.60676e-01,-4.42899e-01,-2.23161e-01,-2.12547e-01,2.79704e-03,2.21598e-01,-7.04724e-01,8.44561e-02,7.83331e-02,3.13697e-02,-9.86963e-02,1.12496e-01,-3.91432e-01,-3.53040e-01,-5.46457e-02,5.20246e-02,2.02235e-02,-5.15748e-02,2.35235e-01,4.50324e-01,-7.61507e-02,2.36241e-02,-1.96546e-01,-5.29062e-01,1.24702e-01,-1.23494e-01,1.07631e-01,-4.93579e-02,8.50303e-02,-4.04375e-02,2.74022e-01,1.54352e-01,-6.59969e-02,-4.97973e-02,1.79866e-02,-9.51439e-02,2.12871e-01,2.29455e-02,-7.48204e-02,1.67743e-01,2.10676e-01,-2.39529e-02,-1.99995e-01,-3.14286e-01,1.63919e-02,-7.84561e-02,-7.08071e-01,1.79383e-01,2.51796e-01,-1.23662e-03,-1.13839e-01,-4.87735e-02,9.67228e-02,-2.66918e-01,1.45072e-01,2.35404e-01,3.12828e-01,-3.12033e-01,1.08540e-01,-1.89119e-01,
2.05921e-02,-2.63086e-01,-6.48487e-02,-1.78751e-01,1.15205e-01,-2.19139e-01,-9.79394e-04,9.60364e-02,-6.74943e-02,-3.43064e-02,-2.01024e-01,-2.53525e-01,-2.67050e-02,1.82229e-01,1.56901e-02,1.48695e-01,-2.07072e-01,-7.72077e-02,-4.25421e-01,-1.04228e-01,3.77726e-02,-3.59449e-01,2.69564e-01,1.30786e-01,-2.38196e-01,7.71435e-02,-2.14422e-01,-2.11951e-01,1.57014e-01,-6.17017e-02,-8.62354e-02,8.76287e-02,1.06263e-01,-3.22824e-01,1.80645e-01,-7.85057e-02,3.07198e-02,-1.46324e-01,-3.46635e-01,7.37191e-02,-2.43296e-01,-1.27149e+00,3.37358e-02,1.51940e-02,1.34307e-01,-1.11663e-01,5.38736e-02,3.03549e-02,-2.46365e-01,5.89703e-02,-1.54267e-01,-1.73750e-01,-1.74082e-01,-1.93649e-01,4.63230e-02,-2.67496e-01,-5.06379e-02,-4.19535e-01,-1.13345e-01,-2.05989e-01,1.74212e-01,-1.66220e-01,-2.01542e-01,-1.05830e-01,
-7.73307e-02,-9.97190e-02,-2.82661e-02,1.17690e-01,-1.81948e-01,1.82465e-01,1.31897e-01,2.28824e-01,-2.70712e-01,5.94844e-02,-1.00377e+00,-2.18354e-01,4.44548e-02,-1.23426e-01,2.52237e-01,-4.97025e-02,5.34318e-02,9.25285e-02,-2.44090e-01,4.93511e-02,-1.35521e-01,-2.39850e-01,1.66375e-02,6.71110e-02,1.02252e-01,1.46222e-02,-7.42843e-01,-2.08112e-01,2.63413e-01,-2.88834e-01,-1.04167e-01,-2.22890e-01,-1.82407e-01,-1.68897e-01,-1.85465e-01,-8.76317e-02,2.04679e-01,1.46443e-01,-1.43184e-01,6.87549e-03,-1.29964e-01,-8.83712e-01,3.52404e-01,-1.61993e-01,2.84005e-01,1.83566e-01,-2.59985e-01,-8.76591e-02,-5.11217e-02,8.79951e-02,-2.88444e-01,-1.20579e-01,-3.73845e-02,2.15038e-01,-3.38327e-02,9.48160e-03,2.28194e-01,-2.08616e-01,-1.90012e-01,3.90466e-02,-8.86796e-02,1.53950e-01,-4.28087e-02,3.09483e-01,
1.10776e-01,1.75569e-01,-1.01454e-02,-2.40441e-01,-1.58430e-01,-5.76035e-02,7.34402e-02,-2.73573e-01,5.79914e-02,2.36690e-01,-3.46526e-01,-2.94888e-01,-6.38209e-02,-4.60038e-02,-4.29573e-02,7.10635e-02,-2.19041e-03,9.60845e-02,-4.78254e-01,5.82057e-02,8.73616e-02,-3.38588e-01,2.34229e-01,-1.32194e-03,2.40656e-01,-6.51941e-02,-2.85999e-01,-1.02805e-01,-1.94149e-01,-2.27197e-01,-2.02521e-02,-1.17335e-02,-5.97181e-02,-6.23221e-01,-7.90081e-02,1.45512e-01,5.08365e-02,-2.12589e-01,5.79922e-02,1.37500e-01,1.90138e-01,-2.96756e-01,5.48986e-02,-2.64098e-01,-1.60096e-01,-1.02930e-01,-2.21378e-01,-3.38578e-01,-6.07145e-02,1.66476e-01,-3.63661e-01,-4.64974e-02,-2.02662e-01,-3.17954e-01,-2.41093e-01,-7.77702e-02,-1.04631e-01,-7.69024e-01,1.53058e-01,-1.97990e-01,-2.51964e-01,5.73520e-02,5.91802e-02,1.54169e-01,
-7.46820e-02,-8.34124e-02,6.46538e-03,-1.32973e-01,1.18742e-01,-2.18851e-01,-1.92556e-02,1.37689e-01,-2.34575e-01,1.36295e-01,-2.86242e-01,-1.54180e-01,-3.07413e-01,-6.78978e-02,8.69080e-02,-6.73480e-02,-1.33269e-02,1.33074e-02,-2.71425e-01,9.50073e-02,8.46596e-02,6.66532e-03,-2.47228e-01,-1.33287e-02,-1.94716e-01,1.69676e-01,-1.71644e-01,-7.82917e-02,2.14225e-01,-9.18846e-02,2.28577e-02,2.90718e-02,-2.53435e-01,-9.48488e-02,1.77788e-02,1.61343e-01,-5.34690e-02,6.53852e-02,-1.43932e-01,1.50415e-01,1.18857e-01,-4.96227e-01,-9.18330e-02,1.73440e-01,2.11683e-02,-1.11779e-01,-1.31802e-01,-2.82533e-01,2.41613e-01,1.42852e-01,-8.98577e-03,1.84356e-01,1.76292e-02,2.11715e-01,-1.58100e-01,1.53273e-01,1.21053e-01,-2.65268e-01,-1.08983e-01,1.10460e-01,1.87310e-01,3.57422e-02,-1.82291e-02,-7.34189e-02,
1.66856e-01,-4.51858e-01,-4.08329e-01,-1.61870e-01,-2.75568e-01,-8.50988e-01,-3.19465e-02,3.40982e-01,2.01947e+00,-3.11873e-02,-1.00617e+00,-3.20884e-01,-2.34353e-01,-2.80274e-01,2.48395e-03,5.00161e-02,-2.75097e-01,-1.00431e-01,-6.64928e-01,-2.23733e-01,1.84235e-01,-2.03659e-01,1.83605e-01,-6.74037e-01,-3.91650e-02,-1.42774e-01,8.68531e-01,-5.23993e-01,-1.35095e-01,-2.94960e-01,4.06975e+00,-1.68892e-01,1.34238e-01,-2.22668e-01,-8.04253e-02,2.29473e-02,9.72532e-02,2.14950e-01,-2.64792e-02,-2.00300e-01,1.00454e-01,1.49411e+00,2.22279e-01,-2.51414e-01,-1.99625e-01,2.09646e-01,-9.75890e-02,-6.95091e-02,1.82078e-01,1.29038e+00,-5.98941e-01,-2.10827e-01,2.69362e-02,-2.08978e-01,2.03973e-01,8.64900e-02,-4.09181e-02,-3.07837e-01,2.07035e-01,-1.04525e-01,-2.96138e-01,2.10080e-03,2.60458e-01,9.69481e-02,
-2.49816e-01,-2.61440e-01,-1.32604e-01,1.18974e-01,-2.34738e-01,-3.90456e-01,-9.40347e-02,-3.62137e-02,2.25598e-01,-2.63232e-01,-2.15797e-01,-1.90506e-02,-4.53015e-02,-4.39863e-01,-3.79691e-02,-2.13491e-01,1.36873e-01,-1.49167e-01,-8.54056e-02,1.69165e-01,1.91393e-01,-1.79900e-01,8.27399e-02,-2.42208e-01,8.95878e-02,-1.59096e-01,-6.08575e-02,-3.09745e-01,1.14278e-01,-2.05211e-01,-5.16424e-02,-2.93095e-01,-1.38396e-01,-3.06321e-02,2.63477e-02,-2.28917e-01,-1.30960e-01,7.53141e-02,-5.50195e-01,-2.06225e-01,-3.13035e-01,-2.89515e-01,1.05364e-01,-1.51469e-01,-5.81462e-02,-6.25057e-02,1.67800e-01,-3.55379e-01,-1.50573e-01,-2.68935e-01,-2.93214e-01,1.96969e-01,1.44078e-01,-8.64880e-02,-4.30821e-02,1.66039e-01,1.31613e-01,-6.69677e-01,9.90492e-02,2.58595e-01,-2.33783e-01,-2.28474e-02,-2.62490e-01,-1.11108e-01,
1.50902e-01,4.20022e-02,-3.18156e-01,-1.02664e-01,-9.94436e-02,-4.80006e-01,4.88168e-02,-6.45074e-02,1.62287e-01,6.04513e-02,-2.03718e-01,-4.70034e-01,-4.04673e-02,5.01644e-02,-3.61033e-02,-3.05960e-01,-9.05884e-02,-1.90104e-01,-3.77194e-01,-2.31274e-01,2.56382e-01,-4.47912e-01,1.61728e-02,9.18106e-02,1.90865e-01,1.01395e-01,-6.00531e-01,-2.21817e-01,1.27654e-01,-2.45087e-01,1.15952e-01,-1.05661e-01,8.79354e-02,-2.71868e-01,-2.62746e-02,-1.76866e-01,2.08621e-01,2.73626e-01,2.57693e-02,-3.12737e-03,-1.45528e-01,1.22460e-02,-2.04279e-01,2.24364e-01,-1.21824e-01,-2.91632e-01,2.97879e-02,-1.68999e-01,1.51416e-02,-5.28276e-02,-3.99835e-01,-2.16442e-01,5.79138e-02,-4.13398e-02,-2.43372e-01,-1.23089e-01,-1.68296e-01,-2.31576e-01,-1.11268e-01,-1.91294e-02,9.57223e-02,-2.12558e-01,-1.94447e-01,-2.34541e-01,
1.77761e-01,2.54011e-01,-6.54799e-02,-8.68437e-02,1.76260e-01,-1.98170e-01,-2.39040e-01,3.04348e-01,-1.23355e-01,-2.44824e-01,-2.48879e-01,-4.24665e-02,-6.33594e-02,2.44073e-01,6.17051e-02,2.40533e-02,2.97060e-01,-1.46340e-01,-3.25468e-01,2.51743e-02,1.94213e-02,3.84556e-02,-1.22820e-01,1.34365e-01,-1.21261e-01,2.16495e-01,-2.61186e-01,-1.98853e-01,-9.77365e-02,-1.68952e-01,3.50586e-01,2.85514e-02,-2.16396e-01,-2.83991e-01,-1.47612e-01,2.59786e-01,2.25692e-01,-1.55457e-01,-2.17956e-01,-2.31945e-01,1.29844e-01,-1.59430e-01,-1.01273e+00,1.62281e-01,-1.59501e-01,-1.55232e-01,2.02746e-01,2.64732e-02,-1.86888e-01,1.92821e-01,-6.51645e-02,1.62830e-01,-2.47603e-01,-3.09635e-02,-1.46093e-01,1.68886e-01,-1.49124e-02,-2.47662e-01,1.75768e-02,-1.27731e-01,-1.45789e-01,-1.30773e-01,3.05795e-01,9.31529e-02,
3.67796e-02,1.56295e-01,-3.80080e-01,-2.38084e-01,-1.74504e-01,-2.48398e-01,1.51644e-01,-1.01096e-01,-2.00926e-01,-2.68380e-01,-3.54555e-01,-4.66363e-01,3.35006e-02,-1.11499e-01,-1.77606e-01,-3.00316e-01,2.19729e-01,-7.44176e-02,-3.39572e-01,-4.82151e-02,6.11458e-02,-1.36724e-01,1.50542e-01,6.43627e-02,-2.31864e-01,1.27080e-01,-1.91098e-01,-3.40195e-01,-3.65440e-01,-2.61761e-01,1.95240e-01,6.93444e-02,-6.72674e-02,-1.77017e-01,1.30889e-01,-8.15268e-02,2.30518e-01,-1.00099e-01,-4.22146e-01,-1.84944e-01,-2.10395e-01,-6.16247e-02,7.23583e-03,-7.76183e-02,-1.77449e-01,-1.08156e-01,-1.23582e-01,-3.80010e-01,-2.27673e-01,6.61716e-02,-9.16260e-02,-1.92070e-01,2.67046e-01,-3.21278e-01,-1.77482e-01,-1.17919e-01,-2.03095e-01,-5.05908e-01,-4.97094e-03,-6.57499e-02,-2.04867e-01,2.69088e-02,4.45868e-02,1.43615e-01,
-1.48142e-01,8.09481e-02,-1.41189e-01,-1.75037e-01,4.34009e-02,-3.98838e-01,1.34785e-01,-3.42402e-01,2.97970e-02,7.16047e-02,-2.16499e-01,-6.46658e-01,-1.07818e-01,-4.37922e-02,-6.00120e-02,-2.05377e-01,1.98338e-01,-2.07626e-01,-2.80516e-01,-7.25586e-02,1.03185e-01,-6.22593e-01,-1.27907e-01,-3.90421e-01,-1.57405e-01,-1.09112e-01,-1.78513e-01,-3.80007e-01,-2.25914e-02,-2.34965e-01,6.06287e-02,1.51160e-01,-1.88407e-01,-1.64514e-01,1.93378e-01,2.54678e-01,7.76036e-02,-1.25974e-01,-3.32230e-01,1.49473e-01,1.26092e-01,-1.99148e-01,2.41987e-01,-1.61893e-01,4.75585e-04,-6.11741e-02,1.62796e-02,-3.59326e-01,-2.41729e-01,-3.11906e-01,-4.69867e-01,1.50643e-01,8.00682e-02,-2.77430e-01,-2.86077e-02,-1.54107e-01,-1.64120e-01,-5.66873e-01,2.54906e-01,2.02227e-01,-1.90505e-01,-2.25139e-01,-2.41585e-01,1.16405e-01,
-8.35899e-01,
9.47241e-02,
-6.39739e-01,
-3.78654e-01,
-3.87485e-01,
-1.12061e+00,
-7.52096e-01,
1.25692e+00,
-7.56631e-01,
-7.84414e-01,
-2.21508e-01,
-2.49417e-01,
-1.10138e+00,
-5.58055e-01,
-8.61527e-01,
-4.77135e-01,
2.64619e-02,9.11511e-02,9.37496e-02,-1.04304e-01,2.45566e-02,4.83800e-02,3.42868e-01,2.05925e-01,-2.32804e-01,4.03643e-01,-1.65278e-01,2.58879e-02,1.39290e-01,1.34443e-01,1.38512e-01,5.31552e-02,
-1.49142e-02,
