// Neural Network File Format by Kyle Julian, Stanford 2016
10,16,1,16,
16,10,10,10,10,10,10,10,10,10,1,
0,
0,0,0,0,0,0,0,0,0,-3,0,1,0,0,0,0,
10,2,6,1,1,1,1,11,6,1,5000,50,999,7,2,1,
5,1,3,0.5,0.5,0.5,0.5,5.5,3,-1,2500,25.5,499.5,3.5,1,0.5,0.5,
10,2,6,1,1,1,1,11,6,4,5000,49,999,7,2,1,1,
7.73684e-03,-3.78328e-02,5.61955e-01,8.92149e-01,-5.12892e-01,7.85911e-02,-2.40837e-01,-8.17436e-01,-5.94817e-01,-5.58614e-02,-2.37445e-01,-3.89765e+00,3.73099e-02,1.67518e-01,-5.63048e-01,9.94325e-01,
-2.89186e-01,4.80732e-02,-3.66822e-01,-7.74972e-02,-2.49534e-01,5.23850e-02,-4.58984e-01,3.67822e-01,-4.31058e-01,4.50788e-01,-3.65547e-01,4.16734e-01,3.60572e-01,-1.91121e-01,5.93328e-02,1.17439e-01,
1.74873e-01,-7.65961e-02,4.38540e-01,-2.74984e-01,-2.55656e-01,4.48601e-01,3.64074e-02,-2.48045e-01,-4.95956e-02,2.64371e-01,-2.53843e-01,-4.32564e-01,-3.75837e-01,-3.72869e-01,2.49370e-01,1.78675e-01,
-6.74378e-01,2.23950e-01,3.96050e-01,6.44209e-01,1.49050e-01,-2.16932e-02,8.44196e-02,-1.50240e+00,-3.76818e-01,-1.62964e-02,2.25060e-01,-3.78980e+00,-7.87394e-01,1.24842e-01,-1.27366e-01,-1.27413e-01,
2.65887e-02,-4.80081e-01,-7.45937e-01,-6.34953e-02,-1.45868e-01,-1.65370e-01,1.11579e-01,-1.87955e-01,6.97138e-01,2.04307e-01,2.26220e-01,2.07015e+00,-6.68951e-01,8.91471e-02,-1.10753e-01,4.60843e-02,
1.89993e-01,-1.37998e-01,1.04267e-02,-2.47778e-01,-1.41501e-02,-5.30368e-01,4.09733e-01,1.01564e+00,7.21779e-02,-2.85239e-01,-1.14049e-01,3.36994e+00,2.84615e-01,2.70064e-01,8.74615e-01,-3.42909e-01,
3.44369e-01,-2.95531e-01,1.25532e-01,3.83119e-01,-6.35787e-01,-1.45989e-02,-6.44156e-01,1.93706e-01,-5.59956e-01,2.99943e-01,9.40642e-02,-2.21945e+00,-4.60113e-01,1.20692e-01,-3.23544e-01,2.99373e-01,
-2.98743e-01,-1.60528e-01,8.90811e-02,-5.63975e-02,-4.07287e-01,-3.31266e-01,-4.93534e-02,1.47939e-02,-1.16003e-01,-1.57619e-01,-1.78509e-01,-3.16601e+00,2.02729e-03,1.21908e-01,-7.89990e-01,-3.56357e-02,
3.09695e-01,1.20536e-01,-2.01887e-01,-7.84353e-02,1.96270e-01,-1.91506e-01,1.86846e-01,-1.99460e-01,-1.31839e-01,2.26747e-01,-1.72290e-01,4.22800e-01,1.66488e-01,-3.71673e-01,-2.18451e-01,3.00331e-01,
5.17599e-01,-5.13671e-01,-3.23000e-01,-5.27844e-01,-4.05932e-02,-4.13059e-01,4.06945e-01,2.08182e-02,3.66654e-01,-7.67229e-02,-2.15885e-01,2.94346e+00,8.75991e-02,4.05414e-01,7.31514e-01,-5.55803e-01,
1.03903e-01,
0.00000e+00,
-2.09547e-02,
-5.58578e-02,
-2.04115e-01,
-1.48225e-02,
-2.97865e-02,
-5.86011e-02,
-2.22927e-02,
-5.50153e-02,
1.18737e+00,-4.09262e-01,3.99876e-01,-9.24761e-02,9.03055e-02,-7.58598e-01,4.45312e-01,-1.55850e-01,4.05090e-01,-6.95637e-01,
4.81511e-01,-4.62823e-01,4.96909e-02,-4.91886e-01,4.30537e-01,1.09318e-01,2.02934e-01,-3.25031e-01,3.73529e-01,4.02644e-01,
-2.28089e-01,4.27114e-01,1.58578e-01,-4.37191e-01,1.56785e-01,4.70064e-01,-1.81175e-01,-2.57712e-01,7.21821e-02,1.84756e-01,
-3.70737e-01,3.91425e-01,4.53104e-01,4.26345e-01,3.68522e-01,-5.97378e-01,2.06410e-01,5.15325e-01,-1.27861e-01,2.58239e-01,
-2.38158e-01,-1.03175e-01,3.94804e-01,3.91777e-01,2.57492e-01,2.95573e-02,1.67157e-01,4.86997e-02,-1.03045e-01,-3.55594e-01,
-7.04374e-01,-4.89988e-01,-1.80207e-01,1.66750e-02,1.49860e-01,3.95464e-01,2.51857e-01,2.45735e-01,-1.49877e-01,2.33605e-01,
3.53702e-01,4.05727e-01,-1.87926e-01,2.48367e-01,-2.30283e-01,4.70317e-01,-3.61712e-01,2.06681e-01,-2.63307e-01,-2.99425e-01,
-5.00155e-01,-1.16661e-01,-5.24647e-01,-3.28621e-01,3.42811e-01,-2.68757e-01,5.51654e-03,-9.81461e-02,-8.68259e-02,-1.88230e-03,
-3.71423e-01,-8.85635e-02,-4.30366e-01,2.60028e-01,4.42485e-02,-5.13103e-01,-4.11177e-01,-4.22654e-01,4.14259e-01,1.22454e-01,
4.21175e-01,-1.95380e-01,1.52875e-01,4.52354e-01,-1.65778e-01,-3.46198e-01,-4.50667e-01,-2.77320e-01,-2.73322e-01,-2.37653e-02,
3.07577e-01,
-1.60847e-02,
3.60490e-02,
-1.18388e-01,
-2.87305e-02,
-4.95628e-02,
1.84117e-01,
2.47356e-01,
-2.84035e-01,
2.51827e-01,
1.61646e-01,2.15313e-02,-1.21826e-01,3.43581e-02,-3.58105e-01,-5.08463e-01,2.93857e-01,3.63453e-01,-2.00547e-01,-5.33025e-01,
-3.71628e-01,-4.68408e-01,6.48142e-02,-7.03995e-02,5.41173e-02,-4.25959e-01,1.04216e-01,-2.82191e-01,4.46277e-01,-5.45572e-01,
1.86335e-01,-1.11011e-01,-2.02528e-01,-8.70710e-02,-4.34539e-02,9.75390e-03,6.30510e-01,-1.77688e-01,3.50975e-01,-4.50879e-02,
-4.51208e-01,2.60813e-01,-5.20925e-01,-2.09168e-01,-5.15858e-01,-4.67203e-01,4.91689e-01,2.55247e-01,3.02615e-01,-3.15006e-01,
9.65076e-02,1.03647e-01,-2.90683e-01,1.45084e-01,-3.66052e-01,4.27553e-01,-1.05226e-01,-5.49638e-02,2.65797e-01,-4.99871e-01,
-3.94539e-01,3.08328e-02,-4.35407e-01,1.42301e-01,-5.10202e-01,-3.30466e-01,3.26032e-01,5.92352e-02,-3.02621e-01,1.78111e-01,
4.63622e-01,-1.69442e-02,6.96304e-01,-2.34040e-01,-9.54396e-02,1.88254e-01,3.81173e-01,1.57256e-01,3.14901e-01,4.36413e-01,
2.13292e-01,-4.06883e-01,-9.68671e-03,-3.33442e-01,2.76149e-01,-4.96791e-01,-4.96261e-01,4.66374e-01,-3.58449e-01,-3.99608e-01,
2.36617e-01,-1.06597e-01,7.23480e-01,-2.83601e-02,-3.54184e-02,1.43645e-01,-5.83371e-01,-1.41954e-01,7.55253e-01,1.77332e-01,
-3.10907e-01,-2.91589e-01,-7.84293e-02,-3.30462e-01,3.14584e-01,-4.79025e-01,2.28073e-01,1.00805e-01,3.93467e-01,-4.27700e-01,
-1.26468e-01,
0.00000e+00,
2.33569e-01,
0.00000e+00,
-1.68903e-02,
-1.19741e-01,
1.48984e-01,
-5.02493e-02,
-8.39649e-02,
-7.22100e-02,
5.30608e-02,3.11499e-01,5.40336e-02,2.37337e-01,4.58144e-01,-7.61403e-02,-4.54349e-01,7.37453e-02,6.55104e-02,4.36474e-01,
-3.17388e-01,3.41213e-01,-9.66205e-02,1.28857e-02,3.84104e-01,3.67633e-01,-6.30926e-01,4.56658e-01,-3.77583e-01,-1.76620e-01,
3.73720e-01,-4.80049e-01,2.11815e-01,-1.03633e-02,2.97396e-01,-3.88574e-01,-3.31124e-01,3.69017e-01,-4.80002e-01,-3.14038e-01,
1.72776e-01,2.03098e-01,-3.37608e-01,3.92298e-01,5.83974e-02,5.09104e-02,-4.24678e-01,2.02694e-01,-1.60623e-01,-2.79284e-01,
-2.60530e-01,9.21443e-02,-2.83578e-01,-3.51753e-01,-2.00177e-01,-6.77639e-02,1.00715e-02,2.95170e-01,5.30258e-01,1.54125e-01,
-3.46000e-01,-4.25931e-01,1.57673e-01,-1.06650e-01,-6.21134e-02,-4.05532e-01,4.11496e-01,2.32030e-02,4.42009e-01,4.24475e-01,
4.41964e-01,-1.41224e-01,-2.48471e-01,6.48358e-02,-8.82775e-02,2.10721e-01,-4.26802e-01,5.31188e-02,-4.62567e-01,-3.33192e-02,
-2.34349e-01,-2.38582e-01,4.29356e-01,5.29724e-01,-4.04582e-01,-2.31414e-01,4.26615e-01,3.13931e-02,-1.83225e-01,-2.65662e-02,
-2.21597e-01,1.44625e-01,-2.72262e-01,4.18710e-01,3.65838e-01,5.40249e-01,-4.17201e-01,-1.15359e-01,-1.19308e-01,1.00309e-02,
-4.03447e-01,-3.51875e-01,-2.08711e-01,-1.82191e-01,-2.96518e-01,-4.46171e-01,-3.52305e-01,2.49705e-02,-2.31492e-02,4.88028e-01,
-1.62052e-01,
2.40788e-02,
2.75277e-02,
6.28881e-02,
-1.59151e-01,
8.57667e-03,
0.00000e+00,
3.78658e-01,
-2.18299e-01,
-3.92307e-03,
1.32379e-01,-3.28461e-01,-3.89513e-01,-8.03970e-02,-3.36626e-01,-4.67858e-01,-2.24894e-01,-1.39682e-01,-1.15611e-01,-3.66603e-01,
-2.31705e-01,2.39997e-02,2.14625e-01,3.62459e-01,-1.83054e-01,1.17411e-01,-1.33835e-01,-2.70041e-01,-2.79437e-01,6.07228e-01,
-2.20643e-01,2.50053e-01,2.52099e-01,8.90983e-03,2.66764e-01,8.82001e-02,-4.21621e-01,-2.48495e-01,2.68384e-01,2.76219e-02,
-3.61682e-03,1.55912e-01,2.59385e-01,-5.19542e-01,5.48939e-01,-1.49502e-02,-3.78565e-01,-2.17745e-01,4.06658e-02,1.34651e-02,
-2.59527e-01,2.44814e-01,-4.67688e-02,5.97813e-02,3.10256e-01,2.12806e-02,3.33302e-01,1.83435e-02,-5.22962e-02,-1.50195e-01,
2.05994e-01,4.40679e-01,-1.30415e-01,-3.04588e-01,4.19369e-01,8.24424e-04,-3.69250e-01,-3.74743e-01,2.58227e-01,5.23808e-01,
-3.25045e-01,1.79960e-01,-2.06219e-01,-1.42296e-01,-1.74153e-01,5.65014e-01,-6.77701e-02,8.76540e-01,4.00754e-01,-4.11381e-01,
3.26826e-01,-5.73057e-01,3.97539e-01,1.97581e-01,3.90845e-02,1.18970e-01,5.33340e-01,-4.67916e-01,3.71926e-01,-2.99120e-01,
-5.32256e-02,3.59581e-01,-1.78057e-01,-3.43464e-01,-5.15285e-01,2.97101e-01,-7.95265e-02,-5.03182e-01,4.32825e-02,8.43443e-02,
3.60855e-01,-4.11480e-01,1.12804e-02,-3.15688e-01,-2.36651e-02,5.69068e-01,8.70773e-02,6.42269e-01,3.78467e-01,5.06800e-01,
0.00000e+00,
2.75319e-01,
-9.52814e-02,
-3.33608e-02,
-3.48029e-01,
-8.06536e-02,
2.10110e-01,
-2.25527e-01,
-1.22185e-01,
-2.00719e-01,
-1.56368e-01,6.25586e-01,3.26749e-01,4.04065e-01,4.77800e-01,5.50898e-01,-9.23493e-02,-4.77214e-01,-1.10863e-01,-4.52063e-01,
-1.91189e-01,3.21465e-01,4.30168e-01,1.47248e-01,1.18780e-01,5.01915e-01,-1.84371e-01,2.06634e-01,1.81145e-01,1.64514e-01,
4.38361e-01,-1.69684e-01,4.93224e-01,-1.90282e-01,5.04212e-01,2.52507e-02,-2.54711e-01,4.70402e-01,-4.66462e-01,4.16101e-01,
5.46241e-01,-9.24657e-02,4.56362e-01,2.38808e-01,-1.12304e-01,-4.37495e-01,1.25237e-01,1.36124e-01,-2.24247e-01,2.47775e-01,
-3.54136e-01,3.90187e-01,-2.58287e-01,-4.42420e-01,-5.35947e-01,1.51368e-01,4.75827e-01,2.80517e-01,4.92320e-01,1.44384e-01,
3.83279e-01,5.30279e-02,1.21504e-01,-3.34201e-01,-6.61146e-02,-4.50739e-01,4.68299e-01,-3.57222e-01,-4.48694e-01,2.87214e-02,
3.78421e-01,-5.98721e-02,1.79067e-01,3.17471e-01,2.46546e-01,3.98841e-01,3.80250e-01,1.61883e-01,3.41388e-01,-3.31414e-01,
1.59588e-01,-3.80101e-01,1.23710e-01,5.04469e-01,3.13010e-01,1.39378e-01,-1.81782e-01,1.32659e-01,1.44459e-01,-2.95769e-01,
3.16867e-01,-2.90367e-01,7.57712e-02,-4.11898e-01,-4.68363e-01,4.69722e-01,-2.42283e-01,-5.56375e-01,2.76998e-01,-3.23304e-01,
4.47559e-01,1.32632e-01,-1.09948e-01,-1.11771e-01,-9.37142e-02,1.03227e-01,9.71447e-02,1.80207e-01,-4.49919e-01,4.53507e-01,
2.58213e-01,
-1.83633e-01,
-1.85476e-01,
1.59037e-01,
7.69671e-02,
1.32927e-01,
1.36624e-01,
-1.29556e-01,
-4.59824e-02,
1.80348e-02,
9.33840e-02,4.86308e-02,1.09074e-01,-2.42002e-01,-3.56423e-01,5.16137e-01,-2.25185e-01,-2.10721e-01,-1.40089e-01,-4.92554e-01,
5.48810e-01,-3.85953e-02,-2.27846e-01,-2.69651e-01,-4.79647e-01,-1.90157e-01,-2.36588e-01,2.61463e-01,3.38156e-02,-4.95644e-01,
-2.24893e-01,3.63504e-01,2.03455e-01,-2.57771e-01,-5.98255e-01,-4.69122e-01,4.06688e-01,-3.23922e-01,2.06315e-01,-6.25648e-01,
2.10602e-01,2.19667e-02,-5.55777e-01,7.09728e-04,4.70719e-01,1.99703e-01,-1.93845e-01,-2.80197e-01,-3.67004e-01,5.67507e-02,
3.24849e-01,1.06283e-01,-3.64308e-01,3.98923e-01,5.63160e-01,1.44133e-01,-3.35206e-01,-3.74852e-01,3.71013e-01,1.46571e-01,
2.76916e-01,-1.07832e-01,1.33022e-01,1.86721e-01,-3.98519e-01,8.65157e-02,1.98930e-01,-2.50413e-01,5.94417e-03,-9.51061e-02,
-2.21545e-01,-4.56316e-01,-9.26511e-02,3.19797e-01,5.06678e-01,4.23166e-01,-1.01933e-02,3.52231e-01,2.81383e-01,-5.71623e-02,
-7.25840e-02,4.85691e-01,-3.03684e-01,9.02159e-02,-5.05571e-01,-1.84845e-01,-2.78606e-01,-3.80063e-01,-2.08528e-01,-2.68685e-01,
2.19953e-01,-4.59154e-01,-6.20909e-01,1.23343e-01,-2.99073e-02,6.33530e-02,3.94388e-01,-4.57423e-01,4.67189e-01,-1.77621e-02,
-2.50784e-01,-6.89550e-02,2.16720e-01,-2.74867e-01,3.83007e-01,1.57975e-01,-1.65575e-01,4.87236e-01,4.67160e-01,3.31704e-01,
0.00000e+00,
4.01288e-02,
-8.54921e-02,
-4.75994e-02,
5.14631e-02,
-1.18027e-01,
-5.43980e-02,
0.00000e+00,
5.19668e-01,
-1.41606e-01,
-1.36347e-01,3.91069e-01,1.52637e-01,1.68125e-01,2.93452e-01,7.54669e-02,-1.88461e-01,-2.66543e-01,-6.32783e-01,3.55555e-01,
-5.00545e-01,-4.68608e-01,1.43943e-01,5.23068e-01,-3.20003e-01,2.11073e-01,-3.57171e-01,4.14865e-01,-2.39289e-01,-1.73261e-01,
-1.68468e-01,-4.59152e-01,3.18037e-01,3.89563e-01,-1.39293e-02,-3.43884e-01,1.79209e-01,1.59711e-01,-5.97787e-01,3.53639e-01,
-2.89329e-01,-4.68075e-01,-3.09359e-01,-3.05365e-01,-1.33183e-01,-1.02104e-01,6.24078e-02,3.91073e-02,3.23108e-01,4.10463e-01,
-1.41094e-01,3.56111e-01,2.53602e-01,-6.31688e-01,-1.11088e-01,5.63558e-01,-3.34591e-01,-3.35660e-01,-6.89553e-02,-3.28196e-01,
5.02473e-01,-5.05123e-01,-1.51957e-01,-2.01255e-01,1.80871e-01,-3.47548e-01,5.34417e-01,1.43999e-01,6.67910e-01,1.12500e-01,
-3.77678e-02,2.60543e-01,4.58500e-02,-2.07209e-01,-3.88815e-01,-2.53281e-01,1.63452e-01,2.14236e-01,7.95157e-02,9.44976e-02,
-3.94923e-01,-7.40502e-02,1.89459e-04,-5.58004e-01,3.68725e-01,-4.62335e-01,-3.09578e-01,-8.18935e-02,-1.53226e-01,9.89661e-02,
5.20324e-01,-5.16047e-01,4.63837e-01,-7.41332e-01,-5.50466e-02,-6.51299e-01,1.56513e-01,3.93532e-01,1.86000e-01,-5.95991e-01,
-3.95037e-02,-9.55040e-02,-2.76085e-01,5.12362e-01,1.71945e-01,-2.24369e-01,3.85481e-01,3.53057e-01,7.42899e-01,-3.63234e-01,
-1.56804e-01,
-3.10754e-01,
-6.37822e-02,
2.31219e-02,
1.35677e-01,
3.35102e-02,
-1.18582e-01,
6.50714e-03,
-1.72103e-01,
3.27002e-01,
4.22494e-01,-5.69782e-01,1.18729e-01,3.05843e-01,1.89199e-01,3.09174e-01,-5.53344e-02,1.26997e-02,3.29661e-01,-9.20029e-02,
-4.52336e-01,-3.98138e-01,2.73911e-01,2.82594e-02,-6.16780e-02,7.51276e-02,1.09335e-01,-5.41223e-01,3.94390e-01,-1.13668e-01,
-5.54239e-01,4.35761e-01,4.56160e-01,-1.28741e-01,-3.50430e-01,3.25878e-01,3.11226e-01,-2.85815e-01,4.02361e-01,2.01836e-01,
-8.65220e-02,3.73265e-01,3.76733e-01,-9.21980e-02,-4.46848e-01,3.59606e-01,-2.21974e-01,1.69815e-01,-3.47657e-01,7.09652e-01,
5.62359e-01,-1.90716e-01,-1.38894e-01,4.18102e-01,-3.16080e-01,4.75814e-01,-9.49023e-02,-3.78124e-01,3.88319e-01,3.03821e-01,
1.93107e-01,-3.78936e-01,-5.33170e-01,-4.43169e-01,-4.17376e-01,1.93069e-01,-3.42533e-01,-3.14887e-01,5.21661e-01,5.18143e-01,
-4.42193e-01,3.11140e-01,4.98881e-01,4.90494e-01,-4.74936e-01,-5.25934e-01,-4.19430e-01,-3.52778e-01,1.92317e-01,-4.51624e-01,
-4.76377e-01,3.42456e-02,-4.28613e-01,-8.67737e-01,1.33934e-01,-7.75304e-01,-4.35022e-02,-2.69934e-01,-1.72705e-01,1.32735e-01,
4.17342e-01,3.93565e-01,-4.66996e-01,4.92891e-02,-2.57955e-01,1.51937e-02,1.87803e-01,3.71787e-01,3.64677e-01,1.13612e-01,
1.67141e-01,1.21399e-01,5.51026e-02,-4.27739e-01,3.60314e-01,4.28532e-01,-4.39961e-01,3.75242e-01,-1.21627e-01,-4.04453e-01,
1.64141e-01,
-1.54317e-01,
-3.40810e-01,
3.27245e-02,
5.66462e-02,
8.79848e-02,
8.18635e-03,
6.22210e-01,
-7.58815e-02,
-3.03258e-01,
4.07931e-01,1.13092e-01,5.37270e-01,-3.60946e-01,-6.71981e-01,-4.20412e-01,2.49174e-01,1.10454e+00,1.01565e-01,-3.70356e-01,
1.72405e-01,
