// Neural Network File Format by Kyle Julian, Stanford 2016
6,16,1,64,
16,64,32,16,8,4,1,
0,
0,0,0,0,0,0,0,0,0,-3,0,1,0,0,0,0,
10,2,6,1,1,1,1,11,6,1,5000,50,999,7,2,1,
5,1,3,0.5,0.5,0.5,0.5,5.5,3,-1,2500,25.5,499.5,3.5,1,0.5,0.5,
10,2,6,1,1,1,1,11,6,4,5000,49,999,7,2,1,1,
8.91240e-01,-3.73318e-02,5.63651e-01,3.12919e-01,1.67853e-01,4.24134e-01,6.43528e-01,1.19356e+00,2.32591e-01,4.03767e-01,1.67037e-02,-1.29750e-01,3.99372e-01,-4.44051e-02,2.11811e-01,3.80734e-01,
-8.98953e-01,-7.32725e-01,-4.01213e-01,-1.11099e+00,2.12245e-01,-9.84974e-01,-1.62333e+00,-4.39102e-01,-6.09926e-01,-1.21796e+00,3.87643e-02,6.21632e-01,-3.01026e-01,-1.13436e-01,-6.93515e-01,-7.95194e-01,
-2.49644e-01,-1.92686e-01,8.19992e-02,-6.35536e-02,-1.54531e-01,3.87881e-02,1.64848e-01,-5.18105e-02,-1.24021e-01,1.25732e-01,-2.42638e-01,2.17085e-01,2.05223e-01,-2.32190e-01,-2.26342e-01,-1.14258e-01,
-6.33517e-02,2.81407e-02,8.06192e-02,4.72071e-02,-1.58081e-02,2.24143e-02,1.22327e-01,8.31352e-02,4.81155e-02,-1.14636e-01,-2.49715e-01,1.27330e-01,2.91321e-02,-1.25722e-01,-1.72251e-01,-1.13084e-01,
2.57531e-01,1.22089e-01,-1.25107e-01,-2.34601e-01,-8.25906e-03,-8.07736e-02,-2.18354e-01,1.19682e-01,-1.47766e-02,6.60719e-02,-1.66577e-01,2.09836e-01,-2.40977e-02,-1.75810e-02,1.38266e-01,-1.10878e-01,
5.30014e-01,-2.53254e-01,-4.17142e-01,-8.51686e-01,8.07288e-01,6.54645e-03,3.70410e-01,1.21347e+00,5.90496e-01,-5.62869e-02,-3.66432e-02,4.66883e+00,1.13462e-01,3.71761e-02,1.30055e+00,-6.02529e-01,
-2.96128e-01,-1.72931e-01,-5.42276e-01,-4.34496e-01,3.07763e-01,-4.77072e-01,6.52780e-02,-7.13629e-02,-4.85738e-02,-4.75243e-01,4.76812e-02,2.94483e+00,-2.39492e-01,1.40019e-02,2.28594e-01,-9.73165e-01,
4.73128e-02,-2.89209e-01,-2.62947e-01,-4.14176e-01,3.97118e-01,1.26341e-01,3.70268e-01,8.81575e-01,3.58251e-01,-1.26625e-01,-9.14822e-02,4.36937e+00,-2.49079e-01,8.60833e-02,1.46089e+00,-7.78418e-01,
-1.66758e-02,-3.67244e-01,-1.85291e-01,-5.24508e-01,-3.78007e-02,2.52197e-01,-7.16847e-01,-9.89994e-01,-9.71380e-01,-2.13814e-01,9.68254e-02,-1.46609e+00,6.32682e-02,-9.83931e-02,-5.87860e-01,-3.65236e-02,
1.17830e+00,1.43081e-01,9.22428e-01,5.24215e-01,-1.70479e-01,9.75994e-01,9.83415e-01,1.31492e+00,1.76840e-01,4.22731e-01,-2.78283e-02,-7.48924e-02,1.20686e+00,-2.39648e-02,2.55071e-01,6.93051e-01,
-5.17847e-01,-3.23698e-01,-1.05123e-01,1.49325e-02,-4.29918e-01,-3.79487e-02,-3.61210e-01,-6.28791e-01,-3.24477e-01,8.75717e-02,1.27974e-01,-3.19681e+00,3.12904e-01,-2.66095e-02,-1.09538e+00,3.54012e-01,
5.03837e-02,-2.00289e-01,-5.19912e-01,-5.59227e-01,2.54024e-01,-2.80077e-01,4.69040e-01,6.29565e-01,7.10338e-01,-2.88821e-01,-2.06571e-01,4.26105e+00,2.99439e-01,1.74488e-01,1.29704e+00,-7.61554e-01,
3.13296e-01,-2.22909e-01,-4.56618e-01,-2.78082e-01,4.21236e-01,1.96949e-02,3.82913e-01,5.97732e-01,1.06094e-01,-5.16334e-01,-5.73445e-02,3.14432e+00,-3.24540e-01,2.23368e-02,4.43125e-01,-8.71211e-01,
-5.09304e-01,1.59496e-01,-7.24838e-01,-3.41421e-01,4.55053e-02,-3.47573e-01,-2.78431e-01,-7.64432e-01,-8.45700e-02,-2.77045e-01,7.11508e-02,8.18812e-02,-5.17363e-01,-2.33968e-01,1.94460e-01,-3.43912e-02,
-1.21829e-01,3.97382e-01,9.80782e-02,9.78731e-02,1.87972e-01,4.84044e-02,7.89756e-01,-1.85196e-01,-2.25018e-02,-1.12520e-01,3.79101e-02,2.16128e-01,-1.62501e-01,-4.44353e-01,-1.32618e-01,2.50183e-02,
-1.61103e-01,1.05148e-01,-2.07286e-01,-4.41568e-01,3.74454e-01,-4.67305e-01,3.33324e-01,6.22877e-01,5.54744e-01,-2.37027e-01,-3.63376e-02,3.45463e+00,-2.51702e-01,2.19214e-02,6.12456e-01,-4.09704e-01,
-1.06735e-01,3.13444e-01,3.51812e-01,7.82963e-01,1.77573e-02,-8.78931e-02,-5.91262e-01,-1.29514e+00,-6.78182e-01,2.45670e-01,9.95205e-02,-3.73226e+00,1.48192e-01,-2.00710e-02,-2.28452e-02,6.49667e-01,
1.65656e-01,1.41617e-01,-4.22576e-01,-3.79689e-01,5.84582e-01,-2.66542e-01,1.10046e-01,2.15287e-01,4.53432e-02,-2.13175e-01,1.47578e-01,3.93887e+00,-1.06062e-01,1.01231e-01,1.00409e+00,-1.07754e+00,
-1.33683e-01,1.21434e-01,-2.74279e-02,2.55302e-01,-5.62676e-01,1.69153e-01,-5.41189e-01,-1.14617e-01,-4.71041e-01,1.03905e-01,5.58476e-03,-3.86009e+00,-2.61150e-01,1.30575e-01,-8.54645e-01,6.44792e-01,
5.67732e-02,8.08326e-02,2.57539e-01,8.31329e-01,-2.60981e-01,3.70365e-02,4.85847e-01,1.60740e-01,5.23452e-01,4.68535e-01,1.00000e-01,-4.53607e-01,-3.96452e-01,-4.17736e-01,1.00374e+00,5.62575e-01,
4.72129e-01,1.12954e+00,2.91701e-01,1.20626e+00,-1.18258e-01,6.81529e-01,7.62330e-01,1.59639e-01,8.43339e-01,5.84873e-01,5.91131e-02,-2.25203e-01,-8.14745e-02,-3.29447e-01,9.12500e-01,1.12551e+00,
-2.72319e-01,2.13461e-01,-3.63382e-02,2.33240e-01,-2.04810e-01,1.45009e-02,-4.32124e-01,1.92978e-01,-4.41500e-01,-2.97550e-01,-1.08724e-02,-3.41111e+00,-2.00154e-01,1.09715e-01,-5.49527e-01,1.03507e-01,
2.60624e-01,1.10098e-01,7.24163e-02,3.35528e-02,-1.38191e-02,-3.13723e-02,4.55907e-02,-1.32866e-01,1.17595e-01,-1.97392e-01,-2.00685e-01,2.15696e-01,-1.61125e-01,-1.45302e-01,-8.31397e-02,-1.74718e-02,
-6.42644e-01,5.18142e-02,-8.00892e-01,-4.14522e-02,1.63258e-01,-7.70997e-01,-6.13000e-01,-1.48961e+00,4.77755e-01,-3.59599e-01,1.21319e-01,1.81476e-01,-8.01313e-01,-7.41049e-01,-1.01418e-01,-5.71056e-01,
2.76148e-02,1.33609e-01,-1.16137e-01,-6.31111e-01,3.57437e-01,1.47731e-01,3.14202e-02,-9.25537e-02,6.34597e-02,-2.44573e-01,-9.14734e-02,3.33610e+00,-7.39891e-02,8.88227e-02,1.28573e+00,-7.94927e-01,
-7.98570e-01,2.68797e-01,-1.45537e-01,3.34333e-01,2.55923e-01,1.06561e-01,-2.19929e-01,-8.34665e-01,3.25202e-01,2.35281e-01,7.62538e-02,3.01579e-01,-6.44459e-01,-5.13576e-01,2.65688e-01,1.85977e-01,
-6.48418e-02,9.38059e-02,2.78899e-01,3.81196e-01,-3.25797e-01,-5.11554e-02,-2.41990e-01,4.99590e-01,2.14101e-02,1.72836e-01,-2.18897e-01,-3.93591e+00,-5.59606e-01,5.99475e-02,-8.69714e-01,6.97276e-01,
-9.59085e-02,4.07709e-01,8.64883e-02,2.92473e-01,1.33728e-01,-1.34460e-01,-8.65683e-02,-7.45955e-01,1.09445e-02,-2.60136e-01,-3.84468e-01,5.56837e-01,8.81102e-01,6.07690e-02,2.08530e+00,-7.14287e-01,
-2.02909e-01,2.18554e-01,-1.29069e-01,-1.01869e-01,1.28635e-01,8.01355e-02,-7.51925e-02,-1.38203e-01,-2.06729e-02,-2.03761e-01,-4.57410e-02,-1.26106e-01,-1.07462e-01,-1.71741e-01,-1.48376e-01,-1.47172e-01,
1.10464e+00,6.81246e-01,9.94391e-01,1.07154e+00,1.27329e-01,1.43687e+00,1.29619e+00,1.03837e+00,3.12606e-01,4.17436e-01,5.61425e-03,-5.68040e-01,5.08884e-01,-8.08060e-02,7.74406e-01,1.12027e+00,
4.08150e-01,3.28556e-03,-4.58776e-01,-5.94411e-01,3.29432e-01,-1.80106e-01,4.86637e-01,5.66325e-01,3.98301e-01,-1.28452e-02,-1.22912e-01,4.10592e+00,2.60083e-02,1.04134e-01,1.26232e+00,-5.06364e-01,
4.01357e-01,1.24973e-01,-1.38286e-01,-3.10252e-01,2.92413e-01,8.23452e-02,6.24236e-01,-1.01088e-01,4.80609e-01,-1.42722e-01,9.44163e-02,4.12574e+00,2.34076e-01,-3.06463e-03,8.04800e-01,-2.95402e-01,
-4.84971e-01,-2.67623e-01,1.86432e-01,1.19320e-01,-4.56589e-01,-3.35625e-01,-6.73445e-01,-5.87984e-02,-4.10287e-01,1.64331e-01,4.85490e-02,-3.04608e+00,-4.80204e-01,1.51914e-01,-7.39245e-01,3.66317e-01,
9.51723e-01,4.92616e-01,1.20086e+00,7.85304e-01,1.39618e-01,1.35754e+00,1.14687e+00,7.91230e-01,2.85583e-01,5.46565e-01,4.01313e-02,-2.17347e-01,6.28166e-01,-1.85514e-01,6.33691e-01,8.40156e-01,
1.25597e-01,1.07563e-01,-2.77192e-01,-3.14583e-02,2.66741e-01,4.29229e-02,-6.62592e-02,1.34609e-01,9.97856e-02,7.86996e-02,-2.12811e-01,1.10937e-01,-2.47935e-01,-3.99310e-02,1.49424e-02,-9.25169e-02,
1.81952e-01,-4.99712e-01,-1.02555e-01,-4.14562e-01,3.24928e-01,-1.96699e-01,2.25803e-01,1.18084e+00,3.66291e-01,-5.05448e-01,1.53795e-02,2.75389e+00,1.31512e-01,3.33008e-03,3.17612e-01,-7.97504e-02,
2.25544e-01,4.37570e-01,-6.03420e-02,4.32130e-02,2.63195e-01,2.39868e-02,-1.94180e-01,-7.74581e-01,7.08510e-02,-7.13709e-01,-5.79435e-01,1.75336e+00,1.00804e+00,5.32452e-02,1.68093e+00,-3.11927e-01,
-3.49816e-01,-3.49824e-02,-3.32772e-01,-2.15369e-01,-4.50994e-01,-6.87754e-02,-3.18150e-01,1.01665e+00,1.62969e-01,-1.18744e-01,-9.51321e-02,-1.59381e+00,-3.94567e-01,1.19036e-01,-3.37143e-01,-2.30270e-01,
2.45572e-01,-1.20854e-01,-4.73657e-01,-3.21689e-01,5.27122e-01,1.35972e-01,4.44316e-02,1.42286e-01,1.85178e-01,-4.35425e-01,-1.72544e-01,4.15722e+00,3.73566e-01,9.07074e-02,9.55308e-01,-5.14652e-01,
-2.58546e-01,1.13002e-01,-1.28892e-01,-2.13076e-01,2.65886e-01,-8.79143e-02,1.35523e-01,2.60854e-01,1.97278e-01,-9.37719e-02,-5.28146e-02,-1.37766e-01,-1.57438e-02,-1.48158e-01,-2.19856e-01,-2.94444e-01,
1.33463e-01,-7.37888e-02,-5.64339e-02,1.83916e-01,2.60158e-01,9.55726e-02,1.81797e-01,-1.14125e-01,2.33352e-01,-2.87212e-02,-1.97539e-01,-5.55734e-02,-3.54576e-02,-1.81157e-01,1.39605e-01,-2.43284e-01,
-6.84911e-01,5.81964e-02,-7.69582e-01,-2.07591e-02,-8.04825e-02,-5.34514e-01,-7.94284e-01,-7.61639e-01,4.87026e-02,-3.26526e-01,9.81164e-02,-1.15059e-01,-7.88054e-01,-4.79069e-01,1.59390e-01,-4.44095e-01,
-1.45876e-01,-1.32168e-01,-2.33608e-01,-1.35506e-01,-7.51441e-02,1.68808e-01,1.34692e-01,1.85733e-01,2.43839e-01,1.62216e-01,-2.28738e-01,1.89873e-01,2.13467e-01,-6.01303e-02,2.22816e-01,-1.33193e-01,
-3.94254e-01,1.75373e-01,-3.37568e-01,-3.16715e-01,-7.75328e-03,-5.77249e-01,-8.05039e-02,-4.75226e-01,-9.75739e-02,-2.56220e-01,-2.40509e-01,1.20497e+00,2.61993e-01,3.08422e-02,2.69225e-01,-9.20923e-02,
6.52735e-02,-1.69642e-01,-1.60292e-01,-3.65212e-01,3.20585e-01,-4.46545e-02,-6.55545e-02,7.87613e-01,4.34078e-01,-1.46616e-01,6.69636e-02,2.57411e+00,1.86023e-01,-6.53286e-02,-1.06276e-01,-5.91205e-01,
-8.14340e-01,-3.66564e-01,-4.07454e-01,-6.90577e-01,1.85900e-01,-4.91820e-01,-8.14109e-01,-7.95266e-01,-7.51054e-02,-5.76743e-01,1.52564e-01,9.31841e-01,-4.29878e-01,-5.86267e-02,-8.39651e-02,-6.45200e-01,
-1.05582e-01,-1.07408e-01,-1.06687e-01,-5.04457e-01,4.26005e-01,1.83542e-01,2.81976e-01,-2.81207e-01,-9.47340e-02,2.19757e-01,-2.28912e-01,3.72935e+00,1.52797e-01,1.06472e-01,9.96852e-01,-4.38610e-01,
7.93304e-02,-1.64466e-02,9.36051e-02,-4.66397e-02,9.04862e-02,-2.33473e-01,-1.49892e-01,-2.45401e-01,-1.84785e-01,-2.64231e-01,-1.84592e-01,2.46354e-01,1.01465e-01,-9.44607e-02,1.56438e-01,-1.53437e-01,
1.42590e-01,7.07317e-01,3.89705e-01,2.63656e-01,2.01817e-01,3.89938e-01,1.57153e-01,3.15751e-01,-2.02126e-01,4.75776e-01,-5.95782e-02,4.37434e-02,-7.36504e-02,-6.58337e-03,6.72097e-01,1.88093e-03,
-7.61824e-02,5.67447e-02,-1.26250e-01,5.44510e-01,2.20895e-01,3.63104e-01,-3.22065e-01,-1.44866e+00,-1.05916e+00,-2.35736e-01,1.38850e-01,-1.57091e+00,2.66105e-01,-4.79880e-02,-6.08341e-01,1.01943e-01,
-3.75423e-01,2.61456e-01,-5.52781e-01,-1.31542e-01,3.03400e-03,-5.27221e-01,-6.75641e-01,-1.60885e+00,2.93257e-01,7.69556e-02,9.33424e-02,-1.30261e-01,-5.93519e-01,-8.39500e-01,1.08359e-01,-4.10474e-01,
-2.05939e-01,-1.12715e-01,4.16342e-01,4.97713e-01,-3.15127e-01,-1.50379e-01,-5.56959e-01,4.11065e-01,-8.42330e-02,5.80965e-03,-3.24179e-02,-3.89014e+00,-4.15527e-01,2.17788e-02,-1.17487e+00,5.78433e-01,
-1.35041e-01,-3.24939e-01,7.38630e-02,3.01689e-01,-6.07251e-01,-3.98813e-01,-2.55266e-01,-1.66821e-01,-2.49778e-01,-5.65285e-03,-4.26567e-02,-3.59164e+00,-9.12973e-02,1.72137e-02,-1.28998e+00,1.72558e-01,
1.32766e-01,-2.23157e-01,-5.58305e-03,1.52139e-02,1.58077e-01,7.73883e-02,-3.06847e-02,1.46234e-01,-7.89822e-02,-2.07822e-01,-5.09988e-02,-6.18905e-02,-1.06350e-01,-7.71540e-02,-2.44525e-03,8.79478e-02,
5.12065e-01,6.47643e-01,4.95821e-01,5.33648e-01,1.45510e-01,7.73885e-02,2.34249e-01,6.99159e-01,4.10679e-01,-7.74482e-02,-3.40154e-01,-2.54312e-01,3.31411e-01,-4.54725e-03,1.23754e+00,6.73379e-01,
-4.27004e-01,1.63086e-01,-4.90811e-01,1.51624e-01,-2.48079e-01,-3.47052e-01,-5.28117e-01,-8.56950e-01,-2.58210e-01,3.90755e-02,2.98495e-02,-5.92637e-01,-3.03930e-01,-2.08438e-01,-1.06635e-02,-1.58156e-02,
-1.62553e-01,-2.44861e-01,1.25067e-01,2.37639e-01,5.40612e-01,-3.34591e-01,7.08837e-02,-1.41611e+00,3.10722e-01,-5.19518e-01,-3.24454e-01,1.58941e+00,1.28287e+00,6.12743e-02,1.76326e+00,-4.53885e-01,
2.41303e-02,-3.04089e-02,-1.92020e-02,1.61286e-01,2.57450e-01,2.46928e-01,1.10182e-01,-6.34933e-01,-3.71076e-02,-1.73715e-01,-2.55945e-01,1.65936e+00,4.29338e-01,2.50090e-02,6.30409e-01,-5.87750e-01,
-4.54188e-01,1.24132e-02,3.83775e-01,4.08642e-01,-1.30336e-01,-2.65163e-01,-6.95449e-01,-1.37147e+00,-4.74379e-01,-6.04682e-03,6.90420e-02,-3.69299e+00,-4.04092e-01,-8.28136e-03,-8.45739e-01,3.68425e-01,
1.35256e+00,3.82731e-01,9.14804e-01,3.68827e-01,4.58864e-02,1.15302e+00,9.87672e-01,8.13365e-01,4.23478e-03,1.18795e-01,-4.60464e-02,2.84397e-01,1.36668e+00,-6.46110e-03,1.99067e-01,8.02903e-01,
-3.50371e-01,-1.45145e-01,1.40479e-01,-1.21136e-01,-3.45318e-01,2.53593e-02,2.45387e-02,5.23944e-01,1.58184e-01,2.58671e-01,-1.81496e-01,-2.37277e+00,-7.63721e-01,7.70801e-02,-1.46817e+00,5.32949e-01,
1.38152e-01,-3.16401e-01,-6.64234e-02,-5.10729e-03,6.78306e-02,-9.22732e-02,1.57059e-01,-3.36094e-01,2.86707e-02,-1.76780e-01,-3.85415e-02,1.84780e+00,3.18743e-01,-2.69920e-03,5.89039e-01,-9.73391e-02,
1.84400e-01,9.99600e-03,6.99282e-02,-1.61377e-01,2.90658e-02,-3.00313e-02,-1.94102e-01,-6.08792e-02,4.89936e-02,-2.47933e-01,-2.05279e-01,-3.61234e-02,-2.35985e-01,-2.65203e-01,3.66156e-02,1.03671e-01,
-4.25681e-01,7.50433e-02,4.19887e-01,4.78099e-01,-4.56606e-01,4.10072e-02,-4.85351e-01,5.40401e-01,1.02811e-01,5.44705e-02,-1.04422e-01,-4.68281e+00,-8.08472e-01,4.20274e-02,-7.94083e-01,7.24420e-01,
5.96289e-01,
-7.77189e-01,
0.00000e+00,
0.00000e+00,
0.00000e+00,
3.18545e-02,
-2.83248e-01,
-6.13168e-02,
-1.32451e-01,
1.02372e+00,
-1.07278e-01,
-2.69282e-02,
-1.05637e-01,
-6.10012e-01,
-2.33381e-02,
-2.04106e-01,
5.23480e-02,
-2.19692e-01,
-9.70473e-02,
5.86001e-02,
4.33493e-01,
-2.49324e-01,
0.00000e+00,
-7.54906e-01,
-1.09104e-01,
-4.61729e-01,
-4.10241e-02,
4.34742e-02,
0.00000e+00,
1.05233e+00,
-3.79818e-02,
8.67725e-02,
-2.79990e-01,
1.00344e+00,
-4.52215e-02,
1.25158e-01,
3.03574e-02,
-1.35254e-01,
-6.76351e-02,
-2.73156e-02,
0.00000e+00,
-6.27522e-01,
0.00000e+00,
-1.85715e-01,
1.35975e-02,
-6.99580e-01,
-3.27988e-02,
0.00000e+00,
3.69998e-01,
-6.68832e-03,
-5.12230e-01,
-1.37455e-01,
-1.97787e-01,
0.00000e+00,
4.10703e-01,
-4.17161e-01,
4.45530e-02,
-2.19682e-02,
-2.06500e-01,
1.04156e+00,
-1.45253e-01,
1.68784e-03,
0.00000e+00,
-1.47381e-02,
3.45680e-01,-1.03995e-01,-2.44243e-01,-1.44478e-01,1.12219e-01,-4.65760e-01,-2.24914e-01,6.79308e-02,-2.18282e-02,-4.22567e-01,-2.38291e-01,1.41602e-01,-2.05577e-01,1.15598e-01,6.97073e-02,1.79051e-01,2.34049e-01,1.01850e-01,-7.53461e-02,2.05710e-01,5.02931e-01,4.47491e-02,-9.39851e-02,-2.89111e-02,-8.77927e-02,3.38149e-01,-5.49642e-02,-1.67636e-01,1.96697e-01,4.23328e-01,1.79692e-01,1.99334e-01,8.66622e-02,1.74435e-01,2.12602e-01,-2.59756e-01,-1.66810e-01,-2.72493e-02,4.67718e-02,2.45013e-01,-2.25306e-01,6.46042e-02,1.32256e-01,7.84993e-02,-1.04327e-01,-2.14581e-01,1.60624e-02,-1.36009e-01,-5.50922e-01,-5.18940e-02,5.40724e-01,-6.36906e-02,-2.13467e-02,-3.32611e-02,-1.89595e-01,2.00757e-01,9.53694e-02,1.35823e-01,4.99329e-02,-2.46928e-01,-1.69065e-01,1.87478e-01,1.98999e-01,-1.64144e-02,
1.46230e-01,-4.02471e-01,-9.29882e-02,-1.73312e-01,1.46544e-01,-1.67355e-01,-6.37171e-03,9.91826e-02,-3.14235e-01,1.11100e-02,-2.28302e-01,1.51174e-01,2.01602e-01,-1.25536e-01,5.12816e-02,-4.86012e-02,1.16023e-01,1.99715e-01,-1.76306e-01,3.33657e-01,5.30079e-01,3.13976e-02,-4.06206e-04,2.32034e-01,-1.44245e-01,1.86457e-01,3.60645e-02,3.58898e-02,6.34804e-02,4.72286e-01,2.08400e-02,-1.51246e-03,1.60755e-01,9.99352e-02,2.19373e-01,1.96319e-01,-3.22948e-01,-1.37795e-01,1.10011e-01,1.24757e-01,-2.47131e-01,3.21730e-01,-1.26765e-01,-1.89919e-01,-4.57623e-02,1.28828e-01,-1.06520e-01,2.10204e-01,-2.28732e-01,-2.35660e-01,5.32506e-01,6.98497e-02,2.56581e-01,-1.30253e-01,-2.23552e-02,-6.86262e-02,3.34456e-01,2.49158e-01,2.77535e-02,-8.50675e-02,2.83450e-01,-2.01483e-01,-1.18639e-01,3.76766e-01,
5.17151e-02,2.59111e-02,-1.34539e-01,-1.70250e-01,-1.37502e-01,-4.33275e-01,-6.74460e-03,5.37100e-02,1.75539e-01,1.33134e-01,-4.66153e-02,-2.81758e-01,5.94047e-02,-2.06633e-01,-1.80616e-01,5.96647e-02,-1.65033e-01,-7.85460e-02,-6.53824e-02,1.14684e-01,-3.70572e-01,7.14998e-02,1.69866e-01,-8.52422e-02,1.68040e-01,-8.97708e-02,9.26389e-02,5.26845e-02,-5.86209e-02,-4.23052e-01,-2.84280e-01,1.18790e-01,-1.18287e-01,8.29414e-02,-1.29592e-01,-2.75835e-01,-1.40266e-01,1.33823e-01,5.19703e-02,-4.78917e-02,1.13764e-02,9.37814e-03,2.29854e-01,-6.60582e-03,1.11979e-01,-1.67039e-02,-9.74324e-02,-1.16977e-01,9.08771e-02,1.55677e-01,-2.30443e-02,1.96261e-01,1.28005e-01,2.38720e-01,8.19096e-03,-1.74055e-01,-3.42709e-01,-1.05426e-01,1.76880e-01,6.89520e-02,2.20508e-01,-8.94400e-02,5.13402e-02,3.68511e-01,
-1.43526e-01,-2.33535e-01,1.52414e-01,8.55989e-02,4.03595e-03,-2.27107e-02,-1.53942e-01,-9.36461e-02,-9.79898e-02,-3.53392e-01,5.85263e-02,9.63970e-02,8.92388e-02,-1.62517e-01,1.64856e-01,-2.47724e-01,-3.18320e-02,-2.08941e-01,1.53145e-01,-1.76192e-01,1.25463e-01,-1.78018e-01,-1.66935e-01,1.26780e-01,-1.44415e-01,7.68602e-02,1.09038e-01,9.27533e-02,-8.79647e-02,-2.85670e-01,2.33311e-01,-2.11293e-01,-6.44939e-02,1.29953e-01,2.23550e-01,-7.85247e-03,1.93143e-01,-1.29548e-01,-1.34440e-01,1.51591e-01,1.91619e-01,-1.45578e-01,1.99946e-01,7.94729e-02,7.12266e-03,1.99395e-01,-3.43224e-02,1.99085e-01,-3.52500e-02,-4.35486e-02,-2.66605e-02,1.12447e-01,-2.63108e-02,2.09560e-02,1.87511e-02,1.40379e-02,2.91987e-02,-2.71154e-02,1.47864e-02,-2.52353e-01,-2.68201e-01,-2.14503e-01,5.35289e-02,7.31459e-02,
-3.12619e-01,7.69834e-02,-1.55528e-01,-3.61614e-02,3.14168e-02,-8.36884e-01,-7.33627e-02,-7.87932e-02,-1.38285e-01,-4.82019e-01,-1.12947e-01,-1.55673e-01,-9.89009e-02,2.92596e-03,2.33391e-01,1.96925e-01,-1.59317e-01,-4.81435e-02,-1.91106e-01,5.82424e-02,1.96006e-02,1.08235e-01,2.35806e-01,2.32724e-01,-2.14201e-01,-2.28337e-01,2.68060e-01,-5.03749e-01,1.24869e-02,-2.76435e-02,-1.21840e-01,1.97790e-01,1.78576e-01,1.36478e-01,1.31730e-01,2.27531e-01,-2.87681e-01,-3.16801e-02,1.03333e-01,1.86939e-01,2.17123e-02,1.81341e-01,2.84163e-02,3.85232e-02,1.28105e-02,2.04551e-01,-1.03955e-01,-3.14153e-02,2.14493e-01,-1.43723e-01,1.39021e-01,1.56949e-01,1.88159e-01,1.20932e-01,1.23486e-01,-1.63069e-01,-3.35138e-02,1.91893e-02,-1.44285e-01,-3.50097e-01,-2.03447e-01,1.30942e-01,-1.19298e-01,9.75182e-02,
-1.22640e-01,-2.07391e-01,-7.56228e-02,-4.53905e-02,-6.95083e-02,-2.39982e-01,-1.52478e-01,2.69880e-02,1.81191e-01,1.37793e-01,-1.91819e-01,-1.49682e-01,2.14943e-01,6.80472e-02,1.20762e-01,1.55975e-01,-4.46922e-02,1.00669e-01,-3.84309e-02,-2.04873e-01,-9.48265e-02,-5.21351e-02,1.78730e-02,-2.88788e-02,2.41702e-02,2.10935e-01,-1.86676e-01,5.09064e-02,1.66532e-02,-2.15583e-01,-3.94416e-03,1.59956e-01,-1.57314e-01,3.12132e-03,-9.16082e-03,-1.25150e-01,-1.24769e-02,1.79296e-01,-1.22356e-01,1.25416e-01,-1.77618e-01,-6.17982e-02,9.38932e-02,-2.34659e-01,-1.92610e-01,-1.06860e-01,1.78063e-01,-1.63197e-02,-2.21351e-01,-1.19814e-01,1.17272e-03,-1.09152e-01,-2.41640e-01,1.20756e-01,4.96549e-02,-5.10570e-02,-2.40676e-01,9.26928e-02,-2.07659e-01,1.72325e-01,-2.42246e-01,2.90914e-02,1.01130e-01,1.59290e-01,
1.07433e-01,1.01162e-01,-1.74516e-01,1.45659e-01,2.46136e-01,-8.21338e-02,-1.69428e-01,-2.31563e-01,-6.75499e-02,-1.16241e-01,-8.77041e-02,1.26653e-01,7.24812e-02,5.40338e-02,2.00121e-01,-6.56171e-02,-5.48184e-02,-1.79638e-01,-1.58772e-01,8.01530e-02,-8.34781e-03,-8.58130e-02,-6.43568e-02,-2.41098e-01,1.84272e-01,-4.45145e-02,1.97287e-01,-7.12364e-02,-2.28648e-01,1.59225e-02,-2.36339e-01,5.70925e-02,2.85503e-02,-2.36833e-01,2.47854e-01,-6.99489e-02,1.64186e-01,2.32937e-02,-7.49490e-02,1.92499e-01,1.13639e-01,1.27496e-01,1.50231e-01,1.11350e-01,-1.95202e-01,6.72163e-02,-1.02995e-01,1.81531e-01,9.87831e-02,-9.92631e-02,-1.45385e-01,-5.87800e-02,-1.36988e-02,2.21520e-01,-2.09101e-01,1.19965e-01,1.03677e-01,-1.93624e-01,6.22519e-02,3.66541e-02,-1.40880e-01,2.01730e-01,1.16749e-01,-1.64288e-01,
3.42281e-01,1.56567e-01,-7.02290e-02,1.02522e-01,-1.61765e-01,-2.75309e-01,-9.16462e-03,1.32663e-01,3.60862e-02,2.94849e-01,1.74806e-01,1.72281e-01,-2.92036e-01,-6.69878e-02,1.70014e-01,-2.14204e-01,-5.69544e-02,9.60296e-02,-2.99672e-01,-1.30946e-01,-2.14724e-02,-1.33597e-01,-1.79768e-01,-1.39330e-01,-2.21997e-01,-2.33416e-01,-1.38247e-01,7.65522e-01,-1.32826e-01,7.65026e-02,-2.82864e-01,-1.86585e-01,-5.21713e-02,1.64901e-01,-1.96904e-01,-1.37185e-01,2.09257e-02,1.05297e-01,-2.61046e-01,1.67917e-01,1.00207e-01,-1.70474e-01,-1.11531e-01,-3.30219e-02,-2.27485e-01,1.46292e-01,9.58756e-02,9.88612e-02,6.22873e-01,-1.45320e-01,-8.42013e-02,6.93974e-02,1.81636e-01,-6.52354e-02,7.73790e-01,-2.10750e-01,-1.77214e-01,6.17965e-03,6.99576e-02,3.54980e-01,-1.36799e-01,1.49503e-01,8.51690e-02,-8.63263e-02,
-5.72220e-02,1.75620e-01,1.73365e-01,5.72311e-02,1.44963e-01,1.07225e+00,1.47746e-01,2.63043e-01,8.79290e-02,-1.33261e-01,1.31896e-01,2.37774e-01,6.91661e-02,2.94520e-02,-3.92613e-01,-6.20516e-02,-3.42215e-01,2.62114e-01,-2.57698e-01,3.51918e-03,-5.76100e-02,-1.53772e-01,1.09207e-01,-1.76608e-01,1.90075e-01,-2.76575e-01,-4.37212e-02,2.86042e-01,2.00337e-03,-3.20955e-02,3.31975e-01,3.75181e-01,-1.73585e-01,-3.11069e-02,-1.73672e-01,4.58324e-03,3.78181e-01,2.12233e-01,2.49787e-02,-6.15017e-02,-2.49821e-01,-2.28459e-01,-1.45142e-01,-1.30912e-02,1.60603e-01,1.98239e-01,9.87034e-02,1.66602e-01,8.16479e-02,-7.07586e-02,2.34057e-02,-4.16551e-01,9.58654e-02,-8.07081e-02,1.51967e-01,1.70297e-02,1.86853e-01,1.87331e-01,-3.30833e-01,-1.89578e-01,3.60577e-02,5.52432e-02,-7.92128e-03,-4.00767e-01,
-6.80602e-02,1.75094e-01,1.89859e-02,-5.61889e-02,-1.81926e-02,-1.01911e-01,6.68722e-02,1.32909e-02,-1.02473e-01,1.53875e-01,-1.99655e-01,-2.53745e-02,8.82896e-02,-2.06599e-01,-1.56828e-01,3.17852e-02,-1.67304e-01,4.59529e-02,5.77200e-02,5.11545e-02,1.39926e-01,1.01295e-01,1.81081e-01,1.66742e-01,9.57029e-02,-1.11824e-01,1.67711e-01,1.91772e-01,-2.22698e-02,-2.21157e-02,-2.68054e-01,-2.50484e-01,-2.36519e-01,1.47599e-01,4.84842e-02,-2.59246e-01,-1.26941e-01,-1.45463e-01,1.78149e-01,1.43224e-01,2.39902e-01,-2.38280e-01,-5.73081e-02,-1.26741e-01,-2.79475e-01,-1.99990e-01,4.19381e-02,1.93722e-01,1.20898e-01,1.70398e-01,-1.59379e-01,2.71727e-02,-1.47638e-01,-1.41773e-01,4.40860e-01,2.41585e-01,1.15418e-01,-9.62214e-02,1.22699e-01,-1.14293e-01,-1.52483e-01,2.29614e-01,1.69793e-02,2.86071e-01,
5.71840e-03,-1.89163e-01,1.18141e-01,2.25088e-02,1.62876e-01,-7.54926e-01,-6.10002e-02,-9.18921e-02,2.36995e-01,-2.30815e-01,3.13049e-01,8.12937e-03,8.47487e-02,9.00637e-02,1.71286e-01,-9.70722e-02,-2.75942e-02,1.16095e-01,5.43732e-02,1.48735e-01,1.89663e-01,1.75013e-01,-6.29410e-02,1.24040e-01,-4.05127e-02,-1.01115e-01,2.95081e-04,-3.88767e-01,1.18971e-04,-2.36301e-01,-1.40999e-01,1.92971e-01,1.42533e-01,-2.76800e-01,-1.37159e-01,-3.38378e-03,-5.91936e-01,-1.16277e-01,-2.23002e-01,-8.08056e-02,-1.89286e-01,-8.95007e-03,2.03400e-01,-4.01262e-02,2.91149e-01,1.05149e-01,9.19338e-02,-2.39201e-01,-3.42071e-01,1.01930e-02,6.43328e-01,1.85165e-01,4.20294e-02,6.77558e-02,3.09704e-01,-1.47198e-01,-2.28855e-01,1.80554e-03,9.14347e-02,-2.32273e-01,1.56363e-01,9.39167e-02,1.95876e-01,4.12093e-01,
1.99626e-02,-2.29241e-01,1.47443e-02,-1.70398e-01,-1.45973e-01,-8.36870e-01,8.56191e-02,1.34096e-01,-1.65847e-01,-3.82095e-01,9.94935e-02,5.47047e-02,4.82533e-03,5.00840e-02,1.41414e-01,-6.00542e-02,2.51729e-01,-1.81748e-01,2.30409e-01,-8.74114e-02,3.80466e-01,1.97725e-01,1.71762e-01,3.23861e-01,-5.27993e-02,7.69373e-02,2.80921e-01,1.28060e-02,-1.86311e-01,2.61436e-01,-2.40287e-01,-3.81872e-01,-5.51682e-02,1.52252e-01,5.82733e-04,-1.05746e-01,-8.32781e-01,2.00279e-01,-2.13776e-01,5.02590e-02,-1.78623e-01,-4.89034e-02,-3.86466e-02,1.64751e-01,-1.59043e-01,-2.48074e-01,7.47321e-02,6.21593e-02,-3.15689e-01,1.59919e-01,5.34658e-01,1.89089e-01,-8.42234e-02,-7.44365e-02,-2.12826e-01,-4.20731e-02,-2.10277e-01,1.03161e-02,2.45022e-01,-6.58579e-01,2.39458e-01,-2.09367e-01,7.76856e-02,3.31495e-01,
1.75697e-01,1.21868e-01,1.40570e-01,5.28585e-02,-1.45636e-01,-8.60534e-03,-7.15322e-02,9.68914e-02,-4.55984e-01,3.64139e-01,-1.73435e-01,8.29033e-02,-1.12888e-01,-9.60461e-02,-5.72560e-02,-1.70205e-02,1.88855e-02,-2.30696e-01,5.03010e-02,6.69366e-02,-5.79562e-03,-2.33069e-01,-1.38687e-01,-5.80895e-02,-2.12110e-01,-1.93753e-01,3.41226e-01,7.01340e-01,-1.17190e-01,-8.93974e-02,-1.30744e-01,-1.36918e-01,1.36866e-02,9.69587e-02,-4.85544e-05,8.40586e-02,2.08398e-01,-2.07842e-01,2.58177e-01,4.52998e-02,9.40291e-02,-2.83656e-01,1.55111e-01,1.78130e-01,-3.27634e-01,-2.76775e-01,8.58407e-02,-2.77035e-02,4.03933e-01,-2.69843e-01,-1.22347e-01,2.59695e-01,4.83845e-02,-2.34165e-01,4.93308e-01,2.52197e-02,4.44185e-01,4.31905e-01,1.25488e-01,-3.60251e-02,3.56724e-02,-1.01026e-01,-2.10683e-01,4.87611e-01,
-2.12950e-02,-1.57094e-01,-1.30128e-01,-2.01242e-01,2.48178e-01,1.05546e-01,1.03201e-02,-2.94517e-01,2.74818e-02,6.93558e-01,1.59019e-01,-2.34147e-01,-2.42004e-01,-3.45583e-01,-1.13348e-01,-1.01801e-01,1.75897e-01,-2.14738e-01,1.70444e-01,-1.79872e-01,7.92537e-02,-1.29417e-01,8.13318e-02,-4.33934e-01,5.48637e-02,-6.94333e-03,5.21719e-01,3.40821e-01,1.34410e-02,2.85099e-01,2.07448e-01,1.83360e-04,-7.23447e-02,1.71284e-01,1.27937e-01,1.54979e-01,4.79945e-01,-3.06259e-01,-5.67312e-02,-1.15206e-01,-1.77677e-01,-3.96018e-01,-2.00714e-01,-1.57817e-01,1.95264e-01,-2.77271e-01,-8.45100e-02,2.12791e-01,1.00121e+00,8.89808e-02,-4.06426e-01,9.84031e-02,3.96175e-02,4.11373e-02,7.03270e-01,-2.69559e-01,1.63455e-01,7.52616e-02,-7.85768e-02,8.37081e-01,-2.25676e-01,-8.95554e-02,-8.13452e-02,2.31324e-01,
-2.20540e-01,-1.19416e-01,-8.67405e-02,1.90006e-01,-3.47111e-02,1.83213e-01,-1.64702e-01,-1.84776e-02,-1.94724e-02,-2.49790e-01,-2.44250e-01,8.09334e-02,3.85047e-02,-2.97225e-03,-6.50960e-02,7.58646e-02,-2.86847e-02,-2.35202e-01,-9.82960e-02,1.42662e-01,-1.53143e-01,-7.82173e-02,1.80141e-01,2.01891e-01,1.14163e-01,1.13356e-02,-9.07213e-02,-1.64297e-01,-1.48120e-01,-4.89894e-02,-9.93735e-02,-2.04480e-01,5.44158e-02,1.47289e-03,1.88969e-01,-6.20016e-02,-3.78670e-02,-2.28662e-01,-1.18225e-01,-2.00253e-01,-8.49948e-02,9.09284e-02,-1.69232e-01,-1.51347e-01,1.78532e-01,-2.09924e-01,-2.31761e-01,-5.38988e-02,4.08878e-02,-1.97069e-01,1.79261e-01,-2.01888e-01,-1.82636e-02,5.82550e-02,-3.04639e-04,-1.12564e-01,-7.16224e-02,-1.77540e-02,1.17942e-01,-2.10322e-01,-1.42437e-01,-7.98857e-03,2.81427e-02,1.03337e-01,
1.14544e-01,-1.81464e-01,2.08283e-01,-3.23056e-02,1.37047e-01,7.86963e-01,7.85925e-02,2.22863e-01,-8.68221e-02,7.19493e-01,-2.75259e-03,2.03518e-01,1.29871e-01,-1.26626e-01,-1.27538e-01,1.42567e-01,-2.31319e-01,-3.76541e-02,-3.37283e-02,2.10611e-01,2.86707e-02,1.41117e-01,7.11416e-02,-2.91129e-01,1.46512e-01,-1.67314e-01,1.13196e-02,2.86247e-01,2.46627e-02,3.68092e-01,-1.11432e-01,2.41447e-01,-1.88610e-01,3.00467e-01,-9.72594e-02,-1.20928e-01,4.38821e-01,-2.41132e-01,2.34914e-01,-2.17870e-01,2.32557e-01,-1.36663e-01,-9.53470e-02,2.04783e-01,1.96111e-01,-4.53938e-03,2.06962e-01,-4.70950e-02,5.39400e-02,-8.96030e-02,-4.61287e-01,-4.32939e-02,-2.81493e-01,-1.79644e-01,2.70650e-01,1.10310e-01,4.18574e-01,2.06617e-01,-7.93736e-02,4.12603e-01,1.60169e-01,1.18255e-01,-1.67975e-02,-3.67072e-01,
1.21247e-01,-7.94822e-02,5.62646e-02,-2.46723e-01,-7.80808e-02,8.08113e-01,-2.08011e-02,2.52302e-01,1.76888e-01,3.85808e-01,1.29455e-01,1.25726e-01,-7.24244e-02,-8.09169e-02,1.30237e-01,9.33772e-02,7.59698e-02,-6.42840e-02,-2.02022e-01,-4.95917e-02,3.12877e-01,1.95471e-01,-1.12350e-01,2.32158e-01,-1.82372e-01,-7.39785e-02,1.97632e-01,3.71791e-01,-1.69096e-01,3.31795e-01,2.66402e-02,-8.62224e-02,1.30404e-01,2.49526e-01,-3.59892e-02,1.77318e-01,8.65036e-02,-2.10433e-01,-1.44428e-01,-1.74108e-02,1.65602e-01,1.89903e-01,2.15894e-01,2.45441e-01,9.34206e-02,-2.93491e-01,2.31280e-01,-2.37120e-02,-1.45946e-01,-1.72353e-01,8.76903e-02,4.01480e-02,1.47245e-02,5.97622e-02,1.54760e-01,1.34579e-01,2.36535e-01,-1.88948e-01,1.19120e-01,2.44882e-01,-4.58916e-02,1.09300e-01,-9.36698e-02,-9.90334e-02,
-1.72154e-01,5.91324e-02,-1.10782e-01,2.33641e-01,-1.74961e-01,6.45213e-01,1.09944e-01,1.27621e-01,1.31989e-01,1.59625e-01,4.17827e-02,1.83168e-01,1.07965e-01,-1.52763e-01,-1.13720e-01,1.97396e-01,-1.08060e-01,2.28891e-01,-3.32578e-02,-3.44883e-01,-2.44716e-01,-4.02198e-02,5.45138e-02,-2.96057e-01,2.01053e-01,7.16298e-02,-6.17930e-02,9.69028e-02,1.00884e-01,-3.59062e-01,2.28263e-01,1.60214e-01,3.78111e-02,-1.03938e-01,7.35984e-02,1.62428e-01,1.03122e-01,2.03249e-02,4.69812e-02,2.31278e-01,-1.09298e-01,1.37197e-01,-2.38847e-01,-5.69711e-03,1.62088e-01,1.92196e-01,-3.51945e-02,1.38389e-02,-2.15308e-02,9.32338e-03,1.06705e-02,6.41074e-02,-1.40654e-01,1.23827e-01,-2.58135e-03,7.99025e-02,2.84637e-01,-1.27528e-01,1.16962e-01,-1.72572e-01,-2.07723e-01,-2.21053e-01,-3.61472e-02,-2.99540e-01,
-3.60718e-01,-3.44084e-01,7.95406e-02,1.52021e-01,-2.37478e-01,-5.98441e-02,-2.68311e-01,8.10491e-02,-1.10795e-01,-7.60380e-01,1.28716e-01,2.87305e-02,-2.69652e-01,2.99188e-02,1.98596e-01,5.87726e-03,2.21575e-01,1.52995e-01,-2.60105e-01,1.58220e-01,3.27321e-01,-3.15549e-01,-4.76913e-02,1.99123e-01,-1.04523e-01,2.79072e-01,-4.51367e-01,-2.24503e-01,-3.39882e-02,5.27438e-04,4.63762e-02,8.87730e-02,-1.63111e-01,1.90810e-01,1.63372e-02,-1.98020e-01,-2.85535e-01,5.27703e-02,1.11727e-01,1.36276e-02,8.46828e-02,-9.01970e-02,1.53829e-01,3.13525e-02,-1.89185e-01,1.37320e-01,2.35838e-01,2.02601e-01,-6.94545e-01,-2.14451e-01,4.35478e-01,-2.42690e-03,-3.22273e-01,-5.42353e-02,1.35226e-01,7.49892e-02,-1.60296e-01,1.16007e-01,4.97352e-02,-5.98849e-01,-2.22037e-01,-1.08561e-01,-1.76406e-01,4.55548e-01,
-8.20961e-02,3.33597e-02,-2.40983e-01,-2.40562e-01,-4.40347e-02,-1.92367e-01,6.20775e-02,-2.48531e-01,1.51693e-01,-5.15992e-02,-2.64551e-01,3.49177e-02,2.14568e-01,-9.70337e-02,-1.05693e-01,2.21123e-01,5.44740e-02,-8.04757e-02,2.00143e-02,1.23546e-01,-1.04880e-01,-2.23616e-01,1.96832e-01,1.78657e-01,2.95824e-02,1.79407e-01,1.70528e-01,2.69865e-01,1.99151e-03,3.60629e-02,8.91955e-02,5.65601e-02,-1.90124e-01,1.43236e-01,7.66735e-02,-1.55910e-02,-2.16765e-01,-1.28871e-01,-1.55033e-01,-2.35250e-01,2.09084e-01,8.44112e-02,2.12902e-03,-1.23711e-01,-2.01546e-01,1.32553e-02,-5.25401e-02,3.80513e-02,6.24310e-02,-2.55249e-01,-2.24177e-01,5.81997e-03,-1.09178e-01,7.61951e-02,2.59637e-01,-2.74946e-01,2.54602e-01,2.40367e-01,-2.31525e-01,1.12770e-01,-1.05934e-01,8.37875e-02,5.50011e-02,7.63309e-02,
-4.16815e-02,2.20090e-01,-5.47386e-02,-1.85078e-01,1.23809e-01,-5.43137e-01,1.36560e-01,3.49643e-02,-2.71383e-01,-2.81226e-01,2.42627e-01,-2.61045e-01,1.76028e-01,-1.17184e-01,-1.26042e-01,1.73773e-01,-5.96189e-02,2.14207e-02,1.59906e-01,2.04165e-01,-1.10510e-02,2.14919e-01,-7.12705e-02,3.05915e-01,-1.84066e-01,1.47039e-01,8.55112e-02,-1.34885e-01,-2.27785e-01,-1.20323e-01,8.21130e-02,-2.64317e-01,1.13297e-01,-2.96570e-01,1.98372e-01,1.74921e-01,-2.45507e-01,2.42347e-01,-2.24843e-01,2.24423e-01,-1.87154e-01,1.10961e-01,2.48985e-01,1.15212e-02,-2.43765e-01,-7.91289e-02,-7.94924e-02,2.29581e-01,-1.63562e-01,-2.69689e-01,4.75533e-01,3.31943e-01,2.73260e-01,-4.82773e-02,1.22417e-01,1.35456e-01,1.33733e-01,6.24139e-02,-1.12769e-01,-4.24445e-02,-1.74157e-01,-1.80864e-01,-1.74880e-01,3.13960e-01,
2.04125e-02,2.26438e-02,2.42683e-01,1.31793e-01,8.92916e-02,7.39238e-01,-2.55594e-01,-1.83976e-03,-9.36968e-02,6.13485e-01,-5.36089e-03,1.84860e-01,-1.71601e-01,2.98697e-01,2.77156e-02,1.27712e-01,-3.69712e-01,-7.49134e-02,1.83477e-01,1.36267e-01,5.50867e-01,-9.82285e-02,-2.46927e-01,-2.04674e-01,-6.88706e-02,5.05205e-02,8.15169e-02,2.14317e-01,-1.25646e-01,5.43171e-01,1.26492e-01,3.22942e-01,-1.41442e-01,3.57271e-01,-8.57416e-02,1.42464e-01,5.14949e-01,1.35898e-01,1.90367e-01,1.54122e-01,-1.18585e-01,-1.15720e-01,-6.94967e-02,2.01651e-01,1.98059e-01,-4.40204e-02,1.77232e-02,-1.42510e-01,-2.77410e-03,-1.64611e-01,-5.48754e-01,-1.71975e-01,-2.02889e-01,-9.23936e-02,1.44591e-01,4.58914e-02,4.94840e-02,1.09599e-01,-1.92412e-01,5.99210e-01,-2.41605e-02,-1.18532e-01,3.86834e-02,-2.98888e-01,
2.51156e-01,2.28313e-01,-3.11943e-02,-5.46095e-02,-5.85693e-02,7.90743e-01,7.32416e-02,-1.39891e-02,-2.66654e-01,4.53869e-01,-2.48383e-01,9.18449e-02,1.58185e-01,-4.57801e-02,1.36967e-01,1.60583e-01,7.39776e-02,1.87375e-01,-2.83282e-01,2.33892e-01,1.68873e-01,-1.44581e-01,1.31836e-01,5.46788e-02,-1.82562e-01,-1.45977e-01,-3.62059e-01,1.06374e-01,-1.43235e-01,9.86288e-02,2.18665e-01,1.99125e-01,1.18626e-01,9.61820e-02,-5.83578e-02,1.70363e-01,5.08893e-01,-2.52451e-01,1.30672e-02,9.74546e-02,-1.47028e-01,-3.77724e-02,3.44927e-02,1.51298e-01,3.54596e-02,-2.64730e-01,1.73629e-01,1.32838e-01,2.64748e-01,-3.82323e-01,-3.64875e-01,-4.89304e-01,-3.01024e-01,-7.47353e-02,3.08621e-01,-2.14471e-01,2.28954e-01,4.43106e-02,-3.77161e-01,6.09842e-01,-3.79617e-02,5.79200e-02,1.45403e-01,-5.09688e-01,
5.65187e-01,-1.59532e-01,-9.10558e-02,-6.76326e-02,-4.28780e-02,1.55784e-01,-3.09364e-01,-6.26670e-02,-1.54148e-01,4.43187e-01,-7.39591e-02,-1.97745e-01,8.97133e-03,-1.47291e-01,3.00699e-02,-2.57493e-01,1.68272e-01,-1.50369e-02,6.94881e-02,3.60520e-01,3.13272e-01,-2.32669e-02,1.67159e-01,-1.53756e-01,-2.85105e-01,3.44646e-01,6.34748e-01,9.19915e-01,5.01599e-02,6.64554e-01,8.41608e-02,-1.71578e-01,-2.30760e-01,3.85686e-01,-2.05401e-01,9.93981e-02,8.20965e-01,-3.05612e-01,-9.50458e-02,6.85202e-02,1.73394e-01,2.96937e-02,-6.06823e-03,1.54407e-01,6.36740e-02,-2.45447e-01,2.62232e-01,-5.15240e-03,6.99630e-01,2.77524e-01,-2.15875e-01,3.82650e-01,-1.65131e-01,2.08512e-01,8.35830e-01,2.12406e-01,6.59121e-01,1.77374e-01,-5.75114e-02,6.19959e-01,-3.48595e-02,-1.97681e-01,-6.36888e-02,6.61773e-02,
-4.64867e-02,-3.51855e-01,7.35174e-02,-6.57029e-02,3.23884e-02,-7.09420e-01,1.15906e-01,-3.36418e-01,-4.32668e-02,-2.96796e-01,9.42037e-02,1.04937e-02,-1.58382e-01,4.49599e-02,-1.01543e-01,5.16176e-02,2.22540e-01,-1.40147e-01,1.23414e-01,-1.57576e-01,2.79967e-01,7.57050e-02,-2.16260e-01,4.91356e-01,1.53204e-01,2.02795e-01,1.52454e-01,1.20183e-01,6.17481e-02,1.49432e-01,1.20511e-01,1.12482e-01,2.02724e-01,2.17763e-01,-1.79081e-01,-7.67029e-02,-6.92050e-01,9.61738e-02,-1.28705e-01,1.16628e-01,1.03777e-01,2.90730e-01,2.42407e-01,7.48577e-02,-8.41893e-02,6.40096e-02,-1.92574e-01,-2.16354e-01,-4.21809e-01,1.17530e-01,5.03984e-01,3.38992e-01,1.78596e-01,1.90994e-01,1.50039e-01,-5.31081e-03,-2.89734e-01,-2.11279e-01,-1.10214e-01,-4.31604e-01,-7.38285e-02,1.10707e-01,1.85791e-02,4.35364e-01,
1.69446e-01,-1.00715e-01,-2.10000e-01,2.18391e-01,-2.14903e-01,8.77373e-02,-8.80473e-02,-2.65696e-01,-8.35411e-03,-1.86089e-01,-5.48833e-02,7.11128e-02,-1.27266e-01,1.79185e-01,1.09975e-01,-2.18860e-01,-2.83055e-01,9.74649e-02,-1.44903e-01,3.14338e-02,-6.84810e-02,-1.02331e-01,-1.27339e-01,2.34351e-02,-2.08678e-01,1.09803e-01,-1.09707e-01,-1.69615e-01,1.42292e-01,9.60574e-02,-4.50141e-02,-1.54201e-01,-4.45272e-03,-2.80793e-01,1.31601e-01,-2.66966e-01,-1.89145e-02,1.08956e-01,-1.21395e-02,2.18238e-01,-1.40261e-01,1.62390e-01,-3.63302e-02,2.12589e-01,-8.96001e-02,-4.31230e-02,1.30938e-01,-2.49523e-01,-1.69589e-01,-2.42180e-01,-2.78856e-01,1.43651e-01,2.54107e-02,-4.93586e-02,-2.48258e-01,-7.03029e-02,4.86081e-02,1.26071e-01,4.60027e-02,8.05335e-02,-1.07627e-02,-2.49100e-01,-1.07860e-01,-2.05443e-01,
-1.70136e-01,4.21351e-01,-5.11056e-02,2.20898e-01,1.62165e-01,4.03005e-02,-2.67453e-02,1.07476e-01,1.15485e-01,-6.03679e-01,1.65562e-01,-3.07328e-01,-4.29593e-02,-7.02538e-02,3.83271e-03,-2.20739e-01,1.59826e-01,1.39544e-01,-1.88909e-01,-1.98243e-01,-1.88030e-01,-6.31850e-02,-8.00282e-02,1.21188e-01,1.82100e-01,2.08895e-01,-1.24138e-02,-1.23588e-01,5.69237e-02,-2.35823e-01,4.37936e-02,-2.32647e-01,-1.87579e-01,-3.75799e-01,-1.97635e-01,-9.99993e-02,-1.13810e-01,8.06217e-02,-1.83419e-01,-6.50082e-02,-1.62759e-01,4.85648e-02,6.54811e-02,2.52179e-02,1.06751e-01,-1.74645e-01,-3.96712e-01,2.00436e-01,-2.60166e-02,1.90122e-01,2.17209e-01,-1.40971e-01,-2.04203e-01,1.12667e-01,6.56962e-02,1.91206e-01,-1.54807e-01,-6.98087e-02,-8.58613e-02,-5.44004e-01,-2.63095e-01,1.59432e-02,1.78812e-01,-4.02568e-01,
4.99052e-02,-2.60085e-01,2.99173e-02,-1.49992e-01,-2.11586e-01,1.03405e+00,-1.19839e-01,2.71715e-01,2.56929e-02,6.76937e-02,-1.43343e-01,2.97430e-01,1.48243e-01,6.13354e-02,8.88339e-02,1.59184e-01,-1.00380e-01,-5.71694e-03,-8.17828e-02,2.51246e-01,2.69721e-01,2.35719e-01,1.60161e-01,1.67614e-01,2.00394e-01,1.15065e-01,8.56294e-02,3.41636e-01,-4.83175e-02,1.64720e-01,5.27594e-02,1.53354e-01,2.15793e-01,2.92516e-01,1.27030e-01,-1.72248e-01,2.86088e-01,4.98560e-02,8.27425e-03,-8.97083e-02,1.05935e-01,3.15426e-01,2.46752e-01,-6.14604e-02,2.86928e-02,-5.51626e-02,2.06900e-01,1.00898e-02,-1.33901e-01,-1.24100e-01,1.10860e-01,-4.94230e-01,-1.71505e-01,2.21510e-01,-2.74704e-01,-1.50709e-01,3.61728e-01,-1.77388e-01,-7.32840e-02,-5.47454e-02,2.11476e-01,1.01973e-01,9.97748e-02,-2.64595e-01,
1.33479e-01,2.60838e-01,2.24099e-01,-1.97574e-02,-8.35892e-02,3.38880e-01,-1.83797e-01,6.27840e-03,-1.13899e-02,7.00671e-01,1.60317e-01,9.86675e-02,-1.44994e-02,-6.99906e-02,1.24042e-01,-1.32915e-01,1.22024e-01,-2.11503e-01,-6.40207e-02,-1.16746e-01,2.28842e-01,2.27318e-02,8.77303e-02,-5.45464e-01,-1.95766e-01,2.67180e-02,2.19288e-01,7.15176e-01,1.75005e-01,4.01179e-02,1.64784e-01,1.10585e-02,-9.18590e-02,1.87183e-01,-7.40834e-02,7.68751e-02,9.31166e-01,1.40546e-01,-1.17249e-01,1.30940e-01,2.10072e-01,-2.18114e-01,1.74072e-01,2.91341e-01,-2.66959e-01,-3.18043e-01,-1.85766e-01,-1.35871e-01,5.41063e-01,1.52389e-01,-7.40553e-01,-7.72907e-02,6.85467e-02,-2.17837e-01,5.91194e-01,7.33465e-03,3.12257e-01,4.26703e-01,-3.20906e-01,9.63411e-01,-2.63165e-02,8.93307e-02,-1.97791e-01,-9.29656e-02,
3.31479e-02,-8.17172e-02,-1.16944e-01,-6.39322e-02,1.51593e-01,8.30164e-01,1.71271e-01,3.09456e-01,-1.30108e-01,-4.11628e-01,-2.29691e-01,1.45737e-01,2.52219e-01,-5.58903e-03,-3.63297e-03,1.37777e-01,-3.31668e-01,5.78609e-03,3.69424e-02,7.84897e-02,-1.07441e-01,9.21592e-04,-1.77251e-01,2.89010e-02,1.74292e-01,1.45933e-01,-2.52600e-01,2.64931e-01,2.39509e-01,-6.09025e-02,3.18951e-01,1.89600e-01,-1.60523e-01,2.29290e-01,-9.07127e-02,1.55729e-01,5.80680e-01,2.13079e-01,3.58224e-02,7.44569e-02,-2.08502e-01,-2.36100e-01,-9.84727e-02,-7.79665e-02,8.45710e-02,-2.22543e-02,1.25798e-01,1.97397e-01,-3.87212e-02,1.90424e-01,-3.04508e-02,-2.19660e-01,-3.04247e-01,7.17491e-03,-6.14599e-02,-2.49332e-01,2.55278e-01,1.55326e-01,-7.62381e-02,-4.12381e-01,-7.04465e-02,-2.08457e-01,-7.01822e-02,-1.36529e-01,
-1.50569e-01,-3.67505e-01,1.50284e-01,2.00544e-01,-2.59818e-02,-6.73857e-01,-1.67701e-01,-7.59191e-02,5.66809e-02,1.50207e-01,-2.05972e-01,9.02575e-02,1.68265e-01,1.20900e-01,-1.75197e-01,1.04376e-01,1.99946e-01,-2.09044e-01,1.93359e-01,1.75381e-01,1.87384e-01,1.76243e-02,1.73131e-01,-1.59056e-01,-1.67526e-01,1.32400e-01,1.91854e-01,2.14258e-01,7.46521e-02,3.23149e-01,-5.45260e-02,-1.05816e-01,-8.57246e-02,-1.39516e-02,1.12099e-01,9.64955e-02,-9.08029e-02,-1.47908e-01,1.80355e-02,1.23692e-01,1.81668e-01,-1.22038e-02,1.01115e-01,1.25432e-01,-2.17972e-01,-3.01106e-01,1.11865e-01,-2.47863e-01,4.77474e-01,-5.23934e-03,-6.45893e-02,1.37592e-01,-1.36548e-01,1.82910e-01,4.81913e-01,4.24961e-02,-2.48595e-02,-2.17563e-02,-5.00039e-02,4.11991e-01,-2.19382e-01,6.20920e-02,-1.26955e-01,-4.21813e-02,
-2.42659e-01,1.28541e-01,2.47486e-01,3.11760e-02,-7.11465e-03,-7.52814e-01,-1.01601e-01,-3.74422e-02,-2.10439e-01,-3.64704e-02,1.25390e-01,-1.07795e-01,1.90476e-01,-1.42987e-01,-2.17718e-01,1.67009e-01,-2.29985e-01,-2.42131e-01,2.43537e-01,-3.54196e-02,-2.69194e-01,-1.19928e-01,1.51019e-01,-1.78391e-01,-1.35639e-01,-1.54243e-01,2.98467e-01,-8.19908e-02,3.92487e-02,1.12802e-01,1.69030e-02,-1.37598e-01,1.27717e-01,1.65692e-01,-1.26147e-01,5.70089e-02,-6.71577e-01,2.64291e-01,-2.21897e-01,-8.21158e-02,-2.35739e-01,-9.20165e-02,2.35964e-01,1.02447e-01,4.45755e-02,-1.35272e-03,-2.10960e-01,-1.44903e-01,-2.63910e-02,-2.67627e-01,-2.27770e-01,9.32396e-02,2.39774e-01,1.10050e-01,1.51940e-01,1.03224e-01,-9.77707e-02,1.28738e-01,1.54067e-01,3.69849e-02,2.82467e-01,-1.65389e-02,1.24281e-02,4.21701e-01,
-1.49803e-01,
-2.12282e-01,
-6.31790e-02,
-9.02821e-02,
-2.49084e-01,
0.00000e+00,
0.00000e+00,
1.98481e-01,
5.54789e-03,
2.94558e-02,
-2.01521e-01,
-1.92661e-01,
-6.08126e-02,
6.48709e-01,
0.00000e+00,
2.73974e-01,
8.23823e-02,
-1.24285e-01,
-4.34698e-01,
-9.66016e-03,
-1.93908e-01,
1.83422e-01,
1.73701e-01,
8.92401e-01,
-2.29802e-01,
-7.08136e-02,
-6.05980e-01,
4.96516e-02,
5.08310e-01,
1.56131e-02,
2.76056e-01,
-1.12498e-02,
-1.72181e-01,-1.21101e-01,3.18387e-01,1.61648e-01,2.03515e-02,9.77474e-02,1.24034e-01,-2.19064e-01,1.12977e-01,1.87245e-01,1.06143e-01,1.08393e-01,-4.10257e-01,-7.55614e-02,2.64801e-01,-2.41707e-03,-2.68586e-01,6.27563e-02,2.01457e-01,-2.07624e-03,-4.06322e-01,1.76720e-01,-5.20112e-03,-4.36055e-01,-9.98259e-02,1.44785e-01,1.21886e-01,-2.36082e-01,-1.34489e-01,-2.51141e-02,-2.26225e-01,1.86676e-01,
4.45014e-02,-2.76720e-01,1.08492e-01,8.53092e-02,-2.26188e-01,2.30404e-01,3.18486e-01,-3.10128e-01,1.31030e-01,1.83358e-01,2.56844e-01,2.29055e-01,1.46823e-01,2.01222e-01,-2.51654e-01,-2.21328e-02,-2.02955e-01,1.91162e-01,-2.50863e-01,1.09446e-01,-7.02933e-02,6.12913e-02,2.09081e-01,8.48721e-02,-1.99541e-01,7.08241e-02,1.41194e-01,-2.35826e-01,-9.74967e-02,6.50920e-02,-2.24477e-01,2.69035e-01,
4.59493e-02,4.21002e-02,-1.79826e-01,3.37513e-01,-1.62140e-01,2.99589e-01,8.11324e-02,2.45574e-01,5.08916e-01,1.55386e-01,-1.16672e-01,-1.84453e-01,9.79007e-03,2.41146e-01,-1.42468e-01,3.33632e-01,2.16024e-01,-2.84771e-02,-4.68620e-01,-2.00303e-01,-1.44100e-01,2.40070e-01,2.72669e-01,2.09486e-01,-7.68344e-02,-1.32622e-01,-1.52119e-01,1.78994e-01,4.93490e-01,2.92645e-01,-1.31348e-02,-7.05839e-02,
-6.69769e-02,-1.36962e-01,2.21838e-01,1.36477e-01,1.35167e-01,-3.87059e-02,2.12062e-01,-4.35257e-02,-1.07508e-01,1.45526e-01,-3.60827e-01,-3.71261e-01,4.32303e-01,1.62684e-01,9.96819e-02,3.04366e-01,-3.01220e-01,-8.07328e-02,-2.41983e-01,4.38862e-01,-5.37223e-02,-1.44625e-01,-9.13184e-02,3.83413e-01,2.01084e-01,1.33344e-01,2.00740e-01,1.87211e-01,4.47133e-01,-3.56784e-01,-1.91799e-01,-2.68709e-02,
3.59273e-01,1.15588e-01,-2.28009e-01,-1.71328e-01,-1.73829e-01,1.28661e-01,-5.13755e-02,-2.78359e-02,-3.86396e-01,2.07435e-01,-1.36486e-01,1.70197e-01,2.80380e-01,1.71009e-01,-2.55610e-01,-1.56742e-01,1.96672e-01,-3.20642e-01,3.81434e-01,1.50004e-01,-2.51920e-01,3.07793e-01,-2.05977e-01,6.12490e-01,1.22902e-01,1.70825e-01,-3.30616e-01,2.30971e-01,3.40311e-01,-3.98740e-01,1.87910e-01,-1.03955e-01,
1.28260e-01,1.97274e-01,2.29475e-02,-1.35033e-01,-1.46451e-01,1.48312e-01,6.36899e-02,-2.47913e-01,-3.57117e-01,-1.14923e-01,-4.02561e-01,-3.29084e-01,-2.54844e-01,-7.87913e-02,2.08066e-02,1.14808e-02,-3.02837e-01,-1.65708e-01,2.62721e-01,2.21233e-01,1.88166e-01,2.52543e-01,4.35528e-02,-1.89140e-02,-3.30597e-01,3.31725e-01,-8.31127e-03,7.32192e-02,-7.45867e-02,9.13874e-02,-3.74161e-01,-1.23942e-01,
2.67317e-01,-3.74488e-01,2.15099e-01,3.52443e-02,-3.24455e-01,-2.60855e-01,-2.36211e-01,2.32114e-01,6.51580e-02,3.18448e-01,-1.17867e-01,1.02588e-01,-4.37677e-02,1.67729e-01,2.39001e-01,-1.87384e-01,-2.90007e-01,7.51931e-02,3.87501e-01,-3.35532e-01,5.02551e-03,2.56070e-01,-3.60279e-01,-3.52292e-02,-9.06209e-02,1.96342e-01,1.30446e-01,-2.73903e-01,2.10929e-03,7.36105e-02,-1.05386e-01,2.39631e-01,
-3.05882e-02,-3.44240e-01,1.05185e-01,2.08744e-01,2.25732e-01,2.97895e-01,1.92493e-01,2.48812e-01,2.61543e-01,1.15996e-02,-9.45331e-02,-1.61411e-01,2.84488e-01,-2.66359e-01,-2.82699e-01,-2.96669e-01,-3.62175e-01,-1.18855e-01,2.85645e-01,1.44723e-01,-3.48008e-02,1.83333e-01,-3.98749e-01,-2.44823e-01,1.85511e-01,-5.22909e-02,1.54454e-01,2.67824e-03,-7.90585e-02,3.63006e-02,1.13913e-01,-1.83853e-01,
-5.31634e-02,-2.35115e-04,-3.04022e-01,1.42656e-01,8.36056e-02,-1.85256e-01,1.14197e-01,-2.83643e-01,4.42838e-01,7.96456e-02,-1.25099e-01,-2.09376e-01,2.72639e-01,2.91701e-01,1.90355e-01,2.37702e-01,-1.87133e-01,3.22805e-01,1.24018e-01,1.93368e-01,9.49982e-02,1.54231e-01,2.70732e-01,1.29156e-01,-8.54340e-02,-1.37016e-01,-2.78154e-02,3.58204e-01,-8.24032e-02,1.99052e-01,-8.89314e-03,-4.33793e-01,
-2.30934e-01,-3.85355e-01,3.61802e-02,-2.29994e-01,-1.68767e-01,-1.56868e-01,2.04826e-01,1.69942e-01,1.73355e-01,-3.34565e-02,-3.66068e-01,1.46846e-01,4.08187e-01,1.48731e-01,3.27969e-01,-1.68043e-01,1.42441e-01,-9.54000e-02,7.51499e-02,-9.28120e-02,-7.49381e-02,1.26574e-01,-3.37144e-01,1.23427e-01,-1.97246e-01,-2.23196e-01,-1.64196e-01,-9.09423e-02,-3.78537e-01,1.70917e-01,2.32783e-01,1.34233e-01,
-1.41067e-01,-2.75517e-01,8.29779e-02,1.99777e-01,1.90521e-02,-3.10428e-01,1.15838e-01,4.31938e-01,5.16172e-01,4.02845e-01,-1.77498e-01,-2.89453e-01,-1.17771e-01,5.48870e-01,-2.57414e-01,2.16657e-01,-3.27726e-02,-1.86102e-01,-3.27074e-01,9.30463e-02,-3.60374e-01,-5.23036e-02,5.34960e-01,2.34106e-01,-3.77509e-01,-2.04341e-01,2.60827e-01,-1.08595e-02,5.66844e-01,2.10676e-01,1.38198e-01,-9.26275e-02,
-3.35702e-02,-2.40810e-01,2.84220e-02,-2.00103e-01,-2.49752e-01,-6.52705e-02,1.35237e-01,2.77573e-01,1.33934e-01,-9.99288e-02,-1.49390e-01,-3.14661e-02,-3.90651e-01,5.02381e-01,-2.37723e-01,3.45316e-01,-8.69355e-02,1.26092e-01,5.12089e-02,4.97208e-01,-2.81608e-01,2.11673e-01,2.80275e-01,1.93296e-01,-2.55267e-01,-2.87598e-01,-2.39428e-01,-3.21138e-01,6.18111e-01,3.68898e-01,3.06377e-01,-5.66015e-01,
-1.06456e-01,-2.28223e-02,2.52274e-01,3.26850e-01,2.13693e-01,2.27608e-01,2.45868e-01,2.94446e-01,5.81281e-02,1.77310e-01,-2.13065e-01,3.02762e-01,1.28033e-01,-2.84240e-01,1.42360e-01,-1.18858e-01,-6.29762e-02,-1.17365e-01,2.19040e-01,-3.77377e-02,-1.79895e-01,-2.43605e-01,-2.80582e-01,-8.82774e-02,-2.75756e-01,-3.44705e-01,-3.55707e-01,-2.45621e-01,-1.75380e-01,7.66445e-02,3.65518e-02,2.59384e-02,
-1.79353e-01,-8.50625e-02,-8.70914e-02,3.29798e-01,-9.17317e-02,2.55110e-01,3.53108e-01,1.35844e-01,8.86485e-02,3.47725e-01,1.51334e-01,4.09862e-03,1.10540e-01,3.13200e-01,-5.01009e-02,9.57712e-02,-2.50635e-01,2.10126e-01,-3.05603e-01,-1.66112e-01,2.65122e-01,3.02097e-01,2.58316e-01,5.92116e-02,1.31612e-01,-2.76707e-02,-2.65986e-01,-3.79454e-01,3.50069e-01,-3.44873e-01,-4.00794e-02,2.94174e-01,
-1.23799e-02,2.38920e-01,-2.62649e-01,1.78149e-01,6.20628e-03,-3.44927e-01,-3.68721e-02,1.29460e-01,1.06827e-01,5.88163e-02,-2.36093e-01,-6.39024e-02,-2.01857e-01,-4.80654e-01,1.37125e-02,-1.98450e-01,-1.17187e-01,9.71199e-02,-1.99458e-01,-2.82940e-02,-2.60050e-01,2.32493e-01,1.85750e-01,-9.03296e-02,-3.58367e-01,-2.26983e-01,-2.63226e-01,-8.72811e-02,-1.77831e-01,-3.92254e-01,6.65862e-02,-2.81228e-01,
1.68849e-01,2.52652e-01,-2.90256e-01,-1.71938e-01,-1.31141e-01,1.43341e-01,1.22098e-01,2.52710e-01,-6.24438e-02,1.31213e-01,-2.83924e-01,-8.98665e-03,1.00332e-01,-2.06682e-01,1.03729e-01,-2.09720e-01,-3.53133e-01,-6.55522e-02,-2.39913e-01,3.10967e-01,1.71250e-01,2.59412e-01,-2.31793e-01,-2.65666e-01,1.54134e-01,-1.34970e-01,2.35394e-01,-3.38600e-01,-1.58460e-01,3.37084e-02,-3.30565e-01,2.19448e-01,
-6.64008e-02,
-3.13823e-02,
1.88099e-01,
-4.71097e-02,
-5.32843e-03,
-6.36798e-02,
-1.16557e-01,
-3.40078e-02,
8.58280e-02,
-1.27849e-01,
2.11342e-01,
5.23823e-01,
-6.89226e-02,
-6.75294e-02,
-9.90934e-02,
-9.08504e-02,
2.77094e-01,4.25696e-02,2.41988e-01,-4.82945e-01,-4.53339e-01,1.22303e-01,2.79032e-01,9.53213e-02,-6.08610e-01,-1.70052e-01,-5.35622e-02,2.91665e-01,1.01061e-01,1.15006e-01,-5.49186e-02,-2.19606e-01,
-3.46457e-01,-5.58801e-02,-1.82114e-01,2.34405e-01,3.04206e-01,-1.65296e-01,4.45855e-01,3.40062e-01,1.21498e-01,6.60672e-02,-2.99598e-01,-3.77212e-01,2.49458e-01,1.73488e-01,5.84950e-02,2.33092e-01,
-2.14828e-01,-2.23162e-01,4.04134e-01,4.17563e-01,2.24544e-01,3.42894e-02,2.08908e-01,-1.02158e-01,3.90215e-01,-3.31933e-02,6.81252e-01,3.45512e-01,3.57111e-01,1.55767e-01,-3.37250e-02,-6.50245e-02,
9.36513e-02,4.51626e-02,2.30689e-02,-3.45615e-02,1.01971e-01,-3.76945e-01,-2.85460e-01,7.83541e-03,2.50430e-01,-2.20743e-01,-3.03877e-01,5.05735e-01,-4.46958e-01,2.23062e-01,1.76005e-01,-9.97443e-02,
1.19894e-01,-1.99135e-01,-2.49745e-02,4.45221e-02,1.61766e-01,2.29569e-01,-1.63619e-01,-2.96778e-01,-4.95706e-01,-1.84349e-01,-2.01857e-01,-8.77493e-02,-4.56018e-01,-2.32284e-01,4.19149e-01,3.30628e-01,
5.17988e-01,9.11019e-02,-4.77400e-02,3.45863e-01,-5.07510e-01,7.00439e-02,1.23897e-01,-4.21115e-01,-2.64576e-01,-1.57663e-01,-2.28554e-01,1.81573e-01,4.05660e-02,3.29944e-01,-6.01581e-02,-1.76737e-01,
3.40191e-02,2.11007e-01,-5.10804e-01,4.01394e-01,-1.06032e-01,-2.98241e-01,-2.33051e-01,-2.34059e-01,-3.03611e-01,-4.54357e-01,1.56568e-01,1.01432e-01,-3.60006e-01,-2.13252e-01,-3.85848e-01,-1.05180e-02,
-5.06593e-01,4.44842e-01,-4.25024e-01,1.89530e-01,-2.36594e-01,-1.16226e-01,2.24659e-01,1.88662e-01,1.86103e-01,3.21019e-01,-2.00181e-01,-1.06280e-01,4.46370e-02,1.48263e-01,2.08202e-01,2.98365e-01,
-2.23500e-01,
-5.10631e-02,
1.63518e-02,
1.42512e-01,
1.29664e-01,
-1.07194e-01,
-1.17786e-01,
1.31404e-01,
1.34105e-02,3.77667e-01,-3.99905e-01,-4.44256e-01,-2.66557e-01,-1.12231e-01,2.45832e-01,-3.92257e-01,
3.13008e-01,-2.72899e-01,5.31543e-01,-3.60047e-01,5.36600e-02,-2.31605e-01,2.84118e-01,2.34539e-01,
4.48608e-01,2.74160e-01,-9.11229e-02,-8.86346e-01,-6.73753e-01,8.47857e-02,-2.99366e-01,-6.79160e-01,
-8.26421e-02,3.84064e-01,1.67147e-01,-5.00024e-01,2.25156e-01,-2.11760e-01,-1.07836e-01,1.62548e-02,
-7.26081e-02,
6.30540e-02,
-2.43440e-01,
-4.58622e-02,
7.65506e-01,-7.85143e-02,7.11843e-01,7.32851e-02,
2.02785e-01,
