// Neural Network File Format by Kyle Julian, Stanford 2016
3,16,1,32,
16,32,16,1,
0,
0,0,0,0,0,0,0,0,0,-3,0,1,0,0,0,0,
10,2,6,1,1,1,1,11,6,1,5000,50,999,7,2,1,
5,1,3,0.5,0.5,0.5,0.5,5.5,3,-1,2500,25.5,499.5,3.5,1,0.5,0.5,
10,2,6,1,1,1,1,11,6,4,5000,49,999,7,2,1,1,
1.88494e-01,-5.99242e-01,-9.05562e-01,-1.97571e+00,1.23102e+00,-7.62272e-01,-8.52461e-01,1.18223e+00,6.01634e-02,-1.20335e+00,-3.00152e-02,8.02119e+00,-8.92297e-02,-3.23453e-02,-1.65252e+00,-2.87469e+00,
-3.62541e+00,6.84940e-01,8.12717e-01,1.61055e+00,-2.62277e+00,-1.42222e+00,-3.35030e+00,-4.86376e+00,-2.64997e+00,-5.58904e-01,-2.66219e-01,-1.25029e+01,-7.51529e-01,-7.34160e-02,-2.83509e+00,2.14358e+00,
-2.25556e+00,-2.82908e+00,-1.51437e+00,-3.29020e+00,2.64287e-01,-4.62698e+00,-7.74979e+00,-1.28070e+00,-2.33235e+00,-3.57976e+00,9.74259e-03,2.42049e+00,-1.09833e+00,-1.54338e-01,-5.26769e+00,-5.10467e+00,
-2.05700e+00,-1.15970e+00,-1.40885e+00,-2.38433e+00,1.94174e-01,-2.77811e+00,-1.72452e+00,-7.98088e-01,-1.38548e+00,-1.87616e+00,-4.11548e-02,2.17274e+00,-1.56699e+00,-2.57026e-01,-1.85287e+00,-2.64479e+00,
1.43451e-01,-2.77382e-01,-1.40919e-01,2.79103e-01,5.90292e-03,-9.09247e-02,-2.99560e-01,-2.43363e-01,-2.74460e-01,-2.39250e-01,-5.73613e-02,2.43301e-01,3.59268e-02,-1.51767e-01,7.68958e-02,-2.15847e-01,
-8.53248e-01,6.72834e-01,-6.02612e-01,2.67538e-01,-2.27146e-01,-2.67060e-01,-6.78344e-01,-2.33258e-01,-2.71142e-02,-5.62670e-01,-1.87185e-01,-8.14117e-01,-8.18237e-01,-8.70127e-02,3.16760e-01,2.58373e-01,
1.36866e+00,-1.51840e-01,-1.04390e+00,-1.61445e-01,1.97145e+00,-1.18198e+00,2.33262e+00,-2.39443e+00,-3.75146e-01,-8.19946e-01,-7.17768e-01,1.45587e+01,3.56565e+00,1.53641e-02,2.56269e+00,-2.40064e+00,
2.17763e+00,-6.25403e-01,-2.42206e+00,-2.21743e+00,3.57097e+00,-1.14160e+00,5.20091e+00,-2.74400e-01,5.23247e-01,6.45941e-01,-2.53434e-01,2.16632e+01,1.29599e+00,1.43811e-01,1.79503e+00,-3.99419e+00,
-3.41892e-01,-1.47239e-01,1.50678e-01,4.33725e-03,2.79288e-01,1.60089e-01,-2.60085e-01,-1.06164e-01,-3.20174e-01,-2.11315e-01,-1.77182e-01,8.57727e-02,2.81698e-01,-1.98421e-01,-5.50649e-03,3.45287e-01,
-3.26648e+00,2.04223e+00,-1.21337e+00,3.73105e+00,-2.57091e-01,2.43607e+00,7.75408e+00,-1.29984e+00,5.48170e-01,2.21987e-01,1.90294e-02,-2.71460e+00,-2.36832e+00,-1.47518e+00,5.04359e+00,5.88213e+00,
2.36105e+00,3.33334e+00,1.06917e+00,1.15712e+00,3.36997e-01,3.61992e+00,2.42449e+00,1.89963e+00,-1.75349e+00,2.86432e+00,-2.70216e-01,1.06097e+00,-1.21178e+00,-1.42846e-01,3.29984e+00,1.35372e+00,
-1.86224e+00,3.62854e-01,-2.32202e-01,2.21518e+00,-1.49030e+00,-2.65364e+00,-2.94081e-01,3.04949e-01,6.86427e-01,2.49764e-01,-1.77768e-01,-8.65954e+00,-3.65008e-01,-1.42768e-01,-6.65812e-01,2.85156e+00,
-5.48759e-01,-5.93351e-01,-4.34777e-01,-7.47635e-01,8.17804e-02,-8.77349e-01,-7.79058e-01,-4.50309e-02,-6.40980e-01,-5.47960e-01,-8.50206e-02,4.77607e-01,2.93631e-02,-3.84694e-01,-9.96940e-01,-4.17248e-01,
-1.14880e+00,2.16209e-01,-9.63265e-01,6.34101e-01,1.68250e-01,-7.32979e-01,9.44381e-01,8.88567e-01,7.36233e-01,4.59822e-01,-2.67438e-01,-3.14472e-01,-1.46013e+00,-3.27461e-01,7.32879e-01,5.51637e-01,
-3.08141e-01,-2.15912e-01,-1.95699e-01,-1.79450e-01,-2.20823e-01,2.40464e-01,-8.59288e-02,-2.99533e-01,-3.23859e-01,-3.50504e-02,-2.83428e-01,1.39177e-01,6.75842e-02,-1.27011e-01,-1.34952e-01,-1.03082e-01,
-4.88555e-01,1.40093e+00,-9.48036e-03,5.29783e-01,3.07340e+00,2.61258e+00,-1.02443e+00,-2.25171e+00,-9.25009e-01,-2.35229e+00,-2.49305e+00,9.02443e+00,4.08535e+00,2.74601e-01,1.07763e+01,-1.72109e+00,
-1.47515e-01,9.98154e-02,-2.88379e-01,1.67464e-02,-2.18597e-01,-9.55452e-02,-1.73255e-01,-1.27897e-01,8.26214e-03,7.69061e-02,-2.09319e-01,-6.61814e-02,2.23727e-01,-2.35320e-02,-3.25038e-01,3.04992e-02,
-8.83822e-02,-2.64166e-01,-5.41934e-01,-2.89732e-03,1.87395e+00,-1.28870e+00,8.33203e-01,-4.62538e+00,-4.30444e-01,-1.47885e+00,-1.06831e+00,9.54527e+00,3.39110e+00,-2.81892e-02,4.39627e+00,-2.36229e+00,
-2.12518e+00,5.67713e-01,6.67547e-01,-2.97779e-01,-8.52325e-01,-3.11324e-01,-1.89420e+00,1.54333e+00,-1.38170e+00,3.83955e-01,-4.29070e-01,-9.01890e+00,-2.52210e+00,-8.46790e-02,-2.57890e+00,6.76647e-01,
1.43985e-01,2.59035e-01,-3.29234e-01,-3.79850e-01,3.05195e-01,2.06967e-01,-8.60334e-02,3.31342e-01,2.17530e-01,-2.21059e-01,-8.24539e-02,-1.52217e-01,-6.36772e-02,-3.12609e-01,8.55094e-02,-4.00781e-01,
8.72410e+00,7.71162e-01,5.71351e+00,1.82057e+00,-3.33704e-01,4.19431e+00,6.66702e+00,1.02799e+01,3.19844e-01,1.44277e+00,-2.42794e-01,3.21054e+00,3.42750e+00,-2.34002e-01,6.18262e-01,-5.99523e-02,
7.49674e-01,-7.85541e-01,-1.54560e+00,-2.87319e+00,2.31079e+00,-1.63421e+00,5.61590e-01,1.49164e+00,1.60395e-01,-1.33150e+00,-1.11073e-01,1.33169e+01,-4.42107e-01,-6.35832e-02,3.47786e-01,-3.45027e+00,
1.05713e+00,-2.19889e-01,-4.58389e-01,-1.01180e+00,1.20983e+00,1.04693e+00,2.90027e+00,1.67222e+00,7.95381e-01,2.50105e-01,-2.67208e-01,1.04589e+01,2.04917e-01,-3.39490e-02,3.97613e+00,-6.45269e-01,
2.93184e-01,-3.66090e-02,2.75532e-01,-2.74972e-01,-1.36143e-01,-1.49278e-01,-2.40744e-01,2.52078e-01,-3.51829e-01,2.36380e-01,-2.43036e-01,3.56884e-02,-3.14037e-02,-1.34288e-01,-2.58721e-01,-2.24258e-01,
-2.81383e+00,5.31800e-01,8.13526e-01,7.62357e-01,-3.30869e+00,-9.47167e-01,-1.06399e+00,1.07357e+01,1.26719e+00,7.36287e-01,-2.18862e-01,-1.62650e+01,-4.68716e+00,7.13630e-02,-4.07493e+00,1.94967e+00,
-6.35389e-01,1.14554e+00,-6.98097e-01,1.38800e+00,1.62444e-02,-9.62344e-01,-8.51384e-02,7.76068e-01,-5.88449e-02,-2.28293e-01,-5.23559e-01,-6.78928e-01,-1.38729e+00,-4.25542e-01,1.19121e+00,1.27615e+00,
-2.60415e+00,-4.79277e-02,4.42802e-01,3.80776e-01,-3.11933e+00,-1.64001e-01,-2.72640e+00,2.42830e+00,-2.36769e+00,1.10668e+00,-2.87786e-01,-1.37980e+01,-2.07785e+00,-5.48222e-02,-3.62366e+00,2.74435e+00,
-1.01683e+00,2.89572e-01,-8.29280e-01,1.19020e-01,-1.03774e+00,-1.51720e-01,2.43292e-01,-1.53861e+00,-7.62378e-01,2.42542e-01,-2.90505e-01,-5.06077e+00,-8.25933e-01,-8.18652e-02,7.34059e-01,9.77616e-01,
2.41881e+00,-1.10730e-01,-1.89166e+00,-3.60706e+00,4.77515e+00,4.89193e-02,1.02665e+00,5.79389e+00,1.96194e+00,-1.25646e+00,-2.57401e-01,2.23457e+01,2.95454e-01,1.79030e-01,6.71069e+00,-4.86260e+00,
-1.13926e-01,-2.38216e-01,-2.65982e-01,-4.75239e-01,2.71017e-02,-2.12021e-01,-3.35601e-01,3.32375e-01,-8.19633e-02,3.06540e-03,-2.19843e-02,5.13532e-01,-9.60612e-02,-2.89904e-01,-3.87265e-01,-2.83369e-02,
-7.24117e-01,5.69536e-01,-8.83716e-01,2.42246e-01,-7.94239e-01,1.59694e-01,1.65328e+00,-2.70353e+00,-1.35508e+00,1.51249e-01,-3.56418e-01,-2.60746e+00,1.00701e-01,-6.93951e-02,1.35529e+00,1.46847e+00,
6.47461e+00,1.39220e+00,5.23235e+00,1.41784e+00,-1.82472e-01,5.25784e+00,5.19120e+00,4.49433e+00,4.73839e-02,9.78642e-01,-2.40092e-01,1.20018e+00,4.21489e+00,-8.48118e-02,2.06597e+00,6.38205e-01,
-6.46617e-01,
-1.38179e+00,
-2.99229e+00,
-2.10725e+00,
-5.35451e-02,
-7.25982e-01,
-3.87820e-02,
-1.51703e-01,
0.00000e+00,
-2.73797e+00,
1.98806e+00,
-7.18356e-01,
-5.86351e-01,
-1.21974e+00,
0.00000e+00,
1.62162e-01,
-8.04413e-02,
-2.92964e-01,
-5.85347e-01,
-5.31125e-02,
8.01162e+00,
-7.14054e-01,
2.68085e-01,
0.00000e+00,
-1.20432e+00,
-9.38639e-01,
-6.32727e-01,
-1.02062e+00,
-8.79222e-02,
-2.64618e-01,
-8.23296e-01,
6.66057e+00,
-4.30235e-01,-1.71953e-01,-5.10333e-01,-2.99279e-01,-6.49635e-02,-1.01027e-01,-3.64324e-01,-1.59084e-01,2.13040e-01,-4.47873e-01,-4.12705e-01,-2.59854e-01,2.38264e-01,-5.05603e-02,2.06164e-01,1.34373e-03,-2.91763e-01,-1.58471e-01,-5.00889e-01,1.88307e-01,-5.93290e-01,-3.84896e-01,-5.70342e-01,-2.22114e-01,-1.19099e-01,-1.28548e-02,-6.56885e-01,-5.94308e-01,-3.28032e-01,-5.13328e-02,-2.94567e-01,-5.74991e-01,
-4.45133e-01,-1.13889e+00,-3.56983e-01,-3.97852e-01,-2.78269e-01,-1.26497e-01,-1.29401e-01,-1.66449e-01,1.28226e-01,-6.93279e-01,-3.65498e-01,-3.87327e-01,-1.43276e-01,1.49047e-01,-4.57670e-02,-5.27845e-02,1.73684e-01,6.83442e-02,-4.46533e-01,1.25303e-01,2.25369e-01,-1.19016e-01,-2.45939e-01,-2.32337e-01,-5.60520e-01,2.37018e-01,-8.55099e-02,-2.78750e-01,-1.74066e-01,4.97900e-03,1.07187e-01,-6.56121e-01,
2.24043e-01,-1.30706e+00,-4.84074e-01,2.15979e-01,-2.83899e-01,-3.37219e-01,-2.24445e-01,-2.73191e-01,-1.70925e-01,-1.07018e+00,-7.99142e-01,-1.15623e+00,6.60962e-01,-2.35013e-01,-3.41385e-01,1.42094e-01,2.84726e-01,8.35694e-02,8.30536e-02,3.51115e-01,5.46792e-01,1.52216e-01,-1.87433e-01,-3.53059e-01,-4.24207e-01,-3.41892e-01,-8.16960e-01,-2.12400e-02,-3.51621e-01,1.93056e-02,-1.29622e-01,7.52839e-01,
-2.79003e-02,-3.70322e-01,-1.97425e-01,-3.38369e-01,-3.31834e-01,-4.99114e-01,-2.72178e-01,-2.85055e-01,2.56896e-01,-2.28394e-01,-1.83409e-01,-3.80784e-01,3.37285e-01,-3.15907e-01,-2.18197e-01,-4.83798e-02,2.65056e-01,-2.35576e-01,-1.97623e-01,1.31136e-01,-2.70186e-01,-3.02784e-01,-2.33519e-01,2.73108e-01,-5.69019e-01,5.93501e-02,-3.25881e-01,-1.76296e-01,-1.06375e-01,1.43075e-01,-2.11221e-01,-6.41619e-01,
-2.53864e-01,-4.53380e-01,-8.01890e-01,-1.22382e-01,-2.65449e-03,-3.90640e-01,-1.05452e-01,-8.02256e-01,-1.43619e-01,-1.51278e+00,-2.57934e-01,-5.61618e-01,-1.50232e-01,-7.87143e-01,3.35922e-01,-2.94836e-01,-1.93856e-01,-1.91745e-01,-6.63010e-01,-1.35095e-01,1.48875e+00,6.18328e-03,-1.99378e-01,-7.98734e-02,-8.04688e-01,2.42610e-02,-7.67740e-01,-3.30056e-01,-7.83470e-01,2.78870e-01,-4.86870e-01,1.12301e+00,
1.06327e-01,-1.48101e-01,5.30271e-02,-3.12115e-01,5.76483e-02,-1.97172e-01,-1.76889e-01,-2.82194e-01,-2.81216e-01,-2.82747e-01,-7.01047e-01,-2.81175e-01,2.15114e-01,6.18440e-02,3.23645e-01,8.11270e-02,1.20324e-01,9.46491e-02,-4.15396e-01,-5.41761e-02,-1.98828e-01,-3.68430e-01,-6.75013e-02,-9.76408e-02,-2.38578e-01,-3.86956e-01,-3.38094e-01,5.67430e-02,-1.03285e-01,-1.42412e-01,9.67294e-02,-7.17966e-01,
-1.43737e-01,-7.28080e-01,7.60498e-02,-3.73519e-01,1.34140e-01,1.04347e-01,1.96025e-02,-3.18458e-01,-2.85563e-01,-2.82128e-01,-2.26627e-01,-6.19943e-01,-1.81320e-01,2.10096e-02,-2.31075e-01,-1.19131e-01,2.55568e-01,-2.68474e-01,-3.17128e-01,6.18876e-02,2.52353e-02,-2.11206e-01,-2.51316e-02,-2.20084e-01,-3.13846e-01,4.23323e-02,-3.27657e-01,-1.59539e-01,-3.80041e-01,-1.07964e-01,-1.07624e-01,-2.52954e-02,
-1.59658e-01,-9.00169e-01,2.96642e-01,-4.37039e-01,2.73406e-01,7.26076e-02,-3.80386e-01,-3.24342e-01,2.62448e-01,-4.74219e-01,-2.56445e-01,-2.00231e-01,-2.49790e-01,1.55042e-01,2.11297e-01,1.58631e-01,-2.83380e-01,-8.74731e-03,-3.43318e-02,1.45391e-01,-3.66072e-01,-5.91746e-02,-3.79587e-01,-1.24406e-02,-5.35799e-01,2.81932e-01,-1.04024e-01,1.91605e-01,-4.28141e-01,1.01647e-02,-3.24400e-01,-3.59104e-01,
-3.34747e-01,-6.68392e-01,-3.82366e-01,-5.91377e-02,2.09829e-01,-4.51024e-01,-2.65075e-01,-4.49326e-01,1.67543e-01,-5.20707e-01,4.93925e-01,-6.18875e-01,1.54647e-01,3.40361e-02,-1.14687e-01,1.23271e+00,-1.95439e-01,4.76974e-01,6.34431e-01,-1.91189e-01,-5.97369e-01,-1.97831e-01,-3.05334e-02,-1.44839e-01,-9.29666e-01,-2.61845e-01,-9.88643e-01,-1.81210e-01,-8.11697e-01,-2.45781e-01,-2.84786e-02,-8.65014e-01,
4.81464e-02,-8.96411e-01,-1.97180e-01,-1.26686e-01,-2.34513e-01,-3.05149e-03,-9.75319e-02,-2.24542e-01,-2.17543e-01,-1.20688e-01,-1.78231e-01,-4.56967e-01,2.12237e-01,-3.64293e-01,2.65267e-01,5.86824e-02,2.14298e-02,-2.52821e-01,-9.75817e-02,-3.16774e-01,-5.32341e-01,4.34698e-02,-1.19670e-01,-1.13747e-01,-2.07532e-02,-1.92191e-01,-5.40018e-02,-2.61437e-01,-2.41022e-01,-9.64662e-02,1.28238e-01,-8.75226e-02,
-3.85036e-01,-6.29495e-01,-1.70743e-01,-2.72739e-01,-2.40494e-01,4.46622e-02,-4.20262e-01,-2.79177e-01,-3.04483e-01,-1.53762e-01,-2.05073e-01,-6.47863e-01,-9.68398e-02,-2.18191e-01,-3.01535e-01,-4.51284e-02,-1.35940e-01,2.44331e-01,2.42389e-02,-1.82184e-01,2.66244e-02,-2.43766e-01,-3.73539e-01,2.98110e-02,-4.53426e-01,-3.45282e-01,-3.54716e-02,-1.23751e-01,-3.49170e-01,2.81476e-01,1.67296e-01,-4.19174e-01,
-2.93959e-01,-8.07364e-01,-1.25626e-01,1.96746e-01,-2.75837e-01,3.75636e-03,-3.46131e-01,-1.02158e-01,3.20494e-01,-3.07376e-01,-1.39626e-01,-6.35087e-01,-3.99623e-01,1.79907e-01,-3.36894e-01,-1.38691e-02,8.19345e-02,1.40921e-01,1.93986e-01,-2.77987e-01,-2.06955e-01,1.32642e-01,-3.46291e-01,1.67304e-01,-2.50271e-01,-4.86899e-02,-1.12229e-01,1.16774e-01,-4.45101e-01,-9.56369e-02,-1.93945e-01,-1.02643e-01,
1.73421e-01,-4.59051e-01,1.17109e-01,7.10155e-02,-1.93533e-01,3.12712e-02,-2.93136e-01,-2.69995e-01,3.04554e-02,-9.84342e-02,-2.42816e-01,-1.32855e-01,-2.77587e-01,2.00226e-01,4.59177e-02,-9.45632e-02,-1.03381e-01,-2.71100e-01,-2.55678e-01,2.15232e-01,3.36475e-03,4.76194e-02,7.18317e-02,-2.88743e-01,-3.21236e-01,9.80950e-03,-2.72020e-01,-1.32418e-01,-1.43296e-01,3.41634e-01,1.20248e-01,2.24330e-02,
5.10892e-02,2.01849e-01,-9.33239e-02,-3.10236e-02,-2.47491e-01,6.09304e-02,1.34010e-01,1.66046e-01,-2.66491e-01,-3.54169e-01,5.99240e-01,-4.16352e-01,-6.20382e-02,2.71377e-01,-5.45621e-04,2.88468e-01,-1.95396e-01,-4.23038e-01,1.01142e-01,3.42205e-01,6.85661e-01,4.10071e-02,9.46957e-02,-1.93921e-01,-1.13742e-01,3.16535e-01,1.21137e-01,1.23596e-01,2.57031e-01,2.75694e-01,-4.91965e-02,9.43220e-02,
-2.32997e-01,-1.90706e-01,-3.43581e-01,-1.24332e-01,-1.74447e-01,-4.78654e-03,-8.89760e-02,-9.03999e-01,4.92501e-02,1.78114e-01,3.52558e-01,-1.67737e-01,6.88301e-02,9.77522e-02,2.19343e-01,1.71001e-02,-3.22270e-01,-4.75945e-02,-3.80049e-01,1.42977e-01,-5.47541e-01,-4.24873e-01,-4.37614e-02,-5.67111e-03,-1.94027e-01,-6.71029e-02,-3.73254e-01,-9.15333e-02,-1.33989e+00,6.33460e-02,-5.19862e-02,-9.18846e-01,
-4.93624e-02,-6.61545e-01,-4.12825e-01,2.02960e-01,3.17741e-01,-2.89745e-01,-1.19383e-01,-1.73217e-01,-2.72650e-01,-3.66765e-01,-5.93478e-02,-6.36653e-01,9.99192e-02,-1.47553e-01,-3.27870e-01,9.21502e-01,7.44464e-02,1.46331e-01,1.90625e-01,7.09894e-02,-4.57085e-02,1.02665e-01,-4.14376e-01,-3.20180e-01,-6.36399e-01,2.64964e-01,-4.05430e-01,2.19078e-01,-5.30782e-01,-3.02732e-01,-5.48571e-03,2.00478e-01,
-3.98989e-01,
-8.71943e-01,
-1.64758e+00,
-3.13485e-01,
-7.93944e-02,
-7.94136e-01,
-6.99372e-01,
-9.03336e-01,
-1.29868e+00,
-7.02712e-01,
-1.55167e+00,
-1.40870e+00,
-5.77857e-01,
1.30616e-01,
1.67227e+00,
-9.47065e-01,
2.02699e-01,2.33034e-02,-1.13999e-02,3.89499e-02,-2.03970e-01,-2.63017e-02,3.31060e-01,9.87647e-02,-1.78094e-01,-2.27520e-02,-1.71056e-02,1.63549e-01,2.48120e-01,-1.00375e-01,1.05249e-01,-4.47187e-02,
-2.64853e-03,
