// Neural Network File Format by Kyle Julian, Stanford 2016
2,16,1,100,
16,100,1,
0,
0,0,0,0,0,0,0,0,0,-3,0,1,0,0,0,0,
10,2,6,1,1,1,1,11,6,1,5000,50,999,7,2,1,
5,1,3,0.5,0.5,0.5,0.5,5.5,3,-1,2500,25.5,499.5,3.5,1,0.5,0.5,
10,2,6,1,1,1,1,11,6,4,5000,49,999,7,2,1,1,
1.96096e-01,1.21394e-01,-1.32150e-01,-4.92261e-02,4.01649e-01,-4.23153e-02,-1.41869e-02,4.26798e-01,-2.51020e-01,-3.51215e-01,-1.67345e-02,1.63342e+00,-1.09215e-01,-1.70772e-02,4.12539e-03,-3.77770e-01,
-3.01299e-03,-2.53932e-01,-2.15055e-02,-1.37691e-01,-1.28415e-01,-2.12263e-01,1.31752e-01,-1.84569e-01,1.46103e-02,-6.83671e-02,-1.93975e-03,-8.88509e-02,5.58265e-02,-1.07301e-01,-2.80828e-01,3.78190e-02,
-2.36723e-01,6.08590e-01,8.19038e-01,4.49755e-01,1.07864e-01,-2.56642e-01,-7.31825e-01,8.80436e-01,3.95643e-01,1.59961e-01,-3.50553e-01,-2.05711e-01,-3.30708e-02,-2.95604e-01,1.38817e+00,2.64391e-01,
-9.87488e-02,2.66111e-01,-2.74189e-01,1.39926e-01,7.44854e-01,-4.21648e-01,-7.88653e-02,-1.31440e+00,-2.17899e-01,-5.66220e-01,-3.90356e-01,2.06609e+00,6.39259e-01,-4.14411e-02,1.25619e+00,-4.84277e-01,
1.18393e-01,-1.10776e-01,-1.15242e-01,-3.97341e-01,2.20470e-01,-1.07705e-01,-2.94852e-02,1.84486e-01,-6.28315e-02,-2.58144e-01,-3.16068e-02,1.73437e+00,-2.17408e-01,-3.53448e-04,3.83885e-02,-5.77697e-02,
-3.13461e-01,8.10517e-02,-2.81993e-01,-2.37485e-01,-1.39665e-01,-3.45995e-01,1.40337e-01,1.53526e-01,-1.01859e-01,-7.95035e-02,-2.70241e-02,-4.21776e-02,3.01969e-02,-1.53062e-01,3.44488e-02,-2.54262e-01,
-2.95865e+00,3.90890e-01,-1.38421e+00,1.12080e+00,-1.11598e+00,5.13985e-01,3.42653e+00,-3.07925e+00,5.41747e-01,-9.77945e-02,-2.00494e-01,-2.14031e+00,-1.23774e+00,-4.03681e-01,2.60944e+00,3.05112e+00,
-8.16625e-02,-4.61445e-02,-4.92165e-02,-1.40339e-01,2.10250e-01,-1.14405e-01,-6.54691e-02,-5.48909e-02,-9.03400e-02,-1.16164e-01,-1.38164e-01,1.21023e-01,-2.26688e-01,-8.12242e-03,-2.39658e-01,-3.90133e-02,
-1.18288e+00,-3.23938e-01,-2.50103e-01,-9.97314e-02,-1.65651e+00,8.57897e-02,-1.02723e+00,1.24300e+00,-3.74053e-01,-1.97001e-01,-2.82696e-01,-3.83293e+00,-1.18141e+00,-1.27515e-01,-1.72811e+00,2.06926e-01,
-1.55059e-01,2.93007e-02,-2.60013e-01,-9.99675e-02,1.48569e-01,-2.19373e-01,-3.14290e-01,-1.65926e-01,-2.66526e-01,-1.47392e-02,-3.60309e-03,-5.86412e-01,-1.48582e-01,-1.07893e-02,-4.14947e-01,-4.46893e-02,
-1.39415e-02,4.01188e-01,2.10347e-01,2.91822e-01,-4.51087e-01,1.89366e-01,-2.13845e-01,2.94209e-01,-3.54420e-01,-1.51727e-01,-2.84989e-01,-1.12167e+00,-7.36562e-03,-3.59910e-02,7.21894e-01,2.90541e-01,
2.41876e-02,-1.29037e-01,-1.94290e-02,-6.74775e-02,-1.51334e-01,-2.59549e-01,-4.30943e-01,-3.85273e-01,-3.30219e-01,-1.12566e-01,8.80328e-04,-8.86829e-02,-1.17052e-02,-3.95413e-02,-7.14492e-01,-4.22674e-01,
3.85218e-02,9.26355e-02,-3.43403e-02,-5.99180e-02,-1.32733e-01,-3.92103e-01,1.76740e-01,-2.20744e-01,-4.85001e-02,-4.21933e-02,-4.18149e-01,9.50648e-03,-1.62284e-01,-5.61630e-02,6.25356e-01,-1.33922e-01,
-1.82990e-01,-8.66463e-02,-1.39011e-01,6.13789e-02,6.77058e-02,-2.22779e-01,-8.33980e-02,-1.93370e-01,5.61371e-02,-2.08765e-01,-1.41264e-01,-1.64314e-01,-1.39309e-01,-1.93959e-01,1.87240e-01,-4.13937e-02,
-2.30177e-01,1.49307e-01,-1.82787e-01,8.30052e-02,6.88455e-01,-2.22538e-01,1.13337e-01,-3.46531e-01,-2.29697e-02,8.25069e-02,-7.01488e-02,1.61930e+00,1.73592e-01,-3.28296e-02,4.77857e-01,-1.02248e-01,
-8.93965e-02,-2.49325e-01,-5.88734e-02,-2.03591e-01,-5.39917e-01,-1.70958e-01,-3.08153e-01,-7.98938e-02,-2.57071e-01,-2.51252e-01,-2.11119e-01,-9.79818e-01,1.86108e-02,-2.33263e-02,-2.95463e-01,-1.32009e-01,
1.37106e-01,-3.20921e-01,-5.99926e-01,-6.24263e-01,1.22773e+00,-6.01652e-01,8.05347e-02,1.68582e+00,1.70711e-01,-3.52429e-01,-1.23376e-01,5.13973e+00,6.83158e-02,-6.13395e-03,8.77299e-01,-8.42445e-01,
-6.37145e-01,-5.65645e-02,-1.91305e-02,-1.56996e-01,-1.07800e+00,-6.91532e-02,-8.95489e-01,9.86718e-01,-2.89605e-01,-3.02165e-01,-3.30087e-01,-2.50084e+00,-6.55570e-01,-3.99243e-03,-6.34645e-01,6.12437e-02,
-3.57775e-01,-8.14841e-02,1.86217e-02,-1.72292e-01,-4.91212e-01,-2.19964e-01,-5.45763e-01,1.25623e-01,-3.07917e-01,-3.61782e-02,-1.91539e-01,-1.19057e+00,-8.74374e-02,-5.71505e-03,-2.73309e-01,-1.54799e-01,
-1.19128e-01,1.70864e-02,-5.81811e-01,-1.68576e-01,2.64783e-02,-2.11888e-01,3.55594e-01,-2.68450e-01,-1.74601e-02,-4.97599e-02,-5.19645e-03,5.98477e-01,-5.85009e-01,-4.33745e-01,4.86271e-02,-4.01127e-01,
2.49376e+00,-3.04236e-01,-1.43634e+00,-2.27357e+00,5.89363e+00,3.50107e-03,1.53577e+00,2.41741e+00,9.45281e-01,-4.51815e-01,-1.58283e-01,1.77812e+01,9.27442e-01,1.07979e-01,4.14493e+00,-4.47808e+00,
-1.06390e-01,8.66595e-03,-3.68203e-01,-1.21382e-01,2.18775e-01,-1.81077e-01,6.20181e-02,-3.39620e-01,-2.52886e-01,-4.90839e-02,-1.68890e-01,1.15819e+00,-4.99431e-03,-2.44086e-03,4.91603e-01,-3.48249e-01,
-1.28360e-01,-2.63685e-01,-2.30040e-01,-1.47898e-01,1.85200e-01,1.53617e-01,2.01396e-01,-2.19472e-01,8.08199e-02,-1.23270e-01,-5.05223e-02,5.22725e-01,-1.62668e-01,-5.00134e-02,8.03129e-02,3.80018e-02,
3.59395e-02,-3.08455e-01,-1.34961e-01,7.73093e-02,1.14013e-02,-5.55021e-02,1.83498e-01,1.97016e-02,-1.49920e-01,8.50829e-02,-2.72593e-01,-9.06194e-02,-1.32470e-01,-3.32373e-02,-1.89122e-01,1.03781e-02,
-3.39573e-01,-3.04526e-01,-3.58701e-01,3.22947e-01,8.81641e-01,-4.95695e-01,1.76081e-01,-6.61947e-01,-5.17776e-01,-5.60691e-01,-3.21857e-01,1.73293e+00,6.62745e-01,-1.68931e-01,9.81511e-01,-5.46042e-01,
-1.80900e-01,-1.46159e-01,-3.71719e-02,-2.23334e-01,-1.05578e-01,-7.12960e-02,-2.29613e-01,-1.00630e-01,-1.94649e-01,4.26993e-02,-6.49040e-02,1.10927e-01,-2.90191e-01,-2.62056e-01,6.65335e-02,-2.38013e-02,
-1.97437e-01,4.03532e-02,-7.28622e-02,7.51961e-02,7.45709e-02,-3.97627e-02,-1.35200e-01,-2.58178e-01,-2.74524e-01,1.07707e-01,-4.41337e-03,-9.27862e-02,9.74009e-02,-2.87067e-01,-2.35228e-01,1.02678e-01,
-1.80728e-01,-1.27129e-01,-5.46640e-01,-3.13655e-01,4.22496e-01,2.51825e-01,-7.63620e-01,-4.15497e-01,-2.40710e-01,-3.16296e-01,-6.69111e-01,1.73592e+00,3.35766e-01,-1.23259e-01,1.27996e+00,-4.70747e-01,
7.43039e-01,-5.12259e-01,-4.31380e-01,-5.63372e-01,3.24943e+00,-1.20051e+00,3.23992e+00,-3.56971e+00,-7.96214e-01,-2.72200e-01,-5.29790e-01,1.31696e+01,2.55507e+00,-7.52820e-02,1.96333e+00,-2.03483e+00,
4.19240e-02,1.18361e-01,-1.48374e-01,-2.08048e-01,-3.21774e-02,7.04970e-02,-4.69815e-02,-8.07879e-02,1.83321e-02,-2.32895e-01,-8.41533e-03,5.66408e-01,8.19624e-02,-4.13415e-03,-1.73439e-01,5.88469e-02,
1.32218e-01,-1.53918e-01,-2.67373e-01,-1.36802e-01,1.36579e+00,-5.33718e-01,4.69294e-01,5.96640e-01,-1.51102e-01,-3.13936e-02,-1.62916e-01,4.45286e+00,2.88408e-01,-1.04442e-01,5.36306e-01,-4.79717e-01,
-4.31690e-01,-3.56630e-02,-3.41052e-01,-2.77101e-01,-1.13852e-02,-4.54375e-01,-5.01385e-02,2.91881e-01,-3.77583e-01,-5.33085e-01,-7.06126e-01,8.81168e-01,3.18264e-01,-2.29710e-01,2.93682e-01,-3.97219e-01,
-1.12656e-01,-2.32211e-01,-2.44472e-01,-8.06646e-02,-3.62247e-02,7.02316e-02,1.33658e-01,1.65367e-01,9.92081e-02,-2.95932e-01,-6.71819e-02,-1.01546e-01,-7.09305e-02,-1.87419e-01,-2.98448e-01,7.06419e-02,
4.59607e-02,-3.32215e-01,-1.73232e-02,-3.23216e-01,1.57540e-02,-1.82149e-01,-2.64634e-01,2.36077e-01,-2.78402e-01,-2.19980e-01,-2.31870e-01,5.61153e-01,-3.09528e-01,-1.46565e-03,-1.25349e-01,-1.07535e-01,
-3.00877e-01,-8.05617e-02,-3.15452e-02,-4.03529e-01,2.19993e-01,9.62773e-02,-1.61603e-01,-1.15978e-01,-2.08776e-01,-1.06825e-01,-9.88956e-03,2.06227e-01,-1.21785e-01,-1.97228e-01,-5.31368e-02,-1.10990e-01,
-1.74903e-01,-1.48384e-02,-2.00271e-01,-1.86448e-01,-1.99352e-01,-1.68778e-01,7.24300e-02,8.13969e-02,7.77654e-02,8.90093e-02,-5.38083e-02,-1.29158e-01,-9.11948e-02,-6.05045e-02,-9.10440e-02,-2.69692e-01,
1.56599e-01,7.83359e-02,-2.76330e-01,-2.10995e-01,-1.54131e-01,-1.72493e-01,-1.93846e-01,-2.24658e-01,-1.75552e-01,-2.63903e-01,-1.55488e-01,2.55619e-01,-1.64858e-01,-1.40131e-01,-7.35881e-02,1.42925e-01,
-2.84499e-01,-3.94246e-02,-1.87694e-01,-1.03075e-01,-9.24207e-02,-1.46557e-01,4.00749e-02,-1.49843e-01,-2.24189e-01,-7.21302e-02,-1.63737e-01,9.05791e-02,1.54367e-02,-1.34725e-01,7.90635e-02,-2.70031e-02,
1.96779e-02,-2.17657e-02,3.78825e-02,-8.01367e-02,-1.90526e-01,5.68280e-02,-2.56431e-01,3.33961e-02,-2.61705e-01,-2.35445e-01,-3.44949e-01,-6.56082e-01,-2.19495e-01,3.15308e-04,5.12599e-02,-1.58989e-01,
-3.83099e-01,3.68545e-01,-1.85789e-01,1.11704e-02,1.09502e+00,-1.28958e-01,-1.17145e-01,-7.79006e-01,-4.55473e-01,-6.52535e-01,-4.47198e-01,1.87436e+00,4.96274e-01,-1.02284e-01,1.72153e+00,-7.91373e-01,
-1.11002e-01,-2.21783e-01,-5.30205e-02,-7.97868e-02,-2.06343e-01,8.86468e-02,-2.09787e-02,-1.58600e-02,-1.60327e-01,1.10085e-01,-3.01640e-02,-2.50589e-01,-1.23704e-01,-2.03263e-02,-1.76862e-01,-2.31567e-01,
-1.15397e-01,-2.45781e-01,5.17980e-02,-1.17808e-01,1.46599e-02,9.23052e-02,8.47909e-02,-2.45569e-01,-2.38767e-01,8.10736e-02,-1.50250e-01,-8.02596e-01,5.30080e-02,-1.17708e-03,-1.26518e-01,-2.14369e-01,
-7.05751e-02,-1.95619e-01,5.43817e-02,-3.19512e-01,4.69714e-01,1.49660e-01,-1.15961e-02,3.22846e-01,1.09549e-01,1.03121e-02,-2.18895e-03,5.22506e-01,-1.09062e-01,-1.60149e-03,-2.93375e-02,-2.57945e-01,
-3.60067e-01,-3.87230e-01,-1.04613e-01,-2.30408e-01,-3.69015e-01,-1.02478e-02,-2.85254e-01,-2.82732e-01,-3.30712e-01,6.92890e-02,-8.06374e-02,-5.64802e-01,-2.48725e-02,-4.46181e-02,-3.85431e-01,-9.38800e-02,
2.06634e-01,1.54261e+00,1.14229e+00,-7.47270e-01,1.31790e-01,-7.02540e-01,2.88032e-01,2.05868e+00,-2.19633e-01,-2.70178e-01,-3.63603e-01,-1.90798e-01,-9.55028e-01,-4.31654e-02,1.79809e+00,-1.11717e+00,
-3.47433e-01,1.79883e-01,-7.57548e-03,-1.61848e-01,1.23934e-01,-1.17621e-01,6.06548e-03,-4.49221e-02,-2.31818e-01,-2.03012e-01,-1.35332e-02,-5.01333e-01,-9.88737e-02,-6.73892e-02,-4.30383e-01,-1.15511e-01,
-4.00497e-02,5.17749e-03,-2.77374e-01,-1.52302e-01,3.27709e-02,-1.55074e-01,-2.69594e-01,1.94264e-01,-3.25205e-01,-5.54530e-02,-1.34218e-01,1.94432e-01,-2.69664e-01,-2.63666e-01,-1.36636e-02,-1.21304e-01,
-1.94470e-01,-2.33127e-01,-2.13236e-01,-3.78986e-01,1.81376e-01,-3.80464e-01,-9.12126e-02,6.08845e-02,-1.39720e-01,-2.20571e-01,-4.33569e-03,8.47880e-02,-2.52280e-01,-2.92770e-01,-3.43847e-01,-2.32345e-01,
-2.32162e-01,-8.99791e-02,-3.00038e-01,5.96566e-02,8.52590e-02,-3.18055e-01,-3.19778e-01,-7.74690e-04,-3.49188e-01,5.29660e-02,-4.90792e-02,4.15476e-02,-1.05691e-01,-1.37627e-01,-2.16560e-01,-9.66218e-02,
-6.35078e-01,-5.58464e-01,-2.91649e-01,-6.64538e-01,2.02801e-02,-7.19972e-01,-7.44101e-01,-4.35337e-01,-5.30101e-01,-6.70541e-01,-3.35289e-02,5.25625e-01,-2.44900e-01,-1.76832e-01,-9.42448e-01,-7.26694e-01,
-2.25051e-01,-1.80775e-01,-1.86595e-01,-1.69255e-01,-1.59510e-01,-1.74137e-02,-6.54014e-02,-1.42055e-01,-1.26048e-02,-4.63300e-02,-5.74376e-02,-2.24584e-01,-3.44931e-01,-3.13418e-02,-2.34987e-01,1.43416e-02,
9.81380e-03,-6.24474e-02,1.55327e-02,1.12103e-02,-5.93822e-03,1.45485e-01,1.29914e-01,-3.07809e-01,-1.88634e-01,-2.90427e-01,-3.54461e-01,2.00344e-01,-1.48296e-01,-4.53654e-02,2.94788e-03,-1.87913e-01,
-4.45198e-01,-2.35155e-02,-1.53826e-01,-4.76539e-02,-1.17841e-01,-3.57725e-01,-6.81828e-05,4.34818e-02,-3.93889e-01,-3.42627e-01,-4.55153e-02,3.74764e-01,-3.10765e-01,-1.59668e-01,-4.45568e-01,-1.97473e-01,
-4.10080e-01,2.89441e-01,-8.18369e-02,1.59843e-01,7.34472e-03,-2.85015e-01,-3.42559e-02,4.50288e-01,-4.32994e-01,-3.30969e-02,-5.21064e-01,2.78775e-01,-1.18692e-01,-6.82452e-01,5.95352e-02,6.38710e-02,
-2.70197e-01,-4.16818e-02,-1.33444e-02,-1.13565e-01,9.18433e-02,-3.44121e-03,-2.00241e-01,-2.39605e-01,-2.43294e-01,7.13486e-02,-7.76715e-02,-2.82713e-01,6.02433e-02,-2.92180e-03,1.09965e-01,-1.32960e-01,
-5.33668e-01,-5.41399e-02,-2.01625e-01,-2.10107e-01,-1.34394e-01,-2.54724e-01,-1.81830e-01,-1.95596e-01,-1.63491e-01,-3.52651e-01,-1.73952e-02,6.60583e-01,-5.70586e-01,-2.13799e-01,-1.78142e-01,-5.90997e-01,
-1.62008e-01,1.22316e-01,-2.42753e-01,-2.19479e-01,-4.89863e-02,-1.00790e-01,-9.21587e-02,5.14832e-02,-2.65403e-01,5.53582e-02,7.94552e-04,2.12109e-01,-3.33753e-01,-9.66634e-02,1.91573e-01,-2.79051e-01,
-4.14394e-01,-8.77448e-02,-1.47494e-01,-1.12705e-01,-9.63745e-01,-2.68119e-01,-4.09500e-01,4.60177e-01,-3.86367e-01,-1.16888e-01,-1.83268e-01,-1.51905e+00,-4.60749e-01,-4.86792e-02,-8.85811e-01,7.47599e-02,
-3.23085e-01,6.73235e-02,3.20636e-02,-4.15705e-02,1.86019e-01,-7.05134e-02,-1.37294e-01,-9.84583e-02,-1.55092e-01,-1.45611e-01,5.42594e-04,4.78800e-01,-6.03908e-02,-6.77854e-02,6.13896e-03,-2.45996e-01,
-2.33975e-01,2.58711e-01,-1.82682e-01,2.04907e-02,-9.02057e-02,-1.30657e-01,2.15652e-01,1.71699e+00,-3.26804e-01,2.12541e-01,-2.93288e-01,-1.53529e-01,-1.39432e-02,-3.96962e-01,2.71312e-01,-1.02112e-02,
-5.49960e-03,-1.83509e-01,-1.35435e-01,-8.32813e-02,-9.27369e-02,-6.09544e-02,-1.89942e-01,-1.07513e-01,-1.10618e-01,-1.83426e-01,-1.02973e-01,-3.43045e-02,-4.10314e-02,-2.28245e-02,-1.81560e-01,-7.02703e-02,
-1.85730e-01,-2.06197e-01,5.18397e-02,-7.90762e-02,1.45064e-03,2.07421e-01,-1.15447e-01,7.10277e-02,-1.49015e-01,-2.09961e-02,-2.17932e-01,-1.71445e-01,1.35231e-01,-8.13651e-02,-1.47225e-01,2.13113e-01,
1.01794e+00,8.48196e-01,7.69684e-01,9.40380e-02,2.08662e-01,5.84850e-01,1.54145e+00,2.78392e+00,6.44087e-01,6.58867e-01,-5.46971e-01,-2.70487e-01,2.04687e+00,-2.95726e-01,1.69213e+00,1.08071e+00,
-1.14417e-01,-1.49524e-01,-2.72458e-01,-4.83141e-02,-4.33885e-01,1.63582e-02,1.35694e-01,-5.89397e-01,-3.78006e-01,-1.68185e-01,4.20159e-04,-3.45685e-01,-1.96910e-01,-2.26252e-02,-9.22851e-02,-1.11377e-01,
-1.34372e-01,8.65442e-02,-4.03110e-02,-1.87285e-01,-1.77276e-02,-1.83908e-01,-3.15434e-01,1.30426e+00,-3.82404e-01,1.47912e-01,-3.58950e-01,2.68402e-01,-1.31724e-01,-3.23617e-01,-6.95691e-03,-2.60626e-02,
-7.27630e-01,-1.27950e-01,-4.73149e-01,8.72149e-02,-6.13862e-01,-8.70715e-01,2.88968e-01,-2.01982e-01,2.44016e-01,-2.11463e-01,-1.10695e-01,-1.04631e+00,-5.17136e-01,-4.01475e-02,5.35235e-01,6.75930e-01,
8.49764e-02,1.04925e-01,-2.05476e-01,-5.12581e-02,-2.16541e-01,8.03700e-02,-3.69675e-02,4.59151e-02,-1.03853e-01,7.48382e-02,-3.18248e-01,9.10934e-02,-1.93895e-01,-3.53919e-02,-2.49188e-02,2.85021e-02,
-3.87433e-02,-1.63482e-02,-1.40853e-01,1.11203e-01,1.55442e-01,-1.98678e-01,1.26426e-01,-1.09388e-01,2.62530e-02,-1.32348e-02,-1.11374e-01,1.76656e-01,-1.32820e-01,-3.89540e-03,1.28006e-01,1.31149e-02,
-1.80499e-03,3.36141e-02,-7.18788e-02,1.76750e-02,-1.20544e-01,6.28323e-02,-1.19405e-01,2.41261e-02,-1.47785e-01,-1.33361e-01,-1.96434e-01,-9.08187e-02,-1.06542e-01,-1.50652e-02,-1.29813e-01,3.59380e-02,
-4.12685e-01,-5.04162e-01,-5.98773e-01,-1.56336e-01,1.85029e+00,-8.38547e-01,3.99954e-01,-1.91885e+00,-3.45986e-01,-4.69761e-01,-7.56091e-01,4.30068e+00,9.40720e-01,-2.93961e-01,1.45382e+00,-1.27768e+00,
1.42438e-01,-5.24133e-02,-1.69214e-01,2.10891e-01,5.65205e-02,-1.05316e-01,2.18235e-02,-1.80198e-01,1.20115e-01,-7.71498e-02,-1.93746e-01,-1.52073e-01,-1.01446e-01,-1.97556e-01,5.60199e-03,-9.50997e-02,
9.97263e-02,9.66247e-02,-2.52323e-01,9.32003e-02,-1.00538e-01,-3.03036e-01,-1.08463e-01,-1.00984e-01,-1.15855e-01,-2.40162e-01,-5.92501e-02,2.09794e-01,-6.71987e-02,-2.58287e-01,1.03883e-01,-3.17192e-02,
-4.27205e-02,4.56757e-02,8.77140e-02,-8.93246e-02,-3.86138e-02,-7.61046e-02,9.97412e-02,-3.14440e-01,9.59446e-02,-2.91316e-01,-1.79676e-02,-4.03144e-01,-2.60394e-01,-6.48608e-04,-1.34615e-01,-2.79674e-01,
-2.62631e-01,-3.26949e-01,-2.96306e-01,-1.74247e-01,-1.45075e-01,-3.30204e-01,6.27685e-02,-1.28315e-01,-4.41929e-01,-2.71190e-01,-7.12567e-02,-8.97293e-02,-4.23341e-01,-2.74815e-02,-1.65328e-01,-3.42852e-01,
-3.76316e-02,-2.01353e-01,-1.42031e-01,2.10762e-01,-1.60878e-01,-7.52632e-02,5.11853e-02,-1.30895e-01,-3.86022e-02,2.10247e-01,-1.98143e-01,-1.51799e-01,-5.59273e-02,-1.94072e-01,-2.27278e-01,-1.39307e-01,
1.43010e-01,-3.63397e-02,-4.47318e-03,-2.86965e-01,1.85633e-01,2.35310e-01,-6.78042e-02,-2.67003e-01,-3.22385e-01,-2.81797e-01,-4.07249e-01,7.10886e-01,1.42000e-01,-2.17489e-02,-7.47442e-02,8.03554e-02,
-4.10602e-01,-2.36412e-01,-3.35148e-01,-2.92836e-01,3.14076e-01,-8.03779e-01,-1.00828e-01,4.85474e-02,-3.10626e-01,-5.49927e-01,-3.68282e-01,1.51744e+00,1.39359e-01,-2.33696e-01,1.81387e-01,-3.37853e-01,
-1.32247e-01,1.59608e-02,-2.76675e-01,1.07166e-01,1.88083e-01,1.79150e-01,-2.15915e-01,-4.18097e-01,-2.70917e-01,-1.12406e-01,-3.76940e-01,5.09724e-01,7.77083e-02,-8.24799e-04,6.85493e-01,-2.83570e-01,
8.86486e-02,-2.27528e-01,1.31686e-01,-4.38536e-02,1.10941e-01,-1.17705e-01,2.03120e-01,4.58057e-02,9.22736e-03,-5.92176e-02,-5.15823e-02,2.58259e-02,5.57920e-02,-7.93366e-02,1.26649e-01,6.09112e-02,
-4.74269e-01,-1.27970e-01,-2.50259e-01,-4.89534e-01,-1.51088e-01,-3.56160e-01,-4.40123e-01,-5.01477e-01,-4.66781e-01,-4.59475e-01,-1.13311e-01,7.29861e-03,-3.03887e-01,-5.82971e-02,5.14656e-01,-9.36002e-01,
-3.23285e-01,-1.40919e-01,4.05510e-02,5.09593e-02,1.73004e-01,-1.61564e-01,-2.88981e-01,-7.53008e-03,3.67888e-02,-5.33801e-02,-3.30181e-02,-2.34507e-01,9.60593e-03,-1.98411e-03,-2.63191e-01,-7.15051e-02,
-6.31247e-01,-3.00208e-01,1.49670e-01,1.50162e-01,-1.07010e+00,-5.62360e-01,-8.61200e-01,-9.25687e-01,-4.23508e-01,-3.15462e-01,-8.17559e-02,-2.60529e+00,-2.78481e-01,-7.19915e-03,-1.33585e+00,1.44984e-01,
3.75301e-01,5.95327e-01,-1.14499e-01,-5.19182e-01,3.47679e+00,-1.17335e+00,3.25718e+00,-5.22557e+00,-9.52254e-01,-6.78709e-01,-8.83749e-01,1.40704e+01,3.21688e+00,-6.28362e-02,2.41366e+00,-2.56866e+00,
-1.97841e-01,-2.07517e-02,-1.41255e-01,-3.49258e-02,-1.49248e-02,5.39843e-02,7.15131e-03,1.70247e-02,-2.00598e-01,1.11607e-01,-5.77467e-02,8.99017e-02,-7.15673e-02,-1.43237e-01,-5.43812e-02,-1.18714e-01,
6.67330e-02,-1.24211e-01,-2.16815e-01,1.05674e-02,4.60346e-02,-1.68905e-01,-7.98138e-02,2.12577e-01,7.33969e-03,-1.10300e-02,-9.65643e-02,1.30579e-01,1.82108e-01,-1.18560e-01,1.02784e-01,-6.67600e-02,
-1.58283e-01,2.74766e-02,-1.82460e-01,-1.18625e-01,1.65495e-02,-8.87814e-02,1.69482e-01,-1.62523e-01,-1.79675e-01,-1.09424e-01,-1.79265e-01,-1.22254e-01,-1.39302e-02,-4.71518e-02,5.94470e-02,-1.38279e-01,
1.64085e-01,-3.09990e-02,3.84487e-02,-1.78058e-02,-8.03522e-02,-1.35785e-01,1.69162e-02,1.84590e-01,-4.77220e-03,-1.35381e-01,-2.37460e-01,4.26893e-02,-1.62800e-01,-8.25292e-03,2.37189e-01,-2.60957e-01,
-5.43976e-01,1.46455e+00,4.03961e-01,6.59981e-01,-5.70608e-01,-1.47564e+00,1.42349e+00,-1.98725e-01,5.89447e-01,3.52204e-01,-5.71113e-01,-2.06314e+00,1.08510e-01,-1.09225e-01,1.72008e+00,2.15961e+00,
-1.97845e-01,-3.49397e-01,-3.51421e-01,-1.70045e-01,7.34875e-01,-1.81219e-02,-5.39986e-01,7.63020e-01,-2.29478e-01,-1.98611e-01,1.79638e-03,9.98841e-01,-2.89080e-01,-3.18968e-02,-5.87951e-01,-7.55351e-01,
2.19367e-02,-1.38597e-01,-2.68241e-01,4.67211e-03,2.38878e-01,1.43740e-02,-6.45897e-01,-9.03264e-02,-1.52048e-01,-1.66722e-01,-1.99692e-01,6.02441e-01,-1.70750e-01,-4.07023e-04,5.94066e-01,-3.08255e-01,
-2.33470e-01,-1.36617e-01,-8.96234e-02,-2.78696e-02,-3.43217e-01,7.57861e-02,-3.03074e-01,1.78113e-02,-5.00446e-02,-9.97118e-02,-1.55549e-01,-7.98472e-01,-5.01869e-02,-6.59184e-04,-3.57421e-01,9.24819e-02,
2.61744e-02,-1.09146e-01,-2.09092e-01,-9.14404e-02,1.37992e-01,-1.95096e-01,-1.18085e-01,-2.15737e-02,-1.68072e-01,-1.41344e-01,-1.06525e-01,-5.04422e-02,-5.19885e-02,-2.01861e-01,9.75926e-02,1.63857e-01,
-1.75679e+00,1.16473e+00,-1.36259e+00,2.29516e-01,3.17801e-02,5.42197e-01,2.59649e+00,-1.05132e+00,-5.40674e-01,-7.32870e-01,-4.19089e-01,-6.92879e-02,-1.30527e+00,-2.20611e-01,1.56709e+00,9.53700e-01,
6.71868e-02,1.96527e-01,-5.40327e-01,-6.46252e-01,1.04796e+00,-4.64090e-01,1.70857e-01,1.62298e+00,1.80573e-01,-6.64714e-01,-3.70615e-01,3.61221e+00,2.10053e-02,-1.77906e-01,-2.71424e-01,-6.15594e-01,
6.63391e+00,5.27618e-01,5.16470e+00,2.05477e-01,7.62354e-02,4.01062e+00,3.93793e+00,4.61924e+00,-3.76553e-01,8.09218e-01,-2.15497e-01,2.20820e+00,4.40843e+00,-1.09506e-01,1.45185e+00,8.39332e-01,
-2.29252e-01,5.94826e-01,-5.47425e-01,4.25975e-01,2.12503e+00,2.94137e-02,-9.14120e-01,-2.69451e+00,-4.64750e-01,-9.90380e-01,-9.34642e-01,3.24924e+00,1.15058e+00,-2.80522e-02,4.02110e+00,-1.96120e+00,
-4.45371e-02,-2.87812e-02,-1.37321e-01,1.38955e-02,-1.36318e-01,-2.52954e-01,-1.53376e-01,1.79187e-01,6.80491e-02,-4.30693e-02,-2.72641e-05,1.24650e-01,2.34748e-02,-5.24061e-02,-5.30118e-01,-3.92082e-01,
-7.43425e-02,-9.67964e-02,-3.18004e-01,8.28730e-02,-2.09200e-01,8.95583e-02,3.38357e-01,-2.34645e-02,-3.21305e-01,-3.50833e-01,-3.98554e-01,4.15075e-01,-1.04967e-03,-1.23206e-02,3.73525e-01,-1.12514e-01,
-7.91535e-03,-5.34693e-02,-1.91312e-02,1.05743e-01,-4.29729e-01,1.84185e-01,-3.92522e-01,-2.24624e-01,-1.28160e-01,-7.61231e-03,-1.91920e-01,-9.23137e-01,-1.77451e-01,-2.52129e-02,-1.98195e-01,-2.25067e-02,
-4.49130e-02,-9.96701e-02,-2.37976e-01,-7.96633e-02,-1.89468e-01,-2.43529e-01,-6.74213e-01,-1.01312e-01,1.40285e-02,-3.77814e-02,-1.78170e-01,-1.29204e-01,-2.58380e-01,-1.01597e-02,1.15217e-01,-2.60286e-02,
-6.33378e-02,
-9.00359e-02,
2.76881e-01,
-2.16842e-01,
-1.02779e-01,
-1.05523e-01,
-2.45180e+00,
-4.06765e-02,
-5.72235e-01,
-9.29470e-02,
-3.83008e-03,
-1.46015e-01,
-1.57052e-01,
0.00000e+00,
-1.03395e-01,
-1.29266e-01,
-1.59963e-01,
-2.02004e-01,
-1.72017e-01,
-2.92729e-01,
-4.04299e-02,
-9.86777e-02,
-2.48535e-01,
-1.29227e-01,
-3.24558e-01,
-1.22483e-01,
-1.17011e-01,
-2.79321e-01,
-2.04499e-01,
-2.33360e-02,
-1.90616e-01,
-2.95352e-01,
-1.05834e-01,
-1.40138e-01,
-2.13265e-01,
-5.06446e-02,
-5.69973e-02,
-1.22575e-01,
-1.04147e-01,
-2.43564e-01,
-3.58976e-02,
-6.72907e-02,
3.14014e-04,
-2.81123e-01,
6.92243e-01,
-2.49142e-02,
-1.07149e-01,
-2.03817e-01,
-1.52955e-01,
-5.96582e-01,
-1.24434e-01,
-1.33362e-01,
-2.61372e-01,
-2.48253e-01,
-7.54472e-02,
-4.17216e-01,
-1.36130e-01,
-2.06009e-01,
-1.15907e-01,
-1.13692e-02,
0.00000e+00,
0.00000e+00,
6.35658e-01,
-1.87182e-01,
-1.03789e-01,
-4.95246e-01,
-1.09118e-01,
0.00000e+00,
0.00000e+00,
-5.18803e-01,
0.00000e+00,
-7.90588e-02,
-2.01283e-01,
-1.80562e-01,
0.00000e+00,
-9.64398e-02,
-3.37013e-01,
-4.91489e-02,
-5.97049e-02,
-3.79030e-01,
-1.31247e-01,
-4.06022e-01,
-2.75310e-01,
0.00000e+00,
0.00000e+00,
-5.55744e-02,
-4.48076e-02,
-5.91824e-01,
-1.46496e-01,
-1.29278e-01,
-9.31793e-02,
-3.27361e-02,
-1.41070e+00,
-2.71552e-01,
7.92282e+00,
-2.63582e-01,
-6.89576e-02,
-9.26093e-02,
-1.06859e-01,
-1.27117e-01,
-5.27852e-03,-3.05458e-02,-6.68850e-01,1.22213e-01,1.44392e-03,8.33186e-02,7.10743e-02,9.60944e-02,7.89396e-02,-1.03731e-02,-4.60705e-02,-8.49120e-03,4.86582e-02,3.57010e-02,2.74896e-03,-1.01263e-02,1.15442e-02,-2.47088e-02,-1.63219e-02,1.42906e-02,-5.60542e-02,-2.53362e-02,-1.37092e-01,-1.70229e-02,-3.84047e-02,3.48811e-02,-1.20333e-02,1.04480e-01,-1.26360e-02,4.18022e-03,1.90520e-01,1.89355e-01,-1.55788e-01,-1.05656e-02,1.26349e-02,1.78228e-02,-1.26418e-01,4.75349e-02,2.87336e-02,5.08767e-02,1.78859e-02,7.34464e-02,-5.27915e-03,5.86471e-03,-1.42671e-01,-8.06485e-03,-5.33247e-02,-1.50902e-02,-1.00099e-01,-4.42384e-02,4.68118e-03,1.14777e-01,8.16535e-02,-1.07787e-01,3.29869e-03,-1.53370e-02,-4.59807e-03,6.67131e-02,-4.74192e-03,-2.11228e-01,-2.71754e-02,-8.49934e-02,-6.03212e-01,-1.21313e-03,-2.01140e-01,-4.58584e-03,-3.72503e-02,1.08601e-01,1.21704e-01,3.23737e-01,-7.10152e-02,-1.42371e-01,6.25168e-04,-2.74445e-03,-1.08837e-01,4.90955e-02,2.24140e-01,7.64042e-02,-1.81992e-01,5.36820e-04,-1.20132e-03,2.10804e-02,-7.81621e-02,-1.62313e-01,1.27449e-01,6.41033e-02,-4.33236e-03,-4.93272e-02,-1.37301e-02,-9.11320e-04,4.61466e-02,-1.33480e-01,2.85295e-01,3.03573e-01,-1.59896e-01,3.84239e-02,-2.27132e-03,-1.72827e-02,2.60231e-02,2.22662e-03,
2.45960e-01,
