// Neural Network File Format by Kyle Julian, Stanford 2016
4,16,1,150,
16,150,100,50,1,
0,
0,0,0,0,0,0,0,0,0,-3,0,1,0,0,0,0,
10,2,6,1,1,1,1,11,6,1,5000,50,999,7,2,1,
5,1,3,0.5,0.5,0.5,0.5,5.5,3,-1,2500,25.5,499.5,3.5,1,0.5,0.5,
10,2,6,1,1,1,1,11,6,4,5000,49,999,7,2,1,1,
-1.91866e-01,-4.36496e-02,-4.12942e-01,-2.15434e-01,2.53894e-02,-2.50846e-01,-1.32167e-01,-5.86776e-01,-2.86746e-02,-4.16139e-02,-1.04464e-01,-1.53595e-01,-2.22166e-01,-8.29696e-02,-3.79801e-01,-2.05376e-01,
-1.39541e-01,3.83564e-02,-8.48972e-02,2.89495e-02,6.46354e-02,-9.28298e-02,1.86100e-02,-2.45706e-01,2.20181e-02,1.32334e-01,-2.19034e-01,-1.73473e-01,-1.41269e-01,-2.46840e-03,-9.89153e-02,-5.83491e-02,
1.98262e-02,1.02296e-02,-5.59993e-02,-1.78487e-01,1.82599e-01,-7.91442e-02,-9.03358e-02,-5.06676e-01,-6.64220e-02,3.11363e-02,-7.06193e-02,2.11037e-01,1.36359e-01,-1.12433e-03,-2.48866e-01,-1.97996e-01,
-1.23851e-01,-1.31026e-01,1.51091e-02,-6.47215e-02,-7.28944e-02,6.00987e-02,-2.22338e-01,1.08354e-01,-1.18509e-01,-1.27983e-01,-1.66387e-01,-1.00228e-02,-1.19885e-01,-5.69533e-02,-1.84286e-01,-2.03935e-01,
-7.55840e-02,-8.00983e-02,-9.52926e-02,4.37164e-02,-1.74637e-01,-1.08847e-01,-5.54119e-03,-1.78664e-01,-1.38784e-03,9.44802e-02,-6.52466e-02,2.08863e-01,-4.93438e-02,5.40878e-04,-2.42673e-01,-1.56954e-01,
1.41702e-02,1.03654e-02,-3.01342e-01,-5.40824e-02,1.41095e-01,-3.75740e-01,-7.58755e-01,-6.67387e-01,-3.08400e-01,-3.17976e-01,-3.61598e-01,4.44227e-01,1.31712e-01,2.59282e-03,1.39608e+00,-4.21891e-01,
-3.36366e-01,1.33644e-01,-3.38709e-01,-3.46122e-01,5.67433e-01,-6.39550e-01,-4.52878e-01,-5.41705e-01,-2.60276e-01,-4.42058e-01,-3.16990e-01,2.85583e-01,6.01118e-02,-1.68557e-01,4.74766e-01,-2.19445e-01,
-4.46313e-02,-1.52348e-01,-1.70300e-01,-2.44320e-01,2.75909e-02,-1.65492e-02,-2.95247e-01,-3.47313e-01,3.75709e-02,2.34783e-02,-1.49318e-01,-1.12997e-01,1.18144e-01,-9.69989e-04,4.19933e-01,-9.38876e-02,
9.34201e-03,4.98957e-02,-4.32499e-03,-1.51260e-01,-2.26482e-02,-1.33916e-01,-2.09650e-01,7.66394e-02,2.96910e-02,-1.29562e-01,-2.47839e-02,-2.76174e-02,-1.08979e-01,-2.15174e-01,-1.84922e-01,1.21853e-01,
-3.51641e-02,-2.32402e-02,2.62303e-02,-6.24280e-02,1.87155e-01,-1.51350e-01,-1.86416e-01,-9.87309e-02,-8.89619e-02,-4.05603e-02,-2.22730e-01,1.64106e-01,-3.08247e-01,-1.64149e-01,-4.00654e-02,1.41586e-02,
1.10827e+00,-9.19029e-01,-1.14256e+00,-1.68284e+00,1.46211e+00,-1.02746e+00,3.11209e+00,-3.70054e+00,-2.29420e-01,2.17633e-01,-4.34315e-01,1.70409e+01,1.55229e+00,-1.26519e-02,3.35706e+00,-2.87427e+00,
1.54577e+00,-1.67318e+00,2.42376e+00,-7.42114e-02,-1.07111e+00,3.78277e+00,4.64439e-01,4.00016e+00,-5.54977e-01,6.35951e-01,-5.50750e-01,-6.20413e+00,2.18371e+00,-1.01501e-01,-1.48005e+00,1.69309e+00,
4.95415e-02,6.60574e-01,-2.88907e-01,-1.05304e-01,7.57710e-01,-1.37295e-01,-6.48759e-01,-1.42018e+00,-4.53644e-01,-6.03540e-01,-5.97542e-01,2.60117e+00,9.41555e-01,-9.89984e-05,3.50054e+00,-8.14820e-01,
-3.07881e-01,-8.63699e-02,-2.74351e-01,-9.60135e-02,7.33385e-02,-2.56255e-01,-2.93289e-02,8.48070e-02,6.69505e-02,8.07524e-02,-2.74341e-03,2.44289e-01,-1.04423e-01,-1.34926e-01,-2.07207e-01,-1.77028e-01,
-7.63959e-01,3.90236e-01,-4.44558e-01,8.92100e-03,-4.27987e-02,-7.65570e-03,2.31669e-01,-1.07437e+00,-3.08272e-01,-3.45725e-01,-1.04473e-01,-6.22423e-02,-1.22721e+00,-2.77943e-01,7.83032e-02,-1.52078e-01,
9.16298e-02,2.69269e-01,-4.66518e-01,-1.18778e-01,7.46515e-01,-5.85144e-01,-8.75586e-01,-1.01424e+00,-7.83329e-02,-6.67086e-01,-5.11876e-01,2.45594e+00,6.26336e-01,5.22771e-03,2.52159e+00,-6.27755e-01,
-7.35202e-02,4.53931e-01,-2.88527e-01,1.80759e-01,1.19907e+00,-3.22015e-01,-1.97255e+00,-1.54837e+00,-2.80971e-01,-4.99057e-01,-9.31273e-01,1.31397e+00,7.94127e-01,-3.62329e-02,3.58904e+00,-8.70252e-01,
4.56798e+00,9.94005e-01,4.49491e+00,1.08322e+00,-7.00073e-01,4.81655e+00,4.66321e+00,7.67414e+00,7.21700e-01,4.66631e-01,-3.94822e-01,-7.04884e+00,3.85289e+00,-7.69439e-02,-3.60984e-01,3.23912e+00,
-1.09273e-01,-1.58385e-01,1.68203e-01,1.38922e-01,9.38462e-02,-1.49268e-01,-8.00572e-02,-7.16051e-02,-4.94542e-02,8.03570e-02,-8.34519e-02,-3.42041e-03,3.48046e-03,-1.62467e-01,-1.14209e-01,-8.69010e-02,
4.84928e-02,-3.74881e-01,-4.49488e-01,-1.24253e-01,1.44777e-01,-5.67823e-01,5.53762e-01,-7.69860e-01,-4.30952e-01,-5.54390e-02,-1.07461e-01,4.66319e+00,2.25916e-01,-2.81930e-02,-9.69185e-02,-2.29371e-01,
-1.81433e-01,-4.38507e-01,3.48506e-01,1.03239e-01,-2.83725e-01,3.98255e-01,-7.17997e-01,7.88644e-01,-3.62818e-01,-1.30881e-01,-3.42659e-01,-3.87787e+00,-6.45534e-01,-2.20706e-02,-1.54511e+00,1.37470e-01,
1.28077e-01,1.00618e-01,-8.03643e-02,-2.35364e-01,2.63588e-03,-2.47374e-01,-3.87024e-02,1.64428e-01,1.27061e-01,-1.73385e-01,-6.52337e-02,-1.10090e-01,-8.78067e-02,-6.45318e-02,-1.81141e-01,-2.10091e-02,
-2.52542e-03,-2.79920e-01,-2.73251e-01,-3.90557e-01,-4.79043e-02,-2.50534e-01,-1.42985e-01,-1.70393e-01,-1.83990e-01,-2.38357e-01,-1.10170e-02,2.59774e-01,-3.78024e-02,-2.11753e-01,-3.28449e-01,-3.37228e-02,
1.26053e-01,-1.83933e-01,-3.21031e-01,-7.28121e-01,2.78584e-01,-9.98992e-02,9.14388e-01,5.46822e-02,-1.13837e-01,-3.62026e-01,-3.98636e-02,5.08990e+00,-2.04536e-03,-5.05229e-02,2.40972e-01,-5.63624e-01,
1.31498e-01,-1.88002e-01,-2.14462e-01,-1.27599e-01,-8.47904e-03,6.18305e-02,-2.34763e-01,1.85086e-01,-1.14999e-01,-1.02554e-01,-1.54510e-02,1.77241e-01,5.03327e-02,-1.62585e-01,3.02335e-02,4.40157e-02,
-2.36242e-01,1.31516e+00,-4.21969e-01,4.70235e-01,3.95489e-01,6.88371e-01,-2.47772e+00,-1.32658e+00,-8.52149e-01,-1.46488e+00,-1.78225e+00,2.27025e+00,2.45620e+00,-1.05395e-02,4.28977e+00,-1.06884e+00,
3.47044e-02,-6.95425e-01,-4.69843e-01,6.54856e-01,-1.71895e-01,-5.63917e-01,-1.06949e+00,-1.26717e-01,6.73534e-01,1.46035e-01,-2.17346e-01,-1.25860e+00,-9.23575e-01,-1.83711e-01,2.93081e-01,5.44841e-01,
-2.46468e-01,-4.78551e-02,-3.51499e-01,-6.14505e-02,1.61755e-01,-2.19961e-01,3.06270e-02,-3.00708e-01,1.34704e-01,-1.31620e-01,-3.80458e-03,3.18915e-01,-3.35642e-01,-6.90427e-02,1.58026e-01,-3.03868e-01,
5.10584e-02,-1.69589e-01,-1.02006e-01,1.08151e-01,-3.38102e-02,-2.92243e-02,-1.68873e-01,-5.37873e-02,1.20975e-01,-2.52505e-01,-1.53884e-02,-1.51934e-01,-2.30110e-01,-5.09361e-02,-1.91614e-02,-1.32332e-01,
-7.18215e-02,-1.57955e-01,-3.30653e-01,-4.81903e-02,-1.73817e-01,-2.62633e-01,-5.98176e-01,-2.52213e-01,-2.56239e-01,-1.37064e-01,-2.05450e-02,1.12151e-01,6.31643e-02,-3.78411e-02,5.44935e-01,-2.81271e-02,
-3.05258e-01,-1.76363e-02,-2.47660e-01,1.46237e-01,3.36100e-02,-2.93686e-01,-5.66644e-03,-4.50374e-02,-6.79538e-02,1.27198e-02,-2.29470e-02,-3.96746e-01,-1.95695e-01,-4.06908e-02,3.07788e-01,5.72090e-02,
6.08612e-02,-2.46631e-01,2.29405e-02,-3.80492e-03,1.19432e-01,-2.82149e-01,-2.61807e-01,-2.73782e-01,-2.39247e-01,3.17691e-03,-1.51370e-01,6.97588e-02,-6.92253e-02,-1.04721e-02,-1.27915e-01,-1.17510e-01,
-4.31439e-02,-1.86271e-01,-1.54375e-01,-2.52703e-02,2.23676e-01,-2.41183e-01,-5.65763e-02,-2.37728e-01,-2.54152e-01,-3.21251e-01,-1.17385e-01,2.34430e+00,1.79165e-01,2.17437e-04,3.18114e-01,-3.35704e-01,
-1.80048e-01,-1.82964e-01,-2.14251e-03,-1.52488e-01,1.02360e-01,-7.05427e-03,1.87224e-02,-7.81758e-03,1.00790e-01,-1.40420e-01,-1.14866e-01,1.21659e-04,-1.54546e-01,-4.71922e-02,-1.21318e-01,-1.26910e-01,
-2.06047e-01,-1.11988e-01,-1.56963e-01,-2.78895e-01,4.42344e-01,-1.56797e-01,1.68323e-01,1.44559e-01,6.28787e-02,-2.01231e-01,-1.36214e-01,3.42660e+00,1.67539e-01,-2.39090e-02,5.69641e-01,-4.81151e-01,
-2.94752e-01,-3.41529e-01,-2.56252e-01,-1.21076e-01,2.17246e-02,-2.22506e-01,-7.44010e-02,1.14233e-02,-1.73558e-01,-2.74661e-01,-9.10681e-03,3.07858e-01,-6.41045e-02,-1.46603e-01,-2.92171e-01,-3.11534e-01,
5.04433e-01,-3.20852e-01,-7.72619e-01,-9.56879e-01,1.07572e+00,-6.11472e-01,1.64688e+00,-1.41098e+00,-3.05348e-01,3.72369e-01,-1.78161e-01,1.26637e+01,4.74124e-01,-1.69071e-02,2.16723e+00,-1.35411e+00,
6.09027e-02,-1.00528e-02,-3.51761e-01,-1.67527e-01,2.55083e-01,-3.74309e-01,3.39297e-01,2.47985e-01,6.40816e-03,-9.32161e-02,-1.15186e-01,2.28162e+00,4.41926e-01,-1.81319e-02,4.20987e-01,-2.99186e-01,
8.93947e-02,-1.59585e-03,-2.25029e-02,7.71573e-02,1.79576e-02,1.20866e-01,-1.11129e-01,7.79047e-02,6.59869e-02,-1.85289e-01,-3.13833e-02,2.31554e-01,-9.86738e-02,-2.19595e-01,7.53750e-03,-7.73325e-02,
3.34954e-01,2.06451e-02,3.03512e-01,-2.16401e-01,5.86962e-02,2.11834e-01,1.97710e-01,2.56470e-01,-1.90231e-02,-2.53331e-02,-5.51185e-02,-1.07711e-02,1.45529e-01,-1.05285e-01,6.44264e-01,-2.72462e-01,
-3.94981e-02,1.25236e-01,1.72058e-01,-4.70367e-02,-7.25065e-02,5.46382e-02,-9.88757e-02,-8.61037e-02,8.44680e-03,5.97256e-03,-3.95488e-02,-1.59844e-01,-8.43921e-02,-1.48524e-01,6.31085e-02,1.78785e-01,
-1.18089e-01,3.77180e-02,-1.00898e-01,9.86276e-02,-8.83403e-02,-1.00273e-03,-2.29298e-01,-9.39854e-02,8.67812e-02,9.48762e-02,-1.44018e-02,2.79787e-01,-1.88689e-01,-5.18270e-03,-6.45644e-02,-5.85073e-04,
-3.42116e-02,-1.79029e-01,-2.18764e-01,-1.49423e-02,-6.14698e-02,-3.49959e-01,-4.61614e-01,3.08051e-01,-2.08221e-01,-1.15699e-01,-4.83495e-01,-6.91026e-01,4.44153e-02,-2.21484e-02,1.88429e+00,-5.46932e-01,
-1.64907e-01,-2.82828e-02,-3.08553e-01,1.60978e-01,5.93468e-02,-9.10720e-02,3.89307e-01,-9.89693e-02,4.08898e-02,-2.73135e-02,-1.29133e-03,1.03048e-01,-2.97460e-01,-1.84660e-01,-7.27436e-02,2.73962e-02,
-3.74469e-01,4.19837e-02,-5.56688e-01,-3.10283e-01,1.82803e-01,-3.02009e-01,-2.41258e-01,-4.71088e-01,-1.41270e-01,-1.29595e-01,-1.88286e-05,-2.68734e-01,-4.94500e-01,-1.38516e-01,-2.67519e-01,-2.18047e-01,
1.10496e-01,-1.66018e-01,4.80334e-02,4.17385e-02,6.49644e-02,-1.98024e-01,-9.08698e-02,1.28535e-01,7.97824e-02,9.00710e-02,-1.98230e-02,3.00038e-02,-9.53175e-02,-1.85673e-01,-1.27332e-02,8.31108e-02,
2.27824e-01,1.91582e-01,2.27436e-01,-1.01143e-01,8.26102e-02,1.82689e-01,-1.57411e-01,4.63017e-01,8.52050e-03,-6.96557e-02,-4.68523e-02,-3.45199e-03,2.26956e-01,-3.03409e-01,1.23568e-01,9.89793e-02,
-1.31716e-01,-2.38875e-02,-1.41169e-01,5.32840e-02,6.64850e-02,2.79307e-02,6.73518e-02,-9.22108e-02,7.36486e-02,-5.73491e-02,-1.42548e-01,-1.18371e-01,5.23773e-02,-1.37301e-01,-6.73142e-02,-1.41288e-01,
4.54579e-02,5.28567e-02,-3.76310e-01,9.15989e-02,1.35468e-01,-1.51422e-01,-7.92098e-01,-9.49246e-01,-1.32589e-01,-3.92082e-01,-3.60846e-01,1.19231e+00,3.67371e-01,-1.80588e-03,1.69070e+00,-3.98385e-01,
-6.40074e-02,-1.42858e-01,-2.42292e-01,8.87358e-02,1.78064e-01,-2.53244e-02,-9.15862e-02,-1.63580e-01,-1.59817e-01,1.02063e-01,-1.98590e-01,-7.51798e-02,-1.36639e-01,-1.62286e-01,-1.35254e-01,-3.04475e-02,
-2.76792e-01,6.08888e-02,-1.17274e-01,-7.19315e-02,-1.03998e-01,4.68013e-03,-9.74481e-02,-6.07515e-02,1.12813e-01,-1.52284e-01,-2.44869e-02,-3.17365e-03,-4.09275e-01,-9.03773e-02,-4.15562e-02,3.49357e-02,
2.50610e+00,-2.12445e+00,-2.32251e+00,-3.81940e+00,2.29525e+00,-1.76989e+00,6.46933e+00,-4.73483e+00,1.73952e+00,2.40765e+00,-3.92241e-01,2.25996e+01,6.12642e-01,1.67556e-01,4.41428e+00,-4.60520e+00,
4.84197e-02,-2.59348e-02,7.52308e-02,-7.52305e-02,1.59934e-02,7.94038e-03,-1.36998e-02,1.05220e-02,-3.57850e-02,1.16704e-01,-1.70080e-01,-7.37473e-02,-9.93226e-02,-1.04028e-01,1.67808e-01,3.48038e-02,
-7.21481e-01,4.53373e-02,-7.45061e-01,-2.74639e-01,1.67930e-01,-2.82187e-01,-1.52704e-01,-2.94080e-01,-2.85043e-01,-1.67707e-01,-9.13669e-02,-3.48168e-01,-7.22922e-01,-1.06178e-01,-1.32401e-01,-3.11418e-01,
2.78633e-01,-1.60951e+00,1.36333e+00,4.95813e-01,-6.56625e-01,2.06349e+00,1.66506e+00,5.92675e-01,-1.96864e+00,9.05592e-01,-3.57593e-01,-6.42014e+00,1.50945e+00,-9.07101e-02,-1.53490e+00,1.63848e+00,
-9.43992e-02,-7.40032e-01,-7.04810e-01,-9.29627e-01,1.22874e-01,-7.77705e-01,-8.26468e-01,1.36749e+00,-1.56626e-01,-5.09503e-01,-7.13441e-03,2.88059e+00,-1.57548e-01,-5.07742e-02,-1.38598e+00,-9.54158e-01,
-1.29754e-01,-8.69176e-02,-1.47517e-01,-6.54284e-02,9.76486e-02,9.22144e-02,1.50490e-01,-2.16941e-01,-1.77048e-01,-1.16223e-01,-6.11925e-02,1.52858e-01,-1.68968e-01,-2.40384e-01,1.12294e-01,5.81589e-02,
-1.02640e-01,7.64540e-02,-6.72282e-02,-1.32225e-01,9.46929e-02,1.78822e-01,-8.84202e-02,-3.40453e-02,1.16349e-01,6.35822e-02,-1.78863e-01,1.41136e-01,-9.31107e-02,-1.65651e-01,6.15466e-02,-1.24826e-01,
-5.48052e-02,-1.02617e-01,1.58118e-01,1.30528e-01,1.79878e-01,4.79634e-02,-3.70189e-02,3.27443e-01,-1.06535e-01,-4.58902e-02,-1.73553e-02,-1.39554e-01,-1.08975e-01,-1.12197e-01,-4.56288e-02,-5.21036e-03,
2.09755e-01,1.13059e-01,-7.71004e-01,-9.34423e-01,5.12932e-01,-8.67903e-02,-6.08338e-01,1.21389e+00,4.02601e-01,-8.86623e-01,-1.00004e-01,6.83248e+00,1.17046e-01,-2.59796e-02,1.76776e+00,-1.07127e+00,
-2.42542e-01,-1.01104e-01,-1.36198e-01,-1.03382e-01,-1.09100e-01,-9.27265e-02,-3.38723e-02,6.34372e-02,-2.03908e-01,8.10213e-02,-4.54107e-02,-3.96045e-02,-1.45492e-01,-1.89132e-02,1.19940e-01,-1.81583e-01,
-1.00973e+00,5.13561e-03,-8.13884e-01,-1.74777e-02,4.22180e-03,-2.48071e-01,-4.41214e-01,-1.69771e+00,-6.99126e-02,-1.97552e-01,-2.68980e-03,-2.44946e-01,-1.09243e+00,-2.18173e-01,-9.63482e-02,2.20433e-01,
8.36001e-02,-3.10683e-01,-5.37099e-01,-4.41656e-01,2.13102e-01,-7.97517e-02,-2.64461e-01,3.82038e-01,-3.17076e-02,-2.19634e-01,-1.09431e-03,2.85233e+00,-4.05115e-01,-4.08308e-02,8.32045e-01,-3.04685e-01,
3.63445e-02,6.37852e-02,6.46132e-02,9.12780e-02,-1.88083e-01,-2.30293e-01,6.98268e-02,-1.00639e-01,-6.78773e-02,-2.27831e-01,-1.48114e-01,2.70635e-01,5.15825e-02,-2.59742e-01,-1.08384e-01,8.90425e-02,
3.00863e+00,-4.19657e-01,-2.14000e+00,-3.60343e+00,2.78235e+00,5.40986e-01,2.90125e+00,3.12612e+00,2.28471e+00,-1.19360e+00,-2.67509e-01,2.43817e+01,-2.89103e-01,2.57476e-01,8.07867e+00,-5.12963e+00,
-8.06564e-02,-7.32972e-03,3.30778e-02,-1.11214e-03,1.72353e-01,1.66260e-02,-5.12990e-01,-4.92636e-01,-1.84809e-01,-2.33099e-01,-3.95730e-01,3.97866e-01,4.61544e-01,-4.12941e-03,1.38862e+00,-1.78426e-01,
7.34833e-02,-1.47136e-01,9.44164e-02,-2.84795e-02,8.47256e-03,1.86951e-02,-1.81520e-01,-1.47553e-01,-3.86925e-02,-8.55933e-03,-1.86548e-01,-1.52322e-02,-7.09834e-02,-2.41563e-02,-4.30118e-02,-1.55433e-01,
-2.47471e-01,9.54404e-02,-1.60527e-01,3.96217e-02,1.88913e-01,1.13925e-01,-5.03703e-02,-2.29761e-01,-2.06286e-01,7.84674e-02,-1.22340e-01,4.05001e-02,-2.13583e-01,-3.05449e-02,7.47748e-02,-1.26939e-01,
-2.36329e-01,5.42191e-01,-1.98432e-03,-1.52514e-01,1.44356e-01,1.57043e-01,-1.23405e+00,-1.88166e+00,-5.70189e-01,-1.19386e+00,-1.05269e+00,1.21987e+00,8.17534e-01,-1.08437e-02,3.20345e+00,-7.88404e-01,
-6.24657e-02,6.75898e-02,-2.73019e-01,-2.24397e-01,-3.99909e-02,1.86189e-01,-5.56160e-02,-3.27717e-02,-1.11186e-01,-1.47440e-01,-1.23048e-01,1.44094e-01,2.99152e-02,-1.85229e-02,2.72500e-02,-1.68973e-01,
1.81261e-01,3.07713e-01,2.68018e-01,3.69011e-01,3.56083e-02,1.69941e-01,-1.27056e-01,7.83660e-01,2.37708e-01,4.10774e-01,-3.26906e-01,3.10112e-01,-8.17517e-03,-2.85681e-02,7.68686e-01,6.35764e-01,
-1.70734e-01,-1.10960e-01,-4.44157e-01,-1.86783e-01,2.46943e-02,-1.98833e-01,2.16894e-01,-1.54792e-01,-3.04689e-02,-1.91946e-02,-7.06073e-02,9.43721e-03,-1.36946e-01,-9.67328e-02,-8.26251e-01,-1.49766e-01,
-5.53777e-01,4.21977e-02,-3.34769e-01,-2.63769e-01,1.21824e-01,-2.89350e-01,-2.50978e-01,-1.78380e-01,9.47496e-03,-2.36280e-01,-6.84648e-04,3.34125e-01,-6.37235e-01,-1.18491e-01,-2.72273e-01,-4.15343e-01,
2.28207e+00,1.57591e+00,1.75327e+00,3.93995e-02,1.62146e-01,4.36718e-01,3.77164e+00,5.20236e+00,1.85097e+00,1.05572e+00,-7.42939e-01,6.23255e-03,1.47977e+00,-1.74665e-01,1.38993e+00,9.84025e-01,
-6.71506e-02,6.48998e-02,-2.09695e-01,-1.88184e-01,5.00184e-02,-1.49413e-01,1.05096e-01,-1.07639e-01,-1.49286e-02,-2.45319e-01,-1.98510e-02,-1.48692e-01,-1.95169e-01,-3.69766e-02,3.84960e-01,1.03101e-01,
5.42972e-02,1.87591e-02,4.97066e-02,-1.91641e-01,-2.60679e-02,8.96366e-02,4.02740e-02,2.53563e-02,-5.52641e-02,-2.11149e-01,-1.32885e-03,1.99479e-01,6.26802e-02,-2.76720e-01,-6.40549e-02,-8.45311e-02,
1.40297e-01,-1.51458e-01,1.14964e-01,1.62012e-01,5.71769e-02,-8.96566e-02,-8.22816e-02,-2.53997e-02,-3.39861e-03,6.57580e-02,-1.32772e-01,1.47966e-01,8.10866e-02,-1.55754e-01,-1.17518e-01,1.53223e-01,
-5.84837e-02,-4.02909e-02,-1.30304e-01,1.23350e-01,-5.31820e-02,1.26083e-01,-3.06745e-03,-1.08693e-01,8.79962e-02,-4.66430e-02,-4.71955e-02,5.65046e-02,-1.38222e-01,-8.33336e-02,-1.58462e-01,-1.65727e-01,
-1.27232e-01,-4.33840e-02,-1.41723e-01,1.79498e-01,-3.08283e-01,1.75785e-01,-2.82865e-01,2.69365e-01,4.09320e-02,-1.50143e-01,-2.21223e-01,-1.71466e+00,3.00374e-03,-6.87316e-03,9.01908e-03,-2.64025e-02,
-1.33871e-01,-4.49912e-03,-1.00441e-01,-1.75895e-01,1.59206e-01,9.24292e-02,-1.68758e-01,-1.50401e-01,-4.34765e-02,-2.15807e-02,-1.69170e-01,3.85271e-02,-9.77657e-02,-1.34240e-01,-1.05942e-01,-5.11510e-02,
-7.75413e-01,1.49361e-01,-6.25111e-01,1.69089e-01,-6.13081e-01,-1.80320e+00,-2.97980e-01,4.34076e-01,7.46420e-01,-6.51189e-01,-5.22180e-01,-7.12664e+00,-1.02933e+00,-6.38091e-02,-1.06613e+00,6.93138e-01,
-1.92991e-01,-2.57218e-01,-4.68528e-01,-3.14342e-01,1.10499e+00,-8.08349e-01,7.10146e-02,-2.57895e+00,-3.52177e-01,-8.64627e-01,-5.49852e-01,6.90218e+00,1.64185e+00,-1.54966e-01,2.51402e+00,-1.37964e+00,
-2.49216e+00,-6.05809e-01,2.04971e-01,-8.88302e-01,-3.29868e+00,1.45872e-01,-5.63585e+00,1.39951e+01,3.06801e+00,-8.30726e-02,-2.62404e-01,-2.30597e+01,-5.90152e+00,1.21263e-01,-2.52179e+00,1.03528e+00,
5.49661e-02,9.09688e-02,-3.27216e-02,-8.34262e-02,2.97004e-02,-9.87983e-02,3.49189e-01,-1.17209e-01,2.98107e-01,-5.35024e-02,-4.44863e-02,3.41924e-01,3.14758e-02,-1.27715e-01,3.92506e-01,-2.71198e-02,
-2.12091e-01,-9.90452e-02,-1.11062e-01,-5.02711e-02,1.02179e-01,-1.24564e-01,-1.95932e-01,-2.01774e-01,-8.93301e-03,-7.28148e-02,-8.37733e-03,7.13494e-02,1.12840e-01,-5.63102e-02,-2.67834e-01,-1.61685e-01,
-3.59938e-02,8.69714e-02,-1.50301e-03,-1.28128e-01,-5.41334e-02,1.38829e-01,8.40286e-02,-3.45874e-02,9.77629e-02,-1.26218e-01,-2.39222e-01,6.26960e-02,-9.97106e-02,-9.26584e-02,-1.44089e-01,-8.13977e-02,
2.43041e+00,-1.98078e+00,-2.74392e+00,-3.61258e+00,2.38071e+00,-1.34002e+00,6.63445e+00,-3.72966e+00,1.42226e+00,1.70465e+00,-4.19420e-01,2.22968e+01,3.66785e-01,1.63168e-01,4.57144e+00,-4.78703e+00,
-9.76516e-01,1.56724e-02,-6.17647e-01,1.55735e-01,-1.15360e-01,-3.20730e-01,-7.08615e-02,-8.48964e-01,1.99823e-01,-2.31068e-01,-3.03535e-02,-4.86594e-01,-1.17503e+00,-2.16468e-01,1.23824e-02,7.09906e-03,
6.46879e-02,-2.41853e-02,1.86168e-01,7.31943e-02,1.01382e-01,4.06270e-02,7.37634e-02,-1.12706e-01,-1.37946e-01,-1.39995e-01,-7.80160e-02,-1.20261e-01,-1.74678e-01,-1.09823e-01,-8.33180e-02,-3.68895e-02,
3.44338e-01,-5.94610e-01,-9.18224e-01,-1.57813e+00,8.37515e-01,-5.04867e-01,1.57897e+00,4.11916e-01,6.17017e-01,-3.51223e-01,-2.09010e-01,8.39197e+00,7.17926e-01,-3.41750e-02,3.16620e+00,-1.55529e+00,
-1.34205e+00,8.11119e-02,-1.13572e+00,3.18851e-01,6.72828e-02,-3.62771e-01,6.73331e-01,-2.61864e+00,4.09007e-02,7.90657e-02,-5.12067e-02,-5.68519e-01,-2.52920e+00,-8.69362e-01,3.99205e-01,5.02056e-01,
-1.10950e-01,-2.34847e-01,-1.45942e-01,-1.27277e-02,-1.52310e-01,-1.04428e-01,-1.41266e-01,-2.65066e-01,-1.42387e-01,-7.72122e-02,-4.61140e-02,1.58280e-01,1.18525e-02,-6.78215e-02,1.40304e-02,-1.46797e-01,
-1.24544e-01,5.68210e-02,-1.87841e-01,3.38639e-02,4.43663e-02,-2.67054e-02,-1.01274e-01,2.52478e-02,-1.17012e-01,1.76523e-02,-8.30998e-02,2.72636e-01,-9.59511e-02,-1.11188e-02,1.05169e-01,-2.26446e-01,
-1.44668e-02,-5.25827e-02,-1.57994e-01,7.96925e-03,-8.17962e-02,-7.01347e-03,1.02002e-01,-1.35262e-01,7.85544e-02,-1.37922e-01,-6.42216e-02,3.02048e-02,-1.03483e-03,-5.05250e-02,1.05036e-01,6.25214e-02,
3.47471e-03,-1.54536e-01,2.01060e-02,1.78875e-01,1.94551e-02,7.14254e-02,-1.59163e-01,-7.49718e-02,-8.14301e-02,-1.51613e-01,-1.53425e-01,1.52223e-01,3.50446e-03,-6.29396e-02,-1.14458e-01,-1.78083e-01,
-5.87908e-01,-5.19431e-02,-4.88646e-01,7.00557e-02,-3.07595e-01,-3.86709e-01,-7.13278e-01,-1.28657e+00,-1.38381e-02,-1.15864e-01,-6.06878e-03,-1.55430e+00,-6.57880e-01,-1.33107e-01,-1.61660e+00,-1.89331e-01,
2.69169e-01,5.41435e-01,5.53564e-01,4.49871e-01,-1.85749e-01,-2.53467e-01,6.48201e-02,2.75589e-01,8.33106e-02,3.63843e-01,-5.08928e-01,-5.39000e-01,3.19209e-01,-3.53114e-01,4.52316e-01,2.15374e-01,
7.38536e-02,-3.06572e-02,-7.05266e-02,-1.86901e-01,1.02584e-01,-6.13565e-02,-2.13990e-02,1.13118e-01,-1.38952e-01,-1.66673e-01,-1.08519e-01,6.74028e-03,-6.68845e-02,-1.69602e-01,-2.61960e-02,6.51680e-02,
7.47617e-01,-7.63712e-01,-8.15327e-01,-1.70457e+00,6.42230e-01,-9.10051e-01,3.22442e+00,-6.17806e-01,4.81315e-01,2.04131e-01,-2.16546e-01,1.25178e+01,1.09507e+00,-4.51863e-02,1.86690e+00,-1.38160e+00,
1.48359e-01,-1.71089e-01,-2.84730e-01,-2.42120e-01,4.71681e-01,-1.08075e+00,1.28641e+00,-3.31475e+00,-8.69631e-01,-4.76230e-01,-1.19703e-01,6.63126e+00,1.73083e+00,-1.42172e-02,1.37301e+00,-7.11248e-01,
-1.35886e-01,5.54263e-02,8.12107e-03,2.41875e-02,-6.56870e-02,-1.44487e-01,-3.49480e-02,-1.60636e-01,-3.99027e-02,-2.12409e-03,-1.51833e-01,-8.63883e-02,1.79390e-01,-7.00418e-02,9.02918e-02,-1.80647e-01,
-7.78999e-03,-1.71580e-01,8.24015e-02,-7.55235e-03,8.26440e-02,-4.97356e-02,-2.36046e-01,-2.32783e-01,-1.88411e-03,1.36127e-02,-8.11461e-02,1.09653e-01,1.47254e-01,-2.10751e-03,3.29269e-01,-2.04564e-01,
1.97422e+00,-1.23563e+00,-1.43874e+00,-2.19955e+00,2.37735e+00,-1.61133e+00,5.94357e+00,-3.82910e+00,6.70601e-01,1.39414e+00,-3.91365e-01,2.14135e+01,2.97976e-01,3.93114e-02,3.53677e+00,-3.70354e+00,
6.80163e-02,-5.49892e-03,-8.76784e-02,-1.93836e-01,1.32693e-01,-1.00699e-01,-4.62786e-02,-1.34084e-01,-1.78225e-01,-2.22183e-01,-4.35585e-02,1.22332e-01,1.15117e-01,-2.40137e-01,1.70404e-02,-1.16302e-01,
-3.12361e-01,-2.20376e-01,-1.66605e-01,-9.24105e-03,-1.54627e-01,-5.52253e-01,-6.62328e-01,-6.75633e-01,-3.45208e-01,-3.46692e-01,-8.44908e-02,-2.49397e+00,-3.44271e-01,-1.14886e-01,-8.47895e-01,-7.14216e-02,
-3.59437e-01,1.19722e+00,-4.08825e-02,2.69161e-01,5.30774e-01,1.33896e+00,-4.34592e+00,-3.01293e+00,-1.44681e+00,-2.81254e+00,-3.11861e+00,2.26733e+00,4.21615e+00,3.22038e-01,7.94519e+00,-1.41738e+00,
5.91044e-02,-5.61420e-02,-1.13484e-01,-9.74013e-02,8.86055e-02,-2.07429e-01,-1.81821e-01,-2.31939e-01,-1.78385e-01,-5.21215e-02,-3.85280e-02,4.04819e-02,3.82419e-03,-1.69477e-01,-1.06956e-01,9.06926e-02,
-2.82218e-02,-2.77254e-01,-2.97427e-01,-1.99214e-01,-1.60379e-01,-3.70859e-02,-1.43175e-01,-2.57408e-01,-2.05363e-01,-3.33175e-01,-1.98961e-03,3.18335e-01,3.42053e-02,-2.10748e-01,-2.33528e-01,-2.91923e-01,
-3.02119e-01,-1.11165e-01,-9.10302e-01,-2.84562e-01,-3.14827e-02,-8.31708e-01,1.09946e+00,-1.00949e+00,-6.17064e-01,2.88082e-01,-1.44556e-01,-2.61425e+00,2.40988e-01,-1.82618e-01,1.46447e-01,4.20264e-01,
-2.24523e-01,-1.44494e-01,-1.85355e-01,-1.63944e-01,-1.56677e-01,6.22508e-02,-8.74358e-02,1.10854e-01,-8.39284e-02,9.99438e-03,-1.04348e-02,1.24104e-01,3.78206e-03,-2.05536e-01,1.54038e-01,-5.36063e-02,
-5.47548e-02,-1.16020e-02,-2.11397e-01,-4.25113e-02,-1.43682e-01,-2.65339e-01,-2.17471e-01,3.41329e-02,-5.91127e-02,-1.09883e-01,7.30404e-05,1.70571e-01,2.89972e-02,-1.88073e-01,-2.94527e-01,5.76915e-02,
-5.19569e+00,-5.19334e-02,-3.68092e+00,-1.18370e+00,-2.47714e+00,4.99878e-02,-7.42135e+00,-1.77269e+00,1.27081e-01,-1.79287e+00,2.16497e-01,-1.43196e+01,-1.95897e+00,5.92351e-02,-1.49164e+00,4.75055e-01,
2.91969e-01,-1.51610e-01,-8.73230e-01,-9.59589e-01,-3.98552e-01,2.93994e-01,-2.85089e-01,2.39453e+00,8.22127e-01,-3.93840e-01,-1.19364e-01,3.48860e+00,-3.31821e-01,-1.45269e-02,9.01880e-01,-8.89518e-01,
8.97884e-02,2.04179e-02,-4.95687e-02,-2.11148e-01,-1.70317e-02,-1.69907e-01,4.66707e-02,-2.07506e-01,-1.65066e-01,1.28269e-01,-2.00934e-01,1.12080e-01,-1.93084e-01,-2.25041e-02,-1.25847e-02,-1.78192e-01,
8.43322e-03,5.14362e-02,4.58472e-02,-7.81219e-02,1.51797e-01,-2.13795e-02,-3.22623e-02,-3.78524e-02,-1.48888e-01,-1.21208e-01,-1.43944e-01,2.53597e-01,7.46672e-02,-1.91700e-02,-1.60514e-01,7.06065e-02,
-3.80054e-03,1.12806e-01,-4.67277e-02,2.71930e-02,-1.20059e-01,-7.45301e-03,1.97844e-01,7.46277e-02,1.39760e-01,-1.07356e-01,-7.26905e-02,1.95467e-01,-1.05492e-01,-1.69927e-01,-4.76443e-02,-3.27913e-03,
1.76457e-01,-6.15846e-01,-4.85296e-01,-7.21107e-01,8.98570e-01,-5.85182e-01,1.82619e+00,-1.48490e+00,-4.13407e-01,1.59507e-01,-2.60143e-02,7.18253e+00,7.29921e-01,-1.44497e-02,8.10132e-01,-6.89554e-01,
-3.28016e-01,-1.57106e-02,-2.55522e-01,9.79337e-02,-7.53128e-02,-2.54923e-01,1.36577e-01,-3.14727e-01,9.58706e-02,-1.12390e-01,-1.94482e-02,-9.96159e-02,-1.42984e-01,-8.27378e-02,3.63670e-01,1.41565e-01,
-1.07646e-01,-4.81657e-01,-1.51394e-01,-1.89699e-01,3.75881e-02,-6.03712e-02,3.52239e-01,7.63369e-02,-5.00140e-01,-1.94045e-01,-4.17245e-01,-3.00139e-02,-1.32768e-01,-1.30981e-01,4.41957e-01,-3.09305e-01,
2.93659e-02,-7.48187e-03,5.40822e-02,-3.02854e-03,-1.36192e-01,-1.35095e-01,-1.75819e-01,-9.84750e-03,5.31293e-02,-6.33903e-02,-2.72360e-01,2.64989e-01,-1.12637e-01,-9.05580e-02,-2.19505e-01,5.76964e-02,
-3.26275e-02,-1.23603e-01,-1.85236e-01,4.65087e-02,1.86208e-01,-6.96017e-03,1.11961e-01,-8.12510e-02,-1.61528e-01,-5.61962e-02,-1.86981e-01,1.30259e-01,2.00095e-02,-4.90092e-02,-2.24332e-02,5.62841e-02,
-1.26717e-01,-2.90734e-02,-2.87879e-02,3.91914e-02,1.23694e-01,-2.95990e-02,-1.26411e-02,2.33796e-02,-6.45454e-03,6.62481e-02,-1.20025e-01,-8.97661e-02,-1.02033e-01,-2.06881e-02,4.09206e-02,-1.45075e-01,
3.61499e-01,8.22268e-01,1.96856e+00,1.66398e-01,-7.60039e-01,1.23204e+00,-6.23758e-01,2.25682e+00,3.10376e-01,1.62962e-01,-6.90781e-01,-7.51085e+00,-3.06200e-01,-2.73088e-01,-1.36960e+00,1.12522e+00,
-1.21744e-01,-1.36699e-01,-1.17382e-01,4.47306e-02,7.14303e-02,-1.58541e-01,-7.41198e-02,-2.25340e-01,-1.72390e-01,-3.46151e-02,-1.66876e-01,-5.97310e-02,8.60992e-02,-1.59723e-01,2.27285e-02,-1.41942e-01,
6.40977e-02,8.70823e-02,-1.35471e-01,-2.37643e-01,-1.32527e-01,3.95672e-02,-2.26053e-03,-3.07601e-01,-2.17977e-01,-1.09951e-02,-1.91163e-02,1.57201e-01,-1.42636e-01,-2.79507e-01,4.39228e-02,-5.10725e-02,
2.38482e+00,7.78120e-01,2.77044e+00,4.67317e-01,-9.55414e-02,1.43780e+00,2.63278e+00,5.31623e+00,9.85974e-01,6.40916e-01,-7.97241e-01,9.92818e-02,2.58010e+00,-3.13151e-01,1.66879e+00,1.45842e+00,
-1.84700e-01,1.95709e-02,-1.35274e-01,-1.46403e-01,8.01546e-02,-1.41225e-01,-4.66543e-02,-3.63665e-01,-1.08190e-01,-7.52997e-02,-1.59357e-01,3.79391e-01,3.31792e-02,-2.46715e-03,3.19093e-01,-3.10956e-01,
-1.01573e-01,-1.74393e-01,-2.26220e-01,-2.39865e-02,6.09829e-02,-2.44650e-01,-2.23329e-01,-1.18082e-01,-1.83136e-01,-1.99393e-02,-2.67359e-01,2.01638e-01,9.90366e-02,-4.18908e-02,-2.27866e-01,-4.42538e-02,
-1.46854e-01,-1.51326e-02,2.63058e-03,4.93815e-02,2.26134e-03,-1.85026e-02,-1.11938e-01,-1.82384e-01,1.39877e-01,-6.48195e-02,-3.17643e-02,-1.86936e-02,-1.19920e-01,-7.44211e-02,9.67107e-02,-2.80930e-03,
-1.42575e-01,-2.59490e-01,-2.34799e-02,-8.89017e-02,5.62872e-03,-2.66471e-01,-2.76833e-01,7.87635e-02,-1.77226e-01,-1.85838e-01,-1.40374e-01,1.48500e-01,-2.30292e-01,1.21649e-03,-1.07364e-01,-1.32443e-01,
4.52341e-03,8.86563e-02,-5.82797e-02,-7.76288e-02,-1.77780e-01,7.38001e-02,6.79392e-02,1.05091e-01,-4.51911e-02,1.52818e-01,-1.33566e-01,-8.91752e-02,1.22522e-01,-1.85512e-01,-1.18873e-01,-1.35426e-01,
-4.07070e-01,5.20553e-01,-3.01558e-02,3.44762e-01,1.23585e+00,-6.94393e-01,-5.31215e-01,-2.73223e+00,-8.01011e-01,-6.33037e-01,-5.69546e-01,4.73635e+00,1.26185e+00,-1.84884e-02,2.66427e+00,-8.41524e-01,
-2.95487e-01,3.17071e+00,-7.72675e-01,1.43929e+00,1.35509e+00,-1.09879e+00,-6.29920e+00,-7.02988e+00,-2.26646e+00,-2.64541e+00,-2.39701e+00,1.85435e+00,5.70650e+00,2.12721e-01,1.38114e+01,-3.58993e+00,
-1.35755e+00,-1.68376e+00,-1.57147e+00,8.88339e-01,-1.29379e-01,-2.12267e+00,-2.34122e+00,-2.75539e+00,-1.98956e-01,-1.23927e-01,-2.89790e-01,-4.79040e+00,-1.48316e+00,-3.06050e-01,-1.54409e+00,1.76175e-01,
7.31725e-02,7.01532e-01,6.92842e-01,-4.10284e-01,-9.24643e-01,-4.01196e-01,8.22358e-02,1.87905e+00,4.10154e-01,-1.31754e-01,-5.60461e-01,-4.56769e+00,-8.49916e-01,-6.17821e-02,-9.40499e-01,8.54741e-01,
6.72157e-02,1.79758e-03,-1.44258e-01,6.82653e-02,2.26210e-02,1.27314e-01,1.19603e-01,9.98076e-02,-3.24337e-02,1.37002e-01,-1.82589e-02,6.03755e-02,-1.26800e-01,-7.46314e-02,-1.77462e-01,-2.05931e-01,
-5.30290e-02,1.23946e-01,-4.65848e-01,2.09922e-01,-1.47529e-01,-3.43125e-01,-1.30279e+00,2.90670e-01,-4.70676e-01,1.86220e-01,-5.67502e-01,-1.16964e+00,-1.79689e-01,-2.35620e-03,8.38122e-01,-3.54236e-01,
4.87352e-02,-1.41529e-02,5.34100e-03,-1.48695e-01,4.07547e-02,-2.15371e-01,-2.38974e-01,5.97858e-03,-1.39475e-01,-1.76867e-01,-2.59119e-01,9.04831e-02,-2.42139e-01,-3.60744e-02,-8.17658e-03,6.68684e-02,
2.48313e+00,-6.82184e-01,-2.55524e+00,-3.78945e+00,1.98449e+00,2.09423e-04,2.19505e+00,2.57658e+00,2.19711e+00,-9.37929e-01,-3.57345e-01,2.06747e+01,2.61255e-02,1.32052e-01,7.21445e+00,-5.20124e+00,
1.36193e-01,-1.82325e-01,1.46019e-01,-1.19594e-01,1.10160e-01,1.61241e-01,6.81594e-02,-5.88833e-02,-6.65217e-02,1.46169e-01,-1.12625e-01,-6.44411e-02,-1.28718e-01,-1.84826e-01,1.86679e-01,-1.27296e-01,
-1.40154e+00,9.60141e-01,3.98727e-01,1.00431e+00,-1.10560e+00,-3.44856e+00,2.92404e-01,2.98853e+00,3.00090e+00,-7.83603e-01,-3.25523e-01,-1.23346e+01,-3.72351e+00,-1.61571e+00,-2.94746e+00,2.53482e+00,
-1.28314e+00,-6.85570e-01,-1.49381e+00,-5.07893e-01,3.34909e-02,-1.19575e+00,-2.40235e+00,-2.29052e+00,-6.55063e-01,-1.53526e-01,-5.23616e-03,-3.26538e-01,-1.93796e+00,-3.09486e-01,-8.90122e-01,-9.03740e-01,
-1.46339e+00,-6.40690e-01,-1.81346e-01,7.12786e-01,-2.50278e-01,-2.58551e+00,-1.93928e+00,-1.00130e+00,1.99966e-01,2.76084e-01,-1.67579e-01,-2.79223e+00,-2.02407e+00,-1.83223e-01,-1.93483e+00,-2.13972e-01,
-3.18174e-01,-3.62412e-03,-3.22535e-01,6.87104e-02,-1.56316e-01,-3.08674e-01,4.50875e-01,-4.75069e-01,2.82162e-01,-1.50630e-01,-3.43361e-02,-2.31897e-01,-7.10392e-01,-4.91706e-02,1.98395e-01,-3.78303e-02,
5.65918e-02,-1.94129e-02,-1.16057e-01,8.92978e-02,6.19941e-02,-9.53265e-02,-1.06591e-01,-2.54239e-01,3.60374e-02,5.37919e-02,-8.83311e-02,-4.37960e-02,-2.50288e-01,-3.02670e-02,3.67186e-02,-1.36835e-01,
-4.88068e-01,-4.25769e-01,8.29651e-02,2.70565e-01,-6.76067e-01,-4.74672e-01,-1.18213e+00,-3.35148e-01,-1.44318e-01,9.76498e-03,-1.91745e-01,-2.92883e+00,-7.95665e-01,-2.13318e-02,-1.22387e+00,-4.32585e-02,
1.10504e-01,-1.75226e-01,-3.46095e-01,4.28873e-01,8.34984e-01,-6.93599e-01,-1.86679e+00,-5.84902e+00,-3.61313e-01,-1.49977e+00,-1.65547e+00,6.60600e+00,5.06036e+00,-1.97671e-02,7.78509e+00,-2.60662e+00,
3.57752e+00,1.18003e-01,-3.79682e+00,-4.12781e+00,1.91034e+00,1.38583e+00,1.95561e-01,7.89539e+00,2.59582e+00,-3.75933e+00,-1.91179e-01,2.09550e+01,1.49361e+00,2.13030e-01,1.01870e+01,-6.38599e+00,
1.67514e-01,5.96709e-02,-7.93826e-02,-1.15184e-01,2.15705e-02,-1.37601e-01,-1.53737e-01,5.47265e-02,5.21498e-02,-1.42400e-01,-3.08641e-02,1.20619e-02,4.26336e-02,-4.94395e-02,-1.33274e-02,-9.82911e-02,
-5.88881e-01,-2.90806e-01,-4.70826e-01,-2.47249e-01,5.07856e-02,-5.33934e-01,-5.61703e-01,-3.94289e-01,3.85358e-02,4.75576e-02,-3.82926e-05,-7.24462e-02,-7.23663e-01,-1.57979e-01,-3.91985e-02,-1.58407e-01,
-3.35397e-01,
-5.99625e-02,
-1.38334e-01,
-8.13690e-02,
-7.03814e-02,
-1.51739e-01,
-2.36364e-01,
-8.32288e-02,
-4.21642e-02,
-1.52323e-01,
-1.60900e-01,
2.23606e+00,
-1.13923e-01,
-1.47023e-01,
-7.15182e-01,
-1.45212e-01,
-1.29200e-01,
5.70376e+00,
0.00000e+00,
-1.97942e-01,
-1.93037e-01,
-5.95144e-02,
-2.01023e-01,
-1.58736e-01,
-6.44102e-02,
-1.28773e-01,
-1.03234e-01,
-1.68911e-01,
-9.00075e-02,
-7.42324e-02,
-1.52722e-01,
-9.87326e-02,
-1.46696e-01,
-6.00106e-02,
-1.59550e-01,
-2.50883e-01,
-9.44263e-02,
-1.31062e-01,
-4.23572e-02,
1.41537e-01,
-1.69068e-02,
-7.95914e-02,
-1.75775e-01,
-1.34629e-01,
-4.36355e-01,
-1.96552e-02,
9.56215e-02,
-5.46594e-02,
-1.44122e-01,
-8.35565e-02,
-1.14925e-01,
-1.41090e-02,
0.00000e+00,
-4.75314e-01,
1.20722e+00,
-3.83730e-01,
-1.18265e-01,
0.00000e+00,
2.15594e-02,
-2.62953e-01,
-9.23737e-02,
-7.60210e-01,
-2.00135e-01,
-8.29873e-02,
2.24610e-01,
-8.56807e-02,
0.00000e+00,
-6.08595e-02,
-1.62663e-01,
-8.32616e-02,
3.00114e-01,
-2.35493e-01,
-3.55806e-01,
1.39215e+00,
-9.99043e-02,
-1.00174e-01,
0.00000e+00,
0.00000e+00,
-1.40438e-02,
-7.40184e-02,
-6.98403e-01,
-3.39261e-01,
-6.98019e-01,
-9.26149e-03,
-6.13953e-02,
-8.30739e-02,
3.54831e-03,
-6.16565e-01,
0.00000e+00,
-2.14758e-01,
-1.07092e+00,
-1.48936e-01,
-6.54080e-02,
0.00000e+00,
0.00000e+00,
-4.61351e-01,
4.24852e-01,
-6.23451e-02,
-1.18697e-01,
-1.43473e-01,
-5.43617e-02,
-6.87793e-02,
-1.04936e-01,
-5.97495e-02,
-3.06443e-01,
1.31987e-01,
-9.25179e-02,
-1.73541e-01,
-1.00846e-01,
-3.95270e-02,
-1.03811e-01,
-3.90367e+00,
-1.24683e-01,
-5.87290e-02,
-7.37208e-02,
-4.16422e-02,
-1.91053e-01,
-1.86768e-01,
-1.97476e-01,
-7.96070e-02,
0.00000e+00,
0.00000e+00,
8.67043e-01,
-8.59994e-02,
-9.58256e-02,
1.83836e+00,
-1.18745e-01,
-7.96109e-02,
0.00000e+00,
-9.01479e-02,
0.00000e+00,
-1.79971e-01,
4.61399e-02,
-1.24682e+00,
1.14683e-01,
-3.92568e-02,
-1.51449e-01,
-8.35471e-02,
-1.95417e-02,
0.00000e+00,
-1.35293e+00,
-1.39193e+00,
-1.16645e+00,
-2.66491e-01,
-6.84284e-02,
-1.12066e-01,
-1.05311e-01,
1.42454e-01,
0.00000e+00,
-3.91402e-01,
6.91143e-02,2.12183e-01,1.33582e-01,8.49444e-02,1.56140e-01,2.20170e-02,6.61737e-02,9.20434e-02,9.95302e-02,4.22309e-02,-7.40592e-03,-5.11466e-01,-8.51167e-02,5.38829e-02,-1.07910e-01,-1.53904e-02,8.60128e-02,-2.43155e-01,-7.41922e-02,1.24647e-01,-1.40087e-01,9.30220e-02,-1.36690e-01,-1.12058e-01,-1.59215e-01,1.29283e-01,-4.58021e-02,-9.85347e-03,4.86413e-02,1.52434e-01,7.64826e-02,1.38510e-01,-2.34206e-02,-1.85371e-01,1.12878e-01,4.36292e-02,-6.19883e-03,-7.24745e-02,1.25217e-01,3.69257e-02,8.71861e-02,-6.23702e-02,3.35232e-02,3.99312e-02,-1.26754e-01,8.94455e-02,-8.55621e-02,-4.54294e-02,1.83495e-01,1.43211e-01,1.88422e-02,8.22722e-02,1.23272e-01,-4.82847e-02,-2.28433e-01,-6.48962e-02,-6.06767e-02,1.13345e-01,-1.05146e-01,-1.32032e-01,1.33723e-01,-7.19469e-02,-3.75296e-02,-1.54561e-01,-1.11515e-01,1.59781e-01,1.00991e-01,1.68216e-01,1.41378e-01,-1.41297e-01,2.33281e-02,-8.36021e-02,1.95627e-02,5.97729e-02,2.82160e-02,8.00037e-02,8.31365e-02,1.51248e-01,-1.91713e-02,-5.52538e-02,6.23905e-02,3.06703e-02,-7.46582e-02,8.87583e-02,8.48909e-02,-9.02951e-02,-1.49674e-01,-3.87135e-02,3.53300e-02,-7.00410e-03,6.26272e-02,4.25100e-02,8.51585e-02,5.62015e-02,4.22434e-02,-1.97767e-01,1.58960e-01,-8.45151e-02,-4.58655e-02,-3.94452e-02,8.29001e-02,1.28100e-01,-4.29607e-02,1.95565e-02,1.55997e-01,-1.24583e-02,2.57209e-02,-4.26199e-02,-1.74366e-01,5.32804e-02,-5.47400e-02,-4.11667e-01,-2.79860e-01,1.29785e-01,1.37629e-01,1.01959e-02,-2.01560e-02,-9.16514e-02,2.89000e-02,-2.55367e-02,5.07888e-02,-1.07033e-01,-2.70321e-01,-5.72211e-02,6.49091e-03,6.00059e-01,1.15144e-01,1.36547e-01,-2.25687e-02,-9.10748e-02,-1.01317e-01,-1.94821e-02,2.50400e-01,-8.61053e-02,1.08065e-02,1.09163e-01,6.73811e-02,9.53157e-02,-5.79525e-02,5.98738e-02,-1.74917e-01,-6.29677e-02,-3.96624e-02,-1.35403e-01,1.55813e-02,-4.32486e-01,5.53188e-02,-1.57176e-01,-9.42034e-02,-1.38997e-01,
-1.43982e-01,-1.25309e-01,-2.70743e-01,-3.08462e-02,1.44629e-01,-4.73663e-01,-2.75220e-01,-3.43831e-01,-8.53260e-02,-1.92517e-02,-2.87397e-01,-3.71498e-01,-3.19285e-01,-5.19373e-02,-9.03154e-02,-3.97078e-01,-4.42309e-01,-4.01422e-01,-2.68734e-02,-2.61738e-01,-2.56752e-01,1.54301e-01,1.04832e-01,-4.10546e-01,-2.74476e-02,-1.87765e-01,4.35424e-02,1.52654e-01,-1.50000e-01,-1.50040e-01,-1.20216e-01,-6.36536e-02,-4.16661e-01,5.35302e-02,-1.85583e-01,9.55172e-02,-3.46892e-01,1.32425e-01,3.80107e-02,3.73043e-03,7.88442e-02,1.03244e-01,-3.92173e-01,-3.72315e-02,-6.56385e-02,-1.29727e-01,1.51346e-01,1.23053e-01,-3.00971e-01,-1.37859e-01,-8.28006e-02,-2.53901e-01,4.45470e-02,9.30622e-02,-2.06455e-01,2.43923e-01,2.56183e-02,-1.41095e-01,-1.07326e-01,-1.69001e-01,-8.33067e-02,-1.16639e-01,-4.37481e-01,-1.36603e-01,-3.04036e-01,-1.72187e-01,3.27424e-02,1.14751e-01,-5.60735e-02,1.52109e-02,-2.55253e-02,2.12144e-02,1.01893e-01,-5.68779e-02,1.44135e-01,-9.83151e-02,1.41714e-01,-6.88276e-02,1.01038e-01,1.33579e-01,-2.85609e-01,-1.07611e-01,-3.14805e-01,-5.33076e-01,-4.91838e-02,6.55068e-02,-3.82388e-01,5.62446e-02,4.68924e-02,-3.43798e-01,-9.06250e-02,-6.84086e-02,-1.39060e-02,3.41138e-02,-1.20126e-02,-8.55500e-03,-4.76165e-02,1.18746e-02,-3.42029e-01,-4.46242e-01,5.05372e-02,-2.05821e-01,-3.42335e-01,1.43756e-01,-1.58449e-01,-4.66408e-01,1.46851e-02,-5.07082e-02,-5.02409e-01,9.83290e-02,5.19428e-02,-4.12849e-01,-3.31248e-01,-1.38003e-01,-1.23149e-01,2.17909e-02,-2.91522e-01,-9.43839e-02,-2.27770e-01,-1.48622e-01,4.97895e-02,-9.52983e-02,-3.81831e-01,1.00968e-01,-7.44661e-02,-1.40934e-01,-3.91836e-01,-7.40836e-02,1.24204e-01,-6.33793e-02,5.82547e-02,-9.85252e-02,-4.29421e-01,-2.72710e-01,-2.93132e-01,-5.56673e-02,-2.02636e-01,1.08173e-01,-3.35580e-01,-1.11432e-01,-3.16256e-01,-3.17562e-01,-3.70875e-01,-1.19722e-01,8.81322e-03,-2.75467e-01,-1.44191e-01,-4.75051e-01,-1.32521e-01,5.17785e-02,
-1.83093e-02,-1.86560e-02,-5.77090e-02,9.41462e-02,-1.10591e-01,-3.71477e-01,-2.79933e-02,9.98740e-03,-1.18981e-01,-3.90521e-02,-4.48020e-01,-1.36250e-01,-1.07129e-01,-7.66432e-02,2.92864e-03,1.60569e-01,2.60220e-01,-8.29278e-02,-1.12058e-01,-2.88082e-01,-4.84561e-02,-2.08486e-01,8.91084e-02,-1.67913e-01,8.14027e-02,1.28074e-01,-1.99400e-01,4.68597e-02,9.16333e-02,-1.44983e-01,9.10286e-02,-1.38307e-02,-1.61641e-02,-9.21507e-02,-1.78934e-01,-1.92112e-01,-2.89900e-01,1.51524e-01,-1.39726e-02,6.69503e-02,-2.13914e-01,-1.21752e-01,-3.84628e-01,-1.06870e-01,1.81596e-02,-4.52257e-02,-1.97107e-02,1.16424e-01,-1.20075e-01,6.21089e-02,-2.93852e-02,-5.18064e-01,3.29731e-02,-1.67020e-02,-3.85499e-02,-1.92445e-01,-1.33849e-02,1.24246e-01,4.61695e-02,-1.52412e-01,-1.00983e-01,-5.17429e-02,-2.04690e-01,-8.11098e-02,-2.51761e-01,1.00357e-01,-8.03680e-02,-6.42747e-02,-2.34130e-01,7.53022e-02,-1.46614e-01,1.24329e-02,-4.73099e-02,1.14524e-01,-9.36946e-02,-5.57317e-02,1.88540e-02,1.54175e-01,1.39520e-01,1.16052e-01,-3.95820e-01,-4.80459e-01,-1.89115e-01,-5.62807e-02,-7.18404e-02,9.52525e-02,-5.22771e-01,-1.18562e-01,5.28752e-02,-5.08280e-01,-7.26696e-02,-1.96409e-01,1.45438e-01,5.63643e-02,9.34869e-02,-7.30582e-02,9.92265e-02,-2.58374e-02,-1.78368e-01,-2.89134e-01,1.47392e-01,-1.35876e-01,-2.06403e-01,-1.46304e-01,2.80998e-02,-4.63203e-01,3.94908e-02,8.94471e-02,-2.06610e-01,1.26797e-01,5.04064e-02,-3.18310e-01,-1.00576e-02,-1.23199e-01,6.07916e-02,-4.91999e-03,-1.94594e-01,6.53046e-02,8.71789e-02,4.83146e-02,-1.14556e-01,-2.77659e-02,-1.92020e-01,1.35422e-01,-7.53592e-02,-6.68091e-02,-1.08154e-01,-2.80564e-02,3.94505e-03,-1.52893e-01,-6.13537e-02,-2.83578e-01,7.11264e-02,-6.15070e-02,-1.49094e-01,4.73879e-02,2.36229e-01,-1.37343e-01,-3.10568e-01,4.29711e-02,-4.24403e-01,4.08157e-01,8.79437e-02,7.97137e-02,-1.70735e-01,-2.02694e-01,-3.55775e-01,-1.11187e-01,-4.36204e-02,-2.52308e-02,
1.35378e-01,-3.76345e-02,1.88740e-01,-1.10484e-02,2.09338e-01,1.53111e-01,1.45736e-02,6.65010e-02,1.71001e-01,-2.35963e-01,-6.99660e-02,-4.11861e-01,-3.78587e-02,-1.67223e-02,4.60919e-02,1.18659e-01,1.91905e-02,-1.66747e-01,1.46775e-01,-1.79555e-01,1.20888e-01,1.46706e-01,8.59093e-02,-3.98170e-02,1.91126e-01,-6.74208e-03,2.25892e-01,2.60734e-02,-2.73712e-02,6.95001e-02,1.13965e-01,1.73582e-01,6.36978e-02,-6.19369e-02,8.53539e-02,1.37103e-01,-1.26692e-01,9.59166e-02,1.06737e-01,-8.04043e-02,1.57249e-01,-5.81451e-02,1.34091e-01,3.33136e-01,3.19195e-02,2.12522e-01,1.65910e-01,-1.96554e-01,-2.99694e-02,5.91306e-02,2.06014e-01,-1.61409e-02,-1.00481e-01,-1.13121e-01,-3.96745e-02,-8.43458e-02,-2.55459e-01,-1.32762e-01,8.27707e-02,-1.74835e-01,1.78695e-01,7.34118e-02,2.11145e-02,-5.23123e-02,-3.83098e-01,7.56833e-02,1.63023e-02,-5.65028e-02,-2.77892e-02,-9.46543e-02,2.82418e-02,4.31739e-02,-1.13726e-01,3.74725e-01,2.17050e-01,7.45620e-03,-5.33289e-02,-6.46383e-02,4.83798e-02,-1.31583e-01,3.76379e-03,-4.38383e-02,-2.05908e-01,5.68527e-02,2.47397e-02,-3.45398e-02,-1.34723e-01,-6.63265e-02,-4.29053e-02,7.66087e-02,2.68409e-01,1.97230e-01,5.46337e-02,-1.16397e-01,1.47460e-01,-5.52022e-02,-1.04183e-01,-2.34819e-01,-7.05124e-02,4.28700e-02,-1.62618e-01,1.05408e-01,2.24794e-02,2.96325e-02,-1.04411e-01,-2.02586e-02,6.17071e-02,1.39524e-01,8.00700e-02,1.07543e-01,2.77001e-01,-2.91576e-01,-2.96951e-01,-4.27630e-02,-6.66311e-02,8.55656e-02,-7.26441e-02,-4.58353e-02,-1.11018e-03,-1.56373e-01,2.25371e-02,4.50264e-02,-8.56815e-02,-1.87316e-02,1.41854e-01,6.23587e-01,-2.56537e-02,1.35368e-01,-8.54465e-02,1.21745e-01,5.27498e-02,1.36809e-01,6.30812e-02,-7.28446e-02,8.59889e-02,-5.00322e-02,1.73501e-02,1.10379e-01,-2.78546e-01,-6.59936e-02,-6.59189e-02,-1.16236e-01,-5.13147e-02,1.41142e-01,4.45465e-02,-1.52134e-01,-2.67295e-01,-5.52570e-01,4.32053e-02,1.22478e-01,
-1.46254e-01,-9.31162e-02,1.18166e-02,-4.76063e-02,-5.16575e-02,-1.44303e-01,9.53963e-02,3.44691e-02,-1.08224e-01,-2.98155e-02,-3.55496e-02,2.68508e-02,-3.67334e-02,-1.40879e-01,-7.72983e-02,-9.91118e-02,6.68394e-02,-1.87146e-01,-5.59676e-02,8.92415e-03,-1.74734e-02,-8.73524e-02,-1.05983e-01,-1.86594e-01,-8.95457e-02,3.81612e-02,1.18014e-01,-1.48103e-01,8.30598e-02,2.86582e-02,-7.46266e-03,4.37699e-02,-4.43115e-02,-6.50131e-02,-1.75374e-01,-2.66947e-02,2.26504e-02,2.45887e-02,4.12990e-02,-1.63120e-01,-8.30689e-02,1.02219e-02,4.40352e-02,1.52493e-01,5.19167e-02,-1.23694e-01,5.95063e-02,4.42776e-02,-1.08820e-01,-1.01978e-01,1.19760e-01,-1.13130e-01,1.88252e-02,-7.07891e-02,1.00356e-01,7.21367e-02,6.34496e-03,-1.40850e-01,-6.53193e-02,2.22740e-02,-3.32364e-02,-5.63738e-02,-1.91622e-01,-6.92095e-02,-1.42989e-01,-1.10343e-02,-5.51799e-02,9.92077e-02,-4.41269e-02,1.34305e-01,-3.22597e-02,-4.43112e-02,-8.56848e-02,1.22729e-01,-1.03180e-01,3.16858e-02,1.51718e-02,-1.02523e-01,-1.08020e-01,1.16616e-01,-1.15150e-01,3.96283e-02,-7.51513e-02,2.36035e-02,-6.54871e-02,-6.61838e-02,-5.32654e-02,-5.28725e-02,-1.46954e-01,-1.04077e-01,9.10312e-02,-1.57727e-01,9.57067e-02,-1.38976e-01,-1.47586e-01,1.55232e-02,1.39410e-01,-5.73025e-02,-2.09444e-01,-5.50246e-02,5.14625e-02,-7.14001e-02,6.52966e-02,8.74469e-02,-2.68880e-02,-6.77472e-02,8.86822e-02,4.49675e-02,1.38267e-02,-4.16503e-02,5.27312e-02,-7.49578e-02,-1.99885e-01,6.38197e-02,7.05068e-03,-1.07788e-01,-2.04918e-01,4.55582e-02,1.26585e-02,1.11070e-01,-1.04684e-01,-1.22761e-01,-3.14547e-03,9.20049e-02,-1.32317e-01,-1.21722e-01,-1.21955e-01,-1.00356e-01,-1.21339e-01,-1.73745e-01,-1.51419e-01,-5.01596e-02,-1.54975e-01,-1.52692e-01,-4.22091e-02,-9.59787e-02,-1.02080e-01,-5.44690e-02,6.87729e-02,-1.08525e-01,-3.25603e-02,-1.81024e-01,-1.91226e-01,1.52553e-01,-9.19673e-02,3.90339e-02,-1.42205e-01,-1.54968e-01,9.10915e-02,2.44164e-02,
-8.74119e-02,1.24578e-01,1.14893e-01,-1.05422e-01,6.30564e-02,-1.61878e-01,-3.28203e-01,-3.26580e-01,1.05631e-01,-4.41494e-02,-3.27009e-01,-4.18617e-01,-4.47719e-01,9.13271e-02,-6.75743e-02,-3.71143e-01,-1.58754e-01,-4.00170e-01,-1.48337e-01,-2.63341e-01,-1.38055e-01,6.57817e-02,-1.29548e-01,-4.56780e-01,1.49536e-01,-4.07600e-01,-3.03912e-02,2.32765e-01,-2.33652e-02,-1.45102e-01,4.01031e-02,-1.43392e-01,-3.79077e-01,1.00643e-02,2.10609e-02,-1.22206e-01,-2.20440e-01,1.23664e-01,-4.02396e-02,9.75817e-02,-8.32548e-02,-1.41729e-01,-2.01251e-01,-1.27548e-01,1.30588e-01,-8.71816e-02,-1.44235e-01,1.28812e-01,-3.96640e-01,-2.69067e-02,-1.03943e-01,-2.86227e-01,-3.40226e-02,-1.18440e-01,-1.58066e-02,3.13007e-01,4.31409e-02,-7.05927e-02,9.17104e-02,-3.30636e-01,-3.32419e-02,-4.78008e-02,-2.72517e-01,-9.67286e-02,-1.78382e-01,-2.78335e-01,-6.43916e-02,-8.76413e-02,-3.08830e-01,2.03076e-02,-4.61732e-02,8.98072e-02,-1.25732e-01,1.08565e-02,3.20868e-02,-2.72740e-02,4.22096e-02,6.14834e-02,-4.63857e-03,4.77857e-02,-1.23388e-01,-4.33302e-01,-3.24352e-01,2.74104e-01,1.42439e-01,3.77946e-02,-1.62504e-01,-3.52802e-02,5.67156e-02,-1.78905e-01,8.40891e-02,-1.47601e-01,-1.17229e-01,9.91776e-02,-2.12548e-02,1.16077e-01,-7.63984e-02,-7.80923e-02,-3.09079e-01,-2.29667e-01,1.14490e-01,5.59513e-02,-4.06276e-01,-5.46898e-02,-4.91765e-02,-2.48539e-01,5.47110e-02,1.04544e-01,4.86186e-01,6.12612e-02,-1.08124e-01,-6.76098e-01,-2.61803e-01,5.57667e-02,-9.94254e-02,1.02884e-01,-2.97719e-01,2.37796e-03,-1.76815e-01,1.18076e-01,-6.23417e-02,-9.25729e-02,-3.10886e-01,-1.26884e-01,9.19065e-02,-9.79016e-02,8.37618e-02,-1.17851e-01,-1.23433e-01,-1.18653e-01,6.42513e-02,2.66902e-01,-4.13630e-01,1.64934e-01,-1.36871e-01,-1.20769e-01,-2.05197e-01,-9.78042e-02,-6.77631e-01,-1.25519e-01,-1.44828e-01,1.91362e-01,7.20378e-02,1.15397e-01,1.13434e-01,-1.53481e-01,-3.97187e-01,-2.35581e-01,5.93174e-02,1.25839e-01,
-4.87122e-03,-1.82149e-02,-2.09999e-03,1.56365e-01,-4.22116e-02,-1.32229e-01,-6.56170e-02,6.28397e-02,3.14966e-02,-1.52356e-01,-3.79391e-02,-4.79276e-03,5.68363e-02,-4.94816e-04,8.99766e-02,1.75095e-02,1.49916e-02,-1.72399e-01,-1.91795e-02,-7.96789e-02,-2.00357e-01,-2.02485e-02,8.72766e-02,3.27859e-02,1.37061e-01,-1.04024e-01,1.18592e-01,8.70070e-02,8.15141e-02,5.80766e-02,2.45527e-02,-9.95887e-03,-5.87540e-02,1.73152e-01,8.16425e-02,1.81667e-01,-5.28452e-02,-1.58231e-01,1.52503e-01,-7.04351e-02,1.82543e-01,-4.68327e-02,-1.92964e-01,1.62796e-02,-6.03798e-02,-1.21861e-02,1.73256e-01,-4.38290e-02,5.67208e-02,6.28496e-02,-7.49408e-02,-1.49880e-01,1.36616e-01,5.72020e-04,5.46320e-02,-4.11222e-02,5.20402e-02,1.21511e-01,1.80866e-01,-9.53442e-02,5.73861e-02,-1.53249e-01,-9.11347e-02,1.25799e-03,-1.44358e-01,8.81164e-02,8.47134e-02,3.03090e-02,6.74779e-02,1.32770e-01,-9.91491e-02,7.74868e-02,-8.32014e-02,-2.56655e-01,-1.10559e-01,6.22814e-02,1.89847e-02,6.21387e-02,7.96797e-02,-4.82140e-02,3.89478e-02,-1.94670e-01,-1.51418e-01,5.13345e-02,-1.38300e-01,8.37319e-02,-8.76977e-02,-1.11496e-01,-1.10409e-01,-1.09630e-01,-3.68084e-02,4.73164e-02,4.31952e-02,1.48879e-01,-2.32321e-02,2.95184e-03,7.96245e-02,1.18438e-01,-2.02243e-01,-1.20246e-01,-8.85280e-02,6.58107e-02,-1.60611e-02,-7.64434e-03,-2.55995e-02,-1.83543e-01,2.06348e-01,-1.17741e-01,1.22059e-02,3.41123e-03,1.31580e-01,-2.42440e-01,4.16891e-02,-1.85020e-02,-6.47175e-02,-3.86045e-02,5.97775e-02,2.13070e-03,-1.53973e-01,7.35213e-02,1.52616e-01,-1.44598e-01,4.19178e-02,-1.47608e-01,-3.34577e-02,-3.49076e-02,-9.06062e-02,-5.75947e-02,2.38671e-02,5.07978e-02,4.90574e-02,-6.82980e-02,-1.14449e-01,-6.81664e-02,2.00163e-01,1.99514e-01,-2.53274e-03,2.64974e-02,-5.14277e-02,-1.48330e-01,-1.96115e-01,-9.27506e-02,-3.62939e-02,4.52321e-04,-1.17065e-01,1.25511e-01,2.07683e-01,-2.04572e-01,-1.10702e-01,-1.51057e-01,
2.01191e-02,2.13555e-03,-3.83259e-02,3.91666e-02,-5.43849e-02,5.90365e-02,-8.58419e-02,-8.12568e-02,1.48257e-01,1.39348e-01,-1.96308e-01,-1.76405e-01,-1.84032e-01,1.51227e-01,4.38364e-02,7.06426e-02,-9.03542e-02,-1.66312e-01,5.74258e-02,5.06239e-02,-5.99696e-02,1.51166e-03,1.56200e-02,2.81235e-03,1.42145e-01,-2.08811e-01,-2.75165e-02,-9.05018e-02,-2.83323e-02,-1.94819e-01,1.32711e-01,1.36008e-01,-6.17313e-02,-1.21275e-01,-3.46407e-02,-8.34408e-02,-1.15884e-01,-1.15171e-01,-1.59214e-02,9.46823e-02,-1.07148e-01,-8.34332e-02,-1.74507e-02,5.38027e-03,1.16066e-01,-5.56252e-02,-1.17421e-01,1.32273e-01,-6.76892e-02,-6.01292e-02,-1.03419e-01,-7.29085e-02,2.08649e-02,8.77317e-02,-1.15463e-01,1.32212e-01,8.49041e-02,-1.08272e-01,-1.32626e-01,-1.73941e-01,-1.35122e-01,-9.85110e-02,-2.10838e-01,-1.43946e-01,9.11801e-03,2.04203e-01,-9.87371e-02,1.08388e-01,-2.05769e-01,-5.10587e-02,-1.31436e-01,-1.40526e-01,-9.76884e-02,-1.09636e-01,1.21829e-01,-1.28962e-01,2.16822e-02,-1.00682e-02,-2.09973e-01,5.18163e-03,-6.24699e-02,-2.10347e-01,-2.08029e-01,-2.33723e-02,-2.87548e-03,-1.39263e-01,1.86448e-02,1.95518e-03,9.76659e-02,-8.41014e-02,5.60610e-02,7.96366e-02,-3.71321e-02,2.61149e-02,6.75534e-02,-1.19077e-02,9.72876e-02,2.72626e-02,3.40014e-02,8.35074e-02,9.40456e-02,-1.40431e-01,-2.11473e-01,1.03428e-01,-1.18952e-01,-1.42208e-02,8.97427e-02,2.42114e-02,-2.50836e-01,-8.85491e-02,-1.40469e-01,-3.69143e-01,-8.45788e-02,-1.48008e-01,-1.39254e-01,1.37317e-01,-1.23225e-02,1.06553e-01,3.60187e-02,-4.02575e-02,8.47207e-02,3.12572e-02,-1.02424e-01,1.94702e-02,1.14303e-01,-8.39394e-02,1.86022e-01,-1.80776e-02,-1.46823e-01,1.34667e-01,-1.24526e-02,-1.30353e-01,6.79318e-02,-9.93993e-03,7.90241e-02,-1.47270e-01,-2.28039e-03,-8.54913e-02,-1.46444e-01,5.93496e-02,1.75029e-02,-1.24360e-01,-1.80505e-01,-9.23513e-02,-8.55495e-02,-3.97918e-02,4.04467e-02,-1.57606e-01,8.49213e-02,-9.68958e-02,
1.93543e-02,-1.65771e-01,2.34114e-02,7.63208e-02,-5.90634e-02,2.00628e-02,8.39455e-02,2.17939e-02,-1.93699e-01,-8.12726e-02,3.16867e-02,-1.02919e-01,-2.07696e-01,-4.99725e-02,-1.35537e-02,1.33689e-02,-1.55388e-01,-1.81955e-01,1.38008e-01,6.94933e-02,-2.12621e-01,2.01477e-02,-1.02317e-01,-6.80233e-02,-1.42646e-01,-2.10620e-01,-4.30421e-02,-1.39776e-02,1.72214e-02,-1.17945e-01,-1.00584e-01,4.22527e-03,-1.98357e-01,-1.32991e-01,-1.97690e-01,4.04760e-02,3.96020e-02,-1.54397e-01,-2.86457e-02,-8.07666e-02,-1.11745e-01,-1.74361e-01,-9.67339e-02,-2.21315e-01,-4.92176e-02,3.68097e-02,1.17045e-02,-6.19815e-02,-1.49801e-01,-1.33551e-02,-2.46505e-02,-3.65772e-02,5.59569e-02,-2.82523e-03,8.01051e-02,-1.01127e-01,1.52875e-01,1.27348e-01,-1.95153e-03,-6.62105e-02,8.70767e-03,-7.01094e-02,-1.70274e-01,-1.48173e-01,1.70316e-02,-7.35507e-02,-5.70130e-02,8.23685e-02,-1.12041e-01,-5.79502e-03,-6.03342e-02,1.67418e-02,-2.53048e-02,1.46447e-01,-1.53703e-01,-5.39571e-02,2.97974e-02,-1.43259e-01,-3.49601e-02,-3.05137e-03,7.63494e-02,7.08497e-02,8.44908e-02,-9.66436e-03,-1.38663e-01,4.60124e-02,-5.76706e-02,9.05585e-02,3.01154e-02,6.88707e-03,2.27022e-02,-7.00755e-02,-2.05015e-01,-3.89162e-02,4.09603e-02,-2.06300e-02,-4.61626e-02,6.74577e-02,4.94896e-02,-2.03665e-01,1.90363e-02,-1.97167e-01,4.56880e-03,-1.31838e-01,-2.00756e-01,-4.39158e-02,-7.22961e-02,-2.99640e-02,-2.75367e-02,-1.96115e-01,-1.77666e-02,-1.52267e-01,-9.36029e-02,-1.27661e-01,-1.44939e-01,-4.21035e-02,-9.59654e-02,-8.20510e-02,1.46505e-02,-1.54938e-02,1.46704e-01,-7.13501e-02,-4.34828e-03,-1.12390e-01,2.82860e-03,-3.21140e-01,2.70855e-02,1.07604e-02,6.61221e-02,-9.53013e-02,1.13104e-01,-6.46932e-02,-1.14851e-01,-3.45912e-02,-1.41546e-01,-3.38754e-02,-3.33701e-02,-2.17258e-01,-2.11968e-01,4.60476e-04,-5.28708e-02,-1.18903e-01,-1.13258e-01,1.04974e-01,4.52821e-02,-8.18567e-02,-1.18069e-01,-1.90589e-01,-7.00992e-02,-1.31674e-01,
4.29723e-02,1.30795e-01,1.33556e-01,9.32976e-03,1.43346e-01,9.84591e-02,3.88718e-02,1.31500e-01,-1.94400e-02,-1.01375e-01,1.18055e-01,-3.55675e-01,-7.26521e-02,-3.00801e-03,3.37609e-01,2.19429e-02,1.87683e-01,-2.12634e-01,-5.96070e-02,-1.33862e-02,1.47315e-01,6.67240e-02,-8.25415e-02,-1.03570e-01,-1.31898e-01,9.10867e-02,1.03377e-01,-2.40893e-03,9.63973e-02,-6.39288e-02,6.19952e-02,5.08220e-03,7.44488e-02,4.77262e-02,2.86866e-02,9.41090e-02,-3.02347e-02,-2.68388e-02,-6.78170e-03,-6.23249e-02,-1.27856e-01,2.01367e-01,1.78221e-01,5.40306e-02,1.33209e-01,-2.09586e-01,-1.62905e-01,-7.25782e-02,-1.31888e-02,-8.60258e-02,1.67606e-01,-3.30801e-01,-1.09460e-02,-1.43699e-02,-1.27506e-01,-1.47985e-01,5.77899e-02,7.04033e-02,-1.11467e-01,-9.44810e-02,-2.38848e-02,1.59631e-01,-6.04134e-02,-4.56052e-02,-3.02462e-01,1.59379e-01,3.28720e-05,8.22520e-02,1.91576e-01,-6.18295e-02,1.13231e-02,7.63411e-02,8.67181e-02,2.54769e-01,1.24147e-01,-8.11453e-02,-1.29646e-01,-1.98656e-02,3.90418e-02,5.25730e-02,4.48060e-02,1.04532e-01,-8.00175e-02,-2.46690e-02,1.94588e-01,6.54967e-02,-2.42205e-01,1.38897e-01,1.49812e-01,-2.03142e-02,4.50146e-01,-1.94167e-03,4.78262e-03,9.39595e-02,2.89361e-03,-5.56067e-02,-1.87955e-01,-4.57532e-02,6.44106e-02,-1.83875e-02,-3.53373e-02,8.12015e-02,-2.67658e-01,-7.96564e-02,7.50662e-02,2.84109e-01,-7.78443e-02,-1.60043e-01,5.55236e-02,1.69450e-02,5.44579e-02,-4.56886e-01,-2.68961e-01,8.96353e-02,6.30274e-02,-1.11448e-01,-6.39858e-02,8.58089e-02,-2.97604e-02,1.02657e-01,-5.41982e-03,1.25454e-01,3.89865e-02,4.33107e-02,-7.96786e-02,5.23663e-01,-8.96014e-02,7.43632e-02,-5.08416e-02,5.48907e-02,8.04453e-02,4.53293e-02,1.58838e-01,-3.65598e-02,-1.20937e-02,4.89767e-02,1.52903e-01,1.19227e-01,-2.93505e-01,1.30314e-01,5.21755e-02,-5.41680e-03,-1.09295e-02,7.11099e-02,9.15301e-02,-2.55586e-01,3.48303e-01,-3.54707e-01,-8.13336e-02,3.87330e-02,
-1.97398e-01,8.25158e-02,-1.41959e-01,-4.63794e-02,7.53606e-02,8.94410e-02,8.64349e-02,1.21138e-02,-1.23282e-01,-6.12989e-02,-1.25105e-01,3.04851e-02,-1.10874e-01,7.33185e-02,2.12538e-02,-1.09355e-02,6.61907e-02,-1.97162e-01,-1.04483e-01,-3.16582e-02,-1.73542e-01,-2.82115e-03,-5.01474e-02,-2.31313e-03,1.54115e-01,-4.48386e-02,-2.33856e-01,-8.58786e-02,7.88730e-02,-9.08001e-02,-1.65929e-01,1.67574e-02,-2.64537e-02,-4.37027e-02,-1.96551e-01,-1.11044e-01,-6.16664e-02,-4.15983e-02,-2.03583e-02,-1.80953e-01,5.72162e-02,-1.57580e-01,-5.88797e-03,-8.21601e-03,-2.02078e-01,-1.73889e-02,-7.04901e-02,-1.27911e-01,8.42896e-02,-1.30005e-01,-5.23724e-02,4.53951e-02,-5.01196e-02,6.31133e-02,-9.34542e-02,-8.36317e-02,3.20838e-02,4.45185e-02,5.61687e-02,-9.01864e-02,-1.93594e-01,-3.09701e-02,-5.15489e-02,-1.54277e-01,-1.75863e-01,-8.67121e-02,2.28963e-02,-3.24839e-02,-3.98462e-02,-4.86543e-02,-1.16886e-01,-3.03841e-02,-1.34348e-01,-9.48649e-02,-7.53389e-02,9.14950e-02,6.87699e-02,9.35867e-02,7.28000e-02,9.34405e-02,1.92072e-02,-5.03559e-02,-8.67862e-02,-1.17159e-01,-1.02915e-01,-7.07813e-02,-5.50315e-02,9.80342e-02,-1.01460e-01,-1.45848e-01,-8.37879e-02,-4.77078e-03,6.56812e-03,1.17043e-01,-3.18558e-02,-3.42671e-02,9.30062e-02,4.59213e-02,-1.94130e-01,-1.88869e-01,7.76330e-02,-1.15186e-02,2.18881e-03,5.95537e-02,-5.81760e-03,-9.55321e-03,-1.24702e-03,-2.25560e-02,-1.90225e-01,-1.44558e-01,4.41577e-02,-1.39448e-01,-1.41099e-01,-1.36649e-02,6.87630e-02,1.09212e-01,-2.13553e-01,-4.51151e-02,9.33170e-03,-1.52241e-01,9.91286e-03,5.22960e-02,-1.39001e-02,5.90924e-02,5.00681e-03,-4.41170e-02,-1.41570e-01,-3.51113e-02,1.28219e-01,2.87000e-02,5.23407e-02,-1.15967e-01,6.76408e-02,4.26979e-04,-5.38019e-02,-8.39603e-02,-1.03238e-01,1.59864e-02,-1.91716e-01,2.43492e-02,-1.39304e-01,-1.59989e-01,3.85702e-02,1.02464e-01,-4.07432e-02,-9.00876e-02,-1.45599e-01,-1.50037e-01,1.64060e-02,-1.11875e-01,
-1.62855e-01,7.31034e-02,-2.34427e-01,-1.77891e-01,-2.39257e-01,-1.07489e-01,5.20631e-02,-1.21319e-02,-1.88109e-01,-1.24308e-01,-1.10020e-01,1.49640e-02,-3.00508e-02,4.85258e-02,-1.24544e-01,-1.66914e-01,-1.50574e-01,-5.43508e-02,8.09652e-02,-2.08976e-02,-1.50023e-01,-9.41389e-02,2.52152e-02,-7.78054e-02,-1.46678e-02,-1.64868e-01,-1.49768e-01,-2.33471e-01,-2.27706e-01,-1.12094e-01,-1.22535e-01,-1.77084e-01,-1.01221e-02,-1.90410e-01,3.48619e-02,1.71636e-02,-2.95183e-02,-1.11723e-01,-1.61884e-01,-7.84706e-02,-1.65180e-01,-2.87635e-02,-4.31857e-02,-4.08803e-02,-1.60090e-01,-3.17437e-02,-2.36196e-01,7.05463e-02,4.11979e-02,-3.03412e-02,-3.21890e-02,-1.22220e-01,5.30308e-02,-1.33534e-01,-1.59457e-01,4.54619e-02,9.91479e-02,1.12427e-01,-2.26107e-02,-1.65736e-01,4.34171e-02,-6.80379e-02,2.60156e-02,3.30363e-02,2.00863e-02,-1.57263e-01,1.35186e-01,-5.41354e-02,4.48477e-02,-9.25699e-02,-3.66573e-02,3.46363e-02,1.20806e-02,1.42972e-01,5.73225e-02,-5.44359e-02,6.87064e-02,-9.51182e-02,-1.10599e-01,3.29302e-02,7.96646e-02,-1.45495e-01,-1.04583e-01,1.28623e-02,-1.31867e-01,-4.22688e-03,4.39628e-02,4.04891e-02,-5.72877e-02,-1.42439e-01,6.90900e-03,6.06517e-02,-1.88303e-01,-1.02786e-01,5.58754e-02,-7.09752e-02,-1.53542e-01,1.27111e-01,-7.72587e-02,-5.16791e-02,-2.12313e-02,-9.00596e-02,-1.66895e-01,-1.57473e-01,-3.70873e-03,-2.17859e-01,-2.01836e-01,-1.38655e-01,-4.39114e-02,-9.53647e-02,-2.50388e-01,-1.96589e-01,-1.63981e-01,1.82025e-03,-6.39612e-02,-1.17685e-01,-1.87850e-01,-5.72087e-02,5.82155e-02,-1.14060e-01,5.91855e-02,-8.34691e-02,-1.62169e-01,-1.47857e-01,-2.45879e-01,-7.92116e-02,-1.78100e-02,-7.14139e-02,-5.67739e-02,-5.75057e-02,7.86361e-02,5.52280e-02,8.78171e-02,-2.50594e-01,-3.84913e-02,1.11928e-02,-1.72932e-01,-9.13975e-02,5.52277e-02,-8.89250e-02,-1.89592e-01,-1.64755e-01,-9.69338e-02,-1.00832e-01,-1.78956e-01,3.96368e-02,6.19121e-02,-2.04725e-01,8.15942e-02,-2.19092e-01,
-5.98056e-03,-5.58632e-02,-9.02341e-02,2.37874e-02,-8.36593e-02,-3.99117e-02,-3.20474e-02,-9.97611e-02,-1.59859e-01,-8.27721e-03,6.67242e-02,3.71193e-01,-4.10810e-02,2.17091e-02,-1.83503e-01,-1.93104e-02,-1.31317e-01,-3.41301e-02,3.67509e-02,-5.91846e-02,7.81822e-02,1.95606e-01,-3.83678e-02,-1.39509e-01,7.81888e-02,-7.21854e-02,-4.22600e-02,6.69151e-03,-1.37625e-01,4.12541e-02,3.97977e-02,-1.98382e-01,4.53719e-02,6.12127e-02,-1.93332e-01,-7.83541e-02,6.30508e-02,-1.65725e-01,-3.86858e-02,-1.89687e-01,-1.52629e-01,4.15307e-02,-1.41800e-01,1.57231e-02,-6.47407e-02,-4.02139e-02,-1.78641e-01,1.34262e-01,-7.55570e-02,-5.79317e-03,-1.36038e-02,4.34883e-02,1.23542e-01,-2.34294e-01,-9.98278e-03,-4.48133e-03,-7.49739e-02,9.83139e-02,5.27093e-02,-7.03140e-02,3.75013e-02,-1.52518e-02,-2.08008e-01,5.56801e-02,6.72463e-02,2.48268e-02,1.12782e-01,5.93775e-03,-2.01304e-01,6.03089e-03,4.61422e-01,5.54679e-02,1.26243e-02,6.63905e-01,-1.03896e-01,1.28892e-01,-1.53763e-01,6.17129e-02,5.83428e-02,1.44742e-01,-5.11547e-01,-2.34467e-01,-3.93872e-01,-3.55131e-02,-6.25816e-02,1.38860e-02,-4.74637e-02,3.65455e-03,6.04129e-02,-2.21405e-02,-6.78140e-02,5.54578e-02,-1.70648e-01,-6.25052e-02,-1.40483e-01,-3.93533e-03,-4.06779e-02,1.00763e-01,-1.68637e-01,-3.83703e-02,-1.48571e-01,-3.63783e-02,-8.15539e-02,3.08356e-02,-1.84737e-01,-1.93086e-01,-9.16437e-03,1.96176e-02,-2.56091e-01,-7.44746e-02,-9.36221e-03,-7.39866e-01,-2.14923e-01,-1.30744e-01,9.84775e-02,7.51495e-02,-7.87609e-02,2.03429e-02,-9.40071e-02,5.24121e-02,-4.37419e-02,-1.46310e-01,4.18265e-02,-3.74807e-02,1.96655e-02,7.65646e-01,-9.55267e-02,2.64761e-02,-1.04242e-01,-1.42795e-01,1.85893e-02,3.47620e-02,-2.92782e-02,-1.34668e-01,7.80122e-01,3.47574e-02,-1.71319e-01,-6.08539e-02,-3.13418e-01,1.45840e-01,-4.30378e-01,-5.64639e-02,-1.81400e-01,-1.35603e-01,-1.36265e-01,-2.09979e-01,-2.09638e-01,-3.45293e-01,-1.37476e-01,-6.38408e-02,
-9.21336e-02,-1.14680e-01,-1.22888e-01,9.32684e-02,-9.31043e-02,-2.38210e-01,-1.79094e-01,1.06410e-01,2.22353e-02,-8.08989e-02,-2.17146e-01,-4.88197e-02,-4.06847e-01,-8.67326e-02,-7.15358e-02,1.45287e-01,-5.91304e-01,-9.46672e-02,-2.62474e-02,-3.33397e-01,-1.38509e-01,5.57989e-02,-1.67089e-01,1.47712e-01,1.60431e-02,4.23297e-02,-2.68874e-02,5.41704e-02,-9.89955e-03,6.35548e-02,-1.08263e-01,6.57677e-02,-1.28609e-01,-1.46330e-01,-2.03056e-01,7.49156e-02,-2.12563e-01,-6.11528e-02,-1.69802e-01,-3.85365e-02,-1.57307e-01,1.65329e-04,-1.01754e-01,-5.54384e-02,-1.33001e-01,-1.70981e-01,2.10604e-03,-1.07844e-01,-1.21796e-01,6.69487e-02,6.91758e-02,-5.54723e-01,-1.07749e-01,1.00975e-02,-1.45133e-01,-2.09816e-01,8.88274e-02,-4.37578e-02,-1.23183e-02,-1.01494e-01,-1.92478e-01,6.58905e-02,-3.06759e-01,-4.90880e-02,-4.31183e-02,-3.54482e-03,1.14511e-01,4.09938e-02,-4.51507e-01,1.43062e-01,-4.78286e-02,-9.30975e-03,2.16945e-02,1.00720e-01,4.47576e-02,-7.88393e-02,1.62697e-02,-1.33639e-01,1.39145e-02,2.98727e-02,-5.59963e-02,7.45715e-02,-5.72414e-01,-1.20339e-02,-1.96340e-01,4.13935e-02,-3.81320e-01,-2.26413e-02,4.99482e-02,-2.74378e-01,2.78147e-02,-2.40190e-02,-5.47855e-02,6.96812e-02,6.24936e-02,-1.59252e-02,9.36192e-02,3.72726e-02,-1.61096e-01,-1.79426e-01,7.83302e-03,-1.44149e-01,-7.86121e-02,-1.34378e-01,1.63346e-02,5.41941e-02,5.11228e-02,-5.66786e-02,-4.65360e-01,-1.03605e-01,1.94763e-02,-6.15042e-01,-2.08708e-01,2.68077e-02,8.07698e-02,-1.68750e-01,-1.33919e-01,4.09943e-02,-7.80155e-02,7.75696e-02,-1.58639e-03,-5.41532e-02,5.52924e-02,-7.82217e-02,-1.23050e-01,-4.67072e-02,-1.54492e-01,-5.39713e-02,-5.60769e-02,-7.66333e-02,4.99001e-02,-2.04428e-01,-1.53248e-01,-6.83020e-02,-2.19287e-01,5.43743e-02,-2.32866e-01,4.43685e-02,-2.60379e-01,-3.13089e-02,-1.10129e-01,2.88648e-02,-9.93852e-02,-1.89212e-01,4.37830e-02,-6.02294e-02,-2.40388e-02,4.19399e-02,-1.30781e-01,-1.02130e-01,
-1.62527e-01,-8.33455e-02,-1.20955e-01,-1.57387e-01,-2.20251e-01,-2.01487e-01,-1.10205e-01,7.90575e-02,4.97151e-02,2.18652e-02,-1.59367e-01,-6.85084e-02,-1.37185e-01,-1.42107e-02,-6.53182e-02,1.43025e-02,-2.87049e-02,1.35652e-02,-1.04091e-01,8.43554e-03,-1.82892e-01,-2.40918e-02,1.91565e-02,-2.13810e-01,-3.32458e-02,-6.25177e-02,-1.78212e-01,-2.63274e-03,3.24675e-02,-8.42835e-02,-3.84772e-02,-1.42234e-01,-1.18992e-01,3.38855e-02,1.10969e-02,1.53181e-01,-8.67666e-03,-1.23983e-02,6.11089e-02,-1.56722e-01,-2.12365e-02,8.11783e-02,-1.73251e-01,1.70020e-01,-1.14556e-01,-1.08803e-01,8.17909e-03,-9.48532e-02,-1.10330e-01,-1.25424e-01,-2.31288e-04,7.20011e-03,-1.44128e-01,1.35120e-02,-6.04866e-01,-2.18014e-02,1.27255e-01,-1.55185e-03,-6.42184e-02,5.53443e-02,4.94152e-02,-1.06007e-01,1.42358e-02,9.87746e-02,-2.42297e-01,4.81323e-02,-1.40133e-01,-1.31361e-01,-6.05010e-02,-3.91385e-03,-4.69855e-02,-2.21024e-01,-1.50026e-01,-1.54193e-02,-7.91935e-02,-6.11388e-02,6.09280e-02,-8.46855e-02,-8.45347e-02,3.86816e-02,-2.96500e-01,-2.25951e-02,-4.57684e-01,-5.09624e-02,6.96168e-02,-8.23982e-02,-3.68046e-01,8.23331e-03,4.72327e-02,-4.05712e-02,-9.03402e-02,-1.63272e-01,-2.20966e-01,1.09304e-02,-2.07329e-02,2.46325e-02,-1.01466e-01,1.37940e-01,5.10554e-02,-2.24770e-01,-9.58567e-02,3.69418e-02,-3.34355e-02,-8.10110e-02,-1.80180e-01,-9.01738e-02,1.45056e-01,-1.03054e-01,-1.15571e-01,-9.21927e-02,-8.26600e-02,-5.80166e-01,-1.49995e-01,5.75763e-02,1.16571e-01,-1.32840e-02,-6.60609e-03,2.13988e-02,-1.97953e-01,-9.92708e-03,1.54959e-02,1.10637e-01,-3.78888e-02,1.37510e-01,-3.26752e-02,5.25919e-02,-1.66394e-01,-7.18853e-02,-1.32873e-02,-2.24811e-01,9.57712e-02,-1.01021e-01,-9.92191e-02,-1.47993e-01,-1.21597e-01,3.78543e-02,-1.37078e-01,1.49064e-02,-3.27970e-01,-6.29021e-03,-3.31091e-01,-6.30737e-02,-4.45045e-02,-5.97208e-02,-5.65771e-02,-1.24032e-01,-3.17530e-01,-4.06245e-01,7.01286e-02,-2.01377e-01,
5.84142e-02,1.37522e-02,8.60044e-02,-9.79083e-02,-1.00827e-01,-6.77737e-03,-1.92640e-01,5.99427e-02,-1.64702e-01,6.07632e-02,-1.59738e-01,-8.43398e-02,4.87969e-02,-1.62512e-01,7.95278e-02,-2.06815e-01,-1.26988e-01,-6.79879e-02,1.23523e-01,-3.43515e-02,-2.11322e-01,-1.46116e-01,-4.98221e-02,-1.05383e-02,1.92241e-02,4.13532e-02,-6.79408e-03,-1.33094e-01,-2.22662e-02,-1.88791e-01,-1.61638e-02,-1.80633e-01,-7.78477e-02,1.42682e-01,-1.01281e-01,-8.12048e-02,5.55339e-02,-2.04386e-01,-8.64803e-02,-2.96351e-02,-5.47082e-02,6.70786e-02,-2.68262e-02,-6.90251e-02,-4.65983e-03,-1.32001e-02,-1.49765e-01,9.43193e-03,-1.03510e-01,5.21783e-02,-1.49177e-01,-2.35044e-02,-1.47610e-01,7.35902e-03,-1.81496e-02,1.27495e-01,-6.50685e-02,7.97586e-02,-1.98605e-01,-4.91781e-02,7.08146e-02,-1.57442e-01,-1.12501e-01,1.53287e-03,-1.76498e-01,-8.33234e-02,1.01670e-01,-3.73226e-02,-7.01573e-03,-7.68785e-02,3.01830e-01,-1.93827e-01,-1.46969e-01,1.13842e-01,3.57664e-02,-1.92356e-01,1.15448e-01,1.33087e-03,-1.57138e-01,-1.55340e-03,-1.10747e-01,6.13279e-02,7.09960e-02,7.40017e-02,-1.59158e-01,-7.10336e-02,-1.56976e-01,1.33179e-01,4.86680e-02,-7.26239e-02,-1.99097e-02,5.07020e-03,7.39189e-02,6.59464e-02,-5.21638e-02,2.68464e-02,-2.38139e-02,1.42361e-01,-1.66308e-01,-2.09795e-02,4.58227e-02,2.22720e-02,4.34241e-02,-1.33819e-01,6.71908e-02,-5.89599e-02,-2.04845e-01,-3.11747e-02,-9.27185e-03,-1.49437e-01,1.86430e-02,-1.95680e-01,-6.91259e-02,-9.77529e-02,1.44828e-02,-8.87256e-02,2.93313e-02,6.22533e-02,-2.10421e-01,7.96384e-02,8.77457e-02,-6.57444e-03,-4.61812e-01,-1.91453e-02,-1.49111e-02,2.21266e-01,-1.43214e-01,-1.39608e-01,7.25195e-02,2.23295e-02,6.78797e-02,-1.67778e-01,-4.90300e-03,-1.50179e-01,-7.80443e-02,-9.43304e-02,8.60113e-02,-6.99179e-02,-1.32511e-01,1.20284e-01,-1.71536e-01,-6.06267e-02,-1.16185e-01,-5.95313e-02,6.76461e-02,-1.60339e-01,-1.48504e-01,-3.83194e-02,2.14416e-03,-1.08925e-01,
-1.93598e-01,-7.97078e-03,-1.60279e-01,1.11178e-02,-3.53663e-02,-9.80861e-02,-3.26307e-02,-9.85245e-02,6.70590e-03,1.37023e-02,-6.88733e-02,-1.54792e-01,-1.14144e-01,1.79138e-02,-1.38408e-01,1.00422e-02,3.49534e-02,-1.63010e-01,-1.11997e-02,-1.68834e-01,-1.95581e-01,2.81127e-02,-7.58725e-02,-2.69711e-01,-1.36379e-01,2.21663e-02,-8.38163e-02,-1.23451e-01,7.41704e-02,-1.43208e-01,-4.00561e-02,-1.40213e-01,1.33725e-01,-1.22307e-01,9.80127e-02,-1.34234e-01,-9.46771e-02,-1.82776e-01,6.27321e-02,-1.75971e-01,9.88175e-02,-1.31028e-02,4.04920e-02,-1.39972e-01,-1.73651e-01,-5.40955e-02,3.56582e-02,1.07322e-01,-1.31598e-03,1.53355e-01,-1.78690e-02,-1.45027e-01,1.19099e-02,2.79200e-02,-4.59672e-02,-4.44607e-02,-3.65694e-02,4.01928e-02,1.01800e-01,-2.03288e-01,-2.24961e-02,-7.54661e-02,-3.33193e-01,-1.47062e-01,-9.86898e-02,5.69948e-02,-6.72598e-03,4.59021e-02,8.85302e-02,4.14230e-02,1.49618e-01,-6.72919e-02,-1.90179e-01,1.32525e-02,1.50464e-02,3.66049e-02,1.12079e-01,-1.62197e-02,5.44045e-02,4.86774e-02,-1.00139e-01,-1.39917e-01,-3.60984e-01,2.02731e-02,-8.14996e-02,4.83623e-02,-1.69370e-01,1.34681e-01,3.28778e-02,-6.38402e-02,9.31960e-03,1.68388e-02,8.39065e-02,1.03827e-01,-7.46581e-02,4.75742e-02,6.29265e-03,-8.86360e-03,5.51706e-03,7.23284e-02,-1.37224e-02,-1.72923e-03,-6.34005e-02,-1.05981e-01,-1.89476e-01,-1.44769e-02,1.47071e-02,-8.06665e-02,-2.41986e-01,4.17414e-02,6.73969e-03,-2.99371e-01,-2.63446e-01,6.38565e-02,-8.34965e-02,1.45780e-01,-8.35714e-02,-4.12623e-02,8.02778e-02,1.38652e-01,1.12397e-01,-1.51444e-01,-2.04651e-01,1.41365e-01,-1.37600e-01,-4.05709e-02,1.01262e-01,4.35038e-02,7.64084e-03,1.11830e-01,1.49315e-01,-1.05330e-01,-1.83775e-01,-4.09175e-01,-5.87243e-02,2.45535e-02,5.25142e-02,3.35931e-02,-3.68080e-02,5.12281e-02,-4.88746e-02,-1.42700e-01,-3.44170e-01,1.38016e-01,-1.36492e-01,9.79996e-02,-3.61277e-03,-5.08420e-02,-1.32867e-01,-1.60797e-01,
-1.48331e-01,1.49851e-01,1.95152e-02,-7.21795e-02,6.82612e-02,7.36137e-03,-9.64316e-02,-5.32037e-02,9.69602e-02,4.51040e-02,-3.11064e-01,5.73106e-01,-2.58897e-02,-8.10744e-02,-1.50913e-01,-1.58978e-01,-4.46291e-03,1.86385e-02,1.31600e-01,-1.52184e-01,-4.07857e-02,-3.58590e-02,1.53933e-01,-3.69283e-02,-2.05942e-02,1.79417e-01,-3.58432e-01,9.94567e-02,5.43561e-02,-8.94642e-02,7.83244e-02,-2.60542e-02,-8.33539e-02,-2.34753e-02,-8.03449e-02,-6.08102e-02,-3.09942e-01,-1.70430e-01,1.43406e-01,2.31890e-02,-6.31242e-02,-1.42170e-01,-7.65648e-02,-8.23149e-02,-1.87111e-02,-1.40697e-01,1.47330e-01,9.31515e-02,-1.09535e-02,9.63425e-02,-5.76850e-02,-1.59391e-01,-5.96894e-02,-7.93522e-02,-1.65738e-01,3.74267e-02,1.42482e-01,-1.07389e-01,9.00490e-02,-1.02316e-01,3.16724e-02,-1.01876e-01,-1.29757e-01,-1.65403e-05,3.82462e-02,2.11976e-02,-9.82435e-02,-1.30497e-01,-2.29872e-03,1.39520e-01,-1.60216e-01,-2.17294e-01,-9.38963e-02,9.80918e-01,-1.07452e-01,1.34589e-02,1.54616e-01,-9.27314e-02,5.87040e-02,-4.01547e-02,-4.34756e-01,-2.20327e-02,-9.96301e-01,4.91207e-01,2.08574e-02,-1.30534e-01,-1.81088e-01,1.12349e-02,1.34513e-01,2.97031e-02,-1.54883e-01,1.83150e-02,-7.44672e-02,-9.17966e-02,-2.86997e-02,-2.62369e-02,1.90752e-01,-1.16556e-01,-4.05950e-02,-1.21970e-02,-2.19201e-02,-3.48540e-02,-3.82514e-01,1.76020e-03,-5.68904e-03,5.87101e-02,1.46525e-01,1.48814e-01,-8.50933e-01,7.29988e-02,-9.58170e-02,-1.15289e+00,-9.97822e-02,-1.18924e-01,-6.65414e-02,5.35048e-02,6.81411e-02,9.54945e-02,7.64706e-02,3.75562e-02,-3.25631e-02,-1.00020e-01,-3.49343e-02,6.85139e-02,-8.45864e-02,4.79852e-01,-1.43472e-01,-6.57323e-02,-2.54669e-02,-7.30957e-02,-5.25717e-02,-9.59601e-02,4.79967e-01,-5.89615e-01,2.44007e-04,5.63628e-02,9.22346e-02,6.44116e-02,1.73374e-01,-3.34692e-02,-5.40734e-01,-1.32784e-01,-3.33171e-01,-8.51250e-02,1.11913e-01,-1.10751e-01,-2.72746e-01,-4.60506e-01,-3.27148e-02,1.18998e-01,
6.90951e-02,-5.53450e-02,-1.45089e-02,1.19158e-02,4.22026e-02,-1.57622e-01,3.51164e-02,-3.41712e-02,-1.62824e-01,8.02040e-02,-9.43767e-02,-3.88897e-02,1.79152e-02,4.73762e-02,2.29225e-02,-1.24841e-02,-1.08312e-01,-1.73024e-03,7.11288e-02,-9.15317e-02,-2.36136e-01,5.67004e-04,-2.73883e-02,-9.21667e-02,-7.98047e-02,-1.27559e-01,8.35428e-02,-3.95007e-02,1.70300e-02,-1.62782e-01,-2.59623e-03,6.47994e-02,5.32716e-02,2.82819e-02,-1.45380e-01,2.11080e-02,5.22460e-02,-1.67169e-01,-1.16911e-01,-2.62293e-02,-1.68809e-01,8.93654e-02,-2.10447e-01,2.94188e-02,-2.16159e-02,2.06029e-02,7.84263e-02,-1.34245e-01,-1.90099e-01,6.89795e-02,-1.02556e-01,-2.23042e-01,1.05184e-01,5.02940e-02,-1.45749e-01,1.73262e-02,6.33202e-02,-1.50728e-01,-1.98025e-01,5.18109e-02,4.40467e-02,1.95455e-01,-2.05836e-01,-1.10389e-02,3.87890e-02,2.69596e-02,-5.32716e-02,2.46056e-02,6.54329e-02,-5.14739e-02,8.77332e-02,2.09275e-03,1.35792e-01,-1.35275e-02,-7.31435e-02,-1.95315e-02,-5.44332e-02,-1.15420e-01,-7.42128e-02,1.46739e-01,-1.72223e-01,1.86673e-02,-5.15264e-02,-2.02963e-01,3.78074e-03,4.08458e-02,-1.50887e-01,-3.99773e-02,1.22626e-01,4.39147e-02,8.29478e-02,-9.03584e-02,4.60356e-03,-5.32679e-02,8.21192e-02,-1.33242e-01,-1.46189e-01,-1.32631e-01,-1.10074e-01,-1.97669e-01,-5.16137e-02,-9.86285e-02,-2.57691e-02,1.11706e-01,-1.43608e-01,-5.34009e-02,-1.84032e-01,-7.20856e-02,-1.66312e-01,-1.37788e-01,-5.32037e-02,-1.99382e-01,-1.67448e-01,3.35293e-03,1.21386e-01,-1.43182e-01,2.06151e-02,3.47687e-03,-1.45230e-01,2.45970e-02,-1.49264e-01,-4.26596e-02,-3.75677e-02,-1.38642e-01,1.75050e-01,-7.96090e-02,-5.06263e-02,-2.23626e-01,-1.48740e-01,-1.84042e-01,5.53761e-02,4.02373e-02,5.35360e-02,-2.14348e-02,-2.18732e-01,-1.13958e-01,1.75527e-02,-1.02842e-01,-4.61952e-02,-1.25046e-02,-1.49032e-01,-1.45716e-01,6.60880e-02,8.26136e-02,-9.07359e-02,-1.86128e-01,-6.29292e-02,-2.17404e-01,2.38834e-02,8.19635e-03,
1.57228e-02,-4.08688e-02,-1.34336e-01,-4.87666e-02,-1.12594e-02,4.69458e-03,9.33741e-02,1.82710e-02,4.77737e-02,1.30983e-01,-6.41904e-02,-1.72617e-01,1.64586e-02,8.00073e-02,-1.45232e-02,-1.39279e-01,-1.34775e-01,-1.87576e-01,7.14125e-02,-1.79656e-01,-1.21306e-01,1.05291e-01,2.19223e-02,7.60521e-02,1.42148e-01,7.07638e-02,-1.44131e-01,-1.69887e-01,-1.92519e-01,-1.03293e-01,-2.12168e-01,9.22448e-02,-1.62805e-01,-5.64802e-02,-1.33546e-01,-7.46379e-02,8.40372e-02,-1.36525e-01,-7.73969e-02,-2.73271e-02,5.42491e-02,-4.38654e-02,7.02697e-02,1.31009e-02,-1.06321e-01,-8.84820e-02,-9.00561e-02,-1.07819e-01,4.44856e-02,-2.62850e-02,-9.68031e-02,-1.85377e-01,1.33337e-01,1.02627e-01,-4.90985e-01,6.05650e-02,4.34498e-02,-1.34896e-01,-1.00078e-01,-1.20783e-01,-8.74427e-02,1.25569e-01,-1.36023e-01,-1.29394e-01,-1.12035e-01,-1.95543e-01,-1.24025e-01,-1.61131e-01,5.63183e-03,-4.96929e-02,1.35203e-01,-1.69785e-01,1.00138e-01,-4.48059e-01,4.22126e-02,-1.45910e-01,-4.16158e-03,-1.34215e-01,3.03176e-02,-1.21012e-01,-1.75319e-01,-4.06300e-02,-2.54117e-01,-5.32827e-02,-1.52994e-01,7.34947e-02,-6.63195e-02,1.33422e-01,-1.21175e-01,-3.35285e-02,1.52971e-01,-1.77344e-02,-6.64977e-02,1.31159e-01,-5.88284e-02,2.71328e-02,1.17817e-01,-8.90991e-02,-1.27241e-01,2.26892e-02,6.10842e-03,-5.97626e-02,-1.24718e-01,1.43710e-01,-5.37822e-02,1.94232e-02,-8.99141e-02,9.08181e-04,-2.14152e-01,1.48257e-01,-1.48331e-01,-4.83364e-01,1.71562e-02,-6.86073e-02,-8.44940e-02,2.76463e-03,-1.34044e-01,-1.95303e-01,-4.83613e-03,2.55883e-02,-3.00659e-02,1.22308e-02,-4.09680e-01,2.82257e-02,5.46591e-02,-4.43889e-01,-4.09401e-02,-2.03331e-02,-1.43409e-01,-5.37152e-02,1.20800e-01,-3.42475e-02,-9.45369e-02,-2.76208e-01,-8.90097e-02,1.27154e-01,-3.88002e-03,-1.21450e-01,-5.86867e-02,-1.46988e-01,-2.42816e-01,-3.02504e-02,-1.60852e-01,-1.71497e-02,-1.01781e-01,-8.71426e-02,-1.06663e-01,-1.86461e-01,4.29271e-02,-3.28325e-03,
-2.66193e-01,1.81923e-02,-2.12644e-01,2.75373e-03,-1.72711e-02,-3.56853e-01,3.22658e-01,4.04332e-01,1.08535e-01,-1.42466e-01,-2.73632e-01,-1.43959e-01,3.30896e-01,-9.91486e-02,-4.04282e-01,-4.53456e-01,3.80530e-01,-2.69157e-01,1.32696e-01,-4.02340e-01,-2.29174e-01,4.30759e-02,1.21497e-02,-4.32668e-01,5.79904e-03,2.18685e-01,-5.97473e-01,-3.68229e-01,-3.40765e-01,-2.89326e-01,-2.53371e-01,-3.44798e-04,1.66957e-01,-9.19639e-03,-2.88540e-01,7.11566e-02,-3.85411e-01,-2.83502e-02,1.07541e-01,-1.59231e-01,-6.22990e-02,-1.49796e-01,-2.54000e-01,1.40090e-01,-3.12071e-01,4.14907e-02,-1.39196e-01,2.04904e-02,3.99448e-01,-6.15959e-02,1.69226e-02,-3.69269e-01,-4.95761e-02,-3.24892e-01,-2.40380e-01,-2.50829e-01,-1.03521e-01,1.25434e-01,-1.47938e-01,-2.30366e-01,1.27494e-01,-4.23211e-01,-3.26667e-01,9.17176e-02,-2.66401e-01,1.54960e-01,1.36390e-01,1.35363e-01,3.33419e-01,1.12323e-01,-3.18840e-01,-3.08342e-01,-3.74108e-01,-3.23103e-01,-4.08348e-01,-7.05894e-02,-1.38807e-01,-1.14005e-01,5.26132e-02,1.05517e-01,-4.50817e-01,-2.65426e-01,-2.73699e-01,-3.96973e-01,1.09459e-01,4.24216e-02,-2.71086e-01,-1.50994e-01,4.24642e-02,4.36444e-01,-3.39395e-01,-5.08496e-02,1.71484e-02,-3.16641e-02,-1.23767e-01,-3.19981e-01,-1.00302e-02,2.06153e-03,-4.47957e-01,-4.19228e-01,1.51410e-01,6.61067e-02,-2.17570e-01,1.31490e-01,-3.15389e-01,2.09239e-01,1.24858e-01,-5.90684e-02,-2.27896e-01,-1.17786e-01,-6.74467e-02,-2.14765e-01,-4.01470e-01,6.53707e-02,1.43909e-01,1.38582e-01,-2.52093e-01,-2.35848e-01,1.45891e-01,-1.75760e-02,1.53930e-01,-1.55260e-02,-3.00995e-01,-9.77421e-03,1.03926e-01,1.26056e-01,-1.22430e-01,8.24266e-02,-9.52637e-03,-8.59467e-02,-1.29223e-02,-1.80061e-01,3.07593e-01,-3.28073e-01,-2.07864e-01,1.54232e-02,-3.77222e-01,-2.62050e-02,-4.47836e-01,1.50990e-01,-9.37497e-02,-3.63111e-01,-3.46665e-01,-2.20215e-01,1.09783e-01,-3.27088e-01,-3.61056e-01,-1.49833e-01,7.96876e-02,-3.79691e-01,
-8.04904e-02,-1.05832e-01,-3.19200e-02,1.40866e-01,-1.07350e-01,-1.50049e-01,-1.80626e-01,-1.89797e-02,-7.65721e-02,-3.61001e-02,-1.35784e-01,-1.37957e-01,-1.44178e-01,-1.40635e-01,1.24479e-02,3.19355e-02,-9.10151e-03,-5.26922e-02,-9.06911e-02,-2.41258e-01,5.81573e-02,1.14070e-01,-1.93254e-01,-4.10416e-02,8.66493e-02,-9.61936e-02,-2.81593e-01,-6.80606e-02,-1.19961e-02,-1.31135e-01,-4.17448e-02,1.50639e-03,5.79233e-02,1.32671e-01,-6.01793e-02,5.10559e-02,-1.57147e-01,-1.96132e-01,-2.25137e-02,6.72471e-02,2.71846e-01,-1.45975e-01,-7.74508e-02,-1.60589e-01,-1.81407e-01,1.07325e-01,2.43126e-01,7.66860e-02,-1.60574e-01,-1.73065e-01,-1.00965e-01,-1.37220e-01,1.25437e-01,-2.88464e-02,-9.16847e-02,-1.20268e-01,1.32975e-02,-3.29849e-02,1.63388e-01,2.78699e-02,3.20770e-02,-8.00668e-02,-1.86066e-01,-1.21981e-01,-2.26053e-01,-9.35780e-02,-1.38297e-02,-1.16032e-01,-2.67038e-02,6.31990e-02,4.49489e-01,2.08251e-02,-1.30974e-01,4.74755e-01,-2.57228e-02,6.55097e-02,-8.71244e-02,-1.11706e-01,4.39935e-01,-4.14024e-04,-3.17797e-01,-1.98078e-01,-1.31655e-01,-2.97361e-02,4.08238e-02,-2.48090e-02,-2.15731e-01,-9.96143e-02,1.66198e-02,1.12288e-02,-2.16643e-01,1.31335e-02,-8.63002e-02,-9.47751e-02,7.91524e-02,-6.83531e-02,6.96275e-01,4.73647e-02,-1.43321e-01,-2.20198e-01,8.87180e-02,-4.80034e-02,-1.09286e-01,-4.23128e-02,-6.65035e-02,-1.83819e-01,9.03647e-02,7.63627e-02,-2.12211e-01,4.52904e-02,1.05431e-01,-5.60124e-01,-1.98914e-01,-4.96290e-02,3.43694e-02,1.67283e-01,-9.86138e-03,-1.26266e-02,7.49555e-02,4.57416e-03,4.42130e-02,1.49620e-01,6.55632e-02,-1.51404e-01,1.34832e-02,6.37119e-01,-1.56516e-01,7.81894e-02,-9.02796e-02,-4.86009e-03,-8.94663e-02,-1.58560e-01,-1.15100e-02,2.50428e-01,1.37440e-01,-3.04274e-02,-3.58743e-01,7.31908e-02,-2.46814e-01,-1.92499e-02,-6.21665e-01,-1.78232e-01,-1.37888e-01,-5.25234e-02,9.06580e-02,1.29185e-01,-7.61603e-02,-3.24373e-01,-7.00194e-02,-2.29698e-01,
-1.92897e-03,-8.69187e-02,-1.11412e-01,-1.05113e-01,-1.53999e-01,-1.82640e-01,-6.15686e-02,-1.78311e-01,-1.90591e-02,-1.50728e-01,1.52361e-03,-2.25823e-01,4.66632e-02,-9.13517e-02,-2.03587e-02,4.39187e-02,-2.05698e-01,-5.45317e-03,7.64508e-02,-6.94895e-02,-9.48535e-02,8.92265e-02,2.09009e-02,-1.47698e-01,3.82695e-02,-3.35930e-02,-9.95331e-02,-1.00629e-02,5.66694e-02,-3.73966e-02,-1.49120e-01,-1.59450e-01,-6.32178e-02,-1.46690e-01,6.65697e-02,1.58216e-02,-6.83383e-02,5.69456e-03,-2.56514e-02,-1.61375e-02,-2.84733e-01,-5.20630e-02,-8.11518e-02,-6.55981e-02,-1.40696e-01,-1.36661e-01,-1.48546e-01,-7.30715e-02,-1.07258e-01,1.16841e-03,5.75808e-02,-1.08712e-01,-8.07317e-02,-7.98078e-02,-8.69657e-02,-2.59124e-02,1.16014e-01,2.67063e-02,-2.50774e-01,-1.92615e-01,7.07235e-02,5.99131e-02,-4.80432e-02,1.49915e-01,-2.37957e-01,-1.08946e-01,-9.17445e-02,-1.57394e-01,-1.34390e-01,-7.05838e-02,1.26976e-01,-1.95093e-01,4.58838e-02,-9.08575e-02,-1.60605e-01,-5.33735e-02,1.23509e-01,-3.65598e-02,-2.01470e-01,-1.25461e-02,-2.15440e-02,6.97509e-02,-6.65302e-02,4.34999e-02,3.39367e-02,-6.55514e-02,-1.30786e-01,2.81766e-02,1.10767e-01,-6.59646e-02,4.07755e-03,-2.11002e-01,-4.23605e-02,-8.03762e-02,1.44490e-01,-4.40355e-02,-1.82688e-04,1.79410e-02,4.63769e-02,2.34844e-02,7.34264e-02,2.72141e-02,9.06656e-02,-1.98678e-01,-1.25014e-01,-8.76361e-02,-8.01229e-02,1.58492e-01,-1.60950e-01,9.99677e-03,-1.04879e-01,-4.64904e-01,-3.40139e-01,3.67965e-02,1.46233e-01,-2.42969e-01,3.29429e-03,-9.13854e-02,-1.18916e-01,1.24818e-01,1.13693e-01,5.50825e-02,-1.46762e-01,-8.46645e-02,-8.81497e-02,4.19619e-01,-1.05201e-01,-1.23997e-01,1.35736e-01,-2.33004e-02,8.63170e-02,1.52362e-02,-1.28298e-01,-3.27487e-01,-1.20425e-01,-6.26731e-03,-4.58497e-02,3.29238e-04,-2.42571e-01,-1.00795e-01,-1.88580e-01,-9.28435e-03,-2.08280e-01,1.80909e-01,7.95314e-03,-3.53039e-01,-1.10455e-01,-3.61927e-01,1.27350e-02,-4.60602e-02,
-1.51808e-01,1.38352e-02,-4.27708e-02,2.60374e-03,-1.48633e-01,-2.54334e-02,-1.49196e-01,-1.20495e-01,-3.41641e-02,-1.48745e-01,5.87456e-02,-2.61515e-01,-5.26787e-02,-2.65830e-02,-8.15804e-02,2.11872e-02,1.13365e-01,-3.22358e-01,-2.67814e-02,5.72788e-02,5.28662e-02,-3.38792e-02,-1.52308e-01,-1.59194e-02,2.99816e-02,7.02992e-02,-1.14297e-01,-2.68584e-02,-1.43779e-01,-1.78776e-01,-1.32989e-01,5.65198e-02,2.46919e-02,-1.86087e-01,5.62316e-02,-6.00265e-02,-7.15856e-02,-1.21502e-01,7.37431e-02,-5.23264e-02,-7.05416e-02,-1.10253e-01,2.69553e-02,-2.00388e-01,4.48312e-02,7.52265e-02,-1.32346e-01,1.53888e-01,8.23704e-02,6.38306e-02,-5.54740e-03,3.78600e-03,9.28002e-02,-2.36406e-01,-1.76088e-01,-1.82567e-01,-1.31992e-01,1.40679e-01,-1.91434e-01,7.67042e-02,-8.10299e-02,-1.62730e-01,-9.70525e-02,1.19276e-01,-5.07077e-02,1.25865e-01,6.83368e-02,-8.81890e-03,9.42405e-02,1.47516e-02,1.79170e-01,2.70012e-02,8.57792e-02,-1.20455e-02,-1.04051e-01,5.25583e-03,-5.56800e-02,1.81107e-02,-4.53739e-02,-3.95313e-02,1.41215e-01,-1.53509e-02,-2.07408e-01,6.27028e-02,-5.66255e-02,1.06439e-01,1.13839e-01,-4.55805e-02,2.36486e-02,-1.63909e-01,8.33452e-02,4.41672e-02,-1.06910e-01,-1.19921e-01,1.28635e-01,-1.69967e-01,-1.25603e-01,-1.47613e-01,1.47447e-02,-1.43589e-01,-4.80310e-02,-7.31768e-02,-7.21439e-02,-1.81545e-01,-9.75401e-02,4.14371e-02,4.41402e-02,-1.95352e-01,-4.81964e-02,-1.36470e-01,-1.95909e-01,-2.10685e-01,-1.91649e-01,8.25439e-02,-8.72969e-02,-5.63945e-02,1.08981e-01,-1.32582e-01,-1.42984e-01,-1.02098e-01,9.08761e-02,1.95583e-02,-2.97561e-01,-2.07465e-02,-9.49537e-02,5.81629e-01,-1.35155e-01,1.14729e-01,-1.06339e-01,6.10725e-02,1.44506e-01,-7.45403e-02,1.22768e-01,-2.02047e-01,1.04677e-02,-1.32896e-01,-4.89381e-02,9.43741e-02,-1.65530e-01,3.00247e-02,-8.51463e-02,-2.61726e-03,-2.66898e-02,-7.87636e-02,2.29635e-02,2.99016e-02,3.79169e-02,-1.52809e-01,1.20254e-01,-2.23254e-02,
-4.01604e-02,-8.03450e-02,-6.32107e-02,-1.45793e-01,8.26401e-02,-1.46629e-01,-1.07395e-01,-4.52720e-03,-1.04415e-01,-8.63256e-02,-6.66558e-01,-2.61716e-01,4.09895e-02,6.05335e-02,-9.28295e-02,-1.81078e-02,-6.27631e-02,-1.07474e-02,1.21511e-01,-2.01626e-01,1.11961e+00,-1.66055e-01,8.64737e-02,-5.54573e-02,-1.90141e-01,-8.09475e-02,-4.04912e-01,-1.85590e-02,-2.74358e-02,-1.11062e-01,-1.78448e-01,-1.52914e-01,7.59521e-02,-6.14654e-03,5.77136e-02,-1.68162e-03,-6.05812e-01,-1.13825e-01,-2.35355e-03,-1.82588e-01,-8.19570e-02,-5.77776e-02,4.28074e-02,-9.25632e-02,-1.83903e-01,-1.16686e-01,-4.88451e-02,-4.88890e-02,7.35568e-02,1.27880e-01,-1.92171e-01,-4.19069e-01,-1.46069e-01,-4.47001e-02,-1.96976e-01,-3.86576e-02,-1.15648e-01,-3.90755e-02,-1.11545e-01,-4.15717e-01,-8.40571e-02,-1.46842e-01,-2.07967e-01,8.21084e-04,-7.59498e-01,9.11844e-02,-1.25057e-02,-1.30407e-01,-3.77004e-02,-2.90721e-02,9.74516e-02,-1.93004e-01,-1.89844e-01,1.90616e+00,-1.11679e-01,-6.67730e-02,-5.51854e-02,7.10833e-02,-7.96468e-02,-9.65615e-02,-1.59627e-01,-1.75856e-01,-1.24545e+00,3.43605e-01,3.21488e-02,-6.61997e-02,-8.29157e-01,2.41832e-02,-8.80198e-03,-2.78521e-01,-1.58463e-01,-1.53217e-01,-4.65511e-03,-1.38997e-01,-2.18380e-02,-2.13783e-01,5.14617e-02,-1.15625e-01,1.16548e-01,7.11076e-03,-2.58973e-02,-2.13464e-02,-7.95780e-01,-3.47991e-02,-1.42833e-01,-3.31323e-01,-8.81930e-02,-1.00910e-01,-3.43222e-01,-2.33223e-02,-9.16198e-02,-9.12685e-01,-2.58693e-02,3.75203e-02,-1.49194e-01,-1.31728e-01,-3.48518e-01,-1.25333e-01,-2.23437e-02,-9.33912e-02,-5.49114e-02,-2.89508e-02,4.44494e-01,-2.65794e-02,-1.63080e-01,3.83461e+00,-1.67518e-01,-5.61126e-02,-6.27629e-02,-6.01694e-02,-2.68415e-04,-1.18016e-01,-1.43251e-01,-1.70097e-01,1.52668e+00,2.47148e-02,-7.09646e-02,-7.40944e-02,-5.60743e-01,-2.39148e-02,1.31094e-01,-1.55839e-01,6.31127e-02,-8.07267e-02,-2.09295e-01,6.20939e-02,-2.31600e-01,-4.21283e-01,1.34189e-01,-1.01690e-02,
-1.10494e-01,-1.17408e-01,5.48141e-02,-2.52249e-02,8.48606e-02,6.91314e-02,-2.03025e-01,2.21586e-02,7.59695e-03,-1.32443e-01,-8.88945e-02,-3.34391e-03,-1.80294e-01,1.14432e-01,-4.71832e-03,5.15474e-03,-2.09017e-01,-1.33964e-01,-1.24017e-01,-1.04380e-01,-1.22306e-02,-1.14566e-02,7.48744e-02,-1.66604e-01,-1.57675e-01,-2.07574e-02,-1.60533e-01,-1.82564e-01,-4.54272e-02,-3.21949e-03,3.89768e-02,-1.43589e-01,-3.81772e-02,1.39802e-01,-1.99351e-01,5.67866e-03,-6.47364e-02,-8.50845e-02,3.84691e-02,-1.23245e-01,-4.89150e-02,-1.27246e-01,7.83398e-03,-8.52320e-02,-9.11865e-02,-1.76760e-01,1.09481e-01,-1.40065e-01,-6.87106e-02,-1.28616e-01,6.17974e-02,4.38227e-02,-4.73409e-02,-8.76892e-02,-1.08231e-01,1.78587e-03,-1.82377e-03,9.74908e-03,6.74981e-02,1.55563e-02,2.09734e-02,2.51405e-02,-1.38355e-03,6.16959e-02,-5.35058e-01,-1.08225e-01,8.17158e-02,-1.23538e-01,-4.25375e-02,1.07919e-01,-4.39426e-02,-1.01737e-02,-1.23579e-01,8.06537e-03,2.66778e-02,-5.48314e-02,-1.30635e-01,-2.51810e-02,1.25019e-02,6.39514e-02,-1.85798e-01,-3.22772e-02,-1.21818e-01,-1.20027e-01,-1.04139e-02,1.26050e-01,3.42713e-02,-5.89719e-04,-1.14006e-02,1.26176e-02,-7.07026e-02,5.83551e-02,-6.64979e-02,-7.25666e-02,-1.03451e-01,-1.15983e-01,-1.03628e-01,3.68828e-02,-2.08019e-01,-1.82301e-01,8.46168e-02,-1.42486e-01,-1.98177e-01,1.82301e-02,8.03457e-02,-1.34020e-01,1.66457e-02,-7.21176e-02,-1.84319e-01,-1.35624e-01,-1.48576e-01,-2.64392e-01,2.66575e-02,-1.08102e-01,9.05611e-02,9.14877e-02,6.23725e-03,7.36676e-02,-1.73355e-01,-2.20404e-02,1.30982e-02,-6.46023e-02,-8.24289e-02,7.59312e-02,-1.14202e-01,-1.15309e-01,2.60674e-02,-7.15036e-02,-1.24803e-01,-5.34111e-02,-1.10055e-01,-5.20143e-02,-1.89941e-01,-3.49149e-03,-1.32014e-01,-1.43585e-02,2.36155e-02,9.30269e-03,-1.52680e-01,3.84397e-02,2.85594e-02,4.08659e-02,-1.31569e-01,-9.52687e-02,5.40747e-02,-3.39118e-03,1.03568e-01,-1.51928e-01,6.40014e-02,4.96741e-02,
-5.50115e-02,-1.83495e-01,-7.72004e-02,-5.60272e-02,-6.05747e-02,1.15815e-02,-8.90175e-02,-1.86874e-01,4.57139e-02,-2.50175e-01,6.70051e-02,2.27462e-01,-1.92424e-01,1.63022e-02,1.60826e-02,-7.24387e-02,-1.55823e-01,-1.89470e-01,5.47850e-02,-1.69290e-01,2.70585e-02,1.45080e-01,8.30353e-02,-9.46797e-02,1.17771e-01,-1.14955e-01,-8.48775e-02,-1.96766e-01,-1.25042e-01,-3.12121e-02,6.53306e-02,-1.25796e-01,2.62642e-02,1.45669e-01,-1.26895e-01,1.12123e-01,-7.30572e-02,-3.94183e-02,1.02826e-02,-1.36246e-01,-2.17919e-02,-1.58022e-01,-9.19574e-02,3.88301e-02,-1.69364e-02,-6.76210e-02,5.30161e-02,-5.07780e-02,-7.37912e-02,2.15807e-02,-1.12932e-01,-7.46267e-02,1.19261e-01,5.11606e-02,-2.32778e-01,-1.72617e-01,-2.28101e-01,4.35480e-02,-5.65652e-02,-2.49143e-01,-2.13611e-01,-9.88584e-02,-3.86477e-01,-1.51919e-01,-1.04085e-01,4.01494e-02,7.70518e-02,-1.65759e-01,-1.58774e-01,-2.21071e-03,-3.65956e-01,-5.09920e-02,-1.95951e-01,1.46149e+00,-1.37722e-02,1.20716e-01,1.01592e-01,-7.84114e-02,-1.66276e-01,-1.79605e-02,-2.11977e-01,5.33567e-03,-3.59326e-01,3.79588e-02,-2.52400e-02,5.91704e-02,-2.51246e-01,5.35754e-02,8.27045e-02,1.94941e-02,-1.08052e-01,-1.13002e-01,7.82249e-02,-3.47021e-02,5.56959e-02,-2.12070e-01,-4.09207e-01,-2.79074e-02,-1.17227e-01,-1.63220e-01,8.60153e-02,-1.55486e-01,1.59765e-02,2.81708e-02,-9.80654e-02,3.16838e-01,-7.24930e-02,-5.18817e-02,-2.59733e-01,-7.14390e-02,7.52842e-03,-2.36889e-01,1.38640e-03,8.60723e-02,2.64180e-02,8.69740e-02,9.18643e-02,-2.04003e-01,3.41613e-03,6.32126e-02,5.40603e-02,1.31463e-01,5.43582e-01,-1.13090e-01,-6.08417e-02,6.03902e-01,3.01103e-02,-1.53961e-02,-1.44550e-02,1.25588e-02,-4.80221e-02,3.10389e-02,-1.95183e-01,8.84385e-02,1.96965e+00,-3.03841e-02,-1.60683e-01,-1.38886e-01,-2.76300e-01,-1.11712e-01,-5.76509e-01,-1.24524e-02,-1.31404e-01,9.21218e-02,-1.79282e-01,-1.65651e-01,2.58482e-01,-5.94571e-02,3.09465e-02,7.23025e-02,
-1.66427e-02,-7.82165e-02,-5.61822e-02,-1.17360e-01,-1.91843e-01,4.54648e-02,-1.85442e-01,9.98501e-02,-1.51255e-01,-2.70850e-02,-1.75633e-02,8.89598e-01,4.40282e-02,-3.92257e-02,4.63250e-02,-1.30043e-02,-2.82847e-02,8.23559e-01,-6.92943e-03,-1.20189e-01,7.55838e-02,4.93471e-02,1.82821e-02,5.09530e-02,4.75514e-02,-1.94981e-01,-5.88452e-01,-4.12241e-02,-8.93243e-02,-1.69239e-01,-1.49279e-01,8.24573e-02,-1.34026e-01,6.21710e-02,-1.56686e-01,8.43266e-02,-9.99441e-02,5.75932e-02,-1.64917e-01,5.62326e-02,2.48991e-03,-1.27774e-01,-3.59206e-02,-1.57067e-02,-1.15340e-02,3.28264e-03,-2.58643e-01,1.31076e-01,4.96363e-02,-1.30201e-01,-4.34211e-02,6.70948e-02,1.24263e-01,-8.27463e-02,7.09740e-01,-1.70994e-01,-2.50883e-01,8.28564e-02,-1.28061e-01,-1.28713e-01,8.94145e-02,-1.15918e-03,-2.50490e-01,5.72122e-02,-6.98552e-01,-1.07495e-01,2.43402e-02,-1.59885e-01,-7.45447e-02,-5.48906e-02,5.37508e-01,6.59745e-03,1.57041e-02,1.90212e+00,8.71885e-02,4.88554e-02,-5.59354e-03,3.31690e-02,1.35738e+00,-7.29103e-02,-7.91173e-01,8.12944e-03,-1.08813e-01,1.04056e-01,-7.70989e-02,-2.12962e-01,-1.74518e-01,-3.33657e-01,1.43198e-02,-1.21416e-01,-1.46710e-01,-8.93433e-02,-7.14842e-02,-1.46937e-01,-8.70568e-02,-2.90248e-02,6.24557e-01,-1.67205e-01,-1.36765e-01,-1.59306e-01,3.82138e-02,-4.72213e-02,-1.08393e-01,-4.30616e-02,-1.34727e-01,-7.31141e-02,1.96370e-02,5.66852e-02,-4.50510e-01,1.77826e-01,-2.37845e-01,-4.13494e-01,-6.53221e-02,-1.22224e-01,2.66694e-02,-1.29798e-01,-2.55075e-01,-3.84291e-02,-1.79434e-01,-2.00190e-01,-2.10597e-03,1.47666e-01,1.28755e+00,-4.70132e-02,-9.20289e-04,1.17618e+00,-1.73616e-01,1.17516e-01,2.21961e-02,-9.25337e-02,-4.93184e-02,7.47635e-02,-1.71296e-01,7.61119e-02,8.90223e-01,-8.20525e-03,-2.55797e-01,-1.39496e-01,-7.25544e-01,1.11846e-01,-1.70724e+00,-4.38306e-01,-1.02831e-01,1.34000e-03,-1.56037e-01,-1.42358e-01,-1.24379e-01,-1.36987e-01,7.87750e-02,-2.38241e-01,
-2.25213e-01,2.05100e-03,-1.35922e-01,-8.22034e-02,-8.72473e-02,-2.58437e-01,9.89738e-02,-1.01456e-01,-2.72605e-02,-2.29191e-02,-2.65067e-01,-1.51400e-01,4.45511e-01,-1.53872e-01,2.60231e-02,-5.28652e-01,5.82085e-01,-2.82245e-01,-1.42139e-01,-3.47025e-01,-1.52102e-01,8.46756e-02,-1.22467e-01,-1.02409e-01,-7.43387e-02,-2.18215e-01,-8.76881e-02,-2.38301e-01,2.89742e-02,-8.57549e-02,-8.85774e-02,-9.74794e-02,1.55932e-02,-4.06756e-02,1.28889e-01,-1.00156e-01,-3.11645e-01,8.49084e-02,9.81276e-02,-5.27211e-02,3.03118e-02,-1.49828e-01,-3.34109e-01,-1.20656e-01,-7.15482e-02,-1.46057e-01,1.18707e-01,-3.68167e-02,1.19159e-01,6.14534e-02,-1.03696e-01,-4.50454e-01,-3.53754e-02,-9.75955e-02,-4.29418e-01,9.65963e-02,-7.18361e-03,-1.24447e-01,1.36313e-01,-3.33229e-01,-4.16617e-02,3.94936e-02,-1.84287e-01,7.50774e-02,-4.71255e-01,4.13156e-01,-4.40450e-02,2.19757e-02,2.97747e-01,1.57610e-04,3.71386e-02,-2.69970e-01,1.24274e-01,-3.58202e-03,3.84922e-02,-9.68122e-02,-4.98151e-02,1.40519e-01,1.23257e-01,-1.43763e-01,-3.17405e-01,-2.61211e-01,-6.16284e-01,-4.17337e-01,-3.21036e-02,-7.49593e-02,-3.08164e-01,-3.26039e-01,-3.91556e-02,-3.04239e-01,9.10406e-02,-2.91668e-02,1.24121e-01,1.07085e-01,-1.29183e-01,-2.85587e-01,-4.63339e-02,-1.22871e-01,-2.99264e-01,-5.26161e-01,9.26193e-02,-1.29194e-01,-1.66251e-01,-1.52874e-01,-1.01050e-02,3.56386e-01,4.04169e-02,1.07061e-01,-2.82080e-01,2.52616e-02,1.21067e-01,-5.74709e-01,-4.39373e-01,1.97761e-02,3.66539e-02,-1.19617e-01,-1.01419e-01,1.12757e-02,7.57245e-03,1.26549e-01,-4.70206e-02,-2.28734e-02,-3.03474e-01,-1.45490e-01,-1.42812e-01,-1.42355e-01,4.21404e-02,1.43033e-01,3.32345e-02,-6.04202e-02,5.19749e-02,7.73669e-01,5.55860e-01,-2.66455e-01,-3.18155e-04,-1.54830e-01,-1.70518e-01,1.34371e-03,-4.31440e-01,1.39043e-01,-2.58587e-01,-4.43523e-01,-3.63213e-01,-8.90341e-02,-9.39054e-02,4.62409e-02,-4.82774e-01,-2.94804e-01,-1.78955e-02,-8.90162e-02,
-3.17352e-02,4.35291e-02,-5.83384e-02,7.49903e-02,-7.26171e-02,-1.20812e-01,-4.66486e-02,-1.00370e-01,-8.04372e-02,8.34002e-02,-1.61405e-01,-2.02354e-01,-1.47109e-01,-9.70366e-02,-8.00966e-02,-1.52937e-01,-6.55388e-02,-1.21765e-01,-1.20018e-02,-1.64044e-02,-4.94237e-02,-1.22698e-01,-3.95730e-04,9.76303e-02,6.75249e-02,-6.25612e-02,-1.04429e-01,-9.34877e-02,-5.54442e-02,-2.03051e-01,-2.03506e-01,-4.46832e-02,-7.18715e-02,-1.13785e-01,-9.87510e-02,1.25675e-01,-7.38835e-02,-1.93767e-01,-1.10334e-01,-6.71861e-02,8.93154e-02,1.14845e-02,4.81973e-02,6.35338e-02,-2.00610e-01,1.10741e-01,-1.15523e-01,-5.90567e-02,9.11716e-02,-1.32767e-01,-1.15334e-01,6.28743e-02,7.94608e-02,-2.91722e-02,-3.52687e-01,1.35922e-01,1.15078e-01,1.50680e-01,6.54006e-02,-1.42476e-01,4.09475e-02,-1.03915e-01,7.55871e-02,7.75170e-02,-9.55414e-02,-8.74840e-02,-4.49423e-02,3.05917e-02,-1.78949e-01,-4.99644e-02,3.52979e-02,-1.83605e-01,5.93481e-02,-3.17114e-02,2.77063e-02,-1.34271e-01,1.01222e-03,-4.78601e-03,-1.69303e-01,-1.13755e-02,-7.57679e-02,-1.49312e-01,-2.78955e-01,-9.13120e-02,-1.57297e-01,9.56766e-02,4.81190e-03,-7.25232e-02,1.27152e-01,1.08448e-02,-9.59856e-02,-1.29747e-01,-1.64022e-01,1.00962e-01,8.97077e-02,1.01238e-01,-9.29199e-02,-6.16730e-02,-3.95052e-02,-1.30147e-01,-4.35854e-02,-2.41383e-02,4.99791e-02,4.69491e-02,-6.13919e-02,4.22303e-02,-1.11723e-01,-5.08495e-02,-3.96010e-01,5.52922e-02,1.82143e-02,-4.40996e-01,-5.66898e-02,3.91329e-02,-2.26502e-02,1.33289e-01,1.67212e-02,-1.95087e-01,-1.83752e-01,-9.29069e-02,-8.58516e-02,-1.41248e-01,-1.21799e-01,-7.38049e-03,4.21397e-02,-1.19563e-02,8.76386e-02,-6.61365e-02,-8.34250e-02,-8.56905e-02,-2.01834e-02,8.01986e-03,-6.53762e-02,-3.67707e-01,-4.26067e-02,-6.16033e-02,-1.40655e-01,-9.42723e-02,-2.05699e-01,5.18459e-02,-1.75749e-01,-4.85847e-01,-2.96410e-01,-1.51413e-01,4.68941e-02,-1.38924e-01,-1.78971e-01,-2.65276e-02,-3.67671e-02,8.84290e-02,
6.34278e-02,-6.70922e-02,6.29984e-02,1.11397e-01,1.99225e-02,-1.30359e-01,6.67535e-02,8.03383e-02,-5.27661e-02,-1.09655e-02,-9.92106e-02,-1.73325e-03,-1.51525e-01,-2.35683e-01,-1.55208e-01,-6.01763e-02,6.79448e-02,-2.28739e-01,-6.84666e-02,4.96842e-02,-2.01117e-03,-9.32143e-02,4.33145e-02,-2.11924e-01,-2.06477e-01,-5.07780e-02,8.18577e-02,9.66771e-03,-2.25151e-01,-1.36511e-01,-3.45835e-02,-2.08754e-01,-3.72222e-02,1.08201e-01,6.72972e-02,-2.06156e-01,-9.07109e-02,-1.42536e-02,1.13048e-02,-6.75977e-02,-1.04313e-01,-8.09635e-02,-1.07031e-01,-1.03127e-01,4.89584e-02,-1.95995e-01,-1.11732e-01,1.18713e-01,-6.39473e-02,-1.01855e-01,-3.11702e-02,-4.62651e-02,2.71223e-02,-1.61112e-01,-2.52100e-01,-2.19472e-01,-1.73338e-02,-2.33890e-02,-3.02743e-02,-9.98864e-02,-8.78644e-02,-1.73104e-02,-2.76649e-03,-1.18460e-01,-3.26257e-01,-2.14342e-02,2.38353e-02,-1.81905e-01,-2.50168e-02,9.88592e-02,2.54898e-01,-2.43963e-02,-8.61370e-02,2.32673e-01,7.70430e-02,-4.69643e-02,-1.05693e-01,-7.15483e-02,-1.29473e-01,4.34023e-02,-1.75539e-01,7.68666e-02,-1.00269e-01,-1.63953e-01,4.73745e-02,-1.35157e-01,-8.87111e-03,-1.08651e-01,-9.40305e-02,-1.02944e-01,1.29471e-01,2.91195e-02,-1.23984e-01,-1.51946e-01,6.90995e-03,-1.82232e-01,1.20312e-01,-6.31419e-03,-1.83550e-01,2.97985e-02,1.07845e-01,-1.53775e-01,4.15584e-02,-6.80744e-02,-2.18530e-01,-1.34027e-01,-1.63216e-01,6.99775e-02,2.01610e-02,-3.18397e-02,-4.10194e-02,-1.12358e-01,-2.42314e-01,7.86481e-02,-1.21928e-01,-3.06694e-02,-1.14146e-01,-9.26128e-02,-1.87584e-01,2.67925e-02,7.61004e-02,-1.22908e-01,-2.12544e-01,-1.37592e-01,-1.04944e-01,5.36363e-01,-1.50491e-01,-1.01911e-01,-3.80617e-02,-1.07394e-01,-8.82971e-02,-9.15989e-02,-6.36860e-02,-2.96911e-02,-1.82356e-01,2.25034e-02,3.20380e-02,-3.75094e-02,-2.57195e-01,-1.32206e-02,7.03674e-02,-1.70358e-01,-8.42893e-02,-2.16651e-01,-5.98454e-02,-1.90112e-02,-1.14493e-01,-6.94630e-02,-4.52062e-03,-5.61583e-02,
-5.46065e-02,1.39948e-01,-7.06374e-02,-4.55701e-02,-2.67406e-02,-5.64440e-02,-1.14713e-01,2.78880e-02,-1.68879e-02,-1.41102e-03,-2.12415e-01,-2.18098e-01,-2.11903e-01,2.19226e-01,-1.60645e-01,-2.03463e-01,-2.00732e-01,-5.77250e-01,6.03517e-02,-1.99813e-01,-5.18545e-02,1.64168e-01,-9.70403e-02,-2.23503e-02,3.50630e-02,-1.44933e-01,-3.66936e-01,7.19616e-02,-6.89295e-04,9.50043e-02,-1.53335e-01,-1.12848e-01,3.10007e-02,4.11346e-02,-1.69895e-01,1.94555e-01,-1.05272e-01,3.20652e-02,-4.96082e-02,2.33567e-02,1.45455e-01,-2.73488e-02,4.09023e-02,1.44966e-01,7.70619e-02,7.06326e-02,2.49821e-01,-1.21355e-01,4.21151e-02,-4.49479e-02,-9.80425e-02,-3.96012e-02,1.72836e-02,-1.99746e-02,-3.66203e-01,2.37173e-02,1.79777e-01,-1.35883e-01,1.31747e-01,-1.55861e-01,6.96232e-02,-4.97198e-03,2.29875e-02,9.59642e-02,-4.50960e-02,-4.20024e-02,1.17857e-01,-9.40741e-02,-1.68881e-01,9.64206e-02,-2.66038e-01,-2.48569e-01,1.51669e-03,-5.20163e-01,-1.76995e-01,1.78279e-01,-4.44044e-03,-2.84087e-02,-9.22661e-02,3.77684e-03,-3.69822e-01,-1.13008e-01,-3.29401e-01,9.09188e-02,-1.73131e-01,1.12871e-01,-4.10204e-02,-1.90252e-01,-9.51515e-02,2.01139e-02,5.27340e-02,-1.93758e-01,-2.70145e-02,1.45504e-01,1.43114e-01,-2.62294e-01,1.34223e-01,6.07373e-02,-3.32734e-01,-8.15214e-02,2.31663e-01,5.42457e-02,-1.60596e-01,-9.37519e-02,7.31440e-02,5.43090e-02,7.47232e-02,-1.48898e-01,-1.04116e-01,4.66712e-02,6.27961e-02,-1.80376e-01,-1.16749e-01,8.67084e-02,-5.78368e-02,1.87042e-01,-3.03461e-01,1.52734e-02,-1.38567e-01,2.03955e-01,-9.81167e-02,-1.40314e-01,-2.89305e-01,-4.17938e-02,5.23475e-02,9.14637e-01,-4.37410e-02,-6.95281e-02,1.31077e-01,-1.64439e-01,2.81534e-02,-5.71995e-02,-1.76167e-01,-2.55910e-01,-5.37320e-02,2.23296e-01,-1.61028e-01,-9.33980e-02,-5.20827e-01,-3.27051e-02,-5.58942e-01,-5.24487e-02,2.98057e-02,6.81154e-02,-2.83213e-02,3.85889e-01,5.04243e-02,-5.73562e-01,-1.57776e-02,-5.20378e-02,
-1.06230e-01,1.72410e-01,-3.30123e-03,1.07121e-01,1.83943e-01,1.56874e-01,3.75668e-03,-8.89890e-02,-6.13346e-02,2.22484e-01,1.03873e-01,-4.50843e-01,-2.33212e-04,1.05932e-01,-2.41218e-01,1.14601e-01,1.19034e-01,-6.86817e-02,7.50673e-02,-1.27789e-01,-1.19504e-01,-3.98449e-02,1.02989e-01,-1.61207e-01,7.58291e-02,-1.29291e-02,-1.05370e-01,-5.92072e-02,5.89346e-03,6.96085e-02,-2.36867e-03,3.37395e-02,5.51237e-02,7.60842e-02,-1.14253e-02,7.39947e-02,6.48888e-02,9.41736e-02,1.49510e-01,1.46585e-01,3.85485e-02,2.82633e-02,1.30027e-01,9.91166e-02,-1.61625e-01,1.39977e-01,1.11348e-01,-6.08020e-02,1.36293e-02,1.06366e-01,5.81685e-02,-6.12214e-02,-2.68924e-02,-2.56566e-01,-3.32006e-01,-2.20677e-01,-1.22315e-01,-6.17504e-02,-8.48773e-02,-1.32288e-01,-3.98251e-03,-3.90933e-01,6.13617e-02,3.57549e-02,-1.46203e-01,-1.59029e-02,-1.21833e-02,1.53333e-01,2.62109e-02,-1.59758e-02,3.18159e-01,-1.57214e-01,-1.56699e-01,6.80306e-02,1.47479e-01,9.01451e-02,1.18076e-02,-5.63717e-02,1.24802e-01,-2.28123e-03,-2.54234e-02,8.10577e-02,-6.20518e-02,-1.37317e-01,2.39811e-02,-6.31619e-02,6.25949e-02,-1.98024e-01,-5.64329e-02,-3.35014e-02,3.03263e-02,-4.19807e-02,-6.38095e-02,1.47319e-01,-1.04371e-01,-1.59817e-01,1.39571e-01,1.34991e-02,-1.12171e-01,1.28875e-01,3.53157e-02,3.31183e-02,1.09613e-01,-3.13467e-02,-9.91970e-03,1.61936e-01,-3.73449e-02,-9.66195e-02,-3.51582e-03,-5.80242e-02,-4.22913e-02,-2.77491e-01,-8.76309e-02,-3.83056e-02,1.04089e-01,1.07346e-01,1.25323e-01,9.02286e-02,-1.77350e-02,-2.95332e-02,1.12512e-01,-5.15914e-02,-2.66640e-01,1.79675e-02,1.53549e-01,1.01253e+00,-8.92617e-02,1.42305e-01,4.92260e-02,5.33356e-02,1.01107e-01,-4.11745e-02,-4.04893e-02,-1.62497e-01,-7.24738e-04,2.97829e-02,7.62276e-03,-4.89927e-02,-4.45103e-03,-3.29034e-02,-1.31076e-02,-1.05277e-01,6.51268e-02,-2.06278e-01,6.81004e-02,-1.94275e-01,-2.55207e-02,-2.47847e-01,-1.46772e-01,-1.68692e-01,
-8.54582e-02,2.94546e-02,-1.36639e-01,6.96841e-02,-3.63666e-02,-4.95946e-02,-1.57585e-02,-1.05341e-01,1.45567e-01,1.05772e-01,-2.25760e-01,-2.68724e-02,-1.53942e-01,-5.66546e-02,9.64263e-01,8.95156e-02,-1.77229e-01,9.20242e-03,-1.12245e-01,-1.44669e-01,4.31246e-02,1.36460e-01,-4.56719e-02,-1.92569e-01,-4.97303e-02,5.43850e-02,2.95077e-01,1.68018e-01,8.95432e-02,-1.86381e-01,2.88409e-02,-1.76241e-01,-3.25814e-02,2.25743e-02,-4.37786e-02,1.40748e-01,-5.40007e-02,4.68998e-02,1.36966e-01,4.72860e-02,-7.24768e-02,-2.43891e-02,-6.58556e-02,1.80706e-01,-4.63497e-02,-7.60466e-02,2.34175e-01,6.72658e-02,-4.34672e-02,1.52516e-01,-1.27356e-01,-1.60663e-01,-1.15730e-01,-1.04473e-01,-2.91094e-01,-6.11640e-02,-5.13556e-02,-9.43540e-02,1.03475e-01,-5.94376e-02,-1.35464e-02,5.92833e-02,-6.77361e-02,-8.16242e-02,-1.92969e-01,-1.11930e-01,-5.97655e-02,1.02804e-02,-3.54812e-02,-2.92581e-02,3.76336e-01,-2.25236e-01,-3.02232e-01,6.57138e-01,-7.49371e-03,1.23672e-01,1.27734e-02,-1.93410e-02,-2.97811e-02,4.63461e-02,-3.25842e-02,-9.69664e-02,-2.84425e-01,-1.27625e-01,-1.19277e-01,1.64401e-02,-1.32029e-01,-4.87397e-02,-3.73963e-02,-2.40364e-01,4.38074e-01,-1.37623e-01,2.75181e-02,-1.29999e-01,6.63414e-02,-9.67312e-02,-9.57792e-02,8.65693e-02,-1.49483e-02,4.40112e-02,8.33029e-02,-1.45707e-01,-2.12355e-01,-2.73322e-02,2.51227e-02,-1.85725e-01,6.68328e-02,-1.16125e-01,-3.67313e-01,-6.62283e-02,2.72483e-01,-5.69799e-01,-4.00090e-01,-1.72206e-01,-9.75738e-02,1.36015e-01,1.30126e-02,-1.01711e-01,-1.19216e-01,-9.14392e-02,4.72777e-03,-9.99136e-02,-1.13449e-01,7.21630e-03,-7.38999e-02,8.03381e-01,-1.48448e-01,3.14825e-02,8.65752e-02,-1.50928e-01,-6.85793e-02,2.62462e-02,7.14582e-03,-4.30169e-01,4.08504e-01,-8.07233e-02,3.00610e-02,8.58385e-02,-2.65877e-01,9.75401e-02,-4.38463e-01,-1.70729e-01,-3.21147e-02,5.87092e-02,-2.05753e-01,2.35262e-02,-1.23893e-01,-2.13999e-02,2.34211e-02,-1.34450e-01,
-1.88415e-01,-1.20398e-01,-1.83544e-01,-1.02587e-01,2.09111e-02,-1.12735e-01,-1.79643e-02,4.16386e-02,-1.97672e-02,1.00483e-02,-1.75580e-01,1.91268e-01,9.27797e-03,3.76219e-02,-1.99231e-01,4.39084e-02,-1.71442e-01,-2.26501e-01,-6.22995e-02,-1.89278e-01,-1.86425e-01,-7.29604e-02,7.30428e-02,-9.33160e-02,8.91127e-02,2.99770e-02,-1.37763e-01,-1.94460e-01,-1.85593e-01,-2.28022e-02,-2.49761e-02,-1.09028e-01,-2.24509e-02,4.18552e-02,-1.81083e-01,1.83838e-01,-1.96683e-01,3.09978e-02,1.62283e-01,-1.86248e-01,7.00164e-02,-1.86082e-01,-1.74914e-02,1.02258e-01,-3.87721e-02,-6.67157e-02,9.24666e-02,-8.62256e-04,3.66118e-02,-9.18777e-02,-1.36685e-01,1.45820e-02,-1.08056e-01,-1.39964e-01,6.51340e-03,-9.02811e-03,-1.76390e-03,-9.33609e-02,8.33285e-02,6.71808e-02,-2.80890e-02,7.04934e-02,-1.59406e-01,-1.21378e-01,-1.31955e-01,-1.45681e-01,1.46610e-01,-1.63701e-01,-4.03005e-03,1.26654e-01,-3.92537e-02,2.48988e-02,3.46972e-02,2.83448e-02,3.82708e-02,1.57069e-01,-9.88527e-03,-7.79023e-02,-1.84144e-01,-3.41106e-02,-1.92190e-02,-1.25457e-02,-1.16172e-01,-2.02886e-01,-3.97269e-04,5.52137e-02,-1.84855e-02,6.20871e-02,-4.33795e-02,-5.69824e-02,-1.09364e-01,2.63482e-02,-1.37397e-01,9.62950e-02,-8.78735e-02,-1.91538e-01,7.73571e-02,-9.85669e-02,-1.74675e-01,-1.83826e-01,-6.25789e-02,-5.81451e-02,-1.20846e-01,1.65946e-02,-2.00546e-01,-7.32010e-02,-2.21790e-02,-1.40790e-01,3.16720e-02,1.31245e-01,9.71027e-02,-1.04373e-01,-2.28053e-01,-2.08810e-01,6.82321e-02,6.22675e-02,3.48844e-02,-1.34529e-01,-9.16414e-02,-7.35391e-02,-4.85397e-02,-1.06204e-01,8.41211e-02,1.49211e-01,-6.26175e-02,-1.39636e-01,3.56407e-03,4.05601e-02,1.21125e-01,-2.02288e-01,1.14953e-01,-7.67197e-02,5.03975e-02,-4.78580e-02,-8.88883e-03,2.37090e-02,-2.16464e-01,-1.47062e-01,-1.09528e-01,-8.04256e-02,1.14814e-02,3.41405e-02,2.61993e-02,-1.70032e-01,2.24476e-02,1.82228e-01,-5.08119e-02,-9.64767e-02,-4.53074e-02,-7.69031e-02,
