// Neural Network File Format by Kyle Julian, Stanford 2016
3,16,1,22,
16,22,10,1,
0,
0,0,0,0,0,0,0,0,0,-3,0,1,0,0,0,0,
10,2,6,1,1,1,1,11,6,1,5000,50,999,7,2,1,
5,1,3,0.5,0.5,0.5,0.5,5.5,3,-1,2500,25.5,499.5,3.5,1,0.5,0.5,
10,2,6,1,1,1,1,11,6,4,5000,49,999,7,2,1,1,
4.21345e-01,-4.28396e-01,-4.56023e-01,-6.23595e-01,4.42180e-01,-1.25778e-01,-4.83470e-01,4.94638e-01,-1.63350e-01,-2.09285e-01,-8.03646e-02,2.44393e+00,-3.92688e-01,-4.08483e-02,2.52641e-01,-7.14906e-01,
2.56986e+00,-4.05277e-01,-2.13634e+00,-2.96199e+00,6.32514e+00,8.73433e-03,2.00332e+00,1.89099e+00,1.30641e+00,-6.31503e-01,-1.93556e-01,2.25436e+01,1.03975e+00,1.70305e-01,6.10070e+00,-5.28007e+00,
-2.89034e-01,-3.45328e-03,-7.01946e-01,-4.11047e-01,-2.71739e-01,-6.06551e-01,4.19961e-01,-4.78569e-01,-5.44833e-01,2.09762e-01,-6.30523e-03,2.14786e-01,-4.15899e-01,-8.69598e-02,-6.07177e-02,-3.90362e-03,
-2.86593e-01,-3.97286e-02,-3.68488e-01,-3.26054e-01,-1.94669e-03,-2.15162e-01,1.40675e-02,5.35352e-02,-4.18624e-01,6.65132e-02,-2.32088e-02,1.02003e-01,-7.34324e-03,-4.05188e-01,-3.12809e-01,-4.06930e-01,
3.31014e+00,8.63243e-01,4.47975e+00,7.59250e-01,-7.21567e-01,3.76285e+00,3.80063e+00,4.10577e+00,-5.19712e-01,5.94661e-02,-3.25559e-01,-8.61277e-01,4.72809e+00,-1.84379e-01,1.86924e+00,2.32777e+00,
-2.49238e+00,-6.28502e-02,-1.62717e+00,2.62810e-01,-5.97913e-01,-1.13881e+00,-8.62539e-01,-2.55736e+00,2.53211e-01,-2.31622e-01,-1.48387e-01,-2.83889e+00,-1.45734e+00,-3.40372e-01,2.86247e-01,2.55052e-01,
-3.64391e-01,-2.96381e-01,1.90401e-01,2.00999e-01,-2.06002e-01,1.42052e-01,3.42623e-01,-1.14130e-01,-2.20767e-01,-3.41654e-01,-3.17438e-01,-1.79485e-01,-1.18941e-01,-2.89581e-01,7.50124e-04,-3.13619e-01,
-3.37459e-01,1.90107e-01,-1.89077e-02,7.83150e-02,1.20971e-01,1.63995e-01,-2.15416e-01,1.53797e-01,-4.61780e-01,-4.88414e-01,-5.08245e-01,3.21218e-01,1.53021e-01,-3.41855e-01,7.22414e-03,-2.87610e-01,
-2.31907e-01,3.54724e-01,-7.69320e-03,-1.80990e-01,-3.56351e-02,-2.49353e-01,-3.20026e-01,-2.59643e-01,-1.59434e-01,2.01354e-02,-3.02085e-01,2.46500e-01,-2.34399e-01,-1.07217e-01,-5.67475e-02,-3.62128e-01,
1.28961e-01,-3.38498e-01,-3.14540e-01,-1.18633e-01,3.58558e-01,-4.23561e-01,-7.47047e-02,-1.99272e-02,1.27748e-01,-1.86849e-01,-3.03750e-04,-1.66131e-01,-3.17768e-01,-2.28201e-01,-4.51226e-01,1.32865e-01,
2.26651e+00,1.04202e+00,1.90450e+00,5.50584e-01,-2.54909e-02,1.04459e+00,2.47879e+00,7.46371e+00,2.36470e+00,1.01208e+00,-1.05818e+00,-4.96317e-02,2.31789e+00,-1.82044e-01,2.00986e+00,9.69585e-01,
-1.03511e+00,1.23595e+00,-1.31315e-02,5.32168e-01,3.27451e+00,3.16938e-01,7.36978e-01,-6.05767e+00,-1.30653e+00,-2.80747e+00,-1.72655e+00,1.52503e+01,5.42402e+00,1.95948e-01,6.83584e+00,-1.91986e+00,
2.51590e-01,-8.39349e-02,-1.42984e-02,1.80882e-02,6.35744e-02,-3.85057e-01,3.00752e-01,3.25820e-01,1.48943e-01,-3.00883e-01,-1.87331e-01,-1.99942e-01,4.49403e-02,-1.47710e-01,3.72576e-02,2.47478e-01,
-5.73687e-01,-3.75484e-02,-6.56523e-01,-3.44165e-01,2.67802e-01,-1.16453e-01,6.49359e-01,-8.17665e-01,3.57441e-01,-1.20746e-01,-2.28800e-02,9.10915e-01,-7.31694e-01,-3.00854e-01,2.56221e-01,-7.67474e-02,
1.27165e-01,-5.67555e-01,-9.65759e-01,-1.36528e+00,9.29899e-01,-4.84549e-01,-1.38480e-01,6.55337e-01,-1.08413e-01,-8.24284e-01,-1.60702e-01,5.07749e+00,-5.16713e-01,-6.35471e-02,1.02169e-01,-1.42723e+00,
-1.74967e-01,-2.11993e-01,2.39713e-01,-3.44143e-01,-1.06013e-01,8.53121e-02,-1.35427e-01,-3.02364e-01,-3.26416e-01,1.39715e-01,-3.56874e-01,-2.04124e-01,-1.24839e-01,-3.81478e-01,-3.90295e-01,2.58910e-02,
-4.51458e-01,1.03790e-01,-4.11562e-01,4.05529e-02,2.53603e-01,-7.05768e-02,1.59498e-01,-2.25482e-01,-1.37130e-01,-1.74193e-01,-5.93251e-02,7.43547e-02,1.11260e-01,-1.01585e-01,9.39925e-02,-1.40945e-01,
-2.91686e-02,-6.88582e-02,-5.63892e-01,-6.88491e-01,3.26544e-01,-6.50731e-01,-4.54864e-01,-6.61843e-01,7.70460e-03,-6.58728e-02,-2.75497e-01,6.99162e-01,1.58699e-03,-2.19134e-01,-4.00724e-01,-7.00642e-01,
2.15856e-01,-5.34939e-01,9.64755e-02,-6.81711e-01,5.05793e-01,-3.67283e-01,-4.75892e-01,1.76993e-01,-2.50732e-01,-2.89790e-01,-1.11947e-02,1.90711e+00,1.34814e-01,-6.42781e-02,-1.07618e-01,-3.68720e-01,
1.63921e-01,1.72768e-01,-1.38722e-01,-3.34214e-01,6.19444e-02,-8.30655e-02,2.70435e-02,-3.62820e-01,8.33852e-02,-3.30699e-01,-3.80129e-01,-1.53527e-01,8.02439e-03,-7.98660e-02,-3.69875e-01,4.75589e-02,
-2.07353e-01,6.33747e-02,-5.90553e-01,-1.73190e-01,5.78479e-01,-5.72321e-01,-8.31957e-01,-1.08327e+00,-6.49057e-01,-7.00232e-01,-1.03280e+00,1.58579e+00,5.79268e-01,-3.24458e-02,2.98090e+00,-1.25647e+00,
1.29512e-01,-4.78937e-02,-3.93019e-01,-1.31454e-01,2.59847e-01,-3.85383e-01,3.20640e-02,4.46082e-01,-3.57081e-02,-4.40980e-02,-1.06238e-01,1.85409e+00,-9.29509e-03,-2.67468e-02,4.27309e-01,1.48501e-02,
-6.01511e-02,
-9.05540e-02,
-3.57369e-01,
-1.18114e-01,
4.33439e+00,
-2.36144e+00,
0.00000e+00,
-1.21866e-01,
0.00000e+00,
-2.22548e-01,
1.47582e+00,
2.75304e-02,
0.00000e+00,
-6.54629e-01,
-2.86853e-01,
0.00000e+00,
-7.55355e-02,
-4.19723e-01,
-1.48693e-01,
0.00000e+00,
-2.69872e-01,
4.94118e-02,
-7.49853e-01,-1.59513e-01,-3.97598e-01,-2.80327e-01,2.31731e-01,-1.08992e+00,-2.69432e-02,-1.27972e-01,5.33805e-02,-6.02851e-02,1.31435e+00,-2.05107e-01,1.85018e-01,-3.39655e-01,-1.12672e+00,-1.33505e-01,-2.76712e-01,1.02734e+00,-6.06319e-01,-3.13388e-01,-3.49239e-01,-3.22912e-01,
1.84774e-01,2.05551e-01,-2.36260e-01,2.51752e-01,2.40999e-01,1.79193e-01,3.55463e-01,-1.93010e-03,-9.49010e-02,4.23862e-02,-2.94947e-01,2.05234e-01,-2.03976e-01,-7.14309e-02,1.05309e-01,1.81027e-01,2.51355e-01,1.48473e-01,-7.63565e-03,-4.13999e-01,-5.35584e-02,1.70880e-01,
3.55954e-01,-1.42627e+00,-3.95943e-01,7.42286e-02,-1.17088e+00,3.65944e-01,6.47857e-02,1.44284e-01,8.93979e-02,-1.06871e-01,-3.48416e-01,-2.97721e-02,1.81640e-01,2.76142e-01,-1.40663e-01,3.32326e-01,1.06723e-01,2.74950e-01,9.27387e-03,3.63515e-01,1.65167e-01,2.80471e-01,
8.59445e-02,-1.13982e-01,3.88168e-01,4.73018e-01,-8.42905e-02,2.97490e-01,2.31877e-01,-1.47932e-01,-2.76205e-01,3.83570e-01,-1.26093e-01,-6.50543e-02,1.76644e-01,2.30670e-01,-4.50080e-01,2.27327e-01,2.57090e-01,-2.44041e-01,-1.25520e-01,-2.80443e-01,-1.48514e-01,1.29227e-01,
-2.70841e-02,-5.45097e-01,-9.31521e-02,2.99515e-01,-2.75172e-01,7.82624e-02,-5.26828e-02,2.91007e-01,-2.80985e-01,1.41089e-01,-1.24437e+00,3.73858e-02,-3.49187e-01,-2.15062e-01,1.14868e-01,-5.32804e-02,1.48552e-01,4.60402e-02,4.43469e-03,1.28833e-01,-3.88271e-01,3.71116e-02,
-3.54045e-01,-3.04943e-01,-1.11488e-01,1.06133e-01,-6.01801e-01,1.87669e-01,2.84514e-01,-2.63187e-01,3.32562e-02,-7.38650e-02,5.90836e-01,-3.19762e-01,-8.38758e-02,8.52824e-02,-2.01294e-01,-3.23078e-01,2.55219e-01,1.47318e-01,1.46524e-01,-3.19500e-01,2.78254e-02,2.40677e-01,
-5.69770e-02,-3.64309e-01,-1.38401e-01,-2.27252e-01,-3.08002e-01,-5.09633e-01,3.85621e-01,-2.73656e-02,2.74293e-01,6.95598e-03,-2.43656e-01,-6.50008e-02,2.62934e-01,1.82489e-01,-5.16514e-01,-7.21040e-02,-6.09366e-02,2.54243e-02,-1.15642e-01,-1.85901e-01,1.03075e+00,8.95897e-02,
3.06836e-01,-4.13939e-01,6.15797e-02,-1.38831e-01,-1.46563e-01,-3.05641e-01,5.34257e-03,8.80676e-02,2.81598e-01,-1.86213e-01,-2.24560e-01,6.19071e-02,2.56333e-01,1.00143e-01,-4.89693e-01,-2.16195e-01,2.56525e-01,1.29896e-01,-9.87006e-02,2.04940e-01,2.65940e-01,-5.09056e-01,
-4.45890e-01,-2.70147e-01,2.64932e-01,1.65372e-02,-2.95725e-01,-1.79987e-01,-2.79839e-01,-1.65493e-01,3.35671e-01,6.98473e-02,-2.71526e-01,-2.26188e-01,-1.37298e-01,3.56510e-01,-1.65608e-01,2.80520e-01,3.24179e-01,-1.28740e-01,-3.00722e-01,3.50174e-01,8.48610e-02,1.78299e-01,
-3.55503e-01,-2.39579e-01,-3.56392e-01,-2.80110e-01,-7.49289e-01,-1.14248e+00,2.88216e-01,-3.59155e-01,-1.55647e-01,3.98108e-01,5.20666e-01,-1.68411e+00,-1.45628e-01,-4.31056e-01,-4.14507e-01,-3.20769e-01,4.16392e-01,-1.17407e-01,-4.25420e-01,2.40366e-02,-3.44540e-01,-3.26457e-01,
4.07445e+00,
-7.05868e-01,
9.45680e-01,
-1.53656e+00,
1.31036e-01,
-5.89535e-01,
-7.53691e-01,
-9.93960e-01,
-1.19130e+00,
-7.49788e-01,
-2.33336e-01,-1.71987e-01,6.83019e-01,8.06252e-03,1.19401e-01,9.00795e-02,4.84825e-02,1.05633e-01,4.40456e-01,3.37723e-01,
9.59534e-01,
