// Neural Network File Format by Kyle Julian, Stanford 2016
3,16,1,16,
16,9,9,1,
0,
0,0,0,0,0,0,0,0,0,-3,0,1,0,0,0,0,
10,2,6,1,1,1,1,11,6,1,5000,50,999,7,2,1,
5,1,3,0.5,0.5,0.5,0.5,5.5,3,-1,2500,25.5,499.5,3.5,1,0.5,0.5,
10,2,6,1,1,1,1,11,6,4,5000,49,999,7,2,1,1,
-2.67660e-01,-3.86775e-01,-9.16019e-01,-9.28761e-01,1.09925e+00,-6.54255e-01,-6.50466e-01,1.35544e+00,-3.83624e-01,-4.43146e-01,-7.38898e-03,3.68924e+00,-3.67275e-01,-2.05547e-02,-9.70840e-01,-8.81393e-01,
6.13494e+00,7.91192e-01,5.28281e+00,1.07849e+00,-9.06932e-01,3.81576e+00,2.64281e+00,5.86192e+00,1.99122e-01,9.28511e-01,-1.50398e-01,-2.40646e+00,3.79693e+00,-1.25903e-01,6.72472e-01,2.24383e+00,
-7.05953e-01,-3.06724e-01,-3.99454e-01,-2.06634e-01,-6.59029e-01,-1.08953e+00,2.34069e-01,-3.39687e+00,-4.79675e-01,1.01197e-01,-5.33120e-02,-2.68707e+00,-2.72268e-01,-5.19388e-02,-5.79670e-01,-6.26050e-01,
-5.25360e+00,4.32569e-02,-3.10162e+00,4.11217e-01,-2.08474e+00,-5.89093e-01,-2.30991e+00,-3.52287e+00,7.33264e-01,-7.28828e-01,1.24869e-01,-6.96841e+00,-2.78957e+00,-1.92359e+00,-6.08719e-01,1.30779e+00,
-9.00429e-01,-6.32068e-01,-5.90654e-01,-8.33214e-01,2.34670e-01,-6.43359e-01,-7.74039e-01,1.66379e-01,-7.92539e-01,-1.31388e+00,-1.32456e-02,9.79645e-01,-6.80622e-01,-3.62381e-01,-1.44359e+00,-1.59426e+00,
-9.84236e-01,5.98595e-02,-2.16134e-01,3.33500e-01,-2.31349e-01,-1.86730e-01,6.51333e-01,-1.89655e+00,-2.14117e-01,-2.55453e-02,-1.58939e-02,-8.42168e-01,-8.08788e-01,-5.77431e-01,1.73735e-01,-1.64877e-01,
-9.96909e-01,1.60869e+00,-5.59379e-01,-3.56401e-02,2.01808e+00,2.77965e+00,-3.57219e+00,4.78859e-01,-1.84153e+00,-2.84370e+00,-2.74168e+00,7.04069e+00,4.14336e+00,2.42921e-01,4.96563e+00,2.67588e-01,
-2.42476e+00,3.11147e-01,-1.47458e+00,2.90458e-01,4.50314e-01,-1.09798e-01,8.12901e-03,-3.87918e+00,3.73492e-01,-1.44454e-01,-1.42343e-01,-1.98981e+00,-1.25337e+00,-6.14062e-01,5.16952e-01,7.51017e-01,
2.34851e+00,-4.56957e-01,-1.79174e+00,-2.79025e+00,7.76396e+00,-2.33061e-01,2.52667e+00,1.48060e+00,1.17305e+00,-4.56988e-01,-1.68358e-01,2.11858e+01,1.01225e+00,1.38365e-01,4.50357e+00,-5.40100e+00,
-6.98151e-01,
6.71654e+00,
-5.23013e-01,
-4.13282e+00,
-8.43602e-01,
-2.33853e-01,
1.97440e-01,
-2.04077e+00,
-2.36480e-01,
-7.29685e-02,-3.35196e-02,-6.42485e-01,-3.15738e-01,5.15995e-02,-4.76550e-01,2.35928e-01,-8.97977e-02,-1.00947e+00,
3.83694e-01,1.73718e-02,-4.58165e-01,-7.94400e-02,-3.00108e-02,6.24865e-01,-1.92344e-02,2.54248e-01,4.27731e-03,
-5.39090e-02,-3.10087e-01,5.96698e-01,-9.84941e-02,2.20675e-01,1.37096e-01,-5.13547e-01,-4.15666e-01,-1.54340e-03,
-9.97568e-01,-1.46383e-01,-3.11997e-01,-2.90512e-01,-3.89700e-01,-5.40958e-01,-5.41628e-01,-1.18260e-01,-4.81232e-01,
4.15086e-01,4.18549e-01,-3.72238e-01,-2.03666e-01,1.17118e-01,1.62662e-01,1.91701e-01,-5.54230e-02,2.59906e-01,
-8.62428e-01,-1.57799e-02,-7.78036e-01,-5.00489e-02,2.86895e-01,8.86446e-01,-1.97971e-01,-3.37565e-01,-1.58861e-01,
1.94776e-01,-6.43707e-01,-4.99146e-01,-4.48144e-01,-1.17976e-01,1.31812e-01,9.25524e-03,4.57650e-02,-9.17102e-03,
2.02770e-01,-1.63918e-01,1.28368e-01,-5.84291e-03,-8.21146e-02,-5.11307e-02,-4.25790e-01,-3.83393e-01,4.67156e-03,
-8.59363e-01,1.01413e-01,-1.99905e-01,-7.91614e-01,-3.24497e-01,3.50636e-01,-1.57769e-01,-1.19652e+00,-6.23824e-02,
-7.98032e-01,
-9.87621e-01,
-2.97468e-01,
-5.63125e-01,
4.14324e-01,
-6.34934e-01,
-3.82286e+00,
-1.09782e+00,
4.29984e+00,
-7.07273e-02,1.94920e-03,-6.20696e-03,-1.52823e-01,-2.05195e-01,-1.05614e-01,-1.26607e-01,-3.96003e-03,-2.17976e-01,
1.07493e+00,
