// Neural Network File Format by Kyle Julian, Stanford 2016
3,16,1,64,
16,64,64,1,
0,
0,0,0,0,0,0,0,0,0,-3,0,1,0,0,0,0,
10,2,6,1,1,1,1,11,6,1,5000,50,999,7,2,1,
5,1,3,0.5,0.5,0.5,0.5,5.5,3,-1,2500,25.5,499.5,3.5,1,0.5,0.5,
10,2,6,1,1,1,1,11,6,4,5000,49,999,7,2,1,1,
-3.97439e+00,-3.03600e+00,-1.98334e+00,-5.87990e+00,6.72589e-02,-8.96139e+00,-7.98564e+00,-3.20031e+00,-1.80066e+00,-5.67585e+00,6.13575e-02,2.43120e+00,-1.65084e+00,-7.47275e-01,-3.59466e+00,-5.48879e+00,
1.53524e-01,-3.36843e-02,9.39689e-02,7.49095e-02,-9.00581e-03,-5.84369e-02,1.01306e-01,-9.70129e-02,-1.68426e-01,-1.71952e-02,-8.30727e-02,-9.39435e-02,1.39360e-01,-1.44254e-01,-5.15806e-03,-7.41856e-02,
-2.67571e-01,2.20014e-02,3.03480e-02,-3.34358e-01,-1.74729e-01,1.48300e-02,1.27762e-01,-4.63821e-02,1.15538e-01,1.46285e-01,-5.76105e-02,-1.28876e-01,6.83665e-02,-2.72401e-01,1.78117e-01,-2.56591e-01,
-4.76159e-01,1.28108e-01,5.61509e-01,-9.60124e-01,-4.80382e-01,-4.50979e-01,4.18467e-01,2.08659e+00,-1.10177e+00,3.42036e-01,-4.71207e-01,-2.01082e+00,-7.51354e-01,-7.63796e-02,7.83364e-01,1.15387e-01,
2.66969e+00,-4.95197e-01,-3.20634e+00,-3.48669e+00,2.59459e+00,2.91599e-01,1.11848e+00,4.82367e+00,1.67633e+00,-1.58306e+00,-1.45938e-01,2.20988e+01,2.84121e-01,1.68927e-01,6.12279e+00,-5.50101e+00,
-6.58091e-01,-9.68845e-01,-6.38584e-01,5.56107e-01,-5.79924e-01,-3.24395e+00,6.77702e-01,2.14629e+00,6.34690e-01,2.80706e-01,-2.01023e-01,-3.15556e+00,-1.35413e+00,-1.08718e-01,-2.70131e+00,4.17077e-01,
1.90016e+00,-5.67381e-01,-9.26996e-01,-2.46044e+00,4.08088e+00,-1.74313e+00,6.40184e+00,-3.39845e+00,6.54286e-01,4.23153e-01,-1.90285e-01,2.48177e+01,1.83373e+00,1.51114e-01,4.76968e+00,-4.66453e+00,
-1.64042e-01,2.76765e-01,2.41371e-01,4.02760e-02,4.12058e-02,-2.26683e-01,-5.21586e-01,1.55147e-01,2.85287e-02,-2.03834e-01,-9.22356e-02,1.41901e-01,-1.00109e-01,-2.91516e-01,2.63619e-01,-1.68752e-01,
-7.81027e-01,6.95133e-02,-5.11286e-01,-1.61060e-02,2.26829e-01,2.04296e-02,-3.50349e-01,-3.82700e-01,-6.80054e-02,-3.63485e-02,-1.49966e-02,-4.72460e-01,-6.22501e-01,-9.24248e-02,6.39063e-01,3.57478e-01,
6.40913e-01,3.90195e-01,8.87096e-01,-2.95147e-02,1.21034e-01,3.52775e-01,1.12515e+00,2.00438e+00,3.47304e-02,2.69324e-02,-6.71846e-01,3.17685e-01,1.71223e+00,-1.93546e-01,5.45215e-01,2.35017e-01,
-1.07031e+00,-1.57739e+00,-1.38610e+00,5.90597e-01,-1.24723e+00,-2.64396e+00,-1.78305e+00,2.89947e+00,6.40784e-01,-5.22356e-01,-3.43151e-01,-5.33131e+00,-2.75731e+00,-5.36940e-02,-9.96973e-01,5.81705e-01,
-3.53060e-01,-1.86023e-01,-3.80214e-02,-3.25404e-01,-1.88435e-02,-4.30099e-02,-2.25178e-01,1.27857e-02,-1.81127e-01,-9.45651e-02,-3.41431e-02,4.48296e-01,-4.18250e-01,-2.33873e-01,-9.71929e-02,-2.68072e-01,
2.77003e-02,-5.12291e-01,3.98379e-01,-7.14248e-02,-8.08173e-01,-1.54244e-01,-1.38486e-01,1.08639e+00,-3.84522e-02,-2.19963e-01,-2.88994e-01,-2.97458e+00,-3.83033e-01,-1.29171e-01,-6.72933e-01,5.13914e-01,
-1.97738e-01,-1.40529e-01,-4.74044e-02,6.37905e-02,1.18140e-01,-1.54830e-01,4.19452e-02,1.20266e-01,-1.06701e-01,-9.56321e-02,-3.57955e-03,3.28659e-01,-2.32427e-02,-4.79422e-02,-2.39255e-01,3.08451e-02,
6.81345e-01,-8.91981e-01,-1.06762e+00,-1.28180e+00,2.01259e+00,-1.03430e+00,2.69261e+00,-2.55149e+00,-4.82773e-01,7.24006e-02,-2.72117e-01,1.28005e+01,1.17225e+00,-6.27352e-02,2.12278e+00,-1.86526e+00,
-1.29371e-01,-4.62855e-02,1.31770e-02,-1.48037e-01,6.34860e-02,-2.30744e-01,7.96803e-02,-2.61477e-01,-2.86766e-02,-3.39183e-01,-7.90474e-03,2.65127e-01,-1.10873e-01,-1.64511e-01,-2.46500e-01,2.09262e-02,
-4.54878e-01,5.36005e-01,1.68876e-01,-9.68885e-01,-1.45799e+00,6.90179e-01,-1.20648e+00,3.18699e+00,5.32207e-01,-8.91247e-01,-4.88913e-01,-6.74659e+00,-2.11644e+00,-1.93067e-01,-1.62025e+00,2.32777e-01,
-1.01421e-01,-1.46839e-01,1.32669e-01,-1.91204e-01,1.41519e-01,8.17070e-02,1.72746e-01,6.01076e-02,8.19192e-02,3.63677e-02,-1.86837e-01,2.67448e-01,2.15535e-02,-6.61356e-02,-2.66016e-01,2.97084e-02,
2.26484e-01,6.08681e-02,-1.09862e-01,2.16714e-01,1.49355e-01,5.08243e-02,1.87003e-01,2.83895e-01,-4.75202e-02,2.07938e-01,-1.24129e-01,-1.45466e-02,-1.72757e-01,-1.67543e-01,1.33354e-01,-4.37983e-02,
-8.57488e-02,-1.24543e-01,8.40044e-02,3.08079e-02,-2.55328e-01,2.04299e-01,2.17392e-01,-4.97315e-02,-2.23832e-01,1.66155e-01,-1.48121e-01,-4.83278e-02,-2.70644e-01,-1.31558e-01,-1.91200e-01,-3.15455e-01,
-5.84694e-01,-1.60811e-02,-7.48841e-01,-3.88774e-01,1.69489e-01,-4.83995e-01,-3.63028e-01,-6.05832e-01,-5.64069e-02,-3.33156e-01,-2.52661e-04,1.55256e-01,-3.89224e-01,-1.04326e-01,-1.49738e-01,-2.28713e-01,
-2.91383e-01,1.02282e-01,1.39945e-01,-1.53472e-01,1.01828e-01,1.79287e-01,-2.11028e-02,2.83946e-01,1.39841e-01,-4.42158e-02,-3.33133e-02,2.64070e-01,6.22395e-03,-3.43633e-01,-9.95576e-02,-1.55723e-01,
2.63136e-02,-7.67095e-02,-4.87844e-01,-3.81102e-01,6.23708e-02,-4.23911e-01,5.74607e-02,-7.18940e-01,-1.92835e-01,-3.32264e-04,-3.04860e-01,4.24964e+00,5.45303e-01,-6.47718e-03,1.46238e+00,-4.70451e-01,
-5.97498e-01,-3.12072e-01,-4.05954e-01,-4.14332e-01,-2.14068e-01,-7.06546e-01,-1.24608e+00,-6.11406e-01,-5.84310e-01,-5.61890e-01,3.02141e-03,7.37535e-01,-2.65409e-01,-7.30880e-02,-2.28291e+00,-6.19262e-01,
-1.27607e-01,-3.13511e-01,-3.49599e-01,-2.76806e-01,2.15066e-01,-3.66927e-02,-3.09625e-01,1.61861e-01,-5.15274e-02,-3.20740e-01,-8.85195e-02,8.08452e-02,-3.52949e-01,-3.44965e-02,7.20647e-02,1.36358e-01,
-3.59531e-01,6.18003e-01,-2.21379e-01,2.46951e-01,6.37000e-01,-3.12940e-01,-5.23639e-01,-7.24457e-01,-4.47358e-01,-7.65412e-01,-4.25738e-01,9.86339e-01,6.28746e-01,-1.92332e-02,2.13107e+00,-8.17281e-01,
-1.42747e+00,-6.85454e-01,2.64251e-01,-4.24173e-02,-1.42136e+00,-2.76148e-01,-2.16760e+00,4.72352e+00,-4.22887e-01,-3.78023e-01,-6.25526e-01,-7.17705e+00,-2.10844e+00,-2.69277e-01,-3.08595e+00,2.96032e-01,
-4.55257e+00,6.34948e-02,-3.25015e+00,3.76730e-01,3.14813e-02,-1.99979e+00,6.56247e-01,-1.10747e+01,1.10902e+00,-7.24808e-02,2.66072e-01,-2.30531e+00,-2.39775e+00,-1.49146e+00,1.86892e+00,2.51729e-01,
7.57926e-02,9.47843e-02,3.05152e-02,6.82774e-02,2.58131e-01,-5.51385e-03,-1.32628e-01,3.57093e-02,-1.64292e-01,-1.22893e-01,-2.51987e-01,-9.02601e-02,8.45903e-02,-8.57266e-02,-6.27326e-02,-3.84555e-02,
-3.30255e-01,-1.02742e-01,-2.32281e-01,-8.87414e-01,-2.16346e-01,-6.95290e-02,-5.82948e-01,3.73447e-01,-4.62410e-02,-5.27222e-01,-2.95017e-01,1.08774e+00,6.02606e-01,-1.58768e-01,-6.38840e-01,-2.71181e-01,
-1.64720e-01,8.45283e-02,-4.10956e-02,-1.82282e-01,9.38725e-02,-1.87796e-01,-2.16221e-01,5.75396e-02,9.51410e-03,-2.16370e-02,-9.78720e-02,-8.76487e-03,-3.53324e-01,-1.43156e-01,-3.51407e-01,-2.45671e-01,
-1.40057e+00,1.24445e-01,-1.30606e+00,-5.07439e-01,-3.48098e-01,-6.15099e-01,2.05253e-01,-3.00634e+00,-2.65393e-01,-2.04849e-01,-6.08636e-03,-1.47934e+00,-1.22540e+00,-5.89156e-02,-2.32509e-01,1.32323e-01,
-1.19599e-01,-2.56015e-01,2.23809e-01,-9.62875e-02,-6.82659e-01,3.57045e-01,-6.00600e-01,2.08982e-01,-2.19439e-01,-2.37794e-01,-3.56841e-01,-3.63914e+00,-1.05209e+00,-2.93410e-01,-7.78050e-01,4.03687e-01,
-2.57656e-01,-4.00757e-01,-3.77009e-01,-3.32610e-01,-1.11442e-01,-2.47819e-01,-4.28366e-02,-1.70908e-01,-3.56061e-01,-2.73127e-01,1.03906e-03,8.77628e-02,-1.85049e-01,-1.58993e-01,-4.71462e-01,-5.34384e-01,
2.39428e+00,-5.22397e-01,-2.54518e+00,-3.44464e+00,3.44032e+00,-6.61875e-02,2.86619e+00,3.33863e+00,1.28638e+00,-9.71949e-01,-2.79512e-01,2.27498e+01,6.56522e-01,1.97709e-01,6.60097e+00,-5.81834e+00,
-3.68325e-01,-4.90392e-02,-2.80311e-01,-2.78976e-01,3.57928e-01,-6.15126e-01,-1.91180e-02,-7.23862e-01,-2.59450e-01,-4.66857e-01,-3.37947e-01,1.32484e+00,5.88765e-01,-1.76283e-02,1.20302e+00,-3.26941e-01,
-4.22228e-01,-2.68122e-01,-3.99778e-01,-2.34322e-01,1.47482e-01,-6.47828e-01,-3.26193e-01,-1.44995e-01,-1.85178e-01,-4.64246e-01,-5.12376e-01,1.89594e+00,1.33499e-01,-9.60709e-02,1.27586e+00,-4.51029e-01,
-1.78887e-01,1.85913e-01,-1.77379e-01,-2.18332e-02,-1.55380e-01,-1.71950e-01,-2.44000e-01,-2.50810e-01,-6.64887e-02,-1.20161e-01,-9.86001e-02,6.85860e-03,-1.20091e-02,-8.82143e-02,-2.02568e-01,-3.01518e-02,
4.79840e-02,-1.91031e-02,1.29376e-01,2.66474e-01,2.61768e-01,4.59343e-04,-2.58482e-02,2.16488e-01,-2.13899e-01,-6.66182e-02,-1.61108e-01,-5.20634e-02,-2.12741e-01,-1.76428e-01,-2.12947e-01,1.51917e-01,
-1.34712e-01,-3.94804e-01,6.22831e-02,-2.33413e-01,-2.18344e-01,-2.50951e-01,-1.98502e-01,-1.87417e-01,-3.51649e-01,-3.14073e-01,-1.63518e-02,4.19474e-02,-1.30338e-02,-3.09741e-01,-6.42572e-01,-4.48812e-01,
1.53668e-01,-1.97595e-01,1.75729e-01,1.15913e-01,2.72012e-01,4.60019e-02,1.31696e-01,1.98594e-02,-2.50834e-01,8.66676e-03,-3.08186e-01,1.67530e-01,1.28160e-01,-1.02868e-02,-3.14584e-01,-3.28824e-01,
2.32216e-01,-2.60739e-01,-2.20793e-01,-1.36319e-01,-7.39622e-02,2.07526e-01,-2.38419e-01,1.05618e-01,-1.55276e-01,-1.16116e-02,-6.31036e-02,-2.18127e-01,-8.93821e-02,-1.27617e-02,-2.59063e-01,-5.21210e-02,
-2.68978e-01,2.19547e-01,-2.39339e-01,5.75414e-03,-1.25059e-01,2.11253e-01,-2.64081e-03,-1.93318e-02,-1.44088e-01,-3.96850e-02,-2.16015e-01,8.93531e-02,4.33042e-02,-1.66316e-01,-1.89363e-01,2.03336e-01,
2.32112e-01,7.43689e-02,-2.16105e-01,1.43659e-01,-1.26724e-01,9.04137e-02,1.97885e-01,2.64800e-01,-2.94142e-01,2.44693e-02,-1.34651e-01,5.73923e-02,1.78466e-02,-8.53011e-04,-1.20108e-01,1.50910e-01,
-2.30906e-01,-1.44653e-01,-1.47744e-01,-3.19082e-01,-1.72519e-01,-1.93895e-01,-3.29061e-01,-2.24003e-01,-2.37260e-01,-1.09321e-01,-3.69423e-01,2.89884e-01,4.19111e-02,-2.58120e-02,3.20279e-01,-5.65029e-02,
7.51955e-01,-2.78735e-01,1.40102e+00,2.33592e-01,-2.52752e-01,1.26969e+00,7.04828e-01,4.43824e+00,5.24350e-01,-1.72945e-01,-4.51519e-01,-5.49770e-01,1.56846e+00,-5.67843e-01,4.35198e-01,3.24145e-01,
-3.07505e-01,-1.58009e-01,-5.03410e-01,-5.29863e-01,-5.13450e-03,-7.15490e-01,-2.55642e-01,8.22190e-02,-1.61132e-01,-2.64076e-01,-8.28448e-03,2.40133e+00,-1.21057e-01,-6.83004e-03,-6.83906e-01,-6.40423e-01,
-5.70476e-02,1.06995e-01,-1.18028e-01,2.63430e-01,1.12366e-01,2.32392e-02,-2.72516e-01,-2.55413e-01,-2.56473e-01,-1.24885e-01,-2.14626e-01,1.00886e-01,1.10596e-01,-2.20423e-01,-2.09771e-01,-1.41969e-03,
-8.55632e-01,-4.83105e-01,-3.86547e-01,-6.78902e-01,-2.57975e-01,-7.20798e-01,-5.17652e-01,-7.05631e-01,-3.39072e-01,-9.11350e-01,-2.10685e-02,4.67556e-01,-2.85745e-01,-3.68858e-01,-8.57590e-01,-6.56015e-01,
-2.39768e-01,-1.90685e-02,-1.25232e-02,-1.76748e-01,1.44177e-01,-4.66708e-02,-2.20585e-02,-1.55332e-01,-3.22440e-01,-1.61801e-01,-5.50843e-03,9.57439e-02,1.15619e-01,-1.00640e-01,-1.54666e-01,-4.70059e-01,
-6.77709e-01,1.37948e+00,-3.11572e-01,6.27337e-01,3.37873e+00,1.78113e+00,-3.15299e+00,-2.66620e+00,-1.83092e+00,-3.16592e+00,-2.74618e+00,6.93832e+00,4.63403e+00,2.46683e-01,8.78534e+00,-1.79599e+00,
-1.64963e-01,6.46547e-02,-2.25434e-01,-2.78053e-01,-3.69050e-01,7.10760e-02,-4.00091e-01,-1.33843e-02,2.33456e-02,-9.24136e-02,-2.48969e-02,-8.62710e-01,-2.44567e-01,-3.76497e-03,-4.04421e-01,-2.03754e-01,
6.24848e-02,4.23339e-01,-1.10202e-01,1.01365e-01,1.47929e+00,-6.46074e-01,-2.50723e-01,-1.08076e+00,-3.33810e-01,-3.10117e-01,-6.06157e-01,1.05150e+00,6.32966e-01,-5.02187e-02,3.94889e+00,-9.22948e-01,
-5.64573e-02,-1.73341e-01,-4.68350e-01,1.01818e-01,-2.19121e-01,-7.95350e-02,-6.92557e-03,-3.15020e-01,2.80156e-01,3.03119e-01,-3.16567e-01,1.83059e-01,4.31705e-01,-1.31781e-01,1.73425e-01,-8.31197e-02,
-2.26667e-01,-2.96084e-01,9.46280e-02,-3.65073e-03,2.52799e-01,1.66072e-01,2.96006e-02,-5.16829e-02,7.41683e-03,1.62758e-01,-4.17215e-02,-2.63342e-01,-2.10302e-01,-1.08661e-02,-2.66530e-01,1.11063e-01,
-1.13391e-01,-2.20318e-01,1.81550e-01,6.54837e-02,-1.79207e-01,-2.42448e-01,2.13636e-02,2.04605e-02,2.56691e-01,-1.00394e-01,-8.17885e-02,1.13543e-02,-1.34783e-01,-2.64807e-02,2.35210e-02,-1.66475e-01,
-3.85126e-01,-4.38848e-02,1.57331e-02,-8.43836e-03,1.93151e-02,-4.73490e-01,-3.40563e-01,3.85584e-01,1.50362e-02,-3.80392e-01,-3.01377e-01,1.48947e-03,-4.72540e-01,-4.97967e-02,1.50685e-01,-4.20062e-01,
1.59153e-01,-2.47612e-01,-6.11202e-02,1.94621e-01,-2.66434e-01,-1.67226e-01,-2.41598e-01,-6.57168e-03,-1.61337e-01,1.62130e-01,-1.77651e-01,1.37506e-01,-1.77231e-02,-1.97002e-01,1.41511e-01,1.24931e-01,
-4.37548e-01,6.92705e-02,-2.32209e-01,-1.36583e-01,-2.01540e-01,-6.10103e-01,5.49517e-01,2.70244e-01,-3.86686e-01,-3.75064e-01,-5.81256e-01,3.30238e-02,-6.38558e-02,-2.61630e-01,-7.00019e-02,-2.44198e-01,
-5.08078e+00,-7.98975e-01,-3.45880e+00,-2.92316e-01,-1.41551e+00,-2.52568e+00,-3.48981e+00,-6.50413e+00,1.91953e-01,-7.75162e-01,-5.21707e-02,-6.24207e+00,-3.12754e+00,-5.13756e-01,-9.48672e-01,4.64276e-01,
-8.69630e-02,-5.69633e-01,-1.00981e+00,-1.20523e+00,1.36818e+00,-7.78980e-01,1.21952e+00,-1.86662e+00,-4.14082e-01,-1.04516e+00,-3.72828e-01,9.65486e+00,9.45164e-01,-1.62205e-01,1.98956e+00,-2.09361e+00,
-2.65405e-01,2.23665e-02,-3.36224e-01,-6.45186e-02,2.62554e-01,-1.51195e-01,1.79689e-01,5.17069e-02,1.67939e-01,-4.95467e-02,-2.38453e-01,1.77490e-02,-2.67038e-01,-1.75289e-01,-9.69516e-02,-5.12155e-02,
-1.23432e-01,5.55699e-01,1.39439e-01,-5.60625e-01,-1.23040e-01,-7.93332e-01,2.63845e+00,2.47844e+00,-1.08765e+00,1.82398e-01,-4.21616e-01,-2.10931e-01,-1.02758e+00,-6.52743e-02,2.05544e+00,5.40867e-01,
-3.16955e-01,1.57847e-01,4.74454e-02,-6.36951e-02,1.12682e-02,-1.14410e-01,-7.43236e-02,-2.80254e-01,-2.10271e-01,1.79258e-02,-2.58500e-03,-6.07755e-03,-1.67221e-01,-1.38096e-01,-1.33817e-01,-9.90559e-02,
-4.28073e+00,
-4.99781e-02,
-6.52156e-02,
1.50329e-01,
-4.86109e-02,
-3.69714e-01,
-1.30655e-02,
2.19940e-02,
-4.15912e-01,
6.18264e-01,
-1.15474e+00,
-2.28749e-01,
-2.15430e-02,
-1.04937e-01,
-3.31781e-01,
-1.37018e-01,
-2.21446e-01,
0.00000e+00,
2.70680e-02,
-6.84661e-02,
-4.84302e-01,
-8.57239e-02,
-1.82830e-01,
-4.86367e-01,
-1.05203e-01,
-1.86811e-01,
-5.84209e-01,
-4.08536e+00,
0.00000e+00,
-4.25144e-01,
-8.08954e-02,
-1.10581e+00,
-1.47284e-02,
-2.19743e-01,
-1.42363e-01,
-1.95193e-01,
-2.76707e-01,
-5.09554e-02,
0.00000e+00,
-2.46720e-01,
-8.62434e-02,
0.00000e+00,
0.00000e+00,
-2.41352e-02,
-1.91670e-01,
8.51279e-01,
-2.69853e-01,
0.00000e+00,
-6.56255e-01,
-1.61368e-01,
-1.97331e-02,
-2.27962e-01,
-1.32536e-01,
2.89204e-02,
-1.04133e-01,
0.00000e+00,
-2.71773e-01,
0.00000e+00,
-4.53209e-01,
-3.98837e+00,
-3.84930e-01,
-7.86541e-02,
2.61446e-01,
-1.67679e-01,
9.17254e-02,1.84183e-01,-7.63222e-02,-1.02512e-01,-2.89807e-01,-2.56297e-01,-4.36005e-01,4.18369e-01,-6.82457e-02,1.15963e+00,-3.48406e-01,1.63407e-01,-4.44855e-02,2.08475e-01,-2.26272e-01,-1.74820e-01,-1.84821e-01,7.35516e-02,2.16692e-01,-8.14384e-03,-2.81819e-01,-1.82238e-01,-3.00372e-01,1.47089e-02,5.63078e-03,4.51599e-01,-2.98198e-01,-2.58853e-01,1.57748e-01,5.19947e-01,1.69575e-01,-2.70417e-01,-9.47559e-02,7.40000e-02,-4.68364e-01,-4.45033e-01,-3.65463e-01,4.87849e-04,-1.68680e-01,-8.87017e-02,-6.52867e-02,-9.30651e-02,1.39887e-01,1.61060e-01,3.22112e-01,-2.70174e-02,-4.36707e-01,-8.30360e-02,-6.57437e-02,-2.87000e-02,-1.04436e-01,-1.79707e-01,3.76616e-01,8.13877e-01,-7.87930e-02,-1.82132e-01,1.33772e+00,1.25492e-01,2.04738e+00,-6.54182e-01,-3.39463e-01,6.77129e-02,-8.14287e-02,7.70709e-02,
-2.50605e-01,-8.31160e-02,2.74107e-01,1.34086e-01,-6.52663e-02,-1.93123e-01,-2.31863e-01,-4.11353e-02,2.18243e-03,4.25221e-01,-1.19839e-01,7.84164e-02,-2.00146e-02,6.60784e-02,-2.65161e-01,6.61770e-02,-1.51562e-01,-1.63693e-01,5.67191e-02,-5.54558e-02,2.70882e-03,-5.36031e-02,-2.65217e-01,-2.03939e-01,-2.03836e-01,1.07480e-01,-1.81426e-01,-2.72040e-02,1.13749e-01,-1.08185e-01,1.78521e-01,7.80698e-02,-4.77211e-02,-1.70879e-01,-9.71033e-02,-7.38710e-02,1.10548e-01,-1.13082e-01,6.99125e-02,-2.66687e-01,8.10758e-02,2.23138e-02,-1.92931e-01,-2.49765e-01,-2.52476e-01,-3.94271e-01,-2.59882e-02,1.36520e-01,-1.84212e-01,-5.57756e-02,-1.73270e-01,-1.27170e-01,1.04704e-01,-4.33403e-02,5.58805e-02,-1.28257e-01,-1.87076e-01,1.73950e-02,-7.23202e-02,-3.15441e-01,5.78457e-03,-4.87854e-02,-1.75386e-01,1.37448e-01,
-7.42176e-02,8.25455e-02,5.01102e-03,4.26496e-02,-4.24278e-01,-3.29617e-01,-4.78779e-01,-1.91998e-01,1.20358e-01,-1.05071e-01,1.65828e-01,4.94102e-02,1.80489e-01,-2.64158e-01,-1.57198e-01,-7.12188e-02,-1.92442e-01,-1.91257e-01,1.88603e-01,-6.27761e-02,-1.90453e-01,5.74536e-02,-1.99071e-01,-1.39277e-01,-1.75031e-01,-1.04882e-02,9.18743e-03,-2.68224e-01,6.08879e-02,-5.22311e-02,2.15920e-01,-2.07862e-01,2.89046e-02,4.83724e-02,-6.74573e-01,-2.55416e-01,5.41635e-02,1.72418e-01,-2.07561e-01,-1.88760e-01,1.60232e-02,-4.72981e-03,-8.29409e-02,7.13101e-02,-2.14855e-02,-8.01055e-02,-1.05239e-02,1.26280e-01,3.75611e-02,-2.15246e-01,-1.30479e-01,1.10915e-01,-1.58372e-02,1.14478e-01,-1.85969e-01,-1.79203e-01,2.36993e-01,1.37752e-01,-2.41871e-02,-3.06404e-01,1.07756e-02,-2.18279e-02,-1.80059e-01,-1.64421e-01,
-1.21304e-01,-2.05231e-01,4.50224e-04,-8.95468e-02,-1.03096e-01,-2.32188e-01,-2.53237e-01,-3.86987e-02,-9.02694e-02,-2.43785e-01,-7.91969e-02,-1.29560e-02,-2.44579e-01,1.39012e-01,8.33814e-02,5.08488e-02,-3.52158e-02,-2.09132e-01,-9.33009e-02,-1.62669e-01,-1.76952e-01,-1.12084e-01,-2.30485e-01,-2.99109e-02,3.95341e-02,-3.23383e-02,-8.18869e-02,-1.83767e-01,-1.22344e-01,-5.49236e-02,1.69954e-01,-6.09014e-02,-2.19434e-01,6.27417e-02,-1.57283e-01,9.79182e-02,-1.98282e-01,3.32683e-04,1.77781e-01,-1.48110e-01,-2.33277e-01,2.09559e-01,1.46142e-01,-4.80709e-02,-5.37351e-02,-1.61944e-01,-1.37652e-01,3.74679e-02,-1.99147e-01,3.67221e-02,5.99819e-02,1.07062e-01,-2.46598e-01,2.33573e-01,-3.73907e-02,1.46060e-01,-1.74741e-01,-1.61232e-01,4.70758e-02,-1.49786e-01,-1.25415e-01,2.08144e-01,-1.26152e-01,5.52516e-02,
1.33032e-02,9.98498e-02,6.37714e-03,3.25841e-02,-1.33470e-01,-2.98119e-01,7.30608e-03,-1.86545e-01,1.11909e-01,-9.14140e-02,-1.91947e-01,-1.70603e-01,-2.54984e-01,-1.29432e-01,-2.95172e-01,8.58518e-02,-1.71733e-01,-1.52348e-01,1.29641e-01,9.00479e-02,3.92330e-02,6.23441e-02,-9.61595e-02,1.13265e-01,-1.29387e-01,1.21629e-01,-1.60250e-01,-2.78966e-02,1.92430e-01,-3.27601e-02,1.37476e-01,3.57747e-02,-1.09401e-01,-1.95737e-01,-1.63085e-01,-2.39433e-01,-1.88538e-01,2.40134e-01,-1.55197e-01,-1.70938e-03,1.21785e-01,-1.50769e-01,5.27009e-02,9.51288e-02,-1.77047e-01,-1.84461e-01,-2.23330e-01,-1.40830e-01,-1.12922e-01,-9.99389e-02,-1.65187e-02,-6.84030e-02,-6.19364e-02,-1.81446e-01,3.52154e-02,4.40859e-02,8.24771e-02,-1.18288e-01,-1.53827e-01,-3.92180e-01,-4.11814e-01,3.04799e-02,-2.00176e-01,-1.35031e-01,
-7.55184e-01,1.54303e-01,2.79598e-01,5.85378e-02,1.02445e-01,2.42560e-02,4.06648e-01,1.44175e-01,1.04174e-01,9.34151e-02,-4.94389e-02,-6.93369e-02,-1.62512e-01,5.45290e-02,1.47853e-01,1.70258e-01,-1.62811e-01,-1.78872e-01,-2.33492e-02,1.28755e-01,-1.53701e-01,-5.85032e-02,-1.04419e-01,-3.95794e-02,-4.17952e-02,6.31122e-02,-1.49138e-01,-4.27899e-01,-5.10586e-02,-5.19800e-02,1.77568e-01,-2.07356e-01,-2.29809e-01,-9.64142e-02,1.07937e-01,6.18235e-02,1.59362e-01,-1.32119e-01,2.00976e-01,6.74513e-02,-4.55870e-02,1.96941e-01,-4.32659e-02,-1.38109e-01,2.51820e-01,-1.08791e-01,1.16518e-01,-1.75585e-02,-7.30952e-02,-2.19041e-01,2.40654e-01,2.15693e-01,1.45495e-01,-1.66836e-01,2.34146e-02,1.43971e-01,-6.76984e-02,-1.04486e-01,1.48648e-01,-3.74753e-02,-1.93790e-01,-1.79558e-02,6.48241e-03,1.12940e-01,
-1.16857e-01,1.03199e-01,-1.28555e-01,-2.54620e-01,-6.76236e-02,-2.04839e-02,-3.70821e-02,5.55128e-02,-1.27127e-01,-2.77644e-01,-1.60680e-01,1.55854e-01,1.07721e-01,-4.77932e-03,-1.29219e-01,-4.22708e-03,1.64407e-01,6.44246e-02,1.29186e-01,1.12107e-01,-1.23598e-01,2.44468e-02,-4.41307e-02,3.81697e-02,1.70045e-01,-9.92488e-02,-9.73897e-02,5.30234e-06,-6.64866e-02,5.17370e-02,-1.18864e-01,9.51085e-02,8.64133e-02,7.52475e-02,-4.25455e-02,7.72430e-02,1.66331e-01,2.83270e-02,6.07923e-04,1.41228e-01,1.74296e-01,5.97938e-02,1.29557e-01,-2.17101e-01,-4.69325e-02,-9.49116e-02,-6.20454e-02,8.89725e-02,9.20234e-02,-1.10629e-02,-1.12177e-01,-1.77415e-01,-8.39167e-02,2.29068e-01,-2.48001e-01,-1.11656e-02,-1.44209e-01,6.11828e-02,2.50542e-02,-1.62931e-01,-7.70875e-02,1.53946e-01,-8.66535e-02,4.08494e-02,
-2.99081e-01,-1.83294e-01,-1.92607e-01,-3.04836e-01,-1.46326e-01,-3.27054e-01,-2.62706e-01,4.56698e-01,-4.63748e-01,1.69890e+00,1.91585e-01,-2.04183e-01,3.71493e-01,-3.34338e-01,-3.44460e-01,3.71182e-02,-5.58892e-01,-1.70532e-01,3.11940e-01,-5.01810e-02,-4.87562e-01,-8.22762e-02,-2.24170e-01,-2.46080e-01,8.74998e-02,4.97054e-01,2.56085e-02,-5.46697e-01,-8.69335e-02,1.12426e+00,7.77879e-03,-4.81682e-01,-3.49491e-01,-1.11598e-01,-5.64314e-01,-3.99458e-02,-1.37452e-01,-4.82673e-02,1.32116e-01,1.02327e-01,3.04190e-02,8.91036e-02,-1.36066e-01,3.61604e-01,3.97468e-01,1.33055e+00,-5.60684e-01,-9.46700e-02,-1.98757e-01,8.42329e-02,-4.45499e-01,-1.37882e-01,5.33579e-01,-5.78122e-01,7.51643e-01,-3.83558e-02,-9.77354e-02,-2.20575e-02,1.77320e-01,-5.78990e-01,-3.49508e-01,1.27549e-01,-5.03493e-01,2.98202e-04,
-3.77068e-01,1.02925e-01,8.68863e-03,-2.18489e-01,-6.39710e-01,-5.19988e-02,-3.94089e-02,2.77724e-01,-7.29866e-02,1.90438e-01,-2.39969e-01,-2.60744e-01,8.50592e-02,5.37581e-03,4.13801e-02,-1.30240e-01,-2.42583e-01,-1.52254e-01,4.02331e-02,2.96286e-01,-2.38750e-02,-2.20998e-01,-2.87262e-01,8.32244e-02,1.46567e-02,1.44332e-03,2.56429e-01,-2.77820e-01,-1.68952e-01,-3.05928e-01,2.15382e-01,-2.19565e-01,7.78233e-02,-1.72908e-02,-5.25265e-01,4.40603e-02,-1.67537e-01,-1.47900e-01,9.81246e-02,2.70414e-02,7.47948e-02,-1.28708e-01,1.10344e-01,-1.67808e-01,-2.40917e-01,1.22330e+00,-3.46084e-02,6.13155e-02,-1.74298e-01,9.37195e-02,-2.72920e-01,-2.62595e-01,2.49358e-01,7.80556e-01,2.76182e-02,1.41149e-01,1.23548e-01,1.67718e-02,1.16904e-01,-7.32429e-01,-1.26463e-01,2.44603e-01,-1.14943e-01,-1.98644e-01,
-2.67981e-01,-1.58497e-02,-1.99179e-01,7.65542e-01,-8.06310e-01,1.53965e-01,-2.66803e-01,9.02417e-02,-1.77840e-01,5.97288e-01,2.98362e-01,1.62000e-01,3.61171e-02,-1.59197e-01,-1.21733e-01,-1.71430e-01,9.45095e-02,-4.11102e-02,1.51517e-01,6.84351e-03,-8.12654e-02,-1.84697e-01,-1.70912e-01,-4.47772e-01,-4.52565e-02,9.09763e-03,1.61117e+00,-5.33387e-01,-1.90579e-01,7.74738e-01,-2.16215e-01,-3.54475e-01,-3.81160e-03,5.48774e-03,-8.81097e-01,8.91962e-02,4.75161e-02,-1.30677e-01,2.08774e-01,2.08447e-01,4.85839e-02,-6.60483e-02,1.02253e-01,-1.40197e-01,1.76767e-01,1.47837e+00,-4.83117e-01,-1.19116e-01,-3.97638e-02,1.74830e-01,4.32723e-01,6.18491e-02,-1.75761e-01,3.95071e-01,-8.01029e-02,-1.63595e-01,1.31420e-02,-6.52184e-02,6.37216e-02,-1.18146e+00,-1.41434e-01,9.73376e-02,-1.31211e-01,1.41725e-01,
-7.93532e-02,-1.92002e-01,-2.15127e-02,-1.94001e-01,-3.67685e-01,-4.30451e-01,-2.32828e-01,-1.72680e-01,8.40370e-02,3.92552e-01,1.52168e-01,-1.86122e-01,-4.17194e-02,6.51709e-02,-2.89017e-01,8.79176e-02,-2.05334e-01,1.43944e-01,1.44868e-01,1.16700e-01,-3.23902e-01,-4.86919e-02,-1.92313e-01,-1.31296e-01,-1.92926e-01,3.63327e-01,3.37110e-03,-2.51361e-02,-1.41591e-01,6.82377e-01,-1.84838e-01,-4.23519e-01,4.97288e-02,8.29260e-02,-3.45990e-01,-2.06369e-01,1.59510e-01,1.44655e-01,3.47214e-02,-1.34898e-01,1.12023e-01,1.99066e-01,-1.53820e-01,7.52200e-02,-5.23096e-02,-4.87507e-01,-2.34498e-01,2.02415e-01,-2.63377e-01,-9.65518e-02,3.79773e-02,-4.44106e-01,8.83820e-02,-4.45655e-01,6.13013e-01,7.04888e-02,3.93943e-01,-9.64913e-02,-7.38415e-01,-8.30975e-01,7.05233e-03,1.46484e-01,-4.20199e-01,9.39868e-01,
-8.84330e-02,3.18097e-02,7.42638e-02,-1.07225e-01,-7.55302e-01,2.60577e-01,-6.43815e-01,3.67719e-02,-2.01312e-01,-3.35741e-01,-4.06727e-01,6.73987e-02,4.82056e-01,-2.59777e-01,-2.16356e-01,-2.15492e-01,-1.88172e-01,9.85667e-04,2.56832e-01,6.42142e-03,-1.14369e-01,-1.82783e-01,-2.13815e-01,1.80378e-01,3.91216e-02,1.42768e-02,-7.29628e-01,-1.11351e+00,7.12519e-02,-5.47593e-01,-1.97586e-01,-2.56816e-01,4.90581e-01,1.31921e-01,-8.24230e-01,-3.42378e-01,3.99423e-02,2.11643e-01,1.61343e-01,7.30511e-02,2.22162e-01,8.21278e-02,1.17325e-01,2.37783e-01,5.74284e-01,-2.09689e-01,-1.89082e-01,6.73126e-02,3.10791e-02,9.29379e-02,-2.20998e-02,-2.82836e-01,-2.49449e-01,-1.47085e-01,-3.39022e-02,-6.32462e-02,-7.69662e-02,-6.20667e-02,6.90809e-01,-1.23271e+00,-3.20488e-01,1.08919e-02,6.94234e-02,-5.48820e-03,
-1.35352e-02,-2.22114e-01,-1.71224e-01,8.95382e-02,-1.13093e-01,7.85155e-02,-8.87461e-03,-4.06867e-02,-2.26898e-01,6.33354e-02,2.08676e-01,4.70582e-02,-1.29522e-01,2.69448e-01,1.03718e-01,-1.18900e-01,-8.45863e-02,2.02772e-01,1.86392e-01,-1.04758e-02,-8.88198e-02,2.96186e-02,-1.38766e-01,-1.79495e-01,-7.12891e-02,5.02490e-03,-1.64476e-01,-2.37848e-02,-1.96607e-01,8.65569e-02,-5.27247e-02,1.34610e-01,1.70502e-01,-1.47767e-02,-8.21674e-03,-2.61525e-02,-7.41413e-02,1.12233e-01,1.52615e-01,-7.71671e-02,3.17636e-01,-1.76899e-01,-1.72378e-01,3.16163e-02,1.12380e-01,4.03997e-01,1.86336e-01,-1.84447e-01,1.26819e-01,2.42683e-01,-7.73261e-02,2.26919e-01,-3.97465e-02,2.42744e-01,-4.18753e-02,-1.14303e-01,-2.62601e-01,1.69671e-01,2.10749e-01,-1.31060e-01,-8.02974e-02,7.39373e-02,1.12552e-01,7.23920e-02,
-6.10349e-02,1.09587e-01,-1.53485e-01,-2.00010e-01,-3.07294e-01,-2.44039e-01,-1.68103e-01,-1.31906e-01,6.64060e-02,-7.77915e-02,-6.38637e-02,1.09143e-01,1.20538e-01,1.12407e-01,-2.06845e-02,1.52283e-01,2.78668e-02,-1.86522e-01,5.99405e-02,8.00778e-02,-2.64058e-01,8.79885e-02,-1.58206e-01,6.97634e-02,-2.43398e-01,-1.92313e-01,7.59872e-01,-3.15222e-01,8.39696e-02,7.83844e-02,-2.10174e-01,-1.81941e-02,-2.48601e-01,-1.01972e-01,-6.06679e-02,-1.58123e-01,1.46611e-02,1.60520e-01,1.54035e-01,1.49407e-01,-2.33316e-01,8.32456e-03,6.99811e-02,1.22536e-01,-5.56535e-02,3.34666e-02,-2.56840e-01,2.33599e-02,-1.19643e-01,1.63554e-01,-2.02652e-01,-2.29090e-02,9.31539e-02,-4.36958e-01,6.55948e-02,-1.65299e-01,-6.80657e-03,9.66193e-02,-2.51144e-01,-3.05887e-01,1.18456e-01,1.87492e-01,-2.07199e-01,1.79146e-02,
2.15014e-01,4.65399e-02,-3.32349e-02,8.77624e-02,-5.66082e-01,-1.97666e-01,-6.94512e-01,5.18866e-01,9.61258e-02,5.39323e-01,4.56019e-01,-1.12173e-01,1.36591e+00,6.65446e-02,9.21428e-02,-1.61256e-01,2.75622e-01,1.70240e-01,3.67419e-01,-1.10741e-01,-2.49707e-01,-9.83044e-02,-4.24379e-01,1.07318e-01,-2.13191e-01,-1.82961e-01,9.41765e-01,-8.89457e-01,3.01838e-03,8.14529e-01,-1.44692e-01,-2.49028e-01,1.68305e+00,-1.29801e-01,-3.09240e-01,2.90627e-02,-4.93338e-01,9.81640e-02,1.80260e-01,-2.21313e-01,-1.93222e-01,2.16456e-01,5.01511e-02,1.58360e-01,-8.28711e-02,1.27137e+00,-2.25639e-01,-6.49884e-02,-1.41677e-01,-2.91651e-01,1.17271e-01,-2.79838e-01,6.76309e-02,6.85497e-01,1.77049e-01,-4.76736e-02,7.35516e-01,5.55772e-02,9.79975e-01,-8.61792e-01,9.21555e-02,6.97671e-02,-3.10561e-01,-3.13311e-01,
-2.48145e-02,-4.13267e-02,5.03720e-02,-1.73519e-01,-7.78041e-01,1.75853e-01,-1.18920e-01,3.58205e-01,-1.21084e+00,-1.40397e-01,-4.76608e-01,-1.29134e-01,1.84577e-01,1.19974e-01,-2.10599e-01,1.11067e-01,-8.47936e-01,1.96833e-01,5.06593e-01,1.70037e-01,-2.97779e-01,-1.17385e-01,9.56024e-02,1.20615e-01,1.61784e-01,6.59295e-02,-7.50369e-01,-3.76039e+00,-1.85310e-01,3.91854e-01,-1.63233e-01,-1.86560e-01,-3.54104e-01,1.67283e-01,-3.37115e-01,-2.10639e-02,-2.64828e-01,1.93413e-02,-7.07923e-02,-1.23671e-01,7.07694e-02,2.76673e-02,1.20271e-01,4.40813e-02,-2.12948e-01,-3.75898e-01,-5.25546e-01,-1.27695e-01,-5.88132e-02,-2.83556e-02,-3.75933e-01,7.79284e-02,2.64241e-02,9.43877e-01,1.30178e-01,-1.63345e-01,1.32504e+00,6.41215e-02,1.64159e+00,-5.38273e-01,-3.56171e-01,4.84680e-02,-2.23131e-01,-2.39286e-01,
1.29903e-01,-1.42984e-01,-1.04415e-01,-3.80534e-02,-2.10124e-01,-4.11257e-01,-1.19157e-01,-3.33688e-01,-4.43981e-02,-3.26512e-01,-5.29506e-02,-1.54613e-01,1.01205e-01,8.00754e-02,-1.06631e-01,5.73820e-02,-5.24067e-03,1.17399e-01,1.24719e-01,-2.71085e-02,3.22133e-02,7.46486e-02,1.31942e-01,-2.77384e-01,1.18603e-02,-2.63326e-01,-3.32832e-01,-7.12551e-01,-1.62354e-01,-1.70741e-01,1.73984e-01,-2.46323e-01,2.90669e-02,1.53505e-01,-2.03571e-01,-1.78550e-01,8.14181e-02,-1.41642e-02,1.72676e-01,1.13978e-01,-6.95038e-02,5.11059e-02,-1.31423e-01,-8.13612e-02,-2.39368e-01,-5.87961e-01,-5.42249e-02,-1.00987e-02,-2.62365e-01,-2.13470e-01,5.76090e-02,7.07937e-02,3.42570e-03,-4.99232e-01,-2.53045e-01,9.95692e-02,-2.62149e-01,-5.66732e-02,-2.63334e-01,-9.17199e-01,-1.66153e-01,-9.08604e-02,-3.20419e-01,-2.05660e-01,
-1.57429e-01,-2.50008e-01,-4.82026e-02,-3.06025e-01,-2.59305e-01,-3.21604e-01,-8.00324e-02,-1.41764e-02,2.96165e-02,-9.71341e-02,-1.20145e-01,2.68497e-02,-3.30295e-01,-2.17943e-01,-5.89214e-02,-1.89178e-02,-6.22417e-02,2.15958e-01,1.77527e-01,1.17750e-01,-2.65397e-01,-8.88011e-02,-2.70447e-01,1.07359e-01,-1.63914e-02,-1.87942e-01,3.42287e-02,-3.29191e-01,1.37206e-01,8.44445e-02,-1.81900e-01,-2.18288e-01,-2.55519e-01,-9.69833e-02,-4.92211e-02,6.49188e-02,-2.40795e-01,-1.51822e-01,1.57954e-01,2.11042e-01,-1.28467e-01,2.16129e-01,1.47927e-01,1.10751e-01,-5.25969e-02,-3.60259e-01,9.35809e-02,-1.90856e-01,5.41320e-03,1.36467e-01,-1.30197e-01,-1.56764e-01,1.27668e-01,4.83062e-02,-5.74505e-02,1.92514e-01,1.30955e-01,1.52167e-02,-1.32752e-01,-5.29362e-01,-8.76965e-02,1.80444e-01,-1.52598e-02,6.84764e-02,
-2.55976e-01,2.11681e-01,-8.77822e-02,-2.33470e-01,-4.38070e-01,1.55419e-01,-3.94869e-01,9.21055e-02,-3.83024e-01,8.45492e-01,2.26925e-01,7.64358e-02,2.07543e-01,-1.09594e-01,-3.87690e-01,-3.40453e-02,-6.37566e-01,1.55125e-01,-1.12569e-01,-5.59406e-02,-2.40095e-01,-3.20507e-02,-7.63305e-02,-2.67137e-01,-1.81614e-01,1.55879e-01,-5.24333e-01,-5.39860e-01,9.01619e-02,9.38038e-01,-1.06569e-01,-3.66446e-01,4.19676e-02,-1.93360e-01,-3.94371e-01,-9.03824e-02,-4.21966e-01,-2.15112e-02,-1.92585e-01,-6.36562e-02,1.32353e-01,-1.04234e-01,-1.49861e-03,3.89462e-01,4.24160e-01,8.75211e-01,-6.21202e-01,1.26569e-01,-1.47338e-01,1.99932e-01,-6.17126e-02,-1.49384e-01,3.47026e-01,-5.86381e-01,3.37249e-01,-9.12017e-02,-1.72615e-01,1.36165e-01,2.15799e-01,-6.30595e-01,-4.18873e-02,-3.78843e-03,-3.25050e-01,8.48635e-02,
-1.96583e-01,-2.04491e-01,-1.82341e-01,-2.55623e-01,-1.55353e-01,7.47693e-02,-1.07352e-01,6.58336e-02,-1.94752e-01,-1.63633e-01,-2.86153e-02,-2.54941e-01,1.81311e-01,1.42354e-01,-2.10113e-01,1.08009e-01,-3.10409e-01,-1.86091e-01,1.30979e-01,-1.25233e-02,-5.18092e-02,-1.29380e-01,-1.83308e-01,1.29095e-01,-2.13902e-01,5.80770e-02,-1.88086e-01,-2.37966e-01,-1.89749e-01,-1.12383e-02,1.41662e-02,-5.12870e-02,2.11357e-01,1.47106e-01,-2.60632e-01,-9.40841e-02,1.67342e-01,2.16072e-01,1.83941e-01,1.63396e-02,-8.15037e-02,8.25626e-02,-1.55040e-02,-6.30158e-02,6.96185e-02,2.80224e-02,-8.77483e-02,1.78458e-01,-6.82347e-02,-1.74016e-01,-1.71170e-01,-2.33421e-01,3.64669e-03,-1.13677e-01,-1.30881e-01,-1.98394e-01,-2.53107e-01,-1.14749e-01,9.86785e-02,-1.33820e-01,-1.16913e-01,-6.66532e-02,-1.96841e-01,-7.09667e-02,
-2.31957e-01,1.41245e-01,-5.91820e-02,-2.80555e-02,-5.77416e-02,-6.60045e-02,4.78491e-04,-8.89173e-02,-5.20410e-02,-2.45061e-01,1.02018e-01,-9.36737e-02,5.78757e-02,-1.99453e-01,-1.97449e-01,2.56194e-02,-1.07454e-01,1.57305e-01,-3.09798e-01,6.35305e-02,7.31723e-02,2.69799e-01,2.37982e-02,-1.68120e-01,-2.53985e-01,-1.86109e-01,-1.13997e-01,-2.25188e-01,5.86977e-02,1.49671e-02,5.38299e-02,4.22070e-02,7.51397e-02,4.63504e-02,-1.24452e-01,-4.97519e-02,1.39489e-01,-2.61549e-01,-1.21722e-01,1.53007e-01,-6.44008e-03,1.00684e-02,-1.91208e-01,-8.99848e-02,3.05664e-02,4.33050e-02,-2.39988e-01,1.79374e-01,8.76026e-02,1.19268e-01,5.38739e-02,1.77315e-01,-2.03767e-01,-5.04456e-03,1.65584e-01,9.17484e-03,-1.42965e-01,-1.77723e-01,-2.34444e-03,-2.45267e-01,7.45640e-02,-4.68136e-02,8.69011e-02,-1.17413e-01,
1.32390e-01,9.27108e-02,-1.56121e-01,-1.58222e-01,-1.87196e-01,-1.97242e-01,-3.27346e-01,7.31752e-03,-9.58427e-02,-5.53339e-02,-5.05122e-02,1.63540e-01,-6.02781e-02,1.97032e-02,-2.68102e-01,2.54307e-01,-5.27260e-02,-1.46007e-01,-4.51560e-02,-1.13037e-01,-1.77046e-01,-2.86794e-02,-3.63656e-02,1.05783e-01,2.00482e-01,-1.45969e-01,-1.79022e-01,-1.02030e-01,-1.20423e-01,-3.72295e-02,8.91500e-02,1.51345e-02,1.67358e-02,1.67926e-01,-1.14997e-01,-2.80449e-01,-6.69090e-02,9.03241e-03,1.49539e-01,1.97862e-01,-1.76630e-01,-2.10533e-02,1.07275e-01,-1.91266e-01,1.39087e-02,9.66851e-02,-2.05091e-01,1.27225e-01,-4.16427e-02,9.69776e-02,-2.98195e-01,-9.89053e-02,4.11723e-01,-1.89228e-01,1.38483e-01,5.85164e-02,2.27019e-01,-2.31793e-02,-6.06343e-02,-2.87847e-01,-2.25065e-02,5.88179e-02,4.61645e-02,8.90620e-02,
5.06909e-02,-3.76689e-02,-1.08258e-01,-1.64349e-01,-5.72230e-02,-4.55143e-02,-2.04657e-01,1.02652e-01,4.02762e-02,-9.44278e-02,9.53016e-02,1.49791e-01,-2.40271e-01,-1.92840e-01,-6.93890e-02,-6.83006e-02,-1.36083e-01,-5.18540e-03,2.22301e-01,-4.60012e-02,-1.38450e-01,3.92491e-02,-1.38868e-02,-3.18382e-02,1.00822e-01,-1.39012e-01,2.25281e-01,-1.14413e-01,7.98790e-03,5.11997e-02,8.85743e-02,-5.35202e-03,1.78923e-02,-1.21803e-01,-4.78735e-01,-1.39598e-01,1.56212e-02,4.76489e-02,9.41837e-02,9.82876e-02,-1.71860e-01,7.58354e-02,-2.03576e-01,-2.20806e-01,-2.32995e-01,-1.83367e-02,1.03621e-01,1.39825e-01,8.39977e-02,-4.22124e-02,1.79647e-01,1.02782e-01,-2.97709e-02,2.71906e-01,-1.44756e-02,1.65968e-01,-3.00149e-02,-1.59915e-02,8.36929e-02,-7.31806e-02,1.55391e-01,3.14822e-02,8.23070e-02,-1.83424e-01,
-1.53317e-01,1.49755e-01,-1.30538e-01,-2.54082e-01,-2.08537e-01,3.94089e-02,-2.05281e-01,-1.79715e-01,7.78253e-02,1.71745e-01,-2.47625e-01,-8.76381e-02,-2.77747e-01,-2.75911e-02,6.73896e-02,4.63838e-03,-2.31933e-01,-1.44308e-01,-1.62943e-01,-1.31992e-01,3.54594e-02,1.35506e-01,1.21045e-01,-6.42705e-02,3.35678e-02,1.14481e-01,-2.31324e-01,-3.72526e-01,-8.56072e-03,-1.65689e-01,-1.88885e-02,-2.51822e-01,1.85194e-01,1.54880e-01,-9.70584e-02,4.59404e-02,-1.34979e-02,-2.18129e-02,7.38027e-02,-2.11896e-01,-5.15151e-02,5.60731e-02,1.21410e-02,1.00982e-01,1.26928e-01,-1.46122e-01,-2.32112e-01,-2.12952e-01,-1.55564e-01,4.19870e-03,2.07405e-02,5.38632e-02,-2.01375e-02,2.00726e-01,-1.35399e-01,-1.83628e-01,6.61251e-02,-8.54876e-02,2.13208e-03,-4.56398e-01,-2.28982e-01,-7.84993e-02,-2.33266e-01,1.53684e-01,
-1.94493e-01,-8.00530e-02,9.80181e-03,-1.22513e-01,-1.54632e-01,-1.18546e-01,-1.75704e-01,-1.75268e-01,-1.53416e-01,-2.09263e-01,-1.21965e-01,-1.24556e-01,3.96223e-02,6.76043e-02,-4.54375e-01,2.63811e-02,-1.84360e-01,-7.39704e-02,2.06347e-01,9.74983e-02,9.88164e-02,-1.67612e-01,-1.49802e-01,-6.56570e-02,1.82830e-01,9.17661e-02,-1.48420e-02,-3.33751e-01,-1.66672e-01,5.86623e-02,1.54929e-01,-1.47034e-01,-3.66755e-02,1.95123e-01,-4.66258e-01,5.08746e-02,-6.82155e-02,6.24061e-02,1.67962e-01,-1.93560e-01,-6.90901e-02,1.11605e-02,1.24904e-01,1.63431e-01,8.44194e-02,-2.39262e-01,-2.74657e-01,-2.05314e-01,-1.54979e-01,-2.70557e-02,-1.23364e-01,-2.16710e-01,-8.30525e-02,-8.79919e-02,3.99252e-03,-9.60162e-02,5.56865e-03,-2.01641e-01,4.01166e-02,-5.41357e-01,-4.53072e-01,2.23094e-02,-2.21774e-01,-1.85585e-01,
-1.18013e-01,2.27361e-01,9.50820e-02,-7.58542e-02,-2.28500e-01,-1.33972e-01,5.09804e-02,1.97401e-01,2.10306e-01,-1.49618e-01,8.00883e-02,1.64609e-01,-2.32802e-01,-1.28310e-01,3.55810e-02,1.49655e-01,1.21051e-01,-7.76318e-02,-7.78267e-02,-9.09235e-02,-3.85879e-02,-5.02991e-02,-1.11392e-01,9.06462e-02,4.80446e-02,-5.00881e-02,-3.86399e-02,-7.98605e-03,-9.71967e-02,6.57260e-02,-2.14274e-01,1.47884e-01,5.70264e-02,2.00796e-01,-6.08065e-01,-1.84159e-01,-2.42083e-02,2.75595e-02,-2.09257e-01,-2.11974e-01,-2.08248e-01,2.74134e-03,-1.93475e-01,-2.72327e-01,-1.59465e-01,7.82866e-02,3.45105e-03,-4.54689e-02,1.10915e-01,8.40793e-02,-2.55031e-01,1.34267e-01,-8.95524e-02,5.48908e-01,-2.19921e-01,-1.46573e-01,-1.88555e-02,-1.37346e-01,3.81996e-03,-1.65780e-01,1.46309e-01,-9.02327e-02,-2.94319e-01,8.43416e-02,
6.42723e-03,-4.58444e-02,-6.07616e-02,-1.52435e-01,-1.68813e-01,-8.88491e-02,-1.38903e-01,-1.87079e-01,-1.54722e-01,-1.14461e-01,-2.11724e-01,-7.24323e-02,1.35662e-01,1.63747e-01,6.32024e-03,2.05557e-02,-2.03428e-01,2.29082e-02,5.60690e-02,2.53301e-01,1.22174e-01,1.23955e-01,-1.03466e-01,1.00664e-01,-9.70515e-02,-3.61588e-02,-1.52911e-01,-2.59876e-01,6.73329e-02,8.84545e-02,9.58816e-02,1.71444e-02,-3.79660e-02,-1.43339e-01,-1.53242e-01,-1.25171e-02,-1.65400e-01,1.74653e-01,-1.46350e-02,1.53895e-02,1.26438e-01,5.40704e-02,-2.82599e-02,1.13061e-01,1.57009e-01,-2.25418e-01,-5.93295e-02,-4.64932e-02,6.54732e-02,-4.16994e-02,-6.48108e-02,-3.62470e-02,1.78250e-01,-1.92643e-01,-1.73956e-01,1.87383e-01,2.52452e-01,2.13683e-01,1.91597e-01,-2.23328e-01,-3.81799e-02,1.75979e-01,3.30323e-02,-6.75575e-02,
-1.56006e-01,-4.97806e-02,-5.40906e-02,1.00418e-01,-1.56626e-01,-1.77923e-03,-2.21090e-01,-3.81384e-02,-2.72146e-01,1.70042e-01,4.05104e-03,-1.07228e-01,-5.82568e-02,1.06081e-01,7.04252e-02,5.28199e-02,3.53361e-02,1.36013e-01,9.21063e-02,-2.01644e-01,-1.37264e-02,-6.18522e-02,1.73250e-02,5.85110e-02,-1.01484e-01,4.03613e-02,-1.61069e-01,-2.57655e-01,1.87795e-01,-2.56550e-01,-4.85210e-02,-1.84972e-02,-2.30923e-01,-1.09982e-01,-8.99161e-02,-1.77159e-01,-2.11241e-01,2.11076e-01,-1.17460e-01,1.01722e-01,4.48752e-02,1.69555e-01,1.06734e-01,1.58864e-01,1.02002e-01,8.14165e-02,-2.14737e-01,-1.07429e-01,1.24937e-02,-1.04737e-01,-2.72476e-02,6.39773e-02,-5.99792e-02,-1.14216e-01,-5.44841e-02,1.55731e-01,-5.48267e-04,1.21213e-01,-2.00070e-01,-1.13411e-01,-5.29142e-02,1.37722e-01,-4.80317e-02,-2.03680e-01,
-3.28285e-03,-1.26992e-01,7.99247e-02,-1.78118e-01,-2.88259e-01,1.51310e-02,-1.72797e-01,1.99819e-01,-3.36687e-01,-1.53306e-01,-1.62829e-01,2.90404e-03,4.87378e-01,-2.07364e-01,-8.07660e-02,-6.91925e-02,-2.13219e-01,-2.75344e-04,-6.11900e-03,3.36085e-02,-2.42691e-01,-6.91144e-02,3.12749e-02,-3.25752e-01,-8.00687e-02,-1.04184e-01,-4.70597e-02,-1.38214e-01,5.25052e-02,5.36616e-02,1.56405e-01,-1.41319e-01,1.52918e-01,9.06305e-02,-1.32304e-01,-1.52353e-01,-2.06821e-01,-1.33101e-01,1.03143e-01,-1.72044e-01,-7.09096e-02,-1.71452e-01,-1.67882e-01,2.95559e-01,-3.99719e-02,-1.26784e+00,-3.49629e-01,-9.49632e-03,-3.36568e-02,-1.02064e-01,-4.54908e-02,-4.22411e-01,-1.84609e-02,1.33827e-01,-3.02114e-01,-1.19815e-02,-3.49283e-01,-1.00172e-01,2.68911e-02,-4.87420e-01,-2.96902e-01,-8.64335e-02,-3.14707e-01,3.22897e-02,
-2.27591e-02,1.04608e-01,4.97167e-03,-4.94388e-02,-1.10957e-01,-2.48170e-01,-7.05843e-02,1.56846e-02,-2.26395e-02,-4.58526e-01,1.29129e-01,1.15753e-01,-2.52339e-01,-1.19088e-01,4.62302e-02,1.50734e-02,-1.42137e-01,1.21670e-01,1.40422e-01,3.78607e-02,8.10325e-03,-2.40369e-02,5.56948e-02,1.51294e-01,1.32897e-01,9.04529e-02,-1.07734e-02,-1.07530e-01,-4.21458e-02,4.79413e-02,-1.70630e-01,-1.36111e-01,5.81223e-02,-9.15450e-02,-1.12962e-01,-9.09166e-03,-1.17307e-02,-1.04303e-01,-9.13991e-02,-1.03681e-01,3.65664e-02,1.41368e-01,-9.14409e-02,-2.39936e-01,1.72039e-02,-1.77126e-01,-4.06482e-02,-3.53381e-02,1.19784e-01,5.32972e-02,-6.28630e-02,-1.56511e-01,5.29481e-02,-1.58006e-01,-1.81338e-01,5.98883e-02,1.18751e-01,-1.01988e-01,-1.12793e-01,-2.53947e-01,-2.36606e-01,-1.04184e-01,-2.47074e-01,1.34916e-01,
-2.01092e-01,-1.95168e-01,-2.58635e-01,-2.88198e-02,-1.41410e-01,-3.89878e-01,-2.35274e-01,-9.24343e-03,-2.10157e-01,-2.49950e-01,-4.83185e-02,-1.79289e-01,-1.31950e-02,1.95437e-01,1.39406e-02,-1.08333e-01,4.28974e-03,-5.99418e-02,3.69759e-01,-8.97690e-02,-2.50258e-01,8.05875e-03,-2.77927e-01,1.28018e-01,-2.31374e-01,-1.18040e-01,-3.47516e-01,-2.67431e-02,1.57792e-01,9.86641e-02,-3.43331e-02,-1.90891e-02,-1.88076e-01,-7.44079e-02,-3.58223e-01,-1.44663e-01,-1.89154e-01,1.55772e-01,-1.13350e-01,1.10943e-01,-1.54722e-01,-1.32168e-01,9.98089e-02,9.66166e-02,-3.96595e-02,3.93054e-02,3.20951e-02,-1.30065e-02,6.13932e-02,-1.53072e-01,-1.19205e-01,-1.25232e-01,1.15872e-01,2.28827e-01,-9.20715e-02,-1.45855e-01,1.41877e-01,-8.28116e-02,-1.02532e-01,-3.60842e-01,1.37964e-02,-1.54863e-01,-7.11567e-02,5.60702e-02,
-1.57915e-01,1.33565e-01,-2.12085e-01,8.14567e-03,-1.93593e+00,-8.09192e-01,-5.09937e-01,1.78207e-01,-1.48261e-01,1.04229e+00,-4.45251e-01,5.86262e-02,5.80383e-01,4.37161e-02,-3.12317e-01,1.56699e-01,-3.81222e-01,-1.55657e-01,4.39879e-01,1.48178e-01,-2.95338e-01,1.43609e-01,-3.96155e-01,-5.84400e-01,9.57447e-02,-4.42185e-02,-1.41358e-01,-1.70218e-01,1.25426e-01,3.63404e-01,-5.14685e-02,-1.08539e-01,-9.80930e-02,-2.95204e-02,-2.06090e+00,1.07842e-01,2.10954e-01,1.58436e-01,-7.45740e-02,-2.38004e-01,1.72450e-01,1.15007e-01,-4.91029e-02,5.74101e-01,7.91946e-02,4.90891e-01,-1.45923e-01,-5.99208e-02,-2.37363e-01,-3.36034e-03,-6.45925e-03,-2.23688e-01,1.12512e-01,4.12416e-01,-1.41062e-01,-2.94908e-02,5.16868e-01,-2.05837e-01,1.04548e+00,-2.08780e-01,-3.67446e-01,-1.89663e-01,1.56007e-01,-1.71088e-01,
-7.31824e-02,-1.99484e-01,-1.27872e-01,-1.42549e-01,-5.11387e-01,1.80962e-01,-3.37309e-01,5.08591e-01,-6.32669e-02,3.68131e-02,-2.19533e-01,-8.25506e-02,7.73202e-01,1.10716e-01,-5.74721e-01,-2.64208e-02,-1.16673e-01,4.75893e-02,-3.65634e-02,2.91935e-01,-2.66937e-01,-2.67248e-01,-3.55038e-01,-1.59676e-01,8.39316e-02,2.10852e+00,-3.02532e-01,-3.24393e-02,-2.05963e-01,-1.93862e-01,-1.80964e-02,-2.67741e-01,6.01528e-01,-2.71418e-01,-2.92897e-01,-2.14889e-01,1.81305e-01,2.76483e-02,-8.93549e-02,6.26350e-02,-1.48833e-01,1.79509e-01,1.08408e-01,2.64068e-01,4.71215e-01,1.75641e-02,-1.29702e-01,7.45348e-02,-4.04705e-02,2.20172e-02,-1.74540e-01,1.21496e-01,1.82221e+00,1.86790e-02,-1.74144e-01,2.78487e-02,-1.68250e-02,1.78654e-01,-1.84346e-01,-6.13439e-01,-4.69230e-01,2.49870e-02,-4.43065e-02,1.53559e-01,
5.59261e-02,1.10448e-01,1.06615e-01,-9.72758e-02,-1.62298e-01,-4.44612e-03,-3.15089e-01,2.01492e-02,-8.66090e-02,1.25668e-01,-1.94924e-01,-3.10081e-02,-2.62278e-01,1.24829e-01,7.59606e-02,-1.94058e-01,6.73215e-02,-4.96286e-02,-1.18018e-01,5.80296e-02,1.06522e-02,-1.81627e-01,1.70754e-01,-9.72543e-03,-1.41946e-01,1.72340e-02,-1.07995e-01,-2.57077e-01,1.09821e-01,-1.06938e-01,-4.15203e-02,4.83454e-02,5.60615e-02,6.33861e-02,-7.98215e-02,1.61023e-01,7.49683e-02,-1.37882e-01,1.06064e-01,-2.54585e-01,1.93604e-02,1.55280e-01,-1.56289e-01,-2.28103e-01,-3.81986e-02,-2.34470e-02,6.46062e-02,-1.00200e-01,-1.32031e-01,-1.19433e-01,9.09141e-02,-1.72759e-01,2.05069e-01,1.11305e-01,9.99078e-02,2.49942e-02,-1.12950e-01,-1.18754e-01,2.44375e-01,-1.63266e-01,-9.14897e-02,2.61387e-01,5.27863e-02,8.91378e-02,
-5.60808e-02,-4.13671e-02,-1.44535e-02,1.08551e-01,-1.34329e-01,3.61309e-02,-9.47580e-02,1.25753e-01,-4.23485e-02,-3.67341e-01,-2.04291e-01,1.10416e-01,-9.67728e-02,1.53756e-01,1.85179e-01,-1.01272e-01,-6.85790e-02,-7.33286e-02,-2.11187e-01,6.05220e-03,2.32418e-01,-5.03369e-02,5.37840e-02,-2.53433e-02,1.63999e-01,-7.83292e-02,-2.42311e-01,-4.89627e-01,-1.99649e-01,1.29816e-01,2.52112e-01,1.31753e-01,2.27372e-02,2.30588e-01,-7.53811e-02,1.96565e-01,1.87253e-01,-2.43478e-02,-1.62944e-01,3.72787e-02,1.09544e-01,-1.75492e-01,5.08112e-02,1.01565e-01,-8.33224e-03,-2.03268e-01,-5.67479e-02,-1.13969e-01,-4.81730e-02,1.59171e-01,6.69412e-02,-2.09365e-01,1.90350e-01,-1.65451e-01,1.41921e-01,8.13454e-02,2.24224e-01,-8.34120e-02,1.65742e-01,-3.82635e-01,9.66106e-02,2.62215e-01,1.25371e-01,1.63056e-01,
-4.30092e-01,1.52454e-01,-1.40815e-01,-3.98074e-02,-1.96339e-01,-3.88605e-02,-2.54605e-01,-1.91585e-01,-2.66357e-01,1.29379e-01,3.19440e-01,1.93793e-01,2.26993e-01,2.65665e-01,-2.00830e-01,-9.06650e-02,-8.26904e-02,-1.16006e-01,8.08887e-02,-1.31531e-01,-1.55116e-01,-1.74098e-01,-1.81518e-01,-1.35293e-03,-1.75701e-03,1.55028e-01,1.51655e-02,-4.43983e-01,9.21086e-02,1.96488e-01,-3.61989e-02,1.37550e-01,-1.55211e-01,-2.76391e-01,-2.36365e-01,-1.85896e-01,-1.36453e-01,2.15735e-01,-6.14619e-02,-6.10143e-04,-5.15215e-02,1.39720e-01,8.47653e-02,5.47886e-01,5.24639e-01,1.18833e+00,-5.40605e-02,-1.39280e-01,-3.68351e-01,-1.74853e-02,-2.59481e-02,-4.52162e-02,-1.00722e-01,1.95399e-02,-9.56029e-01,-1.87650e-01,-3.18089e-01,-1.01686e-01,-1.48091e-01,-9.73688e-01,-1.12524e-01,-1.16442e-01,-2.45162e-01,1.62417e-01,
7.89120e-02,1.27732e-01,-3.64834e-02,1.22447e-01,-2.48958e-01,6.89826e-02,-2.96264e-01,1.89843e-01,7.36343e-02,-6.50781e-02,-1.84558e-01,-4.35916e-02,-4.63867e-03,-9.84756e-02,-9.34898e-02,9.56108e-02,-4.07603e-02,-3.68041e-02,-6.38008e-02,-1.98136e-02,1.26901e-01,1.98606e-01,1.94319e-02,1.34119e-01,1.09714e-01,2.33207e-01,-1.35601e-01,-1.29429e-01,-1.58422e-01,-1.95765e-01,-1.28810e-01,1.42636e-01,-1.47352e-01,1.38249e-01,-1.84627e-01,1.47877e-01,-1.28382e-01,-2.26368e-01,-1.70505e-01,-1.24163e-01,-8.79335e-02,-1.02072e-01,1.70648e-01,1.65628e-01,-1.09287e-01,1.25112e-01,-1.61421e-01,-1.78234e-01,1.64319e-01,-8.31753e-02,1.56326e-01,-1.21380e-01,8.20653e-02,-6.36313e-02,1.47764e-01,-1.61511e-01,-5.70126e-02,-1.86933e-01,1.38461e-01,-2.57514e-01,-2.57290e-02,-8.42365e-02,1.73485e-01,-2.55362e-02,
-6.03594e-02,-1.17965e-01,1.53877e-01,4.85453e-01,-1.05450e+00,-3.49352e-01,-4.32002e-01,4.33689e-01,-1.85649e-01,5.83837e-01,-9.04561e-02,4.48341e-02,2.63390e-01,-6.35882e-02,-4.61921e-01,-8.17206e-02,4.24804e-03,1.63596e-01,1.76949e-01,5.87289e-02,-3.79262e-01,1.83878e-01,3.88547e-01,-2.56366e-01,-1.06470e-01,8.70774e-01,-1.75121e-02,-3.47373e-01,-4.19648e-03,1.11989e+00,-9.91008e-02,-5.40947e-01,3.31720e-01,6.91184e-02,-8.77858e-01,3.96288e-01,-4.70347e-01,1.92500e-01,1.78656e-01,-9.63733e-02,2.41027e-01,1.94534e-01,1.36140e-01,1.23660e-01,-1.08125e-01,5.45607e-01,-2.47754e-01,1.05340e-01,-3.01802e-02,2.07901e-01,1.95314e-01,-7.43547e-02,4.69175e-01,1.70781e-01,-3.43168e-01,-3.16665e-02,4.03841e-01,1.91533e-01,5.98934e-01,-4.56058e-01,-3.17438e-01,2.61081e-01,-5.02961e-01,-1.88276e-01,
-8.73885e-02,9.60635e-02,-1.94955e-01,3.60304e-02,-4.33807e-02,-1.34481e-01,-1.66464e-01,-1.17549e-01,-3.41550e-01,-1.97483e-01,-2.29209e-01,2.11906e-01,-2.76546e-01,1.28186e-01,2.75268e-02,-1.63672e-01,-2.36232e-01,4.79743e-02,3.68095e-02,8.51225e-02,-3.50113e-02,-1.00426e-01,-1.17407e-01,-3.63848e-01,1.54857e-01,1.47680e-02,-1.56936e-01,-3.62334e-01,4.77252e-02,-1.20602e-01,-6.74004e-02,2.86353e-02,7.90995e-02,4.33898e-02,-1.27781e-01,-2.77160e-01,-6.93862e-02,2.02071e-01,-4.92814e-02,1.10682e-01,-1.01946e-01,-8.05905e-02,-7.89291e-02,-2.60337e-01,-2.62229e-02,-2.41936e-01,-4.78537e-02,1.97015e-01,-1.96721e-01,1.53307e-01,3.40962e-02,-2.54056e-01,-1.28548e-01,2.63006e-01,-2.56247e-01,1.01264e-01,2.49141e-01,4.14393e-02,-2.62594e-04,-2.82211e-01,-1.16571e-01,1.15488e-01,-2.42973e-01,-7.18031e-02,
-9.34460e-02,1.48658e-01,-2.05004e-01,-1.28761e-01,-3.91300e-02,-1.07121e-01,-1.99610e-01,-5.66962e-02,2.85867e-02,1.82896e-01,2.90730e-02,3.58145e-02,1.71496e-02,-1.35303e-01,-1.77753e-01,-1.56391e-01,-2.31930e-01,-6.55557e-02,1.85541e-01,-1.42069e-01,1.37254e-01,-4.92213e-02,1.97062e-01,-2.15869e-01,2.16796e-01,-7.34233e-02,7.64885e-02,-4.79636e-02,2.00300e-01,7.98630e-02,-1.82031e-01,3.40979e-02,-2.30697e-01,6.83963e-02,-1.47491e-01,1.06666e-01,1.55963e-01,4.20448e-02,-1.77476e-01,-4.70834e-02,3.34279e-02,-1.36028e-01,1.59818e-01,1.08516e-01,-6.96852e-02,-8.55154e-02,-1.50704e-01,1.86977e-01,-2.29222e-01,-3.88542e-02,-3.06924e-02,-2.07494e-01,-1.17247e-01,5.25497e-02,-9.56462e-02,-2.33456e-02,1.67721e-01,-3.15263e-02,2.21258e-01,-2.74436e-01,-1.63303e-01,-3.45579e-02,-2.49074e-01,-7.71871e-02,
-1.32351e-01,1.64922e-01,1.16538e-01,-2.66611e-02,-4.47726e-02,1.08181e-02,-2.08085e-01,-2.07740e-01,-2.02378e-02,1.26608e-01,4.15909e-02,-4.83080e-02,-1.06972e-01,5.86405e-02,6.42036e-02,-5.51615e-02,8.82208e-02,-2.01233e-01,-2.52616e-01,-1.16794e-01,-5.93679e-02,-1.92297e-01,-2.02971e-04,-1.29729e-03,1.23166e-01,6.06731e-02,-1.13710e-02,-6.24251e-03,1.48840e-01,1.04389e-01,9.53995e-02,7.06590e-02,-2.04241e-01,1.59113e-03,-1.67092e-01,1.41390e-01,-2.04156e-01,1.62177e-01,1.46826e-01,-4.03156e-02,1.47203e-02,3.75068e-02,4.28139e-02,5.46565e-02,-2.29234e-01,-6.80963e-02,-3.31019e-02,7.50037e-02,-1.38837e-01,7.22910e-02,5.71534e-02,9.82037e-02,4.51207e-02,9.90429e-02,5.26149e-02,-1.81181e-01,6.20708e-02,-8.64810e-02,-9.95227e-02,-1.64331e-01,-9.83097e-02,-8.12339e-02,-1.20959e-01,-9.50954e-02,
-5.76925e-02,-5.45298e-02,4.73067e-02,-1.86694e-01,-1.00994e-01,-6.17780e-02,-6.90851e-02,9.28111e-02,2.76420e-02,-2.19691e-01,-1.34080e-01,1.54467e-01,2.09038e-03,-4.68640e-02,9.52764e-02,-4.48268e-02,-3.39073e-01,-8.99978e-02,-7.39832e-02,1.34028e-01,-1.78381e-02,1.47154e-01,1.08847e-02,-1.69881e-01,-1.68157e-01,-1.04219e-01,-2.74120e-01,-9.05954e-02,-3.60755e-02,1.52579e-01,2.15906e-01,-9.03549e-02,2.90943e-02,-5.78447e-03,-2.59610e-02,1.24313e-01,4.43956e-02,-3.59894e-02,-2.24133e-02,-2.15526e-01,1.84154e-01,5.54996e-02,6.72413e-02,1.17812e-01,-1.50074e-01,-2.23599e-01,1.14254e-01,-2.11987e-01,2.81443e-02,-1.50619e-01,3.61754e-02,-1.44910e-01,1.25862e-01,-9.04212e-02,-1.69357e-02,1.24879e-01,1.42209e-01,1.23255e-01,-1.21245e-01,-2.98808e-01,-8.16926e-03,9.68983e-02,-1.69823e-01,-2.49933e-01,
-3.63421e-01,-1.65689e-01,1.29303e-01,1.43675e-01,-9.85613e-01,-1.68600e-01,-3.26289e-01,-2.75518e-02,-1.79372e-01,9.84532e-01,-2.51369e-01,-1.84398e-02,2.80334e-01,-4.55954e-02,-3.88632e-01,-2.11162e-01,1.27913e+00,-2.03777e-01,3.13820e-02,-5.33056e-02,1.48704e-01,-1.29067e-01,-4.75376e-01,1.23957e-01,-1.89065e-01,-1.61466e-01,1.63966e-01,-1.86752e-01,1.12700e-01,1.07537e+00,-1.88580e-01,-4.10691e-02,-3.59763e-01,-7.42999e-02,-7.52552e-01,-3.43165e-02,-1.79731e-01,1.87993e-01,-3.67022e-02,-1.14611e-01,-1.68122e-01,-6.52933e-02,-6.64738e-02,-2.60881e-01,3.42190e-02,1.72544e+00,-3.12930e-01,1.78755e-01,-1.52959e-01,8.64392e-03,-2.03043e-01,-4.72226e-02,-2.08171e-01,-8.31758e-02,-1.95130e-01,3.34495e-02,9.74161e-02,1.77136e-01,5.17330e-01,-8.33253e-01,-2.11008e-01,-1.04903e-01,6.85585e-01,-2.39938e-01,
-9.70452e-03,-1.62273e-01,-8.12727e-02,-1.75999e-01,-1.62301e-01,1.26944e-01,-1.15174e-01,1.56186e-01,2.06956e-01,1.73609e-03,-1.71871e-01,2.00089e-01,1.60935e-01,8.95992e-03,1.77024e-01,1.42080e-01,1.48491e-02,8.41931e-02,1.19358e-01,2.54674e-01,-1.96573e-01,-1.79290e-01,8.56532e-02,-1.30092e-01,6.06599e-02,-7.18850e-02,-2.15809e-01,-2.61048e-01,-1.81511e-01,-1.58211e-01,1.78643e-02,-1.52656e-01,-3.58487e-02,-3.08310e-01,-6.07381e-02,-3.12319e-02,-1.22779e-01,5.93065e-02,-1.58543e-01,-1.55523e-01,-3.71105e-01,1.09475e-01,9.97270e-02,6.53412e-02,2.11241e-01,-3.32138e-01,1.66090e-01,-1.75751e-01,2.56307e-02,-7.45888e-02,2.19014e-02,4.99514e-03,2.37323e-01,1.75843e-01,-5.95006e-02,1.97155e-01,-2.61073e-01,-6.84773e-02,-2.39711e-01,-2.14198e-01,3.95689e-02,-1.50939e-01,7.86020e-02,1.92919e-01,
-8.00219e-02,9.80103e-02,4.24913e-03,-1.69818e-01,-9.27960e-02,-1.91605e-02,-2.11844e-01,-8.19394e-02,-9.38043e-02,-1.04815e-01,1.84792e-01,-1.29912e-01,-1.22998e-01,1.21457e-01,-9.71481e-02,-2.15373e-01,2.53928e-02,-1.76118e-01,-7.54538e-03,1.35619e-01,1.98925e-01,5.44109e-02,-6.59611e-02,-7.78143e-02,1.29798e-01,1.32393e-01,-4.34292e-03,-2.06750e-01,6.47651e-02,-2.68672e-01,2.84616e-02,-1.55487e-01,-1.56406e-01,-1.46091e-01,-6.50942e-02,1.70113e-01,1.13535e-01,-5.34227e-02,-2.12362e-01,-2.91386e-01,2.27513e-01,8.83025e-02,7.54089e-02,1.78416e-01,1.79349e-01,-4.06613e-02,2.32152e-02,-2.52031e-03,-2.47564e-01,-2.50910e-01,-1.38015e-01,1.19108e-01,1.50452e-01,7.64392e-02,4.77681e-02,2.04341e-01,2.63680e-01,1.15971e-01,-1.53888e-01,-5.89294e-02,-1.88019e-01,-1.46045e-01,-2.66520e-01,-2.48712e-02,
5.11529e-02,1.60403e-01,-5.45777e-03,-1.74968e-02,-3.45166e-01,-1.76689e-01,-3.70938e-02,-3.14368e-01,-1.24638e-01,-1.14053e-01,-2.04175e-01,-1.42375e-01,5.48682e-02,-1.03427e-01,1.14884e-01,1.20092e-01,-1.43999e-01,-8.15406e-02,9.17712e-02,-1.44766e-01,1.02846e-01,-2.14414e-02,9.65117e-02,-7.44240e-03,3.72437e-03,1.09089e-01,-2.37990e-01,-3.05674e-02,-7.84793e-02,6.19774e-02,1.81149e-01,8.49660e-02,-2.56730e-01,8.14941e-02,-1.28375e-01,3.62316e-02,-1.54474e-01,-1.32653e-01,-2.11843e-01,2.38000e-02,-1.44317e-01,3.21890e-02,1.59994e-01,-2.06301e-01,-1.07606e-01,2.91073e-02,3.53893e-02,-2.11777e-01,1.77281e-01,5.53063e-02,-1.87129e-02,1.71605e-01,8.21138e-03,1.13823e-01,1.30571e-01,-7.31895e-02,-1.24551e-01,1.94008e-02,-1.42651e-01,-3.16355e-01,8.85455e-02,-1.33389e-01,-3.95032e-02,-4.33890e-02,
-1.42139e-01,-1.40436e-01,-1.33925e-01,-4.77908e-02,-3.00516e-01,2.95262e-02,-3.24327e-01,3.60871e-01,-2.22862e-01,-2.44543e-02,-2.36291e-01,1.96745e-01,-5.32525e-02,-4.26463e-03,-2.18747e-01,-8.25305e-02,-1.68374e-01,-2.86277e-02,2.70329e-01,-7.43663e-02,-2.18026e-01,1.13567e-01,-6.61441e-01,2.14325e-01,-1.18772e-01,1.09221e-01,-2.68565e-01,-1.76335e-01,2.02370e-01,1.69507e-02,1.42324e-01,-5.03618e-04,9.24497e-02,-6.71523e-02,-1.51091e-01,-7.82238e-02,-2.54526e-01,6.97686e-02,1.12524e-01,-4.75518e-02,-6.91327e-02,1.22998e-01,2.64319e-02,-2.35766e-02,-1.30333e-01,8.49406e-02,-3.11881e-02,-1.50847e-01,7.35536e-03,-2.64080e-01,-1.28800e-01,-7.28446e-02,-4.48930e-02,2.31794e-01,7.78702e-02,9.29841e-02,-2.63026e-01,-1.71425e-01,-1.93188e-01,-3.42935e-01,1.58147e-02,-1.11622e-01,-1.61888e-01,-1.21761e-01,
3.16475e-02,-1.51876e-01,-1.97284e-01,3.44446e-02,-1.41600e-01,-3.31615e-01,-2.78603e-01,-3.28045e-01,6.62525e-02,1.80465e-01,7.48178e-02,-1.17275e-01,-6.65918e-03,-2.61919e-01,-8.95169e-02,-5.41586e-02,6.28842e-02,-2.25602e-03,-4.29082e-02,2.12016e-01,8.74764e-02,-4.16652e-02,2.26863e-02,-1.45948e-01,4.92827e-02,7.85299e-02,-1.71904e-01,-4.34822e-01,-2.15868e-01,5.95104e-02,9.77584e-02,-1.24564e-01,-1.56745e-01,1.95697e-01,-1.61304e-01,-9.32141e-02,-2.23863e-01,2.89150e-02,-1.78920e-01,2.54922e-01,-9.12653e-02,-4.80435e-02,-2.12201e-01,1.51661e-01,-1.65131e-01,-2.25415e-01,-4.99181e-02,1.82562e-01,-1.62751e-01,1.38054e-01,-2.83473e-02,-1.07063e-01,-1.12844e-01,-9.39886e-02,-1.08400e-01,2.17291e-02,-1.95298e-01,-2.93456e-02,-1.40445e-01,-2.79592e-01,-9.46169e-02,1.59416e-01,-9.64164e-02,1.74640e-01,
7.42587e-04,-8.73414e-02,-1.87705e-02,2.10591e-01,-1.86943e-01,-7.91579e-02,-5.24821e-02,1.00920e-01,9.73759e-02,-4.22921e-02,9.68349e-02,-1.64296e-01,-2.64109e-02,1.74035e-01,1.09435e-01,-3.35889e-02,9.43999e-02,3.04196e-02,-1.25790e-01,9.39558e-02,-4.29113e-02,5.15790e-02,7.28151e-02,-1.36151e-01,7.39790e-02,1.22909e-01,1.10792e-01,-1.12562e-01,-1.26319e-01,2.71851e-01,1.32178e-01,2.16174e-02,8.50006e-02,9.47883e-02,-2.64930e-01,1.27530e-01,-5.01871e-03,-6.77555e-02,-1.43087e-01,-2.14067e-01,3.82759e-02,4.11264e-02,-1.69136e-02,8.23548e-02,1.05066e-01,-3.97090e-02,1.07043e-01,-4.10961e-02,1.51580e-01,9.89449e-02,1.20346e-01,2.16902e-01,2.05736e-01,-7.47258e-02,1.14691e-01,4.99016e-02,-9.58724e-02,2.55292e-02,-1.18366e-01,-2.06249e-01,1.24736e-01,2.29080e-02,4.66906e-02,-2.06226e-01,
-2.78588e-01,-8.72527e-02,-1.50358e-01,5.13188e-02,-1.15776e-01,-1.62962e-01,-1.10848e-01,8.93115e-02,1.18686e-01,2.95019e-02,-2.50544e-02,-2.30248e-02,8.48213e-02,-6.32005e-02,1.41134e-01,8.76203e-02,-1.97660e-01,1.04934e-01,-2.11082e-01,2.16952e-02,-1.04295e-01,-1.69544e-01,-1.21378e-01,-1.68114e-01,-4.49043e-02,3.98389e-02,-1.47357e-01,-1.19697e-01,-2.07009e-01,-1.67715e-01,-1.72281e-01,6.29589e-02,-9.89059e-02,-2.68147e-02,-1.90476e-01,1.69447e-01,6.11869e-02,-8.96781e-02,-1.05409e-01,5.15267e-02,9.12928e-02,7.09050e-02,8.36746e-02,1.18538e-01,1.71149e-01,-1.71062e-01,-1.65505e-01,-2.03649e-01,-7.61139e-02,-1.74729e-01,5.50661e-03,1.63017e-02,-7.16196e-02,1.41008e-01,1.16343e-01,-1.97313e-01,1.23895e-01,-2.90861e-02,2.00303e-01,-1.78312e-01,-1.05232e-02,-8.25191e-02,-3.00981e-01,1.38793e-02,
-4.78016e-01,-1.21248e-01,-1.98504e-01,9.17934e-03,-1.62875e-01,2.87553e-02,-3.07922e-01,9.97228e-02,6.54650e-02,2.65396e-02,-1.51036e-02,9.15324e-03,1.08761e-01,-4.10502e-02,-7.11425e-02,1.01296e-02,-6.26118e-02,3.64694e-02,2.30626e-01,-7.93831e-02,-4.50575e-02,-1.61422e-01,-8.27888e-02,-3.07962e-01,8.20867e-02,9.92323e-02,-2.35991e-01,-1.78542e-01,1.22470e-01,-1.51148e-01,-2.01652e-01,1.56963e-01,4.01683e-02,-1.45863e-02,-2.36344e-01,1.21036e-01,4.29597e-02,-8.94697e-02,-1.65576e-01,1.33060e-01,2.81671e-02,1.58617e-01,8.76576e-02,1.55161e-01,9.74057e-02,-1.77930e-01,1.57381e-01,-1.50211e-01,-9.20087e-02,-1.05568e-01,5.46193e-02,-1.12887e-01,-4.66698e-01,1.86454e-01,1.91592e-01,8.17508e-03,3.42861e-01,-2.14757e-01,-3.40169e-01,-1.35891e-01,-1.09201e-01,-9.80396e-02,1.54661e-01,-2.35731e-01,
-8.12314e-02,-6.14809e-02,9.90997e-02,-1.89160e-01,-2.93980e-01,-4.14389e-02,-6.99884e-02,2.00207e-01,-1.36530e-01,-8.68123e-02,1.35483e-01,5.98940e-02,-2.13040e-01,4.26797e-02,8.37691e-02,1.04441e-01,-1.21206e-01,7.55895e-02,-1.93915e-01,1.79401e-01,4.24296e-02,3.70505e-02,-2.82640e-02,1.44432e-01,-7.34672e-02,1.98200e-01,-1.62297e-01,-8.14913e-03,-1.87618e-01,-1.24327e-01,-1.48648e-01,-1.96611e-01,-2.32790e-01,-8.75787e-02,-4.85043e-01,-5.43496e-02,-6.63129e-02,-2.03416e-02,2.01290e-01,-5.01093e-02,7.30130e-02,1.07907e-01,-6.07374e-02,-1.09774e-02,-3.05041e-02,-5.48430e-02,1.02127e-01,1.45679e-01,3.59546e-03,-9.29753e-02,8.78988e-02,-1.38741e-01,6.02711e-02,4.01629e-02,-1.49245e-01,-1.19023e-01,-1.67372e-02,-1.25515e-01,-1.97300e-02,-1.31094e-01,-3.90321e-02,2.13963e-01,-3.26833e-01,6.42125e-02,
-6.94492e-02,-1.27405e-01,-7.42633e-02,-6.20624e-01,-8.62956e-01,9.69956e-02,-6.44487e-02,7.31365e-02,-1.08132e-01,1.18055e+00,4.95550e-01,3.83072e-02,1.26477e-01,-1.67296e-01,-1.56416e-01,1.67018e-01,-5.81576e-01,-1.78201e-01,1.37992e-01,-1.89416e-01,-2.93599e-01,-1.54859e-01,-2.33470e-02,8.33997e-02,2.33623e-02,-3.38286e-01,-2.97490e-01,-4.17443e-01,9.32547e-02,7.42214e-01,2.12880e-01,-2.38348e-01,-3.00924e-01,4.10601e-02,-3.56907e-01,-1.21729e-01,-9.80214e-02,-2.28318e-02,1.49009e-01,-2.23101e-01,8.14159e-02,-4.93962e-02,-2.13286e-01,1.01307e-01,-1.36558e-01,3.18281e-01,-1.80217e-01,1.98246e-01,-1.42751e-02,-3.62382e-02,-1.59170e-01,-1.22746e-01,-2.76512e-01,1.03561e+00,-7.79532e-02,-1.46967e-01,8.53200e-02,4.90399e-02,3.66959e-01,-9.56767e-01,-1.52603e-01,2.12085e-01,-1.72391e-01,-2.51789e-01,
-2.05497e-01,-3.06156e-02,5.87098e-02,-2.27164e-01,-5.86541e-01,-5.20879e-01,1.20267e-01,-1.33190e-01,-4.62327e-01,-1.17291e-02,-2.94054e-01,1.86274e-01,2.42173e-01,2.32273e-02,-3.81885e-01,1.26029e-01,-4.39707e-01,3.96990e-02,-2.18781e-01,8.42676e-04,-2.39577e-01,1.01671e-01,9.19396e-02,-4.69593e-02,-8.11369e-02,4.65446e-01,-3.55625e-01,-2.41399e-03,-7.35909e-02,-3.86259e-01,-2.37965e-02,-3.17750e-01,-1.45886e-01,-2.08102e-01,-5.51659e-01,3.50645e-01,-3.57956e-01,-1.43420e-01,-1.85862e-01,-2.12713e-01,4.09719e-02,2.00259e-01,1.13060e-01,-1.80723e-01,5.63514e-01,6.35666e-02,-3.78471e-01,-2.73327e-02,-2.14549e-01,-1.43123e-01,-3.07788e-01,2.74977e-02,8.08702e-01,-2.36728e-01,-2.46627e-01,8.65839e-03,-1.06218e-01,2.03765e-01,-2.83781e-01,-3.50573e-01,-2.61230e-01,-4.08983e-03,-1.03110e-01,8.82340e-02,
-7.40259e-01,1.73389e-02,6.34640e-02,4.72195e-03,-9.13186e-02,1.01531e-01,-1.00503e-01,6.35318e-02,1.70456e-01,4.43545e-01,1.21762e-01,2.02120e-01,1.82543e-01,5.04286e-02,-1.13412e-01,1.21461e-01,4.66487e-02,6.31568e-02,3.12272e-02,-2.30618e-01,6.96405e-02,7.17907e-02,-1.45171e-01,-8.53448e-02,2.42296e-01,-1.80571e-01,1.68242e-02,-1.83548e-01,-1.44102e-02,2.04865e-01,1.25862e-01,2.29182e-02,-4.12758e-02,4.84058e-02,-1.68393e-01,3.02186e-03,1.15064e-01,-2.43960e-01,1.24510e-01,-9.79939e-02,2.58225e-01,-5.56221e-02,1.28485e-01,1.79427e-02,8.99523e-02,3.13120e-02,1.96712e-03,-6.17884e-02,-1.13016e-01,-8.90705e-02,-5.27505e-02,1.38931e-01,-6.45687e-01,-1.99353e-01,1.38045e-01,-2.29442e-03,-5.48175e-02,-1.85976e-01,4.06427e-01,-2.11267e-01,-8.33728e-02,-5.05967e-02,1.22722e-01,1.68910e-01,
2.21337e-02,-2.17031e-01,1.02446e-01,1.24740e-01,-2.23456e-01,-1.05665e-01,-1.17227e-01,-1.91064e-01,-4.27633e-02,-2.56243e-01,-5.84838e-02,1.03146e-01,-1.25406e-01,-7.21081e-02,-1.29429e-01,9.23230e-02,-2.44542e-01,2.14993e-01,8.17635e-02,-2.79583e-02,1.60488e-01,1.52927e-01,-7.43499e-02,-1.25653e-01,-2.28548e-01,1.07783e-02,8.74472e-02,-3.66519e-02,-7.20647e-02,1.75941e-01,-1.98769e-01,-1.72148e-01,-2.24376e-01,-1.10651e-01,-3.49956e-01,-5.57348e-02,-2.31045e-01,1.12574e-01,1.65698e-01,9.17049e-03,1.19709e-01,9.00262e-02,-7.64254e-02,-8.69182e-02,-4.69622e-02,-4.24704e-02,6.53809e-03,1.87727e-01,1.56097e-01,1.16629e-01,-2.46447e-03,5.76270e-02,1.17209e-01,-2.02718e-01,-2.56018e-02,-4.54802e-02,-2.04596e-01,3.58666e-02,1.30871e-01,-1.80942e-01,8.58848e-02,1.13495e-01,-1.66723e-01,-1.55233e-01,
-2.40769e-01,-1.18817e-01,-1.87073e-01,6.60038e-02,-1.86572e-01,-1.11322e-02,-1.97274e-01,-4.74596e-02,1.29031e-01,-3.64339e-01,-8.58029e-02,1.79069e-01,1.69169e-01,-2.12412e-01,-9.55949e-02,-2.49540e-01,-2.02976e-01,-2.16284e-03,7.87705e-02,3.71976e-02,-1.80576e-01,-4.00661e-02,-9.45103e-02,-2.41245e-01,3.75246e-02,-1.57918e-01,4.35478e-01,-3.21107e-01,1.18774e-01,-3.04009e-01,-2.68674e-01,-6.90991e-02,-8.56533e-03,-4.61581e-02,-2.25893e-01,3.63286e-02,-1.25805e-01,-5.65793e-03,2.11481e-01,-1.06464e-01,2.90178e-01,1.27824e-02,1.68540e-01,4.14349e-02,-1.62320e-02,1.32147e-01,8.76592e-02,-8.43103e-02,-7.53657e-02,-1.00769e-01,2.62606e-02,-9.81058e-02,4.51868e-02,-1.57962e-01,4.00573e-03,-5.10258e-02,1.22361e-01,6.04880e-02,-9.70722e-02,-5.17490e-01,-2.82451e-01,-4.09283e-02,-3.22784e-03,-2.39573e-01,
4.06759e-02,1.42182e-01,1.26398e-01,-5.62573e-02,-2.44094e-01,-2.42353e-01,-2.89927e-01,-5.54068e-02,-1.06194e-01,-2.81354e-01,6.24226e-02,-4.01313e-03,-3.86136e-03,3.36210e-03,4.61500e-03,-1.38803e-01,-1.10333e-02,-1.97504e-01,-2.16683e-01,-3.87607e-02,1.37744e-01,-4.02554e-02,1.39210e-01,2.19509e-01,-1.92922e-02,5.51601e-02,-1.80490e-01,-3.63541e-02,-1.03704e-01,2.07289e-01,1.12519e-01,-1.90346e-01,-8.94108e-02,5.69170e-02,-3.26728e-01,-6.33463e-03,-8.70379e-02,-1.38152e-01,1.47121e-01,8.74906e-02,-3.54234e-02,-5.54921e-03,5.94744e-02,-1.79011e-01,2.58151e-01,1.01207e-01,-3.52064e-02,1.45886e-01,1.07363e-01,8.24707e-02,-9.88465e-03,1.81227e-01,-1.04855e-01,1.80875e-01,1.87532e-01,9.55937e-02,1.05210e-01,1.50441e-01,2.33408e-01,-1.41114e-01,-6.70078e-02,6.26436e-02,-8.85091e-02,1.63446e-02,
-2.93863e-01,1.80761e-01,1.40643e-02,-2.42495e-01,-2.41305e-01,-1.69974e-02,-1.34157e-01,-3.27018e-02,2.07393e-02,5.11980e-02,-1.38293e-01,1.19379e-01,8.20269e-02,4.66515e-02,1.24160e-01,-1.48509e-01,-4.24454e-02,-1.10228e-01,-2.16189e-01,-1.59976e-01,-2.21459e-01,-1.62165e-01,-4.85752e-02,-9.86940e-02,-5.54181e-02,1.53392e-01,-4.56401e-02,-7.41193e-02,-2.02127e-01,1.33129e-03,-5.75758e-02,-8.16869e-02,-1.17742e-01,-1.70435e-01,-1.33319e-01,-1.42038e-01,1.03452e-01,9.62797e-02,-3.62086e-02,-1.33561e-01,1.09779e-01,-2.04733e-01,-1.42356e-01,-2.43013e-01,1.02539e-01,-2.03536e-01,-2.83687e-02,-1.17659e-01,1.23778e-01,-1.92335e-01,4.15856e-02,-1.89760e-01,-5.43052e-02,-4.52600e-02,-1.44292e-01,-1.36910e-01,-1.57768e-01,3.96251e-02,2.09879e-02,-2.52619e-01,-1.18734e-01,-2.04831e-01,1.24861e-02,-1.57819e-01,
-1.26926e-01,-1.79899e-01,9.70101e-02,-2.94888e-01,-2.36866e-01,8.38856e-02,-2.55885e-01,1.44894e-02,-1.20628e-01,-5.99792e-02,-2.35535e-01,9.73573e-02,-1.83299e-01,-2.44535e-01,8.10190e-02,4.50187e-02,9.61670e-02,-1.78666e-01,-5.01500e-03,-1.56153e-01,-1.25124e-01,2.94974e-02,-6.05664e-02,-2.12255e-01,-1.39146e-01,5.33172e-02,-2.08264e-01,-2.05391e-01,-2.04877e-01,-4.11015e-02,-8.69494e-02,-6.28952e-02,1.51423e-02,1.23841e-01,-9.96722e-02,-1.16154e-01,-1.27142e-01,-7.15124e-02,-1.58334e-01,1.41941e-01,-8.61440e-02,-2.00300e-01,-7.48132e-03,-4.92707e-02,1.89128e-01,-4.55529e-02,-3.11640e-02,1.88330e-01,5.21375e-02,-1.07823e-01,-5.21305e-02,-1.97072e-01,-5.92417e-02,-2.87336e-02,-1.71701e-01,2.07430e-01,1.07792e-01,-2.10572e-01,-4.08031e-02,-1.22710e-01,-9.06281e-02,1.68031e-02,-1.96933e-01,1.70794e-01,
1.03343e-01,1.73197e-01,-7.92428e-02,-3.40802e-02,-1.71513e-01,-1.57603e-01,-2.22016e-02,2.54889e-01,-6.90689e-02,2.20553e-01,-3.07635e-01,9.12479e-02,-1.94300e-01,-8.45648e-02,-1.57917e-01,1.58587e-01,-3.36675e-01,1.35076e-02,-8.09366e-02,1.30485e-01,-1.07571e-01,-6.89885e-02,-1.87861e-01,-2.79006e-01,-1.87720e-01,-3.14780e-02,-5.24225e-01,-3.24926e-01,1.42403e-01,9.44651e-02,-1.95630e-01,-1.69178e-01,-1.77098e-01,-9.88740e-02,-2.59551e-01,-5.28148e-01,-5.44159e-01,1.99833e-01,1.78402e-01,-1.14192e-01,-2.07472e-01,3.66029e-02,9.17257e-02,-1.75791e-01,1.48379e-01,-2.36302e-01,1.91220e-02,2.08079e-01,-1.28562e-01,4.77725e-02,-1.00706e-01,3.05562e-02,-5.33119e-02,-4.09490e-02,1.30518e-01,-1.80474e-01,-8.12354e-02,-1.64867e-01,1.23680e-01,-4.59372e-01,-4.77397e-01,-1.32438e-01,-1.69032e-01,9.67827e-02,
-2.86188e-01,-7.57944e-02,-2.67827e-01,-3.08432e-02,-6.06990e-02,-2.59874e-01,-3.27707e-02,-2.38874e-01,1.12994e-01,-1.25203e-02,4.24291e-02,3.23587e-02,1.59953e-01,-2.15744e-01,6.61499e-02,-3.35227e-02,9.61873e-02,6.92689e-02,2.69744e-01,-2.05642e-01,8.82520e-02,3.93484e-02,-1.81534e-01,1.20473e-01,-6.73125e-02,-3.93017e-02,-6.45577e-02,-1.38196e-01,1.51082e-01,-2.03457e-01,1.28166e-01,-1.57534e-01,4.64274e-02,4.59762e-02,-7.04715e-02,-2.49478e-02,1.14606e-01,2.87898e-02,-3.56593e-02,1.29839e-01,4.41340e-02,1.64934e-01,5.15364e-02,-1.07377e-01,9.04992e-02,-1.59458e-01,-5.32469e-02,1.78485e-01,-1.28738e-01,2.13019e-01,-2.15590e-01,9.98150e-02,-1.26324e-01,3.76369e-02,-2.33680e-01,8.28630e-02,-7.33555e-02,8.89042e-02,-8.34958e-02,-1.96760e-01,-5.88847e-02,3.34847e-02,-1.42950e-01,-6.40423e-02,
-2.88292e-01,4.06813e-02,-3.50224e-02,-2.59383e-02,-1.64327e-01,-6.35192e-02,-1.86296e-01,-1.19203e-01,-8.83188e-02,-2.55659e-02,3.67819e-02,-2.05525e-01,7.04401e-02,-6.93659e-02,-1.20653e-01,-1.18376e-01,-1.81313e-01,-1.16351e-01,-9.64721e-03,1.95435e-01,-4.44769e-02,1.52503e-01,9.57129e-03,-1.14599e-01,2.52156e-01,1.38658e-01,6.18545e-02,-1.67706e-01,-8.50305e-02,-2.62183e-02,1.03957e-01,9.69326e-03,-1.80012e-01,-1.34156e-01,-3.92635e-01,-1.40505e-01,1.85659e-02,-5.58833e-02,9.22986e-02,5.98662e-02,3.44605e-02,4.00850e-02,6.30473e-02,2.15923e-01,2.24952e-02,-3.06991e-01,-1.11346e-01,1.92394e-01,-2.20634e-01,-1.34868e-01,4.94983e-02,1.87735e-01,-4.98387e-02,1.10721e-01,3.20360e-02,-8.35720e-02,-5.77407e-02,1.93055e-01,1.71484e-01,-8.19362e-02,-1.29159e-02,4.00536e-02,-2.08025e-01,-3.26232e-01,
-5.02569e-02,1.64235e-01,1.24568e-01,-1.90200e-01,-3.91958e-01,-2.60020e-01,-3.78444e-01,3.73481e-02,3.88594e-03,-7.64268e-02,-1.75173e-01,2.07541e-01,-2.31837e-01,1.11779e-01,1.40991e-02,-4.11635e-03,-5.77383e-03,2.21948e-02,1.61300e-01,1.67788e-01,-1.99894e-01,-9.21511e-02,1.44509e-01,9.42267e-02,1.01167e-01,-1.01053e-01,2.64995e-02,-1.39370e-01,1.82392e-01,-2.59211e-01,-8.09761e-02,-1.73833e-02,1.17953e-01,7.48959e-03,-2.37703e-02,2.74170e-02,-2.46479e-01,2.11996e-01,-1.25071e-01,-1.50944e-01,-3.34965e-02,-1.01433e-01,1.01232e-01,-1.57266e-01,1.13149e-01,-1.49795e-01,9.89827e-02,1.98691e-02,1.52961e-01,5.32521e-02,-2.14267e-01,7.54806e-02,-4.99053e-02,2.99278e-01,-4.17320e-02,1.74051e-01,-2.64497e-01,-1.36620e-01,8.53587e-02,-2.26075e-01,1.12408e-01,1.41688e-01,-4.52031e-02,2.30004e-01,
-4.53674e-02,
-4.60725e-01,
-6.18492e-01,
-3.92357e-01,
-3.19239e-01,
-7.49044e-03,
-3.23522e-01,
-5.38427e-01,
-2.20453e-01,
-2.45342e-01,
-1.66828e-01,
1.09070e+00,
-8.43088e-02,
-3.65278e-01,
-4.65575e-01,
1.86648e+00,
-5.30729e-02,
-9.86343e-01,
-6.59862e-01,
-3.95861e-01,
-6.41370e-01,
-5.09587e-01,
-5.01351e-01,
-6.97942e-01,
-6.14228e-01,
-6.66767e-01,
-9.79985e-01,
-7.82954e-01,
-8.89718e-01,
-5.10055e-01,
-1.12829e+00,
7.32587e+00,
-1.63972e-01,
-6.33641e-01,
-1.03071e+00,
-9.33600e-01,
-6.55844e-01,
1.37717e+00,
-6.84052e-01,
-9.22803e-01,
-4.55564e-01,
-8.96201e-01,
2.95579e-03,
-3.11468e-01,
-4.78936e-01,
-1.90423e+00,
-1.03200e+00,
-1.01975e+00,
-7.37709e-01,
-9.52259e-01,
-1.37599e-01,
-5.12496e-01,
-1.11693e-02,
-6.74892e-01,
-2.85962e-01,
-9.39994e-01,
-1.87300e-01,
-5.62883e-01,
-2.83159e-01,
-2.57182e-01,
-3.37456e-01,
-4.46581e-01,
-6.31080e-01,
-3.61432e-01,
-2.83757e-01,1.44885e-01,-2.42806e-01,-1.60351e-01,1.77399e-01,-9.23715e-02,1.05450e-01,-3.33459e-01,2.48597e-02,-3.50433e-01,-2.14874e-01,7.17327e-01,-1.98113e-02,-2.06200e-01,-1.17620e-01,9.59555e-01,1.91668e-01,6.85105e-02,-4.16780e-01,-2.35973e-01,9.90644e-02,7.21246e-02,5.75915e-04,-1.34785e-01,-3.09343e-01,5.02478e-01,-9.87172e-03,8.31751e-02,-3.66209e-02,1.39856e-01,4.55234e-02,-4.57208e-01,6.57229e-02,4.64028e-03,1.27771e-02,-7.08984e-03,1.03967e-01,1.58541e-01,5.33957e-03,1.43739e-01,8.88827e-02,9.56361e-03,8.33732e-04,-8.58317e-02,2.40686e-02,6.95630e-04,1.87726e-02,-5.01099e-02,1.29334e-02,4.19987e-02,-2.15744e-01,1.43947e-01,-2.38056e-01,4.97644e-02,-9.22041e-02,5.36255e-02,3.44758e-02,3.19747e-01,7.77449e-03,-1.47996e-02,2.28173e-02,-1.46036e-02,2.12308e-01,4.26095e-02,
1.01723e+00,
