// Neural Network File Format by Kyle Julian, Stanford 2016
6,16,1,64,
16,64,32,16,8,4,1,
0,
0,0,0,0,0,0,0,0,0,-3,0,1,0,0,0,0,
10,2,6,1,1,1,1,11,6,1,5000,50,999,7,2,1,
5,1,3,0.5,0.5,0.5,0.5,5.5,3,-1,2500,25.5,499.5,3.5,1,0.5,0.5,
10,2,6,1,1,1,1,11,6,4,5000,49,999,7,2,1,1,
2.32610e-01,-5.71926e-02,-1.10787e+00,-1.06261e+00,3.02451e-01,-4.05888e-01,1.70832e-01,2.02596e+00,4.58750e-01,-4.88929e-01,-2.93366e-02,3.23697e+00,6.18931e-01,-3.05135e-02,2.03544e-01,5.60752e-02,
-2.47600e-02,-3.81342e-01,-1.05963e+00,-9.32046e-01,-2.27047e-01,-3.69107e-01,-1.06358e+00,1.42740e+00,6.39703e-01,-5.04236e-01,-8.77444e-02,2.12011e+00,-7.74636e-01,-1.55433e-03,1.75702e+00,-9.12172e-01,
-2.25691e-01,-2.66824e-01,-7.01122e-02,-1.63454e-01,1.79093e-01,-2.34723e-03,2.64876e-01,1.43516e-01,2.59642e-01,6.20921e-02,-2.58334e-01,-2.04045e-01,1.34268e-01,-1.10199e-01,3.99236e-02,-2.45437e-01,
-3.78992e+00,1.21428e+00,1.79073e+00,1.82751e+00,-8.78103e-01,-7.19414e-01,-7.51090e+00,-4.21639e+00,-2.01891e+00,-7.67853e-01,3.97343e-01,-2.67920e+01,2.01460e+00,8.55317e-03,-2.45758e+00,2.90053e+00,
-2.67593e-01,4.43447e+00,-1.20301e+00,8.85284e-01,1.95424e+00,-1.99238e+00,-7.19488e+00,-1.17106e+01,-1.81203e+00,-5.63604e+00,-3.26333e+00,4.39619e+00,8.40111e+00,4.96629e-01,1.98103e+01,-5.59766e+00,
5.15020e+00,2.90739e+00,4.45925e+00,4.32856e-02,1.47538e-01,3.46845e+00,3.68077e+00,5.14887e+00,1.06948e+00,-2.31882e-01,-3.64558e-01,1.34245e+00,2.27132e+00,-3.69905e-01,6.74476e-02,1.11740e+00,
-1.30085e-01,-4.01516e-02,-2.45584e-01,7.88903e-02,-1.63448e-01,2.52077e-02,-2.12182e-02,-1.59911e-01,-2.62883e-01,1.19444e-01,-1.62227e-02,1.94559e-01,2.75790e-02,-1.22320e-01,-2.73466e-01,8.91827e-02,
-1.39502e-01,2.14504e-01,-8.31898e-02,1.95049e-01,2.99796e-01,-5.35269e-02,-1.46752e+00,-1.01083e+00,-9.19209e-01,-1.94673e+00,-2.85586e+00,1.95742e+00,1.18130e+00,-1.10059e-02,7.65700e+00,-8.88529e-01,
-4.15599e-01,1.34590e-01,-2.48328e-01,-6.17240e-02,1.12777e-01,-3.14316e-01,-3.59491e-01,-8.25365e-02,-1.56568e-01,-7.60375e-02,-2.29089e-01,5.96201e-02,-2.31941e-01,1.64279e-03,7.07262e-02,-1.82141e-01,
3.62879e+00,-4.00666e-01,-3.43464e+00,-4.36097e+00,4.44116e+00,-1.61213e-01,3.10289e+00,-1.23377e+00,6.48663e-01,-1.97850e+00,-1.67662e-01,2.70787e+01,2.86691e+00,3.14685e-01,1.04438e+01,-7.14740e+00,
8.69707e+00,1.15910e+00,7.82426e+00,1.07937e+00,-1.05138e-01,4.37843e+00,1.84849e+00,9.39185e+00,-6.03490e-02,1.88041e+00,-2.97181e-01,-2.47938e-01,6.32477e+00,-1.47890e-01,1.27900e+00,1.06194e+00,
-3.02306e-01,-2.54993e-01,-1.79678e-01,-1.09705e-01,1.89998e-01,4.84812e-02,-3.72377e-01,-7.58795e-02,-2.25590e-01,-6.23806e-02,4.11931e-03,2.27629e-01,1.20266e-01,-3.25831e-01,1.58504e-01,-1.34026e-01,
-8.43304e-01,-3.66225e-01,-3.99959e-01,-4.12908e-01,-8.66493e-02,-2.55374e-01,-6.88719e-02,-1.40098e+00,-5.37647e-01,-2.40831e-01,1.70292e-02,7.64123e-01,-2.67447e-01,-5.51327e-01,-6.05505e-01,-6.20755e-01,
1.25302e-01,-2.51102e-02,-3.02128e-01,-3.31681e-01,-1.82897e-01,-3.25754e-01,-3.10162e-01,-1.76237e-01,-2.76689e-01,1.72506e-01,-6.14371e-02,-2.85797e-01,1.30501e-01,-3.92432e-02,-3.38947e-01,2.84360e-02,
8.40753e-01,-5.23605e-01,-1.12104e+00,-1.66996e+00,3.53766e-01,3.94602e-01,-7.77420e-01,2.07530e+00,1.41822e+00,-1.57011e+00,-2.19036e-01,7.85970e+00,-4.83042e-01,-4.54806e-03,5.73576e+00,-2.57705e+00,
2.87382e-01,7.01524e-01,-1.00671e+00,-1.41786e+00,-2.21185e-01,1.58905e+00,-2.80485e+00,2.97145e+00,1.16952e+00,-2.88911e+00,-5.08750e-01,-1.33277e+00,1.74487e-01,-3.18676e-01,1.61716e+00,-8.65053e-01,
5.86689e-03,9.81708e-02,-2.54888e-01,1.73180e-01,-1.16047e-01,-1.67520e-02,-1.67067e-01,-2.01105e-01,-1.72281e-01,-1.35482e-01,-2.66924e-01,-1.07712e-01,1.29593e-01,-9.61855e-02,-1.54940e-01,-2.06121e-01,
1.68177e-01,-2.61424e-01,-2.70351e-01,6.53323e-02,4.43064e-02,-3.29456e-01,-2.58528e-01,-7.13797e-02,-2.71412e-01,-2.59887e-01,2.45440e-03,2.30027e-01,-2.19410e-01,-9.39040e-03,1.73131e-02,-7.10835e-02,
-2.00846e+00,-2.92428e-01,-1.79974e+00,-7.27973e-01,2.71502e-01,-1.79998e+00,-1.35243e+00,-3.77621e+00,6.16907e-01,-5.68593e-01,-1.30856e-01,3.56586e-01,-2.08473e+00,-2.70341e+00,-5.54643e-01,-1.21591e+00,
-1.35596e-01,7.26148e-03,-2.11079e-01,-5.13667e-02,6.22331e-02,-1.38445e-01,2.57493e-01,-2.20343e-01,1.50193e-01,-2.27331e-01,-7.61883e-02,-1.38861e-01,-2.11165e-01,-2.22652e-01,-2.28822e-01,1.48317e-01,
5.75345e-01,-6.34968e-01,-6.56255e-01,-1.12491e+00,6.13218e-01,-8.42499e-01,2.17508e+00,-3.29322e+00,-5.84513e-01,-6.24842e-01,-2.78663e-01,1.20113e+01,4.76091e-01,-7.46257e-03,3.53890e+00,-2.07033e+00,
1.49193e-01,-1.54956e-01,-1.75580e-01,1.39695e-01,-5.12110e-02,1.12752e-01,-2.47588e-02,-1.06650e-01,-4.91665e-02,-2.03317e-01,-5.99699e-02,-3.67037e-02,-3.68466e-02,-2.42937e-01,1.84259e-01,-1.07420e-01,
-3.38797e+00,7.79029e-02,-1.81468e+00,1.51401e-01,7.82071e-02,-8.06650e-01,-1.88993e+00,-5.16183e+00,-4.47950e-01,-4.76768e-01,-3.74302e-02,-3.85708e+00,-9.28069e-01,-4.98649e-01,-1.66892e-01,-1.69879e-01,
-3.35691e+00,-3.85619e-01,-2.47786e+00,-1.58037e+00,1.39046e-01,-7.57251e-01,-9.87524e-01,-4.74670e+00,-6.56030e-01,-9.34012e-01,-8.04695e-02,1.01649e+00,-2.41468e+00,-6.49189e-01,-6.48562e-01,-1.81208e+00,
1.36540e-01,-1.50940e-01,-7.24454e-02,3.35766e-02,-2.55465e-01,-1.29868e-01,1.05944e-01,-1.48321e-01,3.04045e-02,1.61217e-02,-4.85162e-02,2.51157e-01,1.36771e-01,-6.81519e-02,1.64495e-01,-1.85576e-01,
-2.22364e-01,-3.39323e-02,-1.35531e-01,-2.10089e-01,-2.33659e-01,-6.60425e-02,1.54890e-01,-2.30325e-01,-1.97958e-01,2.37427e-01,-2.63323e-01,-2.49463e-01,4.30858e-02,-1.82071e-01,1.63626e-01,-8.75604e-02,
-1.85191e+00,-4.84616e-01,-1.60160e+00,-7.93040e-01,5.95009e-02,2.69378e-01,-1.10187e+00,-2.15038e+00,-4.34678e-01,-9.03091e-01,2.78956e-02,8.19572e-01,-1.70833e+00,-5.38673e-01,-7.13218e-01,-8.15997e-01,
-5.46817e-02,1.35041e-01,-4.38506e-01,-6.94126e-01,-2.11902e-02,6.20177e-02,-4.55993e-01,9.66123e-01,9.28896e-02,-1.02866e+00,-2.83386e-01,5.56963e+00,-2.95327e-01,-4.47072e-02,3.16139e+00,-9.09715e-01,
-1.41708e+00,-8.40323e-01,-6.80018e-01,-3.72357e-01,-2.11972e+00,-2.29515e+00,-3.52232e+00,2.00950e+01,6.26039e+00,1.95563e-01,-6.01816e-01,-1.83213e+01,-7.97695e+00,1.90463e-01,5.45408e-01,3.72630e+00,
3.70034e-01,7.69586e-01,5.11622e-01,2.50539e-01,-2.45685e-01,6.86125e-01,9.05484e-01,-7.16814e-01,4.03566e-01,-2.04914e-02,-2.93055e-01,6.25359e-01,7.57037e-01,-5.02506e-01,1.52208e-01,3.86456e-01,
-1.17458e+00,2.92885e-01,-1.01195e+00,-4.89982e-02,-1.07229e-01,-2.14674e+00,-5.33300e-01,1.69009e+00,4.84164e-01,-4.40547e-01,-5.26214e-01,-5.58711e+00,-7.31345e-01,-6.03759e-02,-2.52669e+00,4.00850e-02,
9.57486e-01,-1.25274e-01,-1.30607e+00,-1.67698e+00,1.19722e-01,5.95429e-01,1.29018e+00,-4.11315e+00,-2.34219e+00,-1.62016e+00,6.64961e-03,1.65564e+01,3.60103e-01,-4.18558e-02,7.72829e-01,-1.48820e+00,
1.69088e-01,-5.57369e-02,1.06139e-01,-2.61653e-01,-2.13709e-01,-1.40158e-01,1.26500e-01,7.92409e-02,1.89573e-01,-3.06784e-02,-1.33846e-01,1.84917e-01,-2.56027e-01,-4.15096e-02,-1.85792e-01,1.94518e-01,
-5.65893e-01,-4.87582e-01,-4.00035e-01,-7.36377e-02,-1.26044e-01,-1.28877e-01,1.29265e-01,4.46713e-01,-8.02853e-02,-2.36318e-01,-3.63991e-01,3.74443e+00,1.05652e-02,-1.43903e-02,1.28416e-01,-5.85319e-02,
-2.43430e-01,5.73321e-01,2.00306e-01,2.49110e-02,-1.19557e-02,-5.16506e-01,-4.30660e-01,-8.82176e-01,-3.20306e-01,-5.08782e-01,-8.79599e-01,2.49068e-01,4.98384e-01,-6.42216e-03,3.59745e+00,-3.61635e-01,
-3.93083e+00,1.47881e-01,-3.03716e+00,-1.92370e-01,1.34456e-01,-6.17443e-01,-7.07182e-01,-3.52494e+00,-8.20190e-01,-9.28992e-01,3.18269e-02,8.64020e-01,-2.92709e+00,-7.29592e-01,-1.15544e+00,-1.20820e+00,
-1.02787e-01,-1.98148e-01,-1.71210e-01,-4.29461e-01,1.90395e-01,-4.36083e-01,5.35680e-03,6.26370e-01,1.13001e-01,-4.76324e-01,-1.14722e-01,-8.61514e-01,-1.89351e-02,-1.89018e-03,-2.75975e-02,-1.20139e-02,
-5.76720e-02,-2.06110e-01,-2.07775e-01,-2.91241e-01,-1.54685e-01,1.72125e-01,-2.19177e-01,3.65222e-02,-1.75431e-01,-1.24217e-01,-2.70553e-01,-1.23435e-01,3.80808e-02,-2.73351e-02,2.08245e-01,-8.13995e-02,
9.32346e+00,8.76170e-01,7.44869e+00,1.50483e+00,2.61662e-01,4.17146e+00,1.66571e+00,9.99076e+00,4.54144e-01,2.01801e+00,-1.26174e-01,-8.84387e-01,6.76896e+00,-9.59588e-02,1.00148e+00,1.08695e+00,
-4.75765e-01,-5.86823e-01,-1.01695e+00,-7.19368e-01,1.34331e-01,-3.02991e-01,-1.83686e+00,-7.13576e-01,-6.21944e-01,-5.97796e-01,8.01367e-03,1.67241e+00,-2.63744e-01,-1.13430e-01,-3.17849e-01,-1.03371e+00,
-2.42698e-01,-1.49591e-01,-3.58891e-01,-1.30741e-01,-9.32392e-02,9.49593e-02,-1.88704e-01,-4.46958e-01,-1.72731e-01,-3.01571e-01,5.89458e-04,1.91748e-01,7.35425e-02,-7.37403e-02,-4.38862e-01,2.53913e-02,
-6.25687e-01,1.61414e-01,-1.37453e-01,1.68505e-02,2.22432e-01,-6.60770e-01,-2.34377e-01,-1.45710e-01,-3.33887e-01,-4.25763e-02,-6.83598e-01,-7.30485e-01,-1.12089e-01,-2.47732e-01,-7.82798e-01,-4.77132e-01,
-1.71519e-02,-4.38226e-01,-4.20752e-01,-1.93786e-01,1.75733e-01,1.12302e-01,6.61558e-01,5.49281e-01,-3.33215e-01,-1.37689e-01,1.29012e-02,8.57723e-01,-1.18232e-01,-2.76220e-01,-6.35369e-01,-6.20053e-01,
5.30776e-02,-6.76716e-02,1.26538e-01,-1.33432e-01,-1.11972e-01,1.85718e-01,1.25727e-01,1.10330e-01,1.58580e-01,2.42582e-01,-1.57854e-01,-6.55565e-02,1.29528e-01,-8.62092e-02,-9.57795e-02,1.37687e-01,
-4.36670e-01,-3.11240e-03,-3.71103e-01,-1.65508e-01,-1.86778e-02,-1.12940e-01,2.42578e-01,-1.46869e-01,-1.50391e-01,-4.70023e-01,-1.45109e-01,1.29592e-01,-1.25837e-01,-2.68329e-01,-5.29855e-02,-1.33713e-01,
-9.36852e-01,-4.44668e-02,-1.37689e+00,1.61627e-01,-4.43346e-01,-1.28743e+00,-1.74260e+00,3.65205e+00,9.93462e-01,-1.53639e+00,-2.31006e-01,-3.88451e+00,-1.51608e+00,-2.84996e-02,-1.43814e+00,-4.65027e-01,
-5.91665e-02,-1.68299e-01,-2.57429e-01,1.02135e-01,5.08009e-02,-6.95641e-02,-2.32011e-01,-9.18606e-02,2.09422e-01,6.32655e-02,-1.61884e-01,-1.00375e-01,1.80502e-01,-1.91560e-01,2.59752e-02,-2.68634e-01,
-1.35964e-01,-1.09950e-01,-2.52543e-01,-2.55556e-01,1.78584e-02,-2.36186e-01,-1.49753e-02,1.15110e-01,-2.61692e-01,1.89204e-01,-2.52117e-02,-1.55812e-01,-1.67018e-01,-1.46282e-01,1.17778e-01,2.63352e-01,
-5.93797e+00,2.28641e-02,-1.15085e+00,8.25670e-01,-2.42948e-01,-3.42272e+00,-5.37428e+00,-1.29027e+01,2.60505e+00,4.86880e-02,4.00067e-01,8.46001e-02,-3.98708e+00,-6.65640e+00,1.06376e-01,-1.84383e+00,
-4.79189e+00,1.10977e-01,-3.90545e+00,-2.79550e-01,-2.27973e-01,-1.30470e+00,-1.03677e+00,-7.20786e+00,-3.07250e+00,-1.57791e+00,2.64375e-01,1.23453e+00,-1.89041e+00,-1.30245e+00,-5.09180e-02,-1.93485e+00,
-5.45475e+00,3.06559e-01,8.25362e-01,4.51938e+00,-2.94105e-01,-6.51307e-01,-3.57055e+00,-1.88249e+01,-8.98177e+00,-1.51875e+00,3.18253e-01,-2.18982e+01,5.86245e+00,-3.76221e-02,-1.67897e+00,3.36806e+00,
-1.33259e-01,-1.03158e+00,-1.80342e+00,-2.45891e+00,-1.59802e-01,1.03644e-01,-3.27089e+00,5.02035e+00,2.52029e+00,-6.90965e-01,-2.87838e-01,-1.93152e+00,-1.64280e+00,-1.74538e-02,1.19985e+00,-1.57798e+00,
-2.38017e-01,-4.34705e-01,-3.01824e-01,-8.17477e-02,2.61839e-01,1.15439e-02,5.63165e-01,-6.30116e-01,-1.35666e-01,4.21356e-02,-6.38741e-02,2.86604e+00,-1.63912e-01,-1.85093e-02,1.28807e-02,-1.48741e-01,
2.44341e+00,-2.49195e+00,-2.33621e+00,-1.80483e+00,2.67361e+00,-2.74187e+00,9.34401e+00,-1.29174e+01,-5.92557e-01,2.23752e+00,-2.78240e-01,2.48140e+01,2.91134e+00,2.86462e-01,6.25374e+00,-5.56343e+00,
-2.53981e-01,-1.51213e-02,1.08386e-01,7.00002e-02,5.64824e-02,-2.47486e-02,1.58679e-01,-4.90369e-02,-9.78459e-02,1.44534e-01,-1.68770e-01,1.85557e-01,-1.30370e-01,-1.59761e-01,-3.26901e-01,-7.23003e-02,
-5.96414e-01,-3.74521e-02,-6.24703e-01,-3.37623e-01,3.81042e-01,1.00739e-01,4.17438e-01,-1.50394e+00,-6.04074e-01,-2.57447e-01,-3.24814e-02,4.36755e+00,-1.39135e-01,-5.55030e-02,1.04134e-01,-2.07809e-01,
3.53468e-02,-1.56347e-01,5.06818e-04,2.56162e-01,1.73996e-01,-1.85044e-01,8.91693e-02,-8.50566e-02,1.99039e-01,-2.60456e-01,-2.17647e-01,-2.50469e-01,2.67757e-01,-7.69942e-02,-5.71893e-02,1.95230e-01,
-8.71606e-02,1.07734e-01,-9.84039e-02,-1.86230e-01,-7.19291e-02,2.39743e-01,-1.05854e-01,-3.86001e-02,2.02095e-01,-1.68170e-01,-7.51026e-02,1.54558e-01,-6.82710e-02,-4.09956e-02,-1.11685e-01,4.64758e-02,
8.24193e-01,-7.22339e-01,-7.67512e-01,-1.27638e+00,9.22256e-01,-8.87933e-01,1.83660e+00,-2.41958e+00,-3.16431e-02,-5.19418e-01,-2.80122e-01,1.51115e+01,-3.25455e-02,-1.15931e-01,5.13936e+00,-2.87322e+00,
1.70675e+00,-6.70614e-01,-5.38969e-01,9.89569e-01,2.28249e+00,-2.81114e+00,7.85217e+00,-1.45703e+01,-8.15977e-01,6.24827e-01,-4.06625e-01,2.57615e+01,3.04625e+00,2.16591e-01,6.48007e+00,-4.06348e+00,
-1.79410e-01,-1.18418e+00,-5.30619e-01,-6.93512e-01,-2.52492e-01,-9.84715e-01,-1.42822e+00,-5.69146e-01,-8.12483e-01,-3.47817e-01,-1.73426e-02,7.94450e-01,-5.11899e-01,-4.09437e-01,-2.51392e-01,-9.18416e-01,
1.05103e+00,-8.60373e-01,-3.41819e+00,-5.44624e+00,-6.82323e-01,3.18477e+00,-9.78552e+00,1.35761e+01,4.78950e+00,-5.53316e+00,-1.86834e-01,-4.74246e+00,-1.58398e+00,-8.41969e-02,6.82973e+00,-4.37558e+00,
4.16319e-02,2.38757e-02,2.15410e-01,2.62100e-01,3.56165e-02,-5.62203e-01,-2.94651e-01,-9.75771e-01,-2.04216e-01,-8.39839e-01,-4.41988e-01,3.52436e+00,-9.45024e-02,-9.59535e-03,2.41996e+00,-7.30235e-01,
-1.28807e-02,-6.86875e-03,-7.25839e-02,7.43387e-02,2.02515e-01,1.72825e-01,-1.21843e-02,5.58973e-02,-3.75735e-02,-2.71783e-01,-4.24958e-02,1.82104e-01,9.37975e-02,-1.15558e-01,-2.25427e-01,-1.41385e-01,
-1.84937e-01,
-2.34197e-01,
0.00000e+00,
-7.44845e-01,
3.02998e-01,
3.90865e+00,
-2.90151e-02,
-1.45479e-01,
-1.78447e-01,
3.13977e-01,
7.98173e+00,
-1.04063e-01,
-6.62772e-01,
-7.98962e-02,
-2.26240e-01,
-2.45280e-01,
0.00000e+00,
-8.16111e-02,
-2.15636e+00,
0.00000e+00,
-2.19160e-01,
0.00000e+00,
-2.55851e+00,
-2.98479e+00,
-4.15797e-02,
0.00000e+00,
-1.68273e+00,
-2.11093e-01,
-8.31013e-01,
3.97643e-01,
-1.14415e+00,
-1.06302e-01,
0.00000e+00,
-2.75534e-01,
2.52878e-02,
-3.79885e+00,
-1.70567e-01,
-6.00560e-02,
8.19011e+00,
-6.91666e-01,
-1.82524e-01,
-3.48208e-01,
-3.83829e-01,
0.00000e+00,
-2.08851e-01,
-1.11018e+00,
0.00000e+00,
0.00000e+00,
-5.78846e+00,
-5.29132e+00,
-1.59533e+00,
-5.80460e-01,
-1.37908e-01,
2.82545e-01,
-7.61537e-02,
-3.61430e-01,
0.00000e+00,
0.00000e+00,
-3.12538e-01,
1.94471e-01,
-4.52504e-01,
5.69442e-03,
-2.05669e-01,
0.00000e+00,
1.23047e-01,1.50364e-01,1.91017e-01,-5.25746e-01,-1.69988e-01,6.24336e-04,1.18666e-01,-2.19602e-01,5.31836e-02,-3.72609e-01,-2.19686e-01,-1.68975e-01,-5.32009e-02,7.67239e-02,-1.97446e-01,1.46881e-01,3.49774e-02,1.47541e-01,5.51790e-02,1.49687e-01,-1.34667e-02,-2.46828e-01,-2.72979e-01,2.55329e-01,8.08123e-02,6.48376e-02,1.06789e-01,1.79007e-01,-2.20497e-01,1.43204e-01,1.40839e-02,-1.90215e-01,-2.16228e-01,1.78144e-01,-5.84034e-02,1.36573e-01,-1.66803e-01,-3.85821e-02,-4.93640e-01,-5.72726e-02,-1.61841e-01,-5.68712e-02,1.71705e-01,-1.82478e-01,8.92555e-02,-3.10730e-01,-1.79392e-01,-1.79649e-01,-2.71061e-02,1.56207e-01,-1.08038e-01,1.89774e-02,2.00748e-01,-2.41155e-01,-1.89566e-01,-3.74103e-02,1.42498e-01,2.73188e-02,-1.40306e-01,-3.65441e-01,-1.17662e-01,1.26359e-01,-1.87528e-01,-1.50301e-01,
-1.53009e-01,-2.99416e-01,2.39713e-01,-2.51739e-01,9.13036e-02,-4.09106e-02,-4.99945e-02,8.44113e-02,-4.65561e-03,-9.61906e-02,-2.99469e-01,-1.90913e-01,-3.25013e-01,-8.34466e-02,-2.35786e-01,-6.23236e-02,-5.60081e-03,-5.21844e-02,-1.56823e-01,-2.15992e-01,-9.58987e-02,2.13720e-01,-4.45237e-01,-9.18953e-02,-2.87345e-02,1.72107e-02,-4.13182e-01,1.50532e-01,-1.42093e-01,-4.68909e-01,-3.02936e-01,-3.35206e-02,-1.18444e-01,1.22396e-01,-1.16165e-01,2.94580e-03,3.25833e-02,1.17056e-01,-3.96516e-01,-1.39117e-01,-3.92833e-02,4.18212e-02,-4.66564e-01,-1.65166e-01,-1.26473e-01,-2.64947e-01,1.14362e-01,1.70040e-01,-2.97632e-01,-4.01606e-02,-2.55017e-01,1.24257e-01,-3.82894e-02,1.54951e-02,-2.34821e-01,-2.98133e-01,-9.12496e-02,-2.03238e-01,1.12265e-01,-1.53046e-01,-3.23232e-02,-1.94007e-01,-2.28773e-01,-6.55290e-02,
2.32440e-02,1.28292e-01,2.05829e-01,-1.43703e+00,-5.84421e-01,2.31472e+00,4.97571e-02,3.90046e-01,-4.92367e-02,9.04679e-01,1.49124e+00,-2.27291e-01,4.34625e-01,1.74863e-01,-3.51828e-01,-1.68654e-01,-2.39031e-01,1.07395e-01,8.57786e-01,-2.27936e-01,1.96037e-01,1.20533e-01,-4.48692e-01,2.56765e-01,2.04970e-01,-1.94492e-01,2.87706e-01,1.88956e-01,-2.22697e+00,1.14892e+00,4.34430e-02,3.05192e-01,1.69502e-01,-2.22727e-01,-1.83468e-01,6.46231e-01,3.12317e-02,1.61476e-01,1.70996e+00,-7.55561e-02,7.52299e-02,3.33645e-01,1.56506e-02,2.25495e-01,1.38353e-01,6.14294e-03,-1.07310e-01,-2.25992e-01,5.87959e-01,5.54981e-01,-2.74888e+00,-3.87757e-01,6.68035e-02,7.07607e-01,1.44906e-01,-1.36931e-01,2.06886e-01,2.41879e-01,1.88811e-02,6.06206e-01,7.99284e-01,-6.61088e-01,-3.58247e-02,3.82287e-02,
1.15183e-01,7.73299e-02,-1.42273e-01,-4.79800e-01,1.74588e-01,-3.73754e-01,5.39273e-03,8.35878e-02,-2.36423e-01,-3.58596e-01,-4.63427e-01,-6.31326e-03,-6.85928e-02,-2.94932e-01,-1.78591e-01,7.16186e-02,-2.04388e-01,-1.02941e-01,-8.67721e-02,-1.14409e-01,-1.47867e-01,-1.63623e-01,-1.31016e-01,4.08173e-01,5.06871e-02,1.61123e-01,-1.46199e-01,4.52572e-02,-1.31127e-02,-6.82644e-02,1.66289e-01,-3.06906e-01,-2.43909e-01,-1.19394e-01,1.30460e-02,-3.40358e-01,-1.34126e-01,-4.18468e-02,-5.07675e-01,-1.04733e-01,-2.21775e-01,-1.44661e-01,-3.81511e-01,1.18435e-01,-1.67619e-02,-1.43786e-01,1.15310e-01,-5.93294e-02,-4.10917e-02,-3.88639e-01,-3.83957e-01,5.82006e-02,-3.74487e-02,5.48319e-02,-2.40091e-01,-2.95433e-01,6.41009e-02,2.42317e-01,2.13744e-02,-2.90652e-01,-4.39458e-01,-1.69343e-01,-1.37441e-01,-2.44817e-01,
-2.99071e-01,-1.67112e-01,-1.17103e-01,-5.50104e-02,2.05924e-01,-1.94495e+00,1.62069e-01,-1.08556e-01,6.43227e-03,-2.46260e+00,1.59983e+00,-2.90435e-01,-7.74113e-02,-3.52245e-02,-3.16152e-01,3.92059e-01,1.90662e-01,1.43142e-01,-5.85696e-01,4.58929e-02,1.42122e-01,-1.74096e-01,-2.85085e-01,-4.15608e-01,-1.99057e-01,-1.39504e-01,-3.40477e-01,-1.23524e-01,-1.73096e+00,2.39550e-01,2.19314e-01,-4.50220e-01,6.85846e-02,-6.03779e-02,8.53710e-02,-7.46081e-01,1.20926e-01,-9.89910e-02,1.98303e+00,-1.23428e-01,-1.96820e-01,-2.14551e-01,-8.07540e-02,8.46642e-02,-1.21755e-02,-2.66205e-02,4.39942e-02,-1.57447e-01,-4.11155e+00,-7.34480e-01,-3.57058e-01,-1.64803e-01,-1.74787e-01,-7.40899e-01,-9.83447e-02,-2.45529e-01,1.31973e-01,2.28605e-01,1.07784e-01,-6.61097e-01,-3.03116e-02,1.98951e-01,8.10319e-02,9.80079e-03,
2.69819e-01,1.76704e-01,-1.09868e-01,-5.66669e-01,8.46197e-01,9.14368e-02,7.58093e-02,-7.93756e-02,-8.68931e-02,1.81293e+00,-6.70771e-01,1.67083e-01,-4.82770e-02,2.77695e-01,3.43801e-02,7.04934e-02,2.24731e-01,8.74827e-02,4.49149e-02,-3.35540e-02,6.64640e-02,-7.87725e-02,9.31071e-03,-7.39335e-02,9.54039e-02,-7.06862e-02,-1.90327e-02,8.54840e-02,-3.63171e-01,9.15991e-02,1.39215e-01,2.13036e-01,8.53168e-02,-3.65872e-02,1.42412e-03,-8.39186e-01,2.11323e-01,9.83197e-02,-7.71369e-01,-1.51447e-01,-6.41159e-02,2.62447e-01,-3.83428e-01,2.09362e-01,9.20083e-02,1.03261e-01,1.37940e-01,-2.12779e-01,-4.75510e-01,-1.92092e-01,-7.77890e-01,5.81266e-02,-8.22783e-02,5.63520e-01,2.08885e-01,6.08045e-02,1.78840e-01,-8.25601e-02,4.74145e-02,3.40448e-01,-3.58990e-01,5.84782e-02,2.06684e-01,1.86215e-01,
1.14164e-01,-1.84077e-01,7.97103e-02,-1.32298e+00,-1.67919e-01,7.06096e-01,3.68382e-02,5.64347e-02,-1.56948e-01,-1.80373e-01,1.02685e+00,1.82781e-01,-1.66443e-01,-3.02483e-02,1.41135e-01,-1.49704e-01,-2.62886e-03,-2.82656e-01,-2.98067e-01,-6.28619e-02,1.39466e-01,1.05039e-01,-2.45733e-01,1.05133e-01,-5.08668e-02,2.42310e-01,2.40203e-02,-4.89021e-02,4.40156e-01,-3.94711e-02,-2.17154e-01,1.25531e-02,2.70257e-02,-6.14524e-04,2.56262e-02,-2.27416e-01,1.70818e-01,-1.06491e-01,6.73924e-01,-2.47121e-02,6.59667e-02,3.45285e-04,9.79330e-02,2.22172e-01,-6.55658e-02,-4.10242e-03,-1.90331e-01,-9.96840e-02,-1.68580e-01,-2.10242e-01,-1.25626e+00,1.45130e-01,7.44264e-02,-3.58918e-01,1.12792e-01,-2.51788e-01,1.03851e-01,4.53742e-02,-2.37898e-01,-3.24055e-01,-1.97775e-01,-7.41346e-01,1.48739e-03,-9.43039e-02,
2.78895e-01,-2.54922e-01,1.92353e-01,-6.79245e-01,3.29737e-03,2.17452e+00,4.21242e-02,1.59723e+00,-1.60694e-01,-8.51919e-01,1.45913e+00,-2.18307e-01,-2.77075e-01,4.94798e-02,-2.28181e-01,1.17214e+00,-1.33137e-01,2.76720e-02,-5.06739e-01,-1.38898e-01,-2.37145e-01,6.00055e-02,-7.16723e-01,-2.57982e-01,2.17586e-02,1.44835e-01,-3.09654e-01,-2.66812e-01,-7.17370e-01,1.29131e+00,3.03531e-01,-3.10404e-01,1.10585e-01,-2.78291e-01,7.00051e-01,-8.33312e-01,-3.86930e-01,5.59360e-02,1.54099e+00,-2.62239e-01,1.89979e-03,6.83734e-01,8.67098e-02,2.27871e-01,4.65735e-02,7.69557e-02,-3.80839e-02,1.54363e-01,-1.70303e+00,-1.15604e+00,-2.15084e+00,-3.57740e-01,-2.28563e-01,-9.93930e-01,-1.70808e-01,-3.94143e-01,-2.29068e-02,2.13245e-01,-6.67463e-01,-9.87217e-01,1.06567e+00,1.07197e+00,-1.32310e-01,-2.35831e-01,
1.55471e-01,-1.00663e-01,1.73523e-01,6.79063e-02,9.01426e-01,2.87357e-01,9.00644e-02,-2.33100e-01,-1.98813e-02,1.97200e+00,-8.22540e-01,2.14886e-01,1.09846e-02,-8.83579e-02,1.40408e-01,4.67270e-02,2.47329e-01,3.07542e-02,-6.65167e-02,-7.68214e-03,6.04079e-02,2.11153e-01,-2.05320e-01,-4.40757e-02,1.76275e-01,3.78364e-02,8.98813e-02,1.62980e-01,-5.81914e-01,1.39399e-01,-1.45647e-01,-5.93359e-02,8.87038e-02,8.63024e-02,1.99396e-01,4.20042e-01,-1.62021e-01,-1.48130e-01,2.56059e-01,2.75223e-02,1.35603e-01,5.43268e-01,2.73063e-01,-4.02219e-02,1.49775e-02,8.43031e-03,2.19098e-02,2.27697e-01,-3.28588e-01,2.63560e-01,-7.13630e-01,3.70657e-02,1.18701e-01,5.10023e-01,-6.91123e-02,-9.80239e-02,1.58256e-01,2.71779e-03,-2.69675e-02,1.95619e-01,8.71720e-02,2.31093e-01,-2.32318e-03,1.57844e-01,
1.09612e-01,-1.56359e-01,-4.33826e-03,-9.47091e-01,1.31826e-01,-9.00766e-02,2.50098e-02,2.04964e-01,-2.24572e-01,-1.02430e+00,5.60840e-01,1.14179e-01,1.01202e-01,7.15043e-02,2.16997e-01,-7.15990e-02,-1.19744e-01,-1.08128e-01,1.85519e-01,1.27041e-01,1.50044e-01,5.09489e-02,1.06500e-01,-1.61428e-03,5.23662e-02,2.24151e-01,8.06366e-02,-2.13327e-01,-2.70509e-01,3.39891e-01,1.38261e-01,-4.05935e-01,1.34060e-01,9.04330e-04,-1.17694e-01,-3.12727e-02,-8.03716e-02,-6.77389e-02,6.50202e-01,2.46437e-03,3.51184e-02,-1.60611e-01,1.02352e-01,-5.22912e-03,2.02025e-02,-5.02179e-02,2.45748e-01,2.13640e-01,4.09862e-02,-3.18112e-01,-1.18862e+00,5.85672e-02,2.19784e-01,-1.12607e-01,1.22198e-01,-2.38399e-02,2.46924e-01,7.87898e-02,1.32486e-01,-2.82975e-01,7.73428e-02,-7.75428e-01,2.00916e-01,-7.78356e-02,
-1.91950e-01,2.28468e-01,-2.20418e-04,-3.20730e-01,-5.77313e-01,-4.91036e-01,1.19742e-01,7.49004e-02,-1.17988e-01,-5.51413e-01,-7.52512e-01,1.67894e-01,4.75130e-02,1.11007e-01,-9.91621e-03,-8.29366e-02,1.50799e-01,-1.07488e-01,-7.99319e-02,-1.21569e-01,-1.16521e-01,-3.14667e-02,-1.12753e-01,-1.93816e-01,-9.63399e-02,-2.82200e-02,-2.43452e-02,1.08904e-01,-2.67100e-01,-5.75600e-02,4.96362e-01,-6.57640e-02,1.20211e-01,-1.45668e-01,-1.64699e-01,-4.77675e-01,-2.18024e-02,-1.32339e-01,-7.14225e-01,-2.18604e-01,-6.39005e-02,-3.56923e-02,-2.25125e-01,-8.72050e-02,-1.85675e-01,2.24027e-01,-9.20920e-02,-9.43522e-02,-2.91431e-01,-3.44737e-02,-2.73092e-01,-3.99454e-01,2.09751e-01,-7.92721e-01,7.26599e-02,2.49300e-01,-8.13029e-02,-8.20379e-02,-3.84311e-01,-1.89848e-01,1.78483e-02,-1.07925e-01,1.60636e-01,1.64019e-01,
2.17288e-01,6.92893e-02,1.92835e-01,-1.40385e+00,-9.35371e-01,1.75102e-01,-1.41777e-01,9.59878e-02,8.55490e-02,7.62864e-01,6.38426e-01,-7.40618e-01,1.80629e-01,2.28339e-01,-1.26471e-01,-3.92576e-01,1.91571e-01,-1.76623e-01,4.17533e-01,-4.92763e-02,9.78559e-02,2.18855e-01,-2.74332e-01,-1.48726e-01,-1.31532e-01,2.32041e-01,1.65566e-01,-1.10638e-01,-1.62049e+00,-2.20616e-01,-3.49946e-01,2.91705e-02,-8.76993e-03,-5.20381e-02,2.27134e-01,-2.78153e-01,1.25102e-01,3.05418e-01,9.32627e-01,-1.14416e-03,-1.37388e-01,1.16159e-01,-3.47032e-02,-3.43267e-02,9.37151e-02,1.05139e-02,9.31494e-02,8.34935e-02,5.97725e-01,2.39146e-01,-3.00950e+00,-1.82452e-01,1.88967e-01,4.26734e-01,1.88690e-01,6.98562e-03,2.29836e-01,2.30518e-01,1.01239e-01,6.50149e-01,-5.43832e-01,-8.54230e-01,1.64340e-01,-1.67593e-01,
-6.00285e-02,1.99338e-01,1.86017e-01,-8.92784e-01,-1.34687e-02,1.62799e+00,-7.67876e-02,9.35769e-02,2.63811e-01,-9.52702e-01,8.33349e-01,-9.73740e-02,2.46090e-01,-7.97631e-02,-1.13068e-01,6.19492e-02,-1.37925e-01,-5.14228e-02,1.79484e-01,3.10645e-02,-8.46218e-02,4.78595e-02,-2.48747e-02,5.79943e-03,-1.49626e-01,-2.29884e-01,-5.33471e-02,2.10859e-01,1.29886e-01,4.89170e-01,-1.03640e-01,-3.84206e-01,1.07675e-01,8.38098e-02,9.46247e-02,1.83954e-02,-1.60673e-01,-1.68559e-01,9.28833e-01,-5.46956e-02,-4.84962e-02,-3.86462e-02,-1.62570e-02,-2.12764e-01,6.25588e-02,6.10509e-02,-9.50295e-03,8.51768e-03,-5.40869e-01,2.58096e-01,-1.18592e+00,4.16628e-02,-7.88124e-02,-2.45258e-01,1.44840e-01,-1.09707e-01,1.22907e-01,1.90545e-01,1.66454e-01,-6.36326e-01,2.63737e-01,-2.33735e-01,-5.94016e-02,-1.42741e-01,
-1.20472e-01,9.45595e-02,1.91950e-01,-4.16626e-01,-1.92166e-01,-6.08075e-01,-2.73694e-01,1.65042e-01,-6.80335e-02,-1.26029e-02,4.97671e-02,-9.13829e-03,5.54119e-02,1.65910e-01,-1.20386e-01,-7.60721e-02,1.06782e-02,-4.49504e-03,-1.93333e-01,2.23492e-01,4.01662e-02,1.33169e-01,-1.06375e-01,-1.41345e-01,-1.03200e-01,1.62688e-01,-5.83749e-02,1.51506e-01,-1.76286e-01,-2.56710e-01,1.10877e-01,-8.51080e-02,1.47112e-02,-1.77581e-02,1.41924e-02,1.09784e-01,-1.08660e-01,7.77292e-02,1.36932e-01,1.50570e-01,-1.80553e-01,-2.43542e-01,1.70471e-01,1.48054e-01,1.75816e-01,-2.24231e-01,2.11408e-02,-6.14220e-03,-3.47220e-01,-3.08251e-01,-7.08012e-01,-2.34336e-01,1.54985e-01,-1.57814e-01,-2.48579e-02,4.77425e-02,-5.37356e-02,2.09780e-01,1.47815e-01,1.60550e-02,-2.10073e-01,-1.44282e-01,-2.23517e-01,1.37040e-01,
2.87342e-01,4.01822e-02,-1.68011e-01,-7.29413e-01,4.25026e-03,-3.80577e-01,3.10308e-02,2.63784e-01,-1.01253e-01,-4.24409e-03,-6.50468e-01,1.00356e-01,-3.10340e-01,2.70897e-01,1.57739e-03,-6.02651e-02,-1.25565e-01,1.76120e-01,9.32726e-02,2.62054e-02,-2.12963e-02,3.26066e-02,-2.51346e-01,-3.44987e-01,1.11623e-01,-1.32583e-02,-1.10028e-01,-1.12666e-01,-3.17316e-01,-2.63735e-01,1.14311e-01,1.43131e-02,-2.18297e-01,1.81497e-02,2.43512e-01,4.63484e-02,-1.90804e-01,-3.18177e-02,-5.73601e-01,1.97680e-01,-1.04143e-01,-5.72568e-02,-9.27023e-02,2.33325e-01,2.51645e-02,-1.16177e-01,-4.18345e-02,-1.47297e-02,4.15067e-02,-1.32798e-01,-7.51546e-01,-1.33417e-02,1.38972e-01,-1.70070e-01,2.64607e-01,2.43547e-02,2.22756e-01,-1.64631e-01,7.21587e-02,-1.94321e-01,-6.36889e-02,-3.38537e-01,-2.95682e-02,3.02678e-02,
-3.10908e-01,4.09592e-02,8.34406e-02,-1.02256e+00,-2.70311e-02,-6.54718e-01,-1.25741e-01,-1.47740e-01,-2.88002e-01,3.54881e-02,1.09175e+00,1.01894e-01,-3.08693e-01,9.26470e-02,-1.14589e-01,-2.23604e-02,5.71585e-03,1.49554e-01,-3.23015e-01,-1.57899e-01,-8.17086e-02,1.24384e-01,-3.11737e-01,-1.64471e-01,-2.27638e-01,-1.56634e-01,-4.81414e-02,1.07734e-01,-9.90185e-01,-1.74043e-01,-8.31328e-02,-2.04475e-01,-2.46921e-01,-1.79727e-01,-4.69071e-02,-2.63045e-01,4.97234e-02,5.43149e-02,9.91524e-01,9.34251e-03,1.06045e-01,-2.03520e-01,-1.17310e-01,-7.48590e-02,-6.31603e-02,-1.83975e-01,4.89977e-02,-1.75133e-01,-9.94996e-01,8.31760e-01,-1.23579e+00,-2.20676e-01,-1.22390e-01,-8.33663e-01,8.96665e-02,1.10420e-03,-1.60026e-01,1.10959e-01,6.44985e-02,-5.72649e-01,-2.74339e-01,-4.58024e-01,-9.42145e-02,-3.05908e-02,
2.24315e-01,1.27083e-01,3.03637e-02,-2.85678e-01,1.90597e-01,9.95265e-02,1.84341e-01,3.74192e-01,9.40367e-02,-8.81527e-01,-4.22029e-01,2.00895e-01,-2.06206e-01,3.05363e-01,1.50453e-01,1.02206e-01,1.24516e-01,2.58694e-01,1.64270e-01,9.21053e-03,1.91108e-01,-2.28878e-01,-1.93150e-01,6.50187e-02,-7.64626e-02,6.17544e-02,1.01134e-01,-1.21317e-01,-1.81156e-01,2.16132e-01,-2.14790e-01,-4.10405e-01,1.92336e-01,1.26885e-01,3.09048e-01,5.96895e-02,-5.82286e-03,-1.33375e-01,-1.53696e-01,8.74177e-02,-2.19793e-01,3.66363e-01,-1.37202e-01,1.31177e-01,-4.13490e-02,-1.86251e-01,1.62482e-03,-2.14743e-02,-1.93698e-01,-3.84295e-01,-7.16234e-02,-3.09432e-01,1.09282e-01,-4.82642e-01,-2.33906e-01,-1.61941e-01,-2.43172e-01,3.11714e-02,-7.82847e-02,-2.72374e-01,1.93527e-01,1.65555e-03,-5.52958e-02,-4.53863e-02,
-3.88003e-02,-2.19279e-01,-1.66655e-01,-6.28377e-01,4.68186e-01,-1.06315e-01,-2.17269e-01,-2.44871e-01,-3.05034e-01,-5.99609e-01,-7.07600e-01,3.84456e-02,-9.89796e-02,8.11382e-02,1.73867e-01,-2.26526e-01,1.75869e-01,-1.99569e-01,3.17724e-02,-5.38209e-02,4.03578e-02,8.98468e-03,-2.31778e-01,-2.08669e-01,-2.74211e-01,-2.03561e-01,-2.28824e-01,-2.11275e-01,-1.10871e-01,-9.30904e-03,-1.40486e-01,8.98088e-02,-1.79156e-01,-3.86822e-02,1.06426e-01,1.28445e-01,4.80610e-02,1.29742e-01,-6.21228e-01,-4.90034e-02,-2.44435e-02,-1.76814e-01,-6.39176e-02,6.27818e-02,-2.37208e-01,-2.43685e-01,-1.31080e-02,1.24942e-01,6.52705e-02,1.83322e-01,-7.70482e-01,5.80537e-03,-1.32517e-01,-7.62916e-02,6.75848e-02,6.24595e-02,2.13365e-01,-2.44789e-01,-7.02392e-02,-1.26780e-02,8.60204e-02,-4.77175e-01,1.92569e-01,1.56675e-01,
1.47108e-01,-2.04625e-01,7.81118e-02,-6.45074e-01,-4.48971e-03,-2.84152e-01,5.70588e-02,1.41843e-01,-4.38320e-02,-9.07609e-01,3.99759e-01,4.84987e-02,2.77188e-02,-8.99160e-03,-6.78798e-02,-1.19337e-01,2.04898e-02,9.10188e-03,3.46886e-02,1.90783e-01,2.22005e-02,2.32121e-01,-2.14407e-01,1.40262e-01,-3.22220e-02,-9.33367e-02,-6.78991e-02,-5.83775e-02,-1.80613e-01,-5.50809e-01,8.02755e-02,-1.23852e-01,-1.78637e-01,2.86680e-02,2.41963e-02,-9.07828e-02,-1.70466e-01,-1.47953e-01,5.08066e-01,-2.42537e-01,2.71276e-02,-2.17448e-01,2.00990e-02,3.28881e-02,-2.06125e-01,-2.34378e-01,1.70273e-01,-1.31251e-01,-4.00809e-01,-9.41976e-02,-8.54747e-01,-3.08649e-01,-3.39198e-02,-2.10216e-01,1.56415e-01,-1.17359e-01,-1.46893e-01,-3.29238e-02,7.95108e-02,-2.16777e-01,-1.14279e-01,-2.48923e-01,1.28655e-01,-2.18031e-02,
2.39939e-03,1.45539e-01,5.56647e-02,-6.94310e-01,-2.08876e-01,-1.02838e-01,4.97934e-02,-1.34910e-01,1.63423e-01,-2.65532e-01,-4.96582e-01,-1.37845e-01,-1.34775e-01,1.74516e-01,-1.00911e-01,1.60261e-01,-1.47647e-01,-2.27330e-02,1.12886e-01,-2.64743e-02,-7.32098e-05,1.75757e-01,-1.46855e-01,2.47620e-02,2.25187e-01,2.48942e-01,-2.33709e-01,-1.12763e-01,-3.47632e-01,9.37261e-02,-2.95727e-01,-1.03292e-01,-4.55808e-02,-1.49486e-01,7.29190e-02,3.90806e-02,1.72506e-01,-9.37616e-02,-1.25180e-01,-1.20206e-01,-2.19923e-01,-2.16321e-01,6.91784e-02,-8.35052e-02,-2.42510e-01,-2.89056e-01,-2.18804e-01,9.51324e-02,-8.55062e-02,-2.38603e-01,-5.76123e-01,-5.95851e-02,8.52128e-02,-1.60635e-01,2.22805e-01,-1.99323e-01,9.67848e-02,-1.76867e-02,-2.35909e-01,-2.39037e-01,-2.30354e-01,-6.14803e-01,-6.01840e-02,7.48299e-02,
1.60367e-01,-1.14734e-01,2.47748e-01,-8.62809e-01,1.32185e-01,-9.18807e-01,1.78046e-01,3.47908e-02,-8.93624e-02,-2.28841e+00,-8.59461e-01,-9.04557e-02,3.20458e-01,1.01532e-01,-3.01823e-01,-2.69246e-01,-1.48999e-01,1.80932e-01,7.18122e-02,-2.37444e-01,1.19074e-01,-1.07419e-01,3.48552e-01,1.62492e-02,-1.26739e-01,-2.32543e-02,1.56444e-01,-7.55253e-02,8.64813e-01,-2.67977e-02,6.81544e-02,-4.79481e-01,1.69154e-01,8.69461e-02,-2.00277e-02,5.32508e-01,-2.68863e-01,-1.99056e-01,-1.55233e+00,-1.93622e-01,6.09518e-02,-1.98354e-01,2.13756e-01,-9.60277e-02,-8.67064e-02,-1.22161e-01,5.23621e-02,-8.73414e-02,2.39470e+00,1.28996e-01,-7.91863e-01,-2.64329e-01,-5.38992e-02,-7.08540e-01,2.05454e-01,-2.34175e-01,1.63631e-01,-9.75262e-02,-3.82043e-01,-3.18358e-01,-8.91186e-02,-7.12300e-01,-2.90084e-01,-4.17982e-02,
9.34338e-02,-1.69977e-01,-1.66708e-01,-1.32763e+00,1.66482e+00,6.31023e-01,1.88025e-01,4.24267e-01,-1.35749e-01,1.14857e+00,1.41391e+00,2.14751e-01,5.98931e-02,5.08489e-02,-1.68022e-02,-3.75268e-01,2.27047e-01,2.24961e-01,2.93384e-01,-1.24816e-01,1.34893e-02,-2.27586e-01,3.99535e-02,-1.22115e-01,1.62325e-01,5.69197e-02,-1.55966e-01,2.92193e-02,-2.38128e+00,4.69137e-01,-3.43744e-01,3.21700e-01,5.04299e-02,1.69340e-01,1.93339e-01,1.67145e-01,-9.27508e-02,9.82473e-02,1.84642e+00,-9.35095e-02,8.58746e-02,4.30703e-01,2.54159e-01,-1.46759e-02,-2.06026e-01,-1.03184e-01,1.35825e-01,2.61746e-02,1.11191e-01,5.30803e-01,-2.26043e+00,-1.43646e-01,2.24186e-01,5.25557e-01,5.34371e-02,9.30974e-02,3.16879e-02,-1.41023e-01,7.96266e-02,6.62435e-01,-6.52749e-02,-4.71891e-01,1.58844e-01,-1.75617e-01,
6.63743e-02,1.47797e-01,9.11711e-02,-3.23182e-01,-3.58730e-01,1.97623e-01,-3.15398e-02,-3.98731e-01,-1.29764e-01,-1.95039e+00,-8.35526e-01,-6.18263e-02,2.31391e-01,-3.26234e-02,2.88180e-01,-2.09923e-02,6.85768e-02,4.13409e-02,3.54199e-02,3.75913e-02,4.95254e-02,6.54459e-03,-6.63514e-01,2.57994e-01,1.29227e-01,1.13576e-01,1.70024e-01,2.49655e-01,7.24557e-02,3.40113e-03,2.47257e-01,-2.08617e+00,2.46821e-01,1.29608e-01,-3.10067e-01,-2.50239e-01,1.14949e-01,3.00083e-01,-3.97125e-01,-1.86524e-01,1.58699e-03,-7.67649e-03,2.48065e-01,-1.98130e-01,-9.98099e-02,2.22385e-01,-2.22288e-01,1.73820e-02,-7.81379e-01,1.47342e-01,-6.84326e-01,2.46117e-01,2.94948e-01,-1.55065e-01,2.19588e-01,-1.99117e-01,1.71268e-01,-1.89205e-02,2.75756e-01,-4.06709e-01,-5.85103e-02,3.65196e-01,6.56746e-02,-7.66473e-02,
4.18835e-02,-3.00011e-02,-7.24577e-02,-3.70347e-03,1.37709e+00,5.07046e-01,-1.55792e-01,2.90678e-01,2.16774e-02,-1.76606e+00,1.91059e+00,-2.18965e-01,-4.40198e-02,-7.74725e-02,-4.50971e-01,2.33818e-01,-6.04535e-02,9.28185e-02,2.54359e-01,-1.55933e-01,-4.05400e-01,-2.31391e-01,1.51894e-01,-2.56422e-01,-5.66425e-02,4.38915e-02,-9.31111e-02,-8.42981e-02,-3.50565e+00,-7.91764e-01,-1.05145e-01,-6.76590e-01,1.51011e-01,-1.86866e-01,2.40292e+00,-4.27957e-02,-1.16671e-01,-1.91385e-01,2.29947e+00,-3.48215e-01,-1.24386e-01,-1.09349e-01,-1.94042e-01,-8.89959e-02,-2.77722e-01,-2.95966e-01,2.66705e-02,2.04174e-01,-2.55377e+00,-7.93752e-01,-4.42258e-01,-2.81801e-01,-7.90491e-02,-6.49332e-01,-5.21120e-02,-8.37253e-01,-7.47471e-02,1.36364e-01,-1.08636e-01,-1.38301e-01,2.12260e-01,8.18248e-02,-1.05640e-01,1.18806e-01,
-6.66379e-02,-7.10355e-02,9.28687e-02,-5.25823e-01,-1.45472e-01,-4.48647e-01,-1.98083e-01,-6.87150e-02,-2.78321e-01,-8.01283e-02,-1.17456e-01,2.35090e-01,-2.17593e-01,4.27689e-02,1.33742e-01,-1.95103e-01,-2.11570e-01,1.90826e-01,-2.99578e-01,-6.67456e-02,1.76457e-01,1.05907e-01,-4.04416e-01,-1.20363e-01,1.40501e-01,-7.28982e-02,-1.03874e-01,1.82739e-01,-1.41608e-01,-2.45838e-01,-2.46720e-01,-3.76305e-01,1.59831e-01,3.65679e-02,-2.89925e-01,-1.47882e-01,-2.35326e-01,6.44436e-02,-5.26533e-01,2.00400e-01,-2.75382e-01,1.62848e-01,-3.25204e-01,1.07220e-02,5.98211e-02,2.74010e-02,-2.25037e-01,2.01000e-01,-3.36640e-01,-3.85619e-01,-1.71529e-01,-2.24633e-02,1.06886e-01,-2.49858e-01,1.29920e-01,-3.73559e-02,-1.44010e-01,-2.31792e-02,1.59288e-01,1.75439e-01,-9.07301e-02,-2.00811e-01,1.91692e-01,-8.95622e-02,
8.93397e-02,-1.41742e-01,-3.52638e-02,-5.86795e-01,-1.31487e-01,-2.11290e-04,-1.02549e-01,-1.95595e-01,-2.91835e-02,-1.63754e+00,-7.98495e-01,1.52311e-03,-6.18992e-02,-1.60377e-02,-9.12969e-02,1.93685e-01,4.76094e-02,-1.68059e-01,3.69778e-01,9.09155e-02,-2.00314e-01,-1.41761e-01,1.65723e-01,6.04806e-01,-1.66842e-01,1.55680e-01,-2.57373e-02,1.55089e-01,4.23451e-01,-2.61288e-01,1.83269e-01,-1.69011e-01,-1.60348e-01,5.15998e-02,-5.34478e-02,-1.52058e-01,1.30371e-01,8.83257e-02,-1.12552e+00,8.87099e-02,5.11815e-03,1.62514e-01,-1.61018e-01,-1.52749e-01,-3.36223e-01,7.51936e-02,2.37861e-01,1.00432e-01,1.00928e+00,2.08571e-01,-5.74563e-01,-1.31275e-01,1.30113e-01,6.00928e-01,1.34943e-01,-1.74794e-01,-1.45774e-01,-5.65780e-02,-1.47888e-01,-6.82587e-01,7.60155e-02,-1.32664e+00,-2.60750e-01,-1.99844e-01,
-1.59749e-01,-2.91572e-01,-1.00340e-01,-8.94502e-01,-4.55614e-01,7.01962e-01,-1.10921e-01,-2.83614e-01,-1.30912e-01,-7.29678e-01,1.63669e+00,-1.20286e-01,6.65109e-02,9.31211e-02,1.47646e-01,1.27993e-01,-5.18288e-02,1.86313e-02,-8.56288e-02,8.39646e-02,-5.07480e-02,2.32890e-01,-2.90333e-01,-4.05189e-01,2.96561e-01,-6.70296e-03,1.78849e-01,-1.63658e-01,-2.36466e-01,2.50225e-01,1.07489e-01,2.15021e-01,-1.65479e-02,-2.69159e-02,3.65758e-01,-2.55203e-01,1.81537e-01,1.65238e-01,9.42881e-01,6.04713e-02,1.13673e-01,2.95387e-01,8.14816e-02,6.76136e-02,2.22857e-01,-1.46905e-01,9.63425e-02,2.28277e-01,-3.15911e-01,-9.37516e-02,-1.31616e+00,-1.38210e-01,-1.89375e-01,-5.47368e-01,-3.04525e-02,-1.30888e-01,2.29371e-01,2.59023e-02,-1.19577e-01,-1.19268e+00,-1.94163e-01,-7.82096e-01,-2.88212e-01,9.96760e-02,
-3.26979e-01,-1.12355e-01,2.09089e-01,-3.85688e-01,-4.27457e-02,-5.90514e-01,-9.91978e-03,1.26091e-02,-2.21449e-01,-5.21099e-01,-1.28819e+00,5.14710e-02,1.35209e-01,5.06913e-02,-6.70234e-01,-1.82169e-01,1.53463e-01,-1.89971e-01,5.89574e-02,-9.81531e-02,-4.77076e-01,-2.08592e-02,2.11508e-01,3.76064e-01,-1.08244e-01,-7.23026e-02,2.64737e-01,-2.51951e-01,-3.15098e-01,2.56986e-02,-1.18514e-01,1.02370e-01,-1.21762e-01,1.36348e-02,-1.89217e-01,8.97680e-02,3.96047e-02,-9.05969e-02,-1.11264e+00,2.86542e-01,2.17567e-01,-1.65357e-02,-1.98560e-02,-2.36556e-01,-4.55969e-02,-4.55647e-01,1.32204e-02,1.54290e-01,1.47231e-01,3.81274e-01,-2.08306e-01,-3.45864e-01,-7.72976e-02,-9.70790e-01,-4.91406e-02,1.39692e-01,-1.93583e-01,2.44122e-01,-5.50336e-02,-1.02998e+00,4.76999e-01,-9.99777e-01,-6.98922e-02,-2.37454e-01,
8.49500e-03,-6.74922e-02,2.34065e-01,-7.03719e-02,7.61408e-02,-3.06164e-01,1.40491e-01,-2.11397e-01,2.29514e-01,-1.50353e+00,-2.99182e-01,1.35196e-01,-3.27352e-01,8.12966e-03,-1.70181e-01,1.02692e-01,-4.11188e-02,-1.18076e-01,3.83797e-02,-1.00287e-01,-1.43184e-01,2.00041e-01,-1.54540e-01,-1.76270e-01,1.10593e-01,-2.30550e-01,4.87823e-02,1.48006e-01,-2.74315e-01,6.26376e-02,2.26406e-02,-1.92846e-01,1.85254e-01,-1.37484e-01,-2.18807e-01,-1.73187e-01,-2.74837e-02,9.05902e-02,-5.21301e-01,-2.15338e-01,2.40587e-01,1.48110e-01,1.03527e-01,4.09076e-02,5.46537e-02,-1.86033e-01,-4.27656e-02,2.09009e-01,-1.01192e-01,-2.89045e-01,-1.53817e-01,5.39533e-02,-4.03722e-02,-6.74885e-04,4.72261e-02,-2.94605e-01,-1.67195e-01,1.40493e-02,-2.24567e-01,-4.49132e-01,-3.72130e-01,9.11993e-02,8.41482e-02,-1.32944e-01,
6.30223e-02,-1.79999e-01,-2.06647e-02,-2.39701e-01,-2.86599e-01,-1.13670e-01,-4.22877e-03,-7.97652e-02,-2.35568e-01,-2.00123e-01,-3.86513e-01,3.82060e-03,1.19594e-01,9.18192e-03,-2.84116e-01,-3.01282e-01,-7.47899e-02,-2.21760e-01,-1.10243e-01,-1.60041e-01,-1.35437e-01,-4.99538e-02,-3.43668e-01,4.87132e-02,3.48637e-02,-1.43369e-01,1.17353e-01,-1.06413e-02,-4.78894e-01,-5.64815e-02,-3.02330e-02,-4.68509e-02,1.15433e-01,-2.31434e-01,1.94190e-01,-1.24291e-01,-3.12265e-01,1.37389e-01,-2.34616e-04,1.74931e-02,1.87413e-01,-2.49201e-01,-1.64433e-02,-6.97498e-02,-5.58826e-02,-1.73143e-01,-8.31677e-02,2.97499e-02,-9.50081e-02,-2.84080e-01,-3.33822e-01,-1.58261e-01,-1.50833e-01,-2.75972e-01,6.02245e-02,9.49379e-02,-1.29469e-01,-1.11597e-01,-2.40096e-01,9.63631e-02,-1.28525e-03,-5.32029e-01,4.29021e-02,-6.77996e-02,
1.34218e-01,2.39159e-02,1.20694e-01,-1.21471e+00,-1.59937e+00,-8.52143e-01,-2.11265e-01,6.73155e-02,2.44980e-01,1.15360e+00,-9.79593e-01,-1.15520e-01,-1.26678e-01,-1.53008e-01,8.88661e-02,-6.05361e-02,-9.28754e-02,1.42171e-01,-2.50147e-01,-2.40792e-01,1.37979e-01,3.74528e-02,-2.40977e-01,1.22051e-01,1.29835e-01,7.59290e-02,-7.07604e-02,-7.49543e-02,-6.71158e-01,-7.61509e-01,1.46007e-01,-2.40058e-01,-1.68554e-01,2.46403e-02,-9.59655e-02,-1.80642e-01,7.23949e-02,-1.22005e-01,-2.33046e+00,-2.20201e-01,-1.85552e-01,1.12928e-01,3.33134e-02,1.29442e-01,-2.14667e-01,-1.04183e-01,1.54652e-01,-7.87089e-02,1.15120e-01,6.17128e-03,-2.16555e+00,-6.23213e-04,-3.41813e-02,-4.87197e-01,-5.41316e-02,8.53215e-02,-1.93002e-01,-1.12268e-02,-8.72387e-03,-7.52907e-01,-1.87446e-01,-2.79941e-01,-8.82087e-02,-4.08083e-02,
1.89596e-01,-3.25489e-01,1.16009e-01,-2.19058e+00,2.28773e+00,3.52345e+00,-1.19513e-01,1.12584e+00,-3.02922e-01,-5.09947e-01,1.17288e+00,1.50993e-01,-1.64031e-01,5.09204e-02,-2.15314e-01,-1.63389e-01,7.77801e-02,3.35292e-02,-1.58413e-01,2.28268e-01,-5.50832e-02,-5.34708e-02,-1.56001e-01,1.60778e-01,4.03230e-02,2.08589e-01,-1.04345e-01,3.84507e-01,-4.83545e-01,5.16651e-01,-2.88923e-01,-2.76910e-01,1.13692e-01,1.96647e-01,1.14216e+00,-3.85485e-02,-1.10514e-01,2.98977e-03,4.00099e-01,-1.91099e-01,1.87939e-01,3.72936e-01,-2.43798e-01,9.55176e-02,1.12465e-01,-3.10692e-01,1.72591e-01,6.50889e-02,-1.75810e-01,3.36813e-01,-1.49778e+00,-6.60915e-01,-3.96130e-02,-3.73892e-01,1.04801e-01,-4.23826e-01,-1.50984e-01,-1.34519e-01,-3.18263e-02,2.47042e-01,-2.61354e-01,-7.64228e-01,1.79719e-01,-1.92597e-01,
-2.35018e-01,
-6.61107e-02,
-1.10378e+00,
-6.22576e-02,
3.80235e+00,
1.11705e+00,
-8.39799e-02,
2.34570e+00,
1.05927e+00,
-2.37613e-02,
-2.96538e-01,
-1.55220e+00,
-2.38646e-01,
-3.06276e-01,
-4.96422e-01,
8.23589e-01,
-1.27295e-01,
-4.71004e-01,
-5.23003e-01,
-6.76202e-01,
-3.71129e+00,
-7.38380e-01,
5.55367e-02,
6.46909e+00,
-4.43103e-02,
-2.65101e+00,
1.92923e+00,
-2.12502e+00,
-2.28773e-01,
-5.28202e-01,
-2.30963e-01,
-1.96347e+00,
3.07883e-01,-1.57314e-02,2.14379e-01,-2.20528e-01,-1.36764e-01,-7.78389e-01,7.39729e-01,-1.65690e+00,-4.57227e-01,5.85760e-01,8.34672e-02,2.40411e-01,5.62333e-01,2.58528e-01,1.36526e-01,-6.50267e-01,-6.20465e-02,-1.52356e-01,-2.29787e-01,-1.77049e-01,-1.75092e-01,3.15293e-01,-2.65418e-02,-8.04030e-01,2.54094e-01,-2.67311e-01,-2.65456e-01,1.05216e-01,-2.09771e-01,-1.72943e-01,-3.45114e-01,-3.50685e-01,
-3.36631e-01,-2.65386e-01,-2.20977e-01,1.22711e-01,-3.66472e-01,-5.81550e-01,-2.79334e-01,-2.05769e-01,-7.28152e-02,-6.48148e-02,-3.08737e-01,1.99864e-01,-3.02404e-01,2.96604e-01,-1.68546e-02,3.35245e-01,3.08112e-02,-3.18224e-01,-2.51652e-01,-1.09405e-01,-6.76035e-01,-2.00188e-01,-2.32246e-01,-3.53409e-01,-2.72703e-01,-4.95292e-01,-1.96204e-01,-8.12678e-02,-3.36453e-02,-8.44612e-02,2.09981e-01,-1.76898e+00,
2.56882e-01,-1.14379e-01,-5.58009e-01,2.32040e-01,-8.14203e-01,-1.26183e+00,7.19670e-02,-4.60016e-01,-9.62249e-01,3.43338e-01,2.38862e-01,7.49718e-02,-9.61258e-01,3.57533e-01,-2.07515e-01,-4.26332e-01,2.65455e+00,-1.77764e-01,-6.19535e-01,-2.75817e-01,-6.60987e-01,-1.14616e+00,-1.25634e-01,-1.54378e-01,-9.06387e-03,-1.33015e+00,-7.74320e-01,-7.67344e-01,-3.47315e-01,-1.70550e-02,-1.94211e-01,4.38860e-01,
-3.97040e-02,-2.37128e-01,-1.35290e-01,-1.39525e-01,-1.43537e-01,-4.56427e-01,-9.53054e-03,-3.60721e-01,-4.46006e-01,-3.40937e-01,-2.92761e-01,-3.12693e-01,-3.36512e-01,1.75291e-01,-3.80891e-01,-6.40361e-02,9.34202e-03,-3.75995e-02,3.52316e-02,1.40309e-01,-8.17180e-02,-5.29529e-03,-4.08328e-01,-8.00503e-01,1.08090e-01,-8.29843e-02,-6.84706e-01,5.25392e-02,2.73283e-02,-1.69501e-01,-2.40645e-01,-1.90028e-01,
-1.53286e-01,-2.90029e-01,-2.89267e-01,-2.80333e-01,-2.87844e-01,-9.85191e-01,7.19521e-01,-5.98251e-01,-3.15335e-02,-4.27616e-01,2.58141e-01,1.87766e-01,-2.68866e-01,2.74417e-01,-1.71387e-01,6.42706e-02,2.53283e-01,-3.49338e-01,-1.98189e-01,2.90289e-01,-5.09145e-01,-1.88388e-01,-3.66869e-01,-3.27360e+00,-2.08296e-01,-3.97358e-01,-8.70802e-03,-2.58563e-01,2.99121e-01,1.84544e-01,-5.82156e-01,-2.13753e-01,
2.96601e-01,-2.68657e-01,-4.71333e-02,1.44690e-02,-5.75236e-01,-3.98073e-01,-6.09392e-01,-1.15192e+00,-3.25907e-01,-4.15809e-01,-8.40081e-03,-8.79752e-01,-4.22366e-02,1.06411e-01,1.42747e-01,-8.77099e-02,1.84986e-01,1.63298e-01,1.90296e-01,2.63553e-01,-6.39815e-02,9.17144e-02,-4.01681e-01,-6.16517e-01,-2.26114e-01,-9.86438e-01,-7.54030e-02,1.98407e-01,3.44968e-01,2.74978e-01,-5.23573e-02,-6.34000e-01,
-1.64635e-01,1.96880e-01,-5.24616e-01,-3.40715e-01,-1.33049e+00,-7.04704e-01,4.33605e-02,-2.37213e-02,-3.58249e-01,-6.88020e-02,5.99702e-02,-2.22414e-01,-3.95864e-01,-1.91197e-01,2.52049e-01,-4.35634e-01,1.16905e-01,-2.77253e-03,-4.58398e-01,1.18683e-01,-3.58025e-01,-2.35901e-01,-3.83406e-01,-5.46454e-01,2.83220e-01,-6.43489e-01,-1.91222e-01,-2.79390e-01,-6.18745e-02,7.14789e-02,-9.15478e-02,-6.02615e-01,
-1.42483e-01,-2.50307e-02,4.37217e-01,2.85674e-02,-1.11678e+00,-4.94211e-01,-6.76859e-01,-6.42467e-01,-6.33465e-02,-7.17094e-01,-2.81774e-01,-1.15357e-01,-7.04203e-02,-9.38688e-02,1.84803e-02,-1.62143e-01,2.02156e-02,3.08520e-02,2.86581e-02,-1.79696e-01,1.45823e-01,-7.89887e-01,-1.12099e+00,-2.11246e-01,-1.90409e-01,-9.63102e-01,-5.42946e-01,1.81181e-01,-4.83273e-01,-5.48515e-01,2.67918e-01,5.91921e-01,
-1.26522e-01,2.23470e-01,-2.42907e-01,3.42055e-01,-2.13981e-01,-5.44880e-01,-2.35756e-01,-4.20711e-02,-2.06075e-01,-3.31518e-01,7.86603e-02,-2.21440e-01,1.56696e-01,-1.37206e-01,1.74661e-01,-2.99367e-01,1.18236e-01,3.40229e-02,-6.73226e-02,-2.42293e-01,-1.40730e-01,-3.16423e-01,-4.44310e-01,-8.88232e-01,-2.05074e-01,-3.51819e-01,-1.79901e-01,-2.17578e-03,-3.26724e-02,1.18683e-02,-1.43528e-01,-1.67737e-01,
1.87962e-01,-2.21810e-01,-1.00003e+00,4.88831e-02,9.98129e-03,-1.10555e+00,-6.32551e-01,3.12349e-01,-2.01769e-02,-4.98928e-01,3.28496e-01,-5.49085e-01,-2.08118e-01,-1.56010e-01,-2.46617e-01,-7.48929e-01,3.10984e-01,-1.97831e-01,-3.38239e-01,-1.78596e-01,1.15097e+00,-1.01067e+00,2.80634e-01,-2.78129e+00,-1.75464e-01,3.84878e-01,-1.62342e-01,7.68473e-01,-3.80114e-01,1.61281e-01,2.10386e-01,2.75132e-01,
-1.06604e-01,-1.61689e-01,4.38960e-01,-2.46219e-01,8.13847e-01,2.88682e-01,-1.98894e-02,2.58615e+00,2.36918e-01,5.29628e-01,-3.42904e-01,1.99592e-01,6.30274e-01,2.46577e-02,-6.04957e-02,3.12031e-02,-1.20717e-01,-1.19117e-01,1.66837e-01,1.46455e-01,-2.97793e-01,5.48178e-01,-1.72041e-01,6.15632e-01,4.08896e-01,-1.90152e-01,9.67279e-01,4.01950e-02,-1.78282e-01,-7.94631e-02,-1.70692e-01,6.17509e-01,
-1.27627e-01,2.80317e-01,-1.71021e-01,6.19863e-02,-1.13731e-01,-3.98970e-01,-2.17420e-01,-2.91143e-02,-5.06294e-01,-3.04968e-01,-2.71398e-01,-6.82712e-01,-4.52168e-01,3.03963e-01,-3.65801e-01,-6.12083e-01,-3.50392e-01,-3.01956e-01,-1.60185e-01,-3.05518e-01,-5.38892e-01,-4.85152e-01,-7.83565e-01,-2.88383e-01,-1.19794e-01,-1.80474e-01,-1.57885e-01,-3.40732e-01,3.22362e-01,6.11605e-01,-1.95827e-01,-1.03100e-01,
7.56138e-02,3.15359e-01,-4.09607e-01,8.65807e-02,-7.44400e-01,-6.62068e-01,1.39802e-02,-3.13496e-01,-1.84222e-01,-3.00332e-01,-2.92852e-01,2.21614e-01,-3.61460e-01,-5.93073e-01,-3.00278e-01,-1.29736e+00,-1.21600e-01,2.68026e-01,-5.09621e-01,1.04602e-01,-4.89080e-01,-7.16801e-03,-3.41732e-01,-1.02102e+00,5.37304e-02,9.58781e-03,-2.68174e-01,-5.54273e-02,-1.63779e-01,-3.51442e-01,2.71728e-02,4.22965e-01,
-3.63378e-01,-1.21250e-01,7.78201e-03,-1.87667e-02,5.82311e-01,-3.21693e-01,2.19373e-01,-4.53135e-01,-2.40996e-01,-2.85645e-02,2.33232e-01,1.57479e-01,-5.14911e-01,-4.82803e-02,6.58286e-03,-2.52508e-02,-3.25214e-01,-1.73018e-01,-1.11180e-01,-1.79748e-01,-5.87747e-01,-4.19714e-01,3.32650e-02,-3.54657e+00,-2.76304e-01,-4.23290e-01,-2.42781e+00,-1.04642e-01,2.90063e-01,4.54008e-02,-5.51233e-01,4.51911e-03,
-9.12525e-02,2.14639e-01,-1.32952e-01,-4.14994e-02,-5.10699e-01,-8.09060e-01,-1.96302e-01,-4.11284e-01,-1.31132e+00,1.45765e-01,3.05103e-01,7.54234e-02,1.60381e-01,-2.87699e-02,4.26550e-02,-4.66684e-01,1.99889e-01,-2.26767e-01,2.15935e-01,1.81093e-01,-2.32920e-01,-6.33081e-01,-3.29673e-01,-1.88843e+00,1.30599e-01,-8.87471e-01,-2.97596e-01,-2.57703e-02,-1.52423e-02,-4.46557e-02,-2.49754e-01,3.17609e-01,
2.47952e-01,1.83617e-01,-3.29778e-01,5.92158e-02,-1.77781e-01,-8.49049e-01,-5.90643e-01,-5.80231e-01,-9.94722e-01,1.31489e-01,4.83061e-01,1.65163e-01,-3.25875e-02,1.08009e-04,-5.86426e-02,1.53144e-01,-3.69393e-02,-9.40807e-02,-2.22469e-01,2.45765e-01,-1.54385e-01,-8.76607e-01,-3.09367e-01,-2.26375e+00,-1.96167e-01,-3.81201e-01,-5.37636e-01,-3.15669e-01,-2.57754e-01,-4.07660e-02,-9.17406e-02,-2.07341e-02,
-8.48839e-01,
-1.13199e+00,
6.67559e-01,
-4.73672e-01,
-4.22209e-01,
-4.31969e-01,
-1.95151e+00,
-9.92203e-01,
-1.14854e+00,
-2.83545e+00,
6.67056e-01,
-1.14339e-01,
-6.24028e-01,
-2.06002e-01,
1.21792e+00,
1.21405e+00,
4.46782e-03,6.98299e-02,3.35899e-01,6.38061e-01,-1.23772e-01,6.87415e-02,-2.89208e-01,2.45164e-01,-4.04542e-02,5.66232e-01,-2.88912e-01,-7.83939e-01,-2.05346e-01,-1.36433e-01,5.58238e-01,7.53150e-01,
2.23164e-01,-2.44480e-01,-3.31214e-03,1.73208e-01,2.01346e-02,-2.04632e-01,4.05008e-02,-3.99388e-01,-2.99534e-01,-2.02368e-01,1.91024e-01,-3.00431e-01,-2.07546e-01,-4.75864e-01,-1.40913e+00,-1.48886e+00,
-1.11497e-01,-7.55402e-02,-3.66528e-01,-1.41329e-01,-2.35433e-01,-3.05105e-01,4.52520e-01,-8.74785e-02,-5.45708e-02,-4.98231e-01,-6.63801e-01,-4.18104e-01,-2.63561e-01,-4.92464e-01,1.97302e-01,2.78196e-01,
4.65196e-02,2.49308e-01,-3.02456e-01,8.27317e-02,-1.06953e-01,-2.32506e-01,1.35227e-01,-5.27640e-01,-1.34809e-01,-4.46753e-01,-6.30494e-01,-2.18457e-01,-3.03190e-01,-4.05504e-01,-4.50743e-01,-5.53681e-01,
-6.89071e-02,5.63019e-01,-1.72414e-01,3.62554e-02,-5.26783e-01,-4.62099e-01,9.05975e-02,-7.89184e-01,-1.19901e-01,-8.63620e-01,-3.54872e-01,-4.22691e-02,-3.27729e-01,4.72711e-02,-1.06671e-01,5.13396e-02,
-7.40655e-01,-2.84247e-01,-5.46974e-01,-2.57241e-02,3.80544e-01,5.35703e-01,-2.77694e-02,3.13241e-01,-6.39410e-01,6.95376e-01,-8.90519e-01,-1.33110e-01,-2.17921e-01,-4.86750e-01,-7.15365e-02,8.26183e-02,
-1.01688e-02,-1.91618e-01,1.06898e-02,2.16241e-01,-4.56522e-01,8.28559e-01,-1.81840e-01,-5.03310e-01,1.82444e-01,7.70258e-02,-4.18638e-01,-1.19547e-01,-4.95543e-02,-2.60038e-01,3.53942e-01,2.23929e-01,
4.29253e-02,7.98208e-02,-3.32016e-01,-2.46698e-01,1.90770e-01,-1.89195e-01,1.43425e-01,-5.21829e-01,-2.62832e-01,-2.71092e-01,-7.62129e-01,1.79024e-01,-1.95281e-01,-9.14557e-01,7.56345e-02,-5.97475e-01,
1.23043e+00,
1.94892e+00,
-9.41136e-01,
-5.69459e-01,
-7.92354e-01,
-1.64355e+00,
-2.37522e+00,
-5.06329e-01,
-8.30120e-01,-2.07698e-03,1.22038e-01,-4.14119e-02,6.84907e-01,-9.14177e-01,-7.98347e-02,8.20939e-02,
-4.97119e-01,1.94361e-01,-2.92393e-01,9.69279e-02,-1.94076e-01,-1.27339e-01,-5.60959e-01,5.07854e-01,
-1.42806e+00,-1.65742e-01,-2.83883e-01,5.73054e-01,1.67759e-02,-9.47649e-01,2.63959e-01,3.34899e-01,
-2.82386e-01,-3.44794e-01,6.71455e-02,2.35800e-01,1.24293e-01,-4.19708e-02,-5.83228e-01,7.70727e-01,
-8.34757e-01,
3.10595e+00,
-4.57625e-01,
-2.77809e-02,
3.41979e-01,-2.77612e-01,-6.16714e-01,-5.17157e-01,
1.18139e+00,
