// Neural Network File Format by Kyle Julian, Stanford 2016
3,16,1,16,
16,16,8,1,
0,
0,0,0,0,0,0,0,0,0,-3,0,1,0,0,0,0,
10,2,6,1,1,1,1,11,6,1,5000,50,999,7,2,1,
5,1,3,0.5,0.5,0.5,0.5,5.5,3,-1,2500,25.5,499.5,3.5,1,0.5,0.5,
10,2,6,1,1,1,1,11,6,4,5000,49,999,7,2,1,1,
-4.01231e-01,3.49710e-02,9.44336e-02,7.66369e-02,-2.19812e-02,-1.49698e-01,-2.49926e-01,-8.20162e-01,1.09757e-01,-1.77141e-01,4.68973e-04,-2.42852e+00,-4.33728e-01,5.36735e-02,-4.43972e-01,2.96525e-01,
-4.67172e-01,-1.50274e-01,3.55609e-01,3.11794e-01,-1.22788e-02,9.54847e-02,-2.89071e-01,-2.92711e-01,-2.34851e-01,-3.16282e-01,9.83870e-02,-1.71124e+00,-1.11659e-01,3.07944e-01,-2.16189e-01,2.23138e-01,
9.63928e-01,1.26464e-01,2.01169e-01,6.98040e-01,3.69101e-01,4.21731e-01,6.11104e-01,4.16909e-01,1.07914e-01,3.02046e-01,-5.22042e-02,-3.61476e-01,8.62452e-01,-2.07316e-02,1.62682e-01,4.94979e-01,
1.48656e-01,3.55282e-01,-3.53421e-01,2.25824e-01,-1.46064e-01,-2.48962e-01,2.94832e-01,2.46434e-01,1.40608e-01,7.62199e-02,3.45162e-02,1.51897e-01,-6.50467e-01,-2.17177e-01,4.16777e-01,-2.58888e-01,
-3.69915e-01,2.70268e-02,-2.52301e-01,-6.80708e-01,2.07995e-01,1.01594e-01,-2.62408e-01,1.05876e-01,-2.30637e-03,-6.19246e-01,-2.05262e-01,2.52492e+00,-1.10176e-01,4.77148e-02,1.04736e+00,-1.28023e-01,
4.41199e-01,1.62335e-01,3.79075e-01,-2.41032e-01,6.82846e-02,-2.10251e-01,-4.34567e-01,1.56504e-01,-2.03187e-01,-3.09607e-01,1.82452e-01,-7.90354e-01,-4.23981e-01,-9.58033e-02,-2.48218e-01,-5.84314e-01,
4.40899e-01,1.00277e-01,-7.25856e-01,-5.47660e-01,-5.24265e-03,9.00784e-02,-1.15387e-01,5.37428e-01,5.66598e-01,1.75826e-01,-3.24932e-01,3.23095e+00,4.08555e-02,1.58833e-01,6.49920e-01,-5.39179e-01,
1.26166e-01,3.71692e-01,-1.01655e-01,-2.63247e-01,1.77584e-01,8.86424e-02,9.32573e-02,8.81662e-02,-2.47111e-01,-3.73641e-01,-3.37269e-01,-1.69480e-01,4.16183e-03,-3.40508e-01,4.43364e-02,3.02690e-01,
3.20460e-01,-3.09940e-01,-5.08249e-02,-2.80879e-01,8.19912e-01,1.62450e-01,1.68007e-01,8.60724e-01,3.12254e-01,-5.92936e-01,2.32997e-01,2.44115e+00,9.68779e-02,1.26093e-01,7.89719e-01,-1.18412e-01,
3.45125e-01,1.54818e-01,6.73469e-02,8.72681e-02,9.59391e-02,-3.95596e-01,4.22713e-01,-2.28049e-01,-2.32106e-01,-3.85384e-01,-7.39032e-02,3.58544e-01,3.71051e-01,-3.82569e-01,-3.06898e-01,3.41424e-01,
4.98951e-01,3.75637e-01,4.37128e-01,5.09556e-01,2.99855e-01,-2.69217e-01,-1.50260e-01,3.52307e-01,-9.20175e-02,-3.79054e-02,-3.50989e-01,3.36489e-01,1.87227e-01,2.16375e-02,3.88857e-01,3.41654e-01,
2.86641e-01,8.13573e-02,-6.78936e-02,6.83135e-02,-2.41494e-01,1.63123e-01,-2.14153e-01,1.33458e-01,-3.49942e-02,-3.70911e-01,-2.71562e-01,-1.30526e-01,9.65797e-02,-4.72534e-02,-4.24293e-01,3.52513e-02,
-2.93364e-01,-1.52039e-01,-3.57056e-01,-1.55982e-01,1.80683e-01,2.85220e-02,-1.33538e-01,-3.45435e-01,-3.62582e-01,2.17595e-01,3.65818e-01,1.23650e+00,4.17974e-01,-1.80910e-01,-2.39285e-01,-1.54969e-01,
-1.50537e-01,-1.08742e-01,-1.38736e-01,-1.19710e-01,1.04630e-01,1.61323e-01,2.96135e-01,-3.24775e-01,-3.61317e-02,-2.77630e-01,-8.08807e-02,-4.07965e-01,-6.91632e-02,-3.83868e-01,-3.20119e-02,3.75718e-01,
2.35833e-01,3.19310e-01,1.36931e-01,-1.91985e-01,-3.93284e-01,8.44794e-02,3.03107e-01,1.01755e-01,2.70555e-01,-1.92603e-01,-3.24772e-01,1.22394e-01,-1.14642e-01,-2.77613e-01,-2.16101e-01,9.43010e-02,
-1.01955e-01,1.29629e-01,2.77249e-01,7.08676e-02,1.25459e-01,1.65233e-03,-4.11385e-01,3.61042e-01,-3.63246e-01,3.65131e-02,-3.95923e-01,3.47324e-01,-7.51317e-02,-3.06508e-01,-3.59775e-01,3.64610e-01,
-1.26612e-01,
-1.80355e-01,
6.31712e-01,
-2.27084e-01,
-2.21369e-01,
9.34737e-02,
-4.22390e-02,
0.00000e+00,
-7.29942e-02,
-8.70142e-03,
1.34276e-01,
0.00000e+00,
-1.60125e-01,
0.00000e+00,
0.00000e+00,
0.00000e+00,
1.05252e-02,1.19891e-01,-3.74168e-01,-3.72129e-01,-2.50016e-01,-3.25368e-01,3.28437e-02,1.85836e-01,-4.10050e-01,-2.66881e-01,-8.87407e-02,4.64110e-01,-3.54332e-02,1.85852e-01,-2.11382e-01,-3.90394e-01,
4.23329e-01,-3.12955e-01,6.27499e-01,1.19015e-01,5.25567e-02,-5.15141e-01,3.61637e-01,-1.68739e-01,9.09522e-02,-1.92998e-01,8.65364e-01,4.34278e-01,-1.16707e-01,1.90911e-01,-1.13439e-01,2.74242e-01,
-1.97930e-01,2.18940e-02,-2.92688e-01,-1.23577e-02,3.32886e-01,-5.24439e-01,4.31239e-01,-1.66101e-01,2.03785e-02,-2.98367e-01,2.15354e-01,-4.49638e-01,1.76182e-01,-1.26074e-01,3.42589e-01,2.11842e-01,
-1.57664e-01,-1.54708e-01,5.07511e-02,-3.00848e-01,9.95418e-02,3.57786e-01,-1.73589e-01,3.54231e-01,-3.68552e-01,-2.68521e-01,-3.18697e-01,-4.48927e-01,2.29904e-01,-4.05492e-01,-1.17599e-01,1.55039e-01,
3.51405e-01,3.09195e-01,2.89420e-01,-3.48703e-01,3.02811e-01,2.95010e-01,-4.83168e-01,-2.05564e-01,3.53389e-01,3.78617e-01,5.12501e-01,-4.96335e-01,1.92762e-01,3.86145e-01,2.55901e-02,3.57971e-01,
1.61472e-01,1.34176e-01,-3.78147e-01,1.52509e-01,9.64402e-02,-1.57370e-01,-8.79065e-02,-2.26311e-01,-7.38103e-02,-3.57703e-01,-7.96826e-02,1.04014e-01,2.18173e-01,-7.98277e-02,-1.72773e-01,-2.00877e-01,
-6.50625e-01,6.21349e-02,5.21926e-01,-1.76697e-01,2.28359e-01,4.88393e-01,-6.42762e-02,4.14533e-01,-2.07652e-01,-3.18753e-01,5.32551e-01,9.46180e-02,-1.71503e-01,-8.52224e-02,2.18636e-01,4.53934e-01,
-1.21055e-01,-1.61266e-01,-3.79023e-01,-2.28822e-01,-2.99478e-01,-4.14246e-01,2.50894e-01,-1.05279e-01,1.66032e-01,4.80069e-01,-7.68608e-02,-7.55676e-02,-4.67500e-01,-4.03453e-01,-4.01848e-01,2.22690e-01,
-7.14531e-02,
-2.58655e-02,
-2.97177e-02,
1.20280e-01,
-8.25958e-03,
-2.76296e-02,
3.40274e-01,
-5.22197e-02,
-1.49598e-01,-6.82023e-01,-1.79917e-01,-1.64923e-01,-1.30758e-01,6.90439e-01,-3.08917e-01,-6.26537e-01,
-1.75250e-02,
