// Neural Network File Format by Kyle Julian, Stanford 2016
10,13,1,13,
13,10,10,10,10,10,10,10,10,10,1,
0,
10,0,0,1,0,0,0,0,0,0,0,1,0,
100,6,15,16,6,13,5,4,1,19,19,100,40,
10,0,0,1,0,0,0,0,0,0,0,1,0,0,
90,6,15,15,6,13,5,4,1,19,19,99,40,1,
2.21244e-01,1.72103e-01,3.12156e-01,1.94909e-01,1.04091e+00,1.58070e-01,3.38679e-01,2.63037e-01,2.99958e+03,-2.30609e+00,-3.57428e-01,2.97912e-02,-5.59392e-01,
-9.13108e-02,-4.16593e-02,1.85966e-02,-3.16004e-02,7.78459e-02,1.56513e-01,-4.72110e-01,-5.79718e-01,2.99974e+03,1.55755e+00,3.54691e-01,9.25160e-02,-7.16478e-01,
-3.03285e-01,-4.21093e-01,-5.11812e-01,1.54612e-01,5.36488e-01,3.92755e-01,4.58421e-01,-1.26467e-01,3.00040e+03,-8.19243e-01,-3.86053e-01,-4.78796e-01,-3.79876e-01,
6.04949e-02,1.68592e-01,1.79778e-02,-2.73645e-01,-3.82944e+00,4.24604e-02,3.55499e-02,-3.51352e-02,2.99963e+03,-2.27929e+00,-2.06354e-01,5.88733e-03,1.23686e-01,
-3.39571e-01,-5.51405e-02,1.47939e-01,2.25864e-02,7.71543e-01,-7.96752e-02,-1.39743e-01,-1.12861e-01,2.99990e+03,-2.73972e+00,-2.46416e-01,1.97436e-01,2.35606e-01,
-1.26751e-01,2.13511e-01,-2.59390e-01,-3.89587e-01,-5.96944e-02,6.54943e-02,-3.82040e-01,-4.13366e-02,2.99969e+03,8.82062e-01,-1.25095e-01,9.22589e-02,-4.35737e-01,
2.63255e-01,-2.04026e-01,-3.57131e-01,-1.23535e-01,8.09976e-02,1.25873e-01,-1.44118e+00,-1.00861e-01,2.99955e+03,-3.08372e+00,-5.85240e-01,7.18007e-02,4.81692e-04,
1.49130e-01,-6.34695e-02,1.98287e-02,5.71595e-01,-1.16226e+00,-2.49609e-02,3.48644e-01,1.18928e-01,3.00039e+03,2.85358e+00,-3.87530e-02,6.80986e-02,-1.24870e-01,
-4.95140e-02,4.06294e-02,-1.13139e-01,-5.88353e-01,1.12753e+00,-6.37383e-02,-3.21075e-01,-3.59429e-01,3.00016e+03,-3.53179e+00,-3.75618e-01,-8.45165e-02,4.47827e-01,
-4.35606e-01,-3.58414e-01,-1.68971e-01,1.60656e-02,-1.14841e-01,-2.63960e-01,5.83118e-01,4.04812e-01,3.00004e+03,-4.85668e-01,-6.59369e-02,-2.08942e-01,-4.48737e-01,
7.78942e-01,
-5.28442e-02,
-5.64632e-02,
3.46528e-01,
4.07369e-01,
-2.84948e-01,
1.41552e-01,
-6.33042e-01,
3.10189e-01,
-5.61460e-02,
8.96687e-02,-2.61150e-01,-3.96509e-01,-5.32636e-01,-1.08260e-01,-3.25336e-01,-4.95522e-01,-4.85924e-01,-3.84287e-01,-7.16373e-02,
2.53816e-01,2.08373e-02,-6.08131e-01,6.27191e-01,2.25075e-01,-3.83991e-01,3.97041e-01,-4.56668e-01,6.77577e-01,-4.17219e-01,
4.49136e-01,-6.18604e-01,6.43676e-02,5.77095e-01,-2.90145e-01,-1.80243e-01,2.77063e-01,9.58014e-02,4.07130e-01,3.64200e-01,
-3.50623e-01,4.62023e-01,4.83878e-01,-6.85346e-01,-2.00988e-01,3.59720e-01,-1.45078e-01,2.23664e-01,-1.98951e-01,-3.22541e-01,
1.33346e-01,2.58050e-01,4.73542e-01,7.53000e-02,5.06318e-01,-3.33384e-01,3.34475e-01,2.43114e-01,3.65308e-01,-1.05350e-01,
2.80432e-01,1.82929e-01,-1.52646e-02,3.94370e-01,-3.57065e-01,2.27992e-01,3.64946e-01,-1.38228e-03,-2.40756e-01,-2.18435e-02,
4.73891e-01,-5.35959e-02,1.24058e-01,-5.35857e-01,1.55160e-02,1.71526e-01,1.74547e-01,3.73087e-01,-4.66557e-02,4.17151e-01,
3.62790e-01,-4.56253e-01,3.53371e-01,8.83489e-01,5.03211e-01,4.66686e-01,6.42109e-02,-2.37299e-01,-1.68072e-01,2.42426e-01,
-6.26808e-01,-6.36978e-02,3.64452e-01,2.12825e-01,1.05958e-01,-2.92314e-01,6.38142e-02,-5.35197e-01,5.36110e-01,-4.38756e-01,
-8.16231e-02,2.65526e-01,4.02545e-01,6.10996e-02,4.84389e-01,3.41707e-01,6.18711e-01,-1.55175e-01,1.07342e-01,4.64348e-01,
-1.14295e-01,
5.64633e-01,
3.05474e-01,
7.65468e-02,
-3.90065e-01,
-5.48206e-01,
-3.83598e-01,
7.55402e-01,
1.78248e-02,
-2.91142e-01,
2.33819e-01,-3.71822e-01,1.69216e-01,-1.52239e-01,-3.90201e-01,2.92804e-01,-1.60527e-01,2.69189e-01,2.44308e-02,-1.19649e-01,
1.40815e-01,-7.98551e-01,-2.54824e-01,-2.97651e-01,-3.29159e-01,2.34596e-01,-1.34398e-01,2.82052e-01,-2.94537e-01,3.84808e-01,
-4.36646e-01,8.05304e-01,4.56757e-01,-5.13231e-01,-1.15318e-01,-6.48727e-02,-3.26029e-01,6.16317e-01,1.05872e+00,-2.70871e-01,
-1.44328e-01,1.99794e-01,-5.06543e-01,6.14832e-01,-3.44669e-01,-2.59217e-01,4.30135e-01,6.22659e-01,7.67417e-01,-2.53154e-01,
4.12370e-02,6.68453e-01,-8.78038e-02,5.48446e-01,8.77155e-02,4.63811e-01,-6.03233e-02,-4.60010e-01,8.88315e-01,-2.76314e-01,
-1.62924e-01,1.24448e-01,4.18964e-01,-1.37817e-01,-6.22024e-02,4.88043e-01,-1.53090e-01,4.27769e-01,-6.57139e-01,5.48021e-01,
-3.93375e-01,4.53901e-01,2.27320e-01,-2.44894e-01,2.10348e-01,-2.74764e-02,2.50146e-01,2.44908e-02,3.79941e-01,3.18647e-01,
-5.24313e-01,4.96205e-01,-6.37823e-01,-3.94610e-02,-1.67205e-01,3.46458e-01,-2.96606e-01,1.29335e-01,3.94113e-01,-3.59734e-01,
-2.33136e-01,-5.96091e-01,-4.22345e-01,6.17814e-01,-2.11575e-02,1.19664e-01,3.05706e-01,-2.40876e-01,6.01069e-01,1.73785e-01,
-3.17004e-02,3.22470e-01,-9.80504e-02,-4.27189e-01,-2.60716e-01,-4.17801e-01,1.59504e-01,5.12614e-01,-9.05805e-01,4.60170e-01,
-3.94791e-01,
1.04114e-02,
6.19937e-01,
6.15537e-01,
5.29053e-01,
-4.99454e-01,
-1.58358e-02,
3.06300e-02,
3.73188e-02,
-5.77049e-01,
5.22513e-03,2.35515e-01,5.32406e-01,1.88107e-01,-1.36381e-01,3.83640e-01,1.72291e-01,-7.22180e-02,3.56054e-01,1.46978e-01,
4.37143e-02,-2.58172e-01,-5.04773e-01,-5.00377e-01,-5.81067e-01,3.12106e-01,4.66221e-01,-1.23459e-01,1.53744e-01,-5.11184e-02,
2.17535e-01,4.46009e-01,-5.59589e-01,4.75436e-01,-9.79249e-02,3.92742e-01,-3.44468e-01,-2.38302e-01,2.96638e-01,-2.19374e-01,
-1.28757e-01,-1.58351e-01,-3.82164e-01,2.62510e-01,1.26469e-01,-4.94711e-01,4.19512e-01,-3.39347e-01,4.45879e-01,-1.62795e-01,
-2.39926e-01,-8.61199e-02,5.20675e-01,3.90595e-01,3.79033e-01,-2.69462e-01,3.59638e-01,3.22275e-02,5.72631e-01,-1.67535e-01,
-9.48566e-02,-2.67056e-01,-9.60508e-01,4.00611e-01,5.83958e-01,-1.15505e-01,-7.22520e-02,-5.41404e-02,5.95486e-01,-4.36069e-02,
-8.53719e-02,2.15163e-01,2.78708e-01,-2.82942e-01,6.23482e-01,-2.46846e-01,-3.62879e-01,-1.08116e-01,-6.47008e-01,-4.89113e-01,
7.28710e-02,-1.52364e-01,4.22254e-01,5.18418e-01,1.60948e-02,-2.83554e-01,8.96339e-02,8.33933e-01,-1.24120e-01,1.46784e-01,
-4.11460e-01,-1.71164e-01,-2.87202e-01,1.28977e-01,-8.51157e-01,4.64404e-01,-1.51239e-01,-1.02860e-01,2.07970e-01,-7.68425e-01,
4.51196e-01,3.43823e-01,5.79782e-01,6.97075e-01,-3.36601e-01,-1.45725e-01,-3.23600e-01,9.93391e-01,1.66677e-01,-5.75074e-02,
-5.24677e-01,
-1.57267e-01,
3.61660e-01,
2.77657e-01,
3.83187e-01,
1.44430e-01,
4.45856e-01,
-2.59471e-01,
-9.98624e-02,
3.50643e-01,
4.85326e-01,6.51934e-01,-4.35811e-01,-3.60627e-01,-6.91008e-02,-7.43019e-01,-6.68103e-01,5.15122e-02,6.15012e-01,-3.56696e-01,
8.60899e-02,-2.84149e-01,-4.39158e-01,-2.64650e-01,5.54262e-01,-7.13280e-01,-3.69669e-01,1.36023e-01,-7.17285e-01,6.22117e-01,
-2.03266e-01,4.31376e-01,-7.79672e-02,1.34523e-01,3.39561e-01,5.91657e-01,-3.47884e-01,-2.48808e-01,-1.19514e-01,-1.15757e-01,
3.88223e-01,5.90193e-02,-7.08673e-02,4.02151e-01,3.64326e-01,8.70905e-01,-6.53094e-01,-4.27195e-01,5.80069e-02,-3.45038e-01,
1.57138e-01,-8.89201e-02,-2.30001e-01,7.87894e-02,-3.40810e-01,-2.61642e-01,-3.87051e-01,-6.24919e-02,4.82872e-01,2.95953e-01,
-3.55987e-01,4.03119e-01,3.78297e-01,-3.19288e-01,-6.43738e-01,-2.35069e-01,-4.23820e-01,-4.60752e-01,-5.76895e-03,1.20431e-01,
1.02680e-01,1.42245e-01,-3.25478e-01,-3.11660e-01,-6.42388e-01,-1.78541e-01,-2.52415e-01,-3.40133e-01,3.71520e-01,-4.84709e-01,
-3.92603e-01,-3.56160e-02,4.00677e-01,5.13032e-01,4.65411e-01,5.67522e-01,1.30183e-01,-2.32837e-01,5.38973e-01,-1.91954e-01,
-5.74107e-01,-4.30753e-03,3.93657e-01,-4.07269e-01,2.22509e-01,-9.87079e-02,1.95709e-01,-4.52117e-01,-2.02491e-02,-5.52798e-02,
2.15100e-01,-3.10587e-01,-5.50409e-01,2.71757e-01,-6.89254e-01,-1.20205e-01,-6.72801e-02,1.86797e-01,-3.55328e-01,-9.50376e-02,
-6.86496e-01,
1.62808e-01,
2.45231e-01,
-1.03891e-02,
-6.63803e-02,
-2.63549e-01,
-5.59580e-01,
2.68943e-01,
-1.08573e-01,
-4.01381e-01,
5.49640e-01,4.68031e-01,1.97425e-01,3.30578e-01,6.89727e-02,4.01306e-01,5.04166e-01,-5.77308e-01,4.33438e-01,2.34828e-01,
-5.29310e-01,-4.13743e-01,1.78817e-01,-2.70132e-01,2.88831e-01,-2.60400e-01,4.11757e-01,-1.95974e-01,-5.35924e-01,-5.23749e-01,
-2.60353e-01,-6.57164e-01,2.84579e-03,3.77211e-01,-3.22800e-01,8.86105e-03,2.44501e-01,4.34800e-01,-4.63784e-01,2.55353e-01,
-4.31017e-01,5.48822e-01,-4.87577e-01,1.39407e-01,-1.31510e-01,1.00368e-01,-7.09498e-02,-4.77852e-01,-4.11058e-01,-1.62400e-01,
1.88568e-01,-6.07559e-01,4.21902e-01,1.72308e-01,-4.11704e-02,-9.97377e-02,-1.59758e-01,3.46772e-01,-2.11307e-01,-2.61399e-01,
2.22869e-01,-2.55750e-01,-1.03884e-01,1.05790e-01,1.73701e-01,7.63314e-02,1.31125e-01,-6.49932e-01,2.39717e-01,4.08692e-01,
-4.00490e-01,4.28677e-01,3.05290e-01,4.16218e-01,-6.23234e-02,5.34563e-01,6.69368e-02,-2.36866e-01,2.29163e-01,2.60386e-02,
-3.05695e-01,2.73509e-01,3.52567e-01,-2.27639e-01,-1.67696e-02,1.79669e-01,-1.26194e-02,3.26261e-01,-5.12436e-02,-3.37199e-01,
-5.54274e-01,3.84767e-01,3.77729e-02,-2.98333e-01,3.68110e-01,-4.20863e-01,-4.65321e-01,1.83899e-01,-1.08892e-01,4.36982e-02,
1.81270e-01,1.35152e-01,-2.61793e-01,4.04907e-01,-2.79534e-01,-5.16009e-02,-2.62418e-01,2.35202e-01,4.99087e-01,-3.15261e-01,
-5.02858e-01,
0.00000e+00,
1.60952e-01,
1.53862e-01,
2.55688e-01,
-9.94486e-02,
2.31876e-01,
5.99692e-01,
-1.70456e-01,
3.95611e-01,
-2.58835e-01,4.79429e-01,-5.22512e-02,5.49150e-01,-4.01811e-01,-2.99679e-01,-9.20373e-02,2.98695e-01,5.43183e-01,1.06705e-01,
-9.10434e-02,-3.45048e-01,-2.35958e-01,-2.08420e-01,3.69448e-01,-6.00260e-01,9.48133e-02,-6.41798e-01,4.29314e-01,-2.97334e-01,
-2.29398e-01,5.45699e-01,2.25306e-01,1.62828e-01,-4.68026e-02,1.82043e-01,-7.47900e-02,-7.73951e-02,-3.51035e-01,1.45907e-01,
-6.14649e-01,3.53133e-01,4.41668e-01,-2.74603e-01,2.20373e-01,-1.97821e-01,3.56539e-01,6.90193e-01,-3.34684e-01,2.03361e-01,
-1.07766e-01,-8.32136e-02,-4.74463e-01,6.76265e-01,-3.09119e-01,-2.00007e-01,4.63354e-01,3.53227e-01,8.12944e-02,3.40931e-01,
1.34275e-02,-4.91176e-01,4.67196e-02,-4.29422e-01,1.50493e-01,-8.06602e-02,-4.61457e-01,2.62395e-01,1.84732e-01,-6.27110e-01,
2.46598e-01,-3.26203e-01,-1.02263e+00,7.30125e-02,-2.30845e-01,-4.19393e-01,-3.73391e-01,6.18483e-01,5.46590e-01,-6.68644e-01,
-2.60307e-01,3.62933e-01,7.97669e-02,3.15270e-01,-3.74541e-01,2.86302e-01,1.91070e-01,1.74301e-01,2.73142e-01,-3.47175e-01,
-3.98543e-01,-5.23838e-01,5.51157e-01,-2.54822e-02,4.51650e-01,7.92653e-03,-4.95572e-01,7.58014e-02,-3.15949e-01,8.24603e-02,
-4.41249e-01,2.97536e-01,-7.49940e-02,-5.13452e-01,-4.72961e-01,4.19846e-01,3.02834e-01,-3.33659e-02,5.25205e-02,-5.01224e-01,
1.59457e-01,
-1.92110e-01,
-2.47714e-01,
3.43943e-01,
2.19651e-01,
-1.26454e-01,
2.23240e-01,
1.79182e-02,
2.72379e-01,
-3.17241e-02,
-2.78012e-01,7.86033e-02,2.21459e-01,7.39859e-02,1.19237e-01,5.51976e-01,5.63972e-01,2.21063e-01,-4.72624e-01,1.21588e-01,
-1.37214e-03,-2.76045e-01,-5.30531e-01,-3.96454e-01,3.51858e-01,-1.29072e-01,-1.95589e-01,7.17160e-01,-5.43625e-01,6.73517e-02,
-1.94161e-01,7.40943e-01,-2.19010e-01,-1.47914e-01,-4.29650e-02,-2.28170e-01,7.63843e-01,7.02536e-01,-1.85050e-01,4.82928e-01,
-3.85737e-02,3.82918e-01,-4.29402e-02,-5.15863e-01,4.58635e-02,1.94210e-01,2.63256e-01,-6.83583e-01,1.70329e-01,1.99607e-01,
7.72413e-02,4.44946e-01,-2.23342e-01,-2.81639e-01,-2.39400e-01,2.03540e-01,5.79145e-02,7.34289e-01,1.94691e-01,2.84312e-01,
-6.82257e-02,-2.91742e-01,3.07353e-01,-2.63234e-01,1.42193e-01,3.83750e-01,-2.27228e-01,-3.47791e-01,-1.74126e-01,-1.09919e-01,
5.10315e-02,1.57522e-01,-6.41761e-01,-6.33318e-01,-5.29866e-02,4.35525e-01,5.76127e-01,1.50000e-01,5.62081e-01,-5.01600e-01,
5.51146e-01,4.99940e-01,-1.53470e-01,-7.31546e-01,5.03966e-01,9.66488e-02,1.46650e-01,-1.24094e-01,1.84123e-01,-3.66342e-02,
-2.83777e-01,2.38693e-01,5.35796e-02,3.56908e-01,-6.17125e-01,-3.83177e-01,2.39346e-01,1.46044e-01,4.84847e-01,1.58286e-01,
-4.42346e-01,-1.07771e-01,5.37921e-01,-3.82029e-01,3.09876e-01,-1.89611e-01,5.87596e-01,-2.24531e-01,-8.92559e-01,3.32089e-01,
-3.43336e-01,
1.72717e-01,
-6.73781e-02,
-1.25998e-01,
-3.36335e-01,
-4.88585e-01,
-2.32211e-01,
1.66285e-01,
-2.20705e-02,
1.59142e-01,
-2.98950e-01,1.56808e-01,-8.50753e-02,3.16952e-01,6.67039e-01,-1.35004e-01,-3.10235e-01,3.01224e-01,-1.05203e-01,4.37742e-01,
2.80590e-01,-6.10510e-01,1.94026e-01,5.31733e-01,2.87880e-01,1.56556e-01,-2.36142e-01,-1.77896e-01,4.87391e-02,-2.42225e-02,
5.29841e-01,-1.31194e-01,6.63123e-01,1.85438e-01,1.08612e-01,-3.25543e-02,5.71690e-02,3.54508e-02,7.16176e-04,-2.41104e-01,
7.28046e-02,5.36076e-01,4.49739e-01,9.37075e-02,-5.18898e-01,-2.70716e-01,-1.11049e-01,5.00316e-01,-4.81951e-01,-3.16477e-02,
1.87983e-01,-5.36726e-01,6.88757e-02,4.49848e-01,4.29211e-01,-3.14573e-01,3.00540e-02,3.50803e-01,-3.19063e-01,4.87390e-01,
4.74880e-01,-1.02989e+00,1.43224e-01,5.89499e-01,1.83414e-01,3.56480e-02,3.84479e-02,-2.50755e-01,-2.47455e-01,4.75952e-01,
-1.60034e-01,2.83644e-01,-6.14970e-01,-1.54845e-01,7.60637e-02,4.48847e-02,4.18863e-01,5.45092e-01,-4.76024e-03,4.76012e-01,
-2.00422e-01,2.16493e-01,-5.40834e-01,4.13753e-01,2.16236e-01,1.45535e-01,6.48198e-03,-3.56997e-03,-5.38664e-01,3.08113e-01,
-1.97317e-01,-3.43545e-01,-5.32082e-01,-7.60257e-01,1.19337e-01,-1.07562e-01,2.89027e-01,-2.07664e-01,7.41703e-01,-2.00279e-02,
-3.65175e-01,-9.59849e-01,2.27733e-01,-2.61323e-01,2.01040e-02,-8.23017e-02,-2.97619e-01,-6.16831e-01,4.45044e-01,-5.45338e-04,
1.86932e-01,
-2.71517e-01,
-1.08222e-01,
1.53259e-01,
-4.84716e-01,
-1.35539e-01,
1.65245e-01,
-6.03488e-01,
3.80391e-02,
6.68774e-02,
-5.01486e-01,3.06089e-01,-2.23273e-01,-5.07863e-01,1.53120e-01,3.73463e-01,-7.04753e-01,5.92353e-01,5.66900e-01,4.78158e-01,
-1.88200e-01,
