// Neural Network File Format by Kyle Julian, Stanford 2016
2,13,1,13,
13,5,1,
0,
10,0,0,1,0,0,0,0,0,0,0,1,0,
100,6,15,16,6,13,5,4,1,19,19,100,40,
10,0,0,1,0,0,0,0,0,0,0,1,0,0,
90,6,15,15,6,13,5,4,1,19,19,99,40,1,
1.30497e-01,-2.89562e-01,-1.11802e-01,6.81234e-01,-1.15755e+00,7.12152e-02,3.61605e-01,-2.29464e-01,-2.79841e-01,2.29831e+00,3.75562e-01,3.22623e-01,-4.42768e-02,
8.23326e-02,2.19177e-02,1.00962e-02,6.24824e-03,-2.90952e+00,4.11809e-03,5.54166e-02,1.93263e-01,-7.08275e-02,7.54937e-01,6.77270e-02,-1.41304e-02,-2.64048e-02,
-2.05783e-01,3.91388e-01,-4.52938e-01,-1.37018e-02,-4.92462e-01,-3.50069e-01,3.23160e-01,3.90908e-01,5.39405e-01,-3.87267e-01,5.36801e-01,-3.94834e-01,8.46912e-02,
-1.19129e-02,1.02547e-01,-1.13495e-01,-1.31371e-01,1.48593e+00,5.12719e-02,1.83814e-01,-3.86063e-01,-6.20743e-01,-3.80529e+00,-5.84435e-02,2.17241e-01,3.21675e-03,
-5.38483e-01,-3.19625e-01,8.61508e-02,-3.47186e-01,1.85071e-01,-6.85641e-02,-6.57254e-03,2.15702e-01,3.44955e-01,-2.07222e-01,-2.03839e-01,-1.87010e-01,1.85388e-03,
-2.30988e+00,
2.48762e+00,
-3.84444e-02,
2.23033e+00,
0.00000e+00,
3.93899e-01,-8.45418e-01,8.24163e-01,-4.94616e-01,4.62308e-01,
-2.25546e+00,
