// Neural Network File Format by Kyle Julian, Stanford 2016
3,13,1,16,
13,16,8,1,
0,
10,0,0,1,0,0,0,0,0,0,0,1,0,
100,6,15,16,6,13,5,4,1,19,19,100,40,
10,0,0,1,0,0,0,0,0,0,0,1,0,0,
90,6,15,15,6,13,5,4,1,19,19,99,40,1,
-6.55157e-01,-8.98819e-01,3.31868e-02,-8.21041e-02,-1.68414e-01,-3.90024e-01,-7.87201e-01,-4.91771e-01,8.53123e-02,-1.87325e-01,3.65309e-02,-8.37626e-01,5.13976e-02,
-2.68290e-01,3.66347e-01,-1.39802e-01,-4.52304e-01,-7.03255e-02,-1.01407e-01,-3.77771e-01,-2.21756e-01,3.54976e-01,3.57313e-01,2.20326e-01,-1.27070e-01,-3.26448e-01,
-2.73456e-01,-7.49578e-02,-2.62181e-01,-1.06805e-01,-1.85143e-01,-2.46485e-01,2.02163e-01,-3.71340e-01,1.02046e-01,5.03009e-02,1.51656e-01,-3.28578e-01,-1.43156e-01,
-1.50256e+00,-2.09932e+00,1.08101e-01,-7.23019e-01,3.81573e+00,-1.85492e-01,1.65338e-01,-6.30922e-01,-1.48336e+00,-9.42617e+00,1.16274e+00,-1.91277e-01,1.29966e+00,
9.28559e-01,6.68480e-02,-1.87417e-01,-1.02469e-01,-1.10491e+00,-4.34165e-01,-1.31288e+00,-8.96614e-01,-4.70558e+00,-1.75292e+01,-3.59565e-01,-6.96046e-01,-1.72229e-01,
-1.94757e+00,2.60314e-02,9.00253e-01,-1.29755e-01,-2.58953e-01,-4.00469e-01,1.38939e-01,6.58773e-01,1.28038e+00,-4.68839e-01,-1.77190e-01,3.06344e-01,2.80916e-02,
-3.55470e-01,1.08235e-01,-2.67321e-01,-4.32352e-01,2.06794e-01,2.82650e-01,1.10739e-01,-5.61790e-02,-1.78272e-01,-1.48248e-01,-3.48182e-01,6.28897e-02,-8.32828e-02,
-1.53943e-02,8.26403e-01,8.66393e-02,3.19082e-01,-4.32190e-01,-5.31503e-02,6.47483e-01,1.26681e+00,2.18912e+00,-1.15088e+01,-4.12628e-02,2.62630e-01,-9.04832e-01,
-1.59054e-01,-3.00953e-01,8.37654e-04,2.22887e-01,-3.09937e-01,2.60311e-01,-1.70354e-01,1.82537e-01,-2.77112e-01,-7.40557e-02,3.48626e-01,-2.90698e-01,-3.77480e-01,
2.15053e-01,-1.35530e+00,-7.05932e-01,-3.44543e+00,-2.87272e+00,5.31366e-01,4.41757e-01,-7.39205e-01,-9.84917e-01,-3.11196e+00,1.96717e+00,-3.63698e-01,-5.05144e-01,
2.29152e-01,8.26009e-01,-9.17970e-02,-2.21845e+00,3.54801e+00,2.79398e-01,1.52059e-02,-4.79321e-01,-3.90906e+00,-7.50215e+00,3.24540e-01,2.53903e-01,-1.89193e-02,
3.04066e-01,-6.82632e-01,1.76460e-01,1.49121e+00,-4.77871e+00,5.02745e-02,5.11543e-01,6.14755e-01,4.31727e-01,1.65222e+01,1.55853e+00,2.22506e-01,-3.01014e-01,
-4.28360e-01,2.97731e-01,-1.77114e-01,-1.82214e-01,-4.91146e-02,2.61412e-01,-3.13332e-01,1.29397e-01,2.37363e-01,1.53910e-01,-2.76517e-02,-2.98118e-02,-2.61406e-01,
-6.97099e-01,-6.32841e-01,2.25341e-01,7.80837e-03,-9.11655e-02,-1.00297e-01,4.28343e-01,9.11983e-02,-2.53992e-01,-1.59513e-01,2.71048e-01,-4.68460e-01,-5.13369e-01,
8.22714e-02,6.81925e-02,-5.90757e-02,-5.12003e-01,-5.01090e-01,3.39406e-02,5.43329e-01,-3.84474e-01,-2.17450e-02,1.27282e-02,1.84419e-01,-2.30174e-01,-1.87974e-01,
1.26215e-01,3.01375e-02,3.18306e-01,-2.58744e-01,-2.08022e+01,5.21134e-02,1.20395e+00,1.04372e+00,-2.24651e+00,-2.69829e+00,5.38292e-01,-7.26632e-02,2.55430e-01,
-3.55158e-01,
0.00000e+00,
0.00000e+00,
4.26700e+00,
1.32732e+00,
2.59758e+00,
0.00000e+00,
1.11459e+01,
0.00000e+00,
-1.09824e+00,
6.17616e+00,
-7.97611e+00,
0.00000e+00,
-2.21586e-01,
-9.98354e-02,
7.73432e+00,
-2.34001e-01,-1.30825e-02,-2.02155e-01,-2.81892e-01,-1.10154e-01,-5.32737e-01,1.04173e-01,-1.08624e+00,8.50737e-02,-2.02225e-01,-2.51990e-01,-1.15723e+00,-3.66416e-02,-2.46589e-01,-6.93367e-02,-2.38005e+00,
1.28534e+00,3.72567e-01,-1.70976e-01,3.30560e-01,4.15915e-01,6.32916e-01,-1.08407e-01,1.02872e+00,2.61686e-01,-8.11055e-01,-5.14194e-01,-2.47323e+00,2.33841e-01,3.27308e-01,-4.04319e-01,-1.23681e+00,
-2.06497e-01,5.45418e-03,4.86098e-01,1.67880e-01,1.35497e-01,-4.16995e-02,2.34771e-01,7.74946e-02,-4.83688e-01,1.52807e-01,1.53146e-01,-2.33517e-01,1.35153e-01,2.63695e-01,5.44502e-01,2.88637e-01,
5.75172e-02,1.63025e-01,-1.74246e-02,3.66415e-02,-7.13018e-01,2.24276e-01,-4.44181e-02,7.69656e-01,-1.08264e-01,-6.53965e-02,-1.29349e+00,-1.08696e+00,-3.00504e-01,9.35816e-01,1.36911e-01,3.52642e-01,
-3.85356e-01,4.84170e-01,1.52062e-01,-2.04845e-02,-6.22090e-01,-1.28867e-01,-4.47688e-01,-1.77181e-01,1.74816e-01,-8.91120e-01,-3.34186e-02,-7.28740e-01,-1.00489e-01,3.44838e-01,4.99116e-02,2.79048e-02,
3.53011e-01,-3.10945e-01,4.56869e-01,-6.82186e-01,-1.32897e-01,-7.16166e-01,4.02581e-01,-9.91600e-02,2.63129e-01,-3.11152e-01,-4.21583e-01,-2.16417e-01,4.55912e-01,1.68848e-01,3.01282e-01,8.51770e-02,
-1.01297e-01,4.35020e-01,1.77752e-02,8.28082e-02,-2.25735e-01,-2.40876e-01,4.26578e-01,2.16534e-01,1.76394e-01,1.29486e+00,-1.77590e-01,-5.03445e-01,3.08248e-01,1.62775e-01,-5.37842e-02,3.53917e-01,
-3.56125e-01,3.04145e-02,4.48462e-01,-3.96426e-01,-5.62817e-01,-4.27123e-01,-1.84147e-01,-2.96660e-02,-1.69473e-01,1.82254e-01,-1.28893e-01,-2.61444e-01,-3.91881e-01,-1.04436e-01,-5.53528e-01,-1.19700e-01,
3.62460e+00,
4.24326e+00,
8.58817e+00,
-1.32090e+00,
-4.40629e-01,
-3.67027e-01,
8.09776e+00,
-3.56894e-01,
-1.80386e-01,-3.95388e-02,-4.59208e-01,-4.09055e-01,9.19726e-03,1.38600e-01,-2.42044e-01,-5.87338e-02,
2.91895e+00,
