// Neural Network File Format by Kyle Julian, Stanford 2016
10,13,1,13,
13,10,10,10,10,10,10,10,10,10,1,
0,
10,0,0,1,0,0,0,0,0,0,0,1,0,
100,6,15,16,6,13,5,4,1,19,19,100,40,
10,0,0,1,0,0,0,0,0,0,0,1,0,0,
90,6,15,15,6,13,5,4,1,19,19,99,40,1,
4.84161e-02,-3.26406e-01,7.69614e-03,7.69196e-01,-3.29542e-03,3.08946e-02,2.47975e-01,6.14858e-02,9.02940e-01,3.74713e+00,1.96385e-01,1.54269e-01,-3.61106e-01,
-6.02620e-02,2.27118e-01,4.68203e-02,-2.68119e-01,2.87782e-01,-3.55130e-02,-1.88840e-01,-1.33897e-01,-2.08484e-01,2.22036e-01,1.42033e-02,-2.10387e-02,-3.66571e-01,
-1.50282e-01,-3.74702e-01,-4.00875e-01,3.18499e-01,4.77186e-01,4.88317e-01,1.09004e-01,-5.37732e-02,4.45031e-01,-1.39412e-01,1.25973e-01,-3.63349e-01,-3.17935e-01,
-1.43194e-01,1.91458e-01,2.88578e-02,3.67833e-02,1.12640e-01,-1.27153e-01,1.46066e+00,1.77455e-01,-3.84210e-01,2.42556e+00,3.30361e-01,-1.17744e-01,1.38852e-01,
-3.73760e-01,-3.66103e-02,-1.12827e-01,-1.07603e-02,1.15200e+00,-1.35660e-02,-1.25336e-01,3.92352e-02,-1.19053e-01,-2.70767e+00,-3.93391e-01,2.72288e-01,1.36359e-01,
2.93927e-01,5.08741e-01,-7.27599e-02,-1.36883e-01,9.09541e-02,4.57360e-02,-1.96602e+00,2.80102e-01,3.03681e-01,1.04946e+00,-2.58574e-01,1.48488e-01,-3.27491e-01,
7.94900e-02,-2.85241e-01,-4.40371e-02,4.85497e-01,-2.74959e-01,-1.08228e-02,-2.06738e+00,3.48774e-02,1.58984e-01,2.95269e+00,1.48110e-01,8.26341e-02,1.47065e-01,
2.91433e-01,2.69179e-03,-2.00352e-01,1.56855e-01,-5.03025e-01,2.05240e-02,2.15006e+00,6.21266e-02,-5.03752e-01,-2.41073e+00,-1.58755e-01,1.11595e-01,-1.07680e-01,
-4.12367e-01,-1.03426e-01,9.96192e-02,-3.56634e-01,8.50578e-01,-2.36873e-01,3.68940e-01,9.06478e-02,-2.75004e-01,-1.63065e+00,2.34334e-01,-2.20907e-01,4.01641e-01,
-2.82757e-01,-3.07139e-01,-6.06554e-02,1.90822e-01,-1.83319e-01,-1.65439e-01,1.70667e-01,4.78224e-01,8.39531e-02,1.27468e-01,4.44153e-01,-8.73723e-02,-3.86396e-01,
-4.15518e-01,
0.00000e+00,
0.00000e+00,
-3.71013e-01,
3.53704e-01,
6.23680e-02,
-5.18957e-01,
1.72042e-01,
5.12189e-03,
0.00000e+00,
2.05825e-01,-2.61150e-01,-3.96509e-01,-5.32636e-01,-1.08260e-01,-3.25336e-01,-4.95522e-01,-3.71306e-01,-3.84287e-01,-7.16373e-02,
-2.79002e-02,2.16179e-01,-4.13881e-01,-3.76869e-02,3.30031e-01,-9.99708e-01,2.74171e-01,-3.18222e-01,8.37727e-01,-2.22827e-01,
5.21953e-01,-4.16679e-01,8.26504e-02,6.02043e-01,-3.87319e-01,-3.45782e-01,2.62017e-01,1.01968e-01,2.63911e-01,3.82384e-01,
-4.46152e-01,3.81691e-02,4.83878e-01,1.20672e-01,2.27494e-01,3.82215e-01,-6.48222e-01,5.05722e-02,3.47886e-02,-3.22541e-01,
-1.27930e-01,2.35408e-01,4.58617e-01,5.29642e-01,2.84551e-01,-4.82420e-01,2.81504e-01,1.72603e-01,4.57986e-01,-1.20251e-01,
4.70712e-01,4.10811e-01,1.06351e-01,5.04299e-01,-4.19198e-01,1.11599e-01,5.55939e-01,-1.53303e-01,-4.04635e-01,9.95979e-02,
3.75639e-01,-1.75627e-01,1.21538e-01,-3.44489e-01,1.31105e-01,1.23118e-01,4.65861e-02,2.70130e-01,-2.07752e-01,4.14924e-01,
4.85274e-01,-3.57360e-01,3.51487e-01,7.42530e-01,2.85009e-01,3.21798e-01,3.93901e-02,-3.30745e-01,-3.27773e-02,2.40699e-01,
-3.71838e-01,-6.36978e-02,3.64452e-01,-1.04260e-01,5.41938e-02,-2.61625e-01,5.12932e-01,-7.37766e-02,4.99424e-01,-4.38756e-01,
-4.65811e-02,4.39083e-01,4.28960e-01,-3.62538e-01,1.86951e-01,3.83548e-01,4.52067e-01,-5.07112e-01,-8.16907e-02,4.90842e-01,
0.00000e+00,
1.45632e-01,
-6.83902e-01,
-1.63273e-01,
-3.84452e-01,
-3.46233e-01,
1.16964e-01,
-8.97791e-02,
5.61251e-01,
-5.25480e-01,
2.64405e-01,5.04838e-01,1.10726e-01,-9.17850e-01,-5.44581e-01,1.66531e-01,-6.75956e-01,2.95278e-01,1.16934e-01,-8.29022e-02,
1.40815e-01,-1.61541e-01,-3.54796e-01,5.76404e-01,-4.50711e-01,1.11512e-01,-1.02483e-01,3.89544e-01,-1.68811e-01,4.44411e-01,
-5.28679e-01,6.07474e-01,3.64559e-01,2.28024e-01,-3.35781e-02,-7.82677e-01,-2.70262e-01,4.05997e-01,5.56247e-01,-3.58881e-01,
-1.71826e-01,-4.23141e-01,-2.22608e-01,3.21552e-01,-3.34411e-01,-1.11657e-01,4.97516e-01,4.71570e-01,-5.85386e-01,-1.11383e-01,
1.16529e-02,2.91708e-01,-5.95505e-02,1.24084e-01,8.18496e-02,2.77998e-01,4.42474e-02,-3.90400e-01,5.96369e-03,-5.34745e-01,
-1.33914e-01,-2.53010e-01,4.27953e-01,3.82860e-01,-9.54951e-02,5.05870e-01,-2.11156e-01,2.40879e-01,-3.77329e-01,5.54484e-01,
-4.67519e-01,1.58387e-01,3.15955e-01,-2.92802e-01,2.39250e-01,7.20252e-03,2.57454e-01,-1.05476e-01,-4.57520e-01,2.85898e-01,
-5.24313e-01,4.13422e-01,-4.69651e-01,-2.78138e-02,-2.74227e-01,-2.30545e-01,-1.58040e-01,-2.32743e-02,-4.00817e-02,-4.07996e-01,
-2.33136e-01,-5.64006e-01,-2.12802e-01,-1.14394e-01,-5.89771e-02,3.29163e-01,1.07692e-01,-7.69102e-02,7.99664e-01,3.19576e-01,
-3.17004e-02,3.72934e-01,-4.97351e-01,2.45054e-01,-1.96150e-01,-6.44327e-01,8.27534e-02,5.66240e-01,-1.16888e-01,5.34260e-01,
-4.42252e-01,
4.29945e-01,
2.51385e-01,
3.48499e-01,
3.23552e-01,
-5.38936e-01,
-3.36628e-01,
-3.46649e-02,
1.38541e-01,
1.21273e-01,
1.83909e-01,1.82370e-01,5.60260e-02,2.58427e-01,-1.48234e-01,2.13271e-01,1.88079e-01,1.58129e-01,3.38797e-01,1.58130e-02,
-2.66536e-02,-1.50916e-01,-3.82282e-01,-3.62393e-01,-1.62587e-01,3.67148e-01,5.04223e-01,1.88150e-01,1.84769e-01,1.47061e-01,
4.08310e-01,4.31119e-01,-5.71119e-01,-1.80128e-01,-1.00463e+00,3.91135e-01,-5.04660e-01,-2.38302e-01,-6.04288e-01,-3.83140e-01,
-4.68969e-01,-1.35809e+00,-1.00686e-01,2.10465e-01,1.62863e-01,-1.35877e-01,4.50913e-01,1.52884e-01,-1.11363e+00,-2.40553e-01,
-3.42582e-01,5.58403e-02,4.12735e-01,-1.73538e-01,1.39770e-01,-1.64769e-01,3.88424e-01,-3.95626e-01,3.04880e-01,4.45303e-03,
-8.10568e-02,-3.91994e-01,-9.62614e-02,1.76597e-01,1.47892e-01,-2.95092e-01,-4.78253e-01,-5.41404e-02,-3.66781e-01,-2.15951e-01,
2.62108e-01,4.80913e-01,3.75889e-01,-1.88957e-01,3.16794e-01,-1.67040e-01,-2.83246e-01,-1.30179e-01,-2.48371e-01,6.38058e-01,
3.51441e-01,2.18377e-01,4.69326e-01,4.19360e-01,-1.69402e-01,-2.72463e-01,1.42427e-01,3.09769e-01,2.07692e-01,-2.03395e-01,
-1.56756e-01,-1.92414e-01,1.59841e-02,-2.24089e-01,-4.79009e-01,4.79868e-01,-2.47085e-01,-1.61676e-02,2.21156e-01,-5.98067e-01,
1.41926e-01,2.59357e-01,3.98310e-01,-8.10126e-01,-5.11983e-01,-2.49458e-01,-4.56649e-01,5.29032e-01,2.85509e-01,8.71390e-03,
-5.47607e-01,
-4.90471e-01,
-9.00696e-01,
-3.17656e-01,
-1.29407e-01,
-2.31708e-01,
1.72059e-02,
3.60324e-01,
-4.95415e-01,
5.05253e-02,
2.66629e-01,4.27375e-01,-1.02741e+00,-3.80114e-01,3.66333e-02,-1.95652e-01,2.34011e-02,8.64906e-02,2.73887e-01,-2.36296e-01,
5.28126e-02,-2.97746e-01,-4.70893e-01,-4.04010e-01,4.94979e-01,-2.74551e-01,5.92146e-02,1.00245e-01,-2.55163e-01,1.20873e-01,
-1.53365e-01,5.02016e-01,-6.46462e-01,1.61287e-01,1.55875e-01,3.79473e-01,-2.75542e-01,-8.56557e-01,-3.37392e-02,-4.10131e-01,
4.32141e-01,2.25808e-01,-1.02367e+00,4.50469e-01,5.28320e-01,3.79132e-01,-4.24959e-01,-1.23186e-01,2.46645e-01,-1.72357e-01,
1.46422e-01,-2.90573e-01,4.40965e-01,4.05840e-01,-4.46175e-01,-2.14192e-01,-2.89658e-01,-3.48464e-02,5.08124e-01,8.36320e-02,
-5.02768e-01,2.54733e-01,2.71312e-01,-1.91860e-01,-4.78495e-01,-2.35069e-01,-4.23820e-01,-4.36703e-01,-1.57582e-01,1.24284e-01,
1.02944e-01,2.75739e-01,-6.46640e-01,4.80573e-01,-4.30753e-01,-1.78541e-01,-6.42799e-02,-2.39577e-01,3.70591e-01,-4.90338e-01,
-2.40919e-01,5.86078e-02,-3.16354e-01,5.20216e-01,5.42036e-01,1.22777e-01,6.32418e-02,-1.04821e-01,4.51406e-01,2.03966e-01,
-5.77894e-01,-2.29323e-02,3.93657e-01,-3.38980e-01,1.92033e-01,-4.27210e-02,1.56201e-01,-5.22550e-01,-3.98974e-02,-1.22975e-01,
3.97526e-01,-2.97085e-02,-4.07798e-01,6.12887e-01,-2.89211e-01,5.83206e-04,-3.36402e-01,4.09290e-01,-2.71912e-01,3.11620e-01,
-3.20911e-01,
4.64942e-01,
-1.37249e-01,
-3.72589e-01,
4.69751e-01,
-1.95813e-01,
-4.50530e-01,
-2.88619e-01,
-1.12925e-01,
-2.56499e-01,
5.21578e-01,4.30370e-01,1.31277e-01,2.32837e-01,9.41352e-02,1.45399e-01,-1.05793e-02,-6.71168e-01,4.68021e-01,1.84356e-01,
-5.08490e-01,-4.13743e-01,1.76692e-01,-2.36862e-01,3.45989e-01,-1.52255e-01,4.24348e-01,-2.72168e-01,-5.35924e-01,-4.53117e-01,
-1.33687e-01,-3.33226e-01,2.55077e-01,5.11153e-01,-3.29871e-01,-2.57640e-02,5.00298e-01,5.35986e-01,-5.18313e-01,2.58861e-01,
-3.96236e-01,3.85207e-01,-1.58576e-01,1.28379e-01,1.64855e-01,8.57596e-02,3.37219e-01,-5.25832e-01,-4.14814e-01,-1.92922e-01,
2.97490e-01,-5.70206e-01,6.00621e-01,2.41082e-01,-2.27074e-01,5.74309e-02,-5.70088e-02,3.61795e-01,-2.26096e-01,-3.77851e-01,
1.35140e-01,-7.70482e-01,4.92922e-01,4.26722e-02,9.10762e-02,8.99480e-02,2.92495e-01,-3.30874e-01,2.39717e-01,2.05263e-01,
-5.18071e-01,-4.35974e-03,4.24326e-01,3.41379e-01,1.23236e-01,4.41238e-01,6.12665e-01,-3.44915e-01,3.24621e-01,6.51320e-02,
-4.28759e-01,2.65881e-01,4.65000e-01,-2.19401e-01,-7.57712e-02,1.33724e-02,-5.72149e-02,4.22244e-01,-1.18692e-01,-2.47941e-01,
-2.76506e-01,3.47624e-01,4.47979e-01,-1.18185e-01,4.14508e-01,-4.43001e-01,-3.80103e-01,3.64191e-01,-1.24182e-02,-3.95486e-01,
2.40474e-01,1.27279e-01,-4.27572e-02,4.83012e-01,-3.13754e-01,1.10962e-02,-9.41237e-02,2.41021e-01,3.97042e-01,-1.72600e-02,
1.59533e-01,
-1.56787e-02,
-3.85347e-01,
3.64873e-01,
-3.26532e-01,
-7.19307e-01,
-2.09966e-01,
1.04753e-01,
3.58908e-01,
-1.95970e-01,
-1.06480e-01,4.24566e-01,-1.19003e-01,4.16005e-01,-2.48525e-01,1.75410e-01,7.40573e-02,2.86616e-01,5.31893e-01,2.27871e-01,
-1.21310e-01,-4.15539e-01,-1.85506e-01,-1.40290e-01,6.20268e-01,-4.93784e-02,1.42578e-01,-4.53595e-01,3.00250e-01,-3.44019e-01,
1.55233e-01,5.97034e-01,4.77249e-01,1.64980e-01,2.58022e-01,5.31563e-01,1.63860e-01,4.91702e-02,-1.80321e-01,4.25533e-01,
-6.33633e-01,3.98621e-01,3.94806e-01,-4.38062e-01,2.65187e-01,8.96875e-02,4.47312e-01,5.63717e-01,-3.74589e-01,1.19099e-01,
-1.52601e-01,-1.46541e-01,-4.84861e-01,4.87065e-01,-8.90621e-02,-4.72857e-01,1.89850e-01,1.97577e-01,-3.35519e-02,3.65383e-01,
-1.49713e-01,-4.91176e-01,-6.61832e-02,-5.85811e-01,1.40951e-01,1.15214e-01,-5.39015e-01,3.03404e-01,6.37482e-01,-8.50883e-01,
3.35823e-01,-3.95665e-01,-5.76679e-01,1.65732e-02,2.11198e-01,-3.87794e-01,-2.04971e-01,6.66967e-01,3.77134e-01,-4.76028e-01,
-3.00813e-01,4.03532e-01,3.53769e-01,4.53172e-01,-7.32783e-02,3.06611e-01,3.01106e-01,9.39198e-02,2.73115e-01,-3.31814e-01,
-9.72614e-01,-5.23838e-01,4.00615e-01,3.18963e-01,3.54875e-01,-4.79410e-01,-5.91341e-01,2.89785e-01,-5.73404e-02,-7.48507e-02,
-4.00490e-01,3.57810e-01,-7.73130e-02,-4.49005e-01,-4.41832e-01,4.90854e-01,3.70363e-01,-2.76101e-03,1.35749e-01,-4.69733e-01,
3.89250e-01,
3.78169e-01,
-2.56120e-01,
-3.02161e-01,
1.71233e-01,
-1.86724e-01,
4.76212e-01,
4.07416e-02,
-6.92876e-02,
3.45954e-02,
-3.29736e-01,2.24820e-01,4.22273e-01,1.46054e-01,3.61757e-01,4.15072e-01,3.80396e-01,3.53160e-01,-2.12717e-01,1.50096e-01,
1.46331e-01,-1.53976e-03,-5.66724e-01,-2.97127e-01,3.62555e-01,1.21058e+00,-2.74012e-01,7.53804e-01,-4.56307e-01,5.10431e-02,
-2.48493e-01,4.81090e-01,-7.92647e-01,-2.47436e-01,-1.78381e-01,1.63173e-01,5.98995e-01,6.79515e-01,-4.26332e-01,5.13569e-01,
2.44986e-01,3.82883e-01,7.63036e-02,-5.89679e-01,1.28215e-01,9.69474e-02,5.39201e-01,-7.42997e-01,3.01554e-02,2.30762e-01,
1.39164e-01,3.35497e-01,-1.50946e-01,3.47462e-01,-2.35222e-01,2.40828e-01,-4.77820e-01,3.78458e-01,7.97711e-01,3.10128e-01,
-1.61761e-01,-2.87059e-01,5.02378e-01,2.87158e-02,3.67933e-01,4.09724e-01,-1.63729e-01,-1.23626e-01,-6.77038e-02,-8.49771e-02,
2.37794e-01,1.91874e-01,-4.98927e-01,-4.34428e-01,1.15930e-01,8.04088e-01,5.25177e-01,-1.05105e-01,1.54513e-01,-5.01600e-01,
4.03305e-01,7.10100e-01,-2.17839e-01,-1.55413e-01,3.63362e-01,3.27976e-01,3.53549e-01,-3.88129e-01,-2.80873e-01,2.61098e-02,
-2.60522e-01,4.18774e-01,-4.74262e-01,-1.60170e-01,-4.25260e-01,-3.17512e-02,5.09353e-01,5.92736e-01,-4.40755e-01,1.58931e-01,
-4.15512e-01,2.92545e-01,1.79871e-01,2.92304e-01,1.17841e-01,-2.06572e-01,9.78570e-01,-4.70017e-01,-1.02778e-01,3.63265e-01,
-2.16852e-01,
3.34886e-01,
6.96113e-02,
-1.18787e-01,
-1.05170e-01,
-2.25818e-01,
4.81887e-01,
3.83592e-01,
2.12626e-01,
-6.55315e-02,
-2.81058e-01,2.68572e-01,3.10878e-01,5.12132e-01,2.48341e-01,-1.21059e-01,5.61629e-02,3.08360e-01,-6.33596e-04,5.16558e-01,
4.11107e-01,-5.86178e-01,2.56205e-01,5.52657e-01,4.72324e-01,3.32096e-01,-2.05736e-01,-6.88314e-02,1.05091e-01,1.62859e-01,
1.72365e-01,-2.85441e-01,3.74795e-01,1.06285e-01,-9.43006e-02,-2.60712e-01,-3.09929e-01,-2.27863e-01,2.58298e-01,-4.45155e-01,
8.40733e-03,6.54139e-01,8.59587e-01,3.21723e-01,-6.20934e-01,-2.25380e-01,3.48633e-01,5.32339e-01,2.61378e-01,-1.36295e-03,
1.14744e-01,-4.50025e-01,-2.14195e-01,3.31362e-01,4.96216e-01,-5.83376e-01,-3.64771e-01,4.35274e-01,-5.59311e-01,4.00688e-01,
5.79571e-01,-2.30495e-01,9.45092e-02,5.91812e-01,5.51001e-01,1.96671e-01,6.76206e-04,-1.12482e-01,-5.12690e-01,6.21898e-01,
-3.04170e-01,3.90216e-01,-2.12631e-01,-3.09566e-03,-2.08053e-01,-6.84465e-02,8.66874e-01,5.08094e-01,6.80464e-01,4.39956e-01,
-2.42513e-03,2.29520e-01,-4.16414e-01,3.97967e-01,5.80116e-01,2.11672e-01,-4.67155e-02,2.06559e-01,-4.92545e-01,4.98982e-01,
-3.96546e-01,-2.05808e-01,-4.36228e-01,-5.61115e-01,-1.07834e-01,-6.58696e-02,1.65353e-01,-1.09967e-01,4.30686e-01,-1.29332e-01,
-3.42708e-01,-3.25736e-01,4.46470e-01,-1.67999e-01,-3.38973e-02,4.11609e-02,-2.93022e-01,-3.72700e-01,1.09310e-01,6.62072e-02,
3.27927e-01,
-1.50974e-01,
-1.12771e-01,
3.15776e-01,
-3.36255e-01,
-2.39311e-01,
2.65021e-01,
-2.10523e-01,
-8.36847e-02,
-1.06796e-02,
-5.60390e-01,4.97284e-01,-3.92585e-02,-6.92289e-01,8.15219e-03,4.37631e-01,-6.79280e-01,4.94987e-01,2.71979e-01,2.58138e-01,
-2.61498e-01,
