// Neural Network File Format by Kyle Julian, Stanford 2016
10,13,1,13,
13,5,5,5,5,5,5,5,5,5,1,
0,
10,0,0,1,0,0,0,0,0,0,0,1,0,
100,6,15,16,6,13,5,4,1,19,19,100,40,
10,0,0,1,0,0,0,0,0,0,0,1,0,0,
90,6,15,15,6,13,5,4,1,19,19,99,40,1,
-3.03891e-01,5.09844e-01,-4.88993e-01,-3.56860e-01,2.37112e-01,1.56540e-02,2.44897e-01,4.56623e-02,-5.54614e-01,-4.49681e-01,-3.79934e-01,8.70041e-02,-4.35717e-01,
2.77298e-02,2.56907e-01,6.18540e-02,-2.92945e-01,2.48981e-01,3.67144e-02,3.14654e+00,1.92788e-01,-6.12118e-01,-4.22909e+00,-2.20939e-01,2.36715e-02,-3.18431e-02,
-7.18771e-02,9.44446e-02,-2.12819e-01,-5.11787e-01,-1.76906e-01,-5.46860e-02,-9.13537e-02,-1.49609e-01,-1.00011e+00,-3.80312e+00,-1.26113e-01,-1.41359e-01,5.03895e-01,
-1.59515e-01,1.58451e-01,5.14004e-02,1.28141e-01,4.62558e-01,-1.00021e-01,1.39546e+00,-9.62700e-02,-1.29900e+00,2.80181e+00,1.54419e-01,-1.09536e-01,1.28540e-01,
-3.64296e-01,3.91016e-01,3.90915e-01,1.30614e-01,1.69579e+00,-9.10608e-02,2.99428e-01,-2.31295e-01,-1.01531e+00,-2.26188e+00,-1.46195e-01,-1.16851e-01,2.89135e-01,
0.00000e+00,
1.20611e+00,
6.43875e-01,
-4.97159e-01,
7.29486e-01,
7.29966e-01,-3.15426e-01,4.25241e-01,-9.04076e-01,-1.54015e+00,
-5.14619e-01,2.37411e-01,-1.25300e-01,6.95212e-01,-2.94205e-01,
4.91390e-01,5.67143e-01,7.40507e-01,-5.26956e-02,2.49648e-01,
-7.43028e-01,5.61844e-01,4.67648e-01,-3.34231e-01,-8.57005e-01,
-3.53950e-01,-3.45716e-01,-9.46894e-02,9.36856e-01,-3.36780e-01,
6.00949e-01,
-1.22017e+00,
9.29736e-02,
-4.83865e-02,
4.67808e-02,
-3.63878e-01,-1.63233e-01,-2.88128e-01,6.05978e-02,3.75327e-01,
-3.27244e-01,-4.70651e-01,-3.19953e-01,-6.69592e-01,-1.67419e-01,
2.89880e-01,7.91904e-01,8.93273e-02,-5.19131e-02,1.13427e+00,
-2.75172e-01,-9.64639e-01,7.67668e-01,-3.51679e-01,-6.36365e-01,
-1.32503e-01,-5.40527e-01,6.75322e-01,7.70104e-01,-9.56200e-01,
3.30598e-01,
0.00000e+00,
-2.05341e-01,
1.34208e-01,
1.16766e-01,
3.81397e-01,-8.36249e-02,9.57559e-01,-2.02812e-03,5.25522e-02,
-6.12833e-01,-6.59989e-01,-2.17585e-01,3.32352e-01,2.86122e-01,
-1.06928e+00,7.78260e-02,-1.27503e-01,2.12507e-01,7.67825e-01,
-1.16308e+00,6.51174e-01,-9.97737e-01,2.86876e-01,2.11810e-01,
-3.55143e-01,2.05458e-01,-3.56035e-01,6.67300e-01,5.38506e-02,
-5.72591e-01,
1.09482e-01,
1.41892e-01,
1.18398e-01,
8.64860e-02,
-1.08327e+00,5.42237e-01,8.81232e-01,2.83943e-01,9.47486e-01,
-1.23062e+00,3.68664e-01,2.25768e-01,8.95908e-01,8.00977e-01,
-1.03310e+00,5.40310e-01,1.41831e-02,3.56067e-01,7.17479e-01,
-4.28030e-01,-2.05122e-01,-3.32645e-01,-4.94215e-01,-5.06710e-01,
9.10215e-02,1.63988e-01,-2.27784e-01,-4.88702e-01,4.04081e-01,
1.13645e-01,
2.64062e-02,
-8.25263e-03,
0.00000e+00,
1.26922e-02,
2.05864e-01,-3.12928e-01,-3.56054e-01,-7.05594e-01,-3.57041e-01,
3.97453e-01,-2.17203e-01,-9.18971e-02,-6.58208e-01,-4.23335e-01,
2.77863e-01,-8.72305e-01,-2.92456e-01,-6.81779e-02,6.22564e-01,
7.06551e-01,3.27188e-01,8.12205e-01,-6.12137e-01,3.04475e-01,
-7.59832e-01,3.01414e-01,4.74002e-01,5.70537e-01,2.25196e-01,
-1.79147e-01,
-4.52632e-02,
3.20938e-01,
6.30889e-02,
-3.56263e-01,
-7.57099e-01,-3.03624e-01,-5.74624e-01,9.08406e-01,2.32526e-03,
-1.91319e-01,-4.86737e-01,-6.17507e-01,-7.05211e-01,-5.71187e-01,
5.80325e-01,-7.63881e-02,4.43945e-01,-5.12545e-01,1.19574e-01,
-6.11669e-02,-8.09497e-01,1.56557e-01,1.18009e-01,8.86471e-03,
-1.16130e-01,-1.92707e-01,-4.34421e-01,-5.92490e-01,-3.29543e-01,
1.05999e-01,
0.00000e+00,
2.14452e-01,
3.04592e-01,
0.00000e+00,
-1.57827e-01,3.09760e-01,-6.64425e-01,5.89963e-01,-2.86293e-01,
-7.35576e-01,3.88942e-02,3.56665e-01,8.17514e-01,-5.51112e-01,
5.27568e-01,-3.30319e-01,-9.91931e-01,-6.41266e-01,2.41446e-02,
4.46296e-01,1.84803e-01,8.61800e-01,4.66275e-01,9.36424e-02,
-5.06703e-02,5.85234e-01,1.54975e+00,8.27522e-01,-7.95625e-02,
-1.51788e-01,
2.77647e-01,
3.57048e-02,
2.41334e-01,
3.04266e-01,
2.00169e-01,-1.12705e+00,6.58372e-01,5.93065e-01,3.63219e-01,
1.79111e-01,5.63444e-02,-7.20070e-01,3.19705e-01,-2.29032e-01,
-5.52370e-01,8.86348e-01,-2.87163e-01,2.64000e-01,7.49200e-01,
-2.37140e-01,5.35787e-01,-5.78846e-01,3.78166e-02,-3.01656e-01,
5.57525e-01,-5.97152e-01,-6.48676e-01,-7.71949e-02,-7.11120e-01,
4.65416e-02,
-8.53588e-02,
1.85608e-01,
-9.58615e-02,
0.00000e+00,
-5.92308e-01,-8.20313e-01,1.26990e+00,-1.01237e-01,-2.67628e-01,
6.82888e-01,
