// Neural Network File Format by Kyle Julian, Stanford 2016
3,13,1,16,
13,16,8,1,
0,
10,0,0,1,0,0,0,0,0,0,0,1,0,
100,6,15,16,6,13,5,4,1,19,19,100,40,
10,0,0,1,0,0,0,0,0,0,0,1,0,0,
90,6,15,15,6,13,5,4,1,19,19,99,40,1,
1.32140e-01,-3.89455e-01,1.40415e-01,-4.04624e-02,1.35371e-01,-2.79758e-01,1.09346e+00,-3.44329e-01,3.00036e+03,-7.87490e-01,-2.34998e-01,4.17969e-02,-3.32857e-01,
-6.03885e-02,8.09841e-02,-1.11016e-01,-4.11772e-01,-1.49030e-01,-1.04911e-01,4.19049e-01,-1.72169e-01,2.99965e+03,-8.74015e-01,-5.27833e-01,-4.36861e-01,-2.80776e-01,
-1.38808e-01,1.85624e-01,-1.37996e-01,-1.48266e-01,-1.94186e-01,4.78543e-01,4.08766e-01,3.75064e-01,2.99967e+03,-1.13694e+00,-2.15842e-01,-4.04257e-01,-3.35884e-01,
-5.73529e-02,-2.29493e-01,-4.09977e-01,-2.95251e-01,2.54780e-01,-2.70137e-01,8.86654e-01,2.19095e-01,2.99976e+03,-5.84120e-01,-1.46519e-01,-1.50429e-01,2.31010e-03,
-4.32052e-01,2.68923e-01,1.80257e-01,1.88542e-01,5.51878e-01,-8.55748e-02,6.59194e-01,1.09962e-01,3.00000e+03,-5.08945e-01,-3.63146e-03,4.86836e-02,-3.34347e-01,
1.04628e-01,-7.75670e-02,3.42350e-01,4.39536e-01,-3.93926e-02,-1.88167e-01,3.42224e-01,7.32984e-02,3.00019e+03,1.48063e+00,3.15811e-01,-3.37096e-01,1.08379e-01,
1.34429e-01,-4.81100e-01,-1.04601e-01,2.23554e-02,-3.70004e-01,-5.23357e-01,-5.58131e-01,-1.88728e-01,3.00001e+03,1.17794e+00,-8.47876e-02,-1.75457e-01,-1.04469e-02,
3.16335e-01,6.80840e-02,2.69629e-01,5.02397e-01,-3.02160e-01,2.31279e-01,-5.17476e-01,-9.91410e-02,3.00005e+03,4.91649e-01,3.86709e-01,-1.02027e-01,-1.06073e-01,
-2.50319e-01,6.71146e-02,-1.19059e-01,2.36098e-01,-1.99421e-01,4.02122e-02,-1.11345e+00,-3.57444e-01,3.00007e+03,1.33420e+00,-1.04308e-01,2.80387e-01,2.15547e-01,
-2.58828e-01,-2.25960e-01,3.73098e-01,-4.49252e-02,-4.43095e-01,-2.45006e-02,-1.03067e+00,-3.30180e-01,2.99976e+03,1.24606e+00,3.89284e-01,-8.29620e-02,3.68451e-01,
-1.23143e-01,2.26463e-01,3.64818e-01,2.95754e-02,2.70504e-01,-1.16985e-01,4.50017e-01,-2.27007e-01,3.00037e+03,-1.19423e+00,-4.26535e-01,-2.14858e-01,3.92506e-01,
1.84490e-01,-3.42310e-01,-2.73731e-01,8.24409e-02,2.13537e-02,1.01492e-01,-1.18047e+00,1.66977e-01,3.00033e+03,6.00607e-01,3.90649e-01,-3.95154e-01,-1.34281e-02,
-3.64922e-01,2.02763e-01,3.33203e-01,-1.55584e-02,1.42618e-01,-2.58636e-01,-3.50677e-01,1.53034e-01,3.00021e+03,1.17732e+00,-6.89933e-02,4.64073e-02,4.40198e-02,
7.94479e-02,4.91776e-02,6.06739e-02,-3.56082e-01,3.38616e-02,-2.54099e-01,1.00549e+00,-1.94042e-01,3.00003e+03,-6.35308e-01,-2.69241e-01,-6.82092e-02,4.46953e-01,
-3.29251e-03,4.36531e-01,-4.27289e-03,6.05663e-02,1.42187e-01,-6.68912e-02,1.01481e+00,1.00777e-01,2.99974e+03,-5.90216e-01,3.86596e-02,2.87840e-01,-1.73010e-01,
3.77770e-01,-2.86522e-01,-1.68696e-01,4.60145e-01,3.02117e-01,2.21003e-01,-7.97534e-01,2.11269e-02,2.99955e+03,1.21145e+00,2.32166e-01,-1.29671e-01,-1.07956e-01,
-1.15600e-02,
-3.81474e-03,
-2.05957e-03,
-2.18116e-02,
-4.67502e-03,
-6.56124e-02,
-6.98290e-02,
-3.16295e-02,
-1.38649e-02,
-1.46514e-02,
7.30107e-02,
-1.60645e-02,
-5.74056e-02,
4.46891e-02,
1.51860e-03,
1.58053e-02,
1.88480e-01,-1.50821e-01,-1.60258e-01,4.18504e-01,7.58493e-02,-9.84098e-02,-2.50733e-02,1.56934e-01,3.61877e-01,1.16556e-01,-3.50866e-01,1.33075e-01,3.79037e-01,1.16917e-01,-4.27420e-01,-2.60062e-01,
-1.54479e-02,4.65491e-02,-3.26713e-01,9.63734e-02,1.85878e-01,1.66033e-01,3.64328e-01,4.25710e-01,4.70301e-01,1.03034e-01,3.58885e-01,3.40951e-01,2.19431e-01,4.70993e-02,2.98845e-01,2.24757e-01,
4.29443e-01,-2.39283e-01,-5.91782e-02,1.10138e-01,2.57954e-01,-3.37868e-01,-2.98180e-01,-2.62112e-01,1.76856e-01,1.29381e-01,4.15787e-01,-6.62968e-02,-4.01752e-01,4.35624e-01,-1.27074e-01,-6.46006e-02,
-2.50071e-01,1.95793e-01,3.99131e-01,3.19390e-01,4.06503e-01,-3.19842e-01,-3.87365e-01,3.34425e-01,6.23440e-02,1.96128e-02,2.85372e-03,-2.04975e-01,4.46183e-01,-3.02175e-01,2.98402e-01,4.07268e-02,
2.18092e-01,-3.94082e-01,-3.75533e-01,3.18922e-01,-1.03852e-01,4.57097e-01,-1.62426e-01,-4.65593e-01,1.12026e-01,3.05082e-01,3.51970e-01,3.35339e-01,-6.71108e-02,3.41421e-01,-4.38831e-01,4.36792e-01,
3.90022e-01,3.30005e-02,-3.79806e-01,3.89819e-01,3.73787e-01,-4.40945e-01,1.80132e-01,2.98242e-01,3.63241e-01,-2.96284e-01,2.01402e-01,-2.96296e-01,-1.66094e-01,-2.04210e-01,-3.39858e-02,8.97050e-03,
3.43240e-01,1.98053e-01,5.86056e-02,-5.03071e-01,2.23244e-02,7.53425e-02,-2.71213e-01,3.26549e-01,-2.61990e-01,-1.98082e-01,1.36072e-01,-5.78676e-02,-2.15360e-02,-2.75500e-01,-1.39561e-01,4.30590e-01,
2.47784e-01,3.74134e-01,4.40690e-01,-2.73119e-03,-7.44444e-02,4.85592e-01,3.15154e-01,-3.58324e-01,-3.90381e-01,-3.54635e-01,-1.50041e-01,9.00174e-02,2.88547e-01,8.97186e-02,-6.49149e-02,-3.95613e-01,
-6.47005e-02,
-7.44083e-02,
8.34098e-02,
5.45904e-02,
-6.36354e-02,
5.24582e-02,
2.05713e-01,
-1.08584e-03,
3.86539e-01,2.09452e-01,-7.50590e-01,-2.51218e-01,1.39918e-02,-1.88469e-01,-4.43125e-01,-7.73835e-01,
-7.33370e-02,
