// Neural Network File Format by Kyle Julian, Stanford 2016
6,13,1,64,
13,64,32,16,8,4,1,
0,
10,0,0,1,0,0,0,0,0,0,0,1,0,
100,6,15,16,6,13,5,4,1,19,19,100,40,
10,0,0,1,0,0,0,0,0,0,0,1,0,0,
90,6,15,15,6,13,5,4,1,19,19,99,40,1,
1.63816e-01,1.20724e-01,2.85731e-01,-2.52405e-01,6.00453e-02,-6.16223e-02,-4.50836e-01,2.70629e-01,2.99977e+03,-2.92403e-01,-7.70233e-02,-9.16844e-02,7.17432e-02,
-1.47996e-01,-1.72207e-01,-2.62567e-01,-3.46793e-01,3.07373e-01,-1.13529e-02,5.27869e-01,9.31758e-02,3.00013e+03,-8.99788e-01,-5.69479e-01,-9.79128e-02,-2.46337e-01,
-2.39084e-01,-2.30067e-01,-2.95726e-01,-4.28146e-01,2.14564e-01,-2.45828e-01,4.57002e-01,-2.84203e-01,2.99979e+03,-9.44878e-01,-5.94063e-01,5.71791e-02,-1.67820e-01,
-1.56963e-01,7.62718e-02,-2.44254e-01,-2.00617e-01,2.10514e-01,-2.15442e-01,2.14153e-01,1.54292e-01,3.00008e+03,-9.82901e-01,-1.21174e-01,7.85704e-02,1.99441e-02,
-4.07078e-01,2.51412e-01,-8.00304e-02,-4.21519e-01,1.46578e-01,1.32999e-01,9.82528e-01,-1.46260e-01,3.00020e+03,-9.41221e-01,-8.18307e-01,-1.09546e-01,-1.27822e-02,
9.76106e-02,1.89808e-01,1.40071e-01,-7.22170e-04,-1.23391e-01,1.13790e-01,-3.94764e-01,-2.79618e-02,3.00006e+03,-7.91245e-01,-6.36961e-02,2.66431e-02,-9.34944e-02,
7.97322e-02,-8.44520e-02,-5.28342e-02,-1.29826e-01,-3.60817e-02,1.71747e-01,-1.61772e-01,-1.95862e-01,3.00006e+03,-9.21509e-01,7.85149e-02,-3.85246e-02,1.38491e-01,
1.37052e-01,-1.06180e-01,-2.31502e-02,-7.21589e-02,-2.25442e-01,-7.65838e-02,7.41243e-02,2.00042e-01,2.99985e+03,-4.47466e-01,-2.13996e-01,-1.34960e-01,-4.04630e-02,
-2.68866e-01,-4.13661e-02,-1.59699e-02,3.42331e-02,3.37556e-01,-1.73020e-01,3.25221e-01,3.03563e-02,2.99998e+03,-3.41836e-01,-4.45979e-01,-3.38799e-01,-1.14775e-01,
-1.89340e-01,-1.43816e-01,-1.51136e-01,2.10050e-01,-4.26275e-02,-9.60359e-03,2.93683e-01,9.73182e-02,3.00030e+03,-1.04079e+00,-3.05717e-01,-4.32771e-02,-1.48857e-01,
-4.30882e-03,5.69911e-03,3.08445e-01,1.92914e-01,2.92812e-01,-1.98631e-01,6.56645e-02,-2.29841e-01,3.00022e+03,1.76609e-01,-6.47222e-02,9.19733e-02,3.28847e-01,
1.58199e-01,3.99350e-02,1.98217e-01,1.80643e-01,-1.49482e-01,2.13440e-03,1.31326e-01,-8.58636e-02,2.99985e+03,1.00991e+00,7.58218e-02,2.77326e-01,-5.25157e-02,
-2.70963e-01,2.74124e-01,8.12630e-02,-7.76425e-02,1.27797e-01,1.85105e-01,3.70036e-01,1.96824e-01,2.99983e+03,-1.29521e+00,-4.22890e-01,-1.85635e-02,3.08250e-01,
-9.72395e-02,-7.82093e-02,-3.69053e-02,5.28223e-02,3.19467e-01,-3.88549e-02,7.79601e-01,-2.01157e-01,2.99981e+03,-1.08179e+00,-7.39806e-01,-1.60299e-01,-1.34479e-01,
1.57894e-01,7.01574e-02,-9.45642e-02,-1.85165e-02,-5.89291e-02,-2.48208e-02,-1.17861e-01,-4.92907e-02,2.99991e+03,6.44267e-01,5.20013e-01,2.61038e-01,2.87000e-01,
2.17344e-01,2.05806e-01,-2.73172e-01,8.34635e-02,-2.19640e-01,-7.60336e-02,3.55577e-01,6.22818e-02,2.99996e+03,1.12726e+00,3.23381e-01,1.62958e-01,2.91856e-02,
-3.88198e-01,-1.74926e-01,4.21906e-02,8.11397e-02,3.79662e-01,1.61911e-01,7.76783e-01,1.70797e-01,3.00015e+03,-5.20299e-01,-4.52768e-01,-2.22390e-01,1.82379e-01,
-1.12972e-01,-8.53158e-02,-1.56723e-02,-4.13814e-01,1.51612e-01,-8.55994e-02,9.30131e-01,-4.88291e-02,2.99983e+03,-9.75713e-01,-4.34563e-01,-5.70563e-02,-4.43880e-02,
1.00228e-01,1.19856e-01,-1.10987e-01,3.64397e-01,3.79329e-02,-1.22128e-01,9.21942e-03,-8.04166e-02,3.00008e+03,1.28447e+00,3.41018e-03,-8.51116e-02,9.45628e-02,
-2.93119e-01,-1.91790e-01,1.35709e-01,-3.02088e-01,-1.79891e-02,1.79030e-01,4.42695e-01,-2.20440e-01,3.00016e+03,-1.10481e+00,-7.38626e-01,-2.73361e-01,-2.11860e-01,
1.64514e-01,-1.74632e-01,2.78167e-01,9.30787e-02,-5.06326e-02,1.62176e-01,2.84757e-01,1.47659e-01,3.00015e+03,1.10252e+00,2.50303e-03,2.77503e-01,-1.98897e-01,
1.05960e-01,-1.97501e-01,2.39423e-01,3.54859e-01,-1.46779e-01,2.29238e-01,-9.71607e-01,-2.49073e-01,2.99986e+03,8.93280e-01,8.16878e-01,-1.91061e-01,-1.66391e-01,
-1.48401e-01,-3.00586e-01,2.01882e-01,-1.23471e-01,-3.46202e-01,2.25397e-02,-7.39849e-01,1.05074e-01,3.00015e+03,6.23365e-01,2.17189e-01,-6.09144e-02,-1.90098e-02,
5.81942e-02,2.49234e-01,-2.79678e-01,2.15211e-02,-1.83254e-02,-6.46524e-02,-1.99023e-01,-2.31904e-01,3.00016e+03,-9.92618e-01,-2.24178e-01,-1.54506e-01,2.65650e-01,
1.70733e-01,3.11456e-02,2.64174e-01,-9.27131e-02,-2.83071e-01,1.09080e-01,-9.55331e-01,-1.12058e-01,3.00008e+03,7.65349e-01,1.94945e-01,-3.64612e-02,-1.31644e-01,
-2.04862e-01,5.48671e-02,1.37002e-01,-3.35773e-01,2.17047e-01,-1.95877e-01,7.98061e-01,-7.21089e-02,3.00014e+03,-1.07076e+00,-7.61194e-01,-2.79159e-01,-5.92757e-02,
9.87019e-03,1.52057e-02,-5.75626e-02,1.28052e-01,5.38738e-01,-5.71501e-02,1.79145e-01,1.53944e-01,3.00011e+03,-3.32009e-01,-3.27862e-01,7.63057e-02,-1.89969e-01,
-5.96557e-02,1.37863e-02,-1.74117e-01,3.60034e-01,1.22705e-01,-3.09823e-01,-4.00391e-01,1.02555e-01,2.99974e+03,9.33027e-01,1.44893e-01,1.44643e-01,1.49851e-01,
1.75256e-01,-4.89996e-02,1.16195e-01,-1.28462e-01,6.04790e-02,8.43665e-02,-1.86932e-01,-1.35694e-01,2.99990e+03,-5.20879e-01,3.16828e-01,-1.56523e-01,1.45903e-01,
-1.39987e-01,-2.54678e-01,8.37471e-02,-2.07886e-01,2.25419e-01,-1.58690e-01,5.09169e-01,-1.21870e-01,2.99980e+03,-5.69161e-01,-6.24946e-01,-1.47978e-01,-1.96227e-01,
2.74696e-01,-1.46900e-01,-2.12493e-01,-6.66133e-02,-1.20772e-02,-2.51457e-01,-4.61475e-01,-8.07308e-02,2.99992e+03,-2.13419e-01,-2.00562e-02,3.24509e-02,-4.06030e-02,
-8.98521e-02,1.54901e-01,2.47254e-01,-6.69522e-02,-2.03357e-01,1.07273e-01,-7.05724e-01,2.14890e-01,2.99985e+03,4.61436e-01,5.94481e-01,-1.40196e-01,-7.05476e-02,
1.25566e-01,2.02655e-01,-1.01849e-01,2.38797e-01,3.42879e-01,6.58587e-02,4.30276e-01,1.03958e-01,2.99994e+03,1.29799e-01,8.95174e-02,-2.02057e-01,-2.97711e-02,
1.48665e-02,-2.23253e-01,-2.14150e-01,-2.51727e-01,-6.94515e-02,2.68041e-01,-7.54551e-02,1.96581e-02,3.00018e+03,-4.36168e-01,6.93999e-03,-7.06638e-03,-4.98197e-02,
-2.45195e-02,-2.80667e-01,-5.40566e-02,1.75932e-01,1.91484e-01,-7.45252e-02,1.22003e-02,1.61464e-01,3.00007e+03,4.66379e-01,-5.04060e-01,-1.41298e-02,6.04658e-02,
-9.98084e-02,3.79997e-02,1.99749e-02,-1.73981e-01,-8.59787e-02,-2.56268e-01,-4.91881e-01,2.48717e-01,3.00020e+03,5.11869e-01,5.73964e-01,5.88786e-02,-2.92763e-01,
2.04619e-01,-6.52065e-02,7.79109e-02,-1.36917e-01,1.32518e-01,1.21763e-01,-3.15177e-01,-1.52014e-01,3.00010e+03,2.15989e-01,3.06592e-01,2.23967e-03,-1.26197e-01,
2.82088e-01,-4.51204e-02,2.25415e-01,-2.38992e-02,-1.90392e-01,-1.53535e-01,-5.55362e-01,1.52279e-01,2.99999e+03,7.44493e-01,4.75934e-01,-5.05644e-02,-1.87444e-01,
-1.38016e-01,6.84021e-02,-1.42751e-01,-7.13098e-02,1.27362e-01,-3.08883e-01,-1.49122e-02,-2.23958e-01,2.99998e+03,-4.97247e-01,9.21732e-02,2.24082e-01,3.21203e-01,
8.90047e-02,2.83822e-01,2.53210e-01,7.46163e-02,2.84189e-01,2.27296e-01,-1.12246e-01,3.07053e-01,3.00011e+03,-5.47598e-01,-1.74266e-01,1.46171e-01,-2.39524e-02,
-1.42037e-01,-2.29757e-01,-1.75997e-01,1.87867e-01,-4.74330e-02,-6.02868e-02,1.48778e-02,-1.89331e-01,3.00027e+03,3.35890e-02,7.60008e-02,-3.09137e-02,5.51084e-02,
2.26815e-01,5.15567e-03,2.12094e-01,2.68692e-02,-7.66333e-02,-7.86869e-02,-1.16101e-01,-5.69916e-02,2.99978e+03,-7.35799e-01,1.54928e-01,3.03284e-01,-4.52422e-02,
2.68003e-01,-3.96000e-03,-2.53533e-01,-2.79498e-04,1.74559e-01,-4.46598e-02,2.76640e-01,2.08655e-02,3.00020e+03,7.28702e-01,3.24319e-01,1.63890e-01,-1.46056e-01,
-1.29912e-01,-2.53894e-01,1.89560e-01,3.35074e-01,-4.32197e-01,2.52347e-01,-8.72925e-01,-6.01290e-02,3.00016e+03,8.82081e-01,4.95155e-01,2.48208e-02,-1.98426e-01,
1.70483e-01,1.83216e-01,-1.33319e-01,-2.24476e-01,-1.42023e-01,5.65594e-03,-3.05375e-01,-1.41321e-01,3.00004e+03,5.71957e-01,2.41989e-01,-1.75956e-01,-1.01383e-02,
8.88263e-02,1.14741e-01,-1.71291e-01,2.56494e-01,-7.75769e-02,-1.71128e-01,2.43228e-01,-5.97901e-03,2.99974e+03,9.27184e-01,2.28971e-01,1.80305e-02,-3.23558e-02,
-6.03884e-02,5.78796e-02,-5.65176e-02,-1.09217e-01,-7.88111e-02,-1.58198e-01,3.15210e-01,4.08237e-02,3.00003e+03,-6.95285e-01,-6.15413e-01,-1.76094e-01,-1.22084e-01,
-1.67567e-01,-5.96328e-02,6.42240e-02,5.14548e-02,-4.39310e-02,-2.67385e-01,-6.55950e-01,2.13473e-01,2.99993e+03,3.62674e-01,1.07075e-01,1.47052e-01,-2.13329e-01,
1.15733e-01,-4.04444e-02,6.21424e-02,1.38985e-01,-3.32805e-01,-4.08890e-02,4.96327e-01,-1.39822e-02,3.00013e+03,-2.76499e-01,-2.65193e-01,1.91386e-01,-2.36790e-01,
-5.66840e-02,-4.61397e-02,-1.73027e-01,8.28745e-02,-6.36938e-02,-2.07704e-01,-9.91278e-02,-4.81157e-02,3.00008e+03,-1.06560e-01,1.40621e-01,2.59503e-01,1.34455e-01,
8.40710e-02,2.92332e-01,-2.16710e-01,-3.22697e-01,9.40240e-02,-2.51981e-01,-1.47829e-01,-5.45506e-02,3.00014e+03,-7.92829e-01,4.27899e-02,8.10464e-02,7.87913e-02,
5.48935e-02,1.20506e-01,-1.93348e-02,2.07650e-01,-1.26763e-01,8.87564e-02,-1.79557e-01,1.12983e-01,2.99979e+03,2.87246e-01,2.04865e-01,1.51711e-01,2.73491e-01,
2.77977e-01,7.69972e-02,4.56119e-02,1.67194e-01,-3.44949e-01,-1.88857e-01,1.58417e-01,4.68998e-03,3.00006e+03,6.44457e-01,6.30753e-02,-3.05115e-02,-9.14915e-03,
1.38289e-01,4.77437e-02,-3.03337e-01,-1.87456e-01,6.54253e-02,-6.54795e-02,-6.64764e-02,2.11943e-01,3.00004e+03,4.05247e-02,-1.39932e-02,-1.02708e-01,6.79497e-02,
3.17886e-02,-1.48115e-01,-8.01184e-02,1.56656e-01,-4.00915e-01,-1.91192e-01,-6.24569e-01,-2.13781e-01,2.99986e+03,1.13823e+00,5.18112e-01,2.32277e-01,-2.39620e-01,
1.89513e-01,4.60076e-02,-7.09546e-02,8.97267e-02,1.51359e-01,-1.92391e-01,-3.53918e-01,-8.37248e-02,3.00011e+03,-9.17103e-01,4.13958e-02,2.67597e-01,9.59603e-02,
-7.21582e-02,-2.01417e-01,1.35467e-01,1.41811e-01,1.58145e-02,1.89953e-01,-1.13649e-01,-1.24093e-02,3.00002e+03,-3.76641e-01,-7.32833e-02,1.42756e-01,-9.09029e-02,
-9.15130e-02,-2.14068e-01,-3.67998e-02,-8.54025e-02,-4.07152e-02,-1.06997e-01,-5.19816e-01,-1.80093e-02,2.99973e+03,5.26198e-01,5.91313e-01,2.00905e-01,3.45446e-02,
1.07364e-01,-1.57335e-01,-1.40712e-01,-6.27102e-02,4.03884e-01,2.06259e-01,1.50879e-01,4.75878e-02,3.00003e+03,-5.49883e-01,-1.75206e-01,-1.72117e-01,1.02595e-01,
-1.98765e-01,1.22840e-01,-3.23782e-01,-2.06475e-01,4.31845e-01,8.85079e-02,5.66639e-01,-1.61855e-01,3.00027e+03,-1.00811e+00,-2.37237e-01,-2.73775e-01,2.07643e-01,
7.22151e-03,9.98426e-02,1.00608e-01,2.04156e-02,-3.47099e-02,5.19600e-02,-1.06945e+00,-1.34953e-01,2.99989e+03,1.08675e+00,4.26566e-01,-1.68354e-01,5.68259e-02,
-2.39540e-01,-1.19204e-01,-1.02335e-01,-1.61210e-01,-6.39420e-02,-3.02871e-01,6.09022e-01,-7.48271e-02,3.00014e+03,-1.14663e+00,-4.62788e-01,-3.46877e-01,-1.29070e-02,
1.02323e-01,3.86704e-02,1.13088e-01,2.99180e-01,-1.33461e-01,-2.60451e-02,4.20811e-02,1.92931e-01,2.99994e+03,7.95450e-01,2.99591e-01,-7.20366e-02,-7.09934e-02,
-3.56857e-02,2.97197e-03,-1.96665e-01,-6.52566e-02,1.99773e-01,-8.65496e-02,9.61169e-01,7.76468e-02,2.99991e+03,-8.37309e-01,-4.74631e-01,-2.93640e-01,-7.81143e-02,
1.87067e-01,
7.57595e-04,
-2.83222e-02,
1.74585e-02,
-8.01678e-03,
1.73760e-01,
8.05364e-02,
-3.49825e-02,
-1.68933e-02,
2.91401e-02,
6.46401e-02,
-1.60550e-01,
1.13723e-01,
2.05478e-02,
1.79577e-02,
-1.41308e-01,
3.76703e-02,
2.14543e-02,
-1.90221e-01,
5.60534e-03,
-1.42222e-01,
-5.94369e-02,
-3.45597e-02,
9.01561e-02,
-4.73762e-02,
4.10527e-03,
1.84130e-01,
-9.75851e-02,
7.87869e-02,
-7.18836e-03,
9.63597e-02,
-3.29818e-02,
-5.80310e-02,
3.12910e-03,
-1.06424e-01,
-2.89882e-02,
-4.48289e-03,
-4.69194e-02,
9.29184e-02,
1.79612e-01,
-5.30923e-02,
2.34006e-01,
-1.37178e-01,
-1.78926e-02,
-5.27216e-02,
-1.84909e-01,
-4.46051e-03,
-4.19736e-02,
1.07611e-01,
1.33911e-01,
1.56118e-01,
1.75931e-02,
-8.58094e-02,
4.34468e-02,
-8.34790e-02,
1.47602e-01,
1.00712e-01,
6.03888e-04,
5.55720e-02,
1.36179e-02,
-1.85688e-02,
1.50855e-02,
-1.08537e-01,
-3.23790e-03,
1.01766e-01,4.53315e-02,1.88650e-01,1.97162e-01,1.48064e-01,-1.29813e-02,1.36683e-01,2.37699e-01,-8.15776e-02,-1.98304e-01,2.41414e-01,-9.18488e-02,6.33520e-02,1.48222e-01,-1.83662e-01,3.20360e-02,-4.38592e-02,2.39031e-02,2.05191e-01,9.84267e-02,1.94905e-02,4.54390e-02,8.92339e-02,7.48420e-02,-1.81806e-01,-8.28775e-02,1.03821e-01,-1.47883e-01,1.34255e-01,-4.56992e-02,5.99366e-02,1.00258e-01,2.18460e-01,-6.34122e-02,-4.67282e-02,6.03555e-02,-8.08335e-02,-1.90085e-01,2.45376e-01,2.13390e-01,1.21478e-01,-4.98547e-02,-2.21917e-02,1.22543e-01,1.42192e-01,6.85317e-02,1.37949e-01,-2.27507e-01,-1.11624e-01,-4.82816e-02,1.85555e-01,2.56265e-01,-1.36727e-01,2.47051e-01,-1.39284e-01,2.82940e-02,-1.80791e-01,-2.35155e-01,-6.46156e-02,6.36352e-02,1.84629e-01,-1.46417e-01,8.54498e-02,1.32840e-01,
9.72490e-03,1.11197e-01,2.53611e-01,1.27694e-01,2.34507e-01,-8.22604e-02,-2.06637e-02,2.46956e-01,1.66459e-01,1.56137e-01,1.19222e-02,-1.50128e-01,1.38028e-01,6.06332e-02,-2.29098e-01,-4.19431e-02,1.89899e-01,1.74278e-01,-1.16524e-01,1.42911e-01,3.33384e-02,-2.02207e-01,-1.80654e-01,2.39398e-01,6.47101e-03,-1.52863e-01,2.63410e-01,-2.03833e-01,5.12877e-02,-8.62277e-02,-2.07135e-01,-9.04821e-02,-1.45547e-01,1.42426e-01,1.67539e-01,9.13840e-03,1.17291e-01,-2.23764e-01,-1.94575e-01,1.90112e-01,4.98600e-02,6.46745e-02,-6.99126e-02,-6.65179e-02,-2.29074e-02,7.50081e-02,2.60485e-01,1.45835e-01,1.17773e-01,-1.94908e-01,-1.19497e-01,-1.67466e-01,8.97322e-02,1.63540e-01,-7.70847e-02,1.54384e-01,1.02485e-01,-2.00271e-01,1.23976e-01,2.56942e-02,-1.47014e-01,2.59275e-01,8.60597e-02,1.40517e-01,
1.77593e-01,1.29864e-01,8.89797e-02,-2.15886e-01,2.08161e-01,1.48353e-01,-7.35000e-02,-8.53978e-02,-1.08641e-01,-9.58660e-02,-1.51138e-01,-6.83390e-02,-1.23550e-01,-1.11178e-01,1.01197e-01,2.07044e-01,-4.25551e-03,6.62276e-02,5.99301e-02,-1.94910e-01,-8.29198e-02,-1.15393e-01,-2.27084e-01,1.01140e-01,-1.69225e-01,8.00428e-02,-1.31824e-02,-7.80355e-03,-2.92904e-02,-2.27098e-01,-2.54299e-01,-1.74422e-01,4.05866e-02,2.16627e-01,-4.67399e-02,-1.93322e-02,2.01776e-01,-4.58330e-02,-2.61072e-01,7.85477e-02,-2.29652e-01,1.93188e-01,-2.43802e-01,-5.81343e-02,2.06515e-01,-2.11723e-01,-1.91137e-01,-6.22157e-02,-1.09189e-01,-2.30834e-01,-1.73072e-01,8.32253e-02,-1.39598e-01,-2.32935e-01,-2.38011e-01,-2.12982e-01,-1.31464e-02,-1.36211e-02,-6.92916e-02,5.67154e-02,1.29984e-01,-2.15714e-01,-2.03049e-01,2.22651e-01,
-1.44962e-01,1.83551e-01,1.10900e-02,2.02993e-01,9.97416e-02,1.26185e-01,4.24337e-02,1.04629e-01,-7.62773e-02,-2.19146e-01,-1.90547e-01,-1.06387e-01,6.71453e-02,-1.36226e-01,-1.34329e-01,1.13825e-01,-6.04430e-02,-2.28709e-01,-8.39748e-02,1.67605e-02,-9.62536e-02,-1.23667e-01,1.02884e-01,-9.93006e-02,6.71840e-03,-2.61155e-01,-1.57004e-01,-6.68090e-03,2.23506e-01,-1.81427e-03,1.14953e-01,-2.22368e-02,4.31341e-02,9.93755e-02,2.17384e-01,1.85897e-01,5.57067e-02,2.24211e-01,1.73584e-01,2.19671e-01,1.51132e-02,-2.62064e-01,5.85715e-02,-2.14622e-01,5.98106e-02,1.08077e-01,1.71967e-02,1.48263e-01,-5.63095e-02,1.69319e-01,-2.48601e-01,-2.63028e-01,1.80269e-02,-1.23636e-01,8.14221e-02,-1.27210e-01,-1.53868e-01,2.05791e-02,5.71854e-02,1.70353e-01,-2.60070e-01,-2.23458e-01,-1.97961e-01,-8.40942e-02,
1.11256e-01,-4.54989e-02,6.26850e-02,-3.58423e-02,-8.36092e-02,-1.73221e-01,-2.07405e-01,6.26404e-02,-2.46184e-01,8.07565e-03,-1.97873e-01,1.82443e-02,-1.02281e-01,3.39767e-02,-1.05454e-01,-2.72650e-02,-2.25064e-01,-1.74215e-01,4.41762e-02,-6.91199e-02,2.18147e-01,-2.13248e-01,9.66908e-02,-2.37911e-02,2.13617e-01,9.16428e-02,-1.02620e-01,2.17258e-01,1.85829e-01,-1.72792e-01,1.03129e-01,-1.61513e-01,1.80557e-01,-2.24033e-01,-2.43407e-01,-2.13491e-01,5.38531e-02,-1.96961e-01,-2.37200e-02,1.36392e-01,2.20185e-01,-2.27494e-01,-3.91747e-02,-7.47300e-02,1.04999e-01,-7.10193e-02,-6.94754e-02,-8.86344e-02,7.21570e-02,-6.00588e-02,-7.36922e-02,-1.62555e-01,-9.74161e-02,-8.64123e-02,-1.83135e-01,1.14157e-01,1.64066e-01,-1.32346e-01,-1.81726e-01,1.91381e-01,1.99808e-01,1.90672e-01,-2.23212e-01,-8.04520e-02,
1.96284e-01,1.88258e-01,1.82658e-01,-8.19540e-02,1.99043e-01,4.85241e-04,-1.38085e-01,9.65589e-03,7.62855e-02,-8.09463e-02,-6.33659e-02,-1.90450e-01,8.87679e-02,-2.32166e-01,2.39186e-01,-1.33554e-01,-1.78732e-01,1.59891e-01,-1.69517e-01,-7.97594e-02,-2.24931e-01,1.70603e-01,1.64518e-01,-1.92018e-01,-9.72128e-03,1.91658e-01,-1.93049e-01,-1.32838e-02,-2.06639e-01,1.35475e-01,2.16164e-01,1.09563e-01,1.20224e-01,-1.40146e-01,-1.42870e-01,-6.34689e-02,5.74763e-02,-1.98243e-01,-6.34097e-02,-4.52397e-02,-1.97695e-01,1.86779e-01,-6.41600e-02,6.91082e-02,-1.37659e-01,1.85340e-01,-6.61628e-02,-1.71809e-01,-2.20732e-01,2.06892e-01,-2.49935e-01,-1.44964e-01,-1.22111e-01,1.49595e-01,-3.77063e-02,-8.05639e-02,1.80998e-01,2.38571e-01,-7.02220e-03,4.17991e-02,1.83794e-02,-6.39971e-02,-2.44105e-01,-2.19538e-02,
2.08341e-01,4.41224e-03,-1.84515e-01,-4.16029e-02,-9.38011e-02,2.23137e-03,-1.20008e-01,1.40544e-01,2.06272e-01,4.42551e-02,-1.97439e-01,-2.27813e-01,-2.98521e-02,2.84149e-02,1.69053e-01,1.55475e-01,-1.07053e-01,5.49341e-02,-1.53084e-01,2.27740e-01,-3.04722e-02,1.94805e-01,1.83521e-01,1.43961e-01,-1.28426e-01,-8.67213e-02,4.04266e-02,1.06502e-01,-2.04226e-01,8.34050e-02,-1.48247e-01,6.33370e-02,1.59551e-01,-5.01701e-02,2.32635e-02,-6.88200e-02,2.27946e-01,2.10878e-01,-1.30415e-01,-6.53975e-03,1.65054e-01,-9.41406e-02,8.52774e-02,1.94738e-02,7.87157e-02,-1.59691e-01,-1.90415e-01,8.16688e-02,2.03030e-01,-2.14044e-01,-1.73161e-01,-4.66074e-02,-7.69726e-02,-1.57404e-01,-1.89992e-02,-1.31565e-01,2.27831e-01,5.90640e-02,-2.24908e-01,-7.89561e-02,-1.33890e-01,-2.49883e-01,3.54745e-02,-2.38767e-01,
1.21604e-01,-4.04026e-02,-1.98559e-01,1.41161e-01,3.39591e-02,1.54720e-01,-2.23714e-01,-3.04692e-02,1.69939e-01,-1.76499e-01,4.74629e-02,-2.52401e-01,2.46238e-01,1.59978e-01,-1.21127e-01,-1.42836e-01,9.17958e-03,6.19084e-02,-1.99595e-01,-2.35692e-01,-8.27304e-02,-1.12836e-01,-3.50521e-02,9.20819e-02,7.75342e-02,-2.49793e-01,-1.30302e-01,7.85045e-02,-1.26379e-01,-5.22768e-02,9.86344e-02,1.50288e-01,8.40256e-02,-1.21507e-01,2.10700e-01,7.80334e-02,-1.56351e-01,-5.85756e-02,7.04946e-02,2.00841e-01,-2.28042e-01,1.44383e-01,1.53230e-01,-2.12777e-01,-2.50211e-01,-1.23784e-01,4.52803e-03,-1.48687e-01,5.92956e-02,9.86928e-02,4.84380e-02,2.07721e-01,2.13992e-01,2.38004e-01,1.58299e-02,9.41532e-02,2.25138e-01,6.13755e-02,8.49862e-02,1.54466e-01,-8.53703e-02,-2.17170e-01,-2.43070e-01,9.74206e-02,
-9.54513e-02,-6.92059e-02,3.83369e-02,3.87344e-02,2.27779e-01,-1.36602e-01,1.32756e-01,8.54095e-02,-1.96938e-01,-1.36433e-01,-1.84774e-01,9.67081e-02,1.95280e-01,8.44398e-02,-1.80540e-01,-2.10427e-01,-2.38889e-01,-2.40462e-01,3.53184e-02,8.25091e-02,-2.36646e-02,1.74499e-01,1.26083e-01,-5.73149e-02,2.95661e-02,2.97754e-02,-2.09199e-01,-9.78066e-02,-1.77273e-01,3.85121e-02,-5.15511e-02,-1.13151e-01,1.82314e-01,5.34651e-02,1.42565e-01,1.34549e-01,-1.79203e-01,1.67026e-01,-1.14027e-01,-2.25203e-01,-9.14836e-02,1.16234e-01,1.62882e-01,7.88754e-02,2.05680e-03,1.31514e-01,1.93462e-01,1.00101e-01,4.22780e-02,-3.25561e-02,7.50247e-02,1.38525e-01,-5.72313e-02,-2.02470e-01,-1.08250e-01,-2.29200e-01,7.73030e-02,8.63798e-02,-8.03183e-02,-1.68879e-02,-4.11873e-02,9.59774e-02,2.00349e-01,-5.54653e-02,
2.71031e-02,8.31162e-02,1.21974e-01,6.84753e-02,6.74902e-02,1.41284e-01,2.15968e-01,-1.82319e-01,1.12951e-03,9.60381e-02,-2.99921e-01,2.00365e-01,2.82629e-02,-9.12965e-02,-3.90940e-02,2.52084e-01,9.09536e-02,-1.25702e-01,-3.27943e-01,1.78564e-01,-1.41026e-01,2.27653e-01,-1.26678e-01,1.45473e-01,4.95789e-02,7.60749e-02,2.64621e-01,-7.64721e-02,5.96284e-02,-1.80579e-01,7.90822e-02,-1.19449e-01,-1.62024e-01,-1.48012e-02,-2.45649e-01,-2.25606e-01,-8.83697e-02,-1.86422e-01,-2.64195e-01,5.12914e-02,-1.10865e-01,1.18209e-02,-1.68837e-01,-2.31799e-01,1.53365e-01,9.69940e-03,9.77449e-02,3.50722e-02,5.93117e-02,2.04103e-01,2.09258e-01,-7.89949e-02,-1.09442e-01,-1.90855e-02,2.57830e-02,2.36455e-01,-5.79067e-02,-2.55645e-01,1.32489e-01,-3.70154e-01,-9.75093e-02,-1.46506e-02,1.60054e-01,-1.82763e-01,
-1.70054e-01,-1.95533e-01,-3.60294e-02,1.16635e-01,1.76707e-01,-1.86783e-01,1.17611e-01,-1.71974e-01,-2.68734e-02,-1.11373e-01,2.53357e-01,-1.81041e-02,1.29063e-01,-1.43345e-01,1.77290e-01,1.41909e-02,2.77250e-01,-2.79301e-01,-1.22999e-01,1.98954e-01,1.28441e-01,-5.56967e-02,-1.50681e-01,-1.10626e-01,1.18428e-01,-3.56413e-02,-4.24827e-01,4.29999e-02,-2.18202e-01,-1.45852e-01,-9.93181e-02,-2.50493e-01,5.32063e-02,-1.84813e-01,1.47491e-01,9.37977e-02,-1.10904e-01,-1.63659e-01,1.23346e-01,1.06097e-01,-1.43062e-01,5.79944e-02,4.06890e-02,-1.17868e-01,-1.67993e-01,3.07290e-02,-2.58652e-01,-1.53948e-01,-2.88555e-01,-1.84634e-01,-2.17213e-02,1.84940e-01,1.16591e-01,-7.01618e-02,-1.14024e-01,1.94802e-01,1.63867e-01,1.46255e-01,-1.68355e-01,1.48631e-01,2.33756e-01,-2.57682e-01,7.81822e-02,-3.89600e-02,
1.04758e-01,-1.52837e-01,1.67156e-02,-1.44458e-01,9.79404e-02,6.74495e-02,4.78392e-02,1.04404e-01,8.95836e-02,2.16569e-01,-2.04029e-01,-2.92124e-02,-1.90061e-01,-1.06531e-01,2.47996e-01,3.09486e-02,-2.14975e-01,-1.74367e-02,1.83031e-01,1.52729e-01,2.03830e-01,-1.40936e-01,2.52646e-01,1.38021e-01,4.63363e-02,-8.78157e-02,-6.27026e-02,-1.28686e-01,-3.23101e-02,1.59567e-01,1.49045e-01,-1.85195e-01,-2.02630e-01,-1.90737e-01,-1.25430e-01,2.29206e-01,8.03711e-02,9.53123e-02,5.91193e-02,2.03852e-01,1.97751e-01,9.83872e-02,-2.26085e-01,1.85794e-01,3.38783e-02,-6.34196e-02,-6.33652e-02,2.42655e-01,-2.05317e-01,2.07459e-01,8.45782e-02,1.75842e-01,-1.33966e-01,6.94612e-02,1.78019e-01,1.19218e-01,1.14168e-01,-1.87200e-01,1.20075e-01,4.91504e-02,1.24766e-01,-2.03706e-01,-1.75795e-01,3.95973e-02,
-1.94313e-01,2.31047e-01,1.55179e-01,1.73579e-01,-8.32064e-02,-1.49292e-01,-1.34483e-01,-1.52037e-01,1.43634e-01,-1.17304e-01,2.05882e-01,1.00527e-01,-1.04175e-01,1.74277e-01,1.47187e-01,-2.32593e-01,-1.96475e-01,-2.31941e-01,-1.86404e-01,-5.26716e-02,-3.52559e-02,6.05118e-02,2.72718e-02,1.79370e-01,1.21991e-01,-9.47094e-02,-1.20370e-01,1.09127e-01,1.21995e-01,7.88642e-03,-1.14257e-01,-1.26280e-01,-2.41162e-01,-5.03698e-02,1.08106e-01,1.48315e-01,-1.80429e-01,2.12691e-01,1.15264e-01,-1.66463e-01,2.18279e-01,2.17550e-01,-1.03081e-01,2.18215e-01,2.43874e-02,-1.64880e-01,6.41048e-02,1.48835e-01,-5.73439e-02,1.98079e-01,2.89606e-02,-2.47989e-01,7.22298e-02,-1.50231e-02,-2.02883e-01,-9.39693e-02,2.79966e-03,9.38268e-02,-2.08053e-01,2.26717e-01,2.12876e-01,-2.18449e-01,-2.30652e-01,4.69705e-02,
1.74217e-02,-2.19301e-01,-1.47150e-01,-1.18885e-01,-6.49652e-02,1.93334e-01,2.43000e-02,-2.03059e-01,-1.51043e-01,-1.96841e-01,-1.00892e-01,1.04487e-01,1.11390e-01,-1.78532e-01,-1.05653e-01,-9.62635e-02,9.62539e-02,-2.43709e-01,-1.88404e-01,5.76529e-02,-2.24360e-01,1.75478e-01,6.94106e-02,1.17003e-01,-4.15001e-02,2.40842e-02,-2.16688e-01,-1.84838e-01,1.01979e-01,-8.81953e-02,4.49350e-02,7.41232e-02,-1.42783e-01,2.46238e-02,-1.03212e-01,1.54983e-01,-1.40935e-03,1.91367e-01,-7.29871e-02,-2.05141e-01,1.24395e-01,-4.25194e-02,1.73171e-01,-8.01806e-02,-9.87125e-02,4.08593e-02,-7.97971e-02,1.21380e-01,2.19632e-01,-4.96457e-02,6.43430e-02,-2.58462e-01,-4.48634e-02,-1.44315e-01,2.05960e-01,1.08470e-02,-1.52534e-01,9.96145e-02,-1.76378e-01,9.75478e-03,-8.00933e-02,-6.81776e-02,1.27087e-01,-4.84278e-02,
2.27879e-01,4.74568e-02,-7.36437e-02,-1.19437e-01,-2.68900e-02,2.69709e-01,2.05530e-01,8.66905e-02,-5.77964e-02,9.41320e-02,1.44793e-01,-9.79315e-02,3.38648e-02,-5.25339e-02,1.29388e-01,-1.42845e-01,-2.30570e-02,-4.93986e-02,-1.44398e-01,-6.14615e-02,-4.66483e-02,2.35664e-01,-3.71638e-02,-1.33048e-01,1.43659e-01,-2.59714e-02,2.67279e-01,1.67803e-01,1.68581e-01,-1.93654e-01,1.97086e-01,-1.85283e-01,9.12350e-02,2.34814e-02,-8.55140e-02,-1.32133e-02,-5.51558e-02,1.71121e-01,-2.25257e-02,-1.61329e-01,-4.58373e-02,2.70989e-01,-1.31854e-01,1.22879e-01,4.13092e-02,-1.29968e-01,2.59497e-01,1.94412e-01,-2.46291e-01,7.81274e-02,5.52675e-02,-6.88312e-02,-5.06914e-02,1.30969e-01,1.94092e-01,2.42352e-01,1.01477e-01,2.59424e-01,-1.05906e-01,2.21086e-01,2.16833e-01,-7.75471e-02,-9.41347e-02,-1.73040e-01,
1.59631e-01,2.13803e-01,-2.06453e-01,1.54643e-02,2.01189e-01,-1.45116e-01,-1.56125e-01,-1.75783e-01,-1.29376e-01,2.36832e-02,-1.13253e-01,3.16263e-03,-7.22788e-02,-3.65656e-02,-2.70910e-01,4.43898e-02,1.29610e-01,4.29916e-02,1.06020e-02,-1.04069e-02,-1.15462e-01,3.57233e-02,-8.87736e-02,1.68792e-01,-1.23069e-01,-2.43021e-01,-1.94794e-01,3.73048e-02,-2.52602e-01,1.99874e-01,1.49359e-01,1.10356e-01,-1.31401e-01,-2.50233e-01,-5.71906e-02,1.42148e-01,-1.07481e-01,1.36056e-01,2.44408e-05,3.03281e-02,1.11106e-01,1.81566e-01,-1.72089e-01,7.46938e-02,-2.18120e-02,2.21229e-01,-4.13393e-02,-4.70247e-03,-1.60406e-01,-2.70463e-01,-1.27518e-01,8.20121e-02,1.04667e-02,-2.13559e-01,1.26223e-01,-4.78541e-02,-3.64616e-02,-2.59025e-01,-2.00099e-01,-1.04274e-01,-2.44421e-02,1.60594e-01,1.02519e-01,-2.15861e-01,
-8.87924e-02,-2.12822e-02,-1.84032e-01,-2.22496e-01,5.39551e-03,-1.71908e-01,-2.49450e-02,-2.50502e-01,2.14118e-01,-6.48950e-02,2.34062e-01,-7.36248e-02,1.64691e-01,-2.42778e-01,-7.30204e-02,2.98760e-02,-1.79778e-01,1.07299e-01,-3.36837e-02,7.61875e-02,2.12259e-01,-6.10433e-02,-6.57346e-02,1.14885e-01,-2.45823e-02,2.02266e-01,5.37999e-02,-3.88268e-02,1.56881e-02,4.85068e-02,1.39338e-01,-6.62258e-02,-8.20827e-02,-7.97115e-02,-1.65498e-02,-8.47503e-02,-1.89633e-01,-7.51778e-02,-1.08558e-01,-1.61855e-01,1.57277e-02,-1.94248e-01,1.97569e-01,2.18987e-01,6.89471e-02,-7.85705e-03,2.26772e-01,-8.68981e-02,2.24752e-01,9.53443e-02,-1.09248e-01,-1.64757e-01,-2.38910e-01,-2.97563e-03,-2.09170e-01,-1.61493e-01,7.25238e-02,6.07572e-02,-3.76660e-02,1.98625e-01,-5.56948e-02,1.55227e-01,2.32548e-01,2.28447e-01,
-1.67510e-01,1.78865e-01,1.76172e-01,1.45515e-01,-1.51357e-01,1.84181e-01,2.36476e-01,-5.99112e-02,1.70440e-01,-7.75709e-02,-1.01719e-01,-1.86442e-01,4.95618e-02,-3.90636e-02,-1.92146e-01,1.47651e-01,-5.77976e-02,1.41876e-01,4.60452e-02,1.22309e-01,-2.54335e-01,-5.91159e-02,2.12097e-01,2.29365e-01,-1.30400e-02,2.29400e-01,-1.07063e-01,-1.72304e-01,4.88035e-02,1.91526e-01,-2.07037e-01,1.24508e-01,-1.97087e-01,7.11643e-02,1.54400e-01,-6.81951e-02,-1.55422e-01,2.05326e-01,2.08376e-01,-1.13824e-01,2.28187e-01,1.19854e-01,1.54583e-01,1.84866e-01,1.26385e-01,2.18485e-01,-8.17911e-02,5.71410e-02,1.23279e-01,-2.32427e-01,-7.17411e-02,-1.19346e-01,-1.56785e-01,-1.93556e-01,-6.81807e-02,-2.12379e-01,2.24688e-02,1.03850e-01,1.30953e-01,-4.49756e-03,9.73538e-02,7.09125e-02,1.59454e-01,2.37922e-01,
-5.28434e-02,-1.73090e-01,1.83923e-01,-8.69638e-02,-1.34813e-01,-1.83849e-01,-1.74735e-01,-2.40689e-02,1.16365e-01,-9.86176e-02,-1.03101e-01,2.02218e-01,-2.22942e-01,-2.74022e-01,1.00176e-02,1.98021e-01,-9.20011e-02,-1.81695e-01,1.82886e-01,-1.34310e-01,1.72306e-01,2.11208e-01,1.66808e-01,-1.43698e-03,1.73159e-01,-2.32757e-01,-1.56635e-01,-2.03203e-01,1.18873e-01,4.30333e-02,1.75103e-02,1.70193e-01,-2.17593e-01,-5.19114e-02,1.34462e-01,1.48680e-01,1.15148e-02,2.09073e-01,-8.68598e-02,2.23615e-01,1.55978e-01,3.50354e-03,1.11494e-01,2.26234e-01,1.21025e-01,1.92548e-01,-1.59256e-01,2.07789e-01,-3.87970e-02,1.35340e-03,-2.16906e-01,3.67448e-02,7.16911e-02,-5.26151e-02,2.24773e-01,-1.83881e-01,-8.67943e-02,1.36909e-01,-8.87042e-02,-2.28996e-01,2.20126e-01,-2.53943e-01,1.84446e-01,-2.66188e-01,
1.97759e-01,-2.12630e-01,-1.74745e-02,1.42688e-01,7.32170e-02,2.21705e-01,1.27924e-01,-5.86469e-02,-6.77183e-02,1.49340e-01,2.41608e-01,8.69326e-02,-5.59885e-02,-2.01967e-01,-1.06290e-01,1.00130e-01,1.99972e-01,7.33778e-02,-2.15931e-01,1.99491e-02,-2.23020e-01,-7.74280e-02,1.47650e-01,-4.36843e-02,-2.41936e-01,6.23716e-02,7.31735e-02,1.44652e-03,1.40285e-01,1.51289e-01,-1.47212e-01,-1.80635e-01,-1.79587e-01,-9.32730e-02,-1.81905e-02,1.69300e-01,2.31353e-02,1.32974e-02,-2.28078e-02,2.65882e-02,-2.58147e-01,2.23250e-01,6.57120e-02,2.04824e-01,-9.28352e-02,-1.87541e-01,-4.79112e-02,4.71331e-02,-4.04657e-02,-4.32854e-02,-8.03045e-02,-2.01198e-02,-8.46325e-02,-7.89600e-02,-1.04855e-01,-1.05132e-01,9.77371e-02,1.34115e-01,1.53411e-01,-1.12988e-02,-2.11317e-01,-2.60333e-01,-2.09224e-01,-1.01694e-01,
-1.76172e-01,-7.00602e-02,1.87336e-01,-2.08075e-01,1.69444e-01,1.16479e-01,-6.79547e-02,1.85541e-01,2.06723e-01,-1.05315e-01,-7.61328e-02,1.19158e-01,-4.87391e-02,-6.93181e-02,3.58317e-02,1.91583e-01,3.01466e-03,2.31857e-01,2.25222e-01,1.18008e-01,-3.72262e-02,-1.97496e-01,1.86269e-01,-2.19621e-01,1.85825e-01,1.32734e-02,2.21167e-01,-1.40533e-01,4.27796e-02,9.41044e-02,2.45184e-01,-9.24272e-02,-1.68858e-01,2.42064e-01,1.36282e-01,6.34152e-02,-1.53638e-01,8.84013e-02,-1.34049e-01,2.22099e-01,-1.07401e-01,1.57036e-01,-1.22639e-01,9.12080e-02,2.02907e-01,-1.07574e-01,2.28893e-01,-5.87070e-02,8.03971e-03,-2.17689e-01,-1.14705e-01,-1.48902e-01,1.60538e-01,-7.64149e-02,-3.07484e-02,1.31424e-01,-1.65175e-01,1.84288e-01,-1.11189e-01,-6.36813e-02,-1.62692e-01,-1.91874e-02,5.90511e-02,5.91800e-02,
-2.56292e-01,9.11359e-02,1.01669e-01,-1.58279e-02,-1.63525e-01,-2.82160e-02,-2.12000e-01,1.77173e-01,-2.60822e-02,1.25983e-01,2.15734e-02,7.62876e-02,-4.50246e-02,-4.18414e-02,2.83834e-02,-2.35733e-01,-1.51099e-04,-2.25459e-01,-3.55002e-02,1.87490e-01,-6.48435e-03,2.71925e-02,-8.06473e-02,-6.19362e-02,-6.32128e-03,-2.40862e-01,6.27280e-02,-1.71424e-02,-2.86858e-01,-1.49612e-01,-4.20294e-02,9.40188e-02,1.05562e-01,-1.58110e-01,-2.35769e-01,2.38754e-01,-1.38586e-01,1.31123e-02,-1.06231e-01,1.33783e-01,1.29145e-01,-2.80716e-01,1.69379e-01,-1.96554e-02,2.03323e-01,-1.86535e-01,9.61530e-02,8.29757e-02,-2.37046e-01,-1.70757e-01,-1.45118e-01,1.00040e-01,1.79759e-01,1.38689e-01,8.84444e-02,-1.35208e-01,-4.95388e-02,1.49226e-01,-8.73490e-02,-2.31735e-01,-9.22198e-02,1.35477e-01,-1.62047e-02,-7.95461e-02,
3.70741e-02,-1.61975e-01,1.46645e-02,-5.33894e-02,-6.09610e-02,1.19302e-02,2.18472e-02,-2.51270e-01,-2.71725e-02,-4.95553e-02,8.67564e-02,-3.01806e-02,1.41709e-01,-1.67635e-01,8.51412e-02,-6.28824e-02,2.14399e-01,-8.60211e-02,-9.93371e-02,1.94933e-03,7.70552e-02,1.40808e-01,1.96508e-01,5.95051e-03,-2.14054e-01,-2.09801e-01,6.99466e-02,7.46735e-02,-6.23935e-03,8.44968e-02,1.73933e-01,1.73809e-01,1.15174e-01,-3.82192e-02,3.16436e-02,-1.60519e-01,-1.65658e-02,2.41293e-01,2.21528e-01,-9.77469e-02,-1.74755e-01,1.53395e-01,1.86065e-01,1.24684e-02,-2.00268e-01,-1.19322e-02,-9.35119e-03,1.06125e-01,1.49543e-01,2.33112e-01,-5.98839e-02,-1.00403e-01,-1.36978e-01,4.49036e-02,2.28562e-01,-8.88785e-02,-1.69854e-01,9.06051e-02,-1.89612e-01,-1.65980e-01,-1.33520e-02,-2.10846e-01,-1.76142e-01,3.66237e-02,
2.19735e-01,1.57107e-01,-7.56111e-02,-3.28821e-02,-7.08025e-02,-2.16488e-01,-2.83789e-03,1.30826e-01,2.04382e-02,1.46176e-01,-1.67903e-01,1.74377e-01,-1.67873e-02,1.90188e-01,-1.36968e-01,-1.92889e-01,8.86758e-02,3.65886e-02,6.32324e-03,2.30215e-02,-1.99883e-01,2.76700e-02,1.36650e-01,-1.91861e-01,2.42510e-01,1.07287e-01,1.17540e-01,-3.83361e-02,-1.38705e-01,-1.61110e-02,9.80925e-02,-2.06024e-01,-1.30314e-01,-2.60451e-02,2.19086e-01,-9.25976e-02,2.44435e-01,1.08388e-01,-1.34429e-01,4.67487e-02,1.70094e-01,1.69548e-01,2.25627e-01,-1.27977e-01,2.39533e-01,-1.79667e-01,-1.99748e-01,2.28884e-01,-1.19898e-01,-1.86335e-01,-2.37513e-01,2.39643e-01,-5.51936e-02,9.23986e-02,1.57505e-01,1.20508e-01,1.90793e-02,-1.43171e-01,-6.63403e-02,-1.11771e-01,-2.18158e-02,1.52394e-01,-1.21040e-01,2.03935e-01,
1.87994e-01,5.67228e-02,4.49394e-02,-1.51698e-01,-5.56967e-02,-2.60367e-01,-3.31227e-02,1.25064e-01,1.63647e-01,5.48047e-02,-1.10061e-01,3.29299e-02,-9.87841e-03,-2.67184e-01,2.11689e-01,-1.23878e-01,-2.39045e-01,1.25692e-01,-2.67164e-01,1.66210e-01,1.92861e-01,1.14533e-01,1.06537e-01,-2.38506e-01,-2.47187e-01,8.31596e-02,-1.74633e-01,-1.33071e-01,-2.55669e-01,-1.92945e-01,-2.75910e-02,-2.53779e-01,-5.91681e-02,-1.47270e-01,1.80199e-01,-3.82806e-02,-5.19429e-02,5.47811e-02,-1.37072e-01,1.03265e-01,-1.95688e-02,1.93075e-01,-2.92381e-02,-1.44934e-01,2.21479e-01,-1.92641e-01,1.97030e-01,-1.89567e-01,3.51809e-03,-1.41525e-01,1.53677e-01,7.09611e-02,2.22976e-01,-7.75996e-02,9.97398e-02,1.74851e-01,2.16535e-02,1.55459e-02,-2.34534e-01,1.87733e-02,5.70587e-03,-5.14806e-02,1.16132e-01,2.18110e-01,
3.45695e-02,1.99305e-01,1.57112e-01,9.86294e-02,1.96575e-01,-9.31607e-04,-1.64855e-01,1.37013e-01,1.41485e-01,-1.38195e-01,-1.87396e-01,-8.22607e-02,6.50539e-02,-1.29984e-01,-8.19814e-02,2.00889e-01,2.25172e-01,-6.93300e-02,-7.73040e-02,-2.14188e-01,2.33952e-01,-1.27199e-01,-7.04022e-02,-1.94232e-01,-2.24659e-01,5.69720e-02,-1.29699e-01,-1.95885e-01,-2.35791e-01,-5.01160e-02,-6.46931e-02,4.76799e-02,2.08656e-01,2.10052e-02,-4.28082e-02,-1.68768e-01,-7.72539e-02,8.79537e-02,-1.08373e-01,1.15241e-01,-2.00607e-01,4.24272e-02,7.10748e-02,-9.14542e-02,-1.03763e-01,-9.29339e-02,8.13552e-02,2.21306e-01,4.02010e-02,1.83454e-01,4.06128e-02,1.15681e-01,1.32106e-01,-2.30623e-01,6.82608e-02,7.64697e-02,2.26654e-01,-1.74766e-01,-2.06111e-01,1.78096e-01,1.41348e-01,2.83180e-02,-1.01351e-01,1.23293e-01,
2.89198e-02,-1.56998e-01,-5.91700e-02,-5.79714e-02,1.92543e-01,-4.05899e-02,1.17109e-01,-6.48554e-02,-2.44477e-01,-1.49748e-01,5.76025e-02,1.26376e-01,2.11208e-01,5.86518e-02,9.29433e-02,-1.40781e-01,-1.18023e-01,-3.96179e-02,1.32490e-01,-1.21933e-01,-2.06936e-02,8.88020e-02,-2.27302e-01,1.08368e-01,2.03928e-01,-6.48695e-02,8.60270e-02,3.49229e-02,2.05987e-01,-2.11050e-01,1.97296e-02,2.21925e-01,1.29204e-01,-8.63120e-02,4.63305e-02,1.34299e-01,2.21044e-01,-1.05989e-01,-1.45832e-01,-2.10371e-01,-1.74258e-02,1.77016e-01,2.04699e-01,1.96506e-01,1.44398e-01,-9.24122e-02,8.04113e-02,-8.92238e-02,1.16137e-01,-1.65993e-01,-2.59731e-01,-5.89444e-02,-5.76580e-02,-2.73367e-01,-2.04369e-01,-9.96287e-02,1.50341e-01,-8.81601e-02,-2.25340e-01,4.57251e-02,-1.59045e-01,-4.21768e-02,1.31363e-01,1.60760e-01,
1.66161e-01,1.73438e-01,-9.64494e-02,2.69735e-02,2.24677e-02,-2.24631e-01,1.99661e-01,1.21180e-01,-1.51926e-01,6.28862e-02,-2.06920e-01,2.50370e-01,-1.44280e-01,-3.47373e-02,1.24853e-01,2.05106e-01,-2.25018e-01,-8.86181e-02,-1.08619e-01,2.22042e-02,2.09282e-01,1.04063e-01,5.03596e-02,-1.84044e-01,1.57487e-01,1.53444e-01,3.74094e-02,1.62171e-01,-2.29519e-01,-2.07275e-01,-2.31724e-02,1.53882e-01,8.65611e-02,1.42955e-01,-6.82310e-02,-8.90156e-02,1.52638e-01,1.72793e-01,-2.41289e-01,-1.62128e-01,1.33170e-01,-1.00886e-04,-6.31303e-02,1.97202e-01,6.97321e-03,-1.23954e-02,-1.15282e-01,-4.48686e-02,1.21088e-01,1.05899e-01,-7.56532e-02,1.60111e-01,1.41050e-01,1.44895e-01,2.15277e-01,2.27178e-01,1.11335e-02,-7.89387e-02,5.17433e-02,-6.90545e-02,4.79965e-02,1.12411e-01,2.09650e-01,9.47788e-03,
1.66349e-01,-2.26174e-01,1.74533e-01,2.25075e-01,-1.05138e-01,-1.27207e-01,-2.88680e-02,1.27023e-01,-2.44731e-01,-2.86548e-02,-1.78572e-01,6.71656e-02,-2.27795e-01,3.62146e-03,-1.38438e-01,-5.69398e-02,1.57801e-01,6.10524e-02,-1.38425e-01,-4.91293e-02,-1.35168e-01,-6.67280e-03,-2.45215e-01,-9.97785e-02,-1.22708e-01,-5.13348e-02,9.38634e-02,9.95204e-02,4.69241e-02,-8.97399e-02,-2.37743e-01,2.51035e-02,-4.49374e-02,7.96658e-03,1.58765e-01,-1.18474e-01,-2.12321e-01,4.52729e-02,8.04937e-03,-1.50224e-01,4.00700e-02,-1.07257e-01,-1.28920e-01,-1.20791e-01,-2.30916e-01,2.29832e-01,-1.40517e-01,-1.16025e-02,-1.80637e-01,-3.09200e-02,3.56855e-02,2.30161e-01,3.30676e-02,6.68257e-02,1.50589e-02,3.09034e-02,-1.41206e-01,-1.46296e-01,4.26432e-02,-1.04342e-01,-5.05656e-02,1.66039e-01,-1.63380e-01,1.66624e-01,
1.85637e-01,1.40186e-01,-1.57376e-01,-4.46051e-03,5.54538e-02,6.00122e-02,1.99316e-01,-1.38604e-01,-6.83956e-02,8.18931e-02,-1.21534e-01,1.75290e-01,1.33842e-01,2.03729e-01,1.27514e-01,-2.51975e-01,2.17317e-01,-1.65848e-01,-2.19424e-01,-5.00540e-02,5.58704e-02,9.45136e-02,1.16421e-01,-1.10643e-01,-1.73832e-01,-3.90313e-02,-1.26013e-01,-2.56150e-01,9.39936e-02,1.54671e-01,-1.74914e-01,1.34715e-01,-1.06898e-01,2.08077e-01,-2.16842e-01,1.58553e-01,-1.79867e-01,4.06708e-02,5.66489e-02,-4.43902e-02,5.48979e-02,-1.08509e-01,8.38110e-02,-3.26677e-02,-9.39341e-04,1.08546e-02,2.04850e-01,1.57726e-01,8.24092e-04,-2.44477e-01,8.54871e-02,-1.98864e-01,-2.30458e-01,1.03179e-01,-6.64074e-03,-8.50248e-02,1.71673e-01,-2.46586e-01,1.20016e-01,-8.59642e-02,-8.36255e-02,1.36861e-02,6.84388e-02,1.49527e-01,
-2.37182e-01,1.71393e-01,-4.85972e-02,2.30824e-01,2.20240e-01,-1.84884e-01,1.83935e-01,-2.23030e-01,8.09946e-02,3.60737e-02,-2.40863e-01,-8.08603e-02,1.62011e-01,1.40709e-01,1.69833e-01,6.99282e-02,1.77355e-01,3.18470e-02,-1.29927e-02,6.25560e-02,-1.17312e-01,-3.28837e-02,1.22427e-01,1.54572e-01,-1.11719e-01,2.54279e-01,2.11266e-01,-1.15397e-01,1.60748e-01,2.46150e-01,1.55626e-01,-6.78018e-02,2.31793e-01,-6.45785e-02,2.19132e-01,-1.32329e-01,-2.04903e-01,-1.55974e-01,-1.59367e-02,7.78524e-02,1.38188e-01,-2.12180e-01,-1.71894e-01,2.20278e-01,-2.28316e-01,-6.13838e-02,1.08001e-01,-1.09878e-01,-2.19029e-01,-9.31392e-03,1.41541e-01,1.36223e-01,2.93001e-02,8.79190e-02,-9.47866e-02,-1.89354e-01,4.29514e-02,2.37988e-01,-1.39713e-01,-4.83253e-02,-6.02651e-02,1.02021e-01,1.74499e-01,3.35928e-02,
-9.78177e-03,-1.87660e-01,3.61521e-02,-2.06592e-01,2.04032e-02,-7.41538e-02,9.38244e-02,-1.71001e-01,-1.92061e-01,4.42354e-02,2.40937e-01,2.14043e-01,1.07831e-01,-8.44603e-02,6.54917e-02,-9.83131e-02,9.04955e-02,1.04815e-01,1.47008e-01,-6.69275e-02,4.75046e-02,6.49272e-02,8.89279e-02,7.44563e-02,1.54156e-02,-6.64734e-04,-1.60637e-01,2.34106e-01,-5.37203e-02,-2.23894e-01,-9.16282e-02,1.77901e-01,-8.05054e-02,-2.31457e-01,1.59672e-01,1.73101e-01,-1.84133e-01,-2.37849e-01,-1.14232e-01,-2.02311e-01,-1.56488e-01,1.39783e-01,1.86736e-01,1.10853e-01,3.13782e-02,2.24050e-01,2.34250e-01,5.68503e-02,-2.55530e-01,8.35126e-02,1.91207e-01,-1.03204e-01,-2.53964e-01,-1.85909e-01,1.44626e-01,-2.31147e-01,1.20128e-01,-2.11459e-01,2.40129e-01,-6.42420e-02,-2.49196e-01,1.19378e-01,-1.66223e-01,1.31509e-01,
1.00505e-01,
2.66064e-02,
-4.26477e-02,
-3.59075e-02,
-8.69312e-03,
0.00000e+00,
-1.25892e-02,
2.76405e-01,
-1.43216e-02,
1.55833e-01,
-1.57344e-01,
1.65157e-01,
4.51193e-02,
-1.74639e-02,
1.75155e-01,
-2.90716e-02,
-8.60435e-03,
-1.20057e-02,
-1.46249e-01,
2.42258e-01,
-5.59359e-02,
-5.42669e-02,
2.61455e-01,
-1.20662e-01,
2.06189e-01,
-1.04848e-01,
8.65419e-02,
-1.45229e-01,
0.00000e+00,
-1.61919e-02,
-2.78288e-03,
-1.20415e-01,
1.47310e-01,2.21224e-01,-3.51454e-02,-1.56652e-02,4.54213e-02,3.45801e-01,2.73970e-01,2.34592e-01,2.62124e-01,-1.83912e-01,3.67724e-01,2.99481e-01,3.40735e-01,1.80737e-01,-1.82790e-01,1.13115e-01,-2.87664e-01,3.20350e-01,-3.35363e-01,1.32947e-01,-3.17717e-01,4.13957e-02,2.73434e-01,-1.95691e-01,1.54633e-01,-1.20224e-01,-1.27002e-01,-2.91166e-01,7.73926e-02,-1.01798e-01,-4.95821e-02,-1.01262e-01,
7.07560e-02,2.80863e-01,2.82129e-01,-1.75763e-01,-1.34922e-01,-1.33900e-01,-2.41970e-01,3.09440e-01,-2.59699e-01,1.88511e-01,-7.41982e-03,-4.48254e-02,1.13887e-01,2.60942e-01,-2.34381e-01,-5.76354e-02,-1.45301e-01,2.00371e-01,-3.22494e-01,-3.22627e-02,-1.15754e-02,-5.20110e-03,-1.38916e-01,2.34744e-01,3.48203e-03,1.75581e-01,2.15529e-01,-3.15267e-01,3.50365e-01,1.99276e-01,-7.03312e-02,-3.22771e-01,
-3.70794e-01,-2.41107e-01,1.95124e-01,1.44095e-01,1.30798e-01,3.17487e-01,1.06869e-01,3.01522e-01,1.40966e-01,4.63678e-02,-2.76661e-01,-3.66741e-02,3.29271e-01,-3.08392e-01,-3.23667e-02,-2.88466e-01,3.08530e-01,1.89581e-02,2.72522e-01,-2.15625e-01,-1.37646e-01,9.47697e-02,-3.17286e-02,-3.63625e-01,-2.88477e-01,8.89303e-02,1.08603e-01,-2.30168e-01,-1.69186e-01,5.47500e-02,2.35683e-01,-1.21878e-02,
-1.10913e-01,1.89968e-01,3.14255e-01,1.57664e-01,-7.59985e-02,6.41022e-02,2.12925e-01,-1.09371e-01,-4.74305e-02,-3.40405e-01,-1.18858e-01,-3.45178e-01,7.35293e-02,-1.44100e-01,-3.49701e-01,-1.35582e-01,6.90717e-02,-2.46908e-01,-1.64034e-01,-3.83591e-02,8.78045e-03,-2.92706e-01,2.51680e-01,1.64605e-01,-1.50255e-01,4.93228e-05,-2.41780e-01,1.57890e-01,2.84834e-01,3.28256e-01,3.16235e-01,1.95061e-01,
1.02864e-01,4.41529e-02,-3.00765e-01,-1.54412e-01,1.43010e-01,2.83718e-02,-3.46073e-01,4.01849e-01,1.19980e-01,-2.61144e-02,2.67700e-01,-2.30460e-01,5.43192e-02,-3.10426e-01,-3.92368e-02,-2.17954e-02,3.64253e-01,-3.16089e-01,7.40896e-02,1.87161e-01,-3.93309e-02,5.72485e-02,1.53005e-01,6.90833e-02,3.28172e-01,-2.99851e-01,3.86486e-01,1.84320e-02,-1.53157e-01,2.41561e-01,-1.19582e-01,2.33761e-01,
-1.11707e-01,-1.62354e-01,-1.79537e-02,-2.07999e-01,1.44112e-01,-1.66993e-01,4.80623e-02,-1.96639e-01,-5.15450e-02,-7.65146e-02,-3.34105e-01,-3.00395e-01,1.87811e-01,3.17083e-01,1.93396e-01,1.23266e-01,2.91351e-01,1.01605e-01,-1.25741e-01,-6.58333e-03,-5.01823e-02,-2.78080e-01,2.02860e-01,-2.47837e-01,2.56022e-01,-3.53856e-01,1.92003e-01,3.34806e-02,-3.44909e-01,-5.41999e-02,-2.36033e-01,-1.57955e-01,
-3.01782e-01,2.69978e-01,1.09478e-01,2.13117e-01,1.52954e-01,-4.31246e-03,-1.45122e-01,3.36031e-02,1.67409e-03,-3.12754e-02,3.91251e-02,-1.63257e-01,2.97022e-01,-1.02976e-01,-7.61359e-02,-3.28547e-01,4.19323e-02,2.87054e-01,-1.35685e-01,1.81224e-01,-9.32127e-04,-3.41468e-01,-3.98638e-02,-1.10942e-01,6.61672e-02,-2.50415e-02,-1.92912e-02,-2.50645e-01,3.21610e-02,1.52837e-01,-1.34361e-01,-2.14621e-01,
-3.38442e-01,-3.15617e-01,4.64651e-02,3.33574e-01,2.38693e-01,1.02036e-02,3.19474e-01,-1.02603e-01,6.86367e-02,4.20963e-02,-2.87874e-01,1.95693e-01,-4.48558e-02,1.56134e-01,-1.37654e-02,4.60175e-02,2.65228e-01,-2.00670e-01,-1.64941e-01,4.21822e-03,2.63416e-02,2.80881e-01,-6.14205e-03,-3.12143e-02,7.86982e-02,-1.08538e-01,-2.01362e-01,-1.19303e-01,-1.60199e-01,-5.91288e-02,2.60174e-01,-1.79123e-01,
-6.56953e-02,-3.11014e-02,-2.32728e-01,2.00505e-01,3.42722e-01,1.37489e-01,-5.17087e-02,4.69833e-02,-9.49329e-02,5.58766e-02,-2.28911e-01,-1.29644e-01,1.36905e-02,2.34914e-01,-1.37411e-01,-9.26446e-03,-3.16574e-01,-2.67115e-01,2.20746e-02,-7.52156e-02,3.97460e-01,-2.10881e-03,2.77000e-02,-1.59833e-01,3.58549e-01,5.06649e-02,3.99089e-01,2.20795e-01,1.64284e-01,7.38600e-02,6.02571e-02,-3.15488e-01,
-2.04625e-02,2.76039e-01,-1.41092e-01,-1.48816e-01,3.11304e-01,-9.13538e-02,2.32943e-01,3.47287e-01,-2.68273e-01,-3.18966e-01,1.94365e-03,-1.97405e-01,-1.04770e-01,3.50973e-01,2.37843e-03,-1.60962e-01,-6.06474e-02,-3.83674e-02,-1.05123e-02,-3.33060e-01,-8.69967e-02,-1.54533e-01,-2.83884e-01,-7.69474e-02,2.06840e-01,2.12388e-01,-3.21464e-01,-5.89651e-02,1.57256e-01,5.10076e-02,-1.78625e-01,-6.32234e-02,
1.02926e-01,1.70159e-01,-1.35056e-01,1.47302e-02,-1.94274e-01,7.16302e-03,-1.94791e-01,-8.23336e-02,6.37522e-02,-1.55777e-02,1.51349e-01,-3.14896e-01,-3.41728e-01,7.67286e-02,-3.76792e-01,-3.18814e-01,6.13683e-02,-3.42415e-01,-2.43468e-01,2.97259e-01,-9.71588e-02,-1.47927e-02,-1.65563e-01,1.08016e-01,-9.51094e-02,5.23674e-02,7.30633e-02,1.58562e-01,-5.86992e-02,-6.32638e-02,-3.25251e-01,-3.43641e-01,
-3.01784e-01,-2.81672e-01,-2.62287e-01,-3.17757e-01,1.51579e-01,2.96462e-01,-1.57742e-01,8.35873e-02,-1.97742e-01,-1.66561e-01,-2.27845e-02,-3.23318e-01,4.72133e-02,-1.22021e-01,-1.70962e-01,3.31730e-01,-3.22052e-01,-1.47247e-02,-1.76191e-01,1.80486e-01,2.05336e-02,2.45699e-01,-1.54299e-01,-1.03541e-01,1.76841e-01,-2.42882e-01,-1.94216e-01,-7.87041e-03,-4.47307e-02,2.14791e-01,8.90880e-02,1.07382e-01,
2.62590e-01,-2.20068e-01,7.81580e-02,-2.35363e-01,2.78848e-02,-2.05870e-01,-1.59486e-01,6.80650e-02,1.84327e-01,-2.86256e-01,-3.12285e-01,-3.70731e-01,-2.43256e-01,1.78851e-01,2.82420e-01,1.41775e-01,-1.48820e-01,-1.52009e-01,-2.73041e-01,-2.23178e-01,-3.23705e-01,1.25105e-01,7.35355e-02,1.96199e-01,3.63033e-02,2.64498e-01,1.27904e-02,-2.49708e-01,-2.89297e-01,1.68016e-01,6.52281e-03,-3.52330e-01,
-1.94975e-01,-1.52986e-01,-1.10613e-02,8.29888e-03,2.27888e-02,-6.90896e-02,1.73797e-01,3.15877e-01,1.95764e-03,2.46134e-01,-2.59993e-01,-6.90744e-02,3.15611e-01,-9.23659e-02,-2.71705e-03,2.36270e-01,-4.69892e-02,-2.99446e-01,2.04519e-02,2.66546e-01,1.61034e-01,2.21543e-01,-1.63388e-01,1.42127e-01,-2.26468e-01,3.90658e-01,2.53769e-01,2.10322e-01,-2.15315e-01,2.88940e-01,-9.85450e-02,-2.64903e-01,
1.19248e-01,-9.68140e-02,1.33288e-01,-1.79994e-01,-1.03370e-01,-1.68929e-01,3.03391e-01,2.55058e-01,-1.59160e-01,2.52312e-01,-5.77488e-02,1.76110e-01,2.42743e-01,-2.30690e-01,7.43475e-02,-3.25589e-02,3.81356e-02,1.46320e-01,2.21620e-01,2.48504e-01,-1.26549e-01,-3.06539e-01,-3.98709e-03,-3.29186e-02,-1.44364e-02,-2.33246e-01,2.62984e-01,-6.94155e-02,-4.69240e-02,2.58327e-01,-3.11026e-01,9.22655e-02,
-5.92764e-02,-3.00682e-01,-1.68312e-01,2.52395e-01,3.25569e-01,2.93412e-01,2.53857e-01,-5.88235e-02,-1.81697e-01,-3.38295e-01,2.83514e-01,-3.72020e-01,1.38957e-01,3.25839e-01,-4.16990e-01,2.40998e-01,2.99663e-01,-1.59872e-01,3.11871e-01,-2.15558e-01,2.91848e-01,2.86331e-01,5.18345e-02,2.42998e-01,6.30648e-02,2.14968e-01,1.59690e-01,3.14165e-01,-5.13789e-02,5.11349e-02,-6.67605e-02,2.20647e-01,
2.35442e-01,
-7.33244e-02,
-3.07200e-02,
0.00000e+00,
2.49230e-01,
-2.52628e-02,
0.00000e+00,
0.00000e+00,
2.40542e-01,
0.00000e+00,
-5.33206e-02,
0.00000e+00,
-4.21660e-02,
1.59680e-01,
-7.91583e-03,
-1.98715e-01,
2.21608e-01,-1.68176e-01,2.25387e-01,8.32968e-02,-1.34298e-01,-4.72641e-02,-4.64057e-01,-1.84652e-01,4.63539e-01,-2.17539e-01,4.75661e-01,1.96426e-01,1.18900e-01,-1.24954e-01,-4.44780e-01,-2.95918e-01,
-1.60351e-01,4.15283e-01,-5.55012e-02,-8.78742e-02,1.98797e-01,-2.29012e-01,-4.60133e-01,-2.23111e-01,-2.70226e-01,1.39563e-01,2.52520e-01,2.21279e-01,2.60270e-02,-4.49796e-02,4.10183e-01,4.19604e-01,
6.92506e-02,1.63966e-01,-3.71019e-02,2.31905e-01,-2.66749e-02,-1.52228e-01,3.33535e-01,4.73137e-01,-3.65465e-01,-3.81193e-01,-1.77431e-03,7.21310e-02,-4.48296e-01,-2.45573e-01,-4.54622e-01,-1.06874e-01,
-5.87799e-02,-2.02991e-01,3.83445e-01,4.34189e-01,5.48223e-01,5.70054e-02,2.72370e-01,-1.13834e-01,1.73360e-01,-4.94232e-02,-4.64921e-01,-8.81346e-02,2.50664e-02,-2.30056e-01,-3.66999e-01,3.85212e-01,
-2.22416e-01,3.59041e-01,1.73250e-01,2.98122e-02,-4.83295e-01,3.22982e-01,3.20483e-01,1.69616e-01,-7.39142e-02,-1.25393e-01,4.20382e-01,-2.43505e-01,-3.71221e-01,6.17272e-03,6.59262e-02,1.03248e-01,
-9.92912e-02,-4.42237e-01,-4.02473e-01,4.66482e-01,3.26532e-01,3.03490e-01,-1.38626e-01,3.81513e-01,-2.21214e-01,2.89285e-01,-1.09722e-01,-1.32216e-01,1.27755e-01,4.08585e-01,-2.14188e-01,-2.95752e-01,
1.28229e-01,4.33007e-02,-4.52063e-01,3.83912e-01,1.97518e-01,3.52116e-01,-1.27095e-01,-3.96072e-01,1.76420e-01,-1.47589e-02,-2.03203e-01,-1.88298e-01,-2.90423e-01,1.96074e-01,3.83115e-01,-2.25166e-01,
1.92655e-01,-2.22742e-01,-3.69765e-02,-3.94214e-01,-4.07677e-01,3.19803e-02,-1.54901e-01,3.49125e-01,1.65635e-01,4.77000e-01,-5.59015e-02,-5.03979e-02,-1.64029e-01,-4.76253e-01,6.90971e-02,-1.67249e-01,
-3.61135e-02,
-8.77878e-02,
0.00000e+00,
1.33977e-01,
-6.37964e-02,
-3.05610e-02,
8.90738e-02,
-4.10241e-02,
4.57683e-01,1.50699e-01,-6.47326e-01,5.87366e-01,2.28104e-01,-6.23701e-01,-2.26978e-01,4.98829e-01,
-3.21816e-02,-4.05561e-01,4.83935e-01,2.40006e-01,6.69211e-02,-3.51255e-01,5.60821e-01,-5.87912e-01,
-1.83084e-01,2.06721e-01,5.74697e-01,-9.53901e-02,5.24828e-02,3.70255e-02,-3.43405e-01,-4.13114e-01,
5.53441e-01,-3.12365e-01,-3.92365e-01,5.12056e-01,-1.52057e-01,7.03174e-02,3.61242e-01,-3.01391e-01,
-8.33154e-02,
8.30531e-02,
2.23350e-02,
7.07965e-02,
9.81687e-01,-1.01006e+00,-4.14212e-01,-7.18983e-01,
-1.08933e-01,
