// Neural Network File Format by Kyle Julian, Stanford 2016
6,13,1,64,
13,64,32,16,8,4,1,
0,
10,0,0,1,0,0,0,0,0,0,0,1,0,
100,6,15,16,6,13,5,4,1,19,19,100,40,
10,0,0,1,0,0,0,0,0,0,0,1,0,0,
90,6,15,15,6,13,5,4,1,19,19,99,40,1,
-1.18564e-01,1.73844e-01,-1.67078e-01,1.47655e-01,-9.38158e-02,2.03125e-01,-5.27606e-02,4.83985e-02,-4.41179e-01,-2.73145e-01,1.95153e-01,8.10273e-02,-1.26813e-01,
-3.05859e-01,9.04466e-02,-6.28418e-02,7.47795e-02,-2.12381e-01,-1.63435e-01,-1.87965e-01,-1.19817e-01,-4.42153e-01,-1.63222e+00,1.19042e-02,1.95030e-02,2.81274e-01,
8.95472e-02,3.24595e-01,-6.24432e-02,-1.27256e-02,-3.23510e-01,-1.08603e-01,6.51756e-01,2.69957e-01,-2.65721e-01,-4.88136e-01,1.45929e-01,5.99576e-02,-1.94794e-01,
1.33522e-01,-6.74204e-02,-3.12074e-02,-9.08159e-03,-4.60886e-03,-1.77314e-01,-1.00869e+00,1.55876e-01,4.93924e-01,9.10585e-01,-1.36760e-01,2.22230e-01,-2.62951e-01,
1.80158e-01,5.16697e-02,1.42046e-01,5.42902e-02,-4.00654e-01,-1.08181e-01,2.23628e-01,7.94403e-02,3.63128e-01,1.87809e+00,1.39615e-01,-6.27175e-02,-1.18120e-01,
-3.21292e-01,7.47101e-02,2.33777e-01,-1.63124e-01,8.06988e-01,6.81824e-02,1.96332e-01,4.44807e-01,7.19179e-01,-1.35513e+00,-4.29877e-02,1.99219e-01,-1.96180e-01,
1.47932e-01,-1.85736e-01,-2.28438e-01,1.49145e-01,6.12548e-03,1.23401e-01,1.97851e-01,-1.99866e-01,5.25564e-02,1.71624e+00,2.91691e-01,1.71846e-02,-1.08419e-02,
1.42586e-01,-2.45177e-01,1.84163e-02,1.58156e-01,3.22392e-02,5.68726e-02,8.65560e-01,3.28749e-01,-6.42741e-01,8.48630e-01,3.16371e-01,-2.34259e-01,-3.95398e-02,
-1.65385e-01,1.71424e-02,7.53697e-02,-3.42330e-01,-5.35095e-01,2.10053e-01,2.63822e-01,-2.42970e-01,-2.37636e-01,-1.07508e+00,-6.75432e-02,1.12723e-01,1.92623e-01,
1.31255e-01,1.37501e-01,-3.07127e-01,1.93107e-01,-2.88779e-01,3.97481e-02,-2.97830e-01,-3.23063e-01,2.51332e-01,-2.85787e-01,2.46445e-01,-2.69406e-01,1.12769e-01,
-2.03956e-02,1.19171e-01,1.06462e-01,-3.77076e-01,-3.36199e-01,2.45741e-01,-1.24222e-01,-2.31338e-01,-5.03963e-01,-1.58756e+00,-1.12182e-01,-7.87176e-02,2.44632e-01,
2.41301e-01,-3.41444e-01,-2.42127e-01,1.14612e-01,5.58500e-01,6.99679e-02,1.09605e-01,-2.85845e-02,-2.74611e-01,-6.75312e-01,-1.61133e-01,-2.50167e-01,-2.48620e-01,
1.17026e-01,1.35711e-01,-2.68094e-01,-8.28393e-02,6.68308e-02,2.33093e-01,9.93786e-02,-9.09239e-02,5.03418e-02,-4.24760e-01,3.71419e-01,-3.01048e-01,-2.86504e-01,
2.53368e-02,-1.18279e-01,-1.40428e-01,1.73286e-02,6.61483e-02,1.10412e-01,2.51923e-01,6.11531e-02,-2.92079e-01,-1.32275e+00,1.56452e-01,-9.88268e-02,1.05458e-01,
1.37583e-01,-2.15500e-01,-3.01773e-01,2.07595e-01,2.00799e-02,8.04778e-02,-1.21924e+00,9.99456e-03,-4.95355e-02,5.39076e-01,2.60767e-01,9.83635e-02,-1.03032e-01,
1.32063e-01,-1.68240e-01,-2.00150e-01,2.81593e-03,6.23132e-02,-5.38232e-02,-3.53141e-01,-1.74082e-01,3.95652e-01,9.41286e-01,1.63644e-02,1.05996e-01,-1.23837e-01,
1.82208e-01,9.90419e-02,-1.70931e-01,3.23368e-01,-4.84012e-01,2.33043e-01,-1.15061e+00,1.20236e-01,1.60058e-01,1.05645e+00,2.37057e-01,-1.55412e-01,2.07938e-01,
3.77505e-02,-1.34134e-01,1.04641e-01,1.02633e-01,5.88688e-01,-3.23201e-01,-3.70247e-01,-2.91038e-01,-8.45182e-02,-7.09782e-01,-2.31707e-01,-4.36272e-02,3.75947e-02,
2.21878e-02,-1.95727e-01,5.20656e-02,8.75363e-02,-5.84197e-01,-2.23613e-02,-1.04753e+00,-2.15350e-01,4.96614e-01,-1.13837e-01,-8.54091e-02,-1.70375e-01,3.21208e-01,
-2.63373e-01,-2.19250e-01,8.92709e-02,2.31900e-01,-8.41414e-02,5.65786e-02,1.86588e-01,1.07603e-01,-2.74490e-01,1.24259e-01,2.18961e-01,-2.07755e-01,1.43844e-02,
-6.40160e-02,-1.40013e-01,-5.37432e-02,-1.13834e-01,1.27652e+00,-1.23302e-02,-2.00252e-01,-2.93124e-01,-3.98371e-01,-1.65642e+00,-1.00375e-01,-6.12302e-02,1.78612e-01,
-7.37717e-02,-1.20323e-01,-1.80751e-01,-1.16660e-01,-1.79220e-01,-1.07492e-01,2.51766e-01,-6.75139e-02,3.04425e-02,-6.81544e-02,2.16775e-01,-1.59179e-02,1.32981e-03,
-2.86106e-02,1.11768e-02,1.08105e-01,-2.76647e-01,1.81191e-02,-1.92142e-02,-1.82024e-01,-2.75437e-01,1.41514e-01,-2.26447e-01,1.54858e-01,-1.49913e-01,-6.01397e-02,
-1.23475e-01,-1.08073e-02,1.02463e-01,6.21074e-02,-1.00867e-01,1.53656e-01,9.23240e-02,-3.74416e-01,1.88218e-01,5.61733e-01,1.27463e-01,5.60255e-02,-2.66574e-01,
1.97059e-01,1.61648e-01,-1.41421e-02,-2.64879e-01,-2.76146e-01,1.58965e-02,-2.45174e-01,-1.23775e-01,-4.00821e-01,-2.10655e+00,-2.47064e-01,-1.60310e-01,1.90531e-01,
-1.11349e-01,-4.02495e-01,-1.09964e-01,2.46334e-01,1.45308e-01,-6.20273e-02,-9.44061e-01,5.11341e-02,6.71874e-02,1.09808e+00,1.31256e-01,4.28047e-02,1.74032e-01,
-9.66409e-03,-2.91011e-01,-1.92315e-01,1.71784e-01,-2.98819e-02,-3.28638e-01,-1.16445e+00,-9.74018e-02,4.06893e-01,1.58286e+00,3.57904e-01,1.37508e-01,1.46054e-01,
-1.56814e-02,-8.89502e-02,-1.52725e-01,1.29094e-02,2.97849e-02,-2.14765e-01,-1.84384e-02,-2.30484e-01,-9.18909e-02,1.16040e-01,2.42475e-02,-2.33446e-01,-1.82531e-01,
1.80477e-02,2.10836e-01,-2.37909e-01,4.04669e-01,-1.16206e-01,1.57673e-01,2.80321e-02,8.68019e-02,-1.17683e-02,2.06876e+00,1.27351e-01,-8.11858e-03,-7.81097e-02,
-1.67875e-01,-8.32627e-02,8.35948e-02,1.28075e-01,-1.27957e-01,2.16130e-01,-3.82780e-02,-1.97972e-02,1.87828e-01,3.71483e-02,3.44188e-02,-2.71731e-01,-1.28777e-01,
-1.38812e-01,-1.18176e-01,9.74518e-02,1.48677e-01,-2.23171e-01,3.39847e-02,-1.17495e+00,1.62560e-01,4.14089e-01,1.76329e+00,2.70189e-01,2.58003e-01,-3.85518e-02,
-3.92526e-02,-1.49724e-02,3.60323e-02,-1.73285e-01,-5.77911e-01,-2.31575e-02,1.93124e-02,-2.03408e-01,-7.46658e-01,-1.67942e+00,-2.39159e-02,-1.53603e-01,3.51034e-01,
4.36876e-02,1.10346e-01,1.65422e-01,1.15078e-02,2.13762e-01,2.25819e-01,-5.77422e-01,8.02431e-02,4.11656e-01,2.58661e-01,5.39914e-01,-3.21111e-01,4.34628e-02,
-1.10007e-02,1.88940e-01,7.67376e-02,-2.87042e-01,-5.24985e-01,-3.15954e-03,5.80622e-01,2.34813e-02,-5.37049e-01,-1.00630e+00,1.45603e-01,2.22705e-01,-1.88650e-01,
-1.75892e-01,2.00586e-01,-3.71624e-02,-2.56974e-01,1.76350e-01,2.02871e-01,-4.43681e-02,2.20581e-01,1.07126e-01,8.08282e-03,5.23460e-02,-2.17423e-01,1.27731e-01,
-2.48282e-01,-2.97558e-01,7.64191e-02,-2.64319e-01,6.12943e-03,-1.47773e-01,-7.23150e-02,1.14269e-01,-1.23919e-02,-1.12412e+00,7.06648e-02,-9.49856e-03,2.68610e-01,
4.17878e-02,1.74425e-01,4.96695e-02,-3.31578e-01,-8.62528e-01,-5.19369e-02,-2.65055e-02,5.07609e-02,-2.62777e-01,-1.68211e+00,-2.35512e-01,1.30612e-01,1.99422e-02,
-6.75601e-03,-1.86248e-01,-4.59658e-02,-1.60758e-02,-2.85069e-01,-7.61700e-02,1.29905e+00,-1.57985e-01,-5.00928e-01,-7.72418e-01,1.57500e-01,-1.58092e-01,2.87637e-01,
1.03712e-01,-1.27729e-01,-2.05037e-01,-2.05912e-01,3.92081e-01,3.11841e-01,-3.83368e-02,2.41660e-01,2.72300e-01,-5.03949e-01,2.33495e-01,-1.05014e-01,-2.27204e-01,
1.48085e-01,6.42712e-02,-2.75977e-01,-1.70367e-01,2.86376e-01,-3.31286e-01,2.22456e-01,1.18084e-01,-3.22499e-02,-2.07277e+00,-1.75490e-01,-8.92185e-02,2.33655e-01,
1.51478e-01,1.47848e-01,-1.83982e-01,8.19397e-02,1.42325e-01,1.64705e-01,-3.39423e-01,1.19898e-01,3.62490e-02,-1.50938e+00,2.79338e-01,1.64777e-01,-1.42720e-01,
1.51047e-01,1.70208e-02,2.99381e-01,3.61752e-01,-9.66586e-02,2.42079e-01,-1.26964e+00,9.73208e-02,3.84762e-01,1.25742e+00,2.23665e-01,-1.81198e-01,-1.85247e-02,
-8.54556e-02,-2.00041e-01,1.74989e-01,-1.67611e-01,-5.40169e-01,3.23003e-01,-7.13573e-01,-1.49329e-01,-1.64936e-01,8.54528e-01,2.07189e-01,2.08950e-01,-2.98543e-01,
-1.94038e-01,1.79551e-01,-6.96398e-02,2.52064e-01,1.65855e-01,-1.92980e-01,-2.45994e-01,-1.47301e-01,-1.31555e-01,-1.70478e-01,-2.67611e-01,-2.00572e-01,-5.11975e-02,
1.62498e-01,-3.93658e-02,-1.60022e-01,1.77469e-01,1.07559e-01,-8.13509e-02,-1.44275e+00,-2.55423e-01,1.49265e-01,1.14836e+00,-2.58836e-01,1.09541e-01,-1.42456e-01,
-1.78029e-01,-9.95162e-02,-2.67789e-01,-1.85803e-01,1.61232e-01,2.63598e-01,1.90081e-02,-8.04589e-02,3.98757e-02,-6.88494e-01,-9.03382e-02,8.72285e-02,1.24204e-01,
1.73722e-01,1.34368e-01,-6.92750e-02,-3.73736e-01,-4.78323e-01,6.79730e-02,5.84393e-01,1.32310e-01,-7.13139e-01,-1.59530e+00,-2.65751e-02,-8.16595e-02,5.41908e-02,
-2.25783e-01,9.72789e-02,7.96131e-02,-3.77576e-01,1.01859e-01,3.81479e-02,-2.31948e-01,-1.55480e-01,2.53316e-01,-1.25861e+00,-1.40883e-01,-4.47214e-02,3.28405e-01,
-1.79548e-01,-1.28243e-01,-3.95240e-01,-9.32829e-02,-8.15770e-02,-6.50272e-02,2.22335e-01,-2.67214e-01,-4.30574e-02,-2.04219e-01,-1.41933e-01,1.49093e-01,-1.75492e-01,
4.99440e-02,1.01599e-01,2.34903e-01,-3.09517e-01,2.13407e-01,1.21284e-01,-2.72699e-01,3.05130e-01,-8.39892e-02,-1.03461e+00,-9.22165e-02,2.42735e-02,-1.38348e-01,
6.73568e-02,-1.67687e-01,1.64907e-01,-4.06622e-01,1.63716e-02,-9.23853e-02,1.73839e-01,-2.80214e-01,-1.63747e-01,-9.58889e-01,-1.64480e-01,1.68461e-01,-2.40481e-01,
9.59488e-02,3.78690e-01,-1.85691e-01,-7.78695e-02,-1.04761e+00,-5.29771e-02,-1.78930e-01,2.94711e-01,1.54352e-02,3.43005e-01,-6.52866e-02,7.96108e-02,-4.34530e-02,
-1.72146e-01,1.94309e-02,6.98026e-02,-1.77888e-01,2.34336e-01,2.81841e-03,8.95744e-01,2.42684e-01,-2.06189e-01,-1.03770e+00,5.05990e-03,-5.68684e-02,2.90681e-01,
-8.09024e-02,2.77849e-01,-8.81806e-02,-4.75249e-03,1.24817e+00,1.27352e-01,5.82044e-01,4.34375e-01,2.14703e-01,-2.43475e+00,-1.31593e-01,1.31293e-01,-2.12461e-01,
9.44310e-02,2.74114e-01,1.26543e-01,-3.22222e-01,-5.52548e-01,2.03033e-01,7.86557e-01,5.14522e-02,4.66038e-02,-2.07674e+00,-1.25242e-01,5.98764e-02,-1.08015e-01,
-2.00385e-01,9.82876e-02,-2.49955e-01,-2.84769e-01,-1.44878e-01,-1.04967e-01,1.23621e-01,-7.24493e-02,-7.74873e-02,-2.31788e+00,-5.36023e-02,1.16866e-01,3.23202e-01,
-2.15458e-01,1.01964e-01,3.09835e-01,1.24152e-01,7.03816e-01,-3.58459e-01,1.34241e-01,2.30312e-02,9.37639e-02,-1.20970e-01,2.44687e-01,8.04294e-02,-8.61228e-02,
-1.13434e-01,2.32277e-01,-6.04615e-02,4.93934e-02,-1.52060e-01,1.93126e-01,-1.44083e-02,-1.94836e-01,1.65213e-01,5.30685e-03,-1.22852e-01,4.54771e-03,-1.01764e-01,
1.53210e-01,-9.07945e-02,1.83300e-01,-1.76688e-01,9.10985e-01,2.08152e-01,-8.82393e-01,-5.82659e-02,4.67791e-01,3.82286e-01,-3.59803e-01,3.94427e-02,-1.51319e-01,
-2.49935e-01,-3.08559e-02,-1.56223e-02,1.87674e-01,1.02748e-01,-5.27238e-02,-2.69895e-01,-1.69095e-02,6.68252e-02,1.93897e-01,-1.54762e-01,-2.24975e-01,-3.41531e-02,
5.69064e-02,1.69188e-01,3.86308e-01,3.18243e-01,1.80240e-01,-4.74818e-02,2.09331e-01,1.43387e-01,3.65998e-01,-1.34217e+00,-7.37248e-02,1.59833e-02,-3.87809e-01,
2.05287e-01,7.10173e-02,-2.91445e-01,-3.56674e-01,-4.60344e-01,-6.87073e-02,3.18683e-03,1.18150e-01,-5.44756e-02,-1.80900e+00,7.36723e-02,-1.21138e-03,3.99783e-02,
1.92032e-01,2.71838e-01,-3.41799e-01,1.54379e-01,3.52152e-01,-1.75424e-01,1.35095e+00,-2.37179e-01,-2.51586e-01,-7.57699e-01,-3.70006e-02,1.86461e-01,5.94626e-02,
6.26604e-02,2.09401e-01,-3.29860e-01,-2.81130e-01,-2.44887e-01,-3.48229e-01,8.79224e-02,-1.50335e-01,-1.97928e-01,9.41343e-01,1.50329e-01,8.79420e-02,-1.87600e-02,
-1.54489e-01,
1.34197e-01,
2.57602e-01,
-2.87699e-01,
-4.81031e-01,
5.03735e-01,
-4.77577e-01,
-1.98718e-01,
2.00548e-01,
-6.37761e-03,
3.13220e-01,
8.57097e-02,
3.29800e-02,
2.62563e-01,
-3.77369e-01,
-4.53097e-01,
-3.76673e-01,
6.27775e-02,
-1.91574e-02,
-1.18688e-02,
2.37003e-01,
0.00000e+00,
0.00000e+00,
-1.08818e-01,
3.68749e-01,
-3.30109e-01,
-3.67896e-01,
0.00000e+00,
-4.18025e-01,
0.00000e+00,
-3.15777e-01,
2.06974e-01,
-1.01434e-01,
1.54327e-01,
-1.11033e-04,
1.21848e-01,
2.44451e-01,
-5.08248e-03,
4.73923e-02,
3.28832e-01,
2.27096e-01,
-2.78656e-01,
-2.89334e-01,
0.00000e+00,
-3.10263e-01,
1.37606e-01,
3.13195e-01,
1.77444e-01,
-1.86485e-01,
3.59249e-01,
1.67516e-01,
-3.56557e-02,
1.32904e-01,
6.36930e-01,
4.34747e-01,
3.36930e-01,
2.52017e-01,
-1.82308e-02,
2.20495e-02,
0.00000e+00,
6.85285e-01,
4.62607e-01,
2.99353e-02,
-2.03526e-01,
-7.71483e-02,1.44327e-01,-2.66373e-01,2.03923e-01,1.83035e-01,-9.83394e-02,9.57083e-02,-4.31624e-01,2.66574e-02,-3.18697e-01,-1.30363e-01,3.64882e-02,-8.59639e-02,-1.36039e-01,2.08663e-01,1.12799e-01,-8.64899e-03,2.90852e-01,-4.29818e-02,1.52626e-01,-4.12564e-01,1.83893e-01,-1.46716e-01,-1.39777e-01,9.94495e-03,1.11113e-01,2.43337e-01,-3.32754e-02,3.17136e-02,-1.55420e-01,2.39060e-01,-3.76167e-01,-4.74430e-02,-2.21449e-01,2.39998e-02,-1.14134e-01,1.02839e-01,-7.40516e-01,1.63036e-01,-1.05654e-01,1.24516e-01,2.63635e-01,3.76062e-02,-2.35388e-01,3.19974e-01,9.99570e-02,-2.40921e-01,2.89625e-01,-1.77935e-01,7.13047e-02,-1.27690e-01,-2.52104e-01,-1.79174e-01,-1.10771e-01,-1.42106e-01,-2.75725e-01,1.90622e-01,2.14849e-01,1.48944e-01,2.27809e-01,-5.16697e-01,-3.62966e-01,-3.82309e-02,-5.73907e-02,
-1.74262e-01,1.59917e-01,-2.25049e-01,-9.36617e-02,-1.23595e-01,3.30727e-01,-1.37820e-01,9.27194e-02,1.43804e-01,-1.81211e-01,-1.52907e-02,2.92050e-01,4.79238e-01,8.61156e-02,1.70010e-01,1.61271e-01,-2.39352e-01,-6.44860e-03,1.05253e-01,1.82342e-01,5.36777e-01,-2.47565e-01,9.65590e-02,1.22176e-01,9.96792e-02,-7.24242e-02,-2.04299e-01,1.56672e-01,-3.64518e-01,-1.97882e-01,1.19807e-02,2.80105e-01,-7.91947e-02,1.93577e-01,3.90648e-01,-8.22432e-02,9.41997e-02,8.50504e-02,2.49249e-01,1.09050e-01,-2.57837e-02,1.48949e-01,-2.82243e-02,1.32264e-01,-2.07909e-01,-2.60751e-01,1.36773e-02,2.87966e-01,1.01663e-02,1.12192e-01,2.59029e-01,-1.07029e-02,2.78026e-01,2.52147e-01,1.55323e-01,-2.45483e-02,2.96213e-01,1.41795e-01,4.51382e-02,1.39053e-01,1.21879e-01,1.71905e-01,5.45878e-02,-1.50940e-01,
-1.16839e-02,2.12618e-01,8.56377e-02,-2.76054e-01,1.65129e-01,-5.42995e-02,6.62571e-02,-3.97680e-02,6.37784e-02,2.34942e-01,-2.03486e-02,4.67898e-02,-5.92142e-02,1.62757e-01,1.17720e-01,2.19603e-01,-2.37945e-01,-5.93023e-02,-1.85705e-01,-1.98795e-01,-2.94057e-01,-1.26135e-01,-4.66396e-02,1.57162e-01,-2.89452e-02,2.06959e-01,2.17804e-01,-1.74680e-01,-1.21570e-01,-1.29643e-01,-1.72713e-01,-2.09612e-01,-4.22019e-03,-7.35402e-02,-1.04308e-01,-3.52823e-02,-8.30603e-02,6.17296e-02,-1.41205e-01,-1.71177e-01,-1.85167e-01,-4.62075e-02,2.30835e-02,-1.79329e-01,-1.58302e-01,-2.51331e-01,-1.57009e-01,1.15771e-01,1.04952e-01,-2.55378e-01,1.29596e-01,-6.93301e-02,-2.58819e-01,9.77316e-02,-2.02896e-01,1.49104e-01,-2.76219e-01,-2.37384e-02,-6.11594e-02,1.83141e-01,-2.34909e-01,6.18183e-02,-1.48485e-01,1.31520e-01,
5.43018e-04,2.70512e-01,4.38308e-02,2.43923e-01,-8.64298e-02,3.66248e-01,-2.59167e-01,-5.88150e-02,-8.06460e-02,-1.59922e-03,2.94152e-01,5.00293e-02,5.39541e-01,4.29761e-02,-9.10558e-02,3.94809e-03,3.02820e-02,-7.18483e-02,1.08897e-01,-2.00682e-01,6.52519e-01,-4.59643e-02,2.06708e-01,-2.17917e-01,1.98525e-01,-1.45746e-01,3.92767e-02,1.72370e-01,-2.52334e-01,2.69195e-02,2.51427e-02,6.44474e-01,-4.08285e-01,1.58735e-01,1.11664e-01,-5.13123e-02,2.11750e-01,2.57806e-01,3.79553e-01,3.88842e-02,1.60138e-01,-2.05838e-01,1.15287e-02,8.29780e-02,-2.57400e-01,5.37550e-02,2.69407e-01,5.71225e-02,-1.75305e-01,9.87256e-02,2.15735e-01,2.33324e-01,-1.05940e-01,3.48234e-02,3.48103e-01,3.46114e-01,-6.03649e-03,4.08433e-02,-1.49580e-01,-2.60884e-03,1.16265e-01,2.53368e-01,-1.61029e-01,5.10314e-02,
-3.72938e-02,2.91615e-02,-2.55248e-02,-1.64891e-01,-1.14298e-01,1.13378e-01,1.23970e-01,1.01442e-01,-3.85051e-02,1.27971e-01,8.55828e-02,7.55688e-02,1.06820e-01,5.87403e-02,-6.08753e-02,-1.97694e-01,1.31309e-02,-2.49810e-01,-1.40894e-01,-1.58478e-01,1.34787e-01,-1.81520e-01,1.22960e-01,-2.17664e-01,2.43851e-02,2.69402e-03,-4.82875e-02,1.39219e-01,-1.94432e-01,1.30330e-01,-1.27505e-01,-1.48014e-01,4.24417e-02,-8.05660e-02,-2.77392e-02,-1.09178e-01,-2.37952e-01,7.47350e-03,-2.26573e-01,-1.48807e-01,1.67195e-01,9.90018e-02,8.23796e-03,2.22532e-01,-2.78870e-01,-1.24001e-01,-1.88882e-01,-1.36862e-01,-2.56145e-02,1.98084e-02,-1.88177e-01,-1.47812e-01,-1.35233e-01,4.14833e-02,-1.80514e-01,-6.76789e-02,-2.81096e-01,2.48717e-01,-2.41021e-01,1.64010e-01,-1.38892e-01,1.28019e-01,-1.95909e-01,-6.34228e-03,
-2.34667e-01,-2.12947e-01,-2.14711e-01,-5.53661e-02,1.23966e-02,-2.15269e-02,5.49769e-02,-3.19392e-01,-9.28063e-02,2.35178e-01,-7.05066e-02,1.82536e-01,1.95498e-01,7.49541e-02,1.42995e-01,7.88699e-02,-1.94675e-04,6.31321e-02,7.76721e-02,-6.68691e-02,9.88486e-01,2.04952e-01,9.81979e-02,-1.95757e-01,8.30056e-02,1.38092e-01,1.60840e-01,-5.61027e-02,-1.74662e-01,1.70306e-01,5.55410e-02,1.29438e-01,1.43924e-01,-1.41008e-01,2.01262e-01,-4.37264e-02,-1.70436e-01,1.24670e-01,1.56334e-01,1.31199e-02,1.16540e-01,-1.12560e-01,-2.13979e-01,9.70163e-02,1.05980e-01,9.00187e-02,2.15330e-02,-2.78114e-02,1.37250e-01,7.29928e-02,-1.78722e-01,-1.68480e-01,7.08861e-02,3.88981e-01,6.04284e-03,-3.04986e-02,6.28194e-03,-2.03089e-01,3.10405e-01,1.12652e-01,2.66847e-01,8.62236e-03,-1.33739e-01,1.31771e-01,
-1.04120e-02,1.01279e-02,-4.26907e-02,5.94765e-02,-2.82253e-01,-7.14312e-02,1.53763e-01,-1.62117e-01,-5.32369e-02,6.95133e-04,9.82416e-03,-1.26608e-01,-5.06175e-02,5.67911e-02,1.79234e-02,-1.53762e-01,2.23642e-01,-1.51719e-01,4.33975e-01,-2.43955e-01,-6.15428e-01,1.41484e-01,1.06792e-01,3.82456e-01,-1.63360e-02,2.35042e-01,1.40542e-01,4.04239e-03,-4.48661e-02,-5.41362e-02,2.00489e-01,-2.62079e-01,2.82784e-01,1.01446e-01,-2.72657e-01,7.03441e-02,-1.91384e-01,-6.00591e-01,-1.78343e-01,1.58236e-01,8.10347e-02,2.52277e-01,-1.47353e-01,-2.03447e-01,1.08047e-01,-9.49413e-02,-1.45435e-01,-9.34638e-02,-4.40311e-02,1.37297e-01,5.17792e-02,-1.55021e-01,-2.43367e-01,-4.95126e-01,-4.07535e-01,-2.57013e-01,2.08263e-01,-2.03786e-01,6.02692e-02,-2.17461e-01,-1.00935e+00,-1.29319e-01,-1.76439e-01,-2.23459e-02,
-2.30299e-01,-1.89714e-01,1.62189e-01,-1.55618e-01,5.68472e-03,1.40525e-02,-1.50011e-01,-1.01004e-01,-1.92216e-01,1.04021e-01,-2.01671e-01,8.81790e-02,1.10707e-02,-2.76379e-01,6.52141e-02,7.29614e-02,-1.07281e-01,-1.05846e-01,-1.64212e-01,-2.47631e-01,-9.83701e-02,-2.18524e-01,-5.77073e-02,2.17945e-01,7.74220e-02,-1.04861e-01,1.08411e-01,-8.79356e-02,8.79672e-02,1.46776e-01,-1.33525e-02,1.79627e-01,1.11666e-01,7.94141e-02,-1.03780e-01,-4.41719e-02,-2.35772e-01,-2.26315e-01,-2.47976e-01,-2.49717e-01,6.78912e-02,8.55143e-02,-1.35601e-01,2.03541e-01,1.47962e-01,-1.30227e-02,-1.02962e-01,-2.67780e-02,6.34554e-02,-2.74739e-01,-1.72811e-01,-2.20318e-01,8.83108e-02,-2.49449e-01,-5.56686e-02,4.02768e-02,-1.20623e-01,-8.30476e-02,-2.01349e-01,-6.99936e-02,-2.41351e-02,-1.13091e-01,-2.94682e-01,-1.30004e-02,
-1.52087e-01,4.05971e-01,1.57293e-01,1.59604e-01,3.02015e-01,-3.50197e-01,2.41738e-01,-1.61358e-01,1.23100e-02,-1.85562e-01,-1.84888e-01,1.12656e-01,-1.64780e-02,7.76326e-02,2.33922e-01,4.15072e-02,2.44688e-01,-1.56073e-01,3.54008e-01,2.25764e-01,-5.13486e-01,-5.88372e-02,1.06443e-01,1.63336e-01,1.93580e-01,-1.07758e-01,2.61441e-01,1.29773e-01,1.07226e-01,6.23099e-02,3.55987e-01,1.60255e-01,-6.09837e-02,8.76891e-02,-1.29482e-02,-1.80672e-02,-8.19078e-02,-2.92281e-02,-3.32454e-01,-1.62086e-01,2.72469e-01,5.84420e-02,7.25563e-03,-1.15791e-01,-1.51202e-01,-1.75784e-01,3.29992e-02,-1.48411e-01,-8.02548e-02,-1.01698e-01,4.38727e-02,1.48159e-01,-7.50945e-02,-2.27525e-01,-2.15519e-02,1.66040e-01,1.83712e-01,-9.26228e-02,-1.84906e-01,-4.10900e-02,-1.24719e-02,7.00972e-02,-3.35207e-02,-6.96145e-02,
-1.18340e-01,-1.37009e-01,-1.02855e-01,-5.08313e-02,-2.27265e-01,1.08103e-01,-2.49846e-02,-8.46104e-02,-2.01869e-01,1.18679e-01,-9.44922e-03,-2.83864e-02,1.48636e-01,1.68399e-02,1.85251e-01,9.68553e-02,1.43015e-01,2.79030e-01,2.20322e-02,3.80031e-02,9.78713e-01,4.91637e-02,1.98790e-01,-2.69728e-01,1.22372e-01,-1.04768e-01,1.07753e-01,-9.94990e-02,-2.96893e-01,-2.35262e-01,5.25511e-02,-1.10425e-01,1.74523e-01,-2.34861e-01,1.16258e-02,-8.33869e-03,9.89024e-02,-2.02334e-01,3.10762e-01,1.57291e-01,2.38730e-01,-5.64395e-02,2.61901e-01,2.09379e-01,3.48664e-02,1.55332e-01,-3.14468e-01,-1.05953e-01,-9.54937e-02,-1.26700e-01,2.34229e-01,-1.10226e-01,-7.88077e-02,2.46820e-01,-1.16046e-01,6.45070e-02,-1.45507e-01,9.91089e-03,6.34741e-02,2.33227e-01,2.29570e-01,2.27742e-01,-1.39402e-01,-2.08220e-01,
1.30134e-01,-2.91441e-01,8.14166e-02,1.42575e-01,1.93633e-01,-5.68757e-02,4.48208e-02,1.38393e-01,-1.02025e-01,-3.85590e-02,-2.03284e-02,5.70571e-02,-2.01180e-01,6.54154e-02,1.41106e-01,-1.05925e-01,-2.37495e-01,-5.31595e-01,-3.43073e-01,-6.64544e-03,-5.44877e-01,-2.29123e-01,-1.46343e-02,-5.90661e-04,-3.63520e-01,-3.35212e-02,4.04841e-02,1.55632e-01,1.60707e-01,4.18586e-02,8.66903e-02,-2.04790e-01,-2.17804e-01,7.61701e-02,1.92508e-01,-2.81144e-01,-2.97789e-02,-5.70556e-02,-2.29519e-01,-5.39809e-01,-3.75016e-02,7.89176e-02,2.15993e-01,1.98615e-01,-5.05532e-02,5.87215e-02,-2.16087e-01,-2.42633e-03,-1.68163e-01,1.06912e-02,1.91352e-01,1.11347e-02,-2.36160e-01,-1.28311e-02,1.64804e-01,-2.74432e-02,6.67283e-02,-5.13553e-03,3.52369e-02,-1.17401e-01,1.27928e-01,-4.15912e-01,-6.43474e-02,7.70400e-02,
-1.31395e-01,2.99439e-01,-7.36797e-03,-2.83698e-01,8.62947e-02,-9.11492e-02,-5.55003e-02,-1.41128e-01,3.38053e-01,2.78967e-01,3.29590e-01,2.75168e-01,1.87794e-01,-1.68321e-01,-1.84970e-01,-1.75383e-01,2.31740e-01,2.17327e-02,4.05744e-01,-1.63280e-02,2.49378e-01,2.19674e-01,-9.14749e-02,-1.14838e-01,2.46449e-01,8.40400e-02,1.90742e-01,-1.04299e-01,-2.05513e-01,-1.00658e-02,-1.77824e-01,5.87089e-01,1.00122e-02,1.06566e-01,-3.77126e-02,2.54944e-01,2.52390e-01,2.22367e-01,9.80750e-02,1.43994e-01,-1.44618e-01,3.47812e-02,6.01990e-01,-2.09248e-01,-2.01602e-01,1.16665e-01,1.23936e-01,3.45998e-01,4.53230e-01,-2.87724e-01,1.07127e-01,1.97771e-01,2.13579e-01,-3.67448e-01,1.26490e-02,4.13418e-01,-4.48300e-01,-1.14128e-01,-4.44768e-01,-4.39346e-04,-4.37001e-01,-1.05268e-01,-2.40980e-01,-8.76704e-03,
1.04052e-01,2.89681e-01,1.30690e-01,1.68613e-02,-1.55882e-01,3.66314e-01,-1.19150e-02,-2.94244e-01,2.17495e-01,-2.80294e-01,9.02908e-02,-4.13450e-02,6.00027e-01,6.62344e-02,-6.16280e-02,-1.18060e-01,9.40640e-03,3.40578e-02,1.29176e-01,9.94320e-02,7.25353e-01,1.00055e-01,-1.04696e-01,-3.49082e-02,2.78944e-01,1.43904e-02,-1.73817e-01,3.93277e-03,-2.01916e-01,2.20376e-01,-2.27875e-01,2.68216e-01,-4.15669e-01,1.19812e-01,3.60639e-01,2.81361e-01,1.06938e-01,-8.74442e-02,2.65488e-01,1.74908e-01,2.40977e-01,2.97984e-02,-4.39943e-01,-1.49156e-01,7.22504e-02,4.14036e-02,1.10861e-01,4.38661e-01,4.05733e-02,1.35713e-01,6.62788e-02,-7.69999e-02,-9.18835e-02,2.08202e-01,4.10214e-01,3.98091e-01,3.01475e-01,9.08503e-02,1.27064e-02,-1.96132e-01,8.28576e-02,4.89651e-01,2.30348e-02,-6.34732e-02,
2.02752e-01,1.40037e-01,-1.79828e-02,1.84344e-01,1.92566e-02,1.43180e-01,-2.72230e-01,4.05863e-02,5.68067e-02,-2.76660e-01,-2.34096e-01,1.67241e-01,-4.95048e-02,3.25346e-02,1.97262e-01,-3.59649e-01,-2.17093e-02,-2.68846e-01,-1.71512e-02,-9.71138e-02,4.03038e-02,1.65126e-01,6.05071e-02,1.37935e-01,-9.25213e-02,-2.22042e-01,-2.29851e-01,2.21083e-01,1.65790e-01,2.78765e-02,-4.70209e-02,-1.79548e-02,6.65021e-02,-5.56856e-02,-1.73584e-01,7.41095e-01,-1.16561e-01,1.40282e-01,-1.71711e-01,1.67597e-01,-7.68860e-02,2.40411e-01,1.70268e-01,-1.81595e-01,-1.29606e-01,-2.29722e-01,9.87601e-02,2.13150e-01,1.70648e-01,-1.55919e-01,-2.55626e-02,-2.96278e-01,-1.93324e-01,-1.48259e-01,-1.55458e-01,-2.28725e-02,2.95850e-01,1.30235e-01,1.55824e-01,-2.25605e-01,-2.77586e-02,6.60096e-02,-2.53579e-01,1.57673e-01,
-4.79224e-03,4.70052e-02,1.44937e-01,3.56787e-02,-3.85243e-01,7.20969e-02,6.74600e-02,-1.73337e-01,-1.58718e-01,2.12779e-01,6.50970e-02,2.64393e-01,2.93145e-01,1.94248e-01,4.71697e-02,5.12020e-02,2.54619e-02,-1.94087e-01,-6.45796e-04,2.15672e-01,3.72115e-01,1.04526e-02,-3.06453e-02,-1.18938e-01,5.28735e-02,4.89188e-03,-5.95423e-02,1.33359e-01,-2.74296e-01,2.33383e-01,-1.79393e-01,-4.44966e-01,2.07731e-01,-2.21838e-01,2.28981e-01,9.17084e-02,-1.73648e-01,1.13354e-01,1.77195e-02,-1.73101e-01,4.73990e-02,1.10107e-01,1.57332e-02,-2.05373e-01,-5.05159e-02,1.99663e-01,-2.45796e-01,-3.06818e-02,1.72402e-01,-1.64729e-01,-1.42539e-02,-2.82835e-01,2.43212e-01,4.37978e-01,-2.08017e-01,3.51438e-02,-1.63871e-01,1.86988e-01,6.99274e-02,-3.44052e-02,-1.24317e-02,-8.74799e-02,-1.13125e-01,-9.45445e-02,
-1.09594e-01,-1.88222e-01,4.49765e-02,-3.01500e-01,-2.46904e-01,-2.43286e-02,-1.52778e-01,-3.35914e-02,-2.09917e-01,-2.03863e-01,-1.19264e-01,-1.68358e-01,-2.06016e-01,-3.11246e-01,-8.64555e-02,-2.56832e-02,1.97091e-02,1.97666e-02,-2.59703e-01,-2.17196e-02,-1.36192e-01,-2.47382e-01,-1.92878e-01,6.03375e-02,-2.85745e-01,-1.62750e-01,9.60987e-03,1.63450e-01,-2.50521e-01,2.24442e-01,-1.00255e-01,-1.79436e-01,6.90035e-02,7.99940e-02,1.55985e-04,-8.50415e-02,9.74624e-02,-1.62269e-01,2.37992e-01,1.06136e-01,3.13603e-02,-9.74359e-02,1.78150e-01,1.53968e-01,7.55137e-02,2.24704e-03,-2.23452e-01,9.69036e-02,-2.24061e-01,1.17471e-01,-2.99060e-01,-3.36157e-02,3.86137e-03,-2.70507e-01,-1.32235e-01,-9.46033e-02,-2.92085e-01,-1.04450e-01,1.68678e-01,8.60519e-02,1.01395e-01,1.56394e-01,7.66483e-02,-2.69921e-01,
1.13518e-01,1.73225e-01,9.91133e-02,1.72583e-01,-2.58265e-02,-1.00004e-01,5.33537e-02,-6.20945e-02,8.10110e-03,-1.93119e-02,-1.79670e-01,-2.26550e-01,7.79068e-03,-2.55590e-01,-8.71666e-02,-2.17232e-01,1.69686e-01,-1.56192e-01,1.74284e-01,-8.59911e-02,1.70590e-01,1.34496e-01,2.29430e-01,-5.17139e-02,-9.29764e-02,-3.23025e-01,-1.56189e-01,-1.67453e-01,-2.38061e-02,-2.06182e-01,-1.92303e-01,5.02009e-02,-2.99601e-02,-9.86009e-02,-1.93109e-01,-1.48433e-01,9.08917e-02,1.59404e-01,-2.11557e-01,-1.81567e-01,-2.70478e-01,1.32519e-01,2.39157e-01,3.37237e-02,9.66980e-02,1.43993e-02,-4.16940e-02,-8.46661e-02,4.69362e-02,-2.91371e-02,3.37367e-02,-2.32081e-01,-1.00312e-01,-2.61341e-01,1.42186e-01,-2.10606e-01,-4.63864e-02,-1.94366e-01,-2.13006e-01,1.74017e-01,1.02107e-01,-7.20555e-02,-2.21865e-01,-2.82192e-01,
-3.02363e-01,-1.44536e-01,-1.06187e-01,-3.16030e-02,4.01753e-03,-2.09879e-01,-4.98465e-02,5.25238e-02,-9.40342e-02,4.10704e-02,-2.04677e-01,1.51599e-01,1.04308e-01,-1.00964e-01,-3.33712e-01,4.15311e-02,-1.66335e-01,-1.01027e-01,1.19234e-02,-7.29492e-02,-1.07660e-01,1.02257e-01,-2.27418e-01,-1.76119e-01,-1.23827e-01,1.04805e-01,1.40631e-01,-2.24782e-01,5.31175e-02,-4.99207e-02,-6.00911e-03,3.63106e-02,-1.55181e-01,-2.27854e-02,6.28092e-02,-1.24973e-02,-8.09790e-02,-5.63903e-02,-2.15188e-02,-2.78103e-01,-1.14073e-01,1.18522e-01,-2.10200e-01,9.34975e-02,-2.87097e-01,-1.10289e-01,-7.28316e-02,1.36059e-02,-3.20930e-02,5.59213e-02,-7.21969e-02,-4.69683e-02,-4.25632e-02,-7.22494e-02,-2.02465e-01,1.33906e-01,-2.68682e-01,-7.57610e-02,-1.86512e-01,6.73711e-02,1.55107e-01,1.14407e-01,-1.54286e-01,3.69663e-04,
-1.58683e-01,-1.37953e-01,-2.14704e-01,-2.32840e-02,-4.66696e-03,3.62534e-01,-4.06976e-01,-1.31655e-01,7.19778e-02,1.94897e-01,7.45732e-02,2.30984e-01,1.55681e-01,-1.12139e-01,1.04477e-01,-9.55855e-02,-7.50485e-02,3.10126e-01,1.50971e-01,-1.77072e-01,3.07086e-01,2.23368e-01,1.39967e-01,1.17050e-01,1.46513e-01,7.48371e-02,-1.07683e-01,1.62610e-01,-3.86630e-01,-5.00571e-02,1.21675e-01,5.43607e-02,4.14247e-01,-2.60987e-01,5.22017e-01,8.29941e-02,-2.94583e-01,1.06129e-01,4.05514e-01,-2.51303e-01,-3.11772e-01,-7.70678e-02,-2.19716e-01,-4.20579e-02,1.38503e-01,-1.09015e-01,-2.70321e-01,2.26800e-01,1.76765e-01,1.52045e-01,-5.77650e-02,-2.63849e-01,-1.18688e-01,3.58684e-01,-3.23967e-01,4.10024e-03,2.21559e-01,3.53132e-02,-1.33475e-01,1.30722e-01,5.99006e-01,-8.79843e-02,3.67100e-02,1.48688e-01,
2.10930e-01,7.12280e-02,1.03873e-01,-8.67280e-02,1.09113e-01,1.85211e-01,-6.28765e-02,1.42120e-01,-2.07772e-01,4.04851e-02,-1.57706e-01,-3.15678e-02,2.43498e-01,-1.15393e-01,-1.36095e-02,1.69327e-01,-1.11919e-01,1.69743e-02,-1.94031e-01,-1.17758e-01,2.19646e-02,-9.48575e-02,1.54479e-01,-7.45830e-02,-1.31231e-01,-2.70763e-01,2.28974e-01,1.55685e-01,1.30980e-01,-1.97420e-01,-2.53924e-01,-1.47676e-01,-3.56366e-02,-1.17315e-01,-1.11639e-01,-7.82865e-02,-2.88950e-01,-1.77932e-01,2.20016e-01,1.91504e-01,1.81561e-02,2.17913e-01,1.47411e-01,1.72263e-01,-6.88650e-02,-1.34629e-01,-1.61494e-01,-7.62846e-02,-1.45303e-01,1.96520e-01,-2.23802e-01,-8.07141e-02,-1.83329e-01,1.36490e-01,-1.28554e-01,1.06601e-01,1.25307e-02,1.68729e-01,-1.87280e-02,-1.61035e-01,-9.52137e-02,-1.21559e-01,-1.65273e-02,-1.47648e-01,
1.90060e-01,6.72959e-02,-2.20542e-01,2.64907e-01,-7.40342e-02,-3.13172e-01,-7.92058e-03,-8.82522e-02,2.72357e-01,-4.95642e-02,4.93811e-02,-2.47872e-01,-1.61922e-01,-5.15748e-02,1.72112e-01,3.78023e-02,8.65058e-02,-2.96829e-01,4.10518e-01,4.77849e-02,2.17161e-01,-4.71566e-02,-2.09455e-01,-1.68382e-01,2.24879e-01,3.29785e-02,9.99095e-02,7.28776e-02,-1.00924e-01,-1.72945e-01,3.91160e-01,3.87509e-01,-1.23100e-01,-3.60459e-04,8.97072e-02,5.58513e-02,3.32338e-01,-2.98892e-01,-1.32056e-01,-1.70058e-02,-2.14332e-02,2.28883e-01,-1.37167e-02,4.32877e-02,1.73911e-01,4.40047e-02,1.74007e-01,1.87431e-01,1.42086e-01,1.39772e-01,-1.97895e-01,3.80247e-01,-1.30894e-01,-2.46923e-01,2.87490e-01,2.07352e-01,-3.79820e-01,-6.49159e-02,3.06832e-02,1.65911e-01,1.81324e-01,2.79285e-01,-1.75259e-01,1.62094e-01,
1.35012e-01,1.80819e-01,-2.00826e-01,-6.27232e-02,-9.73237e-02,-2.29533e-01,3.53367e-02,1.41905e-01,2.03929e-02,1.06767e-02,1.05087e-01,2.87380e-01,-1.82957e-01,4.71284e-02,-2.13921e-01,-1.24046e-01,2.37268e-01,3.01998e-02,-8.44677e-02,-2.41957e-02,5.98354e-01,-2.16406e-01,-1.84905e-01,8.25278e-02,6.72478e-02,-1.79745e-01,-9.92591e-02,6.55928e-02,-1.70610e-01,1.99382e-01,8.12495e-03,2.54705e-01,3.31732e-01,-4.44950e-01,1.79151e-03,-4.17708e-03,-2.06053e-01,9.83893e-02,5.97020e-01,-1.02894e-03,-6.38606e-02,-2.82237e-01,-7.04271e-02,1.82200e-01,-2.87393e-02,-1.91987e-01,-6.99421e-02,1.14490e-01,-1.63208e-02,-1.62615e-01,-1.39373e-01,-4.88754e-02,2.76508e-01,4.44436e-03,-2.34705e-01,1.59791e-01,-4.49414e-02,-1.36267e-01,1.16564e-01,-4.49298e-02,1.25720e-01,-1.89768e-01,-1.34852e-01,-9.86575e-03,
-2.70321e-02,4.99220e-03,-2.90431e-01,1.42307e-01,-3.12734e-01,-6.23978e-02,-2.77715e-01,1.52592e-01,2.84764e-01,-1.96399e-01,1.80916e-01,6.57768e-02,3.95283e-02,-6.84816e-03,-7.87751e-02,4.12059e-02,8.38903e-02,-6.88631e-02,2.37970e-01,-2.18977e-01,7.86464e-02,4.83787e-03,-3.30666e-02,-1.36190e-01,-2.18333e-02,-8.88884e-02,-4.63755e-02,-1.03854e-01,-5.44920e-02,2.03807e-01,8.21451e-03,1.49870e-01,1.59307e-04,-5.77566e-02,1.48080e-01,2.56789e-01,-2.26702e-01,-1.64369e-01,1.04352e-01,1.41139e-01,-1.74581e-01,-1.26082e-01,1.97135e-01,-1.65548e-02,-2.93812e-02,2.43396e-01,-2.27087e-01,9.13052e-02,-2.65268e-02,5.53588e-02,2.96545e-02,-2.66775e-01,-6.83800e-02,-1.80132e-01,-1.07825e-01,7.32859e-02,-1.20212e-01,-1.68310e-01,2.29487e-01,2.33427e-01,-4.43837e-02,1.85716e-01,-2.32945e-01,-1.70154e-01,
1.74751e-01,9.12639e-02,4.81335e-02,-2.14738e-01,-1.42176e-01,-2.70894e-01,-2.62972e-01,-6.26162e-02,1.85407e-01,2.11509e-01,-2.22147e-01,2.06973e-01,-1.46412e-01,-1.45325e-01,1.72843e-01,-1.61443e-01,-1.22403e-01,-2.34968e-01,-1.00021e-01,1.03648e-01,-1.43511e-01,-2.22296e-01,-9.90983e-02,3.53195e-02,1.54839e-01,9.78529e-02,-2.48704e-01,7.45631e-02,-2.08649e-01,1.18717e-01,-2.39630e-01,-3.35919e-02,-1.67667e-01,9.71340e-02,8.43354e-02,1.85892e-01,1.23640e-01,4.28566e-02,1.71880e-01,7.60737e-02,1.69285e-01,-2.06445e-01,-1.50816e-01,-3.27748e-02,-1.58849e-01,1.24814e-01,3.24896e-02,3.69043e-02,-2.15420e-01,-1.34303e-01,-1.60012e-01,1.02508e-01,-2.17656e-01,9.27310e-02,-2.77533e-01,-1.81383e-01,-7.49645e-02,1.71045e-01,-9.23496e-02,1.44326e-01,-2.61400e-02,-2.32399e-01,-4.62838e-02,-4.10968e-02,
2.06060e-01,3.96761e-02,-1.71187e-01,1.30741e-01,5.17180e-02,1.72750e-01,1.45000e-01,3.40843e-01,2.50442e-03,2.36378e-03,-3.46924e-01,-2.20110e-01,-4.55045e-01,-9.57970e-02,-4.29976e-03,3.06928e-02,1.47299e-01,-2.15473e-01,-3.08912e-01,1.49169e-01,-5.24303e-01,6.36605e-02,5.97634e-02,1.17501e-01,8.33715e-02,1.17174e-01,1.06585e-01,3.11812e-02,2.87777e-01,-3.89888e-02,2.79316e-01,-4.46472e-02,-1.42649e-02,-2.87985e-02,1.54900e-01,-2.42190e-01,-1.24798e-01,1.59370e-01,-1.82131e-01,-1.40271e-01,-8.36043e-02,2.16742e-01,1.29520e-01,-2.05506e-01,8.38794e-02,-3.03414e-01,-9.69130e-02,4.64686e-02,5.49074e-02,-1.37592e-01,5.13750e-02,2.15741e-01,-1.21233e-01,-1.75321e-01,-1.91934e-01,2.06493e-02,1.21535e-01,5.45346e-02,-2.81294e-01,-1.97259e-01,-7.31521e-01,-4.07405e-01,1.88645e-01,1.94515e-01,
3.51271e-03,4.53226e-01,-1.08953e-01,-5.02669e-02,-4.27733e-01,2.60142e-01,-9.09097e-02,1.85146e-01,-1.26733e-01,3.95115e-01,-2.32573e-01,3.70849e-01,2.71376e-01,-2.48775e-01,-1.25437e-02,3.74503e-03,-4.45673e-02,-1.74640e-02,-1.77392e-01,-1.98436e-01,2.53539e-01,-1.28017e-01,1.18230e-01,2.13218e-01,1.04078e-01,1.25736e-01,-1.30047e-01,1.05373e-01,-5.39226e-02,-6.45876e-02,8.75388e-02,8.78399e-02,1.95874e-01,-2.16045e-01,2.14627e-01,2.63341e-01,1.89700e-01,-6.82601e-02,1.74476e-01,-8.84655e-02,-1.66293e-01,-3.45076e-01,2.13274e-01,-1.43318e-01,-2.17892e-01,1.93957e-01,-1.92897e-01,4.53249e-01,-2.64266e-02,-2.67054e-02,-2.48351e-01,-3.01845e-01,3.35732e-01,1.21879e-01,-1.50114e-01,3.57358e-02,2.14083e-01,1.39924e-01,2.82466e-02,-4.20046e-03,1.17865e-01,-9.42767e-03,-2.37635e-01,-2.67189e-01,
-2.96470e-02,-1.78446e-01,-1.03701e-01,2.11214e-01,-1.78763e-01,-5.42587e-02,-8.14686e-02,-2.01021e-01,-1.84261e-01,-1.52998e-01,1.69114e-01,-3.17763e-01,-2.84665e-02,-3.06082e-02,2.04628e-01,1.69378e-01,2.37453e-01,1.60830e-01,1.44414e-01,-7.83587e-02,-1.43941e-01,-9.72086e-02,2.56510e-02,2.10030e-01,8.04485e-02,9.81087e-02,1.62573e-01,-2.25529e-01,-2.01967e-01,-1.33009e-01,1.27706e-01,-9.60284e-02,6.03288e-02,7.08884e-04,1.50202e-02,1.39017e-01,1.73193e-01,-5.96567e-01,-3.92030e-01,-1.26938e-01,-3.31030e-02,3.00619e-01,1.38551e-01,-4.91494e-02,3.15973e-01,1.53960e-02,-1.41430e-01,-5.17665e-02,-1.31684e-02,-5.63612e-02,5.76493e-02,-4.75678e-02,-3.09470e-01,-4.08227e-01,-3.61674e-01,1.99140e-01,-2.15364e-01,-6.32367e-02,6.62759e-02,-4.44285e-02,1.87092e-01,-1.58976e-01,-2.53671e-01,-2.09150e-01,
-8.42169e-02,2.66971e-01,5.71169e-02,-1.85013e-01,-1.90145e-01,5.21661e-02,5.50016e-02,-3.33897e-01,-1.41975e-01,-2.86736e-01,-1.14390e-01,1.14387e-01,4.18764e-01,8.10550e-02,-2.45756e-01,-9.57191e-02,-2.17625e-01,2.67583e-01,7.66711e-02,-2.33047e-01,6.48324e-01,-9.40084e-03,1.22188e-01,2.46468e-01,2.51213e-02,-1.15402e-01,2.95069e-01,-1.14956e-01,4.98362e-02,-1.27055e-02,2.32545e-01,-1.96006e-01,-4.94002e-02,-2.74701e-01,1.60825e-02,3.25178e-01,-2.10838e-01,-9.10327e-02,2.43433e-01,9.83259e-02,1.26849e-01,1.85110e-01,-1.99317e-01,-1.22320e-01,-1.12078e-01,1.94217e-01,-2.52463e-01,2.16117e-01,-2.68974e-02,7.68197e-02,-1.54424e-02,-1.86718e-02,1.06378e-01,9.01565e-02,2.95296e-03,6.87203e-02,-4.03221e-02,-1.06076e-01,-4.29564e-02,-1.10926e-01,3.79048e-01,2.68953e-02,1.01227e-01,1.21005e-01,
4.43640e-02,-1.29474e-01,8.85852e-02,-7.98713e-02,-1.18970e-01,1.46618e-01,1.71363e-01,2.16829e-01,-3.99973e-02,-1.00409e-01,-2.42465e-02,9.35888e-02,-1.60446e-01,1.02386e-01,-1.53412e-03,6.24198e-02,-4.22714e-02,7.52353e-02,-3.21340e-01,-1.34124e-01,-3.08035e-02,-1.17279e-01,2.37880e-01,-2.70381e-01,1.20937e-01,-2.02591e-01,-1.61754e-01,3.26995e-02,-8.80319e-02,-1.75216e-01,-2.46634e-01,1.94926e-02,-2.90056e-01,7.22086e-02,-1.71812e-01,1.00577e-01,1.62667e-01,4.76718e-01,2.15836e-01,2.12618e-01,2.18378e-01,-2.89500e-01,-1.24977e-01,1.64672e-01,-1.84989e-01,7.64105e-02,4.40740e-02,-1.47728e-01,1.11350e-01,4.92918e-02,1.01453e-01,-2.02231e-01,3.90826e-01,1.80990e-01,5.02064e-01,-1.05410e-02,-1.56197e-01,-1.14214e-01,-3.21208e-01,6.81266e-02,1.64380e-02,-3.84793e-02,2.84096e-01,-1.20047e-01,
1.91084e-01,-1.29782e-01,2.81955e-01,1.05847e-01,-4.48577e-02,-5.17542e-02,-1.09093e-02,-7.41058e-02,-3.45223e-02,-9.85578e-02,1.51705e-01,1.10692e-01,-3.72426e-02,2.46379e-02,-3.92862e-02,-2.54962e-01,-3.17443e-01,-1.06134e-01,-1.04410e-01,-1.13732e-01,5.62909e-02,-2.07438e-01,2.08626e-02,6.46776e-02,6.17687e-02,-1.47029e-01,-2.97252e-01,-5.85545e-02,1.00908e-01,-9.74073e-02,-2.85155e-01,-1.28717e-01,1.48414e-01,-7.83430e-02,-5.39407e-02,3.17686e-02,1.47179e-02,-7.66755e-02,1.60267e-01,-4.47068e-02,-8.60842e-03,-4.62832e-01,-1.86929e-01,-1.55935e-01,-3.33960e-01,4.56622e-02,2.00165e-01,-1.54591e-01,3.44537e-01,-2.67886e-01,-6.65718e-02,2.15362e-01,4.41674e-03,2.53459e-01,2.81984e-01,-1.16150e-01,-2.81282e-02,-1.11727e-01,1.16598e-02,-1.75179e-01,2.26591e-01,2.56014e-02,3.91556e-02,1.18107e-01,
2.45884e-01,5.05417e-02,-2.36116e-01,-1.73358e-01,-1.52881e-01,3.00142e-01,-1.16010e-02,2.21942e-01,2.56145e-01,1.70961e-01,2.24993e-01,3.52966e-01,3.68520e-01,-4.17511e-03,9.92414e-02,-3.01795e-01,1.08846e-01,-4.05938e-02,1.80052e-02,-1.83479e-01,6.48020e-01,-2.59095e-02,-9.67770e-02,1.22949e-01,1.05911e-01,9.59365e-02,-1.67957e-01,1.31949e-01,9.58633e-02,-2.34667e-01,-5.70130e-02,3.78664e-01,4.54913e-01,-9.52291e-02,1.49102e-01,-9.57661e-02,8.66887e-02,1.97496e-02,3.58336e-01,3.95912e-02,5.16602e-02,1.03649e-01,3.31071e-01,-2.33758e-01,-3.15119e-01,-1.83367e-02,2.59593e-02,-4.76029e-03,1.14996e-01,-1.22135e-01,-2.58345e-01,-1.94046e-01,2.70270e-01,-1.94340e-01,-3.49648e-01,6.10165e-02,-1.92987e-01,-1.66557e-01,-9.46285e-02,-1.77101e-01,5.93296e-01,2.65491e-02,-4.01599e-02,-4.30579e-02,
2.31088e-02,-1.00693e-01,-4.49216e-02,1.83897e-01,1.99225e-01,4.82026e-02,2.68190e-02,-2.02909e-01,7.87853e-02,-1.78567e-01,-5.76079e-02,-3.30790e-01,-5.09638e-01,-1.31809e-01,-8.95921e-02,6.35149e-02,1.04676e-01,5.23469e-02,2.12694e-01,3.03909e-02,-5.59193e-01,1.86815e-01,-3.62300e-02,2.15002e-01,-4.93669e-02,1.13928e-01,2.45424e-01,-2.48504e-01,3.39369e-01,-2.33977e-01,2.30667e-01,-1.74286e-02,2.78576e-01,2.64713e-01,-2.37325e-01,-1.25508e-01,1.41572e-01,-1.23316e-02,-8.89565e-02,-2.37001e-01,2.70711e-01,3.03470e-01,1.02168e-01,-2.01660e-01,9.65472e-02,-1.16583e-01,-2.04731e-01,-2.65827e-01,-7.92789e-03,-8.02989e-02,6.77485e-02,3.05413e-01,-6.96913e-02,-4.09432e-01,-2.16942e-01,-2.42457e-01,-1.33922e-01,-1.86605e-01,-2.18151e-01,6.03334e-02,-3.13949e-01,-1.58152e-01,-2.16812e-01,1.50343e-01,
-2.38792e-01,
3.14076e-01,
-2.51820e-02,
4.57603e-01,
-5.48883e-02,
3.24138e-01,
-1.95100e-01,
-8.34897e-02,
-1.92771e-01,
1.16826e-01,
-2.46768e-01,
7.58146e-02,
4.83105e-01,
-2.32554e-02,
9.83204e-02,
-6.54965e-02,
-6.94737e-02,
-8.77126e-02,
1.37721e-01,
3.33097e-02,
1.53744e-01,
1.12418e-01,
-1.63376e-02,
-5.57033e-02,
-3.04202e-01,
1.31278e-02,
-3.26736e-01,
2.15845e-01,
7.94855e-02,
1.59963e-01,
1.39164e-01,
-3.41484e-01,
-4.38130e-01,1.81956e-01,5.18231e-03,-9.58200e-02,-1.30330e-01,2.93502e-01,-7.51538e-02,-1.68813e-01,-1.96907e-01,2.35790e-01,-2.32323e-01,-2.05426e-01,1.58221e-01,1.75847e-01,1.85413e-01,2.12638e-01,3.24653e-01,1.93236e-01,2.94938e-01,-1.96065e-02,-1.99454e-01,1.78820e-01,3.78249e-01,-3.13708e-01,-3.40783e-01,3.19902e-01,1.07544e-01,1.29709e-01,-5.12406e-02,1.13243e-02,2.10053e-01,-3.60802e-01,
9.16512e-03,-9.65537e-02,-2.11889e-01,2.61635e-01,-2.23606e-01,-2.92251e-01,1.02710e-01,4.29711e-02,-3.60480e-01,9.96485e-02,-2.52994e-01,-2.61883e-01,-2.20648e-01,-7.56035e-02,1.89781e-01,-1.84067e-01,-2.21959e-01,3.26425e-01,5.95628e-02,-1.28127e-01,-2.91139e-01,-1.88771e-01,-3.07199e-01,1.25292e-02,2.01915e-01,2.76094e-01,-1.86224e-01,-2.61230e-01,6.38817e-03,-3.13218e-01,-3.50971e-02,2.29969e-01,
-1.26406e-01,-1.29135e-01,-2.75891e-01,-9.74768e-02,-2.85927e-01,2.86897e-01,3.11495e-01,2.70720e-01,-2.53237e-01,3.24130e-01,2.34067e-01,-1.62665e-01,2.05050e-01,1.06195e-01,2.02855e-01,1.57160e-01,1.03802e-01,-8.46642e-02,1.54792e-01,-2.69533e-01,2.82324e-01,1.72231e-01,-2.47765e-01,1.37603e-02,-1.16718e-01,-2.80238e-01,2.09220e-01,4.20330e-02,-3.63532e-01,1.90239e-01,1.34297e-01,2.96850e-01,
7.47064e-02,2.03231e-01,6.94457e-02,3.76773e-02,1.20794e-01,-1.21452e-01,1.18929e-01,-3.49307e-01,-3.98702e-01,-3.12770e-01,1.83846e-01,-4.95389e-02,2.33057e-01,3.80588e-01,-1.34683e-01,-2.49280e-01,2.14779e-01,1.33011e-01,3.10813e-01,1.24593e-02,-2.25138e-01,3.23583e-02,-6.09094e-02,1.90881e-01,-1.94965e-01,3.43188e-01,1.43272e-01,1.57867e-01,-2.07125e-01,3.00598e-01,8.53015e-02,5.64984e-02,
1.30792e-01,1.46177e-01,-2.49327e-01,7.27101e-02,-3.53379e-02,-9.47502e-02,7.45485e-02,2.13517e-01,6.49943e-02,1.87260e-01,5.73851e-01,-2.69826e-01,-1.19679e-01,1.21216e-01,-2.87754e-01,-3.26948e-01,8.48847e-02,1.30743e-01,-3.97000e-02,-1.59938e-01,-1.32131e-02,-1.92966e-01,-5.20732e-02,-2.78058e-01,3.25899e-01,-8.82063e-02,4.40621e-02,-1.62044e-01,6.28699e-02,-3.70057e-01,-3.36653e-01,9.60658e-02,
-4.97069e-02,-2.43251e-01,2.78512e-01,-4.50526e-02,1.66350e-01,3.07835e-01,-4.40177e-03,1.51365e-01,-2.29135e-01,-6.89339e-02,1.72150e-01,1.55807e-01,1.25301e-01,-3.09822e-01,-1.26286e-01,7.21555e-02,-1.56555e-01,-1.56353e-01,4.09118e-01,1.44208e-02,-1.01659e-02,-3.36587e-02,1.62774e-03,-2.22435e-01,5.82092e-02,-2.95982e-01,2.11082e-01,-1.74637e-01,-8.02297e-02,-1.98043e-01,-2.21259e-01,-9.84006e-02,
2.02028e-01,6.80122e-02,-2.88256e-01,1.03373e-01,1.06410e-01,-3.29209e-01,2.04627e-01,-2.30173e-01,-3.00744e-01,-5.22024e-01,1.83007e-01,1.29643e-01,-2.06767e-01,1.09840e-01,-1.81482e-01,9.66057e-03,2.13202e-01,-2.29810e-01,4.53981e-02,-2.31232e-01,-8.47166e-01,2.25431e-01,-4.79634e-01,-1.94496e-01,2.47580e-01,-1.81578e-01,-2.24083e-02,-1.08001e-01,3.19671e-01,2.36240e-01,2.49669e-01,-8.14167e-02,
-9.17983e-02,2.07443e-01,-1.66070e-01,-2.64570e-01,2.12423e-01,-1.87733e-01,-2.60615e-01,-2.88746e-01,6.28814e-02,-4.17643e-01,4.69038e-02,-2.53730e-01,-4.39645e-01,-1.55076e-01,-1.46123e-01,-3.32614e-01,-1.14919e-01,-1.73379e-01,3.05906e-02,-2.55959e-01,-3.50966e-01,-2.23351e-01,-3.19112e-01,3.12803e-01,8.27111e-02,-7.40032e-02,-1.70000e-01,-7.58215e-02,-2.94488e-02,1.14373e-01,-2.51465e-01,-4.41416e-01,
7.53833e-02,-4.09523e-01,-1.09968e-01,-5.65756e-03,-3.12730e-01,3.30890e-01,3.13003e-01,3.06132e-01,-2.18184e-01,-2.80198e-01,-2.24980e-01,7.86185e-02,-5.90826e-01,-2.54334e-01,1.98580e-01,-2.20266e-01,2.50864e-01,2.41604e-01,-1.85647e-01,2.10807e-01,-1.97514e-01,-4.93417e-03,-3.09372e-01,2.17375e-01,1.91193e-01,1.45291e-01,5.38866e-03,2.59198e-01,-2.37375e-02,4.11268e-01,-3.78516e-01,-1.96504e-02,
1.88226e-01,2.70744e-02,2.38512e-01,-2.59882e-01,2.14951e-01,-6.93667e-02,7.26228e-02,-6.12601e-02,-1.62802e-01,-3.48118e-01,1.17901e-01,1.00350e-01,-1.71874e-01,3.57087e-01,-3.36742e-01,6.10276e-02,-1.41440e-01,9.89134e-03,-2.01809e-01,3.05382e-01,-8.72595e-02,3.51374e-02,-2.88954e-01,1.21163e-01,-2.63502e-01,-2.41304e-01,3.39554e-01,-4.32151e-01,7.32784e-02,-2.58713e-01,-3.28754e-01,2.94537e-01,
2.36546e-01,2.92385e-01,2.39230e-01,5.68175e-02,1.92115e-01,2.03248e-01,3.53634e-01,-1.65678e-02,3.58211e-01,-5.61369e-02,3.11422e-01,2.33235e-02,-2.58981e-01,-6.21638e-02,-3.43125e-01,-1.98828e-01,-3.73403e-01,-3.53178e-02,-3.11202e-01,-3.31132e-01,-2.47482e-01,1.15464e-01,-2.42083e-01,-2.58350e-01,-7.06408e-02,-3.10179e-01,4.78824e-01,2.36886e-01,-2.44406e-01,3.63251e-01,-1.20986e-01,1.65603e-01,
-2.97106e-01,1.00686e-01,-2.39794e-01,-1.54317e-01,2.04601e-01,1.80086e-02,-3.95822e-01,6.79671e-02,2.10106e-01,-2.49711e-01,1.15729e-01,-1.92653e-01,-7.11422e-02,1.93776e-01,8.69049e-03,-3.95619e-02,-2.19624e-01,1.92530e-01,-3.71262e-01,-3.47357e-01,-2.90967e-01,-2.60147e-02,-1.82631e-01,2.78182e-01,1.89458e-01,1.45760e-01,1.72628e-01,1.81289e-01,4.14903e-01,-1.59992e-01,-2.02835e-01,6.97680e-02,
1.34675e-03,-2.42494e-01,3.34498e-01,-1.57147e-01,-1.60839e-01,2.88710e-01,2.62975e-01,-5.77167e-02,-2.86073e-02,-3.07052e-01,-1.85932e-01,3.28851e-01,-3.01008e-01,1.95394e-01,-3.45095e-01,2.96737e-01,8.07674e-02,2.98937e-01,-1.67820e-01,-3.04097e-01,6.96113e-02,2.22700e-01,-2.82831e-01,1.90165e-01,3.08491e-01,-1.42819e-01,-5.49449e-02,-3.69465e-01,-2.86276e-01,2.67855e-01,2.96453e-01,-1.83247e-01,
2.42062e-01,-3.18781e-01,1.28383e-01,-2.75278e-01,-1.65312e-01,-1.93313e-01,3.58916e-01,2.05106e-01,2.11097e-01,-2.12081e-02,-8.73262e-02,-2.50272e-01,-3.50457e-01,-2.98916e-01,-2.28189e-01,1.95337e-01,-2.67665e-01,3.18818e-01,-9.21825e-02,3.25115e-01,-2.48265e-02,-8.56664e-02,1.17615e-01,1.36759e-02,9.03751e-02,4.05198e-01,5.23144e-02,9.59052e-02,-4.17405e-01,-1.54819e-01,8.83050e-02,4.88912e-02,
-2.53191e-01,3.27990e-01,1.29063e-01,2.45611e-01,1.46517e-01,3.42139e-01,1.16106e-01,-2.29171e-01,-3.18602e-01,1.73897e-01,-1.98732e-01,-4.44061e-01,-3.78779e-01,2.45670e-01,2.16419e-01,1.39518e-01,-3.09974e-03,-1.60794e-01,-6.04542e-02,6.77542e-02,-1.87727e-01,2.42478e-01,-1.18206e-01,5.55018e-02,-2.46260e-01,3.41794e-02,4.48129e-02,-2.56263e-01,2.19095e-01,3.20014e-01,-1.98909e-01,-2.66463e-02,
-2.12987e-01,3.24655e-01,-2.17437e-01,4.01698e-01,-2.46207e-01,2.91918e-01,-3.65738e-01,2.09457e-01,1.84814e-01,-1.50094e-01,1.46044e-01,4.80935e-01,2.36208e-01,1.77317e-01,-2.60015e-01,-1.13666e-01,7.95712e-02,2.78950e-01,8.82870e-02,4.77054e-02,-2.24219e-01,3.33274e-01,-5.00658e-02,6.66483e-02,-2.06990e-01,9.46875e-02,-3.27959e-01,2.19593e-01,1.84999e-01,1.62037e-01,1.35257e-01,-2.74050e-02,
2.82996e-01,
-6.58647e-02,
-2.85019e-01,
1.38704e-01,
-6.57920e-02,
-1.20788e-02,
-1.81968e-01,
-1.72360e-01,
6.94963e-02,
-2.03786e-01,
-3.44372e-01,
-3.39922e-01,
-3.36598e-02,
-1.05815e-01,
-1.05139e-01,
5.31163e-01,
3.40316e-01,-9.92012e-03,-2.53457e-01,-3.35891e-01,5.88509e-02,2.25597e-01,1.78812e-01,-7.09382e-02,5.71298e-01,1.96110e-02,4.80371e-02,4.33551e-01,1.92341e-01,-1.40580e-01,-3.31444e-01,-5.24185e-01,
-8.44374e-02,3.24253e-01,-3.37475e-01,2.16738e-01,-1.43008e-01,1.92287e-01,2.62794e-01,-2.54654e-01,3.07171e-01,-1.54412e-01,4.48103e-02,4.84139e-01,4.27538e-02,3.17598e-01,4.69847e-01,-2.62326e-01,
2.05899e-01,2.56518e-01,-3.31383e-01,3.07577e-01,-3.08114e-01,3.82519e-01,-6.18669e-01,-2.27465e-01,-2.71555e-01,-3.84004e-01,-2.63643e-01,-4.84474e-01,1.19339e-01,2.77437e-01,3.02051e-01,-3.37681e-01,
3.48619e-01,2.65652e-01,-6.81513e-02,5.53231e-01,1.83296e-01,9.77766e-02,-3.17075e-01,-7.55788e-02,6.82048e-02,-2.25660e-01,-2.75566e-01,-5.53055e-01,-3.00539e-01,1.67578e-01,-2.23740e-01,4.90136e-01,
-3.87894e-01,-2.77517e-02,-5.29598e-04,2.76031e-01,-1.30911e-01,-4.97366e-02,-3.64339e-01,-4.88727e-01,4.95718e-01,2.50822e-02,-4.65310e-01,2.18275e-01,-1.39650e-01,4.04170e-01,-5.57462e-02,-1.95083e-01,
-2.60751e-01,2.12407e-01,1.09782e-01,2.78920e-01,1.60821e-01,1.96997e-02,3.55556e-01,-2.77041e-02,4.10179e-01,1.43988e-01,1.15614e-01,1.55820e-01,2.07897e-01,4.78526e-01,-3.47949e-01,2.82820e-02,
5.06971e-02,1.47842e-01,6.48832e-02,2.28683e-02,-2.14664e-01,3.83966e-01,2.56600e-01,1.58606e-01,3.02995e-01,4.99022e-01,-1.24436e-01,1.17338e-01,-5.00588e-01,-5.57969e-02,-4.09557e-01,-6.20496e-01,
-4.90611e-01,-2.23987e-01,-7.40410e-01,1.10107e-01,2.64479e-01,-2.47852e-01,4.60372e-01,4.36628e-01,2.22115e-01,-4.59610e-01,-3.19735e-01,3.98227e-01,1.38245e-02,2.04351e-01,-9.96833e-02,1.80207e-03,
1.71005e-02,
1.39335e-01,
-5.73530e-02,
5.12874e-01,
-3.33279e-01,
-3.74164e-01,
-1.45037e-01,
-1.54876e-01,
7.06309e-01,-5.44144e-02,6.11522e-01,7.75166e-02,1.93090e-01,7.22505e-01,1.65032e-01,6.67941e-01,
1.53449e-01,2.52673e-01,-1.47081e-01,6.18279e-01,-3.51595e-01,4.55710e-01,-5.64986e-01,6.60992e-01,
-3.52707e-02,5.52895e-01,2.16579e-01,-2.68202e-01,-6.46902e-02,1.30598e-01,-7.80050e-02,-3.89199e-01,
1.47786e-02,-3.01733e-01,-6.05813e-01,-4.05718e-01,3.27547e-01,5.30921e-01,5.46546e-01,-9.61690e-01,
-3.38450e-01,
3.54552e-01,
-1.11471e-01,
1.16139e-01,
1.13132e+00,-7.36816e-01,8.82225e-01,-3.72978e-01,
-3.62725e-01,
