// Neural Network File Format by Kyle Julian, Stanford 2016
5,13,1,13,
13,10,10,10,10,1,
0,
10,0,0,1,0,0,0,0,0,0,0,1,0,
100,6,15,16,6,13,5,4,1,19,19,100,40,
10,0,0,1,0,0,0,0,0,0,0,1,0,0,
90,6,15,15,6,13,5,4,1,19,19,99,40,1,
-5.82893e-02,4.68248e-01,-3.20232e-01,-2.58805e-01,-5.31468e-01,-1.93194e-02,4.19140e-01,2.42464e-01,-1.01858e-01,-2.68276e+00,1.54907e-01,1.54133e-01,1.18949e-01,
-2.88198e-01,2.61640e-01,-1.53582e-02,-5.17187e-02,1.65320e+00,-6.24219e-02,-6.58704e-01,-1.72817e-01,4.52785e-01,-2.09272e+00,-2.18647e-01,2.75769e-01,1.91159e-01,
-6.22513e-02,-1.73477e-02,-1.29459e-01,-3.72751e-01,-1.11651e-01,-6.55928e-02,6.33636e-01,-2.49649e-01,-8.50813e-01,-2.70207e+00,6.52868e-02,-1.97727e-01,5.10397e-01,
2.10784e-01,-1.29530e-01,-6.66358e-02,2.07121e-01,-1.48872e-01,5.45835e-02,-3.68579e+00,-2.68226e-01,7.81036e-01,2.19055e+00,4.15572e-01,-4.31587e-02,-9.78633e-03,
-3.13451e-01,-6.59172e-03,-1.83692e-01,4.59307e-01,-6.22469e-01,-1.23946e-01,-2.19262e-01,3.75684e-01,3.85892e-01,3.25717e+00,1.98619e-01,2.50053e-01,3.36709e-01,
-4.45394e-01,-1.94813e-01,-2.83308e-01,4.07729e-02,4.90946e-01,7.22799e-02,-2.41761e-01,-2.56629e-01,3.12840e-01,-1.02734e-01,-4.07588e-01,-1.86427e-01,-3.29963e-01,
-1.69381e-01,1.09941e-01,-7.15386e-02,4.51832e-01,1.08797e+00,-1.04431e-01,1.38642e+00,9.97976e-02,-1.99121e-01,1.53191e+00,3.24333e-01,2.31904e-01,-1.38079e-01,
1.37505e-01,-4.52245e-01,5.03763e-02,-4.57755e-01,3.07044e-01,1.69354e-01,3.97110e-01,-3.41847e-01,1.03942e-01,-1.31353e+00,1.83255e-01,-8.80236e-02,-9.07256e-02,
3.81197e-01,-2.81389e-02,2.13977e-01,-5.63585e-02,-1.22984e-01,1.21175e-01,5.37298e-02,-4.01115e-01,-1.52523e-01,-1.11245e+00,-1.19464e-01,2.13902e-01,-3.27473e-01,
-4.43581e-01,-2.35003e-01,-3.49804e-02,-1.32569e-01,8.85650e-01,-7.36846e-02,4.23742e-01,2.34399e-01,-1.00141e-01,-1.11803e+00,1.67927e-01,3.94127e-02,2.97564e-01,
4.69978e-01,
6.05689e-01,
1.48725e-01,
-3.13896e-01,
-5.51933e-01,
0.00000e+00,
-1.90748e-01,
2.65486e-02,
3.23602e-01,
1.17723e-01,
3.74638e-01,4.22766e-02,4.75509e-02,-1.14751e-02,-3.02562e-01,-1.83039e-01,1.59705e-01,9.30465e-01,4.71216e-02,3.88658e-01,
-3.53570e-02,-6.85060e-01,1.26404e-01,1.13118e-01,-1.19877e-01,-2.35773e-02,1.87575e-01,8.30555e-01,4.45130e-01,-7.09499e-01,
-1.39022e-01,7.24905e-02,-3.54012e-01,3.70253e-01,1.90467e-01,-9.42857e-02,-5.62870e-01,8.57717e-03,-2.56254e-01,7.62627e-01,
8.35050e-02,-1.84978e-01,-2.44985e-01,4.64917e-01,4.88017e-01,-4.86675e-01,-5.39214e-02,-7.37338e-01,2.46633e-01,1.35856e-01,
-4.93731e-01,-2.74385e-01,-3.11778e-02,9.08172e-02,7.63558e-02,3.21764e-02,2.28397e-01,2.58764e-01,-2.04810e-02,-6.61648e-01,
4.18886e-01,4.69068e-02,2.00128e-01,3.79518e-01,-8.57522e-02,4.99673e-01,-2.39435e-01,-1.09334e+00,-2.22377e-01,5.62232e-01,
-2.04675e-01,-1.17743e-01,1.95113e-01,-7.83146e-01,-2.02172e-01,3.90609e-01,5.93623e-01,-1.51579e+00,-1.01680e-01,2.60722e-01,
1.26279e-01,4.01706e-01,8.40589e-02,4.46482e-01,2.25949e-01,3.06942e-01,-2.31048e-01,3.43412e-01,4.60055e-01,7.83578e-01,
6.81108e-01,-6.57232e-03,5.19114e-01,-3.58647e-01,3.43408e-02,-2.23789e-02,1.95108e-01,-3.70063e-01,5.34657e-01,4.23397e-01,
-4.74923e-01,2.87115e-01,-6.69300e-01,5.56723e-01,2.92221e-01,-2.64720e-01,2.06534e-01,-6.19268e-01,4.03698e-01,-1.87038e-01,
1.34082e-01,
1.77453e-01,
-1.02485e-01,
-5.25629e-01,
-2.30508e-01,
-1.44935e-01,
-1.69534e-01,
5.43277e-01,
3.97244e-01,
-4.84134e-01,
2.21195e-01,-9.17555e-02,3.31472e-01,-4.61795e-01,3.78452e-01,9.85329e-02,3.60278e-01,1.60841e-01,-1.20814e-01,1.52834e-01,
1.88590e-01,4.75866e-01,3.44478e-01,-1.32850e-01,-1.34329e-01,-5.12109e-01,3.77300e-01,3.58525e-01,4.79672e-01,-4.33092e-01,
3.82041e-01,2.58878e-01,8.29771e-01,-8.04703e-02,-5.20386e-01,8.07941e-01,-9.36185e-01,5.39098e-01,-1.56003e-01,1.81689e-01,
1.91805e-01,2.72009e-01,-1.59778e+00,3.66803e-01,-3.76770e-01,-4.23027e-01,2.42198e-01,1.66045e-01,-2.65809e-01,-3.75624e-01,
5.78118e-01,-1.47659e-01,9.36524e-01,-5.38464e-01,-1.44874e-01,1.02736e+00,4.59060e-01,-2.53607e-01,-1.67913e-01,2.85224e-01,
2.68291e-01,2.45141e-01,-9.68051e-02,4.13813e-01,8.34674e-01,4.97675e-01,2.77710e-01,-2.81781e-01,1.08003e-01,4.94143e-01,
-4.34343e-01,-4.30145e-02,9.71161e-02,-3.39927e-03,2.04827e-02,2.55648e-02,-4.68212e-01,-1.72536e-03,1.86790e-01,-1.70481e-01,
6.87998e-01,2.77601e-01,3.70279e-01,3.81155e-01,5.78146e-02,-5.51745e-01,1.99471e-01,-5.03131e-01,-2.49765e-01,4.82889e-01,
-3.04543e-01,-4.63165e-01,-3.33629e-01,-2.27619e-01,-4.08536e-01,-3.66253e-01,-2.26200e-01,-1.29234e-01,-4.61297e-01,-3.18114e-01,
-3.50881e-01,-6.44336e-02,-3.77673e-01,1.47619e-01,9.55730e-02,2.62103e-02,-1.20875e+00,2.02818e-01,-4.80219e-01,1.17263e-01,
6.31228e-01,
4.77221e-01,
4.20340e-01,
-3.62440e-02,
-1.23000e-01,
-4.96461e-01,
6.61926e-02,
-1.63540e-01,
0.00000e+00,
-2.36110e-01,
-9.12583e-01,-2.04108e-01,3.96021e-01,-2.44474e-01,-1.06897e+00,3.82595e-01,-5.90152e-01,-2.73363e-01,1.58917e-01,-5.93859e-02,
2.07615e-01,-1.25654e-01,1.49225e-01,-5.91700e-01,-3.86978e-01,5.35903e-03,4.11900e-01,6.23987e-01,2.76860e-01,-2.99523e-01,
6.25662e-01,-3.14539e-02,-3.15765e-05,2.48167e-01,4.90432e-01,-9.08446e-02,4.92277e-01,-1.66877e-01,-1.67017e-01,-3.21484e-01,
1.32944e+00,1.01997e-02,-9.88931e-02,1.26892e+00,6.24161e-01,-4.19186e-01,1.43727e+00,1.33985e-01,2.21732e-01,7.15329e-01,
-1.85221e+00,7.48694e-01,-6.27652e-01,-2.25822e+00,-1.19250e+00,-1.47456e-01,-9.02579e-01,-1.41858e+00,-2.19689e-01,-1.21087e+00,
-1.48827e-02,-1.02848e-01,9.39349e-02,2.72678e-01,7.24591e-01,-2.00793e-02,4.57429e-01,3.93616e-01,-2.93212e-01,-4.68842e-01,
7.09347e-01,4.49092e-01,2.12469e-01,-2.84879e-01,4.60789e-01,-3.79341e-01,2.69306e-01,9.21882e-02,-1.79462e-01,-7.02730e-02,
2.38827e-01,-1.03633e-01,2.28579e-01,3.90872e-01,6.86204e-01,-1.31956e-01,1.31316e-01,2.51531e-01,-4.16467e-01,-7.29615e-01,
1.85811e-02,-5.72421e-01,-4.46904e-01,-1.33865e-01,3.07751e-01,-6.87326e-02,4.69903e-01,1.25784e-01,-4.25208e-01,-4.20324e-01,
1.55326e-02,2.03671e-01,-5.82903e-01,-7.99460e-01,-8.39423e-01,4.62282e-01,-4.80086e-01,-4.75807e-01,5.05869e-01,-6.16243e-02,
-4.71263e-01,
-5.10285e-01,
3.73055e-01,
1.33129e-01,
2.62323e-01,
5.04074e-01,
4.94768e-01,
5.90380e-01,
-1.35805e-01,
8.85984e-02,
3.43760e-01,6.87541e-01,-5.71661e-02,-6.39440e-01,4.24538e-01,-4.57521e-01,-6.02545e-01,-2.37324e-01,-1.20636e-01,5.26283e-01,
-4.04215e-01,
