// Neural Network File Format by Kyle Julian, Stanford 2016
5,13,1,13,
13,5,5,5,5,1,
0,
10,0,0,1,0,0,0,0,0,0,0,1,0,
100,6,15,16,6,13,5,4,1,19,19,100,40,
10,0,0,1,0,0,0,0,0,0,0,1,0,0,
90,6,15,15,6,13,5,4,1,19,19,99,40,1,
2.32080e-01,2.72011e-01,1.59447e-01,4.95573e-01,-8.76474e-02,1.03364e-01,-1.08727e-01,-2.43918e-01,6.85991e-01,3.00603e+00,2.07559e-02,4.85760e-01,-1.37733e-01,
-2.65775e-01,-1.40484e-01,5.68484e-01,5.51193e-02,8.12169e-01,7.84619e-02,2.65114e-01,-6.70558e-02,1.41377e+00,-8.97844e-01,4.27561e-02,-3.14539e-02,-2.68093e-02,
5.20805e-01,3.68990e-01,1.71256e-01,-3.10004e-01,-1.40075e+00,2.57033e-02,-2.28288e-01,4.83508e-02,-1.00102e+00,-3.05338e+00,-9.99525e-02,2.01807e-03,-3.42510e-01,
1.74885e-01,-2.40738e-01,7.17034e-02,3.57214e-01,2.05176e+00,-1.25184e-02,-6.98524e-02,-1.05059e-01,-8.50010e-02,1.90553e+00,2.07868e-01,-7.23785e-02,-1.53444e-01,
-7.34791e-02,3.62087e-01,-7.29908e-03,-1.31456e-01,1.29608e+00,6.12827e-02,-2.23428e-01,-4.02053e-01,5.76738e-02,-2.92241e+00,-2.83873e-01,3.54957e-01,1.98797e-02,
-6.60363e-01,
3.93683e-01,
4.66320e-01,
5.32264e-01,
7.68630e-01,
1.57868e-01,-3.02970e-01,-2.57004e-01,4.88368e-01,-8.17104e-02,
-4.94039e-01,-8.22895e-02,-2.74333e-02,7.80649e-01,7.25357e-01,
-6.29869e-01,6.32804e-01,-3.08966e-01,-2.93636e-01,-5.96633e-01,
-9.17210e-01,-4.45247e-01,5.18862e-01,-5.87975e-02,-1.61490e+00,
-3.39741e-01,4.79135e-01,4.38288e-01,-8.65970e-01,-5.20238e-02,
-6.28897e-01,
5.60911e-01,
-1.35689e-03,
1.61595e-01,
-3.06993e-01,
8.59877e-01,-1.20158e-02,7.06381e-01,1.32448e-01,6.62184e-01,
6.15292e-01,-1.32638e-01,3.62403e-01,-3.39404e-02,2.22311e-01,
3.71695e-01,1.18491e-02,-1.59306e-01,-5.82678e-02,4.55426e-01,
-4.49592e-03,-3.91723e-03,4.82535e-01,-4.59370e-01,-1.98206e-01,
-2.38481e-03,7.91385e-01,1.51690e-01,-1.58782e-01,-3.89798e-01,
-3.35994e-01,
-6.77319e-01,
-5.63073e-01,
-4.17554e-02,
9.57847e-01,
1.36403e-01,3.75387e-01,-1.83365e-01,-5.40054e-01,4.06191e-01,
-1.03053e+00,-7.55497e-01,-1.89543e-01,-2.45091e-01,3.97774e-02,
7.82986e-01,3.30235e-01,-3.94748e-01,1.02549e-01,9.36710e-02,
-4.25288e-01,-2.32218e-01,-4.98426e-03,1.57363e-01,-4.99648e-03,
2.17674e-01,-3.52719e-01,-8.24559e-01,-2.17134e-01,9.23156e-01,
-5.97213e-01,
-3.10398e-01,
-7.29909e-01,
0.00000e+00,
9.30593e-01,
5.50644e-01,3.48270e-01,4.61418e-01,1.97892e-02,-1.28939e+00,
-8.28939e-01,
