// Neural Network File Format by Kyle Julian, Stanford 2016
4,13,1,200,
13,200,200,200,1,
0,
10,0,0,1,0,0,0,0,0,0,0,1,0,
100,6,15,16,6,13,5,4,1,19,19,100,40,
10,0,0,1,0,0,0,0,0,0,0,1,0,0,
90,6,15,15,6,13,5,4,1,19,19,99,40,1,
3.81139e-02,-1.18991e-01,-1.29847e-01,-1.02354e-01,-2.57765e-01,4.06272e-02,-2.10081e-01,-2.22993e-01,-5.85299e-02,-4.20099e-02,2.06599e-01,-3.63600e-02,-4.57790e-02,
-3.69974e-02,-1.31223e-01,-2.83884e-02,2.95722e-02,3.51306e-02,-1.75927e-01,-3.85187e-02,9.45993e-02,7.14603e-02,-8.60375e-02,-3.37851e-02,-1.68806e-01,-3.32406e-02,
-1.31852e-02,1.59236e-01,1.08544e-01,-5.28239e-02,1.01674e+00,-7.78819e-02,6.04200e-02,6.13539e-02,1.79403e-01,-1.75730e+00,1.83780e-01,-3.35038e-02,-2.91242e-03,
5.78143e-02,-6.02022e-01,-7.48588e-03,-9.59415e-03,-6.62658e-01,-3.33979e-01,7.41042e-02,-9.83828e-02,-2.14638e-02,5.18245e-01,2.34772e-02,8.19631e-02,-2.89594e-02,
1.93875e-02,-4.99205e-02,-1.01644e-01,-4.89324e-02,3.99717e-01,1.20078e-01,1.66858e-01,-4.29926e-02,-2.45369e-01,-1.41148e+00,-8.87536e-02,-9.11288e-02,1.66614e-02,
-1.37695e-01,-5.18060e-02,-1.72163e-01,4.92236e-02,7.11298e-02,-1.21542e-01,-4.26423e-03,1.61706e-01,6.35641e-02,-2.44121e-01,-2.02528e-01,-1.78295e-02,3.15501e-02,
9.04744e-03,-3.54046e-02,-1.32819e-01,-6.26526e-02,-2.18725e-01,-2.29590e-01,2.86482e-01,-1.92402e-01,-5.53951e-02,-1.06645e+00,1.01099e-02,4.48470e-02,-2.51938e-01,
-7.48500e-02,1.04370e-01,2.35278e-02,-7.15585e-03,-1.18469e-01,-3.47903e-02,1.17165e-01,7.06342e-03,-1.05257e-01,3.27853e-02,-1.00253e-01,-1.24616e-01,-1.02372e-01,
-1.53647e-01,1.49168e-02,-1.77485e-02,5.01628e-03,7.59572e-04,-1.51485e-01,7.25260e-03,1.35429e-01,2.89654e-02,8.08831e-02,1.39853e-01,-2.82792e-02,-1.53456e-01,
7.48796e-02,-2.24028e-01,-1.21169e-01,-2.87764e-01,9.51001e-02,1.01886e-01,-1.49190e-01,8.75543e-03,-9.66072e-02,2.60699e-01,-2.11351e-01,-1.76558e-01,-1.00438e-02,
2.81108e-02,-2.13198e-01,-1.34516e-01,2.02795e-01,-3.31154e-01,-8.99291e-02,-4.51308e-02,-1.00157e-01,2.29287e-02,6.77079e-01,9.70562e-02,-1.13531e-01,4.07769e-02,
-9.31303e-02,-1.43208e-01,2.77377e-02,-1.32883e-01,1.27422e-02,-7.34332e-03,-8.98539e-02,-1.99361e-02,-1.50980e-01,-6.72447e-02,-3.61617e-02,-9.06770e-02,-6.29131e-02,
5.96620e-02,2.98026e-01,-7.91881e-02,-2.58802e-01,-4.03589e-01,-1.87601e-01,2.89509e-02,-3.05251e-02,-1.87236e-01,1.04270e+00,-2.09953e-02,6.11127e-02,-1.38007e-01,
1.37331e-02,1.05211e-02,-1.18680e-01,-1.79797e-01,-9.12797e-02,-2.11812e-01,-8.36441e-02,4.76273e-03,-3.85168e-02,2.45537e-01,2.03185e-01,-2.25764e-01,4.56293e-02,
-2.44867e-02,-5.10707e-02,-4.18918e-02,-3.44707e-02,-1.07881e-01,-5.69357e-02,-8.90391e-02,-1.08187e-01,-1.36847e-01,-1.13575e-01,-6.81654e-02,-5.97577e-02,5.77927e-02,
9.74770e-02,-6.91922e-02,-6.90870e-02,1.57201e-01,2.57423e-01,3.72023e-02,-3.01801e-01,-1.11365e-01,8.95392e-02,6.15050e-01,1.67327e-01,-2.31793e-01,-3.84467e-02,
1.13127e-02,1.81782e-01,-1.63903e-01,-1.79198e-01,-4.42753e-01,-4.17140e-01,2.02824e-01,-1.88017e-01,-2.88080e-01,7.77700e-01,1.17160e-01,1.11120e-01,-9.78726e-02,
-1.15216e-02,1.38648e-01,-5.88149e-03,-1.33457e-01,-3.85772e-02,9.24723e-02,7.86504e-03,6.09732e-02,7.61813e-02,6.00805e-02,-7.98145e-02,-1.22927e-01,-1.17705e-01,
-7.17968e-03,-1.84309e-01,9.01515e-02,-3.41553e-02,2.67195e-02,6.46966e-02,-1.00487e-02,-7.94511e-02,-1.33752e-01,-1.54626e-02,7.01704e-02,-7.94989e-02,-3.53604e-02,
-6.72676e-02,-2.21932e-01,5.43783e-02,2.36516e-01,-1.06528e+00,-4.71239e-02,-1.50436e-01,3.31984e-02,-7.98580e-02,-5.64265e-02,1.92308e-01,-2.42023e-02,2.01698e-01,
-1.44339e-01,-1.78074e-01,6.89366e-02,-1.46896e-01,7.26067e-03,1.30363e-01,-1.33421e-02,-7.53160e-02,-8.15900e-02,-5.24702e-02,-1.00497e-01,2.50392e-02,-1.32199e-01,
-1.13613e-01,1.18265e-01,-1.34219e-01,4.69542e-02,1.24669e-01,-8.11442e-02,1.56659e-02,1.15707e-01,1.65425e-01,1.48815e-01,6.36578e-02,1.65717e-02,-1.48221e-01,
-2.10295e-02,1.38813e-02,7.55264e-02,-1.70188e-01,-9.82372e-02,-8.42170e-02,1.14813e-01,2.56366e-02,-5.54174e-03,-6.62957e-02,1.05244e-01,-1.36488e-01,3.89431e-02,
-1.91274e-02,1.93796e-02,2.38687e-04,-1.35964e-01,7.01172e-02,6.76039e-02,-6.17812e-02,-4.53652e-02,-3.36472e-02,-3.26813e-02,-1.10275e-01,-1.04063e-01,-1.20678e-01,
-4.96598e-02,9.46620e-02,1.44130e-01,3.65576e-02,-7.30896e-02,-8.76510e-02,-1.32471e-01,-1.52656e-01,4.72845e-02,-2.39753e-02,-6.76611e-03,-1.97412e-02,-6.11031e-02,
9.07816e-02,8.37888e-02,1.01564e-01,-1.85308e-01,5.67616e-01,1.55959e-01,3.19290e-01,-1.66378e-01,1.38471e-01,-1.13824e+00,-4.92078e-01,-8.22579e-02,-1.21983e-01,
-8.41168e-02,-2.60694e-02,-1.36098e-01,-3.79914e-02,-1.45274e-01,-1.65994e-01,-1.44000e-01,-9.58707e-02,8.73089e-04,6.52626e-02,4.45378e-02,-1.58876e-01,-3.31499e-02,
4.43719e-02,-1.74430e-01,-2.37275e-01,3.11248e-02,1.12251e-01,2.16651e-01,-1.21078e-02,1.91895e-01,-4.54699e-02,3.34731e-01,3.10660e-01,-1.32422e-01,-4.37094e-02,
9.13467e-02,-3.47230e-01,6.68276e-02,2.19682e-01,-2.75660e-01,1.09894e-01,-8.09721e-01,2.88773e-02,3.63338e-01,1.27679e+00,-1.75895e-01,6.72055e-02,-1.61554e-01,
-1.89389e-01,2.05448e-01,6.72244e-02,1.39860e-01,9.05840e-02,-1.26826e-01,2.69945e-03,1.82371e-01,3.17526e-01,-1.73773e-01,1.04527e-01,-1.95496e-01,8.98227e-02,
-1.68651e-01,-1.93690e-01,-2.20034e-01,3.16965e-02,-3.12488e-01,2.23486e-02,-2.70966e-02,5.46888e-02,-2.70881e-01,-4.97431e-02,-1.44079e-01,-2.61618e-02,1.05437e-01,
-1.12350e-01,1.14345e-01,1.46529e-01,4.65306e-02,-4.68936e-02,-6.39471e-02,-9.91119e-02,1.00405e-01,-2.03843e-02,-1.13832e-01,7.64030e-02,-1.48598e-01,8.78247e-03,
2.18795e-02,9.58739e-03,2.50449e-01,1.21174e-01,-1.46215e-01,1.29731e-01,-8.51583e-01,-6.78977e-02,4.70966e-01,5.29309e-01,-3.28744e-03,6.04143e-02,-1.36980e-01,
4.81380e-02,-5.90741e-02,-3.75343e-02,-2.73004e-01,-2.64751e-02,1.86278e-01,-1.02309e-01,9.85403e-02,4.31512e-02,-1.85849e-01,4.26573e-03,-7.59206e-02,-2.79361e-01,
1.09575e-01,-7.06590e-02,5.89028e-02,1.40061e-01,6.70437e-01,2.06622e-02,-6.18440e-01,-7.65607e-02,5.75600e-01,1.74878e+00,1.04391e-01,-4.19685e-02,-8.99157e-02,
-8.81305e-02,1.56752e-01,-4.88948e-02,3.32573e-02,6.60121e-02,7.70943e-02,-1.66210e-01,1.11461e-02,-7.57552e-02,-5.17446e-03,-6.39808e-02,-1.63807e-01,-6.35850e-02,
2.17749e-02,-9.29491e-04,8.94340e-02,-1.80829e-01,1.53998e-03,-2.29781e-03,9.14788e-02,4.91037e-03,-1.30600e-01,-1.00633e-02,1.83310e-01,-1.88212e-01,-1.41311e-01,
1.82807e-02,-1.57603e-01,-2.36246e-01,-1.59280e-01,-1.71312e-01,-9.80915e-02,-1.21641e-01,-9.16258e-02,4.98080e-03,-2.60918e-01,8.37729e-02,-1.23718e-01,-9.38678e-03,
-9.43257e-02,1.43024e-01,2.99112e-02,-1.51872e-01,5.07977e-02,-1.63514e-01,-2.43256e-02,1.14068e-01,1.34383e-01,5.83141e-02,-1.66113e-01,4.66131e-02,-1.62917e-01,
1.14460e-01,-3.39627e-01,-1.05515e-01,-1.79158e-01,-7.82602e-02,3.19548e-01,-2.34358e-02,1.91206e-02,-1.15449e-01,-7.44510e-01,3.25013e-01,-1.11424e-01,-1.55794e-01,
-2.46046e-02,-1.57275e-01,9.13441e-02,-9.46380e-02,-8.72405e-02,1.64842e-02,-3.27123e-02,-5.37352e-02,-1.45419e-01,4.95994e-02,5.78834e-02,4.48199e-03,-7.84465e-02,
9.00722e-03,-1.95960e-01,-1.66174e-01,-9.24691e-03,-2.73010e-01,-9.99527e-02,1.16019e-02,-2.45037e-01,6.16551e-02,4.02917e-01,-3.49525e-02,-1.20788e-02,-3.75317e-02,
-2.92120e-02,-7.64292e-02,-1.57874e-01,-1.46773e-01,-1.11112e-01,-2.06864e-01,3.30524e-01,7.19834e-02,-4.71817e-01,-7.61029e-01,2.24620e-01,-1.10945e-01,1.26789e-01,
2.36084e-01,7.02434e-02,5.43740e-02,-2.01361e-01,-2.60931e-01,-7.36361e-03,2.60455e-02,-1.32685e-01,-6.37848e-01,-8.19887e-01,-9.62108e-02,-8.11466e-02,-1.37901e-01,
-1.75248e-01,-1.87623e-02,-1.69467e-01,1.15086e-01,1.12156e-01,6.31015e-02,4.99558e-02,-1.33866e-01,7.78373e-02,-1.64742e-01,1.40274e-01,-1.40550e-01,1.41015e-01,
-7.46121e-02,-6.78151e-01,1.08092e-01,7.57907e-02,-2.20428e-02,-1.57919e-01,-7.26263e-01,-2.39847e-01,1.60141e-01,1.32879e+00,-1.72122e-01,9.03189e-02,3.01361e-02,
-1.16781e-01,-5.09839e-02,-1.00356e-01,1.13187e-01,1.71820e-02,9.57437e-02,8.01334e-02,-1.55785e-02,-6.10339e-02,5.48378e-03,1.22076e-01,-1.43796e-01,-4.76654e-02,
8.61818e-02,3.91712e-01,-1.21403e-01,-2.62334e-01,1.48546e-01,-2.62653e-01,-4.51853e-02,-1.10424e-01,1.13249e-01,-4.51427e-01,-2.94548e-01,9.98963e-02,-1.66344e-01,
6.23393e-02,3.90544e-01,-2.36296e-01,-3.18590e-01,1.27882e-01,8.41979e-02,-3.84981e-02,1.00881e-01,-8.31315e-02,-2.26434e+00,-6.08017e-02,1.36198e-01,-1.61260e-01,
-1.67080e-01,-7.69267e-02,-1.60102e-02,1.13330e-02,9.65336e-02,-6.79655e-02,-1.40477e-01,-8.85643e-02,3.60084e-02,-1.96029e-02,1.00359e-01,4.55453e-02,-3.15677e-02,
-3.15094e-02,5.84094e-02,-9.93607e-02,-9.54314e-02,-7.97177e-02,1.13761e-01,4.09412e-03,-9.29730e-02,-1.32124e-01,-4.80842e-02,-4.46356e-02,-1.26131e-01,-1.52398e-01,
-1.71143e-01,-1.08952e-01,1.30909e-01,1.00346e-01,8.04497e-02,7.84214e-02,1.12376e-01,-3.28907e-02,-1.37915e-01,-1.32382e-01,-1.40995e-01,-1.12313e-01,-9.94788e-02,
4.03366e-02,-1.51770e-01,-2.08449e-02,-5.79187e-02,2.91183e-01,-1.23304e-02,8.56073e-02,-2.26150e-01,-2.10389e-01,2.30389e-01,2.98183e-02,-1.17316e-01,-1.21818e-01,
4.51834e-02,1.60569e-01,4.14639e-02,-1.34852e-01,4.91652e-01,1.35097e-01,3.75838e-01,-2.10365e-01,3.58600e-01,1.69212e-01,4.22204e-01,-3.81124e-02,-1.07552e-01,
-4.93488e-02,2.96831e-01,-3.65197e-01,-3.47568e-01,-9.41196e-02,-6.04195e-01,-2.39776e-01,-1.95612e-01,-2.43773e-01,1.71182e-01,3.11373e-01,2.03941e-01,-2.70073e-02,
-9.76124e-02,-1.26749e-01,7.39396e-02,-2.22508e-02,-1.28302e-01,1.00236e-01,4.91887e-03,-1.73647e-02,3.87564e-03,1.57678e-02,-1.40590e-01,-1.75112e-01,1.83148e-02,
-1.04225e-01,-3.32107e-02,2.26289e-01,2.30932e-01,1.87356e-01,-1.77521e-01,-3.57832e-02,2.68387e-01,4.20140e-01,-1.03350e-01,2.52556e-01,-5.36787e-02,-1.39711e-01,
2.23041e-02,3.09049e-01,-2.49107e-01,-2.75852e-01,6.00114e-02,-1.29458e-01,1.12496e-01,-3.53318e-01,-1.56850e-01,-7.96139e-01,-1.91322e-01,-8.71929e-03,8.95824e-02,
-1.30908e-02,1.12218e-01,1.57370e-02,-1.02718e-01,3.37256e-02,1.31116e-01,1.32199e-01,7.19077e-02,-6.89971e-02,-1.49200e-01,4.44009e-02,-1.43934e-01,-1.31697e-01,
3.57008e-02,1.40709e-01,1.13325e-01,1.68150e-01,-5.85719e-01,-9.68543e-02,5.21985e-02,1.75128e-01,-5.08858e-03,9.87667e-01,2.09278e-01,1.04591e-01,-1.97936e-01,
2.11019e-02,-4.43585e-02,4.43735e-03,-1.55109e-01,1.11528e-02,-4.67776e-02,-1.11768e-01,-3.52597e-01,-6.39720e-01,-1.10076e+00,-8.39704e-02,-1.20358e-01,2.57843e-01,
-6.84361e-02,-2.12203e-02,5.10298e-02,1.24626e-01,5.13620e-02,-3.75911e-02,1.42302e-01,-1.03215e-01,-1.44289e-01,-1.62588e-01,-3.70637e-02,-3.46896e-02,-1.54708e-01,
-1.31166e-01,-1.79906e-02,-5.15876e-02,-1.08551e-01,4.07966e-02,1.06911e-01,-6.36994e-02,1.24864e-01,1.13417e-01,-1.67513e-01,-1.40269e-01,-1.55412e-01,4.74746e-02,
-2.73897e-01,3.01753e-02,1.66016e-01,-2.44364e-01,2.01553e-01,1.94023e-02,2.05264e-01,-1.22798e-01,1.82753e-03,-1.17788e+00,-7.52785e-02,5.98515e-02,1.69124e-01,
-1.49031e-01,-1.28636e-01,-6.81780e-03,-1.34965e-02,1.28435e-01,3.51858e-02,5.42522e-02,1.63791e-01,-7.30275e-03,7.65703e-02,-6.67756e-02,-1.24447e-01,2.60225e-02,
-1.29869e-01,2.78263e-02,-1.27423e-01,-8.15138e-02,-1.61658e-01,3.33996e-02,1.46091e-01,-5.33129e-02,9.13270e-02,3.02743e-02,7.03329e-02,4.24444e-02,-1.36009e-01,
-1.06766e-01,-8.55328e-02,-1.77315e-01,1.04491e-01,1.42768e-02,9.11503e-02,1.62562e-01,-5.30214e-02,-1.68464e-01,3.17787e-02,-1.42383e-02,-6.32924e-03,-1.40558e-02,
2.16323e-03,9.69999e-02,-1.17192e-01,-1.05958e-01,-1.21943e-01,-1.51407e-01,2.60420e-02,-5.31854e-02,-1.50803e-01,-2.35598e-02,-8.10995e-02,-8.20433e-02,-1.66031e-02,
4.45045e-02,3.84441e-02,-1.58077e-01,-4.87690e-02,-1.90012e-01,-9.58372e-03,-2.75075e-02,2.83421e-02,-7.68954e-02,-1.53782e-01,7.33118e-02,-1.24959e-01,-1.16867e-01,
-2.06164e-02,1.50706e-02,1.09863e-01,-1.42959e-01,-1.63804e-01,-1.13647e-01,3.27726e-02,-4.50810e-02,-8.56856e-02,1.45705e-01,7.48626e-02,-1.21436e-01,-6.64967e-02,
-8.73879e-02,-2.73723e-02,-1.37711e-01,3.42337e-02,-1.59630e-01,-1.36514e-01,-3.13139e-01,-4.98911e-02,1.23037e-01,5.05366e-02,2.86320e-01,-2.16757e-02,2.98048e-02,
-9.59762e-03,1.34384e-01,7.87641e-02,9.23907e-03,-1.08938e+00,1.50771e-01,3.38146e-01,1.90710e-02,-5.25639e-01,-1.08698e+00,8.11025e-02,-2.03900e-02,2.12390e-03,
-1.83451e-01,-5.47357e-02,1.27134e-02,-9.78885e-04,1.49028e-01,7.92086e-02,2.69271e-02,1.02559e-01,-1.72988e-03,-3.83839e-01,-1.57079e-03,-7.98256e-02,4.81051e-02,
-6.13875e-02,4.43761e-02,-5.80517e-02,-4.81400e-02,2.70178e-01,-1.70485e-02,-2.65671e-01,-1.43304e-02,-1.74731e-02,9.72042e-01,-1.38571e-01,-1.01604e-02,-1.72524e-03,
-4.86653e-02,-1.38843e-01,-1.11053e-01,-1.42308e-01,-1.61769e-01,-6.97860e-02,-1.00169e-01,1.06909e-01,-7.44272e-02,-4.06571e-03,-7.82856e-02,-1.06077e-01,-7.49115e-02,
-1.56195e-01,-1.72339e-01,6.88206e-02,-1.19324e-01,-2.16314e-01,-5.64370e-02,1.12207e-01,-3.39042e-02,1.32123e-01,1.14946e-01,-1.24863e-01,6.94667e-02,-1.33038e-01,
-8.82975e-02,7.35254e-02,5.83600e-02,1.22461e-02,-1.56341e-04,-1.09808e-01,2.46402e-03,8.87069e-03,6.69260e-02,1.04445e-01,-1.96059e-01,2.11242e-02,-5.63380e-02,
-1.55222e-01,-2.08571e-01,1.50242e-01,-1.62918e-01,2.11385e-01,7.74985e-02,-2.52897e-01,-2.39981e-01,3.67947e-01,9.99673e-02,-6.96944e-02,1.15920e-02,3.24233e-02,
-1.52270e-01,-1.33417e-01,-2.94530e-02,-1.05962e-01,5.12188e-03,1.13619e-01,-1.81496e-01,-7.63140e-02,5.39772e-02,-5.54467e-02,-1.08300e-01,4.34489e-02,-7.47972e-02,
1.73005e-02,2.35251e-01,7.14902e-02,-1.95679e-01,-8.56673e-01,-3.00986e-01,-3.82404e-01,-7.59863e-02,-2.00822e-01,5.66374e-01,-4.44542e-02,6.77133e-02,-1.28481e-01,
4.68603e-02,-6.26180e-02,-6.93050e-02,4.23227e-02,6.51995e-02,-1.81473e-01,-2.82402e-02,-2.05606e-01,2.79697e-02,-5.14325e-03,1.81168e-01,-1.37364e-01,-8.77370e-02,
-1.53229e-01,-2.12733e-02,-4.17707e-02,3.22581e-02,1.90885e-01,-1.63863e-01,2.17543e-01,2.36030e-02,-9.69482e-03,2.26150e-01,4.63771e-02,1.05568e-01,-1.58753e-01,
-2.06651e-02,-1.86520e-01,-5.54663e-02,1.11914e-01,-3.18187e-01,-2.93444e-02,-6.05116e-01,-1.77592e-02,2.11430e-01,9.10622e-01,3.29739e-01,-7.18045e-02,7.03711e-02,
-2.21041e-02,-1.86424e-01,-6.01274e-02,8.96466e-02,-8.26040e-02,3.94390e-02,-2.39220e-01,-1.37482e-01,-1.44952e-01,9.08008e-01,2.35146e-01,-2.03059e-02,-1.61110e-01,
7.69885e-02,-2.60166e-01,-1.26916e-01,-9.96882e-02,2.02570e-01,-1.11974e-01,2.20579e-01,-2.05737e-02,-9.41728e-02,-1.60287e-02,3.22869e-01,-1.06282e-01,-2.80631e-01,
-1.12205e-03,2.85548e-01,1.94796e-02,-4.25734e-01,-4.59506e-01,1.59356e-01,1.00930e-01,-1.34236e-01,-2.36932e-01,-1.65311e+00,-1.01445e-01,6.13657e-02,5.44175e-02,
1.22281e-01,1.64619e-02,6.09076e-02,5.12648e-02,-1.27674e+00,-8.24983e-02,5.30619e-01,1.03257e-02,-6.05496e-01,-9.23611e-01,1.51648e-01,-1.37345e-01,-2.65244e-02,
-3.26440e-03,-4.44744e-01,-4.37843e-03,-6.34796e-03,-4.53793e-01,-6.60745e-03,-2.36603e-01,-2.62853e-01,-8.75880e-02,2.83802e-01,-5.48465e-02,7.64297e-02,-2.03501e-01,
-1.62980e-02,3.61825e-02,5.40310e-02,-1.54296e-01,-1.09512e-01,-1.37816e-01,9.83189e-02,-7.85944e-02,1.38958e-01,-1.47037e-01,2.33616e-02,5.31195e-05,-6.44281e-02,
-9.37964e-02,3.79547e-02,-1.37159e-01,-4.84239e-02,-1.89579e-02,-4.96980e-02,-1.33034e-02,3.97995e-04,-6.11296e-02,1.35485e-01,6.22118e-02,-5.71964e-02,-1.62062e-01,
-6.61301e-02,9.54117e-02,1.52155e-01,-1.67647e-01,-1.52137e-01,-4.77650e-02,1.34293e-01,-1.06696e-01,3.76844e-02,-8.17600e-03,-1.52777e-01,-8.91112e-02,-6.88842e-02,
-1.89773e-03,2.22915e-01,-2.52501e-01,2.58890e-01,-2.78356e-01,-4.14478e-01,3.64584e-01,-6.77811e-02,-3.78604e-01,-5.86961e-01,-3.80407e-01,6.02290e-02,-6.24510e-03,
-2.50520e-02,1.38054e-01,7.53662e-02,6.79761e-02,1.71888e-01,-2.28973e-01,6.02743e-01,-6.21083e-02,-2.02761e-02,9.42520e-01,3.66835e-01,-2.75165e-02,-5.77857e-02,
-8.69629e-02,9.50740e-02,-1.41720e-01,7.70635e-03,2.78628e-02,1.09848e-01,6.75280e-02,-1.27558e-01,-7.16452e-02,-2.89824e-02,-3.33972e-02,-9.51381e-02,6.60809e-03,
1.31027e-02,-1.29995e-02,-9.46224e-02,-3.48320e-01,3.81050e-01,-7.57337e-02,-5.45935e-02,-2.14236e-02,-3.47293e-01,-2.11946e+00,-2.63109e-02,-3.61732e-02,1.86325e-01,
-6.62265e-03,1.39322e-01,-4.91539e-03,1.24530e-01,-1.02430e+00,-6.80714e-02,-4.80467e-01,-2.06337e-01,-1.06957e-02,1.74774e-01,2.22130e-01,5.22023e-02,3.65943e-02,
-2.07438e-01,-1.28906e-01,2.92291e-02,1.30495e-01,1.36149e-01,7.16463e-02,2.00573e-01,-2.37602e-02,-2.25217e-01,-1.62703e-01,8.73720e-02,-7.33373e-02,3.57304e-02,
-1.58460e-02,5.30251e-03,1.53908e-01,1.92371e-01,-2.13762e-01,-6.17580e-02,6.32304e-01,2.88285e-01,-5.18264e-01,-8.74036e-02,-1.32244e-01,-1.90799e-02,-1.16936e-01,
-5.05501e-02,-2.62963e-02,-1.37087e-01,-3.20391e-01,3.87109e-01,-2.72545e-03,1.91046e-01,-9.37985e-02,-2.40642e-01,-1.65388e+00,3.29446e-02,1.49358e-02,1.73588e-01,
-3.27583e-02,-1.02739e-01,-1.54506e-02,-2.51504e-01,-1.87860e-01,-2.82410e-01,-2.83093e-01,-2.06476e-01,-1.60549e-02,1.21937e-01,-1.70082e-01,6.23091e-02,-1.65043e-01,
3.48304e-02,2.13327e-01,-2.48112e-01,2.34682e-01,1.28010e-01,2.96226e-01,5.52077e-01,1.79181e-01,2.51888e-04,1.03977e+00,4.75102e-01,-1.63220e-01,-1.22687e-02,
-3.64206e-02,3.26315e-01,1.18863e-01,-1.40354e-01,1.85893e-01,-2.25074e-01,4.73995e-01,1.28606e-01,-9.07895e-02,-1.15155e+00,-6.25815e-02,6.12838e-02,-1.80570e-01,
8.69187e-02,-1.58320e-01,-8.90208e-02,-2.79565e-01,6.83100e-01,1.21634e-01,-3.44204e-01,-1.02191e-01,-5.48459e-02,-7.59060e-01,-2.07050e-02,-7.80015e-02,9.59915e-02,
3.17281e-02,6.06643e-03,1.01643e-01,-2.04945e-01,-1.08073e+00,-1.77984e-02,6.99181e-03,-1.40310e-02,-3.59351e-01,-1.79153e+00,-1.79702e-01,1.51221e-02,6.10029e-02,
-1.71043e-01,4.42305e-02,-4.14106e-02,1.17284e-01,1.84573e-01,1.94630e-02,2.23164e-02,-1.29409e-01,6.52691e-02,7.10455e-02,5.83585e-02,-1.30569e-01,3.76312e-02,
-1.22336e-01,3.53213e-03,-2.97207e-01,-6.88394e-02,-1.39228e-02,-6.16712e-02,-8.73247e-03,-1.44417e-01,8.21009e-02,1.92607e-01,3.65915e-01,1.00675e-01,-4.75406e-02,
-8.48658e-03,8.58563e-02,-1.40039e-01,-6.07775e-03,-1.86727e-01,-1.05077e-01,6.03679e-02,1.38740e-01,-1.34287e-01,3.07427e-02,1.64617e-01,-4.18986e-02,-1.10869e-01,
7.96126e-02,8.33956e-02,-9.31959e-03,1.65536e-01,-2.83193e-01,1.98576e-01,-1.58915e-01,-1.63553e-02,-8.42072e-02,8.05987e-01,4.17874e-01,-1.97939e-01,-1.33935e-01,
4.37987e-02,-1.85791e-01,-2.01296e-01,6.55056e-02,-1.73066e-01,-2.38813e-01,1.43124e-01,4.84529e-02,-3.84714e-01,5.59723e-01,-7.79859e-02,-9.14332e-03,-6.80584e-02,
8.30714e-03,-2.74003e-02,-4.98776e-02,-1.80291e-01,-1.58497e+00,9.37119e-02,-2.91145e-02,-2.73850e-02,-3.75299e-01,-1.59830e+00,-7.25031e-02,2.44517e-02,1.59909e-01,
-1.97480e-01,-7.43515e-02,6.79498e-02,-9.43645e-02,3.82538e-02,-9.36875e-02,9.48803e-02,1.14809e-01,1.15573e-01,-2.74017e-01,-4.02250e-02,7.73220e-03,3.48205e-02,
6.76214e-02,1.47579e-01,9.44347e-02,7.63527e-02,7.31926e-01,3.31282e-02,3.17404e-01,-1.12898e-01,-1.84094e-01,-2.31329e+00,-3.40451e-01,4.41661e-02,-1.73361e-01,
9.98121e-02,-2.37189e-01,-1.24080e-01,-8.34702e-02,-2.68098e-01,1.27260e-01,-4.29854e-01,-2.03895e-01,9.35508e-02,7.12146e-01,3.87099e-02,1.30418e-02,-1.98421e-01,
-3.29109e-01,-1.07912e-01,5.49191e-02,8.72223e-02,1.63115e-01,-4.70300e-03,-1.45443e-01,1.12066e-02,-9.48595e-02,-7.21887e-01,-1.45363e-01,-3.28945e-02,1.76140e-01,
3.38441e-03,1.75398e-01,1.07504e-01,-1.38155e-01,-1.56531e-01,-1.74531e-01,-1.73306e-01,1.09835e-02,1.85254e-01,1.26763e-01,-5.71709e-02,-1.84560e-01,-2.21616e-02,
1.87439e-02,-2.98363e-01,-8.25694e-02,-1.85668e-01,7.49865e-01,9.86838e-02,-3.48537e-01,1.20102e-01,2.89263e-01,-2.71897e-01,3.01956e-02,1.68541e-02,-1.31003e-01,
8.00147e-03,1.74432e-01,-8.71813e-03,-2.93650e-01,-1.35667e-01,6.74269e-02,7.14604e-02,3.61256e-02,-1.83415e-01,-1.54064e+00,-7.41426e-02,-1.31277e-01,2.58634e-01,
1.51309e-02,9.37702e-03,3.86627e-03,-1.34550e-01,-1.48440e-01,-8.07004e-03,-1.54271e-01,-8.04014e-02,-1.50394e-01,-1.00726e-01,8.49725e-02,-1.56810e-01,-1.44359e-01,
-1.25586e-01,1.11936e-01,8.50433e-02,9.08381e-02,1.59501e-01,-8.65769e-02,1.86862e-02,1.59518e-02,1.37088e-01,-2.20513e-02,-8.36915e-02,-1.51909e-01,-1.37338e-02,
-1.07778e-02,-1.77356e-01,-1.07198e-02,-1.68100e-01,-4.88907e-01,-2.07329e-01,1.01059e-01,-2.85272e-02,-3.70121e-01,-8.64914e-02,-1.26182e-01,4.18592e-02,-3.77128e-02,
1.27321e-01,-2.91716e-01,-6.40242e-02,-1.38991e-01,-2.09538e-01,4.35434e-01,-2.25391e-01,-1.38449e-01,-5.57554e-02,-7.56159e-01,6.28818e-02,-1.40135e-01,-2.44634e-01,
-1.84017e-02,-2.72489e-01,-1.77136e-02,4.31392e-02,4.08224e-01,-2.25071e-01,-3.10961e-01,-1.45625e-01,7.25138e-02,1.48455e+00,-2.31654e-01,-1.98579e-02,-7.17758e-02,
2.95471e-02,-1.00246e-01,-1.11528e-01,-1.89759e-01,-4.23068e-01,-7.01806e-02,-2.82891e-02,1.11622e-02,-3.24781e-02,-3.75682e-01,2.34814e-02,-2.03093e-01,3.87508e-02,
3.62378e-03,-7.73216e-02,7.37301e-02,-3.32078e-02,-4.37715e-01,5.72358e-02,-1.60996e-02,-1.68572e-01,-1.00455e-01,-3.46742e-02,-4.58027e-02,-1.98513e-01,5.21775e-03,
-1.57753e-01,-6.08323e-02,-6.60257e-02,-1.02535e-01,-5.42971e-02,1.33914e-01,-1.65663e-01,1.07794e-01,4.47534e-02,4.69867e-02,-1.64354e-01,1.70730e-02,-6.82414e-02,
-1.44033e-01,3.57401e-02,-8.28425e-02,-9.61214e-02,1.84221e-01,-2.21183e-01,2.88188e-01,8.58394e-02,-3.03496e-01,-6.65410e-01,1.71132e-01,-8.50201e-02,1.35951e-01,
-5.24185e-02,1.08530e-01,-8.40834e-03,4.27488e-02,-1.00914e-01,1.46851e-02,1.22292e-01,8.69012e-02,1.13299e-01,4.56716e-02,-1.54830e-02,-1.23722e-01,-1.16063e-01,
-7.79688e-02,1.34413e-02,-1.02077e-01,7.06903e-03,1.06043e-01,-9.34335e-02,-1.05647e-01,-3.49072e-02,3.70382e-02,6.32279e-02,-8.28419e-02,2.51902e-02,-1.69528e-01,
-3.44829e-03,-8.08874e-02,-2.57700e-01,9.16394e-02,2.75603e-01,-1.78048e-01,-9.78413e-02,-1.41057e-01,2.65490e-02,-6.03446e-01,-1.81275e-01,1.46524e-02,-1.68271e-01,
8.61294e-02,-2.06353e-01,-1.22953e-01,3.16732e-01,-6.10185e-01,7.35891e-02,1.55103e-01,-1.94324e-01,-4.08105e-01,8.69126e-01,7.67172e-02,7.27952e-03,-1.20572e-02,
2.50365e-02,-2.14375e-01,1.05403e-01,-1.00736e-01,8.85083e-01,6.97726e-02,-5.19778e-02,1.49992e-01,3.01747e-01,-2.28741e+00,-1.32793e-01,9.90082e-03,-8.46987e-02,
-1.58329e-01,1.56084e-02,-4.32111e-02,-8.78685e-02,5.60506e-02,6.56362e-02,1.00956e-01,2.04758e-02,-4.78488e-02,5.09474e-02,-1.03183e-01,-9.44803e-02,1.41498e-02,
-1.60210e-01,9.41099e-04,1.56933e-03,-2.48808e-01,1.46823e-01,5.16980e-02,-6.78773e-02,1.05953e-01,-1.14884e-01,-1.70797e+00,-7.70544e-02,8.14273e-03,2.14997e-01,
3.24139e-02,3.21059e-01,-2.10446e-01,-2.43921e-01,3.43870e-01,-1.68740e-01,4.13426e-02,4.48484e-01,3.87882e-01,-1.03765e+00,-1.55129e-01,7.75584e-02,-1.04614e-01,
-5.42049e-02,1.49383e-01,-3.72626e-02,-2.18556e-02,-7.41758e-02,-1.22643e-02,-6.78074e-02,-1.08263e-01,1.30648e-01,4.06624e-02,1.17738e-01,-1.71908e-02,2.68602e-02,
-1.11154e-01,2.80575e-02,2.30975e-01,-3.40121e-02,6.44431e-01,9.64318e-03,-2.28840e-02,4.45963e-03,1.36732e-01,7.34603e-02,2.46077e-01,-1.15820e-01,1.46665e-02,
6.81565e-02,9.29153e-02,-4.09024e-01,-1.10479e-01,3.12786e-01,-1.01277e-01,-5.53346e-02,-1.28514e-01,1.10866e-01,-7.46331e-01,1.16625e-01,4.23610e-02,-1.36410e-01,
2.42725e-02,-3.13381e-02,-4.52627e-02,-5.14903e-02,-5.26055e-02,6.67354e-02,8.80546e-02,-9.46012e-02,-1.13348e-01,-1.30151e-01,-9.53460e-02,-1.34174e-01,-8.17847e-02,
1.23266e-02,-1.24027e-01,-1.34076e-01,5.37528e-02,-3.13759e-02,7.32885e-02,-2.72663e-01,-9.85055e-02,-4.53577e-02,2.83612e-01,-5.91458e-02,-1.46331e-01,-6.41250e-02,
-2.34521e-02,8.56952e-02,-4.23995e-03,-8.22068e-02,-1.09684e-01,-8.91257e-02,-2.40192e-01,6.33210e-02,-4.08571e-02,3.58788e-02,-1.08476e-01,-1.38003e-02,3.62553e-02,
-1.95386e-01,4.63579e-02,-1.09464e-01,-1.96595e-01,-2.26840e-01,-1.98853e-01,1.16323e-01,5.54059e-02,-2.83944e-02,-1.98934e-02,-6.24682e-02,6.05741e-02,1.97176e-02,
1.30632e-02,-1.15651e-01,-4.17144e-02,1.48163e-01,6.08808e-02,-1.68910e-02,-7.43010e-01,3.12625e-02,5.13157e-01,2.11330e+00,-2.73283e-01,1.16343e-01,-9.96051e-02,
-6.14008e-02,6.12492e-02,-4.85175e-02,2.53882e-02,-9.54105e-01,-4.81935e-03,-2.19375e-01,-4.78468e-02,-2.26479e-01,-1.98665e-01,-2.17382e-01,-3.49335e-02,2.16692e-01,
2.36855e-02,-3.87719e-01,1.52977e-02,-7.91384e-02,4.62382e-01,-1.38609e-02,1.61165e-03,-3.68289e-01,-6.41633e-01,5.86439e-01,-2.48430e-02,-1.08123e-01,1.01507e-01,
7.90260e-02,-7.27781e-02,-8.06578e-02,-2.37483e-01,-2.57011e-01,7.35221e-02,2.59337e-02,-2.16135e-01,-2.84990e-01,-1.18225e+00,-2.00110e-01,-7.77087e-02,-5.32890e-02,
-2.06449e-01,1.93300e-01,7.00560e-02,-1.12754e-01,-5.76700e-01,-2.22060e-01,-2.08274e-01,-7.71758e-02,-1.04774e-01,3.16293e-02,1.71899e-01,1.51844e-01,8.10799e-02,
-2.23155e-01,-2.50713e-01,-1.93892e-01,-2.72788e-01,2.68921e-01,7.51932e-02,-1.42701e-01,-5.38076e-02,1.20658e-01,-7.53321e-01,-2.82163e-01,7.55390e-02,1.53043e-01,
6.91495e-02,-2.24389e-01,-8.96304e-02,-1.51816e-01,1.29860e-01,-9.70081e-02,-1.65083e-01,-4.61052e-03,-2.54316e-01,-6.35144e-01,1.02105e-01,-1.67794e-01,-1.32759e-01,
-7.35925e-02,2.11957e-01,2.75348e-01,8.16296e-02,2.96779e-01,3.26197e-01,-2.62194e-01,2.77067e-01,2.95498e-01,3.17455e-01,8.86277e-02,-1.82125e-01,-5.46809e-02,
-2.26444e-01,-2.27636e-01,-8.60718e-03,1.43156e-01,4.00531e-01,-1.03861e-01,-6.69026e-03,-2.79264e-01,-1.87363e-01,-1.15632e+00,2.63129e-01,-1.51883e-02,2.18828e-01,
-5.52455e-02,-7.37148e-02,1.01538e-02,-3.34684e-02,-9.43496e-02,-4.58608e-02,-1.12230e-02,5.98582e-02,1.58283e-01,-4.67990e-02,1.69788e-02,-1.49195e-01,4.14276e-02,
-1.62936e-02,6.10543e-03,1.55411e-02,-4.17741e-02,-1.25653e+00,3.11435e-02,-3.65157e-01,-2.72328e-02,2.99324e-02,1.66797e-01,1.20677e-01,-3.13392e-02,1.48498e-01,
-1.44053e-01,-1.36221e-01,1.37238e-01,2.51401e-02,-1.31192e-01,1.07099e-01,1.23672e-01,2.97838e-02,-1.50208e-01,1.53209e-01,1.33873e-01,-1.32641e-01,-1.21315e-01,
1.13353e-01,2.64053e-02,8.20297e-02,8.20180e-02,-7.61998e-01,5.30622e-02,2.17377e-01,1.31035e-01,-4.66123e-01,1.39213e-01,-2.37238e-02,6.54284e-04,-2.51016e-01,
-1.88642e-01,-1.28392e-02,-1.09554e-02,-8.40236e-02,5.30070e-02,-5.13079e-02,1.18119e-01,-1.19049e-01,8.98761e-02,-1.12732e-01,1.26784e-01,1.13682e-01,-6.12449e-02,
9.12047e-03,-1.59906e-01,-9.97331e-02,-1.09690e-01,-1.75009e-01,-2.30627e-01,1.82231e-01,1.60407e-01,-1.20933e-01,-1.90666e-02,-2.37156e-01,-9.76352e-02,4.12770e-02,
-1.20287e-01,-1.29206e-01,-1.95518e-01,1.68889e-01,3.31354e-01,-1.24696e-01,-1.26733e-01,-1.69372e-01,-1.18633e-01,-8.70528e-01,-8.02092e-02,-1.05265e-01,2.62407e-01,
8.39881e-02,2.25371e-01,1.97448e-01,-2.81868e-02,5.40756e-02,-5.44583e-01,3.74740e-01,2.23405e-01,-2.02275e-01,4.65718e-01,-4.04318e-01,-2.23804e-01,-1.15958e-01,
-1.02470e-01,-2.76864e-01,-1.67361e-01,-1.14371e-01,4.79442e-01,-2.20094e-01,-4.35905e-02,-2.10345e-01,-5.85851e-02,-1.04414e-01,2.84113e-01,5.33579e-02,-1.10359e-02,
1.19630e-02,-1.80725e-01,-1.08962e-01,-2.58914e-01,-3.61683e-01,5.65426e-02,-9.09555e-02,5.76291e-02,-2.48859e-01,-5.33873e-01,4.87020e-02,-1.53816e-01,1.01122e-01,
-6.02712e-02,3.46149e-02,-5.92556e-02,1.05509e-01,-4.41196e-02,-2.02335e-01,-8.79958e-02,5.45356e-02,5.01121e-03,-1.86878e-02,-7.57127e-03,1.48517e-02,-6.77194e-02,
-1.06513e-01,7.17430e-02,-1.00935e-01,-1.20300e-02,4.70480e-01,-1.90321e-01,2.79013e-01,-1.78848e-01,3.26711e-02,8.98598e-02,-2.48697e-01,5.04486e-02,-1.66430e-01,
-2.94162e-02,2.46189e-01,1.28681e-01,-2.77501e-01,-4.16145e-01,-1.36358e-01,-4.79258e-02,1.27608e-02,-8.57338e-02,-1.53593e+00,-8.92666e-02,-9.44947e-02,1.85769e-01,
-2.47648e-02,7.53876e-02,-1.52654e-01,-1.36049e-01,1.92779e-02,-1.36681e-01,-1.49631e-01,-3.42891e-02,1.36992e-01,8.22731e-02,1.54561e-01,-1.49835e-01,8.79865e-02,
3.47686e-02,-3.65859e-02,-2.13178e-01,1.30250e-02,4.22009e-01,-7.60043e-02,9.73512e-02,-1.70204e-01,-2.24562e-02,-1.37307e-01,5.13734e-02,-1.33940e-01,-6.89046e-02,
1.81505e-02,-2.30422e-01,-2.86342e-02,6.88834e-02,-5.81285e-01,-9.54787e-02,-1.86136e-01,-1.10206e-01,-1.23412e-01,8.65053e-01,-2.28570e-02,9.54372e-02,-1.66825e-01,
5.35643e-02,-1.70747e-01,-1.92194e-01,1.97584e-01,2.99139e-01,1.73470e-01,2.95607e-01,-1.69418e-01,4.10152e-01,7.13207e-02,-1.00921e-01,4.19551e-02,-2.05991e-01,
-6.59770e-02,1.06786e-01,-5.74045e-02,-1.98663e-01,1.62737e-01,-1.37109e-01,-2.02725e-01,-3.40174e-01,-1.80750e-01,-7.76338e-01,-2.01765e-01,3.38230e-02,-6.86051e-02,
-5.55448e-02,1.46439e-01,-7.55142e-02,8.50128e-02,-1.44520e-01,-1.12567e-01,-1.23763e-01,-2.76914e-02,-3.86786e-02,1.11914e-01,1.17910e-01,-1.00300e-01,-1.59892e-01,
-1.55482e-01,1.58419e-01,1.94622e-01,-7.13914e-02,8.54879e-02,-1.95941e-01,-1.31232e-01,1.87218e-01,3.92490e-01,-1.49488e-01,7.05192e-02,-9.15501e-02,1.02286e-01,
-6.46796e-03,1.88240e-01,-2.83211e-01,1.43828e-01,2.61684e-01,2.62497e-01,-1.99474e-01,-3.46430e-01,9.70405e-02,3.26613e-01,3.87565e-01,9.03363e-02,-5.84947e-02,
-1.39860e-01,7.02617e-02,1.56630e-02,-1.22130e-01,-1.25921e-01,-1.14283e-01,1.22561e-01,8.64720e-02,1.15826e-01,-1.50615e-01,-1.64925e-01,1.33751e-02,-1.16156e-01,
-1.46330e-01,2.19890e-01,-7.39929e-02,-8.12810e-02,5.85842e-02,1.01289e-02,1.76545e-01,1.00256e-01,8.09370e-02,1.33400e-02,-1.28762e-02,-1.65692e-01,1.60758e-01,
-1.61648e-01,1.52738e-03,1.23744e-01,1.51897e-01,8.62733e-02,-1.34713e-01,-1.19083e-01,-2.27860e-02,3.21826e-03,-1.14952e-01,1.20174e-01,-2.60143e-02,-8.60023e-02,
-1.40991e-02,-3.69042e-01,-4.26670e-02,3.36164e-01,5.87165e-01,-1.45678e-02,2.28326e-02,-3.28837e-02,-8.33202e-02,1.46844e+00,2.16646e-01,3.74788e-02,3.39818e-02,
-5.43112e-03,5.02900e-03,2.38250e-01,-1.58450e-01,-1.16758e+00,-4.10806e-02,1.60911e-01,2.01787e-01,-7.72818e-01,-7.19080e-01,1.24010e-01,8.50409e-02,-8.60868e-02,
-2.36912e-02,6.73905e-03,9.45745e-02,1.06239e-02,-1.01000e-01,-2.25695e-01,-1.15341e-01,-1.05052e-01,-6.27867e-03,-1.09212e-01,5.22219e-02,-1.80126e-01,-7.95273e-02,
2.68406e-02,-1.64271e-01,5.14473e-02,1.23255e-03,-4.64761e-01,-5.38860e-02,-1.95465e-01,-1.21336e-01,7.06115e-02,1.37690e-01,1.68352e-01,-6.82814e-02,-5.48301e-02,
-2.28720e-01,-1.31203e-01,-6.13605e-02,-6.71735e-02,8.57669e-02,-5.24715e-02,2.03464e-01,-4.21481e-03,7.08163e-02,-3.52173e-02,-1.39690e-01,5.36141e-02,-2.75044e-02,
-1.33365e-01,1.43832e-01,-1.49819e-01,2.50995e-03,-4.15101e-02,-2.89403e-03,-4.18029e-02,6.88405e-02,5.79548e-02,1.02834e-01,-9.22460e-02,-4.02877e-02,-8.36173e-02,
-1.83469e-02,2.30817e-01,-2.15881e-01,1.55562e-01,2.82700e-01,-1.42361e-01,5.03336e-01,2.78880e-01,-2.34834e-01,1.56115e+00,-1.16351e-01,-2.50498e-02,-3.17727e-02,
-9.58261e-02,-3.98974e-02,1.08320e-01,1.39024e-01,-8.90167e-03,2.97158e-01,-1.12649e-01,2.50257e-01,1.90899e-03,-3.17607e-01,1.02054e-01,-1.28822e-01,-1.08013e-01,
5.27431e-02,-1.66317e-01,-1.30486e-01,-1.14712e-01,-5.25500e-02,-6.74575e-02,-2.04202e-02,-1.23127e-01,1.03564e-01,-2.37622e-02,1.18846e-01,-5.83589e-02,-1.00084e-01,
-8.69729e-02,-2.96824e-02,-6.33787e-02,-8.83835e-02,-1.59291e-01,-9.13868e-02,-2.41846e-04,1.61892e-01,-1.83646e-03,-3.92806e-02,8.44838e-02,-5.33307e-02,-1.11283e-01,
-2.44846e-01,7.88738e-02,-1.70911e-01,-1.11492e-01,-1.96352e-01,-1.11494e-01,2.36267e-02,4.43269e-02,-1.28464e-01,-4.51514e-02,3.94430e-02,9.25299e-02,3.10955e-02,
-5.89416e-02,4.42885e-01,-2.19461e-01,-1.67338e-01,-1.52865e-01,5.56885e-02,4.75403e-02,-2.44472e-01,1.03007e-01,-2.16349e+00,-4.84720e-02,1.40858e-01,-6.37271e-02,
-2.20426e-02,-1.18238e-01,-4.83071e-02,2.66190e-01,-1.44726e-01,4.47279e-02,-5.37971e-01,5.27748e-02,1.30611e-01,1.94462e+00,4.31346e-02,9.78853e-02,-9.05701e-02,
-8.02844e-02,-5.50552e-02,-2.37516e-01,-6.29904e-02,3.50649e-01,1.59477e-02,-3.05400e-01,7.01975e-03,3.11679e-01,-1.12858e-01,-8.28966e-02,9.61860e-02,-1.33397e-01,
2.82929e-02,-2.04128e-01,-1.40298e-01,-1.63134e-01,-2.26647e-02,8.89037e-02,1.15257e-01,9.99802e-02,-2.25358e-01,5.36912e-02,1.72160e-02,-1.59027e-01,-2.05614e-02,
6.40628e-02,-2.46877e-01,-7.30940e-02,7.48673e-02,-3.24732e-01,1.55282e-01,-2.08988e-01,-5.10951e-02,-1.53340e-01,-5.38392e-01,-7.14824e-02,-1.61588e-01,-1.85917e-01,
-1.34836e-01,6.03957e-02,4.75517e-02,1.09689e-01,-8.15618e-02,-7.60891e-02,1.23472e-01,7.97049e-02,6.14670e-02,6.09425e-03,-1.60260e-01,-1.51405e-01,-2.08892e-02,
-1.44387e-01,-3.59100e-02,-1.02889e-01,-1.13741e-02,-8.01467e-02,1.82632e-02,4.51975e-02,-1.06157e-01,8.69983e-02,5.81843e-02,1.34853e-01,-2.94521e-02,-1.64824e-01,
-1.74934e-01,-1.65470e-02,2.63273e-01,1.81246e-01,5.89691e-01,1.32791e-01,1.12631e-01,5.74491e-02,5.69057e-01,-1.01444e+00,-1.03390e-01,3.32587e-02,-9.53082e-02,
-9.63067e-02,-1.57448e-01,-4.78404e-02,-1.11158e-01,-6.47919e-03,-1.40567e-01,5.41523e-02,1.00364e-01,-1.46679e-01,-3.85643e-02,-1.26654e-01,-1.38780e-01,-6.56560e-02,
-3.55583e-02,1.04193e-01,-4.00120e-02,1.29137e-01,-1.64978e-01,-1.25900e-01,-9.38842e-02,3.29415e-02,-1.21158e-01,1.44442e-01,7.94570e-02,-1.51623e-01,-1.01063e-01,
-3.63638e-02,-3.10071e-01,1.98531e-01,3.80447e-01,-2.73754e-01,1.24551e-01,1.58534e-01,2.01951e-02,5.33651e-02,1.62191e+00,2.19821e-01,1.28217e-02,-5.39333e-02,
-1.39096e-01,-2.13742e-02,3.37791e-02,-2.55606e-01,5.19811e-01,6.70832e-02,7.21295e-02,-2.28548e-01,-1.54005e-02,-1.99129e+00,-2.78366e-01,9.48612e-02,1.15789e-01,
-5.74283e-02,9.28327e-02,1.75874e-01,2.02966e-01,4.57499e-01,-4.41620e-01,1.59023e-01,-7.11112e-02,2.02799e-01,-6.25223e-01,6.50090e-02,-2.52618e-02,-8.81166e-02,
-1.47425e-01,2.14520e-01,7.89723e-02,-1.25903e-01,6.12830e-02,-2.13608e-01,3.18621e-02,-4.22187e-04,6.47129e-02,-3.84784e-01,3.58076e-02,1.33607e-01,-8.33413e-02,
5.00030e-03,1.97121e-01,-2.27471e-01,6.00091e-02,1.70054e-01,1.59209e-03,-4.29811e-01,-3.04878e-02,8.79736e-02,4.40487e-01,3.14130e-01,-1.17726e-01,2.61076e-02,
-1.06484e-01,
-2.84293e-02,
4.63508e-01,
-2.33498e-01,
1.45543e-01,
5.27659e-04,
4.34474e-02,
0.00000e+00,
0.00000e+00,
-7.23825e-02,
-3.47909e-01,
0.00000e+00,
-2.36523e-01,
-4.49548e-02,
0.00000e+00,
-6.05085e-02,
-1.36116e-01,
0.00000e+00,
-1.65411e-02,
-2.29025e-01,
-1.90977e-02,
0.00000e+00,
-2.82864e-02,
0.00000e+00,
0.00000e+00,
2.11443e-01,
0.00000e+00,
1.39720e-02,
-3.22214e-01,
2.31315e-02,
-5.22363e-02,
-3.04694e-02,
-2.17459e-01,
2.22492e-04,
-2.09263e-01,
0.00000e+00,
-3.47080e-02,
-4.14785e-02,
0.00000e+00,
8.67382e-02,
-7.49079e-03,
-1.66271e-01,
1.30450e-02,
1.68030e-01,
1.20212e-02,
-2.37344e-01,
0.00000e+00,
1.78276e-01,
4.01064e-01,
-3.71670e-02,
0.00000e+00,
-1.65699e-02,
-7.27955e-02,
-6.00010e-02,
-2.04560e-01,
-2.61746e-02,
1.73740e-01,
6.10995e-02,
0.00000e+00,
-3.15655e-01,
1.66822e-01,
-6.19330e-03,
0.00000e+00,
1.54198e-01,
0.00000e+00,
0.00000e+00,
-2.33564e-02,
0.00000e+00,
-3.09685e-02,
0.00000e+00,
-1.53088e-01,
4.59464e-02,
5.30641e-03,
-5.01630e-02,
0.00000e+00,
-5.07313e-02,
-7.74680e-02,
2.05456e-02,
-3.18196e-02,
-1.67767e-01,
-1.00351e-01,
2.88551e-02,
-2.75408e-01,
-2.55174e-01,
-7.42374e-02,
2.11681e-01,
1.52271e-01,
-2.55083e-01,
-9.50444e-03,
0.00000e+00,
0.00000e+00,
-9.76754e-02,
-1.50288e-01,
-1.16804e-03,
2.59751e-01,
-3.06713e-01,
1.86061e-02,
1.21562e-01,
2.30223e-01,
-1.10531e-01,
-1.07420e-01,
3.76117e-01,
2.29391e-01,
3.90357e-02,
-3.65462e-02,
-1.46194e-01,
-5.33095e-02,
-1.19213e-01,
-3.96233e-01,
9.80069e-02,
8.93541e-04,
4.76141e-01,
-2.91561e-01,
4.47930e-02,
-4.22543e-02,
1.21118e-01,
2.26926e-01,
-1.77988e-02,
0.00000e+00,
-1.20857e-01,
6.35641e-02,
-3.63418e-01,
-4.34886e-02,
-7.27246e-02,
0.00000e+00,
3.73238e-02,
0.00000e+00,
-7.18092e-03,
1.18535e-01,
-5.99600e-01,
5.66826e-01,
0.00000e+00,
2.68829e-01,
5.22785e-01,
-1.19696e-02,
1.84056e-01,
-5.87033e-02,
-5.21653e-02,
-1.10429e-01,
-5.81238e-02,
-7.30608e-02,
-3.99286e-01,
-1.57870e-01,
-1.57330e-01,
6.08144e-02,
-1.82024e-01,
1.53783e-01,
-4.20470e-02,
2.08995e-01,
1.29947e-01,
-3.02806e-02,
-8.41538e-02,
-5.01014e-03,
-6.89633e-02,
2.71746e-02,
-2.06406e-02,
1.70144e-01,
4.98360e-02,
-8.46104e-02,
-9.78264e-03,
-2.03379e-02,
1.01178e-02,
1.74955e-01,
-3.37732e-02,
-1.14829e-02,
-3.71708e-01,
-6.32728e-02,
6.80831e-02,
0.00000e+00,
3.07959e-02,
-4.04591e-01,
0.00000e+00,
2.70551e-02,
0.00000e+00,
-3.85378e-01,
6.10505e-02,
-4.94109e-02,
-1.68385e-01,
-4.79656e-02,
0.00000e+00,
-1.21555e-01,
1.29144e-01,
8.26023e-03,
0.00000e+00,
-7.00642e-02,
1.55896e-01,
-4.48986e-01,
8.73967e-02,
-7.11063e-03,
-6.26891e-02,
0.00000e+00,
0.00000e+00,
5.51280e-01,
0.00000e+00,
0.00000e+00,
-4.44465e-01,
3.90917e-01,
3.10064e-01,
9.10580e-02,
-1.48167e-01,
1.02772e-01,-6.34754e-03,-1.44350e-01,-1.15209e-01,-1.19480e-01,8.01394e-02,9.11602e-02,-8.43076e-02,-3.81567e-03,-4.80527e-02,-3.21314e-02,1.07415e-01,-9.61287e-02,-7.76050e-02,-4.91286e-02,-4.68652e-02,-2.05899e-03,7.90638e-02,-6.37362e-02,-6.46450e-02,1.19690e-01,1.15807e-01,-1.62133e-02,9.28047e-03,-2.06028e-03,4.20950e-02,1.01493e-01,2.22393e-02,-7.71925e-02,-1.01410e-01,-9.61630e-02,8.63631e-02,4.13733e-02,-5.81605e-02,-2.42442e-02,-5.53020e-02,-9.42419e-03,3.55152e-02,1.55456e-02,7.69450e-03,-9.30579e-02,-2.52080e-02,5.05996e-02,-8.06619e-02,-3.30433e-02,1.99843e-03,7.04261e-02,6.31733e-02,-2.64963e-02,-8.65321e-02,1.09044e-01,9.51743e-02,6.22933e-02,-3.06045e-02,1.52716e-02,1.06193e-01,-2.39384e-02,2.09359e-02,-4.47224e-02,-6.01358e-02,-1.02948e-01,-8.67333e-02,2.34892e-03,2.70538e-02,9.42049e-02,2.55154e-02,5.45906e-02,-3.72756e-02,2.96941e-04,-1.46400e-02,-2.64029e-02,-1.77445e-01,6.71325e-02,7.00662e-02,2.65125e-02,-1.14398e-01,-6.26398e-02,6.89823e-02,1.64123e-03,-1.32672e-01,2.01039e-02,-6.21007e-03,-1.00882e-01,-3.08607e-02,-9.53344e-02,-1.21737e-01,-3.01718e-02,1.03479e-01,1.08271e-01,-8.63506e-02,5.21189e-02,-3.84898e-02,-1.73436e-02,7.46128e-02,-7.90243e-02,-3.10809e-02,-3.06638e-02,-1.12884e-01,3.84746e-02,9.25465e-02,-9.91121e-02,-1.52221e-02,7.23832e-03,-9.65693e-02,-1.04731e-01,-1.22590e-01,-2.09283e-02,-9.07396e-02,3.24064e-03,-7.03484e-02,9.17326e-03,9.90260e-03,-7.20030e-02,-3.89717e-02,-1.24960e-01,6.73886e-02,-2.07805e-02,-1.09186e-01,2.42015e-02,3.69164e-02,4.01095e-02,-2.60081e-02,9.60913e-02,1.07087e-02,8.95139e-02,-8.11258e-02,1.22194e-01,9.40509e-02,7.97973e-02,-7.81587e-02,-1.95984e-01,-8.17782e-02,-6.00847e-02,-1.17307e-01,-5.44122e-02,-9.90856e-02,-2.71792e-02,3.40329e-02,3.32711e-02,8.93865e-03,6.42078e-02,-5.02065e-03,7.61796e-02,4.40619e-02,3.42803e-02,-6.42365e-02,-6.87785e-02,5.87534e-02,6.91204e-02,1.84077e-02,-6.46247e-02,-8.56760e-02,1.05852e-01,5.46988e-02,6.51545e-02,-1.62323e-02,-5.55790e-02,4.47949e-02,-4.79360e-02,-2.81832e-02,1.94686e-04,-3.44097e-02,2.81987e-02,-8.42811e-02,-4.75254e-02,-1.26525e-01,-3.96034e-02,5.80631e-03,6.86605e-02,-1.14193e-01,-4.64283e-02,1.16421e-01,-7.98658e-02,3.14676e-02,-8.19443e-02,-1.43258e-01,2.73624e-02,9.74722e-02,5.40320e-03,-2.59446e-02,1.48059e-01,5.19332e-03,3.60683e-02,-5.19255e-02,1.06702e-01,-1.88702e-02,-1.36334e-01,-1.01151e-01,5.52559e-02,4.60684e-03,-3.19321e-02,7.60713e-02,-8.03393e-02,-5.60558e-02,9.84783e-02,3.92535e-02,-1.46032e-01,1.50258e-02,-9.41352e-02,-4.72918e-03,
-1.66258e-01,-2.93298e-02,1.24155e-01,1.23854e-01,-2.40424e-02,7.57551e-02,-5.04138e-02,-4.54641e-02,-5.16063e-02,7.50698e-02,-5.68032e-02,-3.22296e-02,-2.52419e-02,3.54312e-02,3.59394e-02,1.52751e-01,-4.66070e-02,-1.09286e-01,8.36408e-02,-1.82057e-01,9.13931e-02,-2.36202e-02,-2.90740e-02,-3.90106e-02,4.55532e-02,4.50068e-02,5.60885e-02,1.57441e-01,-4.64788e-02,3.70609e-01,-5.50205e-02,-7.73196e-03,-1.86374e-01,1.47033e-01,-2.12911e-01,-8.82138e-02,-6.26018e-02,-7.47757e-03,-1.10961e-01,-1.32553e-02,-7.50809e-02,3.03293e-02,-2.13067e-01,-6.73203e-02,8.92648e-02,1.27520e-01,1.01573e-01,-7.18955e-03,-4.34754e-03,3.05973e-03,4.51178e-02,-7.24075e-02,-1.14802e-01,1.26477e-01,-4.96707e-02,5.06750e-02,1.62660e-01,-1.36353e-01,-1.99922e-02,-4.22909e-02,-2.19535e-01,-1.05557e-01,1.14844e-01,1.03868e-01,-4.59252e-03,-5.90308e-02,9.76499e-02,4.42637e-03,1.11180e-01,-1.10794e-02,2.03437e-02,1.85532e-02,9.34395e-02,-8.23168e-02,-4.10343e-02,-7.23077e-02,9.08268e-03,1.96885e-01,-4.19751e-04,-6.18530e-02,1.53599e-02,-3.12135e-02,-5.92622e-02,-6.65118e-04,1.18239e-01,-6.19998e-02,-1.70065e-01,-1.25277e-01,8.38693e-03,2.55339e-02,-9.73607e-02,3.45949e-02,-7.14281e-02,6.41357e-02,-3.37722e-02,-1.78920e-01,3.36685e-01,2.86122e-02,1.60559e-02,-1.19694e-01,-1.53627e-01,4.62524e-02,-1.30062e-01,7.41795e-02,2.79959e-01,4.05947e-03,6.10186e-02,1.21804e-01,-1.15730e-01,-1.39990e-01,2.24428e-01,-1.40131e-01,-1.24699e-01,1.32283e-01,-4.95123e-02,3.60567e-03,-7.62787e-02,4.12812e-03,7.50346e-02,-6.70388e-02,-4.67817e-02,-1.47428e-01,4.23923e-02,-6.55716e-02,-1.00259e-02,2.14533e-01,1.18080e-01,-1.32096e-02,4.16125e-02,-2.04588e-01,5.29177e-02,-3.58836e-02,-9.68599e-02,-7.08495e-02,3.25356e-02,-2.04359e-01,1.11095e-01,-7.89023e-03,8.67028e-02,-8.61250e-02,-4.02437e-02,-2.55572e-02,-1.71112e-01,-1.15561e-01,-1.33395e-01,1.08374e-01,2.15029e-01,-1.14165e-01,5.09364e-01,1.52991e-01,3.99558e-02,-7.48136e-02,-7.87253e-02,1.50656e-02,3.76917e-02,-1.64811e-02,1.62055e-01,4.54555e-02,1.78732e-01,1.85900e-02,-2.09133e-02,3.36686e-02,-1.42574e-01,1.06928e-01,6.83065e-03,5.12133e-02,7.05942e-03,4.90841e-02,-3.27952e-02,5.71332e-01,-2.54015e-02,7.93986e-04,4.89705e-01,-1.01649e-01,-1.52782e-01,-1.82572e-01,7.88711e-02,-1.35245e-01,-4.91571e-02,5.15826e-02,-1.57563e-04,1.20496e-01,5.80432e-02,8.70845e-02,-3.93503e-02,-4.31054e-02,-3.07164e-02,1.21363e-01,3.47508e-01,6.00972e-02,-7.81600e-02,9.51217e-02,1.17616e-01,-3.54373e-03,-6.33663e-02,-3.56669e-02,-1.25451e-01,3.58665e-01,1.92241e-01,1.90649e-02,
-6.42439e-02,-1.58321e-02,9.69453e-02,-8.98761e-02,-8.51562e-02,1.56808e-02,-5.99640e-02,-4.52989e-02,-1.05712e-01,-1.03481e-01,5.16984e-02,5.11029e-02,8.52923e-02,-1.07636e-01,4.05055e-02,7.14232e-02,-7.96746e-02,-7.16024e-03,-1.05651e-01,-4.37710e-02,-9.70280e-02,7.33861e-02,9.10804e-02,3.89188e-02,5.96555e-02,3.51341e-02,8.29166e-02,-1.18578e-01,-8.92990e-02,4.92583e-02,4.20990e-02,3.81808e-02,-1.42598e-01,1.04833e-02,-1.55862e-01,-1.06921e-01,-4.63683e-02,8.06517e-02,7.58535e-02,3.90419e-02,-6.62776e-02,-4.68043e-02,-1.14418e-01,-1.65703e-01,-1.01032e-01,5.82868e-02,2.00111e-02,-7.12049e-02,-1.10578e-01,1.18753e-01,-1.81517e-02,1.06646e-01,-1.19990e-01,-8.95715e-02,2.34445e-02,-4.54446e-02,-1.12703e-01,7.42037e-04,-1.07744e-01,3.47028e-02,-9.73683e-03,-1.17176e-01,-1.83392e-03,-9.11361e-02,2.33480e-02,-3.81311e-03,-8.43255e-02,-8.82937e-02,-7.12400e-02,-8.37474e-02,3.43964e-02,5.33350e-02,1.84747e-02,4.74506e-02,1.58330e-02,-1.18558e-01,-9.96601e-02,3.58115e-02,1.13194e-01,-5.38346e-02,2.55440e-02,3.22721e-02,-1.26320e-01,-6.14462e-02,-1.00195e-01,-7.61197e-05,9.77104e-02,6.18448e-02,1.03450e-01,-1.13358e-01,-1.19407e-01,-8.66491e-02,-1.60268e-01,-5.80026e-02,1.01592e-02,-2.74076e-02,-5.84417e-02,-5.42536e-02,7.30723e-02,-1.97112e-02,-7.47329e-03,7.56945e-02,-6.37258e-02,-4.31197e-03,-6.11669e-02,-3.51600e-02,-1.43811e-02,-1.15657e-01,-4.82963e-02,-3.69744e-02,-8.15861e-02,-3.22963e-02,-1.42091e-01,-7.56234e-02,-2.67800e-02,-9.01999e-02,-1.13403e-01,6.81987e-02,-2.88463e-03,5.11632e-02,9.28926e-02,-3.36070e-03,2.40139e-02,6.04506e-03,3.50997e-02,1.55202e-02,3.47540e-02,2.42081e-02,9.72164e-02,-2.76816e-02,5.95419e-02,1.19016e-01,-1.74398e-01,-8.62263e-02,3.96662e-02,4.24181e-02,2.36071e-02,5.72162e-02,5.12064e-02,-1.71022e-02,-1.36224e-02,-8.65759e-03,-1.29428e-01,-6.37058e-03,-1.13411e-01,4.02030e-02,1.59621e-02,-5.92473e-02,3.53868e-02,-8.61273e-03,-7.03469e-02,1.53407e-02,-8.81772e-02,-1.18813e-01,-1.02556e-01,-2.94446e-02,1.68439e-01,2.74907e-02,-6.71112e-03,-1.27818e-01,-3.79494e-02,-1.44937e-01,7.96899e-02,6.83827e-02,5.49794e-02,-1.10141e-02,1.33164e-02,8.39767e-02,4.45516e-02,-3.95885e-02,5.50635e-02,-5.40678e-02,-9.20137e-02,-7.44274e-02,-1.41639e-01,-4.16652e-03,9.91558e-02,-1.26326e-01,-5.56829e-02,1.05099e-01,5.80497e-02,-3.16675e-02,-8.62339e-02,1.10174e-01,-8.61946e-02,-3.88040e-02,2.14776e-04,1.31510e-02,-3.26736e-02,4.67750e-02,-4.39521e-02,7.26423e-02,-1.73563e-01,8.04425e-02,-1.16547e-01,-6.38301e-02,-1.15687e-01,1.71304e-01,-6.15717e-02,2.37117e-02,
-1.20024e-01,-9.86197e-02,2.42630e-01,-2.51989e-02,-2.70615e-01,-1.68041e-02,-3.82180e-02,2.72822e-02,-9.02404e-02,-1.03859e-01,-3.96504e-02,5.32381e-02,3.37618e-01,3.35585e-02,2.47284e-02,-1.80407e-01,3.28715e-02,-1.05717e-01,1.37272e-02,-1.04669e-01,-2.93314e-02,-3.77467e-02,1.15178e-01,3.13875e-02,8.26594e-02,-7.74838e-02,1.07387e-01,-1.90679e-01,-4.73015e-02,2.12342e-01,3.79219e-03,-8.07106e-02,4.20926e-02,-3.26933e-02,1.27522e-01,-9.95965e-02,-6.53199e-02,-2.62812e-02,5.31789e-02,1.77590e-01,1.14893e-02,-2.77657e-01,-5.83348e-02,-3.50635e-01,1.08222e-01,1.67593e-01,-2.86330e-02,-6.63970e-02,-4.16218e-01,2.42996e-02,-6.33015e-02,1.00161e-01,-1.51323e-01,-5.63334e-02,2.45728e-02,4.65822e-02,3.96590e-01,-2.22803e-02,-6.88793e-02,1.57099e-01,2.49036e-03,-1.21857e-01,1.20970e-01,7.65595e-02,6.68087e-02,9.82029e-02,1.02902e-01,-7.36599e-02,-2.63980e-02,3.15874e-02,-1.93079e-01,5.88894e-03,1.33060e-02,8.37519e-02,1.94684e-03,-5.11675e-02,-1.44029e-01,8.54732e-02,5.02297e-02,1.79877e-01,5.74762e-03,-7.44105e-03,7.56560e-02,-4.60043e-01,-2.22187e-01,6.00226e-02,-3.85672e-02,-1.37726e-01,1.13284e-01,1.06635e-01,-5.99001e-02,-5.76986e-02,2.45165e-01,-1.81719e-02,-1.81648e-01,2.23415e-01,-5.86875e-02,-8.37954e-02,-1.91578e-01,-3.08638e-02,1.71049e-01,1.55112e-01,-2.60689e-01,1.24374e-01,1.85825e-01,5.05306e-02,-8.71768e-02,-3.50209e-01,-5.05397e-02,-3.26509e-01,3.91564e-01,6.52784e-02,-2.31530e-02,-8.59647e-02,-3.21175e-03,-9.27464e-02,-1.59764e-01,-1.21060e-01,-9.71450e-02,-3.46523e-02,7.97982e-02,1.80710e-01,-1.19143e-01,-1.06765e-03,1.05631e-01,4.00768e-02,-3.70580e-02,1.26747e-01,3.79495e-02,-2.89178e-01,7.02702e-02,1.10070e-01,2.14992e-02,-9.08759e-02,1.00380e-01,2.08312e-01,-6.62392e-02,-9.66115e-03,-3.33349e-02,1.29986e-01,6.54590e-02,1.34481e-01,-1.51214e-01,-1.28565e-01,-8.46583e-02,1.84559e-01,-1.92361e-01,-3.75739e-02,5.43529e-01,-1.02737e-01,-1.16955e-02,-6.05688e-02,-5.08012e-02,-2.08751e-02,1.31808e-02,-6.21195e-02,-1.75267e-01,-5.24461e-02,-3.53465e-02,-7.63295e-02,-5.04762e-02,-5.34913e-02,6.07942e-02,5.95957e-02,-1.30389e-01,6.87656e-02,-3.89183e-01,-9.26213e-02,-1.09221e-01,1.61270e-01,-4.64719e-01,9.06452e-02,-2.57525e-02,-7.24813e-02,-1.77521e-01,6.14662e-02,8.74323e-02,2.48218e-02,-3.21274e-02,1.34096e-02,2.23288e-01,3.25298e-01,1.27550e-02,-8.91339e-02,-9.19974e-02,-2.76904e-01,4.37219e-02,-7.52631e-02,-6.63983e-02,2.75862e-01,-5.26670e-02,7.25184e-02,1.27348e-01,7.57484e-02,-7.54437e-02,2.64187e-02,9.77086e-02,5.61945e-01,9.91417e-02,-2.17936e-01,
2.48492e-02,7.82551e-02,2.87081e-01,-2.56574e-01,6.36523e-02,-1.18953e-02,2.74127e-02,-6.42882e-02,-3.54823e-02,-1.11041e-01,-1.56302e-01,-9.22229e-02,-2.11346e-01,-6.71175e-02,-2.98473e-02,-6.10210e-02,-1.45407e-01,9.75254e-02,3.27361e-03,-3.98273e-01,5.45173e-02,-6.76921e-02,5.01604e-02,3.86721e-02,6.79986e-02,-1.42004e-01,5.44248e-02,-4.49667e-02,-5.27393e-02,-4.98373e-02,-4.00123e-02,-1.83180e-02,5.72774e-03,-7.48589e-02,1.50569e-01,-2.02455e-02,7.19592e-02,5.08268e-02,4.50829e-02,-1.60152e-01,-1.19353e-01,-1.54737e-01,-8.98839e-02,-3.23808e-01,-1.47526e-01,5.11347e-02,-3.50545e-02,-2.63891e-01,-2.12233e-01,9.83088e-02,9.74973e-03,-6.11412e-02,-1.50420e-01,9.81520e-02,-3.95072e-01,-1.52216e-02,-3.58003e-02,-2.96370e-01,1.01676e-01,3.52761e-02,-1.28994e-01,-2.65344e-02,-1.14230e-01,-1.33590e-01,9.10240e-03,5.65378e-02,7.98176e-02,-3.82997e-02,-4.44006e-02,-4.00153e-02,2.47060e-02,-2.37071e-01,7.86612e-03,4.69721e-03,7.10224e-02,-3.94323e-02,7.04295e-02,1.15029e-01,2.34077e-02,-1.32656e-01,-7.51724e-02,-6.91998e-02,8.60332e-02,-2.72706e-02,3.39350e-02,-3.53496e-01,-4.45241e-01,-1.78244e-01,-8.11255e-02,1.94120e-02,-2.86600e-02,-1.96910e-02,8.29793e-03,-6.62781e-03,-3.79953e-02,-8.54120e-02,-3.64771e-02,-5.50819e-02,-1.13530e-01,-3.91853e-02,7.88883e-02,5.89073e-02,-9.19119e-02,-2.38391e-01,-4.47474e-02,-8.38079e-02,2.11648e-02,-2.32384e-01,-1.18581e-02,-2.48481e-01,-7.71167e-03,-7.60563e-02,-1.05941e-01,-4.97883e-02,2.68408e-02,5.12884e-02,-1.64108e-01,-9.85377e-02,1.62597e-02,5.04847e-02,-9.43299e-02,9.42082e-02,2.22381e-02,-9.93660e-02,-8.07309e-02,-1.55771e-01,-1.83587e-02,-6.68786e-02,3.42122e-03,-3.56857e-01,1.91438e-01,3.54520e-02,-1.69214e-01,-1.14867e-01,-1.01702e-01,2.55729e-01,1.15038e-01,1.76671e-02,3.18562e-02,-1.12430e-01,-3.71512e-02,3.33048e-02,-3.37729e-01,-6.24689e-02,-3.83498e-02,-2.01189e-01,1.27353e-01,6.15375e-02,4.09308e-01,4.07043e-02,7.60639e-03,-1.02656e-02,1.04234e-01,-3.13538e-01,-3.09777e-01,-5.54825e-02,-1.45635e-02,-1.15720e-01,2.81293e-03,-2.65700e-02,4.73375e-02,2.36814e-02,-2.54108e-01,5.28325e-02,-7.67576e-02,-2.35607e-01,-9.24995e-02,4.06234e-02,1.08004e-01,-2.12483e-01,-1.27666e-02,-1.03482e-01,-8.47696e-02,4.65538e-03,6.13755e-02,-1.02198e-01,-1.37416e-01,-1.98199e-02,1.16890e-02,8.10168e-02,-1.59424e-02,-2.74579e-01,-2.79223e-02,-4.78973e-02,1.41283e-02,-1.02899e-01,-1.23800e-01,6.60825e-02,3.26362e-02,-1.08094e-01,-1.05475e-01,-1.70911e-02,2.25930e-01,-9.07207e-03,1.21573e-01,-4.02253e-02,3.14147e-02,4.41842e-01,-5.89143e-02,4.93407e-02,
6.99598e-02,2.69684e-02,-4.48174e-02,2.52406e-02,-6.30508e-03,4.63127e-01,1.00044e-01,-3.60026e-02,4.64204e-02,2.30998e-02,-3.87094e-02,-9.55354e-03,1.69054e-01,-4.19476e-02,6.06245e-02,3.06611e-01,-1.04574e-01,-1.02099e-02,5.89903e-02,-9.31415e-02,8.42111e-02,9.16005e-03,-1.31880e-01,-7.91494e-02,-6.11808e-03,1.11005e-01,-3.08081e-02,1.49195e-01,5.59013e-02,1.84185e-01,3.89168e-02,1.24535e-02,-2.17137e-01,2.38318e-01,-2.72170e-01,1.68386e-02,9.86800e-02,1.06256e-01,-1.17455e-02,4.15475e-01,-1.21475e-01,8.70326e-02,6.51917e-02,9.87666e-02,3.92154e-01,1.65636e-01,-1.07043e-01,6.36447e-02,3.62843e-01,-3.96929e-03,2.08258e-02,-6.93408e-02,6.04933e-02,1.43924e-01,2.12201e-01,-9.63682e-02,-1.81924e-02,-1.60908e-01,8.92059e-02,-2.49845e-01,-1.17702e-01,1.04034e-01,-9.34253e-02,1.22292e-01,4.26358e-02,-8.22490e-02,1.43314e-02,1.07444e-01,5.82329e-02,2.62832e-02,8.79983e-02,-1.44622e-01,3.44312e-02,1.88078e-01,-7.25136e-02,3.72248e-02,-9.97968e-02,2.16695e-01,1.21426e-01,1.49593e-02,-8.91952e-02,7.60531e-03,4.56477e-02,5.81971e-04,2.20871e-01,-5.11295e-02,-1.45254e-01,7.26355e-02,7.81863e-02,1.17680e-01,5.41694e-04,-1.72914e-01,1.45789e-01,-8.50462e-02,-7.62959e-02,-1.77106e-01,3.86597e-01,8.69223e-03,-1.17437e-01,-7.48463e-02,1.53197e-01,9.22445e-02,-1.57791e-01,-7.05947e-02,2.33964e-01,-8.50363e-02,-3.18498e-02,6.54195e-02,-8.90727e-02,-2.56611e-01,1.94541e-01,-1.95150e-02,1.78904e-02,2.33323e-01,-8.64256e-02,1.10021e-02,-1.57091e-01,-4.87891e-02,2.81065e-02,-1.37620e-01,4.40114e-01,-1.18735e-01,1.22858e-01,4.72116e-02,-9.29746e-02,3.31267e-02,-7.29223e-02,-1.14309e-01,2.17250e-01,-2.99526e-01,-7.28300e-02,-1.01365e-01,-1.09587e-01,1.18734e-01,1.28264e-01,1.77296e-01,-2.77079e-02,9.93429e-02,9.24720e-02,-7.46630e-02,2.63009e-02,-3.01513e-01,3.78900e-03,1.22312e-01,2.55067e-01,-1.24103e-01,9.88596e-02,6.32850e-02,3.91858e-01,1.97095e-01,1.04534e-01,-1.61260e-01,-5.84609e-02,5.22603e-02,2.62783e-01,6.07819e-02,6.07111e-02,-3.12013e-03,3.12309e-02,9.31615e-02,-4.51720e-06,8.19141e-02,5.63573e-02,-7.26584e-02,-2.98762e-02,-6.63717e-02,-3.89526e-02,1.06859e-01,-1.37218e-02,6.16217e-01,-5.95764e-02,1.18970e-02,5.00506e-01,1.31352e-02,-1.40319e-01,-1.08616e-02,-3.31934e-02,2.99151e-02,-2.87371e-02,-9.26168e-02,-1.72867e-01,8.48312e-01,-1.47932e-03,-8.60018e-02,1.24400e-01,-1.04482e-01,-2.70092e-01,3.02249e-02,3.73149e-01,5.96290e-02,8.06159e-02,-1.33954e-02,1.48107e-01,9.85044e-02,1.85876e-02,-1.76242e-01,1.85112e-02,4.31982e-01,2.13302e-01,4.39003e-01,
-1.06855e-01,-1.10431e-01,-5.37629e-02,-4.70022e-02,-9.43196e-02,1.51920e-01,4.40924e-02,-5.70334e-02,1.03382e-01,-1.14022e-03,-1.20721e-01,-7.13260e-02,1.04551e-01,3.71387e-03,-4.20054e-02,-1.42232e-01,-4.84393e-03,-6.51268e-02,-5.36367e-02,4.60935e-02,1.00388e-01,-1.07766e-03,-8.54968e-02,8.14726e-03,5.85818e-02,-4.93300e-02,-5.49664e-02,4.86092e-02,8.08178e-02,7.02003e-02,7.12342e-02,-2.66245e-02,8.44786e-02,1.32450e-02,-1.53894e-01,5.65735e-02,5.00508e-02,4.56819e-02,4.25042e-02,-1.06982e-01,5.98619e-02,-1.54178e-02,-3.76703e-02,-4.08675e-02,-6.11624e-02,6.81257e-02,-1.06714e-01,-4.36856e-02,-7.39493e-03,1.66466e-01,5.10619e-02,9.08007e-02,-1.01965e-02,-3.97517e-02,-4.61556e-02,-9.80368e-03,4.14820e-02,7.71789e-02,-6.09264e-02,-1.44293e-01,-1.41828e-01,4.72035e-02,-8.44056e-02,2.72870e-02,-7.84131e-02,-8.65033e-02,-8.64220e-02,-1.03420e-01,1.19111e-01,-8.68127e-03,8.52106e-02,6.35676e-02,1.06931e-01,-9.81770e-02,9.90506e-02,-1.12464e-01,-4.27681e-03,-8.67181e-02,-9.42419e-02,3.54876e-02,-5.59563e-02,-6.28097e-02,-2.95369e-02,-2.17113e-02,-1.11443e-02,1.28853e-01,-1.56579e-01,-4.79663e-02,9.89486e-02,-1.21321e-01,4.30273e-03,7.67650e-02,-2.16774e-02,-2.56610e-02,-8.63565e-02,-7.00241e-02,-3.15022e-02,-6.60817e-02,3.50758e-04,7.29008e-02,-2.82583e-03,-3.78759e-02,-1.99133e-02,-1.49035e-01,9.32359e-02,-3.92398e-02,5.88226e-02,-4.99808e-02,-5.06450e-03,-8.24339e-02,1.07633e-01,-1.82526e-01,-1.30248e-01,-4.85799e-02,8.45835e-02,-1.27461e-01,2.43724e-02,6.56167e-02,2.38567e-02,3.46141e-02,-2.26376e-02,-1.41564e-01,-5.47930e-02,7.59063e-02,-1.11374e-01,-1.18234e-01,1.21174e-01,1.01279e-01,-7.80837e-02,4.07208e-02,-1.28764e-01,9.46652e-02,8.99061e-02,-1.25730e-01,-6.97564e-02,4.11919e-03,-5.20239e-02,-3.22453e-02,8.80127e-02,-5.84222e-02,-6.76501e-02,-3.34594e-02,-9.95836e-02,1.54568e-02,-1.35717e-01,-3.75295e-02,-7.01507e-02,-1.09591e-01,9.86419e-02,4.83991e-02,3.26016e-02,1.47562e-02,-3.86963e-02,-8.60802e-02,-2.58476e-02,9.50307e-02,2.31138e-02,4.00878e-02,-1.08392e-01,7.40996e-02,7.32696e-02,8.88691e-02,5.91953e-02,-1.02219e-01,-1.50961e-01,-9.23478e-02,5.67769e-02,-1.10503e-01,-4.31679e-02,1.02156e-01,-1.51766e-01,1.02210e-02,-4.35636e-02,7.44061e-02,4.07484e-03,9.35146e-02,4.91687e-02,-5.58800e-02,5.80141e-02,6.92839e-02,-3.57006e-02,-1.01485e-01,2.09600e-04,-1.08638e-01,-9.96153e-02,2.33551e-02,-6.14088e-03,-1.08150e-01,-1.09577e-02,7.19116e-02,6.64604e-02,-4.83163e-02,-6.84395e-02,-6.86160e-02,-7.20227e-02,-6.05915e-02,-1.21132e-01,-1.13505e-02,-1.75677e-02,-1.19798e-01,
-7.15006e-02,-4.00691e-02,2.25693e-01,-5.19707e-02,-3.23683e-02,-7.22516e-02,5.50428e-04,-1.05406e-01,-3.71754e-02,1.01087e-01,-2.07263e-01,3.40765e-02,-6.90546e-02,-1.27366e-01,7.00161e-02,1.53334e-01,-1.77433e-01,-8.36674e-02,1.63257e-02,-1.99400e-02,6.56763e-02,-1.94044e-02,9.65912e-02,1.00761e-01,9.56121e-02,-2.96937e-02,-5.55574e-02,3.11664e-01,-1.37919e-02,1.33305e-01,-6.42070e-02,-6.35483e-02,1.44385e-01,1.04322e-01,3.34873e-02,1.00439e-01,3.61290e-02,-1.14800e-01,-6.86349e-02,9.59195e-02,-1.02703e-01,-6.99676e-02,-2.07103e-01,-3.02564e-01,-9.31424e-02,1.62312e-01,-3.85788e-02,-5.23905e-02,-1.90719e-01,1.83364e-01,-4.97983e-02,1.72928e-02,-8.41355e-03,1.84355e-02,-4.08688e-02,-1.63644e-02,3.72370e-01,-2.18666e-01,3.86712e-02,5.32065e-02,-2.34215e-01,-7.72869e-02,8.91061e-02,1.36906e-01,6.09014e-02,-1.16496e-01,3.68938e-02,-5.02333e-02,-1.19292e-01,4.57751e-03,5.57469e-02,9.03885e-02,8.95208e-02,3.50223e-02,1.82765e-02,2.92787e-02,7.85961e-02,8.15507e-02,1.32459e-01,-5.40514e-02,-1.12801e-01,2.41062e-01,1.70680e-02,1.03946e-01,-1.15848e-01,-4.20723e-02,-8.61388e-02,3.76912e-02,1.15299e-01,-3.21750e-02,2.75511e-02,-2.03746e-03,1.60435e-01,4.67531e-02,-3.40433e-01,-5.69379e-02,1.59363e-01,1.85210e-01,-3.42507e-01,-6.90649e-02,8.95421e-02,5.57137e-02,-2.17758e-01,1.99135e-01,1.55333e-01,-8.11331e-02,1.16236e-01,-2.49367e-02,-2.33278e-03,-9.86531e-02,1.97717e-01,6.33418e-02,-2.94281e-01,-6.74300e-03,3.38929e-02,9.88101e-02,-1.10496e-01,8.30022e-02,5.49679e-02,2.91784e-02,3.27646e-01,4.91763e-03,1.08056e-01,1.19579e-02,1.31375e-02,-1.93383e-01,9.32099e-02,-4.06849e-02,7.75556e-02,-2.65058e-01,2.18900e-01,-8.58092e-02,1.00111e-02,1.68384e-01,-5.04590e-02,1.22698e-01,-1.82994e-01,7.89587e-02,1.18761e-01,-1.95715e-02,-4.14710e-02,-4.41296e-02,4.34171e-04,-1.18909e-01,1.47983e-01,9.60706e-02,2.60769e-02,-1.32141e-01,1.16112e-01,9.75720e-02,5.12402e-02,-9.15810e-02,-1.10334e-01,-1.56521e-01,2.21583e-01,-3.97661e-02,-1.89304e-01,1.31416e-01,-2.65687e-02,-2.10239e-01,-9.50741e-02,5.08567e-02,-9.48951e-02,4.39896e-02,6.02776e-03,-3.15041e-02,-2.05251e-01,6.37614e-02,5.64208e-02,2.58278e-02,-2.66245e-01,1.10016e-01,9.15569e-02,7.11915e-02,-1.30689e-01,1.91703e-01,-5.19703e-02,-7.89990e-03,1.16924e-01,8.74677e-02,-2.52671e-02,1.46683e-01,1.48180e-02,7.45706e-02,-1.21516e-02,-1.84206e-01,-8.47555e-02,-5.75313e-02,6.51851e-02,7.00211e-02,-1.19219e-01,-6.68299e-02,2.17182e-01,-1.09752e-01,-3.88445e-02,-5.53208e-02,9.33816e-02,3.56843e-01,6.76224e-02,7.43985e-02,
-7.42379e-02,-3.50916e-02,-9.93655e-02,-1.92992e-01,-9.50532e-02,-4.52730e-02,-7.38626e-03,-4.98966e-02,1.88714e-02,1.62736e-01,-1.89853e-01,-3.79020e-02,7.64251e-02,6.66871e-02,-9.56637e-02,2.14614e-02,2.50070e-02,6.18994e-02,6.24932e-03,6.18109e-02,-5.13040e-02,-1.01751e-01,2.42639e-02,1.09618e-01,1.12578e-01,-2.35389e-01,6.97603e-02,3.52623e-01,-1.71349e-01,7.60623e-02,8.30793e-03,-3.91474e-02,-1.20725e-01,-1.22202e-01,-5.00961e-01,4.63650e-02,1.05374e-01,1.98480e-01,4.54819e-02,2.26362e-01,-8.55927e-02,1.37643e-01,-4.87548e-03,1.90134e-01,1.29953e-01,1.80571e-01,2.52167e-02,-1.77984e-01,-6.16167e-02,-3.84122e-02,1.06751e-01,-1.11732e-01,-4.98198e-02,-3.28708e-02,-3.23282e-02,-4.85143e-02,9.79851e-02,6.76236e-03,1.19510e-01,-1.75439e-01,1.63258e-02,6.44834e-02,-1.21061e-01,2.52330e-01,3.86482e-02,2.80722e-02,3.25270e-02,1.11853e-01,1.11391e-01,3.08652e-02,-4.47515e-02,9.53225e-02,-4.22504e-02,9.94563e-02,3.09704e-02,5.06778e-02,5.39972e-02,1.44219e-01,7.56237e-02,1.42229e-01,1.66231e-02,-1.18909e-01,-1.00261e-01,7.77108e-02,4.05784e-02,1.15176e-01,9.50380e-03,4.54121e-02,1.06088e-01,1.08484e-01,7.47528e-02,-2.91283e-02,-9.54216e-02,-1.18806e-01,-1.58542e-01,-1.56990e-02,1.12893e-01,-2.81124e-02,1.53277e-01,-7.26166e-02,-1.39970e-01,9.14367e-03,-1.96033e-01,1.10709e-02,7.03786e-02,-2.59524e-02,6.70162e-02,1.08294e-01,-2.49266e-01,1.23072e-01,1.05324e-01,-2.85228e-01,-1.90228e-01,2.74492e-01,8.79890e-02,-1.78295e-01,-5.28753e-02,-6.22832e-02,-1.10868e-01,-1.36069e-01,1.06349e-01,-6.49393e-02,1.79946e-01,1.02291e-01,4.71042e-02,-2.34962e-02,-1.05670e-01,6.80258e-02,-6.26929e-02,-5.36024e-02,-7.16558e-02,6.25524e-02,2.34677e-01,-1.80651e-02,-8.28851e-02,1.69396e-01,-8.50187e-02,-4.99027e-02,-8.61790e-02,-7.01088e-02,2.31959e-01,-4.49768e-02,1.11907e-01,-4.82735e-03,3.89636e-01,3.08992e-02,1.20104e-01,-4.88375e-02,5.67381e-02,1.46919e-01,2.30202e-02,1.87054e-01,3.10626e-02,1.69852e-01,6.31551e-02,4.44289e-02,2.50362e-02,2.44517e-01,1.33492e-01,1.32197e-01,-7.36368e-02,-6.89579e-03,-4.36897e-02,1.02169e-01,1.48132e-02,-1.51916e-01,-5.08085e-02,-5.41011e-03,1.74185e-02,3.50615e-01,-1.06381e-01,1.64023e-02,1.59457e-01,4.71774e-02,-2.18598e-02,-4.07372e-02,1.49210e-01,-5.02912e-02,-7.91821e-02,-6.53211e-02,-9.52961e-02,-6.71980e-02,3.18247e-02,6.14320e-02,1.47860e-01,-4.89902e-03,-6.88941e-03,1.46577e-01,1.54678e-01,2.22495e-01,7.83484e-02,-1.50918e-02,2.58065e-01,-4.01786e-02,3.82705e-02,1.87907e-02,2.12871e-01,-3.15160e-01,9.48942e-02,-1.20553e-02,
3.53896e-02,-9.01815e-02,8.89715e-02,1.97365e-01,1.70212e-02,3.71832e-02,4.44651e-02,1.13055e-01,-1.15418e-01,-3.06164e-02,-8.70313e-02,6.93362e-02,-2.18475e-02,1.12391e-01,-5.56246e-02,2.63195e-01,8.30849e-02,6.92453e-02,6.18509e-02,-3.11492e-01,-2.39177e-02,9.05800e-02,1.22497e-03,-2.43599e-02,7.86607e-02,-1.03102e-01,9.62038e-03,9.68857e-02,3.03486e-02,-1.52059e-01,9.99640e-02,9.33601e-02,2.54875e-02,1.59070e-02,1.54852e-02,-9.19307e-02,1.00507e-01,4.67932e-02,4.19633e-02,1.29802e-01,1.03252e-01,-9.68436e-02,-2.49345e-01,5.46789e-03,-1.45522e-02,-1.68245e-01,5.57812e-02,3.12624e-02,1.02227e-01,-7.70275e-02,4.57607e-02,-1.13182e-02,-7.77142e-02,6.92250e-02,-7.67279e-02,-7.03714e-03,-6.86013e-02,3.57699e-02,5.38015e-02,1.79455e-01,-4.66203e-01,-9.03506e-02,-1.60906e-02,1.58367e-01,-1.11914e-01,-4.98196e-02,-4.11396e-02,9.01764e-02,-8.92502e-02,5.88787e-02,-2.83280e-02,1.08871e-02,-1.95074e-02,-5.89719e-02,-4.16521e-02,2.87079e-02,1.32619e-02,-4.59463e-02,5.37540e-02,1.37060e-01,6.35501e-02,-6.14826e-02,5.71326e-03,-7.33702e-02,-2.41192e-01,2.00975e-01,2.03927e-02,-1.46904e-01,-1.02411e-01,-2.37858e-02,-3.59896e-02,7.52267e-02,1.59528e-01,7.73585e-02,-1.72116e-02,-6.18507e-02,1.29233e-01,3.39129e-02,8.80853e-02,-3.16223e-02,-2.83471e-01,1.57867e-01,-9.17596e-02,2.55137e-01,7.04288e-02,5.91518e-02,-1.16260e-01,1.94951e-01,8.66043e-02,-5.39324e-02,-4.89694e-02,2.08258e-01,1.28205e-02,-1.54199e-02,-7.57008e-03,-7.04893e-02,-4.77215e-01,5.47760e-02,-1.01123e-01,-4.70772e-03,5.39886e-01,-5.26595e-02,-5.34090e-02,7.73706e-05,4.73738e-02,6.73840e-02,1.50834e-02,-3.66049e-02,4.74473e-03,1.19528e-02,-4.11586e-02,5.51906e-02,3.66194e-02,-6.67216e-02,-1.13662e-01,-2.92873e-01,-5.34601e-02,1.11195e-01,-7.40505e-02,-4.36511e-03,2.63339e-02,-2.15949e-01,-3.09759e-01,-1.80990e-01,-3.02046e-02,-3.59872e-01,-6.27063e-02,8.60145e-02,-5.32199e-02,-4.27550e-02,-4.74100e-02,-1.57651e-01,-8.96282e-02,-1.80533e-01,7.22843e-02,-7.34606e-03,-1.84770e-01,-6.37486e-02,7.34838e-02,-5.67716e-02,-1.87122e-02,-3.98198e-02,-1.71608e-01,9.49007e-02,9.31011e-02,2.88419e-02,-1.68330e-01,-5.39805e-02,-3.82739e-03,9.80015e-02,-1.50921e-01,1.03764e-01,-2.64598e-02,-4.76039e-02,-1.28847e-01,1.59376e-01,-2.28575e-02,4.56931e-02,-1.25651e-01,8.53295e-02,-2.25213e-01,9.47752e-02,1.56526e-01,5.53789e-02,-8.02638e-02,-8.21274e-02,-3.20688e-01,2.19576e-02,7.32383e-02,1.56583e-01,4.47211e-02,-2.80955e-02,-2.50800e-01,-1.98261e-02,-4.67948e-02,-2.26071e-01,3.49154e-02,1.51318e-01,-1.15679e-01,2.16604e-01,
1.12487e-01,-1.55567e-03,-7.97489e-02,-1.18276e-01,-1.09132e-01,-2.52700e-01,-1.05482e-01,-8.65858e-02,9.24737e-02,1.09061e-01,-1.67327e-01,-5.44435e-02,-9.56825e-02,4.88373e-02,7.00722e-02,-1.22424e-01,-7.75227e-04,-1.98531e-02,-4.24829e-02,-6.31638e-02,9.27542e-02,-6.00049e-02,4.28638e-02,-5.67225e-02,-6.04146e-02,-3.56481e-02,8.54716e-02,-3.08252e-02,-9.30520e-02,5.87847e-02,-1.23029e-01,1.02972e-01,4.35317e-03,1.10352e-01,-1.11240e-01,9.73535e-02,-2.43919e-02,-8.32441e-02,7.40230e-02,-7.33436e-02,-2.49274e-02,-1.22014e-01,8.73305e-03,5.06434e-02,1.45709e-01,-5.23710e-03,-8.67001e-02,-4.97980e-02,5.75333e-02,1.07024e-01,-1.01463e-01,4.12780e-02,9.80679e-02,5.98568e-02,8.16094e-02,4.98596e-02,9.32527e-02,1.51343e-02,-6.34953e-03,-1.51034e-01,-2.92669e-02,-9.17698e-03,5.77683e-02,-1.82127e-01,7.99590e-03,4.17779e-02,-1.19410e-02,1.20531e-01,-2.29064e-02,-6.54678e-02,-3.18534e-02,-1.79100e-01,3.13859e-02,6.81837e-02,1.05031e-01,-8.44770e-02,-1.00560e-02,-1.12138e-01,-2.57982e-02,6.86281e-02,-1.09097e-01,-4.00671e-02,-5.99483e-02,-1.16670e-01,-3.20501e-04,-1.83984e-01,-1.35376e-01,6.16859e-02,-3.61600e-02,4.30598e-02,4.64917e-02,4.69308e-02,3.13457e-02,1.08260e-01,-8.49654e-02,1.25276e-01,2.24750e-01,-6.41550e-03,-8.17253e-02,1.22514e-02,-3.80629e-02,-8.47394e-03,2.62249e-02,2.72573e-02,1.16596e-01,2.16078e-02,-1.45943e-02,-1.73799e-01,-1.46963e-01,-9.76115e-02,2.31431e-01,-5.64079e-02,-6.25190e-02,-4.75441e-03,-2.81404e-02,3.45553e-02,-1.10273e-01,-9.42786e-02,-1.40315e-02,3.96272e-02,1.78653e-02,5.65311e-02,-8.69303e-02,7.06790e-02,9.45086e-02,-9.51766e-02,-2.61365e-03,-3.72132e-02,-8.36276e-02,-1.69987e-01,-1.68168e-01,-5.22599e-03,5.21552e-02,5.57236e-02,1.09198e-01,4.07547e-03,-1.20067e-01,-8.29221e-02,-6.56302e-02,-1.20731e-01,-4.24644e-02,-6.74197e-02,-1.26345e-01,-9.05398e-03,4.02563e-02,-4.41720e-02,-2.04374e-02,7.31910e-02,8.95057e-03,6.94625e-02,-7.59718e-02,-2.89970e-03,1.04548e-01,2.05240e-02,-2.08995e-02,7.93214e-02,1.73637e-01,2.02683e-02,-1.22313e-01,3.39476e-02,7.23053e-02,-7.77137e-02,-8.08560e-02,2.47911e-02,5.50482e-02,4.80455e-02,8.85823e-02,7.81157e-02,2.63735e-02,-1.98240e-01,-1.44699e-01,4.78848e-02,-2.06130e-02,3.53272e-02,-1.48071e-02,8.40218e-02,6.79213e-02,-9.00172e-02,1.69384e-02,1.53655e-02,5.28739e-02,3.14493e-02,1.72827e-02,5.39804e-02,8.32822e-02,-1.18409e-01,-3.69965e-02,4.39272e-02,-4.36491e-03,-9.01440e-03,-2.58608e-02,5.13689e-02,-4.07003e-02,6.78666e-02,-1.20731e-01,-1.67239e-01,-6.78996e-02,4.04689e-03,-4.98205e-02,5.31192e-02,
7.06679e-02,-3.35677e-02,-5.26012e-02,-1.32092e-02,-3.06218e-02,3.45036e-01,4.14237e-02,9.40230e-02,-3.79957e-02,1.93632e-01,-2.02799e-01,1.04475e-01,-2.23530e-02,2.64831e-01,-9.68462e-03,-2.15703e-02,1.90396e-02,4.10928e-02,-8.05691e-03,-9.01757e-02,-4.31057e-02,5.27748e-02,1.09311e-01,-1.19988e-01,-1.49726e-02,-8.79565e-02,-9.81516e-02,5.71580e-02,-2.23479e-01,1.33542e-01,-2.42721e-02,1.00824e-01,-5.41382e-02,-7.06749e-02,-8.57232e-02,4.25166e-02,7.18927e-02,2.19927e-02,-1.79942e-02,3.50410e-02,-1.07623e-01,-9.92434e-02,-4.21815e-02,3.27664e-02,3.96168e-01,-3.96399e-02,-7.73861e-02,-2.84777e-01,-7.60293e-02,-6.97740e-02,6.58320e-02,2.85419e-02,2.34555e-01,-2.44006e-02,-2.00058e-01,-5.59660e-02,1.04252e-01,-1.73821e-01,3.65722e-02,-2.14492e-01,4.66326e-02,1.15378e-01,-5.95972e-02,2.06962e-02,5.95827e-02,-2.73778e-03,-2.78757e-02,-1.19178e-01,-7.83594e-03,-1.14010e-01,-9.06999e-02,1.32393e-02,2.56495e-01,8.43677e-02,-1.14622e-01,3.77845e-02,5.10513e-02,-2.70319e-02,-8.22770e-02,-1.06757e-01,8.01120e-02,-1.43783e-01,-1.14760e-01,9.95292e-02,8.01863e-03,-1.28243e-01,3.90249e-02,3.10017e-02,9.71054e-02,1.05431e-02,-1.09249e-01,-1.91904e-01,1.20227e-01,-1.06484e-01,-1.78527e-02,-1.67706e-01,4.24889e-01,1.59467e-01,-3.79608e-02,3.32645e-02,3.69877e-02,-2.57359e-01,-3.01146e-03,-1.76735e-01,4.56734e-01,-1.43444e-01,1.55140e-02,6.69622e-02,-1.37787e-01,-2.52515e-01,2.26499e-03,3.58631e-03,-5.72095e-02,-1.32615e-02,7.19919e-02,1.32754e-02,-3.49263e-02,1.02300e-01,6.88188e-04,-1.78182e-01,9.36865e-02,-1.10430e-01,9.94704e-02,1.41187e-01,1.09044e-01,-1.03746e-01,-3.61287e-02,-1.74408e-02,-2.08561e-02,-1.34237e-01,5.95108e-02,-1.02488e-01,-6.07803e-02,-1.49543e-01,-2.70504e-02,1.25515e-02,-8.94398e-02,8.72772e-02,5.54827e-02,1.05773e-01,3.19959e-02,-4.77684e-02,-1.06524e-01,-3.09743e-02,2.34747e-02,-3.53970e-02,-7.48675e-03,2.14866e-01,4.92656e-02,1.31904e-01,2.25078e-03,-1.57019e-01,5.94545e-03,-6.57003e-02,1.24981e-01,-4.25178e-02,6.55916e-02,-7.33015e-02,-1.37195e-01,8.36948e-02,-3.83500e-02,-2.97220e-02,8.64168e-02,-1.10702e-01,1.32073e-01,-4.52857e-02,-1.83441e-01,3.85355e-02,1.22230e-01,2.43312e-01,-6.63006e-02,-1.34923e-02,5.07695e-01,9.89733e-02,-4.16638e-02,-6.11154e-02,1.25979e-01,1.27040e-01,-4.24410e-02,-5.72677e-02,8.36098e-02,1.50883e-02,1.70638e-01,-3.19491e-02,7.72145e-02,-5.81136e-02,-1.19392e-01,4.71949e-02,-1.77273e-01,1.06810e-01,-3.77794e-02,1.15603e-01,-4.98998e-02,2.98069e-02,-7.91441e-02,-1.27470e-01,6.59029e-02,-2.13904e-01,8.08155e-03,3.76318e-02,
-1.05169e-01,3.76687e-02,-8.95510e-02,-3.74127e-02,3.08432e-02,4.73178e-01,4.03431e-02,-1.18305e-01,7.22481e-02,7.07826e-02,-5.15727e-02,1.19859e-01,-5.30652e-02,2.93867e-01,-6.66204e-02,1.13697e-01,4.42011e-02,1.03366e-01,7.76716e-02,-7.32804e-02,8.42248e-02,-2.31891e-02,-1.01664e-01,-9.31300e-02,-6.62632e-02,1.37481e-01,7.10866e-02,-1.23172e-01,-9.41217e-02,7.88590e-01,2.47585e-01,-8.78068e-02,-6.27974e-02,2.14365e-02,-4.00373e-03,-6.96623e-02,-1.14125e-01,-9.21015e-03,-3.70172e-02,-2.24681e-02,-9.21203e-02,8.73043e-02,2.44835e-01,5.25362e-02,5.51975e-01,3.57182e-03,-1.10023e-03,-6.03753e-02,2.77841e-01,1.13602e-01,1.04713e-01,-1.03905e-01,1.27198e-01,-9.28121e-02,1.52088e-01,9.82437e-02,6.54286e-02,3.80633e-04,1.18822e-01,-1.73933e-01,-6.05491e-02,6.58180e-02,-1.42537e-02,-9.96657e-02,-3.71793e-02,-1.06831e-01,7.77697e-02,-1.01894e-01,-1.84726e-02,9.88358e-02,-1.17213e-02,-1.99854e-01,5.24102e-01,9.26500e-02,-2.84054e-02,-1.03439e-01,-5.12891e-02,-5.05851e-02,-5.08600e-02,-7.78142e-02,1.17377e-01,6.66439e-02,1.41677e-01,-6.53365e-03,6.44519e-02,2.04957e-01,-2.45372e-02,-7.24996e-02,7.30634e-02,-3.29873e-02,6.72864e-02,-7.52934e-02,4.01482e-02,3.82979e-02,3.60377e-02,7.40029e-02,4.40035e-01,-6.01363e-02,-9.36638e-02,-7.32950e-02,-1.09938e-01,1.44975e-02,1.21757e-01,-1.25216e-02,8.06759e-01,-1.76792e-02,-8.97652e-03,3.18077e-02,-1.66300e-01,4.77171e-02,3.43420e-01,-2.55214e-01,1.71146e-02,4.27022e-01,1.12417e-02,5.25712e-02,-8.97140e-03,-5.70650e-02,6.97292e-02,-4.80834e-02,1.81923e-01,-1.75088e-01,3.79227e-02,2.15266e-01,1.03619e-01,1.36385e-01,-8.48401e-02,5.10383e-02,-6.18379e-02,-4.32404e-02,-1.97674e-01,-9.75599e-02,2.60118e-02,-8.93311e-02,-6.57507e-02,5.89308e-02,-7.21459e-02,-3.90819e-02,-9.00021e-02,4.82458e-02,-9.62863e-02,-2.02525e-01,1.00529e-01,-2.55835e-03,1.52789e-01,-6.85523e-02,-2.20589e-02,-3.52922e-02,1.78945e-01,1.38969e-01,-9.78136e-03,8.51151e-02,9.70562e-02,4.17323e-02,-4.97711e-02,1.47720e-01,3.86444e-01,2.13731e-01,5.04809e-02,-1.83218e-01,-2.31186e-02,8.20594e-02,7.86146e-02,1.52026e-01,1.05299e-01,2.46786e-02,-1.95088e-01,-1.54763e-01,-7.20862e-03,7.09277e-01,-2.35922e-02,1.15728e-01,3.83639e-01,8.70171e-02,-1.81778e-01,-3.88300e-02,2.15071e-01,1.23879e-01,3.83242e-02,-8.86042e-02,-1.44136e-01,1.90733e-01,-2.26765e-02,7.66047e-02,9.77677e-02,-4.82456e-02,-4.10568e-02,7.30053e-02,-1.46633e-01,7.76815e-02,-9.22005e-02,1.13389e-01,4.62978e-02,-7.66202e-02,1.03530e-01,-2.91958e-01,-1.02243e-01,2.01650e-01,-6.85310e-02,8.38026e-02,
6.90187e-02,-5.59566e-02,2.58275e-01,-2.26976e-02,7.17073e-02,1.11216e-01,2.69732e-02,8.19638e-03,1.03793e-01,-1.29182e-01,-3.56986e-01,-4.26198e-02,-1.47355e-01,1.77793e-02,8.17580e-02,-1.43730e-02,-1.35664e-01,3.92169e-02,-7.31457e-02,-7.13699e-02,-4.58315e-02,1.19486e-01,-9.00841e-02,-5.16045e-02,-4.17778e-02,1.88284e-01,-8.73575e-02,1.88943e-02,-2.19210e-02,1.95688e-01,-8.64067e-02,-6.68241e-02,6.63164e-02,3.67246e-03,-3.87183e-02,-1.02058e-01,6.08964e-02,-4.49996e-02,-5.76159e-02,-1.36048e-01,-1.21111e-01,-9.32681e-02,1.32360e-01,1.31389e-01,2.52579e-01,9.57590e-02,1.08117e-01,-3.80047e-02,-1.86494e-01,1.27137e-01,-4.12199e-02,7.52627e-02,-1.26438e-02,1.48584e-01,1.34866e-01,1.09322e-01,3.31524e-02,-3.21181e-01,-7.47815e-02,-4.66252e-02,-1.82471e-01,6.44177e-02,1.03024e-01,1.48692e-01,-2.59218e-02,-7.49043e-02,-6.72559e-03,8.55011e-02,-6.02535e-02,6.10315e-02,6.29476e-02,5.80386e-02,2.52867e-01,-2.20535e-02,-1.06851e-01,-1.25978e-01,7.33774e-02,1.23302e-01,1.56354e-04,-2.72866e-02,-3.69851e-02,6.50844e-02,-1.07426e-01,-6.06645e-02,1.40405e-01,5.44416e-02,-1.58614e-02,5.16979e-03,-3.09073e-02,1.11847e-01,1.19894e-01,-2.26803e-01,-6.45702e-02,8.83874e-02,-2.12258e-01,-1.60723e-01,3.35272e-01,-8.36810e-03,-9.08607e-02,4.30349e-02,2.57071e-01,-7.35406e-02,-1.07630e-01,-1.03649e-02,8.07583e-02,3.61525e-02,-5.93860e-02,3.26044e-02,-4.17404e-02,5.12784e-02,1.51592e-01,1.40645e-01,-1.67516e-01,1.69499e-01,9.73501e-02,-7.75812e-02,-1.45392e-01,1.63369e-02,-6.87108e-02,5.75826e-03,-2.50329e-01,9.64935e-02,-2.31393e-02,3.56544e-02,7.23410e-02,-1.14488e-01,-4.09227e-02,-4.43909e-02,1.42523e-01,-2.73887e-01,1.57953e-01,-5.68031e-02,-4.71334e-02,7.56846e-02,4.90296e-02,2.00060e-01,7.65862e-02,-1.34701e-02,-8.83397e-02,-3.32096e-02,4.46403e-02,2.62429e-02,-1.47629e-01,1.19952e-01,-3.42773e-02,9.13342e-02,1.16984e-01,-1.08058e-01,4.71311e-01,-5.99752e-03,-1.04394e-01,-4.95371e-02,-3.66434e-02,-1.01095e-01,1.49443e-01,-5.41280e-02,-7.23774e-02,2.65246e-01,9.07826e-02,-1.61486e-01,5.82050e-02,1.21796e-01,-8.16534e-02,-1.14168e-01,4.32853e-02,-2.22661e-01,-1.99317e-01,-7.10077e-02,4.38713e-02,3.75440e-01,-2.69331e-01,2.84624e-02,6.99125e-02,-7.92924e-02,-9.00261e-02,-1.94285e-01,2.50736e-01,-2.09090e-02,-6.18547e-02,-4.67379e-02,2.73728e-03,4.18294e-01,4.75670e-02,-9.38308e-02,1.07264e-01,-1.38190e-01,-7.46472e-02,1.90409e-01,2.71959e-01,-1.08388e-01,-1.07849e-01,1.18691e-01,1.62258e-01,5.05336e-02,-3.97833e-02,-1.60445e-02,6.11301e-03,5.37488e-01,3.89901e-02,-7.83126e-02,
-1.17416e-01,1.21250e-01,-5.04689e-02,-9.61739e-02,-4.28349e-02,2.96588e-02,-2.08107e-02,2.10222e-02,1.71850e-02,9.59881e-02,1.27195e-03,-6.08511e-02,-4.82562e-02,9.75545e-02,2.03524e-02,-7.96761e-02,-1.03931e-01,-4.77025e-02,8.83159e-02,-4.32214e-02,-1.08784e-01,1.06359e-02,1.28612e-02,8.57651e-02,6.36609e-02,-1.90106e-02,-4.36884e-03,1.64149e-02,3.52852e-02,-8.01903e-02,-1.02028e-01,1.90626e-02,-3.75043e-02,2.12654e-02,-3.37979e-02,7.19749e-02,-8.63769e-02,7.82012e-02,4.71977e-03,-6.63952e-02,-6.03979e-02,-9.36736e-03,-7.32219e-02,5.35299e-02,3.58280e-02,-1.62403e-02,-2.56799e-02,-4.62874e-02,-7.48422e-02,5.72824e-02,4.67910e-02,-8.34109e-02,-5.25293e-02,-2.09998e-02,-3.07272e-02,-6.15630e-03,-9.76660e-02,7.20269e-02,1.04782e-01,1.63990e-02,5.27312e-02,-7.55607e-03,-1.16063e-01,-7.98013e-02,6.82368e-02,9.42206e-02,-1.05588e-01,2.79618e-02,1.12214e-01,-9.06952e-02,2.66127e-04,-4.07008e-02,-3.03962e-02,1.41397e-02,5.57593e-02,1.13063e-01,-7.89467e-02,8.28766e-02,-5.15620e-02,-1.00421e-01,-8.53193e-02,6.30326e-02,-7.48634e-02,-7.23941e-02,-1.18833e-02,2.54570e-02,-6.33182e-02,-1.33588e-01,3.38229e-02,-9.32497e-02,4.21892e-02,-2.15169e-02,-8.60510e-02,-4.27501e-02,1.33189e-02,5.47114e-02,-1.17394e-01,-1.72295e-03,-7.57047e-02,8.80123e-02,7.72925e-02,-7.36481e-02,-1.00756e-01,-1.59202e-01,-3.21665e-02,-9.15541e-02,-1.00852e-01,-9.36998e-02,-1.37624e-01,1.04161e-02,-3.61978e-02,5.20630e-02,-4.23235e-02,-5.85384e-02,-6.21654e-02,-6.27803e-02,-2.79967e-03,-7.20171e-02,5.17649e-02,-9.47020e-02,7.36133e-02,3.58963e-02,-1.05721e-01,-1.17002e-01,-1.02852e-02,-7.19429e-02,4.33164e-02,1.90261e-02,-9.34093e-02,-9.95810e-02,-6.61191e-02,6.96267e-02,-1.41798e-01,5.30476e-02,7.04863e-03,-1.11675e-01,-7.30032e-02,-1.39329e-02,5.28462e-02,4.02196e-02,-3.89762e-02,-4.60084e-02,-3.57568e-03,-7.03259e-02,-8.68725e-02,-7.87696e-02,-1.04557e-01,9.99205e-02,-4.20204e-02,-2.01767e-02,-1.07742e-01,-1.42900e-01,-5.68142e-02,6.25034e-03,-4.69539e-02,9.19667e-02,-7.06731e-02,-8.19280e-02,6.21758e-04,-9.99836e-02,-9.02985e-02,-5.71118e-02,-9.16244e-02,-1.21047e-01,-1.28811e-01,2.29998e-02,-2.97266e-02,-5.67040e-02,-7.83117e-02,4.12783e-02,-1.30801e-01,-1.21165e-01,1.63198e-02,9.75398e-02,-1.70689e-01,-9.55795e-02,-9.79798e-02,-9.78706e-02,8.66481e-03,-5.57226e-02,6.22896e-03,-1.02635e-02,8.23548e-02,3.87264e-02,9.44827e-02,2.23571e-02,6.51253e-02,-2.16911e-02,-2.24510e-02,-9.11568e-02,-1.00461e-01,-2.85344e-02,3.09516e-02,-1.14271e-01,-2.83000e-02,-1.02419e-01,-1.39528e-01,9.42856e-02,-4.99862e-02,6.68524e-02,
-1.08013e-01,-1.11462e-01,5.39456e-03,-1.01871e-01,5.56936e-02,-1.40905e-01,-8.44682e-02,7.29121e-03,-3.88911e-02,-9.09081e-02,-1.21137e-01,3.40520e-02,-2.22688e-02,2.05582e-01,1.09150e-02,-6.90859e-02,-3.78210e-02,4.26410e-02,-1.85955e-02,-1.36418e-01,5.44024e-02,7.72780e-02,7.38786e-02,-1.15026e-02,6.07460e-02,3.62988e-02,8.21569e-02,-8.72074e-02,-2.18269e-01,3.29681e-01,2.42641e-03,2.04453e-02,-1.17962e-01,-4.83106e-02,-2.96632e-01,7.65623e-02,4.48702e-03,-4.19931e-02,5.29520e-02,1.15201e-01,3.05348e-02,2.48425e-02,-5.28511e-03,9.15572e-02,-2.61537e-03,-2.42080e-02,5.04666e-02,-1.64137e-01,8.76265e-02,2.37351e-02,9.84932e-02,-1.15726e-01,5.44877e-02,-7.26817e-02,1.07005e-01,3.76112e-02,-1.34337e-01,6.86606e-02,4.43690e-02,-2.47266e-01,6.17488e-02,6.10119e-02,-4.81380e-02,-1.61480e-02,-1.52832e-02,9.76784e-02,1.10902e-01,1.03244e-02,7.94388e-02,-1.18778e-01,-1.12225e-01,-6.52643e-02,1.65120e-02,1.29550e-01,4.33114e-02,5.55979e-02,-8.94531e-02,-3.15887e-02,1.71183e-02,-8.61351e-02,2.57573e-03,-1.25334e-01,-1.21656e-01,1.87568e-02,-5.53538e-02,-8.23200e-02,7.48918e-02,-6.98856e-02,4.56928e-02,8.16649e-02,-1.45259e-02,-1.13639e-01,9.77330e-02,1.16473e-01,-2.23647e-02,-1.55376e-01,1.41690e-01,9.28042e-02,1.22773e-01,-8.48201e-02,1.90862e-01,6.07873e-02,-1.13615e-01,-2.36323e-01,-9.66047e-03,-5.08633e-02,6.51677e-02,-9.31103e-02,-3.67350e-02,-1.70123e-01,5.10488e-02,-6.66647e-02,-5.22552e-03,8.51653e-02,1.18183e-01,8.09200e-02,-1.03852e-01,-8.63224e-02,6.63542e-02,-1.14240e-01,-2.35113e-02,-1.28358e-04,1.93250e-01,1.38022e-02,5.05366e-02,5.57791e-02,1.19529e-01,-1.19155e-01,-3.17288e-02,-1.12304e-01,4.98433e-02,-4.82133e-02,5.40848e-02,6.19593e-02,-8.01832e-02,-1.38119e-01,-2.07862e-01,-9.74946e-02,6.17462e-03,3.04443e-02,1.92379e-02,-7.78227e-02,3.82615e-02,-8.04849e-02,1.26059e-01,-2.56513e-02,1.34774e-01,-4.98095e-02,1.84749e-01,4.55176e-02,4.71383e-02,-5.38713e-03,-7.08765e-02,-8.18508e-04,1.49659e-01,-3.78718e-03,-2.76554e-02,1.03218e-01,7.25641e-02,-1.14977e-01,7.06519e-02,1.44543e-02,-9.84542e-02,1.24685e-01,-1.03975e-01,-1.73785e-02,2.63219e-01,-7.84867e-02,1.16563e-01,2.35134e-01,7.24799e-02,2.70816e-02,1.34102e-01,5.45504e-02,-1.48413e-02,-2.80595e-02,9.29508e-02,-1.43647e-01,-7.57029e-02,-4.06681e-02,-1.16637e-01,-3.64607e-02,8.99112e-02,1.15756e-01,-4.64741e-02,-3.28578e-02,-9.49344e-02,-7.65918e-02,-9.36489e-02,6.03114e-03,4.75196e-03,1.14706e-01,5.71323e-02,5.26733e-02,-2.50091e-03,-2.19819e-01,1.62686e-03,3.94818e-01,4.79851e-02,2.53840e-01,
1.07118e-01,1.29473e-01,-5.95873e-02,-3.91933e-02,2.18441e-01,1.27291e-02,-8.36347e-02,1.18469e-01,1.69308e-02,1.64349e-01,-2.79711e-02,8.90837e-02,-9.37386e-02,-8.14416e-02,1.35942e-03,-8.74117e-02,1.83884e-01,4.02998e-02,-6.37409e-02,1.34065e-01,-1.57662e-02,1.99224e-02,-7.39524e-02,-1.16122e-02,-7.46849e-02,8.90951e-02,-6.60513e-02,1.46596e-01,-1.77680e-01,1.10260e-01,1.29055e-01,2.81169e-02,-2.96534e-01,8.74278e-02,4.19761e-04,1.47648e-02,7.68216e-02,5.95473e-02,1.19937e-02,5.17994e-01,-5.99691e-02,4.62217e-02,2.00682e-01,6.65104e-02,7.40062e-02,-1.88237e-01,3.01228e-02,-8.77990e-02,4.19812e-02,-5.53466e-02,9.14409e-02,9.14119e-02,6.28867e-02,4.52095e-01,1.66617e-01,-2.54413e-02,-1.65041e-01,-3.32319e-02,8.47939e-02,-1.54656e-01,1.75974e-01,6.08144e-02,-9.44685e-02,2.62681e-02,9.64185e-02,4.98299e-02,9.59210e-02,1.00546e-01,-4.37359e-02,4.00957e-02,-3.32518e-02,2.30393e-02,1.15926e-01,1.62023e-01,1.01735e-01,1.44216e-01,7.22541e-02,-1.89358e-01,1.17772e-01,-1.30113e-01,6.08025e-02,-4.19555e-02,-1.83978e-02,-6.74675e-02,-2.64185e-02,1.66740e-01,7.56747e-02,1.01182e-02,-6.18696e-02,-4.70421e-03,1.95926e-02,-1.61758e-02,-3.33792e-01,-1.15338e-01,2.66678e-02,5.72893e-02,-2.87856e-02,3.41983e-02,2.80286e-02,-8.06851e-03,-1.31171e-01,-1.50640e-01,9.06708e-02,6.96439e-02,4.18875e-02,4.46064e-02,6.23722e-02,9.51390e-02,-7.73092e-03,3.79601e-01,-7.86923e-02,-2.01981e-01,1.29748e-01,3.13263e-01,8.98343e-02,-6.06036e-02,1.58122e-01,-1.20022e-01,1.00705e-01,-2.51059e-02,2.48351e-01,-6.00320e-02,-3.75898e-02,5.84941e-02,6.58067e-03,-7.73022e-02,8.64573e-02,7.66216e-02,-1.64039e-02,-4.87467e-02,2.11396e-02,-2.75939e-02,1.07766e-01,-1.02915e-01,-1.02253e-01,3.32029e-03,2.08478e-01,-7.22464e-02,1.23889e-01,1.11892e-01,8.31340e-02,-3.14063e-01,1.20827e-01,1.08206e-01,8.75978e-02,-1.34587e-01,1.61790e-01,3.95763e-02,-2.57500e-01,2.09539e-02,9.02613e-02,1.71530e-01,-5.74050e-02,-1.13656e-01,1.40403e-01,6.44755e-02,8.80909e-02,-9.92884e-02,-4.18474e-02,-7.22011e-03,-3.38446e-03,-3.71722e-02,1.57755e-01,-6.92361e-03,-1.62702e-02,-1.51229e-01,1.13774e-01,7.06240e-02,6.90683e-02,1.95654e-01,-2.13545e-03,-5.71460e-02,1.89377e-01,8.61979e-02,-2.13110e-01,-2.63310e-01,-6.17078e-02,1.21126e-01,5.19063e-02,3.74340e-02,-2.15114e-01,-6.36806e-03,3.43931e-02,-9.57974e-02,2.82860e-01,-8.33137e-02,-2.23822e-01,1.24925e-01,2.11026e-02,1.17422e-01,-1.00807e-01,-2.68789e-02,-3.50299e-02,1.18982e-02,4.21049e-02,-2.69307e-01,-7.04362e-02,-1.01054e-01,-6.44247e-02,-2.20379e-01,
3.16828e-02,8.48980e-02,-1.14665e-01,1.90437e-01,-6.25027e-02,3.76317e-01,-1.08990e-01,3.29720e-02,4.37912e-02,1.18386e-01,-1.17817e-01,-6.78431e-02,-6.47485e-02,-6.99819e-02,4.56691e-04,1.07868e-01,1.54506e-01,-9.73441e-02,8.86112e-04,-2.07051e-01,-2.94725e-02,-8.95910e-02,-1.15933e-01,4.29759e-03,1.20495e-02,4.96679e-02,4.15203e-02,-5.99985e-02,-2.35111e-01,4.21791e-01,2.93422e-01,-1.02744e-01,-1.22453e-01,-4.30964e-02,-3.06245e-01,-1.15092e-01,-4.77945e-02,-4.32219e-02,2.43123e-02,-8.87165e-02,2.72707e-03,-8.57306e-02,9.67599e-02,1.39719e-01,7.30566e-01,3.87114e-02,-1.09516e-01,5.44544e-02,-1.95681e-01,-2.47965e-02,-3.96844e-02,4.61329e-02,-1.59762e-01,7.76477e-03,3.28214e-02,8.77758e-03,3.16135e-01,-7.69404e-02,-2.57161e-02,-1.13839e-01,7.28399e-02,-9.93197e-02,-8.54640e-02,5.42784e-02,-1.04487e-02,-8.48439e-02,-2.07433e-02,3.51806e-02,-9.15714e-02,2.63488e-02,-7.18906e-03,-1.28979e-01,1.49612e-01,9.85478e-02,-2.02511e-02,4.22392e-02,-6.74348e-02,4.12628e-02,1.05281e-01,-1.20281e-01,-9.30710e-02,9.72038e-02,4.23522e-02,-4.27595e-02,-7.81214e-02,-1.19216e-01,4.36369e-02,1.25360e-03,-9.17931e-02,8.50123e-02,-1.24217e-02,-9.66887e-02,-9.26181e-02,-7.66274e-02,-9.85906e-02,-5.32788e-02,7.30172e-01,9.34530e-03,-8.31115e-02,-8.64753e-02,2.54896e-02,1.31657e-01,-1.96965e-01,-6.91700e-02,6.84131e-01,9.99609e-02,-7.88487e-03,4.13566e-02,-2.05746e-01,-1.36901e-01,2.64625e-01,-2.71711e-02,-3.71307e-02,3.10284e-01,-1.06342e-01,-7.41299e-02,4.79723e-02,9.99534e-02,-6.01620e-02,1.91101e-01,-6.40214e-02,-1.63061e-01,-8.22448e-02,-1.70002e-01,-2.78670e-02,-1.64224e-02,-8.44166e-02,-3.42016e-02,-1.06770e-01,-3.00032e-01,-1.28404e-01,-9.57019e-02,-4.22884e-02,-3.38259e-02,-5.77061e-02,2.30113e-02,-1.51699e-01,4.09625e-02,9.43095e-02,2.66947e-02,8.29860e-02,-6.67153e-02,-2.02720e-02,-1.22207e-01,1.18402e-01,1.13000e-01,6.15067e-02,3.42041e-03,9.40282e-02,4.14218e-02,-1.12458e-01,-2.81057e-02,-5.74454e-02,-1.10231e-01,8.70388e-02,7.94536e-02,1.39359e-01,2.54946e-02,6.48399e-02,-5.89100e-02,9.45439e-02,7.77065e-02,-7.35342e-02,-6.14389e-03,7.92935e-04,4.83779e-02,-1.14193e-01,1.48915e-01,-6.42057e-03,7.96701e-01,-1.30603e-01,-3.22642e-02,4.93862e-01,-3.17881e-02,-1.69444e-01,-2.26623e-01,3.03592e-02,-6.44686e-02,1.50273e-01,9.86692e-02,-4.16154e-02,2.06298e-01,-7.93371e-02,-3.33662e-02,1.06480e-03,-1.31790e-01,2.09714e-02,-2.76244e-03,2.98915e-01,-8.50189e-02,6.40985e-02,6.23026e-02,3.31315e-02,1.01013e-01,-5.93435e-02,-2.42781e-01,-1.27896e-01,2.22734e-01,8.53414e-03,1.42700e-01,
8.20105e-02,-5.53803e-02,-4.63832e-01,2.23052e-01,-2.53939e-01,-1.84465e-01,-7.95765e-03,-8.42513e-03,-7.73860e-02,-1.24700e-01,-1.55762e-01,-9.29783e-02,4.68654e-01,1.02123e-01,-5.05623e-02,-3.11824e-01,3.58953e-01,-1.98657e-02,-1.13105e-01,-8.15560e-01,-7.41357e-02,-1.84096e-02,-1.00182e-01,-7.27834e-02,8.82444e-02,-2.95753e-01,-8.92834e-02,-1.20472e-01,5.25257e-02,-9.97080e-02,-1.08672e-01,-3.85130e-03,-2.74974e-02,-8.38284e-02,1.05392e-01,6.77995e-02,-8.08029e-02,2.00521e-04,4.03997e-02,-1.00838e-01,-3.14808e-02,-2.39392e-01,2.08553e-02,-4.68382e-01,-1.39144e-02,1.88561e-01,-2.87674e-02,-1.38513e-01,-4.36049e-01,-4.43591e-02,-4.72472e-02,-1.00724e-01,-2.14559e-01,-1.24597e-01,2.20755e-01,8.53794e-02,-7.30233e-02,-2.72590e-01,7.13174e-02,-2.09233e-03,-1.68189e-01,8.50504e-02,2.35718e-03,-2.25689e-01,-6.79817e-02,3.51739e-02,2.98133e-02,3.26709e-02,-2.12903e-02,-4.72356e-02,-1.48449e-01,-1.47204e-01,-2.31167e-02,1.72807e-01,4.67998e-02,1.10121e-01,1.03101e-01,1.98858e-02,2.46178e-02,2.55148e-01,-5.89663e-02,-1.91375e-01,1.56987e-03,-7.03933e-01,-1.26876e-01,-3.16766e-01,-2.86747e-01,-1.06016e-02,7.35176e-02,-1.04841e-01,5.93039e-02,-7.41407e-01,3.83294e-01,3.98376e-02,-5.72557e-02,-5.42155e-02,2.02643e-02,-5.05103e-01,-2.89358e-01,7.66060e-02,1.89020e-01,-1.91849e-01,-1.17048e+00,-2.66096e-01,8.74588e-03,4.79094e-03,-9.93115e-02,-3.17606e-01,6.46588e-02,-1.34366e-01,1.61303e-01,-1.55707e-01,-8.73569e-03,-1.14173e-01,-4.45841e-02,-5.80387e-01,1.45505e-02,2.47313e-02,8.92374e-02,5.03237e-03,3.14877e-02,-1.84428e-03,4.88238e-02,-2.30156e-02,-9.83471e-02,-2.13027e-01,1.03295e-01,-7.11340e-02,5.88055e-03,-5.63894e-02,-1.85207e-01,1.08854e-01,-2.08349e-01,-2.26550e-01,6.28782e-02,1.90860e-01,-4.10860e-02,-1.11528e-01,2.60704e-02,6.64539e-02,2.31621e-02,1.35526e-01,-7.18197e-01,1.19940e-01,-1.43582e-01,1.13709e-01,-3.73785e-01,-6.00004e-02,1.87035e-01,-2.86478e-01,-5.85878e-02,5.77095e-02,-2.76659e-02,-5.36372e-01,8.24556e-02,-1.85254e-01,-1.30262e-01,-2.77096e-01,3.65381e-02,1.70023e-02,-4.47890e-02,5.19557e-02,-1.33241e-01,4.42775e-02,-1.22155e-01,-4.51109e-02,-7.67802e-01,-2.35493e-02,8.95779e-02,-8.92118e-02,-2.20682e-01,-1.57964e-02,-2.09319e-02,1.03285e-01,-6.60628e-02,-3.08699e-01,-9.21075e-02,8.73131e-02,-1.06632e-01,6.23839e-02,2.31601e-01,-9.62873e-02,-5.40824e-02,1.13355e-01,8.16715e-02,-2.21853e-01,8.50925e-02,-6.24021e-04,-6.97097e-02,5.01355e-02,2.59861e-02,8.84679e-02,-4.96949e-01,-1.19448e-01,-6.87442e-02,-2.20249e-03,-3.12566e-01,-4.36428e-02,-7.46726e-02,-3.06197e-01,
-2.97063e-02,-1.00524e-01,-6.23896e-02,-6.95829e-02,-1.43878e-02,1.11080e-01,1.27362e-01,7.76177e-02,3.70998e-02,6.18138e-02,-6.17387e-02,-3.93409e-02,-3.53435e-03,-2.75716e-03,-7.58791e-02,3.99437e-03,-6.40963e-02,-5.41558e-02,7.52276e-02,-6.66264e-03,-7.14434e-02,1.35488e-02,2.05224e-02,-5.71167e-02,9.11530e-02,1.55547e-02,-4.62375e-02,8.08304e-02,-4.37412e-02,1.23705e-01,-9.52072e-02,5.40051e-02,-2.01918e-01,9.63338e-02,-1.13624e-01,9.01707e-02,5.06434e-02,-1.22656e-02,-2.02596e-02,4.10259e-02,-4.30283e-02,-1.60490e-01,-1.47678e-02,-1.99670e-02,1.90281e-01,-5.82881e-02,1.11872e-01,-1.12801e-01,-5.36668e-02,8.82188e-02,-9.65288e-03,-4.99993e-02,1.37001e-01,-1.19437e-02,-1.47748e-02,1.23768e-01,1.59259e-01,6.29914e-02,-7.51394e-03,-1.39085e-01,-1.89382e-02,9.48100e-02,-1.26171e-02,-1.46934e-02,1.14204e-01,1.14766e-01,1.14733e-01,3.36572e-02,7.92781e-02,2.88789e-02,-3.18747e-02,-1.47839e-01,1.66123e-03,-9.06248e-02,-2.37364e-02,6.89026e-02,2.71666e-01,-1.30523e-02,1.45831e-01,-1.93623e-01,-6.71326e-02,1.77830e-03,-3.21155e-02,1.04433e-01,5.66195e-02,5.11521e-02,-2.48802e-02,-1.41165e-01,2.78327e-02,-4.28103e-02,-9.33463e-02,3.10220e-02,-4.63687e-02,-8.86170e-02,-1.56305e-01,-1.09978e-01,6.78375e-02,7.58337e-02,-6.56965e-02,6.77971e-02,1.54746e-01,3.02782e-02,-1.62375e-01,4.66533e-02,2.67620e-01,1.30872e-02,5.76709e-02,-8.33962e-02,-1.65311e-01,-2.00239e-02,5.66143e-02,-7.37597e-02,-5.00132e-02,2.12092e-01,-4.00573e-02,-5.80422e-02,-1.30536e-01,9.40887e-02,-2.95778e-02,4.48888e-02,4.19720e-02,-1.64987e-01,-1.07940e-01,-7.88563e-02,3.77508e-02,-4.62702e-02,-4.25065e-02,7.76457e-02,-1.11065e-01,-1.90176e-01,4.57963e-02,-2.97128e-02,-1.09578e-01,1.77935e-01,8.47208e-02,4.43521e-04,-2.71600e-02,-2.80317e-02,7.19096e-02,-6.15746e-02,3.05799e-03,-2.68817e-02,-1.97289e-01,-1.65906e-01,6.42984e-02,-4.69801e-03,1.36202e-01,1.29561e-01,2.07476e-01,-2.36191e-04,-6.67355e-02,-4.51708e-02,-8.08618e-02,-1.36442e-02,6.33541e-02,1.69621e-01,-8.28227e-02,-1.11400e-02,7.30165e-02,-1.01738e-01,-2.30759e-02,-1.29575e-04,-6.47787e-02,2.67981e-02,5.18030e-02,-8.75294e-02,-9.84365e-02,3.93452e-02,-7.03613e-02,2.79575e-02,-4.20605e-02,-8.62007e-02,-6.16618e-02,-9.76845e-02,-8.44636e-03,-9.58067e-02,1.19729e-01,-6.12340e-02,1.70735e-01,-1.18644e-01,-6.35075e-02,1.02421e-02,9.72002e-04,6.26119e-02,9.79640e-02,-8.63738e-02,9.71234e-03,-8.54890e-02,1.20677e-01,-1.45560e-03,-3.84227e-02,7.62930e-02,2.10810e-01,-6.55055e-02,-8.26000e-03,-1.89741e-01,-4.05615e-02,2.82588e-01,1.63607e-01,-5.00237e-02,
5.73707e-02,1.15393e-01,-3.76131e-02,-2.03920e-02,2.35237e-02,8.61733e-02,-1.22405e-01,-8.16428e-02,-8.14072e-02,-1.30658e-01,-1.32342e-01,-8.95449e-02,-5.16571e-02,-1.09175e-01,-8.99208e-02,1.89409e-01,-1.99241e-02,-6.08229e-02,-4.33145e-02,-1.02119e-01,-8.12025e-02,1.15681e-01,5.53350e-03,-1.14738e-01,9.71051e-02,-6.66045e-02,1.10022e-01,3.72736e-02,-5.18383e-02,3.16822e-01,-2.38184e-02,-9.18436e-02,-6.20612e-02,-2.40622e-02,-1.35895e-01,9.31859e-02,-1.04215e-01,-6.60868e-02,-6.20105e-02,-6.01152e-02,3.80720e-02,-4.52861e-02,1.22208e-01,-1.94616e-02,2.12750e-01,1.56630e-02,-9.83290e-03,3.56777e-02,4.57041e-02,1.52478e-01,6.64406e-02,-3.90780e-02,1.26652e-01,2.27832e-02,-2.13959e-01,-5.93373e-02,2.61022e-01,-2.08682e-01,-1.20359e-01,-8.03331e-02,-8.07524e-02,-6.54780e-02,4.12419e-02,-8.15224e-03,-2.78954e-02,-7.63625e-02,1.02494e-01,-1.18278e-01,8.17891e-02,5.51886e-02,1.11136e-02,1.30538e-01,4.81613e-02,2.29560e-02,-4.11456e-02,7.75532e-02,8.93547e-02,-7.35380e-02,-6.91947e-02,-1.36244e-01,-3.69330e-02,1.29982e-01,-1.57569e-01,4.71491e-02,8.77960e-02,7.77591e-02,-4.28027e-02,-1.44406e-01,-6.97943e-02,6.42422e-02,9.05787e-02,3.94293e-02,6.15964e-02,5.29880e-02,-2.04737e-01,-6.28676e-03,2.11372e-01,1.28512e-01,-2.49012e-01,-7.56796e-02,9.18043e-02,1.50578e-01,-5.60295e-02,-2.80136e-02,7.99192e-03,-6.64120e-02,-2.60632e-02,5.82293e-02,-1.45412e-01,3.92072e-02,1.27559e-01,7.02347e-02,-2.41879e-01,1.25638e-02,-1.12630e-01,-1.24837e-02,6.67554e-02,1.68826e-02,7.99396e-03,4.52587e-02,2.02300e-01,2.17305e-02,-7.63111e-02,-1.58101e-02,-3.23152e-02,1.03211e-01,-3.26470e-02,1.76274e-02,-6.48787e-02,-2.48408e-01,7.45078e-03,9.55595e-02,-8.14071e-02,8.11955e-02,4.59588e-02,6.45139e-02,-8.11848e-03,1.19288e-01,-4.87453e-02,5.91820e-02,-4.91687e-02,-1.12413e-01,1.41326e-02,1.89068e-03,3.91533e-02,-1.04857e-02,7.54515e-02,-1.51885e-01,2.36002e-01,2.15105e-01,8.23084e-02,4.74835e-02,-1.24148e-02,-8.73134e-02,5.17876e-03,3.59285e-02,2.12367e-01,-1.50799e-01,1.45747e-02,-1.59606e-02,-9.27928e-02,-7.46137e-03,-7.68038e-02,1.54028e-01,-6.92921e-02,-1.78309e-01,-1.10812e-01,2.86579e-02,3.38431e-02,3.79388e-01,-2.27465e-01,6.34141e-02,2.43602e-01,-3.22907e-02,-5.43539e-02,-1.07714e-01,9.26646e-03,-9.28604e-02,-7.93362e-02,-1.11895e-01,1.33772e-02,2.71922e-01,-9.70259e-02,5.07156e-02,-3.39410e-02,-1.79300e-01,-2.40581e-03,4.86532e-02,-8.23572e-02,6.69398e-02,-5.83705e-02,-1.11170e-01,1.73689e-01,-5.28407e-02,-3.53599e-02,-2.27878e-02,2.14937e-02,3.89064e-01,-1.62280e-02,-6.85092e-02,
3.27529e-03,-9.74739e-02,-6.85901e-02,-1.12903e-01,-2.07043e-01,-4.40281e-02,2.72448e-02,-8.69737e-03,1.22202e-01,-2.58655e-02,-2.00540e-02,-8.11319e-02,-1.93275e-02,2.32238e-01,4.93748e-02,-2.99719e-02,-5.56122e-03,1.06161e-02,5.62019e-02,2.55184e-02,-1.05209e-02,-1.20214e-01,1.09805e-01,1.04761e-01,-7.32677e-02,-1.35547e-02,7.37657e-02,6.10342e-02,1.98909e-02,7.08141e-02,-6.11549e-02,-4.65421e-02,4.09935e-02,2.15866e-01,6.25899e-02,-1.02078e-01,-1.79906e-02,9.56923e-02,-1.26672e-02,-1.01226e-01,-1.03034e-01,-5.31767e-02,-3.31125e-02,4.60373e-03,7.48959e-02,6.38912e-02,-9.88264e-02,2.19690e-03,-7.75638e-03,-6.42382e-02,5.95231e-02,1.80046e-02,1.44478e-01,-5.24599e-02,1.37884e-01,2.22000e-03,-3.07450e-02,-6.28092e-02,-6.55364e-02,-7.89912e-02,-1.30058e-01,-5.76888e-02,-5.45068e-02,1.50236e-02,1.44176e-02,-1.08412e-01,1.03290e-02,-9.01601e-02,-5.06993e-02,1.09754e-01,3.18697e-02,8.22453e-02,-1.37986e-02,-2.38933e-01,-8.49258e-02,1.81228e-03,-8.32919e-02,1.52075e-01,1.08549e-01,1.21523e-01,-1.65867e-02,-6.28756e-02,5.61692e-03,-2.75755e-01,-1.55512e-01,-2.80898e-03,-1.72723e-01,6.47809e-02,5.81396e-02,7.01076e-02,8.40634e-02,-1.69608e-01,-1.15650e-01,-8.56484e-02,-5.08441e-02,-1.31042e-01,-5.70564e-02,-2.65621e-02,-2.56121e-01,1.69283e-02,-2.82480e-01,5.42417e-02,-1.53127e-01,-1.03821e-01,-5.43695e-02,3.13800e-02,2.36833e-02,-3.48037e-02,-5.33596e-03,-1.46210e-01,8.43439e-02,-3.00357e-01,-1.96156e-03,-4.98774e-02,2.83522e-02,-1.13805e-01,-1.52221e-01,1.57009e-03,9.01024e-02,7.62728e-02,-5.43109e-02,-2.64367e-02,1.32147e-02,-1.81744e-02,-3.57707e-02,-4.86720e-02,-2.50290e-02,2.38821e-02,8.06388e-02,-5.90811e-02,-1.12275e-01,7.14535e-02,-2.91270e-01,1.02933e-01,-1.13173e-01,5.96631e-02,-1.00836e-01,-8.49055e-02,-2.64952e-02,6.31358e-02,-1.11966e-01,8.42498e-02,6.66281e-02,6.26956e-02,-1.13523e-01,-3.45028e-02,-1.43600e-01,1.19393e-01,-2.47159e-01,-1.12220e-03,5.16248e-02,2.29888e-02,-4.76045e-02,2.14915e-02,-3.40574e-02,1.37178e-01,6.49026e-02,2.09471e-01,-2.59245e-03,-1.18836e-01,-5.79963e-03,-2.39334e-03,-1.04496e-01,5.08307e-02,-8.43250e-02,-1.61177e-01,-1.28400e-01,1.36178e-02,6.04421e-02,1.24953e-02,-3.01541e-02,5.43270e-02,8.65109e-02,1.19107e-01,-8.70882e-02,-3.76707e-02,-1.73249e-02,-1.92264e-02,-5.84014e-03,-4.33791e-02,8.79073e-03,-7.19808e-02,-3.09169e-02,-5.92212e-03,-3.89558e-03,-1.14323e-01,5.47861e-02,-1.48760e-01,4.45098e-02,-1.14817e-01,2.30992e-02,-1.01512e-01,-6.91252e-02,-8.02115e-03,-4.37659e-02,-3.74491e-02,-2.76809e-01,-2.94436e-01,-4.81766e-02,3.12304e-02,
-1.27880e-03,1.34047e-02,-1.11979e-01,2.49363e-02,3.35456e-02,1.11720e-01,9.72833e-02,5.08620e-02,-3.16988e-02,1.97781e-02,3.24596e-02,-6.70263e-02,-7.76791e-02,5.17443e-03,5.82902e-02,-7.86602e-02,6.17333e-02,-5.92953e-02,-7.69579e-02,-5.42977e-02,-8.54559e-02,6.49992e-02,-2.22229e-03,1.21227e-01,-4.71479e-02,2.08239e-02,-9.15702e-02,-8.57722e-02,2.16042e-02,-8.63300e-02,-1.08563e-01,-5.54363e-02,-6.24912e-02,-8.41064e-02,5.32468e-02,-9.91726e-02,2.30353e-02,4.08723e-02,6.50037e-02,1.05745e-01,1.07490e-01,-7.18902e-02,9.93169e-02,-9.41997e-02,1.04345e-01,-1.21965e-01,-1.11211e-01,4.65461e-02,-3.85295e-02,9.57198e-02,-1.12322e-01,2.53000e-02,6.34181e-02,-1.49381e-02,-5.63660e-02,-5.89118e-02,-8.87192e-02,-1.23805e-01,2.50653e-02,-1.01424e-01,-2.72612e-02,-8.81982e-02,1.21449e-01,-1.02820e-01,-9.46339e-02,8.17276e-02,-1.46258e-02,-1.12078e-01,4.85056e-02,-6.09199e-02,-8.82784e-02,-9.14654e-02,-5.03368e-02,-1.11366e-01,8.54095e-02,-1.01801e-01,-1.24956e-01,-7.85147e-02,-1.15994e-01,8.49920e-02,-9.08420e-02,9.34595e-02,-1.48364e-01,8.34619e-02,1.14388e-01,-2.65623e-02,7.77441e-02,6.49563e-02,-6.06575e-02,9.90381e-02,-1.05086e-01,-9.50437e-02,-1.35083e-01,6.21449e-02,-3.81965e-02,-2.79029e-02,6.96505e-03,-8.57445e-02,9.56367e-02,6.49772e-02,-5.51653e-02,-1.08654e-01,-1.13495e-02,7.52538e-02,9.75544e-02,4.07642e-02,8.93549e-02,-1.21137e-01,3.11321e-02,-1.15763e-02,-5.39502e-02,-1.18043e-01,4.02851e-02,3.46832e-02,-8.76160e-02,-1.14362e-01,-5.80852e-03,-1.61696e-02,1.19882e-01,5.71904e-02,-4.26517e-02,7.01528e-02,3.50238e-02,-6.53571e-02,9.52301e-02,-7.44267e-02,1.78271e-02,-2.65883e-02,-5.22982e-02,-1.38727e-01,8.26909e-02,-9.45914e-03,-1.42759e-01,-8.02602e-02,-6.65642e-02,-4.97194e-02,-3.16812e-03,-1.09877e-01,4.31446e-02,-1.18716e-01,3.97487e-02,4.74003e-02,1.53484e-02,-1.15163e-01,-1.63131e-02,-9.00641e-02,-6.60946e-02,-1.02040e-01,-7.29972e-02,9.54994e-02,-7.58908e-02,-9.60145e-02,-4.34831e-02,7.33001e-03,7.49024e-02,1.16906e-01,-6.97268e-02,8.20036e-02,8.95962e-02,6.22213e-02,-8.33824e-02,-1.13993e-01,1.98320e-02,3.71606e-02,-1.50458e-02,-7.11120e-02,4.76241e-03,-4.01307e-02,1.08796e-01,-1.97658e-02,-1.77077e-02,-9.91226e-02,1.03448e-01,-8.06549e-02,-9.96615e-02,6.89369e-02,1.78122e-01,1.24057e-02,-1.03620e-01,9.52665e-02,-8.47351e-02,7.69196e-02,1.28841e-02,5.78083e-02,9.69430e-02,3.23501e-03,3.53692e-02,-6.92037e-02,-1.95763e-03,-9.93243e-02,-7.06035e-02,4.88966e-02,-1.48267e-01,-9.45138e-02,4.11404e-02,-1.37389e-01,-8.16638e-02,-7.01919e-02,2.11028e-02,2.87114e-02,
-7.21727e-02,-7.83360e-02,-5.09399e-02,2.86510e-02,7.75779e-02,-1.86168e-02,-1.42839e-01,7.26830e-02,9.67443e-02,5.20592e-02,-1.20920e-01,1.01194e-01,-3.20220e-02,-2.09899e-02,3.16236e-02,4.06100e-02,-1.25979e-01,4.41111e-02,-9.83798e-02,-5.08499e-02,-9.93796e-02,-9.35462e-02,8.01921e-03,7.63499e-02,-7.70860e-02,-5.19706e-02,-8.32403e-02,3.20166e-02,-1.79210e-01,1.27566e-01,9.73409e-02,1.82856e-01,-6.14239e-02,1.42205e-01,7.15105e-02,4.97982e-02,-1.67761e-02,1.24742e-01,-4.08041e-03,-1.95980e-02,-1.56123e-02,-1.39128e-02,-7.21507e-03,3.54971e-02,-7.95013e-02,-6.83721e-02,5.26187e-02,-8.12333e-02,3.73294e-02,-8.04352e-02,-5.51413e-02,-4.52456e-02,-4.95979e-02,-9.42734e-02,-1.22222e-01,1.58285e-01,-1.73686e-02,-2.56678e-02,-2.41979e-02,-7.32551e-02,-1.36618e-01,-1.00488e-01,-1.19883e-02,2.39683e-02,-7.15214e-02,-1.17014e-01,1.08309e-01,1.07143e-02,2.10008e-02,-2.62791e-02,-4.79244e-02,8.19786e-02,2.82964e-01,-8.32893e-02,-1.82928e-02,-5.23824e-02,-3.83806e-02,-7.26260e-03,1.23762e-01,4.32707e-02,-7.06803e-02,-8.61932e-02,-1.06175e-01,-1.06434e-01,1.26126e-01,-1.19925e-02,-7.00286e-02,-1.33086e-01,7.11100e-02,1.02306e-01,6.82702e-02,-1.16378e-01,-7.47953e-03,7.49055e-03,-9.66309e-02,2.05262e-02,-1.09573e-01,-3.85031e-02,5.16549e-02,-1.04091e-01,7.59516e-02,-1.07184e-01,-1.32603e-01,-9.44838e-02,-3.04443e-02,-8.15421e-02,5.94900e-02,-6.58091e-02,-2.56133e-02,3.66242e-02,1.18854e-02,1.54944e-04,5.87137e-02,-4.40698e-02,-3.71074e-03,8.02802e-04,1.02867e-01,-4.41284e-02,7.88895e-02,-1.29282e-02,1.36733e-02,9.03776e-02,1.03534e-01,-5.47433e-02,5.08444e-02,1.08287e-01,-8.27311e-02,-7.68685e-02,4.07912e-02,-6.45134e-02,-1.74653e-02,-5.59498e-02,-1.44561e-01,-1.76884e-02,1.30794e-02,1.45762e-02,8.78356e-02,6.84253e-02,-1.06850e-01,-4.40842e-02,1.06922e-01,-1.32911e-01,-1.34313e-02,-3.34405e-02,-1.22394e-01,-7.53259e-02,-7.99822e-02,-2.96143e-02,-1.37894e-01,9.98206e-02,-3.25901e-02,-1.80891e-01,7.98951e-02,2.69968e-02,-1.86747e-02,2.93683e-02,7.51795e-02,-4.68254e-02,2.27077e-02,-1.18274e-01,-8.52250e-02,-8.39512e-02,-1.18080e-02,1.31162e-01,-6.99293e-02,-2.84342e-02,-1.11657e-02,-7.95125e-02,1.15722e-01,2.88705e-02,-8.89959e-02,1.10738e-01,-8.92095e-02,-6.58583e-02,-2.33543e-02,8.44689e-02,1.18455e-01,1.66505e-02,-7.40794e-03,6.86055e-02,-1.37830e-01,1.10274e-01,4.49819e-02,-1.78908e-02,1.01808e-01,3.55815e-02,-9.99404e-02,1.01960e-01,-9.20390e-02,1.36031e-01,1.04558e-01,2.97973e-02,1.41118e-02,-1.00754e-01,8.00746e-02,-1.26217e-01,-2.45718e-02,2.34522e-01,4.24551e-02,5.77666e-02,
8.48989e-02,5.84574e-02,-6.38668e-02,-4.35838e-02,-1.10404e-01,-8.21795e-02,-2.13066e-02,1.21907e-02,-7.33404e-02,7.43246e-02,6.46709e-02,-7.57587e-02,4.89259e-02,9.91486e-02,-1.00272e-02,2.13218e-01,-1.03260e-01,8.61968e-02,-1.85921e-02,9.09636e-02,4.63353e-02,-9.16896e-02,2.59532e-02,-3.38979e-03,1.42175e-02,-2.26310e-01,5.15517e-02,-5.77604e-02,2.95170e-02,-1.83506e-01,-5.70056e-03,9.27698e-02,-3.14323e-02,-1.05737e-01,1.33001e-01,-1.01245e-01,9.51151e-02,4.32413e-02,-1.02819e-01,-8.90062e-02,2.29578e-03,4.13635e-02,4.47401e-02,-2.75741e-03,-1.54367e-01,6.81754e-02,9.90583e-02,-5.19242e-01,-4.56230e-02,-1.75371e-03,-5.74822e-02,8.44196e-02,-5.64928e-03,1.20768e-01,3.49679e-01,4.77412e-02,-8.20275e-02,-9.24811e-02,7.31676e-02,-2.31420e-01,4.58953e-02,-8.29229e-02,-1.43426e-02,-3.05496e-01,-1.07498e-01,2.01508e-03,-4.98231e-03,1.13472e-01,6.59952e-02,2.26220e-03,-1.36951e-01,5.27389e-02,-9.57752e-03,-2.70260e-02,1.13458e-01,-5.24704e-02,-9.58497e-02,-3.02602e-02,-5.75117e-02,-8.73965e-02,1.55556e-01,-1.28996e-01,2.54525e-01,-1.89553e-01,-1.34950e-01,-5.19105e-01,8.45854e-02,-2.41713e-01,1.13528e-01,-9.51672e-02,1.04473e-01,-1.56199e-01,2.43263e-01,9.65392e-02,-5.67745e-02,-8.25371e-02,9.85692e-02,3.57862e-02,-2.43310e-01,-1.06499e-02,3.27799e-01,-9.80539e-02,3.92849e-02,-1.87351e-01,2.99111e-02,1.07933e-01,6.25344e-02,1.71986e-01,-5.39399e-02,-2.16411e-01,-1.91560e-01,-3.07701e-01,5.00255e-02,6.23118e-02,-5.56516e-02,-1.47919e-01,2.11470e-01,2.60609e-02,3.85763e-02,8.89873e-02,-6.77880e-02,-9.60460e-03,1.18357e-01,2.96918e-02,-4.31433e-03,5.66517e-03,7.59383e-03,2.24413e-02,5.07193e-02,-4.43733e-02,-2.77337e-01,-6.59571e-02,-8.84039e-02,-1.51528e-02,-9.64774e-02,2.12905e-01,-6.50153e-02,9.43434e-02,6.83192e-02,-4.83119e-02,-6.36977e-02,-2.49926e-01,1.58775e-01,9.08973e-02,-4.05703e-03,-2.03202e-01,-7.24049e-02,1.46460e-01,2.92669e-01,-6.97706e-02,-1.07817e-01,8.31117e-02,-5.94219e-02,-1.52328e-01,-4.49480e-02,-6.95937e-02,7.05147e-02,1.05646e-01,1.33207e-01,1.57351e-01,5.48336e-02,7.60276e-02,1.23548e-01,1.35001e-01,9.61218e-02,-2.91222e-01,-4.36234e-01,-5.21717e-02,2.21972e-02,-3.74628e-02,-1.48243e-01,-2.13176e-02,-2.91210e-01,-7.94997e-02,-2.03125e-02,1.71396e-01,1.14565e-01,4.61281e-02,5.85775e-02,-7.74115e-06,8.42676e-02,-1.16054e-01,4.52045e-02,-4.66578e-03,1.17937e-01,1.63364e-01,-2.35548e-01,-1.60236e-02,-1.79647e-01,-5.56290e-02,1.16791e-01,3.37643e-02,-4.14114e-01,-1.19870e-01,-1.84416e-02,2.06207e-01,-1.59818e-01,-1.57165e-01,1.41145e-01,2.48071e-01,
