// Neural Network File Format by Kyle Julian, Stanford 2016
2,13,1,100,
13,100,1,
0,
10,0,0,1,0,0,0,0,0,0,0,1,0,
100,6,15,16,6,13,5,4,1,19,19,100,40,
10,0,0,1,0,0,0,0,0,0,0,1,0,0,
90,6,15,15,6,13,5,4,1,19,19,99,40,1,
-1.92336e-01,-2.02839e-01,4.91188e-02,1.14594e-01,5.54012e-02,2.03792e-01,-2.00223e-01,-2.95676e-02,-4.10444e-03,1.01501e-01,-1.94059e-01,-1.54956e-01,-2.10539e-01,
-1.26076e-01,-7.65857e-02,6.21089e-02,-2.52896e-01,4.98751e-02,-1.86793e-01,-1.38923e-01,-1.38733e-01,9.50559e-02,4.10998e-02,-1.81152e-01,3.71398e-02,-1.29482e-01,
-1.22587e-01,1.23972e-01,2.51169e-02,-4.14331e-01,-3.61734e-02,-7.77091e-02,-8.29438e-02,-2.08823e-01,-2.49118e-01,-2.26829e+00,-1.74168e-01,8.88908e-02,-3.59712e-01,
-3.95044e-01,-4.78312e-01,2.12825e-02,-5.46240e-01,-3.61232e-01,-2.12075e-01,4.74373e-01,-3.76649e-01,-1.38274e-01,-1.02081e-01,-1.69276e-01,-4.13612e-01,-1.12930e-01,
5.94381e-02,-8.37430e-02,6.09399e-03,-2.26401e-01,1.03099e-01,-4.13263e-02,-6.06970e-01,-4.02732e-01,-2.60207e-01,-6.29771e-01,4.08227e-01,-2.38437e-01,-3.32529e-01,
-1.07653e-01,1.54322e-02,-1.77009e-01,-1.02679e-01,-1.85399e-01,-3.05691e-02,-1.76344e-01,-6.74562e-02,-1.36148e-01,-5.40137e-02,1.00993e-01,-1.15845e-01,5.85756e-02,
-2.56289e-01,1.89235e-02,4.79975e-04,-4.20990e-02,-1.82587e-01,-3.02841e-01,-1.40135e-01,-3.17142e-01,-2.04485e-01,5.44102e-01,-1.01543e-01,-1.82846e-01,3.60783e-02,
-1.66347e-01,-5.76011e-01,-5.45210e-01,-1.13723e+00,1.47052e-01,-1.34438e-01,-5.66844e-01,-1.07215e+00,-9.30179e-01,-4.33580e+00,-4.67544e-01,-5.32747e-01,2.26991e-02,
-1.73915e-01,-3.08496e-01,-3.73781e-01,-1.05854e+00,1.24774e-01,1.05366e-01,5.72198e-01,-5.05318e-01,-1.12792e+00,-5.19964e+00,-5.87153e-01,-2.06100e-01,9.95961e-02,
-1.78547e-01,1.37108e-01,1.45251e-01,5.72245e-02,1.84841e-02,1.34437e-01,-1.91789e-01,-1.42801e-01,2.14267e-02,-3.11031e-01,7.39720e-02,-2.64761e-02,-5.53983e-02,
-1.72194e-01,9.30100e-02,-7.47188e-02,-1.03672e-01,3.05091e-02,-8.30880e-02,-1.04050e-02,-1.34122e-01,1.69015e-01,5.42066e-02,-2.00779e-01,-1.86065e-01,3.88203e-02,
8.82638e-02,-4.10020e-01,-5.45285e-02,-3.97430e-01,-7.50598e-01,-1.07310e-01,-2.16010e-01,-3.86474e-01,-6.31678e-01,-1.27217e+00,-1.64104e-01,-2.45624e-01,-1.51038e-01,
-2.20174e-01,-2.82105e-01,-1.20697e-01,1.78161e-02,-2.93945e-01,1.39059e-01,4.89642e-02,1.16881e-01,-1.60247e-01,1.22729e-02,6.11814e-02,4.47092e-02,1.96783e-02,
-4.17106e-02,1.06316e-01,-1.95806e-01,-1.66282e-01,1.17759e-01,-2.39321e-01,-1.80427e-02,-4.75599e-02,-5.54400e-02,-2.12469e-01,-2.71255e-01,1.53548e-02,2.21256e-02,
-2.12049e-01,-1.03367e-01,-1.73998e-01,4.34446e-02,-2.22773e-01,8.37665e-02,-5.04983e-02,5.20403e-03,1.61770e-01,-1.91133e-01,-8.45439e-02,-1.98153e-01,1.17259e-01,
-1.14344e-01,-5.96299e-02,9.68575e-02,-1.54632e-01,8.27487e-02,1.18559e-01,-2.27541e-01,1.67832e-01,3.58957e-02,1.95956e-01,-2.01983e-01,-1.54750e-01,-2.05694e-03,
1.10535e-02,-1.49064e-01,1.09609e-01,-1.59452e-01,-1.23818e-01,-9.65265e-02,1.53986e-01,-2.02127e-01,-3.41005e-01,3.74155e-01,-7.30840e-02,-8.80833e-02,-5.51182e-01,
-1.58294e-01,1.61142e-01,1.90702e-01,-6.14785e-02,4.13691e-02,-9.40209e-02,-2.00108e-01,1.67579e-01,-9.18963e-02,2.29192e-01,1.81439e-01,-1.58794e-01,-1.57889e-01,
-3.55819e-01,1.64595e-01,-1.93345e-01,-2.59784e-01,-6.10378e-02,-1.82957e-01,-7.05536e-02,-3.13462e-01,-3.01441e-01,-1.76196e+00,-4.32333e-01,8.02305e-02,6.33050e-03,
-1.94835e-01,1.19187e-01,-2.19724e-01,-1.62419e-01,1.91082e-01,1.65394e-01,2.27398e-01,-1.63495e-01,4.02295e-02,1.03412e-01,4.47373e-02,-1.03120e-01,-1.49611e-01,
-2.78186e-01,3.75097e-02,-3.53377e-01,-4.28091e-01,-4.14731e-01,-6.56225e-01,5.09294e-01,-4.76490e-01,-2.86705e-01,3.21349e+00,-3.91389e-01,-1.89192e-01,-4.49178e-01,
-4.04129e-01,-8.37101e-02,-4.16438e-01,3.17772e-01,-1.14389e+00,-2.86038e-01,8.10928e-01,-4.52261e-01,-7.17874e-01,2.36426e+00,3.00036e-01,-2.32937e-01,-4.90717e-01,
-1.96066e+00,-1.21299e+00,5.91040e-01,8.17843e-02,6.13045e-01,1.98245e-01,6.35518e-01,-5.02925e-01,-5.14132e-01,-1.60047e+01,-4.24417e-01,7.78905e-02,1.14802e+00,
-1.29641e-01,-3.75103e-02,-5.32831e-02,-3.04453e-01,9.68494e-02,-8.71642e-02,-2.57609e-01,-1.51249e-01,-4.37211e-01,-9.95415e-01,-1.96544e-01,3.82764e-02,-1.43478e-01,
-3.08965e-01,-2.27249e-01,-1.91840e-01,-3.58931e-01,-4.48908e-01,-4.83433e-01,8.92947e-02,-3.30511e-01,-2.97720e-01,6.65499e-01,-2.61999e-01,-2.82925e-01,-2.75657e-01,
-3.44726e-01,-5.75462e-01,-4.78006e-01,-7.53733e-01,8.10759e-01,-1.52833e-01,3.41857e-02,-4.21324e-02,-7.83558e-01,-3.08820e+00,-7.05988e-01,-3.91521e-01,1.35083e-01,
-3.10686e-01,-5.81720e-02,2.33237e-01,1.38713e-01,-7.35639e-03,1.16851e-01,1.81892e-02,-1.90307e-01,-1.50590e-01,-6.54344e-01,-2.65949e-01,-7.99623e-02,2.14976e-02,
-9.88564e-03,1.41853e-01,3.02478e-02,6.17344e-02,-2.46234e-01,-2.45555e-01,2.08534e-02,1.67530e-01,-8.34043e-02,8.62754e-02,-5.23156e-02,-1.45642e-01,-1.24090e-01,
4.50483e-02,-5.93537e-02,-3.16043e-01,1.08514e-01,6.95348e-02,5.72192e-01,-5.71472e-01,-1.72170e-01,7.80074e-02,-2.04929e+00,-8.54831e-02,-7.44181e-01,-8.38293e-01,
-1.55594e-01,-2.27327e-01,-2.87991e-02,-1.51194e-01,-3.32758e-04,-1.38890e-01,1.63515e-01,-5.49659e-02,1.93656e-01,1.96068e-01,-5.55876e-02,-2.05096e-01,-6.10179e-02,
-1.00924e-01,3.70427e-02,-1.08521e-01,-2.82181e-01,3.41830e-03,4.03572e-02,-1.64790e-01,-1.22408e-01,5.87509e-02,1.12890e-01,1.18669e-01,-6.82698e-02,3.01822e-02,
-1.65685e-01,2.99004e-02,6.32998e-02,-1.26682e-01,-1.09309e-01,9.23940e-02,-1.12508e-01,-1.70638e-01,-1.30489e-01,2.07600e-01,1.22285e-01,-1.45667e-01,-1.69551e-01,
-2.73070e-01,-2.62702e-01,7.11293e-04,1.51313e-01,-9.08011e-02,-1.22158e-01,-1.24879e-01,1.38382e-01,6.73083e-02,1.10579e-01,7.04318e-04,-1.55982e-02,-6.46726e-02,
-1.40952e-01,2.41544e-02,3.32196e-02,2.12609e-01,-1.15876e-01,-2.11599e-01,-2.03435e-01,-1.34234e-01,1.67649e-01,6.34103e-02,3.07674e-02,-1.05121e-01,-7.03436e-02,
-7.72077e-01,2.11036e+00,4.73382e-01,3.28617e-01,4.53925e+00,-7.54517e-01,1.60428e+00,1.59134e+00,2.21307e+00,-8.95464e+00,-3.96169e-01,-4.15697e-01,-5.12032e-01,
-1.72893e-01,-2.57416e-02,1.65443e-01,3.40984e-02,-2.10411e-01,-1.59242e-01,-1.46797e-01,1.06050e-01,-2.86270e-01,-1.19561e-01,2.05736e-01,-1.26282e-01,4.65079e-02,
-1.56654e-01,-8.62061e-02,-1.19228e-01,-2.30218e-01,1.69778e-01,1.06576e-01,-4.87582e-02,-1.03240e-02,1.30755e-01,1.56440e-01,1.01359e-01,-1.89932e-02,5.00962e-02,
-2.05464e-01,-1.53678e-02,-8.34707e-02,-2.53779e-01,-3.00096e-01,-1.28084e-01,-1.35060e-02,-1.07293e-01,-3.11020e-01,-1.27488e-01,-3.02614e-02,9.71945e-02,-2.61091e-01,
-2.42895e-01,-1.04685e-01,-1.42710e-01,-1.96249e-01,1.16292e-01,1.55330e-01,-7.76442e-02,-4.66263e-02,1.64210e-01,1.11198e-02,-2.13049e-01,-2.68698e-01,1.19840e-01,
-1.01071e-01,-1.85436e-01,-1.39230e-01,-4.09243e-02,-7.48791e-02,4.03066e-02,1.21513e-02,-1.86025e-01,-2.69577e-01,4.69394e-01,1.27401e-01,3.05163e-02,-2.64076e-01,
-2.05145e-01,-2.07929e-01,1.22093e-03,1.18659e-01,2.02962e-01,3.04322e-02,1.93855e-01,1.34708e-01,3.31824e-03,1.98651e-01,-1.36999e-01,-5.16597e-02,-1.62594e-01,
-1.30429e-01,-3.52192e-01,-5.51559e-01,-4.37578e-01,-2.12640e-01,-4.74866e-01,-4.85090e-01,-4.96206e-01,-2.01654e-01,1.72492e+00,-1.48029e-01,-2.30121e-01,-2.41609e-01,
-4.30655e-01,-3.22548e-01,-2.46692e-01,-1.44569e-01,-4.71609e-02,-5.21070e-01,-5.72275e-01,-1.19264e-01,-2.49212e-01,6.73269e-01,1.76966e-02,-1.64701e-01,6.84994e-02,
-7.21061e-02,-1.43867e-01,1.03542e-01,-2.63829e-01,-1.95390e-01,-1.83719e-01,4.70347e-01,2.60189e-02,-9.17594e-02,-6.66199e-02,-1.01632e-01,7.52703e-03,-4.76534e-03,
-7.86677e-02,-1.69648e-01,-1.47417e-01,-1.66855e-01,-2.46529e-01,-1.71128e-01,-2.31906e-01,-3.70518e-02,-1.99080e-01,8.11055e-02,2.91071e-04,-2.83202e-01,1.57103e-01,
-2.62132e-03,-8.39085e-03,1.40181e-02,-2.06281e-01,-3.81724e-02,-9.87743e-02,-1.95145e-02,-4.98311e-01,-1.87963e-01,3.03324e-01,3.47402e-02,-2.43018e-01,2.71686e-02,
-1.34872e-01,1.68944e-01,-6.35666e-03,-1.39610e-01,-1.66353e-01,-1.40491e-01,-1.81457e-02,-3.83521e-02,5.77057e-02,4.45524e-03,6.61959e-02,-2.28013e-01,-1.60614e-01,
-3.98507e-01,-2.92092e-01,-2.76837e-01,-1.23798e-01,-2.24211e-01,-2.49021e-01,-2.87482e-01,-4.58254e-01,-2.04263e-01,1.34882e+00,-1.96767e-01,-1.81201e-01,-1.57064e-01,
-3.23714e-01,1.23679e+00,-3.12905e-01,2.94402e-01,-1.64560e+00,-1.69092e-01,1.74628e+00,1.54600e-01,-4.73669e-01,4.85840e-02,1.26276e+00,-8.60530e-01,-1.54294e-01,
-4.70875e-01,-5.09052e-01,-5.23542e-01,3.40241e-01,-7.33071e-01,-2.16495e-01,-7.54339e-01,-1.00777e+00,-6.94125e-01,4.00438e+00,-1.31248e-01,-2.04697e-01,-2.83069e-01,
-3.19015e-01,-1.06456e-02,-6.17015e-01,-4.26937e-01,-4.64262e-01,-3.89724e-01,-2.82449e-01,-8.92615e-02,-3.83661e-01,-3.67224e-01,2.44697e-01,-6.15443e-01,-5.29989e-02,
-4.62480e-01,-4.18737e-01,-1.24830e-01,-2.44073e-01,4.21875e-01,-1.14691e-01,2.09011e-01,-3.99199e-01,-3.53440e-01,-1.77949e+00,-2.12808e-01,-1.66637e-01,1.43846e-01,
9.04710e-02,-8.40557e-01,-9.50985e-02,1.61934e+00,-2.16365e+00,-4.09604e-02,1.87004e+00,3.17577e-01,5.87320e-01,1.05549e+01,1.86977e+00,-2.42266e-02,-6.23402e-02,
1.95213e-02,-1.41533e-02,4.52845e-03,-9.42352e-01,2.76344e-01,4.66301e-02,-1.57789e-01,-4.17615e-01,-4.53299e-01,-4.27343e+00,-1.68283e-01,-2.24213e-01,-1.58751e-02,
-1.74126e-03,4.02252e-02,4.30452e-02,-7.53343e-02,-2.59082e-01,-1.01531e-01,-3.19420e-02,-2.64134e-03,1.15568e-01,-1.52276e-01,-9.05332e-02,-2.08644e-01,-1.39459e-01,
-1.65612e-01,-2.31696e-01,-7.92361e-02,1.71232e-01,-5.94455e-02,4.64929e-02,3.97591e-02,-6.41984e-02,6.94728e-02,-4.38400e-02,2.06496e-02,-1.79282e-02,-6.04368e-02,
-1.44112e-01,1.78337e-01,-3.21165e-03,1.61746e-01,-6.00597e-02,1.22017e-01,1.67464e-01,1.55290e-01,-2.13269e-01,-1.97555e-01,1.61163e-01,-2.16495e-01,-2.02737e-01,
-8.49243e-02,8.08694e-02,-5.80995e-02,-7.13430e-02,2.38591e-02,-2.18507e-01,-1.98039e-01,2.53232e-02,4.07979e-04,4.10733e-02,2.29769e-01,-1.35104e-01,-9.04079e-02,
-4.90823e-01,-3.13233e-01,-3.69712e-01,1.56707e-01,-7.56310e-01,-3.84085e-01,1.26641e-02,-4.70141e-01,-4.58190e-02,3.36161e+00,-1.01272e-01,-2.31188e-01,-3.74591e-01,
-9.94450e-02,-1.32910e-01,-1.71879e-01,-3.98891e-02,-1.33716e-01,5.24040e-02,2.20505e-02,-1.83390e-01,-1.32785e-01,-3.32205e-01,1.51542e-01,4.41575e-02,-2.57220e-01,
-4.84103e-01,-1.62227e-01,-2.59876e-01,-4.34110e-01,3.27880e-01,-1.65052e-01,-8.31603e-02,-3.88485e-02,-9.85494e-02,-2.53496e+00,-5.74182e-01,1.76878e-01,-2.27653e-01,
-2.47215e-01,1.05450e-01,-5.84800e-02,-2.22018e-02,1.59907e-01,-2.26947e-03,1.27765e-02,-1.78826e-01,8.84742e-02,1.17755e-01,1.28961e-01,3.35995e-02,-2.71159e-01,
8.02496e-01,-8.53764e-01,-1.71646e-01,-7.54427e-02,-1.07145e+00,-2.48194e-01,-1.03625e+00,-1.99220e+00,-3.68928e+00,-1.80327e+01,5.22345e-02,-5.05225e-01,-1.70184e-01,
1.84523e-02,-3.54710e-01,-3.59018e-01,-2.75544e-02,-3.10102e-01,1.52299e-02,-3.04588e-01,-1.99641e-01,-1.05682e-01,-1.10724e+00,-3.73349e-01,1.53565e-02,-1.06239e-01,
-2.16692e-01,-1.26996e-01,1.95101e-01,1.01836e-01,-4.85171e-02,-1.91351e-01,-4.63824e-02,1.60435e-02,1.30265e-01,-2.90864e-01,-4.95495e-02,-2.22872e-02,8.16810e-03,
-7.26582e-02,-1.14817e-01,-2.49989e-02,-2.26829e-01,6.89136e-02,5.93590e-02,1.37787e-01,-1.46987e-01,5.45513e-02,-2.73247e-01,1.45594e-01,4.29455e-02,-2.16875e-01,
-1.70252e-01,-7.20449e-02,-5.97189e-01,-3.93033e-01,-1.70851e-01,-2.41309e-01,-5.25948e-01,-2.11823e-01,-7.06229e-02,1.36759e+00,-3.72837e-01,-2.69832e-01,-2.60321e-01,
-2.22642e-02,-1.10640e-01,-2.64994e-01,5.14964e-02,-2.02651e-01,-2.70496e-02,6.67613e-02,3.61961e-03,6.38297e-02,-1.77231e-01,-1.84809e-01,-1.64591e-01,3.80141e-02,
-8.37436e-01,-3.62169e-01,9.51478e-02,-1.16460e-01,1.27238e+00,-2.86152e-01,1.69409e-01,1.50382e-01,-6.57056e-01,-1.19940e+00,-2.31105e-01,-2.73568e-01,2.63165e-01,
-1.54473e-01,-6.38344e-02,-3.02276e-01,-8.28465e-02,1.86730e-01,-1.52785e-01,-1.48498e-01,1.79986e-01,-7.69093e-02,1.69709e-01,2.99391e-03,3.45520e-02,-5.43081e-02,
-5.92500e-03,-1.77572e-01,-2.12393e-01,7.80410e-03,-3.94957e-01,-2.01713e-01,1.44743e-01,-2.43931e-01,6.25797e-02,-4.39119e-01,2.69090e-01,-4.74729e-02,-1.16220e-01,
-5.63504e-02,-8.19526e-02,-7.34113e-02,-9.01525e-02,1.93409e-01,-3.92574e-02,1.72813e-01,-1.37286e-01,-1.79289e-01,-6.87704e-02,1.50491e-02,-5.70787e-02,-1.28533e-01,
-2.51950e-01,-7.03405e-02,5.36603e-02,-2.93433e-01,-3.28300e-01,-1.63339e-01,-1.79800e-01,-2.65007e-01,-7.55838e-02,2.14210e-01,1.40336e-02,-9.11819e-02,-2.14130e-01,
-3.78727e-01,-2.22077e-01,-5.26553e-02,4.08372e-01,-2.89553e-01,-7.24167e-01,-6.92264e-01,-4.23635e-01,-7.22486e-01,2.99107e+00,-5.03205e-01,-2.32022e-01,-3.17939e-01,
3.47200e-02,-4.63276e-01,-3.34773e-01,-5.10393e-01,1.84478e-01,-3.89048e-01,-5.38559e-01,-8.81156e-01,-1.28743e+00,-3.19582e+00,4.56783e-01,-6.59441e-01,-7.97159e-03,
3.39296e-02,-2.18732e-01,-1.76882e-01,-1.56625e-02,3.51740e-02,1.82954e-02,-2.72730e-01,3.12673e-02,8.34274e-02,-3.75441e-02,-1.13726e-01,-2.23975e-01,-2.50253e-01,
-3.42208e-02,-6.38253e-02,-2.39008e-01,-2.00246e-01,2.81001e-02,-2.69786e-01,1.52658e-01,-7.45170e-02,5.21487e-02,-3.48177e-02,1.89159e-02,-2.64557e-01,4.72325e-02,
-4.16562e-01,-1.55531e-02,-1.17538e-01,6.62965e-01,-1.61524e+00,-3.86064e-01,1.89553e+00,-6.23179e-03,1.99438e-01,2.16761e+00,4.88751e-01,-9.95088e-01,-2.61467e-02,
-1.57553e-01,-1.51837e-01,2.90251e-01,1.29632e-01,-2.03115e+01,-1.40130e-01,3.69052e+00,1.21806e+00,-4.24157e+00,-5.25897e+00,2.05007e-01,-2.67655e-01,1.93977e-01,
-8.31873e-02,-1.16766e-01,1.32810e-01,4.16575e-02,-3.28412e+00,-4.77038e-01,1.46791e-01,-3.84584e-01,-1.47187e+00,-8.50241e-01,-1.12548e-01,-1.85915e-01,-3.79427e-01,
-4.43854e-01,1.26066e-01,-4.91597e-01,1.06252e-02,-9.70542e-01,-7.46547e-01,-3.38245e-01,-5.62794e-01,-8.17505e-01,4.35252e+00,-1.77076e-01,-4.05018e-02,-5.18046e-01,
-2.07788e-01,-3.67422e-01,-1.09407e-01,-2.20896e-01,4.84100e-01,-1.30881e-01,-4.81588e-01,-2.54749e-01,-6.59469e-01,-1.24834e+00,3.28596e-01,-3.20983e-01,1.72731e-01,
-5.58571e-01,-9.91348e-01,-1.85953e-01,-8.40121e-01,3.85295e+00,-3.33091e-01,-1.11937e+00,-1.39791e+00,-3.91236e+00,-1.65031e+01,-1.65427e-01,-5.23115e-01,1.47479e+00,
-3.95648e-01,-2.30599e-01,1.35915e-01,-4.00023e-01,6.41221e-01,2.18796e-01,2.31447e-01,6.39414e-02,-1.62524e-01,-1.69676e+00,-3.69028e-01,-2.43762e-01,1.02730e-01,
3.46214e-02,-9.10957e-01,2.89384e-01,1.05037e+00,1.44366e+00,-5.48662e-02,-1.36562e+01,-4.84883e-01,1.77225e-01,6.10441e+00,-4.18307e-01,5.42220e-02,1.28725e-01,
-9.21135e-02,-2.67320e-01,-3.54211e-01,-2.71382e-01,9.49367e-01,1.66432e-01,9.69423e-02,3.40418e-01,-6.43500e-02,-6.89146e-01,-1.10678e-01,-2.42627e-01,-3.70529e-01,
-1.70951e-01,-2.29210e-01,2.83493e-01,1.44258e+00,-4.02489e+00,-3.34351e-01,4.09075e+00,8.42799e-01,-3.25270e+00,7.45592e-02,-3.90989e-01,-1.88814e-01,4.40356e-02,
-1.32139e-02,-7.35729e-02,-7.06944e-02,5.99550e-03,9.62408e-02,1.91610e-01,2.79728e-02,-1.92351e-01,-4.81207e-02,-1.45292e-01,-2.10028e-01,-5.10834e-02,-1.81679e-01,
-3.21629e-01,-2.03327e-01,1.13938e-01,4.77160e-02,-2.03200e-01,-1.09182e-01,-1.28954e-01,-6.16169e-02,-2.80592e-01,-9.65007e-01,-5.34767e-02,4.61494e-02,3.93990e-02,
4.05987e-02,-2.92357e-01,-1.89024e-01,-2.16966e-01,-2.61818e-01,-1.73636e-01,-8.93533e-02,-3.24446e-01,-1.45966e-01,-9.74520e-01,1.59416e-01,-1.32431e-02,-1.43555e-01,
-5.06121e-01,-2.31974e-01,-4.46514e-01,-1.22832e-01,-8.03164e-01,-5.41517e-01,-6.96456e-01,-9.64691e-01,-8.93782e-01,2.70166e+00,-3.30947e-01,-3.63002e-01,-4.40599e-01,
-1.82600e-02,-9.50743e-02,4.90485e-03,-3.03270e-02,-2.11681e-01,-1.55656e-01,-1.71583e-01,1.49921e-01,-1.99238e-01,8.11419e-03,-2.02529e-01,-8.02435e-02,-1.53556e-04,
-9.64391e-01,2.16772e-02,-3.65378e-01,-2.27585e+00,1.23364e+00,-7.77217e-01,1.06157e+00,1.61309e+00,2.00828e+00,3.45470e+00,-4.10337e-02,-9.66205e-01,2.68001e-01,
-2.18608e-01,1.53023e-01,-2.16110e-02,5.86276e-02,-1.09182e-01,-7.12324e-02,1.34387e-01,3.16979e-03,-1.57090e-01,-2.80860e-02,-1.96011e-01,2.32442e-02,-2.26406e-01,
-1.76933e-01,-3.17027e-01,-1.80957e-01,-1.54163e-01,-4.78911e-01,-4.72934e-01,4.16343e-01,-5.33209e-01,-2.46390e-01,1.64992e+00,-7.13158e-02,-2.35211e-01,-3.92556e-01,
-2.83373e-01,-8.56585e-02,7.69893e-02,4.36385e-02,6.79862e-02,7.37831e-02,-4.97767e-02,1.40837e-01,-2.07584e-01,1.73871e-01,-1.63587e-01,-2.61395e-01,-7.29319e-02,
-5.22606e-01,2.05324e-02,-4.40912e-01,-8.80730e-01,-1.26120e+00,-8.21308e-01,-9.26733e-01,-6.77057e-01,-5.42085e-01,3.45908e+00,-1.30468e-01,-4.44126e-01,-6.47393e-01,
4.19623e-02,-8.04494e-01,-3.23273e-01,-5.15790e-01,-1.26525e+00,4.15835e-01,-1.03222e-01,-3.06730e-01,-1.08526e+00,-3.39773e+00,7.60832e-02,-7.54075e-01,-5.51443e-01,
-4.06116e-02,1.16499e-01,4.62952e-02,-1.93454e-01,-6.25473e-02,-2.37002e-02,-4.28517e-02,5.03856e-02,-3.02076e-01,1.45085e-01,1.12153e-01,-2.61285e-01,-8.28955e-03,
-2.72621e-02,-2.75595e-01,-5.43763e-03,-4.01029e-02,-6.71038e-02,-1.00546e-01,-7.29475e-02,-8.47767e-02,-2.32245e-01,1.48648e-01,-1.92080e-01,-1.78056e-01,-5.38694e-02,
-2.25121e-05,
-1.18880e-02,
6.11416e-01,
-3.37809e-01,
-1.31738e-01,
0.00000e+00,
-2.71445e-01,
3.87763e-01,
9.85613e-01,
-6.43115e-02,
-5.96189e-02,
4.75182e-02,
-6.55737e-02,
-4.39661e-02,
-5.64061e-02,
-3.73267e-05,
-1.15671e-01,
-1.87873e-05,
4.75651e-01,
0.00000e+00,
-9.85183e-01,
-1.90034e+00,
2.31136e+00,
2.66544e-01,
-4.43312e-01,
3.05230e-01,
8.92499e-02,
-6.13343e-02,
3.38157e-02,
0.00000e+00,
-6.13499e-02,
0.00000e+00,
-5.13888e-02,
0.00000e+00,
9.74692e+00,
-6.16895e-02,
-5.60330e-02,
-9.68846e-02,
-6.05045e-02,
-1.53722e-01,
4.50113e-05,
-5.57238e-01,
-1.85312e-01,
-6.90760e-02,
-6.55866e-02,
-3.99626e-01,
0.00000e+00,
-4.55333e-01,
-9.37760e-01,
-1.48895e+00,
-2.97372e-01,
4.79768e-01,
-7.32914e+00,
9.94064e-01,
-8.15819e-02,
-4.16237e-02,
0.00000e+00,
0.00000e+00,
-1.66849e+00,
-1.48204e-01,
7.66985e-01,
-5.21760e-02,
2.16598e+00,
1.72606e-01,
-2.97445e-02,
-7.17878e-02,
-4.42428e-01,
-6.26552e-02,
3.78215e-01,
-3.08502e-02,
4.11684e-02,
0.00000e+00,
-1.01202e-01,
-6.87765e-01,
2.32396e-01,
-1.24157e-01,
-5.99874e-02,
-2.66482e+00,
9.31528e+00,
4.09535e-01,
-2.00705e+00,
1.86936e-01,
3.06310e+00,
6.38570e-01,
-5.53254e+00,
3.70634e-01,
-7.07824e+00,
1.22165e-05,
2.22277e-01,
1.70606e-01,
-1.00258e+00,
0.00000e+00,
1.06598e+00,
0.00000e+00,
-3.70581e-01,
-5.99393e-02,
-1.33082e+00,
1.83326e-01,
-8.45061e-02,
-6.75629e-02,
1.26046e-01,1.07532e-01,-3.23438e-02,1.18638e-01,1.70930e-01,-8.74688e-02,5.65476e-02,1.94581e-01,1.96481e-01,2.63951e-02,-4.15143e-02,2.49406e-02,1.89821e-02,1.17669e-02,-5.58025e-02,1.56070e-01,7.25602e-02,1.96482e-01,-4.39259e-02,8.64378e-02,4.27206e-01,3.14284e-01,-1.16996e-01,2.95556e-02,-4.37832e-02,1.29620e-01,-1.45159e-01,1.42946e-02,-1.52981e-01,8.86708e-02,1.71703e-01,-1.15257e-01,-1.47182e-01,2.32304e-01,-1.65588e-01,7.47676e-02,-3.08862e-02,2.89252e-02,4.70948e-02,3.93104e-02,-1.76139e-01,9.89050e-02,-3.35734e-01,8.13620e-03,8.34750e-02,-3.73079e-02,-1.39924e-01,8.44203e-02,6.27662e-02,6.70826e-01,1.34660e-01,1.43731e-02,1.03123e-01,1.47806e-02,1.13126e-01,-1.31993e-01,1.34316e-01,5.23518e-03,8.14145e-01,3.20627e-02,1.98404e-01,1.02332e-01,-7.74530e-02,2.00507e-02,-1.40778e-01,1.31621e-02,-2.05377e-01,6.42644e-03,8.79287e-03,-1.24019e-01,-1.07002e-01,-1.56122e-01,-6.35683e-02,4.42218e-01,1.44635e-01,8.40476e-02,6.01382e-02,-1.93665e-02,-1.73191e-01,-1.44617e-01,7.78722e-01,2.89833e-01,-1.25302e-01,2.13037e-01,1.22221e-01,-1.00726e-01,1.24745e-01,2.51222e-02,-5.39394e-02,7.76275e-02,4.25330e-01,-5.62886e-02,-9.37158e-01,2.22256e-01,1.44811e-01,1.50510e-01,-9.05626e-02,-1.83245e-01,1.67404e-01,5.17380e-03,
-2.96578e+00,
