// Neural Network File Format by Kyle Julian, Stanford 2016
2,13,1,100,
13,100,1,
0,
10,0,0,1,0,0,0,0,0,0,0,1,0,
100,6,15,16,6,13,5,4,1,19,19,100,40,
10,0,0,1,0,0,0,0,0,0,0,1,0,0,
90,6,15,15,6,13,5,4,1,19,19,99,40,1,
-1.92314e-01,-2.02817e-01,4.91412e-02,1.14616e-01,5.54236e-02,2.03814e-01,-2.00201e-01,-2.95452e-02,-4.09149e-03,1.01524e-01,-1.94059e-01,-1.54934e-01,-2.10517e-01,
-1.26082e-01,-7.66039e-02,6.21083e-02,-2.52893e-01,4.98809e-02,-1.86769e-01,-1.38922e-01,-1.38739e-01,9.50592e-02,4.11041e-02,-1.81157e-01,3.71382e-02,-1.29478e-01,
-1.22566e-01,1.23994e-01,2.51386e-02,-4.14310e-01,-3.61518e-02,-7.76877e-02,-8.29225e-02,-2.08802e-01,-2.49105e-01,-2.26828e+00,-1.74147e-01,8.89122e-02,-3.59712e-01,
-3.95044e-01,-4.78312e-01,2.12825e-02,-5.46240e-01,-3.61232e-01,-2.12075e-01,4.74373e-01,-3.76649e-01,-1.38274e-01,-1.02081e-01,-1.69276e-01,-4.13612e-01,-1.12930e-01,
5.95216e-02,-8.36441e-02,6.18964e-03,-2.26324e-01,1.03179e-01,-4.12390e-02,-6.06963e-01,-4.02655e-01,-2.60146e-01,-6.29705e-01,4.08306e-01,-2.38387e-01,-3.32463e-01,
-1.07653e-01,1.54322e-02,-1.77009e-01,-1.02679e-01,-1.85399e-01,-3.05691e-02,-1.76344e-01,-6.74562e-02,-1.36148e-01,-5.40137e-02,1.00993e-01,-1.15845e-01,5.85756e-02,
-2.56281e-01,1.89274e-02,4.91826e-04,-4.20876e-02,-1.82582e-01,-3.02820e-01,-1.40139e-01,-3.17146e-01,-2.04476e-01,5.44113e-01,-1.01528e-01,-1.82833e-01,3.60833e-02,
-1.66347e-01,-5.76011e-01,-5.45210e-01,-1.13723e+00,1.47052e-01,-1.34438e-01,-5.66844e-01,-1.07215e+00,-9.30179e-01,-4.33580e+00,-4.67544e-01,-5.32747e-01,2.26991e-02,
-1.73915e-01,-3.08496e-01,-3.73781e-01,-1.05854e+00,1.24774e-01,1.05366e-01,5.72198e-01,-5.05318e-01,-1.12792e+00,-5.19964e+00,-5.87153e-01,-2.06100e-01,9.95961e-02,
-1.78547e-01,1.37108e-01,1.45251e-01,5.72245e-02,1.84841e-02,1.34437e-01,-1.91789e-01,-1.42801e-01,2.14267e-02,-3.11031e-01,7.39720e-02,-2.64761e-02,-5.53983e-02,
-1.72194e-01,9.30100e-02,-7.47188e-02,-1.03672e-01,3.05091e-02,-8.30880e-02,-1.04050e-02,-1.34122e-01,1.69015e-01,5.42066e-02,-2.00779e-01,-1.86065e-01,3.88203e-02,
8.82638e-02,-4.10020e-01,-5.45285e-02,-3.97430e-01,-7.50598e-01,-1.07310e-01,-2.16010e-01,-3.86474e-01,-6.31678e-01,-1.27217e+00,-1.64104e-01,-2.45624e-01,-1.51038e-01,
-2.20066e-01,-2.81994e-01,-1.20641e-01,1.79323e-02,-2.93895e-01,1.39168e-01,4.90354e-02,1.16967e-01,-1.60177e-01,1.23783e-02,6.12741e-02,4.48143e-02,1.97451e-02,
-4.17320e-02,1.06295e-01,-1.95827e-01,-1.66303e-01,1.17738e-01,-2.39321e-01,-1.80639e-02,-4.75813e-02,-5.54524e-02,-2.12490e-01,-2.71255e-01,1.53333e-02,2.21256e-02,
-2.12049e-01,-1.03367e-01,-1.73998e-01,4.34446e-02,-2.22773e-01,8.37665e-02,-5.04983e-02,5.20403e-03,1.61770e-01,-1.91133e-01,-8.45439e-02,-1.98153e-01,1.17259e-01,
-1.14305e-01,-5.96090e-02,9.68721e-02,-1.54565e-01,8.27769e-02,1.18613e-01,-2.27567e-01,1.67869e-01,3.59161e-02,1.95997e-01,-2.02018e-01,-1.54715e-01,-2.07168e-03,
1.11018e-02,-1.49028e-01,1.09658e-01,-1.59421e-01,-1.23776e-01,-9.64795e-02,1.54035e-01,-2.02078e-01,-3.40974e-01,3.74195e-01,-7.30512e-02,-8.80365e-02,-5.51156e-01,
-1.58254e-01,1.61157e-01,1.90701e-01,-6.14310e-02,4.13826e-02,-9.39749e-02,-2.00119e-01,1.67599e-01,-9.18883e-02,2.29225e-01,1.81479e-01,-1.58764e-01,-1.57898e-01,
-3.55819e-01,1.64595e-01,-1.93345e-01,-2.59784e-01,-6.10378e-02,-1.82957e-01,-7.05536e-02,-3.13462e-01,-3.01441e-01,-1.76196e+00,-4.32333e-01,8.02305e-02,6.33050e-03,
-1.94835e-01,1.19187e-01,-2.19724e-01,-1.62419e-01,1.91082e-01,1.65394e-01,2.27398e-01,-1.63495e-01,4.02295e-02,1.03412e-01,4.47373e-02,-1.03120e-01,-1.49611e-01,
-2.78088e-01,3.75991e-02,-3.53293e-01,-4.27972e-01,-4.14636e-01,-6.56134e-01,5.09298e-01,-4.76410e-01,-2.86634e-01,3.21349e+00,-3.91290e-01,-1.89068e-01,-4.49121e-01,
-4.04034e-01,-8.36239e-02,-4.16379e-01,3.17861e-01,-1.14385e+00,-2.85953e-01,8.10998e-01,-4.52203e-01,-7.17813e-01,2.36426e+00,3.00127e-01,-2.32840e-01,-4.90636e-01,
-1.96094e+00,-1.21308e+00,5.90692e-01,8.14550e-02,6.12767e-01,1.97968e-01,6.35398e-01,-5.03321e-01,-5.14485e-01,-1.60047e+01,-4.24377e-01,7.76608e-02,1.14784e+00,
-1.29641e-01,-3.75103e-02,-5.32831e-02,-3.04453e-01,9.68494e-02,-8.71642e-02,-2.57609e-01,-1.51249e-01,-4.37211e-01,-9.95415e-01,-1.96544e-01,3.82764e-02,-1.43478e-01,
-3.08965e-01,-2.27249e-01,-1.91840e-01,-3.58931e-01,-4.48908e-01,-4.83433e-01,8.92947e-02,-3.30511e-01,-2.97720e-01,6.65499e-01,-2.61999e-01,-2.82925e-01,-2.75657e-01,
-3.44726e-01,-5.75462e-01,-4.78006e-01,-7.53733e-01,8.10759e-01,-1.52833e-01,3.41857e-02,-4.21324e-02,-7.83558e-01,-3.08820e+00,-7.05988e-01,-3.91521e-01,1.35083e-01,
-3.10686e-01,-5.81720e-02,2.33237e-01,1.38713e-01,-7.35639e-03,1.16851e-01,1.81892e-02,-1.90307e-01,-1.50590e-01,-6.54344e-01,-2.65949e-01,-7.99623e-02,2.14976e-02,
-9.85868e-03,1.41879e-01,3.02747e-02,6.17570e-02,-2.46206e-01,-2.45529e-01,2.08812e-02,1.67556e-01,-8.33912e-02,8.63022e-02,-5.23030e-02,-1.45616e-01,-1.24091e-01,
4.50053e-02,-5.93918e-02,-3.16086e-01,1.08470e-01,6.94951e-02,5.72151e-01,-5.71476e-01,-1.72206e-01,7.79797e-02,-2.04931e+00,-8.55059e-02,-7.44220e-01,-8.38332e-01,
-1.55594e-01,-2.27327e-01,-2.87991e-02,-1.51194e-01,-3.32758e-04,-1.38890e-01,1.63515e-01,-5.49659e-02,1.93656e-01,1.96068e-01,-5.55876e-02,-2.05096e-01,-6.10179e-02,
-1.00868e-01,3.70852e-02,-1.08477e-01,-2.82117e-01,3.48971e-03,4.04201e-02,-1.64754e-01,-1.22389e-01,5.87910e-02,1.12950e-01,1.18734e-01,-6.82043e-02,3.02198e-02,
-1.65685e-01,2.99004e-02,6.32998e-02,-1.26682e-01,-1.09309e-01,9.23940e-02,-1.12508e-01,-1.70638e-01,-1.30489e-01,2.07600e-01,1.22285e-01,-1.45667e-01,-1.69551e-01,
-2.73070e-01,-2.62702e-01,7.11293e-04,1.51313e-01,-9.08011e-02,-1.22158e-01,-1.24879e-01,1.38382e-01,6.73083e-02,1.10579e-01,7.04318e-04,-1.55982e-02,-6.46726e-02,
-1.40952e-01,2.41544e-02,3.32196e-02,2.12609e-01,-1.15876e-01,-2.11599e-01,-2.03435e-01,-1.34234e-01,1.67649e-01,6.34103e-02,3.07674e-02,-1.05121e-01,-7.03436e-02,
-7.72087e-01,2.11036e+00,4.73386e-01,3.28548e-01,4.53925e+00,-7.54515e-01,1.60432e+00,1.59136e+00,2.21308e+00,-8.95464e+00,-3.96165e-01,-4.15694e-01,-5.12029e-01,
-1.72918e-01,-2.57703e-02,1.65414e-01,3.40840e-02,-2.10415e-01,-1.59246e-01,-1.46827e-01,1.06024e-01,-2.86291e-01,-1.19586e-01,2.05717e-01,-1.26305e-01,4.64860e-02,
-1.56686e-01,-8.62171e-02,-1.19251e-01,-2.30279e-01,1.69775e-01,1.06514e-01,-4.87541e-02,-1.03118e-02,1.30742e-01,1.56399e-01,1.01280e-01,-1.90112e-02,5.00934e-02,
-2.05422e-01,-1.53361e-02,-8.34414e-02,-2.53726e-01,-3.00067e-01,-1.28047e-01,-1.34965e-02,-1.07289e-01,-3.10993e-01,-1.27453e-01,-3.02098e-02,9.72393e-02,-2.61052e-01,
-2.42896e-01,-1.04686e-01,-1.42704e-01,-1.96243e-01,1.16291e-01,1.55336e-01,-7.76455e-02,-4.66276e-02,1.64207e-01,1.11130e-02,-2.13049e-01,-2.68699e-01,1.19839e-01,
-1.00987e-01,-1.85373e-01,-1.39181e-01,-4.08449e-02,-7.48173e-02,4.03801e-02,1.22109e-02,-1.86002e-01,-2.69524e-01,4.69470e-01,1.27485e-01,3.05640e-02,-2.64000e-01,
-2.05189e-01,-2.07973e-01,1.17865e-03,1.18615e-01,2.02918e-01,3.03882e-02,1.93823e-01,1.34664e-01,3.28834e-03,1.98607e-01,-1.36999e-01,-5.17044e-02,-1.62636e-01,
-1.30353e-01,-3.52132e-01,-5.51518e-01,-4.37512e-01,-2.12566e-01,-4.74805e-01,-4.85021e-01,-4.96177e-01,-2.01602e-01,1.72497e+00,-1.47956e-01,-2.30047e-01,-2.41548e-01,
-4.30655e-01,-3.22548e-01,-2.46692e-01,-1.44569e-01,-4.71609e-02,-5.21070e-01,-5.72275e-01,-1.19264e-01,-2.49212e-01,6.73269e-01,1.76966e-02,-1.64701e-01,6.84994e-02,
-7.21912e-02,-1.43965e-01,1.03448e-01,-2.63916e-01,-1.95472e-01,-1.83798e-01,4.70257e-01,2.59264e-02,-9.18210e-02,-6.67086e-02,-1.01704e-01,7.46260e-03,-4.85522e-03,
-7.86843e-02,-1.69657e-01,-1.47403e-01,-1.66838e-01,-2.46560e-01,-1.71116e-01,-2.31942e-01,-3.70738e-02,-1.99097e-01,8.10896e-02,3.03432e-04,-2.83193e-01,1.57099e-01,
-2.63273e-03,-8.37475e-03,1.40057e-02,-2.06305e-01,-3.81762e-02,-9.88204e-02,-1.94781e-02,-4.98268e-01,-1.87960e-01,3.03309e-01,3.46997e-02,-2.43059e-01,2.71845e-02,
-1.34872e-01,1.68944e-01,-6.35666e-03,-1.39610e-01,-1.66353e-01,-1.40491e-01,-1.81457e-02,-3.83521e-02,5.77057e-02,4.45524e-03,6.61959e-02,-2.28013e-01,-1.60614e-01,
-3.98460e-01,-2.92051e-01,-2.76810e-01,-1.23750e-01,-2.24161e-01,-2.48975e-01,-2.87437e-01,-4.58254e-01,-2.04230e-01,1.34886e+00,-1.96717e-01,-1.81151e-01,-1.57025e-01,
-3.23679e-01,1.23682e+00,-3.12848e-01,2.94450e-01,-1.64557e+00,-1.69037e-01,1.74627e+00,1.54647e-01,-4.73638e-01,4.86380e-02,1.26280e+00,-8.60477e-01,-1.54264e-01,
-4.70752e-01,-5.08966e-01,-5.23441e-01,3.40363e-01,-7.32968e-01,-2.16352e-01,-7.54269e-01,-1.00774e+00,-6.94047e-01,4.00438e+00,-1.31143e-01,-2.04554e-01,-2.83014e-01,
-3.19015e-01,-1.06456e-02,-6.17015e-01,-4.26937e-01,-4.64262e-01,-3.89724e-01,-2.82449e-01,-8.92615e-02,-3.83661e-01,-3.67224e-01,2.44697e-01,-6.15443e-01,-5.29989e-02,
-4.62480e-01,-4.18737e-01,-1.24830e-01,-2.44073e-01,4.21875e-01,-1.14691e-01,2.09011e-01,-3.99199e-01,-3.53440e-01,-1.77949e+00,-2.12808e-01,-1.66637e-01,1.43846e-01,
9.09849e-02,-8.40073e-01,-9.45479e-02,1.61998e+00,-2.16365e+00,-4.04637e-02,1.87010e+00,3.18125e-01,5.87807e-01,1.05549e+01,1.86986e+00,-2.37466e-02,-6.17838e-02,
1.95213e-02,-1.41533e-02,4.52845e-03,-9.42352e-01,2.76344e-01,4.66301e-02,-1.57789e-01,-4.17615e-01,-4.53299e-01,-4.27343e+00,-1.68283e-01,-2.24213e-01,-1.58751e-02,
-1.74126e-03,4.02252e-02,4.30452e-02,-7.53343e-02,-2.59082e-01,-1.01531e-01,-3.19420e-02,-2.64134e-03,1.15568e-01,-1.52276e-01,-9.05332e-02,-2.08644e-01,-1.39459e-01,
-1.65612e-01,-2.31696e-01,-7.92361e-02,1.71232e-01,-5.94455e-02,4.64929e-02,3.97591e-02,-6.41984e-02,6.94728e-02,-4.38400e-02,2.06496e-02,-1.79282e-02,-6.04368e-02,
-1.44112e-01,1.78337e-01,-3.21165e-03,1.61746e-01,-6.00597e-02,1.22017e-01,1.67464e-01,1.55290e-01,-2.13269e-01,-1.97555e-01,1.61163e-01,-2.16495e-01,-2.02737e-01,
-8.49243e-02,8.08694e-02,-5.80995e-02,-7.13430e-02,2.38591e-02,-2.18507e-01,-1.98039e-01,2.53232e-02,4.07979e-04,4.10733e-02,2.29769e-01,-1.35104e-01,-9.04079e-02,
-4.90685e-01,-3.13114e-01,-3.69602e-01,1.56844e-01,-7.56204e-01,-3.83957e-01,1.27682e-02,-4.70014e-01,-4.57179e-02,3.36161e+00,-1.01156e-01,-2.31054e-01,-3.74501e-01,
-9.93641e-02,-1.32868e-01,-1.71807e-01,-3.98009e-02,-1.33655e-01,5.24518e-02,2.21158e-02,-1.83377e-01,-1.32719e-01,-3.32148e-01,1.51620e-01,4.42427e-02,-2.57153e-01,
-4.84115e-01,-1.62246e-01,-2.59870e-01,-4.34123e-01,3.27872e-01,-1.65030e-01,-8.31534e-02,-3.88605e-02,-9.85556e-02,-2.53497e+00,-5.74182e-01,1.76868e-01,-2.27631e-01,
-2.47187e-01,1.05477e-01,-5.84510e-02,-2.21727e-02,1.59938e-01,-2.24854e-03,1.27844e-02,-1.78800e-01,8.84947e-02,1.17780e-01,1.28989e-01,3.36307e-02,-2.71132e-01,
8.02101e-01,-8.54167e-01,-1.72056e-01,-7.58110e-02,-1.07164e+00,-2.48564e-01,-1.03631e+00,-1.99261e+00,-3.68928e+00,-1.80327e+01,5.20139e-02,-5.05595e-01,-1.70620e-01,
1.84523e-02,-3.54710e-01,-3.59018e-01,-2.75544e-02,-3.10102e-01,1.52299e-02,-3.04588e-01,-1.99641e-01,-1.05682e-01,-1.10724e+00,-3.73349e-01,1.53565e-02,-1.06239e-01,
-2.16692e-01,-1.26996e-01,1.95101e-01,1.01836e-01,-4.85171e-02,-1.91351e-01,-4.63824e-02,1.60435e-02,1.30265e-01,-2.90864e-01,-4.95495e-02,-2.22872e-02,8.16810e-03,
-7.26322e-02,-1.14826e-01,-2.49780e-02,-2.26774e-01,6.89175e-02,5.93781e-02,1.37762e-01,-1.46974e-01,5.45815e-02,-2.73217e-01,1.45644e-01,4.29854e-02,-2.16847e-01,
-1.70298e-01,-7.20846e-02,-5.97209e-01,-3.93077e-01,-1.70897e-01,-2.41346e-01,-5.25987e-01,-2.11844e-01,-7.06561e-02,1.36756e+00,-3.72877e-01,-2.69872e-01,-2.60365e-01,
-2.22642e-02,-1.10640e-01,-2.64994e-01,5.14964e-02,-2.02651e-01,-2.70496e-02,6.67613e-02,3.61961e-03,6.38297e-02,-1.77231e-01,-1.84809e-01,-1.64591e-01,3.80141e-02,
-8.37436e-01,-3.62169e-01,9.51478e-02,-1.16460e-01,1.27238e+00,-2.86152e-01,1.69409e-01,1.50382e-01,-6.57056e-01,-1.19940e+00,-2.31105e-01,-2.73568e-01,2.63165e-01,
-1.54488e-01,-6.38421e-02,-3.02293e-01,-8.28781e-02,1.86710e-01,-1.52761e-01,-1.48474e-01,1.79994e-01,-7.69173e-02,1.69697e-01,2.95951e-03,3.45382e-02,-5.43453e-02,
-5.95205e-03,-1.77605e-01,-2.12426e-01,7.78372e-03,-3.95002e-01,-2.01713e-01,1.44702e-01,-2.43931e-01,6.25517e-02,-4.39136e-01,2.69058e-01,-4.75081e-02,-1.16253e-01,
-5.63504e-02,-8.19526e-02,-7.34113e-02,-9.01525e-02,1.93409e-01,-3.92574e-02,1.72813e-01,-1.37286e-01,-1.79289e-01,-6.87704e-02,1.50491e-02,-5.70787e-02,-1.28533e-01,
-2.51950e-01,-7.03405e-02,5.36603e-02,-2.93433e-01,-3.28300e-01,-1.63339e-01,-1.79800e-01,-2.65007e-01,-7.55838e-02,2.14210e-01,1.40336e-02,-9.11819e-02,-2.14130e-01,
-3.78593e-01,-2.21962e-01,-5.25500e-02,4.08494e-01,-2.89433e-01,-7.24053e-01,-6.92182e-01,-4.23512e-01,-7.22401e-01,2.99107e+00,-5.03123e-01,-2.31886e-01,-3.17868e-01,
3.47200e-02,-4.63276e-01,-3.34773e-01,-5.10393e-01,1.84478e-01,-3.89048e-01,-5.38559e-01,-8.81156e-01,-1.28743e+00,-3.19582e+00,4.56783e-01,-6.59441e-01,-7.97159e-03,
3.39486e-02,-2.18716e-01,-1.76864e-01,-1.56468e-02,3.51908e-02,1.83138e-02,-2.72716e-01,3.12857e-02,8.34400e-02,-3.75269e-02,-1.13726e-01,-2.23956e-01,-2.50235e-01,
-3.42208e-02,-6.38253e-02,-2.39008e-01,-2.00246e-01,2.81001e-02,-2.69786e-01,1.52658e-01,-7.45170e-02,5.21487e-02,-3.48177e-02,1.89159e-02,-2.64557e-01,4.72325e-02,
-4.16592e-01,-1.55502e-02,-1.17526e-01,6.62907e-01,-1.61523e+00,-3.86149e-01,1.89555e+00,-6.22453e-03,1.99432e-01,2.16761e+00,4.88676e-01,-9.95158e-01,-2.61397e-02,
-1.57837e-01,-1.52133e-01,2.89853e-01,1.29241e-01,-2.03115e+01,-1.40410e-01,3.69052e+00,1.21768e+00,-4.24157e+00,-5.25897e+00,2.05008e-01,-2.67999e-01,1.93552e-01,
-8.31873e-02,-1.16766e-01,1.32810e-01,4.16575e-02,-3.28412e+00,-4.77038e-01,1.46791e-01,-3.84584e-01,-1.47187e+00,-8.50241e-01,-1.12548e-01,-1.85915e-01,-3.79427e-01,
-4.43723e-01,1.26183e-01,-4.91467e-01,1.07685e-02,-9.70429e-01,-7.46423e-01,-3.38155e-01,-5.62685e-01,-8.17425e-01,4.35252e+00,-1.76962e-01,-4.03599e-02,-5.17994e-01,
-2.07788e-01,-3.67422e-01,-1.09407e-01,-2.20896e-01,4.84100e-01,-1.30881e-01,-4.81588e-01,-2.54749e-01,-6.59469e-01,-1.24834e+00,3.28596e-01,-3.20983e-01,1.72731e-01,
-5.59156e-01,-9.91927e-01,-1.86573e-01,-8.40683e-01,3.85294e+00,-3.33666e-01,-1.11961e+00,-1.39878e+00,-3.91236e+00,-1.65031e+01,-1.65487e-01,-5.23703e-01,1.47393e+00,
-3.95648e-01,-2.30599e-01,1.35915e-01,-4.00023e-01,6.41221e-01,2.18796e-01,2.31447e-01,6.39414e-02,-1.62524e-01,-1.69676e+00,-3.69028e-01,-2.43762e-01,1.02730e-01,
3.51982e-02,-9.10429e-01,2.89976e-01,1.05105e+00,1.44437e+00,-5.43167e-02,-1.36562e+01,-4.84308e-01,1.77785e-01,6.10441e+00,-4.18021e-01,5.47853e-02,1.29311e-01,
-9.21286e-02,-2.67334e-01,-3.54224e-01,-2.71395e-01,9.49353e-01,1.66432e-01,9.69284e-02,3.40404e-01,-6.43549e-02,-6.89160e-01,-1.10692e-01,-2.42641e-01,-3.70529e-01,
-1.70655e-01,-2.28932e-01,2.83818e-01,1.44273e+00,-4.02489e+00,-3.34118e-01,4.09075e+00,8.43134e-01,-3.25270e+00,7.45383e-02,-3.90968e-01,-1.88498e-01,4.43583e-02,
-1.32262e-02,-7.35851e-02,-7.07065e-02,5.98329e-03,9.62286e-02,1.91598e-01,2.79606e-02,-1.92363e-01,-4.81207e-02,-1.45304e-01,-2.10028e-01,-5.10956e-02,-1.81691e-01,
-3.21609e-01,-2.03308e-01,1.13954e-01,4.77344e-02,-2.03197e-01,-1.09158e-01,-1.28926e-01,-6.16010e-02,-2.80580e-01,-9.64997e-01,-5.34618e-02,4.61696e-02,3.94220e-02,
4.06036e-02,-2.92354e-01,-1.88998e-01,-2.16972e-01,-2.61843e-01,-1.73602e-01,-8.93380e-02,-3.24446e-01,-1.45954e-01,-9.74535e-01,1.59430e-01,-1.32068e-02,-1.43533e-01,
-5.06072e-01,-2.31924e-01,-4.46488e-01,-1.22780e-01,-8.03113e-01,-5.41473e-01,-6.96410e-01,-9.64691e-01,-8.93752e-01,2.70167e+00,-3.30892e-01,-3.62948e-01,-4.40556e-01,
-1.82600e-02,-9.50743e-02,4.90485e-03,-3.03270e-02,-2.11681e-01,-1.55656e-01,-1.71583e-01,1.49921e-01,-1.99238e-01,8.11419e-03,-2.02529e-01,-8.02435e-02,-1.53556e-04,
-9.64427e-01,2.16798e-02,-3.65383e-01,-2.27585e+00,1.23364e+00,-7.77276e-01,1.06159e+00,1.61310e+00,2.00828e+00,3.45470e+00,-4.11124e-02,-9.66230e-01,2.68030e-01,
-2.18608e-01,1.53023e-01,-2.16110e-02,5.86276e-02,-1.09182e-01,-7.12324e-02,1.34387e-01,3.16979e-03,-1.57090e-01,-2.80860e-02,-1.96011e-01,2.32442e-02,-2.26406e-01,
-1.76852e-01,-3.16963e-01,-1.80912e-01,-1.54088e-01,-4.78838e-01,-4.72867e-01,4.16417e-01,-5.33172e-01,-2.46331e-01,1.64997e+00,-7.12363e-02,-2.35132e-01,-3.92495e-01,
-2.83373e-01,-8.56585e-02,7.69893e-02,4.36385e-02,6.79862e-02,7.37831e-02,-4.97767e-02,1.40837e-01,-2.07584e-01,1.73871e-01,-1.63587e-01,-2.61395e-01,-7.29319e-02,
-5.22669e-01,2.04690e-02,-4.40961e-01,-8.80788e-01,-1.26124e+00,-8.21362e-01,-9.26794e-01,-6.77090e-01,-5.42128e-01,3.45908e+00,-1.30539e-01,-4.44194e-01,-6.47441e-01,
4.19623e-02,-8.04494e-01,-3.23273e-01,-5.15790e-01,-1.26525e+00,4.15835e-01,-1.03222e-01,-3.06730e-01,-1.08526e+00,-3.39773e+00,7.60832e-02,-7.54075e-01,-5.51443e-01,
-4.06072e-02,1.16469e-01,4.62590e-02,-1.93471e-01,-6.25668e-02,-2.36802e-02,-4.29129e-02,5.03596e-02,-3.02113e-01,1.45071e-01,1.12142e-01,-2.61308e-01,-8.32088e-03,
-2.72621e-02,-2.75595e-01,-5.43763e-03,-4.01029e-02,-6.71038e-02,-1.00546e-01,-7.29475e-02,-8.47767e-02,-2.32245e-01,1.48648e-01,-1.92080e-01,-1.78056e-01,-5.38694e-02,
0.00000e+00,
-1.18905e-02,
6.11436e-01,
-3.37809e-01,
-1.31656e-01,
0.00000e+00,
-2.71438e-01,
3.87763e-01,
9.85613e-01,
-6.43115e-02,
-5.96189e-02,
4.75182e-02,
-6.54656e-02,
-4.39872e-02,
-5.64061e-02,
0.00000e+00,
-1.15620e-01,
0.00000e+00,
4.75651e-01,
0.00000e+00,
-9.85081e-01,
-1.90029e+00,
2.31136e+00,
2.66544e-01,
-4.43312e-01,
3.05230e-01,
8.92499e-02,
-6.13073e-02,
3.37722e-02,
0.00000e+00,
-6.12921e-02,
0.00000e+00,
-5.13888e-02,
0.00000e+00,
9.74692e+00,
-6.17173e-02,
-5.60621e-02,
-9.68434e-02,
-6.05058e-02,
-1.53637e-01,
0.00000e+00,
-5.57172e-01,
-1.85312e-01,
-6.91699e-02,
-6.55948e-02,
-3.99630e-01,
0.00000e+00,
-4.55285e-01,
-9.37720e-01,
-1.48891e+00,
-2.97372e-01,
4.79768e-01,
-7.32914e+00,
9.94064e-01,
-8.15819e-02,
-4.16237e-02,
0.00000e+00,
0.00000e+00,
-1.66844e+00,
-1.48120e-01,
7.66973e-01,
-5.21465e-02,
2.16598e+00,
1.72606e-01,
-2.97445e-02,
-7.17492e-02,
-4.42474e-01,
-6.26552e-02,
3.78215e-01,
-3.08665e-02,
4.11343e-02,
0.00000e+00,
-1.01202e-01,
-6.87638e-01,
2.32396e-01,
-1.24138e-01,
-5.99874e-02,
-2.66482e+00,
9.31528e+00,
4.09535e-01,
-2.00705e+00,
1.86936e-01,
3.06310e+00,
6.38570e-01,
-5.53254e+00,
3.70621e-01,
-7.07824e+00,
0.00000e+00,
2.22295e-01,
1.70624e-01,
-1.00254e+00,
0.00000e+00,
1.06598e+00,
0.00000e+00,
-3.70501e-01,
-5.99393e-02,
-1.33087e+00,
1.83326e-01,
-8.45288e-02,
-6.75629e-02,
1.26068e-01,1.07533e-01,-3.23646e-02,1.18638e-01,1.71009e-01,-8.74688e-02,5.65736e-02,1.94581e-01,1.96481e-01,2.63951e-02,-4.15143e-02,2.49406e-02,1.90749e-02,1.17455e-02,-5.58025e-02,1.56109e-01,7.25961e-02,1.96482e-01,-4.39259e-02,8.64378e-02,4.27323e-01,3.14358e-01,-1.16822e-01,2.95556e-02,-4.37832e-02,1.29620e-01,-1.45159e-01,1.43173e-02,-1.52944e-01,8.86708e-02,1.71758e-01,-1.15257e-01,-1.47182e-01,2.32304e-01,-1.65573e-01,7.47363e-02,-3.08454e-02,2.89554e-02,4.70807e-02,3.93874e-02,-1.76102e-01,9.89691e-02,-3.35734e-01,8.05598e-03,8.34729e-02,-3.72924e-02,-1.39924e-01,8.44541e-02,6.28109e-02,6.70928e-01,1.34660e-01,1.43731e-02,1.03419e-01,1.47806e-02,1.13126e-01,-1.31993e-01,1.34316e-01,5.23518e-03,8.14230e-01,3.21399e-02,1.98397e-01,1.02356e-01,-7.71766e-02,2.00507e-02,-1.40778e-01,1.32012e-02,-2.05335e-01,6.42644e-03,8.79313e-03,-1.24021e-01,-1.06998e-01,-1.56122e-01,-6.35683e-02,4.42350e-01,1.44635e-01,8.40639e-02,6.01382e-02,-1.93191e-02,-1.72765e-01,-1.44617e-01,7.78824e-01,2.89833e-01,-1.24654e-01,2.13037e-01,1.22736e-01,-1.00711e-01,1.24964e-01,2.51100e-02,-5.39597e-02,7.76523e-02,4.25373e-01,-5.62886e-02,-9.37201e-01,2.22256e-01,1.44876e-01,1.50510e-01,-9.05038e-02,-1.83245e-01,1.67366e-01,5.17380e-03,
-2.96577e+00,
