// Neural Network File Format by Kyle Julian, Stanford 2016
2,13,1,50,
13,50,1,
0,
10,0,0,1,0,0,0,0,0,0,0,1,0,
100,6,15,16,6,13,5,4,1,19,19,100,40,
10,0,0,1,0,0,0,0,0,0,0,1,0,0,
90,6,15,15,6,13,5,4,1,19,19,99,40,1,
-9.85871e-02,-1.55848e-01,-1.99704e-01,-3.29583e-01,-7.17728e-02,3.41382e-02,-4.98864e-02,-1.59489e-02,-6.74815e-02,-4.70276e-02,2.29992e-01,-6.10492e-03,-3.91612e-02,
-4.20688e-01,-7.15918e-02,1.30283e-01,-8.93989e-01,-1.61164e+01,-1.90717e-01,2.65966e+00,-1.02704e-01,-2.16820e+00,-5.58287e+00,7.50543e-01,-4.35094e-01,1.19048e+00,
-1.15731e-02,-1.07960e+00,-2.26869e-02,1.79137e+00,1.95135e-01,-1.90830e-01,3.04111e+00,3.57370e-01,7.70993e-01,9.28509e+00,1.36920e+00,-7.12753e-02,3.52947e-02,
-2.94843e-01,5.48162e-02,2.28095e-01,-9.90760e-02,-1.18599e-01,3.87308e-02,-7.27587e-02,2.64462e-01,-2.03180e-01,1.40772e-01,-1.93466e-01,3.27152e-02,-6.31479e-02,
5.09487e-01,-2.02685e+00,-6.20470e-01,-2.95909e-01,-2.68844e+00,1.42595e+00,1.04365e+00,-4.91012e-01,-2.04267e+00,-4.04348e+00,6.02489e-01,-1.71315e+00,-8.12728e-01,
-2.23578e-01,1.40907e+00,2.77206e-01,8.33315e-01,-4.07846e+00,-5.56684e-01,2.35127e+00,9.06045e-01,-3.43230e-01,1.89923e+00,1.59881e+00,-8.93137e-01,5.04577e-01,
-3.41514e-01,1.83161e-01,-8.44256e-02,-5.97409e-01,4.61576e-02,-2.13215e-01,-1.13434e-01,-4.90066e-01,-6.95200e-01,-2.14219e+00,-1.52066e-01,-2.10331e-01,1.28549e-01,
-2.44780e-01,-1.52069e-01,5.82280e-02,-2.30169e-01,6.52406e+00,-1.00717e-01,-1.95935e-01,-8.55147e-02,1.25674e+00,-7.88345e+00,-9.48455e-02,-1.75702e-01,-2.33064e-02,
-2.50247e-01,-2.35883e-01,-1.94235e-02,-2.66544e-01,-2.66538e-01,2.12718e-01,-2.55462e-01,-1.59112e-01,-3.58397e-01,2.41815e-01,4.11553e-01,6.15408e-02,-5.08309e-01,
-2.06774e-01,1.75986e+00,1.16677e-02,-1.08541e+00,-1.93143e-02,-3.12137e-01,-1.66382e+00,-2.85674e-01,-2.12381e+00,7.44421e+00,-2.97288e-01,-1.09437e-01,-1.94282e-01,
-8.66104e-02,9.96804e-02,-2.96657e-01,2.60996e-01,6.52184e-02,-1.47732e-01,-1.42558e-01,1.79468e-01,1.06800e-01,-1.97392e-01,2.81996e-01,-2.46059e-01,-8.14760e-02,
-3.04355e-01,-5.35667e-01,-6.16359e-01,4.96778e-01,-8.54016e-01,-7.12061e-01,-1.88276e+00,-9.68131e-01,-1.32704e+00,5.14159e+00,3.38547e-02,-3.12670e-01,-5.26940e-01,
-8.46618e-02,2.82899e-02,2.87438e-02,8.44741e-02,-9.59435e-02,-2.79378e-01,-2.17970e-01,-2.58168e-01,-1.62920e-01,-9.25718e-02,6.71052e-02,-2.76665e-01,-1.71374e-01,
-1.41948e-01,-8.75531e-02,-3.48279e-02,-5.02008e-01,-6.27218e-01,1.35252e-01,-2.70026e-01,-6.51221e-02,-7.06910e-01,-3.24075e+00,-1.10066e-01,9.04844e-02,-2.31863e-01,
-2.89872e-03,2.38157e-01,5.79954e-02,-1.29376e-01,-2.09558e-01,1.65957e-01,-8.65174e-02,1.17359e-02,1.48481e-01,8.16207e-02,1.86847e-01,-2.17888e-01,-1.59166e-01,
1.66643e-03,-2.10692e-01,-3.66148e-01,-2.70016e-01,-7.98846e-02,-2.43055e-03,-2.81865e-02,-3.25409e-01,-1.54577e-01,-2.48744e+00,-1.85255e-01,1.83805e-02,-1.63159e-01,
-1.12470e-01,1.58295e-01,-2.03107e-01,-2.19380e-01,8.26069e-02,9.50970e-02,1.98936e-01,-1.21511e-01,-2.14926e-01,-8.39749e-02,1.12327e-01,-4.48394e-02,-1.44518e-01,
-1.17186e-01,2.21093e-02,-3.02955e-01,1.87924e-01,-7.54777e-02,-1.31674e-01,2.49072e-01,-1.59732e-01,-2.22467e-01,3.05139e-01,-2.02704e-01,-1.89705e-01,-1.34205e-01,
-1.58503e+00,-5.23452e-01,-2.93911e-01,-9.78322e-01,2.54617e+00,-2.58794e-01,1.14792e+00,1.38052e+00,2.28996e+00,3.72192e+00,1.30609e+00,-1.08923e+00,6.21175e-01,
-1.92180e-02,-4.98693e-01,-2.54368e-02,-3.30477e-01,-1.70389e-01,-9.51593e-02,-1.04611e+00,-1.41186e-01,2.15801e-01,5.47281e-01,1.33001e-01,-5.70734e-02,-4.11299e-01,
-1.54912e-01,1.50324e-01,1.11998e-01,8.62774e-02,-1.72074e-01,5.43649e-02,-1.17092e-01,-3.04799e-01,-1.01206e-01,-2.74424e-01,2.65392e-01,-1.22822e-01,1.08668e-02,
1.42409e-01,-1.16814e+00,-4.86377e-01,-8.11653e-01,-2.62265e-01,1.49256e-01,-3.72784e-01,-4.00416e-01,1.83934e-03,-1.07644e+00,-3.50463e-03,-9.08708e-01,-5.96549e-01,
-1.06183e-01,-5.43677e-02,-3.62108e-03,-2.92494e-02,-1.39408e-01,-5.19141e-01,-4.35378e-01,-9.00073e-02,-2.43516e-01,-8.38245e-01,2.25544e-02,-1.42115e-01,1.14459e-01,
-2.78440e-01,3.52402e-02,-1.70280e-01,-3.03630e-01,-7.64440e-01,-1.84979e-01,-5.45281e-02,-6.96494e-03,-5.24415e-01,-9.60243e-01,-1.61433e-01,-1.67716e-01,1.71604e-01,
-3.33792e-01,-2.92478e-01,-2.19729e-02,-4.69229e-01,-5.54604e-01,-4.66709e-02,-8.81800e-01,-6.30954e-01,1.26001e-01,4.87270e-01,1.37344e-01,-3.03709e-01,-3.49116e-01,
7.36904e-01,-3.99442e-01,-3.20102e-02,1.32140e-02,-2.85942e+00,-3.58156e-01,-3.44775e-01,-1.27304e+00,-4.59511e+00,-1.42975e+01,-5.13891e-03,-4.82907e-01,-2.07610e-01,
-3.06716e-01,-2.66545e-01,-2.64436e-01,3.02994e-01,-7.50800e-01,3.95288e-02,-9.08931e-01,-4.87356e-01,-1.38312e+00,5.10791e+00,6.77105e-02,-1.98688e-01,-4.49129e-01,
-1.06355e-01,-2.63044e-01,5.02065e-03,-1.34446e-01,-8.65692e-02,1.13404e-03,-1.32572e-02,-2.80385e-01,-6.06096e-03,-2.10905e-01,-3.04496e-01,-2.64373e-01,4.24026e-02,
-6.26391e-02,-2.81091e-01,-5.65773e-02,1.58966e-01,7.81747e-02,-2.86642e-01,-2.50380e-01,5.66162e-02,3.07508e-01,-2.66197e-01,1.16468e-01,-2.32030e-01,2.70928e-02,
-4.42321e-01,-6.03171e-01,-2.03919e-01,-5.88266e-01,-5.76018e-01,-1.14805e-01,-6.20230e-01,7.39920e-02,-2.31721e-01,-3.60525e+00,-4.14776e-01,-2.73831e-01,4.63304e-01,
-7.04771e-01,5.07055e-01,-5.96142e-01,-1.17657e+00,-2.67092e-01,-8.48686e-01,-1.49153e+00,-8.06958e-01,-1.47504e+00,4.79176e+00,-3.98651e-01,-5.32098e-01,-6.58919e-01,
-2.64782e-01,-7.15219e-01,-5.52684e-01,-2.00075e-01,-5.40547e-01,-2.03045e-01,2.76928e-01,-4.70677e-01,4.45383e-02,1.82660e+00,-1.16894e-01,-1.11649e-01,-2.61360e-01,
-4.26575e-01,-8.20687e-01,-3.29090e-01,-6.52151e-01,3.00628e+00,-3.41110e-01,-1.21209e+00,-1.58947e+00,-4.51074e+00,-7.91871e+00,-1.30355e-01,-6.35360e-01,1.47189e+00,
-3.62057e-01,-2.62480e-01,-3.44569e-02,-2.07714e-01,1.12586e-01,-2.60644e-01,1.24665e-01,-3.69569e-01,1.83994e-01,-1.04245e-01,-2.59575e-02,1.58660e-01,-1.81832e-01,
-2.23343e+00,-1.74135e+00,7.57836e-01,3.39679e-01,2.11962e+00,4.20320e-02,5.37372e-03,-6.55911e-01,1.01565e+00,-4.81847e+00,-5.86573e-01,9.54423e-02,1.15838e+00,
-1.50809e-01,4.11739e-02,-6.49435e-02,5.48274e-02,2.71398e-01,-1.55300e-02,-2.76795e-01,-1.51167e-01,1.70104e-01,2.21356e-01,6.44988e-03,-2.15504e-01,-1.36961e-01,
-1.05750e-01,3.05044e-01,-2.76491e-01,9.51923e-02,1.23844e-01,8.33095e-02,5.93196e-02,-2.15536e-01,-1.90200e-01,2.26316e-01,2.14293e-01,-2.20787e-01,-2.25659e-01,
3.28486e-02,-4.42304e-01,2.95553e-01,6.73688e-01,2.23516e+00,9.41407e-02,-1.02978e+01,-5.19234e-01,1.57455e+00,7.73722e+00,-2.26713e-01,1.30249e-01,-3.36018e-03,
-1.79330e-01,-2.80467e-01,-4.84383e-02,2.00700e-01,1.59656e-01,1.21011e-01,-4.90214e-02,-2.54460e-04,2.77951e-01,-1.64989e-01,-2.26815e-01,-2.60031e-01,-9.71600e-02,
-4.92091e-01,8.83133e-01,9.70101e-02,2.76688e-01,-2.49203e+00,-7.74830e-01,1.30382e+00,3.88724e-02,-6.53810e-01,-6.99853e-01,1.21706e+00,-7.94670e-01,1.17669e-01,
-4.52283e-01,-1.04234e-01,1.56275e-02,-6.53640e-02,2.21443e-04,-3.30210e-01,-3.60566e-01,-1.92970e-01,-2.53587e-01,4.74528e-01,1.40684e-02,8.83314e-02,-9.97242e-02,
-1.34433e-01,-1.78821e-02,-3.82187e-01,-6.30064e-01,-3.51609e-01,-1.00053e-01,-9.18398e-02,-1.86671e-01,-4.57205e-01,-4.42475e+00,-2.06535e-01,-1.08599e-01,1.01457e-01,
-8.11661e-02,1.72414e-01,2.76405e-02,2.45562e-01,-2.45109e-01,-1.48792e-01,-1.79530e-01,-2.07015e-01,1.70189e-01,-3.05800e-01,-2.06109e-01,-4.77825e-02,-8.26735e-02,
-1.67363e-02,-3.98603e-02,-2.47264e-02,7.11283e-02,-3.81729e-01,-3.42711e-01,-2.82879e-01,-7.31590e-02,-2.68844e-01,5.24114e-02,-2.22774e-01,-2.44253e-01,2.55122e-02,
-2.12605e-01,-7.85553e-02,-1.83665e-01,3.73236e-02,1.85464e-01,-2.64072e-02,-5.73469e-02,-2.17092e-01,-2.88101e-01,-3.01419e-01,-2.42833e-01,-1.39983e-01,2.76118e-02,
4.85319e-02,-1.83640e-01,-9.52451e-02,-2.87265e-01,2.10774e-01,-7.54149e-02,-2.62426e-01,-2.88657e-01,2.01004e-01,2.85522e-01,-1.18589e-01,-2.62157e-02,-3.26216e-01,
-2.80117e-01,-2.05912e-01,2.54076e-01,2.75209e-01,1.78387e-01,1.11594e-01,-2.60546e-01,1.65564e-03,-2.57522e-01,2.80315e-01,1.81619e-01,-2.52198e-01,-6.67206e-02,
-3.20145e-01,-1.21834e-01,-2.90220e-01,-4.11021e-01,1.27971e+00,2.06575e-01,3.09260e-01,-2.33056e-01,3.85679e-01,-1.95975e+00,-1.14871e-01,5.66898e-02,-1.12500e-01,
-1.67774e-01,-9.82856e-02,1.75791e-01,-3.47658e-01,6.69097e-02,-2.27909e-01,1.68243e-01,2.35936e-01,-3.02852e-01,1.76131e-01,1.82689e-01,6.58347e-02,-4.05820e-01,
-4.99144e-01,1.42225e-01,-6.89971e-02,-6.22578e-01,-5.23352e-01,-6.89785e-03,-1.13490e-01,1.93462e-01,1.93839e-01,-3.04397e+00,-2.22808e-01,1.17833e-01,-1.29352e-02,
-5.10089e-02,
3.05876e+00,
-6.46034e+00,
0.00000e+00,
5.41784e-01,
-3.73307e+00,
2.70690e-01,
8.52675e+00,
-1.70248e-01,
-1.38093e+00,
0.00000e+00,
-1.94466e+00,
0.00000e+00,
9.41814e-01,
0.00000e+00,
6.65047e-01,
0.00000e+00,
0.00000e+00,
9.90855e-01,
-6.96051e-01,
0.00000e+00,
-2.25713e-01,
1.96227e-01,
1.80069e-02,
-3.80356e-01,
2.89785e+00,
-9.38304e-01,
0.00000e+00,
-6.03655e-02,
4.72413e-01,
-1.10906e+00,
-9.92183e-01,
2.11220e+00,
-7.37398e-02,
1.46074e+00,
0.00000e+00,
0.00000e+00,
-4.40824e+00,
-5.12061e-02,
-1.03086e+00,
-1.75863e-01,
9.83057e-01,
0.00000e+00,
-7.18322e-02,
-5.40173e-02,
-4.09545e-01,
0.00000e+00,
2.97353e-01,
-6.18965e-02,
8.35582e-01,
-2.30476e-01,-1.72919e-01,1.53357e-01,4.55434e-02,-3.21099e-01,8.67102e-02,-3.19629e-02,-1.06093e-01,1.25918e-01,-7.65488e-01,1.39208e-01,1.72959e+00,-1.11485e-01,-9.10841e-02,1.05126e-01,2.76833e-02,-1.56135e-01,1.95580e-01,-4.01664e-01,-8.99392e-02,-1.92782e-01,2.46626e-02,1.28847e-01,-6.00072e-02,-3.35233e-01,-6.36979e-02,1.08121e+00,6.20982e-02,-2.05978e-02,1.98399e-01,2.37117e-01,6.68635e-02,-1.06098e-01,2.53769e-01,-9.25963e-02,-2.39619e-01,-7.67753e-02,1.01634e-01,-2.13377e-03,4.39464e-02,-1.15400e-01,8.35448e-02,-4.87080e-03,-1.12479e-01,5.88273e-02,-1.49331e-02,-6.94759e-02,-4.58538e-02,1.60676e-01,2.66585e-02,
-3.10585e+00,
