// Neural Network File Format by Kyle Julian, Stanford 2016
3,13,1,100,
13,100,100,1,
0,
10,0,0,1,0,0,0,0,0,0,0,1,0,
100,6,15,16,6,13,5,4,1,19,19,100,40,
10,0,0,1,0,0,0,0,0,0,0,1,0,0,
90,6,15,15,6,13,5,4,1,19,19,99,40,1,
-2.28864e-01,-4.66694e-03,1.32200e-02,1.18203e-01,4.35776e-01,-3.60003e-02,4.13223e-02,-2.99731e-01,1.45892e-01,2.94236e-02,-8.69215e-03,-2.16085e-01,-7.58313e-02,
-3.54047e-02,-1.25025e-02,-1.00566e-02,-2.16064e-01,7.11319e-02,1.51966e-01,-8.01013e-03,8.10395e-02,1.13813e-01,3.03122e-03,2.30068e-01,-4.61239e-02,-1.66380e-01,
-1.89078e-02,-1.31363e-01,-5.76472e-02,-1.08000e-02,-5.87688e-01,-1.43161e-01,2.77650e-01,-7.71482e-02,-3.25794e-01,1.03803e-01,-3.71673e-03,1.58534e-02,-2.61558e-01,
-2.24544e-01,3.23406e-02,-1.88531e-01,1.22557e-01,1.69754e-02,-1.03354e-02,1.60926e-02,9.51069e-04,-1.82086e-02,1.44858e-01,-2.08846e-01,-2.19400e-01,-3.88458e-02,
-2.34239e-01,-3.58616e-01,-2.12794e-01,-7.91071e-01,-1.10461e+00,-4.61493e-03,3.28021e-01,-1.20446e-01,-3.02254e-01,-9.73472e-01,4.22473e-01,-1.71225e-02,-4.48289e-02,
-1.09610e-01,-1.18887e-01,1.30823e-01,-2.44056e-01,6.50446e-02,1.66414e-01,1.69574e-01,-9.68176e-02,1.40357e-01,-1.01040e-01,1.22151e-01,9.13366e-03,-1.25648e-01,
8.18209e-03,-8.04091e-01,-3.24227e-01,-6.02661e-01,-6.29649e-01,1.44014e-01,-5.19480e-01,-6.87414e-01,-6.93162e-01,-1.96063e+00,-4.00020e-01,-3.27656e-01,-3.30196e-01,
6.66915e-02,-5.25648e-01,-1.70960e-02,-3.83426e-01,-1.60992e-01,-5.49666e-01,-4.76368e-01,-8.30463e-01,-1.03117e+00,-1.61696e+00,4.66435e-01,-4.82863e-01,-2.28799e-01,
1.90346e-02,-3.74108e+00,1.38802e+00,1.66653e+00,-1.71230e+00,-4.49474e-02,-5.68849e+00,3.56925e-01,2.62860e-01,-4.47259e-01,-2.72534e+00,9.39121e-02,-4.54310e-01,
-7.50567e-01,1.38171e+00,1.17753e+00,1.32080e+00,9.43503e-01,4.94430e-01,-6.08038e-01,-7.33333e-01,2.85660e+00,-6.77882e-01,1.03977e+00,-9.49397e-01,-4.29250e-01,
-1.73387e-02,-8.32083e-02,8.74798e-02,-5.76945e-02,-9.66895e-02,-6.26463e-01,2.41908e-01,-2.10597e-01,-6.00449e-02,4.32818e-01,-4.18719e-01,-2.72843e-01,-3.14909e-01,
-2.63246e-01,-1.73891e-01,-4.92073e-02,-8.86606e-02,6.56494e-02,-1.36442e-01,-2.41475e-01,-8.44940e-03,-1.20092e-02,1.03098e-01,-2.27598e-01,1.07884e-01,-1.98748e-01,
-1.08782e-01,6.48597e-02,1.22500e-01,1.41492e-01,-1.36169e-01,1.17761e-01,-4.46943e-02,-9.24874e-03,1.19809e-01,-6.62901e-02,1.59911e-01,-2.72455e-01,-1.52913e-01,
2.76023e-01,-1.15365e+00,-4.97477e-01,-1.06264e+00,6.46596e-01,-4.32986e-01,-1.81679e-01,-1.94514e+00,-2.18084e+00,-5.68520e+00,-5.53404e-01,-7.40428e-01,-2.86813e-01,
3.43726e-01,-2.43028e+00,-4.64929e-01,-4.89914e-01,-1.25752e+00,-1.27174e+00,-4.89562e+00,1.66638e-01,8.77606e-01,3.37718e+00,-8.76219e-01,1.60939e-01,-1.88773e+00,
-1.47180e-01,-2.75583e-01,-3.99151e-01,-3.26851e-01,-1.29606e-01,-2.52750e-01,-1.26013e-01,-1.50865e-01,-1.17217e-01,-6.63826e-02,4.11390e-01,4.50041e-02,-8.71949e-02,
3.94598e-02,-2.33528e-01,6.08695e-02,-1.85169e-01,-1.04201e-01,-3.47939e-01,-2.42971e-01,2.80731e-02,9.89288e-03,1.23213e-02,1.58390e-01,-2.24511e-01,-1.20907e-02,
-1.70452e-01,-2.87087e-01,-1.36255e-01,-5.89818e-01,4.43704e-01,-4.02072e-01,-3.51576e-01,-2.21507e-01,-8.45193e-01,-1.58840e+00,-4.35153e-01,-4.71658e-01,1.28114e-03,
6.83974e-02,-1.40231e+00,1.63501e-01,2.38878e+00,-6.06288e-01,-1.10033e-01,1.00609e-01,6.53199e-02,1.40608e+00,1.53846e+01,2.10260e+00,-1.51090e-01,2.67505e-01,
-1.77803e-01,-1.68696e-01,-5.20686e-03,-7.04572e-01,-9.86032e+00,1.62159e-02,1.57457e+00,2.84875e-01,-2.33676e+00,-2.14211e+00,1.95486e-01,-2.99768e-01,1.34801e+00,
-2.90433e-01,-7.96049e-02,-2.03726e-01,8.45273e-02,2.07744e-02,-1.02103e-01,1.50849e-01,9.64051e-02,3.74192e-02,2.16526e-01,-1.43437e-01,-2.61042e-01,1.03811e-01,
6.57999e-01,-8.37321e-02,5.94461e-02,-1.03030e-01,-1.15656e+01,2.92650e-02,-5.10208e-02,-1.46064e-01,-2.66564e+00,-9.05564e+00,5.65911e-01,-3.20486e-01,-1.51665e-01,
-6.49050e-02,-3.18246e-01,-2.94429e-02,6.02651e-02,-1.35395e-01,-1.06455e-02,-1.15261e-01,1.11948e-02,-1.25366e-01,-2.40218e-01,-1.35050e-01,-2.33875e-01,-1.11388e-03,
7.72595e-03,-1.91500e-02,-6.11144e-02,-1.83734e-01,-2.09734e-01,-9.73569e-02,-2.07682e-01,-1.93412e-01,-3.54324e-01,4.66158e-02,-8.05474e-02,-2.99112e-02,-8.53520e-02,
-1.48880e-01,-1.77463e-01,6.43231e-02,-1.54025e-01,-1.77135e-01,4.61925e-02,1.55013e-01,-1.06246e-01,4.73775e-02,-6.90752e-02,5.53423e-02,1.75285e-02,-5.39114e-02,
-5.35647e-02,-5.47512e-02,1.28972e-01,1.44956e-02,6.14747e-02,7.27742e-02,2.69393e-02,-3.92943e-02,1.24537e-02,8.23301e-02,1.31238e-02,-1.94946e-01,-2.00135e-01,
-2.83254e-01,2.82161e-03,-1.92695e-02,-1.61539e-01,-1.05198e-01,2.55214e-02,-2.28192e-03,-1.53765e-01,-2.58483e-01,8.17004e-02,-1.11568e-02,-1.21864e-01,1.19952e-01,
-1.45276e-01,-3.55496e-02,9.35613e-02,1.35906e-01,-1.18787e-01,-1.15231e-01,-2.44832e-01,-1.20724e-01,-1.83796e-01,3.49315e-02,-1.41763e-01,3.45361e-02,-2.99671e-01,
-4.77007e-01,-2.55143e-01,-9.18680e-02,-3.20357e-01,-2.28283e-01,-3.64628e-01,3.02368e-01,7.84877e-02,-1.53442e-01,-4.30203e-01,1.83475e-01,1.19787e-01,-5.32659e-02,
-1.36035e-02,6.80694e-02,-4.93398e-01,-2.19939e-01,2.68226e-01,3.85972e-02,-4.18554e-02,1.04356e-01,1.24853e-01,-3.35352e-01,-2.65431e-01,-2.02182e-01,-4.66628e-02,
-2.17997e-01,-3.17933e-02,-8.73868e-03,-9.43352e-02,1.67770e-01,1.73941e-01,-2.08780e-01,8.25629e-02,-1.52190e-01,1.96335e-01,-1.91995e-01,-1.32065e-01,-1.07322e-01,
-2.39205e+00,-1.84856e+00,1.12493e+00,5.53993e-01,1.27589e+00,1.05377e-01,3.01741e-01,-8.70623e-02,1.22268e+00,-1.37741e+01,-4.74757e-01,2.44557e-01,1.06678e+00,
5.05381e-03,-2.57724e-01,9.10001e-03,3.02010e-02,-2.55712e-01,-8.86882e-02,-1.28689e-01,-3.96420e-02,-6.40209e-02,1.45606e-01,-3.00002e-02,-2.08588e-03,-3.40798e-01,
-2.50561e-03,-7.25948e-02,-7.31302e-02,-2.13952e-01,-4.12435e-01,2.73165e-01,5.74761e-01,-2.23149e-01,-2.30091e-01,1.55390e-01,-1.12671e-01,-2.44460e-01,-2.49584e-01,
2.29308e-03,-3.62052e-02,-2.64324e-01,3.66945e-03,-2.07335e-01,-1.73746e-02,-4.16641e-02,3.18779e-02,-3.65545e-01,-3.10929e-01,7.71366e-02,-7.87763e-02,-8.47760e-02,
-4.81504e-02,-1.02633e-01,5.59041e-02,-3.27698e-01,-2.43416e-03,-3.17046e-01,2.67005e-02,4.21014e-02,-8.83753e-02,-2.53629e-01,-5.83507e-02,-1.24147e-01,8.36172e-02,
-1.08450e-01,-2.07330e-01,-3.84053e-02,-1.67820e-01,-1.18692e-01,1.49899e-01,-1.53631e-01,-2.06571e-01,-1.41473e-01,6.81253e-02,-1.27105e-01,-1.13966e-01,-1.48828e-01,
-8.32399e-01,5.26882e-01,-4.03471e-01,-5.55402e-01,-8.26084e+00,-3.59470e-01,-1.03498e+00,-4.06880e-01,1.63743e+00,-2.88871e+00,8.29895e-01,-8.25470e-02,1.53538e+00,
-1.22221e+00,5.05796e-01,-2.30697e-01,-9.58042e-01,1.03808e+00,-5.19727e-01,1.18231e+00,8.34668e-01,7.08611e-01,4.25337e+00,1.12113e+00,-1.10555e+00,4.06873e-01,
-1.73297e-01,1.89003e+00,-4.87019e-02,-1.46513e+00,-8.52008e-01,-5.27080e-01,-1.91265e+00,-3.67446e-01,-2.06947e+00,9.31367e+00,2.53472e-02,-3.67522e-02,-2.71431e-01,
5.64819e-02,-5.16872e-01,-6.55506e-01,-1.80967e-01,-5.48014e-01,1.79907e-01,-3.09863e-01,-2.21879e-01,5.76092e-02,-4.44109e-01,6.74758e-02,-4.24076e-01,-2.89365e-01,
-6.90979e-02,-2.11123e-01,-6.03402e-02,3.45165e-02,-1.88895e-02,1.31782e-01,-1.69871e-01,-3.10309e-03,1.73129e-02,-1.86488e-01,-1.10249e-01,-2.37992e-02,-9.30998e-02,
-1.91183e-01,-1.29792e-01,1.60233e-02,-4.88145e-02,8.45888e-02,8.58427e-02,1.14733e-02,6.45921e-02,-4.19771e-02,-5.10594e-03,2.70680e-01,1.32998e-02,-2.55178e-01,
-3.28012e-02,1.31873e-02,-2.93765e-02,9.96846e-02,-2.05358e-01,-2.20152e-02,-2.64772e-01,-2.74892e-01,-1.94796e-01,-1.88021e-02,1.13453e-01,-6.81527e-02,-1.80650e-01,
-2.55606e-01,-1.09809e-01,-2.11272e-01,-5.56481e-03,1.18385e-01,-1.31057e-01,-1.20892e-01,-1.86057e-01,-2.45433e-02,-1.61722e-01,-2.78979e-02,1.67144e-02,9.27927e-02,
-4.15414e-01,-4.16183e-01,-3.28961e-01,-2.68772e-02,-2.13512e-01,-4.50009e-01,-2.44426e-01,-1.35253e-01,-2.65356e-01,1.33086e-01,-1.69299e-01,-2.34711e-01,-1.37006e-01,
-1.20575e-03,-3.47641e-01,-3.20234e-01,-2.14554e-01,-3.29047e-01,-1.95300e-01,-2.96619e-01,-2.10256e-01,-2.92063e-01,-2.35738e-02,-1.20284e-01,-2.86022e-01,5.65320e-02,
-4.95942e-01,-1.26006e-01,-1.85889e-01,-9.04474e-02,-1.91726e-01,-4.51944e-01,-1.51833e-01,-2.76488e-01,-2.84869e-01,-2.82903e-01,-4.69535e-01,-7.22525e-02,1.05235e-01,
-1.15144e-01,1.06934e-01,-1.56508e-01,1.46631e-01,-1.64650e-02,1.46390e-01,1.13330e-01,-1.02212e-01,-2.73598e-02,-1.39216e-01,2.88513e-02,-1.48044e-01,-1.61132e-01,
-7.62772e-03,-1.04482e-03,-1.58351e-01,1.26144e-01,2.21386e-01,-9.26040e-02,2.32303e-01,-8.45645e-02,-1.52158e-01,-4.52433e-02,-1.60103e-01,-5.26051e-02,-3.33583e-01,
-1.01686e-01,4.82087e-02,5.61681e-02,-3.46591e-02,2.23809e-01,7.40826e-02,-1.99016e-01,-2.08399e-01,2.72356e-02,-1.54790e-01,3.80462e-01,-1.07736e-01,-1.90903e-01,
-2.92096e-01,-5.22108e-02,-1.34495e-01,4.74806e-02,-3.66035e-02,-3.08430e-01,-6.89351e-02,1.15917e-01,7.52507e-02,-5.49737e-01,-1.48408e-01,6.85246e-02,-1.15570e-02,
-1.22468e-01,-3.91930e-02,-7.87307e-02,-1.32313e-01,-2.20582e-01,2.29018e-01,1.94451e-01,2.21842e-01,-1.53457e-01,1.19344e-01,-1.82057e-01,-2.04999e-01,-1.46139e-02,
-1.01393e-02,7.75514e-03,-2.74153e-01,-2.37608e-01,4.79038e-02,-2.49061e-01,7.35772e-02,-4.81423e-02,9.84948e-03,-3.38731e-01,-2.53329e-02,3.80110e-02,-8.34528e-02,
1.04638e-02,-2.20384e-01,-2.71996e-01,-4.44337e-01,-1.72343e-01,-4.73497e-01,-4.53130e-01,-4.65264e-01,-3.99634e-01,9.54554e-02,-3.96882e-01,-2.80095e-01,-2.33453e-02,
2.41053e-03,-2.34959e-01,-2.41034e-01,-3.68090e-01,-3.34238e-01,-1.33509e-01,-1.37420e-01,-1.19224e-01,-7.96351e-02,1.27546e-01,-1.93673e-01,-2.51924e-01,-1.76090e-01,
-5.68080e-03,-2.78538e-01,3.21323e-03,-1.71754e-01,5.13955e-02,2.48819e-02,-3.80951e-02,-1.52115e-01,9.27663e-02,6.48569e-02,-5.07664e-02,-2.02136e-01,4.27849e-02,
-1.99391e-01,-2.88100e-01,-1.57295e-02,-3.26683e-01,-6.78918e-02,2.06266e-02,-2.83697e-01,-5.52543e-02,-2.02616e-01,2.92761e-02,1.41202e-01,-1.91598e-01,-2.22751e-01,
-2.82226e-01,-1.93709e-01,-1.51392e-01,1.56004e-02,-1.21069e-01,-2.79057e-01,4.43190e-02,-9.46886e-02,-3.05425e-01,6.11802e-03,1.96029e-01,-3.47751e-02,9.41868e-02,
1.67482e-02,1.26570e-01,6.89582e-02,4.52725e-02,-2.51874e-01,-8.67364e-02,-7.83338e-02,-1.83360e-01,-3.02393e-01,-1.82094e-01,2.79729e-02,-2.34622e-01,-1.17288e-01,
-2.50871e-01,-3.23207e-01,-8.65052e-02,-1.07347e-01,8.79136e+00,-3.29681e-02,-4.24638e-01,-6.72352e-01,1.87367e+00,-1.06922e+01,2.57279e-01,-1.09919e-01,-1.54087e-01,
1.53347e-01,-1.60338e+00,-1.11770e+00,-1.60721e+00,6.83032e-01,-1.01354e-01,-8.96936e-01,4.89984e-02,1.05668e+00,-1.98188e+00,-3.14910e-01,-8.37794e-01,-4.96695e-01,
-2.41334e-01,-1.25229e-02,-1.96521e-01,-2.89950e-01,-1.63483e-01,-9.74485e-02,2.61179e-02,2.31944e-02,-1.55805e-01,5.57365e-02,1.20962e-01,-1.33267e-01,1.16352e-01,
-8.04002e-02,3.44946e-02,-1.76380e-02,-3.79633e-01,-4.82931e-02,-8.45341e-02,2.73070e-02,-2.12863e-01,-2.68033e-01,-3.32170e-01,-3.78062e-03,6.31049e-02,-2.77569e-01,
-6.18508e-01,2.08641e+00,8.41944e-01,1.09799e+00,5.35898e+00,-1.59009e+00,7.28919e-01,1.53688e+00,3.76950e+00,-5.41998e+00,-5.49473e-01,-5.27958e-01,-8.18049e-01,
-5.14249e-02,2.19111e-01,-1.26557e-01,-3.38926e-02,1.47779e-02,-4.91824e-02,-3.38678e-02,-6.06786e-02,-1.02883e-02,-8.10968e-02,1.54810e-01,-5.64450e-02,-6.57656e-02,
-1.52297e-01,-2.24671e-01,-1.70738e-01,1.56991e-01,2.24325e-01,1.12301e-01,-9.17253e-02,3.84354e-02,1.96238e-01,7.45022e-02,-1.92771e-01,-1.31679e-01,-1.44609e-01,
-7.58531e-02,-3.59148e-01,1.06334e-02,-5.25326e-02,-4.34511e-01,-1.82425e-01,-2.73453e-01,-8.84474e-02,1.41620e-01,3.50935e-01,9.62137e-01,-8.82750e-02,-3.48075e-01,
-2.61485e-01,1.14768e-01,-2.00903e-02,8.73335e-02,-1.99456e-01,-2.48591e-01,-1.45780e-01,-7.98865e-02,-2.69919e-01,2.40996e-02,-1.04389e-01,1.07006e-03,7.45895e-02,
-2.08973e-01,-2.40793e-01,-2.29875e-01,-1.55431e-01,-2.48172e-01,-1.71001e-01,-6.26399e-02,6.13099e-02,-7.11674e-02,2.29359e-01,-1.26271e-01,1.57409e-02,-9.81599e-02,
-2.43701e-01,-9.20948e-02,-1.80465e-01,-9.18263e-02,5.65422e-02,-1.23523e-01,-1.65218e-01,-3.67673e-01,-9.32820e-02,1.91590e-02,-2.45388e-01,8.97786e-02,-1.99575e-01,
-2.34367e-02,-2.14843e-01,-5.46289e-02,-1.43918e-01,-5.16742e-02,-1.50177e-01,-3.30856e-01,8.97317e-02,-1.77280e-01,5.52909e-02,1.41101e-01,-4.93384e-02,-2.29354e-01,
-1.32085e-01,-5.37758e-01,-7.34466e-01,-4.67261e-01,-7.54571e-01,-8.37398e-02,1.54972e-01,-2.08325e-01,-7.55036e-01,-2.57427e+00,-2.39317e-01,-2.47872e-01,-2.44274e-01,
-3.08139e-02,1.22083e-01,1.70766e-01,-1.48386e-01,-2.30988e+00,3.50694e-02,-5.09686e-01,-1.30553e-01,2.14461e-02,-1.06844e+00,-2.09848e-01,-2.82745e-02,3.71007e-03,
-2.17675e-01,-5.13617e-01,-8.24615e-01,6.82903e-01,-7.34496e-01,-2.02173e-01,-8.35870e-01,-6.11855e-01,-7.54912e-01,5.71948e+00,-3.96602e-01,-1.33774e-01,-4.91517e-01,
-1.92528e-02,-3.26562e-01,-2.81961e-01,-1.68117e-01,-3.29098e-01,-4.87363e-01,-1.98206e-01,-3.90496e-01,-2.31391e-01,-2.59353e-01,8.74393e-01,-8.44898e-02,-3.04909e-01,
-2.55791e-01,-5.82342e-02,2.50543e-02,-7.03755e-02,-1.26386e-01,-1.12961e-01,-1.28079e-01,-2.46056e-01,-2.22879e-01,1.92057e-01,5.47400e-02,7.46685e-02,-1.91778e-01,
1.79332e-01,8.06473e-01,-4.26356e-01,1.02722e+00,-1.23124e-01,-3.24867e-01,4.95912e+00,1.09055e+00,1.48604e+00,-8.23425e+00,-1.43801e-01,1.91479e-01,-9.83047e-01,
-2.03292e-01,1.81355e-01,-4.33163e-02,1.14922e-01,-1.53461e-01,3.88232e-02,5.03258e-02,-1.10491e-01,-2.08450e-01,2.93953e-02,-3.25468e-02,-1.20189e-01,-1.33435e-01,
2.49717e-02,-1.59880e-01,-2.51003e-01,-1.63017e-01,-2.07901e-01,2.11271e-02,3.79464e-03,-3.83076e-01,-1.30053e-02,7.64270e-02,-1.10102e-02,-3.40638e-01,-7.12559e-02,
1.72632e-01,-4.14322e-01,-2.44802e-01,1.23159e+00,-2.75678e+00,-1.64967e-01,-7.97548e+00,-3.08041e-01,1.68822e+00,1.30600e+01,-6.55410e-01,3.73408e-01,-1.26194e-01,
1.95192e-02,-5.03334e-01,-8.35078e-02,-1.62036e-01,-3.16885e-03,-1.13459e-01,-2.27004e-01,-3.59475e-01,-1.72518e-01,-7.16355e-02,-2.74477e-01,-1.37910e-01,-2.41481e-01,
-1.39315e-01,-2.77959e-01,7.15682e-02,-2.58666e-01,1.96181e-01,8.41308e-02,7.85530e-02,-1.40128e-01,2.19710e-01,1.58006e-01,1.56229e-01,-1.99008e-01,1.70712e-02,
-4.06543e-02,5.63910e-02,-2.59401e-01,-3.36253e-01,-5.84163e-02,-9.79784e-02,2.20055e-01,8.07763e-02,-2.05666e-01,-1.95647e-01,4.81568e-02,-2.81822e-01,1.23117e-02,
-2.17693e-01,-1.26357e+00,-2.09042e-01,-6.19061e-01,4.49919e-01,-4.01917e-01,4.73872e-01,-1.19927e+00,-3.92260e+00,-9.77970e+00,-1.02420e-01,-8.17326e-01,1.86890e+00,
5.65404e-01,1.07596e+00,-5.29478e-01,1.31717e+00,-5.28784e-01,-9.15502e-01,2.12828e+00,-1.16473e+00,-2.34796e+00,1.87031e+00,6.76056e-01,-1.40645e+00,-2.02716e-01,
-1.83336e-01,-2.96516e-01,-4.25873e-01,-1.99495e-01,-3.38652e-01,-7.17121e-02,-2.91876e-01,-3.83184e-01,-2.71809e-01,-3.32152e-01,2.48414e-02,-1.48894e-01,-4.65196e-02,
-4.15214e-01,-2.89169e-02,1.19408e-01,1.56786e-01,3.66925e-01,-5.19513e-02,-3.99569e-01,2.81455e-02,5.29722e-01,-1.00116e+00,-7.90085e-01,-2.43736e-01,-5.42546e-01,
-3.09615e-02,-4.85221e-02,7.96574e-02,-8.60188e-02,-2.09313e-02,-2.81739e-01,2.10362e-01,9.97289e-03,-1.91208e-01,-1.89909e-01,-1.12795e-01,-2.84040e-01,-2.71516e-01,
-1.44710e-01,-2.86637e-01,-4.13097e-02,-2.66616e-01,-1.50996e-01,1.31158e-01,-1.92510e-01,-2.75983e-01,-9.73869e-02,-1.50625e-01,-1.38695e-01,-4.34615e-02,6.43819e-02,
-1.92300e-01,-1.95569e-01,-9.42575e-02,-6.34915e-02,1.19607e-01,-2.66385e-01,-2.81847e-01,-4.78247e-02,-1.64233e-01,-1.47971e-02,9.97981e-02,-3.96236e-01,5.52912e-02,
1.91740e-02,-4.27031e-01,-2.44769e-01,-2.70123e-01,-4.55288e-01,1.54312e-01,-9.04299e-03,-3.32709e-01,-3.81378e-01,-3.78250e-01,2.50378e-01,-4.60274e-01,-4.76718e-01,
-1.52268e-01,1.29474e-02,3.71456e-02,-1.82738e-01,-2.18129e-01,5.51708e-02,-2.18095e-01,3.95799e-02,1.27427e-01,-1.09023e-02,3.40695e-02,-1.44451e-01,1.21961e-01,
-1.21517e-01,-1.92630e-01,9.41482e-03,-8.41550e-03,-3.08074e-01,-1.34988e-01,-2.45481e-01,-2.97268e-01,-4.76451e-02,-7.95795e-03,1.48768e-01,5.90126e-02,-2.37670e-01,
-1.56901e-02,-9.21803e-02,-1.22447e-01,-1.14255e-01,-1.99427e-01,5.17166e-02,8.84317e-02,-2.76757e-01,5.89043e-02,-1.45335e-02,2.69765e-01,-5.17852e-03,-2.11473e-01,
2.08205e-02,-1.56404e-01,-7.10730e-02,-2.07185e-01,-8.69597e-02,-2.37186e-01,-3.80311e-01,-2.78127e-02,-3.01777e-01,3.23594e-01,-1.59219e-01,-3.14728e-01,6.01413e-02,
-8.76632e-02,1.89657e-01,-1.99843e-01,1.99147e-02,-1.93950e-01,-1.13338e-01,3.36537e-03,-1.36317e-01,2.06079e-01,-4.62787e-02,4.46296e-02,-9.03717e-02,-1.52628e-01,
-1.72473e-01,-4.13188e-01,-9.42077e-01,4.26263e-02,-1.13974e+00,-8.24993e-01,-3.80369e-01,-4.50997e-01,-9.94785e-01,6.12844e+00,5.74417e-02,-1.02069e-01,-3.60670e-01,
-2.10267e-01,-4.02988e-02,4.96445e-02,1.49813e-02,1.07679e-01,-2.36187e-01,-1.57502e-01,1.08881e-01,-1.68941e-01,2.09001e-02,-1.59099e-01,1.16032e-03,3.06827e-02,
-7.42845e-02,-2.55191e-01,-6.37179e-02,-1.96494e-01,-2.72195e-01,6.46310e-02,-1.34466e-01,-2.93285e-01,3.81780e-02,-3.17349e-01,-2.88534e-01,3.69767e-02,-2.07591e-01,
-6.48841e-02,
0.00000e+00,
-2.77474e-01,
-5.61007e-02,
1.98753e-01,
-6.02541e-02,
-1.51317e-01,
-1.25782e-01,
-3.04968e+00,
9.12088e-01,
-1.69694e-01,
-9.04182e-02,
-5.98421e-02,
3.26442e-01,
-3.17315e+00,
-1.50680e-01,
-1.13099e-01,
-4.70771e-03,
-6.64772e+00,
1.40024e+00,
-5.91202e-02,
3.60652e+00,
-1.22470e-01,
-1.29407e-01,
-4.99210e-02,
-5.90835e-02,
-6.00370e-02,
-8.21825e-02,
-1.36107e-01,
-4.44945e-02,
0.00000e+00,
1.76857e+00,
-2.28959e-01,
8.70072e-03,
-1.65826e-01,
-1.16714e-01,
0.00000e+00,
1.77822e+00,
5.16973e-01,
-1.27228e+00,
-2.33105e-01,
0.00000e+00,
-9.49154e-02,
-7.34956e-02,
-5.92186e-02,
-2.48926e-01,
-1.54464e-01,
-4.95357e-02,
-4.82117e-02,
-2.69713e-01,
-3.91342e-02,
-7.43618e-02,
0.00000e+00,
-5.73175e-02,
-2.73501e-01,
-1.54229e-01,
-8.53258e-02,
-1.24429e-01,
-1.04102e-01,
-8.63024e-02,
5.54349e+00,
4.78475e-01,
-5.97739e-02,
-1.18161e-01,
6.22220e+00,
0.00000e+00,
0.00000e+00,
-1.81448e-01,
-7.52245e-02,
-5.63971e-02,
-1.32158e-01,
-1.01581e-01,
-1.13575e-01,
2.39427e-01,
-1.42277e+00,
-1.60938e-01,
-8.88338e-02,
-3.96763e+00,
0.00000e+00,
-1.62794e-01,
-5.68817e+00,
-1.99598e-01,
-5.01632e-02,
-1.09051e-01,
3.47641e+00,
-1.30233e+00,
-1.13909e-01,
1.66011e-01,
-1.66180e-01,
-8.68995e-02,
-1.40156e-01,
-1.62929e-01,
0.00000e+00,
-2.31641e-01,
-4.89998e-02,
-1.45654e-01,
0.00000e+00,
-1.36164e+00,
-3.31199e-02,
-1.32604e-01,
1.02722e-01,-7.32324e-02,-4.16610e-01,-1.68639e-01,-3.18421e-01,-1.01322e-02,2.98077e-01,-2.66524e-01,-4.43299e-01,6.40929e-01,3.12099e-01,1.67156e-01,4.98378e-02,-5.36848e-01,-3.62495e-01,-1.32166e-01,-4.46648e-01,-2.85449e-01,-1.01447e+00,-8.79136e-01,1.27087e-02,-2.22015e-01,-1.13535e-01,2.70297e-02,-1.37270e-01,4.76965e-02,3.34210e-02,-7.17933e-02,3.54401e-01,-4.04009e-01,8.23467e-02,4.26424e-01,1.40571e-01,-1.45445e-01,-1.37433e-01,7.59358e-02,4.97645e-03,-3.74282e-01,-2.22601e+00,-2.41063e-01,-4.60473e-01,-2.30950e-02,-1.31930e-01,1.72741e-01,-5.30664e-02,-3.02266e-02,-8.39707e-03,2.70405e-01,8.14768e-02,-1.29747e-01,1.50909e-02,-1.50635e-01,1.45276e-01,7.54878e-02,-5.17762e-01,-3.88068e-01,-1.08650e-01,1.02884e-01,9.01878e-02,2.71085e-02,-4.03633e-01,7.26732e-01,1.65192e-01,-5.32132e-01,-1.52118e-01,-5.29817e-02,-1.22708e-01,-6.27105e-02,-1.13204e-01,-1.24692e-01,1.50042e-01,-1.40766e-01,-3.01194e-01,-9.88958e-02,-3.13865e-01,-3.29485e-01,1.53498e-01,-6.36696e-01,-6.80773e-02,6.48336e-02,-5.80411e-01,2.89959e-01,-1.42513e-01,1.10204e-02,-1.11515e+00,-9.91888e-02,1.67433e-01,-3.57025e-01,1.69191e-02,1.38209e-01,7.19537e-02,-3.62218e-01,-5.97586e-02,-4.01975e-01,4.65589e-02,8.27559e-02,1.00634e-01,-8.23513e-02,6.38081e-02,1.13837e-01,
-8.04018e-02,1.09432e-01,1.39733e-02,-2.32779e-02,1.47926e-01,7.89879e-03,-3.50510e-02,1.60531e-03,-3.29363e-01,1.06056e-01,-6.28233e-02,1.41770e-01,8.66843e-02,-9.02567e-02,-1.61616e-01,1.83412e-01,-1.74396e-01,-1.73285e-01,-4.77552e-01,-1.52260e-01,2.23630e-01,-1.61303e-01,-1.12477e-01,-1.18746e-01,2.82731e-02,1.26843e-01,1.45089e-01,1.26879e-01,-7.59121e-02,-1.33757e-01,4.56046e-02,-2.40154e-01,1.93901e-02,-1.64045e-01,1.57789e-01,2.92725e-02,2.01881e-02,-1.95310e-01,3.79982e-01,-8.23352e-02,1.17064e-01,1.70617e-01,1.32896e-01,4.21666e-02,6.32675e-02,4.33020e-02,5.02561e-02,-2.82229e-03,-1.09265e-01,1.38931e-01,9.56807e-02,4.56831e-02,1.64159e-01,1.40563e-01,9.36192e-02,-7.94975e-02,1.71392e-02,1.57226e-01,1.96646e-02,4.81083e-02,-7.03784e-02,2.10697e-02,1.67094e-01,-1.11235e-01,6.76787e-03,1.49152e-02,-1.16485e-01,-1.29336e-01,6.64521e-02,1.71210e-01,1.35596e-01,-9.95402e-02,-7.77316e-02,4.82705e-02,-1.77108e-01,8.76219e-02,1.79346e-01,-2.75804e-01,1.15286e-01,1.16107e-01,-2.14694e-01,2.47808e-02,-8.88625e-02,-9.51309e-02,-6.23483e-02,-1.01286e-01,-1.25348e-01,-5.15819e-02,-1.10946e-01,-8.42485e-02,-8.12123e-02,-3.57155e-02,-9.59288e-02,-1.49433e-01,-2.81854e-02,-1.41591e-01,-1.51961e-01,-2.77738e-02,-1.07933e-01,-1.11868e-01,
-3.33164e-01,8.01610e-02,7.33543e-02,-2.12222e-01,-2.08507e-01,-9.77560e-02,7.44220e-02,-1.52544e-01,2.96845e-02,7.31569e-02,-2.19590e-01,6.01327e-03,-7.05610e-02,-1.38084e-01,-1.49861e-01,-1.29111e-01,-9.27523e-02,2.71834e-02,-8.46507e-02,6.54684e-03,2.67145e-02,-1.28001e-01,-2.59607e-02,1.60581e-02,-2.26292e-01,1.50579e-01,-1.45357e-02,-1.80481e-01,-8.95205e-02,1.75602e-01,-5.40665e-02,-8.01321e-02,1.07101e-02,9.66499e-03,4.94686e-02,-3.81480e-02,-1.19731e-01,-1.33135e-01,1.53961e-01,-8.47946e-03,-1.81749e-01,-8.93106e-03,-1.06542e-01,-2.04690e-01,-3.90811e-02,-5.07887e-02,8.18847e-02,-5.81654e-03,5.16692e-02,-1.81801e-01,-1.37802e-01,1.59409e-01,8.96524e-02,-1.29605e-01,1.34649e-01,1.05685e-01,5.70244e-02,9.71871e-02,-1.10266e-01,-7.19791e-02,-6.55398e-02,4.70193e-02,-2.42557e-02,1.19594e-01,-4.50659e-02,6.57929e-02,7.58046e-02,4.02253e-02,-9.20426e-02,9.00252e-02,1.28989e-01,-1.12337e-01,-1.37047e-01,-1.59177e-01,8.94336e-02,-9.27458e-02,1.57994e-02,-3.43466e-01,1.17159e-01,1.42603e-01,-1.60940e-01,3.73688e-02,-3.15097e-01,1.26172e-01,-5.89397e-01,3.30626e-03,1.75844e-01,-1.14835e-01,3.39769e-02,5.15356e-02,1.14625e-01,1.50954e-02,1.44292e-01,-1.88162e-01,-5.74072e-02,3.34878e-02,7.66707e-02,6.58522e-02,-1.67914e-01,-2.22373e-02,
5.77792e-02,-1.00431e-01,-1.10756e-01,-4.68805e-02,-1.06463e-01,-6.35773e-02,-1.41031e-01,-9.20536e-02,-1.23914e-02,-1.08836e-01,9.09589e-02,2.51327e-02,9.64867e-02,-8.52948e-02,-2.09211e-01,-1.89838e-02,-8.04418e-02,3.89481e-02,-2.28138e-01,-1.47788e-01,-2.86868e-02,-1.46967e-01,-1.13262e-01,-1.11420e-01,-3.30714e-02,1.65324e-01,5.18710e-02,2.25709e-02,-5.84110e-02,-1.28092e-01,-1.04572e-01,-7.97720e-02,1.58815e-01,7.26562e-02,-8.90024e-02,1.21155e-01,-2.65065e-02,-1.68425e-01,1.15832e-01,-3.14446e-02,-1.42859e-01,4.76054e-02,5.30400e-03,-1.73595e-01,9.90639e-02,-8.48057e-02,1.18714e-02,8.79421e-02,-9.92523e-02,-1.10167e-01,1.39626e-02,-1.27971e-01,-1.06070e-01,1.59970e-01,-1.46228e-01,-8.80539e-02,-5.80089e-02,-3.09382e-02,1.49889e-01,1.25941e-01,-1.84706e-01,5.34867e-02,1.09144e-01,-8.58199e-02,-9.86955e-02,-2.99943e-02,-3.69251e-02,-7.67978e-02,-1.85266e-02,-1.68611e-01,9.75551e-02,1.93858e-01,-3.89937e-02,4.79975e-03,-1.48694e-01,-1.60679e-01,1.66525e-01,-1.37659e-01,-1.71638e-02,-5.71537e-02,-1.60979e-01,1.30129e-01,-1.12003e-01,1.47897e-01,-3.79642e-01,-2.88174e-01,1.77482e-02,1.10818e-01,1.62761e-02,3.51089e-02,-1.56930e-03,1.27665e-01,4.64847e-02,-2.30130e-02,1.55452e-01,8.26838e-02,8.07451e-03,-1.67963e-01,-9.90686e-02,1.60237e-01,
-4.13560e-02,-7.61426e-02,-2.17566e-01,1.18004e-01,-6.51152e-02,-2.16841e-01,-3.81199e-02,-2.13313e-01,-1.13334e+00,1.32126e-01,-9.16914e-02,1.53608e-02,1.10603e-01,2.22932e-01,-7.18897e-02,-5.30939e-02,-2.03281e-02,-1.09168e-01,-2.39237e-01,-6.30812e-01,1.07792e-01,-1.12776e+00,4.32178e-02,-9.47331e-02,1.60913e-02,-1.49686e-01,-1.21525e-01,1.50845e-01,-1.41474e-01,-5.45792e-02,1.72730e-01,-1.16911e+00,-2.06978e-01,-9.40107e-02,7.38106e-02,-1.53742e-01,1.03935e-01,-1.48717e-01,1.44919e+00,-1.88225e-01,1.07427e-01,-1.00275e-02,8.05678e-02,-1.89749e-01,6.47630e-02,8.06003e-02,-7.66113e-02,-2.24455e-01,-1.71165e-01,-1.49353e-01,1.32982e-02,-8.50508e-03,-9.15660e-02,-1.40064e-01,1.61370e-02,-2.08383e-01,-9.56794e-03,-7.73381e-02,-7.05265e-02,-1.56963e-01,-6.31839e-01,-2.31384e-01,8.96325e-02,-4.64031e-02,-8.62664e-01,1.35495e-01,-4.82550e-02,-2.28889e-01,-1.98269e-01,-1.18087e-01,-7.36530e-02,1.71150e-01,-2.57034e-02,-8.00728e-02,-5.87940e-02,-1.35251e-01,4.70171e-02,-7.05371e-01,-2.34611e-02,-1.10084e-01,-1.20227e+00,-1.16604e-01,9.40005e-02,-1.12822e-01,5.33814e-02,-5.36181e-01,2.53735e-02,7.73540e-03,2.28104e-02,5.32703e-02,5.66687e-02,-1.62511e-02,1.06899e-01,8.76204e-02,1.41402e-01,6.21926e-02,9.97795e-02,-3.94565e-02,-2.30741e-01,-1.18122e-01,
-1.72416e-01,-1.61457e-01,-4.59648e-02,-6.02787e-02,-2.06842e-01,3.15559e-02,1.50045e-02,5.06058e-02,-1.95086e-01,1.01767e-01,-1.34131e-02,-1.09123e-01,-1.63313e-01,-4.87430e-02,-2.34044e-01,-1.69228e-01,9.98234e-03,7.28208e-02,-1.15097e-01,-1.62398e-01,2.23204e-02,-2.26083e-01,4.05200e-02,-1.95692e-01,8.13282e-02,1.63047e-01,-2.36253e-02,-3.50652e-02,-1.44930e-01,-1.39967e-01,6.64512e-02,7.62509e-03,-1.52793e-01,-1.59295e-01,-8.30555e-02,3.30937e-02,7.36340e-02,-2.69875e-01,-1.25191e-01,-6.00640e-02,9.33276e-02,9.77268e-02,-2.69921e-01,9.01251e-02,-1.31829e-01,-3.18659e-02,-1.18051e-01,-1.34573e-01,-7.44401e-02,-5.27714e-02,8.46451e-02,-8.34650e-02,-3.67470e-02,3.03590e-03,-1.73598e-01,1.06432e-01,-1.51449e-01,8.96914e-02,8.23245e-03,-1.83023e-01,-1.74277e-01,3.74757e-02,7.14322e-02,-1.61535e-01,-2.40948e-02,-1.13173e-01,-7.34159e-02,3.35404e-03,-3.35065e-02,2.45097e-02,1.08227e-01,-1.34350e-01,-1.40822e-01,2.12274e-03,-2.06440e-01,2.40638e-02,5.52516e-02,-3.20743e-01,-6.21114e-02,-1.89666e-01,-3.21900e-01,4.12360e-02,8.20416e-02,2.44492e-02,-2.04664e-01,-1.00092e-01,-1.15807e-02,-1.36822e-01,-9.07738e-02,6.26685e-02,-1.30002e-01,-1.97835e-01,1.51944e-01,-1.60431e-01,6.58927e-02,-1.03576e-01,2.25158e-02,-1.64366e-01,-3.95100e-02,8.92501e-02,
-1.30484e-01,-5.54463e-02,-1.75063e-01,8.11953e-02,7.71887e-02,-9.30265e-02,-4.68271e-02,7.11086e-02,9.33395e-03,4.92469e-02,-6.85029e-02,1.10442e-01,5.18057e-03,-4.34333e-02,-6.28906e-01,-2.17761e-01,-1.72756e-01,1.08090e-01,-3.86957e-01,9.40463e-02,-2.28953e-02,-6.06844e-01,-1.40360e-01,-4.93230e-02,4.65884e-02,-8.77843e-02,-1.63273e-01,3.24273e-02,-1.55497e-01,3.28284e-02,-1.16531e-01,-3.63475e-01,-1.07353e-01,-1.09632e-01,-4.87214e-02,-1.09280e-01,-6.34476e-02,-1.95575e-01,1.17927e-01,-7.58896e-02,-9.75688e-02,-8.45063e-02,-3.70607e-02,7.65658e-02,1.35514e-01,-4.04729e-02,-1.68736e-02,-1.98787e-01,1.78261e-02,-1.12193e-01,-6.23563e-02,-1.06727e-01,-5.81990e-02,-7.06830e-02,1.15518e-01,-5.06817e-02,-3.36790e-02,-1.25710e-01,-2.26810e-01,1.95270e-02,-1.50165e-01,-1.05768e-01,-4.93262e-02,-1.51411e-02,4.75875e-01,1.20812e-01,-9.87866e-02,-1.89744e-01,5.24578e-02,1.17943e-04,-1.41183e-01,-2.07866e-01,1.47678e-02,-8.39350e-02,-1.47810e-01,2.54853e-02,-9.49919e-02,-3.02610e-01,-1.41282e-01,-2.04506e-02,-3.41535e-01,-1.33030e-01,-1.08369e-01,-5.48298e-02,-4.35276e-02,-1.29317e-01,-4.47462e-02,-1.23617e-01,-9.06354e-02,-1.76195e-01,-4.76002e-02,1.37163e-01,-1.67918e-02,-2.93529e-02,1.89763e-02,6.41500e-02,1.03870e-01,-8.52908e-02,-2.22824e-01,7.19440e-02,
6.75072e-02,6.51686e-03,-2.20794e-01,-1.52378e-01,-2.20185e-01,1.61754e-01,1.50542e-01,-1.07458e-01,-3.08765e-01,1.87145e-02,-3.70855e-02,-2.06805e-01,8.65400e-02,-1.04156e-01,-1.32289e-01,-9.66273e-02,-4.62932e-03,-1.00185e-01,-1.08118e-01,-2.00795e-01,5.32983e-02,-9.35383e-02,-3.00584e-02,-1.55009e-01,-1.98684e-01,6.86158e-03,-1.13803e-01,1.40600e-02,6.84638e-02,9.89246e-02,8.58256e-02,-2.68541e-02,-2.27441e-01,9.51467e-02,-8.02095e-02,-1.09865e-01,-1.36773e-01,-1.13584e-01,-2.27498e-01,-1.83660e-01,3.76044e-02,-1.45597e-01,1.37474e-05,-1.47287e-01,4.95315e-02,-1.40106e-01,6.98921e-02,-3.18888e-02,1.22328e-01,-3.50623e-02,1.64585e-01,1.11823e-01,-7.63146e-02,6.25965e-02,-4.13247e-02,9.02993e-02,4.26419e-02,-1.12896e-02,-5.30318e-02,-1.02055e-01,-1.40006e-01,-2.28245e-02,1.39491e-01,4.52369e-02,-3.39649e-01,-1.32567e-01,1.72055e-01,-2.58804e-02,-1.08168e-01,-8.40714e-02,-1.08148e-01,-1.25376e-02,-5.74201e-02,-1.27836e-01,-9.84499e-02,-1.56163e-02,8.48785e-02,-7.46912e-02,-7.42570e-02,-8.46271e-02,-2.81325e-01,-1.67920e-01,-9.75137e-02,1.08804e-01,-1.06359e+00,-2.57502e-01,-1.78996e-01,-1.93676e-01,-1.96131e-01,-3.74322e-02,3.87129e-02,-3.83973e-02,3.76320e-03,-1.08526e-01,1.35079e-04,5.72652e-02,1.17500e-01,-2.24979e-01,-7.48061e-03,9.52700e-02,
8.93879e-02,-1.49989e-01,1.10983e-01,1.30929e-01,-4.10237e-02,-5.45575e-02,-5.17935e-02,-1.04103e-01,-9.23404e-02,-8.75389e-01,-8.37021e-03,1.02147e-01,-1.06826e-01,-1.47799e-01,6.31964e-01,4.77550e-03,3.74059e-02,-1.81959e-01,1.62216e-01,-5.94751e-01,9.92656e-02,-2.34575e-01,1.66323e-01,1.00423e-01,9.47797e-02,6.85911e-02,-1.17512e-01,-8.74578e-02,-1.74757e-02,5.77933e-02,9.00911e-02,2.53681e-01,-1.67446e-01,1.45405e-01,1.21762e-02,1.18467e-01,-9.68299e-02,1.49168e-01,-6.93408e-01,-2.03474e+00,-1.47956e-01,-2.91381e-02,1.40565e-01,-4.43586e-02,-3.72471e-02,1.75544e-01,-1.02442e-01,-1.07192e-01,1.16854e-01,-1.20516e-01,7.40380e-02,-5.30847e-02,-8.55745e-02,9.78131e-02,1.34203e-01,-2.21702e-02,1.03921e-01,2.93703e-02,1.30316e-01,-1.17028e-01,-3.30120e-01,2.95416e-01,6.54635e-02,2.65773e-02,5.31607e-02,-2.12461e-02,-1.08341e-01,4.64627e-02,1.81039e-02,-1.64334e-01,-1.43777e-02,-8.73047e-02,1.48327e-01,-1.57081e-02,4.50548e+00,-2.38061e-02,1.22784e-01,-9.06948e-01,9.52557e-04,-2.00702e-01,1.30908e-01,3.04352e-02,-1.60234e-01,-1.90128e-01,-5.88138e-01,-1.91959e+00,-1.11678e-01,2.82988e-01,-6.48765e-02,3.02475e-02,6.53620e-02,-2.87532e-01,7.12618e-02,-9.49149e-03,1.00610e-01,8.55548e-02,-3.45148e-02,2.97880e+00,-2.25063e-02,5.01357e-02,
2.54518e-02,-2.67431e-02,-3.16650e-01,1.01046e-01,-2.18660e-01,-1.17274e-01,-2.59710e-01,-4.55375e-01,-1.66300e-01,6.84237e-01,-6.79784e-02,-1.40966e-01,-7.50646e-02,3.62641e-02,5.20178e-02,-2.33684e-02,-2.36792e-01,-2.84509e-01,-1.77793e-01,-4.02284e-01,-1.45265e-01,7.78115e-02,2.01313e-02,-1.14660e-01,-1.52447e-01,1.34629e-01,-1.52991e-01,1.04928e-01,9.07890e-02,4.55036e-01,-4.82949e-02,-2.41342e-01,-3.01305e-01,8.62572e-02,-1.40163e-01,-1.17879e-01,-1.31661e-01,-3.09246e-01,9.68858e-02,1.51763e-01,4.75043e-02,4.33941e-02,8.33935e-02,1.45271e-01,5.36812e-02,2.51700e-02,2.80357e-01,3.70522e-02,-7.82850e-02,7.43800e-02,8.60387e-02,2.34415e-01,1.30428e-01,-1.47866e-01,3.82178e-01,1.84141e-01,3.63374e-01,-3.32895e-02,-3.64264e-02,1.48479e-01,-2.60427e-01,-4.62274e-01,4.71962e-02,4.65497e-02,-9.14690e-02,2.23767e-02,2.92606e-02,3.51007e-02,8.02375e-02,1.70513e-01,-5.78855e-02,-3.61429e-02,-9.95729e-02,1.56576e-01,8.05555e-03,1.11345e-01,2.35890e-02,-2.59590e-01,6.14900e-02,1.38715e-01,-2.12381e-01,6.67183e-02,-1.19337e-01,-1.43872e-01,-3.21790e-01,-5.51902e-01,3.34015e-02,4.70873e-02,1.70276e-01,8.81740e-02,-1.14769e-01,-1.43014e-01,1.34548e-01,-4.27336e-01,-5.76169e-02,2.53266e-01,-1.66208e-01,4.45980e-02,1.09228e-01,-8.86242e-02,
-6.72651e-02,8.05082e-02,-9.98742e-02,-1.15513e-01,-1.67177e-01,7.97537e-02,1.54364e-02,-8.12827e-02,-6.99617e-02,1.39837e-01,1.09245e-01,-1.75971e-01,6.40452e-02,-9.59223e-02,5.01755e-03,-1.66318e-01,6.84389e-02,-3.26102e-02,-2.69027e-02,-1.14059e-01,1.86980e-01,-1.67811e-02,-1.79869e-01,3.95323e-02,-5.51007e-02,-5.92077e-02,5.44856e-02,6.59014e-02,-4.82408e-04,-4.40172e-02,6.84692e-02,-7.73743e-02,1.74086e-02,-1.03512e-01,-3.02203e-02,-2.01951e-01,-1.28890e-01,-1.75880e-01,1.44195e-01,-5.59487e-03,3.91360e-02,-1.72676e-01,-1.94684e-01,-1.02482e-01,5.73727e-02,1.22357e-01,8.34173e-02,1.12482e-01,-3.80089e-02,1.13502e-01,-2.76376e-02,1.35833e-01,1.52820e-01,-9.38362e-02,-2.07670e-01,4.15173e-02,1.31578e-01,2.19968e-02,7.60410e-02,6.87618e-02,-9.03835e-02,-1.10603e-01,-1.00969e-01,-1.69712e-01,-1.30521e-01,-1.30756e-01,1.69289e-01,-1.03395e-01,-3.94726e-02,-5.54651e-02,-2.09790e-01,3.68471e-02,4.48286e-02,-1.62108e-01,6.59784e-02,-3.80877e-02,-1.49012e-01,-1.78904e-01,5.72218e-02,6.55107e-02,-1.02630e-01,-1.25244e-01,1.08351e-02,1.34375e-01,-1.43720e-01,-1.76488e-01,7.18919e-02,-1.18477e-01,1.16347e-01,-1.22212e-01,2.18843e-01,1.16343e-01,-1.48735e-01,7.16460e-02,-5.01923e-02,-6.17428e-02,-5.22705e-02,3.52473e-02,-1.69145e-01,9.14987e-02,
-8.48411e-02,8.78473e-02,-2.56308e-01,3.34264e-02,-1.96103e-01,-1.64517e-01,1.20866e-01,-3.30961e-02,-9.63929e-02,1.10311e-01,-1.85258e-01,1.46578e-01,1.62879e-01,-3.04096e-02,-7.80893e-02,-1.18536e-01,-1.44644e-02,-1.29670e-01,-2.28105e-01,-4.63818e-02,-7.42064e-03,-1.73012e-01,-7.27004e-02,-1.93710e-02,-6.89483e-02,-1.18055e-01,1.24622e-01,1.39182e-01,-1.36342e-01,-2.41429e-03,-1.24091e-01,2.53003e-02,5.74097e-02,-1.57876e-01,1.44515e-01,1.32439e-02,-3.59759e-02,-1.63584e-01,-2.83375e-02,-1.22633e-02,-1.17326e-01,1.32302e-01,-1.43340e-01,-6.28069e-02,4.29764e-04,7.30418e-02,-4.04010e-02,-9.03634e-02,-1.30934e-01,4.60228e-02,3.75062e-02,-1.08492e-01,1.10127e-01,2.86426e-02,5.83127e-02,2.49133e-02,9.97125e-03,-4.45630e-02,-6.80567e-02,-3.04051e-02,-6.37898e-02,-1.53104e-01,8.92538e-02,6.71588e-02,7.36589e-02,9.97179e-02,4.39147e-02,2.29821e-02,-3.21673e-02,-5.54981e-02,-1.34274e-01,2.95150e-02,1.22833e-01,4.83715e-03,-1.96787e-01,-1.41871e-01,-7.40610e-02,-1.28491e-01,6.18155e-02,-1.59066e-01,-2.49264e-01,-1.34020e-01,2.50214e-02,1.54386e-01,-1.41653e-01,-8.10044e-02,1.20828e-01,4.64492e-02,3.79282e-02,2.86650e-02,6.97592e-02,-6.31570e-02,1.61929e-01,-2.58637e-02,-1.94625e-02,-1.07855e-01,-5.86614e-02,-1.66387e-01,1.85281e-02,-1.28237e-01,
2.75835e-02,1.18347e-01,-6.30477e-02,-1.21889e-01,-3.24126e-01,4.23450e-02,-7.81289e-02,-2.12200e-01,-1.06130e-01,6.42029e-02,-2.05973e-01,2.02071e-01,-1.66739e-01,-2.60715e-01,-1.84922e-01,-1.10184e-01,-1.10537e-01,-1.16792e-01,-1.33469e-01,-2.52369e-01,2.34998e-02,-2.61200e-01,-1.62358e-01,-1.20309e-01,2.45805e-02,-6.12270e-02,3.77283e-03,1.64056e-02,-3.83080e-02,-1.55108e-01,7.83405e-03,-2.26356e-01,-3.31013e-02,3.03345e-02,-1.79995e-01,-1.12345e-01,-1.65970e-01,-1.03391e-01,1.70554e-01,-1.23790e-01,2.71988e-03,1.18516e-01,-3.10123e-02,-5.15791e-02,1.40924e-02,6.76179e-02,-4.18456e-02,-4.78782e-02,-1.25485e-02,-3.91458e-01,-5.12563e-02,-1.26768e-01,2.24577e-02,-1.69998e-01,1.21813e-01,-2.71229e-02,1.70821e-01,-1.12929e-01,-8.17431e-02,1.42631e-01,-4.94958e-03,4.42474e-02,-4.52775e-02,-3.09139e-01,-1.76503e-02,-5.27400e-02,-7.77990e-02,-9.24451e-02,1.17493e-01,7.97021e-02,-1.09287e-01,1.31418e-01,-9.24728e-02,-1.23354e-01,-6.38308e-02,-6.84528e-02,1.22477e-01,-2.58574e-01,-8.10796e-02,1.03392e-01,-3.97660e-01,7.43804e-02,8.32337e-02,5.92691e-03,-7.75124e-02,-3.14100e-01,1.70065e-01,-9.64426e-02,6.63986e-02,-8.54037e-02,1.54002e-01,-3.51685e-02,1.62464e-01,-1.32869e-04,-1.39416e-01,-9.98418e-03,-8.01304e-02,-1.64037e-01,1.53476e-01,-1.29270e-01,
-1.94824e-01,-5.53167e-03,5.37778e-02,2.47958e-02,1.19810e-01,7.09916e-02,-1.00353e-01,-1.27691e-01,-3.47992e-01,-1.80188e-01,-7.87482e-02,4.97105e-02,8.67031e-02,3.03527e-02,1.81461e-01,1.82373e-02,-1.49215e-01,-7.41977e-02,-5.77848e-01,-1.78161e-01,4.18529e-02,-3.64900e-01,6.17859e-02,-4.88713e-02,5.07000e-02,-1.14884e-01,-2.09313e-02,-4.00978e-02,-2.79556e-02,6.95080e-02,7.05447e-02,8.95971e-04,-8.56903e-02,2.69882e-02,1.09306e-01,-7.58636e-02,-1.60020e-01,2.74937e-01,-1.66435e-01,-8.30067e-02,-8.64335e-02,-1.60721e-01,1.20723e-01,-1.11676e-01,1.05809e-01,1.14463e-01,-1.08642e-01,8.31500e-02,-4.05672e-02,8.34197e-02,2.47020e-01,-8.46879e-03,-8.55531e-03,2.11385e-01,-1.75590e-01,6.45291e-03,-1.45813e-01,-1.01892e-01,1.05050e-01,-2.44729e-02,-3.40072e-01,5.49757e-02,4.27656e-02,9.35356e-02,1.44084e-01,-1.38050e-01,9.71799e-02,-7.77225e-02,6.48627e-02,-1.87663e-02,-6.52909e-02,2.10353e-01,1.79800e-02,-4.31613e-02,1.38892e-01,8.61778e-02,-3.37541e-02,-1.87518e-01,-1.04407e-01,-7.19602e-02,-2.80490e-01,-1.29544e-01,-2.57439e-01,5.19897e-02,-2.59108e-01,-2.28772e-01,-1.09376e-02,1.44753e-01,7.25527e-03,-4.17452e-03,7.76628e-02,-2.11386e-01,-1.60803e-02,8.29315e-02,6.26954e-02,6.53974e-03,-6.14622e-03,-2.47898e-02,1.14186e-01,-7.28257e-02,
2.61676e-01,-2.89907e-02,-7.21544e-03,1.57210e-01,-6.99949e-02,-3.84817e-02,-9.18244e-02,1.28858e-01,-1.44492e-01,-1.70652e-01,-1.34775e-01,-2.23856e-01,3.96225e-02,-3.03343e-01,-1.12963e-01,-2.18167e-01,-2.01178e-02,-1.54853e-01,-1.39767e-02,2.18383e-03,-6.18844e-02,-4.70165e-01,7.26442e-02,-1.29836e-01,6.39159e-02,-1.10329e-02,2.22416e-01,-1.44183e-01,4.10050e-02,2.30169e-01,3.73280e-02,-4.14265e-01,-6.76143e-02,-7.03949e-02,-1.89644e-01,-1.46861e-01,-9.11990e-03,-1.59138e-01,-8.82918e-01,-1.51278e-01,1.18701e-01,5.28914e-02,-2.09486e-01,9.92705e-02,2.10597e-01,-8.38881e-02,-8.46426e-02,-1.15683e-01,6.65266e-03,-1.13809e-01,-5.44038e-02,2.67588e-03,1.41099e-01,-6.56494e-02,-1.39872e-01,-6.01992e-02,-5.11244e-02,-6.81375e-02,1.45939e-01,-1.33564e-01,-1.13519e-01,-2.22804e-01,-1.08396e-01,-3.87620e-02,-1.80824e-01,-3.80694e-02,8.91783e-02,-1.05519e-01,-1.54917e-02,1.14503e-01,2.51802e-02,1.44376e-02,-2.38171e-01,-3.04932e-01,3.84157e-02,-7.14386e-02,1.16293e-01,-2.26680e-01,-1.63637e-01,6.92733e-03,-1.33663e-01,-2.20653e-01,1.01278e-01,-2.89365e-02,-2.02394e-01,-1.79478e-01,-1.07805e-01,3.26027e-02,3.77434e-02,3.61098e-03,2.16613e-01,-1.19941e-02,-2.59816e-02,-5.92390e-02,6.21238e-04,-1.27193e-02,2.78532e-02,-1.06096e-01,9.67177e-02,1.95554e-02,
-7.77388e-02,-1.21692e-01,-1.70157e-01,-7.57471e-02,1.58197e-01,1.53818e-01,-1.55681e-01,1.29618e-01,-1.96241e-01,2.64466e-02,-1.41248e-02,1.12186e-01,-4.04854e-02,2.13577e-02,2.52227e-02,1.48625e-02,4.81136e-02,-7.06996e-02,-2.00081e-01,-4.81747e-02,2.93298e-02,-1.91012e-01,3.11700e-02,8.78809e-02,9.17911e-02,3.52481e-03,-5.22540e-03,9.05862e-02,1.27857e-01,5.13892e-03,3.06097e-02,-6.39508e-02,-4.69729e-02,1.22647e-01,1.39697e-01,1.03000e-01,-1.72761e-01,1.75346e-02,9.11066e-02,2.20029e-02,1.43171e-01,1.21583e-01,6.95923e-03,1.04848e-01,8.03492e-02,-9.77536e-02,1.60750e-01,-1.73377e-01,1.42848e-01,4.05292e-02,-7.59869e-02,-7.07729e-03,1.15294e-01,1.23157e-01,1.67933e-02,-1.72093e-02,-5.08310e-02,-1.47297e-01,-1.36861e-01,2.09451e-01,-1.63317e-01,-1.56195e-02,1.12094e-01,1.98621e-01,5.85253e-03,-1.23968e-01,1.19800e-01,1.37809e-01,-1.15043e-01,5.42490e-02,1.49476e-01,1.43198e-01,4.46697e-03,1.09300e-01,1.43285e-02,4.85200e-03,-1.13710e-01,-1.17430e-01,1.67834e-01,1.10339e-01,-2.16290e-01,-6.05030e-02,2.47547e-01,3.07825e-02,-3.40777e-01,-1.16944e-01,3.01370e-02,-1.41070e-01,-5.58349e-02,-5.53211e-02,-7.96087e-02,-1.67445e-01,1.20525e-01,-9.94571e-02,-6.09506e-02,4.41062e-02,7.32102e-02,-4.69497e-02,2.03258e-03,1.19854e-01,
1.25110e-02,-1.52341e-01,-9.32567e-02,-1.44145e-01,-2.53701e-01,-1.49010e-01,1.20720e-01,-1.43703e-01,-1.36331e-01,1.34600e-01,-1.28973e-01,1.31995e-01,6.78563e-02,-5.66895e-02,-1.86820e-01,1.26901e-01,-2.05239e-01,-1.75697e-01,-3.75287e-01,-8.22342e-02,9.89586e-02,-7.35989e-03,1.50097e-01,-1.49079e-01,1.07661e-01,-1.31398e-04,-7.96560e-02,1.10024e-01,-8.63655e-03,-1.72523e-01,-1.77396e-02,-3.09011e-01,-3.52972e-02,1.36768e-01,4.88774e-02,2.11926e-02,6.84264e-02,-3.08224e-01,-8.07399e-02,-4.94713e-02,-9.71005e-02,-1.46262e-01,-1.71164e-01,-1.73054e-01,1.46875e-01,-1.61598e-01,-1.69354e-01,-9.97828e-02,-8.13544e-02,-2.29411e-01,2.45320e-02,-8.50498e-02,9.48729e-02,-8.93278e-02,1.42993e-01,-6.36846e-02,-2.62764e-01,2.81399e-02,-7.28121e-02,6.65511e-02,-2.06747e-01,-7.44644e-02,1.41222e-01,1.28530e-01,-1.48577e-01,1.29830e-01,1.77930e-02,7.57449e-02,1.30898e-01,-9.57293e-02,1.64203e-01,7.39316e-02,-1.04813e-01,-9.38263e-02,-3.08854e-01,1.62222e-01,1.68551e-01,-1.84199e-01,-4.18988e-02,-1.03037e-01,-2.21839e-01,6.21772e-02,-1.51434e-01,8.72726e-03,-1.92523e-01,-1.69285e-01,-5.44065e-02,-1.15099e-01,1.41393e-01,6.15103e-02,-1.24401e-01,-1.23688e-01,-4.34977e-02,-7.53758e-02,-8.06980e-03,5.78543e-02,1.34654e-01,-7.30564e-02,-9.44496e-02,4.43612e-02,
-1.19079e-01,2.58041e-02,-1.41635e-01,5.93933e-03,-8.30137e-02,1.62225e-01,-8.01364e-02,-2.02964e-02,-4.11333e-02,-7.56382e-02,4.50487e-02,-6.87393e-02,-1.68324e-01,-1.49928e-01,-1.28010e-01,-1.88835e-01,-1.54809e-01,-1.90404e-01,-2.14484e-01,-2.87471e-01,1.23402e-01,-1.98059e-01,-2.23373e-02,-2.00168e-01,1.22225e-02,6.78416e-02,2.12777e-01,-1.98406e-02,-9.04485e-02,-1.07358e-01,-1.72874e-01,-2.49698e-02,-9.00834e-02,9.48711e-02,4.67974e-02,9.89798e-02,1.70537e-01,-1.55249e-01,-2.39540e-02,-2.08958e-01,1.11564e-01,-3.16470e-02,-1.57477e-01,-1.42628e-01,1.21560e-01,2.33294e-03,-1.69649e-01,4.11822e-02,-8.59024e-02,-1.78627e-01,7.91847e-02,9.03092e-02,1.16060e-01,3.97126e-02,-1.67289e-01,-1.32278e-01,-1.94945e-01,1.27962e-01,8.50028e-02,8.86625e-02,-1.28928e-01,3.21102e-02,-2.17703e-02,6.85497e-02,-3.18036e-01,-6.26885e-02,-1.68944e-01,8.97399e-02,5.12770e-02,1.38969e-01,-7.28897e-02,-1.60015e-01,3.45313e-02,9.68091e-02,3.67456e-02,-1.33102e-01,1.13470e-01,-3.08965e-01,3.13989e-02,-7.28125e-02,-9.11089e-02,-1.64477e-01,-2.91464e-02,-2.74725e-02,-4.78010e-01,-1.18341e-01,7.35134e-02,-9.62761e-02,-1.11432e-01,-5.00479e-02,-2.60560e-03,-1.99903e-01,-2.25737e-02,1.07796e-01,-1.86142e-01,1.08545e-01,1.14531e-01,-4.30829e-02,5.54164e-02,-1.61089e-01,
-3.65113e-02,1.10857e-01,-3.71327e-01,-2.34864e-01,-2.01709e-01,4.84687e-03,5.68333e-02,1.23379e-01,-4.50796e-01,1.55168e+00,-3.34834e-01,1.11504e-01,1.27627e-01,2.18920e-01,5.49916e-01,-4.39113e-01,2.45533e-01,1.46864e-01,-2.71896e-02,-2.34265e+00,-1.47958e-01,-1.94227e+00,-1.47965e-01,-1.77700e-01,-1.61358e-01,-1.41410e-01,-1.50511e-01,-1.46752e-02,4.63217e-01,2.74426e-01,-9.88148e-02,1.11095e-01,1.97452e-01,5.20323e-01,-2.18546e-01,8.10455e-02,1.16648e-01,-1.62859e+00,1.35311e+00,1.49870e+00,2.44051e-01,-1.95430e-02,1.13563e-01,-5.75523e-02,-3.22293e-02,7.44696e-01,-1.85168e-01,-2.64618e-01,-3.34490e-02,-1.81004e-02,2.18297e-01,-3.44013e-01,-1.29097e-01,-2.74709e-01,1.41499e-02,-1.57775e-01,1.49613e-01,1.09292e-01,-1.79512e-01,-1.01218e-01,-2.18780e-01,4.49430e-01,-1.23761e-01,1.12749e-01,6.20933e-01,-5.63424e-02,1.37046e-01,4.96192e-01,-2.08308e-01,3.82081e-02,-1.15922e-01,-1.32398e-01,-2.81462e-01,-8.07732e-01,-1.56786e+00,4.53240e-02,-8.01429e-02,-1.84952e-01,8.95495e-02,-2.02944e-01,-7.74132e-01,4.76688e-03,1.08165e-01,2.35189e-02,4.63798e-01,4.62411e-01,-4.20161e-01,3.61301e-01,-1.29236e-01,1.01150e-01,1.22129e-01,1.83668e-02,-1.66736e-01,-2.47182e-01,1.65948e-02,-4.65992e-01,-5.39255e-02,-1.38223e+00,-5.51640e-02,1.10949e-02,
-1.80912e-02,-1.59857e-01,-1.09984e-01,-2.41302e-02,5.23357e-02,2.20194e-01,3.19760e-01,-1.01222e-01,-1.94317e-01,-1.62083e-01,-1.42019e-01,1.27399e-01,-6.84254e-02,-4.41113e-02,-3.88422e-01,3.36833e-02,1.16912e-01,-7.01460e-02,-3.29446e-01,-8.99637e-01,1.52900e-01,-1.62556e-01,-1.56383e-02,-4.17753e-02,8.99267e-02,2.27213e-01,-9.99608e-04,-4.56561e-02,-6.92949e-02,1.59545e-01,5.93328e-02,-1.51586e-01,-1.92204e-02,-1.09319e-01,1.66956e-02,2.02985e-02,-1.54454e-01,-5.82991e-01,1.07217e+00,-1.75558e-01,1.66289e-01,1.06069e-01,-9.83075e-02,-6.68541e-02,-9.95666e-03,1.44906e-01,8.50909e-02,-1.01414e-01,-1.43988e-01,-1.02979e-01,1.23347e-01,-1.99695e-02,2.40742e-02,1.42179e-01,1.16717e-01,4.53872e-02,1.39598e-01,3.62602e-03,6.99678e-02,1.12529e-02,-4.58181e-01,1.27310e-01,-1.21544e-01,-6.56064e-02,-4.40080e-01,1.12424e-01,-4.94870e-02,-5.05083e-03,3.74953e-02,1.03795e-01,-1.16910e-01,1.11543e-01,3.63261e-02,-1.38785e-01,-5.67513e-02,-4.69470e-02,5.71801e-02,-6.56582e-01,1.65453e-01,3.68755e-02,-2.92203e-01,1.38868e-01,3.20622e-03,-6.26324e-02,-5.40813e-01,-3.53339e-01,1.80845e-01,5.49500e-02,5.09277e-02,5.57385e-02,2.24700e-01,-2.21860e-03,-1.20304e-01,-1.19443e-01,3.49661e-02,-1.26879e-01,1.54404e-01,-1.79631e-01,-1.97149e-01,5.88950e-02,
2.55200e-02,9.43548e-02,-4.71181e-01,-1.08259e-01,-2.24094e-01,1.26538e-01,4.07782e-01,2.36101e-01,-3.86510e-02,6.65158e-01,1.00651e-01,-6.78278e-02,1.02342e-01,3.61586e-03,-4.42482e-01,-1.37886e-01,3.21836e-01,2.28203e-01,-2.63178e+00,4.10441e-01,1.46579e-01,-4.00697e-01,5.87142e-02,2.78085e-04,-9.60675e-02,-3.74404e-02,-9.96281e-02,1.11775e-01,4.41813e-02,4.06112e-01,5.43101e-02,6.68048e-02,-1.67835e-01,1.14749e-01,-1.93205e-01,-3.12020e-01,1.01669e-01,1.23930e+00,6.80925e-01,-2.80404e-01,2.10782e-01,1.21786e-01,-1.00171e-01,8.75252e-02,-7.46322e-03,-6.91030e-02,2.99709e-01,-7.55778e-03,1.38497e-01,-3.25894e-01,1.81901e-02,-1.71475e-01,-8.45448e-02,-3.59828e-02,1.38326e-01,9.01252e-02,5.80299e-01,8.15592e-02,-2.75316e-01,1.49011e-01,-7.34072e-02,1.10146e+00,-6.73436e-02,2.97953e-01,2.44148e+00,1.69556e-01,8.76534e-02,-3.22193e-02,1.04134e-01,-1.51052e-01,3.78117e-02,-1.38583e-01,-3.39470e-02,-3.33153e-02,-2.04293e-01,1.53792e-01,9.29474e-02,-1.55697e+00,-5.35859e-02,-4.27961e-02,-1.55261e+00,8.65235e-02,-1.25753e-01,2.01322e-01,-5.04742e-01,7.67033e-01,-1.89912e-01,3.30961e-01,-1.86784e-01,2.27791e-02,-1.29318e-01,2.84709e-02,-8.77906e-02,3.21917e-01,3.35132e-03,4.37971e-01,-1.37202e-01,-3.50085e-01,6.39887e-02,3.46225e-02,
1.61349e-01,-4.36327e-02,2.31208e-01,9.02364e-02,-2.45097e-01,-1.57017e-01,-4.79106e-02,-4.72493e-01,-4.70404e-01,1.46342e-01,-1.05104e-01,2.07135e-02,-1.50638e-01,-1.01992e-01,-3.46867e-01,-2.74964e-01,-3.69411e-01,-5.67391e-01,-2.46397e-01,-2.66672e-01,1.60315e-01,-3.12194e-01,-1.02041e-01,2.47859e-02,1.15521e-01,7.97164e-03,1.02721e-01,7.11847e-02,-1.14099e-01,1.32365e-01,-8.62048e-02,-3.22648e-01,1.37721e-01,1.00437e-01,1.34719e-01,1.57245e-01,-1.28385e-01,-4.11434e-01,-2.25416e-01,-4.53563e-01,1.11829e-02,-1.33233e-01,-1.16210e-01,1.40069e-03,-5.89433e-02,2.74861e-02,6.15869e-03,-5.27802e-02,-1.11908e-02,3.50449e-01,1.34995e-01,1.49488e-01,-8.54042e-02,4.20541e-01,1.27755e-02,-8.36272e-02,-1.13280e-01,-5.48633e-02,1.56830e-01,-1.72869e-01,-1.06507e-01,-1.50410e-01,1.34625e-01,-4.15673e-02,-1.11784e-01,5.81100e-02,5.32345e-03,-1.03288e-01,-8.80636e-02,9.40142e-02,1.36396e-01,-8.13515e-02,-6.91669e-02,-2.99518e-01,-4.58286e-01,1.41186e-01,1.02201e-01,-8.41378e-02,-1.40542e-01,-1.28080e-01,-4.85415e-01,1.06407e-01,-3.99281e-02,5.42025e-02,-2.05840e-01,-2.60709e-01,1.38481e-01,-1.80790e-01,-8.20319e-02,-1.30508e-02,-3.78316e-02,-6.06827e-02,7.10174e-02,-4.03229e-01,-1.21898e-02,-4.16244e-02,-7.22318e-02,1.77087e-01,2.03271e-02,-1.71128e-02,
1.61852e-02,-1.38154e-01,9.83176e-02,-5.84672e-02,-1.21914e-01,2.17435e-02,-3.86967e-02,-1.48503e-01,4.16821e-02,1.94114e-01,-5.14765e-01,-5.26036e-02,-7.52987e-02,-4.82982e-01,-2.33629e-01,2.13783e-02,1.13871e-01,-5.52126e-01,-6.99128e-01,-1.15546e-01,-1.09030e-01,-4.01891e-02,-9.91345e-02,4.46429e-02,1.27231e-01,-1.68329e-01,-1.01313e-01,-1.66668e-03,-3.30892e-01,2.64076e-01,-1.08182e-01,-1.29318e-02,-1.80584e-01,-2.19066e-02,-1.67948e-01,-4.62968e-02,-5.60199e-02,-6.55542e-02,5.95300e-04,-1.63491e-01,-7.52201e-02,-1.34308e-01,-8.58627e-02,9.02081e-02,-1.89913e-02,-3.74208e-02,9.97659e-02,-7.32121e-02,-1.03470e-01,-1.04881e-01,1.09793e-02,-8.68247e-02,1.87827e-02,1.95046e-01,-4.80264e-02,7.70682e-02,2.12568e-01,-1.10306e-01,-1.58647e-01,7.09323e-02,-6.52817e-01,2.16805e-01,8.98314e-03,-1.28712e-01,-8.76223e-02,-1.34348e-01,9.83909e-02,-4.76110e-01,-5.71032e-03,-1.08709e-01,-1.65821e-01,1.72909e-01,7.64569e-03,1.80708e-01,-9.61528e-02,-3.47907e-01,-1.63915e-01,-2.47595e-01,3.88362e-02,-3.27357e-02,-5.24198e-01,-4.88847e-01,-1.03518e-01,-2.55803e-02,-5.11190e-01,-6.16656e-01,6.70060e-02,2.41347e-01,-6.95878e-02,-1.22676e-01,4.28675e-02,-1.16380e-01,-5.02266e-02,-2.29860e-01,1.77371e-02,3.73660e-01,1.45563e-01,-1.96829e-01,1.28506e-01,-1.40089e-01,
1.66782e-02,-1.34432e-01,2.32863e-02,1.13549e-01,1.19621e-01,-2.95832e-02,-2.17385e-03,-2.09369e-02,-1.29088e-01,-3.21974e-03,-9.40802e-02,-1.09423e-01,-1.49953e-01,-5.54576e-02,-7.19489e-02,6.26974e-02,6.55933e-03,-8.07349e-02,-3.63638e-01,2.67153e-02,-6.60651e-03,-2.19398e-01,-1.42406e-01,-1.04003e-01,2.65680e-02,-8.38329e-02,-2.53957e-02,7.73867e-02,6.57883e-02,2.13029e-02,3.93258e-02,-2.77046e-01,-1.37316e-01,-6.00327e-01,5.54520e-03,-1.35556e-01,-1.44205e-01,-1.74597e-02,-4.67390e-01,-8.88894e-02,4.42249e-03,-1.21834e-01,-3.88501e-02,6.22319e-02,8.09075e-02,-6.65762e-02,9.75351e-02,-9.31540e-03,-1.54218e-01,5.52152e-02,9.04370e-02,-2.07845e-01,9.80626e-02,6.71339e-02,-1.88162e-02,-1.89435e-01,-2.02045e-01,-7.70385e-02,6.79350e-02,-2.01110e-01,-7.30161e-01,-2.59960e-02,-1.64544e-01,-1.83972e-01,-9.41186e-02,-1.09794e-02,1.64464e-01,5.93926e-02,-3.44708e-02,-6.83565e-02,1.82562e-02,3.64929e-05,-1.81528e-02,-6.15830e-02,3.24582e-02,-1.04491e-02,-1.31138e-01,-3.77689e-01,6.70256e-03,-9.67915e-02,-4.52597e-01,-7.12362e-02,-1.51906e-01,-1.55539e-01,-6.88021e-01,-5.27384e-01,7.21726e-02,1.02419e-01,6.79374e-02,1.46641e-03,4.08082e-02,5.27321e-02,9.80122e-02,1.16216e-01,1.46099e-01,-2.78860e-04,3.92675e-02,-1.65092e-03,4.26537e-02,-1.67330e-01,
-2.45182e-01,8.37216e-02,-8.18493e-02,-2.25552e-01,1.22588e-01,-8.56054e-02,-1.20754e-01,1.32248e-01,-3.19464e-02,-5.87961e-02,1.29493e-01,8.70533e-02,1.37057e-01,-1.53769e-01,-1.66112e-01,-1.07148e-01,1.67340e-01,1.16947e-01,-2.53682e-01,-1.32552e-01,-1.03510e-01,-2.22610e-01,6.92206e-03,5.87520e-02,-1.99464e-01,-3.62741e-02,1.65085e-01,-1.46151e-01,1.80349e-01,-6.95512e-02,-2.20104e-02,2.84374e-02,1.12246e-01,-9.23881e-02,1.66466e-01,8.07023e-02,1.35945e-01,-3.92369e-02,-2.99880e-02,-1.15926e-02,7.22800e-02,3.85409e-02,3.33750e-02,-1.60108e-01,-2.56048e-02,-2.29120e-02,1.42951e-01,-1.36325e-01,1.02761e-01,-8.01926e-02,2.98099e-02,-4.63230e-02,6.40493e-02,1.83809e-02,-1.01559e-01,-9.26892e-02,6.61480e-02,1.18741e-02,-6.83487e-02,-1.04044e-01,-7.26896e-02,-1.64210e-01,1.47965e-01,3.65296e-02,-1.21466e-02,-1.44444e-02,-5.25608e-02,-4.17020e-02,1.60640e-01,-1.13331e-01,2.69107e-02,1.16159e-01,3.46829e-02,3.42098e-02,-1.42482e-01,-1.81335e-02,1.87291e-01,-3.87200e-01,-3.89838e-02,9.92279e-02,-2.61625e-01,-2.66060e-02,1.93471e-01,-9.75591e-02,-2.89011e-01,-2.85057e-01,1.52706e-01,-1.26845e-01,-8.49804e-02,1.10065e-01,1.33189e-01,1.03025e-02,8.18277e-02,3.17688e-02,1.11526e-02,6.56311e-02,-3.49437e-03,-4.13999e-02,1.62190e-01,4.45384e-02,
1.32662e-01,4.14557e-02,-1.23119e-01,-6.12413e-02,4.62055e-02,1.80395e-01,-1.40252e-01,-7.13037e-02,-6.55716e-02,-2.23758e-01,2.54150e-02,1.21675e-01,9.78837e-02,-2.74904e-01,-1.59889e-01,4.42936e-02,-1.66588e-01,-1.31831e-01,-2.31404e-01,-2.61310e-02,3.11896e-02,-3.80369e-01,-7.99711e-02,6.54414e-02,-2.00059e-01,-1.64865e-01,-1.49753e-02,-1.28876e-01,1.70214e-01,3.67451e-02,-9.54185e-03,-2.09699e-01,-6.07979e-02,2.84090e-01,9.34343e-02,2.24576e-02,5.90942e-02,-1.35453e-01,1.87044e-01,-7.82059e-02,8.30973e-02,1.48123e-01,-1.52857e-01,-6.81164e-02,1.12768e-02,8.60565e-02,2.57799e-02,1.09271e-01,-1.22541e-02,-1.32455e-01,-1.41061e-01,-5.31923e-02,1.31359e-01,2.35807e-03,-1.13253e-01,-1.98451e-01,1.71070e-01,1.45808e-01,1.86475e-01,-4.99485e-02,-5.12857e-02,-4.22535e-02,3.93543e-02,1.53190e-01,-1.92166e-01,1.29724e-01,8.61515e-02,-1.54393e-01,1.87385e-03,2.22662e-01,1.51942e-01,-1.28202e-01,-1.34956e-02,1.25174e-02,-9.47506e-02,-1.97946e-01,1.27248e-01,-2.97175e-01,1.59728e-01,-5.68320e-02,-2.35498e-01,-8.27541e-02,-4.98819e-03,1.79816e-01,-3.14182e-01,-5.84553e-02,-7.95143e-02,-1.56423e-01,8.20374e-02,1.74679e-01,4.94535e-02,-1.41429e-01,1.20031e-01,-1.44513e-01,-1.70146e-02,-1.63166e-01,1.55344e-01,-1.29850e-01,1.39015e-01,9.94719e-02,
6.09893e-02,8.54085e-02,-5.30579e-02,2.16938e-02,3.29041e-02,1.46145e-01,6.95087e-02,-1.34716e-02,-4.14722e-01,-2.25496e-01,-6.17663e-02,-1.41656e-01,-1.57863e-01,2.88002e-02,-4.08055e-01,-1.01314e-01,8.49035e-02,-1.29029e-01,-3.30412e-01,-2.32032e-01,-1.36593e-02,1.62986e-01,6.51642e-02,-1.58544e-02,-2.06292e-02,8.56135e-02,1.20799e-01,4.62816e-02,-2.40674e-02,8.14852e-02,1.60407e-02,-2.89160e-02,-4.11675e-03,6.73951e-02,1.27975e-01,-1.00823e-01,-2.90461e-02,-7.25069e-02,5.05813e-01,-1.45934e-02,-3.13177e-03,1.68762e-01,-1.60693e-01,1.77100e-02,-9.63028e-03,-9.63032e-02,-8.30755e-02,1.21383e-01,-5.20561e-02,-1.24037e-01,1.25854e-01,8.92461e-02,1.10686e-01,-1.28366e-01,-6.50017e-02,-6.42592e-02,1.66505e-02,-3.11223e-03,-2.26994e-02,-3.53939e-02,-1.81102e-01,-2.10269e-01,9.54148e-02,1.46264e-01,-4.85941e-02,-1.35515e-01,-1.17764e-01,-1.53384e-01,-8.91637e-02,-1.69552e-01,1.31868e-01,1.37792e-01,-6.99793e-02,-4.79758e-02,-2.36063e-01,5.83370e-02,-9.95414e-02,-2.06523e-01,2.41464e-02,-1.40294e-01,-5.87141e-01,-1.53027e-01,1.76146e-02,2.03017e-02,-1.48339e+00,-1.74778e-01,5.48427e-02,9.82784e-02,1.06740e-01,-3.72112e-02,1.16554e-01,-2.09857e-01,-7.72574e-02,6.63609e-03,-5.77126e-02,-1.28458e-01,-1.45664e-01,7.80790e-02,-1.70393e-01,-9.69065e-02,
1.52000e-02,-3.65873e-03,-7.48902e-02,-2.00811e-01,7.04298e-02,3.60105e-02,-1.51994e-01,-1.76226e-01,-3.26130e-01,-3.79394e-01,-7.59547e-02,1.24905e-01,1.65211e-01,-2.37931e-01,-2.46999e-01,2.34851e-02,9.37421e-02,-3.89287e-02,-3.94644e-01,-6.47248e-01,4.16091e-02,1.99085e-01,9.02662e-02,-1.11172e-01,-1.76802e-01,-5.78184e-02,9.53643e-02,-3.28251e-03,-1.79351e-02,1.23780e-01,-3.24352e-02,4.89733e-01,-5.01638e-02,5.56393e-02,3.71458e-02,-2.92408e-02,2.32444e-02,5.58910e-01,-8.57741e-02,1.63032e-01,1.70223e-02,-4.61483e-02,2.26218e-02,-1.57119e-01,-2.47833e-03,-3.87126e-03,3.23857e-02,1.73417e-01,-5.38273e-02,1.04152e-01,2.01390e-01,-6.61780e-02,5.29618e-02,5.29274e-02,-2.30697e-02,-7.01081e-02,5.55136e-03,1.31698e-01,3.90905e-02,-1.34366e-01,-6.51585e-01,1.48553e-01,-2.62774e-02,1.10464e-01,3.72980e-01,1.22777e-01,-3.27505e-02,-9.35231e-02,2.68347e-02,-1.41151e-01,-5.49376e-02,-3.96663e-02,-1.07595e-01,-1.42138e-01,-9.71252e-02,-4.46853e-02,-8.08194e-02,-4.02498e-01,-7.24809e-02,1.06384e-01,-1.00529e+00,6.96211e-02,1.13667e-01,3.74314e-02,-1.50213e-01,7.00007e-02,-2.17935e-02,1.22679e-01,-1.53417e-01,-3.21915e-02,-8.93593e-02,5.48721e-02,-1.49710e-01,-2.18087e-02,-6.43461e-02,6.13224e-02,-4.92840e-03,3.14566e-02,-5.57793e-02,1.79194e-01,
-1.57731e-01,6.61347e-02,-3.32514e-03,-3.77636e-02,-2.08071e-01,-1.74385e-01,3.87505e-02,-2.05058e-01,-2.08075e-01,-6.45866e-02,8.66405e-02,-1.52251e-01,2.99346e-02,-1.16353e-01,-1.00613e-02,6.82176e-02,-4.44963e-02,-1.03499e-01,-1.67811e-02,5.78656e-03,-9.87280e-02,-7.07284e-02,-8.05577e-02,-1.93194e-01,-1.67625e-01,-1.13943e-01,4.86667e-02,-4.46337e-02,-2.71396e-02,3.15432e-02,8.43821e-02,-4.20107e-01,-6.63248e-02,4.29274e-02,1.13513e-02,-1.97325e-01,-5.99215e-02,-2.08855e-01,-2.79658e-01,8.33152e-02,-4.41710e-02,-3.36078e-02,-2.27415e-01,-1.05003e-01,-7.60881e-02,1.36808e-01,-1.28882e-01,8.00352e-02,-1.41070e-01,-2.00982e-01,1.17998e-01,8.99472e-02,-1.04039e-01,-1.98181e-01,-7.68368e-02,2.39595e-02,8.60762e-02,-1.04457e-01,-1.55670e-01,-8.43946e-02,-1.44711e-01,-2.27360e-02,-1.20264e-01,-2.29217e-02,-2.55552e-02,-1.90865e-02,1.46102e-01,6.10380e-02,-1.17065e-01,-4.41649e-02,-1.69652e-01,-1.05399e-02,-8.97645e-02,-2.13608e-01,2.08135e-02,-5.87770e-02,1.49317e-01,-1.28820e-01,-3.15756e-02,2.44777e-02,-2.24348e-01,5.73562e-02,1.18588e-01,2.71476e-02,-3.86398e-01,-3.00997e-02,-4.09829e-02,1.08515e-01,-1.62380e-01,2.71459e-02,-1.80322e-01,-1.08619e-01,-7.06165e-02,-4.11666e-02,3.03691e-02,-2.06032e-02,3.43144e-02,-3.04796e-03,-1.66645e-01,-6.96713e-02,
-2.37558e-02,-1.48264e-01,8.48711e-02,-2.04646e-01,-1.06484e-01,1.84955e-01,-2.82934e-02,-1.30165e-01,-9.97993e-02,6.34006e-01,5.59387e-02,-8.85779e-02,-7.42027e-02,-7.93421e-02,7.32967e-02,-3.56698e-02,-1.84428e-01,-1.84607e-01,-2.64161e-01,7.25929e-01,-1.03262e-01,2.60592e-02,-1.41662e-01,5.34225e-02,1.37183e-01,1.70846e-01,1.47870e-02,-1.21924e-01,-3.16719e-01,-1.62646e-01,1.40189e-01,-3.90612e-02,7.93692e-02,4.72905e-01,-1.37063e-01,1.27238e-01,3.31577e-02,4.17584e-01,2.50055e-01,-6.19861e-02,1.46013e-01,-1.07418e-01,7.28530e-02,7.50633e-02,-9.65694e-02,6.28092e-02,-3.56509e-02,6.88743e-01,6.22639e-02,1.35529e-01,1.66828e-01,-4.02114e-02,-1.38436e-01,1.28046e-02,1.52929e-01,5.05926e-02,1.90989e-01,1.59158e-01,1.94570e-01,-2.14009e-02,-2.60211e+00,4.94208e-01,-6.00735e-02,1.51236e-01,2.59373e+00,-1.67305e-01,2.33241e-02,-5.75024e-02,2.04439e-01,1.80106e-01,5.77443e-02,1.98813e-01,3.05107e-01,2.34532e-01,4.22741e-01,7.04341e-02,-9.35029e-02,-9.72079e-01,2.57850e-02,1.39060e-01,-5.07150e-01,-2.06006e-02,-1.35772e-01,1.03299e-01,3.94217e-01,-6.91901e-01,2.01107e-01,5.33158e-01,-9.18860e-02,1.01226e-01,6.75385e-02,2.18668e-01,7.40391e-02,1.03967e-01,-1.07925e-01,-9.72949e-02,-7.06945e-02,4.91396e-01,4.02897e-02,1.41229e-01,
1.08697e-02,-7.82237e-02,-1.02364e-01,4.71579e-02,4.92155e-02,-2.79759e-02,-1.17624e-02,-1.42764e-01,-2.50220e-02,-5.82959e-02,6.32600e-02,-8.35458e-02,7.89098e-02,-3.53811e-02,-1.19824e-01,-3.08320e-02,1.16033e-01,-7.54839e-02,-3.02364e-01,-3.10868e-01,9.17817e-02,-1.62758e-01,-8.31370e-02,-9.51939e-03,-9.04737e-02,4.69464e-02,9.91062e-02,-4.49309e-02,7.55849e-02,-2.19769e-01,1.43905e-01,-1.15846e-01,3.84733e-02,-1.20311e-02,9.22636e-02,-8.30876e-02,-4.04622e-02,-1.88620e-01,-2.25801e-01,1.05473e-01,-6.57322e-03,1.20269e-02,-1.31574e-01,-2.90502e-02,4.26905e-02,-1.31738e-01,-7.99224e-02,1.21964e-01,1.65701e-01,-9.30670e-02,1.21887e-01,8.96272e-02,-2.54070e-02,-1.53767e-01,4.84513e-02,5.94110e-02,-6.42530e-02,-1.09524e-01,1.27652e-01,4.42957e-02,-3.40063e-01,-1.61880e-01,-1.35741e-01,-1.52613e-01,-1.46345e-01,-1.49676e-01,1.37017e-01,5.72157e-02,-1.76313e-01,-1.65820e-01,3.96800e-02,-2.00561e-01,3.66064e-01,8.44292e-02,-7.37944e-02,1.00910e-01,-1.53042e-01,-2.50443e-01,1.02129e-01,6.47554e-02,-2.70290e-01,8.87176e-02,7.48634e-05,-1.97536e-01,-5.91197e-01,-2.32456e-02,4.79546e-02,1.14580e-01,-2.85596e-02,-1.73861e-02,-1.79691e-01,-9.49227e-02,1.20334e-01,1.77815e-01,7.96807e-03,-1.36096e-01,2.88427e-02,1.34831e-01,6.50169e-02,1.42428e-01,
4.39449e-01,7.89028e-02,-5.84468e-01,8.40942e-02,-2.43545e-01,5.17853e-02,-7.83837e-01,-5.12473e-01,-2.25241e-01,5.80545e-01,4.12002e-02,2.60498e-01,-2.95523e-02,1.90448e+00,-1.04157e+00,-1.55471e-01,-1.35511e-01,-2.15006e-01,-1.70967e+00,-1.12537e+00,-1.67978e-01,1.80529e-01,1.56998e-01,-3.81722e-03,-9.46715e-02,7.17869e-02,8.20140e-02,9.85587e-02,1.16967e-01,-5.72270e-02,6.85746e-02,3.86552e-01,-7.18964e-02,2.92572e-02,3.46342e-02,2.22253e+00,7.89121e-02,3.84458e-01,4.64795e-01,-4.17911e-01,-7.33462e-02,1.62694e-02,4.78522e-01,-1.38258e-01,-7.50213e-02,3.89774e-01,-9.27678e-02,4.35435e-01,1.59179e-01,-3.31816e-01,1.77578e-01,9.23702e-01,-1.59411e-01,1.07930e+00,1.04629e-02,4.38079e-02,2.19972e-01,1.55745e-02,5.25640e-01,-3.48460e-02,-4.70752e-01,5.42759e-01,6.13973e-02,-1.00018e-01,5.82074e-01,-1.35700e-01,-1.46267e-01,-7.30133e-01,2.85363e-02,5.34721e-03,3.01418e-01,-1.10869e-01,-9.80964e-02,-6.92155e-01,-3.06708e-01,5.61294e-02,-1.58181e-02,-1.07000e+00,-6.78690e-02,-1.16932e-01,-1.14530e+00,-9.45066e-02,5.07552e-02,6.53819e-02,-1.80217e-01,-7.01638e-02,6.06108e-01,1.51811e+00,2.21185e-01,9.55731e-03,9.10177e-01,3.30536e-01,-1.33636e-02,2.52130e-01,-2.86623e-02,2.00328e+00,-3.35277e-02,1.71436e-01,-1.40655e-01,-1.33245e-01,
-1.29747e-01,1.35694e-01,2.22852e-02,1.10213e-02,-3.47449e-02,4.61263e-02,-1.48990e-01,4.75569e-02,-1.06163e-01,-2.18291e-01,2.87831e-02,-3.06473e-02,1.93195e-01,-8.15342e-02,-3.09686e-02,-1.47752e-01,1.24588e-01,-6.10342e-02,-2.20666e-01,-3.40118e-02,1.70847e-01,-5.22712e-02,1.16148e-01,3.73670e-02,-1.51362e-02,5.16051e-02,1.47292e-01,-1.34778e-01,3.84265e-01,-1.32243e-01,-2.11282e-02,-3.22533e-02,-1.14946e-01,-6.49692e-02,1.13738e-01,7.16012e-02,3.54912e-02,-4.90677e-02,6.66843e-02,-4.98629e-02,-1.81790e-01,-1.07363e-01,-1.98170e-01,2.79986e-02,7.36192e-02,-4.58195e-02,-1.34486e-01,8.05732e-02,8.81435e-02,1.17306e-01,-8.55298e-02,1.32770e-01,-6.45778e-02,1.33503e-01,-1.62080e-01,-1.02643e-01,1.28378e-01,1.54010e-01,-1.65322e-01,-2.52044e-02,-7.72233e-02,-1.10368e-01,-7.97491e-02,1.44381e-01,8.87950e-02,-8.90783e-02,-9.49903e-02,6.59698e-02,-7.82934e-02,1.38524e-01,-1.72848e-02,4.37529e-02,-7.62584e-02,-6.56251e-02,-1.45362e-01,-2.40442e-02,-4.56882e-02,-1.89569e-01,-8.62639e-02,-1.47911e-01,-3.09053e-01,8.95389e-02,-1.76960e-02,-4.18191e-02,-1.27905e-01,-9.07335e-03,9.60044e-02,4.32715e-02,-3.77069e-02,8.79307e-02,2.24429e-01,-1.86939e-01,9.02197e-02,1.08530e-01,5.05471e-02,-1.44863e-01,1.39232e-01,-1.46516e-01,-1.99773e-01,-5.15068e-02,
4.67927e-02,1.42954e-01,6.82323e-02,-1.78184e-02,-7.11143e-02,-5.12875e-02,-1.58736e-01,6.84612e-02,-7.90870e-02,-1.97176e-01,4.56613e-02,7.68974e-02,3.98589e-02,-1.50062e-01,5.23702e-02,-1.06590e-01,1.06581e-02,-1.08569e-01,-1.84241e-01,2.71642e-02,1.77706e-01,-5.49642e-02,-1.93566e-01,8.09456e-02,-1.55496e-01,3.42480e-03,1.07039e-01,1.98625e-02,1.05180e-01,-2.23047e-02,-8.31617e-02,4.05536e-02,-1.47448e-01,-2.04541e-01,-8.94976e-03,8.35732e-02,1.50151e-01,-8.88239e-02,-3.17562e-01,1.31864e-02,-6.55715e-02,8.84464e-02,-1.20239e-01,-1.31366e-01,-1.30499e-02,-5.70211e-02,-1.41352e-01,-1.39554e-01,-3.86807e-02,-2.08142e-01,1.51041e-01,-1.44029e-01,1.61709e-02,-1.75285e-01,-1.49525e-01,3.17814e-02,3.43237e-02,1.46542e-01,-1.60011e-01,1.13444e-01,-7.33974e-02,-7.75297e-03,-1.16063e-01,-9.15208e-02,-1.68588e-01,1.86021e-02,9.33022e-02,1.26416e-01,-7.87056e-02,1.45248e-01,-1.92414e-01,-2.00876e-01,7.46979e-02,-2.20520e-01,-2.23462e-01,-1.88774e-01,3.92793e-03,-2.09189e-01,-1.26161e-01,-7.47120e-02,-3.30972e-02,-1.91356e-01,-1.05546e-01,1.30602e-01,-2.83244e-01,3.47914e-02,6.57914e-02,-1.81640e-02,-2.66377e-02,-1.27998e-01,1.42025e-01,4.95523e-02,1.53261e-01,-2.09939e-01,4.06636e-02,1.33941e-02,-1.29832e-01,-4.53848e-02,7.83362e-02,-1.26231e-01,
1.65081e-01,-1.10101e-01,8.96739e-02,-4.90327e-02,-4.61771e-01,-1.75191e-01,6.82772e-01,7.22906e-01,-4.29530e-01,1.42842e+00,-8.69944e-02,-2.02781e-01,1.19516e-01,6.87996e-02,2.52091e+00,-7.67124e-03,1.72526e-01,1.27445e+00,-3.07381e+00,-4.64463e-01,-1.33823e-01,1.79148e+00,-8.71858e-02,8.48070e-02,1.00501e-01,-2.51289e-02,-1.22064e-01,1.01768e-01,-5.52419e-02,-3.44955e-02,1.01457e-01,2.49771e+00,1.58259e-02,-5.91744e-02,-2.38968e-01,-2.12100e-01,-1.29785e-01,3.95082e-01,6.39270e+00,9.89804e-02,-1.02189e-01,3.63282e-02,-8.36078e-02,-7.69323e-02,-4.02960e-02,5.17699e-02,-1.22723e-01,-1.25685e-01,-1.31571e-01,3.17636e-02,-1.14839e-01,-1.12122e-01,1.45440e-01,-3.91746e-02,-1.89285e-01,-6.28259e-02,-1.58605e-01,-1.08256e-01,-7.92841e-03,-1.32550e-01,-1.09254e-01,1.62044e+00,1.29392e-02,-6.18621e-02,1.31523e+00,4.68412e-02,-1.25838e-01,8.30532e-02,-1.45649e-01,-7.30208e-02,-1.68967e-01,-6.12196e-03,-3.87908e-01,5.72858e-02,6.22084e-02,-8.50333e-02,1.11087e-01,-6.93718e-01,1.56420e-02,1.26905e-01,-2.35954e+00,-1.35258e-01,-8.04940e-02,-6.58688e-02,5.21482e-01,1.09761e-01,5.32604e-02,-7.98865e-04,-4.94662e-02,-2.36904e-02,-6.27147e-02,-8.76815e-02,1.30960e-01,-1.16696e-02,4.36264e-02,-4.34853e-02,-3.15750e-02,-2.60059e-01,1.24703e-01,-2.03939e-01,
1.09109e-01,-1.11883e-01,-6.01171e-02,-1.60084e-01,-3.13561e-02,-7.43727e-02,-3.29203e-01,8.61392e-04,-3.72714e+00,1.02724e+00,5.67741e-01,1.39806e-02,2.55505e-02,-2.93666e-01,8.15787e-01,-5.71898e-01,2.16535e-01,1.94689e-01,2.23773e-01,2.33713e-02,-3.09432e-02,-6.94052e-01,7.38004e-02,5.30583e-02,-3.63701e-02,-4.08761e-02,-7.33213e-02,8.83679e-02,9.96986e-01,1.47937e-01,-3.04411e-02,8.51933e-02,3.50262e-02,-2.29633e-01,7.23069e-02,1.13951e-01,7.82598e-02,-1.03960e+00,4.40882e-01,-3.48751e-01,8.43264e-02,3.46050e-02,3.93754e-02,-1.05668e-01,1.32055e-01,-2.04588e-02,-6.76073e-02,-2.60470e-01,-7.08445e-02,4.99112e-01,-3.13309e-02,9.51890e-02,2.84104e-03,-2.44591e-01,1.21865e-01,-2.02691e-01,-1.44861e-01,-1.31819e-01,-4.16665e-01,-3.67374e-02,-2.41097e+00,9.00937e-01,-1.59618e-01,-2.53592e-01,2.25802e+00,-1.40872e-01,2.12035e-03,-7.79778e-01,-1.95345e-01,-1.34197e-01,-1.49620e-01,-2.07015e-01,-3.84523e-02,-5.59401e-01,-3.60803e-01,-2.69805e-01,1.96002e-02,1.98553e-01,-1.67466e-01,-1.06542e-01,-3.83606e+00,-3.25901e-02,9.55620e-02,-1.23784e-01,2.77828e-01,-8.77975e-02,-2.68753e-02,-3.60348e-01,2.85124e-01,1.43613e-01,3.34324e-01,4.69360e-02,9.39038e-02,-1.79908e-01,8.15602e-02,2.66278e-01,3.73266e-02,3.20832e-01,8.31862e-02,-1.94367e-01,
-1.29529e-02,-6.39502e-02,8.75914e-02,1.32346e-01,1.25315e-01,-2.23065e-02,-1.71935e-01,1.11269e-01,-5.12372e-01,2.25781e-02,1.01564e-01,1.15068e-01,6.05869e-02,-2.19760e-01,-2.06470e-01,1.57781e-01,-4.32657e-02,-1.22133e-01,-1.34434e-02,-2.33020e-01,5.79317e-02,-8.35046e-01,1.06841e-01,-7.26280e-02,-1.36358e-01,1.05170e-01,4.15585e-02,-1.30582e-02,-1.71453e-02,-1.37830e-01,-1.40938e-01,-1.91810e-01,-1.43295e-02,-1.31977e-01,1.22745e-02,-1.36040e-01,1.16800e-01,-5.40779e-01,1.56735e-01,-3.65020e-01,-4.85733e-02,1.42260e-01,-7.06736e-02,-1.78199e-01,-4.72601e-02,-5.44355e-02,8.31873e-02,3.31170e-02,6.12440e-02,5.35416e-02,4.07707e-02,-1.88634e-02,-2.53667e-02,5.40946e-02,-1.51945e-01,-1.48698e-01,-1.55470e-01,-1.05259e-01,1.67087e-01,-1.30896e-02,-6.17471e-01,-1.68003e-02,-8.34678e-02,8.65775e-04,-2.00222e-02,9.55926e-02,7.59825e-03,-4.73295e-02,-1.78322e-02,-1.13857e-01,1.29216e-01,1.37474e-01,-2.92862e-02,8.94314e-02,-5.25647e-01,-1.21592e-01,1.70852e-01,-5.53725e-01,-3.86795e-02,7.95527e-02,-1.14001e-01,-5.38315e-02,8.34084e-02,1.64425e-01,-6.00217e-01,-4.03425e-01,-7.46464e-02,-1.63353e-01,-1.27592e-01,1.72920e-01,7.11724e-02,3.61318e-02,-8.67483e-02,-1.90529e-02,-1.14476e-01,-1.68590e-01,-3.90652e-02,-3.69740e-01,9.99127e-02,1.61582e-01,
-1.57682e-01,2.65871e-02,-2.13338e-01,-9.64578e-02,-1.47067e-01,-2.03826e-01,-6.22674e-02,4.16392e-01,-7.68105e-01,9.20364e-02,2.45291e-02,-1.21802e-01,2.02750e-02,-1.57294e-01,-2.76410e-01,-2.21252e-01,4.40438e-02,-1.03047e-01,-3.30924e-01,7.49969e-03,-8.28391e-02,-8.04770e-01,-7.63252e-02,7.93859e-03,-7.38651e-02,-1.67156e-01,-1.34940e-01,1.31315e-01,-2.18970e-01,-5.08263e-02,1.54484e-01,-1.54568e-01,3.35103e-02,-1.03466e-01,-1.56480e-01,7.70029e-02,1.15164e-01,-1.48979e-01,-1.44546e+00,-9.49531e-02,-1.31784e-01,1.08201e-01,-1.65074e-01,2.17434e-02,-1.46183e-01,-1.20801e-01,-1.89226e-02,2.76997e-02,-7.71582e-03,-1.69325e-01,-3.55978e-02,3.99752e-02,1.54006e-01,-1.98056e-01,3.36290e-02,7.99902e-02,-2.07068e-01,-6.94962e-02,9.53400e-02,2.26316e-02,-5.71627e-01,-1.61938e-01,-6.30850e-02,-2.11917e-01,-3.02082e-01,-3.98598e-02,9.11312e-02,-2.52683e-03,9.52238e-02,1.00942e-01,-2.47233e-02,-9.20620e-02,-1.29387e-01,3.84572e-02,-5.29194e-02,-1.94188e-01,1.29802e-03,-8.06187e-01,-5.90647e-02,-1.42087e-01,-4.18610e-01,7.33600e-02,-3.76828e-03,1.13151e-01,-1.55967e+00,3.99411e-02,4.07097e-02,6.18201e-02,-1.70607e-01,-1.64386e-01,-2.10691e-01,-2.41263e-01,6.97554e-02,-3.24556e-01,-8.21026e-02,-1.46252e-01,-2.72458e-02,-1.40525e-01,-1.12144e-01,-4.84764e-03,
-1.11826e-01,1.25705e-01,9.85763e-03,1.50198e-02,7.50674e-02,-1.68162e-01,5.61866e-01,9.90610e-02,-5.23568e-01,4.45524e-01,2.06446e-02,2.38100e-01,-1.17706e-01,1.04326e-01,-3.20875e-02,5.80298e-01,1.96348e-01,1.34485e-01,-2.34640e+00,2.43799e-02,-2.37322e-02,-7.76002e-01,2.54790e-02,1.92830e-02,-1.02906e-01,-1.62319e-01,8.53850e-02,-7.04415e-02,-2.81513e-01,9.35686e-02,-1.21122e-01,1.11629e+00,-3.57741e-01,3.22419e-01,9.30896e-01,-3.35786e-01,1.01348e-01,-8.34251e-02,1.63880e-01,-3.36782e-02,7.56323e-01,-1.42217e-02,-2.16173e-01,-6.80098e-02,1.25926e-01,1.09195e+00,3.30431e-01,1.96162e-01,-8.73556e-02,1.25684e-01,1.69176e-01,4.22823e-01,2.61791e-02,3.98319e-01,-3.96408e-01,1.63428e-01,-9.10478e-02,1.07317e-03,1.82136e-01,7.76551e-02,-1.72813e-01,5.97679e-01,5.27580e-02,2.95235e-01,7.57689e-01,-9.89144e-02,8.89568e-02,1.74316e-01,-3.39776e-02,3.49916e-02,1.00980e+00,1.41666e-01,-2.60252e-01,-8.44194e-02,1.02527e-01,1.23563e+00,2.64362e-01,-4.19596e-01,-9.47523e-02,8.29758e-01,-1.62634e+00,5.54375e-01,-3.07073e-02,1.04856e+00,2.51186e-01,2.09683e-01,-6.50641e-02,5.53324e-01,-1.15652e-01,-5.74255e-02,3.23653e-01,3.42669e-01,2.06200e-02,-1.49281e-01,1.35288e-02,-3.99495e-01,1.27915e-01,2.25980e-01,7.52401e-02,-1.69636e-03,
6.66313e-02,1.50212e-01,-2.12343e-02,3.06424e-02,6.74980e-02,-2.38362e-02,5.96644e-02,1.20170e-02,-3.37340e-01,1.29041e-01,4.33337e-02,-1.13233e-01,1.05204e-01,-1.74561e-01,-4.52545e-01,-4.51065e-02,-7.41717e-03,-4.41942e-02,-5.84846e-01,-3.14751e-01,-1.71668e-01,6.42292e-02,-5.15057e-02,-7.82676e-02,-1.08309e-01,6.39726e-02,7.57421e-02,3.20950e-02,1.16570e-01,-1.78267e-01,-1.11044e-01,-4.61220e-02,-7.17030e-03,-3.48498e-01,-1.93651e-01,-1.50927e-02,3.19081e-02,-3.10287e-01,-5.27974e-01,-3.45637e-02,7.96009e-02,-2.63636e-02,5.40619e-02,4.36337e-02,-1.08000e-01,-2.17917e-01,9.17154e-02,-1.30054e-01,8.23870e-02,-1.34022e-01,-4.05908e-02,-9.71118e-02,-1.26491e-01,5.33301e-02,2.61524e-02,-1.32697e-01,-4.92700e-02,5.56788e-02,7.30924e-02,1.54002e-02,-3.25265e-01,9.70803e-02,-1.91016e-02,4.63642e-02,-4.56778e-02,1.70664e-01,3.68465e-03,2.89397e-02,-5.69339e-02,-6.74679e-02,-8.52917e-02,-1.43935e-01,3.33721e-02,5.88191e-02,-2.92035e-02,-5.90233e-02,-1.23181e-01,-6.18370e-01,2.57336e-02,-2.04204e-01,-9.06581e-01,4.92873e-02,-1.56214e-01,-7.95756e-02,-3.31488e-01,8.28343e-02,-2.20789e-01,-1.60095e-01,-1.25267e-01,-1.26857e-02,8.37166e-02,1.20587e-02,-1.23396e-01,-1.74543e-01,4.38562e-02,6.46652e-02,1.58721e-01,-1.97540e-01,-6.76572e-02,-7.46441e-02,
7.05262e-02,1.45444e-01,9.95862e-02,-1.27637e-01,-4.27165e-02,1.33748e-01,-1.64457e-01,-1.96827e-01,2.71072e-03,-1.43067e-01,-1.35980e-01,-2.11138e-01,-1.66759e-01,-2.89689e-01,1.60235e-02,-1.03464e-01,9.48527e-02,3.42936e-03,-2.26583e-01,-2.20887e-01,-1.10249e-01,2.89901e-03,-1.15211e-01,-1.70113e-01,-1.99096e-01,1.30388e-01,1.34846e-02,8.05797e-03,2.48564e-02,-6.77276e-02,-1.42344e-01,-1.78304e-01,-1.10689e-01,1.12799e-01,-2.13199e-01,-1.04970e-01,1.36583e-01,-9.97277e-02,3.55667e-02,-1.58035e-01,1.32046e-01,1.07902e-01,-2.07230e-03,-6.56091e-03,-9.14793e-02,-1.51497e-01,-2.48070e-02,-9.37432e-02,1.71659e-01,-7.45535e-02,1.20100e-01,-9.80437e-03,-1.37102e-02,3.13930e-03,-6.49801e-02,-7.24819e-02,-1.58965e-01,-1.39383e-01,-6.60657e-02,1.21899e-01,-5.68159e-01,-9.99149e-02,-7.53505e-02,1.09830e-01,-6.52688e-01,-4.01179e-02,7.67105e-02,-6.87295e-02,-7.67407e-02,7.65978e-03,4.44311e-02,-8.22136e-02,2.25600e-02,4.96544e-02,1.48521e-02,-2.26708e-01,-5.76629e-02,-2.69343e-01,-1.41527e-01,-4.63039e-02,-3.47148e-01,-9.35975e-02,-1.24374e-01,-4.33015e-02,-8.95570e-01,-3.34871e-02,-1.85145e-01,-5.52949e-02,-4.89339e-02,-2.05452e-01,9.40308e-02,1.42278e-01,1.90894e-02,-1.95813e-01,8.70187e-02,-1.82532e-01,3.53688e-02,-1.66261e-01,-1.00516e-01,-7.95185e-02,
1.07515e-01,-2.47945e-02,6.75030e-03,-3.11075e-03,1.22093e-01,-1.87381e-01,1.27230e-01,9.58866e-02,-6.05846e-04,-1.57902e-01,1.26972e-01,2.98832e-02,7.69824e-02,-1.23737e-02,-5.24157e-02,-1.85072e-01,9.30600e-02,-1.56481e-01,-1.79713e-01,-4.78751e-02,3.99795e-02,-2.63386e-01,9.03310e-02,1.40040e-01,-9.64058e-02,-2.05927e-01,-4.80382e-02,-4.14454e-02,1.59879e-01,3.11541e-02,-9.20185e-02,-3.15185e-02,-8.68087e-03,1.36608e-01,9.78207e-02,-1.91755e-01,-4.52262e-03,-3.17928e-02,6.81474e-02,-4.71489e-02,-1.51452e-01,-1.19054e-01,1.41760e-01,1.16108e-01,-2.11984e-01,5.28336e-03,1.60284e-02,1.17474e-01,-1.83746e-01,1.21588e-01,-8.38473e-02,-1.10271e-02,-1.27389e-01,-6.08847e-02,1.05249e-01,-1.58796e-01,-1.19333e-01,1.31282e-01,3.39743e-02,-1.39913e-01,-2.49774e-02,-5.42197e-02,-2.22077e-02,-2.15076e-01,-1.99865e-01,-9.48948e-02,1.46202e-01,-1.56159e-01,-1.91294e-01,-1.38911e-01,-1.64308e-01,-2.14639e-02,-1.33174e-01,1.48150e-01,5.09767e-02,-1.04016e-01,1.30340e-01,-2.40230e-01,3.10585e-02,1.06448e-01,-1.55898e-01,-1.66410e-01,-9.32924e-02,-1.52183e-01,-7.04984e-01,-2.43042e-01,5.56099e-02,9.05488e-02,1.18854e-01,-1.23314e-01,-1.66583e-01,1.11588e-01,5.55569e-02,1.01101e-01,9.95297e-02,-1.66951e-01,2.24520e-02,2.67201e-02,1.12093e-01,-3.39961e-02,
3.14421e-02,8.24046e-02,8.89350e-02,-1.20244e-01,7.51728e-02,1.02623e-01,5.67303e-02,-1.18567e-01,-1.54240e-01,1.60927e-01,-1.11554e-01,1.29948e-01,-5.35375e-02,-1.39896e-02,-3.21670e-02,-5.99985e-02,-1.93340e-01,-1.38269e-01,-1.01352e-01,7.24024e-03,7.45456e-03,-1.74043e-01,-1.73173e-01,8.22122e-02,-1.52652e-01,-1.29283e-01,-1.69457e-01,-1.24385e-02,6.34708e-02,-1.77235e-01,1.47023e-01,-1.55780e-01,1.12570e-03,6.23203e-02,8.18497e-02,-3.67076e-02,1.26616e-01,-8.24902e-03,-2.11995e-01,3.47049e-02,-1.23456e-01,2.67386e-03,3.27594e-03,1.44873e-01,-1.15090e-01,-2.23315e-01,7.59362e-02,5.63177e-04,8.20611e-03,-1.12595e-01,5.26067e-02,-8.88201e-02,-1.44451e-01,1.23242e-01,4.80968e-02,1.34668e-01,-1.89371e-01,6.72801e-02,1.11479e-02,-9.00892e-02,-1.42157e-01,9.01823e-02,-2.13290e-01,-8.00297e-03,8.34772e-02,1.50721e-01,2.48322e-02,-7.89295e-02,-3.66767e-02,1.42217e-02,5.49026e-02,-7.49687e-03,-9.28849e-02,-8.91641e-03,1.26356e-02,1.14097e-01,1.04877e-01,-1.91308e-01,-1.17901e-01,1.08068e-01,-5.66376e-02,-1.58073e-01,-1.32389e-01,-9.18307e-02,-1.53732e-01,-1.19085e-02,-1.50194e-01,-2.20281e-01,2.56362e-02,-8.54012e-02,-1.12021e-01,-1.32276e-01,1.46917e-01,-2.12010e-01,1.04512e-01,-1.36021e-01,-9.74125e-02,9.55162e-03,-1.92918e-01,-1.15113e-01,
1.49809e-01,3.70102e-02,3.70260e-02,2.47934e-01,9.96965e-02,-1.59332e-01,-5.11848e-02,-3.59211e-02,-2.14617e-02,-1.66432e-01,-9.58741e-02,1.26539e-02,-6.10515e-02,-2.22353e-02,-1.44074e-01,-1.71515e-01,8.12896e-02,-1.03911e-01,-4.35625e-02,-7.20178e-02,7.36862e-02,-2.04575e-01,-1.74484e-02,2.46659e-02,-1.43961e-01,-2.06181e-01,4.95252e-02,-2.23090e-02,-2.24011e-01,-1.89757e-01,-9.90321e-02,-8.73246e-02,-1.51436e-01,1.43892e-01,9.79822e-02,-5.18930e-02,-4.73358e-02,-7.14643e-02,-1.28992e-01,-1.44393e-02,-4.63241e-02,4.50771e-02,1.23479e-01,4.26594e-02,2.45361e-02,5.84278e-02,-1.94566e-01,8.86035e-02,2.82169e-02,-2.05350e-01,6.72605e-02,1.12123e-01,-1.42657e-01,5.80488e-04,-9.54867e-02,-1.08985e-01,-2.84692e-02,-5.44030e-02,-1.78198e-01,6.43247e-02,-1.44749e-01,1.97740e-02,-2.01354e-01,-1.73425e-01,-7.84473e-02,-1.45326e-01,-1.12572e-01,5.45932e-02,-1.48852e-01,1.18256e-01,-1.89639e-01,-1.69767e-01,-1.83407e-01,-1.97221e-01,-1.10328e-01,-1.23288e-01,3.33833e-02,-1.72212e-01,6.07893e-02,2.08112e-02,-8.88697e-02,4.62326e-03,-1.33483e-01,-1.59638e-01,-1.33638e-01,-6.86098e-02,-2.74951e-02,-1.73413e-01,-1.43484e-01,6.75172e-02,-2.02598e-01,7.35741e-02,-7.13267e-02,-3.98689e-02,-1.88858e-01,5.26876e-02,1.15270e-01,8.70406e-02,9.30011e-02,1.25849e-01,
-7.40103e-02,-1.23578e-01,3.69544e-02,2.32329e-02,-7.01092e-02,-3.63328e-02,1.20209e-01,-5.47260e-02,-4.48596e-02,-1.08960e-01,-1.01776e-01,-1.75638e-01,1.56827e-01,-6.15220e-02,1.77124e-02,1.67431e-02,-1.80352e-02,-1.36770e-02,-5.58707e-02,-1.22093e-01,-7.02274e-02,-3.41356e-02,3.13949e-02,1.20503e-01,-1.50692e-01,1.40335e-01,5.60633e-02,-1.47328e-01,8.78493e-02,-3.90237e-02,-1.69691e-01,-1.15533e-01,1.96144e-01,1.31735e-01,8.13170e-02,-2.87441e-02,2.62138e-02,8.02572e-02,-1.13774e-01,3.87192e-02,2.18780e-02,-1.13953e-01,-7.75729e-02,5.10109e-02,1.54794e-01,-9.72511e-02,-5.02567e-02,-5.71998e-02,-9.39818e-02,5.26796e-02,-1.49682e-01,8.29668e-02,-1.12695e-01,7.72275e-02,1.70522e-01,6.56088e-02,1.30980e-01,9.18215e-02,5.22448e-02,-1.13115e-01,-1.59654e-01,-7.95335e-03,1.78053e-01,-4.44200e-02,-8.08265e-02,1.19538e-02,-2.57261e-02,-1.58550e-02,-8.31123e-02,-1.12795e-01,1.06897e-02,-7.73602e-02,4.38763e-02,-1.77683e-02,-8.00974e-02,9.99731e-02,-1.48379e-01,-5.38615e-02,-8.46326e-02,-1.06410e-01,-1.18135e-01,1.67067e-01,2.13855e-01,-9.77022e-02,-3.08423e-01,-4.74659e-02,1.42642e-02,-4.17126e-02,-3.52843e-02,-1.18380e-01,-8.30582e-02,1.09807e-01,2.76745e-02,6.80160e-02,-3.33007e-02,1.66908e-01,1.19201e-01,-1.15577e-01,1.95890e-01,1.72915e-01,
3.47840e-02,1.60624e-01,5.99701e-02,1.13046e-01,-1.43958e-01,-8.95340e-02,8.12591e-02,-9.74978e-02,-2.61169e-01,-9.87157e-02,-6.05800e-02,4.08794e-02,4.97393e-02,-3.09182e-02,-2.55595e-01,-2.74973e-02,-9.61563e-02,2.27686e-02,-5.83051e-01,-3.70351e-02,-1.58752e-01,-2.93162e-01,3.08136e-02,-2.27292e-01,-8.84000e-02,-2.15431e-02,8.97231e-02,-1.16342e-02,-1.36064e-01,-3.89739e-02,8.97468e-02,-3.74167e-01,2.59616e-02,2.51092e-02,-1.21449e-01,-8.77652e-02,6.51351e-03,-5.65122e-02,2.32315e-02,5.34806e-02,-9.89494e-02,-1.57700e-02,1.27040e-01,6.99076e-02,-8.17167e-02,-1.05328e-01,-4.79881e-02,-7.79283e-02,-1.07264e-01,3.87751e-02,1.65156e-01,-9.66795e-02,-7.99857e-03,6.25958e-03,-1.28088e-01,1.80585e-02,-1.48039e-01,-4.35787e-02,2.96898e-02,-1.87065e-01,-3.32917e-01,1.18965e-02,-2.65202e-02,-5.19687e-02,6.08414e-03,-1.65140e-01,4.79478e-02,-2.18570e-01,8.44166e-02,1.72647e-01,-1.24026e-02,-1.48923e-01,-2.05090e-01,-5.24993e-02,5.37236e-02,4.68100e-02,-6.49159e-02,-1.69106e-01,-1.68298e-01,-2.15098e-01,-2.42161e-01,-8.86098e-02,1.69836e-01,-2.22877e-01,-2.61861e-01,-9.05631e-02,-4.00424e-02,-1.16104e-01,-1.36352e-01,-1.60593e-01,-1.34261e-01,-1.95817e-01,3.07194e-02,-5.25415e-02,-4.56995e-02,-1.99569e-01,1.18256e-01,8.21428e-02,4.30073e-02,1.70800e-02,
-1.73096e-02,-4.74643e-02,-2.13976e-01,3.93314e-02,2.02953e-02,-2.02171e-01,-2.03571e-01,-1.40623e-01,-1.46523e-01,6.25587e-02,-1.96369e-02,-1.77122e-01,-1.18004e-01,-2.08949e-01,-5.51640e-02,7.27087e-02,2.69734e-02,-1.06825e-01,-1.68132e-01,-1.15700e-01,-2.17399e-01,-1.04048e-01,-1.68284e-02,2.41913e-02,-1.62392e-03,1.48863e-01,9.17021e-02,-1.10395e-01,-1.02669e-01,4.25318e-02,1.22322e-02,-8.33877e-02,-2.21317e-01,1.21238e-01,9.59378e-03,-1.47395e-01,3.20624e-02,-1.11377e-02,-2.11572e-01,-3.67464e-02,-9.55652e-02,1.67456e-01,5.02082e-03,-7.23745e-02,1.04037e-01,-3.24994e-02,2.56659e-02,-7.58061e-02,1.46399e-01,2.31143e-02,-1.11097e-01,9.54164e-03,5.60405e-02,-8.59854e-02,-7.20168e-02,-2.11193e-01,-1.53866e-01,-1.25913e-01,-2.24315e-01,-2.13638e-01,-9.87277e-02,-3.60050e-02,-6.64277e-02,-2.39881e-02,6.07425e-02,3.02485e-02,1.26363e-01,-1.86221e-01,-4.45172e-02,2.85918e-02,4.60992e-02,9.87808e-02,4.37411e-02,-9.08565e-03,7.42776e-02,5.09413e-03,-1.76149e-01,-1.69593e-01,1.53958e-01,8.16278e-03,-6.38604e-02,-2.31041e-01,-1.53875e-01,6.64617e-03,-2.20094e-01,-5.85679e-02,-1.38394e-01,7.07415e-02,-1.10945e-01,8.74427e-02,-1.30981e-01,-2.22146e-01,-3.45268e-02,-1.23581e-01,-1.68765e-01,3.66162e-02,1.66694e-01,-2.08053e-01,-8.59078e-02,-1.28046e-01,
-4.66547e-02,-1.71865e-01,1.09869e-02,1.88097e-01,-1.67641e-01,-1.75905e-01,2.36632e-02,3.02325e-02,-1.25273e-01,-1.22234e-01,-8.40104e-02,-8.99646e-02,5.28380e-02,-4.04781e-03,-9.89901e-02,-1.95048e-01,-1.04316e-01,-2.03616e-01,1.62606e-03,-1.95474e-01,-9.85800e-02,-6.81678e-02,3.12993e-02,-1.35177e-01,-2.04870e-01,6.18773e-02,9.98486e-02,1.42728e-01,1.32476e-02,1.00322e-01,-9.78646e-02,6.26929e-04,-2.20524e-01,3.44130e-03,-1.40398e-01,4.61523e-02,-1.21302e-01,-1.31233e-01,-4.52508e-01,2.51507e-02,-1.98903e-01,-8.61623e-02,1.18191e-01,-1.81916e-01,3.51527e-02,1.29321e-03,8.48764e-02,-2.01117e-01,1.39160e-01,-5.09950e-02,-9.91028e-02,-1.03447e-02,-1.48950e-01,-4.03694e-02,-1.65049e-01,-1.04983e-01,3.51681e-02,4.86583e-03,-4.34284e-02,-7.51518e-02,-2.27546e-01,-1.65937e-01,-2.06594e-01,-1.59053e-01,5.13459e-02,8.87692e-02,2.75262e-02,-1.76407e-01,6.40180e-02,-5.68835e-02,-1.35462e-01,3.08790e-02,-5.51490e-02,-1.69601e-01,-6.59196e-02,-3.94759e-02,-5.67934e-02,-5.58202e-02,-9.89855e-02,-3.36798e-02,-3.40135e-02,-6.04128e-02,1.19718e-01,1.29208e-03,-1.27790e-01,-4.78557e-02,1.01833e-01,-1.86860e-01,-5.02738e-02,-4.75517e-02,5.95152e-02,-1.47383e-01,-1.12847e-01,6.57160e-02,-2.43067e-02,8.87722e-02,1.35051e-01,-1.49666e-01,-2.19892e-01,2.44029e-02,
2.28606e-02,5.76096e-02,-4.86810e-02,-1.09112e-01,2.36240e-02,1.11564e-01,-1.82177e-02,-2.25554e-01,1.85918e-02,-1.78168e-01,-1.91444e-01,-1.65346e-01,1.07130e-01,-3.26078e-01,-3.77414e-01,-1.64400e-01,-2.60518e-02,-2.12726e-01,-7.59305e-01,-7.29787e-01,1.65347e-01,-7.63397e-02,-9.89554e-02,-2.13211e-02,-5.64387e-02,-1.36004e-01,-1.19696e-01,-2.14820e-01,-1.96465e-01,-2.58604e-02,-5.39093e-02,-6.92020e-01,-3.44443e-02,2.68981e-02,-8.32919e-02,-7.29260e-02,-1.25462e-02,-5.99629e-01,2.01114e+00,-4.26416e-01,-3.10805e-03,-1.09737e-02,-1.01572e-01,-2.93903e-02,3.38550e-03,-5.49499e-02,-1.53724e-01,-7.40288e-02,2.93684e-02,4.83359e-02,1.02653e-01,-1.80046e-01,1.34669e-01,2.54671e-02,-4.30636e-02,9.92309e-02,4.06206e-02,-7.72366e-02,-7.25793e-02,-1.93737e-01,-6.18716e-01,-1.89437e-01,-3.15210e-02,-9.71588e-02,-6.34571e-01,7.29522e-02,-5.71394e-02,7.47458e-02,-1.57016e-01,-8.02309e-02,9.09395e-02,-1.85699e-01,-8.51650e-02,-1.89490e-01,-2.89856e-01,-2.73164e-02,8.00865e-02,-1.62339e-01,1.84775e-02,-1.59079e-01,-1.35488e-01,-8.03637e-02,8.86497e-02,8.34804e-03,-4.89757e-01,-6.92973e-01,-1.47390e-01,-1.66200e-01,-2.05737e-01,6.15668e-07,-1.91796e-01,-1.68120e-01,-1.15193e-02,4.60333e-02,1.06687e-02,9.97265e-02,-1.45743e-01,-1.36001e-01,-1.04801e-01,-1.08928e-01,
3.56069e-02,1.30793e-01,-2.29279e-01,8.67921e-02,9.42594e-02,2.15479e-02,-1.56999e-01,-1.89847e-01,-1.72659e-01,-4.99278e-02,-2.16011e-01,4.19394e-02,-2.23511e-01,-5.40007e-03,-1.24608e-01,7.50601e-02,3.88547e-02,-6.23949e-02,-8.96685e-02,-1.82096e-01,7.24772e-02,-1.67362e-01,1.22883e-02,-1.17640e-01,-6.22940e-02,2.05794e-03,1.08457e-01,-2.06811e-01,2.06753e-02,-1.10662e-01,-7.93002e-02,4.15330e-02,-2.00612e-01,-9.15598e-02,4.13333e-02,-6.27797e-02,8.67335e-02,2.96808e-03,-3.28262e-02,-2.32368e-01,-5.60712e-02,1.38102e-01,-6.50692e-02,6.28208e-02,-1.74811e-01,-5.27599e-02,-2.14579e-01,2.33166e-02,1.92190e-02,1.48340e-02,6.72858e-02,1.00520e-01,1.14651e-01,-1.84629e-01,8.01750e-02,-8.31272e-02,4.98871e-02,1.41383e-01,-2.23955e-01,-7.62726e-02,-2.59108e-02,-1.83334e-01,-2.26065e-02,5.32143e-02,-5.46319e-03,1.36674e-01,-9.91154e-02,-1.99455e-02,4.88816e-02,-9.11635e-02,-9.34607e-02,7.95194e-02,-1.79326e-01,9.04069e-02,-1.03772e-02,-1.56713e-02,5.56210e-02,-2.78631e-01,-5.42544e-02,-2.29604e-01,-1.92482e-01,-8.02922e-02,-4.27886e-02,-1.11668e-01,-3.73854e-01,-1.20081e-01,1.03925e-01,-1.20507e-01,-9.89560e-03,-1.71362e-02,3.33929e-03,7.98835e-02,4.79222e-02,-2.07617e-01,7.04474e-02,-1.01045e-01,1.17061e-01,5.88446e-03,-1.55361e-01,5.88259e-02,
6.13828e-02,-4.50999e-02,7.05457e-02,5.07309e-02,-5.21055e-02,-2.63723e-02,7.23656e-02,-1.04927e-01,-1.03265e-01,-1.45912e-01,3.20017e-02,4.59629e-04,3.58548e-03,-6.35145e-03,-1.83448e-01,1.51939e-01,-8.57162e-02,5.77968e-03,-1.20780e+00,-3.90209e-01,1.71094e-01,-2.13308e-01,1.08640e-01,-5.62320e-02,-1.48442e-02,-4.03562e-02,2.31550e-01,1.31491e-03,6.53554e-04,1.10927e-04,-8.08273e-02,1.04002e-01,7.62656e-03,-1.25459e-01,-6.57319e-02,5.36131e-03,-6.96019e-02,-1.51063e-01,-7.44408e-03,1.00742e-01,-7.17587e-02,2.34655e-02,-7.99682e-02,6.09492e-02,-2.00402e-02,1.17462e-01,-1.33097e-01,1.12308e-02,1.09237e-01,2.99611e-02,2.12357e-02,2.09827e-01,-1.39111e-01,4.66744e-02,1.24577e-01,1.44784e-01,3.86757e-02,1.12103e-01,9.96609e-02,1.26979e-01,-1.52938e-01,1.16218e-01,-3.89574e-02,8.75708e-02,4.41918e-03,1.73143e-01,2.29965e-02,-1.58052e-01,-4.94584e-02,-4.74308e-02,-3.81151e-03,-3.79933e-02,2.40388e-02,-5.97361e-02,-4.00957e-02,3.89841e-03,3.05328e-02,-5.28861e-01,9.57173e-02,6.06745e-02,-2.70935e-02,1.68722e-01,1.80023e-01,1.81976e-01,-3.94867e-01,-3.77781e-01,1.05124e-01,1.09706e-01,2.77147e-02,2.04146e-01,1.56704e-01,1.84008e-01,4.86584e-02,-1.93011e-02,-6.74570e-02,4.03165e-02,-5.22338e-02,5.57685e-01,1.97432e-01,-1.31587e-02,
-3.95525e-02,-1.51806e-01,2.79231e-02,-1.41690e-01,-1.89556e-01,-1.79148e-01,1.47346e-03,6.18159e-02,-9.69063e-02,-6.29526e-02,-4.30183e-02,-1.63795e-01,-1.40693e-01,-1.32263e-01,-1.84591e-01,-1.23670e-01,-4.14151e-02,-1.39033e-01,-7.40863e-02,-1.46280e-01,1.27739e-01,-1.61191e-01,-1.26731e-01,-2.31773e-02,2.23319e-02,2.54677e-03,-1.66877e-01,-3.45703e-02,-9.28710e-02,-2.29096e-01,-1.60181e-01,-2.09676e-01,5.57677e-02,8.94868e-02,-1.57704e-01,-4.08409e-02,6.07575e-02,-1.12174e-01,8.71289e-02,-1.26879e-01,-1.63816e-01,1.18434e-01,-1.64605e-01,-8.25956e-02,1.13021e-01,-1.28707e-01,-1.05378e-01,-1.60152e-01,-9.30566e-02,1.02679e-01,-1.70591e-01,2.07072e-02,3.15477e-02,3.70883e-02,9.44258e-02,1.23365e-02,-1.97225e-01,-1.07119e-01,-1.85819e-01,4.30007e-02,-2.38163e-02,-1.38196e-01,-1.25104e-01,7.32775e-02,1.48573e-03,1.72920e-01,1.67893e-01,-6.14243e-02,-1.61189e-01,4.75085e-02,-4.84365e-03,1.26335e-01,-1.98442e-01,1.76092e-02,-8.10128e-03,3.49668e-03,1.16541e-01,-2.32371e-01,6.63367e-02,-1.78366e-01,-5.05117e-02,-1.12330e-01,-4.22469e-02,-2.14556e-01,-1.06836e-01,-4.83732e-02,-1.09739e-01,-2.10998e-01,-1.40856e-01,-3.37358e-02,-9.37048e-02,-7.81170e-03,8.99978e-02,1.04239e-02,-1.51415e-01,-2.38529e-03,6.95474e-02,-9.86404e-02,2.73952e-02,-2.40791e-02,
-7.36111e-02,1.60958e-02,7.78885e-01,1.98785e-01,-8.12788e-02,4.17180e-02,-1.75753e-01,-5.67344e-01,-4.21972e-01,-4.56079e-01,-1.43955e-01,-2.14208e-01,9.57728e-02,-7.51672e-01,-3.03512e-01,-1.54150e-01,-4.76332e-02,6.51787e-02,2.97187e-02,-1.01241e+00,1.02826e-02,-9.97352e-01,-1.53495e-01,7.29736e-02,1.06174e-01,-9.76827e-02,-1.15426e-02,-1.14473e-01,7.19202e-02,1.07163e-02,1.70553e-01,-5.54128e-01,-9.91946e-03,-2.26687e-02,-3.05461e-01,-2.51050e-01,1.50846e-01,-5.09747e-01,-1.65434e+00,-5.81624e-01,-5.09606e-01,7.08839e-02,2.00486e-02,1.42163e-01,-1.48207e-01,-1.75546e-01,-2.24525e-01,6.03312e-02,-1.08626e-01,3.33251e-03,-7.84959e-03,3.99666e-01,-4.34191e-02,-1.46713e+00,-2.52595e-01,-1.12855e-01,2.59475e-01,1.20251e-02,-3.53015e-01,-1.09953e-01,-1.07135e+00,-3.87712e-01,-8.69490e-02,3.25017e-01,8.57533e-02,-1.47448e-01,-4.97580e-02,-1.31558e-01,-8.86362e-02,2.19950e-02,-1.02568e+00,1.30548e-01,1.34147e-01,-1.61767e-01,1.51470e-01,5.17676e-01,-1.99009e-01,-4.20973e-02,3.58706e-02,-3.66218e-02,-3.59580e-01,7.60332e-02,-1.91807e-01,-1.42106e-01,-8.37391e-01,-8.42547e-01,-2.45754e-02,-1.00084e+00,1.59564e-01,9.16730e-02,-8.59742e-01,-2.78636e-01,-1.64252e-01,1.89495e-01,-1.58956e-01,9.26502e-02,1.34025e-01,3.82683e-01,-1.61283e-01,-1.42232e-01,
-1.45202e-01,-9.57245e-02,-2.14304e-01,1.58253e-01,6.73079e-02,-1.66734e-01,-1.90566e-01,-7.50802e-02,-1.77664e-01,-5.36350e-02,-1.89031e-01,-2.44659e-02,-5.85243e-02,-5.95327e-02,-1.44926e-01,1.86762e-01,-1.72379e-01,-3.75193e-02,-9.51698e-02,-2.07986e-01,5.87832e-02,-8.34183e-02,5.78927e-04,8.48904e-02,-6.70239e-02,-1.69976e-01,1.56270e-01,-8.00477e-03,-9.11777e-02,-2.78947e-02,-9.90826e-02,-1.34614e-03,-1.14925e-01,1.22678e-01,-3.79924e-02,1.04891e-01,-1.22511e-01,-1.54209e-01,7.63154e-02,-8.28694e-02,1.36444e-01,-7.15432e-02,-1.52345e-01,-8.93531e-02,-1.03186e-01,1.38661e-01,-9.67756e-02,5.86700e-02,-1.41862e-01,8.25374e-03,-1.57625e-01,-3.54051e-02,-4.79683e-04,2.16840e-02,-1.65100e-01,2.55917e-02,4.72516e-02,-2.72070e-03,-4.63988e-02,1.13133e-01,-2.83196e-01,-1.76488e-01,1.21804e-01,-1.92340e-02,-1.83053e-01,1.18839e-01,1.01556e-01,1.47613e-01,1.12580e-01,-1.27945e-02,1.45864e-01,-1.58171e-01,-1.51294e-01,-2.35845e-01,4.31139e-02,9.43660e-02,-2.17088e-01,-4.03627e-02,5.95097e-02,-1.55281e-01,-5.02771e-02,-8.77313e-02,-1.53635e-01,-4.17490e-02,-1.63252e-01,-2.34405e-01,1.14435e-01,-6.65269e-02,-8.92323e-02,-6.94603e-02,2.99429e-02,2.71938e-02,8.22330e-02,-8.16272e-02,2.94863e-02,1.39194e-01,-5.14672e-02,-4.32976e-01,1.87102e-03,2.85831e-02,
1.29088e-04,3.87508e-02,6.39687e-04,-1.92149e-01,8.91822e-02,-1.19243e-01,-7.45784e-02,1.38884e-01,-2.57617e-01,1.54440e-01,1.67403e-01,2.98769e-02,3.69156e-02,-3.76932e-01,-1.20110e-01,-1.05159e-01,-1.56457e-01,-2.07783e-01,-6.04378e-01,-6.26569e-01,-2.85929e-03,-1.92460e-01,4.20223e-02,8.68700e-02,1.09308e-01,1.12261e-01,1.41918e-01,6.71761e-02,-9.77761e-02,-1.51199e-01,9.56180e-02,1.95955e-01,1.07160e-01,-8.05383e-02,-1.02561e-01,-3.43647e-02,1.15999e-01,3.68142e-03,1.43543e-02,-9.39355e-02,9.79012e-02,1.22525e-01,-5.98966e-02,1.17051e-01,-1.02528e-01,1.70294e-01,-4.80119e-02,1.05674e-01,8.49998e-02,-1.41050e-01,-5.76774e-02,-3.94067e-02,3.69603e-02,-9.21088e-02,-1.19224e-01,6.83500e-02,-9.71725e-02,1.33693e-01,1.02717e-01,7.26907e-02,-5.50248e-01,1.76750e-01,-9.60367e-02,1.10932e-01,1.21420e-01,2.32786e-04,-1.47784e-01,-5.83469e-02,-1.32265e-02,1.93699e-01,1.22140e-01,-4.04765e-02,1.67064e-01,-2.26718e-02,1.61915e-01,-7.93993e-03,-1.35749e-01,-4.28201e-01,-1.41928e-01,-4.50872e-02,-4.21294e-01,-1.01387e-02,4.85907e-02,2.06455e-02,-7.99454e-01,-5.83402e-02,-1.42181e-01,1.64615e-01,-5.39774e-03,8.65791e-02,1.28552e-02,5.96688e-02,-1.43453e-01,-1.80448e-01,-1.24756e-01,1.88122e-01,-9.25378e-02,1.21915e-01,1.09039e-01,-8.33530e-04,
1.05355e-01,1.42223e-01,-2.31514e-01,1.38761e-01,-1.02614e-01,-1.12874e-01,-1.80961e-01,-2.26186e-03,-3.03968e-01,-7.95884e-02,8.55528e-04,-1.39750e-01,-1.17156e-01,-8.56556e-02,-6.52114e-03,-2.04904e-01,-9.10327e-02,7.31308e-02,-2.40024e-01,-5.46833e-01,-1.61146e-02,-3.84285e-01,7.60701e-02,4.99022e-02,-2.54958e-02,7.77740e-02,-9.96279e-02,8.74874e-03,5.48894e-02,-9.73982e-02,1.38429e-02,-3.85462e-01,8.27065e-03,-1.96784e-02,-6.32269e-02,-2.00548e-01,-3.47925e-02,-1.63642e-01,5.29649e-02,-3.14710e-02,-1.94774e-02,8.44115e-02,1.69365e-02,9.07486e-02,-1.03241e-01,-6.12262e-02,-2.31838e-01,-9.51766e-02,-1.18943e-02,-1.93859e-01,5.66816e-02,-1.46117e-01,1.48074e-02,7.59626e-02,-1.88052e-03,1.20247e-01,1.90540e-02,-4.54273e-02,-5.84498e-02,-1.66988e-02,-4.88578e-01,-9.34552e-02,-1.14828e-01,-7.82188e-02,-5.49977e-01,-1.15278e-01,1.39047e-01,-1.82390e-01,6.72815e-02,8.01856e-02,-1.00597e-01,7.91123e-02,-3.76803e-03,-1.21506e-01,-2.52960e-01,-1.07849e-01,-1.52313e-01,-3.08076e-01,1.23899e-01,3.85188e-02,-3.10794e-01,-1.83580e-01,5.15032e-02,-1.24088e-01,-4.38573e-01,-2.74968e-01,4.60542e-02,6.71931e-02,-1.59337e-01,-1.05898e-02,-4.53397e-02,3.53580e-02,-2.65217e-02,-1.03198e-01,1.22364e-01,-1.76910e-01,6.58443e-02,-1.73374e-01,-1.60825e-01,-5.33623e-02,
-1.35172e-02,1.21139e-01,1.69184e-01,2.98659e-01,-4.83214e-03,1.02675e-01,1.04762e-01,-1.21402e-02,-9.34892e-02,-2.85790e-02,9.19300e-02,1.23506e-01,5.85098e-02,-7.70750e-02,-2.02918e-01,5.89197e-02,7.66070e-03,1.33042e-01,-9.60466e-02,-7.60368e-02,-1.54967e-01,-3.24884e-01,-9.65845e-02,1.22249e-01,1.60881e-01,5.25507e-02,1.26025e-02,4.37763e-02,-3.25405e-02,-2.10563e-01,-1.42757e-01,-1.64568e-01,1.06975e-01,-2.98954e-02,1.26644e-01,5.19092e-02,-1.03810e-01,-2.58589e-01,-2.55493e-01,3.91477e-02,-2.11210e-01,-9.46039e-03,-2.49717e-02,-8.27535e-02,1.73780e-02,-1.16069e-02,9.57584e-03,2.42785e-02,-9.23464e-02,-1.24453e-02,-5.78808e-02,-1.05367e-01,1.18268e-01,-2.81559e-03,-1.71743e-01,3.15805e-02,-1.54169e-01,1.67167e-01,1.17691e-01,-1.46503e-01,-3.40784e-02,1.50984e-01,4.46017e-02,-3.00657e-04,-1.30203e-01,-9.57161e-02,-1.15801e-01,-6.79106e-02,-7.82571e-02,1.16408e-01,-4.06461e-02,-7.75429e-02,-8.78721e-02,-6.12622e-02,7.15488e-02,1.76637e-01,-4.12903e-02,-1.97897e-01,7.03445e-02,-1.99474e-01,-2.53247e-01,9.79910e-02,-1.16837e-01,-8.35695e-02,-8.83742e-01,-2.11435e-02,-2.15086e-01,6.42981e-03,9.70696e-02,1.12870e-01,-1.46493e-01,1.11777e-01,-1.04364e-01,-1.02622e-01,-1.27249e-01,6.11091e-02,3.37091e-02,-4.92400e-02,-7.99795e-02,9.50122e-02,
1.16172e-01,2.89962e-02,-1.42303e-01,-9.63373e-02,-4.05873e-02,-5.64820e-02,-1.97690e-02,-1.40405e-02,4.28283e-02,9.01320e-03,-1.96118e-01,1.35372e-01,-1.50769e-01,-9.28036e-02,-1.93053e-01,-1.32943e-01,1.04714e-01,-9.73111e-02,-2.86438e-01,-3.15837e-03,2.02738e-01,-1.65211e-01,-1.75805e-01,1.19219e-01,-1.18417e-02,-1.07842e-01,-1.09408e-01,-1.19878e-01,1.56921e-01,-6.56593e-03,-1.95156e-02,-7.91304e-02,-1.03740e-01,4.54468e-02,-6.45492e-02,1.35627e-01,-1.30043e-01,-1.54746e-01,4.96403e-02,1.33342e-01,-1.03464e-01,4.58961e-02,-1.65557e-01,1.15991e-01,8.52434e-02,-2.29040e-02,-7.08543e-02,4.51603e-02,-4.64284e-02,1.11686e-01,-3.30870e-02,1.97487e-01,-3.23796e-03,4.15877e-02,9.38215e-03,-2.41699e-01,2.15882e-02,-1.57764e-01,-6.74624e-02,-8.80439e-02,-1.67124e-01,-1.14859e-01,-3.82907e-02,1.23668e-01,-1.08714e-01,1.34725e-02,-1.07959e-01,-2.15508e-02,1.85187e-01,-1.28429e-01,-1.12359e-01,1.32971e-01,-2.05891e-01,-5.12444e-02,-2.13357e-01,5.36247e-02,1.56456e-01,-1.63722e-01,1.94703e-02,5.04906e-02,-1.25431e-01,-5.88424e-02,2.41461e-03,1.09538e-02,-3.43117e-01,-1.66057e-01,2.46154e-02,-4.99638e-03,-2.00124e-01,-1.33205e-01,1.38298e-01,-2.01288e-01,-3.42377e-02,1.76420e-02,-6.71322e-02,-5.74347e-02,-3.64231e-02,1.33960e-01,1.34005e-01,1.55495e-01,
5.87489e-02,1.72999e-01,-1.29343e-01,-1.55026e-01,-2.24784e-01,-3.12411e-02,-2.76772e-01,5.40713e-03,-1.68457e-01,-1.38250e-01,-1.58000e-01,7.54161e-02,1.50349e-01,-1.07733e-01,-3.17216e-01,-1.17913e-02,-4.31367e-02,-2.19945e-01,-1.35179e-01,4.12908e-02,-6.35814e-02,-3.61888e-01,3.72349e-02,2.83397e-02,-5.92274e-03,1.51573e-01,-7.43992e-02,3.70330e-02,1.63086e-01,-2.10999e-01,-4.23045e-03,-1.74460e-01,9.06229e-02,-1.72803e-01,-4.44848e-02,-9.72729e-02,1.38995e-01,-2.09769e-01,3.58849e-01,-4.24996e-02,-1.41070e-01,8.70133e-02,1.19684e-01,9.15185e-02,8.49935e-03,-1.41758e-01,-1.00921e-01,-7.99100e-03,9.40553e-02,7.93734e-02,-1.47492e-01,-1.32307e-02,3.20329e-02,1.42980e-01,7.91495e-02,1.97611e-02,-7.54016e-02,3.24400e-03,-1.20537e-01,3.11827e-02,-2.66374e-01,-1.66522e-01,1.44575e-01,1.04765e-01,-8.11038e-02,1.84902e-02,-8.40306e-02,-1.27631e-01,-1.04434e-01,9.21554e-02,5.94637e-02,-7.85940e-02,-2.39792e-01,-1.23124e-01,-1.54072e-01,-1.28762e-01,1.28479e-01,-2.72160e-01,-6.75133e-03,3.26566e-02,-2.12811e-01,4.27214e-02,-8.37760e-02,7.44292e-02,-3.08013e-01,-7.73337e-02,7.73138e-02,-1.55917e-02,-3.92417e-02,1.57206e-01,-1.32362e-01,-1.35453e-01,1.48913e-01,3.23041e-02,-9.10564e-03,-1.48865e-01,4.94615e-02,-2.29630e-03,-8.41323e-02,2.56830e-02,
-1.13808e-01,1.60167e-01,1.92756e-02,-1.13994e-01,-1.09181e-01,9.24936e-02,8.64664e-02,2.66478e-02,-2.96952e-01,1.58205e-01,-6.53166e-02,-1.75042e-01,1.02895e-01,-1.49149e-01,-2.32100e-01,6.40091e-02,1.38241e-01,-1.02200e-01,-3.74161e-01,-9.55776e-02,2.29288e-01,-3.46997e-01,-6.70559e-02,-1.17060e-01,-6.43633e-02,-7.75932e-02,-1.38069e-02,1.91491e-01,-3.49762e-02,7.61824e-03,-4.91733e-02,-2.52339e-01,-5.28867e-03,5.93710e-02,1.01033e-01,2.21783e-02,1.42263e-02,-1.31302e-01,-1.13013e-01,2.68243e-02,-1.53990e-02,-1.42657e-01,-1.91543e-01,6.11099e-02,4.04388e-02,3.09401e-02,-6.20257e-02,1.33960e-02,6.72398e-02,2.18765e-02,8.72942e-02,-9.28856e-02,8.88361e-02,-3.29535e-02,-8.53344e-02,-1.01826e-01,1.35743e-01,-6.31594e-02,1.58879e-01,1.19855e-01,-1.44207e-01,-2.50352e-02,2.24463e-01,-3.14392e-03,-9.01622e-02,8.00928e-02,-1.11537e-01,-1.42120e-02,1.67886e-01,6.58424e-02,-9.57500e-02,1.71715e-01,3.31449e-03,2.50688e-02,-4.52719e-02,1.22542e-01,-1.32399e-01,-1.62497e-01,-1.26077e-01,-7.93588e-02,-4.76613e-01,9.07171e-02,4.91960e-02,8.29534e-02,-3.40404e-01,-2.25059e-01,1.59671e-01,1.59102e-01,1.28266e-01,5.61363e-02,1.15318e-01,8.86435e-02,-9.68405e-02,-2.64158e-02,-1.57878e-01,-1.27431e-01,-1.14397e-01,2.36295e-01,1.78299e-01,1.26400e-01,
-6.57519e-02,1.44101e-01,-5.50895e-04,4.47282e-02,-7.82263e-02,4.44978e-02,-1.18918e-01,1.09641e-01,-4.31073e-02,8.60562e-02,9.83006e-03,-8.69830e-02,9.20567e-02,2.36344e-02,-1.55438e-01,-1.34126e-02,3.34793e-02,2.60725e-02,-2.51300e-01,-3.07757e-01,2.88725e-02,-7.01050e-02,-1.21839e-01,1.17778e-01,-1.29313e-01,3.68294e-02,-2.57775e-02,-2.28266e-02,3.83117e-02,-1.55624e-01,-7.99843e-02,-4.82313e-02,-1.35047e-01,-4.03468e-02,-3.34314e-02,1.43755e-01,-2.59147e-02,-1.86110e-01,-2.23668e-01,-1.46296e-01,-9.87506e-02,-1.15944e-01,-3.10913e-04,1.09792e-01,1.67313e-01,1.94862e-01,9.70725e-02,1.97867e-02,-4.41493e-02,-9.17915e-03,1.46417e-01,1.64616e-01,2.68597e-02,-9.72478e-02,1.64029e-01,-1.13247e-01,1.21671e-01,1.69334e-01,-1.24635e-01,2.45486e-02,-1.34997e-01,-1.13524e-01,1.42379e-01,-2.55099e-02,2.60946e-02,2.06280e-02,6.02126e-02,-8.30391e-02,-8.62943e-02,2.29209e-01,-1.38131e-01,-9.38757e-02,-1.16183e-03,-7.57307e-02,7.77553e-03,-1.67303e-01,1.21841e-02,-2.22295e-01,-1.12649e-01,-6.95063e-02,-1.63959e-01,-4.07889e-02,1.48474e-01,-4.54016e-02,-3.18206e-01,2.27043e-02,5.85018e-02,-8.89268e-03,-4.86095e-02,1.63741e-01,1.08757e-01,5.40904e-02,8.44195e-03,3.79764e-02,-1.50290e-01,-2.47111e-02,2.38648e-02,1.61936e-02,1.28497e-01,2.56401e-02,
-3.41447e-02,-2.87037e-02,1.37185e-01,-1.31546e-01,1.94837e-02,-7.33353e-02,3.05174e-02,1.50677e-01,-7.29500e-02,1.51164e-01,-1.05981e-01,-8.24616e-02,-8.61200e-02,-1.38607e-01,-1.39329e-03,7.40252e-02,1.38198e-01,-1.45750e-01,-9.22200e-02,-2.47029e-01,1.12805e-01,-2.14888e-01,-9.86198e-02,-1.79973e-01,3.23148e-02,-8.38115e-02,3.45045e-02,-5.37297e-02,-1.25815e-01,-9.88849e-02,-3.66696e-02,1.00470e-02,-5.61635e-02,-3.39347e-01,1.28382e-01,5.97814e-02,-1.63228e-02,-1.34840e-01,1.24946e-01,-9.65907e-02,-2.12678e-01,5.64468e-02,-3.77527e-02,5.32605e-02,-1.59442e-02,-2.22705e-01,6.25469e-02,-1.84199e-01,9.35291e-02,7.81127e-02,-1.27324e-01,4.73128e-02,-1.26593e-02,-1.87170e-01,-2.48316e-02,-5.94550e-02,2.12683e-02,-1.33621e-01,-1.05939e-01,-2.04593e-01,-9.66432e-02,-1.63297e-01,-5.40768e-03,-2.04750e-01,3.62318e-02,1.27914e-01,8.50103e-02,-1.87156e-01,-4.84393e-02,1.05653e-01,-2.00367e-01,-8.57412e-02,5.78806e-02,-1.00062e-01,-3.16488e-03,9.28794e-02,-2.30572e-01,-2.95036e-01,1.68409e-01,1.12547e-01,-2.83581e-01,-1.16350e-01,1.22938e-01,-1.20528e-02,-2.62214e-01,6.59912e-02,-3.89769e-02,2.56674e-02,-1.35353e-01,-1.34775e-01,9.04455e-02,-1.42388e-01,1.56613e-01,-1.83512e-01,-4.11436e-02,-5.65836e-03,-8.91378e-02,9.50865e-02,-8.52344e-02,6.00289e-02,
9.49211e-02,7.99886e-02,-3.27628e-02,3.24215e-01,1.36580e-01,6.30220e-03,-2.00450e-01,-5.24202e-02,-3.67393e-01,-5.98418e-02,6.20227e-02,-6.95133e-02,1.91811e-01,-1.62799e-01,-1.37633e-01,-1.64354e-01,-3.21876e-02,6.60783e-02,-5.15020e-01,-3.21561e-01,1.20052e-01,-6.67273e-02,1.83371e-02,-1.43942e-02,-2.06192e-01,8.90838e-02,-4.30021e-02,-8.97406e-02,-6.19605e-02,6.98907e-02,3.68860e-02,-5.35872e-02,-4.72301e-02,-5.08773e-03,1.40627e-01,1.60154e-01,7.67176e-02,-1.85062e-01,2.22070e-02,-9.56357e-02,-1.03239e-01,-3.06051e-02,7.57571e-02,1.14082e-01,2.08832e-02,4.90813e-02,1.26954e-01,2.06447e-02,1.73836e-02,-1.64945e-01,9.83429e-02,-6.37346e-02,5.61876e-02,1.04038e-01,1.15687e-01,-9.70684e-02,-1.61895e-01,-4.47786e-02,-4.97491e-03,-4.45469e-02,-1.76364e-01,-9.69705e-02,-2.23292e-02,-1.48183e-01,5.57444e-02,6.62972e-02,-7.64658e-02,-6.86856e-02,-1.58672e-02,1.27414e-02,-9.10901e-02,-2.52070e-02,-6.27035e-02,-7.05501e-02,-9.80962e-03,1.60102e-02,-6.79295e-02,-3.33159e-01,2.20655e-02,9.17369e-02,-4.15623e-01,7.88787e-02,6.97793e-02,2.76509e-02,-1.06192e-01,-5.07412e-01,-5.33360e-02,-1.69304e-01,-1.08657e-01,-1.34635e-01,2.05527e-01,-1.60609e-01,-8.97840e-02,-6.66114e-02,-1.06431e-01,1.66046e-01,2.59445e-02,1.69222e-01,-1.23425e-02,-1.48252e-01,
-2.47882e-01,6.03518e-03,-1.00684e-01,-2.29669e-01,-1.41450e-01,2.35307e-01,1.96195e-02,-9.08588e-02,-1.30766e-01,1.23020e-02,-1.32885e-01,-1.08729e-01,-5.19601e-02,-3.25855e-02,-4.65103e-01,-1.59910e-01,1.16126e-01,-8.88639e-03,1.27559e-03,-1.13093e-01,-9.29647e-02,-6.50898e-01,4.48637e-02,-4.81812e-02,1.73610e-01,2.40498e-02,8.68180e-02,-1.50593e-01,7.02962e-02,4.33920e-02,1.19462e-01,-1.03407e-02,-7.84628e-02,2.11308e-01,1.90058e-01,5.20368e-02,1.01963e-03,-1.86663e-01,3.23868e-02,3.04929e-02,6.67063e-02,1.31062e-01,-2.07718e-01,2.39508e-02,2.35844e-01,1.70796e-01,6.62683e-02,-7.09089e-02,-8.03173e-02,1.30174e-01,-1.37555e-01,-1.62200e-02,1.14117e-01,-4.22894e-01,-1.19007e-01,7.18207e-02,-6.20803e-02,-3.72926e-02,8.52963e-03,-2.06997e-01,-3.85935e-01,-1.18384e-01,1.61790e-01,-1.36905e-01,5.18528e-02,1.09973e-02,3.61501e-02,-1.51373e-01,-4.58270e-02,5.13525e-02,1.22968e-01,-9.38303e-02,-1.21984e-01,-6.35166e-02,-9.55378e-02,-1.02218e-01,-1.62508e-01,-4.54275e-01,1.45967e-01,1.20273e-01,-4.09651e-01,1.16070e-01,3.59151e-02,1.57028e-01,-1.04439e-01,-3.80581e-01,4.16815e-02,1.38939e-01,-1.38148e-01,-5.79344e-02,-1.13680e-02,-1.68551e-01,-8.40898e-02,-7.99703e-02,-1.05614e-01,-1.36518e-02,3.79965e-04,-4.14089e-01,-3.85168e-02,-1.10952e-01,
