// Neural Network File Format by Kyle Julian, Stanford 2016
3,13,1,64,
13,64,64,1,
0,
10,0,0,1,0,0,0,0,0,0,0,1,0,
100,6,15,16,6,13,5,4,1,19,19,100,40,
10,0,0,1,0,0,0,0,0,0,0,1,0,0,
90,6,15,15,6,13,5,4,1,19,19,99,40,1,
-3.16792e-02,2.50135e-01,1.53481e-01,-2.36355e-01,-1.28919e-01,1.41973e-01,7.40999e-02,-1.38016e-01,-4.25739e-03,-4.21449e-01,-1.82915e-01,-2.22905e-01,-1.48435e-01,
-7.63452e-02,2.28068e-01,-1.18615e-01,-1.13514e-01,9.73494e-02,-1.86661e-01,1.63124e-02,-9.09516e-02,3.53862e-02,-7.53674e-02,1.85507e-01,3.62188e-02,-2.46040e-01,
-1.98499e-01,1.45152e-01,1.86680e-04,-3.14894e-01,4.50800e-01,7.16505e-02,5.20154e-01,-1.52293e-01,-3.99684e-01,-3.36615e-01,-3.51446e-01,-1.48600e-01,-2.74158e-01,
-3.16543e-02,-3.19408e-01,-3.00205e-01,-1.95169e-01,2.20024e-01,-1.79561e-01,4.02338e-01,-1.92051e-01,-5.97796e-02,-8.34246e-02,-1.04243e-01,-3.49468e-01,-2.59523e-01,
1.40664e-01,-4.98859e-01,-2.76854e-01,1.97816e+00,4.33908e-01,-3.26316e-02,9.67937e-01,3.86418e-01,2.24893e+00,1.46528e+01,1.49485e+00,-6.70219e-02,9.40104e-03,
-6.53007e-02,-1.88415e-01,-7.47834e-02,-1.88410e-01,-2.26435e-01,1.12142e-01,1.22863e-01,9.19817e-02,3.59510e-02,1.29232e-01,-5.55592e-02,-6.12489e-03,-2.79797e-01,
-7.36200e-02,8.30671e-02,-7.94500e-04,-8.40076e-02,-2.44083e-01,-2.07497e-01,-9.83953e-03,6.49487e-02,1.86167e-01,6.71193e-02,1.09447e-01,-2.01363e-01,-2.49554e-01,
-2.11505e-01,1.09586e-02,5.34338e-02,2.15426e-01,-3.43893e-02,-2.55232e-02,1.46398e-01,-2.24842e-02,-1.18674e-01,3.76055e-02,-2.58808e-01,-2.77683e-01,-4.94897e-02,
-3.97500e-01,-2.15427e-01,7.53201e-02,1.33452e-01,-6.97693e-03,-9.97903e-02,-3.63316e-01,1.35543e-01,-1.43197e-01,2.24020e-01,1.02121e-01,-3.38624e-01,-2.06868e-01,
-5.86710e-02,3.13366e-01,8.69553e-03,-2.82472e-01,1.98617e-01,-8.05996e-02,1.15554e-01,2.72406e-01,3.03124e-01,-1.40929e+00,-1.53329e-01,3.65725e-03,-2.40596e-01,
-1.61973e+00,-7.47219e-01,-3.20787e-01,-2.88250e-02,1.04317e+00,-2.48348e-01,-6.22376e-01,3.11313e-01,2.27674e-01,2.62441e+00,1.87916e-01,-1.12252e+00,9.99654e-01,
3.13378e-02,-3.73263e-02,-1.12723e+00,-8.91854e-01,3.47127e-01,-3.04516e-01,8.73897e-01,-6.09704e-01,-8.52447e-01,-2.88555e+00,5.98595e-01,-3.29889e-01,-5.42836e-01,
-5.47692e-01,2.38674e+00,-7.12384e-01,-5.66932e-01,3.04710e-01,-3.23118e-01,-4.57998e-01,3.38716e-01,3.07207e+00,2.84489e+00,3.08140e+00,-6.12888e-01,-4.56883e-01,
-2.67677e-01,-7.10981e-02,1.85287e-01,1.04402e-01,8.35199e-02,-1.24409e-01,2.54014e-01,9.70693e-02,8.03427e-02,-2.49805e-01,-9.96000e-02,-2.26003e-01,1.77845e-03,
-3.53592e-02,-2.48811e-01,-3.49401e-02,-8.42965e-03,-6.49863e-02,2.56013e-02,-1.65271e-01,8.57205e-02,-2.06727e-01,1.06593e-01,2.78179e-01,-2.01938e-01,-8.85431e-02,
-4.25986e-01,-4.44238e-01,-4.31141e-01,-1.22627e+00,-2.18014e+00,-2.45074e-01,-5.59760e-01,-1.29828e+00,-7.93366e-01,-5.43460e+00,-2.67139e-01,-7.07804e-01,2.03971e+00,
1.91070e-02,-2.18915e-01,-1.49635e-01,-7.30673e-02,-3.08104e-02,2.27077e-01,1.61504e-02,-2.90562e-01,-1.86328e-01,2.45864e-01,-2.20052e-01,-1.71284e-01,-1.09788e-01,
-6.60054e-02,2.21781e+00,-4.13151e-02,-1.55965e+00,-1.22038e+00,-3.53875e-01,8.16449e-02,-3.54004e-01,-2.22561e+00,8.72580e+00,-1.14208e-01,2.60141e-02,-2.54638e-01,
-1.37414e-01,-6.80034e-02,-1.69136e-01,1.26211e-01,-7.80521e-04,-9.19756e-02,-2.65578e-01,-6.58546e-02,-1.49350e-01,9.29043e-02,3.96364e-02,-2.41660e-01,-3.17088e-01,
3.41903e-02,-2.30128e-01,-5.19944e-01,-7.71356e-02,-3.89650e-01,-4.05596e-02,-6.04177e-01,3.73496e-02,-1.67744e-01,-2.03407e-01,-4.80590e-01,-4.83942e-01,-3.25012e-01,
-1.72211e-02,-2.07576e-01,-1.48286e-01,4.80783e-02,4.70321e-02,-5.72043e-02,-2.27722e-01,1.06774e-02,1.10673e-01,-3.21751e-02,1.18951e-01,1.60925e-02,-7.20270e-02,
-4.38602e-02,1.34775e-01,-1.08183e-01,9.93197e-02,-1.97462e-01,1.01058e-01,1.77357e-01,-1.02081e-01,-1.27942e-01,-2.34563e-01,1.99321e-01,-1.35194e-01,-1.74343e-01,
-1.44672e-01,1.91810e-01,9.35738e-03,-1.36340e-01,-3.15220e-01,4.81267e-02,1.59889e-01,-5.46824e-02,7.80653e-02,3.84341e-02,-1.39743e-01,-2.99222e-01,4.72963e-02,
-1.72078e-01,-5.10704e-01,-1.05363e-01,1.64781e-01,7.18704e+00,-2.14038e-01,1.42077e+00,4.79393e-01,2.63598e-01,-8.18598e+00,4.93103e-01,-2.82487e-01,-3.94341e-02,
2.88067e-02,-6.76147e-03,2.60968e-02,2.58584e-02,-1.34466e-01,-2.82760e-02,-2.29647e-01,-3.38510e-01,-2.98101e-01,2.30445e-01,-7.56212e-03,-3.10026e-02,-2.98463e-01,
-2.36896e-01,-2.22012e-02,1.30219e-02,-1.09014e-01,3.91530e-02,-2.35911e-01,2.62170e-01,3.02722e-02,9.70554e-02,-7.42498e-03,4.23280e-02,-1.33985e-01,-3.17799e-02,
-8.39479e-04,-2.27651e-01,-2.20665e-01,5.20415e-02,-5.25963e-02,-2.51335e-01,-2.26829e-01,-1.13821e-01,-3.72536e-01,-1.83496e-01,-4.12194e-02,1.80855e-02,-3.23017e-01,
5.04482e-02,-2.60435e-01,-2.94118e-01,-3.02974e-01,-2.35034e+00,-1.33894e-01,1.48244e+00,5.98458e-02,-1.08906e+00,-2.81041e+00,7.27464e-01,-4.36212e-01,-3.24634e-01,
-3.68593e-01,-1.98546e-01,-9.83911e-02,9.43203e-02,-3.33400e-01,-2.35722e-01,1.41184e-01,-2.69434e-01,-2.78780e-01,-3.68543e-02,-1.71675e-01,1.09984e-01,-2.90815e-01,
-1.12076e-01,-3.36595e-01,6.53866e-02,9.76573e-02,8.66083e-02,-2.04610e-01,-8.40602e-02,1.68569e-01,-2.80767e-01,-2.24173e-01,-2.11886e-01,-1.43873e-01,-2.00143e-01,
-3.17826e-01,-9.74284e-01,-1.39442e-01,-2.41916e-01,-9.96919e-01,-2.13009e-01,-1.16599e+00,-8.37442e-01,-3.53013e-01,1.31659e+00,2.46914e-01,-2.83679e-01,-3.62495e-02,
-1.77354e-01,-2.18108e-01,1.61964e-01,-1.30626e-01,-1.35347e-01,-1.12871e-02,-1.34315e-01,8.26892e-02,-8.52160e-02,-2.34509e-01,5.66604e-02,-3.82855e-04,-3.69484e-02,
1.20845e+00,6.04116e-01,-8.78353e-02,-4.73098e-01,-4.52073e+00,-1.72852e-01,-7.79947e-01,-8.00980e-01,-8.23278e+00,-7.95294e+00,-4.20811e-01,-7.31339e-01,-3.05473e-01,
-2.09323e-01,7.96744e-02,-9.40390e-02,-1.08250e+00,-4.11754e+00,2.99682e-01,-1.20657e-01,1.12401e-02,-1.56640e+00,-5.03785e+00,5.47595e-01,1.03429e-01,-6.24150e-02,
-1.16171e-02,-1.85912e-01,-2.08123e-01,-3.86266e-01,-9.14506e-02,-1.29384e-01,-9.62176e-01,9.17768e-02,5.47444e-01,1.01404e-01,-4.69108e-01,-4.43131e-03,-4.36903e-01,
-5.67043e-02,7.67877e-02,-2.03268e-01,1.70829e-01,1.38061e-01,-1.19445e-01,-1.73487e-01,1.20968e-01,5.33201e-02,-2.20086e-01,3.44056e-02,-1.02986e-01,-7.57471e-02,
-1.02336e-02,3.17008e-01,-2.30348e-01,-2.22159e-01,-1.71111e+00,-2.84794e-01,5.19289e-01,-5.39586e-02,-5.79005e-01,-1.12624e+00,1.14171e-01,-6.18414e-02,-1.36588e-01,
-2.91171e-01,2.06364e-01,-1.63850e-01,1.34431e-01,-3.01908e-01,-3.02608e-01,-1.51605e-01,8.74158e-02,2.73620e-02,-2.54391e-02,-2.29914e-01,-2.86815e-03,-4.55999e-02,
-6.10771e-02,-5.18723e-01,-3.79222e-01,-4.00775e-01,4.87117e-01,-3.44185e-01,-5.50079e-01,-2.65092e-01,-7.04439e-01,-1.26025e+00,-5.17798e-03,-5.54102e-01,4.24620e-02,
-1.43571e-01,-3.28088e-01,-2.93838e-02,-3.79892e-01,6.81300e-02,9.68587e-03,1.95184e-01,-3.17316e-01,-2.60088e-01,3.71304e-02,-9.29540e-02,4.55252e-02,-4.35912e-02,
-2.30128e-01,3.81535e+00,1.62352e+00,8.81976e-01,3.87597e+00,-6.54515e-01,1.02406e+00,1.29797e+00,4.14975e+00,4.49312e+00,4.46567e-01,-1.38490e+00,-5.39702e-01,
-3.71615e-01,-8.96902e-02,-2.08233e-01,5.93029e-02,-5.29614e-02,-3.74452e-01,9.34387e-02,-5.90049e-02,-1.83299e-01,6.05414e-02,-3.01543e-01,-2.47022e-02,1.25426e-01,
-1.14736e-01,1.37332e+00,-4.05630e-01,-7.05862e-01,-2.31957e+00,-1.28101e+00,-3.13974e+00,-1.51423e+00,-1.03646e+00,6.44091e+00,-1.39175e+00,-3.57938e-01,-6.02462e-01,
-2.43152e+00,-6.74422e-01,1.17603e+00,6.73609e-01,4.18526e-01,2.28645e-01,2.62340e-01,1.00184e+00,2.41825e+00,-1.44230e+01,-5.69225e-01,2.74996e-01,8.58418e-01,
-2.17773e-02,-1.66825e-01,4.55707e-01,8.41755e-01,-1.00676e+01,-9.25669e-02,3.02342e+00,1.13537e+00,-3.16638e+00,3.35225e-01,1.01880e+00,-1.83639e-01,2.08306e-01,
-2.48483e-01,-4.14849e-01,-5.58176e-01,-6.75406e-02,1.06916e+00,-1.77458e-01,6.62941e-01,-2.02971e-01,-1.08779e+00,-2.91325e-01,2.72443e-01,-3.05235e-01,-3.42388e-02,
-2.31467e-01,-2.39314e-01,2.47883e-01,-1.15405e-01,-1.93370e-01,2.19523e-01,-1.94275e-01,-6.38511e-02,1.43291e-01,7.71198e-02,-2.44710e-03,-1.72174e-01,-1.91108e-01,
-2.29379e-01,-1.18897e-01,-1.20183e-01,-1.50603e-01,-4.81080e-02,-3.06610e-01,-2.79865e-01,-2.44195e-01,-7.30027e-02,1.63456e-02,7.60667e-02,-7.26129e-02,-2.07275e-01,
-2.82970e-02,-2.22256e+00,-2.17403e-01,1.35403e+00,7.35751e-01,-4.70262e-01,2.21297e+00,-1.65138e+00,-5.22737e+00,4.75343e+00,9.18318e-02,-5.97150e-01,8.12852e-01,
2.89824e-02,-2.06745e+00,7.83791e-01,1.23470e+00,5.89480e-01,-8.38798e-02,-1.36854e+01,-5.19978e-01,-1.27300e-01,8.99139e+00,-6.92197e-01,3.27762e-02,1.18252e-01,
-1.80155e-01,-2.88671e-01,1.81229e-01,1.79548e-01,-1.96090e-01,-9.61742e-02,-1.31937e-01,-3.44842e-01,-1.98129e-01,5.24033e-02,-1.46188e-03,-3.08455e-02,-1.04709e-01,
-1.05308e-01,3.15311e-03,1.41489e-01,2.08094e-01,1.48665e-01,-1.65392e-01,-1.17734e-01,-5.46086e-02,3.02493e-01,-2.84897e-02,-6.49382e-02,-9.89251e-02,-1.92163e-01,
-2.36501e-01,-5.25936e-02,-2.64035e-01,8.82702e-02,1.86926e-01,1.88524e-01,-2.42304e-01,-2.70336e-01,3.85111e-02,2.66632e-02,1.22315e-01,-2.67947e-01,5.36948e-02,
-1.56572e-03,-1.54291e-01,1.06714e-01,-7.05289e-02,-2.46895e-01,1.81145e-01,-1.19052e-01,1.03435e-01,2.17992e-01,-2.61232e-01,-8.89711e-02,-3.14066e-01,-2.40922e-01,
-4.17604e-01,-9.25805e-02,-1.21784e-01,-3.11485e-01,-2.93976e-01,-9.20099e-02,3.47887e-01,-4.05462e-01,1.89213e-02,-3.98333e-02,-6.15668e-01,1.20124e-01,-1.63198e-01,
-4.75473e-01,-1.40157e-01,-6.25031e-01,-4.64466e-01,3.26093e-01,-7.11159e-02,3.60130e-01,1.28665e-01,-6.74977e-01,-1.94007e-02,-2.13632e-01,-4.08652e-01,9.71672e-02,
6.27853e-02,-1.26740e-01,-2.34529e-01,-1.45427e-01,4.33503e-02,3.54644e-02,5.76575e-02,-4.16141e-01,-3.69830e-01,-2.78060e-01,-3.04031e-01,-2.47393e-01,-4.39814e-01,
-2.50227e-02,1.15283e-01,-7.57926e-02,2.00743e-02,-7.41241e-02,-3.12291e-01,9.77384e-02,1.50501e-01,-1.29661e-01,-2.11619e-01,-2.28199e-01,-1.75414e-01,1.89334e-03,
-2.06713e-01,2.43914e-02,-6.11827e-02,-1.21934e-01,2.40872e-01,-2.72611e-01,1.00783e-01,8.31032e-03,-2.57108e-02,2.69668e-01,7.11419e-02,-1.79286e-01,-4.15376e-02,
1.64385e-01,2.20479e+00,9.66498e-01,-7.35667e-01,7.46384e-01,-1.05266e+00,1.85298e+00,1.73927e+00,-1.67689e+00,5.06980e+00,-3.12468e+00,-3.07580e-01,-2.00635e+00,
-1.48794e-01,-7.51133e-01,-4.39194e-01,5.95988e-01,-1.74601e+00,-3.60692e-01,-9.56163e-01,-6.37093e-01,-4.22651e-01,5.84548e+00,5.37534e-01,-2.06302e-01,-7.68781e-01,
-2.18760e-01,-2.08667e-01,1.63518e-01,-2.73311e-01,-4.04493e-02,2.57216e-01,1.74338e-01,-2.24533e-01,1.48116e-01,-2.57709e-01,2.66638e-01,-2.59182e-01,3.50556e-02,
-4.52894e-02,-1.54515e-01,1.24784e-01,-3.15088e-02,-3.65976e-01,9.04910e-02,-1.34387e-01,7.95747e-02,-1.96792e-02,2.82934e-02,-3.48461e-01,-4.67387e-02,-1.02985e-01,
-9.27328e-02,-3.46045e-01,-3.72038e-02,1.39641e-01,-1.44662e-01,-5.10138e-02,3.14395e-02,-2.14163e-01,-3.81019e-01,3.00689e-01,-1.07982e-02,-6.09771e-02,-2.05180e-01,
-4.43964e-02,
0.00000e+00,
4.96777e-02,
-7.69042e-02,
-7.40228e+00,
-6.79111e-02,
0.00000e+00,
0.00000e+00,
-1.06101e-01,
1.54796e-01,
1.13833e+00,
-3.18918e-01,
-1.93330e+00,
-1.37069e-03,
0.00000e+00,
2.14815e+00,
-4.34768e-02,
-6.00967e-01,
-1.41592e-01,
-1.92204e-01,
-6.88600e-02,
0.00000e+00,
-3.40235e-02,
7.03117e+00,
-2.23404e-01,
0.00000e+00,
-1.30293e-01,
4.26172e-02,
-9.49386e-02,
-6.25582e-02,
-7.13024e-01,
-5.41361e-02,
1.13086e+00,
5.11021e-01,
2.85139e-02,
-2.38962e-02,
-1.55437e-01,
-5.73791e-02,
-2.22466e-01,
-6.12782e-02,
2.42750e+00,
-1.06513e-01,
-1.63340e+00,
3.97630e+00,
9.06472e-01,
-4.69266e-01,
0.00000e+00,
-1.30195e-01,
-4.57946e+00,
-5.08082e+00,
-9.23718e-02,
-3.92267e-02,
0.00000e+00,
-5.24473e-02,
-1.28280e-01,
-1.60966e-01,
-1.33376e-01,
-1.17664e-01,
0.00000e+00,
2.35314e+00,
-2.00535e+00,
0.00000e+00,
-1.03967e-01,
-1.12757e-01,
-1.03732e-01,-1.54887e-01,-1.20095e-01,1.85994e-01,-3.28095e-01,1.47166e-01,-1.40260e-01,-2.09223e-01,-1.43591e-01,-1.51770e-01,4.59955e-02,-1.38185e-01,-4.26427e-01,-6.72861e-02,-1.09686e-01,-3.54716e-01,-8.30711e-02,-2.10762e-01,2.00630e-01,-2.09665e-02,-1.45000e-01,-1.12611e-01,-1.46302e-01,-9.56955e-01,-2.51031e-01,-1.33475e-01,2.64924e-02,-6.98150e-02,6.88549e-02,1.59198e-01,-3.65576e-03,1.39079e-02,-3.14083e-01,-1.57006e-01,-2.46939e-01,4.47600e-02,-1.01002e-01,-4.62075e-02,1.19721e-02,-5.97711e-02,-1.17613e-01,-8.51937e-02,-2.73411e-01,-4.71126e-01,-6.58772e-01,-3.09389e-01,1.50847e-01,5.34340e-02,-3.97845e-02,-1.65100e-01,-2.04645e-02,1.31030e-01,1.99264e-01,2.60131e-01,6.29367e-03,-1.15681e-01,7.69551e-02,4.82594e-02,4.97605e-02,-4.62145e-03,-2.33640e-01,2.10844e-01,-1.37882e-01,1.24670e-01,
-1.93187e-01,-1.48617e-01,1.30733e-02,8.56953e-02,-4.53779e-01,1.09776e-01,-4.72952e-02,-7.71632e-02,7.40034e-02,-2.03341e-01,-2.63567e-02,-1.80073e-01,9.68747e-02,-7.66159e-02,1.17506e-01,-1.52318e-01,9.31820e-02,-9.03547e-02,5.85416e-02,1.19254e-01,-1.17419e-01,-5.73942e-02,9.69011e-02,-1.58742e-01,1.07274e-01,-1.65265e-01,-1.83607e-01,8.35238e-02,-1.98315e-01,-1.22589e-01,-8.68210e-02,-1.60764e-02,-2.53324e-01,-9.36716e-02,-1.15107e-01,-1.59305e-02,1.36302e-01,1.59134e-01,1.97035e-01,-8.37407e-02,7.87038e-02,-1.40769e-01,-1.64794e-01,-3.01284e-01,-5.34971e-01,-2.12914e-02,-5.24906e-02,1.59685e-01,-5.29693e-01,-4.24729e-01,-1.15158e-01,1.16253e-01,2.44441e-02,6.59794e-04,-2.29934e-01,1.73201e-01,-1.64181e-01,-1.49467e-01,8.06341e-02,-1.19225e-01,1.40750e-01,-1.08033e-02,4.19741e-02,-2.50523e-01,
-1.58550e-01,-3.67736e-02,-1.44081e-01,4.80323e-02,-4.75625e-01,4.09145e-02,1.79639e-02,-6.91237e-02,-3.79756e-04,-1.08098e-01,-3.65716e-01,-2.83293e-01,-2.64887e-01,-1.87058e-01,1.62442e-01,-1.14942e-01,-1.34663e-01,-4.81778e-02,5.92852e-02,7.54312e-04,-4.44626e-02,5.29702e-02,1.00625e-01,-5.40223e-01,3.28917e-02,4.26348e-02,1.87721e-01,-9.47648e-03,4.07905e-02,1.45919e-01,-1.53663e-01,1.36622e-01,-1.53966e-01,-7.07042e-02,-1.54865e-01,9.01052e-02,2.15485e-01,-1.82371e-01,4.15725e-01,-1.96920e-01,-2.44115e-01,1.11118e-01,-1.69206e-01,-3.38305e-01,-1.02272e-01,-3.44216e-01,-6.69849e-02,-2.11783e-01,-1.48120e-01,-1.75412e-02,-6.61636e-02,1.41086e-01,-1.81537e-01,-1.57369e-01,1.81446e-01,1.69630e-01,3.46488e-02,1.03947e-01,-3.84155e-02,-4.48226e-01,-2.17714e-01,1.07167e-01,9.29049e-02,1.09797e-02,
1.24125e-01,1.65017e-01,-6.50143e-02,-1.65705e-01,-9.17415e-01,-1.87262e-01,-1.02519e-01,7.59415e-03,1.63996e-01,-1.85069e-01,-5.93441e-02,-5.37365e-01,5.11707e-02,-1.30978e-01,-3.84207e-03,-1.22843e-02,7.23115e-02,-1.60114e-01,4.32985e-02,1.98039e-01,-1.00824e-01,6.22746e-02,6.73993e-02,-1.16987e+00,1.92028e-02,5.36276e-02,-1.33933e-02,-4.23396e-01,-1.78725e-01,2.13799e-01,-6.94384e-02,-2.15701e-01,2.77481e-02,-3.10430e-01,-1.39340e-01,-7.41536e-02,-3.98484e-01,1.51750e-02,2.81748e-01,-1.30733e-01,-1.82398e-01,-2.55158e-01,-1.92787e-01,-1.56464e-02,-2.04499e-01,-1.18079e-01,1.00806e-01,9.95906e-02,-8.27068e-01,-4.95539e-01,-1.53717e-01,1.09578e-01,-1.35705e-01,-8.51920e-02,-1.65574e-01,2.22177e-01,-1.69479e-01,-1.87503e-01,-1.40990e-01,-1.59785e-01,-2.91927e-01,1.62521e-01,8.80753e-03,6.60819e-02,
1.55356e-01,1.48037e-01,-1.67636e-01,-1.30912e-01,-4.18181e-01,-8.11167e-02,-1.35483e-01,1.06808e-01,-5.69525e-02,-6.26796e-02,-1.10315e-01,-2.99023e-01,-3.47527e-01,1.96822e-01,-1.13082e-01,-1.37469e-01,-1.07861e-01,-1.37296e-01,-5.90650e-02,-8.07622e-02,1.82731e-01,1.51050e-01,3.11113e-02,-2.31801e-01,5.22649e-02,-1.87203e-01,-2.53730e-02,-3.42281e-01,1.20896e-01,9.76851e-02,-2.82583e-01,2.06662e-01,3.28338e-02,-2.06904e-01,-2.50559e-02,4.37260e-02,-4.37123e-02,-1.82266e-01,7.83186e-03,-1.21668e-01,-1.40175e-01,-1.96972e-01,-5.69461e-02,-5.93624e-02,-2.00634e-01,-1.18582e-01,-8.67455e-02,-7.44776e-02,-4.29262e-02,-1.49233e-01,1.41930e-01,2.17931e-02,-9.63785e-02,-5.31112e-02,-2.05375e-01,1.50557e-01,9.50372e-02,-7.04294e-02,5.17056e-02,-1.02056e-02,-2.87277e-01,-2.14887e-01,-2.06470e-01,-3.57922e-02,
-1.75325e-01,-6.11158e-02,3.49814e-02,1.79533e-01,-4.40339e-01,-6.76756e-02,1.92647e-01,-1.63094e-01,-1.40009e-01,-1.25902e-01,-4.29642e-01,-1.27046e-01,-2.55313e-02,3.96903e-02,1.66291e-01,-5.53934e-01,-1.19876e-01,8.60974e-02,-1.69946e-01,-5.14186e-02,-6.83596e-02,1.78484e-01,8.39325e-02,-5.95270e-01,2.08988e-02,2.02131e-01,1.49336e-01,-5.50611e-02,2.02963e-01,-1.92440e-02,-1.27702e-01,-2.09394e-01,-4.77955e-01,-1.08347e-01,-1.97763e-01,9.66520e-02,-1.83161e-01,8.01087e-02,-3.19430e-02,1.97133e-01,-2.33606e-01,-1.28325e-01,-1.07615e-02,-6.27691e-01,-9.53067e-02,-2.62251e-01,2.15894e-01,2.13085e-01,-3.89071e-01,-7.71520e-02,7.81271e-02,1.45535e-02,1.23608e-01,6.35912e-03,2.15395e-01,-7.19145e-02,1.70564e-01,-5.11378e-02,1.46383e-01,-9.33923e-02,5.32651e-04,-7.44911e-03,-1.83078e-01,5.97474e-02,
1.87625e-01,-6.40281e-02,3.68846e-01,1.31140e-01,-7.28645e-01,1.51191e-01,8.66177e-02,1.53621e-01,-6.70079e-02,3.73529e-01,-5.67249e-01,2.34052e-02,-6.90092e-02,1.68326e-01,-4.14127e-02,-5.86921e-01,-1.32163e-01,-2.52646e-01,-5.05871e-02,4.15558e-03,1.96301e-01,1.40497e-01,1.56372e-01,-3.05175e-01,5.98677e-02,-1.22719e-01,-2.22781e-01,2.48915e-01,4.82907e-02,7.19788e-02,-8.96851e-02,-9.15727e-02,-9.48608e-03,-3.90012e-01,1.79038e-01,8.58503e-02,-3.31749e-02,-8.59435e-02,-1.33337e-02,1.60138e-01,6.17985e-03,-1.81059e-01,-1.66517e-01,1.22391e-02,-4.96852e-02,1.40534e-01,-1.13811e-01,1.19273e-02,-7.35326e-01,-6.83427e-01,-6.16328e-02,1.70529e-01,1.16662e-01,-7.16656e-02,-1.04307e-01,1.36692e-01,-9.22932e-02,1.88005e-01,-2.09917e-01,-5.46454e-01,-2.85650e-01,1.27660e-03,-5.10878e-02,1.46124e-01,
-7.19540e-02,1.40209e-01,3.04540e-02,1.54539e-01,-1.74981e-01,8.07251e-02,-1.91096e-01,-7.33631e-02,7.44653e-02,8.99957e-02,-2.45800e-01,-2.16133e-01,-1.67891e-02,-2.85466e-02,-1.27016e-01,-3.56415e-01,-1.34127e-01,-1.63850e-01,1.38263e-01,-7.38146e-02,1.76916e-01,-6.44373e-02,-1.10569e-01,-3.09522e-01,-6.84632e-03,-1.38212e-01,1.72878e-01,-2.45241e-01,7.15284e-02,-7.60695e-03,1.44494e-02,-5.35557e-02,-2.69723e-01,-3.12894e-02,1.06163e-01,-1.65183e-01,1.41661e-01,4.11787e-02,-2.34012e-01,-7.90372e-02,-1.49422e-01,-8.05690e-02,-3.63094e-03,-2.57380e-02,-1.25047e-02,-8.29255e-02,1.67184e-01,8.41026e-02,-2.75746e-01,1.11511e-02,9.09153e-02,-1.67741e-01,1.93760e-01,-4.25471e-02,-9.70619e-02,-2.57654e-02,-1.74612e-01,-2.40966e-01,-1.33848e-01,-2.45664e-01,-2.12123e-01,-1.30573e-01,-1.11673e-01,2.01631e-01,
1.88292e-01,-7.15739e-02,-1.19179e-01,-2.17737e-01,-4.41027e-01,-1.29254e-01,1.41011e-01,-1.98416e-01,-1.74457e-01,1.57943e-02,-1.06867e+00,-5.49744e-01,-3.79375e-01,1.53130e-01,6.42824e-02,-1.85282e-02,-1.92559e-01,-2.64777e-03,-2.89908e-02,-3.18682e-02,7.85013e-02,6.18389e-02,1.84113e-01,-1.64441e+00,-4.14744e-02,-2.07674e-01,8.48676e-02,-3.29087e-01,1.98522e-01,-2.10332e-01,-2.96905e-02,-3.09370e-02,-6.23561e-01,-5.16344e-01,3.91309e-01,5.13615e-02,-3.18953e-01,2.09495e-01,-2.58036e-01,-5.99459e-04,-3.31085e-02,-2.10829e-01,-1.27738e-03,-1.10672e-01,-5.79121e-01,-8.78370e-02,6.99851e-02,1.09333e-01,-5.03595e-01,-1.53454e-01,-1.79252e-01,6.60673e-03,-4.24045e-02,6.41561e-02,1.75958e-01,-8.93085e-02,-1.72000e-02,2.31337e-02,-5.29200e-02,-1.17228e-01,-7.25851e-02,4.17043e-02,-1.90758e-01,-5.78581e-02,
-1.27724e-01,-1.74706e-01,-1.49149e-01,1.09818e-01,-1.85994e+00,-4.85434e-02,-9.52170e-02,4.08604e-02,-7.61765e-02,1.01833e-01,6.68175e-01,-1.18273e-01,-2.72687e-01,-1.90597e-01,5.33798e-02,-1.15599e-02,-3.73023e-02,-4.56136e-02,-2.29611e-01,-9.13550e-02,1.32374e-01,1.48815e-01,1.93848e-01,5.02511e-03,-1.53655e-01,1.88325e-02,-9.53551e-02,-4.81530e-02,-1.86895e-01,-4.83775e-02,7.79758e-02,1.52245e-01,-6.12220e-03,-1.43166e-01,-4.82716e-02,-1.27512e-01,1.21424e-01,-1.58127e-01,-1.89718e-01,-2.98386e-02,4.49365e-01,1.39163e-01,8.23009e-02,3.33737e-02,6.73903e-02,9.60374e-02,-1.21441e-01,-1.58742e-01,-8.26427e-01,-5.78583e-01,-1.52502e-01,-1.80193e-01,-9.18615e-03,-9.68483e-02,-1.58527e-01,-1.20745e-01,-1.09208e-01,-1.78770e-01,-1.93876e-01,1.26523e+00,2.46085e-02,5.20136e-02,1.23483e-02,-3.39823e-02,
1.63103e-01,1.47424e-01,1.94700e-01,-6.85543e-02,-4.23750e-01,-2.14358e-01,2.42322e-02,7.47712e-02,1.97828e-01,1.52586e-01,-7.58544e-02,-2.19663e-01,-2.38770e-01,5.31617e-02,-1.93300e-01,-3.46071e-01,-2.11611e-01,-2.69433e-01,-2.35811e-01,9.59479e-02,3.99502e-02,-1.98383e-01,3.07444e-02,-3.22397e-01,-3.03421e-02,-3.66592e-02,-9.32904e-02,-8.16691e-02,-5.16634e-02,2.03509e-01,-2.02483e-01,1.51574e-01,3.77075e-02,-2.42730e-01,-2.26509e-01,6.85666e-02,-7.03043e-03,-7.34522e-02,1.85803e-02,2.07818e-01,-1.59014e-01,6.71602e-02,-9.83931e-02,-1.29921e-01,-2.52379e-01,-2.63685e-01,-1.12148e-01,1.33164e-01,-1.85318e-01,-3.47195e-01,1.67128e-01,-5.15182e-02,1.25298e-01,-6.55274e-02,-6.03458e-03,-7.93982e-02,2.30085e-02,-9.16021e-02,-6.20295e-02,-1.84264e-01,-4.24916e-01,1.00366e-01,1.16980e-01,-6.04460e-02,
1.48911e-01,2.06859e-01,2.05982e-01,-1.27419e-01,-3.07254e-01,-3.98785e-02,-8.43998e-02,6.04537e-02,-3.44688e-01,-9.92211e-02,1.21071e+00,-1.33577e-01,-7.35418e-02,2.02825e-01,-3.97355e-02,-1.04713e+00,-1.20006e-01,3.16849e-02,-4.38056e-02,-8.76695e-02,-2.44320e-02,-1.07854e-01,-2.10435e-01,-1.14628e+00,2.12357e-01,-6.22432e-02,-5.61874e-02,-2.38829e-01,2.78431e-02,-1.13341e-01,2.58933e-02,-2.68908e-02,-1.06087e+00,-2.26664e-01,1.42009e-01,8.14397e-02,2.10057e-01,1.28361e-01,8.01245e-02,-2.27825e-01,-4.10572e-01,-2.29115e-01,-1.43995e-01,-9.12501e-02,-6.73474e-01,-7.00031e-02,-8.95160e-02,1.26747e-01,5.94360e-02,-2.87914e-01,-1.85715e-01,-1.03936e-01,3.78983e-03,1.20243e-01,-1.83540e-02,7.50290e-02,1.02459e-02,-1.11411e-01,-8.40917e-02,-1.49916e-01,-2.62063e-01,-2.21831e-02,7.45230e-02,-6.85800e-02,
-5.29250e-01,2.58989e-02,2.81401e-02,-7.07140e-02,-6.17898e-01,1.95250e-02,-1.30116e-01,1.26774e-01,1.68309e-01,-1.78957e-01,-4.75835e-01,-4.06936e-01,-4.73024e-01,9.16347e-02,9.44420e-02,-3.19997e-01,-6.80759e-02,-2.26023e-01,8.23270e-02,-2.16566e-01,-2.11949e-01,1.98159e-01,1.68745e-01,-3.49988e-01,-2.49816e-01,-1.69048e-01,-2.43131e-01,-5.34437e-01,1.11286e-02,-8.23791e-02,-3.06575e-01,-1.46343e-01,-1.92378e-01,4.56905e-02,1.64682e-01,-1.20417e-01,1.04184e-02,-1.12697e-01,2.21527e-01,-8.24712e-02,-1.99611e-01,-3.69703e-02,-4.23893e-02,8.56035e-03,-5.44522e-01,-1.99894e-01,3.57530e-02,-1.21116e-02,-4.56518e-01,-4.64807e-01,8.58870e-02,-2.15148e-01,1.40612e-01,2.07765e-01,1.61254e-01,-1.83845e-01,-4.92694e-02,-1.50121e-01,-1.29795e-01,-1.88692e-01,-7.43458e-01,-1.96204e-01,9.81938e-02,1.97210e-01,
-1.87650e-01,6.62708e-02,-8.45429e-02,1.82832e-01,-3.30497e-01,-1.03713e-01,7.26450e-02,1.40597e-01,-1.04270e-01,5.06886e-02,-7.86595e-01,-1.01571e-01,1.43693e-01,1.33180e-02,1.31240e-01,-2.66779e-01,-1.28290e-01,-3.46528e-02,1.80072e-01,-1.08750e-01,-2.91385e-02,-1.68823e-01,-1.79967e-01,-5.78040e-01,7.74631e-02,2.11149e-02,-1.06396e-02,-3.78739e-01,-9.67641e-03,-3.62119e-03,8.98405e-02,-4.56766e-02,-7.39909e-02,6.12741e-02,1.33740e-01,9.38209e-02,-1.52765e-01,-2.27045e-02,1.43093e-01,9.12556e-02,-4.50727e-01,5.57563e-02,2.75510e-02,-1.43955e-01,-1.40158e-01,-7.48509e-02,-7.13628e-02,1.53676e-01,1.29342e-02,-7.04535e-02,-1.43848e-01,-2.10135e-01,1.01118e-01,1.04497e-01,-1.04183e-01,1.66700e-01,2.04313e-01,1.16061e-01,9.02210e-03,1.50112e-02,-2.14982e-01,-6.71585e-02,1.27410e-01,8.88619e-02,
1.95901e-01,-1.77137e-01,-1.01065e-01,-1.95111e-01,-2.18068e-01,-1.00104e-01,-1.14059e-02,-7.94052e-02,-1.08691e-01,2.31085e-02,-1.12049e-02,-1.30036e-01,-2.52690e-01,1.31884e-01,1.15917e-01,-2.28760e-01,-1.35617e-01,1.15032e-01,-1.24317e-01,-1.32849e-01,4.61211e-02,-1.12935e-01,-1.61461e-01,-5.21195e-01,-6.03449e-02,1.80476e-01,-1.32064e-01,6.93737e-02,-1.72715e-01,-1.66127e-01,-2.70481e-01,9.46086e-02,-1.61546e-01,-2.93617e-01,2.48229e-02,-1.65886e-01,4.21026e-02,1.16487e-01,-1.01419e-01,1.09975e-01,-1.79932e-01,3.53076e-03,-1.92488e-01,-2.06281e-01,-1.53356e-01,-1.64180e-01,-1.04559e-01,-1.17442e-01,-4.36374e-01,-2.15684e-01,1.49040e-01,-1.58799e-01,2.14367e-01,8.08169e-02,6.93503e-02,-6.49687e-02,-1.14956e-02,8.10890e-03,2.54484e-02,-1.31439e-02,-2.64096e-01,-2.30648e-02,8.65678e-02,9.63626e-02,
-1.15506e-01,7.34968e-02,-1.41479e-01,-1.62196e-02,-2.35138e-01,2.10495e-01,9.23754e-02,6.18472e-02,-2.14551e-01,-1.22218e-01,-2.60009e-01,-9.98331e-02,-2.72977e-01,1.16211e-01,6.05416e-02,-3.30362e-01,-1.33992e-01,-1.43605e-02,5.53383e-02,1.16339e-02,6.98139e-02,5.05050e-02,1.69883e-01,-1.80127e-01,-2.34244e-01,1.79232e-01,1.34647e-02,-5.08417e-02,1.02593e-01,-2.14468e-02,-1.14064e-02,-1.47531e-01,-1.60267e-01,-2.89905e-01,7.30529e-02,-1.41208e-01,-1.93859e-01,2.05954e-01,2.95589e-02,1.15890e-01,1.57216e-02,-2.16385e-01,-2.01318e-01,-3.62346e-02,-9.20631e-02,-2.84445e-01,-1.06680e-01,7.98962e-03,-2.59342e-01,-1.83391e-01,-3.16749e-02,6.20344e-02,-1.18807e-03,6.45506e-02,5.03787e-02,1.55330e-01,-9.06296e-02,-4.66319e-02,-1.26878e-01,-1.63663e-01,-1.01062e-01,-2.04253e-02,-8.66930e-02,7.65555e-02,
2.54935e-02,4.85004e-02,-1.04103e-01,1.89428e-01,-1.65315e+00,3.88915e-02,-5.97271e-02,1.21300e-01,1.74121e-01,2.44058e-01,4.67565e-02,-4.10281e-01,-1.07507e+00,-2.00083e-01,1.19941e-01,-3.79505e-01,-1.57408e-01,-7.35483e-01,-1.89300e-01,5.64141e-02,-6.85060e-02,-1.02870e-01,1.98647e-01,-1.93867e-01,-1.45410e-01,1.99481e-01,-1.40581e-01,-3.60166e-01,1.86376e-01,2.71589e-02,3.56659e-01,2.74144e-01,-5.96307e-01,-2.92244e-01,6.98737e-02,1.84170e-01,-2.33066e-01,9.64871e-03,1.46502e-04,2.26523e-01,-7.17981e-01,2.34686e-01,-1.20910e-01,5.70360e-01,-1.06952e+00,1.91266e-01,-4.97027e-02,1.00446e-01,-1.39167e-01,-4.33413e-01,2.59489e-01,6.20177e-02,1.25978e-01,-1.86478e-01,9.01808e-02,-2.07177e-03,4.41702e-02,1.29291e-01,-3.00005e-02,-1.62797e-01,-1.64639e-01,1.23056e-01,2.00424e-01,-9.10771e-02,
1.27164e-01,-2.00525e-01,-2.36482e-01,6.05643e-02,-5.22896e-01,9.66416e-02,1.53516e-01,1.09902e-01,1.00906e-01,-9.55020e-02,-5.49844e-01,-7.82161e-01,9.55838e-01,1.51239e-01,-4.77241e-02,-2.75394e+00,1.33935e-01,-1.32793e+00,-2.59907e-01,1.64846e-01,2.56435e-02,-1.42666e-01,4.67883e-02,1.66838e-01,1.15951e-01,-5.67592e-02,1.33461e-01,-1.99845e-01,1.69579e-01,-1.20307e-01,2.52461e-01,-1.12720e-01,-3.51922e+00,-1.34141e-01,-3.07688e-01,-1.66687e-01,-5.40530e-02,-2.29163e-01,2.21631e-01,6.29292e-02,1.82246e+00,1.69875e-01,-6.14849e-01,-8.48827e-01,4.83626e-02,-1.24139e-01,8.10124e-02,2.14287e-02,-1.52854e+00,-1.63867e-01,-1.75929e-01,-1.68480e-01,-6.65795e-02,-7.02047e-02,-5.58938e-02,-9.96734e-02,1.42406e-01,1.78111e-01,-6.50072e-02,8.61247e-02,-1.04465e-01,1.30953e-01,4.00094e-02,-2.46455e-01,
6.65594e-03,4.66661e-02,2.17696e-01,4.10866e-01,-2.01254e-01,-6.72054e-02,4.10985e-02,-1.82738e-01,2.45307e-01,1.19929e-01,6.65183e-02,-3.25249e-01,-3.40371e-01,8.62587e-02,1.30927e-01,-2.42340e-02,6.29336e-02,-2.45299e-01,-1.39528e-01,-6.53459e-02,-8.28292e-02,-1.11033e-01,-1.45250e-01,-1.70133e-01,-1.82189e-01,-1.25440e-01,-1.66415e-01,-6.22073e-01,1.17385e-01,-5.83254e-02,-1.09101e-01,2.06341e-01,-2.75965e-01,-1.65864e-01,3.89016e-03,2.08521e-01,-1.43083e-01,1.20865e-01,-1.07888e-01,4.12284e-02,5.87312e-02,-1.43449e-01,-3.79013e-01,-2.23392e-02,-7.61640e-01,-3.17945e-01,-1.07554e-01,2.75413e-02,-3.78119e-01,-5.97954e-01,-1.08797e-01,-5.06864e-02,7.46982e-02,4.51373e-03,9.05017e-02,1.75439e-01,6.71277e-02,1.14682e-01,1.69775e-01,-2.43097e-01,-7.83808e-02,6.75807e-02,1.30069e-01,-1.85036e-01,
1.84604e-01,9.29692e-02,6.02677e-02,1.18279e-01,-4.96084e-01,5.86722e-02,-1.49958e-01,1.67755e-01,9.65580e-04,6.76187e-02,-4.49580e-02,-1.35599e-01,-4.33726e-02,-8.70007e-02,7.16503e-02,-8.34156e-03,1.70470e-01,1.28411e-01,1.42928e-01,-1.75337e-01,-2.38420e-01,6.71385e-02,4.80375e-02,-4.66518e-01,-2.26839e-01,-1.15657e-01,1.74847e-01,-3.97781e-02,7.54121e-02,-1.67966e-01,-2.46324e-01,4.80106e-02,-1.86629e-01,-1.71068e-01,-2.86713e-03,7.93122e-02,-8.16926e-02,1.17978e-01,7.58828e-02,-2.82814e-01,-4.59193e-02,-8.56844e-02,-1.27593e-01,-2.65318e-01,-1.26950e-01,1.02665e-01,3.57694e-02,9.51648e-02,-5.06663e-02,-2.27486e-01,-1.38277e-01,-1.71437e-01,1.86870e-01,-2.08914e-01,2.79079e-03,7.13165e-02,-2.17237e-01,1.07261e-01,-3.19639e-02,-2.54641e-01,2.28781e-02,-6.42086e-02,-2.05334e-01,2.22258e-02,
2.68385e-02,1.79497e-01,-1.41913e-01,-1.32845e-01,-5.07008e-01,-1.07699e-01,-1.07061e-01,1.84675e-01,-1.32455e-01,-5.92371e-02,-1.39585e-01,6.46786e-02,-1.70082e-01,-9.21592e-02,-5.50113e-02,-5.12026e-01,-1.94899e-01,-4.44740e-01,-1.41773e-01,6.62688e-02,1.27374e-01,-2.00595e-01,-8.40884e-02,-4.68125e-02,-1.88742e-01,5.06104e-02,3.26256e-02,8.34606e-02,-2.66397e-02,-1.49417e-01,-5.75731e-02,-2.03325e-01,-2.46949e-01,3.90059e-02,7.58532e-02,-2.80568e-02,-2.05616e-01,1.29488e-01,-1.03359e-01,-1.90605e-01,-1.11147e-01,1.67811e-01,-2.09056e-01,-3.79206e-04,-4.08664e-01,-1.09974e+00,-1.74625e-01,-5.80813e-02,-3.85789e-01,-4.26647e-01,2.19976e-02,-8.92297e-02,1.29728e-01,1.97671e-01,-9.94124e-02,-1.26846e-01,2.57652e-02,-5.64947e-02,2.06293e-01,-3.19038e-01,-4.37217e-01,-1.15179e-01,-1.69755e-02,1.47322e-01,
1.62786e-01,1.06546e-01,4.00460e-01,3.02909e-02,-6.46969e-01,4.10227e-02,1.20802e-01,-1.44082e-01,2.02703e-01,1.80106e-01,-1.26704e-01,-1.38984e-01,-1.19005e-01,-8.64665e-02,1.42869e-01,-5.84316e-01,-1.12088e-02,-1.44709e-01,1.44785e-01,2.04671e-02,-9.08972e-03,1.17923e-01,1.07278e-01,-1.73640e-01,-6.53914e-02,-1.00705e-01,-1.11340e-01,1.00130e-01,6.21061e-02,-1.11172e-01,4.54139e-02,2.54827e-01,-2.47227e-01,5.89538e-02,-6.05312e-02,-8.21149e-02,-2.07410e-01,4.02728e-02,7.57229e-02,-9.31755e-02,1.38933e-01,-2.66736e-02,-1.63633e-01,-2.73224e-01,-3.49032e-01,-1.46327e-01,1.26221e-01,1.13825e-02,6.52791e-02,-2.32362e-01,2.00516e-01,-1.01694e-01,1.78451e-01,6.92267e-03,1.87656e-01,-1.17814e-01,1.25476e-01,1.26742e-01,1.20773e-01,8.26820e-02,1.42686e-02,-1.75388e-01,-5.78305e-02,-1.39733e-01,
-6.54839e-03,2.08090e-01,2.34915e-01,-2.23778e-01,-4.05337e-01,-1.72386e-01,-1.03632e-01,1.22028e-01,-1.23091e-01,5.16534e-03,1.13517e-01,-6.29387e-02,-1.02741e-01,1.23941e-01,1.34905e-01,-1.46261e-02,-2.15287e-01,-2.41959e-01,1.47170e-01,1.08927e-01,-5.80934e-02,-2.65566e-03,-1.04821e-01,-2.78053e-01,-1.62747e-01,1.62592e-01,-2.71746e-01,-7.31862e-02,1.01803e-01,-1.14945e-01,8.93247e-02,2.41124e-01,2.94808e-02,-1.99077e-01,-1.76385e-01,1.50128e-01,4.26009e-02,1.81821e-01,2.22608e-02,-1.91097e-02,-2.89402e-01,1.43682e-01,-1.53869e-01,-1.35962e-01,-5.51666e-01,-2.54349e-01,-7.09679e-02,5.89059e-02,-3.59881e-01,-4.04506e-01,2.16864e-01,1.48934e-01,4.32989e-02,-1.24360e-01,-1.59966e-02,1.22775e-02,5.87936e-02,1.70728e-01,-2.20950e-03,1.32386e-01,1.14096e-02,2.89626e-02,-7.31408e-02,2.73286e-02,
1.01160e-01,-2.11848e-01,1.92697e-01,-1.14920e-01,-1.98435e-01,3.27657e-02,9.27984e-02,-7.54469e-02,-1.95732e-01,6.60675e-02,-3.23563e-01,-1.23361e-01,-1.24949e-01,-1.45420e-01,3.40893e-02,-2.39941e-01,-5.03446e-02,1.26730e-03,6.11207e-03,-2.03679e-01,4.72701e-02,1.12466e-01,7.57424e-02,-5.20733e-01,-1.11588e-01,1.03464e-01,-2.00609e-01,-3.88148e-01,-1.34212e-01,1.29351e-01,-5.25805e-02,1.81342e-01,-4.95543e-01,-3.33282e-03,-1.71299e-01,1.21178e-01,-2.21425e-01,2.00580e-01,-5.11175e-02,5.40326e-01,-2.29841e-01,2.11906e-03,-4.60839e-02,6.40230e-03,-8.04573e-02,-2.32324e-01,-1.98690e-01,1.92423e-01,6.88276e-02,-8.17471e-03,2.13322e-01,1.12046e-01,-1.15097e-01,-1.26253e-02,2.43401e-02,2.08024e-01,1.66165e-01,-1.71231e-01,1.67386e-01,2.82872e-02,-1.50061e-01,-4.83231e-02,-3.37247e-02,-6.93297e-02,
1.48457e-01,-1.02860e-01,2.92645e-02,1.20940e-01,-1.18179e+00,1.01124e-01,1.60597e-02,-1.08582e-01,-1.67629e-01,-1.18203e-01,3.10508e-01,1.18938e-02,3.31953e-03,-1.27299e-01,-4.01715e-02,-2.64397e-01,2.60551e-01,-1.03542e-01,1.96355e-02,-2.19835e-01,-3.95605e-02,-1.01305e-01,8.52255e-02,-1.34576e+00,2.31102e-02,1.09440e-01,-6.33409e-02,1.08366e-01,-4.84239e-02,6.11393e-02,-4.45220e-02,1.04930e-01,-1.04028e+00,-1.32516e-01,-1.63586e-02,7.81595e-02,1.06474e-01,1.25994e-01,-3.18708e-01,1.46172e-01,-1.68332e-03,-4.31427e-02,-1.92386e-01,2.01314e-02,-3.56221e-04,-2.96434e-01,-1.24190e-01,-1.89712e-02,-6.43600e-01,-5.20462e-01,-6.17400e-02,2.95076e-02,1.28812e-01,1.52434e-01,4.42828e-03,-2.17221e-01,-9.53079e-02,7.75650e-02,-1.30955e-02,-8.70414e-02,6.05604e-02,8.75615e-02,2.01447e-01,3.00860e-02,
-8.53214e-02,-1.49545e-01,-2.09144e-01,5.22995e-02,-3.61945e-01,8.14302e-02,-1.41800e-01,-1.09326e-02,-1.10910e-01,-7.35301e-02,-1.41208e-01,-6.20905e-02,-2.25385e-01,9.34931e-02,-1.11852e-02,-3.45035e-01,-8.34086e-02,3.10781e-02,1.92048e-01,1.26396e-01,-1.68119e-01,2.00797e-01,7.63703e-02,-4.16624e-01,1.46750e-01,1.60531e-01,1.22584e-01,-2.31640e-01,5.16407e-02,-6.64855e-02,-7.02178e-02,-1.01472e-01,-1.79474e-01,-6.04046e-02,1.97128e-01,2.22740e-01,1.81106e-01,5.27812e-02,2.10141e-02,-9.89879e-02,5.12192e-02,1.88695e-01,-2.37064e-01,-1.76969e-01,-2.34173e-01,1.16478e-01,-1.66066e-01,-6.60558e-02,-3.67527e-01,-1.14070e-01,1.99718e-01,2.00471e-01,-5.77653e-02,1.89536e-01,-1.58335e-01,-1.06311e-01,1.15640e-01,2.12007e-01,-2.12822e-02,-5.32825e-02,4.84659e-02,-2.36890e-02,1.88239e-01,2.73935e-02,
-1.28587e-01,-1.12667e-01,2.44589e-01,-1.78230e-01,-5.52457e-01,-1.95778e-01,-1.98981e-02,7.88198e-02,5.35322e-02,-1.95801e-02,-1.88310e-01,-1.60245e-01,-6.02238e-01,1.93989e-01,5.75134e-02,-1.13530e-01,-6.56508e-02,-2.52025e-01,1.29645e-01,2.47237e-01,3.54491e-01,-9.47995e-02,2.50762e-02,-7.22028e-01,-2.83450e-01,-1.91213e-01,1.10892e-01,6.27431e-01,9.55046e-02,-1.67018e-01,-2.70400e-01,1.58685e-01,7.41288e-02,-4.05026e-01,-2.55017e-01,-2.09761e-01,-1.10163e-01,-1.23885e-01,1.44508e-01,2.15796e-01,-1.22739e-02,-2.07348e-01,-1.91689e-01,-1.20606e-01,-4.88724e-01,7.11466e-02,-1.63093e-02,-1.11238e-01,-4.81112e-01,-6.87683e-01,-2.03799e-01,-1.87692e-01,-1.57296e-01,-3.46452e-03,-8.99255e-02,4.05735e-01,-2.04080e-01,-6.43292e-02,4.84009e-02,-8.27633e-01,-5.01225e-01,2.12592e-01,8.68958e-02,1.23266e-01,
-1.71115e-01,5.39981e-02,1.53222e-02,4.07517e-02,-1.28200e+00,-1.76568e-01,1.12140e-01,4.99541e-02,1.04563e-01,1.26404e-01,-2.22012e-01,-1.65151e-01,-2.09894e-02,-1.55547e-01,-1.08821e-01,-8.31978e-02,-5.58811e-02,1.07688e-01,-9.79800e-02,-2.21634e-01,-8.71894e-02,-6.09842e-02,1.68369e-01,-1.77111e+00,-1.42377e-01,3.86394e-02,1.50731e-02,-1.29505e-02,-1.53586e-01,1.44677e-01,1.35085e-02,-3.31836e-02,3.56625e-01,-1.53505e-01,6.06454e-02,1.38443e-01,-3.39817e-02,-1.83809e-01,-1.26841e-01,-1.01394e-01,2.00898e-01,-7.33885e-02,-1.83364e-01,-3.98122e-01,9.60245e-03,-2.86638e-01,1.77089e-01,-2.92430e-01,-6.93168e-01,-1.10660e+00,-6.69052e-02,-9.01755e-02,-9.06621e-02,2.06867e-01,2.93776e-02,-7.10070e-02,4.52619e-02,-1.89087e-01,-1.43569e-01,1.15807e+00,1.48214e-01,6.55389e-02,-2.25452e-02,8.47568e-02,
5.01371e-03,-7.19385e-03,-6.05636e-02,-1.01004e-01,-1.33389e-02,-7.39350e-02,-1.27828e-01,-8.43713e-02,2.10177e-01,-2.47410e-01,6.04936e-01,-1.72021e-01,-3.11322e-01,-1.43920e-01,1.17681e-01,-1.65998e+00,8.29971e-02,2.45098e-02,-3.92784e-01,8.39297e-02,1.56429e-01,1.07565e-01,8.47014e-02,6.38510e-01,4.06759e-02,1.09556e-01,-8.49234e-02,-6.03251e-01,2.03820e-01,9.58766e-02,-2.34124e-01,1.23885e-01,-3.18692e-01,-7.87963e-02,-2.10992e-01,-6.81360e-03,-6.96815e-01,2.06106e-01,7.33071e-02,-2.00500e-01,-2.46985e+00,-7.99949e-04,-1.37057e+00,-3.26253e-01,-3.97048e+00,3.09089e-01,9.38296e-02,-1.17228e-01,-1.72186e-01,1.29382e-02,1.20747e-01,-1.73493e-01,-7.56641e-02,-8.06247e-02,-6.05146e-01,3.06322e-02,9.18489e-02,6.06517e-02,-9.26954e-02,-4.00678e+00,-1.29512e+00,9.09423e-02,-5.57070e-02,1.92304e-01,
-2.75689e-02,8.25229e-03,1.79826e-01,-1.09062e-01,-9.18545e-01,-1.45106e-01,-1.99799e-01,1.25267e-01,-3.81081e-02,-1.41033e-01,-1.66904e-01,-7.87703e-03,1.01578e-01,1.43281e-01,2.27677e-02,-2.04261e-01,1.49079e-01,-2.40965e-01,-4.05205e-02,-2.80677e-01,1.78943e-01,1.06716e-01,-1.32890e-01,-1.60587e+00,-1.00833e-01,-1.85459e-01,-6.16367e-02,1.13374e-02,-6.04589e-02,-4.45222e-02,1.07993e-01,-1.87561e-01,-8.30367e-02,-2.11688e-01,5.61257e-03,1.29499e-02,-2.27471e-01,1.19531e-01,1.89447e-01,-1.01562e-01,2.06788e-01,1.55599e-01,3.27047e-02,-2.07136e-01,-5.64534e-01,2.07875e-01,1.71087e-01,2.13253e-03,-2.47548e-01,-7.01785e-01,-8.96166e-02,5.11595e-02,-1.79246e-01,-8.10005e-02,7.76218e-02,-1.08771e-01,8.58428e-02,-1.99892e-01,-3.36168e-02,-1.53737e-01,1.77413e-01,3.62641e-02,1.05744e-01,-5.54815e-02,
4.79386e-02,1.96073e-01,2.84551e-01,-6.57846e-03,-1.19329e+00,-1.73076e-01,8.83750e-02,2.01648e-01,1.26666e-01,9.97665e-01,7.79531e-02,-2.51245e-01,-3.27608e-02,-1.92729e-01,-1.33833e-01,-7.21414e-02,1.58782e-01,-4.88792e-01,3.60278e-01,3.75317e-01,-1.10953e-01,-1.81844e-02,-6.33103e-02,-3.01684e-01,2.51351e-02,-1.06517e-01,1.55372e-01,-3.97615e-01,1.80869e-01,-1.82206e-01,1.85194e-01,1.43439e-01,-5.68772e-01,-3.44683e-01,-2.10710e-01,3.33821e-02,-5.32534e-01,-2.03722e-01,-3.93275e-02,1.63197e+00,-6.93262e-01,-2.97573e-01,-3.73431e-01,6.40355e-02,-3.54226e-01,-4.73391e-02,-1.23668e-02,2.44057e-02,-4.25657e-01,-6.21633e-01,-1.25732e-01,-1.57189e-01,5.45679e-02,-1.71864e-01,1.56342e+00,2.01700e+00,2.58615e-01,-1.90290e-01,-7.15884e-02,6.21597e-01,-2.16062e-01,4.16943e-02,8.43006e-02,-1.10269e-01,
-1.03510e-01,1.21300e-01,1.15051e-01,-1.80207e-01,-2.79380e-01,7.66606e-02,-1.25122e-01,1.52536e-01,-2.01620e-01,-2.08639e-01,1.55052e-02,-1.90397e-01,-1.57878e-01,2.00459e-01,-1.46784e-02,-1.07158e-01,-4.88955e-02,7.59678e-02,8.67245e-02,5.98013e-02,-1.87831e-01,-1.16192e-01,-1.80560e-01,-2.26227e-01,-2.60954e-01,1.51127e-01,-6.65081e-02,-2.96249e-01,1.68531e-01,-6.97427e-02,2.64689e-02,-4.75488e-02,-2.53820e-02,-1.09206e-01,1.40412e-01,3.71854e-02,-1.83485e-01,7.70850e-02,-1.38411e-01,-1.90713e-01,-2.49475e-01,-6.50137e-02,-2.34646e-01,-4.99829e-02,-1.40854e-01,3.11133e-02,-1.18557e-01,-3.56873e-02,-3.87059e-01,-3.48921e-02,-3.34540e-02,3.88598e-02,-1.46737e-01,-1.21323e-01,9.23959e-02,1.02013e-02,-5.00274e-02,-7.05340e-02,1.72323e-01,-2.14187e-01,-2.41065e-01,-1.69223e-01,-1.83303e-01,-1.79594e-01,
-3.30417e-02,-8.71132e-02,3.50299e-01,7.07384e-02,-5.30061e-01,1.24357e-01,-1.02542e-01,1.92666e-01,9.40279e-02,-2.63654e-01,1.36240e-01,-2.15947e-01,-1.94060e-01,7.61354e-02,-2.02404e-01,-1.93057e-01,-7.72694e-02,2.47930e-03,6.35981e-02,-1.77606e-01,-8.94732e-02,-1.45474e-01,2.04543e-01,-2.20775e-01,1.15947e-01,-7.74770e-02,-9.27299e-02,-4.33877e-01,4.76542e-02,1.14472e-01,8.32568e-02,-9.70689e-02,-2.46294e-01,-2.61497e-01,7.59772e-02,-8.45786e-02,-3.46106e-01,1.36388e-02,-4.31530e-01,7.36840e-01,-4.25239e-01,2.67075e-02,-3.68963e-01,3.37952e-02,-5.25996e-01,-1.37087e-01,1.52758e-01,-1.74303e-01,-3.35631e-01,-4.79072e-01,-1.82228e-01,-4.58277e-02,-3.06430e-02,2.46398e-02,1.29909e+00,2.46124e+00,2.26101e-01,-1.27653e-01,4.10676e-03,-1.48898e-01,-2.40723e-01,-1.30824e-01,1.36841e-01,-9.62596e-02,
2.02941e-01,-1.34984e-01,-1.97962e-02,1.70711e-01,-2.16931e-01,1.11652e-01,9.51609e-03,-1.40724e-01,1.02677e-01,-1.52534e-01,-1.94943e-01,-2.98441e-01,-1.55472e-01,1.36364e-01,9.99889e-03,-2.11545e-01,2.57025e-02,-2.82267e-01,-2.01513e-01,4.55175e-02,-1.80347e-01,4.61067e-02,-1.81987e-01,-4.30597e-01,-1.18688e-02,-7.54504e-02,-1.61029e-01,-2.53609e-03,1.59808e-01,1.95975e-01,-2.33628e-01,2.42525e-01,-1.70292e-01,-8.18893e-02,6.41824e-03,1.98051e-01,-1.18007e-01,1.46345e-01,1.05409e-01,-1.77149e-01,-2.35556e-01,-1.12215e-01,2.28794e-02,-2.35025e-01,-2.26181e-01,-1.00588e-01,7.81198e-02,-6.80737e-03,-1.92968e-01,-7.58611e-02,-2.61961e-02,9.03403e-02,2.08350e-01,-3.91834e-02,1.81117e-01,-9.40568e-02,5.99315e-02,-1.86741e-01,-1.54107e-01,7.35095e-02,7.60035e-02,-5.27821e-03,1.28434e-01,-7.21919e-02,
1.13272e-01,-3.92062e-02,1.28633e-01,-6.28949e-02,-4.78980e-01,-1.84038e-01,-1.92964e-01,-1.96614e-01,7.22676e-02,1.11450e-01,-7.89200e-01,-2.80589e-01,-2.38415e-01,7.74545e-02,-5.55586e-02,-7.97768e-01,-1.20444e-01,-2.56453e-01,-5.09941e-02,2.07275e-01,6.50431e-02,-1.70010e-01,2.09536e-01,-3.66729e-01,8.17806e-02,1.74157e-01,-3.38209e-02,-1.37206e-01,8.58334e-02,-3.52125e-02,8.61208e-02,-2.07901e-01,-5.12734e-01,-3.00115e-02,-1.14917e-01,-1.48292e-02,1.70561e-02,-1.29138e-01,1.53485e-01,1.14615e-02,1.30509e-01,3.21413e-02,-2.51108e-01,-1.61795e-01,-2.18014e-02,-9.29088e-02,1.09094e-01,-4.11546e-02,-4.64557e-01,-1.51789e-01,1.74411e-01,-8.22380e-02,4.06119e-02,2.66770e-01,1.35567e-01,-6.05638e-02,1.07914e-01,-4.79607e-02,1.77404e-01,3.04006e-02,-1.25966e-01,1.74036e-01,1.19558e-01,6.17446e-03,
-3.43951e-02,-1.18196e-01,7.62412e-02,6.85623e-02,-5.14509e-01,1.21399e-02,-3.88249e-02,1.21067e-01,-2.08199e-01,-1.66182e-01,-2.49780e-01,-4.48400e-02,-3.62043e-01,6.76884e-02,-1.82159e-01,-5.10948e-01,-2.16803e-02,9.21523e-02,-8.46592e-02,5.61229e-02,1.13510e-01,8.77108e-02,3.74454e-02,-2.74668e-01,-5.84501e-03,1.40552e-01,1.54244e-01,-2.67259e-01,-5.15123e-02,-4.18022e-03,-3.10878e-01,1.83349e-01,-1.53298e-01,-1.68694e-01,-8.93785e-02,-1.61684e-01,-1.26014e-01,1.98992e-01,-2.21747e-02,5.34268e-02,-1.06985e-01,-1.54519e-01,-2.36595e-01,-6.92827e-01,-3.71968e-01,-8.46618e-02,-1.19831e-01,-8.87762e-02,-4.66739e-01,-4.48534e-01,7.36181e-03,-1.94741e-01,-2.63800e-02,1.52997e-01,1.65812e-01,6.98376e-02,7.64735e-02,-2.18848e-01,-1.80993e-01,-2.18358e-01,-3.59033e-01,5.15166e-02,-1.49525e-01,-1.32409e-01,
5.61464e-02,-1.99789e-01,-1.30888e-01,-1.91811e-02,-6.21800e-01,-2.04830e-01,-2.16257e-02,-1.28481e-01,2.09336e-01,1.46308e-02,-3.62408e-01,-6.25051e-02,-1.62056e-01,-1.20549e-01,-1.07952e-01,-5.38122e-01,5.46783e-02,-2.42070e-03,9.47691e-02,-1.97726e-01,-9.65805e-03,-2.14527e-01,2.14116e-01,-4.07685e-01,-1.81494e-01,1.86645e-01,-1.54701e-01,8.79234e-02,-2.11157e-01,1.65505e-01,1.32873e-01,-8.00071e-02,-2.05738e-01,1.69187e-01,-2.06793e-01,-6.53348e-02,-1.99634e-01,5.92073e-02,1.18937e-01,-6.72167e-02,-1.60980e-01,-1.41007e-01,4.46042e-02,-2.56034e-01,-6.57367e-02,-7.28568e-02,-4.27669e-03,3.22571e-01,-8.11320e-01,-7.29395e-01,1.02510e-01,8.06003e-02,-6.49388e-02,6.62710e-02,1.99285e-01,1.26479e-01,-6.92335e-03,-1.08390e-01,2.04529e-01,-2.51845e-01,8.55675e-03,1.47262e-01,-3.56319e-02,-4.92850e-02,
3.38091e-02,-1.20505e-01,-2.29025e-01,-1.15646e-01,-1.40074e-01,-1.71816e-01,-5.30919e-02,-1.48608e-01,-1.03067e-01,7.27693e-02,2.97587e-01,-3.77880e-02,-1.23955e-01,3.01772e-02,1.26934e-02,3.43212e-01,1.47543e-02,-3.77585e+00,-1.73396e-01,-1.29274e-01,-8.71479e-02,-1.13890e-02,3.62590e-02,-3.24716e+00,-6.05845e-02,1.86061e-01,-4.55470e-03,3.87364e-01,5.21193e-02,-1.90576e-01,1.43813e-01,-4.69352e-02,-8.13640e-02,1.49432e-01,1.20563e-01,-9.64004e-02,-1.63898e-02,-6.45555e-02,-1.72470e-01,1.71799e-01,-1.02191e+00,-7.58781e-02,-5.80617e-01,-2.10531e-01,6.32601e-01,8.47519e-02,6.05648e-02,1.07904e-01,4.96881e-02,-4.17276e-01,-2.02152e-02,5.63968e-02,2.74045e-02,-3.19412e-02,-1.12125e-01,-1.54100e-02,5.46938e-02,-1.68889e-01,-2.14908e-01,7.36106e-01,8.02799e-01,3.71300e-02,1.08220e-01,-9.70327e-02,
-7.74003e-02,-1.92120e-02,-1.86125e-01,1.03284e-01,-6.60684e-01,1.21554e-01,-1.19179e-01,7.58524e-02,1.47074e-01,-2.43781e-01,-2.35972e-01,6.07512e-02,-2.69073e-01,-7.06772e-02,1.70892e-01,-1.29302e+00,-5.86009e-02,1.28846e-01,1.17783e-01,-1.23199e-01,-1.17327e-01,-1.02818e-01,-1.56200e-01,-2.02988e+00,-1.78290e-01,-6.91620e-02,-1.01055e-01,-1.76517e-01,4.92454e-02,4.86055e-02,-4.06746e-02,-1.70920e-01,-2.67052e-01,-4.84443e-01,4.54615e-02,-1.28062e-03,-1.29047e-01,-1.40649e-01,9.94517e-04,1.20570e-01,-1.13837e-01,1.49886e-01,-2.24822e-02,-1.50030e-01,-3.00103e-01,-1.83790e-02,1.18478e-01,8.14547e-02,-3.27423e-01,-6.42348e-01,1.72828e-01,-4.78816e-02,-1.23361e-01,6.15168e-02,1.72506e-01,1.03693e-02,-9.98260e-02,-1.58655e-02,1.86503e-01,-1.92333e-01,-2.33607e-01,1.32973e-01,-2.54798e-01,-2.47334e-01,
2.16287e-02,-1.55406e-01,-4.10686e-02,-1.18013e-01,-2.03874e-01,1.48946e-01,4.85818e-02,2.40757e-02,-1.39486e-01,-1.66499e-01,-1.64652e-01,3.18697e-02,2.17214e-01,-2.11135e-01,1.38894e-01,-9.16552e-01,-6.47556e-02,-4.34083e-02,-1.80423e-01,1.09699e-01,1.41798e-01,2.11146e-01,1.96901e-01,-1.82002e-01,-2.06308e-01,4.12496e-02,-1.25070e-02,-3.60347e-01,1.94175e-01,8.32978e-02,-1.94078e-01,1.89485e-01,-1.91780e-01,-8.75494e-02,-2.11120e-01,1.38143e-01,-6.85251e-02,2.05945e-02,-4.06725e-02,-1.35922e-01,-4.92399e-01,1.44425e-01,-1.17852e-01,-2.13904e-01,-1.51536e-01,-2.52958e-01,-9.25412e-02,1.87928e-01,-2.73191e-01,-3.18411e-01,9.07851e-02,-5.78818e-02,3.85362e-02,1.17257e-01,-4.77204e-02,-5.50570e-03,-7.84272e-02,-7.01934e-02,-1.13439e-01,-1.19464e-01,-2.86243e-01,-1.40814e-01,-1.43381e-01,-1.07010e-01,
-3.01168e-02,-2.69101e-02,2.81855e-02,6.99592e-02,-1.65178e-01,-1.01238e-01,-1.15755e-01,2.13195e-01,-7.69826e-02,2.16880e-02,1.17997e+00,-8.04848e-02,2.51264e-01,1.54980e-01,1.98076e-01,-3.69296e-01,9.40933e-02,1.72602e+00,-3.07276e-01,-2.20797e-01,-1.38986e-01,9.50846e-02,-6.73123e-03,6.93106e-01,1.03925e-01,-1.34772e-01,3.16194e-02,-6.92160e-02,-1.23084e-01,-6.47768e-02,-1.28805e-01,7.51386e-02,-1.50032e-01,-1.37984e-01,1.14100e-01,-1.18971e-01,4.58002e-02,9.29583e-02,-4.97369e-02,-5.34118e-02,1.75586e-01,1.82351e-01,-1.60658e+00,-2.81933e-02,-1.66474e+00,1.57696e-01,1.39356e-01,9.35733e-03,3.89145e-01,-2.10454e-01,2.15488e-01,2.60460e-02,8.97879e-02,1.43929e-01,1.50740e-01,5.12526e-01,-7.27556e-02,1.04035e-01,-1.57093e-01,1.92594e-01,-2.40476e+00,1.83023e-01,-1.26008e-02,-1.57912e-01,
-1.29040e-01,4.45112e-02,-1.55027e-01,1.18967e-01,-4.40577e-01,1.41276e-01,7.97148e-02,2.04383e-01,1.74012e-01,-1.42398e-01,-1.08778e-02,-1.33636e-01,1.39317e-01,7.00968e-02,1.83156e-01,-4.95842e-01,6.79392e-02,-1.55180e-03,1.33126e-01,-9.23905e-03,7.30796e-02,-1.33681e-02,2.02562e-01,-2.23029e-01,6.70238e-02,8.02946e-03,-1.37730e-02,-1.68135e-02,-8.10983e-02,-2.16012e-01,-2.42089e-01,2.15705e-01,-5.16770e-01,-1.24550e-01,4.98143e-02,1.86558e-01,2.80532e-02,-1.07754e-01,8.02095e-02,-4.11195e-02,-2.18882e-01,-1.47011e-01,2.04027e-02,3.81635e-03,2.35562e-02,-1.69900e-01,-1.92845e-02,-4.62905e-02,-6.40147e-01,-1.77653e-01,-2.13461e-01,6.68903e-02,-2.03316e-01,-1.84193e-01,6.59378e-02,-9.36818e-02,-3.34046e-02,-1.79644e-01,-1.54926e-01,-4.90012e-03,-1.14931e-01,-1.05633e-01,-1.82064e-01,-3.93608e-03,
-2.12321e-01,1.77700e-01,-1.65956e-02,1.98102e-01,-3.95186e-01,-1.69431e-01,1.54077e-01,4.74280e-02,-1.23442e-01,1.62114e-01,8.90439e-02,-2.25943e-01,-1.76696e-01,2.02735e-01,1.28988e-01,-1.55358e+00,2.07763e-01,1.41985e-01,1.89070e-01,1.84822e-02,-1.41225e-01,1.18156e-01,1.54816e-01,-1.30684e-01,1.87455e-01,1.54515e-01,5.56445e-02,-1.19447e-01,-2.01812e-01,8.96898e-02,-2.16726e-01,-1.08794e-02,-3.40550e-01,1.06711e-01,-1.59001e-01,-7.33550e-03,1.46995e-01,-2.00888e-01,1.25923e-01,7.57359e-02,-1.49765e-01,6.99584e-02,-1.84763e-01,-1.71007e-01,-2.68912e-01,1.49005e-01,7.69076e-02,1.86940e-01,-1.48205e-01,3.80484e-02,4.30919e-02,2.50744e-02,-2.26501e-02,-5.91436e-03,1.44647e-01,-5.01952e-02,2.05476e-02,1.26475e-01,-1.40012e-01,-1.04738e-01,6.99484e-02,-1.93857e-01,-2.41370e-01,7.04596e-02,
1.33894e-01,-1.40927e-01,-3.74219e-02,-4.57238e-02,-5.42554e-01,-1.85740e-01,-9.60426e-03,-1.00504e-01,-2.31040e-02,-2.05957e-01,-1.87955e-01,-4.78510e-01,-3.48840e-01,-1.59618e-01,-2.08302e-01,-7.56000e-02,-1.41470e-01,-1.48474e-01,-1.24427e-01,-7.26403e-02,6.98450e-02,-1.67669e-01,-2.89527e-02,-5.90208e-01,3.94115e-02,-7.48298e-02,8.69912e-02,2.10412e-02,-1.52748e-01,2.16245e-01,-4.45472e-01,-1.46109e-01,-4.26463e-02,-1.39195e-01,-8.14375e-02,3.69422e-02,-3.67578e-02,-2.22768e-02,3.34583e-01,-1.20099e-01,-2.19243e-01,-1.20861e-02,-1.40239e-01,-8.38360e-02,-8.70600e-02,-1.48616e-01,1.08169e-01,7.19726e-02,-4.83900e-01,-1.93961e-01,-2.09675e-01,-2.19367e-01,2.07965e-01,-1.60958e-01,2.83254e-01,6.67375e-02,3.45482e-02,-1.14841e-01,-1.65101e-01,-2.60599e-01,-3.99395e-01,-2.01205e-01,-8.17013e-03,-8.36077e-02,
3.43347e-01,1.57469e-01,1.29107e-01,3.03365e-01,-1.04317e+00,-1.32748e-01,1.96127e-01,-1.23980e-01,3.04992e-01,2.60325e-02,-1.07988e+00,-6.29530e-01,-5.96994e-01,-6.88779e-02,-1.68812e-01,6.27878e-01,-1.14471e-01,3.05291e-02,4.01108e-02,5.29452e-02,-6.37496e-02,-1.07462e-01,-1.11122e-01,-8.80853e-01,-1.25979e-01,3.16505e-02,5.17709e-02,-8.64656e-01,-6.70330e-03,-1.49166e-01,4.88403e-01,-6.08910e-02,-2.93355e+00,-2.33151e-01,3.18403e-01,-8.33020e-02,-2.86991e-01,-1.14350e-01,-3.01860e-01,-1.61999e-01,-9.00623e-01,-1.20348e-01,-7.92809e-01,-2.91909e+00,-4.03862e+00,-6.42746e-02,-4.63587e-02,-2.29952e-02,-4.56040e+00,-5.47818e+00,2.17826e-02,-1.51213e-01,-8.84537e-02,-1.61833e-01,1.86553e-02,-1.49216e-01,-1.40442e-01,-4.21933e-02,7.41531e-02,-9.24465e-01,4.47884e-02,1.48587e-01,6.26897e-02,4.04399e-03,
5.39872e-04,9.38073e-04,-8.11144e-02,1.03158e-01,-3.45145e-01,-1.45013e-01,2.14294e-01,1.40483e-01,-1.11302e-01,-1.89847e-01,3.12716e-01,8.96428e-02,-5.33922e-02,5.30609e-02,2.00045e-01,-1.64838e+00,-2.55785e-01,-7.77901e-01,3.91008e-02,1.86796e-01,1.82398e-01,-1.26160e-02,1.37959e-01,-3.50027e-01,9.27900e-02,-9.85939e-02,6.10197e-02,-1.60709e-01,2.31099e-02,-1.24733e-01,4.03490e-02,-2.31044e-01,-1.02110e+00,-5.78062e-01,-1.24755e-01,1.56405e-01,6.11674e-02,-3.66978e-02,1.27344e-01,1.99673e-01,-3.28258e-01,5.50786e-02,-2.81786e-01,-2.39270e-01,-2.63775e-01,-3.25677e-02,-8.31189e-02,-7.86832e-02,-2.04081e-01,-3.34850e-01,1.24951e-01,-7.66005e-02,1.86464e-01,-6.21169e-02,4.25855e-02,1.64646e-01,-9.23947e-03,1.00089e-01,1.16389e-02,-3.06321e-01,-2.91705e-01,7.53319e-02,1.33920e-01,9.46546e-02,
-1.02267e-01,-5.53628e-02,3.20054e-02,-1.01067e-01,-3.38969e-01,5.29818e-02,-2.13390e-01,-6.64622e-02,-9.82068e-02,1.40026e-01,3.51453e-02,9.15973e-03,7.93796e-02,1.74129e-02,1.58267e-02,-9.32786e-01,1.86146e-01,-2.70581e-01,7.43030e-02,-4.69450e-02,-2.01180e-01,5.93564e-02,-9.01482e-02,-3.34245e-02,-6.33284e-02,6.88098e-02,-2.34855e-01,-5.31175e-02,3.31859e-02,1.64614e-01,2.70784e-02,1.49824e-01,-4.12740e-01,-7.64475e-02,2.98006e-03,-1.48535e-01,1.17587e-01,-1.20861e-01,-1.21816e-02,-7.28627e-02,-1.21144e-01,-7.21582e-02,-3.46702e-01,-2.16747e-01,-4.92708e-01,-2.29756e-01,1.41632e-01,-2.32215e-02,-1.87431e-01,4.00860e-02,-1.60397e-01,-2.67165e-01,-1.30026e-01,1.33979e-01,-7.19015e-02,-2.34139e-01,-2.63104e-01,-1.27112e-02,1.06882e-01,-4.36570e-01,-2.17208e-01,1.27133e-01,-8.48165e-02,-2.44580e-01,
1.29318e-01,2.08546e-01,-6.65677e-01,-3.25936e-02,-2.27177e-01,-1.03829e-01,-9.28805e-02,6.39666e-02,7.10562e-02,-6.07613e-01,-1.80127e-01,-2.14268e-01,-3.13782e-01,-8.48733e-02,9.83820e-02,-1.10243e-01,-7.26080e-03,1.75439e-01,-9.86580e-02,-9.87375e-02,-1.48766e-01,-2.05084e-01,-8.06498e-02,-4.28497e-01,3.65046e-01,-2.15924e-01,-1.38052e-01,-6.40573e-01,3.31225e-02,-7.60173e-02,-2.06415e-01,-1.29889e-01,-1.63141e-01,-3.11597e-01,-5.32103e-02,-2.38486e-02,1.46109e-02,-1.80609e-01,-1.22479e-02,-3.85636e-01,-3.25577e-01,9.10376e-03,-2.26713e-01,-8.22575e-01,-5.16732e-01,-2.46675e-01,-9.54494e-02,2.15782e-01,2.18998e-01,-5.92969e-01,1.23242e-01,-1.20986e-01,1.78292e-01,5.77481e-02,-4.12453e-01,-1.64914e-01,-2.28689e-01,1.25075e-01,1.36324e-01,-1.87903e-01,-4.00483e-01,-9.76535e-02,-2.00214e-01,-2.26580e-03,
1.26828e-02,-2.88261e-02,3.41478e-01,2.15830e-01,-1.20531e+00,2.90754e-02,-6.85420e-02,8.67143e-02,2.44744e-01,4.49324e-03,1.22216e-02,-5.11652e-01,-6.84597e-01,7.43089e-02,1.08631e-01,-2.63079e-01,-4.94023e-02,-2.39136e-01,-2.86630e-01,4.43757e-02,-1.18085e-01,6.91672e-02,-3.11984e-03,-2.60378e-01,1.78762e-01,-8.47734e-02,1.07601e-01,-7.56059e-02,1.96612e-01,-3.92876e-02,-1.53305e-01,2.18645e-01,-9.37577e-01,-3.47369e-01,-1.13711e-01,-3.01956e-02,-1.40979e-01,-1.64297e-01,9.07311e-02,-8.88212e-02,-5.26347e-03,-7.59645e-02,-1.29519e-01,-1.96454e-01,-1.19820e+00,1.46093e-02,-1.68473e-01,6.42298e-02,-1.14055e-01,-2.62704e-01,-5.60364e-02,-1.68392e-01,-1.48664e-01,-1.73076e-02,-1.23886e-01,2.75197e-01,-1.40340e-01,1.40369e-01,1.35314e-01,-6.36010e-04,-1.15681e-01,1.34967e-02,1.56747e-01,-5.60647e-02,
-1.75007e-01,9.01640e-02,6.27434e-02,6.99831e-01,-1.11334e+00,1.60578e-01,-2.56227e-02,2.01834e-01,-5.26644e-02,2.75110e-01,-5.24943e-01,-1.51823e-02,-1.76114e+00,-1.00152e-01,-7.83992e-03,4.14515e-01,-2.57074e-02,-2.69388e-01,3.95520e-03,6.44818e-01,-2.24860e-01,9.84638e-02,3.52389e-02,1.38736e-01,-1.75766e-01,-6.09178e-02,1.56795e-01,2.60591e-01,-4.80674e-02,1.30479e-01,2.99602e-01,-1.40329e-01,5.87119e-01,-6.56576e-02,3.67930e-01,1.43923e-01,-7.04908e-02,-8.58400e-02,5.12076e-02,2.20656e-01,-1.22746e+00,3.09949e-01,6.11515e-01,6.58003e-01,-1.15319e+00,9.28159e-02,4.04582e-02,-1.06621e-01,9.53072e-02,-7.32508e-02,1.81922e-01,8.47436e-03,-5.92927e-02,5.53096e-02,6.25798e-01,8.21972e-01,6.87079e-01,-1.06320e-01,-4.87127e-02,2.87366e-01,-8.87716e-02,1.41939e-01,2.73370e-01,-2.95805e-02,
1.46265e-01,1.19755e-01,1.40190e-02,9.01380e-02,-5.50350e-01,6.94644e-03,2.94694e-03,3.04950e-02,-1.24256e-01,-6.44901e-02,2.34994e-01,-4.34337e-01,-1.39792e-01,-2.04520e-02,-2.05121e-01,-1.77906e-01,-8.05235e-02,-2.89966e-01,-1.32118e-01,-5.14987e-02,8.48676e-02,9.43252e-03,6.19812e-02,-3.64715e-01,-1.14731e-01,1.02010e-01,-3.55310e-02,-4.19579e-02,-2.07874e-01,-5.83341e-02,-5.47304e-01,1.33121e-03,-1.30365e-01,-6.58828e-02,-4.21068e-01,-1.17413e-01,-1.40777e-01,1.70536e-01,2.80620e-01,1.25754e-01,5.80612e-02,-5.19981e-02,-1.36424e-01,8.00194e-02,-4.03786e-01,-3.87958e-02,-4.12257e-02,1.46625e-01,-8.29855e-01,-8.17763e-01,1.16241e-01,4.12244e-02,-3.29774e-02,-1.29914e-01,-1.07754e-01,6.59712e-01,6.49297e-02,6.32128e-02,-1.53406e-01,-1.16399e-01,-4.53724e-01,1.57950e-01,-1.12445e-01,7.72364e-02,
2.05857e-01,-2.07132e-01,-6.44240e-02,-7.36401e-02,-1.40724e+00,-1.56032e-02,7.75069e-02,-1.46832e-01,-2.23848e-02,9.64228e-02,-1.65451e-01,-1.53615e-01,-7.56235e-01,-7.38263e-02,-9.67632e-03,-3.37129e-01,1.65023e-01,3.17178e-01,-2.97925e-02,-1.35695e-01,3.67616e-02,1.91943e-01,1.65920e-01,-6.05950e-01,-1.04295e-02,-4.94523e-02,5.15309e-02,-3.34443e-01,4.88248e-02,9.13154e-02,4.43537e-01,1.55454e-01,-7.41036e-01,-4.16318e-01,4.48142e-01,2.10110e-01,1.10564e-02,1.73544e-01,-2.29345e-02,-6.26287e-02,-3.64341e-01,1.81940e-01,5.63537e-01,-3.61144e-02,-7.47905e-01,-3.27496e-01,-7.15471e-02,3.33005e-02,-4.15599e-01,-2.21147e-01,1.56108e-01,7.60903e-02,1.11017e-01,6.95323e-02,1.11256e-01,-3.14726e-02,1.66804e-01,-9.74139e-02,1.14780e-01,3.84195e-01,-3.20794e-01,6.50232e-02,-1.28223e-01,8.13779e-02,
3.01644e-02,-9.54700e-02,1.31392e-02,-1.49381e-01,-5.82561e-01,-2.34922e-01,-6.62036e-02,-9.90193e-02,-4.64531e-02,-1.25562e-01,-1.72921e-01,-9.64354e-02,-1.77885e-01,-6.44264e-02,-9.13563e-02,2.35145e-02,1.77868e-01,-1.48439e-01,-2.40044e-01,-2.73653e-01,8.30207e-02,-7.82748e-02,1.12889e-01,-2.60429e-01,-1.32735e-01,-3.86859e-02,-1.59640e-01,-4.00464e-02,1.36179e-01,-7.52208e-02,-6.15273e-02,1.20518e-01,-5.95068e-01,2.49851e-02,-1.59524e-01,-7.45814e-02,1.65450e-02,7.48687e-02,-4.39583e-02,1.02466e-01,3.69640e-01,6.23211e-02,-1.79477e-01,-4.54212e-02,-3.67080e-01,-5.46860e-02,-1.27967e-01,8.02637e-02,-2.60011e-01,-9.77887e-02,-8.18457e-02,3.00961e-02,9.39575e-02,1.89100e-01,4.96652e-03,1.70607e-02,9.78041e-02,-2.30795e-01,1.47671e-01,-1.30008e-01,-2.34385e-01,-2.00763e-01,1.09246e-01,1.01528e-01,
-3.59716e-01,-1.02213e-01,5.38783e-02,-3.77696e-01,-2.72238e+00,-2.69819e-01,1.79460e-01,-1.59189e-01,1.08395e-02,-8.15814e-02,1.41968e-01,-2.56522e-01,-2.42399e-01,-5.40958e-03,1.30458e-01,-3.33334e-01,-4.29347e-02,-1.63719e-01,-1.81276e-01,1.70835e-01,-1.44335e-01,-2.00309e-01,1.97551e-01,-3.35660e-01,-1.12661e-01,-1.95088e-01,2.59595e-02,-2.53525e-01,1.92280e-01,2.77285e-02,-1.03248e-01,1.53055e-01,5.41955e-01,-1.58184e-01,-1.62227e-02,4.72370e-02,8.09303e-03,2.74740e-02,-9.46828e-02,-6.87713e-02,1.21878e-01,-2.17857e-01,-1.31642e-01,-7.06777e-01,6.49869e-01,-1.78635e-01,-8.17916e-02,-1.65671e-01,-1.39768e+00,1.11823e+00,-1.96570e-01,-8.98585e-02,-9.54890e-02,-1.51916e-01,4.44668e-01,1.59939e-01,-2.10667e-01,-3.24847e-02,1.26831e-01,6.57401e-01,-4.49819e-01,8.05542e-02,3.15718e-02,-2.23299e-01,
-2.35411e-03,-1.56427e-01,2.53265e-01,-1.14863e-01,-1.48145e-01,-4.00895e-02,-2.04795e-01,1.71613e-01,6.92155e-02,-2.15139e-01,9.98310e-02,-1.76191e-01,1.23233e-01,1.42515e-02,-8.13729e-03,-1.01433e-01,-7.42900e-02,-1.57901e+00,2.75021e-01,-1.55536e-02,1.33618e-01,-1.07883e-01,7.13922e-02,-9.93128e-01,1.49808e-01,7.89592e-02,3.93905e-02,-1.72193e-01,-7.98502e-03,-1.91936e-01,-8.72884e-02,-1.16083e-01,-4.31583e-01,5.89130e-02,1.03731e-01,-1.63614e-01,-8.60251e-02,-1.05833e-02,1.53943e-02,2.64789e-02,-1.73578e+00,1.45715e-01,-5.62564e-01,-1.06034e+00,-1.39598e+00,-1.08677e-01,-2.01021e-02,2.60707e-01,9.59484e-02,-9.34739e-01,-5.23036e-02,-2.22810e-02,9.87171e-02,-2.38790e-01,-2.08466e-02,8.66758e-02,1.42914e-01,1.95363e-01,-1.20646e-01,1.35876e-01,-7.48227e-01,2.04995e-03,1.61593e-01,2.19040e-01,
-6.33813e-02,-1.77409e-01,-1.92302e-01,1.00837e-01,-7.82358e-01,-5.19567e-02,2.16130e-01,-1.18777e-01,1.65616e-01,-1.61975e-01,4.00717e-02,3.94715e-02,-1.68279e-01,-1.93317e-01,-1.37693e-01,-9.42545e-02,-5.41059e-02,-6.21761e-02,1.46326e-01,1.40881e-02,1.15265e-01,-6.91971e-02,-1.31722e-01,-3.90141e-01,1.97474e-01,-3.07113e-03,-1.08535e-01,-1.37953e-01,1.20350e-01,-7.09914e-02,-1.42295e-01,1.05948e-02,-9.97052e-02,1.39648e-01,-3.57477e-02,1.45205e-01,6.72424e-02,2.19703e-03,-9.77794e-02,1.74390e-01,6.32109e-02,3.98715e-02,1.23724e-01,-9.83193e-02,-3.08297e-01,-1.24893e-01,7.36847e-02,1.08311e-03,-3.74326e-01,-1.07096e-01,3.81550e-02,1.92563e-01,1.96514e-01,-6.45786e-02,-1.58788e-01,1.97805e-01,-1.38264e-01,-8.97574e-02,-9.89921e-03,4.23222e-02,-2.35697e-05,8.78001e-02,-1.26552e-01,6.34038e-02,
1.37640e-01,-7.83527e-03,-1.89158e-01,-5.74544e-02,-8.89240e-01,-2.02605e-01,1.84593e-01,-1.77256e-01,8.25868e-02,5.03008e-02,-8.05464e-01,3.22357e-02,7.57433e-02,-2.97791e-02,1.88378e-01,-7.97671e-02,2.06687e-01,-1.45139e-02,-2.10029e-01,-2.61369e-01,-1.52516e-01,1.50020e-01,-1.68557e-01,-2.30126e-01,2.99204e-02,1.13302e-01,4.06890e-02,1.17027e-01,-2.68880e-01,-1.01544e-02,4.27783e-02,-1.92511e-03,-4.84388e-01,-9.68388e-02,9.08390e-02,-2.02724e-01,-7.68088e-02,-2.22203e-02,-4.95119e-02,-1.38762e-01,3.63681e-01,9.85796e-02,2.99889e-02,-9.16207e-03,-4.05436e-01,-1.24799e-01,3.69136e-02,6.62915e-02,1.28534e-02,-3.86006e-02,-3.08218e-02,-1.14825e-02,-4.82353e-02,1.53405e-01,2.28109e-02,-1.15024e-01,-1.79125e-01,3.58920e-02,3.36909e-02,-2.65470e-01,-1.55760e-01,1.19943e-01,2.28649e-01,1.11262e-01,
1.36290e-01,1.08174e-01,-1.47838e-01,1.61380e-01,-1.46412e-01,4.20047e-02,-8.51836e-02,3.76309e-02,-2.04885e-01,1.29958e-01,4.85621e-02,-3.14099e-02,-1.30345e-01,-3.12891e-02,-1.30509e-01,-1.72665e-01,1.91296e-02,-1.36595e-01,5.54539e-03,6.70891e-02,-1.92293e-01,1.19838e-01,8.58769e-02,-7.02886e-02,-9.13909e-02,7.30346e-02,-4.09322e-02,-1.91917e-01,-3.80093e-02,2.09311e-03,6.92706e-02,-1.81107e-01,-2.68631e-01,2.44456e-02,1.46393e-01,2.08535e-01,-7.69511e-02,1.18892e-01,-1.52790e-01,-1.59499e-01,-2.21607e-01,1.32430e-01,-8.42112e-02,-2.33484e-01,6.14349e-03,4.01108e-02,1.53225e-01,-7.99542e-02,4.50987e-03,-1.06241e-01,-8.47424e-02,-9.29997e-02,-5.40241e-02,-2.04034e-02,-9.60520e-02,2.26262e-02,-8.75670e-02,-1.30854e-01,-1.95981e-01,-2.21044e-01,5.05469e-02,5.36117e-02,-1.68192e-01,-9.83061e-02,
4.82905e-02,-5.60309e-02,2.30737e+00,-1.90281e-01,-9.28972e-01,-1.44456e-01,1.35966e-01,2.64123e-02,1.03166e-01,3.28737e-01,-2.22837e-01,-8.56822e-01,-4.68682e-01,3.87815e-02,1.97813e-01,-4.50359e-01,2.05496e-01,-6.76049e-01,3.87705e-01,5.60358e-01,1.36296e-01,4.80077e-02,-1.30545e-01,4.48466e-02,-2.68540e-02,1.83945e-01,1.19978e-01,-7.86606e-01,1.20747e-01,-1.54871e-01,-3.85926e-01,-6.36190e-02,-1.71122e-01,-6.10069e-01,-3.92101e-01,9.48680e-02,-1.03665e-01,2.07024e-01,1.25001e+00,-1.69901e-01,-3.81639e-02,5.35703e-02,-6.41461e-01,-3.29605e-01,-8.67053e-01,-4.64559e-01,7.75248e-03,2.61744e-02,-7.75980e-01,-5.45894e-01,-9.66903e-02,-1.33651e-01,1.25015e-01,-8.40214e-02,-5.83113e-02,1.57130e+00,5.42092e-01,-2.65679e-01,-6.09766e-03,1.38568e-02,-7.31544e-01,-1.01654e-01,-1.83660e-01,1.33446e-01,
-3.60942e-02,-1.06562e-01,1.06285e-01,-2.09011e-01,-5.00867e-01,3.95918e-02,-2.04393e-01,-1.29740e-01,-2.07034e-01,1.29012e-01,-3.59765e-01,-3.56376e-01,-2.76272e-01,-1.07489e-02,-3.88692e-02,-5.65359e-01,-8.00099e-02,-2.20962e-01,-4.94895e-02,-1.42750e-01,-1.56626e-03,-3.38707e-02,1.05543e-01,-6.86198e-01,-2.07100e-01,-1.06547e-01,-3.30342e-01,-5.32343e-01,-1.15362e-02,-1.94097e-01,-1.71799e-02,2.80345e-02,-1.25245e-01,-4.00962e-01,-1.88192e-01,1.51938e-01,-1.32248e-01,-2.10768e-01,4.27469e-02,-2.45247e-01,-4.61029e-01,5.25141e-02,-2.65529e-01,-1.33219e-01,2.50009e-02,-1.89141e-01,-3.69722e-03,2.03432e-01,-5.63765e-01,-5.32046e-01,-1.13910e-01,-2.45585e-02,1.09476e-01,5.06224e-02,1.07147e-01,6.87449e-02,-2.58984e-01,6.60162e-02,2.03808e-01,-3.94162e-02,-1.10527e-02,-1.98448e-01,-7.34145e-02,6.76041e-02,
1.06423e-01,-1.19864e-01,5.61395e-02,-1.32669e-01,-4.80424e-01,-1.97337e-01,1.60679e-01,1.45178e-01,1.66828e-01,7.11293e-04,-1.35235e-01,2.06475e-02,-4.72095e-02,1.21549e-01,3.14243e-02,-1.29727e-01,-1.62788e-01,9.76339e-02,-1.78348e-01,-1.82705e-01,-5.62118e-02,-1.42809e-01,3.66487e-02,-6.95310e-02,1.46662e-01,1.93417e-01,-1.53208e-01,-7.19138e-02,-1.13881e-01,3.51839e-02,9.01739e-02,1.85718e-01,-2.30935e-01,-7.93920e-02,-1.76364e-01,-1.40743e-01,-2.22586e-01,-6.90313e-02,-5.95313e-02,1.53561e-01,-2.71038e-01,1.07644e-01,-1.72650e-01,-1.37998e-01,-2.89216e-01,-3.02065e-02,-1.86464e-03,-1.80875e-01,-5.02506e-02,-2.58010e-01,1.84692e-01,7.94470e-02,-1.45814e-01,-4.86260e-02,2.48443e-01,8.09029e-02,-5.33251e-02,1.68581e-01,-1.44827e-01,-2.02629e-01,-3.25320e-02,-1.46509e-01,7.23098e-02,1.14326e-01,
-1.10612e-01,3.60250e-02,-9.27320e-02,-3.16170e-02,5.58731e-01,1.75376e-01,-7.62456e-02,2.05235e-01,-3.37584e-01,-6.82750e-02,-1.65212e+00,4.19087e-02,-3.97600e-02,1.38370e-02,-3.28581e-03,-4.08657e-01,-2.55509e-02,-2.24338e+00,1.86077e-01,9.68124e-02,3.33256e-02,2.02310e-01,-2.42477e-01,-9.81577e-02,-7.60473e-02,-1.55426e-01,2.17330e-01,2.53810e-02,-2.45713e-01,-1.60879e-01,-1.37043e-01,1.51750e-01,-2.93100e-01,-2.88925e-01,6.27914e-02,-4.12222e-02,6.54696e-03,-2.25525e-01,-1.38036e-01,1.69645e-01,2.62028e-01,1.94150e-01,-6.04939e-01,-3.86724e-01,2.01537e-01,2.17772e-01,-1.78183e-01,-1.02664e-01,1.97739e-01,3.09730e-01,1.65139e-01,-1.06793e-01,-2.14362e-01,-2.16087e-01,-6.79695e-02,-3.83312e-01,-2.35620e-02,9.90492e-02,-2.16269e-01,3.76642e-01,4.64118e+00,-2.01823e-01,-6.32621e-02,-1.11597e-01,
2.02353e-01,5.73128e-02,-9.55630e-03,-5.41523e-02,-1.40187e+00,1.23178e-02,1.42289e-01,-3.06202e-02,-9.51180e-02,-1.54152e-01,-2.59228e-01,-6.05693e-01,-1.27945e+00,9.63224e-02,2.13576e-01,-6.79905e-01,1.96714e-01,1.55629e-01,-1.30172e-01,1.12682e-01,-6.67598e-03,1.22213e-01,-1.40541e-01,-1.01424e+00,1.08030e-01,-2.73540e-02,-4.94882e-02,-2.30361e-01,-1.92597e-01,-1.82604e-01,7.57180e-02,-1.99348e-01,-1.53224e+00,-1.95267e-01,-3.11501e-01,4.55880e-02,9.31813e-02,1.88068e-01,1.33658e-01,-1.77995e-01,2.32077e-01,-2.04327e-01,-1.56209e-01,-6.47823e-01,-9.78542e-01,-2.71113e-01,9.95734e-02,-2.08779e-01,-2.13899e+00,-9.07257e-01,1.41450e-01,1.35741e-01,-4.89897e-02,-1.42220e-01,-2.24084e-01,9.22438e-02,1.33045e-01,5.40966e-02,2.40046e-02,4.09106e-01,-1.21502e-01,1.84769e-02,1.74237e-01,-2.01388e-01,
6.70894e-02,6.84527e-03,-7.18014e-02,-8.53891e-02,-1.15511e+00,2.88163e-02,-2.02785e-01,1.98506e-01,2.14947e-01,-1.70193e-01,5.49977e-01,1.73374e-01,-1.86502e-01,-1.48951e-01,2.37051e-02,1.22954e+00,-1.01064e-01,-1.64888e-02,3.40373e-02,-1.66474e-01,8.80168e-02,1.93307e-02,-1.26973e-01,6.59847e-01,-7.64988e-03,-2.12193e-05,1.04729e-01,-2.40394e-01,-2.29997e-01,-5.11395e-02,3.30806e-01,-3.60265e-02,-4.69469e-01,3.57207e-01,2.45180e-01,6.43893e-03,-1.21777e-01,1.15359e-01,-6.16972e-02,-1.04416e-01,-1.97128e-01,-1.02200e-01,-1.75122e-01,8.96460e-01,-6.71806e-01,6.13186e-02,-1.44882e-01,-2.06724e-02,6.42483e-02,-2.69291e-01,-1.11329e-01,3.53009e-02,3.42346e-02,8.90070e-02,6.37904e-03,-7.06148e-02,1.74632e-01,2.12954e-01,1.95012e-01,7.56875e-02,-9.77975e-02,-7.55242e-02,8.42064e-02,1.45280e-01,
-5.43063e-01,
-5.67437e-01,
-2.52923e-01,
-7.78120e-01,
-3.01911e-01,
-2.40412e-01,
-4.02676e-01,
-4.73295e-01,
-4.57355e-01,
-1.58437e+00,
-5.87074e-01,
-8.67545e-01,
-1.18034e+00,
-7.53667e-01,
-4.53579e-01,
-4.82228e-01,
-2.88192e-01,
4.63952e+00,
-8.67477e-02,
-3.12003e-01,
-5.06045e-01,
-5.96554e-01,
-5.41983e-01,
-2.18659e-01,
-9.57953e-01,
-3.23843e-01,
-4.41587e-01,
2.34216e-02,
-7.88348e+00,
-8.25280e-01,
-5.04974e-01,
-3.74197e-01,
-2.28949e-01,
-4.17890e-01,
-4.71313e-01,
-5.47207e-01,
-6.53418e-01,
1.02359e+00,
-9.95423e-01,
-2.69591e-01,
4.82851e+00,
-3.28277e-01,
-4.97637e-01,
-5.10341e-01,
1.82109e+00,
-2.51274e+00,
-3.99631e-01,
-5.90838e-01,
-3.90709e-01,
2.34213e+00,
-5.29247e-01,
-3.24284e-01,
-8.41213e-01,
-5.11272e-01,
-1.64998e+00,
-2.33930e-01,
-2.56896e-01,
-1.07905e-01,
-1.26345e+00,
-7.95402e-01,
-2.01399e-01,
-4.84903e+00,
7.94163e-01,
-1.06342e+00,
-2.99725e-02,-6.88961e-02,-1.76202e-01,2.24611e-02,2.72647e-01,4.56596e-02,1.71908e-01,9.12711e-02,-1.41491e-02,6.93050e-02,1.59157e-01,7.13696e-02,3.37733e-02,1.47305e-02,1.28388e-01,8.65896e-02,1.26155e-01,-7.49800e-02,6.31877e-02,-2.09905e-01,5.18069e-02,-6.17577e-02,4.26443e-02,1.32700e-02,1.94790e-01,1.38189e-01,-1.53285e-01,-1.50635e-01,2.02716e-01,-5.20615e-02,9.10569e-02,1.07553e-01,1.56556e-02,-1.52319e-01,1.54593e-01,3.18533e-01,-1.81647e-01,-1.67525e-01,2.88518e-01,-5.75581e-03,-1.92678e-01,-1.43608e-01,9.43921e-02,5.19017e-02,2.48286e-01,4.76395e-02,2.80647e-01,-2.04694e-01,-1.33648e-01,-9.91529e-02,1.30304e-02,-5.84393e-01,-2.27625e-02,-3.44662e-01,-1.82965e-01,1.06151e-01,5.82415e-02,1.57264e-02,5.04353e-02,6.62613e-02,-3.09021e-02,1.71366e-01,-3.08364e-01,-1.06186e-01,
-1.66658e+00,
