// Neural Network File Format by Kyle Julian, Stanford 2016
3,13,1,13,
13,12,12,1,
0,
10,0,0,1,0,0,0,0,0,0,0,1,0,
100,6,15,16,6,13,5,4,1,19,19,100,40,
10,0,0,1,0,0,0,0,0,0,0,1,0,0,
90,6,15,15,6,13,5,4,1,19,19,99,40,1,
-1.97324e-01,2.43384e+00,2.87957e-01,-1.61153e+00,1.75324e-01,-3.82812e-01,7.18317e-01,-8.98343e-02,-1.39112e+00,8.69465e+00,-4.50660e-01,-1.82367e-02,-1.50868e-01,
-1.45805e-01,6.40669e-01,7.42766e-02,1.26578e+00,-2.35721e+00,-4.40119e-01,5.72334e+00,1.16276e+00,-4.90779e+00,-3.62095e+00,5.94026e-01,-4.47132e-01,-1.66345e-02,
-1.91730e-01,-1.43633e+00,2.41876e-01,2.36424e+00,2.11343e-01,-1.10709e-01,-8.28643e-01,-1.79851e-01,2.53895e+00,1.49567e+01,1.34746e+00,-3.55375e-02,7.20157e-02,
-1.22207e-01,-4.02909e-01,-2.94130e-01,7.20092e-02,1.65059e+00,-1.03851e+00,-1.65265e-01,-9.45380e-01,-2.40595e+00,-1.15304e+00,-1.33337e+00,-8.46357e-01,-1.43431e-02,
-2.27983e-01,-4.71319e-01,-2.61607e-01,4.58262e-01,-1.83961e-02,3.75442e-01,1.36598e-01,-2.12553e-01,3.00275e-01,3.72308e-01,-1.01710e-01,-4.08742e-01,-1.08391e-01,
-5.12573e-01,7.32610e-02,3.00577e-01,-4.91586e-01,-1.63309e-01,-1.89592e-01,-1.21834e-01,-6.24552e-01,-5.93644e-01,5.84510e-02,-4.25237e-01,-1.12588e-02,2.30835e-01,
-1.58518e-01,-9.65941e-01,-2.30477e-01,-8.42817e-01,-6.21237e-01,-5.00351e-01,-2.84431e-02,-1.31701e+00,-3.66667e+00,-6.51088e+00,-8.11551e-03,-9.54453e-01,1.98605e+00,
-2.04193e+00,-1.42229e+00,4.09236e-01,-1.52770e-01,4.86989e-02,-9.01708e-02,1.48778e+00,-2.50450e-01,1.07871e+00,-7.14918e-01,-6.37746e-01,-1.00853e-01,1.72674e+00,
-3.84791e-03,-6.39669e-02,1.08298e-01,7.85493e-02,8.64211e+00,-1.67522e-02,4.04766e-01,-1.11908e-01,4.74438e-01,-7.93229e+00,-3.04042e-01,-1.64609e-02,-7.65762e-01,
5.50402e-02,-1.71413e-01,3.70716e-01,-1.14462e-01,-1.49601e+01,6.26649e-02,1.28710e+00,5.47522e-01,-2.48612e+00,-6.85695e+00,2.27405e-01,-1.27792e-01,4.81005e-02,
5.24234e-01,-1.67812e+00,3.66859e-02,1.84810e+00,8.68694e-01,-4.30709e-03,-1.08210e+00,-5.33958e-02,1.01752e+00,1.59533e+01,7.52243e-01,2.08949e-02,-6.27369e-01,
7.93947e-03,3.29963e-02,-5.21505e-01,-7.70029e-01,1.50184e-01,-1.41983e-01,-1.34990e+00,-7.64397e-02,-5.68360e-01,-1.50192e+00,-7.06291e-01,6.95341e-02,-3.62326e-01,
-1.08230e+00,
-2.95653e+00,
-5.33691e+00,
1.46495e-01,
0.00000e+00,
-8.93851e-02,
2.52428e+00,
2.85504e+00,
7.53810e+00,
4.98590e+00,
-6.88767e+00,
-1.24489e-02,
-9.90561e-01,1.19515e-02,5.27081e-01,1.03071e-01,4.64756e-01,3.59857e-02,-6.48739e-01,-5.35058e-01,2.88594e-01,-1.42661e-01,8.86631e-02,3.31460e-01,
2.85186e-01,-2.96460e-01,-7.44165e-01,-1.63786e-01,2.28785e-01,-4.21286e-01,-3.96782e-02,6.78363e-02,-8.03822e-03,-1.28344e-01,-1.28320e+00,-2.56291e-01,
9.16204e-02,-1.67642e-02,-9.24754e-01,1.86017e-01,2.20352e-01,4.10753e-02,-1.89918e-01,-2.07655e-02,-3.74804e-02,-6.97315e-01,-1.89877e-01,-1.04700e-01,
-1.44023e+00,3.74841e-02,-9.47451e-01,-3.13751e-01,-4.00827e-01,1.42071e-03,6.75492e-01,8.45394e-01,-6.65412e-02,5.02146e-01,1.02734e-01,-3.23985e-01,
2.90258e-01,-1.77765e-01,-4.49459e-01,8.12209e-03,-2.24292e-02,4.28406e-01,-3.00667e-01,-4.23058e-01,-2.00386e-01,-1.73089e-01,-1.49124e-01,-4.89991e-01,
-7.69982e-01,-3.63903e-01,2.24577e-01,1.77906e-01,-4.36795e-03,1.32736e-01,2.22743e-01,1.01156e-01,7.69135e-01,1.07590e-01,-5.90014e-01,2.90432e-01,
2.76802e-01,3.98798e-02,-6.02749e-01,-4.18930e-01,-1.41696e-02,1.20019e-01,-9.83547e-02,-2.34578e-01,-1.23711e+00,-1.10639e-02,-1.46862e+00,-7.96448e-01,
1.70032e-02,-3.49751e-02,-7.78782e-01,-4.10749e-01,4.20569e-01,3.21490e-01,-4.27914e-01,-1.14029e-01,-9.47520e-02,-2.87441e-01,-5.97387e-01,1.42208e-01,
1.40674e-01,-1.37693e-01,-1.23723e+00,5.55120e-02,-1.20600e-01,1.40881e-01,-5.37458e-01,-4.79907e-01,-8.49759e-01,-8.19983e-02,-9.89412e-01,2.92914e-01,
-1.28932e-01,-1.92055e-01,-9.56096e-01,7.89016e-01,2.65105e-01,6.11879e-01,-5.35589e-01,4.89693e-03,-6.12741e-01,-2.14823e-01,-1.23368e+00,-3.82831e-01,
-1.07439e-01,-4.47598e-01,-1.14680e+00,-1.96106e-01,-4.15327e-01,-4.96710e-01,-8.74066e-02,-2.05938e-01,-1.11845e-02,2.44719e-02,-7.72270e-01,-5.37968e-01,
-1.35007e+00,3.24902e-01,1.59290e-01,2.40297e-01,1.34451e-01,-6.32941e-01,1.21213e-01,6.13537e-02,-1.89453e+00,-1.58625e+00,3.30132e-02,-4.42464e-01,
-3.82191e+00,
-1.64379e+00,
-8.25845e-01,
1.79775e+00,
-6.20961e-01,
3.86475e+00,
-7.43502e-01,
-2.84362e-01,
-1.19152e+00,
-1.21757e+00,
-1.61951e+00,
3.34509e+00,
1.43476e-01,9.26856e-02,1.20906e-01,-1.31241e-01,4.47267e-02,-1.30145e-01,-3.31176e-03,8.47971e-02,-4.40831e-01,1.39455e-02,1.58187e-01,1.67015e-01,
-1.64729e+00,
