// Neural Network File Format by Kyle Julian, Stanford 2016
6,13,1,64,
13,64,32,16,8,4,1,
0,
10,0,0,1,0,0,0,0,0,0,0,1,0,
100,6,15,16,6,13,5,4,1,19,19,100,40,
10,0,0,1,0,0,0,0,0,0,0,1,0,0,
90,6,15,15,6,13,5,4,1,19,19,99,40,1,
3.21364e-01,-5.24290e-01,-3.07586e-01,-1.24511e+00,5.58314e+00,1.20497e+00,4.12096e-01,-2.42057e-01,3.96654e+00,-1.11552e+01,-5.40687e-01,1.41066e-01,-4.95521e-01,
-2.33764e-01,-1.39166e-03,-2.58822e-01,-2.14190e-01,-2.05352e-01,-6.22222e-02,-5.85365e-02,-2.98716e-01,-4.42726e-01,-2.73760e-01,-6.62635e-02,3.90146e-02,-3.88303e-01,
-1.80028e-01,-3.36029e-02,-2.94001e-01,-2.59499e-02,9.00014e-01,-2.35499e-01,6.75261e-02,1.41850e-01,4.46909e-01,-7.06156e-01,-2.03016e-01,-1.92816e-01,-5.36922e-01,
6.13311e-02,-1.72622e-01,-2.56465e-01,-1.56460e-01,1.48266e-01,1.25706e-02,-2.81991e-01,-3.06491e-01,-1.25387e-01,2.02365e-01,-9.43854e-03,-2.93782e-01,-1.14158e-01,
-2.08972e-01,8.73893e-02,-1.93606e-01,-2.64284e-01,-2.52505e-01,2.55430e-01,2.11739e-01,-7.01203e-02,-1.49468e-01,-4.25332e-02,8.90194e-02,-1.24998e-01,-2.51578e-01,
-2.15807e-01,-6.40119e-03,-7.81528e-02,-4.63252e-01,-1.78113e+00,-3.12241e-01,3.52759e-01,1.46291e-01,-1.13012e+00,-2.91113e+00,-5.94134e-01,-4.59140e-01,2.39525e-01,
7.19470e-03,-1.29651e-02,-3.87891e-01,1.21466e-01,-2.41701e-01,1.33348e-01,-4.91009e-02,-7.95613e-02,-2.61623e-01,-2.07783e-02,-2.13657e-01,-1.74354e-01,-2.56821e-01,
-3.63349e-01,-2.87923e-01,-5.11634e-01,-3.27688e-02,-6.33661e-01,-2.39423e-02,-2.73561e-01,-5.28615e-02,-2.26625e-01,-2.48539e-01,4.24326e-01,4.66375e-02,-4.49580e-01,
-1.63042e-01,-8.76966e-01,-3.71004e-01,5.92700e-01,1.25161e-01,-2.66995e+00,2.82450e+00,-1.92432e-01,-2.96558e+00,-5.61512e-01,-1.66438e-01,-5.02763e-01,-3.03825e-01,
-3.90907e-01,-2.09493e-01,-1.12252e-01,-3.45164e-01,-1.89775e-01,-2.31212e-01,-1.63510e-01,-8.37303e-02,-1.83958e-01,2.08175e-01,-2.39281e-01,-2.56367e-01,-3.55418e-01,
-5.15752e-02,-2.31782e-01,5.47099e-01,4.20258e-01,-1.12302e+01,-2.16726e-01,4.73750e+00,1.32118e+00,-4.02424e+00,-5.80799e+00,6.67656e-01,-9.19481e-02,1.02193e-02,
5.69235e-01,-1.56908e+00,-1.21218e+00,-2.71503e+00,-1.64598e+00,4.95469e-01,-3.39754e+00,-4.33665e-01,-8.98560e-01,-3.15110e+00,1.23497e+00,-7.94759e-01,-6.77029e-01,
-9.99092e-01,2.28360e-01,1.20318e-01,-2.20299e+00,-3.04311e+00,8.76129e-01,1.02298e+00,-1.13544e+00,1.06950e+00,-4.15176e+00,2.66071e-01,-1.56618e-01,1.98806e+00,
6.83582e-02,-8.06915e-01,-6.54546e-01,-6.95669e-01,-1.61315e+00,-1.71002e-01,-1.61685e+00,-6.90369e-02,3.91267e-01,3.58914e-01,6.47544e-01,-5.55745e-01,-4.13107e-01,
1.04999e-02,-1.31395e-01,-3.60426e-01,-1.98622e-02,-1.77354e-01,-3.69250e-01,-1.56268e-01,-3.67065e-02,-2.73887e-01,2.95330e-01,1.68387e-01,2.95193e-02,-2.43311e-01,
-1.15372e+00,1.33722e+00,9.64919e-01,1.78525e+00,5.70181e+00,-7.02559e-01,2.18799e+00,2.84439e+00,1.40539e+00,-8.98236e+00,4.07700e-01,-4.05657e-01,-2.56506e-01,
-8.69646e-03,-2.21157e-01,5.87041e-02,-1.01117e-01,2.57655e-01,-2.27785e-01,3.77020e-03,1.31801e-01,8.27580e-02,2.39076e-01,1.33258e-01,-6.09883e-02,-2.30859e-01,
-2.36138e-01,2.00668e-01,5.45998e-02,-1.25609e-01,7.63577e-02,1.10089e-01,-4.51005e-02,-1.23518e-01,9.88337e-03,-6.53021e-02,-1.28156e-01,-2.48044e-01,-8.81044e-02,
2.51174e-03,-4.32234e+00,1.11686e+00,1.84476e+00,5.88765e-01,-4.57184e-02,-1.09406e+01,-1.06129e-01,-6.80698e-01,1.35835e+01,-2.82204e+00,1.44215e-01,-1.55930e-01,
-7.25156e-02,-5.72885e-01,-5.24145e-01,-2.48624e-01,-1.22788e+01,4.82095e-02,-3.52719e+00,-1.30564e+00,-1.28546e+00,3.44104e+00,1.15460e-01,-3.90223e-02,1.61787e+00,
-3.27187e-01,-1.68358e-01,-1.18414e-01,1.07823e-01,1.23752e-01,-1.60189e-01,-2.98421e-01,-2.49954e-01,-1.74920e-01,1.62947e-01,-1.27586e-01,5.72142e-02,-2.14913e-02,
-2.60072e+00,-2.52693e+00,8.66997e-01,9.24772e-01,1.08974e+00,2.59198e-02,-1.27047e-01,-8.76790e-02,-4.54009e-01,-1.28998e+01,-8.61965e-01,1.05599e-01,1.42989e+00,
-5.24451e-01,5.74574e-01,1.68902e-01,-8.81059e-01,5.17243e-01,4.48739e-02,1.52054e-01,9.39003e-01,9.27243e-01,-2.24873e+00,-8.74570e-01,5.45439e-02,-3.07907e-01,
-1.20333e-01,-2.82854e-01,-1.40065e-01,-3.14383e-01,1.72081e-01,-5.32371e-02,2.56465e-01,4.18134e-02,2.49570e-01,-3.64884e-01,-3.53144e-02,6.36594e-02,-1.86016e-01,
4.80464e-02,5.61343e-02,-3.72288e-01,-2.90747e-01,-4.76389e-01,-3.76163e-01,-4.06046e-01,-3.21465e-02,2.78834e-01,2.73078e-01,6.19338e-01,-3.10994e-01,-6.83623e-02,
-4.89411e-01,-7.29989e-02,-2.97547e-01,-2.95934e-01,4.72454e-01,2.49251e-01,3.92880e-01,-1.60645e-01,-2.45011e-01,-5.48516e-01,-5.89809e-02,8.09964e-02,-2.06392e-01,
-7.29836e-02,-6.49316e-02,4.56405e-03,-2.20577e-03,4.35464e-02,-1.53768e-01,1.19677e-04,-7.54317e-02,-6.27275e-02,6.57884e-02,1.29294e-03,-1.69353e-01,-1.93002e-02,
-1.21620e+00,2.31155e-01,1.06278e+00,2.77788e-01,4.06447e+00,4.61023e-02,1.07532e+00,1.60817e-01,-2.08166e+00,-6.78752e+00,6.34454e-01,-1.22455e+00,-3.10399e-01,
7.97877e-02,2.14301e+00,5.86928e-01,-5.94464e-01,2.20468e+00,2.37104e-01,2.88429e+00,2.22542e+00,1.82365e+00,1.30447e+01,5.05276e+00,-1.18432e+00,-5.04877e-01,
6.76700e-04,-1.26391e-01,-2.61439e-01,-2.14210e-01,4.36774e-02,-1.84084e-01,-2.44290e-01,-2.18430e-01,-3.21814e-01,-2.53482e-01,-1.80372e-01,1.40866e-02,3.02843e-02,
-1.47262e-01,-5.17165e-01,-1.68094e-01,-1.32577e-01,8.01598e-01,-7.02636e-02,-1.08470e+00,-8.36517e-02,2.06677e-01,3.11610e-01,-3.62900e-01,-1.57309e-01,2.15503e-02,
2.22728e-02,1.73199e-01,-7.58493e-02,-6.92516e-02,1.33828e-01,-3.47640e-02,-2.89566e-01,1.15474e-01,1.39979e-01,-2.86400e-01,-6.79535e-02,-3.11801e-01,-1.30101e-01,
6.28961e-02,-4.07338e-01,6.70336e-02,-3.81766e-01,-1.33295e-01,-1.15207e-01,-9.79446e-02,-9.89538e-02,-2.24589e-01,-1.38882e-01,-4.13773e-01,-3.18944e-01,-2.41808e-01,
-3.03470e-01,3.17314e-01,-2.68087e-01,-1.12406e+00,-4.38001e+00,-2.72948e-01,-5.28887e-01,-5.10005e-01,-1.23560e+00,-4.44627e+00,-3.15586e-01,-3.65156e-01,4.18918e-01,
-8.65646e-03,-5.49205e-01,-1.04465e-01,-1.42861e+00,7.59258e-01,-5.85913e-01,-2.64964e-01,-7.79896e-01,-5.13630e+00,-1.22687e+01,-1.49661e-01,-1.04840e+00,2.22277e+00,
-1.26425e-01,2.24124e+00,-6.41537e-01,-1.91859e+00,-1.01316e+00,-3.70511e-01,1.06990e+00,-1.38418e-01,-1.26434e+00,1.59495e+01,2.09161e-01,4.51754e-02,-3.11313e-01,
-6.22660e-02,-1.90831e-01,-7.53236e-01,-4.59884e-01,-1.32392e-01,-1.39761e-01,-5.55321e-01,-5.63506e-01,5.04058e-01,5.34276e-01,1.07358e-01,1.36184e-01,-6.76416e-01,
-1.76723e+00,-1.36554e+00,2.66290e-01,2.52775e-02,1.92178e-01,-3.51846e-02,1.94799e-01,1.22875e-01,-4.65593e-01,-5.49539e+00,-7.00505e-01,-3.71192e-01,7.32009e-01,
-7.80375e-02,-2.77623e-01,-2.62056e-02,-1.07173e-01,-1.62696e-01,5.44845e-02,1.63405e-01,-2.85544e-01,-6.99201e-02,2.43068e-01,-2.07432e-01,-3.02475e-01,-2.02603e-01,
-1.34330e-01,3.39128e-01,6.95430e-02,2.41066e-02,7.73812e-01,-6.17461e-02,-6.48148e-03,2.91466e-01,-3.43000e-01,-8.87394e-01,-3.73033e-02,-3.61651e-01,-5.45998e-01,
-3.27493e-01,-4.30301e-01,-1.05159e-01,-2.42317e-01,-1.23072e-01,-3.22876e-01,-2.38262e-01,-2.91921e-02,-1.69236e-01,-5.69579e-02,5.87400e-03,7.78465e-02,-2.82987e-01,
-2.03170e-02,-1.37752e-01,-2.45613e-01,-3.09231e-01,-5.82604e-02,-2.91520e-01,2.11646e-01,4.12213e-02,-2.41620e-01,1.90483e-01,-1.97516e-01,-1.91173e-01,-2.89035e-01,
-1.23235e-01,-2.68957e-01,1.61751e-01,7.68673e-03,3.21867e-02,8.85932e-02,-2.36229e-02,-2.05845e-01,-2.65118e-01,-7.52436e-02,-1.39634e-01,-1.89822e-02,-1.16212e-01,
4.75336e-02,2.01041e-02,-1.01640e-01,-3.73739e-01,1.61760e-02,-1.24642e-01,4.22035e-01,-2.32099e-01,-6.92750e-02,1.13177e-01,2.03978e-01,-2.05976e-01,-4.50116e-01,
-1.91368e-01,-4.67442e+00,-5.68034e-01,-8.68126e-01,9.77507e-01,6.04981e-01,2.89855e+00,-8.34873e-01,-4.96978e+00,-9.40191e+00,-9.53281e-01,-3.20188e-01,1.24500e+00,
-2.88025e-01,-8.03494e-02,-6.04632e-02,3.60538e-02,1.41069e-01,-1.06701e-01,5.96843e-02,-1.90473e-01,-1.02239e-01,1.55388e-02,1.22040e-01,9.71522e-02,-2.33786e-01,
6.01838e-01,1.27511e+00,-2.75170e-02,2.67537e-01,-4.55609e+00,-2.93672e-01,-1.62238e+00,-6.19167e-01,-2.89327e+00,2.60114e-02,5.17079e-01,-3.17305e+00,6.61206e-01,
-5.33621e-02,-1.94593e-02,-2.97331e-01,2.11330e-01,-1.37644e-01,1.25382e-02,2.22642e-01,1.56710e-01,-3.53091e-01,-1.70188e-01,-1.20687e-01,-1.47666e-01,-3.10070e-01,
3.79387e-02,4.64188e-02,-2.15106e-01,-3.20272e-01,-4.46803e-01,5.51231e-02,-2.79831e-01,-1.76855e-01,4.75055e-02,-9.82902e-02,-1.05584e-01,-4.25246e-02,-3.03746e-02,
-6.66619e-02,1.58146e-01,-1.66013e-01,-2.25126e-01,1.07742e-01,-3.94696e-02,-2.75828e-01,-1.47981e-01,6.96881e-02,1.22379e-01,5.71248e-03,-1.41109e-01,-3.06114e-01,
-1.52525e+00,-7.61387e-01,1.31978e-01,-4.48154e-01,1.32062e-02,-3.75272e-01,2.61503e-01,-6.97425e-02,-1.05610e+00,-6.72062e+00,-7.67723e-01,-3.85570e-01,9.46979e-01,
7.58440e-01,6.66664e-01,7.27354e-02,-1.06243e+00,-1.27751e+01,7.63396e-01,-1.18379e+00,3.99598e-01,-3.81237e+00,-5.54064e+00,-5.43553e-01,1.01460e-01,-1.92415e-01,
3.66543e-01,-2.87054e-01,-7.51289e-02,1.22014e+00,1.80889e-01,-6.62304e-01,-1.17399e+00,-7.07660e-01,1.26817e+00,1.68418e+01,1.23377e+00,1.86407e-01,-1.29887e-01,
-3.92433e-01,-1.11994e+00,-1.24123e-01,6.11927e-01,-3.59163e-01,-3.53893e-01,-3.52896e+00,-5.69533e-01,1.97913e-01,4.53769e+00,-9.28354e-01,-1.18180e-01,-8.07661e-01,
-1.36914e-01,-3.30221e-01,-5.26265e-02,-3.06326e-01,1.54873e+00,-1.08602e-01,-1.09041e+00,-1.38545e-01,1.52842e-01,-1.35038e+00,1.24152e-02,-3.91568e-01,-2.57978e-02,
-7.70594e-02,-1.03178e-01,1.62314e-01,7.42532e-02,-3.36631e-01,-2.35424e-01,1.79755e-01,-3.27652e-01,-1.48872e-03,2.28460e-01,-2.11892e-01,-2.75158e-01,3.13644e-03,
-2.01416e-01,7.50433e-02,1.36039e-01,-1.88010e-01,2.35591e-01,-2.70468e-01,2.77975e-01,9.60835e-02,2.24713e-02,-6.53574e-02,-4.22473e-02,-1.06564e-01,-3.88494e-02,
-7.93023e-02,-3.60887e-01,-3.18584e-01,-2.77253e-01,1.37511e-01,5.24899e-02,1.08812e-01,-2.04356e-01,1.48681e-01,1.11699e-02,-2.87377e-01,-6.10274e-02,7.51960e-02,
-8.06367e-01,1.89123e+00,-5.32770e-01,-2.50215e+00,1.87077e+00,3.51244e-01,-1.31594e+00,-4.26948e-01,3.36218e-01,-1.40738e+01,-1.71936e+00,6.73187e-01,9.75252e-01,
-3.57926e-01,-6.77208e-01,-6.48205e-01,-1.02816e-01,-1.02262e-01,-3.86756e-01,-2.60865e-01,-5.78117e-01,-2.51991e-01,2.90085e+00,9.23220e-01,-6.77421e-01,-4.94957e-01,
-3.13844e-01,-5.41578e-01,-2.82522e-01,-4.72004e-01,-7.30877e-01,-3.28015e-01,-4.51773e-01,-5.13543e-01,-2.26082e-01,4.46844e-01,-1.97730e-01,-3.43805e-01,-2.27749e-01,
-5.14464e-01,-1.93030e+00,-1.25367e+00,7.27048e-01,-1.47007e+00,-4.94512e-01,-2.18146e+00,-7.99330e-01,-1.24084e+00,1.06556e+01,-3.44968e-02,-5.08382e-01,-8.96429e-01,
-1.38845e-02,-8.51589e-01,-4.73551e-01,2.31410e+00,-1.00457e+00,1.39630e+00,6.99995e-01,4.69293e-01,-2.54168e-01,1.84345e+01,2.16078e+00,1.47353e-01,-2.81022e-01,
-3.49984e-01,-1.73745e-01,-5.67622e-01,-2.84968e-01,9.98769e-01,-2.36637e-01,1.75452e-01,-7.13374e-01,-3.67011e-01,-8.15082e-01,3.19932e-01,-3.19505e-01,-1.08690e-01,
1.06702e+01,
-4.51390e-02,
3.49733e-01,
-5.11510e-02,
0.00000e+00,
2.97018e-01,
-8.29969e-02,
-3.03290e-01,
-1.43389e+00,
-9.90042e-02,
1.84065e+00,
2.26393e+00,
2.36702e+00,
-2.23577e-01,
-1.33179e-01,
7.38055e+00,
-2.96215e-04,
0.00000e+00,
-6.40803e+00,
-4.13061e+00,
-4.77794e-02,
1.99941e+00,
1.70646e+00,
4.29858e-03,
-2.87569e-01,
6.36484e-02,
-4.63453e-02,
3.60944e+00,
-1.09048e+00,
-9.18277e-02,
-2.02450e-01,
-8.42453e-02,
-1.13213e-01,
4.48326e-01,
3.05778e+00,
-4.83630e+00,
-3.23054e-01,
9.42525e-01,
-7.96026e-02,
2.70162e-01,
-1.10724e-01,
-8.17859e-02,
0.00000e+00,
-1.15100e-01,
-2.68208e+00,
-9.40704e-02,
3.60321e-01,
-3.08241e-02,
-1.96346e-01,
-7.85902e-02,
1.50990e+00,
3.62380e+00,
-1.11172e+01,
-1.28862e+00,
2.54439e-01,
-9.69764e-02,
0.00000e+00,
-1.06330e-01,
3.82096e+00,
-1.09626e+00,
-4.44015e-01,
-2.67546e+00,
-1.01270e+01,
-2.32806e-01,
1.85671e-01,-2.52712e-01,-4.09315e-02,2.19079e-02,6.60949e-02,1.02793e-01,2.40196e-01,-4.10227e-01,4.51397e-01,-2.02354e-02,6.07870e-01,2.01081e-01,-2.37432e-01,6.11418e-02,1.31109e-03,1.14497e+00,-2.09649e-01,-1.54744e-01,-1.23689e-01,-1.39255e+00,-1.98847e-02,-9.56688e-01,3.06237e-01,1.93038e-03,-1.55458e-01,2.03621e-01,1.54460e-01,1.05959e+00,8.53788e-01,1.94301e-01,-9.09235e-02,-1.89934e-01,3.89410e-03,-3.38569e-01,-2.19923e+00,-1.42873e+00,-3.41516e-01,-1.52465e-01,-9.86341e-02,5.35083e-01,1.73451e-01,-1.49729e-01,2.47313e-01,2.83175e-01,-4.79530e-01,1.62609e-01,1.49367e+00,-1.12522e-01,-2.21726e-02,-1.28704e-01,4.14926e-02,1.56512e-01,-4.36109e-01,-1.91784e-01,1.20649e-01,1.39791e-01,-1.18978e-01,4.54196e-02,-2.12094e-01,-3.77827e-02,-9.43788e-02,2.89065e-01,-6.45129e-01,-1.25825e-01,
-1.43541e-01,-1.37944e-01,2.98568e-01,-3.56148e-02,-1.52455e-01,-1.73080e-01,3.61810e-02,2.69587e-02,-3.25982e-02,-1.66586e-02,4.44782e-01,2.92889e-01,1.52544e+00,-5.29467e-03,6.22478e-02,-1.92797e-01,-1.53472e-01,-1.12777e-01,-7.47300e-01,5.68633e-01,-1.51655e-01,1.17631e+00,4.40229e-03,3.35128e-03,-1.50115e-01,5.85507e-02,1.34109e-01,-1.46310e-01,-1.04945e+00,-1.63830e-01,1.74742e-01,-2.63451e-02,1.13741e-01,-1.82401e-01,1.67038e+00,-1.15007e+00,-4.41984e-01,5.41737e-01,1.23066e-01,-2.51123e-02,1.59463e-01,8.14035e-02,-1.94503e-01,-4.34505e-02,1.37776e-01,-6.39293e-02,-6.97245e-01,1.67073e-01,3.25879e-02,2.25192e-01,6.04973e-02,1.13424e+00,-3.04263e-01,-3.82649e-01,-8.12851e-02,-2.47920e-02,1.32847e-01,-9.02936e-02,8.79978e-01,-1.87079e-01,1.80580e-01,-1.62327e-02,-8.38489e-01,-3.24612e-01,
1.97948e-01,1.16547e-01,-6.67263e-02,8.32583e-02,-5.15834e-02,-1.59724e-01,1.77878e-01,1.97182e-01,-4.31294e-01,-1.20828e-01,-7.52350e-01,1.63428e+00,2.52922e-01,-1.06130e-01,2.99850e-01,1.77959e+00,2.06567e-01,7.21841e-02,-6.82583e-01,-6.80927e-01,-5.81194e-02,6.37411e-01,-3.60333e-02,1.19647e-01,-3.51392e-01,5.79885e-02,-6.48674e-02,2.70890e+00,9.00414e-01,1.48330e-01,-2.40998e-01,2.03677e-02,1.02628e-01,-2.96400e-01,-4.50745e-01,-1.21092e-01,2.35940e-01,-1.59343e-01,1.05842e-01,4.45955e-02,-1.89646e-01,1.53730e-01,2.45188e-01,-1.13775e-02,-8.22037e-01,1.80218e-01,1.34763e+00,-7.60305e-02,-5.57816e-02,7.93990e-02,-3.49165e-01,-1.09582e+00,-1.92794e+00,2.04052e-01,-2.90614e-01,-1.05156e-01,1.01723e-01,1.02392e-01,-6.47583e-01,-3.96608e-01,-5.22059e-02,-3.82044e-01,-1.44804e+00,-1.12398e-01,
-3.52004e-01,-8.11285e-02,-1.34862e-01,-1.22411e-01,-1.06401e-01,-2.90472e-03,-2.27831e-01,7.77091e-02,-7.77624e-02,-6.69227e-02,-1.06036e-01,-1.08259e-02,-2.51693e-01,-1.32902e-01,9.47558e-02,-3.03102e-01,-7.91874e-02,1.16580e-01,-8.09826e-02,-7.45896e-02,5.06379e-02,-9.18081e-02,1.09628e-01,8.47718e-02,-3.32043e-02,-1.80416e-02,2.03375e-01,-1.04477e-01,-1.86714e-01,5.93950e-02,-1.02335e-01,-9.07440e-02,2.60825e-01,-4.89081e-02,-2.81337e-01,-1.16377e-01,2.43737e-02,-7.74228e-02,1.66251e-01,-2.02131e-01,-7.36990e-02,1.92765e-01,-9.16188e-02,-3.02046e-01,-8.04257e-02,-1.69815e-01,-1.10272e-01,1.64006e-01,1.54269e-01,1.11424e-01,2.70901e-02,-2.80042e-01,-1.23680e-01,-3.47699e-02,1.73805e-01,1.01203e-01,7.40625e-02,4.89252e-02,-7.08412e-02,-4.97263e-02,-2.72742e-01,7.29683e-02,-2.01987e-01,-1.18051e-01,
-1.42374e-01,-1.39440e-01,-3.31204e-01,-2.29634e-01,-1.04176e-02,-4.08038e-01,-5.22868e-02,-2.80712e-01,-1.81925e-01,-1.44700e-01,-4.11700e-01,-3.58336e-01,-4.01154e-01,7.09048e-02,-7.09918e-02,-1.14814e-02,-1.77213e-01,-1.75595e-01,-1.61126e-01,-4.44483e-01,4.61985e-02,1.06768e-01,-6.57083e-01,4.29921e-02,-2.10225e-01,2.87194e-02,-1.20070e-01,1.79933e-02,1.84123e-02,-1.06882e-01,7.47112e-02,1.88709e-01,1.96498e-01,-3.72704e-01,-3.92807e-01,-2.80481e-01,-2.32932e-01,8.35216e-02,1.31636e-01,4.86662e-02,-1.00075e-01,-2.19497e-01,6.97011e-02,-1.83277e-01,-3.96520e-01,-1.85120e-01,-1.92783e-02,-1.37571e-01,-7.52702e-03,-4.76776e-02,-7.68181e-02,8.83499e-02,-3.18062e-01,-5.22312e-01,-3.85556e-01,1.60936e-01,1.57924e-01,-1.15138e-01,-3.66178e-01,7.85120e-02,1.00137e-01,-4.15303e-01,-2.40224e-01,-2.58408e-01,
-3.12471e-01,1.06346e-01,-1.67855e-01,-1.70328e-01,-1.17498e-01,-2.13065e-01,2.82183e-02,-5.12442e-02,-1.54749e-01,-3.03694e-02,-3.56724e-01,1.24314e-01,-3.74322e-01,-1.07796e-01,1.51531e-01,-3.58797e-02,2.37316e-01,-1.86096e-01,-1.68208e-01,-1.81934e-01,8.15035e-02,-8.13634e-02,-2.28756e-01,-4.29393e-02,-3.00699e-01,-2.26486e-01,2.32300e-01,-3.01519e-01,-2.19681e-01,-1.91196e-01,-2.10196e-01,-2.09730e-01,-1.90940e-02,5.22967e-02,-3.56024e-01,-6.51425e-02,-1.08629e-01,-1.93861e-01,-1.16162e-01,-1.99562e-01,-1.94687e-01,-1.08522e-01,3.50958e-02,5.91832e-03,-4.89654e-01,-5.78177e-02,-2.74369e-01,1.12779e-01,-1.51776e-01,6.34176e-03,-2.43711e-01,-9.92348e-02,-3.30800e-01,-1.53491e-02,-1.82427e-01,4.10308e-02,2.47703e-01,-2.18182e-02,-3.33082e-01,-4.15300e-01,-2.60953e-01,-7.07345e-02,-3.70125e-01,-2.97571e-02,
-1.94262e-02,1.78763e-01,-2.25455e-01,-5.62034e-02,-9.48028e-02,-4.19775e-01,-1.92110e-02,-6.80555e-02,-3.41447e-02,4.20231e-03,-1.67621e-01,-8.82590e-02,-6.29210e-01,-2.78963e-01,-2.36305e-01,1.43793e-02,-2.46232e-01,8.93599e-02,-3.39261e-01,-3.38934e-01,-2.25421e-01,-4.88665e-01,1.42397e-02,1.30542e-01,1.41297e-01,-2.78431e-02,1.99406e-01,-1.67874e-01,-4.25865e-01,-2.93823e-01,-2.04622e-02,-6.93456e-02,-2.59286e-01,-1.31660e-01,-4.79056e-01,-3.27749e-02,1.00083e-01,9.42457e-03,1.51203e-02,4.13264e-02,7.27469e-02,4.77168e-02,1.06631e-01,2.21784e-01,-6.00654e-01,1.45195e-01,-3.32754e-01,2.46443e-01,1.16525e-01,-7.60186e-03,-4.23121e-01,-7.09682e-02,-1.73233e-01,1.70916e-01,-3.73997e-02,-2.18142e-01,1.03893e-01,-9.33619e-02,-2.32336e-01,-1.91182e-01,-1.71939e-01,-1.75484e-01,-5.75555e-01,-2.86394e-01,
-1.58659e-01,1.63205e-02,-2.17129e-01,-1.24978e-01,1.13982e-01,-2.32594e-01,3.15763e-02,2.40106e-01,-3.69281e-01,1.78888e-01,-3.14455e-01,-4.04318e-02,-4.64785e-01,-8.31285e-02,2.84242e-01,2.32371e-03,1.00773e-01,1.17772e-01,-1.88029e-01,-2.34224e-01,2.12759e-01,-5.23247e-02,-1.84064e-01,3.02680e-01,1.05952e-02,1.64276e-01,-5.26677e-02,-8.37558e-02,9.68653e-02,6.48830e-02,-8.01367e-02,1.25357e-01,-4.18364e-02,-8.09181e-02,-1.60228e-01,-2.66729e-01,-1.54750e-01,2.09069e-02,2.31623e-01,1.65088e-02,1.77212e-02,-5.14016e-02,1.38312e-01,-2.29461e-01,-2.65043e-01,3.44281e-01,-2.61455e-01,-2.52858e-02,2.93096e-02,1.65918e-02,-8.79146e-02,3.61293e-02,-3.18464e-01,4.41765e-02,-1.77477e-02,1.38327e-02,5.51012e-02,-1.85372e-01,-1.16764e-01,-2.51803e-01,-2.42631e-01,-1.51168e-03,-5.65802e-01,-7.78497e-02,
-3.25842e-01,9.54076e-02,6.66237e-03,1.66104e-01,-1.41554e-01,-2.69640e-01,1.97662e-01,1.46066e-02,2.29227e-02,-8.16345e-04,-1.80741e-01,-2.26243e-01,-3.04553e-01,-2.41948e-01,-9.05989e-02,8.72892e-03,3.48645e-03,1.74990e-01,-1.87172e-02,-1.99508e-01,2.53482e-01,-6.61556e-02,-2.91595e-01,1.82098e-01,-3.34844e-01,9.54137e-02,-2.36159e-01,-4.88767e-01,-2.50607e-01,-4.17696e-02,-1.51266e-01,-1.75400e-02,-2.36349e-01,-2.64839e-01,-9.48248e-02,-1.48379e-02,-1.19395e-01,-9.32706e-02,-6.36817e-02,-2.53219e-01,-2.17927e-02,-1.76799e-01,1.93135e-01,-1.73503e-01,-2.87918e-01,2.21059e-02,-1.64790e-01,1.95301e-02,4.46353e-02,2.27166e-01,-3.44182e-01,-1.10600e-01,-1.56998e-01,-3.09619e-01,-5.32712e-02,4.95632e-02,1.46578e-01,7.69531e-02,-1.27318e-01,-2.43632e-01,1.45681e-01,-2.49574e-01,-1.77844e-01,-2.34341e-01,
-3.92623e-01,1.53698e-01,5.12138e-02,5.26787e-02,-1.96408e-01,-2.17494e-01,-2.11320e-01,-1.14820e-01,-2.36032e-01,6.72050e-02,-2.14822e-01,-5.30629e-01,-3.90562e-01,-5.52816e-02,1.38498e-01,-2.71697e-01,1.33635e-01,5.84027e-02,-1.80091e-02,-1.72634e-01,1.18904e-01,-1.54242e-01,-2.32136e-01,-2.01935e-02,-2.67665e-01,-6.75719e-02,-1.46617e-01,-2.99349e-02,3.00292e-02,-1.15847e-01,4.24332e-02,2.42901e-01,-2.27962e-01,-6.48098e-02,-7.80347e-02,-6.03424e-01,-1.62290e-01,-3.17850e-01,-1.23074e-01,1.96683e-01,5.86556e-02,-1.63084e-01,-1.93823e-01,-2.06343e-01,-1.09192e-01,-1.88016e-01,-1.13255e-01,1.18403e-01,2.05402e-02,-5.17643e-02,7.64507e-02,-1.46414e-01,-2.32085e-01,-1.95322e-01,-2.82503e-01,6.96916e-02,1.65219e-01,1.42581e-01,-4.82212e-01,1.25225e-01,-6.66123e-02,-1.95368e-01,-1.57009e-01,-2.27848e-01,
-2.92203e+00,-3.81942e-02,-7.15117e-01,-9.74205e-02,-1.38660e-01,-3.45027e-01,-1.53872e-02,2.04110e-03,3.53048e-01,9.17832e-02,1.52012e+00,-3.96090e-01,-3.85803e-01,2.89545e-01,2.02402e-01,-2.12578e+00,-2.44219e-01,7.39909e-02,-4.31449e+00,-2.29539e+00,1.05083e-01,-5.11627e-02,-8.18495e-02,1.51833e-01,-3.16724e-02,-4.93020e-01,9.22145e-02,-1.36000e+00,-1.23739e+00,-1.51380e-01,-1.17721e-01,3.14190e-02,3.01762e-03,-8.63799e-02,7.01055e-01,-4.33010e-02,2.51132e-01,3.08079e-01,4.00206e-02,1.94385e-01,-5.29583e-02,-2.14917e-01,-5.90000e-02,-3.67163e-01,1.24423e-01,-1.25128e-01,-3.54825e-01,-3.29739e-01,-9.77379e-02,-2.24224e-01,1.15483e-01,-4.08527e+00,-4.86263e-01,-5.86479e-01,-5.89688e-01,-2.36331e-01,1.12726e-01,-7.05949e-02,-3.71296e-01,1.40114e-01,-6.06955e-03,-3.36291e-01,6.47736e-01,1.85841e-02,
-1.74034e+00,2.63057e-01,1.01645e-02,1.71845e-01,6.88033e-02,-1.25328e-01,-5.25288e-02,-7.12862e-03,7.48073e-02,-4.16495e-02,-6.07357e-01,-1.94827e-01,-8.77428e-01,3.59319e-02,1.12415e-01,2.20311e-01,-1.49789e-01,-1.82206e-01,-8.16025e-01,-3.53472e-01,-7.79540e-02,-5.76807e-01,-6.36521e-02,1.78919e-01,-2.33650e-01,1.03023e-01,-4.79828e-02,-5.43615e-01,2.68115e-02,-1.67849e-01,2.80523e-01,1.11582e-01,2.30220e-01,4.92606e-02,-6.85313e-01,-3.12763e-01,-1.34746e-01,2.56884e-01,1.35566e-01,5.99949e-01,2.44357e-01,1.04632e-01,-1.96236e-01,-3.47568e-01,-5.39870e-01,1.49848e-01,-8.83770e-02,3.01674e-01,2.05376e-01,5.36774e-02,-1.99659e-01,-8.52353e-01,-4.06080e-01,7.38370e-02,1.12265e-01,-1.01730e-01,-8.30464e-02,-1.75601e-01,-7.79965e-01,-1.56767e-01,-6.82417e-03,2.51480e-01,1.88281e-01,-1.61846e-01,
3.09636e-01,-4.35755e-01,-7.87640e-02,2.50235e-04,-6.27992e-02,-6.90278e-02,1.25938e-01,-6.98528e-02,-8.46241e-01,-1.28917e-01,-4.00089e-01,1.22424e+00,2.89386e-01,1.48780e-02,-5.47295e-02,3.35290e-01,1.52539e-01,-2.01369e-01,-9.56711e-01,-4.34144e-01,2.84354e-01,1.05844e+00,-1.83759e-02,2.10508e-01,-3.43149e-02,-1.04947e-01,-1.27562e-01,-1.40310e-02,-6.04707e-01,-4.06698e-02,1.50038e-01,-4.26386e-02,2.55550e-01,-8.90399e-02,7.79404e-01,-2.28025e-01,3.24526e-01,7.08048e-01,1.59238e-01,6.12650e-02,2.31970e-01,6.17029e-02,1.83792e-01,5.84123e-01,-1.08149e-01,2.04374e-02,3.25036e-02,6.70732e-03,1.05521e-01,-7.34711e-02,2.78229e-01,1.41163e+00,-1.81877e-01,7.23874e-02,8.87180e-02,-3.35768e-02,1.98140e-01,-1.05160e-01,8.38134e-01,7.69885e-02,-5.29612e-02,-3.28919e-01,-2.12381e+00,-2.08469e-01,
-3.56689e+00,5.44761e-02,1.43292e-01,-2.12155e-01,2.38834e-01,1.64359e-01,-1.61118e-01,1.45895e-01,5.59389e-01,9.92554e-03,-7.37982e-01,-1.03054e+00,1.07955e+00,2.40677e-01,5.47388e-02,1.74712e+00,-1.46644e-01,-2.14305e-01,-1.24565e-01,9.69163e-01,-8.45383e-02,1.40417e+00,-4.16541e-01,1.29262e-01,-1.33888e-01,-2.19241e-01,-2.41312e-01,8.07266e-01,-7.24652e-01,5.21401e-02,1.18376e-01,-7.07545e-02,-2.58810e-01,1.07482e-01,-7.09855e-01,1.03233e-01,-3.23564e-01,5.28138e-01,-1.05373e-01,1.58969e-01,1.95792e-01,9.71614e-02,-4.18317e-03,6.26769e-03,-6.66630e-01,1.41804e-01,1.25449e+00,-2.39218e-01,1.51666e-01,1.19543e-01,1.87508e-01,-1.26518e+00,-2.09647e+00,-4.12590e-01,6.95148e-02,-1.63353e-01,-2.40335e-01,8.25237e-02,-5.55888e-01,-1.69037e-01,-2.80492e-01,-5.53618e-01,-8.58730e-01,-7.29631e-03,
-4.60170e-01,-3.47437e-02,9.31496e-02,2.48982e-01,7.82231e-02,-4.17148e-01,-1.15353e-01,-3.90093e-02,-2.32563e-01,-9.40160e-02,-9.47660e-02,-3.95938e-01,-3.38047e-01,-1.97274e-01,8.83157e-02,-9.24643e-02,-1.17069e-01,1.11031e-01,-1.62337e-01,-2.20660e-01,-1.95214e-01,-5.29082e-02,-1.24159e-01,7.14921e-02,-2.83285e-01,-7.20873e-02,2.21453e-01,-4.67606e-01,-1.51302e-01,-1.93698e-01,-7.65622e-02,-2.31359e-01,1.19157e-01,1.06598e-01,-4.85395e-01,-3.00790e-01,-1.88896e-01,-1.14655e+00,-2.26325e-01,2.09906e-02,9.26431e-02,-1.93517e-01,2.02829e-03,5.80440e-02,-9.39989e-01,2.52417e-02,5.11526e-02,-8.88883e-02,-2.87428e-01,4.83835e-02,-7.70174e-01,1.36207e-02,-5.09428e-01,-1.77165e-01,1.07809e-01,-1.34025e-01,8.42414e-02,-2.81869e-01,2.18164e-02,-2.76710e-01,-1.76118e-01,1.00510e-01,-5.90079e-01,-8.75242e-02,
-3.84447e-01,6.76594e-02,2.06740e-01,-2.49551e-01,7.47996e-02,-6.01042e-01,-1.37949e-01,8.41718e-01,-1.04818e+00,-6.07762e-02,-4.84169e-01,-5.36405e-01,-1.09589e+00,-4.49849e-01,-1.31998e-01,-5.96450e-01,-8.88050e-02,1.45513e-02,-1.40462e+00,8.48298e-02,-1.58886e-01,-2.86759e-01,1.67638e-01,2.31736e-01,9.10231e-02,3.60346e-01,-9.41397e-02,5.85325e-01,-2.97032e-01,2.08835e-01,-1.01275e-01,1.12222e-01,1.46716e-01,-4.16629e-01,-8.58148e-01,-1.14905e+00,-5.33315e-01,-6.00382e-01,-1.02139e-01,-2.75934e-01,3.78866e-01,-1.70619e-01,1.40418e-02,1.19400e-01,-8.33138e-01,-4.75812e-02,-1.27917e-01,-1.56213e-01,1.52971e-01,-4.55284e-03,-1.32557e+00,-3.95211e-01,-3.51812e-01,-2.27423e-01,-9.70778e-02,4.99462e-02,-3.50738e-03,-8.30828e-02,-9.13286e-01,-1.26654e-01,-2.12877e-01,-4.56359e-01,-1.73724e-01,-6.56374e-01,
-1.08346e-01,-1.29867e-01,6.16592e-02,7.95618e-02,-8.54027e-02,1.16808e-01,7.00098e-02,-1.46123e-02,-2.65735e-01,-1.92970e-01,-2.47044e-01,5.82614e-02,-1.95269e-01,-1.03964e-01,7.11570e-02,-3.11064e-02,1.77167e-01,8.19806e-02,-1.23079e-01,-4.06319e-02,1.44113e-01,-1.16710e-01,-2.54683e-01,-2.39448e-01,-8.39862e-02,1.28473e-01,4.44842e-02,-9.56705e-02,-9.36795e-02,-1.51898e-01,9.41162e-02,-3.21460e-02,-2.38022e-01,-4.98731e-03,-1.03028e-02,3.68710e-02,-1.75728e-01,1.20737e-02,-8.71446e-02,6.34794e-02,5.80363e-02,-2.02447e-01,-1.95865e-01,-7.67347e-02,-3.52681e-01,1.12670e-01,-1.62194e-01,-4.78029e-03,1.53490e-01,-1.15732e-01,-2.11453e-01,-1.17111e-01,-1.31347e-02,-2.30926e-01,-1.38634e-01,-3.46447e-02,1.23849e-02,3.86390e-02,-1.76828e-01,2.48602e-02,1.42364e-01,4.51240e-02,-4.60827e-01,-7.04297e-02,
-8.64320e-01,6.26960e-01,-2.06637e-01,-3.01959e-02,-2.38342e-01,3.91071e-01,1.54258e-01,2.80491e-01,-3.32770e-01,8.13533e-03,-1.82865e+00,7.02998e-01,3.74630e-01,-2.09827e-01,-3.07546e-01,-1.29285e-01,4.04963e-02,2.15959e-01,5.94310e-01,5.38213e-01,9.75738e-02,-1.18366e+00,3.07818e-02,-1.09482e-01,-5.16226e-02,1.66055e-01,2.90563e-02,-7.25617e-01,3.21484e-01,1.80893e-01,1.34899e-01,2.47861e-01,1.98836e-01,5.11222e-02,-1.02072e+00,-5.49448e+00,-1.58961e-01,9.07175e-02,-3.05096e-01,-3.37760e-02,-2.16769e-01,-3.94328e-03,7.63438e-02,8.69265e-02,-3.29808e-01,-1.71761e-01,1.75567e+00,3.87253e-02,-4.09707e-02,-8.75449e-02,-3.67615e-01,-9.33365e-01,7.68676e-01,-2.46022e-01,4.90020e-02,1.18835e-01,-6.31598e-02,-1.78653e-01,-1.03475e+00,-2.74603e-01,-2.74916e-01,7.54988e-01,9.98203e-01,-5.18221e-03,
-1.51984e+00,6.46397e-01,-2.59593e-01,2.83316e-02,-8.49553e-02,-1.51345e-02,-1.20396e-01,-1.92405e-02,-1.46557e-01,-2.58616e-02,-8.66036e-01,-3.40105e-01,1.54657e-01,-3.17776e-01,1.36370e-01,-6.23111e-01,-2.38452e-01,2.25062e-01,-9.96771e-01,-2.13829e-01,1.01016e-02,2.40155e-01,-3.13386e-01,-1.05566e-01,5.60054e-03,6.50062e-01,-2.67168e-02,4.55584e-01,-7.61024e-01,5.04943e-02,-2.13304e-01,8.52667e-02,6.85878e-02,-5.42536e-01,-8.93079e-02,-8.70498e-01,-3.33437e-01,7.39179e-02,1.86386e-01,9.88591e-01,3.93878e-01,-1.61774e-01,1.60608e-01,-2.43646e-01,-4.25668e-01,7.74337e-02,3.47082e-02,-2.03643e-01,-1.75030e-01,-2.07887e-01,-4.61896e-02,-3.90800e-01,-7.05031e-01,-6.35378e-01,-2.03934e-01,-1.86452e-01,-9.09571e-02,-1.19684e-02,-3.72970e-01,-5.07666e-01,-1.43147e-01,-3.55135e-01,-1.62091e+00,-2.85945e-01,
-6.10256e-01,1.06896e-01,3.75564e-02,-1.03773e-01,-9.82046e-02,2.00720e-02,-1.71392e-01,4.91682e-02,-1.23861e-01,1.41398e-02,-1.73329e-01,-7.02200e-01,-2.27022e-01,-1.45390e-01,-7.85979e-02,3.15303e-01,-5.58059e-02,1.59997e-01,-5.23049e-01,-2.34997e-01,-1.48919e-01,-7.80978e-01,8.80749e-02,8.48055e-04,-2.27851e-01,-1.73410e-01,2.41082e-02,-2.43289e-01,-4.57093e-01,-1.65252e-03,-3.72619e-02,-8.56588e-02,1.37757e-01,-1.35164e-01,-4.12928e-01,-1.19010e-01,-2.08444e-01,1.45339e-01,8.95907e-02,-2.96413e-01,-2.37108e-01,1.79867e-01,-2.46988e-01,2.15408e-01,-8.41770e-01,-7.62839e-02,-3.05219e-01,1.40747e-01,5.20116e-02,-4.23546e-02,-4.75938e-01,2.89299e-02,-3.92838e-01,-5.87337e-02,-1.78557e-02,5.94037e-02,1.92456e-01,1.76767e-01,-6.74181e-01,-3.12782e-01,7.03251e-03,-9.23970e-02,-9.65150e-02,1.74999e-01,
-1.82668e+00,3.39388e-01,3.34525e-01,1.40331e-01,-6.16502e-02,-5.21742e-01,-1.36530e-01,2.08754e-01,9.75875e-01,1.53031e-01,2.24431e-01,-1.49553e+00,-1.76139e+00,-3.68622e-02,9.11594e-02,-9.46427e-01,-3.94112e-02,-1.54251e-01,-6.86675e-01,-4.39687e-01,-1.91632e-01,-3.46989e-01,-6.54679e-02,-1.53006e-01,-2.04990e-02,4.79962e-02,1.27092e-01,-3.52223e-01,-6.99714e-01,-1.15648e-01,1.26147e-01,-9.63758e-03,-1.67197e-01,-1.70835e-01,-3.75114e-01,-2.00615e+00,-1.36262e-01,1.02208e-01,-1.55649e-01,1.90238e-02,2.72764e-01,-2.22082e-01,5.02045e-02,-6.92978e-02,-1.17820e+00,-1.91483e-01,6.77937e-01,-1.67553e-01,-1.74552e-01,1.12372e-01,-8.69514e-01,-2.52797e+00,-2.19498e-02,2.21542e+00,4.94965e-02,1.08260e-01,3.57284e-02,1.31013e-01,-1.52110e+00,-7.52306e-03,2.21045e-01,6.66617e+00,1.59189e+00,1.99469e-04,
-1.32383e-01,1.15877e-01,-5.81025e-02,2.27231e-01,1.49560e-01,1.38306e-01,-8.95923e-03,9.44576e-02,-5.93438e-02,2.09141e-01,-2.43836e-01,-1.40959e-01,-2.47932e-01,-3.66629e-01,-4.08699e-01,-1.81152e-02,-4.86849e-02,-2.01950e-01,-2.35148e-01,-2.58688e-01,-6.03428e-02,-1.56550e-01,-4.49088e-02,-2.26426e-01,-1.78595e-01,1.98081e-01,-1.50499e-01,-3.33056e-01,2.39968e-02,-4.18012e-02,2.40502e-01,1.04147e-01,-1.37054e-02,-3.34483e-01,-4.41281e-01,-3.23354e-01,-3.32099e-01,-2.47521e-01,1.39317e-01,5.41508e-02,2.07959e-01,1.78546e-01,1.84336e-01,-3.74622e-02,-3.29274e-01,1.22938e-02,6.44575e-02,-1.93412e-01,-2.05367e-01,9.49906e-02,-2.94899e-01,5.21987e-02,-2.07426e-01,-1.54480e-01,8.12690e-03,-2.48874e-01,1.54825e-02,-8.67189e-02,-3.78127e-01,-3.66892e-01,-8.88181e-03,-1.57029e-01,-1.70960e-01,-2.04531e-01,
-9.78004e-01,1.22224e-01,1.36840e-01,-1.22768e-01,1.16281e-01,2.62251e-02,1.85070e-01,3.89699e-02,5.23854e-02,-2.18608e-01,-1.19325e-02,-8.12502e-01,1.32955e-02,8.58530e-02,-2.85205e-01,-9.72244e-02,-1.63406e-01,4.29591e-02,-2.51898e-01,-1.49868e-01,-1.54595e-01,-1.87011e-01,-1.06178e-01,-1.91527e-01,-2.44382e-01,-1.07086e-01,-2.34408e-01,-4.96951e-02,9.24246e-02,-8.97160e-02,5.46244e-02,-2.27167e-01,-2.65800e-01,-7.86196e-02,-2.36278e-01,-1.59891e-01,1.82686e-01,1.58663e-01,-3.36176e-02,-1.21423e-01,-1.07164e-01,6.94384e-02,-2.29999e-01,2.32710e-01,-1.35701e-01,-2.39477e-01,-1.86004e-01,7.40754e-02,-2.72310e-01,3.25087e-02,-2.45535e-01,-1.69300e-01,-1.77662e-01,4.84954e-02,-1.93622e-01,-8.01151e-02,-1.10465e-01,5.17386e-02,-4.70172e-01,-3.24328e-01,1.43601e-01,-5.83750e-02,-2.11246e-01,1.43818e-01,
-1.66693e-01,-1.86899e-01,3.87825e-01,-1.36068e-01,1.65457e-01,6.77527e-01,-1.17844e-02,2.74070e-01,-6.09142e-01,-2.41290e-01,-2.56840e-01,1.89879e-01,1.28876e+00,2.92418e-01,-1.49119e-01,-3.10714e+00,-2.24150e-01,2.47285e-01,-5.80605e+00,-5.49224e-01,1.45090e-01,9.81441e-01,2.19830e-01,-1.67095e-01,1.36965e-01,-2.67845e-01,-2.40278e-02,-1.49535e+00,-2.97630e-01,2.10531e-01,-1.13905e-01,1.13191e-01,6.79843e-02,3.57690e-01,-6.70944e-01,2.20513e-01,-4.02681e-01,1.88543e-01,4.21700e-02,-9.63938e-01,1.34750e-01,3.11770e-01,1.87045e-01,1.67279e-01,-2.16892e+00,2.87681e-01,-3.43483e+00,-2.21307e-02,6.40555e-02,1.20394e-02,-6.43943e-01,1.12819e+00,-3.77428e-02,-8.08181e-01,1.23196e-02,6.74842e-02,-9.36899e-02,2.00989e-01,9.74898e-01,2.10898e-03,2.48378e-01,-1.57936e-01,-2.98106e+00,2.12699e-01,
-3.36718e-01,-1.96324e-01,5.05500e-01,1.51095e-01,-9.10342e-04,-2.57503e-01,1.50058e-01,1.63113e-01,-1.07978e+00,5.09119e-03,-5.61534e-01,8.07862e-01,-1.66197e+00,-1.23595e-01,1.82172e-01,1.44734e+00,-5.26315e-02,-7.75712e-02,-1.91733e-01,-1.76680e+00,7.40494e-02,-1.39225e+00,2.75192e-01,-4.10253e-02,5.21969e-02,5.03932e-01,1.76005e-01,1.05580e+00,9.98672e-01,2.54520e-02,-2.41147e-01,-1.21927e-01,-7.85614e-02,-4.38935e-01,-1.35209e+00,-5.66384e-01,1.13487e+00,1.97443e-01,-1.40305e-01,-2.15696e-01,-4.92796e-01,-7.06523e-02,-9.04968e-02,-1.42114e-01,4.54264e-01,4.26960e-02,1.61116e+00,2.02620e-01,-1.62771e-01,-6.93935e-02,8.10499e-01,-1.56469e+00,-1.74151e+00,1.61431e-01,-2.92534e-01,1.51661e-01,9.57376e-02,9.65567e-02,-1.91562e-01,-1.56619e-01,2.23734e-02,-4.06132e-01,-1.99063e+00,-5.66352e-02,
-3.78725e-01,1.76020e-01,-1.13558e-01,-6.60396e-03,-7.22112e-02,1.11122e-01,-2.22064e-01,-2.16433e-01,-2.70040e-01,-1.00500e-01,-2.85898e-01,1.15737e-01,-1.37123e-01,-1.34426e-01,1.89839e-01,5.83900e-02,1.68513e-01,6.87873e-02,-5.60621e-02,-5.17054e-01,1.31428e-01,-2.02902e-01,-3.25568e-01,2.19631e-01,-8.02674e-02,-1.95064e-01,6.60701e-02,-1.58063e-01,-1.37628e-01,-2.22757e-01,-1.71282e-01,-1.48182e-01,2.79007e-02,-3.46241e-01,-2.68815e-01,-2.29562e-01,-2.81053e-01,1.23808e-03,2.35008e-01,-2.03405e-02,-1.26878e-01,-2.47517e-01,-4.89232e-02,-1.47956e-01,-3.90188e-01,-7.55798e-02,-1.47678e-01,-1.29276e-02,-1.12079e-01,2.04172e-01,-2.21552e-01,-1.16121e-01,-6.67294e-01,-1.22006e-01,-1.25620e-01,2.32476e-01,1.23768e-01,2.22516e-01,-6.39084e-03,-1.79316e-01,-7.82845e-02,-2.33597e-01,-4.63762e-01,-3.39311e-01,
7.22550e-01,-3.67884e-01,-2.03240e-01,4.66214e-02,-2.00815e-01,-4.55956e-01,2.51725e-02,1.29167e-01,-5.62997e-01,-1.91933e-01,-1.63423e+00,8.90975e-01,1.38769e-01,-2.61949e-01,3.38957e-02,2.03011e+00,1.00322e-01,7.77331e-02,2.65503e-01,-6.69219e-01,7.99376e-02,-5.72719e-01,4.55298e-02,1.55458e-01,-7.63512e-02,3.00656e-04,1.99240e-01,-8.16117e-01,1.35682e+00,-8.19254e-02,-9.63645e-02,-1.01480e-01,-3.17232e-02,1.23253e-01,-8.67135e-01,-7.76473e-01,-3.80192e-01,-3.31953e-01,1.25920e-02,-1.60026e-01,4.71698e-02,1.42966e-01,2.20874e-01,6.08647e-01,-7.42583e-01,-1.80783e-01,6.64683e-01,4.90726e-02,-1.28879e-02,1.48307e-01,-5.83846e-01,-6.70203e-01,-1.01253e+00,-1.63019e-01,-6.73290e-02,-1.22621e-01,-4.47757e-02,-9.97437e-02,7.39638e-03,-1.74054e-01,1.38384e-01,3.17106e-02,-1.45932e+00,-2.81640e-01,
-3.60151e-01,1.87815e-02,-1.64020e-02,1.87199e-01,-1.76580e-01,-3.17260e-01,-9.16152e-02,2.42949e-02,-1.24888e-01,-1.01895e-01,-3.14004e-01,-3.40612e-01,-2.05917e-01,1.42997e-01,-1.78266e-01,-1.94907e-02,-3.26990e-02,7.35013e-02,-1.87049e-01,-1.81865e-01,1.11249e-01,-2.13106e-01,-2.92029e-01,-1.87290e-01,9.77794e-02,-2.34719e-01,-8.04368e-02,-3.23299e-01,-3.12642e-01,-3.10734e-02,1.49299e-01,9.44034e-02,-1.74736e-01,-2.61105e-01,3.07763e-03,-2.14216e-01,-2.61770e-01,-1.32904e-01,1.55579e-01,5.81341e-02,3.08445e-02,-1.29836e-01,-1.53777e-01,4.89034e-02,-1.25251e-01,-1.15181e-02,-1.64256e-01,2.47723e-01,-1.18967e-01,1.86919e-01,-5.45021e-02,-2.16903e-01,-2.99945e-01,-6.56908e-03,3.46590e-02,-3.15301e-02,-2.15507e-01,1.56228e-01,-2.32896e-01,-1.23755e-01,5.27517e-03,-2.75370e-01,-5.87263e-01,-3.24045e-01,
3.87859e-01,-6.45642e-02,3.31346e-01,-1.44592e-01,1.00031e-01,-4.12086e-01,1.87168e-01,-3.54102e-02,-3.98738e-01,-3.96943e-03,3.25986e-01,1.13329e+00,-1.54994e-01,-5.44690e-01,-4.40279e-02,1.41739e+00,1.24762e-01,1.35363e-01,4.41149e-01,-4.18687e-01,2.35732e-01,7.71667e-01,1.31770e-01,-5.74556e-02,4.04781e-02,2.45400e-01,-6.40022e-02,1.04093e+00,-5.02798e-01,7.23202e-02,-1.37896e-01,-1.46024e-01,3.89535e-01,-3.20453e-01,-1.36272e+00,-7.27134e-01,6.39806e-02,4.65842e-01,-8.50614e-02,1.09294e+00,-1.54307e-01,-8.49509e-03,-1.66957e-01,-3.77052e-01,-1.01110e+00,9.78426e-02,1.08778e+00,-1.03197e-01,-5.08136e-02,-1.91472e-01,1.08712e-01,-4.60111e-01,-3.45286e+00,4.08847e-02,2.51413e-01,2.33523e-01,-1.53503e-01,-1.31543e-01,-2.04397e-01,3.24401e-02,1.17424e-01,-3.82753e-02,-4.51970e-01,-2.55601e-01,
-1.36011e+00,8.60377e-03,-4.18195e-02,7.97949e-02,1.78300e-01,5.42962e-01,7.46919e-02,1.65454e-01,3.96600e-01,-1.39237e-01,4.54614e-01,-6.22652e-01,1.23055e+00,-4.89772e-01,-2.26750e-01,-2.33833e+00,1.56427e-01,-2.09610e-01,-2.05744e+00,1.78037e+00,1.76649e-01,2.09166e+00,-2.29211e-01,1.41880e-01,4.66182e-02,-4.58957e-01,2.10261e-01,-1.01787e+00,-4.21542e+00,-2.31652e-01,-2.83472e-01,6.43064e-02,-1.36264e-01,4.44897e-01,8.45619e-01,1.92473e-02,1.17513e-01,1.12899e+00,1.82797e-02,-4.75642e-01,3.91964e-02,-1.27706e-01,2.19844e-01,1.58453e-01,-5.86836e-01,1.84466e-01,-5.17654e+00,3.27845e-01,-1.46693e-01,-2.60981e-01,4.97622e-01,1.99450e-02,-1.47321e+00,3.36176e-01,-2.12140e-01,-1.62370e-02,2.36896e-01,-2.55776e-01,-7.37053e-01,2.33854e-02,1.87317e-01,-9.02663e-02,-4.44726e-01,-2.16826e-01,
-3.52674e-01,-2.49736e-01,2.48714e-01,3.78019e-02,-5.31840e-02,-1.03964e-01,1.18726e-01,-1.37597e-01,-1.91179e-01,2.03420e-01,-1.11593e+00,-1.47873e+00,1.70852e-01,-2.83169e-01,1.23233e-01,1.54679e+00,9.87164e-02,1.05025e-01,4.03856e-01,-1.19366e+00,-1.55352e-01,1.12611e+00,1.47269e-02,6.78000e-02,-2.05250e-01,5.64624e-01,-1.64781e-01,2.22706e+00,-5.12264e-01,-2.11827e-01,-2.08380e-01,1.47784e-01,-2.61417e-01,-2.42087e-01,-1.10178e+00,-4.01968e-01,-8.27831e-02,-2.45318e+00,4.12184e-03,7.58784e-01,4.92582e-03,1.93310e-01,-1.30767e-01,2.15556e-01,-1.06793e+00,-8.15439e-03,7.46180e-01,1.27334e-01,1.94518e-01,1.70140e-01,9.11563e-01,-1.29398e+00,-7.56320e-01,2.52141e-02,-5.07216e-01,-1.46511e-02,-7.84845e-02,7.05319e-02,2.78618e-01,1.10753e-01,5.58692e-02,-1.29317e-01,-2.24752e+00,-1.07527e-01,
1.10538e-01,1.54480e-01,2.95707e-02,1.07077e-02,-2.31616e-01,1.12401e-01,-9.89060e-02,1.92685e-01,1.56377e-01,1.84902e-01,-3.87678e+00,3.00082e-01,-1.11368e-01,1.01761e-01,3.79320e-02,-4.78993e-01,-2.35771e-01,1.97756e-01,-2.20225e-01,-4.08473e+00,3.00083e-02,4.71806e-01,9.32061e-02,-1.66773e-01,4.17541e-02,2.57431e-01,1.31838e-01,1.34257e+00,-6.80550e-01,1.66066e-01,1.25716e-01,-1.85594e-01,4.52088e-02,-5.88701e-01,7.51503e-01,-1.80808e+00,4.27140e-01,1.52984e-01,-1.62650e-01,8.17478e-01,-7.01188e-02,1.59029e-01,2.20634e-01,3.97375e-01,2.05607e-01,-1.17184e-01,2.03258e-01,-2.55174e-01,-1.58857e-01,2.34184e-02,3.04607e-01,-1.25094e+00,-1.68591e-01,8.42824e-01,2.93312e-01,4.39555e-02,-2.04984e-01,-5.08072e-02,1.44659e-01,3.10720e-01,6.10694e-03,2.75926e-01,2.77513e-01,3.73435e-02,
1.53023e+01,
6.42328e+00,
-1.57448e+00,
-9.74165e-02,
-3.66339e-01,
-2.90152e-01,
-5.28428e-01,
-4.87728e-01,
-3.01188e-01,
-2.71925e-01,
3.11877e-01,
-1.54916e+00,
5.21125e+00,
-2.76631e+00,
-7.23046e-01,
-9.59635e-01,
-1.29446e-01,
-2.63534e+00,
-8.35506e-01,
-7.42373e-01,
-3.60031e+00,
-2.78183e-01,
-2.38928e-01,
-1.90018e+00,
-2.48419e+00,
-4.04155e-01,
-7.50066e-01,
-2.60758e-01,
-4.67978e-01,
-2.46054e+00,
-7.64596e-01,
1.24347e+01,
-4.25186e-01,-8.02373e-01,1.45686e-01,1.05117e-01,-4.12992e-02,1.32436e-01,-1.83913e-01,1.79691e-02,-2.35104e-02,5.21949e-02,-2.56132e-01,1.59448e-01,-5.24300e-01,-1.05952e-01,-1.91365e-01,3.65819e-01,-2.84179e-01,-3.06606e-01,4.14335e-01,1.50090e-01,-2.53274e-01,-3.07571e-01,2.50269e-01,-6.94265e-01,-2.21713e-01,2.96662e-01,-5.58708e-02,-3.66352e-01,5.75311e-01,-4.82213e-01,-1.33349e+00,-6.76123e-01,
-5.30841e-01,-1.37004e-01,9.52136e-02,-1.69169e-01,2.53129e-01,-1.71265e-01,-1.91902e-01,2.75738e-01,-1.27198e-01,5.36300e-02,-4.45887e-01,-1.40456e-01,-6.46311e-01,-3.28269e-01,6.07945e-01,2.77826e-02,1.53824e-01,-4.94935e-01,-4.12086e-03,8.72878e-02,-1.17037e-01,2.47940e-01,2.91592e-01,-1.05940e-01,-2.03195e-01,9.82889e-02,-3.60103e-01,3.28851e-01,-7.72754e-02,-3.88975e-01,-5.06882e-01,-4.99753e-01,
-2.94824e-01,-1.57523e+00,-2.85789e-01,-1.11143e-01,2.02634e-01,-3.45698e-01,2.37059e-01,-3.28007e-01,2.01696e-01,-4.20708e-02,2.30151e-02,-4.13270e-01,-4.28362e-01,2.49338e-01,2.82000e-01,9.27411e-03,-6.89746e-02,-6.61763e-01,3.17610e-02,2.55822e-01,-2.99126e-01,-3.50160e-01,-3.69763e-01,1.14807e-01,-3.63742e-01,8.33977e-02,-1.16280e-01,-1.51400e-02,-9.38203e-01,-7.06616e-02,-1.81679e-01,-1.25420e+00,
-9.22709e-01,-8.13893e-01,-2.12058e+00,-1.67517e-01,2.35364e-01,-3.48764e-01,-2.86184e-01,1.96849e-01,-2.19161e-01,1.70846e-01,-4.27027e-01,-1.96044e-01,-1.34099e-01,4.50559e-01,-4.76212e-02,-1.22258e-01,-4.59246e-02,-1.40314e+00,7.71006e-02,-6.58083e-03,-6.94165e-01,4.40816e-02,4.48293e-02,-6.72151e-02,-9.60207e-02,1.29818e-01,-3.43045e-02,1.78072e-02,2.25805e+00,-3.87355e-01,-1.94052e+00,-3.72854e-01,
-1.61120e+00,-7.48909e-01,4.99960e-01,3.58342e-02,4.92003e-01,-1.16241e-01,4.13536e-01,1.97479e-01,-1.21400e-01,-1.69466e-01,-6.19412e-01,1.38892e-01,-1.28016e+00,3.53767e-01,-2.94047e-01,1.61855e-01,1.71359e-02,3.97472e-01,-3.41522e-01,2.15305e-01,8.66665e-01,3.32829e-01,4.02284e-01,-1.33631e-01,2.22269e-02,5.30182e-02,-1.97298e-02,-1.98225e-02,-2.08315e+00,-5.13395e-01,-3.48273e-02,-1.65485e+00,
-4.23246e-01,-5.85743e-01,2.85871e-02,-1.25548e-01,-2.50462e-01,8.07142e-02,-1.13397e-01,-2.62747e-01,-2.60335e-01,-2.57352e-01,-2.56280e-01,-6.02817e-02,-2.59557e-01,-5.70994e-01,2.45100e-01,6.32435e-02,-2.32935e-01,-7.35500e-01,6.08084e-02,-1.86977e-01,-5.86050e-01,-3.16995e-01,2.77192e-01,-2.37548e-03,-5.21107e-01,-2.32980e-02,-3.15043e-01,-3.38271e-03,6.08096e-01,2.96669e-01,-9.87602e-02,-5.49731e-01,
-4.96965e-01,-3.90874e-02,-6.98602e-02,-1.94196e-01,-1.06450e-01,1.39900e-02,-3.15157e-03,1.91653e-01,1.24068e-01,-2.88240e-01,-3.28429e-01,-5.95702e-01,-4.28293e-01,-9.53412e-02,1.03651e-01,-1.08656e-01,-2.20988e-01,-1.48801e-01,-2.52927e-01,-2.69275e-02,-1.06703e-01,1.69136e-02,7.07129e-02,-6.58651e-01,-1.03639e-01,-2.28125e-01,-1.28468e-01,-1.05896e-01,9.45075e-03,-3.55822e-01,-5.09547e-01,-5.23868e-01,
-9.28161e-01,-1.25016e+00,-8.68375e-01,2.87260e-01,-2.29351e-01,1.23464e-01,4.05374e-01,1.08925e-01,-1.25037e-01,5.40691e-01,-3.51911e-01,-2.19975e-01,-3.65722e-01,-4.41987e-01,7.54130e-02,3.62709e-01,1.84836e-01,-1.32405e+00,-1.02982e-01,-1.27623e-01,-5.77238e-01,1.88551e-01,-3.08439e-01,-2.16668e-01,8.32011e-01,3.25898e-01,1.51748e-01,-4.43223e-01,-7.99257e-01,-2.99581e-01,-1.96278e-01,-1.07569e+00,
-1.23654e+00,-1.01829e+00,3.02755e-01,1.94675e-01,-3.08620e-01,-3.88022e-01,-9.71917e-02,1.05546e-01,-1.73102e-01,-1.89916e-01,1.17963e+00,1.32179e-01,-1.83444e+00,3.78388e-01,2.83110e-01,1.04160e-01,1.02268e-01,-2.32703e-01,-1.21205e-01,3.43578e-01,-8.77852e-01,-5.64366e-02,-2.88655e-01,-6.19421e-01,-1.67315e-01,3.21863e-01,-2.29048e-01,-1.74750e-02,5.07619e-01,-1.22207e+00,-1.12963e+00,-1.87804e+00,
-1.24052e+00,-6.78033e-01,-9.62161e-01,-3.28885e-01,7.24402e-01,2.39435e-02,-8.04486e-02,-2.08738e-01,-1.71000e-02,5.94243e-02,-1.25247e+00,-4.28468e-01,1.45605e-01,-9.64214e-01,-3.76351e-01,1.80231e-01,-3.10697e-01,-7.45753e-01,5.38448e-02,1.31165e-02,-1.77270e+00,1.00180e-02,1.01466e-01,-3.93229e+00,-1.26678e+00,2.62897e-02,2.97279e-01,3.61471e-01,-2.27187e+00,-7.92429e+00,-2.09305e-01,8.82183e-01,
-4.09412e-01,-9.14531e-01,1.18294e-01,-7.75863e-02,5.33569e-01,2.19382e-01,1.49616e-01,-1.67595e-01,-2.70466e-01,-9.11461e-03,-2.56036e-01,-5.71982e-02,-7.00841e-01,9.34260e-02,-2.61005e-02,9.06962e-01,-2.27122e-02,-4.68030e-01,-1.16064e-01,-2.40200e-02,-3.67773e-01,-2.14965e-01,1.52839e-01,-3.16428e-01,-2.68674e-01,-8.87721e-02,-2.91610e-01,-1.21833e-01,3.52798e-02,-1.08962e-01,1.36636e-03,-1.40222e+00,
-8.61264e-01,-1.11975e+00,1.01283e+00,6.04611e-02,1.69957e-01,-1.13337e-01,1.40429e-01,-1.25503e-01,-8.15725e-02,3.20985e-01,-2.06859e+00,-4.41840e-01,-6.75146e-02,-3.18008e-01,9.83956e-01,-6.87571e-01,2.27780e-01,-1.37323e+00,4.52147e-02,6.19808e-01,-7.66722e-01,1.60971e-01,4.43598e-01,-1.68202e+00,6.02839e-01,1.19949e-01,-1.23298e-01,1.13499e-01,1.03850e+00,6.51251e-02,2.71473e+00,-5.27503e-01,
9.47120e-01,-3.10484e+00,-2.87140e-01,2.77529e-01,-2.73353e-01,3.10666e-01,5.76286e-02,3.49102e-01,-4.09618e-01,-4.05282e-01,2.00877e-01,-1.14539e+00,-4.62374e-01,-4.68445e-01,4.58071e-03,8.86538e-01,2.55535e-01,-1.13853e+00,1.54789e-01,2.26066e-01,1.09151e+00,-9.30089e-03,-8.15319e-02,-1.11260e+00,-1.12840e+00,-1.70663e-01,-1.16837e+00,1.02311e-01,-1.29491e+00,4.27662e-01,-8.27806e-01,-3.10864e+00,
-5.37095e-01,-1.05219e+00,-1.07635e+00,-2.78262e-01,6.56222e-01,-2.89775e-02,-8.06248e-02,2.44316e-01,9.44092e-02,4.33537e-02,-5.76801e-01,-1.97057e-01,-1.94640e+00,-6.39617e-02,1.09228e-01,1.05282e+00,1.15255e-01,-7.43289e-01,-1.17467e-01,6.91167e-02,-2.12201e-01,2.14532e-01,3.98039e-01,2.07613e-01,6.19563e-01,5.90208e-03,-6.29759e-01,-1.20766e-01,9.38109e-01,-1.51030e-01,1.04413e-01,-4.31366e-01,
1.84564e+00,3.89936e-01,4.14257e-01,-1.03713e-01,-2.72832e-01,-2.38175e-01,-6.71611e-01,1.33469e-01,-1.39192e-01,-1.32924e-01,-6.96330e-01,-1.10644e-01,2.33547e-01,2.87586e-01,-4.66671e-01,1.17552e-01,-2.17688e-01,-6.19274e-01,-1.16621e-01,1.23730e-01,9.42729e-02,-1.47682e-01,-3.98135e-01,-4.57439e-01,-1.47953e-03,-4.99981e-01,4.58632e-01,-3.15126e-01,1.26305e-01,4.47856e-01,3.67290e-01,1.61989e+00,
-1.96311e-01,-3.69029e+00,1.67396e-01,6.86989e-02,2.49090e-01,2.81082e-01,-3.84130e-01,-1.95729e-01,-2.74250e-01,-7.11507e-02,-5.67637e-02,1.78899e-01,-1.36777e+00,1.93833e-01,9.22223e-02,4.65182e-01,5.19622e-02,-7.34597e-01,1.51012e-01,4.55343e-01,1.40103e-01,-8.97542e-02,-4.35755e-02,-1.70845e-01,-2.78857e-01,6.24760e-02,-2.49041e-01,4.56642e-02,-1.52268e+00,1.03073e-01,2.76425e-01,-2.08656e+00,
-2.62770e+00,
-7.06114e-01,
-2.24183e+00,
-1.09951e+00,
-3.86186e+00,
-1.02410e-01,
-8.17192e-01,
2.66090e-01,
-8.42443e-01,
-6.94495e+00,
-9.03758e-01,
3.21844e+00,
-1.14900e+00,
-1.10636e+00,
3.93668e+00,
-4.53854e+00,
-9.59999e-02,7.07779e-02,-4.56655e-01,-4.76054e-01,-6.58161e-01,3.13443e-02,2.54111e-01,8.08844e-02,-5.33036e-01,1.43447e-01,-8.75791e-02,-5.48978e-01,-8.26972e-03,8.26206e-02,-1.09322e+00,-3.00740e-01,
-3.90081e-01,2.58993e-01,4.23330e-01,-2.75537e-01,3.70676e-01,5.43194e-01,-1.66013e-01,4.27998e-01,-1.56143e-02,3.04596e-01,-4.29297e-01,-1.84769e-01,3.38499e-01,-2.98031e-01,-8.07921e-01,4.10945e-02,
-5.63901e-01,-5.49466e-02,-4.71539e-01,-3.89048e-01,-6.46134e-01,3.48940e-01,2.98083e-01,-3.45881e-01,-3.07694e-01,3.11784e-01,4.26682e-01,-8.66660e-02,-4.68153e-01,-2.51404e-02,-1.98086e-01,-4.95271e-01,
2.25332e-01,3.22827e-02,-2.00405e-01,-1.00118e-01,-3.88574e-01,-7.02372e-01,-1.88392e-01,-2.78565e-02,-9.79149e-01,-2.57511e-01,3.53403e-02,-7.50267e-02,-6.23402e-01,1.29397e-01,2.94840e-01,-2.66272e-01,
7.16664e-02,-4.56252e-01,4.07976e-01,-1.89792e-02,-8.37607e-01,9.59140e-01,-1.29855e-01,-4.47695e-01,-7.22823e-01,-2.56322e-01,7.48690e-01,-2.04814e-01,-2.70654e-02,2.02312e-01,-1.40481e+00,-8.82889e-01,
2.65018e-02,-9.26506e-01,1.72524e-01,8.15663e-02,-4.28243e-01,1.05134e-01,5.75918e-02,-1.04387e+00,-3.59647e-01,-7.24951e-02,1.61002e-01,-9.20010e-01,-4.40270e-02,-4.50012e-01,-5.68285e-01,-2.72814e-02,
-4.32774e-01,7.70690e-02,6.49241e-01,1.75087e-01,-3.00977e-01,3.20264e-01,-3.87342e-01,-5.34526e-01,-7.23202e-01,3.87723e-02,-2.39540e-01,-1.11184e-01,-1.29446e-01,-1.28557e-01,-3.27074e-01,-1.56286e-01,
-5.83164e-01,1.35376e-01,-2.38361e-01,-4.58184e-01,-3.99904e-01,4.87669e-01,7.11069e-02,-4.86116e-02,-3.07059e-01,4.40904e-01,-3.13151e-01,-8.10327e-02,-2.10589e-01,-1.43247e-01,-2.86101e-01,-5.09674e-01,
-7.51979e-01,
-3.07251e+00,
-3.44584e-01,
2.52600e+00,
-2.53119e+00,
-2.51357e+00,
-1.64275e-01,
-7.50439e-01,
1.16790e-01,-8.84935e-02,-1.70675e-01,-7.79989e-01,-6.26017e-01,-7.15029e-03,1.53717e-01,1.15836e-02,
-9.82578e-01,2.90142e-01,-7.06415e-01,-2.61115e+00,3.50086e-01,2.52287e-01,-8.00728e-01,3.99900e-01,
5.79331e-01,-1.16457e+00,-4.73699e-01,-1.99848e-01,-1.47311e-01,-5.83737e-01,3.97804e-01,-3.46805e-01,
-2.91937e-01,-1.21253e-01,3.39465e-01,2.75469e-01,1.42066e-01,1.96042e-01,-5.55847e-01,-2.32237e-01,
-7.66211e-02,
3.76078e-01,
-2.95270e-01,
2.71456e+00,
8.18687e-01,2.92224e-01,-1.11232e-01,-6.28247e-01,
2.69620e+00,
