// Neural Network File Format by Kyle Julian, Stanford 2016
3,13,1,13,
13,5,5,1,
0,
10,0,0,1,0,0,0,0,0,0,0,1,0,
100,6,15,16,6,13,5,4,1,19,19,100,40,
10,0,0,1,0,0,0,0,0,0,0,1,0,0,
90,6,15,15,6,13,5,4,1,19,19,99,40,1,
3.45592e-01,-1.20844e-01,-3.44241e-02,-1.71458e-01,3.23543e+00,-2.16590e-01,3.62617e-01,-2.98323e-01,6.02306e-01,-1.65578e+00,-2.88073e-01,4.27894e-01,-3.01767e-01,
-4.87680e-02,-1.06939e-01,2.46043e-01,-2.30118e-01,-5.06178e-01,-3.44330e-01,2.19295e-01,-4.37562e-01,-5.53828e-01,-3.40289e+00,-1.69012e-01,3.26527e-01,3.27504e-01,
-3.30600e-02,-4.43166e-01,2.42847e-01,4.47051e-01,2.65780e-01,-3.24629e-01,2.15829e-01,-4.65928e-01,-9.49703e-02,3.03268e+00,1.47859e-01,3.67890e-01,2.42002e-01,
-7.22994e-01,-2.95628e-01,-2.81770e-01,-2.46376e-01,-6.47531e-01,-6.76171e-01,-2.31436e-01,8.47930e-02,-1.80855e-01,1.24527e-01,2.75247e-01,2.35588e-01,-1.13843e-01,
4.05699e-01,-4.14914e-01,1.65675e-02,5.51074e-01,-1.92503e+00,-1.07871e-01,3.55872e-01,4.11567e-02,5.13480e-01,3.33291e+00,1.75902e-01,2.99388e-01,-3.10444e-01,
6.12631e-01,
1.10036e+00,
-1.22742e+00,
-2.48569e-01,
-2.72525e-01,
4.31872e-01,1.31769e-01,2.05283e-01,4.35440e-01,-1.61914e-02,
8.06361e-01,4.11173e-01,-2.82186e-01,4.35546e-02,-4.12077e-01,
-2.29998e-01,8.40566e-02,5.50054e-01,5.29380e-01,-6.84397e-01,
-4.51717e-01,6.47139e-01,-5.54215e-01,-1.00013e-01,5.20382e-01,
-5.02321e-01,-2.06461e-02,-6.44362e-01,-1.39158e-01,-3.57312e-01,
-1.06938e+00,
1.08978e+00,
5.46834e-01,
1.05679e+00,
0.00000e+00,
5.26736e-01,-5.47277e-01,-3.92400e-01,-8.42940e-01,3.26300e-01,
-1.05958e+00,
