// Neural Network File Format by Kyle Julian, Stanford 2016
5,13,1,13,
13,3,3,3,3,1,
0,
10,0,0,1,0,0,0,0,0,0,0,1,0,
100,6,15,16,6,13,5,4,1,19,19,100,40,
10,0,0,1,0,0,0,0,0,0,0,1,0,0,
90,6,15,15,6,13,5,4,1,19,19,99,40,1,
-5.75130e-01,-2.56074e-01,-3.14747e-01,-1.59630e-01,-5.13779e-01,-5.64050e-02,-3.59276e-01,6.77961e-02,-1.68071e-01,-4.13737e-01,5.61488e-01,1.54204e-01,-4.00046e-01,
-8.17560e-02,3.86674e-01,5.12556e-02,-4.57404e-01,2.65230e+00,8.90804e-03,2.78191e-03,2.92319e-01,-1.25517e-01,-4.25422e+00,-3.88734e-01,-1.86080e-02,1.11034e-02,
-5.94815e-03,2.71502e-01,-3.52280e-02,-4.63629e-01,-1.28761e+00,4.95324e-03,-6.31040e-02,-3.25148e-02,-6.30129e-01,-4.45813e+00,-1.67387e-01,-2.49730e-02,2.94669e-01,
0.00000e+00,
1.30092e+00,
1.04890e+00,
5.75792e-01,1.60518e+00,9.53237e-01,
7.45808e-01,-7.44255e-01,6.70888e-01,
-3.27887e-01,1.30179e+00,-3.26578e-01,
4.35459e-02,
8.52494e-02,
-1.15207e-03,
4.90120e-01,-4.63997e-02,5.41324e-01,
-4.01238e-01,1.27416e+00,-2.53090e-01,
1.08472e-01,-2.63066e-01,-1.29107e+00,
-3.95966e-04,
5.83455e-01,
6.68754e-01,
3.61260e-01,9.87560e-01,-9.65041e-01,
-5.19005e-01,-5.71234e-01,5.72646e-01,
-1.13597e+00,8.26351e-01,1.46454e+00,
-2.29615e-02,
-6.16923e-02,
2.50672e-01,
-9.16508e-01,-1.17099e+00,7.78876e-01,
7.85364e-02,
