// Neural Network File Format by Kyle Julian, Stanford 2016
3,23,1,23,
23,16,8,1,
0,
0.0,0.0,0.0,0.0,0.0,0.0,0.0,0.0,0.0,0.0,0.0,0.0,0.0,0.0,0.0,0.0,0.0,0.0,0.0,0.0,0.0,0.0,0.0,
4.0,1.0,3.0,2.0,4.0,2.0,2.0,2.0,2.0,2.0,2.0,4.0,4.0,4.0,4.0,4.0,4.0,4.0,4.0,4.0,3.0,3.0,3.0,
0.0,0.0,0.0,0.0,0.0,0.0,0.0,0.0,0.0,0.0,0.0,0.0,0.0,0.0,0.0,0.0,0.0,0.0,0.0,0.0,0.0,0.0,0.0,0.0,
4.0,1.0,3.0,2.0,4.0,2.0,2.0,2.0,2.0,2.0,2.0,4.0,4.0,4.0,4.0,4.0,4.0,4.0,4.0,4.0,3.0,3.0,3.0,1.0,
2.20879e-01,-2.16686e-01,3.84606e-02,2.37737e-01,-5.34403e-02,-1.10489e+00,1.12216e-01,-5.14003e-01,4.74420e-02,4.79972e-02,-1.75248e-01,1.32431e-01,-2.24181e-01,2.15891e-01,3.17487e-01,7.18355e-02,9.94584e-02,1.40250e-01,3.45363e-01,-3.03151e-01,-1.23303e-01,2.65584e-01,7.91771e-02,
-4.93634e-02,7.00155e-02,1.58811e-01,-8.01475e-02,-2.58140e-02,1.01064e-01,-2.88127e-01,-2.65090e-01,-3.91302e-01,-1.78584e-01,-4.76298e-01,-1.32425e-01,-8.07650e-02,-3.94099e-01,-1.94988e-01,2.29721e-01,2.67109e-01,-5.38410e-02,-2.91653e-01,1.35490e-01,1.79383e-01,5.69796e-02,3.72951e-01,
-3.02587e-01,-6.50090e-02,-3.36286e-01,-6.92834e-02,-2.55478e-01,4.21723e-01,-6.28125e-01,-1.45233e-01,-4.47888e-01,-2.44165e-01,6.77954e-03,-4.05148e-01,-2.55673e-01,2.26153e-01,2.16581e-01,-2.03793e-01,1.46555e-01,1.13685e-01,2.58570e-01,-5.01014e-02,-2.73684e-01,-8.98997e-02,1.72082e-01,
9.95225e-02,-2.36266e-02,-1.25436e-01,1.07806e-01,2.74087e-01,-3.00233e-01,6.48940e-01,5.10857e-01,-1.57317e-01,4.26264e-01,1.67099e-02,-2.01298e-01,-1.25366e-01,-8.26022e-02,-2.26151e-01,2.70249e-01,-4.67345e-02,-9.88990e-02,6.43911e-02,-1.07664e-01,-3.33510e-01,3.48965e-01,-4.65306e-02,
-2.64540e-01,3.44152e-01,2.68233e-01,3.85969e-01,4.57628e-01,-3.23368e-01,-1.27495e-01,1.54861e-01,-3.16454e-01,7.10692e-02,-6.96921e-03,1.44684e-01,-2.46256e-01,-1.14043e-01,-3.06451e-01,6.51937e-02,-7.02114e-02,-9.43511e-02,3.39696e-01,-2.29324e-01,3.11451e-01,2.14729e-01,1.21517e-01,
3.07038e-01,3.54568e-02,2.19566e-01,1.33743e-01,1.68049e-02,1.43315e-02,-2.61373e-01,-3.05763e-01,2.46482e-01,4.30170e-01,3.58500e-01,-3.37563e-01,1.77514e-01,3.32041e-01,-1.42248e-01,-1.73452e-01,-2.54384e-01,2.39078e-01,1.63509e-01,9.20000e-02,2.26512e-01,2.77176e-01,-1.89616e-01,
3.26580e-01,-1.55269e-01,-3.35449e-01,-1.18403e-02,-6.17861e-02,-1.61639e-01,3.87489e-01,-2.74404e-01,1.87677e-01,4.95618e-01,-1.22901e-01,-2.75392e-01,-5.48264e-02,-2.93671e-01,2.27333e-01,8.88724e-02,-3.65434e-02,-5.04062e-01,9.25259e-03,-3.16205e-01,2.55497e-01,-4.38129e-02,-2.29202e-01,
2.78465e-01,-2.59247e-02,2.08501e-01,3.30194e-01,-4.67633e-02,6.72491e-01,1.94024e-01,-6.62924e-03,1.43790e-01,-4.29861e-01,2.03247e-01,-1.36156e-01,-1.74990e-01,1.75956e-01,1.93111e-01,1.51279e-01,-2.62207e-01,-3.95349e-02,1.61774e-01,2.61507e-01,-1.46269e-01,-3.81529e-02,1.37266e-01,
-2.69695e-01,-1.64192e-01,-3.39793e-02,-7.43825e-03,-3.95028e-02,8.14259e-01,-2.51645e-01,-1.62086e-01,2.46039e-01,3.67177e-01,-3.62225e-02,3.15072e-01,2.53812e-01,-2.26826e-01,3.26603e-01,2.73427e-01,2.83630e-01,-7.78672e-02,6.86292e-02,-3.02436e-01,-2.47635e-01,-2.35109e-03,-1.20873e-01,
-3.13161e-01,-1.26815e-01,2.16480e-01,-3.07207e-01,-4.41549e-01,1.38758e-01,-5.42229e-02,-2.04716e-01,-2.37189e-01,2.09585e-01,7.88991e-02,-9.76717e-02,3.36022e-01,-3.94596e-01,1.57489e-02,-3.15091e-01,-3.21766e-01,2.63563e-02,-4.95446e-03,4.41838e-02,-7.71644e-02,-2.22511e-01,-3.72060e-01,
-6.95676e-02,1.30955e-01,1.95257e-01,1.72847e-01,2.81450e-02,-1.03610e+00,5.98565e-02,-4.05778e-01,2.05648e-01,-4.42993e-02,-2.44271e-01,-1.83166e-01,2.93935e-01,1.47444e-01,-2.24491e-01,3.27979e-02,-2.23440e-02,2.34536e-01,1.83653e-01,3.38996e-01,-2.22996e-01,-7.83380e-02,-2.46624e-02,
8.43047e-02,-1.63160e-01,-1.59266e-01,-2.00767e-02,1.05327e-01,8.13793e-01,-4.98801e-01,1.30998e-01,5.14137e-01,-3.02854e-01,4.11988e-01,-4.00658e-01,-1.36306e-02,4.32752e-01,2.67879e-01,-1.24176e-01,5.53357e-02,3.52050e-01,-1.95770e-01,1.84175e-01,-2.88374e-02,-3.33556e-01,1.47995e-01,
-2.12825e-01,1.98894e-01,2.52577e-01,-1.40762e-01,2.14251e-01,3.36683e-01,1.98947e-01,1.78443e-02,3.51534e-01,2.51747e-01,-1.41119e-01,8.84401e-02,7.55098e-02,4.19762e-02,-3.69417e-01,-2.43008e-01,-8.39130e-02,3.67497e-01,4.41515e-02,2.24792e-01,3.13233e-01,1.88812e-01,-8.49681e-02,
-1.35039e-01,-1.01330e-01,2.03682e-01,6.57883e-02,-1.27284e-01,1.50791e-01,5.90327e-01,5.46166e-02,8.78837e-02,2.10691e-01,-1.71351e-02,5.18708e-02,3.63117e-01,5.70818e-02,2.11785e-01,1.64076e-04,1.73602e-01,1.75552e-01,-2.12018e-01,-2.97697e-01,7.82261e-03,-4.72392e-02,-1.71735e-01,
6.57413e-02,3.78250e-01,-1.25688e-01,4.73648e-02,6.49708e-02,-1.18093e+00,-1.27367e-01,-3.79231e-01,-5.42497e-01,-3.55853e-01,-2.10154e-01,3.09193e-01,-1.03548e-01,-8.30783e-02,8.60936e-02,3.13005e-01,1.67578e-01,7.00609e-02,-3.02298e-01,-1.40420e-01,-6.38756e-02,-3.12580e-01,-1.17575e-01,
3.44667e-01,-1.27845e-01,-3.45386e-01,1.20058e-01,3.52745e-01,3.66022e-02,-2.88601e-01,-1.85415e-01,-4.92069e-01,2.12845e-01,1.56844e-01,-1.23703e-01,3.54532e-02,-3.28508e-01,4.51019e-02,1.63021e-01,-2.67589e-01,-8.70488e-02,4.00637e-02,1.23417e-01,-1.56986e-02,8.02931e-02,-3.33883e-01,
1.64698e-01,
2.99782e-01,
-1.13741e-01,
9.18992e-02,
-5.93315e-03,
2.19988e-02,
4.31202e-02,
6.57872e-02,
-1.73287e-01,
-4.87183e-02,
6.05291e-02,
-1.18809e-01,
-4.14121e-02,
-1.16238e-01,
1.20134e-01,
1.84003e-01,
2.52491e-01,-2.36835e-01,-4.27719e-01,4.42782e-01,1.97663e-01,-7.87220e-02,1.24488e-01,1.52091e-01,3.96453e-01,1.85052e-01,-3.63480e-01,1.03748e-01,3.81848e-01,1.16180e-01,-5.36547e-01,-2.01999e-01,
3.10868e-02,-3.59033e-02,-5.92320e-01,1.32263e-01,2.58040e-01,1.39524e-01,5.51374e-01,3.72770e-01,4.94681e-01,1.33742e-01,2.98939e-01,2.87390e-01,1.86335e-01,-1.36867e-03,7.99318e-02,1.69910e-01,
3.70840e-01,-4.02702e-01,3.74395e-01,1.10219e-01,1.88830e-01,-3.05907e-01,-2.81597e-01,-2.99362e-01,1.57146e-01,8.72694e-03,4.34743e-01,-1.21279e-01,-3.36493e-01,4.64405e-01,9.09636e-02,-4.16700e-02,
-2.41391e-01,2.78895e-01,6.44400e-01,3.18600e-01,3.55843e-01,-2.81226e-01,-5.12329e-01,3.86824e-01,9.70661e-02,3.25379e-03,3.50381e-02,-1.92251e-01,4.74157e-01,-1.83822e-01,5.26867e-01,9.55375e-02,
2.10418e-01,-4.99513e-01,-5.92079e-01,4.03080e-01,-2.87394e-03,4.45977e-01,7.69757e-02,-4.79174e-01,1.45685e-01,3.50866e-01,2.34373e-01,2.92434e-01,-9.74359e-02,2.79159e-01,-7.27798e-01,4.69622e-01,
2.89292e-01,6.72977e-02,-1.51122e-01,4.08167e-01,2.99737e-01,-4.73568e-01,-8.44618e-02,2.72523e-01,2.73890e-01,-2.38212e-01,1.89030e-01,-3.45154e-01,-1.53858e-01,-2.30962e-01,1.58200e-01,3.71137e-02,
4.10957e-01,1.97136e-01,3.59599e-01,-5.63989e-01,-2.61818e-02,4.95903e-02,-4.83851e-01,2.99795e-01,-3.57735e-01,-3.85811e-01,1.37026e-01,-1.27997e-01,-1.01623e-01,-3.95237e-01,1.29078e-01,5.14154e-01,
2.42077e-01,2.40772e-01,7.04266e-01,-8.12541e-02,-1.97110e-01,5.43026e-01,2.37367e-01,-3.01556e-01,-3.81887e-01,-3.38477e-01,-6.50674e-02,9.33679e-02,2.65409e-01,5.65885e-02,5.99619e-02,-2.87759e-01,
-7.64972e-02,
-1.92470e-01,
8.08119e-02,
2.09737e-01,
-1.93363e-01,
1.58802e-01,
2.27863e-01,
1.64218e-01,
4.44417e-01,1.73237e-01,-6.85657e-01,-3.28069e-01,8.17022e-02,-1.07593e-01,-6.86946e-01,-6.78001e-01,
-1.76676e-01,
