// Neural Network File Format by Kyle Julian, Stanford 2016
6,23,1,64,
23,64,32,16,8,4,1,
0,
0.0,0.0,0.0,0.0,0.0,0.0,0.0,0.0,0.0,0.0,0.0,0.0,0.0,0.0,0.0,0.0,0.0,0.0,0.0,0.0,0.0,0.0,0.0,
4.0,1.0,3.0,2.0,4.0,2.0,2.0,2.0,2.0,2.0,2.0,4.0,4.0,4.0,4.0,4.0,4.0,4.0,4.0,4.0,3.0,3.0,3.0,
0.0,0.0,0.0,0.0,0.0,0.0,0.0,0.0,0.0,0.0,0.0,0.0,0.0,0.0,0.0,0.0,0.0,0.0,0.0,0.0,0.0,0.0,0.0,0.0,
4.0,1.0,3.0,2.0,4.0,2.0,2.0,2.0,2.0,2.0,2.0,4.0,4.0,4.0,4.0,4.0,4.0,4.0,4.0,4.0,3.0,3.0,3.0,1.0,
1.64385e-01,1.76625e-01,1.99243e-01,-1.66680e-01,1.12996e-01,-3.23538e-01,-3.97116e-01,-1.10881e-01,-4.13899e-01,-2.71321e-02,-4.66649e-01,-1.72493e-01,1.73858e-02,3.75903e-02,1.27084e-01,1.09886e-01,1.35613e-01,-1.87515e-01,-1.16741e-01,1.02381e-01,-2.14511e-01,-8.04314e-02,-1.52805e-01,
1.65503e-02,-3.67747e-01,-1.93007e-01,-3.87906e-01,1.65665e-01,3.25488e-02,-3.02684e-01,9.95636e-02,5.62442e-02,-2.80336e-01,-2.00781e-01,1.24304e-01,-1.67271e-01,-1.46622e-01,-2.15510e-01,-2.57667e-02,6.19514e-02,-8.28981e-02,2.68106e-01,-1.27334e-01,-1.30455e-02,-2.66401e-01,-3.91072e-02,
-2.53106e-01,-1.19587e-01,-4.69614e-02,-3.99520e-01,1.17496e-01,-1.00015e-01,-1.03131e-01,-3.30094e-01,-1.81854e-01,-1.80983e-01,-2.72953e-02,2.29206e-01,-9.46000e-02,-1.41890e-01,2.04793e-01,-3.36539e-01,-3.07057e-01,-2.53543e-02,6.57735e-02,-4.51663e-02,1.93249e-02,-1.69036e-01,3.32096e-02,
3.01995e-02,-3.30670e-02,-1.03292e-01,4.22331e-02,-1.03494e-01,-2.00785e-01,-6.25817e-02,3.65400e-02,9.98749e-02,-3.57809e-02,2.35850e-01,1.68899e-01,4.65029e-02,-1.47446e-01,-2.95698e-01,-3.86445e-02,-2.44576e-01,1.28589e-01,-5.86142e-03,1.11536e-01,2.48038e-01,-6.69111e-03,1.24223e-01,
-4.87404e-01,2.89599e-01,1.14830e-01,-2.85808e-01,2.37943e-02,2.80490e-01,1.44084e-01,-1.71273e-01,3.82177e-01,-2.47305e-02,-1.33232e-01,8.61905e-02,-2.63889e-02,-1.19145e-01,1.38776e-01,-2.39673e-01,-2.01316e-01,6.63566e-02,1.17841e-01,-1.02183e-01,-3.39139e-01,1.48744e-01,9.72404e-02,
1.97941e-01,6.35226e-02,1.20284e-01,1.48215e-01,-9.62448e-02,2.21598e-01,-3.56017e-01,-1.07143e-01,8.35271e-02,-4.72201e-02,3.73936e-02,-1.41213e-01,-1.67613e-01,-2.22084e-01,1.25200e-01,1.97516e-01,5.77276e-02,-2.78451e-01,-2.73174e-01,6.23537e-02,-1.97508e-01,1.28188e-01,-2.45430e-01,
1.00038e-01,-3.13297e-02,-6.00625e-03,-2.09736e-02,7.63114e-03,6.27835e-01,-3.69282e-01,-2.72769e-01,4.59519e-02,9.67631e-03,2.58277e-01,2.51716e-02,9.37412e-02,5.76303e-02,-2.34934e-01,-2.22092e-02,1.19001e-01,1.05613e-01,-4.27280e-02,-1.07169e-01,-1.69802e-01,1.49706e-02,1.36552e-01,
2.16143e-01,-7.26279e-02,3.32423e-02,6.25770e-02,-1.77595e-01,-2.59852e-01,1.73835e-01,-8.58221e-02,-2.77981e-01,-3.35753e-01,-3.86994e-01,-1.31797e-01,-1.24200e-02,-8.24970e-02,1.58179e-01,8.42671e-02,1.59520e-01,-2.66219e-01,4.00708e-02,8.25179e-02,-5.94175e-02,-1.82514e-01,5.19325e-02,
-1.70038e-01,3.76776e-02,6.91590e-04,2.26804e-01,1.56597e-01,-2.43481e-01,-2.24064e-01,1.90875e-02,-1.01424e-01,1.91832e-01,1.55636e-01,-2.19924e-01,-4.35430e-02,-1.85136e-01,2.15258e-01,5.33528e-02,1.89911e-01,1.15427e-02,-2.69781e-01,1.03567e-01,9.84259e-02,2.47806e-01,1.73349e-02,
-2.05784e-01,-2.04087e-01,-1.33640e-01,2.13999e-01,-2.12490e-01,-3.05508e-01,1.58846e-01,1.09170e-01,2.12785e-01,-1.34794e-01,2.22333e-01,-3.62973e-02,-1.81335e-01,2.63029e-01,-9.85761e-02,-9.81948e-02,-1.01599e-01,-1.33653e-01,2.40482e-01,-4.86659e-02,2.71144e-01,2.06833e-01,2.41792e-01,
-2.66737e-01,-1.06992e-01,1.45441e-01,8.06748e-02,-4.69465e-02,-3.30361e-01,2.09376e-01,-1.47876e-01,2.54779e-01,9.91012e-02,-3.21105e-01,-5.50664e-02,5.83620e-02,-1.07735e-01,-1.50855e-01,-5.95923e-02,-2.18120e-01,1.80961e-01,-1.77458e-01,-4.45228e-01,-3.70633e-01,1.79013e-02,1.32388e-01,
8.29265e-02,1.47103e-01,1.54227e-01,-2.34747e-02,-4.80778e-02,-3.63652e-01,-6.48856e-02,-3.35770e-01,-8.14306e-02,-4.93238e-02,-2.87737e-01,1.56912e-01,-6.38487e-02,-2.51882e-01,1.71921e-01,-1.27804e-01,6.79497e-02,5.16757e-02,-4.82359e-02,2.30089e-02,4.92835e-02,1.15951e-01,-5.67797e-02,
-2.24801e-01,1.16077e-01,1.30540e-01,3.68068e-02,-6.37339e-02,6.44106e-01,-1.87753e-02,2.38330e-01,-1.90656e-02,-1.58918e-01,8.59250e-02,1.23626e-01,2.66431e-01,-2.37613e-01,2.13753e-01,1.08211e-01,-8.74972e-02,-2.25087e-01,1.63313e-01,1.47272e-01,-6.78050e-02,-2.29745e-01,7.29622e-02,
7.18975e-02,-6.87164e-02,-4.46678e-02,3.03255e-01,5.70213e-02,-4.48751e-01,-1.85201e-01,-6.81573e-01,-4.94224e-01,-2.70280e-01,-6.49265e-02,-5.19011e-02,-7.63653e-02,1.80291e-01,-5.09889e-02,-2.35476e-01,2.14548e-01,1.58109e-01,1.87029e-01,-1.48870e-01,-1.93904e-01,1.25284e-01,3.16874e-02,
5.24289e-02,-3.71160e-02,-1.49715e-01,-2.12168e-01,1.77745e-01,2.12632e-03,-1.00387e-01,-7.14997e-02,-7.83766e-02,1.56124e-01,2.85327e-01,2.15325e-01,1.86451e-01,-2.38618e-01,9.64992e-02,1.55786e-01,-7.48063e-02,1.17672e-02,5.43755e-02,8.83947e-02,1.62371e-01,-1.76778e-01,-4.02531e-02,
1.35632e-01,1.92475e-01,-3.18688e-01,8.66723e-02,-2.49376e-01,1.01832e-01,3.26766e-01,-1.71886e-01,-1.99534e-01,8.15970e-02,1.62240e-01,1.18088e-01,1.21022e-01,-1.84460e-01,-1.14309e-01,-1.47162e-01,-1.79981e-01,-1.03711e-01,-2.17153e-01,8.94616e-02,2.69048e-01,3.32327e-01,-6.22120e-03,
-2.35889e-01,-2.71136e-01,1.30498e-01,1.61629e-01,1.21707e-01,6.86908e-01,-3.71313e-02,2.94699e-01,3.07872e-01,3.32724e-01,2.02944e-01,7.23741e-03,1.94912e-01,4.79273e-02,1.84017e-01,1.71875e-01,-1.36828e-01,1.03731e-01,-1.13683e-01,-1.80715e-01,-1.26783e-01,8.94068e-02,1.06142e-01,
1.74403e-01,-1.01126e-02,1.64082e-01,-1.00778e-01,-2.26083e-02,3.55423e-02,2.50260e-01,-1.18430e-01,-9.68134e-02,-1.89123e-01,3.88089e-01,-3.19197e-03,-2.76280e-01,-1.66229e-02,-2.10109e-01,-7.32440e-02,2.26841e-01,-2.87656e-01,-1.23962e-01,-1.35837e-01,-2.31569e-01,1.01661e-01,3.09750e-01,
3.92099e-02,1.63296e-01,-1.07739e-01,2.47258e-01,2.17365e-02,-2.72690e-01,2.40769e-01,-1.11534e-01,1.77239e-02,4.70710e-02,-3.20054e-01,-2.41552e-01,1.00906e-01,-6.07574e-02,1.30016e-01,1.71705e-01,4.00337e-02,-8.87412e-03,-3.16617e-02,-2.03254e-02,1.71968e-02,-9.63057e-02,1.56223e-01,
-1.40310e-01,-4.44390e-01,1.24552e-01,-1.48826e-01,-1.31351e-01,1.85155e-01,-1.63147e-01,-3.74208e-01,4.27122e-02,-1.01012e-01,4.31992e-02,-3.14493e-01,-5.68590e-02,-3.82596e-03,2.41786e-01,-6.71320e-02,-1.44476e-01,3.34275e-01,-1.43999e-01,-8.16347e-02,-6.06390e-04,-7.65274e-02,3.12453e-01,
7.47172e-02,-2.28099e-01,1.14699e-01,-3.36793e-02,-7.12818e-02,9.39107e-03,3.28851e-01,8.59432e-02,1.45504e-01,1.46834e-01,-6.65961e-02,2.23508e-01,-2.19121e-01,2.80746e-03,-2.43212e-01,2.45450e-03,-3.32710e-02,-3.04959e-01,-2.64719e-01,-1.39973e-02,7.21597e-02,-2.57220e-02,1.41441e-01,
-6.58290e-02,-1.06813e-01,2.45612e-01,1.51297e-01,9.22569e-02,4.34118e-01,-2.24291e-01,-4.46498e-01,-4.21329e-01,-1.92124e-01,-1.36729e-01,-3.13265e-01,-1.25818e-01,-2.18429e-01,-7.01930e-02,1.10906e-01,1.12996e-01,-5.42932e-02,-3.11441e-01,1.30002e-01,1.47486e-01,-5.42526e-02,2.50011e-01,
-2.33945e-01,-2.41078e-01,1.13459e-01,-2.65309e-01,-1.40628e-01,-1.12857e-01,-1.29809e-01,-3.24590e-02,4.07869e-02,-1.75533e-01,-2.85283e-01,-1.37146e-01,-1.07885e-01,3.14676e-03,1.14260e-01,-1.03936e-01,1.21737e-01,-4.27732e-02,3.54126e-01,-2.52870e-02,-1.43902e-01,1.64221e-02,-5.37546e-02,
1.77992e-01,2.45110e-01,-2.20520e-01,2.48830e-01,-6.60574e-02,-1.74065e-01,-3.82053e-01,-4.75230e-01,-8.14483e-02,-3.44495e-01,-1.64125e-01,-1.05174e-01,2.01344e-01,1.92203e-01,1.91578e-01,-7.31561e-02,-8.18701e-02,1.89289e-01,-2.00800e-02,2.22688e-01,-2.63633e-01,1.63144e-01,1.50240e-01,
1.35867e-02,5.68622e-02,2.63637e-01,-3.18145e-01,-8.34368e-02,-8.72720e-02,-3.31387e-01,-4.66114e-02,-1.05436e-01,-1.43927e-01,-1.82538e-01,-1.19470e-01,-9.51788e-02,2.37155e-01,1.97202e-01,2.33617e-01,-2.07864e-01,7.82241e-02,-2.81317e-01,-1.16694e-01,-3.73575e-02,-2.34791e-01,1.58606e-01,
-1.64062e-01,-1.16670e-03,1.57835e-01,-2.85473e-01,7.60342e-02,-1.98034e-01,3.41896e-01,-2.09048e-01,1.69112e-01,-1.78998e-01,-1.21957e-01,-8.74483e-02,-6.73683e-02,-3.97136e-01,-3.16628e-01,1.02465e-01,-8.77160e-02,-4.90436e-02,-1.33909e-01,-2.96733e-01,1.25511e-01,1.29898e-01,3.17347e-02,
4.36052e-03,-1.40266e-01,-8.82759e-02,1.25115e-01,1.29566e-01,1.84837e-01,-3.39148e-01,-1.86437e-02,-1.27316e-02,3.28390e-01,-1.18910e-01,1.20811e-01,-1.23650e-01,1.36678e-01,-2.11643e-01,1.06661e-01,1.81638e-01,1.85135e-01,6.02982e-02,9.22088e-02,3.41230e-02,-2.31155e-01,-2.79899e-01,
-1.43220e-01,1.53676e-01,-1.11252e-01,3.33717e-01,1.94167e-01,-7.65944e-01,1.27610e-01,6.57628e-02,-3.03756e-01,3.87283e-02,-3.58706e-01,9.71808e-02,1.42088e-01,-1.21727e-01,-1.70990e-01,1.55214e-01,5.49029e-02,-1.51826e-01,1.01652e-01,8.37896e-02,-1.84444e-02,-5.53381e-02,-1.64400e-02,
7.45208e-02,-1.20897e-01,1.10396e-01,7.34355e-02,2.10306e-01,1.66433e-01,2.06655e-01,-3.69932e-02,3.71611e-03,2.68049e-03,4.72811e-01,-1.43669e-01,1.41717e-01,-1.32594e-01,-8.58067e-02,-7.94913e-02,-3.80514e-02,-2.34671e-01,-1.13770e-01,-2.61768e-02,2.57211e-01,-1.16461e-01,-3.75389e-01,
-1.07016e-01,-3.60127e-01,1.84514e-01,1.03748e-01,4.52686e-02,-2.03264e-01,-1.15462e-01,-6.39764e-02,-2.03428e-01,2.34573e-01,-1.26648e-01,-1.62931e-01,-2.78451e-01,-5.28238e-03,1.47749e-01,-1.47503e-01,1.37263e-01,-9.58470e-02,-1.55286e-01,2.15529e-01,-2.86176e-01,-7.99323e-02,2.49737e-01,
2.29101e-01,-1.23493e-01,-2.76124e-02,6.67948e-02,1.52160e-01,-4.92949e-01,5.30351e-02,-7.28305e-02,-3.69367e-02,-5.69879e-02,-2.83734e-01,-1.02292e-02,6.00193e-03,8.78810e-02,1.72016e-01,2.11956e-01,-1.45001e-01,-1.99086e-01,-1.34165e-04,1.79336e-01,-1.90399e-01,1.48139e-01,1.58291e-01,
-1.12866e-01,2.40266e-01,1.95518e-01,-1.25517e-01,-7.51380e-03,3.72943e-02,-2.35368e-01,3.47998e-02,-1.82514e-01,-1.40283e-01,-5.35237e-02,-2.61367e-01,-2.59968e-02,-2.10011e-01,-1.74013e-01,-2.47586e-02,-3.60788e-03,2.39165e-01,2.78249e-01,1.37808e-01,2.14153e-01,1.03215e-01,-1.44115e-02,
7.77545e-02,1.27957e-01,-4.38170e-02,1.89272e-01,2.01007e-01,4.68078e-01,2.65507e-01,2.61687e-01,-2.88921e-02,2.26318e-01,1.42381e-01,-1.21853e-01,-6.80540e-03,-1.81396e-01,1.91583e-01,-1.08080e-01,1.41690e-01,-1.04472e-01,-2.61907e-01,2.49867e-01,-4.96789e-04,1.88985e-01,1.32829e-01,
-3.65630e-02,-4.69968e-01,-2.22943e-01,-1.84340e-01,-1.03904e-01,2.12745e-01,-3.07354e-02,-5.44719e-02,2.31332e-01,-1.25102e-01,1.85763e-01,4.38939e-02,-4.22890e-02,-1.33661e-01,5.25605e-02,-5.01155e-02,8.40922e-02,-6.74811e-02,-9.77409e-02,-7.82740e-02,-2.59575e-01,1.52034e-01,-3.62524e-01,
5.31832e-02,-2.48655e-01,-1.30476e-02,1.53587e-01,1.92390e-01,-9.46199e-02,-7.97457e-02,9.52843e-02,2.28392e-01,1.28113e-01,-1.14523e-01,1.69095e-01,4.21107e-02,-1.96505e-01,-5.50883e-02,-1.06967e-01,-1.07157e-01,-2.60332e-01,3.81912e-02,-2.70580e-01,-2.54938e-01,-1.07459e-01,-3.19641e-01,
-1.67481e-01,1.41291e-01,4.37746e-02,-2.36975e-01,4.27218e-02,-3.40153e-01,2.74119e-02,4.30137e-01,1.58204e-01,1.73666e-02,2.10420e-01,8.16202e-02,-2.96683e-01,-7.79691e-03,-2.54551e-01,2.19465e-01,-2.70751e-01,-1.34682e-01,3.17711e-01,-1.14161e-01,-2.73004e-01,-1.62832e-01,1.84829e-01,
1.98090e-01,-1.57831e-02,4.33945e-02,3.34591e-02,1.86438e-01,-2.25085e-01,-1.12313e-01,-1.40342e-01,2.41516e-02,-4.59594e-02,1.65916e-01,-1.26891e-01,-9.95523e-02,1.53090e-01,-6.92957e-03,-1.89334e-01,-2.52741e-02,2.73983e-01,1.01880e-02,-1.81626e-01,6.68608e-02,-9.44551e-03,-9.40127e-03,
1.80800e-01,2.04670e-01,2.36786e-01,-1.15214e-01,6.63806e-03,-6.24408e-01,-5.98757e-02,1.20655e-01,2.08768e-02,-1.27397e-02,7.08520e-03,-9.13680e-02,-9.94475e-02,2.05553e-01,-1.66463e-01,6.94792e-02,-1.55025e-01,1.28510e-01,-8.22248e-02,-1.39091e-01,2.27550e-01,2.48270e-01,7.98650e-02,
-9.48728e-02,-7.21044e-03,-4.21659e-02,1.33930e-01,9.40281e-03,-5.91964e-01,2.18863e-01,-1.62868e-01,4.63373e-02,7.40270e-02,6.72387e-02,2.66139e-01,2.80841e-01,9.13629e-02,-9.94570e-02,-1.95964e-01,2.52385e-01,-1.27043e-01,-1.86040e-01,-1.50712e-01,3.86469e-02,-3.22876e-02,1.97613e-02,
1.14556e-01,5.17768e-02,9.53133e-02,1.87703e-01,9.17199e-02,2.47129e-01,-1.92485e-02,2.67904e-01,1.91501e-01,-6.82357e-02,9.97006e-02,1.52114e-01,-9.42515e-02,-1.99054e-02,-1.59795e-01,-2.77185e-01,7.65783e-02,-1.85249e-01,2.11171e-01,7.96455e-03,7.23729e-02,7.85038e-02,-1.30604e-01,
-1.22377e-01,-1.75073e-01,-2.16527e-01,1.71735e-01,5.31727e-02,4.95987e-02,1.34982e-01,-3.10221e-01,2.16487e-01,-3.36765e-01,-2.62875e-01,-1.52284e-01,2.62852e-01,-1.24632e-01,-3.46229e-01,-4.19557e-01,2.48899e-02,-5.91284e-02,1.33442e-01,-1.12806e-01,-1.71511e-01,2.38292e-01,8.96339e-02,
2.23890e-01,-3.92532e-02,1.72715e-01,8.28067e-02,-2.84216e-02,-5.98671e-01,-8.18381e-02,-2.89676e-01,-2.81466e-01,-1.31571e-01,7.07882e-02,2.89457e-01,-1.04459e-01,-1.57049e-01,1.94867e-01,1.30938e-01,3.67236e-03,-6.36913e-02,-1.50216e-01,-8.11475e-02,-8.01075e-02,-1.09393e-01,-1.16079e-01,
2.73941e-01,-1.26924e-01,-4.11626e-01,-6.01839e-02,5.39434e-02,7.49601e-02,8.35516e-02,-5.36210e-02,1.83397e-01,-1.02523e-01,3.08828e-01,1.90963e-01,-2.38237e-01,-3.15607e-01,2.94567e-02,-5.06181e-02,2.14988e-01,1.91946e-01,-6.97126e-03,-1.60172e-01,1.05238e-01,9.25754e-02,-1.67524e-01,
-1.48527e-01,-5.58645e-01,8.04720e-02,2.64690e-01,2.13160e-02,2.63549e-01,-1.27244e-01,-2.21731e-01,1.97748e-01,1.68417e-01,-6.32080e-02,6.12276e-03,-2.56035e-01,-3.99915e-01,-2.03722e-01,-1.38162e-02,-9.19600e-03,1.51072e-01,2.38563e-02,7.69305e-02,-8.69610e-02,-3.02243e-01,-1.08746e-01,
2.27193e-01,2.01638e-01,-2.38354e-01,-1.45158e-01,2.38806e-02,-5.97775e-02,1.78780e-02,-2.59714e-01,9.32628e-02,5.30576e-02,-3.89129e-01,-3.30514e-01,3.42282e-02,-9.90471e-02,-2.38055e-01,2.29260e-01,-1.38099e-01,5.33336e-02,8.85616e-02,1.39224e-01,-3.31168e-02,1.17511e-01,-1.42501e-01,
6.11227e-02,2.70546e-01,-3.81757e-01,1.55730e-01,-1.16820e-01,-3.76428e-01,1.20848e-01,-2.97778e-01,-3.61755e-01,-1.81713e-01,-6.14852e-02,1.60873e-02,4.64396e-02,-2.36236e-01,1.46932e-01,-9.00434e-02,-1.58588e-01,7.00487e-02,2.27048e-01,-2.40544e-02,-1.12162e-01,1.72726e-01,7.66069e-02,
2.09002e-02,2.40435e-01,-6.35912e-02,1.60839e-01,-4.00158e-01,-2.94074e-02,-2.38659e-01,-6.60935e-02,-1.58083e-01,-9.36234e-02,-7.13467e-04,-1.62926e-01,-2.13866e-01,-1.22474e-01,4.74852e-02,-8.36504e-02,-1.71599e-01,3.60449e-02,-2.03298e-01,-1.12357e-02,1.38606e-01,-3.20836e-01,3.01145e-02,
-1.97422e-01,-3.26718e-02,9.24844e-02,1.97966e-01,5.57192e-02,-7.98353e-01,-1.19471e-01,2.79391e-01,-6.65613e-02,-1.93385e-02,-9.72646e-02,1.07070e-01,-2.16780e-01,9.87313e-02,1.55782e-02,2.36313e-01,-2.00358e-01,-7.46740e-02,2.51321e-01,1.31231e-01,-3.08591e-01,-7.64059e-02,1.71360e-01,
1.04016e-01,-1.84673e-01,1.54369e-01,1.20489e-01,-1.07398e-01,-3.20296e-01,2.27745e-01,-1.49792e-01,1.90479e-01,-8.13099e-02,-1.92783e-01,1.55565e-01,-2.08066e-01,-1.64899e-01,-5.89709e-02,1.75025e-02,-2.37145e-04,2.72885e-01,-2.07041e-01,4.93216e-02,5.22385e-02,3.14215e-02,1.45535e-01,
-2.07088e-01,-4.26152e-01,-1.08513e-01,1.58380e-01,-8.44408e-03,-1.81911e-01,1.34170e-01,6.08613e-02,1.00628e-01,7.62253e-02,-4.70999e-02,2.32992e-01,1.65872e-01,2.53413e-01,1.40609e-02,-7.39181e-02,-2.54928e-02,-1.18399e-01,-2.88220e-01,-1.02005e-01,5.15133e-02,-2.68365e-01,-2.11569e-02,
1.17397e-03,3.64311e-01,-2.21311e-01,-1.82377e-01,-5.08407e-03,5.15590e-02,-3.07027e-01,4.98480e-02,6.18321e-02,1.46158e-01,1.54284e-01,1.39274e-02,-1.18769e-01,-1.51127e-01,-3.94691e-02,1.43220e-02,-1.37338e-01,-3.87449e-01,-1.79554e-01,1.70465e-01,1.68175e-01,1.86109e-01,1.86330e-01,
1.19590e-01,1.95414e-01,-1.53915e-02,8.79934e-02,-1.51483e-01,1.92788e-01,-2.34454e-01,-1.87943e-01,-5.16414e-01,-3.12115e-01,-3.07967e-01,1.57063e-01,2.55302e-01,1.48510e-01,-1.43035e-01,-1.63031e-01,1.67071e-03,6.31188e-02,-8.61702e-02,2.40603e-01,3.14185e-01,-1.44135e-01,1.63315e-01,
2.08623e-01,-3.80731e-02,5.04681e-02,-7.20145e-02,-2.25060e-01,-3.57773e-01,-1.49206e-01,-2.36096e-01,-1.16787e-01,-8.69149e-03,-3.93228e-02,1.23268e-01,1.08012e-01,1.84346e-01,2.08586e-02,-3.29100e-01,-2.83876e-01,-1.35554e-01,2.60976e-01,-2.47607e-01,-2.67815e-01,-1.67614e-01,-1.70032e-01,
1.08794e-01,2.40080e-01,-1.56281e-01,-3.73805e-02,5.80934e-02,-4.88015e-01,-8.87461e-02,1.32980e-02,-6.55276e-02,2.40553e-01,-1.05999e-02,-1.81360e-01,4.11877e-02,-3.26405e-02,3.55394e-02,-1.24079e-01,-1.93656e-01,1.49192e-01,1.47380e-01,1.41036e-01,3.12181e-02,6.46231e-02,5.93394e-03,
-2.25492e-02,-3.65706e-02,-6.33582e-02,9.36300e-02,-1.02900e-01,-8.49222e-01,2.69597e-01,-2.49879e-01,-1.22556e-01,-3.10899e-02,-5.62584e-02,1.00944e-01,-2.52606e-01,1.11645e-01,-4.18955e-02,9.52350e-02,-4.59711e-02,2.81379e-01,2.20363e-01,9.15839e-02,7.06951e-02,-1.30226e-01,3.07159e-03,
2.17053e-01,6.91367e-02,-5.83228e-02,2.13440e-01,2.04231e-01,-6.43354e-01,-1.34506e-01,-2.69784e-01,-1.67633e-01,-3.64164e-01,4.80240e-03,1.87519e-01,8.49422e-02,1.89522e-02,-1.28662e-01,1.27012e-01,-6.06266e-02,-4.10551e-03,-1.81179e-01,-1.31970e-01,1.25633e-01,-1.56067e-01,2.17642e-01,
3.16197e-02,-1.30208e-01,3.23992e-02,2.24349e-01,-2.44629e-01,6.59831e-01,-5.19295e-01,-1.04588e-01,1.42871e-02,2.91791e-01,2.24367e-01,2.59035e-01,-9.46311e-02,1.82087e-01,1.07978e-01,-1.53844e-01,4.56961e-02,-6.42019e-02,-1.33455e-01,2.41861e-01,2.20818e-01,7.47374e-02,5.42247e-02,
-3.36223e-01,-9.80829e-03,9.02659e-02,-2.42857e-01,1.21845e-01,-1.40197e-01,-2.64760e-01,2.54187e-01,-4.25990e-01,-3.03046e-01,1.91769e-01,1.74742e-01,4.09186e-03,4.33965e-03,-7.53442e-02,-2.11488e-01,-1.14321e-01,7.22936e-02,-1.87628e-01,-1.62052e-02,-2.32343e-01,-7.79708e-02,2.38934e-01,
2.21331e-01,3.34672e-02,-2.06798e-01,2.38866e-01,2.26145e-01,1.48415e-01,1.85126e-01,3.06456e-02,2.27192e-01,4.68976e-02,1.43614e-01,-3.66764e-01,-1.45024e-01,-1.87356e-01,1.93980e-02,9.11245e-02,-1.84976e-01,1.64283e-01,-1.28425e-01,-2.51023e-01,-1.37300e-01,2.65826e-02,2.74623e-01,
-8.99046e-02,8.33408e-02,-4.00241e-01,-8.80045e-02,2.27215e-01,4.78554e-01,-2.89252e-01,-1.63503e-01,3.33400e-01,-1.20136e-01,4.03535e-01,-1.63477e-01,1.65008e-01,2.34616e-01,7.56809e-02,1.89880e-01,2.48861e-02,1.50441e-01,1.20134e-01,-2.08461e-01,1.44431e-01,7.87478e-02,1.98239e-02,
-6.36805e-02,1.25345e-01,-9.03360e-02,-2.11295e-01,2.20149e-01,1.55506e-01,-1.22199e-02,-1.23817e-01,-2.21539e-01,6.22533e-02,-3.57802e-02,-2.62364e-01,1.08008e-01,1.68033e-02,-1.69289e-01,-1.11495e-01,-3.01728e-01,7.28879e-02,-6.41900e-02,-1.01968e-01,-9.02447e-03,1.45763e-01,6.85806e-02,
-1.44650e-01,-1.59006e-01,-1.83416e-01,-3.88933e-02,-2.37451e-01,-5.27553e-01,-2.60158e-01,-2.61014e-01,1.94819e-01,-3.10178e-01,1.55639e-01,-3.12695e-01,-1.99863e-02,1.71727e-02,-2.11714e-02,1.70553e-01,3.20476e-02,-2.84148e-02,2.23146e-01,1.81243e-01,-9.32976e-02,1.45596e-01,-6.40028e-02,
-4.30616e-02,1.06092e-01,1.48792e-01,3.22695e-02,-1.74527e-01,-8.15351e-02,-1.69456e-01,2.95746e-01,9.55397e-02,2.92925e-01,2.36469e-01,-1.52548e-01,-1.86262e-01,3.08728e-01,-3.48865e-01,-1.90561e-01,-4.82528e-02,-1.71483e-01,-1.91218e-01,-9.28384e-02,3.52462e-01,1.45569e-01,1.04725e-01,
2.38356e-01,-6.57264e-02,-8.34848e-02,1.45475e-01,-1.12818e-02,-9.12863e-02,3.10979e-01,1.92981e-01,3.56685e-02,2.58672e-02,3.92555e-01,-1.23205e-01,-7.71741e-02,-1.20956e-01,-1.58367e-01,-2.53178e-01,1.15903e-01,-2.32597e-01,1.04288e-02,3.77140e-02,1.06963e-02,-2.94417e-01,-5.02318e-01,
5.33683e-02,
-2.96383e-02,
9.65395e-03,
6.94133e-02,
3.89346e-02,
5.39717e-03,
-5.44474e-02,
1.07090e-01,
9.53757e-02,
1.10506e-02,
-1.21596e-02,
-5.16522e-02,
-9.32674e-02,
4.89974e-02,
-1.15240e-01,
2.63810e-02,
-5.12467e-02,
1.06404e-01,
6.20714e-03,
-4.98457e-02,
-9.60500e-02,
1.44246e-02,
-1.13830e-01,
8.78620e-02,
-6.95367e-02,
-7.97169e-03,
-4.14920e-02,
1.27781e-01,
-5.54494e-02,
5.17277e-02,
1.16605e-01,
3.55003e-02,
-1.14194e-01,
-4.50028e-03,
1.84173e-02,
-2.41604e-02,
6.01203e-02,
8.54144e-02,
6.05892e-02,
3.93345e-02,
-2.84301e-02,
9.70557e-02,
-7.99246e-02,
-6.45888e-03,
8.24578e-02,
1.25186e-01,
8.79619e-02,
1.03066e-01,
1.17117e-01,
-3.19741e-02,
1.28192e-01,
2.39723e-02,
-7.10322e-02,
1.30247e-01,
9.94169e-02,
1.08767e-01,
-5.31231e-02,
5.47602e-02,
4.14031e-02,
-6.68327e-02,
6.48950e-02,
-2.29079e-02,
-8.08679e-02,
-3.32814e-02,
5.68045e-02,-2.05508e-02,-1.10744e-03,2.26922e-01,4.11113e-02,-2.47937e-02,1.48788e-01,2.52984e-01,-6.71406e-02,-1.92280e-01,2.85215e-01,-1.33190e-01,3.98081e-02,1.98773e-01,-2.03279e-01,-7.32814e-02,-1.91508e-01,1.74384e-02,1.91306e-01,1.96533e-01,-2.13406e-02,8.50421e-02,1.57001e-01,7.92994e-02,-2.05153e-01,-6.87560e-03,6.15276e-02,-7.60501e-02,3.78702e-02,-4.22818e-02,4.95073e-02,1.77910e-01,1.84366e-01,-6.61547e-02,-6.84978e-02,-3.39600e-02,-1.03030e-01,-1.70505e-01,1.75384e-01,2.07751e-01,1.97956e-01,-5.90345e-02,-4.18809e-02,3.91625e-01,1.37636e-01,6.11851e-02,-3.12697e-02,-2.83073e-01,-5.95496e-02,-6.71645e-02,1.75803e-01,2.49990e-01,-1.72756e-01,2.31569e-01,-1.19771e-01,3.39039e-02,-2.68349e-01,-3.48474e-01,-1.26425e-01,3.71388e-02,1.00883e-01,-1.03379e-01,2.42168e-01,5.33971e-02,
-4.57109e-02,1.20851e-01,1.09781e-01,1.33371e-01,1.70992e-01,-1.02097e-01,1.64729e-02,3.04477e-01,3.31292e-03,1.54800e-01,1.40773e-01,-1.71526e-01,9.14858e-02,1.72493e-01,-2.33366e-01,-7.42673e-03,1.35903e-01,1.62148e-01,-1.82785e-01,3.14552e-01,-6.48070e-02,-2.71533e-01,-1.58524e-01,1.93401e-01,6.94997e-02,7.17591e-02,3.40966e-01,-1.34321e-01,4.17225e-02,-1.16360e-01,-2.41378e-01,-4.05780e-02,-2.06039e-01,9.08964e-02,1.93410e-01,-7.24428e-02,1.43860e-01,-3.04254e-01,-2.01938e-01,1.77492e-01,-3.51817e-02,1.29572e-01,1.86669e-02,1.78140e-01,-4.49680e-02,1.24266e-01,1.79032e-01,1.33657e-01,2.45692e-01,-1.77706e-01,-1.73637e-01,-1.95986e-01,1.71064e-01,1.32559e-01,-4.18755e-04,9.66884e-02,2.41146e-02,-3.67135e-01,4.53471e-02,7.99559e-03,-2.65898e-01,3.01941e-01,6.64631e-02,1.44672e-01,
1.89839e-01,2.50074e-01,1.86464e-01,-2.33395e-01,3.79599e-01,1.23999e-01,7.95631e-02,-1.13057e-01,-1.40823e-01,-1.26113e-01,-9.64996e-02,-6.37748e-02,-1.99643e-02,-1.14258e-01,1.45209e-01,2.29993e-01,1.17299e-01,1.14336e-01,1.03006e-01,-1.88457e-01,-6.37928e-03,-9.87321e-02,-4.36743e-02,1.42953e-01,-2.47695e-01,3.45296e-03,5.57121e-02,-1.24914e-01,6.13304e-02,-3.76166e-01,-2.67123e-01,-2.17512e-01,8.12258e-02,9.94112e-02,1.43012e-01,-2.00700e-01,2.61765e-01,-1.30057e-01,-2.53439e-01,1.39388e-01,-4.47595e-01,9.76334e-02,-1.48653e-01,-1.51982e-01,1.74310e-01,-2.93067e-01,-6.00688e-02,-1.50342e-01,-5.49234e-02,-2.75381e-01,-3.97072e-01,1.46622e-01,-5.82302e-02,-2.68634e-01,-3.30807e-01,-1.86708e-01,1.00603e-01,1.76460e-02,3.67758e-02,1.23107e-01,1.89682e-01,-3.23817e-01,-3.52368e-01,3.15598e-01,
-1.46129e-01,1.64125e-01,1.62686e-01,2.69581e-01,8.18653e-02,9.26502e-02,-1.06333e-02,2.01798e-01,3.07076e-02,-6.17458e-02,-1.32886e-01,-7.66478e-02,5.76877e-03,-1.48293e-01,-1.76955e-01,2.92936e-01,6.70643e-02,-2.84388e-01,7.76379e-02,-1.29544e-01,-1.19856e-01,-2.45320e-01,1.03733e-01,-1.08961e-01,-2.97289e-01,-4.04210e-01,-1.58385e-01,3.86657e-02,2.85589e-01,9.33127e-02,1.13270e-01,-3.90811e-02,1.00352e-01,8.84753e-02,2.35010e-01,2.65215e-01,8.42381e-02,2.72582e-01,2.26590e-01,1.97633e-01,-6.52321e-02,-2.85957e-01,1.20703e-01,-3.71753e-01,1.42856e-01,2.24522e-01,-2.88769e-01,1.84465e-01,2.20658e-03,1.01437e-01,-2.46559e-01,-3.76646e-01,-2.06494e-02,-4.86095e-02,4.88352e-03,-7.89762e-02,-1.89568e-01,2.47444e-01,1.66347e-01,1.77510e-01,-1.56426e-01,-2.10593e-01,-4.54259e-01,-1.83600e-02,
5.99878e-02,-1.85569e-01,-1.50631e-01,-1.11074e-01,-1.47006e-01,-3.13185e-01,-2.28441e-01,-1.31718e-02,-2.18497e-01,3.00039e-02,-9.29358e-02,4.67363e-02,-1.17929e-01,6.04515e-02,-1.62072e-01,3.16305e-02,-2.16828e-01,-1.45344e-01,6.35062e-03,-1.87163e-01,2.55105e-01,-3.06393e-01,-2.60456e-02,-9.57755e-02,1.45353e-01,1.25921e-02,-1.65966e-01,2.21237e-01,2.16688e-01,-1.87387e-01,7.77203e-02,-1.05381e-01,2.46555e-01,-2.75332e-01,-4.24485e-01,-2.45942e-01,1.89814e-02,-1.81087e-01,3.99153e-02,1.89604e-01,3.27930e-01,-3.86263e-01,-3.97993e-02,-1.97561e-01,1.72004e-01,-1.00739e-01,-6.42206e-02,-1.62873e-01,1.76565e-02,1.08332e-02,-1.36208e-02,-2.04524e-01,-1.38245e-01,-7.99474e-03,-2.77448e-01,-3.38954e-02,1.27990e-01,-3.22641e-01,-1.24200e-01,1.09275e-01,2.05599e-01,1.19260e-01,-2.76508e-01,2.88384e-02,
1.84120e-01,1.39718e-01,2.07088e-01,-9.38327e-02,2.47485e-01,-1.55168e-01,-2.86330e-01,3.90835e-02,1.30212e-02,-1.54318e-01,-1.41512e-01,-1.72715e-01,3.55783e-02,-3.34208e-01,2.10279e-01,-1.73196e-01,-2.94578e-01,2.60394e-01,-1.86669e-01,-1.39904e-01,-2.65693e-01,9.69542e-02,9.19834e-02,-2.18609e-01,-6.05526e-02,1.60049e-01,-2.14298e-01,-1.28888e-03,-2.13990e-01,1.80126e-01,2.26177e-01,1.87570e-01,5.04227e-02,-1.77504e-01,-2.71453e-01,-9.96474e-02,2.45131e-02,-2.78625e-01,-9.22027e-02,-1.13734e-01,-2.75986e-01,2.04843e-01,-1.12168e-01,1.41317e-01,-1.14535e-01,7.58995e-02,-1.17413e-01,-7.36768e-02,-1.22265e-01,2.69760e-01,-3.25307e-01,-1.64456e-01,-1.70936e-01,2.11848e-01,9.72444e-02,-1.48347e-01,8.10328e-02,1.93885e-01,-3.59155e-04,-9.30521e-02,-5.62141e-02,-1.02381e-01,-2.61137e-01,-8.65091e-02,
2.09909e-01,-1.07994e-03,-3.00108e-01,5.31317e-02,-2.08413e-01,7.71996e-02,-9.66703e-02,1.64614e-01,2.69859e-01,1.86206e-01,-1.57446e-01,-1.93503e-01,-9.23251e-02,1.08648e-01,1.77266e-01,1.25272e-01,-1.58121e-01,-1.92024e-01,-1.20697e-01,3.53700e-01,-1.25150e-01,3.61865e-01,2.49582e-01,1.70964e-01,-5.78141e-02,-8.85415e-02,8.09397e-02,2.61509e-01,-1.80105e-01,1.32285e-01,-9.00968e-02,1.28715e-01,2.11724e-01,2.20424e-02,-4.41099e-02,3.63856e-02,2.12826e-01,2.53207e-01,-1.28929e-01,5.64655e-02,2.55218e-01,2.60851e-02,1.09405e-01,2.19323e-01,1.04180e-01,1.78604e-02,-1.71126e-01,1.44534e-01,2.51486e-01,-1.14716e-01,-9.56876e-03,-3.31041e-02,-9.31740e-03,-8.10281e-02,5.09362e-02,-1.02975e-01,1.62457e-01,1.04634e-02,-1.98646e-01,-7.68836e-02,-1.12762e-01,-1.04329e-01,2.75582e-01,-2.60075e-01,
8.87387e-02,1.20430e-01,-3.19280e-01,1.90773e-01,2.44322e-01,1.86983e-01,-1.94127e-02,-1.35046e-01,5.23585e-02,-1.87664e-01,-5.08964e-02,-1.82489e-01,2.01822e-01,2.43860e-01,-6.93997e-02,-1.02764e-01,2.71180e-02,5.45879e-02,-2.43832e-01,-1.41076e-01,2.19104e-02,-8.94009e-02,2.17601e-01,1.43991e-01,4.99791e-02,-1.23845e-01,-7.47606e-02,-6.74996e-02,-1.05745e-01,-2.34038e-01,1.21604e-01,6.59255e-02,6.84946e-02,-1.79004e-01,3.36820e-01,1.63329e-02,-7.57279e-02,-4.67628e-02,-6.40447e-03,2.86889e-01,-2.81474e-01,2.40782e-01,3.43496e-01,-2.80588e-01,-4.06057e-01,2.92817e-02,2.64835e-01,-2.24827e-01,1.72918e-01,-9.16757e-02,6.89179e-03,2.79649e-01,4.34155e-01,1.92574e-01,-1.49663e-02,2.00137e-01,2.76709e-01,-1.06743e-01,5.76778e-02,2.11570e-01,-1.86058e-01,-3.10027e-01,-4.13271e-02,1.86506e-01,
-1.61523e-01,-5.34152e-02,-1.70460e-02,1.21234e-01,2.77188e-01,-1.88533e-01,1.55949e-01,1.42122e-01,-2.58477e-01,-2.84705e-02,-2.54099e-01,1.30215e-01,2.36816e-01,8.68987e-02,-1.64505e-01,-1.57801e-01,-1.95394e-01,-2.67516e-01,9.45591e-02,2.12978e-01,1.29771e-01,1.21009e-01,9.59365e-02,-9.38000e-02,1.83819e-01,7.18955e-02,-2.01254e-01,-6.77111e-02,-1.92976e-01,-7.88286e-02,-3.36844e-02,-1.45817e-01,1.73863e-01,1.53383e-01,3.28249e-02,1.72916e-01,-1.91287e-01,2.00438e-01,-1.31313e-01,-2.39208e-01,-7.77635e-02,1.80951e-01,1.70524e-01,-6.01010e-02,-1.02647e-01,1.93802e-01,1.54235e-01,3.61340e-02,1.27784e-01,-3.93385e-02,3.11049e-02,1.29016e-01,-1.08500e-01,-2.54896e-01,-1.04931e-01,-2.01003e-01,6.29812e-02,2.16102e-02,-8.55465e-02,2.94286e-03,-2.21851e-02,-5.50181e-03,2.91839e-01,8.94459e-03,
1.20617e-01,2.59764e-01,-4.31367e-02,7.51357e-02,3.75993e-02,3.35507e-01,1.76432e-01,-1.57938e-01,9.64038e-02,1.61223e-01,-3.85542e-01,2.45291e-01,-3.43623e-02,-2.18531e-01,-3.63081e-02,2.12450e-01,5.91521e-02,-1.21291e-01,-2.11937e-01,1.35953e-01,-2.71370e-02,4.81292e-01,-2.34627e-01,5.61867e-02,1.90559e-01,1.20673e-01,7.13847e-02,-1.71205e-03,1.74440e-01,-1.31425e-01,6.78414e-02,-1.29270e-01,8.23570e-03,3.49727e-04,-1.13758e-01,-3.46354e-01,-7.50129e-02,-9.38272e-02,-1.64489e-01,4.45218e-02,7.69508e-03,1.90687e-01,-1.91244e-01,-1.73833e-01,6.34310e-02,-1.42538e-01,3.44790e-01,-3.09816e-01,6.27127e-02,2.52365e-01,9.06872e-02,1.82156e-02,4.21877e-02,-1.14266e-01,-5.73594e-02,2.93358e-01,2.96789e-02,-3.48527e-01,1.69481e-01,-2.83979e-01,-8.86951e-02,-8.69699e-02,5.17694e-01,-4.47754e-02,
-2.40251e-01,2.06279e-01,6.92820e-02,2.44655e-01,1.39565e-01,-2.21669e-01,1.00516e-01,-7.94526e-02,-6.03899e-02,-1.49435e-02,2.24989e-01,-9.65198e-02,7.11407e-02,-1.14515e-01,1.50796e-01,1.30786e-01,-3.47060e-01,-3.32429e-01,-1.91806e-01,2.29225e-01,9.89096e-02,-1.86117e-01,-1.88313e-02,-1.68539e-01,2.85144e-02,1.13226e-01,-3.16265e-01,-6.55697e-02,-3.56110e-01,-1.34651e-01,-1.17032e-01,-1.80215e-01,4.45084e-03,-5.86567e-02,5.17294e-02,2.97589e-01,-4.50299e-02,-1.08882e-01,6.65727e-02,1.57545e-01,-1.22755e-01,-3.59963e-02,1.10909e-01,-6.04817e-02,9.06914e-02,5.04510e-02,-2.16491e-01,-9.59820e-02,-2.52308e-01,-2.64243e-01,2.88251e-01,1.69533e-01,1.49808e-01,-7.37404e-02,-3.13176e-02,1.69568e-01,1.59392e-01,7.87559e-02,-2.95321e-01,-3.14848e-01,-1.21244e-01,-3.18773e-01,-6.25770e-02,-3.87203e-02,
1.21744e-01,-2.39519e-01,-1.50708e-01,-5.47972e-02,-3.22480e-02,1.72759e-01,6.70259e-02,1.74381e-01,1.49666e-01,3.56206e-01,-1.69921e-01,5.56985e-03,-2.02049e-01,-2.09045e-02,2.74500e-01,1.44410e-01,-2.78241e-01,-2.23056e-01,2.09992e-01,3.14550e-01,6.79772e-02,-2.35672e-02,3.35215e-01,1.63314e-01,3.56208e-02,-1.28475e-01,-1.76271e-02,-2.62701e-02,2.93181e-03,1.91482e-01,1.89160e-01,-1.36231e-01,-1.59296e-01,-8.80041e-02,-2.72601e-01,2.59492e-01,8.11671e-02,1.43767e-01,5.37325e-02,2.12418e-01,2.86687e-01,2.16755e-01,-1.55641e-01,4.65261e-01,1.36515e-01,1.25547e-01,-1.33589e-01,2.92644e-01,-1.11448e-01,3.27194e-01,1.76474e-01,1.95124e-01,-4.88855e-02,1.46288e-01,2.78557e-01,1.52208e-01,8.06165e-02,-1.83722e-01,1.24531e-01,6.61256e-02,1.61942e-01,-1.59638e-02,-1.29780e-02,-3.08360e-02,
-1.58009e-01,4.61554e-01,9.34529e-02,2.02095e-01,3.72026e-02,-8.58119e-02,-1.34473e-01,-1.59083e-01,1.04814e-01,-1.45524e-02,3.61035e-02,1.54541e-01,-1.91084e-01,2.90409e-01,1.90991e-01,-2.17485e-01,-2.73459e-01,-4.18243e-01,-1.33198e-01,-1.60160e-01,-4.20125e-02,1.35792e-01,1.36411e-01,2.01318e-01,1.18661e-01,1.52432e-02,-3.88127e-02,2.61451e-01,2.03515e-01,-2.25456e-01,-4.91554e-02,-1.00558e-01,-2.95404e-01,-2.61688e-02,3.17975e-01,1.71820e-01,-1.63537e-01,2.12797e-01,2.12358e-01,-8.53558e-02,2.40511e-01,3.84910e-01,-3.59425e-03,5.68399e-02,-1.14554e-02,8.35965e-02,3.61408e-01,2.27129e-01,-3.19759e-02,2.25673e-01,7.22475e-02,-2.38939e-01,2.28939e-01,2.29374e-02,-7.40556e-02,1.02128e-03,-9.15822e-02,-3.06078e-02,-3.36483e-01,2.65608e-01,1.92589e-01,1.16127e-02,-4.00687e-02,2.41471e-01,
1.20548e-01,-2.41750e-01,-1.02833e-01,-1.17701e-01,-2.49353e-01,2.81629e-01,-6.60373e-02,-9.81662e-02,-8.00519e-02,-1.00008e-01,2.59698e-02,7.18686e-02,2.29961e-01,-3.43167e-01,-1.64130e-01,-3.04023e-04,2.35394e-01,-2.66057e-01,-1.44311e-01,1.11803e-01,-8.46748e-02,3.03729e-01,-1.04021e-01,1.06941e-01,5.71785e-02,-1.70830e-02,-1.75469e-01,-1.08498e-01,1.76725e-01,1.33775e-01,6.14684e-02,3.45604e-02,-1.68414e-01,-1.02152e-01,-1.11513e-01,1.53990e-01,-1.59501e-01,1.34756e-01,7.45408e-02,-2.57357e-01,2.11544e-02,7.79378e-02,3.41429e-02,2.85326e-01,-1.70462e-01,-5.42942e-02,1.58082e-01,2.41828e-01,2.83104e-01,1.05726e-01,1.34038e-01,-2.53620e-01,-1.82861e-01,-2.61650e-01,2.20720e-01,-8.76355e-02,-1.15949e-01,1.19305e-01,-2.75279e-01,-7.86743e-02,1.87797e-02,8.99217e-02,2.13004e-01,-2.35529e-01,
8.58955e-02,7.60465e-02,-1.15103e-01,-1.80661e-01,-4.48203e-02,1.96126e-01,1.61964e-01,2.85471e-02,-1.53242e-01,-5.47239e-02,1.06388e-01,-1.52631e-01,-1.30721e-02,-1.30812e-01,2.47921e-02,-3.03999e-01,-2.45208e-01,4.91782e-03,-2.17298e-01,1.88816e-02,3.87727e-02,1.93174e-01,-6.88534e-02,-1.85320e-01,2.87637e-01,-1.05443e-02,1.21247e-01,-2.75013e-02,4.73783e-02,-2.61288e-01,1.52334e-01,-1.45000e-01,1.41304e-02,-1.24243e-01,-2.19413e-01,-1.81826e-01,-1.64951e-01,1.20385e-01,-2.98025e-01,-2.30393e-01,4.53355e-02,6.25515e-02,-2.40796e-01,-2.13035e-03,-1.87379e-02,-1.68023e-01,3.01664e-01,4.52229e-02,-2.25687e-01,1.34268e-02,8.43483e-02,-1.14640e-01,-1.72870e-01,8.82854e-02,2.99051e-02,1.11615e-01,5.68555e-02,1.61200e-01,-1.83498e-01,1.37138e-01,2.00547e-01,-2.32716e-01,-4.36090e-02,-3.08493e-01,
1.96152e-01,2.48297e-01,-2.99499e-01,1.07400e-01,9.94764e-02,-9.02578e-02,-1.08955e-01,-1.22716e-01,-3.31380e-02,1.40564e-01,-1.47438e-01,6.46082e-02,-2.07245e-02,4.27667e-02,-1.81007e-01,2.07330e-02,1.25432e-01,-1.16634e-01,6.37562e-02,1.41852e-01,-1.12417e-01,1.63748e-01,-7.66581e-02,2.28745e-01,-2.73621e-02,-1.09710e-01,-1.23325e-01,1.98662e-01,-2.22627e-01,2.77366e-01,2.32817e-01,2.53699e-01,-3.67095e-02,-1.17360e-01,-1.23261e-01,1.62986e-01,-1.19666e-01,1.73182e-01,2.47853e-02,1.13715e-01,2.79598e-01,3.09231e-01,-1.09068e-01,2.49953e-01,1.75316e-02,3.25531e-01,-5.36082e-02,5.58838e-02,-9.54944e-02,-2.04663e-01,-1.03623e-01,1.36955e-01,4.53954e-02,-1.45768e-01,2.42598e-01,-6.78994e-06,-4.69598e-02,-3.22356e-01,-2.44488e-01,-3.07324e-02,-5.96205e-02,3.03877e-01,2.45164e-01,-3.09412e-01,
-6.90279e-02,5.51799e-02,-6.34610e-02,-4.52192e-01,1.23610e-01,-7.92022e-02,2.03626e-01,-5.15794e-01,3.38475e-01,-3.24581e-01,2.36502e-01,-1.71351e-01,1.87667e-01,-1.68589e-01,-8.22777e-02,-1.04260e-01,-3.57047e-02,4.00945e-02,-3.31915e-03,1.32860e-02,1.05611e-01,-2.79012e-01,-1.35375e-01,1.78700e-01,-1.00817e-01,2.07614e-01,7.46818e-02,-1.21878e-01,2.65753e-02,4.44668e-05,1.21099e-01,-2.15629e-01,-3.60599e-02,-9.05406e-02,-2.92572e-02,-1.06090e-01,-2.33728e-01,-2.44308e-01,-2.43471e-01,-1.50095e-01,-2.08290e-02,-3.40306e-01,2.59146e-01,8.03910e-02,-2.33736e-02,-8.08260e-02,2.29813e-01,-1.38457e-01,1.66043e-01,-1.74910e-01,-2.20546e-01,-1.64928e-01,-1.07611e-01,-8.05992e-02,-4.16444e-01,-2.02207e-01,1.26999e-01,1.45628e-02,-6.28447e-03,2.47620e-01,-2.35012e-01,-6.34074e-02,8.97366e-02,2.17279e-01,
-1.44771e-01,1.82224e-01,4.66847e-03,2.27679e-01,-2.67072e-01,2.63816e-01,3.42413e-01,-9.04361e-02,2.67934e-01,7.40334e-03,-1.82615e-01,-1.33213e-01,6.44354e-02,6.60388e-02,-1.72653e-01,1.97797e-01,-6.61012e-02,1.89406e-01,6.49903e-03,1.62994e-01,-1.21363e-01,1.35260e-01,3.80358e-01,1.88603e-01,1.09141e-02,3.87306e-01,2.13692e-02,-1.93832e-01,1.30034e-01,2.28667e-01,-2.31375e-01,2.52056e-01,-1.68927e-01,2.38808e-01,7.58852e-02,-1.40778e-01,-4.23995e-02,3.10091e-01,7.35149e-02,-8.17646e-02,8.61645e-02,1.60515e-01,2.74931e-01,2.84511e-01,1.62865e-01,2.16164e-01,-1.54553e-01,-4.53534e-02,1.54620e-01,-3.47038e-01,-4.61898e-02,-1.22192e-01,4.90188e-02,-2.06566e-01,-5.92496e-02,-1.47238e-01,-2.90521e-03,-1.02386e-01,2.06427e-01,4.11784e-02,6.22032e-02,1.12158e-01,2.42626e-01,1.39615e-01,
-9.99384e-02,-6.27010e-02,2.19777e-01,-7.16942e-02,8.37091e-02,-1.82087e-01,-1.22341e-01,-1.41623e-01,4.32128e-02,-1.06600e-03,-1.51525e-01,2.13701e-01,-1.81319e-01,-2.38168e-01,-4.05519e-02,2.20842e-01,-6.48801e-02,-2.14736e-01,1.53443e-01,-5.52882e-02,1.82197e-01,1.44023e-01,3.55950e-01,1.84929e-02,4.08874e-01,-2.60191e-01,-1.62887e-01,-2.20257e-01,9.53884e-02,-8.66282e-03,9.70035e-03,1.67462e-01,-3.12192e-01,1.34118e-01,2.59087e-01,2.98460e-01,-2.06113e-02,1.95518e-01,-3.45795e-02,2.10443e-01,2.71611e-01,-1.47201e-01,1.34514e-01,2.86961e-02,1.22290e-01,2.96901e-01,-2.71326e-02,2.49198e-01,-1.18985e-01,-2.42161e-02,-7.14475e-02,2.37520e-02,-1.16347e-03,-6.13299e-02,2.26489e-01,-1.94625e-01,-7.86780e-02,2.39362e-01,-2.13261e-01,-1.99518e-01,2.40956e-01,-8.08971e-02,2.82080e-01,-3.68481e-01,
1.72747e-01,-2.15338e-01,1.65395e-02,2.08460e-01,4.09834e-02,2.29184e-01,1.31360e-01,-1.02373e-01,-1.32611e-01,1.54893e-01,3.43570e-01,9.08220e-02,-1.12704e-01,-2.98043e-01,-1.59141e-01,7.09239e-02,2.22976e-01,9.32632e-02,-3.35934e-01,-3.34871e-02,-2.32364e-01,-3.06450e-02,-4.67849e-03,-2.09402e-01,-1.17197e-02,7.15257e-02,4.70462e-02,-1.07513e-01,9.90448e-02,1.77986e-01,-2.61437e-01,-1.36665e-01,-1.83670e-01,-1.89207e-01,4.59815e-02,3.02411e-01,-1.96962e-02,7.23824e-02,-1.56189e-01,1.79744e-02,-2.49399e-01,1.78410e-01,1.04326e-01,3.59715e-01,-6.41367e-02,-1.55992e-01,-2.08576e-01,-9.28396e-03,4.31164e-02,-6.20436e-02,3.13260e-02,-6.47546e-02,4.36875e-02,-1.53179e-01,-7.36058e-02,-2.80918e-01,1.12213e-01,-2.97328e-02,1.35566e-01,-2.20909e-02,-2.37840e-01,-4.19819e-01,-3.91794e-02,-4.52760e-02,
-1.78656e-01,3.54732e-02,3.43058e-01,-2.77421e-01,5.33051e-03,1.19271e-01,-3.30062e-02,1.71903e-01,2.82898e-01,-1.72520e-02,-3.04564e-01,-1.87675e-02,-5.23215e-02,-1.78075e-01,1.70653e-01,9.88296e-02,1.11352e-01,1.94713e-01,2.63932e-01,-2.98214e-02,-7.56874e-03,-9.50574e-02,2.21585e-01,-2.99245e-01,5.04147e-02,1.05738e-01,3.12969e-01,-1.85381e-01,1.38295e-01,2.20071e-01,2.29271e-01,-1.16645e-01,-7.50321e-02,2.91013e-01,2.23159e-01,6.24264e-02,-9.53745e-02,7.61926e-02,-1.19344e-01,2.41423e-01,-9.09373e-02,7.50558e-02,-1.31029e-01,3.18001e-02,1.72689e-01,-2.85182e-01,2.51741e-01,-2.32692e-01,-1.97438e-01,-3.48077e-01,-8.09470e-02,-1.44101e-01,9.48801e-02,-1.58306e-01,-8.02951e-02,1.74679e-01,-1.22355e-01,9.40906e-02,-3.78378e-02,1.00261e-01,-1.14242e-01,-1.51756e-01,1.42134e-01,5.86755e-03,
-2.56341e-01,7.99614e-02,8.82904e-02,-5.44176e-02,-1.90539e-01,-1.17288e-02,-1.84854e-01,1.05732e-01,-9.66179e-02,5.62782e-02,1.62116e-02,7.23787e-02,-1.17291e-01,-1.17438e-01,-2.05303e-05,-2.50867e-01,-1.18418e-02,-2.40473e-01,-6.42262e-02,2.03421e-01,-4.60098e-03,-2.72136e-02,-1.15781e-01,-7.36881e-02,-2.72065e-02,-3.18545e-01,6.26899e-02,-1.27503e-01,-2.52957e-01,-1.89511e-01,-1.24558e-01,4.81177e-02,5.93346e-02,-1.64964e-01,-2.07851e-01,1.61721e-01,-1.52135e-01,-8.68219e-02,-1.13265e-01,1.10313e-01,6.70611e-02,-3.05732e-01,1.77313e-01,-5.32183e-02,9.78329e-02,-2.57867e-01,7.59699e-02,1.79009e-02,-2.51171e-01,-1.70653e-01,-1.77219e-01,5.33689e-02,1.59249e-01,8.04431e-02,-1.54871e-02,-1.17259e-01,-5.28247e-02,1.45162e-01,-5.30639e-02,-2.78158e-01,-1.44537e-01,6.70278e-02,-6.21749e-02,-1.11221e-01,
6.67208e-02,9.73370e-03,-1.44739e-02,-4.73178e-02,-2.32514e-01,2.79045e-02,1.30483e-03,-1.91310e-01,-2.57671e-02,-6.10058e-02,4.28261e-03,-5.41454e-02,1.98641e-01,-1.89399e-01,9.13825e-02,-2.87905e-01,2.35500e-01,-3.68869e-01,-1.33268e-01,1.02195e-01,8.44045e-03,1.70520e-01,1.18496e-01,-1.72802e-02,-6.56182e-02,-1.11184e-01,1.02090e-01,1.72485e-01,-1.09727e-02,1.21343e-01,1.83498e-01,1.27802e-01,5.76839e-02,1.38733e-02,-1.06553e-01,-1.31086e-01,-2.91906e-02,2.56509e-01,2.16517e-01,-8.63549e-02,-1.82165e-01,3.26564e-01,8.72590e-02,1.55480e-01,-2.52626e-01,-2.06613e-01,-1.85893e-01,1.20154e-01,1.76185e-01,3.93880e-01,-8.52442e-02,-1.05512e-01,-4.53689e-02,-1.41465e-03,2.45352e-01,-4.42654e-02,-2.06034e-01,-4.34456e-03,-2.21104e-01,-1.84767e-01,-1.38105e-01,-2.62733e-01,-1.62911e-01,-3.35024e-02,
1.26009e-01,1.35373e-01,-1.35709e-01,3.25692e-02,-2.03336e-01,-2.63698e-01,3.39399e-02,1.23263e-01,-2.13565e-01,2.30865e-01,-2.69180e-01,1.31414e-01,-2.87238e-02,1.90351e-01,-1.86285e-01,-1.84417e-01,4.10153e-02,-8.92370e-02,-4.77482e-02,-1.28659e-01,-1.83946e-01,-2.10034e-01,1.18250e-01,-2.20760e-01,2.89134e-01,1.79746e-02,2.16421e-02,5.99425e-03,-2.33588e-01,-2.25591e-02,7.43786e-02,-2.30180e-01,-2.51473e-01,-3.26356e-02,1.73398e-01,-1.61065e-01,1.82916e-01,4.25639e-02,-1.75066e-01,9.21659e-02,1.07463e-01,1.89823e-01,1.99414e-01,-2.27703e-01,1.74567e-01,-1.67691e-01,-1.46616e-01,2.66187e-01,-9.27149e-02,-1.50059e-01,-3.76984e-01,1.95753e-01,-3.81794e-02,6.81665e-02,1.25978e-01,8.81238e-02,-7.23602e-02,-2.46368e-01,-2.11107e-01,-1.86445e-01,-3.48093e-01,1.88586e-01,-1.64161e-01,1.97426e-01,
2.53920e-01,1.50165e-01,1.25690e-01,-5.74068e-02,-1.52154e-01,-2.71201e-01,-2.30044e-01,4.02233e-02,3.39698e-01,8.82744e-02,-5.40804e-02,2.33163e-02,-2.61154e-01,-3.92516e-01,1.69739e-01,-1.46916e-01,-4.84262e-01,6.68625e-02,-3.11722e-01,2.14845e-01,2.41262e-01,1.22668e-01,1.02457e-01,-3.19082e-01,-1.16433e-01,2.62869e-01,-1.53035e-01,2.88948e-02,-1.40118e-01,-1.41889e-01,-2.60997e-02,-7.20726e-02,-5.49996e-02,-1.18508e-01,2.75946e-01,-1.37155e-01,-3.25494e-02,1.49158e-01,-2.00311e-01,1.18133e-01,1.15569e-01,1.53380e-01,-1.01568e-01,-1.37051e-01,2.45788e-01,-3.17258e-01,4.74754e-01,-3.20500e-01,-5.50613e-02,-1.58687e-01,2.39571e-01,7.66849e-03,3.43998e-01,-2.14113e-02,9.43978e-03,1.35047e-01,-1.78287e-01,-6.09818e-02,-2.06901e-01,-9.63797e-02,8.57065e-02,4.25555e-02,3.18398e-01,2.84524e-01,
-2.82455e-02,1.72897e-01,9.82112e-02,1.03180e-01,4.17936e-01,-7.32098e-02,-3.87792e-02,6.96552e-02,1.03403e-01,-2.84449e-01,-2.80316e-01,-1.65986e-02,1.17735e-01,-1.85543e-01,-3.85911e-02,2.14733e-01,3.02658e-01,2.60703e-01,-9.11977e-02,-2.59177e-01,4.16585e-01,-2.10360e-01,-2.61434e-02,-1.41201e-01,-2.24172e-01,6.22451e-02,-1.38771e-01,-3.27279e-01,-2.50067e-01,-1.57022e-01,-8.29605e-02,1.29484e-02,2.13496e-01,1.37761e-03,-1.33435e-01,-3.05540e-01,-7.66835e-02,-9.15439e-03,-7.46614e-02,1.32274e-01,-1.76824e-01,-7.31842e-02,6.39094e-02,-3.47968e-01,-3.17305e-01,-9.39933e-02,2.91882e-01,1.52190e-01,5.92070e-02,-9.13854e-03,-4.18297e-02,1.88264e-01,1.36340e-01,-2.57862e-01,1.93575e-02,7.15966e-02,3.37204e-01,-2.19933e-01,-2.10000e-01,2.20505e-01,6.72317e-02,-1.24948e-01,-2.54474e-01,1.81125e-01,
-5.42910e-02,-1.03488e-02,-1.03510e-01,8.09588e-03,4.71898e-01,1.03011e-02,2.39813e-01,-1.61618e-01,-2.78638e-01,-2.54226e-01,4.25633e-02,2.08450e-01,1.99503e-01,3.02480e-02,1.58915e-01,-1.62563e-01,-9.38007e-02,-1.09804e-01,1.42442e-01,1.06035e-01,2.81830e-02,1.70389e-01,-1.48641e-01,1.82256e-01,2.07296e-01,-6.02637e-02,7.32741e-02,-1.41085e-01,2.55669e-01,-3.22846e-01,5.18472e-02,2.68326e-01,9.54255e-02,-1.33202e-01,9.89242e-02,8.46235e-02,2.34939e-01,-1.10464e-01,-3.00297e-01,-2.09042e-01,-7.05381e-02,1.96431e-01,2.86865e-01,1.42272e-01,6.73757e-02,5.49972e-02,3.67383e-01,-1.39488e-01,2.11468e-01,-2.41728e-01,-4.00161e-01,3.42222e-02,1.05500e-01,-2.52607e-01,-1.80531e-01,-2.98950e-02,2.16447e-01,-1.28235e-01,-2.29193e-01,1.15591e-01,-2.39252e-01,-4.25399e-02,2.94232e-01,2.74893e-01,
1.68143e-01,2.42326e-01,-1.88970e-01,4.90813e-02,-8.59089e-02,-3.54812e-01,2.10617e-01,-3.25965e-03,-8.76977e-02,6.99942e-02,-3.59370e-01,1.92946e-01,-2.72394e-01,-1.92511e-03,1.22758e-01,5.43786e-02,-2.24333e-01,-2.13198e-01,-6.85784e-02,1.77996e-01,2.16652e-01,5.69071e-02,1.33142e-01,-1.55784e-01,9.89619e-02,2.11095e-01,4.24457e-02,2.58940e-01,-3.41357e-01,-2.52306e-01,-6.06011e-03,1.72165e-01,9.97433e-02,3.78730e-02,-7.07422e-03,-3.49327e-01,1.12518e-01,1.17088e-01,-2.57218e-01,-2.08866e-01,1.35260e-01,-5.00051e-04,-1.01194e-01,1.05181e-01,-6.86418e-02,-1.50517e-02,-8.41719e-02,-3.07722e-02,9.85055e-02,-2.56274e-02,-1.10410e-01,1.32951e-01,5.11148e-02,1.43555e-01,2.34217e-01,2.44648e-01,-9.03340e-02,-1.97581e-01,8.11230e-03,-5.27645e-02,-6.88647e-02,1.51515e-01,2.24868e-01,-1.48847e-01,
2.06921e-01,-4.28121e-01,3.29855e-01,2.37578e-01,-1.62274e-01,-1.70903e-01,-9.76158e-02,1.24742e-01,-3.05887e-01,-3.71750e-02,-4.43729e-02,1.35817e-01,-1.85923e-01,4.43587e-02,-8.40273e-02,-2.17270e-01,1.68582e-01,8.27578e-02,-1.08895e-01,-1.67047e-04,-1.55735e-01,-2.03581e-01,-2.44395e-01,-3.71202e-02,-5.73145e-02,-2.60669e-01,2.12731e-01,1.04214e-01,-2.67077e-02,-2.34452e-02,-3.11527e-01,1.65212e-01,-1.17447e-01,3.04419e-02,7.83624e-03,-4.45653e-01,-1.09817e-01,1.00840e-01,1.40185e-02,-2.84499e-01,-2.38048e-01,-1.79256e-01,-1.47144e-01,-1.30365e-01,-2.23031e-01,6.24679e-02,5.36700e-02,-4.10750e-02,-1.19090e-01,1.59406e-01,-1.70802e-01,3.45743e-01,1.63687e-01,1.47446e-01,1.62855e-01,1.19127e-02,-9.06338e-02,-1.45510e-01,5.77102e-02,-1.79505e-02,-2.46780e-01,1.27220e-01,-2.56259e-01,7.20860e-02,
1.22311e-01,3.15802e-01,-1.72629e-01,-1.00373e-01,2.72156e-01,4.21146e-02,3.92595e-01,-1.64994e-01,-1.78715e-01,-2.27942e-02,-2.00896e-01,1.61977e-01,1.16563e-01,2.87404e-01,1.54082e-01,-2.74272e-01,2.45957e-01,-1.35581e-01,-2.14823e-01,-4.22304e-03,1.04167e-01,6.16826e-02,3.70321e-01,-5.26944e-02,-3.21076e-01,2.46951e-02,-8.17501e-02,-4.06846e-01,1.03930e-01,-1.09125e-02,-1.39745e-01,1.22627e-01,-1.15009e-01,1.76134e-01,5.69791e-03,1.87321e-01,-8.84458e-02,-2.23012e-02,-1.06475e-01,2.17893e-02,-7.51157e-02,-2.67060e-01,2.14947e-01,-1.14117e-01,-6.15363e-02,1.32976e-01,2.06825e-01,1.31542e-01,-2.44846e-02,-4.46095e-01,-4.63811e-02,-1.46946e-01,-6.11935e-02,8.16249e-02,-4.92223e-02,-6.23187e-02,2.35873e-01,-3.37806e-01,1.28849e-01,-1.79018e-02,-1.43311e-01,1.24426e-02,-1.40375e-02,1.69070e-01,
-2.58795e-01,3.08258e-01,9.69447e-02,1.92126e-01,3.91075e-01,-2.51108e-01,2.15723e-01,-2.98881e-01,3.42303e-02,-1.41733e-01,-3.32111e-01,-7.02478e-02,1.91921e-01,7.11397e-02,1.72958e-01,2.83682e-02,2.61668e-01,2.36361e-01,-6.70957e-02,-1.63750e-01,-3.19534e-02,-2.46738e-01,1.92366e-01,1.43552e-01,-3.83925e-02,3.29206e-01,2.14743e-01,-2.16796e-01,2.04745e-01,1.18690e-01,1.06684e-01,-1.10026e-01,1.88685e-01,9.99295e-03,3.36989e-01,-2.70705e-01,-1.86203e-01,-1.73400e-01,3.38325e-02,1.04727e-01,9.50420e-03,-2.94895e-01,-2.35183e-01,-6.53965e-02,-4.46477e-01,-3.15475e-01,2.58611e-01,-1.52560e-01,-2.53987e-01,-7.98048e-02,-3.23314e-02,1.79848e-01,1.38481e-01,1.34541e-02,-1.29730e-01,-2.27591e-01,1.33411e-01,2.77125e-01,-1.87103e-01,-4.25869e-02,-1.37660e-01,-9.08292e-02,7.89644e-02,9.19139e-02,
-3.51991e-02,-1.92368e-01,3.99318e-02,-2.37059e-01,-9.93647e-02,-1.22667e-01,9.24446e-02,-1.90185e-01,-3.10737e-01,-3.25229e-02,2.22812e-01,1.94982e-01,2.79631e-02,-1.55022e-01,3.22859e-02,-1.44490e-01,2.35255e-02,1.16742e-01,1.28939e-01,-8.64673e-02,4.57705e-02,-1.57786e-03,5.34595e-02,2.49638e-02,1.29162e-02,-9.14088e-02,-1.89837e-01,1.62797e-01,-1.42408e-01,-2.18931e-01,-1.24726e-01,1.20367e-01,-1.06627e-01,-2.70303e-01,1.05828e-01,3.35019e-02,-1.98340e-01,-2.79293e-01,-1.54277e-01,-2.95888e-01,-4.88984e-02,1.05346e-01,1.59983e-01,1.62902e-02,-2.29849e-02,1.80906e-01,2.78486e-01,-3.47929e-03,-2.57349e-01,7.31487e-02,1.65523e-01,-1.53744e-01,-2.77363e-01,-2.24765e-01,1.10647e-01,-2.53989e-01,8.07193e-02,-2.10488e-01,2.40107e-01,-1.12608e-01,-2.39505e-01,4.33712e-02,-2.21548e-01,9.00854e-02,
7.70759e-02,
9.73211e-02,
-4.23539e-02,
4.73242e-02,
1.87012e-02,
-2.58444e-02,
1.25707e-01,
-4.54968e-03,
1.10884e-02,
3.91858e-02,
-3.79122e-02,
1.26523e-01,
7.79486e-02,
3.13047e-02,
-8.25019e-02,
1.03775e-01,
2.06849e-02,
7.15560e-02,
-4.69669e-02,
-3.84830e-02,
1.35105e-02,
-6.75789e-02,
5.21319e-02,
-2.96627e-03,
-3.12888e-02,
-7.12472e-02,
-7.67495e-02,
4.68652e-02,
-2.02728e-02,
-5.55485e-02,
-6.98688e-02,
-6.70299e-02,
2.03597e-01,2.66899e-01,-1.24976e-01,-7.54953e-02,8.99944e-02,3.58194e-01,2.93998e-01,2.61036e-01,2.99808e-01,-2.51822e-01,4.36144e-01,3.63669e-01,3.99354e-01,2.75049e-01,-2.24038e-01,1.97157e-01,-5.10873e-01,3.61684e-01,-2.60834e-01,9.16309e-02,-3.14053e-01,1.12324e-01,3.52124e-01,-9.65797e-02,3.03173e-01,-1.58661e-01,-1.13302e-01,-2.25541e-01,-2.25689e-02,-9.27053e-02,-1.10586e-01,-1.03102e-01,
1.16896e-01,3.50219e-01,3.76399e-01,-1.51472e-01,-1.33986e-01,-1.13310e-01,-2.33572e-01,2.85151e-01,-2.38509e-01,2.38824e-01,-8.22893e-03,-6.85641e-02,-1.44711e-02,1.24191e-01,-1.43214e-01,-1.33737e-01,7.34625e-02,2.73845e-01,-2.98025e-01,1.29283e-01,9.26667e-02,-2.77271e-02,-3.13515e-01,2.69398e-01,1.03941e-01,2.24244e-01,2.25976e-01,-2.82480e-01,4.65184e-01,2.01039e-01,3.48736e-02,-3.59941e-01,
-3.36569e-01,-1.20340e-01,2.64663e-01,2.44429e-01,1.07119e-01,2.71692e-01,1.27284e-01,3.19458e-01,1.73720e-01,7.96976e-02,-2.69927e-01,1.34926e-02,2.98975e-01,-3.01021e-01,2.58971e-02,-3.05682e-01,5.33038e-01,6.54649e-02,3.22785e-01,-2.20315e-01,-1.90588e-02,6.37953e-02,-3.67207e-02,-3.53737e-01,-1.88839e-01,1.92635e-01,1.45857e-01,-1.93434e-01,-1.34535e-01,9.86113e-02,3.43665e-01,-2.23577e-02,
-1.18126e-01,1.86857e-01,2.97896e-01,1.65741e-01,-6.25844e-02,1.07617e-01,1.01878e-01,-1.59591e-01,9.16975e-03,-3.66627e-01,-1.54891e-02,-4.58522e-01,-7.01597e-03,-1.01706e-01,-2.28838e-01,-3.48963e-01,7.33044e-02,-2.07552e-01,-1.45654e-01,1.71882e-01,-3.25396e-02,-2.67334e-01,1.35091e-01,1.28137e-01,-1.66553e-01,-7.53599e-02,-2.73234e-01,4.44810e-02,4.38073e-01,2.77290e-01,2.72479e-01,1.43873e-01,
3.41722e-02,1.07903e-01,-4.72882e-01,-1.61462e-01,1.90314e-01,5.07481e-02,-2.65061e-01,2.65219e-01,7.07314e-02,-3.27758e-02,2.94595e-01,-2.38525e-01,3.19121e-02,-4.45215e-01,-1.29710e-01,-1.76971e-02,2.25064e-01,-2.04735e-01,1.41119e-02,9.40199e-02,1.74168e-01,-2.15482e-02,1.03362e-01,2.12507e-01,5.41601e-01,-3.93681e-01,3.44599e-01,1.27805e-01,-1.74552e-01,1.45823e-01,-3.88171e-01,-9.52781e-03,
4.62811e-03,-2.85572e-01,-9.37762e-02,-1.67992e-01,8.41406e-02,-1.39858e-01,6.44044e-02,-1.99237e-01,8.60587e-02,1.60786e-01,-2.74147e-01,-2.35602e-01,1.39050e-01,4.75049e-01,2.11005e-01,1.54764e-01,2.24721e-01,8.67539e-02,1.34703e-01,4.21372e-02,1.85219e-01,-2.24225e-01,2.39512e-01,-2.26981e-01,5.81511e-01,-4.52010e-01,1.49960e-01,1.50252e-01,-2.90776e-01,-1.28633e-01,-9.24733e-02,-9.12466e-02,
-2.99389e-01,3.49412e-01,2.83935e-01,2.39898e-01,2.48963e-01,-4.31488e-02,-1.15896e-01,8.09962e-02,-9.07311e-02,-1.67315e-01,9.88758e-02,-2.00364e-01,3.51056e-01,-1.83685e-01,1.09716e-01,-3.84793e-01,2.86617e-01,2.59595e-01,-5.54136e-02,2.74225e-01,1.42839e-01,-4.02814e-01,-1.39901e-01,-9.45318e-02,-3.05702e-02,1.05242e-01,1.19856e-01,-1.89011e-01,-1.09615e-01,3.28895e-01,-2.17473e-02,-2.23150e-01,
-3.01641e-01,-4.15842e-01,-1.86100e-02,3.73616e-01,2.88325e-01,1.20829e-01,2.88246e-01,-2.11406e-01,1.45543e-02,-4.87055e-02,-5.06758e-01,1.74890e-01,-2.10456e-01,1.47093e-01,-4.64649e-03,4.92899e-02,3.85978e-01,-2.00320e-01,-9.80448e-02,5.05323e-02,-1.54720e-02,2.60923e-01,-7.21069e-02,-1.71200e-01,-2.81387e-01,-2.92017e-01,-3.80471e-01,-1.84614e-01,-3.69598e-01,-9.06741e-02,1.53484e-01,-1.50168e-01,
-9.29988e-02,-9.05853e-02,-2.82299e-01,1.29235e-01,3.64308e-01,1.85990e-01,-1.21239e-01,-6.55061e-02,-3.14555e-03,3.40782e-02,-2.46609e-01,-1.87048e-01,2.82765e-02,1.09988e-01,-1.47918e-01,-6.83718e-02,-2.72276e-01,-2.95704e-01,-6.01281e-02,-2.32601e-01,3.17227e-01,-4.84557e-03,-9.45254e-02,-2.35739e-01,4.01314e-01,-1.79385e-01,3.38507e-01,2.37861e-01,2.59460e-01,-1.61636e-01,-6.12870e-02,-2.82762e-01,
-8.72290e-03,2.83388e-01,-2.54402e-01,-1.05207e-01,3.70120e-01,-1.38460e-01,2.96301e-01,3.30138e-01,-2.74038e-01,-4.19860e-01,-1.27470e-01,-2.05893e-01,-1.99582e-01,5.21800e-01,-1.24632e-02,-8.34086e-02,-1.42506e-01,4.18714e-02,-2.97405e-01,-2.41936e-01,-3.11394e-01,-1.37396e-01,-1.64006e-01,-1.38972e-01,7.91296e-02,1.30850e-01,-4.32015e-01,-1.09142e-01,1.24542e-01,3.00495e-02,-3.02209e-01,-1.29004e-01,
1.11322e-01,1.30780e-01,-1.71302e-01,-2.84894e-02,-2.00839e-01,1.21114e-02,-2.29830e-01,-1.19603e-01,7.68330e-02,3.67914e-03,1.76732e-01,-3.04256e-01,-3.17732e-01,2.29392e-02,-3.20447e-01,-3.64313e-01,-4.50290e-03,-4.10889e-01,-2.06038e-01,2.59600e-01,-2.57745e-02,-1.36847e-02,-2.08343e-01,1.80442e-01,-5.27251e-02,3.91009e-02,7.35546e-02,1.85123e-01,-1.16285e-01,-9.29742e-02,-3.52273e-01,-2.85849e-01,
-3.29681e-01,-3.13121e-01,-2.62287e-01,-3.17757e-01,1.51579e-01,2.96462e-01,-1.89346e-01,5.19370e-02,-1.97742e-01,-1.66561e-01,-2.27845e-02,-3.54971e-01,1.55999e-02,-1.22021e-01,-1.70962e-01,3.00073e-01,-3.22052e-01,-4.61755e-02,-1.76191e-01,1.80486e-01,2.05336e-02,2.45699e-01,-1.85585e-01,-1.34833e-01,1.76841e-01,-2.42882e-01,-2.23033e-01,-3.93264e-02,-7.62737e-02,1.83313e-01,8.90880e-02,1.07382e-01,
3.04743e-01,-1.88082e-01,1.42256e-01,-1.45376e-01,-1.97914e-02,-1.61281e-01,-1.69376e-01,1.27968e-01,1.26663e-01,-2.40381e-01,-5.59253e-01,-3.37817e-01,-3.61894e-01,1.39782e-01,2.46210e-01,1.34772e-01,-5.07756e-02,-1.19616e-01,-3.07181e-01,-2.51763e-01,-4.43518e-01,1.37034e-01,-1.25560e-02,1.44420e-01,1.34547e-01,3.14399e-01,7.59456e-02,-3.00604e-01,-4.33314e-01,1.94217e-01,1.44912e-01,-2.78518e-01,
-1.64127e-01,-1.36194e-01,-5.06725e-02,-1.43405e-01,6.47127e-02,-1.62194e-01,1.85316e-01,2.72097e-01,1.92979e-03,3.46001e-01,-1.62089e-01,-6.60594e-02,4.52486e-01,-1.37950e-01,5.00269e-03,2.74230e-01,-1.87764e-01,-3.06619e-01,8.62846e-02,2.73712e-01,1.21504e-01,2.58114e-01,-1.96450e-01,2.67575e-01,-1.19194e-01,2.61746e-01,2.76637e-01,2.24734e-01,-2.57134e-01,2.22558e-01,-1.68467e-01,-3.72642e-01,
1.69673e-01,-9.10091e-03,1.15193e-01,-2.84744e-01,-1.01788e-01,-2.48589e-01,3.05493e-01,2.97914e-01,-1.11159e-01,3.97036e-01,1.05181e-01,2.29038e-01,2.90950e-01,-1.80042e-01,2.89271e-01,1.06552e-02,-5.35223e-03,1.87487e-01,3.04651e-01,4.51158e-01,-1.17610e-01,-2.12712e-01,-4.33973e-02,1.84119e-01,2.51493e-01,-2.99975e-01,2.89325e-01,2.42431e-02,-9.61598e-02,2.45680e-01,-3.40853e-01,5.92438e-02,
-8.82373e-02,-4.19344e-01,-2.43678e-01,2.40844e-01,3.88493e-01,2.50482e-01,1.88232e-01,-1.82659e-01,-3.13031e-01,-2.87867e-01,3.72244e-01,-3.59689e-01,1.84164e-01,1.91761e-01,-4.24093e-01,2.09913e-01,1.73816e-01,-4.55356e-01,3.09744e-01,-2.19368e-01,3.28829e-01,2.92625e-01,8.67407e-02,2.61166e-01,1.13165e-01,8.15040e-02,5.53717e-03,2.89846e-01,-1.59196e-01,-1.29812e-01,-1.47049e-01,2.12102e-01,
1.74552e-01,
-1.13596e-01,
-9.55634e-02,
3.86251e-03,
7.42998e-03,
7.12643e-03,
9.41377e-02,
3.47468e-03,
-3.73959e-02,
8.93698e-02,
-5.67305e-02,
-3.16064e-02,
-7.72748e-02,
8.87768e-02,
9.40640e-02,
-2.18389e-02,
1.59874e-01,-1.38954e-01,2.61802e-01,-1.21186e-02,-5.56042e-02,-3.84831e-02,-5.45840e-01,-1.51020e-01,3.34742e-01,-1.31157e-01,4.75661e-01,1.96426e-01,1.75729e-01,-1.39726e-01,-4.98129e-01,-3.41196e-01,
-2.14672e-01,3.33618e-01,-1.70145e-02,-1.58852e-01,1.47751e-01,-2.76590e-01,-5.21321e-01,-2.20437e-01,-2.91944e-01,7.47716e-02,2.70535e-01,2.02683e-01,7.10933e-02,-8.16399e-02,3.58758e-01,3.63702e-01,
-4.57114e-02,9.17858e-02,-1.42061e-01,1.33959e-01,-2.66749e-02,-1.83719e-01,2.42575e-01,3.21028e-01,-4.67891e-01,-3.43796e-01,-1.77431e-03,7.21310e-02,-6.15356e-01,-3.31646e-01,-5.46928e-01,-1.57386e-01,
-1.47260e-01,-2.05164e-01,3.53517e-01,3.49162e-01,4.08079e-01,-8.40035e-03,2.94882e-01,-1.69453e-01,2.15542e-01,-1.11989e-01,-4.60713e-01,-8.81346e-02,-6.55899e-03,-2.49587e-01,-3.44689e-01,3.56210e-01,
-2.45400e-01,4.48084e-01,2.74905e-01,9.17899e-02,-5.62086e-01,2.82223e-01,4.22672e-01,1.57575e-01,-7.74533e-02,-1.99836e-01,4.22024e-01,-2.43505e-01,-2.15777e-01,3.67595e-02,9.97551e-02,4.32378e-02,
-1.71313e-01,-4.41346e-01,-4.27028e-01,4.72127e-01,2.97830e-01,2.09743e-01,-1.97166e-01,3.72003e-01,-2.33519e-01,1.15342e-01,-7.54124e-02,-1.32216e-01,1.12948e-01,3.82515e-01,-2.03093e-01,-2.79166e-01,
1.78974e-01,9.76960e-02,-5.25174e-01,4.12500e-01,2.54760e-01,4.30283e-01,-8.23426e-02,-4.43040e-01,1.72734e-01,-6.43519e-02,-2.25429e-01,-1.65676e-01,-4.26826e-01,2.20611e-01,4.31178e-01,-3.09332e-01,
1.67860e-01,-4.00793e-01,-8.46089e-02,-4.69563e-01,-4.78231e-01,-8.31422e-02,-1.62227e-01,3.91442e-01,1.70575e-01,5.17658e-01,-3.72604e-02,-5.03979e-02,-3.77041e-02,-5.17247e-01,4.01494e-02,-1.83439e-01,
-8.81761e-02,
-1.99508e-01,
-1.01175e-01,
6.92080e-03,
-4.68240e-02,
-7.67454e-02,
1.57510e-01,
5.35004e-02,
4.94634e-01,1.80037e-01,-5.90472e-01,5.99976e-01,3.36702e-01,-5.47530e-01,-2.12466e-01,4.97609e-01,
-1.20660e-01,-3.60011e-01,4.34508e-01,2.18014e-01,-3.76968e-02,-4.34736e-01,6.27498e-01,-5.58565e-01,
-3.33986e-01,2.58232e-01,5.21044e-01,-9.89727e-03,2.94666e-02,2.85023e-02,-3.26193e-01,-4.68785e-01,
4.67421e-01,-2.67738e-01,-4.67923e-01,4.94371e-01,-2.58716e-01,-2.30758e-02,4.32290e-01,-2.77363e-01,
4.23236e-02,
1.21716e-01,
-4.05530e-03,
1.12977e-01,
1.03224e+00,-1.11605e+00,-3.92543e-01,-7.92851e-01,
-8.73229e-02,
