// Neural Network File Format by Kyle Julian, Stanford 2016
10,23,1,23,
23,10,10,10,10,10,10,10,10,10,1,
0,
0.0,0.0,0.0,0.0,0.0,0.0,0.0,0.0,0.0,0.0,0.0,0.0,0.0,0.0,0.0,0.0,0.0,0.0,0.0,0.0,0.0,0.0,0.0,
4.0,1.0,3.0,2.0,4.0,2.0,2.0,2.0,2.0,2.0,2.0,4.0,4.0,4.0,4.0,4.0,4.0,4.0,4.0,4.0,3.0,3.0,3.0,
0.0,0.0,0.0,0.0,0.0,0.0,0.0,0.0,0.0,0.0,0.0,0.0,0.0,0.0,0.0,0.0,0.0,0.0,0.0,0.0,0.0,0.0,0.0,0.0,
4.0,1.0,3.0,2.0,4.0,2.0,2.0,2.0,2.0,2.0,2.0,4.0,4.0,4.0,4.0,4.0,4.0,4.0,4.0,4.0,3.0,3.0,3.0,1.0,
2.14231e-01,-1.01003e-01,2.07781e-01,5.41496e-01,-1.92666e-01,-3.41551e-01,-6.59626e-01,-6.20497e-01,-1.08159e+00,-7.48778e-01,-4.89899e-01,1.73578e-01,-1.69283e-01,-2.46856e-01,1.81967e-01,2.61108e-01,-2.69509e-01,-1.16447e-01,5.97664e-02,5.12339e-01,2.54905e-01,2.10171e-01,-3.65009e-03,
-1.66177e-01,2.78720e-01,-3.72205e-02,-4.43187e-01,3.35926e-01,-9.25590e-02,4.42709e-01,4.69538e-01,-1.68433e-01,-1.22091e-01,-5.60967e-01,1.42483e-02,-5.62572e-01,4.93576e-02,-7.15928e-03,-8.42361e-01,-7.41277e-01,5.54598e-02,5.00191e-04,-1.74279e-01,-1.59767e-01,-8.70433e-02,-6.71646e-02,
1.08011e-01,-4.00173e-01,-3.70970e-01,6.46863e-01,2.70592e-01,2.91605e-01,7.02910e-01,1.15375e-01,9.04281e-01,1.34095e-01,4.57535e-01,-2.49080e-01,-1.92420e-01,-8.64227e-02,6.11615e-03,2.25722e-01,-1.07223e-01,1.05091e-02,-5.40960e-02,-3.77578e-01,1.81767e-01,-1.62623e-01,-4.60691e-01,
-3.53096e-02,1.42482e-01,1.39452e-03,-5.23287e-03,-3.92605e-02,-5.04465e-03,-8.81602e-02,-1.24378e-01,-4.04079e-01,-6.26507e-01,5.17014e-01,-2.86487e-01,1.58081e-01,2.93761e-01,-4.02747e-01,4.24014e-01,-5.42908e-02,-2.71919e-01,-1.40515e-02,-1.17433e-01,1.78568e-01,4.69843e-01,-4.99281e-02,
-7.92533e-02,5.51586e-02,1.24162e-01,2.03792e-01,1.55481e-01,-1.12274e+00,5.13697e-02,-3.69430e-01,-6.23300e-01,-4.71129e-01,-7.83860e-02,2.43937e-01,3.03655e-01,1.07132e-01,7.69314e-02,-1.19371e-01,-3.98833e-02,1.93142e-01,2.85413e-01,-2.92315e-01,2.24650e-01,-1.43707e-01,2.74088e-01,
3.96933e-01,7.85645e-01,-6.36935e-02,-3.29942e-01,1.91438e-01,-1.39881e-01,-3.69779e-01,-2.55647e-01,-3.91862e-01,2.60857e-01,-2.12061e-01,1.30087e-01,-3.84535e-02,6.47736e-02,8.49667e-02,-2.83486e-01,1.19281e-02,1.29950e-01,-1.35972e-03,-1.76804e-02,2.97661e-03,1.97473e-01,-6.30402e-01,
8.74662e-02,-3.11281e-01,-5.95031e-02,1.25339e-01,-1.15814e-02,1.20711e+00,-8.97494e-01,-2.60806e-02,-3.23105e-01,5.30018e-01,2.31511e-02,3.58979e-01,1.11256e-01,-4.28350e-02,-1.19111e-01,2.33791e-01,6.66546e-02,1.53341e-01,-1.36018e-01,-1.80813e-01,-1.70028e-01,-2.78318e-01,2.82282e-01,
3.44404e-01,-2.30859e-01,2.14554e-01,2.01923e-01,-5.39076e-02,-1.04223e+00,4.34829e-01,1.35766e-01,4.21351e-01,-1.08649e-01,-2.05342e-01,2.47405e-01,9.79313e-02,-4.17584e-02,3.95746e-01,3.40916e-01,2.23747e-01,-5.47302e-01,-2.99766e-01,-3.20828e-02,-2.25091e-01,-3.84554e-01,-3.94856e-01,
-3.25562e-01,-8.62656e-03,2.40365e-01,-1.91359e-01,1.13834e-01,1.29723e+00,4.73911e-01,2.09299e-01,4.05029e-01,-2.44930e-01,3.55501e-01,1.52652e-01,3.57459e-01,2.55786e-01,3.34623e-01,-3.71448e-01,-9.95337e-02,-3.08851e-01,-4.00250e-02,7.95457e-02,3.86576e-01,1.44581e-01,-2.11054e-01,
-1.80061e-01,7.03633e-02,-2.01814e-01,-6.43118e-02,-2.12909e-01,6.77976e-01,3.15755e-02,8.62420e-02,2.88528e-01,3.01801e-01,6.24131e-01,1.97080e-01,-1.45156e-01,1.48618e-01,3.00897e-01,2.33717e-01,3.16512e-01,3.07944e-02,-6.37949e-02,-1.06553e-01,-4.64739e-01,2.50322e-01,-2.75361e-01,
4.83311e-02,
-4.96571e-02,
3.33038e-02,
-4.45533e-03,
1.18655e-01,
8.05005e-02,
-9.31934e-02,
-1.65185e-02,
-7.34367e-02,
-2.16989e-02,
7.99387e-02,-2.61150e-01,-3.91634e-01,-5.65416e-01,-2.52034e-01,-3.53801e-01,-5.52817e-01,-3.84217e-01,-4.41440e-01,-8.78060e-02,
2.63021e-01,2.99870e-01,-2.72797e-01,4.83624e-02,1.45975e-01,-4.43731e-01,2.24527e-01,-6.78848e-01,3.92931e-01,-2.38637e-01,
3.15956e-01,-3.01901e-01,3.37655e-01,-2.04912e-02,-3.38542e-01,-1.51594e-01,4.16882e-01,6.14601e-02,5.59516e-01,4.49979e-01,
-2.32445e-01,-4.14811e-02,5.19421e-01,2.50560e-01,-4.05522e-01,3.09020e-01,-4.73729e-01,8.75125e-02,-3.30644e-01,-2.34955e-01,
1.73373e-01,3.96801e-01,5.94127e-01,1.48777e-01,4.61613e-01,-3.22663e-01,3.17058e-01,7.68791e-02,4.05924e-01,-8.27160e-02,
3.98038e-01,5.19057e-01,-5.33836e-02,1.79675e-01,-5.55286e-01,3.82505e-01,6.35131e-01,-4.65940e-01,1.62279e-01,3.67555e-02,
6.96439e-01,-3.22859e-01,-7.90254e-02,-2.07597e-01,1.45699e-01,2.54684e-01,3.05187e-01,4.31653e-01,-6.21603e-02,3.10811e-01,
3.57549e-01,-6.72006e-01,3.38542e-02,4.67651e-01,5.15895e-01,3.58449e-01,7.06767e-02,-3.72062e-01,-2.97056e-01,1.51831e-01,
3.79286e-02,-2.94193e-01,3.88104e-01,8.10351e-02,-9.42387e-02,-3.77973e-01,2.81053e-01,-5.63161e-01,7.62449e-02,-7.12837e-01,
-1.62592e-01,5.41164e-01,5.53451e-01,-2.00575e-01,3.24416e-01,4.75174e-01,4.39725e-01,-4.52136e-01,3.73769e-01,4.02335e-01,
-1.26280e-01,
-9.10886e-03,
-1.25426e-02,
9.17248e-02,
-1.47297e-01,
-5.74758e-02,
4.16203e-02,
1.19836e-02,
3.93600e-03,
-1.34514e-01,
2.91193e-01,2.15454e-01,8.69755e-02,4.26624e-02,-4.98505e-01,4.72719e-01,-2.66049e-01,3.17284e-01,8.78736e-01,-1.10781e-01,
1.93865e-01,-5.87773e-01,-4.01895e-01,-4.23395e-01,-2.73879e-01,2.34651e-01,-6.82317e-02,3.99750e-01,-1.17046e-01,3.70839e-01,
-4.53246e-01,5.44641e-01,3.77463e-01,-2.02430e-01,-1.95757e-01,-3.37398e-01,-3.29771e-01,5.27865e-01,4.56697e-01,-4.03313e-01,
-1.30354e-01,-1.37219e-01,-4.89582e-01,3.75259e-01,-2.84148e-01,-3.38298e-01,4.79471e-01,5.53264e-01,8.58566e-02,-5.60951e-02,
4.05040e-02,2.53441e-01,-6.98538e-02,1.26122e-01,1.18055e-01,4.50959e-01,1.00756e-01,-3.28034e-01,3.90504e-01,-3.78538e-01,
-1.59787e-01,4.80849e-02,4.04374e-01,5.89609e-01,-1.07658e-01,5.35547e-01,-3.33973e-01,1.43376e-01,-4.92040e-01,4.57335e-01,
-3.96893e-01,3.93538e-01,1.19398e-01,-7.34689e-01,1.32463e-01,3.12683e-01,2.03035e-01,1.12328e-01,-2.96676e-01,3.18535e-01,
-5.24313e-01,4.38687e-01,-4.36364e-01,-2.78138e-02,-2.48536e-01,-2.30545e-01,-1.49421e-01,-6.62743e-03,-1.52808e-02,-3.63998e-01,
-8.69563e-02,-4.97563e-01,-6.34535e-01,-7.58382e-02,-6.01503e-02,2.92837e-02,3.26592e-01,-4.91336e-02,3.06487e-01,4.38270e-02,
-3.96768e-02,3.80799e-02,-1.46202e-01,1.13936e-01,-3.46231e-01,-5.33297e-01,2.18166e-01,4.37368e-01,-6.40750e-02,2.60063e-01,
6.30928e-02,
1.46861e-01,
2.41951e-02,
1.16156e-01,
4.82176e-02,
-1.21824e-01,
-7.90420e-02,
-3.16416e-02,
-2.28155e-03,
-3.46253e-02,
6.08535e-01,2.39382e-02,1.58538e-01,4.68756e-01,1.13765e-01,2.90059e-01,6.04613e-02,1.99006e-01,5.68922e-01,-4.41924e-02,
-6.22048e-01,-1.60062e-01,-5.27300e-01,-3.25398e-01,-5.00254e-01,3.24195e-01,4.38971e-01,1.88150e-01,3.54732e-01,-6.75708e-02,
2.90027e-01,3.93923e-01,-5.61839e-01,1.80346e-01,-4.12850e-01,2.35977e-01,-5.70935e-01,-2.38302e-01,1.14029e-01,-1.26903e-01,
-5.38809e-02,-3.58327e-01,-1.33812e-01,2.55156e-01,1.06410e-01,-5.40122e-02,4.23020e-01,1.36302e-01,-7.18381e-01,-1.48964e-01,
-2.46759e-01,1.66844e-01,3.26306e-01,1.56752e-01,3.68790e-01,-2.48567e-01,4.82086e-01,-3.87395e-01,5.90211e-01,-1.15902e-01,
-1.47970e-02,-2.64489e-01,-1.01317e-01,2.67874e-01,1.87849e-01,-3.11615e-01,-4.02508e-01,-5.41404e-02,-1.80930e-01,-2.54073e-01,
2.23743e-01,-3.47519e-02,3.21918e-01,-4.71221e-01,5.11993e-01,-1.89649e-01,-3.44372e-01,-1.37361e-01,-2.57401e-01,6.31152e-02,
1.84009e-01,-1.35449e-01,5.74188e-01,4.14120e-01,1.83955e-01,-3.39085e-01,1.99733e-01,3.42316e-01,1.34682e-01,1.07357e-01,
-4.62111e-01,-2.07817e-01,-5.07391e-02,-1.08087e-01,-6.41812e-01,5.25441e-01,-8.27138e-02,-1.61676e-02,1.78058e-01,-5.81801e-01,
4.53688e-01,5.35454e-01,7.29186e-01,-3.81621e-01,-4.64131e-01,8.88676e-03,-9.86597e-02,4.99757e-01,1.35361e-01,1.63030e-01,
-1.90449e-01,
-7.01777e-02,
-1.04848e-01,
-1.81858e-01,
2.17349e-02,
-1.72574e-01,
1.16205e-01,
3.83612e-02,
3.32940e-04,
7.16706e-02,
3.07046e-01,4.55373e-01,-1.29530e-01,-4.57821e-01,-1.05399e-01,-2.48225e-01,-1.48960e-02,-6.82421e-02,3.28692e-01,-2.63071e-01,
4.63593e-02,-3.26963e-01,-4.59553e-01,-1.61470e-01,5.22494e-01,-4.16877e-01,-3.51788e-01,2.20334e-01,-1.84239e-01,9.83414e-02,
-2.37943e-01,4.75275e-01,-5.03623e-02,5.16171e-02,1.33718e-01,3.62806e-01,-4.28051e-01,-6.60254e-01,4.23894e-02,-9.87694e-02,
5.47779e-01,1.25194e-01,-9.64549e-02,1.34983e-01,5.24967e-01,5.10737e-01,-6.48636e-01,-4.18432e-02,2.93744e-01,-2.61104e-01,
-5.70358e-03,-1.81774e-01,-3.36886e-01,3.73720e-01,-4.52079e-01,-2.35838e-01,-4.86352e-01,-1.82573e-01,3.78786e-01,2.83464e-02,
-1.86417e-01,5.12866e-01,6.00983e-01,-2.89203e-01,-4.10792e-01,-2.35069e-01,-1.77894e-01,-7.24742e-01,2.22192e-01,1.47993e-01,
8.90759e-02,2.67651e-01,-4.72349e-01,2.10216e-01,-3.81570e-01,-1.78541e-01,-3.53940e-01,-2.37306e-01,5.14604e-01,-7.53880e-01,
-2.45105e-01,3.04258e-03,2.70909e-01,1.43174e-01,5.36884e-01,1.51073e-01,-2.31585e-01,-2.17136e-01,4.69487e-01,2.73141e-01,
-5.02417e-01,1.07254e-01,1.60273e-01,-3.83369e-01,3.72895e-01,-7.60942e-02,2.51110e-01,-3.91927e-01,-1.01069e-02,5.47229e-02,
1.25411e-01,-2.92682e-01,-5.73725e-01,-2.44873e-02,-6.44057e-01,1.29097e-01,-1.21696e-01,1.98522e-01,-5.85312e-01,-8.04449e-02,
-9.08027e-02,
1.53088e-01,
-6.40359e-02,
-1.38742e-01,
-2.78822e-01,
9.87602e-02,
-7.55337e-02,
-1.85919e-01,
2.57078e-01,
-2.45541e-01,
3.88472e-01,3.13265e-01,1.81425e-01,3.13939e-02,-1.32969e-01,1.07312e-01,2.85967e-01,-6.46653e-01,7.97915e-01,2.63965e-01,
-5.29310e-01,-4.13743e-01,1.78817e-01,-2.70132e-01,2.88831e-01,-2.60400e-01,4.11757e-01,-1.95974e-01,-5.35924e-01,-5.23749e-01,
-1.79848e-01,-3.30726e-01,8.60868e-02,4.53908e-01,-1.51452e-01,1.01389e-01,5.05758e-01,4.82991e-01,-4.66492e-01,1.04875e-01,
-3.61717e-01,4.64154e-01,-3.99412e-01,2.54263e-01,-8.81364e-02,1.44958e-01,-4.72543e-02,-5.18205e-01,-7.76029e-01,-9.90507e-02,
2.68904e-01,-6.10151e-01,5.47503e-01,1.56366e-01,1.75774e-01,2.20486e-01,2.05518e-01,4.08360e-01,-9.58220e-03,-3.27776e-01,
3.58463e-01,-3.43262e-01,-1.88750e-02,1.35764e-01,2.46725e-01,1.58863e-01,2.68062e-01,-5.21572e-01,3.87152e-01,4.18445e-01,
-3.27839e-01,2.88974e-01,2.52874e-01,5.10461e-01,6.22857e-02,5.64876e-01,3.39141e-01,-3.36388e-01,-4.81619e-01,-3.34556e-02,
-2.73832e-01,1.64089e-01,1.40368e-01,-3.37504e-01,1.91231e-02,-4.76675e-02,-1.46122e-01,2.68634e-01,-2.04156e-01,-2.59736e-01,
-3.08515e-01,4.24294e-01,1.87327e-01,-1.37794e-01,1.44676e-01,-8.27969e-01,-5.96591e-01,2.92303e-01,-2.38355e-01,-2.13056e-01,
2.37936e-01,1.25136e-01,-3.78946e-01,5.16133e-01,-2.32365e-01,3.62958e-02,-1.08240e-01,1.30533e-01,-2.54222e-01,-1.57592e-01,
1.02095e-02,
0.00000e+00,
-1.67545e-01,
1.46913e-01,
-1.68165e-01,
3.82102e-03,
-2.35262e-02,
-2.91344e-02,
1.16898e-01,
9.87151e-03,
-1.47904e-01,4.79429e-01,-1.59208e-01,6.35450e-01,-3.96598e-01,2.69911e-02,8.18134e-02,2.97119e-01,5.53040e-01,2.90578e-01,
-4.62487e-02,-3.45048e-01,-1.73705e-01,-6.52437e-02,4.76179e-01,-5.14496e-01,2.20376e-01,-3.15017e-01,5.04461e-01,-1.96869e-01,
1.45627e-01,5.45699e-01,3.35115e-01,-6.97488e-02,1.74259e-01,4.98722e-01,3.80266e-02,-1.22443e-01,-3.32809e-01,2.89433e-01,
-3.69790e-01,3.53133e-01,4.27042e-01,-2.66368e-01,2.28881e-01,-6.65673e-02,4.58372e-01,4.33045e-01,-3.79074e-01,2.86000e-01,
-9.77930e-02,-8.32136e-02,-3.16983e-01,5.66336e-01,-5.71589e-02,-3.67765e-02,4.81255e-01,2.38310e-01,5.53089e-02,5.03503e-01,
5.73023e-02,-4.91176e-01,1.06789e-01,-3.77697e-01,2.41677e-01,-2.14418e-02,-4.15677e-01,3.07065e-01,1.73445e-01,-5.65849e-01,
2.19243e-01,-3.26203e-01,-5.14541e-01,-2.57783e-01,-7.09820e-03,-4.09337e-01,-4.41842e-01,5.32239e-01,1.36106e-01,-6.09041e-01,
-3.27353e-01,3.62933e-01,8.70520e-02,2.38054e-01,-4.48470e-01,2.98049e-01,1.13288e-01,7.73457e-02,1.69098e-01,-3.87884e-01,
-5.87234e-01,-5.23838e-01,3.92326e-01,3.37048e-01,1.97255e-01,-4.05145e-01,-5.78027e-01,1.69415e-01,-1.74646e-01,3.55333e-02,
-4.65934e-01,2.97536e-01,-7.63077e-02,-4.63765e-01,-4.71881e-01,4.24307e-01,3.30394e-01,-2.76101e-03,8.38453e-02,-4.47906e-01,
1.13772e-01,
5.54077e-02,
-1.26008e-01,
-1.33523e-01,
9.84484e-02,
-3.06239e-02,
-1.43791e-01,
-1.43092e-01,
-2.16216e-02,
-2.87255e-02,
-4.00622e-01,2.07521e-01,3.47917e-01,2.14985e-01,3.51685e-01,5.32404e-01,4.73777e-01,2.61905e-01,-3.31910e-01,8.62447e-02,
1.34269e-02,-4.12128e-01,-4.77238e-01,-1.50833e-01,3.16907e-01,-1.61701e-01,-5.63345e-01,4.73577e-01,-4.17776e-01,4.91944e-02,
-2.21619e-01,4.55804e-01,-4.01910e-01,7.11926e-02,-1.09259e-01,-1.90724e-01,4.88091e-01,3.09554e-01,-8.70673e-02,5.13569e-01,
2.18959e-01,3.55701e-01,-1.11892e-01,-3.47305e-01,2.55156e-01,1.25610e-01,3.32944e-01,-4.59724e-01,2.89237e-01,2.20984e-01,
1.91796e-01,2.45497e-01,-3.20320e-01,-8.14105e-03,-2.40169e-01,7.02504e-02,-4.33032e-01,5.32743e-01,4.53947e-01,2.48819e-01,
-3.56580e-01,-1.67199e-01,4.14254e-01,1.09545e-01,2.32503e-01,3.57611e-01,-2.51724e-01,-2.90347e-01,-1.12969e-01,-1.43594e-01,
1.88744e-01,3.24770e-01,-4.52911e-01,-2.74039e-01,6.15512e-02,4.30061e-01,1.92566e-01,-1.75923e-01,6.19718e-01,-5.13442e-01,
6.10376e-01,4.23407e-01,-9.68571e-02,-3.27210e-01,4.79413e-01,8.92559e-02,-1.45773e-03,-2.72994e-01,1.78763e-01,-2.14920e-02,
-1.59258e-01,1.58160e-01,-2.28904e-01,1.49085e-01,-4.57569e-01,-4.20878e-01,2.14228e-01,2.16539e-01,2.31725e-01,1.27478e-01,
-1.64303e-01,-2.67640e-01,3.45259e-01,-1.27098e-01,1.81859e-01,-2.47476e-01,5.02478e-01,-3.73674e-01,-4.24786e-01,3.45672e-01,
-5.76525e-02,
1.23859e-01,
-8.75814e-02,
-2.73605e-02,
-2.84541e-02,
-6.96132e-02,
6.61922e-02,
1.60945e-01,
-5.17012e-04,
6.77764e-02,
-3.19829e-01,1.77033e-01,1.66361e-03,5.45443e-01,4.69052e-01,-5.49010e-02,-2.65444e-01,3.57229e-01,-4.59073e-01,4.10955e-01,
3.74344e-01,-4.58648e-01,2.11262e-01,3.97781e-01,4.36039e-01,2.49244e-01,-3.46062e-01,-2.58675e-01,1.98832e-01,1.11591e-01,
3.85458e-01,-1.92739e-01,3.29589e-01,1.15452e-01,8.08382e-02,-4.58948e-02,-3.45798e-01,-1.91801e-01,2.13412e-01,-3.05069e-01,
9.04516e-03,5.60968e-01,5.55938e-01,3.57501e-01,-3.63296e-01,-1.38127e-01,2.86629e-02,5.66973e-01,-1.96129e-01,-6.39286e-02,
1.78202e-01,-5.78659e-01,-1.39298e-02,2.79897e-01,3.56042e-01,-6.25013e-01,-1.44448e-01,3.54844e-01,-3.03479e-01,4.29665e-01,
5.44510e-01,-4.76249e-01,2.68860e-01,4.21871e-01,4.08944e-01,1.13355e-01,3.39118e-02,-2.81023e-01,-1.40787e-01,5.64841e-01,
-1.99925e-01,2.95806e-01,-5.14661e-01,2.78037e-02,1.56670e-01,7.20369e-02,5.43815e-01,5.51874e-01,2.29661e-01,4.33144e-01,
-4.61182e-02,2.63646e-01,-3.79821e-01,2.80127e-01,3.67601e-01,1.04659e-01,7.57180e-02,5.17211e-02,-4.20322e-01,4.70882e-01,
-2.79766e-01,-1.09968e-01,-3.86968e-01,-5.37865e-01,-3.75371e-02,-6.25331e-02,2.37461e-01,-2.57953e-02,4.59954e-01,-7.77963e-02,
-3.39225e-01,-3.25736e-01,4.46470e-01,-1.56416e-01,-2.67798e-02,4.34957e-02,-2.93022e-01,-3.65813e-01,1.16442e-01,6.73754e-02,
1.21363e-01,
9.71698e-02,
-1.57058e-01,
8.01464e-02,
-2.25672e-01,
2.70601e-02,
1.70425e-02,
-3.45860e-02,
-9.01499e-03,
-9.19811e-03,
-6.09644e-01,5.35733e-01,-2.45743e-01,-6.73656e-01,6.93529e-02,4.36680e-01,-6.89803e-01,4.07401e-01,3.17601e-01,2.59010e-01,
-2.36786e-02,
