// Neural Network File Format by Kyle Julian, Stanford 2016
2,23,1,23,
23,5,1,
0,
0.0,0.0,0.0,0.0,0.0,0.0,0.0,0.0,0.0,0.0,0.0,0.0,0.0,0.0,0.0,0.0,0.0,0.0,0.0,0.0,0.0,0.0,0.0,
4.0,1.0,3.0,2.0,4.0,2.0,2.0,2.0,2.0,2.0,2.0,4.0,4.0,4.0,4.0,4.0,4.0,4.0,4.0,4.0,3.0,3.0,3.0,
0.0,0.0,0.0,0.0,0.0,0.0,0.0,0.0,0.0,0.0,0.0,0.0,0.0,0.0,0.0,0.0,0.0,0.0,0.0,0.0,0.0,0.0,0.0,0.0,
4.0,1.0,3.0,2.0,4.0,2.0,2.0,2.0,2.0,2.0,2.0,4.0,4.0,4.0,4.0,4.0,4.0,4.0,4.0,4.0,3.0,3.0,3.0,1.0,
1.49879e-01,1.66323e-01,-2.09088e-01,1.12249e-01,3.50528e-01,-7.54779e-01,8.54182e-01,6.44930e-02,1.54884e-01,1.22247e-03,-1.99927e-01,-2.28123e-01,-2.57444e-01,-5.17964e-02,-3.08894e-01,3.47299e-01,-3.81402e-01,-4.08404e-02,3.50400e-02,1.11511e-01,-3.69142e-01,1.65206e-01,4.54005e-02,
3.74484e-01,4.56088e-01,8.40792e-02,-2.13624e-03,8.63903e-02,-1.44105e+00,-4.52401e-01,-4.17729e-01,-4.92030e-01,-6.95910e-01,-7.45471e-01,-5.61245e-02,-2.58961e-01,-4.17957e-01,-1.39088e-01,3.04181e-01,-1.40308e-01,-5.21656e-02,3.37259e-01,4.88095e-01,-1.56692e-01,8.06529e-02,6.44503e-02,
2.68682e-02,-2.49586e-02,-3.67268e-01,-2.89863e-02,-2.02001e-01,-7.63463e-01,-4.64238e-03,1.00426e-01,9.57618e-02,-5.62302e-01,8.65697e-02,-2.74003e-01,5.28972e-02,2.76121e-01,7.52424e-02,-2.28097e-01,4.99935e-01,2.61489e-01,-1.00511e-01,-8.41691e-01,-1.09316e-01,-4.78628e-01,-1.04202e+00,
-4.53110e-02,-9.61945e-02,-1.12469e-01,1.67009e-01,-2.34678e-02,-1.93510e+00,-1.11224e-01,-7.68887e-01,-2.36695e-01,1.25792e-01,3.39796e-01,2.12450e-01,1.89280e-01,4.24735e-01,-1.34035e-01,1.89211e-01,-2.21746e-01,2.55249e-01,-2.19280e-01,-2.69913e-01,5.10302e-02,1.12987e-01,-3.79952e-02,
-3.23146e-01,-1.85803e-01,-7.12778e-02,-2.08089e-01,4.46364e-02,1.24300e+00,-5.64853e-01,-6.11823e-02,4.45269e-01,2.56956e-01,7.15831e-01,3.05355e-01,1.69183e-01,2.10327e-01,-1.51264e-02,1.73727e-01,-2.08883e-01,7.61015e-02,-1.15475e-01,4.30265e-02,-9.70860e-04,1.51457e-01,-6.67056e-02,
-1.61924e-01,
7.81289e-01,
-1.82654e-03,
4.40914e-01,
-5.42688e-01,
5.35539e-01,-4.30940e-01,8.16884e-01,-5.63007e-01,5.07477e-01,
-5.64370e-01,
