// Neural Network File Format by Kyle Julian, Stanford 2016
3,30,1,30,
30,16,8,1,
0,
0.0,0.0,0.0,0.0,0.0,0.0,0.0,0.0,0.0,0.0,0.0,0.0,1.0,1.0,0.0,0.0,0.0,0.0,0.0,0.0,0.0,0.0,0.0,1.0,1.0,1.0,1.0,1.0,1.0,0.0,
1.0,1.0,1.0,1.0,1.0,1.0,4.0,4.0,4.0,4.0,3.0,2.0,4.0,4.0,3.0,1.0,1.0,1.0,1.0,1.0,1.0,1.0,1.0,5.0,5.0,5.0,5.0,5.0,5.0,3.0,
0.0,0.0,0.0,0.0,0.0,0.0,0.0,0.0,0.0,0.0,0.0,0.0,1.0,1.0,0.0,0.0,0.0,0.0,0.0,0.0,0.0,0.0,0.0,1.0,1.0,1.0,1.0,1.0,1.0,0.0,0.0,
1.0,1.0,1.0,1.0,1.0,1.0,4.0,4.0,4.0,4.0,3.0,2.0,3.0,3.0,3.0,1.0,1.0,1.0,1.0,1.0,1.0,1.0,1.0,4.0,4.0,4.0,4.0,4.0,4.0,3.0,1.0,
1.66135e-01,-8.87481e-02,-1.03806e-01,1.24851e-01,-1.12958e-01,-6.98298e-02,1.25248e-01,1.30589e-02,-1.65162e-01,-3.02600e-01,-1.40705e-01,1.35133e-01,-2.71192e-01,2.35994e-01,2.62229e-01,-3.59421e-01,-2.05168e-01,-8.22762e-03,2.39469e-01,-1.70308e-02,-7.40165e-02,1.18561e-01,-3.09807e-01,3.37165e-01,-1.12485e-01,2.73146e-01,-1.58512e-01,-3.82584e-01,-1.89080e-01,-3.30233e-02,
-2.32773e-01,-2.28193e-01,4.87762e-02,2.58604e-01,3.87501e-01,3.45069e-01,-2.66341e-01,1.52116e-01,2.02769e-01,-2.78792e-01,2.31762e-01,1.34985e-01,-3.00567e-01,-4.79044e-02,7.28773e-01,4.16386e-01,2.50952e-01,-3.56610e-01,1.65207e-01,-6.75535e-02,2.07745e-02,1.02791e-01,4.17400e-01,-3.60851e-02,-2.25146e-01,2.62031e-01,1.75165e-01,2.32519e-01,1.85963e-01,-2.26546e-01,
4.31528e-02,-8.15411e-02,2.29748e-01,-1.79361e-01,3.53437e-01,1.71106e-01,-9.98405e-02,1.06373e-01,-2.77559e-01,1.35489e-01,-3.82676e-01,5.80238e-02,2.98749e-01,-2.09069e-01,4.04869e-01,-5.12234e-01,2.33507e-01,1.00359e-01,-3.33003e-02,1.37247e-01,3.11313e-02,-6.62044e-02,1.72423e-02,3.99304e-02,-5.93731e-02,2.33515e-01,-1.53619e-01,-1.60099e-01,1.46832e-01,-2.49565e-01,
-3.16632e-01,-1.67212e-01,1.52274e-01,-2.80869e-01,-3.27225e-01,1.80423e-01,-2.57470e-01,-2.19362e-02,-1.92411e-01,1.93241e-02,1.06533e-01,-2.51755e-01,9.37735e-02,2.31602e-01,-3.42329e-01,-5.52096e-02,-2.96649e-01,-2.40589e-01,2.77817e-01,4.30927e-02,-7.85711e-02,-3.08535e-01,-2.02480e-03,1.80901e-01,-2.67641e-01,-3.51559e-01,8.26109e-02,-1.36693e-03,-1.89077e-01,-2.07009e-01,
1.41944e-01,-4.14973e-03,-1.93350e-01,7.05283e-02,-3.37542e-01,3.07554e-01,-3.68434e-03,2.15909e-01,-2.75575e-01,-2.19255e-01,1.78264e-01,2.48313e-02,2.12175e-03,-1.40547e-01,2.76481e-01,-2.30191e-01,-4.99354e-02,2.21432e-01,1.60947e-01,-1.04868e-01,2.60873e-01,-2.47488e-01,-4.92546e-02,-3.35401e-01,-5.93283e-02,-1.99240e-01,-1.85329e-01,-2.02162e-01,-2.47091e-01,2.54426e-01,
-1.97398e-01,4.27372e-02,-1.92614e-01,-3.08064e-01,1.87977e-01,-1.62633e-01,-1.24009e-01,1.12067e-02,-2.70793e-01,-2.49010e-01,-3.28253e-01,-3.35746e-01,-1.24301e-02,-6.59668e-02,-2.10517e-01,-2.94987e-01,2.14624e-01,2.30566e-01,2.05445e-01,-2.78571e-01,-1.60365e-01,-2.10781e-01,2.14340e-01,3.15737e-01,-2.99995e-01,-2.47180e-01,-1.94523e-01,7.06415e-02,1.04244e-01,1.04941e-01,
3.75614e-01,1.12149e-02,-8.89546e-02,3.54625e-01,3.17853e-01,1.66069e-01,-8.35652e-02,1.50742e-01,1.66458e-01,-1.52471e-01,-1.23101e-01,-2.95254e-01,2.38529e-01,-3.66654e-02,-1.52231e-01,2.43886e-02,-1.52446e-01,-1.37013e-01,2.10587e-01,1.00049e-01,8.40390e-02,3.83077e-01,-3.49442e-01,3.56028e-01,4.44979e-02,2.78195e-01,-2.36082e-02,1.38994e-01,4.05636e-01,2.03580e-01,
1.91871e-01,-2.66327e-01,-8.92395e-02,-2.02205e-01,-1.02927e-01,-1.78644e-01,1.19159e-01,2.67362e-01,7.11124e-02,2.66095e-01,1.49370e-01,7.33432e-02,2.49742e-01,-2.53328e-03,1.52285e-02,-1.63914e-01,2.76044e-01,-5.11602e-02,-4.16347e-02,3.93748e-01,1.70846e-01,2.34356e-01,2.66000e-01,3.22235e-01,9.60451e-02,1.91058e-01,-1.58238e-01,-8.08084e-02,2.48007e-01,3.23576e-01,
3.56570e-02,-8.12589e-02,-1.57101e-01,7.84683e-02,-1.17754e-01,2.97619e-01,-2.82267e-01,-3.16053e-01,-3.16013e-02,-1.15854e-01,3.23397e-01,-1.28283e-01,-2.68767e-01,3.48847e-01,-1.23188e-01,-2.05286e-01,5.63517e-02,2.40431e-01,-1.84409e-01,2.25988e-02,-1.67963e-01,-1.72035e-01,-2.72876e-01,-2.77833e-01,1.61663e-02,6.73251e-02,-1.51356e-01,-1.04676e-01,-2.52180e-02,-1.82506e-01,
-1.52233e-01,-1.44601e-01,1.37240e-01,-2.74591e-01,2.40366e-01,3.51785e-01,2.00646e-01,-6.74546e-02,-1.18878e-01,-1.83354e-01,1.31267e-01,1.19401e-01,2.43566e-01,-3.65950e-01,1.65030e-01,2.49728e-01,1.52991e-01,-3.05791e-01,1.18299e-02,1.28787e-01,-2.50250e-01,3.62920e-02,7.48977e-02,6.20509e-03,9.93224e-02,4.55794e-01,1.57353e-01,1.82467e-01,-2.00560e-01,-9.68695e-02,
1.62968e-01,3.54369e-01,-2.11370e-01,2.33579e-01,5.74344e-03,-3.25538e-01,1.10053e-01,1.22320e-01,1.12979e-01,1.50660e-01,1.27849e-01,2.15470e-01,2.72446e-01,-1.72676e-03,-6.40370e-01,-4.55524e-01,-1.65499e-01,-8.95254e-02,1.37200e-01,-1.75419e-01,-4.27192e-02,-1.36834e-01,-3.32060e-01,1.93532e-02,3.31565e-01,-9.12969e-02,-1.16111e-01,1.65832e-01,-1.59328e-01,-1.89147e-01,
-3.24196e-01,4.14012e-02,-2.03217e-01,-1.92551e-01,8.38847e-02,-3.40749e-01,-7.23681e-02,-2.50651e-01,3.88595e-01,1.72658e-01,2.16999e-01,2.78234e-01,5.69336e-02,1.99443e-01,4.58163e-01,-2.90564e-01,-1.12654e-01,-1.41728e-01,-1.73842e-01,1.25232e-01,-3.46644e-01,-2.31470e-01,-5.22516e-03,2.09678e-01,-8.42663e-02,-2.50039e-01,4.19344e-02,2.58155e-02,-1.41504e-01,-3.67588e-01,
-6.05984e-02,2.73929e-01,-3.43474e-01,2.00878e-01,4.40429e-02,-1.73157e-01,-3.02633e-01,1.37735e-01,1.67459e-01,-7.64845e-02,2.85931e-02,-7.67832e-02,-7.09657e-03,2.63286e-01,4.25090e-01,5.29434e-03,2.77087e-01,-1.93705e-01,-7.84405e-02,2.79988e-01,-2.72903e-01,2.68640e-01,3.23630e-01,-1.33524e-01,1.63624e-01,-2.03312e-01,-3.07298e-01,-2.55357e-01,-2.35386e-01,1.99972e-01,
1.69570e-01,4.05089e-02,-2.25749e-01,1.04882e-01,3.12352e-01,-2.25326e-01,-2.48546e-01,2.85571e-01,3.14682e-01,-3.82490e-01,3.57890e-02,-6.34248e-02,3.36704e-01,1.27940e-01,-1.71430e-02,8.78780e-02,-1.12476e-01,-1.25916e-01,-3.45420e-01,-2.82293e-01,6.03487e-02,2.22357e-01,2.58560e-03,2.10925e-01,-1.68169e-01,-8.78831e-02,2.83476e-01,-3.60481e-01,3.93375e-01,2.13679e-01,
8.29641e-02,6.66378e-02,-1.74307e-01,2.05577e-01,-6.58364e-02,-3.97546e-01,-1.65005e-01,-6.66981e-02,2.84148e-01,4.40181e-02,-4.25787e-02,-8.97667e-02,-7.12512e-02,2.12160e-01,-9.08548e-02,2.01089e-01,5.83356e-02,-4.01217e-01,1.93807e-01,-1.16062e-01,1.20766e-01,5.97247e-02,3.37437e-01,1.58234e-01,-6.67148e-02,-2.31938e-01,-2.39230e-01,-3.89417e-01,1.86353e-01,-1.06048e-01,
5.40319e-02,-5.45477e-02,1.07178e-01,3.58436e-01,5.32695e-02,2.00821e-01,4.63181e-02,1.32402e-01,1.09508e-01,2.28798e-01,-1.05366e-02,-1.09390e-01,1.61914e-01,-2.28103e-02,-2.35464e-01,-2.01447e-01,5.65045e-02,-2.03378e-02,1.37473e-01,2.48203e-01,2.94984e-02,2.97125e-01,1.37011e-01,1.88117e-01,3.94406e-02,7.82507e-03,3.18856e-01,-5.70394e-03,-4.62754e-03,-1.31952e-01,
-3.31146e-02,
1.38161e-02,
-1.94489e-02,
-1.91148e-02,
0.00000e+00,
-5.12736e-03,
7.76056e-02,
3.54498e-03,
0.00000e+00,
-6.95022e-03,
7.68408e-02,
1.94872e-02,
-1.94780e-02,
1.73109e-02,
-3.24685e-02,
4.34762e-02,
1.68195e-01,-4.03937e-01,-2.81028e-01,-1.42091e-01,-9.46033e-03,4.23971e-01,4.76967e-01,2.72626e-01,3.39753e-01,1.23807e-01,4.02262e-01,-2.36999e-01,2.44282e-02,2.09741e-01,-3.26694e-01,-2.24648e-02,
-2.89735e-01,-3.89832e-01,-2.17794e-01,-1.02387e-01,3.58117e-01,3.84397e-01,-2.70683e-01,-2.86678e-01,3.47752e-01,1.85033e-01,-3.32850e-01,-6.80363e-03,-8.41651e-02,3.82663e-01,-2.40571e-01,-4.56531e-02,
3.01148e-01,4.76482e-01,3.36433e-01,-2.71453e-01,-3.21105e-01,3.20759e-01,-6.38029e-02,4.62245e-01,-3.89615e-01,5.16869e-01,-5.22197e-01,6.98652e-01,-5.85360e-03,1.67169e-02,-7.62480e-02,-5.02692e-01,
1.83104e-01,4.35447e-01,-1.55121e-01,1.33841e-01,-9.73580e-02,1.98005e-02,3.57317e-01,-3.65361e-01,2.46765e-01,1.57640e-01,-2.70285e-01,5.27550e-02,5.04629e-01,3.38641e-02,1.79884e-01,1.16549e-01,
-2.14861e-01,-4.38223e-01,1.80825e-01,-2.03750e-01,5.91867e-02,-3.17413e-01,-3.54718e-01,-4.37729e-01,-3.70883e-01,4.84906e-02,3.67288e-01,-2.86676e-01,-1.03002e-01,3.17573e-01,-2.57615e-01,-1.26597e-01,
-4.01524e-01,1.85402e-01,-1.18335e-01,-1.90526e-01,4.83570e-01,-2.23613e-03,4.64746e-02,-4.75043e-01,-3.21252e-01,2.86578e-02,4.08235e-01,-2.54950e-01,-3.56501e-01,3.38192e-02,1.02756e-01,-3.91356e-01,
3.37884e-01,2.46333e-01,3.09883e-01,1.91536e-01,3.82228e-01,-7.54556e-02,-9.14073e-04,-1.98882e-01,4.77629e-02,-1.08282e-02,-5.91603e-01,5.23239e-01,3.72950e-01,2.22857e-01,5.12019e-01,1.46776e-01,
-2.62351e-01,-3.88820e-01,-3.08193e-01,1.17630e-02,-1.66317e-01,-4.45424e-01,-4.42582e-01,-2.05035e-01,4.16869e-01,2.27948e-02,-3.63398e-01,2.10384e-01,-3.83398e-01,-4.28691e-01,4.37832e-02,-3.25930e-01,
8.64851e-02,
0.00000e+00,
-3.94588e-02,
2.62782e-02,
0.00000e+00,
0.00000e+00,
4.57762e-04,
0.00000e+00,
2.86273e-01,-2.42618e-01,-3.78908e-01,-7.97771e-02,-3.69557e-01,4.41900e-01,-6.13952e-01,5.96152e-01,
8.05771e-02,
