// Neural Network File Format by Kyle Julian, Stanford 2016
2,30,1,30,
30,5,1,
0,
0.0,0.0,0.0,0.0,0.0,0.0,0.0,0.0,0.0,0.0,0.0,0.0,1.0,1.0,0.0,0.0,0.0,0.0,0.0,0.0,0.0,0.0,0.0,1.0,1.0,1.0,1.0,1.0,1.0,0.0,
1.0,1.0,1.0,1.0,1.0,1.0,4.0,4.0,4.0,4.0,3.0,2.0,4.0,4.0,3.0,1.0,1.0,1.0,1.0,1.0,1.0,1.0,1.0,5.0,5.0,5.0,5.0,5.0,5.0,3.0,
0.0,0.0,0.0,0.0,0.0,0.0,0.0,0.0,0.0,0.0,0.0,0.0,1.0,1.0,0.0,0.0,0.0,0.0,0.0,0.0,0.0,0.0,0.0,1.0,1.0,1.0,1.0,1.0,1.0,0.0,0.0,
1.0,1.0,1.0,1.0,1.0,1.0,4.0,4.0,4.0,4.0,3.0,2.0,3.0,3.0,3.0,1.0,1.0,1.0,1.0,1.0,1.0,1.0,1.0,4.0,4.0,4.0,4.0,4.0,4.0,3.0,1.0,
2.93204e-01,-1.72471e-02,7.18766e-02,1.45051e-01,-1.68707e-02,-2.76876e-01,2.35615e-01,3.03900e-01,-9.70237e-02,-1.90916e-01,-2.37625e-01,-1.92790e-01,2.43595e-01,5.33653e-01,-1.24103e-01,-2.42103e-01,-1.28403e-01,1.31150e-01,-3.44319e-01,2.70908e-01,1.86618e-01,2.69276e-01,-2.36209e-01,1.41887e-01,-2.77823e-01,3.12330e-01,-2.64819e-01,1.99796e-01,1.52480e-01,-1.60993e-01,
-3.44230e-01,1.76374e-01,-2.73550e-01,-2.33603e-01,3.33961e-02,3.13019e-01,-1.00552e-01,-2.33116e-01,2.78642e-02,-1.62856e-01,-3.20773e-01,-6.39843e-03,9.53929e-02,2.40525e-01,2.15554e-01,1.59453e-01,4.62736e-01,2.94433e-02,-5.36657e-01,1.77832e-01,-2.31521e-01,1.99817e-02,1.71769e-01,1.74609e-01,-1.56225e-01,3.34672e-02,-2.22846e-01,-7.65988e-02,3.43011e-01,1.49447e-01,
3.94443e-02,3.66485e-01,-1.27386e-01,-1.09877e-01,-1.96102e-01,2.85566e-02,-2.98107e-02,-1.55194e-01,-6.68207e-02,2.48267e-01,9.16111e-02,-1.71520e-01,2.90661e-01,-2.50852e-01,-4.87495e-01,1.13457e-01,1.39068e-01,1.66280e-02,-1.93554e-01,-2.74111e-01,-5.19034e-02,-2.98394e-02,-1.36876e-01,1.28893e-01,5.52243e-02,-2.74405e-02,-2.64118e-01,-1.51490e-01,3.45290e-01,1.06262e-01,
-3.41081e-01,4.08780e-02,1.97156e-01,-1.23889e-01,-3.93783e-01,3.88372e-01,-1.58116e-01,-1.42577e-02,-3.89952e-01,7.74551e-02,-3.53172e-01,9.69944e-02,3.71682e-01,-3.86966e-01,1.92948e-01,-5.58731e-02,2.28755e-01,3.41197e-01,-2.38122e-01,-1.29739e-01,1.04082e-01,-3.26513e-01,2.56800e-01,3.45580e-02,-2.39458e-01,-1.71626e-01,-3.04546e-01,1.14423e-01,1.16047e-01,-2.51359e-01,
1.23860e-01,-1.87880e-01,2.10073e-01,-2.14836e-01,1.83763e-03,-4.90292e-02,7.74480e-02,-2.23027e-01,-4.27421e-01,2.79579e-01,2.64112e-01,-4.26675e-01,-1.54769e-01,9.87631e-02,4.49152e-01,2.66138e-01,3.24004e-01,1.36441e-01,-4.48220e-01,-2.57897e-01,-4.34463e-01,-3.13593e-01,3.12973e-01,2.40485e-01,1.61655e-01,2.89125e-01,4.24115e-02,2.95425e-01,-2.24388e-01,-3.61847e-01,
1.00273e-01,
-5.47116e-02,
3.75195e-02,
0.00000e+00,
-4.77963e-02,
2.33157e-01,-5.63331e-01,5.95627e-01,3.15445e-01,-4.23944e-01,
9.05503e-02,
