// Neural Network File Format by Kyle Julian, Stanford 2016
6,30,1,64,
30,64,32,16,8,4,1,
0,
0.0,0.0,0.0,0.0,0.0,0.0,0.0,0.0,0.0,0.0,0.0,0.0,1.0,1.0,0.0,0.0,0.0,0.0,0.0,0.0,0.0,0.0,0.0,1.0,1.0,1.0,1.0,1.0,1.0,0.0,
1.0,1.0,1.0,1.0,1.0,1.0,4.0,4.0,4.0,4.0,3.0,2.0,4.0,4.0,3.0,1.0,1.0,1.0,1.0,1.0,1.0,1.0,1.0,5.0,5.0,5.0,5.0,5.0,5.0,3.0,
0.0,0.0,0.0,0.0,0.0,0.0,0.0,0.0,0.0,0.0,0.0,0.0,1.0,1.0,0.0,0.0,0.0,0.0,0.0,0.0,0.0,0.0,0.0,1.0,1.0,1.0,1.0,1.0,1.0,0.0,0.0,
1.0,1.0,1.0,1.0,1.0,1.0,4.0,4.0,4.0,4.0,3.0,2.0,3.0,3.0,3.0,1.0,1.0,1.0,1.0,1.0,1.0,1.0,1.0,4.0,4.0,4.0,4.0,4.0,4.0,3.0,1.0,
7.96363e-02,-8.07190e-03,1.94626e-01,-2.18541e-01,1.17062e-01,-1.17064e-01,-2.21844e-01,2.00104e-01,-2.08817e-01,1.37939e-01,-1.95343e-01,-1.13274e-01,5.17351e-04,8.73912e-02,1.82649e-01,6.88996e-02,2.00603e-01,-2.34401e-01,-1.32180e-01,1.34689e-01,-1.93614e-01,-3.16701e-02,-9.37813e-02,-3.44652e-02,-1.19099e-02,7.32502e-02,-8.99083e-02,-1.20121e-01,2.57823e-01,4.99765e-02,
-2.85293e-02,-1.39513e-01,-1.84677e-01,-2.04409e-01,1.39543e-01,3.72484e-02,-7.17977e-02,1.03735e-01,1.37911e-01,-1.80904e-01,-4.02776e-02,-5.74260e-02,-2.14803e-01,-2.46826e-01,-1.48130e-01,1.09525e-01,1.40902e-01,3.69465e-02,1.87546e-01,-1.36917e-01,6.88030e-02,-1.41127e-01,8.31188e-02,1.19850e-01,2.11524e-02,2.01642e-01,-5.68109e-02,1.83417e-01,-9.03700e-03,3.98761e-02,
-7.43372e-02,-1.86049e-01,-1.84243e-01,-2.16118e-01,7.79467e-02,-1.55087e-01,-8.05919e-02,-2.12713e-01,-1.86756e-01,-8.25173e-02,-1.43751e-02,1.53178e-01,-1.18412e-01,-7.62661e-02,2.41837e-01,-1.02282e-01,-7.42307e-02,-1.05562e-01,7.20759e-02,-8.68425e-02,2.59618e-02,1.80401e-02,2.11361e-03,-1.34104e-02,-1.39978e-01,-6.10029e-02,3.38212e-02,-6.44284e-02,-2.01783e-03,2.14218e-01,
-1.16542e-02,1.26439e-01,-1.01993e-01,-2.43345e-02,1.06768e-02,-1.03876e-01,-1.10935e-01,1.55173e-01,8.11965e-02,-1.12577e-01,2.08694e-01,1.69248e-01,6.06298e-02,-6.58345e-02,-2.55673e-01,-4.81485e-02,-1.99818e-01,1.36108e-01,-7.12678e-02,9.82340e-02,1.64331e-01,1.63004e-02,1.99225e-01,1.72736e-01,3.09574e-02,-1.38562e-01,-7.06801e-02,1.92517e-01,1.25489e-02,1.81685e-01,
-2.13038e-01,2.28362e-01,3.61927e-02,-2.02084e-01,-4.11762e-03,2.03992e-01,2.23539e-01,-9.39664e-02,2.03864e-01,-7.21074e-02,-1.80703e-01,1.71701e-02,5.26009e-03,-1.65060e-01,1.81226e-01,-1.57420e-01,-2.11044e-01,-8.86401e-03,1.17659e-01,3.87713e-02,-1.75306e-01,9.78555e-02,1.19463e-01,7.97072e-02,-7.42831e-02,8.99310e-02,1.89721e-01,8.32483e-03,5.72775e-02,-1.29737e-01,
1.13056e-01,1.21750e-01,1.53020e-01,1.36787e-01,-1.34129e-01,1.53745e-01,-2.19896e-01,-3.17999e-02,7.14738e-02,4.84773e-02,3.39752e-02,6.98115e-02,-6.02823e-02,-1.95011e-01,1.44460e-01,1.05422e-01,5.39999e-02,-1.83392e-01,-1.05807e-01,1.13903e-01,-2.09266e-01,2.31401e-01,-2.31029e-01,-9.06881e-02,-1.71375e-01,1.96487e-01,2.20393e-01,-2.14823e-01,1.63560e-01,1.35880e-01,
1.37680e-01,-8.07873e-02,2.39845e-02,6.12511e-02,5.09792e-02,2.46297e-01,-1.27665e-02,-1.39090e-01,5.74900e-02,-6.68308e-02,1.60984e-01,5.34465e-02,1.36703e-01,9.59900e-02,-1.40055e-01,3.80761e-02,1.37080e-01,6.01399e-02,-1.14735e-02,-1.11791e-01,-1.77339e-01,-2.74284e-02,1.76916e-01,-5.38578e-03,1.75157e-03,1.73058e-01,-1.26556e-01,8.38597e-02,-1.11889e-02,7.87811e-02,
1.91064e-01,-4.32461e-02,4.16510e-02,-3.42580e-02,-1.82929e-01,-5.84960e-02,4.33968e-02,2.14224e-01,-1.54236e-01,-2.47465e-01,-1.05897e-01,-8.22942e-02,-6.10387e-03,-7.39646e-02,1.13660e-01,6.86477e-02,1.43088e-01,-1.80702e-01,5.47714e-03,4.41907e-02,-3.52534e-02,-1.71309e-01,2.92704e-02,-3.30771e-02,1.25274e-01,-1.69374e-01,9.95427e-02,2.44603e-02,-1.88858e-01,9.29543e-02,
-1.30703e-01,-9.73538e-03,6.23738e-02,1.72642e-01,2.16155e-01,-1.24391e-01,-1.54140e-01,8.08748e-02,-3.42490e-02,2.36538e-01,3.34018e-02,-2.16337e-01,-5.24624e-02,-2.12752e-01,1.86285e-01,-6.13256e-02,9.37400e-02,2.66121e-02,-1.97020e-01,4.49356e-02,7.83600e-02,1.83032e-01,-2.64087e-02,3.94244e-02,1.37661e-01,7.99426e-02,2.03559e-02,4.14550e-02,-8.38405e-02,-1.22677e-01,
-1.47900e-01,-1.60354e-01,-1.17140e-01,2.26210e-01,-1.16263e-01,3.72818e-03,-2.33992e-02,5.96997e-02,2.61529e-01,-2.11964e-01,2.05538e-01,-3.02455e-02,-1.58336e-01,2.34699e-01,-1.75163e-03,-2.54159e-02,-5.92714e-02,-1.40176e-01,1.96187e-01,-7.94783e-02,1.66054e-01,1.45962e-01,2.32808e-01,2.40944e-01,-1.56744e-01,5.83789e-02,-1.45788e-01,-3.13914e-02,-1.21545e-01,2.54801e-02,
-1.13280e-01,-7.15972e-03,1.95111e-01,1.39789e-01,2.54745e-02,-1.74928e-01,1.34421e-01,-2.64128e-01,1.63173e-01,7.22936e-02,-1.94845e-01,5.36739e-02,1.33666e-01,-4.64911e-03,-1.08626e-01,-3.90468e-02,-1.30891e-01,1.45065e-01,-5.37136e-02,-2.20138e-01,-2.39039e-01,8.42949e-02,1.19754e-01,-1.06387e-01,1.98098e-01,-1.43508e-01,2.34662e-01,-2.59432e-01,-1.02588e-01,1.20357e-01,
1.15951e-01,1.05644e-01,1.63689e-01,4.42261e-02,1.65150e-03,-1.16037e-02,1.58384e-01,-5.25271e-02,-1.13577e-01,-1.68101e-02,-1.37050e-01,2.08773e-01,4.70500e-03,-1.49797e-01,1.51787e-01,-1.20191e-01,9.23433e-02,1.18498e-01,-8.03458e-03,8.62484e-02,1.40707e-01,1.50713e-01,-3.83273e-02,9.42235e-02,1.26074e-01,-2.18107e-03,8.19146e-02,-1.79517e-01,-6.46673e-03,1.85622e-01,
-1.82582e-01,2.06583e-01,1.28016e-01,6.62757e-02,-4.61565e-02,1.51402e-01,1.19574e-01,1.53799e-01,-1.39523e-01,-2.53873e-01,-7.47445e-02,4.40046e-02,2.18537e-01,-2.68646e-01,2.51500e-01,1.58570e-01,-7.66311e-02,-2.54939e-01,1.72429e-01,1.63298e-01,-8.26319e-02,-2.43425e-01,9.90467e-02,-3.11445e-02,-8.31399e-03,1.67058e-01,-2.09244e-01,2.32536e-01,2.30319e-01,2.06274e-01,
2.24494e-02,-1.09032e-01,4.17460e-02,1.87057e-01,1.18807e-01,7.94482e-03,4.14544e-02,-1.81284e-01,-1.76363e-01,-1.73027e-01,5.29677e-02,-6.16184e-02,-1.44393e-01,1.71885e-01,2.53494e-03,-2.07962e-01,1.94357e-01,1.25170e-01,2.47691e-02,-1.54097e-01,-1.75315e-01,8.66542e-02,7.87286e-02,1.34697e-01,1.94046e-01,1.77554e-01,-2.54644e-02,-1.83810e-01,-1.19694e-01,1.71777e-01,
4.22405e-02,6.20635e-02,-1.60700e-01,-1.18162e-01,1.46361e-01,-8.44414e-02,2.31087e-01,-5.31716e-02,-5.13635e-02,1.08213e-01,1.90716e-01,1.83306e-01,2.19708e-01,-2.02859e-01,1.41416e-01,2.27791e-01,9.55664e-03,1.52818e-02,3.10133e-02,7.68826e-02,1.85596e-01,-1.34820e-01,3.55389e-02,1.20985e-01,1.14672e-01,2.50742e-01,-2.83609e-02,-1.52006e-01,1.28723e-01,-1.14383e-01,
2.21211e-01,2.48198e-01,-2.62005e-01,-1.41778e-02,-1.57401e-01,-7.80327e-02,2.38075e-01,8.95980e-02,-2.90974e-02,2.15144e-01,1.74966e-01,1.32717e-01,1.11894e-01,-8.59295e-02,-3.01255e-01,-2.18814e-01,-1.96903e-01,-1.21155e-01,-9.16378e-02,2.52780e-02,2.61292e-01,2.69804e-01,2.54682e-02,-1.53022e-01,8.55304e-02,-1.58282e-01,9.71911e-02,1.48033e-01,-2.11994e-01,2.34516e-01,
-2.37478e-01,-1.77744e-01,9.56964e-02,1.87032e-01,1.38104e-01,1.72251e-01,-2.19071e-02,1.52645e-01,1.50093e-01,2.17571e-01,6.53705e-02,-1.38121e-01,1.40766e-01,-2.09446e-02,1.96099e-01,1.96351e-01,-1.48998e-01,8.97873e-02,-9.97111e-02,-1.68096e-01,-2.04226e-01,7.42569e-02,1.99323e-01,-2.04067e-01,1.06751e-01,2.45476e-02,-5.36925e-02,1.21790e-02,1.11046e-01,1.72554e-01,
2.44175e-02,-1.02675e-01,9.44796e-03,-2.16687e-01,-3.20454e-02,-6.46075e-02,1.77385e-01,-1.98841e-02,-1.49843e-01,-1.75355e-01,1.80836e-01,4.16355e-02,-3.00970e-02,1.00768e-01,-6.56897e-02,-4.15466e-02,2.57044e-01,-1.86692e-01,-3.06030e-02,-9.80958e-02,-2.51844e-01,3.02883e-02,2.45053e-01,1.11932e-01,-2.18868e-01,-1.15779e-01,-1.59147e-01,-1.83639e-01,1.77247e-01,-1.37472e-01,
5.25792e-02,1.60482e-01,-1.54655e-01,1.78036e-01,4.88210e-02,-1.32407e-01,2.75474e-02,-6.36010e-02,4.59240e-02,2.15672e-01,-1.52399e-01,-1.44669e-01,9.06003e-02,-6.18007e-03,1.01447e-01,1.81092e-01,6.42184e-02,4.74338e-03,8.10262e-03,2.04715e-02,-8.16512e-03,-6.30476e-02,1.11792e-01,5.02119e-03,-2.58361e-01,5.15885e-02,1.01289e-01,2.53509e-02,7.64664e-02,9.05715e-02,
-1.51927e-01,-1.84873e-01,1.80951e-01,-1.21891e-01,-1.72073e-01,2.09854e-01,-2.04004e-01,-1.85554e-01,1.35391e-01,-1.34682e-01,2.57901e-02,-1.76886e-01,-1.85965e-01,-9.53881e-03,2.34884e-01,-2.51323e-01,-1.60180e-01,1.86672e-01,-1.66845e-01,-2.37388e-01,-1.19457e-01,-7.31328e-02,2.18402e-01,-2.46884e-01,-2.23144e-01,3.69418e-03,-1.22444e-01,-1.79940e-01,2.13980e-01,4.38384e-02,
1.02467e-01,-7.54579e-02,1.97857e-01,-7.18145e-02,-5.54471e-02,8.31219e-02,1.88794e-01,1.40070e-01,1.54023e-01,1.65148e-01,-1.47442e-01,2.08817e-01,-1.77456e-01,1.07048e-01,-2.63058e-01,1.67711e-03,-9.12635e-02,-4.80398e-02,-1.25567e-01,1.20195e-01,7.72196e-02,-8.11185e-02,1.88180e-01,-3.79187e-02,1.37089e-01,1.23108e-01,1.56368e-01,-1.41720e-01,1.22491e-01,-1.18675e-01,
2.78101e-02,-1.34361e-01,2.00506e-01,2.22964e-01,1.06352e-01,2.04068e-01,-8.49642e-02,-1.89283e-01,-1.12851e-01,3.07670e-02,2.48884e-01,-2.02253e-01,-9.82027e-02,-5.11061e-02,-6.56323e-02,9.59961e-02,1.79796e-01,-4.94584e-02,-1.36539e-01,-8.72336e-02,1.36850e-01,-1.84306e-01,1.28492e-01,2.33287e-01,1.77257e-01,-2.29480e-01,-1.87370e-01,1.31466e-01,8.67043e-02,-1.87048e-01,
-1.74851e-01,-2.12817e-01,1.92049e-01,-1.71986e-01,-1.28835e-01,2.06462e-02,-1.29617e-01,1.09434e-01,1.78663e-01,-8.12080e-02,-2.25928e-01,-5.42095e-02,9.07774e-03,5.37170e-02,2.21538e-01,-4.73560e-02,1.99853e-01,9.04237e-02,2.30631e-01,2.26886e-02,-5.24777e-02,-8.98234e-02,-1.36061e-01,1.76199e-01,1.17362e-01,-2.13473e-01,1.42310e-01,1.55537e-01,-1.86426e-01,-1.99948e-01,
8.92880e-02,2.02347e-01,-2.27846e-01,1.60217e-01,-8.80263e-02,-1.76165e-03,-1.51257e-01,-1.94101e-01,1.33351e-01,-1.41450e-01,-3.73296e-02,-1.21935e-01,1.88386e-01,2.36704e-01,2.13276e-01,-7.79344e-02,-7.51507e-02,1.39409e-01,-1.22705e-01,2.44660e-01,-2.28684e-01,1.60888e-01,1.74737e-01,-2.26917e-01,-3.72299e-02,-4.24551e-02,8.75949e-02,-1.11233e-01,-2.01926e-01,-3.22129e-02,
7.10754e-02,6.12768e-02,2.34160e-01,-2.20642e-01,-1.27473e-01,6.42487e-02,-1.40195e-01,-1.05385e-01,8.06788e-02,-2.40711e-01,-2.07264e-01,-9.88595e-02,-1.28445e-01,2.43107e-01,1.83801e-01,1.83776e-01,-1.78502e-01,6.59821e-02,-1.84488e-01,-5.06629e-02,-3.44377e-04,-2.50191e-01,1.81177e-01,-8.34558e-02,-1.97224e-02,-1.71815e-01,2.24712e-02,-9.77568e-02,2.19361e-01,1.15749e-01,
-7.56175e-02,4.92474e-02,1.74443e-01,-1.89540e-01,5.40783e-02,-1.29010e-01,1.62146e-01,-5.52443e-02,1.42048e-01,-2.41177e-01,-1.79559e-01,-1.96076e-01,-6.41783e-02,-2.04146e-01,-8.50695e-02,2.62579e-01,4.28172e-02,3.82156e-02,-8.19566e-02,-1.95194e-01,1.26436e-01,1.34198e-01,6.48728e-02,1.90263e-01,1.68628e-01,1.90358e-01,-1.53495e-01,1.52905e-01,-2.04119e-01,-1.54877e-01,
6.28193e-02,-1.42773e-01,-6.25573e-02,1.47858e-01,2.04243e-01,-4.19520e-02,-1.13809e-01,5.61095e-02,8.67402e-02,2.45550e-01,-1.77358e-01,9.64417e-02,-1.28981e-01,1.26396e-01,-1.08404e-01,2.10659e-01,2.43475e-01,1.22086e-01,3.28085e-02,9.15536e-02,2.49750e-02,-2.06645e-01,-1.19567e-01,-1.75715e-01,4.47988e-04,1.40820e-01,1.30849e-01,3.69525e-02,2.18664e-01,-1.65641e-01,
-1.18644e-01,1.09831e-01,-2.15227e-01,2.34546e-01,1.83299e-01,-2.32243e-01,8.97087e-03,1.37850e-01,-2.13895e-01,6.53019e-02,-2.22038e-01,9.39259e-02,1.26365e-01,-9.53233e-02,-1.48085e-01,1.46088e-01,5.61256e-02,-1.40059e-01,1.03572e-01,1.23164e-01,-3.35243e-03,-8.72156e-02,1.67233e-02,-2.38416e-02,2.13499e-01,2.34260e-01,2.23057e-01,-9.43933e-02,-6.65082e-02,-5.83956e-02,
1.82760e-01,-1.17241e-01,1.49437e-01,1.31876e-02,2.11950e-01,1.42587e-01,7.51815e-02,-8.01074e-02,-1.08111e-01,-6.50961e-03,2.21019e-01,-1.12125e-01,1.93048e-01,-8.13059e-02,-1.46548e-03,2.28144e-02,-1.37160e-02,-2.05254e-01,-4.86655e-02,5.81973e-02,1.83358e-01,-1.12497e-01,-1.90361e-01,3.31297e-02,-1.79857e-02,-4.28976e-02,5.62226e-02,1.18494e-01,6.62551e-02,2.06985e-01,
1.62910e-03,-2.16828e-01,1.77743e-01,-3.17781e-02,1.22742e-01,-7.29654e-02,-6.60306e-02,-4.57268e-02,-1.29381e-01,2.72255e-01,-2.98589e-02,-2.92321e-02,-1.46568e-01,4.30507e-02,2.25173e-01,-1.49506e-01,2.34376e-01,-7.25553e-02,-1.46364e-01,1.55756e-01,-2.19848e-01,8.66290e-02,2.39362e-01,2.18768e-01,-1.07193e-01,6.29143e-02,1.41553e-01,-1.64501e-01,-3.47795e-02,-1.52440e-01,
2.43485e-01,-2.17433e-01,-1.72414e-01,4.27671e-03,2.08773e-01,-2.14630e-01,-1.34564e-01,-3.55529e-02,-5.90995e-02,1.72925e-02,-1.08933e-01,1.20201e-02,-2.21199e-02,1.32673e-01,1.79928e-01,2.22519e-01,-9.10375e-02,-1.88928e-01,2.38544e-02,2.03921e-01,-1.43987e-01,1.18454e-01,1.82700e-01,2.01280e-01,-9.52754e-02,-8.66680e-03,-1.84758e-01,5.21238e-02,2.05961e-02,1.42264e-01,
-1.39529e-01,1.78067e-01,2.22269e-01,-1.24377e-01,-7.30322e-02,8.01010e-02,-1.97926e-01,2.28161e-01,-1.20993e-01,-1.44625e-01,2.60226e-01,-1.14277e-01,-4.51637e-02,-1.31118e-01,-2.34006e-01,-2.61522e-02,9.30045e-02,2.26621e-01,1.96638e-01,1.29086e-01,1.89278e-01,1.09454e-01,-4.50871e-02,-6.24034e-02,-1.36210e-01,1.31016e-01,-1.33598e-01,-1.70590e-02,4.40916e-02,-1.91554e-01,
1.69072e-01,2.43807e-01,-2.57943e-02,2.23677e-01,2.52521e-01,7.53654e-02,1.96224e-01,1.18943e-01,3.59398e-03,1.95642e-01,1.14199e-01,-1.42934e-01,-1.16636e-02,-1.83992e-01,2.41739e-01,-3.60560e-02,1.70011e-01,-7.57210e-02,-1.87670e-01,2.70617e-01,1.28506e-02,1.67904e-01,1.45714e-01,1.38488e-01,5.58732e-02,-9.87602e-02,2.39465e-01,-1.74226e-01,-1.55449e-01,-1.86710e-01,
3.25472e-02,-1.76504e-01,-1.79471e-01,-2.67566e-01,-4.02957e-02,2.51301e-01,-3.38608e-02,1.42956e-02,1.88551e-01,-2.01665e-01,6.91859e-02,-3.22965e-02,-2.58453e-02,-2.03274e-01,-6.73470e-02,-6.45524e-02,1.06406e-01,-2.32979e-01,-9.37203e-02,-3.51552e-02,-1.98494e-01,2.51284e-01,-2.06177e-01,2.58813e-02,-1.32243e-02,-2.06225e-01,-5.33983e-03,1.89967e-01,1.28232e-01,1.70921e-01,
1.25259e-02,-1.96604e-01,-6.14883e-02,1.32050e-01,1.22716e-01,-8.51412e-02,-1.58760e-01,1.50554e-01,8.19332e-02,9.13600e-02,-9.06348e-02,9.16361e-03,5.03294e-02,-1.21494e-01,-2.15177e-01,-1.17914e-01,-1.37202e-01,-9.73960e-02,1.52843e-01,-6.73339e-02,-2.01042e-01,-3.61300e-02,-9.86820e-02,1.25907e-01,1.06071e-01,9.80326e-02,1.63270e-01,2.13674e-01,-1.27266e-01,2.08350e-01,
-1.60403e-01,4.64831e-02,-5.18037e-05,-2.14795e-01,4.15528e-02,-2.49142e-01,7.85608e-03,2.28875e-01,1.87057e-01,1.71455e-02,1.90520e-01,2.64782e-02,-2.50992e-01,-4.04349e-02,-2.70582e-01,1.90945e-01,-1.78394e-01,-1.69807e-01,2.05362e-01,-9.19946e-02,-1.01637e-01,-5.70698e-02,2.17339e-01,-5.05627e-02,-1.45502e-01,-5.28508e-02,2.13773e-01,1.64633e-01,1.89684e-01,-1.70036e-01,
1.74689e-01,-6.54319e-02,8.60829e-02,-1.59844e-01,2.48378e-01,7.84824e-02,-1.28100e-01,-1.09729e-01,8.98391e-02,-9.43366e-02,1.89710e-01,-1.79856e-02,-7.28797e-02,2.16115e-01,-1.18673e-04,-1.70912e-01,6.02882e-02,1.77014e-01,1.74398e-02,-2.00074e-01,9.21180e-02,3.24079e-02,-5.27504e-02,-1.74549e-01,-2.08773e-01,-2.29783e-01,-9.95303e-02,2.15065e-01,-1.39232e-01,-1.20270e-01,
2.05823e-01,3.55480e-02,1.75657e-01,-1.18885e-01,3.19754e-02,-1.49725e-01,7.86146e-04,1.83444e-01,3.10784e-02,-1.19814e-01,4.72902e-02,-1.05783e-01,-9.94895e-02,2.46745e-01,-2.63001e-01,-4.94481e-02,-1.67542e-01,8.52003e-02,-1.13026e-01,-1.27066e-01,2.32245e-01,2.28692e-01,9.06867e-02,1.26947e-01,2.11301e-01,1.43003e-01,-1.25320e-01,-1.58890e-01,-1.10970e-01,-1.05454e-02,
-9.48159e-02,5.51133e-02,-1.08341e-01,5.66881e-02,4.99016e-03,-2.16128e-01,1.24868e-01,-1.92247e-01,-5.90387e-03,1.56232e-01,1.91632e-01,2.69636e-01,2.19525e-01,4.34528e-02,-6.51377e-02,-2.45502e-01,1.92548e-01,-9.95663e-02,-2.18026e-01,-4.16894e-02,5.68482e-03,-8.39836e-03,9.04799e-02,3.99895e-02,-2.56435e-02,-1.31934e-01,1.28494e-02,2.15739e-02,1.45277e-01,-1.39627e-01,
7.67430e-02,1.57141e-01,1.69236e-01,1.51806e-01,1.15684e-01,1.63366e-01,-7.79956e-02,2.12720e-01,8.36683e-02,4.23007e-02,-5.26765e-03,1.31681e-01,-8.85706e-02,1.93301e-02,-1.76794e-01,-2.54092e-01,1.85954e-02,-1.75039e-01,2.16471e-01,2.08579e-02,5.27199e-03,5.42664e-02,-5.65260e-02,1.30901e-01,-2.19662e-01,2.01254e-01,-1.47100e-01,4.65992e-03,1.62553e-01,1.37162e-01,
-1.43066e-01,-1.61825e-01,-1.74668e-01,1.81432e-01,4.16605e-02,-1.97667e-02,1.89035e-01,-1.47037e-01,2.26739e-01,-1.52029e-01,-3.92144e-02,-5.26380e-02,8.38149e-02,-2.23976e-01,-2.86120e-01,-2.13874e-01,-1.72474e-01,-1.05372e-01,-2.76974e-02,-9.90422e-02,-2.16214e-01,1.58903e-01,-5.27848e-02,-2.66498e-02,1.93677e-01,1.90328e-01,-8.42812e-02,-2.31143e-01,1.81525e-01,1.91105e-01,
1.40533e-01,-1.52630e-01,1.31502e-01,4.80154e-02,-9.58226e-02,-1.61179e-01,-1.04219e-02,-1.50246e-01,-2.06282e-01,-5.24607e-02,1.25243e-01,2.66383e-01,-1.35359e-01,-1.45852e-01,1.91150e-01,5.42111e-02,-4.01327e-02,-2.98599e-02,-1.55998e-01,-8.87177e-02,-6.71137e-02,-1.03662e-01,-8.76892e-02,1.38727e-01,1.92600e-01,7.07769e-02,7.63096e-02,-1.31026e-01,1.94962e-01,9.31254e-02,
2.32213e-01,8.64407e-02,-2.27866e-01,-8.54481e-02,1.17115e-01,-5.69280e-02,1.52665e-01,4.17356e-02,2.12371e-01,-9.55825e-02,2.46706e-01,1.38722e-01,-1.30199e-01,-2.26266e-01,-1.03369e-02,-1.18419e-01,2.14980e-01,2.55432e-01,-4.62212e-03,-1.18575e-01,9.01235e-02,1.75645e-01,-2.23909e-01,1.51871e-01,1.93990e-02,1.26637e-01,-2.02779e-04,-1.45331e-01,1.76961e-01,8.16171e-02,
-2.27983e-01,-2.03947e-01,1.03394e-01,1.86690e-01,-2.54318e-01,1.76693e-01,-2.25146e-01,-5.88421e-02,1.50333e-01,1.19105e-01,-7.40716e-02,-6.60160e-02,-1.94832e-01,-2.61099e-01,-1.56980e-01,-1.09426e-01,1.35683e-02,5.53325e-02,-2.15009e-02,-4.09183e-02,-1.74329e-01,-2.09479e-01,-1.86072e-01,1.10405e-01,2.16259e-01,1.10951e-01,2.38927e-02,-9.74550e-02,2.31449e-01,-1.47471e-02,
1.54535e-01,2.52372e-01,-1.26201e-01,-2.22018e-01,5.74343e-03,2.01080e-03,8.07053e-02,-8.10273e-02,5.31893e-02,1.83146e-01,-1.04573e-01,-1.60023e-01,3.45013e-02,-1.15426e-02,-3.09294e-01,1.56146e-01,-1.05261e-01,-4.03823e-03,8.26419e-02,6.56821e-02,-5.72097e-02,1.79228e-01,-1.99669e-01,1.55988e-01,-9.54887e-03,-2.19711e-01,2.18832e-01,-1.15765e-01,2.22799e-01,-9.13174e-02,
8.41270e-02,1.96322e-01,-1.99822e-01,1.03684e-01,-1.05768e-01,-1.70087e-01,1.24567e-01,2.62521e-02,-2.51486e-01,1.89245e-02,1.20092e-01,6.67953e-04,-2.18441e-04,-2.01774e-01,8.74998e-02,-8.23567e-02,-2.02860e-01,4.36888e-02,1.26958e-01,-5.30823e-02,-9.40119e-02,1.73542e-01,7.58386e-02,9.46866e-02,-7.99394e-02,2.20374e-01,-4.89974e-02,5.44777e-02,8.92981e-02,-2.44651e-01,
4.40368e-02,5.28293e-02,3.80614e-03,3.24490e-02,-1.99227e-01,-9.40644e-02,-2.47402e-01,5.67896e-02,3.19366e-02,1.54739e-02,-1.36676e-01,-9.39426e-02,-9.91210e-02,-5.51529e-02,8.31069e-02,-4.51876e-02,-1.78889e-01,1.02493e-01,-2.17207e-01,4.30354e-02,-1.95799e-02,-1.96664e-01,-2.39598e-02,1.52274e-01,1.51283e-03,-2.32258e-01,2.46897e-01,-1.90118e-01,-1.93782e-01,-2.28086e-01,
-1.82030e-01,-2.22504e-03,5.77916e-02,3.91974e-03,7.11164e-02,-2.55048e-01,-2.44193e-01,2.28462e-01,-5.63324e-02,-6.85264e-04,-9.44161e-02,1.37793e-01,-1.60961e-01,1.43714e-01,-1.00556e-02,2.50333e-01,-1.65220e-01,-1.02060e-01,2.01436e-01,2.10595e-01,-2.40374e-01,-4.36535e-02,2.08668e-01,-1.53229e-02,4.53185e-02,-7.38853e-02,-2.57316e-01,1.89913e-01,9.27670e-02,-2.09705e-01,
1.20211e-01,-1.93896e-01,5.77494e-02,7.96742e-02,-2.65461e-01,-1.90455e-01,2.45386e-01,-6.83742e-02,1.39666e-01,-1.06005e-02,-2.22267e-01,1.66502e-01,-1.80040e-01,-1.15363e-01,-9.08550e-02,-4.16741e-02,-1.25621e-02,2.24967e-01,-1.55800e-01,5.27965e-02,5.84545e-02,2.45415e-02,9.11685e-02,7.85256e-02,8.16216e-02,-4.75838e-02,4.17062e-02,-1.07788e-01,1.63041e-01,-1.13749e-02,
-8.25961e-02,-1.14018e-01,-2.15022e-01,8.00299e-02,-6.79408e-02,-1.95017e-01,8.13185e-02,-7.25296e-02,7.90789e-02,1.07260e-02,2.11270e-02,2.16272e-01,1.14353e-01,1.78135e-01,3.86962e-02,-6.79352e-02,-1.67424e-02,-9.23170e-02,-1.85071e-01,-4.14062e-02,1.70193e-01,-1.77430e-01,2.07691e-02,2.44621e-01,-7.66847e-02,1.13440e-01,2.32606e-01,1.04770e-01,-1.52968e-01,-2.24109e-01,
5.42632e-02,2.15039e-01,-2.00769e-01,-2.12020e-01,1.60156e-02,-2.50950e-01,-2.33111e-01,-8.62528e-02,1.13995e-01,1.07929e-01,1.29898e-01,7.45997e-02,-1.55815e-02,-1.26871e-01,-4.57623e-02,2.95138e-02,-1.54650e-01,-2.41897e-01,-1.15114e-01,1.13675e-01,1.16193e-01,7.63031e-02,3.05327e-02,-1.12802e-01,-4.15259e-02,3.77590e-02,1.31678e-01,-2.40458e-01,-2.39540e-01,6.49364e-02,
-3.31803e-02,1.45037e-01,-6.60742e-02,1.40403e-01,-1.52132e-01,5.41884e-02,5.38422e-03,9.74489e-02,-1.81286e-01,-1.00882e-01,7.77061e-02,1.20293e-01,1.72806e-01,2.06740e-01,-1.04154e-01,-1.95941e-01,-3.63405e-02,3.07736e-02,-1.86502e-01,2.16640e-01,2.45930e-01,-2.01910e-01,6.15704e-02,8.88505e-03,2.16634e-01,-2.87803e-02,1.34209e-01,-2.38758e-02,1.69858e-01,-2.39801e-01,
2.28526e-01,7.76278e-02,2.47864e-02,2.07207e-02,-2.63272e-01,-2.60148e-01,-1.66101e-02,-1.85349e-02,9.97483e-02,9.96375e-02,4.36697e-03,-8.81617e-02,3.65858e-02,2.19686e-01,1.30326e-03,-2.16875e-01,-2.56375e-01,-4.50237e-02,1.90979e-01,-2.36206e-01,-1.91175e-01,-1.64510e-01,-2.04926e-01,2.90956e-02,1.45959e-01,-8.71802e-02,1.92641e-01,-2.52029e-01,1.82125e-01,-5.81522e-02,
1.19515e-01,8.67922e-02,-1.56492e-01,-1.01567e-01,1.02599e-01,-5.86156e-02,1.69166e-01,2.07266e-01,2.86167e-02,2.63267e-01,6.07707e-02,-9.89840e-02,4.73917e-02,-1.98248e-02,1.16071e-01,-1.13223e-01,-2.01386e-01,1.24841e-01,9.22932e-02,2.16837e-01,7.76630e-02,8.22230e-02,6.20131e-02,8.26018e-02,2.05689e-01,1.96051e-01,-1.12377e-02,2.71037e-02,-9.95478e-02,2.18834e-01,
-8.17463e-02,-5.09048e-02,-1.15493e-01,5.05510e-03,-1.02566e-01,-2.12969e-01,2.25387e-01,-1.42306e-01,-1.03617e-01,3.79684e-02,6.70595e-02,1.25400e-01,-2.04836e-01,1.74165e-01,-6.86693e-02,7.31475e-02,-2.38835e-02,2.54896e-01,1.89579e-01,1.20601e-01,1.60457e-01,-1.76406e-01,-4.32145e-02,1.60319e-01,1.97180e-01,1.44601e-01,2.33960e-01,2.27311e-01,-5.62831e-02,2.09743e-01,
1.64610e-01,-4.32189e-02,-6.23126e-02,1.46328e-01,2.17454e-01,-2.12729e-01,-2.46978e-01,-9.92829e-02,7.66008e-02,-2.25807e-01,6.94503e-02,2.28764e-01,7.35110e-02,6.73386e-02,-1.06854e-01,1.30461e-01,-6.62512e-02,-1.59321e-02,-1.54478e-01,-1.66865e-01,1.37263e-01,-1.71288e-01,1.93887e-01,-2.46122e-01,-8.63584e-02,-1.33015e-01,1.58734e-01,-4.08744e-02,-2.05923e-02,-3.76565e-02,
-2.27088e-02,-2.05486e-01,1.23450e-01,2.15680e-01,-2.40459e-01,1.67317e-01,-2.60028e-01,-3.90887e-02,2.43767e-02,2.20999e-01,1.84860e-02,1.72192e-01,-1.22911e-01,1.78510e-01,1.09430e-01,-1.36319e-01,4.50295e-02,-1.65766e-01,-1.72127e-01,1.99480e-01,1.86028e-01,5.28102e-02,8.47980e-02,-1.18618e-01,-1.73090e-01,-2.66896e-02,-2.33879e-01,1.08856e-01,1.25400e-01,-1.76732e-01,
-1.46211e-01,-1.80363e-01,-6.66571e-02,-1.60008e-01,7.14102e-02,-9.46290e-02,-1.19521e-01,-1.48800e-02,-2.19640e-01,-6.71563e-03,1.86976e-01,1.15572e-01,5.03524e-02,5.40010e-02,-5.89602e-02,-1.24587e-01,-1.82019e-01,1.48419e-01,-1.64510e-01,2.48448e-02,-6.99448e-02,-1.54247e-01,1.76462e-01,1.99455e-01,-2.14513e-01,1.57560e-01,2.28183e-01,-3.58836e-02,1.23562e-01,1.52275e-02,
1.38629e-01,-1.86590e-01,-9.11623e-02,5.12081e-02,2.70123e-01,2.57629e-01,1.97131e-01,6.02353e-02,-2.28718e-03,-9.97429e-02,-5.20280e-02,-1.37901e-01,9.80820e-02,-1.34539e-01,1.32538e-01,2.13417e-01,-1.24118e-01,1.67373e-01,-5.40826e-02,-1.52885e-01,-4.05767e-02,4.84605e-02,1.59242e-01,-1.33219e-01,-1.50682e-01,1.81870e-01,-5.86063e-02,2.28838e-01,2.38270e-01,1.37292e-01,
-9.74721e-02,1.14293e-01,-2.65080e-01,-9.79254e-02,1.91528e-01,9.30223e-02,-1.08857e-01,-1.49858e-01,2.66888e-01,-2.48084e-01,2.30726e-01,-1.86582e-01,1.72009e-01,2.10495e-01,1.05234e-01,2.64436e-01,3.54549e-02,6.95094e-02,9.27755e-02,-1.73746e-01,1.44944e-01,4.11971e-02,2.73974e-02,-2.02008e-02,-1.72215e-01,-5.16932e-02,-1.37072e-01,-1.09109e-01,2.90130e-02,1.65390e-01,
-1.09843e-01,1.12852e-01,2.14740e-02,-1.41825e-01,1.91552e-01,1.07997e-02,-2.19623e-01,-1.16244e-01,-1.38020e-01,9.70245e-02,-1.03130e-01,-2.24555e-01,8.00720e-02,1.06153e-01,-8.26880e-02,-6.99834e-02,-1.91819e-01,4.02055e-02,-1.24872e-02,-4.75372e-02,1.07761e-02,1.41351e-01,1.59547e-02,3.83334e-02,-8.34626e-02,6.50136e-02,2.73995e-02,1.13896e-01,6.30959e-02,3.99177e-02,
-1.01282e-01,-1.26921e-01,-4.60526e-02,4.06629e-03,-2.56261e-01,-2.38599e-01,-1.85520e-01,-6.98643e-02,1.06537e-01,-2.51641e-01,1.56166e-01,-2.42173e-01,-2.48797e-02,-1.77152e-02,-6.05305e-02,1.55115e-01,3.96539e-02,-2.78216e-02,1.82070e-01,2.10368e-01,-1.12960e-01,2.15654e-01,-8.85826e-02,1.15062e-01,-1.04367e-01,-1.04830e-01,-4.29670e-02,2.39007e-01,-2.47779e-01,-8.98147e-02,
7.86584e-02,6.87347e-02,1.79046e-01,1.93984e-01,-8.72102e-02,-1.10918e-01,-1.22076e-01,1.83924e-01,-1.38567e-02,1.83632e-01,2.12964e-01,-8.02332e-02,-1.17739e-02,2.78754e-01,-2.22721e-01,-2.53640e-01,-5.65727e-02,-9.71651e-02,-5.28152e-02,-2.86402e-02,2.80719e-01,2.26415e-01,1.24373e-01,-9.24490e-02,5.51430e-02,-2.08852e-01,1.87245e-01,-7.76690e-02,-1.07498e-01,2.20898e-01,
1.26963e-01,1.09329e-02,-8.58525e-02,1.29367e-01,-2.75083e-02,-1.48566e-02,1.47187e-01,9.75952e-02,-8.41825e-02,2.41503e-02,2.14050e-01,-1.40377e-01,-7.80286e-02,-1.39070e-02,7.33893e-02,-1.62145e-01,8.13759e-03,-1.45836e-01,2.35243e-01,2.31301e-01,-9.83885e-02,-1.79094e-01,-1.90783e-01,-4.80611e-02,-2.10985e-01,2.29523e-01,-1.97539e-02,-1.13566e-01,8.41996e-02,1.21286e-01,
-1.08391e-02,
2.32908e-03,
0.00000e+00,
1.51452e-02,
1.58307e-02,
2.80139e-02,
4.84288e-03,
2.87116e-03,
1.30236e-02,
4.98986e-04,
-1.06107e-02,
6.11452e-03,
-1.23057e-02,
-3.68565e-03,
2.17630e-03,
2.13223e-02,
6.06619e-03,
1.11040e-02,
-2.45125e-02,
0.00000e+00,
-4.00587e-03,
1.05623e-02,
2.00971e-02,
0.00000e+00,
-3.69034e-03,
-3.66746e-03,
4.39158e-03,
1.12602e-02,
-1.49482e-02,
2.49907e-02,
1.24707e-02,
2.08004e-03,
6.32181e-03,
2.00141e-02,
6.10792e-03,
-4.60950e-03,
0.00000e+00,
2.25196e-02,
-1.11570e-03,
-1.20089e-03,
-8.74099e-03,
-8.92760e-03,
1.43887e-03,
-1.81679e-02,
1.64818e-02,
3.86239e-04,
0.00000e+00,
-6.41563e-03,
-8.46763e-03,
1.16076e-03,
0.00000e+00,
-3.44079e-03,
-3.21400e-03,
1.86282e-02,
1.69799e-02,
0.00000e+00,
-2.50563e-02,
1.19104e-02,
9.97778e-03,
-1.61062e-02,
1.23221e-02,
-1.09768e-02,
3.75844e-02,
-9.17189e-03,
1.08419e-01,4.47549e-02,1.80844e-01,1.66664e-01,1.87014e-01,2.90310e-02,1.10956e-01,2.56126e-01,-8.03925e-02,-2.15326e-01,2.22960e-01,-9.21732e-02,6.30593e-02,1.39132e-01,-1.91110e-01,-7.49431e-03,-5.59807e-02,2.43151e-02,1.96083e-01,9.05985e-02,6.92266e-03,2.39946e-02,1.21349e-01,6.68997e-02,-1.87516e-01,-8.40874e-02,9.85119e-02,-1.54890e-01,1.18263e-01,-3.53073e-02,4.83565e-02,3.36183e-02,2.08081e-01,-8.53177e-02,-5.35727e-02,5.41202e-02,-8.84530e-02,-2.17832e-01,2.15177e-01,2.02388e-01,1.05068e-01,-3.18189e-02,-3.07084e-02,1.18153e-01,1.06754e-01,8.46878e-02,1.30199e-01,-2.40956e-01,-1.33407e-01,-5.21316e-02,1.77744e-01,2.42785e-01,-1.25701e-01,2.31165e-01,-1.46192e-01,2.05780e-02,-1.75637e-01,-2.32803e-01,-7.21674e-02,4.48553e-02,1.53179e-01,-1.57532e-01,2.58116e-02,1.21235e-01,
2.96719e-02,7.69315e-02,2.35360e-01,9.54085e-02,2.09593e-01,-3.67677e-02,-3.98932e-02,2.24989e-01,1.89932e-01,1.09219e-01,1.23101e-02,-1.55331e-01,1.25154e-01,4.86384e-02,-2.44881e-01,-8.97608e-02,1.74891e-01,1.84016e-01,-1.30613e-01,1.24372e-01,4.25798e-04,-1.85961e-01,-2.15426e-01,2.21731e-01,6.34078e-03,-1.85222e-01,2.36677e-01,-2.30411e-01,3.74358e-02,-5.96911e-02,-2.15552e-01,-7.17145e-02,-1.64676e-01,1.19323e-01,1.44016e-01,-4.63864e-02,1.00082e-01,-2.61233e-01,-1.93220e-01,1.69585e-01,9.35105e-03,8.57182e-02,-9.65416e-02,-7.90247e-02,-6.57909e-02,5.82011e-02,2.42474e-01,1.32587e-01,7.11944e-02,-2.33506e-01,-1.37088e-01,-1.94532e-01,5.80109e-02,1.39035e-01,-1.02964e-01,1.37396e-01,1.21876e-01,-1.85751e-01,1.00559e-01,2.32696e-02,-1.24212e-01,2.40716e-01,4.75982e-02,1.12835e-01,
2.11306e-01,1.29864e-01,8.89797e-02,-2.04111e-01,2.04281e-01,1.62118e-01,-5.38337e-02,-7.38451e-02,-1.08641e-01,-1.00011e-01,-1.03822e-01,-4.29041e-02,-8.08050e-02,-1.00948e-01,1.29427e-01,2.23207e-01,1.99646e-02,6.62276e-02,9.06733e-02,-1.94910e-01,-6.22646e-02,-4.71010e-02,-2.27084e-01,1.27484e-01,-1.62529e-01,8.00428e-02,1.31969e-02,4.52469e-02,-7.70639e-03,-2.27098e-01,-2.46953e-01,-1.73629e-01,6.43688e-02,2.16627e-01,-8.80820e-03,-2.30452e-02,2.13366e-01,-4.39323e-02,-2.33273e-01,1.09673e-01,-2.28465e-01,2.17923e-01,-2.37970e-01,-6.16575e-02,2.11552e-01,-1.87553e-01,-1.91137e-01,-5.85574e-02,-9.30181e-02,-1.77741e-01,-1.72998e-01,1.17232e-01,-1.26784e-01,-2.22476e-01,-2.41796e-01,-1.87322e-01,1.16961e-02,-1.68354e-02,-4.41380e-02,7.93864e-02,2.22660e-01,-2.15714e-01,-1.71959e-01,2.32061e-01,
-1.44976e-01,2.04932e-01,3.20621e-02,2.56579e-01,8.92835e-02,1.03369e-01,8.26181e-02,1.48141e-01,-7.16906e-02,-1.76919e-01,-1.92981e-01,-9.39838e-02,7.80982e-02,-1.08465e-01,-1.13337e-01,1.64514e-01,-5.14681e-02,-2.65204e-01,-5.91771e-02,3.76783e-02,-7.25567e-02,-5.76194e-02,1.29933e-01,-7.82342e-02,1.23217e-02,-2.37168e-01,-1.38332e-01,4.95599e-03,2.57301e-01,6.69333e-03,1.49404e-01,4.61673e-02,6.80674e-02,1.16014e-01,2.40889e-01,2.15354e-01,7.67896e-02,2.69093e-01,2.29434e-01,2.51510e-01,4.07709e-02,-2.66000e-01,8.44386e-02,-1.82570e-01,1.25076e-01,1.10148e-01,3.81668e-02,1.76323e-01,-2.13464e-02,2.01248e-01,-2.27538e-01,-2.26676e-01,4.20171e-02,-9.25678e-02,1.07083e-01,-1.06000e-01,-1.35274e-01,3.18805e-02,7.59284e-02,2.02316e-01,-1.90259e-01,-1.98870e-01,-1.29064e-01,-5.84601e-02,
1.15577e-01,-4.54989e-02,6.26850e-02,-2.68638e-02,-8.36092e-02,-1.65772e-01,-1.99807e-01,6.95979e-02,-2.46184e-01,8.07565e-03,-1.91372e-01,2.60589e-02,-9.50811e-02,6.02344e-02,-9.73040e-02,-1.95921e-02,-2.25064e-01,-1.68680e-01,5.05168e-02,-6.91199e-02,2.26121e-01,-2.16585e-01,9.66908e-02,-1.71248e-02,2.19271e-01,9.16428e-02,-9.47084e-02,2.17258e-01,1.93041e-01,-1.72792e-01,1.10074e-01,-1.36219e-01,1.87436e-01,-2.18478e-01,-2.38403e-01,-2.13491e-01,6.09570e-02,-1.90944e-01,-1.41612e-02,1.44242e-01,2.20185e-01,-2.19654e-01,-3.15247e-02,-4.68389e-02,1.10309e-01,-6.32598e-02,-6.94754e-02,-8.86344e-02,7.95838e-02,-5.44378e-02,-6.72798e-02,-1.54213e-01,-9.05485e-02,-7.98550e-02,-1.83135e-01,1.21836e-01,1.72042e-01,-1.32346e-01,-1.74347e-01,1.91381e-01,1.99808e-01,1.90672e-01,-2.18053e-01,-7.57202e-02,
1.97951e-01,1.88960e-01,1.82658e-01,-7.68412e-02,1.79439e-01,-1.19217e-02,-1.30503e-01,9.65589e-03,8.56032e-02,-9.09724e-02,-7.93005e-02,-1.99242e-01,9.08498e-02,-2.36856e-01,2.41224e-01,-1.25734e-01,-1.81489e-01,1.59891e-01,-1.71119e-01,-7.97594e-02,-2.44823e-01,1.85700e-01,1.50705e-01,-1.92018e-01,5.08923e-03,1.90577e-01,-1.85054e-01,-4.44782e-03,-2.02074e-01,1.31133e-01,2.20030e-01,9.55717e-02,1.10075e-01,-1.49272e-01,-1.43162e-01,-9.05625e-02,5.74763e-02,-2.12610e-01,-4.98718e-02,-5.03951e-02,-1.82126e-01,1.90524e-01,-6.45998e-02,7.09747e-02,-1.58480e-01,1.88453e-01,-6.61628e-02,-1.84825e-01,-2.19104e-01,2.08735e-01,-2.49935e-01,-1.45489e-01,-1.29714e-01,1.47829e-01,-4.00487e-02,-8.05639e-02,1.76694e-01,2.39840e-01,-5.13870e-03,3.45256e-02,3.86056e-02,-6.98764e-02,-2.65173e-01,-1.69459e-02,
2.47063e-01,7.79524e-03,-1.69477e-01,-1.54864e-02,-6.87390e-02,2.20010e-02,-1.16185e-01,1.59593e-01,2.41033e-01,4.90947e-02,-1.65160e-01,-2.06714e-01,-6.51499e-03,4.58811e-02,1.92023e-01,1.81314e-01,-9.87063e-02,9.40065e-02,-1.37336e-01,2.42779e-01,-1.75427e-02,2.33507e-01,2.16108e-01,1.58999e-01,-1.34509e-01,-7.07847e-02,5.53421e-02,1.33301e-01,-1.78793e-01,1.25883e-01,-1.43159e-01,1.32993e-01,1.89991e-01,-5.18382e-02,3.41937e-02,-5.11246e-02,2.42965e-01,2.27887e-01,-9.25568e-02,7.75854e-03,1.65431e-01,-6.86897e-02,1.04112e-01,2.56030e-02,1.07429e-01,-1.06970e-01,-1.75377e-01,1.19160e-01,2.10585e-01,-1.86934e-01,-1.58123e-01,-1.16426e-02,-4.78568e-02,-1.37038e-01,2.26759e-05,-1.16560e-01,2.42095e-01,9.11561e-02,-2.11445e-01,-7.59269e-02,-5.91073e-02,-2.28869e-01,6.67436e-02,-2.10147e-01,
1.15703e-01,-4.79873e-02,-1.94493e-01,1.48950e-01,1.50584e-02,1.27903e-01,-2.16961e-01,-6.16330e-02,1.49855e-01,-1.70832e-01,8.60278e-02,-2.56944e-01,2.49173e-01,1.62704e-01,-1.20669e-01,-1.24539e-01,1.07418e-02,9.99143e-02,-2.05691e-01,-2.31622e-01,-7.78991e-02,-1.17389e-01,-6.71327e-02,9.36703e-02,6.88793e-02,-2.60265e-01,-1.22020e-01,9.84085e-02,-1.25389e-01,-6.35958e-02,9.16695e-02,1.98677e-01,7.70197e-02,-1.38128e-01,2.17847e-01,8.29789e-02,-1.52422e-01,-4.68127e-02,7.78119e-02,2.02431e-01,-2.21701e-01,1.34110e-01,1.47825e-01,-2.28325e-01,-2.81599e-01,-1.13423e-01,8.59725e-03,-1.28351e-01,6.61628e-02,1.08215e-01,5.15120e-02,2.17018e-01,2.14545e-01,2.41822e-01,1.92513e-02,9.65418e-02,2.03518e-01,8.08581e-02,8.91823e-02,1.32694e-01,-7.23985e-02,-2.14259e-01,-2.14340e-01,1.04620e-01,
-4.61439e-02,-3.96406e-02,5.82361e-02,3.40430e-02,2.96455e-01,-7.10194e-02,1.55985e-01,7.79403e-02,-1.61847e-01,-1.05379e-01,-1.52285e-01,1.41700e-01,2.28324e-01,1.15503e-01,-1.44718e-01,-2.23619e-01,-2.12750e-01,-1.72115e-01,7.17807e-02,1.02299e-01,1.53466e-02,1.76110e-01,1.62752e-01,-3.72837e-02,2.48981e-02,6.83603e-02,-1.68959e-01,-6.95537e-02,-1.59164e-01,1.23474e-01,-1.41735e-02,-1.23271e-01,2.21872e-01,1.20240e-01,1.58352e-01,1.44858e-01,-1.59041e-01,1.80746e-01,-1.11405e-01,-1.94671e-01,-7.00431e-02,1.46731e-01,1.96062e-01,1.03484e-01,-9.56982e-04,1.64733e-01,2.13378e-01,1.05393e-01,7.04037e-02,-1.08584e-03,9.50828e-02,1.59678e-01,-3.37297e-02,-1.77186e-01,-8.19689e-02,-2.08955e-01,9.43274e-02,1.13054e-01,-4.65013e-02,3.74132e-02,-5.57120e-02,1.20636e-01,1.61772e-01,-2.31807e-02,
3.39420e-02,7.37801e-02,5.17780e-02,3.26814e-02,3.36337e-02,7.93635e-02,2.44208e-01,-2.02531e-01,-9.30626e-04,1.09914e-01,-1.99213e-01,1.87249e-01,1.39392e-01,-1.24108e-01,-1.14952e-02,2.43615e-01,1.62939e-01,-1.30772e-01,-2.25821e-01,1.78564e-01,-1.72134e-01,2.57559e-01,-1.49606e-01,7.32217e-02,1.78958e-01,7.37254e-02,6.78886e-02,7.93320e-02,1.16490e-01,-1.83611e-01,8.91967e-02,-1.68723e-01,-4.21066e-02,-1.20102e-01,-1.33194e-01,-1.86042e-01,-1.11059e-01,-1.35724e-01,-1.97340e-01,4.67646e-02,-6.13365e-02,1.02891e-03,-2.27733e-01,-2.23774e-01,9.22357e-02,2.57415e-02,9.06708e-02,-6.95190e-02,1.99006e-02,2.63727e-01,-2.32427e-02,-2.43784e-02,-1.06646e-01,-8.44109e-02,-9.72521e-02,2.36539e-01,-4.76069e-02,-1.11646e-01,1.75645e-01,-2.61861e-01,-1.09479e-01,-1.46506e-02,2.06703e-01,-1.76133e-01,
-1.58837e-01,-1.74427e-01,6.51934e-02,2.34378e-01,1.97415e-01,-1.30991e-01,1.36703e-01,-7.94002e-02,-2.53389e-02,-7.58725e-02,2.10151e-01,2.70215e-02,5.83651e-02,-7.71382e-02,1.85665e-01,6.29023e-02,-1.74009e-01,-2.68746e-01,-2.04639e-01,2.26228e-01,2.14902e-01,-2.62641e-03,-9.03040e-02,-7.19852e-02,4.71634e-02,-1.19604e-02,-2.25160e-01,-3.16259e-02,-2.30083e-01,-1.68774e-01,-6.58264e-02,-1.39783e-01,-2.45000e-02,-1.64752e-01,7.88609e-02,9.08469e-02,-2.80637e-02,-9.50804e-02,1.58791e-01,1.80039e-01,-2.09284e-01,1.19153e-01,1.24664e-01,-8.60620e-02,-4.16133e-02,6.01515e-02,-2.31378e-01,-2.53245e-02,-1.87502e-01,-1.46421e-01,2.17243e-01,2.10364e-01,1.67349e-01,-2.33706e-02,2.85733e-02,2.45164e-01,2.38928e-01,1.55272e-01,-2.16147e-01,-2.45870e-01,1.21087e-01,-2.33965e-01,1.11989e-01,-8.69998e-03,
1.18762e-01,-1.49475e-01,1.06504e-02,-1.87456e-01,1.16490e-01,1.12580e-01,3.71124e-02,8.22066e-02,1.23180e-01,1.93262e-01,-1.99633e-01,-2.49426e-02,-1.84361e-01,-1.05780e-01,2.46681e-01,-1.11845e-02,-2.06974e-01,8.67437e-03,1.74633e-01,1.46640e-01,1.93183e-01,-1.60537e-01,2.41736e-01,1.31557e-01,3.07716e-02,-8.26011e-02,-6.39728e-02,-1.30936e-01,-4.66225e-02,1.95175e-01,1.37294e-01,-2.13515e-01,-2.09459e-01,-1.77494e-01,-1.37607e-01,2.09295e-01,7.45721e-02,6.41401e-02,3.11455e-02,1.89310e-01,1.80817e-01,1.17053e-01,-2.33878e-01,1.82595e-01,-2.17611e-02,-5.28458e-02,-6.93609e-02,2.37237e-01,-2.31335e-01,1.95328e-01,7.82988e-02,1.60221e-01,-1.52693e-01,5.16724e-02,1.67172e-01,1.13234e-01,1.15264e-01,-1.81229e-01,1.20148e-01,5.50768e-02,6.78993e-02,-2.05020e-01,-2.40619e-01,3.11301e-02,
-2.00116e-01,2.25450e-01,1.59331e-01,1.66684e-01,-9.56999e-02,-1.48655e-01,-1.33492e-01,-1.42834e-01,1.37940e-01,-1.24540e-01,2.21363e-01,9.69163e-02,-1.08098e-01,1.74521e-01,1.46045e-01,-2.38835e-01,-1.99109e-01,-2.34882e-01,-1.74708e-01,-4.85179e-02,-4.10664e-02,6.04789e-02,2.37573e-02,1.83253e-01,1.22509e-01,-9.55731e-02,-1.16875e-01,1.08294e-01,1.21601e-01,-5.81484e-03,-1.18326e-01,-1.24820e-01,-2.42699e-01,-5.92181e-02,1.05465e-01,1.50297e-01,-1.76216e-01,2.02853e-01,1.20972e-01,-1.74097e-01,2.12414e-01,2.17963e-01,-1.07440e-01,2.11195e-01,1.04831e-02,-1.55483e-01,6.82576e-02,1.44017e-01,-6.48133e-02,2.05356e-01,3.32173e-02,-2.47458e-01,7.00780e-02,-2.17580e-02,-2.04823e-01,-8.87796e-02,8.07071e-03,1.08286e-01,-2.02293e-01,2.29107e-01,2.14791e-01,-2.14296e-01,-2.52164e-01,3.85638e-02,
1.74217e-02,-2.19301e-01,-1.47150e-01,-1.01400e-01,-6.49652e-02,2.10820e-01,4.17866e-02,-1.85574e-01,-1.51043e-01,-1.96841e-01,-8.34090e-02,1.21975e-01,1.11390e-01,-1.78532e-01,-8.81657e-02,-7.87758e-02,9.62539e-02,-2.43709e-01,-1.88404e-01,5.76529e-02,-2.06872e-01,1.75478e-01,6.94106e-02,1.17003e-01,-4.15001e-02,2.40842e-02,-1.99205e-01,-1.84838e-01,1.19465e-01,-8.81953e-02,6.24218e-02,7.41232e-02,-1.25298e-01,2.46238e-02,-1.03212e-01,1.54983e-01,1.60775e-02,2.08853e-01,-5.55003e-02,-1.87654e-01,1.24395e-01,-2.50313e-02,1.90659e-01,-8.01806e-02,-9.87125e-02,5.83455e-02,-7.97971e-02,1.21380e-01,2.37120e-01,-3.21610e-02,8.18279e-02,-2.40975e-01,-2.73762e-02,-1.26930e-01,2.23442e-01,2.83349e-02,-1.35048e-01,9.96145e-02,-1.76378e-01,9.75478e-03,-8.00933e-02,-6.81776e-02,1.44571e-01,-4.84278e-02,
9.96624e-02,1.51737e-02,-1.54791e-01,-1.98345e-01,-5.82530e-02,2.13955e-01,1.42077e-01,4.97881e-02,-1.06595e-01,7.07387e-02,7.45299e-02,-1.60020e-01,-8.88977e-02,-1.03789e-01,5.40092e-02,-1.88301e-01,-1.68897e-01,-8.62591e-02,-1.85872e-01,-9.34460e-02,-9.49401e-02,1.33228e-01,-5.94681e-02,-2.10293e-01,6.49909e-02,-5.77109e-02,2.31648e-01,1.10335e-01,9.43723e-02,-2.29768e-01,1.62394e-01,-2.24204e-01,5.84341e-02,-9.82988e-03,-1.83743e-01,-4.69730e-02,-1.20344e-01,1.23518e-01,-1.13947e-01,-2.25248e-01,-1.57215e-01,1.97032e-01,-1.80447e-01,6.59622e-02,3.36432e-03,-1.44976e-01,2.26520e-01,9.60945e-02,-2.48799e-01,2.87227e-02,-6.68925e-02,-1.42674e-01,-1.10242e-01,9.51362e-02,1.34305e-01,1.80806e-01,4.33961e-02,1.29989e-01,-1.47349e-01,2.01088e-01,2.06289e-01,-1.09484e-01,-1.57962e-01,-2.36773e-01,
1.79287e-01,2.35600e-01,-1.76757e-01,3.68814e-02,2.22882e-01,-1.20141e-01,-1.34648e-01,-1.46087e-01,-1.04984e-01,4.51084e-02,-8.58914e-02,2.21241e-02,-5.08592e-02,-1.45375e-02,-2.52008e-01,6.34545e-02,1.51051e-01,6.46342e-02,3.78783e-02,1.92895e-02,-9.65027e-02,5.60605e-02,-5.90772e-02,1.98489e-01,-9.48382e-02,-2.13325e-01,-1.73347e-01,5.65285e-02,-2.32724e-01,2.21388e-01,1.69491e-01,1.31834e-01,-1.11250e-01,-2.20537e-01,-3.72005e-02,1.63572e-01,-7.95987e-02,1.55719e-01,1.97563e-02,5.02330e-02,1.32606e-01,2.00949e-01,-1.52968e-01,9.61527e-02,-2.23559e-03,2.40492e-01,-1.16430e-02,1.67803e-02,-1.40068e-01,-2.50737e-01,-9.78212e-02,1.01015e-01,2.96198e-02,-1.93347e-01,1.46690e-01,-1.98546e-02,-1.60321e-02,-2.38556e-01,-1.78662e-01,-7.45773e-02,3.69489e-03,1.90291e-01,1.21919e-01,-1.94404e-01,
-9.00522e-02,1.01436e-02,-1.75402e-01,-1.78786e-01,4.41296e-03,-2.00779e-01,-3.30008e-02,-2.25604e-01,1.97736e-01,-6.74903e-02,2.31274e-01,-6.04165e-02,2.01866e-01,-2.60415e-01,-6.72676e-02,6.96204e-02,-1.78910e-01,1.06872e-01,-2.85509e-02,8.48169e-02,2.20132e-01,-7.31845e-02,-9.38667e-02,1.23515e-01,-4.39982e-02,2.08223e-01,6.18361e-02,-1.08608e-02,4.25780e-02,6.26705e-03,1.09945e-01,-1.02783e-02,-7.73176e-02,-7.34884e-02,1.18958e-02,-4.58615e-02,-1.81002e-01,-6.85281e-02,-1.13815e-01,-1.45405e-01,3.49915e-02,-1.94400e-01,2.12580e-01,2.33157e-01,9.04902e-02,2.38407e-02,2.35402e-01,-8.85608e-02,2.45644e-01,9.38191e-02,-1.00618e-01,-1.46543e-01,-2.24678e-01,1.04586e-02,-1.86256e-01,-1.52862e-01,6.35182e-02,2.98429e-02,-1.87208e-02,1.56645e-01,-7.93855e-02,1.57916e-01,2.64862e-01,2.71303e-01,
-1.96264e-01,1.63585e-01,1.79741e-01,1.41692e-01,-1.63758e-01,2.15195e-01,2.34240e-01,-5.56959e-02,1.33792e-01,-8.53261e-02,-9.71847e-02,-1.95080e-01,4.46159e-02,-4.52699e-02,-1.96624e-01,1.42560e-01,-6.15125e-02,1.45599e-01,3.75853e-02,1.25629e-01,-2.58832e-01,-5.67625e-02,1.79395e-01,2.33551e-01,-8.43298e-03,2.05533e-01,-1.03843e-01,-1.82654e-01,4.43903e-02,1.50728e-01,-2.18468e-01,1.06832e-01,-2.11157e-01,7.01577e-02,1.44181e-01,-6.20118e-02,-1.50810e-01,1.94906e-01,2.18419e-01,-1.17562e-01,2.25419e-01,1.30986e-01,1.51492e-01,1.81992e-01,1.27719e-01,2.26419e-01,-7.79898e-02,5.52953e-02,1.15937e-01,-2.42052e-01,-6.74776e-02,-1.14203e-01,-1.34960e-01,-2.03479e-01,-7.32164e-02,-2.07507e-01,1.15905e-02,1.20516e-01,1.27776e-01,-6.32984e-03,1.01752e-01,7.42238e-02,1.58020e-01,2.32238e-01,
-6.24504e-02,-1.58609e-01,2.08366e-01,-3.19868e-02,-1.59563e-01,-2.21403e-01,-1.45816e-01,1.73217e-02,9.99046e-02,-6.88728e-02,-8.38076e-02,1.99057e-01,-2.08918e-01,-2.60257e-01,1.94908e-02,2.55643e-01,-8.10228e-02,-2.08764e-01,1.96622e-01,-1.09546e-01,1.82056e-01,2.50474e-01,1.66215e-01,2.26930e-02,1.97008e-01,-2.29884e-01,-1.43690e-01,-1.86873e-01,1.50980e-01,2.27266e-03,3.95362e-02,2.38012e-01,-2.14558e-01,-6.60635e-02,1.66016e-01,1.81918e-01,3.48997e-02,2.38947e-01,-4.20321e-02,2.47235e-01,1.86392e-01,-1.01498e-03,1.23713e-01,2.42871e-01,1.73003e-01,2.00985e-01,-1.35063e-01,2.39597e-01,-1.88963e-02,2.38391e-02,-1.92938e-01,6.32026e-02,9.65173e-02,-2.83305e-02,2.46546e-01,-1.60698e-01,-8.06216e-02,1.61272e-01,-7.09764e-02,-2.25894e-01,3.01932e-01,-2.33711e-01,2.62660e-01,-2.38938e-01,
2.20728e-01,-1.81454e-01,2.24769e-03,1.38339e-01,1.33947e-01,2.78735e-01,1.18793e-01,-3.05595e-02,-3.02566e-02,1.63513e-01,2.40628e-01,1.09761e-01,-2.14036e-02,-1.83531e-01,-1.08633e-01,7.81087e-02,2.33356e-01,1.26078e-01,-1.70856e-01,3.98216e-02,-2.22975e-01,-8.92160e-02,1.82612e-01,-5.29985e-02,-2.06677e-01,7.63900e-02,8.52748e-02,1.68242e-02,1.39880e-01,1.98851e-01,-1.37119e-01,-2.09483e-01,-1.46984e-01,-4.50107e-02,6.19775e-04,1.91038e-01,2.60763e-02,-1.47279e-02,-2.83808e-02,3.50534e-02,-2.27102e-01,2.30436e-01,7.71140e-02,2.22681e-01,-8.40224e-02,-1.65595e-01,-2.80389e-02,4.04529e-02,-3.03846e-02,-3.09365e-02,-7.86338e-02,-2.66251e-02,-7.15930e-02,-6.67888e-02,-8.15096e-02,-1.21615e-01,1.39355e-01,1.57425e-01,1.80004e-01,6.81557e-02,-2.08445e-01,-2.40460e-01,-2.28478e-01,-6.93075e-02,
-1.85980e-01,-9.48585e-02,1.82834e-01,-2.00625e-01,1.52869e-01,7.56105e-02,-7.41654e-02,1.93304e-01,1.71354e-01,-8.28912e-02,-1.06165e-01,1.04592e-01,-6.66103e-02,-5.85572e-02,2.48184e-02,2.13211e-01,-8.42121e-03,2.02631e-01,2.28920e-01,1.13635e-01,-3.96833e-02,-1.97737e-01,1.94714e-01,-2.24309e-01,1.55316e-01,7.55369e-03,2.13126e-01,-1.37790e-01,4.38975e-02,9.50191e-02,2.72175e-01,-1.29564e-01,-1.62872e-01,1.94499e-01,1.34161e-01,8.21758e-02,-1.58722e-01,1.08626e-01,-1.40338e-01,2.20724e-01,-1.22723e-01,1.29073e-01,-1.40622e-01,5.78148e-02,2.16082e-01,-1.12218e-01,2.24253e-01,-1.12767e-01,-2.37752e-03,-2.11209e-01,-1.19388e-01,-1.55684e-01,1.56921e-01,-7.19263e-02,-3.01856e-02,1.26376e-01,-1.80863e-01,1.61689e-01,-1.17394e-01,-6.73184e-02,-1.26834e-01,-2.35395e-02,1.01204e-01,8.17499e-02,
-2.21828e-01,8.25789e-02,1.01669e-01,2.43513e-02,-1.75326e-01,2.31703e-02,-1.63042e-01,1.97775e-01,-5.90306e-02,1.41525e-01,2.16984e-02,7.53439e-02,-2.03240e-02,-4.40713e-02,2.24970e-02,-2.17751e-01,-5.43742e-04,-2.84259e-01,-3.80404e-02,1.87490e-01,1.30027e-02,4.84207e-02,-4.40018e-02,-3.10372e-02,-2.04419e-02,-2.52954e-01,7.81480e-02,-5.29208e-02,-2.16396e-01,-1.89852e-01,-7.24763e-02,1.56313e-01,1.01280e-01,-1.73855e-01,-2.13753e-01,2.42064e-01,-1.25253e-01,1.08240e-02,-6.85984e-02,1.82723e-01,1.45445e-01,-2.55672e-01,1.83595e-01,1.02969e-02,2.32057e-01,-2.56940e-01,9.61530e-02,8.78962e-02,-1.84129e-01,-1.58146e-01,-1.13298e-01,1.23061e-01,2.04003e-01,1.34130e-01,3.95567e-02,-9.21830e-02,4.40589e-03,1.54245e-01,-3.22329e-02,-2.33077e-01,-8.20832e-02,1.35477e-01,4.03881e-02,-8.37964e-02,
8.28991e-02,-1.34054e-01,1.71857e-02,-6.82450e-02,6.14274e-03,8.28002e-02,2.87166e-02,-2.71250e-01,2.28874e-02,-3.40826e-02,7.71301e-02,1.36971e-02,1.70669e-01,-1.45402e-01,1.13542e-01,-9.04099e-02,2.43097e-01,-7.10374e-02,-6.87976e-02,4.47482e-03,1.12235e-01,1.41166e-01,2.40354e-01,5.87767e-03,-2.53452e-01,-1.72571e-01,1.08324e-01,9.71416e-02,1.07443e-03,1.53632e-01,1.85214e-01,1.48440e-01,1.55958e-01,1.26378e-02,3.97687e-02,-1.47953e-01,-1.45565e-02,2.53288e-01,2.17311e-01,-7.20404e-02,-1.68086e-01,1.96196e-01,2.21982e-01,3.62895e-02,-1.95594e-01,1.62646e-02,-6.82735e-03,8.77949e-02,1.80959e-01,2.53783e-01,-5.83829e-02,-8.51573e-02,-1.08271e-01,6.75025e-02,2.50866e-01,-8.85966e-02,-1.46700e-01,9.38367e-02,-1.61579e-01,-1.40448e-01,-4.51636e-02,-2.03255e-01,-2.06821e-01,6.38659e-02,
2.04410e-01,1.57059e-01,-7.45348e-02,-1.09984e-02,-6.26186e-02,-2.14378e-01,-7.78048e-03,1.59481e-01,1.47997e-03,1.62095e-01,-1.76149e-01,1.78671e-01,-2.72916e-02,1.91389e-01,-1.36688e-01,-1.71200e-01,8.32500e-02,4.45438e-03,1.53864e-02,2.40667e-02,-1.90089e-01,2.78070e-02,1.75630e-01,-1.90649e-01,2.85182e-01,1.12903e-01,1.19345e-01,-3.96899e-02,-1.33869e-01,-4.22182e-02,1.11018e-01,-2.55766e-01,-1.18842e-01,-3.35457e-02,2.29024e-01,-7.52217e-02,2.45581e-01,1.24942e-01,-1.18022e-01,5.50957e-02,1.82467e-01,1.60624e-01,2.34189e-01,-1.22398e-01,3.02235e-01,-1.92068e-01,-1.98653e-01,2.09190e-01,-9.87243e-02,-1.75427e-01,-2.36390e-01,2.47718e-01,-2.36125e-02,1.05084e-01,1.67800e-01,1.21969e-01,2.62854e-02,-1.60652e-01,-7.30404e-02,-1.00248e-01,1.55924e-02,1.48480e-01,-8.73536e-02,2.03765e-01,
2.06835e-01,8.92074e-02,6.65674e-02,-1.46905e-01,1.69113e-03,-2.05428e-01,-2.46222e-02,1.69342e-01,1.75707e-01,7.58999e-02,-1.15355e-01,6.05738e-02,1.35848e-02,-2.39981e-01,2.30824e-01,-1.41466e-01,-2.27749e-01,9.87793e-02,-2.42268e-01,1.87738e-01,2.07333e-01,1.14614e-01,1.83627e-01,-2.17781e-01,-2.16249e-01,1.08404e-01,-1.53581e-01,-1.19223e-01,-2.38863e-01,-1.69926e-01,5.22539e-03,-3.08743e-01,-5.21404e-02,-1.16197e-01,2.08888e-01,-2.81075e-02,-3.02793e-02,6.17572e-02,-1.40999e-01,1.25130e-01,4.39817e-04,2.37337e-01,-4.45357e-03,-1.04238e-01,2.42442e-01,-1.71717e-01,2.18686e-01,-2.01185e-01,1.57186e-02,-1.12097e-01,1.75002e-01,7.97372e-02,2.65770e-01,-6.27851e-02,1.28587e-01,1.96186e-01,5.52411e-02,3.50850e-02,-2.18688e-01,7.14654e-02,2.33001e-02,-2.35041e-02,9.01803e-02,2.27526e-01,
1.61237e-02,2.06676e-01,1.70799e-01,1.39490e-01,1.83789e-01,-3.55711e-02,-1.65883e-01,1.68953e-01,1.18066e-01,-1.24173e-01,-1.78133e-01,-9.65423e-02,5.54576e-02,-1.47335e-01,-9.12473e-02,2.41875e-01,2.13820e-01,-5.06469e-02,-8.71845e-02,-2.00618e-01,2.38455e-01,-1.14693e-01,-8.08661e-02,-1.80085e-01,-2.09004e-01,6.26360e-02,-1.38087e-01,-1.93327e-01,-2.35586e-01,-8.79915e-02,-8.87472e-02,1.10437e-01,2.06530e-01,3.46761e-02,-3.15911e-02,-1.27138e-01,-6.33951e-02,1.15980e-01,-9.07021e-02,1.19922e-01,-1.89079e-01,1.45389e-02,6.97545e-02,-9.24214e-02,-4.70087e-02,-9.58557e-02,9.50600e-02,2.35879e-01,6.12387e-02,1.81484e-01,5.46703e-02,1.21343e-01,1.39036e-01,-2.27234e-01,6.36364e-02,9.03558e-02,2.11048e-01,-1.87240e-01,-2.14173e-01,1.56729e-01,1.96714e-01,3.74521e-02,-4.79393e-02,1.23979e-01,
1.27614e-02,-1.44354e-01,-3.26978e-02,-2.65592e-02,1.69112e-01,-7.21497e-02,1.36857e-01,-4.86687e-02,-2.67810e-01,-1.27459e-01,7.73990e-02,1.23600e-01,2.14660e-01,7.45789e-02,9.97632e-02,-1.20680e-01,-1.14552e-01,-3.90891e-02,1.38234e-01,-9.53109e-02,-5.42783e-03,1.16668e-01,-2.21371e-01,1.34443e-01,2.56329e-01,-6.14915e-02,1.01681e-01,4.58697e-02,2.20300e-01,-2.32887e-01,2.81358e-02,2.80310e-01,1.27919e-01,-8.49265e-02,6.27424e-02,1.51977e-01,2.47351e-01,-7.40755e-02,-1.15549e-01,-1.96316e-01,5.54406e-03,1.83218e-01,2.12461e-01,2.17051e-01,1.95031e-01,-9.77937e-02,1.06867e-01,-8.83004e-02,1.51862e-01,-1.51150e-01,-2.33423e-01,-4.09348e-02,-3.26570e-02,-2.64505e-01,-1.91650e-01,-7.34779e-02,1.49073e-01,-6.64633e-02,-2.19535e-01,5.57834e-02,-1.37024e-01,-2.15312e-02,1.96374e-01,1.68949e-01,
1.38661e-01,1.66444e-01,-1.01706e-01,6.15346e-02,-4.87097e-03,-2.70090e-01,2.02197e-01,1.41583e-01,-1.91024e-01,7.41656e-02,-2.20973e-01,2.35916e-01,-1.52759e-01,-4.29482e-02,1.16596e-01,2.35964e-01,-2.32963e-01,-1.41638e-01,-1.05891e-01,1.72056e-02,2.06067e-01,1.19712e-01,5.95100e-02,-1.89428e-01,1.72716e-01,1.39981e-01,3.18226e-02,1.50379e-01,-2.17336e-01,-2.65190e-01,-1.21660e-02,1.58459e-01,8.17521e-02,1.07206e-01,-5.97644e-02,-7.32188e-02,1.46437e-01,1.85470e-01,-2.16491e-01,-1.54466e-01,1.43677e-01,-2.70087e-02,-6.34482e-02,1.92993e-01,5.79804e-02,-3.11977e-02,-1.20773e-01,-4.90799e-02,1.32814e-01,1.08889e-01,-8.12402e-02,1.68932e-01,1.58303e-01,1.53764e-01,2.19221e-01,2.21105e-01,1.28869e-02,-9.24945e-02,4.88081e-02,-7.44951e-02,1.02179e-01,1.02681e-01,2.61245e-01,1.36891e-02,
1.55907e-01,-2.32145e-01,1.74533e-01,2.13055e-01,-1.05138e-01,-1.27207e-01,-4.19157e-02,1.21377e-01,-2.50970e-01,-4.54399e-02,-1.78572e-01,5.70959e-02,-2.38481e-01,-7.58149e-03,-1.47616e-01,-6.29447e-02,1.51363e-01,6.10524e-02,-1.47218e-01,-4.91293e-02,-1.47421e-01,-6.67280e-03,-2.58634e-01,-9.97785e-02,-1.22708e-01,-6.52702e-02,7.99311e-02,8.62834e-02,3.64124e-02,-8.97399e-02,-2.51491e-01,2.51035e-02,-5.29351e-02,7.96658e-03,1.46131e-01,-1.24252e-01,-2.12321e-01,3.13295e-02,4.75165e-04,-1.61638e-01,3.40783e-02,-1.17852e-01,-1.34918e-01,-1.32818e-01,-2.30916e-01,2.22024e-01,-1.40517e-01,-2.45388e-02,-1.89135e-01,-4.46104e-02,3.56855e-02,2.15490e-01,1.66653e-02,5.69351e-02,2.83247e-03,3.09034e-02,-1.54201e-01,-1.59596e-01,3.34421e-02,-1.04342e-01,-5.96192e-02,1.66039e-01,-1.73697e-01,1.60628e-01,
2.23994e-01,1.50903e-01,-1.47219e-01,7.40689e-03,9.81548e-02,1.09219e-01,2.09681e-01,-1.58922e-01,-3.22877e-02,1.00101e-01,-8.34457e-02,2.12867e-01,1.60330e-01,2.24060e-01,1.58528e-01,-2.31142e-01,2.48076e-01,-1.19145e-01,-1.93379e-01,-3.98702e-02,9.19453e-02,8.80859e-02,1.22531e-01,-1.00492e-01,-1.71412e-01,-1.62337e-02,-9.55111e-02,-2.22565e-01,1.09383e-01,2.10382e-01,-1.58701e-01,1.36780e-01,-6.46087e-02,2.43423e-01,-2.02118e-01,1.82006e-01,-1.69739e-01,6.79041e-02,8.10537e-02,-1.90095e-02,7.58972e-02,-8.44771e-02,1.12343e-01,-2.93118e-02,2.91326e-02,3.56629e-02,2.14997e-01,1.55751e-01,4.19859e-02,-2.22483e-01,9.56230e-02,-1.70885e-01,-2.00307e-01,1.33877e-01,1.64514e-02,-7.49027e-02,1.80337e-01,-2.32101e-01,1.46995e-01,-8.05517e-02,-1.04022e-01,2.59265e-02,9.58606e-02,1.78134e-01,
-2.21524e-01,1.75312e-01,-5.48868e-02,2.17318e-01,2.41752e-01,-1.59492e-01,1.83342e-01,-2.54079e-01,1.10331e-01,3.49329e-02,-2.56518e-01,-6.65736e-02,1.61800e-01,1.42579e-01,1.76698e-01,5.64905e-02,1.82048e-01,3.93031e-02,-7.67048e-03,5.60391e-02,-1.07224e-01,-3.71625e-02,1.21364e-01,1.48610e-01,-1.52922e-01,2.63757e-01,2.18593e-01,-1.13822e-01,1.55336e-01,2.90345e-01,1.48076e-01,-4.89414e-02,2.50473e-01,-4.06336e-02,2.08091e-01,-1.39433e-01,-2.10651e-01,-1.55143e-01,-2.27674e-02,7.85883e-02,1.30366e-01,-2.10656e-01,-1.62492e-01,2.20338e-01,-2.22995e-01,-6.99039e-02,1.01812e-01,-1.29829e-01,-2.10321e-01,-1.38459e-02,1.35603e-01,1.32896e-01,9.46032e-03,8.90208e-02,-9.73714e-02,-1.94894e-01,3.40586e-02,2.20282e-01,-1.36398e-01,-3.52625e-02,-1.07232e-01,9.93471e-02,1.54793e-01,3.27920e-02,
-1.95085e-03,-1.66805e-01,4.54600e-02,-1.80355e-01,1.85267e-02,-6.10851e-02,1.08054e-01,-1.68443e-01,-1.92069e-01,5.34007e-02,2.28291e-01,2.11373e-01,1.20247e-01,-8.58198e-02,6.85763e-02,-7.65096e-02,9.57099e-02,1.11312e-01,1.54119e-01,-5.76249e-02,4.82884e-02,9.22950e-02,8.84273e-02,8.52733e-02,2.11538e-02,2.86898e-03,-1.42905e-01,2.42870e-01,-3.80291e-02,-2.23178e-01,-6.49336e-02,2.14264e-01,-7.71623e-02,-2.21343e-01,1.73556e-01,1.94732e-01,-1.75071e-01,-2.34408e-01,-9.71868e-02,-1.88248e-01,-1.51903e-01,1.39099e-01,1.98449e-01,1.11234e-01,6.50571e-02,2.34048e-01,2.43552e-01,5.73690e-02,-2.52108e-01,8.57184e-02,2.01128e-01,-9.67609e-02,-2.55747e-01,-1.72783e-01,1.56108e-01,-2.22916e-01,1.15820e-01,-2.08303e-01,2.60382e-01,-6.70450e-02,-2.08346e-01,1.24177e-01,-1.31243e-01,1.54703e-01,
-7.06910e-03,
-1.34130e-03,
-4.02642e-03,
1.80079e-02,
0.00000e+00,
-4.05964e-03,
8.08835e-03,
-4.93162e-03,
7.12666e-03,
5.44095e-03,
4.74055e-03,
-8.30715e-03,
-9.07121e-03,
0.00000e+00,
5.13445e-04,
-8.25533e-03,
-1.84735e-03,
-1.26122e-02,
-1.73474e-03,
8.03642e-03,
4.55599e-03,
4.85176e-03,
2.11079e-02,
8.93533e-03,
-3.06976e-03,
-1.36874e-02,
-1.78196e-02,
1.46011e-02,
-1.33363e-02,
1.06329e-02,
7.99614e-03,
2.43787e-03,
1.64155e-01,2.74727e-01,-7.06136e-02,-2.26043e-02,4.46077e-02,3.29258e-01,2.58051e-01,2.49632e-01,3.16609e-01,-3.30304e-01,2.60069e-01,3.53591e-01,3.23999e-01,1.63428e-01,-2.67681e-01,1.35691e-01,-2.72601e-01,3.74439e-01,-3.35492e-01,7.34044e-02,-3.17266e-01,4.90485e-03,3.04056e-01,-1.66367e-01,1.98700e-01,-9.63043e-02,-1.24848e-01,-2.63805e-01,6.50030e-02,-8.16507e-02,-8.94368e-03,-8.10905e-02,
5.89594e-02,2.80051e-01,3.03754e-01,-1.87395e-01,-1.29548e-01,-1.33900e-01,-2.31296e-01,2.91044e-01,-2.56795e-01,1.88428e-01,9.88144e-03,-5.52249e-02,1.35298e-01,2.60942e-01,-9.18957e-02,-8.73315e-02,-1.38412e-01,2.12571e-01,-3.33700e-01,5.78852e-03,3.35152e-03,-2.77646e-02,-1.63207e-01,2.35127e-01,-1.86267e-03,1.79112e-01,1.96600e-01,-3.12884e-01,3.44376e-01,1.70216e-01,-7.88503e-02,-3.33243e-01,
-3.35577e-01,-2.09642e-01,1.86057e-01,1.58175e-01,1.30798e-01,3.31431e-01,1.08043e-01,2.95537e-01,1.31213e-01,7.29647e-02,-2.65006e-01,-1.61047e-02,3.33116e-01,-3.08392e-01,-8.79857e-03,-2.81026e-01,3.15024e-01,1.20163e-02,3.09914e-01,-2.60270e-01,-1.19746e-01,1.11181e-01,-3.64274e-02,-3.54544e-01,-3.07839e-01,1.08994e-01,9.83622e-02,-1.92591e-01,-1.60943e-01,4.81549e-02,2.65221e-01,-3.25864e-02,
-9.51392e-02,1.95780e-01,3.14255e-01,1.54566e-01,-7.59985e-02,6.30257e-02,2.57707e-01,-8.57214e-02,-8.18492e-03,-3.55039e-01,-1.17659e-01,-3.20023e-01,8.06240e-02,-1.44100e-01,-3.80697e-01,-1.41259e-01,7.28941e-02,-2.04064e-01,-1.60316e-01,5.14545e-05,1.73859e-02,-2.80094e-01,2.79437e-01,1.84218e-01,-1.10247e-01,1.68199e-02,-2.29523e-01,1.74037e-01,2.95160e-01,3.62796e-01,3.29201e-01,2.22018e-01,
1.56586e-02,8.94128e-02,-3.21440e-01,-2.14130e-01,1.48938e-01,6.35941e-03,-3.29981e-01,2.44917e-01,1.61510e-01,-1.35826e-01,1.29563e-01,-2.98654e-01,-1.26393e-01,-3.27638e-01,-1.83221e-01,-2.89476e-02,2.48450e-01,-3.23618e-01,9.04183e-02,7.52758e-02,1.18459e-02,-5.89996e-03,3.97060e-02,1.32377e-01,2.99291e-01,-2.92189e-01,3.36716e-01,1.51908e-02,-1.43886e-01,2.12725e-01,-2.90143e-01,2.10797e-02,
-8.64409e-02,-1.62354e-01,-1.79537e-02,-1.82747e-01,1.44112e-01,-1.66993e-01,4.80623e-02,-1.71378e-01,-2.62795e-02,-5.12484e-02,-3.08848e-01,-2.75129e-01,1.87811e-01,3.17083e-01,2.18662e-01,1.23266e-01,2.91351e-01,1.01605e-01,-1.00474e-01,-6.58333e-03,-2.49160e-02,-2.78080e-01,2.28125e-01,-2.22571e-01,2.81288e-01,-3.28590e-01,2.17269e-01,5.87471e-02,-3.44909e-01,-5.41999e-02,-2.36033e-01,-1.57955e-01,
-2.96128e-01,2.75191e-01,1.09478e-01,2.19109e-01,1.52954e-01,-4.31246e-03,-1.45122e-01,3.91804e-02,6.09484e-03,-2.61116e-02,4.35562e-02,-1.57047e-01,2.97022e-01,-1.02976e-01,-7.61359e-02,-3.28547e-01,4.19323e-02,2.91523e-01,-1.29559e-01,1.86667e-01,2.89096e-03,-3.41468e-01,-3.43119e-02,-1.05664e-01,6.61672e-02,-2.50415e-02,-1.92912e-02,-2.45313e-01,3.21610e-02,1.58297e-01,-1.28569e-01,-2.09043e-01,
-3.36554e-01,-3.27298e-01,4.64651e-02,3.34576e-01,2.38693e-01,-1.18204e-03,3.32607e-01,-1.10561e-01,6.61751e-02,3.53591e-02,-2.97537e-01,1.95904e-01,-3.93817e-02,1.56134e-01,1.04461e-02,4.60175e-02,2.93197e-01,-1.74547e-01,-1.63466e-01,-8.80023e-03,3.03791e-02,2.77734e-01,-5.72004e-03,-2.59952e-02,7.62461e-02,-1.06816e-01,-1.92545e-01,-1.16150e-01,-1.60199e-01,-5.17562e-02,2.63837e-01,-1.77398e-01,
-1.54466e-01,-6.39816e-02,-2.55558e-01,1.46220e-01,3.47170e-01,1.37489e-01,-6.12508e-02,-4.08958e-02,-5.69325e-02,-2.62040e-02,-3.10415e-01,-2.31154e-01,-2.50918e-02,2.17514e-01,-1.18053e-01,-7.36922e-03,-2.56845e-01,-2.71637e-01,-5.85738e-02,-1.22013e-01,3.33957e-01,3.82571e-03,-9.95169e-03,-2.15587e-01,2.82083e-01,-3.81239e-02,3.52245e-01,1.23375e-01,1.64284e-01,1.65110e-02,3.11079e-02,-2.92820e-01,
-2.04625e-02,2.76039e-01,-1.41092e-01,-1.48816e-01,3.11304e-01,-9.13538e-02,2.32943e-01,3.47287e-01,-2.68273e-01,-3.18966e-01,1.94365e-03,-1.97405e-01,-1.04770e-01,3.50973e-01,2.37843e-03,-1.60962e-01,-6.06474e-02,-3.83674e-02,-1.05123e-02,-3.33060e-01,-8.69967e-02,-1.54533e-01,-2.83884e-01,-7.69474e-02,2.06840e-01,2.12388e-01,-3.21464e-01,-5.89651e-02,1.57256e-01,5.10076e-02,-1.78625e-01,-6.32234e-02,
1.42560e-01,1.85529e-01,-1.19382e-01,4.42798e-02,-2.00371e-01,7.16302e-03,-1.63035e-01,-4.40311e-02,1.38709e-01,-8.48756e-03,2.37108e-01,-2.62988e-01,-3.10287e-01,7.67286e-02,-3.03920e-01,-3.18814e-01,8.93729e-02,-3.47711e-01,-1.85502e-01,2.99505e-01,-5.77792e-02,1.34613e-02,-1.39970e-01,2.02912e-01,-1.60236e-02,1.56098e-01,1.04780e-01,2.24234e-01,-5.86992e-02,-2.92653e-02,-2.80319e-01,-3.22291e-01,
-3.01784e-01,-2.81672e-01,-2.62287e-01,-3.17757e-01,1.51579e-01,2.96462e-01,-1.57742e-01,8.35873e-02,-1.97742e-01,-1.66561e-01,-2.27845e-02,-3.23318e-01,4.72133e-02,-1.22021e-01,-1.70962e-01,3.31730e-01,-3.22052e-01,-1.47247e-02,-1.76191e-01,1.80486e-01,2.05336e-02,2.45699e-01,-1.54299e-01,-1.03541e-01,1.76841e-01,-2.42882e-01,-1.94216e-01,-7.87041e-03,-4.47307e-02,2.14791e-01,8.90880e-02,1.07382e-01,
2.67537e-01,-2.24846e-01,1.12368e-01,-2.46349e-01,2.78848e-02,-2.16320e-01,-1.80812e-01,7.96463e-02,1.54370e-01,-2.76049e-01,-2.96876e-01,-3.64089e-01,-2.43256e-01,1.78851e-01,3.13964e-01,1.41775e-01,-1.66029e-01,-1.35789e-01,-3.12752e-01,-2.10217e-01,-3.36546e-01,8.95767e-02,6.60914e-02,1.59346e-01,2.31060e-02,2.37374e-01,1.43110e-02,-2.69976e-01,-2.87388e-01,1.31072e-01,7.62516e-03,-3.58065e-01,
-1.98021e-01,-1.71118e-01,-2.43975e-02,-3.84150e-02,1.61940e-02,-7.84171e-02,1.77861e-01,2.28184e-01,-2.03791e-03,2.23091e-01,-3.45140e-01,-9.73479e-02,3.45812e-01,-1.09733e-01,-1.36749e-03,2.29727e-01,-2.11031e-02,-3.13258e-01,-5.25574e-03,2.60562e-01,1.43170e-01,2.09061e-01,-2.17112e-01,1.54326e-01,-3.31919e-01,3.19882e-01,2.40861e-01,1.84351e-01,-2.15315e-01,2.16593e-01,-1.32432e-01,-3.44263e-01,
1.47423e-01,-6.62789e-02,1.34051e-01,-1.93316e-01,-1.09502e-01,-1.51973e-01,2.85066e-01,2.65027e-01,-1.74162e-01,3.29686e-01,1.17129e-02,1.98946e-01,2.30398e-01,-2.14630e-01,3.05652e-01,-6.70915e-02,1.53908e-02,1.54373e-01,2.38405e-01,3.71583e-01,-9.31771e-02,-3.02823e-01,4.74128e-03,-2.48176e-03,-2.51544e-02,-2.38054e-01,2.54140e-01,-3.62633e-02,-3.42971e-02,2.47453e-01,-2.96491e-01,8.67219e-02,
-1.44744e-02,-2.53843e-01,-1.49254e-01,2.86529e-01,3.31936e-01,3.09326e-01,2.63599e-01,-5.91024e-02,-1.94240e-01,-2.50815e-01,3.65325e-01,-3.49252e-01,1.51347e-01,3.43247e-01,-2.62749e-01,2.44245e-01,3.21194e-01,-1.68298e-01,3.44733e-01,-1.99263e-01,3.33818e-01,3.43150e-01,4.81012e-02,2.73593e-01,6.63357e-02,2.31696e-01,1.64810e-01,3.54092e-01,-5.22902e-02,4.17112e-02,-3.90269e-02,1.99924e-01,
1.28336e-02,
-3.39486e-02,
-2.65585e-03,
1.70974e-02,
5.63408e-03,
0.00000e+00,
5.40176e-03,
4.48136e-03,
-7.15531e-03,
0.00000e+00,
5.02415e-03,
0.00000e+00,
-3.55028e-02,
9.65339e-03,
2.41019e-03,
3.63671e-03,
2.54514e-01,-1.90743e-01,2.25432e-01,8.78657e-02,-2.66630e-02,-4.72641e-02,-4.64057e-01,-1.76201e-01,4.63539e-01,-2.17539e-01,4.75661e-01,1.96426e-01,1.13496e-01,-1.21430e-01,-4.10459e-01,-2.73752e-01,
-2.12936e-01,3.50812e-01,-1.04769e-02,-1.01967e-01,2.55854e-01,-2.54265e-01,-4.66195e-01,-2.33497e-01,-2.64801e-01,1.39563e-01,3.33607e-01,2.21279e-01,5.56020e-02,-5.92166e-02,3.96039e-01,4.47624e-01,
8.53698e-02,1.71260e-01,-4.51375e-02,2.37836e-01,-1.98328e-02,-1.52228e-01,3.33535e-01,4.91277e-01,-3.80134e-01,-3.81193e-01,-2.40960e-02,7.21310e-02,-4.39608e-01,-2.31952e-01,-4.55236e-01,-1.08844e-01,
-2.92417e-02,-1.81145e-01,3.81178e-01,4.49669e-01,4.13560e-01,8.21470e-02,2.77063e-01,-9.83823e-02,1.83601e-01,-4.94232e-02,-3.98901e-01,-8.81346e-02,1.36260e-02,-2.09315e-01,-3.40524e-01,4.14959e-01,
-2.32410e-01,3.43405e-01,1.90645e-01,2.45452e-02,-4.66742e-01,3.22982e-01,3.16218e-01,1.56977e-01,-7.59848e-02,-1.25393e-01,4.87248e-01,-2.43505e-01,-3.65611e-01,-2.17181e-02,1.08913e-01,1.36486e-01,
-1.06294e-01,-4.12495e-01,-4.02125e-01,4.78927e-01,3.61365e-01,3.28629e-01,-1.41630e-01,4.06764e-01,-1.27085e-01,2.89285e-01,-1.36156e-01,-1.32216e-01,1.43279e-01,4.67501e-01,-1.39601e-01,-2.25011e-01,
1.88006e-01,1.12227e-01,-4.91158e-01,4.10990e-01,1.56046e-01,3.77372e-01,-1.21008e-01,-3.60861e-01,1.58433e-01,-1.47589e-02,-2.77165e-01,-1.88298e-01,-3.17331e-01,2.12435e-01,4.15700e-01,-2.29222e-01,
1.86666e-01,-2.40399e-01,-1.41038e-02,-3.99170e-01,-3.81853e-01,3.19803e-02,-1.54901e-01,3.64423e-01,1.75892e-01,4.77000e-01,-3.31017e-02,-5.03979e-02,-1.26372e-01,-4.71161e-01,8.87194e-02,-1.48477e-01,
8.74368e-03,
1.63461e-03,
3.13904e-03,
2.67510e-02,
1.67007e-02,
5.59689e-03,
2.24666e-02,
9.52699e-03,
4.09716e-01,2.12234e-01,-6.72468e-01,6.05515e-01,3.01746e-01,-5.66834e-01,-2.69914e-01,5.16626e-01,
2.17316e-02,-4.46716e-01,5.10143e-01,2.65121e-01,-7.66135e-02,-4.42068e-01,6.22742e-01,-5.81416e-01,
-1.60326e-01,1.78837e-01,6.02797e-01,-1.10729e-01,3.37793e-02,3.94420e-02,-3.14411e-01,-4.22983e-01,
6.07295e-01,-3.28506e-01,-3.62280e-01,5.26991e-01,-2.61338e-01,-3.48175e-02,4.39768e-01,-2.96623e-01,
1.08261e-02,
8.14712e-03,
-9.40878e-03,
-1.44105e-03,
1.02848e+00,-1.10355e+00,-3.85281e-01,-7.58705e-01,
7.99525e-03,
