// Neural Network File Format by Kyle Julian, Stanford 2016
10,30,1,30,
30,10,10,10,10,10,10,10,10,10,1,
0,
0.0,0.0,0.0,0.0,0.0,0.0,0.0,0.0,0.0,0.0,0.0,0.0,1.0,1.0,0.0,0.0,0.0,0.0,0.0,0.0,0.0,0.0,0.0,1.0,1.0,1.0,1.0,1.0,1.0,0.0,
1.0,1.0,1.0,1.0,1.0,1.0,4.0,4.0,4.0,4.0,3.0,2.0,4.0,4.0,3.0,1.0,1.0,1.0,1.0,1.0,1.0,1.0,1.0,5.0,5.0,5.0,5.0,5.0,5.0,3.0,
0.0,0.0,0.0,0.0,0.0,0.0,0.0,0.0,0.0,0.0,0.0,0.0,1.0,1.0,0.0,0.0,0.0,0.0,0.0,0.0,0.0,0.0,0.0,1.0,1.0,1.0,1.0,1.0,1.0,0.0,0.0,
1.0,1.0,1.0,1.0,1.0,1.0,4.0,4.0,4.0,4.0,3.0,2.0,3.0,3.0,3.0,1.0,1.0,1.0,1.0,1.0,1.0,1.0,1.0,4.0,4.0,4.0,4.0,4.0,4.0,3.0,1.0,
1.17240e-01,-1.81008e-01,1.48615e-01,3.24024e-01,-2.28857e-01,6.17795e-02,-1.92777e-01,-1.74006e-01,-3.27049e-01,-2.44540e-01,-1.29255e-01,7.65063e-02,-3.14090e-01,-2.95113e-01,1.47566e-01,2.64892e-01,-7.57387e-02,-3.43933e-01,7.06037e-02,2.10412e-01,2.39508e-01,2.68912e-01,6.22467e-03,7.60402e-02,9.70753e-02,4.43450e-02,-6.78834e-02,1.94931e-01,-1.86190e-01,1.62052e-01,
1.08242e-02,3.08859e-01,1.44896e-02,-1.21553e-01,2.04173e-01,-2.81722e-03,-6.83001e-02,-3.66527e-02,-9.27502e-02,2.09529e-01,3.47658e-02,3.27616e-02,-2.65269e-01,-1.40105e-01,-8.86239e-02,-3.78670e-01,-3.63488e-01,2.55851e-01,-2.80631e-01,-1.12084e-01,4.37087e-01,-1.47798e-01,-1.36265e-01,2.72245e-01,1.83031e-01,-9.01236e-02,-1.74500e-01,-1.92263e-01,1.06708e-01,1.28067e-01,
-1.09724e-01,-2.04862e-01,-3.21517e-01,2.56389e-01,3.17108e-01,3.51190e-01,1.00075e-01,-2.19571e-02,3.49188e-01,-8.80423e-02,7.16289e-02,-2.32562e-01,-2.43650e-01,2.14453e-02,-3.46339e-01,2.21173e-01,-1.23724e-01,-1.33997e-01,-1.41114e-01,-3.37884e-01,2.61366e-01,-1.26741e-01,-5.57424e-02,2.77921e-01,-3.29472e-01,-2.67102e-01,5.53520e-02,1.91617e-01,2.97537e-01,3.67917e-01,
-4.16418e-02,1.15472e-01,1.26107e-01,5.06639e-02,-3.75639e-01,1.55675e-01,2.14269e-01,-2.36681e-01,-2.42875e-01,-3.36549e-01,1.99401e-01,-9.05707e-02,1.40483e-01,1.81601e-01,-4.79232e-01,1.73076e-01,-3.79066e-02,-2.40047e-01,-1.08610e-01,-2.94520e-01,8.03628e-02,3.12691e-01,-2.39413e-01,8.23481e-02,2.29914e-01,-2.68159e-02,-3.00031e-01,-7.00654e-02,2.58137e-01,2.45219e-02,
-3.53343e-01,-3.27822e-02,1.48584e-01,-3.43937e-03,2.95360e-01,-1.18896e-01,-1.74522e-02,2.59608e-03,-1.69843e-01,-2.75989e-01,-2.22658e-01,3.15657e-01,1.79812e-01,8.91193e-03,2.35868e-01,-1.10910e-01,1.94665e-01,-6.48040e-02,1.88779e-01,-3.31155e-01,1.02218e-01,-3.16453e-01,4.01513e-01,-1.48131e-01,6.10511e-02,3.03638e-01,2.79352e-01,7.60441e-02,3.56900e-01,-6.14563e-02,
1.55502e-01,3.64679e-01,-1.40637e-01,-1.98844e-01,1.04541e-01,2.22170e-01,-2.31934e-01,1.72514e-01,-1.69713e-01,2.78568e-01,-2.21591e-01,2.67014e-01,-2.03110e-01,7.36342e-02,-8.61856e-02,-4.01977e-01,2.40540e-01,1.43179e-01,-1.10434e-01,-4.02943e-02,3.22423e-01,2.37406e-01,-3.81432e-01,2.72912e-01,-1.81887e-01,1.79310e-01,-1.90325e-01,-2.79226e-01,1.21577e-01,1.73272e-01,
1.50816e-01,-3.76832e-01,4.81171e-02,2.34762e-01,3.34524e-02,-3.97445e-02,-2.91327e-01,2.99877e-01,-3.59456e-01,3.19530e-01,7.64179e-02,5.80386e-02,5.69576e-02,3.96086e-02,-2.39579e-01,2.33582e-01,-2.44799e-01,5.20613e-02,-2.22264e-01,-3.38721e-01,-2.01243e-01,-3.55135e-01,1.60463e-01,-4.11537e-01,-4.88302e-02,1.66114e-01,7.51300e-03,-7.29081e-02,2.63596e-01,8.86134e-02,
2.85927e-01,3.89147e-02,-1.92565e-01,2.65486e-01,-2.68190e-01,-2.15711e-01,1.09806e-01,-1.62523e-01,3.03119e-01,-3.38438e-01,-2.96728e-01,5.06200e-02,1.50816e-02,-2.34132e-01,3.77591e-01,2.87332e-01,2.83636e-01,-3.28242e-01,-3.34159e-01,2.13674e-01,-7.53370e-02,-2.65333e-01,-3.65112e-01,1.62320e-01,2.26432e-01,2.24360e-01,4.74328e-02,1.83646e-01,-9.33219e-02,-8.15291e-02,
-2.12349e-01,1.93055e-01,2.38134e-01,-1.37429e-01,1.44590e-01,1.90891e-01,3.82755e-01,1.27149e-01,1.21586e-01,-3.00888e-01,3.10593e-01,-1.25373e-01,3.07809e-01,3.24484e-01,2.49647e-01,-3.25456e-01,-2.85194e-01,-2.50046e-01,8.34179e-02,1.01462e-01,3.33081e-01,2.28968e-01,-2.86044e-01,6.01564e-02,3.41040e-01,8.85845e-02,-3.89250e-02,-1.99082e-01,3.50156e-01,2.31354e-01,
-2.24989e-01,-1.91529e-01,-9.55902e-02,1.33336e-01,-1.71360e-01,-1.40358e-01,1.65650e-01,3.86367e-01,1.24278e-01,1.00895e-01,3.17746e-01,-4.46451e-02,-3.12089e-01,2.86504e-01,2.29717e-01,2.45135e-01,1.71440e-01,-5.73139e-02,-6.22224e-02,-3.10741e-02,-3.30405e-01,3.57540e-01,-2.03467e-01,3.40065e-02,-2.62341e-01,-1.62239e-02,1.35877e-01,-1.60235e-01,-1.09054e-01,-3.80963e-01,
-2.27799e-02,
4.87010e-02,
9.72256e-03,
7.65905e-03,
-2.28279e-03,
7.16155e-03,
-2.57534e-02,
6.54924e-03,
3.73889e-03,
-4.82512e-03,
2.05825e-01,-2.61150e-01,-3.96509e-01,-5.32636e-01,-1.08260e-01,-3.25336e-01,-4.95522e-01,-3.71306e-01,-3.84287e-01,-7.16373e-02,
8.85988e-03,1.19939e-01,-4.12819e-01,-4.61064e-02,2.34142e-01,-4.15866e-01,3.81408e-01,-3.60430e-01,4.07867e-01,-2.18569e-01,
4.68201e-01,-3.23371e-01,1.08658e-01,9.69566e-02,-4.27959e-01,-1.66814e-01,2.99347e-01,8.58619e-02,4.40801e-01,3.41831e-01,
-2.35014e-01,1.73339e-01,5.23979e-01,2.23532e-01,-3.69568e-01,2.29456e-01,-4.43382e-01,1.06306e-01,1.53750e-02,-3.43047e-01,
2.99871e-01,1.73004e-01,4.82206e-01,2.47176e-01,5.01042e-01,-3.56166e-01,3.94338e-01,1.65762e-01,4.04477e-01,-1.82336e-01,
4.32659e-01,4.89347e-01,1.29598e-01,4.53202e-01,-5.40650e-01,3.32826e-01,4.72253e-01,-3.01366e-02,1.99836e-01,4.29335e-02,
4.92756e-01,-2.52487e-01,1.18552e-01,-1.07617e-01,1.04094e-01,2.04096e-01,2.70089e-01,3.98895e-01,7.58320e-02,4.50948e-01,
2.33593e-01,-2.89666e-01,3.29300e-01,4.53205e-01,5.46353e-01,4.83514e-01,5.45620e-02,-3.63453e-01,-1.75954e-01,3.10306e-01,
-1.26102e-01,-9.61910e-02,3.66359e-01,4.75104e-03,-1.17470e-02,-2.51687e-01,1.64544e-01,-3.05017e-01,1.46537e-01,-4.96065e-01,
2.08905e-02,5.49566e-01,4.47223e-01,-3.51964e-02,3.63941e-01,3.87577e-01,3.44119e-01,-4.35777e-01,3.73438e-01,4.91624e-01,
0.00000e+00,
1.41820e-03,
-1.44790e-03,
3.03903e-02,
8.79026e-03,
-8.28634e-03,
2.48892e-02,
-1.07290e-02,
6.12822e-04,
8.12638e-03,
2.64405e-01,2.16694e-01,9.97534e-02,-1.38091e-01,-4.00024e-01,2.14509e-01,-3.58311e-01,2.22187e-01,5.33130e-01,-4.44676e-03,
1.40815e-01,-3.99035e-01,-2.47201e-01,-4.83210e-01,-2.08899e-01,2.19655e-01,-2.74479e-02,3.99681e-01,-2.55421e-01,4.69210e-01,
-5.28679e-01,4.40422e-01,3.83967e-01,-1.63833e-01,-2.09549e-01,-3.62389e-01,-3.28036e-01,5.32245e-01,4.66270e-01,-3.39102e-01,
-1.71826e-01,-3.19398e-01,-4.60648e-01,5.17942e-01,-3.88868e-01,-2.34727e-01,4.44038e-01,5.17405e-01,4.67960e-02,-7.09476e-02,
1.16529e-02,2.28874e-01,-9.42541e-02,2.45205e-01,1.56406e-01,2.79272e-01,8.13620e-02,-3.56123e-01,3.07659e-02,-2.82564e-01,
-1.33914e-01,-8.76820e-02,4.12598e-01,5.59855e-01,-6.75277e-02,5.47170e-01,-2.42627e-01,2.35633e-01,-2.24265e-01,4.45620e-01,
-4.67519e-01,3.91252e-01,3.30482e-01,-4.86026e-01,2.17088e-01,2.32872e-01,2.10447e-01,4.32520e-02,2.21379e-02,4.25359e-01,
-5.24313e-01,4.70322e-01,-4.36364e-01,-2.78138e-02,-2.16859e-01,-2.30545e-01,-1.17736e-01,2.50877e-02,1.58073e-02,-3.63998e-01,
-2.33136e-01,-3.59106e-01,-3.32957e-01,2.33955e-01,-5.71409e-04,9.98618e-02,2.15583e-01,-1.43022e-01,2.62751e-01,1.96221e-01,
-3.17004e-02,3.43124e-01,-2.39042e-01,-1.56408e-02,-2.44898e-01,-5.13951e-01,2.47682e-01,5.38157e-01,-1.86079e-01,3.41748e-01,
-1.88434e-02,
-1.00882e-02,
-3.42388e-02,
2.69939e-02,
-1.93295e-02,
-1.71166e-03,
1.35973e-02,
0.00000e+00,
2.37243e-02,
-5.29427e-03,
3.31440e-01,1.87535e-01,2.28482e-01,3.55982e-01,-5.92434e-02,3.83695e-01,1.73879e-01,1.70267e-01,5.94209e-01,9.69787e-02,
-1.19964e-01,-2.37689e-01,-3.94016e-01,-4.99982e-01,-2.66169e-01,3.11852e-01,3.93401e-01,1.88150e-01,3.97451e-01,-1.85455e-01,
4.67315e-02,4.00002e-01,-5.30090e-01,1.17349e-03,-1.51776e-01,3.37080e-01,-4.52235e-01,-2.38302e-01,-1.57920e-02,-2.44148e-01,
-4.57105e-02,-4.99412e-01,2.97293e-02,3.12368e-01,1.24170e-01,-1.43797e-01,3.73686e-01,1.52884e-01,-4.41980e-01,-2.41556e-01,
-2.86584e-01,9.59086e-02,3.04083e-02,4.43126e-02,3.29768e-01,-1.52556e-01,5.18649e-01,-4.17576e-01,4.48925e-01,-1.83647e-01,
-8.10568e-02,-2.69175e-01,-9.62614e-02,4.37013e-01,3.59995e-01,-1.69686e-01,-2.86880e-01,-5.41404e-02,-9.68209e-02,-5.52081e-02,
1.41207e-01,2.46899e-01,2.54039e-01,-5.00722e-01,4.13390e-01,-2.02276e-01,-4.00346e-01,-1.37361e-01,-2.79577e-01,1.30249e-01,
1.85629e-01,3.77746e-02,4.27438e-01,4.70541e-01,3.65066e-02,-2.21687e-01,2.65309e-01,3.16896e-01,-7.61980e-02,2.02813e-01,
-1.53743e-01,-5.51946e-02,7.64481e-02,4.86104e-02,-4.83307e-01,5.38903e-01,-8.30640e-02,-1.61676e-02,2.86015e-01,-5.76840e-01,
3.95166e-01,4.49850e-01,5.11005e-01,-3.62571e-01,-5.21961e-01,-1.02609e-01,-1.33894e-01,5.22527e-01,2.77801e-01,5.33976e-02,
-4.17348e-03,
-2.78085e-03,
-2.63898e-02,
6.98172e-03,
-8.58229e-04,
0.00000e+00,
0.00000e+00,
3.53799e-02,
1.07609e-02,
7.89717e-03,
3.42385e-01,4.47677e-01,-4.11790e-01,-3.76111e-01,-6.78373e-02,-1.02829e-01,1.65813e-01,-7.00573e-02,4.81860e-01,-2.73320e-01,
7.35315e-02,-2.38482e-01,-3.39688e-01,-2.36254e-01,5.58702e-01,-4.96372e-01,-2.02331e-01,1.95748e-01,-2.59844e-01,9.27475e-02,
-1.32599e-01,4.60765e-01,1.44681e-02,1.14091e-01,2.22915e-01,3.62806e-01,-4.28051e-01,-5.61665e-01,-2.39181e-02,-6.54126e-02,
4.44256e-01,1.99403e-01,-6.31876e-02,2.31903e-01,5.28556e-01,3.91298e-01,-4.89721e-01,-1.89251e-01,9.90858e-02,-2.09912e-01,
1.76296e-01,-6.48162e-02,-1.66413e-01,3.56714e-01,-3.81420e-01,-2.35838e-01,-4.86352e-01,-2.36344e-01,5.77445e-01,1.30583e-01,
-3.48245e-01,4.14251e-01,4.34798e-01,-2.87608e-01,-4.79360e-01,-2.35069e-01,-4.23820e-01,-4.05183e-01,1.37782e-03,1.37770e-01,
1.63937e-01,2.15819e-01,-2.75380e-01,1.29347e-01,-3.94299e-01,-1.78541e-01,-2.52415e-01,-1.79722e-01,4.82957e-01,-5.68810e-01,
-2.45740e-01,-3.17757e-02,2.95457e-01,2.49194e-01,5.50346e-01,2.03199e-01,7.05957e-03,-1.96995e-01,3.94156e-01,2.16449e-01,
-5.01417e-01,3.20501e-02,3.93657e-01,-3.07826e-01,3.10040e-01,-4.27210e-02,2.48084e-01,-4.02193e-01,-2.02491e-02,-5.52798e-02,
3.67000e-01,-1.78932e-01,-4.84161e-01,3.30981e-01,-4.19817e-01,1.61690e-01,-6.72801e-02,4.36302e-01,-3.32828e-01,2.83837e-01,
3.58420e-03,
5.79783e-02,
1.58474e-03,
-1.47389e-02,
2.00737e-02,
0.00000e+00,
3.92860e-03,
1.43142e-02,
0.00000e+00,
7.73179e-03,
5.25210e-01,4.80488e-01,2.18775e-01,2.17287e-01,1.05843e-01,1.49369e-01,5.39128e-01,-5.49646e-01,5.07764e-01,2.53169e-01,
-5.29310e-01,-4.13743e-01,1.78817e-01,-2.70132e-01,2.88831e-01,-2.60400e-01,4.11757e-01,-1.95974e-01,-5.35924e-01,-5.23749e-01,
-1.81344e-01,-3.76159e-01,7.37550e-02,4.57710e-01,-1.75439e-01,-3.06030e-02,3.41659e-01,5.03919e-01,-5.45612e-01,2.15987e-01,
-3.24541e-01,4.40331e-01,-2.41898e-01,2.51869e-01,-1.08595e-01,1.86754e-01,-8.11449e-02,-4.70924e-01,-3.76584e-01,-2.38512e-01,
2.55295e-01,-6.38306e-01,4.89313e-01,2.24428e-01,1.24707e-01,5.20794e-02,-3.67500e-02,4.36936e-01,-2.09287e-01,-3.26203e-01,
3.42346e-01,-3.53768e-01,-4.68247e-02,1.69356e-01,2.85589e-01,9.60826e-02,2.20231e-01,-4.53820e-01,2.39717e-01,5.66391e-01,
-4.39689e-01,2.26271e-01,2.83730e-01,4.49658e-01,-1.29030e-01,4.72689e-01,6.91831e-02,-3.24339e-01,2.51482e-01,-1.48652e-01,
-1.58749e-01,2.73255e-01,3.20866e-01,-1.78717e-01,-4.94560e-03,1.33724e-02,-9.89890e-02,3.98543e-01,-1.30010e-01,-2.58008e-01,
-3.56000e-01,3.77712e-01,1.79892e-01,-1.59323e-01,1.38435e-01,-3.89240e-01,-4.82393e-01,3.02163e-01,-2.91768e-02,-4.94979e-01,
1.11386e-01,1.30468e-02,-3.09759e-01,4.29002e-01,-4.05077e-01,-4.83958e-02,-3.48355e-01,1.82781e-01,4.04600e-01,-2.36693e-01,
-4.23103e-03,
0.00000e+00,
1.64702e-02,
2.58428e-02,
3.75408e-03,
5.70314e-03,
-1.47791e-02,
3.97905e-02,
-4.30479e-02,
-6.42113e-03,
-5.01287e-03,4.79429e-01,-2.03338e-02,5.89098e-01,-2.28177e-01,2.11601e-01,1.18424e-01,2.17375e-01,5.26978e-01,3.26674e-01,
4.06485e-02,-3.45048e-01,-1.34399e-01,-1.54153e-01,4.91346e-01,-4.81144e-01,1.38755e-01,-4.61546e-01,4.40789e-01,-2.16986e-01,
1.70557e-02,5.45699e-01,3.48505e-01,-1.30963e-01,1.24920e-01,4.35213e-01,-4.16824e-02,-1.90077e-01,-4.64943e-01,2.95576e-01,
-4.98102e-01,3.53133e-01,3.84515e-01,-2.72272e-01,1.51888e-01,-1.41863e-01,4.10895e-01,5.65582e-01,-4.32704e-01,2.48589e-01,
-1.55664e-01,-8.32136e-02,-3.50191e-01,4.67339e-01,-8.71522e-02,-1.58420e-01,3.99983e-01,1.22145e-01,-4.74793e-02,4.25540e-01,
1.24546e-01,-4.91176e-01,1.25672e-01,-4.00346e-01,2.50707e-01,3.81075e-02,-4.37334e-01,2.53616e-01,1.84732e-01,-5.63107e-01,
3.72115e-01,-3.26203e-01,-5.28764e-01,-1.41832e-01,-7.09820e-03,-4.27493e-01,-3.74909e-01,5.33405e-01,2.97591e-01,-5.42682e-01,
-2.04314e-01,3.62933e-01,1.21868e-01,3.59149e-01,-4.29618e-01,3.26546e-01,2.41232e-01,1.22524e-01,2.81551e-01,-2.69287e-01,
-4.39293e-01,-5.23838e-01,4.74857e-01,3.76041e-01,2.88401e-01,-2.67637e-01,-4.66776e-01,2.33697e-01,-1.60307e-01,9.71499e-02,
-4.41249e-01,2.97536e-01,-4.55942e-02,-4.81785e-01,-4.41832e-01,4.51458e-01,3.34522e-01,-2.76101e-03,8.38453e-02,-4.69733e-01,
6.14960e-02,
-1.01844e-02,
1.69011e-03,
-1.72708e-02,
-8.17871e-03,
7.90821e-03,
0.00000e+00,
-1.51810e-02,
3.23347e-02,
0.00000e+00,
-4.61296e-01,6.35257e-02,3.03727e-01,1.36998e-01,3.46988e-01,6.00841e-01,4.73777e-01,3.05601e-01,-5.19995e-01,1.21588e-01,
-1.07774e-01,-3.57174e-01,-5.22859e-01,-2.29178e-01,2.03695e-01,-1.29072e-01,-5.46383e-01,3.86394e-01,-4.22060e-01,6.73517e-02,
-1.67921e-01,5.11821e-01,-3.44626e-01,1.33993e-01,-3.18072e-02,-1.98329e-01,4.88091e-01,3.09554e-01,-9.09800e-02,5.13569e-01,
1.09547e-01,4.34774e-01,-2.10154e-03,-2.55182e-01,1.88120e-01,2.32090e-01,3.48313e-01,-5.43738e-01,2.01703e-01,2.30762e-01,
1.85977e-01,2.49742e-01,-3.24121e-01,6.88957e-03,-2.20916e-01,1.63181e-01,-4.51288e-01,5.48652e-01,4.22756e-01,2.84312e-01,
-3.91407e-01,-2.82973e-01,4.02096e-01,6.05861e-02,2.30550e-01,4.27896e-01,-2.51724e-01,-2.66918e-01,-2.90253e-01,-1.09919e-01,
1.24182e-01,4.38893e-01,-5.04919e-01,-2.94091e-01,1.57136e-03,4.67290e-01,2.04734e-01,-2.60033e-01,5.19315e-01,-5.01600e-01,
5.44488e-01,4.93847e-01,-1.81516e-01,-4.39437e-01,3.99798e-01,7.75830e-02,3.20524e-03,-3.56755e-01,2.53274e-01,-5.33974e-03,
-1.46264e-01,2.45990e-01,-1.17937e-01,2.63496e-01,-4.09379e-01,-3.73402e-01,2.24737e-01,2.10541e-01,3.12295e-01,1.27478e-01,
-1.49925e-01,-1.32784e-01,5.02338e-01,1.41202e-01,2.03504e-01,-2.19680e-01,5.10542e-01,-4.40625e-01,-3.35833e-01,3.63265e-01,
-8.19369e-03,
0.00000e+00,
-2.21644e-02,
-9.04482e-03,
-5.52500e-02,
-4.08350e-03,
0.00000e+00,
-2.99004e-03,
8.90583e-02,
5.79939e-02,
-3.39808e-01,9.96404e-02,1.82393e-04,4.86231e-01,5.23040e-01,-1.18662e-01,-2.95494e-01,2.79037e-01,-3.31844e-01,4.91268e-01,
3.83083e-01,-3.66661e-01,2.25760e-01,4.65649e-01,4.53423e-01,2.65923e-01,-2.64817e-01,-2.83611e-01,3.48403e-02,6.84028e-02,
3.13286e-01,-2.85441e-01,2.95080e-01,1.28697e-01,1.11625e-01,-1.19799e-01,-3.76999e-01,-1.53165e-01,3.80266e-01,-3.42610e-01,
5.34108e-02,4.82604e-01,5.47634e-01,2.81772e-01,-3.23355e-01,-1.33372e-01,-2.23827e-03,4.90557e-01,-1.32460e-01,2.05980e-02,
2.71775e-01,-4.08489e-01,1.98603e-02,4.25245e-01,3.42143e-01,-4.87867e-01,-2.87910e-02,5.13211e-01,-3.70826e-01,4.50509e-01,
5.63381e-01,-3.50296e-01,2.76919e-01,5.35788e-01,4.45667e-01,1.41817e-01,1.12775e-01,-2.20562e-01,-3.01236e-01,5.44502e-01,
-2.03923e-01,2.16971e-01,-5.23138e-01,-4.48509e-02,2.17155e-01,5.27186e-02,5.12381e-01,4.72841e-01,3.71024e-01,5.13238e-01,
-2.98544e-02,3.59931e-01,-3.71682e-01,3.76363e-01,3.22123e-01,1.36698e-01,1.20627e-01,1.52597e-01,-5.26745e-01,4.09272e-01,
-3.23550e-01,-1.09968e-01,-3.80931e-01,-5.65576e-01,-5.25903e-02,-1.12147e-01,2.39691e-01,-2.56054e-02,3.96331e-01,-1.39304e-01,
-3.61642e-01,-3.25736e-01,4.46470e-01,-1.75488e-01,-4.14369e-02,1.43661e-02,-2.93022e-01,-3.65813e-01,7.54077e-02,3.29045e-02,
1.43832e-02,
-9.92823e-03,
-7.07609e-03,
-1.23658e-02,
-8.35930e-04,
-9.71411e-03,
1.03208e-02,
2.38047e-04,
-7.34917e-02,
-4.20317e-02,
-6.26276e-01,5.56908e-01,-1.11124e-01,-5.81522e-01,1.54953e-01,4.47854e-01,-6.70520e-01,5.41480e-01,2.49375e-01,2.35732e-01,
-1.02278e-02,
