// Neural Network File Format by Kyle Julian, Stanford 2016
4,20,1,200,
20,200,200,200,1,
0,
0,0,0,0,0,0,0,1,0,1,0,0,0,0,1,0,1,0,0,0,
2,80,2,9,20000,2,2,4,2,4,2,1,2,2,4,3,2,1,1,1,
0,0,0,0,0,0,0,1,0,1,0,0,0,0,1,0,1,0,0,0,0,
2,80,2,9,20000,2,2,3,2,3,2,1,2,2,3,3,1,1,1,1,1,
5.12264e-02,1.00357e-01,-2.22312e-02,-1.43368e-01,-4.93558e-03,-1.31614e-01,-1.16125e-01,4.26613e-02,5.10110e-02,-6.96702e-02,-1.07841e-01,2.77714e-02,-8.42949e-02,-1.32516e-01,-1.33771e-01,-1.52206e-01,-1.05379e-01,1.25165e-01,-5.18136e-02,-1.21187e-01,
-1.94848e-02,1.59308e-01,1.03760e-01,-1.53206e-01,-3.13738e-02,3.31538e-02,-1.25430e-01,-1.04095e-01,1.35151e-01,-7.82071e-02,1.06579e-01,1.23665e-01,1.28650e-01,1.36739e-01,5.59887e-02,-2.61354e-02,1.64249e-01,-1.00950e-01,1.04085e-01,1.52150e-01,
9.15046e-03,1.05687e-01,7.98279e-02,1.84185e-01,2.35683e-02,-1.77051e-02,-2.78683e-02,4.25577e-02,1.04305e-02,-2.41298e-02,1.17871e-04,-1.10093e-01,-4.23467e-03,-1.15371e-01,5.99153e-03,4.30170e-02,-2.45912e-02,-1.17506e-01,-6.84008e-02,1.16198e-01,
-1.17310e-02,2.10074e-02,-1.33349e-01,4.35046e-02,-1.60348e-01,-6.45707e-02,-1.27834e-01,2.65968e-02,-9.07150e-02,-6.20022e-03,-1.43729e-01,-9.32472e-02,-1.30274e-01,-1.48684e-01,1.28518e-01,4.65291e-02,5.80571e-02,8.57579e-02,-1.61852e-01,-4.56325e-02,
-1.54027e-01,5.67987e-02,1.24360e-01,3.09040e-03,-4.76386e-02,1.22996e-01,1.41091e-01,9.06701e-02,4.41623e-02,1.51887e-01,-1.60181e-01,-2.62437e-02,-5.26990e-02,-4.82618e-02,1.06541e-01,2.25841e-02,-1.61509e-01,4.18021e-02,-3.76181e-02,1.14525e-01,
6.09953e-02,1.29064e-01,-5.72330e-02,1.64784e-01,-8.49243e-02,-3.37190e-02,5.09910e-02,1.48140e-01,1.11458e-01,-7.70006e-02,-1.04980e-01,-1.79697e-02,-6.62808e-02,-9.65182e-03,-5.61842e-02,-6.83387e-02,-1.22473e-01,6.68190e-02,-7.18435e-02,5.04021e-02,
8.37848e-02,-1.01234e-01,-9.14933e-02,2.93558e-03,1.31859e-01,-3.54057e-02,1.18816e-01,1.20926e-01,1.11697e-01,7.39231e-02,-9.85910e-02,-5.85638e-02,-1.36060e-01,-1.21925e-01,1.15849e-01,-6.64953e-02,1.00481e-01,-4.83218e-02,1.55273e-01,-3.18820e-02,
1.23014e-01,-2.75541e-02,-9.88705e-02,-8.44704e-02,-6.23446e-02,1.52900e-01,-1.00976e-01,-1.17042e-01,-1.08470e-01,-1.44360e-01,-1.55603e-01,5.16664e-02,-1.25600e-01,1.53657e-02,-1.26347e-01,-1.07834e-01,-5.43546e-02,4.26618e-02,1.15846e-01,4.72412e-03,
-1.31372e-01,1.25877e-01,-1.31315e-01,1.08986e-01,6.41291e-02,-4.23654e-02,-1.40147e-01,-9.36327e-02,-6.93747e-05,4.79788e-02,-3.17159e-02,-6.56408e-02,3.09293e-02,-1.02580e-01,3.47409e-02,-7.66732e-02,-1.25761e-01,5.21683e-02,-2.25850e-02,-8.72545e-02,
-9.14251e-02,-1.47368e-01,1.02035e-01,-1.40856e-01,-8.48246e-02,-5.25192e-02,-9.89898e-02,4.84938e-02,3.22978e-02,9.75267e-02,-1.27639e-01,-3.21269e-02,1.25814e-01,1.31883e-01,1.34834e-01,1.51373e-01,5.35469e-03,1.86704e-02,6.41682e-02,1.22886e-01,
-6.26267e-02,1.23543e-01,-7.46462e-02,5.58623e-02,-8.71615e-02,1.92920e-02,-4.31267e-02,1.38158e-03,-9.39787e-02,6.75132e-02,6.11847e-02,2.65035e-02,1.49943e-02,-6.86900e-02,5.38083e-02,-2.94949e-02,1.09614e-01,8.28357e-02,5.50504e-02,5.62923e-02,
7.34351e-02,-7.96751e-02,-4.12627e-03,1.47897e-02,-1.14309e-01,-9.17000e-02,6.70712e-02,1.19944e-01,9.92899e-03,1.39870e-01,-1.48811e-01,8.85183e-02,-1.02355e-02,4.68297e-02,-2.07975e-02,1.03775e-01,7.79730e-02,-1.01106e-01,6.95269e-02,-1.61112e-01,
-7.88360e-02,-5.38643e-02,9.10998e-02,-4.23836e-02,8.01836e-03,-9.91346e-02,1.80774e-02,5.78212e-02,1.54213e-01,1.02339e-01,-1.14584e-01,1.09674e-01,-1.04721e-01,6.07472e-02,3.74999e-02,7.74825e-02,2.75128e-02,1.79171e-01,1.90595e-01,3.61223e-02,
1.58750e-02,1.31590e-01,-7.20154e-02,-9.17885e-02,-1.41987e-02,-6.58072e-02,1.19012e-01,-1.45081e-01,1.06040e-01,5.37919e-02,1.57307e-01,-1.25448e-01,-1.45652e-01,-1.31228e-01,1.17970e-01,-1.50809e-01,1.63773e-01,5.51735e-02,5.66619e-02,1.48446e-02,
2.46425e-02,-1.34556e-01,-1.03388e-01,1.06225e-01,-6.47915e-02,8.37306e-02,-3.83777e-02,9.54804e-02,1.60623e-01,-1.35236e-01,9.84644e-02,-1.48522e-01,8.68702e-03,-4.64102e-02,-2.23692e-02,9.76095e-02,1.02570e-01,-1.13167e-01,-1.49581e-01,4.44303e-03,
1.32011e-01,1.04727e-01,-1.32441e-01,2.32626e-02,-1.10206e-01,8.52771e-02,1.40326e-01,1.17085e-02,-1.03657e-01,-1.31991e-01,1.45710e-01,-7.84705e-02,8.11378e-02,6.33642e-02,4.64376e-02,-5.93627e-02,-3.62177e-02,-1.59012e-01,-2.29715e-02,-1.03303e-01,
-1.62019e-01,-1.40080e-01,1.21018e-01,-9.80937e-02,-1.21057e-01,-7.50890e-02,9.30154e-02,-2.16228e-03,7.68630e-03,1.47385e-01,1.47331e-01,-7.11603e-02,-7.86675e-02,7.62763e-02,1.06052e-01,-8.58948e-02,2.66623e-02,1.05802e-01,-1.17268e-01,-8.67800e-02,
-4.10861e-02,-1.19240e-01,-7.17427e-02,-5.87031e-02,6.69680e-02,-1.09214e-01,-1.43309e-01,1.28100e-01,-1.44054e-01,-1.53458e-01,1.27007e-01,8.97120e-03,1.25691e-01,-7.48786e-03,2.71659e-02,4.44933e-02,-2.58543e-02,-1.76223e-01,-1.90738e-01,5.40559e-02,
4.44386e-02,9.98046e-02,-1.06424e-01,-6.50338e-02,-1.01850e-02,1.28607e-01,-5.67655e-02,9.45547e-02,4.83678e-02,1.38700e-01,-3.96519e-02,9.70591e-02,-2.83511e-02,9.79062e-02,4.63435e-02,9.02492e-02,-1.45136e-01,3.84324e-02,3.33452e-02,-1.49187e-01,
-5.25283e-02,1.40316e-01,4.88454e-02,1.15024e-01,1.08080e-01,1.56189e-01,9.05702e-02,6.02164e-04,4.89127e-02,-3.58017e-02,-1.03933e-01,9.41558e-02,1.27917e-01,1.48747e-01,7.58953e-02,-6.33496e-03,-1.36605e-01,-3.62591e-02,6.02580e-02,8.18770e-02,
1.17514e-01,1.29914e-02,-5.08483e-02,1.24388e-01,1.78940e-02,-3.79676e-02,4.77657e-02,6.55941e-02,1.37565e-01,7.02054e-02,4.07470e-02,1.60667e-01,-1.22995e-02,5.66855e-02,1.70239e-02,6.23047e-02,-9.57240e-02,-1.17922e-01,1.58634e-01,1.88149e-02,
1.36047e-02,-5.04111e-02,-1.96876e-02,8.30382e-03,1.33115e-02,9.59015e-02,5.34941e-02,1.57986e-02,-1.43417e-01,-4.92203e-02,-7.84563e-02,1.30921e-01,1.54041e-01,-3.83066e-02,9.61976e-02,-1.97305e-02,2.86095e-02,5.57655e-02,-1.46543e-01,-4.81259e-02,
-1.29617e-01,-7.03767e-03,8.33214e-02,1.01147e-02,-1.46921e-01,-1.42599e-01,-8.03152e-02,2.63420e-02,-1.51100e-01,1.97276e-02,-5.58787e-02,1.51046e-01,4.38845e-03,-5.39362e-03,-6.07442e-02,1.02623e-01,-1.17584e-01,-4.45899e-02,-9.84661e-02,-1.07273e-01,
1.09461e-02,-1.05300e-01,-8.59451e-02,-2.74042e-02,3.68654e-02,-1.68065e-01,-2.29085e-03,-2.96849e-03,-6.00746e-02,8.85185e-04,-9.23345e-03,-1.64903e-01,8.90013e-02,1.31203e-02,-1.27122e-01,4.39390e-02,3.77617e-02,5.57575e-02,-1.84974e-01,5.20573e-02,
5.29375e-02,1.52407e-01,1.29193e-01,-3.98082e-03,-6.04583e-02,1.15413e-01,2.78195e-02,1.09303e-01,-1.25221e-01,-1.05108e-01,-2.64881e-02,-1.34640e-01,-1.00986e-01,-1.41714e-01,-1.54041e-02,4.01464e-02,1.26183e-01,1.17024e-01,-4.65648e-03,-3.49534e-02,
-5.92803e-03,-1.48759e-01,3.62429e-02,3.89612e-02,2.59398e-02,1.14968e-01,-1.97740e-02,1.40685e-01,1.71331e-01,9.97136e-02,-2.67281e-02,1.44674e-01,1.13622e-01,1.40038e-01,-7.23667e-02,-1.19595e-01,1.05948e-01,1.59301e-01,5.90231e-02,1.01017e-01,
1.90100e-03,7.87996e-02,6.82166e-02,4.99739e-02,4.69216e-02,-6.75228e-02,-1.59776e-01,6.04814e-02,5.10783e-02,-9.70345e-02,1.33183e-01,-4.88837e-02,-2.85442e-02,4.86612e-02,-5.71033e-02,-1.33797e-01,-1.27355e-01,-9.06458e-02,1.40825e-02,-1.42205e-01,
-5.67999e-02,-1.82534e-01,-1.19014e-01,-6.47249e-02,8.06113e-02,-1.30415e-01,7.84018e-02,1.28402e-01,1.96391e-01,1.21277e-01,-2.49826e-03,1.47068e-01,1.65743e-01,-1.33018e-02,1.67958e-01,-6.99054e-03,9.15742e-02,1.21010e-01,5.16808e-02,-1.99552e-02,
1.52102e-01,-1.03721e-01,7.15903e-02,7.84533e-02,3.78660e-02,-1.43379e-01,1.33023e-01,1.57283e-01,1.05246e-02,-7.33122e-02,-4.40600e-02,2.03815e-02,-6.39412e-02,4.99399e-02,-1.90744e-02,-1.34952e-01,-1.16891e-01,-7.39309e-02,1.70542e-01,3.94076e-02,
-1.96120e-02,-9.40030e-02,8.71474e-02,1.59880e-01,-8.90480e-03,7.43474e-03,-1.06026e-01,1.03015e-01,1.68290e-02,-8.26756e-02,6.31810e-02,-1.60365e-01,3.69403e-02,9.38677e-02,6.34961e-02,-7.33364e-03,9.19911e-03,-1.43811e-01,1.04129e-01,1.45323e-01,
1.48144e-01,4.21547e-02,-1.61717e-01,1.06548e-02,-3.72122e-02,6.61986e-02,6.02906e-02,-1.05233e-01,-1.32706e-02,9.04971e-02,-1.05292e-01,-1.08555e-01,-1.55952e-01,-6.62542e-02,-6.53809e-02,7.80390e-02,8.92343e-02,1.54951e-01,2.42413e-02,-8.28086e-02,
-8.66923e-02,9.70531e-02,-1.56808e-01,-1.47601e-01,-3.72913e-02,9.16542e-02,1.19889e-02,1.14219e-01,9.70119e-02,1.16270e-01,-9.16624e-02,-1.31142e-01,1.75484e-02,7.49612e-02,4.28298e-02,-9.80222e-02,1.47092e-01,6.51207e-02,1.63128e-01,1.30409e-01,
5.99475e-02,1.02920e-01,1.17211e-01,1.30356e-01,5.32951e-02,3.20334e-02,-1.65175e-01,9.71227e-02,-1.05303e-01,9.72835e-02,2.30038e-02,-1.83202e-01,4.08871e-02,6.39003e-02,-1.06207e-01,-1.49753e-01,-5.10182e-02,1.21251e-02,-7.71620e-02,-1.81528e-01,
8.69963e-03,3.21531e-02,4.90654e-02,-1.31396e-02,-1.56202e-01,-4.93037e-02,-5.76795e-02,2.46029e-02,-1.39756e-01,1.30447e-01,-5.48108e-02,1.31360e-01,-1.05839e-01,1.03980e-01,-6.57334e-02,1.22078e-01,-5.02062e-02,-9.74228e-02,-1.20737e-01,5.10277e-02,
-1.88001e-03,-6.14583e-02,-1.52376e-01,-6.93061e-02,-4.98522e-02,-7.80497e-02,3.10127e-02,-9.34874e-02,7.59304e-02,1.12362e-01,-3.07419e-02,-1.55654e-01,5.49595e-03,-5.15467e-02,8.72453e-02,-1.57448e-01,-1.44598e-01,-4.87456e-03,-3.53293e-02,1.51980e-01,
-9.37597e-02,1.15962e-01,6.92765e-03,-1.45959e-01,-5.58616e-02,7.38914e-02,-1.55172e-01,-4.92728e-03,-2.87880e-02,1.51638e-01,1.43784e-01,-6.10854e-02,1.11013e-01,2.20644e-02,7.71230e-02,-2.18148e-02,1.48827e-01,-3.68905e-02,1.99090e-02,-1.55873e-01,
1.14187e-01,-1.65044e-01,-8.96870e-03,5.99008e-02,-1.13483e-01,-5.74611e-02,9.37228e-02,-1.45531e-01,-1.50200e-01,1.37873e-01,-1.18826e-01,-9.92485e-02,1.19987e-01,-1.62950e-01,-1.54078e-01,-9.35074e-02,-1.26591e-01,-6.61446e-02,1.34065e-01,-1.60993e-01,
1.22829e-01,6.55273e-02,1.01810e-01,-1.57330e-01,-1.47527e-01,1.11828e-01,-5.69489e-02,1.19151e-01,9.69496e-02,6.24706e-02,4.12032e-02,-5.20736e-02,1.55602e-01,-1.02751e-01,-8.14780e-02,7.85725e-02,-6.93158e-02,-7.23244e-03,1.19177e-01,-7.15201e-02,
-1.19135e-01,1.28480e-02,9.24108e-02,6.80247e-02,5.95730e-02,-3.74300e-02,-5.89165e-02,8.63867e-02,-1.55022e-01,-1.56091e-01,-6.09362e-02,6.90368e-02,-1.35690e-01,-1.24529e-01,-8.68999e-02,-3.59547e-02,-1.60421e-01,-1.20101e-01,-2.03011e-01,-2.04537e-02,
6.16993e-02,1.22933e-02,-1.61440e-01,2.26449e-02,-4.88165e-02,-1.26674e-01,1.59925e-01,-3.92817e-02,1.43558e-01,6.29864e-02,7.53355e-02,8.54172e-02,-4.76443e-02,1.43416e-01,1.08906e-01,-1.54235e-01,1.33466e-01,-4.47639e-02,1.18203e-01,5.52544e-02,
-8.66545e-02,5.20578e-02,-1.64247e-01,-1.16317e-01,-1.41231e-01,-1.16946e-01,-6.25581e-02,7.53113e-02,1.41957e-01,1.04192e-01,1.48965e-01,-8.22100e-02,1.59607e-01,9.13609e-02,2.13213e-02,-8.72982e-02,1.57793e-02,1.15985e-01,6.06294e-03,-1.74433e-02,
1.15678e-01,4.13609e-02,-6.87513e-02,-2.71146e-02,1.48895e-01,1.60942e-01,-1.23021e-01,-1.59607e-01,7.10566e-02,-9.56195e-02,-9.91545e-02,1.54901e-01,1.54261e-01,1.80583e-02,3.12539e-02,9.84769e-02,7.54698e-02,1.30836e-01,3.70102e-02,8.72609e-02,
2.01495e-01,-1.35075e-01,1.68300e-01,1.37280e-02,2.11576e-03,8.37493e-02,8.40685e-02,-4.01621e-02,1.38911e-01,-1.31611e-01,7.41105e-02,4.06714e-02,-6.35172e-02,-7.67568e-02,1.50286e-01,-3.96190e-02,-3.28099e-03,1.10159e-01,1.14060e-01,-1.26944e-02,
-1.42453e-01,9.17326e-02,-6.75853e-02,1.35904e-01,-1.09020e-01,-1.04704e-01,7.64403e-02,1.53534e-01,8.41219e-02,1.14767e-01,-3.40091e-02,8.38585e-02,-1.08720e-01,-1.06816e-01,-9.87492e-02,8.42557e-02,5.65138e-02,-6.31516e-02,1.38366e-01,1.60225e-01,
9.86704e-02,2.04738e-02,-1.45234e-01,-1.21364e-01,-1.65002e-01,-3.21949e-02,3.83364e-02,-3.44809e-02,-1.40719e-01,1.26340e-01,1.47271e-01,-1.59643e-01,5.06803e-02,-1.62579e-01,-3.22689e-03,-9.52430e-02,-6.79401e-02,1.57867e-01,9.45390e-02,-5.33005e-02,
-2.03713e-03,-8.96033e-02,-1.61440e-01,-1.77140e-02,1.08417e-01,8.71627e-02,4.04119e-02,3.74431e-02,8.99793e-02,-1.12304e-01,-8.82688e-02,-9.83659e-02,-1.65069e-01,-9.15469e-02,6.76683e-02,-1.01941e-01,-1.07099e-01,1.65856e-02,1.10275e-01,-1.37135e-03,
2.87851e-02,-7.40167e-03,-9.50262e-02,1.06337e-01,-1.33202e-01,1.14208e-01,1.26771e-01,4.00365e-02,-1.51818e-01,-4.24185e-02,-3.15137e-02,-6.36764e-03,7.93810e-02,1.52962e-01,1.40340e-01,-1.10939e-03,1.51708e-01,-9.95961e-02,-1.29848e-01,1.02827e-01,
-1.10773e-01,9.56491e-02,1.00425e-01,-5.70809e-02,-7.09617e-02,-4.91231e-02,8.24916e-02,-1.27226e-02,-3.81763e-02,-1.34604e-02,-3.67515e-02,-1.37035e-02,-1.02033e-03,-5.24578e-02,-6.14629e-02,5.63853e-02,1.19840e-01,4.47406e-03,-1.01401e-01,1.17436e-01,
7.86426e-02,1.44568e-01,1.31312e-01,2.43762e-03,-1.26863e-02,-8.99591e-02,1.63951e-01,-2.52317e-02,-2.67721e-02,9.95930e-02,7.52070e-02,-1.09411e-01,6.42474e-03,7.12630e-02,-1.01720e-01,-2.45098e-02,-1.67373e-02,8.78347e-02,2.89959e-02,9.24520e-02,
-6.47112e-02,-1.30384e-01,5.80059e-02,1.06746e-01,3.92515e-02,-6.01123e-04,-3.65851e-02,-8.16341e-02,6.13903e-02,6.97989e-02,-1.63885e-01,-9.54669e-02,8.61582e-02,2.12248e-02,1.87150e-02,2.28783e-02,3.04375e-02,1.14394e-02,1.59343e-01,6.80244e-02,
-8.90145e-03,2.85380e-02,-1.75033e-01,-1.36188e-01,1.00571e-02,1.17875e-01,-7.97398e-02,-1.50300e-01,-2.34707e-02,1.27263e-01,6.47371e-02,-1.86615e-01,-4.02018e-02,-1.30435e-01,-1.63973e-01,1.38889e-01,1.08114e-01,1.06751e-01,-6.59831e-02,4.21039e-02,
-1.14826e-02,-3.74731e-02,1.02489e-01,-8.88674e-02,-6.23515e-03,7.40755e-03,-4.86847e-02,-1.12556e-01,-1.58218e-02,1.86279e-02,-9.63838e-02,-1.59134e-01,-6.18389e-03,1.84352e-02,6.72764e-03,1.35875e-01,4.45756e-02,-3.91065e-02,5.53714e-02,-1.01777e-02,
1.00808e-01,-1.10082e-01,-1.16574e-01,-6.59295e-02,6.04821e-02,-7.09669e-02,-1.80478e-01,-1.39673e-01,-8.95495e-02,8.64827e-03,9.29683e-03,3.39176e-02,1.00101e-01,-1.31719e-01,-7.44146e-02,-3.01000e-02,-4.85846e-02,3.81920e-02,-2.75404e-03,-1.50330e-01,
7.34280e-02,7.80317e-03,-3.19510e-02,3.97778e-02,-4.48268e-02,1.19758e-01,-9.30308e-02,5.95581e-02,1.07356e-01,-1.54789e-01,6.82909e-02,9.60525e-02,9.01173e-03,1.38128e-02,-9.36743e-02,4.71702e-02,-2.98517e-02,-1.14980e-01,-2.39431e-02,1.10179e-01,
-5.65394e-03,1.17319e-01,-4.67413e-02,1.50240e-01,3.06045e-02,-5.03932e-02,2.24408e-02,5.51516e-03,1.54278e-01,-5.85575e-02,1.47221e-01,-9.24987e-02,2.60230e-02,-2.83169e-02,-2.91170e-02,1.23704e-01,1.27819e-02,7.05283e-02,1.64989e-01,1.51022e-01,
1.82891e-02,6.02562e-02,6.78071e-02,5.41415e-02,1.24520e-01,1.37453e-03,-5.49208e-02,1.01957e-01,-1.71178e-01,-5.83052e-03,9.37557e-04,8.32756e-02,-2.13026e-01,-3.66699e-02,-4.23073e-02,7.44744e-03,-1.91374e-01,-1.66178e-01,-2.20154e-01,-1.60521e-01,
5.57940e-02,8.54496e-02,8.46758e-02,6.86883e-02,1.54287e-01,1.29538e-01,-1.62544e-02,7.44046e-02,5.48946e-02,6.56458e-02,1.03406e-01,1.42577e-02,-1.20323e-01,6.75730e-02,-5.10763e-02,4.83170e-02,1.74589e-01,1.65698e-01,-3.13930e-02,1.74496e-01,
-1.00792e-01,9.15200e-02,4.59897e-02,1.23220e-01,-1.23870e-01,6.64295e-02,-4.47386e-02,2.34458e-03,1.03946e-01,2.45199e-02,9.58632e-02,8.77143e-02,-1.58197e-01,-1.47928e-01,-7.64289e-02,-2.77694e-03,4.42751e-03,-3.61256e-03,-8.47671e-02,1.11850e-01,
1.13840e-01,4.53970e-02,-1.43295e-01,-8.04112e-02,7.52582e-02,-7.36173e-02,-5.15883e-02,2.47320e-02,1.32537e-01,1.50252e-01,1.09169e-01,-5.78148e-02,1.59473e-01,-1.36310e-02,-2.75734e-02,1.15234e-02,-8.16050e-02,1.50471e-01,-9.40861e-02,1.08858e-01,
-5.34922e-02,2.94723e-03,-3.72889e-02,1.68580e-02,-6.62579e-02,-1.02569e-01,-1.21439e-02,5.44063e-02,-2.47373e-02,1.30475e-01,-2.96744e-02,3.77202e-02,2.12193e-05,-8.07190e-02,-1.41641e-01,6.75766e-02,3.54394e-02,-6.54151e-02,-7.07354e-02,2.84841e-02,
-7.22406e-02,-1.75033e-02,1.02304e-01,-9.42859e-02,-4.46643e-02,3.94081e-02,4.08561e-02,-1.11429e-01,3.68615e-02,-8.46938e-02,-4.68090e-02,6.41700e-02,-2.44563e-02,1.26008e-01,4.83316e-02,-9.34897e-02,-6.02790e-02,-5.83817e-02,-8.15991e-02,-2.27500e-02,
-8.61864e-02,-9.81185e-02,-1.38189e-01,1.45733e-01,1.37710e-02,-1.17706e-01,-5.22941e-02,1.07077e-02,-8.98666e-02,5.69326e-02,-1.43241e-01,1.54281e-02,1.05893e-01,1.00747e-01,-6.35503e-02,-6.08824e-03,-1.21322e-01,-7.56165e-02,4.94421e-02,-1.66321e-01,
-2.51910e-02,1.54004e-02,-8.51406e-02,-1.76802e-01,7.68757e-02,7.89011e-02,-2.12766e-02,-3.43703e-02,-2.09817e-01,2.75996e-02,-1.61505e-01,-1.44944e-01,2.75690e-02,1.15085e-01,1.29073e-01,-8.75795e-02,-6.24845e-03,4.68130e-02,-1.83306e-01,-9.62287e-02,
8.25260e-02,-1.29489e-01,4.15134e-02,-2.44009e-02,-8.80861e-02,4.08456e-02,1.26521e-01,1.26737e-01,1.47650e-01,6.90572e-02,-7.91221e-02,1.52654e-01,8.22934e-02,-1.62123e-01,1.53563e-02,1.33756e-01,8.48165e-02,-9.41375e-02,1.11642e-01,-1.06217e-01,
5.30288e-04,1.30561e-01,9.18463e-02,-1.33153e-01,-1.19662e-01,-1.05425e-01,2.99432e-02,5.87027e-02,-6.29751e-02,-9.26911e-02,9.40289e-02,6.50683e-02,4.30842e-02,-1.65010e-01,5.58877e-02,-1.46290e-01,1.39138e-01,1.23166e-01,6.42681e-02,-1.54406e-01,
-1.04761e-01,-8.43068e-02,-2.75106e-02,-1.11951e-01,-1.40884e-01,-2.49285e-02,-2.44703e-02,1.26752e-01,-3.52586e-02,2.15147e-02,-1.46499e-02,-2.82116e-02,-1.10309e-01,1.28656e-01,-3.77515e-02,-6.28809e-02,-1.33042e-01,-7.04010e-03,2.25507e-02,-8.99016e-02,
-1.21613e-01,1.34790e-02,-2.79875e-02,-1.16027e-01,-9.31433e-02,1.58339e-01,7.43048e-02,8.63774e-02,2.21076e-02,9.82285e-02,-1.17252e-01,-9.96315e-02,-9.66357e-03,-7.06270e-03,1.71965e-02,-1.57474e-01,8.60220e-02,-4.81315e-02,6.76454e-02,1.40963e-01,
4.83415e-02,8.52804e-03,-1.21289e-01,-1.50236e-01,-2.58516e-02,2.23693e-02,1.56746e-01,1.24095e-02,-4.74385e-02,1.12740e-01,9.76676e-02,-1.03550e-01,-1.47730e-01,-1.56666e-02,1.01356e-01,1.17239e-01,-1.59245e-01,-7.26368e-02,1.50362e-01,7.71807e-02,
1.96347e-01,-3.62167e-02,1.24756e-01,1.65636e-01,1.27753e-01,-2.96385e-02,-1.17132e-01,2.54089e-02,1.49919e-01,1.60972e-01,-1.08511e-01,1.00903e-02,4.03604e-02,1.14065e-01,-3.33650e-02,1.60117e-01,2.98622e-02,-1.30951e-01,-5.94866e-02,1.68538e-01,
-1.32981e-02,5.18851e-02,-1.87294e-01,-6.36701e-02,1.28314e-01,-1.80105e-01,6.58213e-02,-8.94847e-02,6.28585e-02,7.75919e-02,-2.57632e-02,-2.14370e-01,-1.49191e-01,-1.13508e-01,2.62921e-02,-9.96185e-02,1.80685e-02,-6.05825e-02,8.54618e-03,-2.12921e-01,
-1.09265e-01,8.71349e-02,3.35117e-02,-9.71564e-02,3.04537e-02,-1.44106e-01,4.09229e-02,6.39948e-02,-1.47574e-01,-9.43628e-02,-3.87611e-03,-1.85999e-02,6.05383e-02,2.15200e-02,2.89884e-02,-8.34237e-02,1.00887e-01,5.26026e-02,-1.76463e-01,5.67669e-02,
-8.48249e-02,-1.09385e-01,-1.60385e-01,1.32426e-01,3.03535e-03,-1.18814e-01,-1.46931e-01,-1.45083e-01,2.50154e-02,1.36413e-01,4.09708e-02,1.07067e-01,2.51129e-02,9.66736e-02,-1.39429e-01,6.29839e-02,1.11612e-01,4.42833e-02,-1.22919e-01,-1.02781e-02,
-1.73868e-02,8.01539e-02,-6.04433e-02,7.69855e-02,-1.43378e-01,-8.72017e-03,1.51366e-01,-1.22439e-02,8.10973e-03,1.10497e-01,1.63910e-01,-1.25220e-01,-4.13867e-02,-7.96501e-02,-9.48380e-02,-1.20840e-01,5.68417e-02,9.18891e-02,8.40991e-02,-9.17315e-02,
-1.04505e-01,-3.30698e-02,-3.38275e-02,2.17015e-02,-9.45157e-02,-3.18560e-02,3.88211e-03,7.46226e-02,-1.04474e-01,-9.96846e-02,-1.11483e-01,-7.93184e-02,-1.24593e-01,-7.78098e-02,4.32286e-02,-1.10328e-01,1.28135e-01,-3.03188e-02,7.00999e-02,-1.18510e-01,
9.52075e-03,4.20195e-02,3.61946e-02,-5.53600e-02,-1.53530e-01,-1.01089e-01,-1.13639e-01,-8.76585e-03,1.60743e-01,6.41732e-02,1.16484e-01,1.10210e-01,1.11153e-01,1.06308e-01,5.21802e-02,-9.86183e-02,-1.54812e-01,-1.54010e-01,-1.37730e-02,-1.47973e-01,
6.78002e-02,-1.12478e-01,8.26624e-02,1.26771e-01,-1.56215e-01,1.36079e-03,-9.93294e-02,9.94656e-02,5.83001e-02,2.86555e-02,-3.54823e-02,1.23512e-01,1.07163e-01,1.38102e-01,5.33222e-02,-4.16737e-02,7.24091e-02,1.59556e-01,2.58853e-02,9.81492e-02,
1.31664e-01,-2.36963e-02,-5.09520e-02,1.24006e-01,-2.38022e-02,-1.36262e-01,-2.74598e-02,4.45619e-02,-1.43170e-01,-8.10308e-02,-1.30201e-01,-7.36132e-04,1.83585e-02,1.40583e-01,-1.09886e-01,1.40356e-01,-6.27253e-02,1.19421e-01,3.76779e-02,-1.11763e-01,
-6.14791e-02,7.23199e-02,-5.85559e-02,2.21665e-02,-1.32467e-01,-1.46848e-01,1.44685e-01,-7.49830e-02,-3.29935e-02,-1.43142e-01,-1.47817e-01,-1.49333e-01,-1.15326e-01,-3.06669e-02,-4.04371e-02,-1.08630e-01,7.39112e-02,-1.31819e-01,7.61342e-02,1.60952e-01,
4.07519e-02,-9.99184e-02,-4.00647e-02,1.28131e-01,-3.60513e-02,-1.31138e-03,-3.91360e-02,-7.47877e-03,-2.11368e-02,-1.34108e-01,1.48314e-01,1.05201e-01,1.26890e-01,-2.83165e-02,7.81020e-02,4.96851e-03,1.28290e-02,1.33374e-01,-5.83563e-02,-1.30024e-01,
9.24436e-02,-7.33240e-02,8.42016e-02,-4.43422e-02,8.68197e-02,-8.27775e-02,1.04377e-01,-5.06746e-02,1.14768e-02,-5.71603e-02,2.69270e-02,-2.68757e-03,-1.67186e-01,-1.41077e-01,-3.33967e-02,6.53732e-02,1.04253e-01,2.41325e-02,-1.74206e-01,4.87466e-02,
-1.28126e-01,-6.93821e-02,7.23277e-02,-2.62850e-02,-7.28368e-02,3.63667e-02,-1.15872e-01,2.09618e-02,-4.28828e-02,6.86207e-02,8.38404e-02,2.83456e-02,-1.05206e-02,-1.81424e-02,-1.52404e-01,-1.46683e-01,-1.07547e-02,-1.16617e-01,-1.01608e-01,9.07755e-02,
-6.28133e-02,2.67846e-03,8.61802e-03,7.70374e-02,9.29760e-02,-1.25935e-01,4.41509e-02,1.35469e-01,-1.05385e-01,-1.13669e-01,1.12805e-01,1.25573e-01,6.98197e-02,6.96289e-02,-1.15543e-01,-1.12512e-01,-1.14242e-01,-8.69445e-02,1.27880e-01,-1.05328e-01,
1.43894e-01,1.27401e-01,9.50114e-02,1.64108e-01,-8.29305e-02,-1.09290e-01,1.69702e-02,-6.42355e-02,8.62361e-02,-1.11247e-01,7.75042e-02,-8.68988e-02,-1.54354e-01,-5.34676e-02,1.24570e-01,7.51710e-02,-1.13794e-01,-1.50412e-01,4.00062e-02,-1.31930e-01,
-1.25592e-01,9.76499e-02,1.49518e-01,-4.80586e-02,1.16489e-01,-2.49700e-04,9.62632e-02,4.61373e-02,-8.20424e-02,-4.51791e-02,-1.16716e-01,-1.04117e-01,-8.06865e-02,-1.71274e-01,-6.32274e-02,-2.24881e-02,-4.08258e-03,1.66235e-02,-9.66907e-02,6.95425e-02,
-1.06041e-01,1.23731e-01,-1.11435e-01,-1.03912e-01,1.28540e-01,-1.48636e-01,-1.57901e-01,-3.92528e-02,7.80305e-02,1.12930e-01,-1.08679e-01,-1.31640e-01,-1.88454e-01,9.00060e-02,1.18249e-01,-1.07291e-01,-1.17066e-01,-6.49174e-02,4.51582e-02,1.22876e-01,
-7.85173e-02,4.84367e-02,1.06034e-01,7.73455e-02,-1.86402e-02,2.95535e-02,-1.37166e-01,8.91403e-02,-1.20751e-01,-8.43823e-02,1.33430e-01,-1.00051e-01,5.82047e-02,-1.39093e-01,1.50730e-01,4.32119e-02,1.60450e-01,1.59309e-01,9.81477e-02,-7.09243e-02,
-2.15745e-01,1.23051e-01,-1.68774e-01,-1.18531e-01,9.89444e-02,-6.97077e-02,-1.59501e-01,5.89088e-02,7.40092e-03,6.84467e-02,2.75631e-02,-5.85491e-03,-5.20229e-02,-1.40133e-01,4.70489e-02,-9.38885e-02,-2.40270e-02,8.36926e-02,-2.31654e-01,-6.26797e-03,
1.36316e-01,-3.22007e-02,1.49978e-01,-7.95356e-02,4.61339e-02,9.34538e-04,-1.94900e-02,-1.10585e-01,6.01374e-02,-1.26087e-01,-1.10523e-03,-5.87728e-02,1.64516e-01,1.38203e-01,-8.02880e-04,-1.36158e-01,-9.07583e-03,-1.12205e-01,-4.23075e-02,-8.64295e-02,
8.28974e-02,1.60507e-01,-5.62118e-02,-1.19725e-01,1.28979e-01,-1.10461e-01,6.79615e-02,-1.25125e-01,4.89955e-02,-9.75929e-02,4.64160e-02,8.51001e-02,6.45074e-02,3.48499e-02,1.09750e-01,-4.18433e-02,6.26118e-02,6.81898e-02,-3.96471e-03,-3.96492e-02,
7.67047e-02,-3.68639e-02,-5.37678e-02,3.69874e-02,2.75947e-02,5.21945e-02,1.64163e-01,7.98996e-02,-6.05344e-02,1.28808e-01,1.56491e-01,1.56039e-01,-9.55756e-02,1.25512e-01,-9.68906e-02,6.65690e-02,-4.28599e-02,-7.61962e-03,-8.26008e-02,3.75341e-03,
-9.60577e-02,8.04260e-02,2.21884e-02,8.49092e-02,-8.76431e-02,-6.90018e-02,-1.57676e-01,2.46920e-02,7.99756e-02,1.38415e-01,-6.10327e-02,2.23990e-02,-1.55047e-01,-1.64667e-01,-4.38558e-03,-6.73702e-02,-8.71990e-02,5.97480e-02,-1.20041e-01,-1.38231e-01,
2.38449e-02,3.58453e-02,-7.61825e-02,3.35392e-02,1.63780e-01,3.79342e-02,4.05790e-02,-1.75797e-01,8.65008e-02,-1.32003e-01,-4.00638e-02,5.26761e-02,-1.30375e-01,1.39846e-01,9.80989e-02,9.92152e-02,1.82314e-02,-1.51755e-01,-2.28254e-01,-1.83114e-01,
-9.91514e-02,1.48298e-01,-1.07747e-01,-2.47510e-02,4.84301e-02,-4.22535e-02,-9.55365e-02,-4.78655e-02,4.21665e-03,-1.10284e-01,-1.54824e-02,-2.12772e-01,-1.26593e-01,8.50143e-03,-1.59034e-02,-1.03836e-01,1.19855e-01,2.40232e-02,6.32706e-02,-1.67563e-01,
-1.49717e-01,1.47365e-02,1.32663e-02,2.64009e-02,-4.40460e-03,-1.28312e-01,-1.04050e-01,1.41530e-01,6.53821e-02,-1.67690e-02,1.40766e-01,-7.96926e-02,-4.35745e-02,8.93069e-02,1.27541e-01,9.66837e-03,1.54155e-01,-1.53082e-01,6.98103e-02,1.13965e-01,
-1.59787e-01,-1.45996e-02,-3.48344e-04,1.08992e-02,1.48716e-01,2.93115e-02,7.80899e-02,8.34635e-02,-1.71746e-01,-1.01353e-01,2.46328e-02,-1.40174e-01,1.28653e-01,-7.29100e-02,4.34409e-02,9.47936e-03,3.66642e-02,-1.12227e-01,-1.14571e-01,-3.56058e-02,
1.07544e-01,8.09548e-02,1.41770e-01,4.07271e-02,-5.07256e-03,-1.35434e-01,1.41778e-01,-1.52025e-01,-1.03357e-01,8.84034e-02,-1.00223e-01,2.22003e-02,5.49697e-02,1.18271e-01,1.46409e-01,4.86580e-02,4.92882e-02,-2.77230e-02,1.01227e-01,-9.29515e-02,
1.13259e-01,3.69362e-02,-8.26495e-02,2.08106e-02,7.89851e-02,1.99941e-03,-1.54961e-01,-6.50114e-02,1.17588e-01,1.08080e-01,1.67816e-01,8.21014e-02,1.23800e-01,9.30087e-04,7.06553e-02,-6.94284e-02,-3.59560e-02,2.78708e-03,-1.81754e-01,-1.73897e-01,
-1.33710e-01,-6.13992e-02,-5.49605e-02,1.12700e-01,-9.40774e-02,-6.51161e-02,-1.61798e-01,1.26332e-01,-2.32000e-02,6.58390e-02,-1.52965e-01,1.55282e-01,7.48062e-03,-8.24535e-02,4.10485e-02,1.17766e-01,-1.27035e-01,-3.93656e-02,8.50224e-02,3.98337e-02,
-1.68944e-01,4.69936e-02,-9.02923e-02,-8.14308e-02,1.24924e-01,6.39617e-02,-2.74567e-02,-1.52629e-01,9.49448e-02,1.46950e-02,1.31119e-01,-7.16890e-02,-7.75953e-02,8.32608e-03,1.02675e-01,-3.29905e-02,1.27111e-01,-1.13164e-01,1.07929e-01,-1.30600e-01,
4.12147e-02,-1.52927e-01,7.28519e-02,1.57321e-01,-1.62744e-01,6.69573e-02,-7.80842e-02,-1.93711e-02,1.48900e-01,-1.38322e-02,9.74597e-02,-1.33054e-01,-8.42518e-02,8.25387e-03,1.32759e-01,-1.19179e-02,-1.49797e-01,7.05153e-03,1.32032e-01,-4.92993e-02,
-8.59899e-02,-1.64800e-03,-4.07121e-02,-1.05397e-01,7.27146e-02,-1.82745e-01,8.41485e-03,1.42407e-02,-9.91128e-02,-1.01432e-01,-8.88387e-03,1.10765e-01,-7.78638e-02,1.26961e-01,1.01806e-01,1.22572e-01,1.13048e-02,-1.10353e-01,-9.96160e-02,8.85754e-02,
5.11619e-02,-7.17653e-02,1.65987e-01,1.25837e-01,4.85006e-02,1.12735e-01,1.06567e-01,1.41936e-01,-3.68985e-02,-1.37762e-01,8.35271e-02,2.13141e-02,-4.12714e-02,-1.21325e-01,3.12153e-02,-5.53524e-02,4.06971e-02,-1.18083e-01,-7.28496e-02,9.63737e-02,
4.07315e-02,-1.30227e-01,-1.01938e-01,1.24839e-01,-1.39123e-01,-3.64318e-04,-4.21657e-02,1.23912e-01,-3.17894e-03,-1.49091e-01,1.56804e-01,1.02086e-01,1.29298e-01,-8.07310e-02,-1.38273e-01,1.57086e-01,-2.97788e-02,-1.56057e-01,1.05518e-01,-2.20689e-02,
1.59694e-01,6.06979e-02,-1.57629e-02,1.79994e-01,8.03338e-02,-5.67856e-02,-9.86803e-02,-1.70966e-02,-2.14416e-02,-1.14324e-01,-1.17009e-01,-9.20088e-02,-1.01272e-01,1.41710e-01,-1.18779e-01,1.42301e-01,-1.21655e-01,8.40634e-02,1.53672e-01,1.19513e-01,
-5.99530e-02,-1.64735e-01,2.36172e-02,-7.47830e-02,1.04042e-01,8.45953e-02,1.42923e-02,9.65043e-02,1.13336e-02,9.36436e-03,5.60308e-03,-5.03712e-03,-9.89218e-02,1.55437e-01,3.40940e-02,-3.90232e-03,1.82225e-01,2.12657e-02,3.36556e-02,1.98265e-01,
-9.21822e-02,-5.18458e-02,-9.99489e-03,-1.46130e-02,-4.29927e-02,-1.19115e-01,8.89218e-02,-1.13478e-03,4.21225e-02,-1.37863e-01,5.13047e-05,-1.08531e-01,-4.26517e-02,-7.11250e-02,8.41541e-02,9.01545e-02,1.13915e-02,2.39956e-02,-3.69850e-02,6.96870e-02,
4.10309e-02,1.04688e-02,3.64811e-02,1.00126e-01,-6.57662e-02,2.25404e-02,2.23519e-02,7.86434e-02,1.68838e-03,4.24464e-02,-1.05274e-01,7.82645e-02,1.50603e-03,-5.88052e-02,-1.35705e-01,-1.55070e-01,2.44611e-02,-3.71691e-02,-2.83368e-02,1.23612e-02,
-1.16317e-01,-1.03656e-01,-7.93850e-02,1.12921e-01,1.21893e-01,1.23673e-01,4.26706e-03,-3.16156e-02,3.56314e-02,-1.47576e-01,-1.14623e-01,8.71029e-02,-7.07714e-02,-2.08219e-02,5.76079e-02,1.13508e-01,1.18393e-01,3.74125e-02,1.28119e-01,1.08818e-01,
8.78433e-02,-1.59028e-01,-1.28833e-01,-3.59460e-02,1.36617e-01,-7.62824e-02,8.25165e-02,-1.34440e-01,8.73980e-02,-7.38087e-02,9.48424e-02,-1.01455e-02,-9.22221e-02,-3.05493e-02,2.02152e-02,-1.01699e-02,6.74082e-02,1.24800e-01,-1.27502e-01,8.07905e-02,
1.43610e-01,4.77928e-02,-3.85152e-02,1.36520e-02,-4.53119e-02,-5.66916e-02,-1.49810e-01,6.93936e-02,-2.48317e-02,1.33669e-01,6.06013e-02,-6.83689e-02,1.64358e-01,-1.63031e-01,-5.74726e-02,1.12401e-01,-1.34000e-01,-1.12899e-01,-7.62907e-02,9.57327e-02,
-3.82185e-03,-7.95048e-02,6.83508e-02,-1.15620e-02,7.89911e-02,3.39219e-02,-1.39071e-01,1.38441e-02,1.21692e-01,1.03615e-01,4.59032e-02,9.47352e-02,1.01802e-01,6.92973e-02,8.79332e-02,-1.59526e-01,6.12705e-02,-9.89475e-02,7.30012e-02,8.92306e-02,
-6.80253e-03,1.42141e-01,6.51379e-02,-5.40777e-02,-1.51395e-01,9.11265e-02,1.26814e-01,8.64180e-02,-1.54926e-01,-2.46146e-02,7.88972e-02,-1.56402e-01,1.99525e-02,-1.25699e-01,1.34137e-02,-1.58159e-01,-9.91089e-02,-1.54991e-01,-1.63108e-01,5.60945e-02,
-1.43406e-01,-1.61807e-01,-1.70143e-01,-1.72087e-01,8.47997e-02,2.52251e-03,-1.67653e-02,-3.33996e-02,8.11947e-03,-1.33115e-01,7.66156e-02,5.99447e-02,-1.05934e-02,4.28120e-02,8.27028e-04,8.92696e-02,-1.23073e-01,4.25075e-02,-1.29872e-01,-1.26369e-01,
-5.74702e-02,3.94096e-02,8.05048e-02,-1.97118e-02,-6.69588e-02,3.81111e-02,-1.37181e-01,9.73910e-02,1.49168e-01,1.77617e-03,9.93699e-02,-1.70303e-02,-8.15621e-02,1.33978e-01,1.02666e-02,3.11486e-02,-1.36049e-01,-2.23220e-02,1.35290e-01,1.09369e-01,
9.51017e-02,1.53518e-01,-1.59977e-01,1.40777e-02,1.03002e-01,5.96937e-02,-1.85005e-01,7.62814e-02,3.78847e-02,5.70291e-02,-9.67534e-02,-1.32443e-01,-1.66754e-01,4.15816e-02,7.56300e-02,2.67341e-02,6.49991e-03,-9.07199e-02,-5.11759e-02,-1.60565e-01,
2.21743e-02,1.24632e-01,-1.92070e-02,1.09516e-01,1.32596e-01,-1.34668e-01,-1.32795e-01,4.75995e-02,2.84625e-02,7.15267e-02,-1.06107e-01,-1.04491e-01,-8.32476e-02,-1.28545e-01,7.57837e-02,-1.64879e-01,1.09781e-01,-5.39666e-02,-1.74464e-01,-1.86984e-01,
4.51720e-02,1.21383e-01,1.25581e-01,2.23692e-02,-1.19106e-01,-1.12250e-01,6.02139e-02,8.76721e-02,1.42559e-01,1.72518e-02,-1.32266e-01,-8.88597e-02,8.85607e-02,9.37866e-02,9.83141e-03,-1.49636e-01,1.21746e-01,9.39448e-02,-1.31094e-01,1.55504e-01,
4.23547e-02,-1.63874e-01,2.31570e-02,-5.40372e-02,-1.78983e-02,-4.56285e-02,1.32228e-01,6.06955e-02,-2.93920e-02,-5.35581e-02,-2.22590e-02,-1.11631e-01,-2.94108e-02,8.13405e-02,-3.33252e-02,-1.35474e-01,1.03280e-01,1.47416e-01,1.00294e-01,4.19129e-02,
1.73221e-03,-6.53859e-02,6.49204e-02,1.50780e-01,1.03492e-01,-8.95330e-02,5.57829e-02,1.14655e-01,2.04271e-01,1.51940e-01,-1.27022e-01,1.13210e-01,-2.04723e-02,-2.75675e-02,1.41195e-01,1.31083e-01,1.53900e-01,-7.33241e-03,3.50192e-02,-9.01701e-02,
-1.06723e-01,-5.01201e-02,-1.63502e-01,3.57474e-02,1.10897e-01,5.40009e-02,-7.24247e-02,-5.35038e-02,3.41353e-02,2.70933e-02,-1.61130e-02,-1.12657e-01,7.10767e-02,-2.20909e-01,1.01787e-01,1.07144e-01,-2.17931e-01,-1.43243e-02,5.66561e-02,8.25572e-02,
-9.21960e-02,-6.60864e-02,2.18591e-02,-7.60344e-02,1.20838e-01,-3.60811e-02,-1.06068e-01,6.46545e-02,-1.06043e-01,1.56230e-01,9.41306e-02,-1.00088e-01,4.61225e-02,1.35533e-01,-1.22665e-01,-7.75687e-02,-2.84412e-02,-9.92431e-02,-1.13011e-01,-9.88980e-02,
-1.18525e-01,2.01662e-02,1.63122e-01,7.64355e-03,-8.99627e-02,-1.55215e-01,-3.89330e-02,1.64477e-01,1.56733e-01,1.24950e-01,-3.42030e-02,-1.64004e-01,1.03598e-01,1.14255e-01,-9.60154e-02,1.23039e-01,7.44172e-02,-3.41517e-02,7.19901e-02,-8.74735e-02,
-1.02799e-01,-1.01374e-01,1.11074e-01,-6.84647e-02,-1.09768e-01,-8.00121e-02,4.80914e-02,-7.37339e-02,-4.64673e-02,-4.06939e-02,5.88936e-02,-1.34287e-01,-5.55614e-02,-3.26181e-02,-2.68003e-02,1.07386e-01,-5.61795e-02,-1.06655e-01,-2.46152e-02,-1.18417e-01,
6.25830e-02,-8.34287e-02,-7.27454e-02,-1.15623e-01,-1.11029e-01,-1.24677e-01,-1.11184e-01,6.76504e-03,-8.77851e-02,-1.13454e-01,1.00664e-01,1.16072e-02,1.05967e-01,9.83235e-03,1.24483e-01,-1.47602e-01,-1.43867e-01,4.02725e-03,9.23146e-02,-3.33413e-02,
1.03889e-01,1.15278e-01,-6.75761e-02,1.68810e-01,-2.22709e-03,1.27583e-01,-3.36018e-02,2.53122e-02,4.41170e-02,-2.75153e-02,-1.11026e-01,-3.03284e-02,2.75725e-02,-1.15501e-01,-3.12188e-02,4.12129e-02,1.50303e-01,1.70947e-01,1.71839e-01,1.50855e-02,
-1.42140e-01,7.12219e-02,-1.77786e-01,-1.78840e-01,1.00021e-01,-3.19566e-03,-1.26629e-01,1.66709e-02,-7.30279e-02,-1.67921e-01,-1.62109e-01,-1.48378e-01,-6.21749e-02,3.53164e-02,-2.26884e-02,-2.16493e-03,-1.55947e-01,-1.13734e-01,3.15132e-02,-1.46656e-01,
3.70719e-02,1.24445e-01,-3.95107e-02,-6.17151e-02,7.70741e-02,-6.00014e-02,-1.14036e-02,8.09418e-02,1.29671e-01,1.33065e-01,2.49945e-02,-1.29073e-01,-3.80412e-02,-2.26612e-02,-1.00167e-01,1.21840e-01,-1.60250e-03,3.77076e-02,-1.20322e-01,1.64154e-01,
-7.95901e-04,-4.04390e-02,-1.60110e-02,-7.97043e-02,-1.17558e-01,-1.26335e-01,-1.58531e-01,-1.60881e-01,-2.46513e-02,4.95843e-02,1.62695e-01,1.60733e-01,-2.03729e-02,9.19104e-02,-1.11476e-01,-4.44558e-02,-1.54133e-01,1.55147e-01,1.18827e-01,-1.50682e-01,
8.91506e-02,-1.04231e-01,4.63128e-02,-9.98994e-02,1.07062e-01,-1.09629e-01,-4.10444e-03,-9.56867e-02,-1.08955e-01,-1.50068e-01,7.04173e-02,-1.03182e-01,7.86929e-02,-1.35836e-01,-1.55968e-01,-1.66022e-02,-6.20244e-02,7.21455e-02,7.59567e-02,1.24703e-01,
-1.24935e-01,-3.90793e-03,-1.14111e-01,-1.22431e-01,-3.22264e-02,-7.80824e-03,1.09069e-01,1.24396e-01,1.24082e-01,1.63980e-01,1.06960e-01,1.09471e-01,-3.36852e-02,1.56707e-01,-8.80534e-02,5.06003e-02,-1.55846e-01,-1.32611e-01,1.18946e-01,8.94926e-02,
-1.20433e-01,-1.10956e-01,4.87379e-02,5.02551e-02,-1.13780e-01,1.46379e-01,7.59505e-02,-8.69075e-02,-4.21143e-02,-1.44664e-01,1.32060e-01,-1.04476e-02,-1.31052e-01,-1.14876e-01,7.26201e-02,-1.50003e-02,-8.47329e-02,1.54154e-01,-8.12441e-02,2.34504e-02,
-8.08903e-02,-6.46494e-03,8.84998e-02,6.44610e-02,-1.32480e-01,4.75111e-02,1.63574e-01,-3.08728e-03,1.28554e-01,-1.09962e-01,-3.45839e-02,5.16222e-02,-1.37114e-01,-1.51587e-01,-8.34957e-04,-1.41207e-01,4.60802e-02,7.06189e-02,2.48052e-02,1.56473e-01,
-2.55501e-03,1.05367e-01,1.08321e-01,-7.57479e-02,7.05785e-03,-1.69894e-02,-1.36917e-01,1.69944e-02,-1.84448e-03,3.69413e-02,1.59232e-01,9.96584e-02,5.20434e-02,1.08963e-01,-8.01162e-02,-7.73735e-03,-5.43706e-02,1.67870e-02,1.43572e-01,-9.60492e-02,
7.33326e-02,1.56443e-03,-6.78764e-02,-4.31265e-02,-1.24471e-01,3.18522e-02,5.16052e-02,8.25204e-02,-1.54628e-01,-3.94377e-02,-3.34318e-02,7.37017e-02,-2.15124e-02,1.47351e-01,8.51742e-02,5.12091e-02,-1.48223e-02,1.62652e-01,-1.13150e-01,5.28488e-03,
5.38307e-03,-5.78604e-02,1.02216e-01,1.09876e-02,-8.33505e-02,6.69954e-02,8.56654e-02,-8.83211e-02,5.92459e-02,-4.88449e-02,1.57471e-01,-1.23173e-01,1.53507e-01,6.15807e-02,1.10064e-01,4.22734e-02,1.29951e-01,-6.19712e-02,-2.17461e-02,5.17805e-03,
1.99325e-02,-5.45338e-02,8.71663e-02,-9.77525e-02,-7.36999e-02,-5.98397e-02,8.97235e-02,-2.66962e-02,1.91496e-02,5.13513e-03,6.22218e-02,-2.03816e-02,-3.86360e-02,6.09098e-02,-3.06242e-02,-1.10002e-01,-8.93682e-02,-4.97182e-02,-4.17352e-02,1.61094e-01,
2.81264e-02,1.03821e-01,5.82876e-02,-9.40601e-02,-1.51814e-01,1.50208e-01,1.35963e-01,-4.07504e-03,1.75409e-02,-7.98009e-02,7.27025e-02,-1.63193e-01,1.43121e-01,5.66021e-02,-1.16953e-01,-1.09851e-01,1.32646e-01,8.68673e-02,-1.27671e-01,-7.86810e-03,
-1.30314e-01,-4.06426e-02,4.18334e-02,-3.26863e-02,8.37408e-02,-6.89189e-02,-9.82121e-02,-1.25955e-02,-6.80108e-02,-8.04547e-02,-1.41003e-01,3.54755e-02,-8.15632e-02,-5.53749e-02,-1.68747e-01,-1.31901e-02,-4.86029e-02,-1.20309e-01,-1.00823e-01,-1.89129e-01,
1.04274e-01,-8.31973e-02,1.98928e-02,-1.05014e-02,1.80786e-02,-1.81335e-01,-5.13323e-02,-1.10833e-01,-1.93221e-01,-6.84633e-02,1.02736e-01,-1.26243e-01,-3.59818e-02,3.41383e-02,1.75799e-02,8.01936e-02,1.17472e-01,1.03405e-02,1.46051e-01,-8.42420e-02,
1.22732e-01,1.37173e-01,-1.52439e-01,1.83248e-02,-6.65782e-02,1.47096e-02,1.09833e-01,1.88280e-02,-1.18255e-01,5.43542e-02,2.28742e-02,-7.62821e-02,1.68473e-02,-1.40488e-01,-7.94780e-02,4.56195e-02,-1.57333e-01,-1.01060e-01,1.13562e-01,-8.55663e-02,
7.91890e-02,6.40705e-02,-5.13273e-02,-1.17565e-02,-1.55374e-01,-4.69719e-02,-1.46985e-02,-5.45232e-02,1.64064e-01,-1.23797e-01,9.73409e-02,9.38968e-02,-2.09650e-02,4.44552e-02,-1.98341e-02,-1.24627e-01,-1.59219e-01,-4.77445e-02,-5.03340e-02,-7.38229e-02,
2.17345e-02,1.25013e-01,-1.05782e-01,-5.35203e-02,7.16419e-02,8.28482e-02,-5.87209e-02,-1.30416e-01,-1.04769e-01,1.57149e-02,5.06097e-02,1.40008e-01,-1.15385e-01,4.57620e-02,5.24491e-02,1.65196e-01,-3.45232e-02,-1.32973e-02,-4.98133e-02,3.59552e-02,
-4.34859e-02,5.74665e-03,-1.03399e-03,1.79130e-01,5.36439e-02,1.71344e-01,1.91546e-01,9.03614e-03,-5.16021e-02,2.61641e-03,1.41934e-01,-5.54232e-02,8.30269e-02,-1.24056e-01,1.33987e-01,1.53344e-01,-1.18155e-01,-1.05848e-01,1.48059e-01,1.56339e-01,
-1.28939e-01,-5.86463e-03,-5.15899e-02,1.06495e-01,1.28741e-02,4.30979e-03,-2.96787e-02,8.23447e-02,1.24061e-01,-1.25428e-01,-2.46882e-02,-9.17295e-02,1.89568e-04,1.16709e-01,2.51365e-02,-5.71494e-02,8.32957e-02,-1.51600e-02,-1.01135e-01,-1.31044e-01,
4.81543e-02,4.34207e-02,-1.91381e-02,-1.45993e-02,-4.17625e-02,-1.07052e-01,-2.92886e-02,8.18897e-02,1.19886e-02,1.64000e-01,3.14296e-02,-1.96206e-02,4.93020e-02,-1.52447e-01,-1.03405e-01,-1.32548e-01,-9.39423e-02,-1.51799e-01,3.01634e-02,-1.44578e-01,
-4.44503e-03,-1.02481e-01,8.95336e-02,1.34519e-01,-8.68768e-04,5.96112e-02,-1.19641e-01,-1.22916e-01,-1.44494e-01,-1.49042e-01,3.15700e-03,-9.98987e-02,-1.52797e-01,-1.12944e-01,-6.00015e-02,-2.45391e-02,-1.29432e-01,1.56730e-03,-1.95002e-02,-5.52490e-02,
-7.71055e-02,-3.86324e-02,6.21597e-02,1.03973e-01,-2.99130e-02,1.30059e-01,1.17921e-02,1.35513e-01,2.83622e-02,2.01065e-02,1.37165e-01,-1.85982e-02,1.08485e-01,1.38264e-01,-2.83759e-02,-8.28005e-03,-8.78115e-02,-5.32068e-02,-7.23176e-02,8.92863e-02,
1.18281e-01,-1.64525e-01,1.26544e-01,-2.23935e-02,-5.55490e-02,6.99027e-02,3.70316e-03,8.72660e-02,-1.17620e-01,1.51082e-01,9.68064e-02,1.98358e-02,3.81938e-02,-2.33652e-02,-6.46107e-02,3.27824e-03,1.05638e-01,1.00460e-01,1.23586e-01,-1.34025e-01,
9.24479e-02,7.65117e-02,1.31629e-02,-1.41236e-01,3.68893e-02,-1.68001e-02,-1.60173e-03,-2.93332e-02,-1.26392e-01,-1.83812e-01,2.87386e-02,-1.42987e-01,-7.64395e-02,8.29493e-02,6.78382e-02,-1.38761e-03,2.35204e-02,9.24191e-02,8.57880e-02,-1.91263e-01,
1.95472e-01,-4.69851e-02,6.13156e-02,4.30772e-02,4.40000e-02,2.46414e-02,1.78487e-01,1.44470e-01,1.29935e-01,1.34928e-02,-6.95702e-02,4.75196e-02,-5.71460e-02,-3.85608e-02,-1.71362e-02,9.05746e-02,2.97172e-02,4.70716e-03,-4.45864e-02,6.82504e-02,
1.07202e-01,-1.45802e-01,-2.15935e-02,-6.14066e-02,-8.14241e-03,-8.57528e-02,-2.49057e-02,7.11072e-02,8.91196e-02,-1.72232e-02,-1.57763e-01,1.14175e-01,-1.51547e-01,1.46197e-02,-5.58795e-02,1.17590e-01,-3.74274e-02,1.54127e-01,3.84779e-02,-4.80542e-02,
-1.48934e-01,5.79301e-02,6.84897e-02,9.05970e-02,-6.98466e-02,-8.33416e-02,-9.84599e-02,5.49032e-02,-7.27090e-02,-1.59223e-01,1.41573e-01,1.10068e-01,-1.52814e-01,6.45750e-02,-1.30649e-02,-3.48494e-02,1.29869e-01,7.71111e-03,-1.03589e-02,1.63932e-01,
1.25217e-01,2.70584e-02,1.37331e-01,8.34889e-02,7.54414e-02,-1.14017e-01,1.01904e-01,5.24657e-02,-8.27857e-02,7.84960e-02,9.30814e-02,-6.10982e-02,5.10618e-02,8.16746e-02,1.05382e-01,8.33890e-02,8.57007e-02,5.51101e-02,1.53056e-01,-4.18067e-02,
1.12237e-01,1.51388e-01,-1.33026e-01,1.31476e-01,-1.29660e-02,1.32246e-01,9.29147e-02,-1.50871e-01,1.05355e-01,4.06571e-02,2.34269e-02,1.29450e-01,-1.39087e-01,5.98342e-02,1.08582e-01,2.58546e-02,-7.91804e-02,3.37773e-02,9.60028e-02,-9.34777e-02,
-6.87036e-03,-5.52062e-02,1.83312e-01,7.58709e-02,4.48211e-02,7.64523e-02,1.09979e-01,-1.33631e-01,8.14453e-02,4.38144e-02,9.62810e-02,2.01782e-01,-1.16207e-01,3.15345e-02,-6.29457e-02,1.90163e-01,-9.26783e-02,4.66498e-02,1.17069e-01,7.14501e-02,
-7.11471e-02,-1.44944e-01,1.46174e-01,1.00993e-01,5.12790e-02,-3.53637e-03,1.38800e-01,-1.25806e-01,-2.53255e-02,7.56000e-02,1.66802e-01,1.50801e-02,-7.87219e-02,4.13461e-02,-6.15877e-02,-3.18461e-02,-2.38076e-02,4.88651e-03,1.28080e-02,-6.71256e-03,
9.75746e-02,5.13009e-02,3.24573e-02,-2.34838e-02,-5.48944e-02,8.64407e-02,-1.50170e-01,9.69661e-02,8.99872e-02,1.36138e-01,-9.22754e-03,-1.32196e-01,3.84934e-02,2.65476e-02,1.19431e-01,-4.06080e-02,-1.62411e-01,7.83119e-02,-1.52550e-01,-1.33687e-01,
8.44464e-02,-1.05315e-01,-1.50626e-01,-8.57452e-02,-3.59331e-02,-9.80543e-02,5.13967e-02,1.08923e-01,-1.19287e-01,-9.12604e-02,-3.55283e-02,7.37899e-02,-2.96251e-02,-5.05515e-02,-7.33644e-02,4.47737e-02,1.59048e-01,7.70035e-03,-6.09895e-02,1.00583e-01,
-1.10498e-01,-1.46891e-01,2.08757e-02,1.00776e-01,-9.68173e-02,-1.71868e-02,-8.46900e-02,6.46239e-02,3.77814e-02,6.13846e-02,1.57947e-01,1.11764e-01,-9.17695e-02,1.47833e-01,5.38209e-02,-1.61484e-01,9.75558e-02,-4.11729e-02,-8.89571e-02,-6.82356e-02,
1.80997e-01,1.17716e-01,1.52451e-03,1.69794e-01,1.46304e-02,1.60235e-02,1.96347e-01,-1.12061e-02,1.76852e-02,1.42388e-01,6.90666e-02,-3.46390e-02,-1.14276e-01,1.58504e-01,-5.89271e-03,-1.19952e-01,1.53508e-01,1.66968e-01,2.10103e-01,4.25959e-02,
-2.29451e-02,-1.43505e-02,1.00829e-01,1.14788e-01,4.73738e-02,-1.45030e-01,3.77665e-02,-2.27477e-02,-9.76637e-02,1.28511e-01,-3.11410e-02,-6.59936e-02,-1.25449e-01,1.46886e-01,7.16087e-02,2.80362e-02,-6.72952e-02,-2.65109e-02,-1.86023e-02,2.92902e-02,
-9.20206e-02,-1.02211e-01,8.54581e-02,1.12193e-01,4.58488e-02,1.50841e-01,4.44070e-02,1.18731e-01,1.55208e-01,1.31696e-01,4.68175e-02,-1.19261e-01,1.78053e-02,-9.16722e-03,-7.43084e-02,-4.45497e-02,-7.44466e-02,-9.95844e-02,1.46492e-01,6.09807e-02,
-2.12982e-02,-3.37259e-02,7.45144e-02,-1.11529e-01,-6.68578e-02,-5.28338e-02,-2.67077e-02,-6.59393e-03,1.43155e-01,1.45301e-01,-1.34199e-01,-9.03869e-02,-1.21461e-01,4.86883e-02,-1.22680e-01,2.55306e-02,-4.61224e-02,-1.28946e-01,1.60453e-01,-6.40021e-02,
7.67606e-03,1.30925e-01,-1.25242e-01,-1.20111e-01,-2.33921e-02,-1.01579e-02,-4.78041e-02,1.29040e-01,1.10489e-01,1.28838e-01,-6.51356e-02,-6.51301e-03,-1.52566e-01,1.96643e-02,-9.50198e-02,1.27415e-01,1.41591e-01,-3.69311e-02,1.42350e-01,-3.21976e-02,
5.62690e-02,-5.12828e-03,5.77088e-02,-1.56374e-01,-1.20897e-01,1.08906e-01,-4.72178e-02,-5.63274e-03,1.40580e-01,-9.95685e-02,1.33417e-01,-1.45134e-01,-8.94326e-02,-1.14080e-01,-4.84457e-02,9.22453e-02,-2.48283e-02,2.12124e-02,-1.61351e-01,-4.14689e-02,
7.34616e-02,-1.20151e-01,-4.03529e-02,-1.85025e-01,6.75786e-02,-7.21018e-03,-1.57830e-01,-1.12152e-01,-1.60465e-01,1.10475e-01,-7.92222e-02,-1.59738e-01,3.95936e-02,-1.05116e-01,-1.27997e-01,1.35530e-01,-8.40704e-02,-1.80754e-01,5.08244e-02,-9.72025e-02,
-8.66301e-02,-6.14863e-02,-6.97746e-02,-5.49684e-02,-1.25315e-02,3.30010e-02,-7.29189e-02,-7.21764e-02,1.01682e-02,4.22047e-02,6.75455e-04,-5.66502e-03,-1.33638e-01,-1.03310e-01,1.62178e-02,1.07430e-01,6.71716e-02,6.72178e-02,5.25535e-02,2.78939e-02,
1.41211e-01,-1.55131e-01,7.04998e-02,-9.60444e-02,4.31893e-02,-4.51383e-02,1.25998e-01,-7.55626e-02,2.18327e-02,3.90745e-02,1.56418e-01,-6.08207e-02,-6.95205e-02,-6.81933e-02,5.45414e-02,1.73476e-01,1.72360e-01,-1.12456e-01,-3.94417e-03,1.14401e-01,
-1.01059e-01,-1.12983e-01,2.40514e-02,8.48937e-03,-2.69397e-02,-6.16242e-02,-1.48281e-01,2.84939e-02,-1.43398e-01,1.46637e-02,8.07043e-02,1.03388e-01,4.29005e-02,6.47682e-02,-5.61126e-02,-4.00847e-02,-1.22988e-01,7.44878e-02,1.59158e-02,1.59605e-01,
8.51154e-02,-1.25415e-01,-1.45139e-01,-1.40153e-01,-4.61709e-02,-1.57745e-02,8.66925e-02,-1.56294e-02,-8.01098e-02,1.50730e-01,1.41217e-01,3.23559e-02,-6.98127e-02,4.68776e-02,-1.79054e-02,-1.89378e-02,-2.53073e-02,-9.08690e-02,1.04255e-01,-2.86266e-02,
-1.39432e-01,-1.64036e-01,3.27556e-03,-7.74011e-02,-1.43153e-02,8.34396e-03,-1.42409e-01,8.11051e-02,-9.73063e-02,1.01513e-01,7.72945e-02,-1.08082e-01,1.01489e-01,-3.07522e-02,-2.77741e-02,7.89961e-02,-1.17570e-01,-1.02599e-01,-1.00799e-01,1.79434e-02,
8.76780e-02,3.98912e-02,1.60090e-01,2.65370e-02,-6.51362e-02,-1.09060e-01,-6.01401e-02,-8.66028e-02,-5.87448e-02,-7.49477e-02,1.53327e-02,-5.25342e-02,8.12157e-02,-4.75068e-02,4.39170e-02,3.14065e-02,1.59486e-01,-5.59218e-02,3.03359e-02,1.51739e-01,
-3.09477e-02,-1.64351e-01,-3.98972e-02,2.31317e-02,7.34962e-02,-6.39941e-02,-3.16633e-02,-1.24234e-01,-3.93192e-02,-6.44740e-02,8.70558e-02,2.86720e-02,9.02298e-02,-8.61076e-02,-2.23951e-02,2.68665e-02,-3.63623e-02,6.44080e-02,3.24744e-03,1.11123e-01,
-1.14332e-01,-5.05873e-02,7.68959e-02,-5.92176e-02,-1.61271e-01,-9.03634e-02,3.40243e-02,1.34555e-01,3.36515e-02,1.45858e-01,1.40415e-01,1.28228e-01,-5.26538e-02,-2.20159e-02,1.62335e-01,5.14143e-02,-3.64676e-02,7.82440e-02,5.24848e-02,-3.19508e-02,
4.36483e-02,-1.44713e-01,1.55317e-02,1.14396e-01,1.26576e-01,1.81328e-01,1.03564e-01,-1.14233e-02,-7.88444e-02,9.08855e-02,1.48494e-01,1.71942e-01,1.03979e-01,-8.02556e-02,1.14178e-01,-1.05620e-01,1.02450e-01,1.31653e-01,2.09398e-01,2.39779e-02,
4.71437e-02,-1.39053e-01,-5.89964e-02,-4.61678e-03,-1.14022e-01,-8.02073e-02,6.54144e-02,-1.34324e-01,1.23791e-01,1.30276e-01,-8.78873e-02,1.35711e-01,-6.54287e-02,6.19809e-02,-3.97795e-02,8.52079e-02,1.04176e-02,-9.74057e-02,-6.23086e-03,9.07575e-02,
-1.59878e-02,1.05684e-01,5.44634e-02,-8.82659e-02,8.68807e-02,-1.44143e-01,6.22317e-02,9.76464e-02,-1.11354e-01,1.75291e-02,-2.37079e-02,-1.47530e-01,6.41932e-02,-1.66977e-02,-1.70094e-01,-1.06546e-01,-6.31551e-02,1.00355e-01,-1.39660e-01,2.07186e-03,
-1.42400e-01,-7.29667e-02,-1.20570e-01,-1.01488e-01,-1.99172e-02,-6.17883e-02,1.49780e-01,1.28500e-01,6.22234e-02,1.04637e-01,5.19249e-02,1.98607e-02,-9.85584e-02,-7.86770e-02,1.59287e-01,-1.14252e-01,5.36126e-02,-3.57696e-02,-1.01525e-02,-1.52926e-01,
-8.85534e-02,1.60880e-01,-2.11744e-02,1.19411e-01,1.18993e-01,4.36258e-02,1.52588e-02,2.57213e-02,-1.08280e-01,-7.29880e-02,-1.72865e-01,-1.26022e-01,7.35897e-02,-1.16699e-01,-9.04568e-02,1.35647e-02,1.34058e-01,1.41566e-01,4.54517e-02,8.10350e-02,
-3.19266e-02,7.42426e-02,-8.03913e-02,-3.47243e-03,-1.64280e-01,6.18538e-02,-2.98093e-02,1.52996e-01,-1.85892e-02,5.55896e-02,-1.52718e-01,-4.21461e-02,4.98725e-02,9.87272e-02,1.52480e-01,2.14841e-02,-8.69615e-03,2.83104e-02,6.63227e-02,4.23451e-02,
9.61851e-02,1.11715e-02,6.24098e-04,1.88298e-01,4.21023e-02,1.85158e-02,7.35393e-02,1.02170e-02,-9.50426e-02,8.53612e-02,1.11967e-01,-8.36919e-02,5.21670e-02,-5.11313e-02,-5.63002e-02,3.38150e-02,-6.86504e-02,-8.69039e-03,-2.28083e-02,1.22707e-01,
-9.94661e-02,-1.50572e-01,5.14198e-02,-6.67540e-02,6.51407e-02,-8.99873e-02,1.68285e-01,-3.58420e-02,3.66616e-02,-1.49615e-02,-9.54629e-02,-1.09261e-01,6.37046e-02,-7.36340e-02,2.04003e-02,5.55629e-02,6.71156e-02,1.28012e-01,-3.71137e-02,1.16957e-01,
-6.23982e-02,-9.65898e-02,-4.19259e-02,1.56827e-01,-4.78477e-02,7.74710e-03,-1.12764e-02,9.88871e-04,1.36164e-01,-1.63132e-01,-3.94776e-02,8.61701e-02,1.26442e-01,7.63488e-03,-2.43530e-04,-5.75736e-02,2.06953e-02,-1.64610e-01,1.20587e-01,-1.08301e-01,
-4.07313e-02,-1.09560e-02,-1.47968e-01,5.32894e-02,-5.09427e-02,1.45669e-01,4.20403e-02,3.00671e-02,-2.67180e-02,-1.07920e-01,1.29782e-01,1.64606e-01,4.44986e-02,1.91953e-02,-7.23041e-02,-1.27325e-02,-1.25485e-01,6.33115e-02,5.22114e-02,7.16355e-02,
9.16759e-02,-1.52634e-01,1.48312e-01,8.47264e-02,1.22391e-01,-1.22194e-01,1.10853e-01,4.45441e-02,8.10597e-02,-1.05148e-01,-1.46617e-01,2.15682e-02,8.30658e-02,-1.27826e-01,1.05347e-01,-1.05858e-01,2.80263e-02,-9.83161e-02,1.60539e-01,-4.01075e-02,
-1.05375e-01,-7.18109e-02,-1.89028e-01,-7.24716e-02,1.20987e-01,-1.06503e-01,-1.27683e-01,-8.54897e-02,-8.75875e-02,-1.14526e-01,5.25044e-02,-6.62152e-02,-1.17846e-01,-1.14221e-01,-1.75566e-01,6.75590e-02,-1.63150e-01,6.86409e-02,-8.69416e-02,-1.01386e-01,
-1.45229e-01,-6.26726e-02,9.55499e-03,4.12879e-02,9.36101e-02,5.65429e-02,6.61330e-02,-5.28792e-02,7.88073e-02,-5.18270e-02,8.39952e-02,-5.69065e-02,-9.02295e-02,-4.29302e-02,-2.27684e-02,-9.59449e-02,8.26033e-02,-2.06938e-02,-7.62170e-02,-2.04450e-03,
-1.98612e-01,-7.97070e-02,-5.37830e-02,-1.46294e-01,6.18195e-02,1.18866e-01,-1.60783e-01,1.25817e-01,-1.18752e-01,6.63256e-02,-7.28703e-02,-5.97134e-02,-1.46678e-01,-1.30396e-01,4.05830e-02,-1.31178e-01,6.79940e-02,1.00858e-01,-7.57909e-02,7.57060e-02,
1.84474e-02,1.41990e-01,-1.55920e-01,-1.16426e-01,-1.77958e-02,1.13997e-02,1.13332e-01,1.06337e-01,5.69743e-02,8.25349e-02,-1.62804e-01,-6.13683e-02,1.48868e-01,-1.06829e-01,1.03943e-01,-8.56268e-02,-1.58121e-01,-1.03409e-01,1.31905e-01,4.14504e-02,
-2.64695e-02,-1.54652e-01,-1.07516e-01,-8.21109e-02,-1.02892e-01,-7.76358e-02,1.15354e-01,1.12464e-01,1.63467e-01,5.12502e-02,-3.36972e-02,2.08845e-02,2.49333e-02,-3.80466e-02,-1.94304e-02,-3.81629e-02,1.59029e-01,-3.43198e-02,2.29359e-02,1.33582e-01,
1.43036e-01,1.65472e-03,1.05861e-01,2.88165e-02,1.20016e-01,-1.23162e-01,-8.68636e-02,1.48094e-01,-4.34585e-02,9.10547e-02,-5.24460e-02,3.49980e-02,5.87225e-02,9.00215e-02,1.32007e-01,-9.21799e-03,1.34536e-02,-1.97683e-02,9.36944e-02,-3.48201e-02,
-6.35262e-02,3.71003e-02,1.30008e-01,1.23140e-01,-5.74888e-03,1.54076e-01,-2.31011e-02,-5.64491e-02,-6.76990e-02,-7.35080e-02,6.14347e-02,1.45977e-01,1.92207e-02,-7.94037e-02,-1.03103e-01,-1.02278e-01,-3.25115e-02,1.34577e-01,1.39480e-02,-4.38042e-02,
-1.37913e-01,-1.13321e-01,1.36918e-01,-7.36911e-02,-4.87678e-02,2.44588e-03,1.71425e-02,-9.95076e-02,1.64450e-01,4.37114e-02,-9.05354e-02,-6.26024e-02,7.80521e-02,-1.49599e-01,-1.18625e-01,-7.74051e-02,-1.26155e-01,1.38353e-01,1.60909e-01,-2.31499e-02,
-1.20695e-01,-6.30552e-03,-1.17382e-01,-3.14332e-02,-4.32638e-02,-1.21098e-01,-1.15094e-01,-1.42506e-01,-6.41784e-03,-5.44428e-02,-4.54245e-02,-1.36807e-01,-1.05935e-01,-7.16673e-02,2.82241e-02,-1.53038e-01,3.00393e-02,-1.66573e-02,1.61896e-02,-1.59687e-01,
-1.41268e-01,9.47135e-02,1.55331e-01,-7.84198e-02,-7.93818e-02,-3.26817e-03,4.98763e-02,-1.10086e-01,-1.31898e-03,1.17551e-01,-7.46075e-02,1.05108e-01,-1.37119e-01,-1.10730e-01,-1.49718e-02,6.96263e-02,-1.55790e-01,-9.80789e-02,1.72951e-02,6.22823e-02,
-2.57686e-02,6.42731e-02,-1.06147e-01,5.53854e-02,1.20845e-01,-3.54866e-02,-1.46005e-01,-1.38103e-01,-1.94946e-03,8.41503e-02,1.93496e-02,8.58727e-02,-7.08323e-02,7.67938e-02,-3.45944e-02,9.99588e-02,1.00536e-01,-4.34809e-02,6.48945e-02,8.92087e-02,
-1.39589e-01,8.25160e-02,1.08696e-01,1.25561e-01,-1.11719e-01,5.08619e-02,-9.82485e-02,-6.18791e-02,2.30041e-02,-4.41548e-02,-1.26733e-01,-1.28568e-01,-8.08380e-02,-8.84780e-02,4.48283e-02,-1.16266e-01,5.13064e-02,7.14246e-02,3.17795e-02,-6.75195e-02,
7.95095e-02,2.69165e-02,1.33843e-02,-1.05767e-01,-1.75279e-03,6.99464e-02,3.60895e-02,-6.09769e-02,9.33469e-02,-2.79922e-02,1.06361e-01,1.57327e-01,-8.48185e-02,-1.26127e-02,-1.14262e-01,6.98199e-02,2.71228e-03,7.61414e-02,-1.29332e-01,5.32223e-03,
4.20934e-02,1.48409e-01,-6.13488e-02,-1.40465e-02,-1.65081e-01,-1.41980e-01,-1.21199e-01,2.32214e-02,-1.65566e-02,1.65306e-02,-1.55098e-01,7.11250e-02,-1.60631e-01,3.50266e-02,3.22324e-02,-5.10073e-03,5.63112e-03,-1.15633e-01,-2.06246e-02,-1.24553e-01,
-8.87527e-03,1.45787e-01,-9.24605e-02,-2.73298e-02,-1.25049e-01,1.45629e-01,-1.11964e-01,-1.40391e-01,-1.16290e-01,-1.51639e-01,-1.11094e-01,1.00590e-01,6.55753e-02,-2.12564e-02,1.14620e-01,-1.50107e-01,1.55036e-02,-7.86011e-02,1.63612e-01,-1.43704e-01,
-3.70538e-03,
0.00000e+00,
3.04131e-02,
0.00000e+00,
0.00000e+00,
0.00000e+00,
-7.18273e-03,
0.00000e+00,
-2.13666e-02,
0.00000e+00,
0.00000e+00,
0.00000e+00,
1.89473e-02,
0.00000e+00,
0.00000e+00,
0.00000e+00,
0.00000e+00,
-2.57169e-02,
0.00000e+00,
1.85863e-02,
1.95441e-02,
-6.03355e-03,
0.00000e+00,
-2.90483e-02,
0.00000e+00,
2.59095e-02,
-1.86020e-02,
-7.07333e-04,
1.82552e-02,
0.00000e+00,
0.00000e+00,
0.00000e+00,
-2.58589e-02,
0.00000e+00,
0.00000e+00,
0.00000e+00,
0.00000e+00,
0.00000e+00,
-3.10052e-02,
0.00000e+00,
0.00000e+00,
4.80861e-03,
2.56799e-02,
0.00000e+00,
0.00000e+00,
-3.45202e-02,
0.00000e+00,
0.00000e+00,
0.00000e+00,
-1.40463e-02,
-2.23374e-02,
0.00000e+00,
-3.52301e-02,
0.00000e+00,
2.92712e-02,
-5.90989e-02,
2.85153e-02,
0.00000e+00,
1.07418e-02,
0.00000e+00,
0.00000e+00,
-1.36740e-02,
-3.29353e-02,
0.00000e+00,
0.00000e+00,
0.00000e+00,
0.00000e+00,
0.00000e+00,
1.71212e-02,
-4.49149e-02,
-2.62630e-02,
-2.29104e-02,
0.00000e+00,
0.00000e+00,
0.00000e+00,
0.00000e+00,
0.00000e+00,
0.00000e+00,
0.00000e+00,
-3.78966e-02,
0.00000e+00,
-1.49048e-02,
0.00000e+00,
-8.37285e-03,
-2.79474e-02,
0.00000e+00,
-3.10930e-02,
2.00966e-03,
1.81434e-02,
2.74170e-02,
0.00000e+00,
-2.29032e-02,
-3.26269e-02,
0.00000e+00,
-2.58168e-02,
-4.40972e-03,
-1.33277e-02,
0.00000e+00,
-3.30968e-02,
0.00000e+00,
-2.62290e-02,
2.00102e-02,
0.00000e+00,
3.23686e-02,
2.14851e-02,
0.00000e+00,
0.00000e+00,
3.16707e-03,
-2.84504e-02,
0.00000e+00,
-2.36424e-02,
0.00000e+00,
-2.21785e-02,
0.00000e+00,
-2.58689e-02,
-4.62857e-02,
0.00000e+00,
0.00000e+00,
2.39635e-02,
-5.60012e-02,
1.65378e-02,
0.00000e+00,
0.00000e+00,
0.00000e+00,
1.26516e-02,
-3.62906e-02,
-9.08710e-03,
0.00000e+00,
-3.77360e-02,
0.00000e+00,
0.00000e+00,
0.00000e+00,
1.52282e-03,
0.00000e+00,
0.00000e+00,
0.00000e+00,
0.00000e+00,
-2.89871e-02,
-2.28024e-02,
0.00000e+00,
0.00000e+00,
3.07480e-03,
2.32222e-02,
1.29140e-02,
0.00000e+00,
-1.81278e-02,
0.00000e+00,
0.00000e+00,
-3.27576e-02,
3.54892e-02,
0.00000e+00,
0.00000e+00,
-1.22681e-02,
0.00000e+00,
2.80233e-02,
2.68477e-02,
0.00000e+00,
0.00000e+00,
0.00000e+00,
2.01776e-02,
-1.94826e-03,
1.85276e-02,
0.00000e+00,
0.00000e+00,
0.00000e+00,
-2.88664e-02,
0.00000e+00,
1.29734e-02,
0.00000e+00,
0.00000e+00,
0.00000e+00,
0.00000e+00,
1.99349e-02,
0.00000e+00,
1.84299e-02,
0.00000e+00,
-3.47392e-02,
0.00000e+00,
1.80093e-02,
0.00000e+00,
3.53008e-02,
1.74360e-02,
0.00000e+00,
0.00000e+00,
-5.30414e-03,
-4.26308e-02,
-3.55969e-02,
-2.40765e-02,
0.00000e+00,
0.00000e+00,
2.48295e-02,
0.00000e+00,
0.00000e+00,
0.00000e+00,
0.00000e+00,
-2.58951e-02,
0.00000e+00,
0.00000e+00,
0.00000e+00,
0.00000e+00,
4.60238e-02,7.48878e-02,8.49090e-02,-1.20220e-01,-4.44484e-02,-4.56528e-02,-3.26016e-02,-6.03558e-02,8.70762e-02,4.77732e-02,1.18153e-01,2.85111e-03,-5.06726e-02,2.93311e-03,9.72672e-02,-8.39468e-02,4.74991e-02,1.12477e-01,-1.09213e-01,-4.50927e-02,-1.38926e-02,-1.08968e-01,-7.28180e-02,-1.07949e-01,1.06170e-01,2.98267e-02,4.13182e-02,8.37246e-02,-4.93331e-02,-6.08464e-02,6.66434e-02,-6.31759e-02,-1.03259e-01,3.16469e-02,4.53396e-02,1.18101e-01,-1.04696e-01,-2.01915e-02,-9.17658e-02,-1.22307e-01,1.11626e-01,-8.97611e-03,-3.27975e-02,-7.24460e-02,-9.63875e-02,-4.03743e-02,-1.05160e-01,-4.00719e-02,2.48167e-02,8.54870e-02,5.32866e-02,-5.56570e-03,-8.58563e-02,7.20448e-03,-1.76700e-02,-6.23305e-02,-8.53790e-03,3.52219e-02,7.92309e-02,1.16356e-01,-5.02862e-03,-2.00732e-02,-1.02630e-01,8.97205e-02,5.08311e-02,-2.66589e-02,8.08771e-02,6.56818e-02,8.82173e-02,-7.78293e-02,-1.11921e-01,-8.39676e-02,2.79927e-02,-1.12681e-01,4.34207e-02,2.43769e-03,-1.36586e-02,8.22441e-02,2.78880e-02,-1.89687e-03,1.19402e-01,7.98857e-02,2.62460e-02,-2.29196e-02,6.33725e-02,-4.47576e-02,-1.12636e-01,5.40077e-02,-8.24910e-02,8.38412e-02,1.07128e-01,-4.74702e-02,-2.00919e-02,3.62652e-02,7.55677e-02,2.21450e-02,3.93308e-02,-6.73139e-02,7.90218e-03,8.32246e-02,1.12078e-01,-1.23337e-02,-3.15397e-03,6.74679e-02,4.25962e-02,1.01513e-01,5.01378e-02,7.42131e-02,-1.04265e-01,1.16561e-01,6.94812e-02,3.64006e-02,8.41986e-02,8.67728e-02,1.06504e-01,-2.16223e-02,-1.23864e-02,9.34497e-04,1.21268e-01,-3.44256e-02,-2.08489e-02,3.02828e-02,-7.07002e-02,-1.18470e-01,-9.84397e-02,-1.21574e-01,1.02225e-01,-1.16606e-01,1.07266e-01,-2.31377e-02,5.81893e-03,4.31312e-02,2.87855e-02,2.71677e-02,6.86066e-02,-3.17426e-02,1.02783e-01,-9.64490e-02,1.06420e-01,-7.26266e-02,7.42778e-02,-3.16055e-02,-2.22478e-02,-1.06506e-01,9.26999e-02,4.92946e-03,2.46228e-02,-6.36412e-02,9.83716e-02,-1.14403e-01,7.37823e-02,4.20749e-02,-2.14280e-02,1.38104e-02,-6.02799e-02,7.86299e-02,1.12782e-01,-6.29376e-02,-9.09919e-02,-1.10959e-01,-6.58384e-02,-1.04278e-01,2.67520e-02,1.31573e-02,1.02081e-01,-5.91857e-02,5.01716e-02,-1.15178e-01,6.70525e-03,5.46165e-02,-6.90254e-02,-7.18723e-02,4.15806e-02,-2.37389e-02,-1.14874e-01,5.62683e-02,-6.56659e-02,1.13813e-01,-9.39207e-03,7.76723e-02,5.47923e-02,-5.71050e-02,3.73308e-02,-3.90328e-02,-8.34477e-03,-5.95108e-02,-1.02044e-01,-3.15280e-02,6.20294e-02,-6.27646e-02,-1.52638e-02,1.20429e-01,-1.04969e-01,-1.10933e-01,-9.15579e-02,7.72946e-02,4.72473e-02,1.00346e-02,-6.36405e-02,-1.05470e-01,
-3.80190e-03,1.16893e-01,2.60732e-02,-3.11569e-02,-8.40335e-02,-1.04619e-01,1.02882e-01,-3.80790e-02,-6.71592e-02,-1.69951e-02,8.04000e-02,-1.67050e-02,4.77149e-02,8.24745e-02,5.29565e-02,-7.34924e-02,1.24805e-02,-1.21284e-02,-7.06835e-02,5.80193e-02,-6.61131e-02,1.09584e-02,-1.21291e-02,2.60091e-02,1.09311e-01,-1.01132e-01,6.11762e-02,-3.47253e-02,-7.94161e-02,-1.11010e-01,1.09364e-01,-2.58636e-02,-1.13931e-03,-8.97489e-02,-5.64167e-02,-3.80659e-02,-1.20056e-01,6.24053e-02,8.40253e-02,-5.90076e-02,3.76435e-02,1.51639e-03,-2.38997e-02,1.19865e-01,7.69382e-02,3.49450e-02,-2.48222e-03,-9.01553e-02,1.10842e-01,-2.57970e-02,6.95984e-02,-7.51090e-03,2.11587e-02,9.36164e-02,2.83814e-02,9.18966e-02,-4.49238e-02,-1.12054e-01,3.38078e-02,-5.03484e-02,-6.60794e-02,6.33828e-02,7.05084e-02,-8.35009e-02,-1.83497e-02,7.42522e-02,3.09979e-02,1.05724e-01,-2.28982e-02,-1.11177e-01,-7.40684e-02,-1.15110e-01,9.56526e-02,-2.45204e-02,1.50545e-02,-2.34021e-02,-4.49888e-02,5.59187e-02,-1.06707e-02,5.60804e-02,1.94595e-02,2.53008e-02,3.84883e-02,-1.03437e-01,-4.79913e-02,-6.92919e-02,-7.64199e-04,6.35629e-02,-1.01930e-01,-5.22776e-02,1.60213e-03,-2.82752e-02,-3.74972e-02,8.42349e-02,8.20734e-02,-9.38714e-02,1.01534e-01,-1.88626e-02,-1.24218e-02,-1.06382e-01,-6.31077e-02,5.03596e-02,-1.65445e-02,8.96804e-02,-9.16598e-02,4.37730e-02,4.92863e-02,3.62448e-02,-1.13704e-01,-2.44353e-02,-8.78666e-02,-2.59705e-02,-1.22161e-01,-7.65553e-02,1.36937e-02,-5.90236e-02,1.87912e-02,-8.12243e-02,-4.15756e-02,7.01789e-02,-3.66360e-02,5.97358e-02,1.02609e-01,5.44871e-02,-3.03132e-02,1.72795e-02,6.91238e-02,-1.12600e-01,-7.44625e-02,-8.52973e-02,3.08447e-02,1.08995e-01,3.95355e-02,-8.66174e-02,-5.87780e-02,2.39766e-02,1.21318e-01,3.30159e-02,1.13384e-01,2.16980e-02,-1.08197e-01,-6.65127e-03,-2.93871e-03,7.36452e-02,5.26723e-03,-9.59326e-02,7.76560e-02,2.17118e-02,3.69490e-02,-6.62234e-02,2.19529e-02,1.19936e-01,-2.69168e-02,-3.36080e-02,-4.92111e-04,-7.17859e-02,5.79670e-02,3.48750e-02,9.43646e-02,7.03519e-02,1.48723e-02,6.26276e-02,1.18968e-02,6.47405e-02,2.90535e-02,1.15747e-01,-2.34497e-02,7.56366e-02,9.55208e-02,-1.42992e-04,1.42832e-02,3.30208e-02,-1.56257e-02,7.52960e-02,2.13580e-02,1.17265e-01,-7.19201e-02,1.89748e-02,3.94957e-02,1.22263e-01,-2.92976e-02,-8.15839e-03,2.26370e-02,3.44915e-02,-8.33723e-02,8.47064e-02,5.79927e-02,-5.79460e-02,7.89682e-02,4.95690e-02,-8.78903e-02,-7.85654e-02,-1.04888e-02,-2.67491e-02,-1.07507e-01,-4.66852e-02,-6.21126e-02,4.33457e-02,-4.39705e-02,-8.20401e-02,
1.05572e-01,6.69360e-02,-9.73200e-02,7.78301e-02,3.92128e-02,-5.89069e-02,1.13825e-01,1.09206e-01,-8.47516e-02,1.15478e-01,1.01775e-01,8.56919e-02,8.77743e-02,-1.15718e-01,3.05396e-02,-3.41510e-02,-4.19233e-03,7.58005e-02,-3.25915e-02,3.80573e-02,-2.82961e-02,7.01144e-02,1.10096e-01,4.69680e-02,6.79476e-02,3.85078e-02,4.59992e-02,-1.08443e-01,-7.54859e-02,2.21824e-02,-6.45943e-02,4.34968e-02,-9.74482e-02,1.10449e-02,-9.28460e-02,-1.48458e-02,9.70678e-02,3.62395e-02,-1.11782e-01,-4.04299e-02,7.20282e-02,-4.08813e-02,3.97353e-02,-8.53826e-02,1.99846e-02,-1.01652e-01,2.02884e-02,3.22499e-02,3.04559e-02,8.81919e-02,-5.96278e-02,2.30756e-02,-3.31056e-02,-6.07714e-02,1.17614e-01,-1.07574e-01,5.23830e-02,1.21523e-01,-9.73436e-02,9.00593e-02,-4.54085e-02,6.27832e-02,5.63292e-02,-9.28745e-02,8.04455e-02,-3.48928e-03,6.79894e-02,6.05260e-02,-1.00354e-01,1.06587e-01,8.02742e-02,-5.52033e-02,-5.44243e-02,-9.96805e-02,-1.66468e-02,-1.10256e-01,1.72130e-02,3.33949e-02,5.26446e-02,-7.91089e-02,-1.90168e-02,1.04985e-01,3.93502e-02,-1.40008e-02,7.76025e-02,-1.16192e-01,-8.44388e-02,-7.30869e-02,-6.11118e-02,6.63584e-02,-1.12148e-01,6.84585e-02,2.09524e-02,-1.01884e-01,-1.16994e-01,1.12147e-01,6.14953e-02,-8.83103e-02,-4.92344e-02,9.79930e-02,-4.60709e-02,-2.76007e-02,-9.80832e-03,1.74022e-02,1.96919e-02,-1.02612e-02,3.48149e-02,5.70616e-02,1.42981e-02,3.15660e-02,9.41878e-02,1.21809e-01,5.40154e-03,-4.64044e-03,3.59796e-02,-7.23962e-02,1.07857e-01,-2.00449e-02,-3.47132e-02,4.64955e-02,1.24059e-02,-7.47259e-02,6.17512e-02,5.17914e-02,9.60244e-02,3.37147e-02,-1.11934e-01,-8.32130e-02,-1.55176e-02,1.61617e-02,-4.57593e-03,9.26395e-02,-5.40566e-02,9.31807e-02,7.24140e-02,5.65227e-02,-5.42976e-04,1.17682e-01,2.25630e-02,-1.20876e-02,4.09929e-02,-2.90371e-02,-9.82005e-02,-4.58478e-02,-9.77637e-02,6.98001e-02,-9.90788e-02,-1.05381e-01,-2.11220e-02,4.40084e-03,-2.77251e-02,2.55026e-02,1.04692e-01,1.10632e-01,1.07045e-01,4.45720e-02,-6.91098e-02,2.79786e-02,-4.70525e-02,8.27767e-02,1.09847e-01,-2.26219e-02,2.87307e-02,8.21551e-03,5.56798e-02,-2.43957e-02,3.31641e-03,1.36626e-02,-6.62242e-02,-8.11059e-02,4.89438e-02,5.03099e-02,-5.06375e-02,9.97784e-02,-7.64051e-02,-2.31429e-02,-6.61365e-02,-4.39581e-02,-6.15570e-02,4.47178e-02,-1.89284e-03,-5.35381e-02,-5.07397e-02,-1.02231e-01,5.64375e-02,9.08256e-02,5.67337e-02,1.08095e-02,7.34152e-02,3.36252e-02,-6.25168e-02,6.15819e-02,1.21235e-01,-3.73510e-02,9.19918e-02,6.96108e-02,-3.29156e-02,8.87512e-02,3.88854e-02,-4.68390e-02,
-6.07015e-02,2.04328e-02,-2.26778e-02,-5.63366e-02,-1.17708e-01,-9.35800e-02,1.00002e-02,9.35857e-02,-1.11470e-01,5.32802e-02,-9.59929e-02,-5.19322e-02,-1.41168e-02,-8.52330e-02,3.05987e-02,2.78237e-02,2.39567e-03,4.93148e-02,-1.17466e-01,1.08016e-01,9.83550e-02,-9.27562e-02,-1.10202e-01,-4.64652e-02,-1.17818e-01,-1.17913e-01,6.73307e-02,1.07668e-01,-1.01790e-01,5.16490e-02,-9.55363e-02,-6.09306e-02,-5.28494e-02,-5.67472e-02,-2.87653e-02,-3.20573e-02,9.50613e-03,9.39748e-02,-9.25423e-02,-6.36753e-02,-1.00125e-01,-1.99301e-02,8.06401e-02,6.08521e-02,-6.83950e-02,-4.45385e-02,1.08775e-01,-2.29697e-02,-8.01657e-02,-4.25292e-03,6.78205e-02,-5.68456e-02,7.76754e-02,-8.34760e-02,6.42884e-02,-2.79100e-02,1.00932e-02,8.35139e-02,-8.93558e-02,-1.13441e-01,6.96323e-02,1.11330e-01,4.49867e-02,6.29802e-02,1.10957e-02,3.59192e-02,-1.18144e-01,-1.13981e-01,-9.15960e-02,4.30598e-02,-1.16076e-01,-8.35014e-02,8.35870e-02,3.26934e-03,9.39391e-02,-2.71769e-02,-6.46686e-02,9.30959e-02,9.56625e-02,-8.38327e-02,8.75081e-02,-1.09987e-01,-2.69265e-02,1.50911e-02,-6.57298e-02,3.02133e-02,-7.14402e-02,-3.10932e-03,7.26273e-02,9.91882e-02,9.55619e-02,-7.65415e-02,8.27010e-02,-4.29215e-02,-4.18043e-02,6.39364e-02,-8.45625e-02,1.18530e-01,-6.27417e-02,9.91950e-02,-1.04474e-01,-4.37352e-02,-9.36508e-02,3.35070e-03,6.81088e-03,7.93659e-02,-1.84809e-02,2.63311e-02,1.41959e-02,-8.50345e-02,7.03869e-02,-1.15920e-01,-7.84408e-03,6.10309e-02,4.64352e-02,2.57411e-02,-7.14450e-02,-1.18587e-01,5.77550e-02,-6.62660e-02,8.47247e-02,6.12897e-02,-2.50535e-02,6.86915e-02,-3.57649e-02,3.38423e-02,-9.61664e-02,-4.51790e-02,5.01001e-02,-8.53384e-02,1.00986e-01,9.37918e-02,1.07435e-01,4.87429e-02,7.82179e-02,7.13805e-02,3.04264e-02,6.83235e-02,5.76045e-02,7.13188e-03,-6.56854e-02,7.14265e-04,5.58307e-02,-6.44062e-02,3.08684e-03,-7.21250e-02,6.06345e-02,-3.21957e-02,-5.46943e-02,-2.98060e-02,5.78300e-02,-4.75888e-02,4.28898e-02,1.14432e-01,-5.97546e-02,-5.65401e-03,-1.51978e-02,-1.25827e-03,-8.67155e-02,1.57512e-02,6.22416e-02,3.46630e-03,9.48942e-03,2.23105e-02,-2.46912e-02,5.71338e-02,-4.68181e-02,-1.02381e-01,4.05490e-02,7.91283e-02,1.15175e-01,5.82717e-03,-8.31395e-02,-1.06062e-01,6.29229e-02,-4.09209e-02,-7.34848e-02,-4.64290e-02,-2.00827e-02,6.97573e-02,7.52461e-02,1.07947e-01,-1.12922e-01,-2.54423e-02,-1.15856e-01,6.15529e-03,8.58337e-02,3.12708e-04,7.62753e-02,9.27748e-02,1.20899e-01,4.03401e-02,-1.01530e-01,-4.09800e-02,7.07018e-02,-1.06605e-01,3.57221e-02,7.37532e-02,6.94739e-02,-4.66875e-02,
5.66209e-02,-6.37618e-02,-2.61981e-02,-6.78140e-02,4.48956e-02,-5.98295e-02,4.07716e-02,-5.91754e-02,-3.29602e-02,3.65291e-03,2.63372e-02,1.05692e-01,-9.30704e-02,-1.03374e-01,-4.45362e-02,-6.56820e-02,-7.45305e-03,-1.92749e-02,-1.18543e-01,-5.22032e-02,4.42323e-02,1.07202e-02,-6.36093e-02,3.08551e-02,-1.14305e-01,-1.11604e-01,2.49528e-02,-3.03801e-02,5.38065e-02,-6.05050e-02,4.66377e-02,-5.54524e-02,2.88748e-02,-1.01469e-01,4.47330e-02,-1.16957e-01,-3.67641e-02,5.96556e-02,-4.78409e-02,-3.01828e-02,-7.45207e-02,-8.85227e-02,1.39340e-02,-5.18925e-02,-6.73421e-02,3.94633e-02,-7.88750e-02,-2.31535e-02,-5.56552e-02,7.60140e-02,3.65456e-02,1.17415e-02,-6.04970e-02,-9.38413e-03,1.05521e-01,1.05348e-01,1.08557e-01,1.05440e-01,1.55052e-02,2.70721e-02,7.67245e-02,-7.16107e-02,1.12733e-01,2.46167e-02,1.17197e-01,4.97013e-04,1.15197e-01,-8.57310e-02,-1.04559e-01,1.19365e-01,-2.65593e-03,-3.93612e-02,-7.94381e-02,-8.00500e-03,6.28167e-03,7.13345e-02,-5.51889e-02,-1.04660e-01,7.52095e-03,-1.02946e-01,3.62895e-02,-8.54283e-02,5.64779e-02,-9.98556e-02,7.02488e-02,2.05969e-02,9.38860e-02,5.25784e-02,-1.08065e-02,3.90666e-03,2.98072e-02,-1.06247e-01,4.45272e-02,-8.25846e-02,-9.66891e-02,-1.14497e-01,-4.17807e-02,-1.35932e-02,-1.12722e-01,1.08585e-01,1.06555e-01,1.06376e-01,-1.81983e-02,-9.12616e-02,-8.74638e-02,3.22234e-02,2.39775e-02,6.66676e-02,9.81858e-02,8.63272e-02,-7.09963e-02,-2.38044e-02,-5.90554e-02,-2.37401e-02,4.31847e-02,-1.03889e-01,-5.34906e-02,5.91833e-02,-9.99786e-02,-2.60541e-02,2.10902e-02,3.10295e-02,9.84591e-02,-5.12758e-02,-3.49844e-02,6.57713e-02,7.23225e-02,8.65275e-02,-8.41223e-02,-1.15081e-01,5.22383e-02,7.46204e-02,7.75774e-02,-3.13211e-02,-1.21074e-02,-3.28578e-02,1.45833e-02,1.95490e-02,4.96452e-02,-4.70766e-02,5.09871e-02,-1.00569e-01,-7.53827e-02,1.05881e-01,-9.72349e-02,6.26296e-02,-3.47669e-02,6.61704e-02,5.87683e-02,8.16257e-02,-3.47818e-02,-1.17502e-01,-1.01275e-01,-2.40435e-02,-7.11925e-02,-3.77592e-02,6.42071e-02,-8.63209e-02,1.02392e-01,-1.08545e-01,-3.73159e-02,1.65617e-02,-8.20835e-03,-7.20885e-03,1.20318e-02,-4.44835e-02,-3.71848e-02,-7.98801e-02,-6.26332e-02,7.97018e-02,9.57065e-02,-1.08191e-01,7.74725e-02,4.03437e-02,4.93079e-02,9.42993e-02,3.50426e-02,1.16152e-01,-3.25864e-02,-7.82504e-02,5.03653e-02,-8.27679e-02,-2.82029e-02,1.15010e-01,-1.22020e-01,8.29700e-02,4.79016e-02,-9.94481e-02,8.64609e-03,-1.12028e-01,1.87804e-02,-1.01101e-01,8.77914e-02,8.91699e-02,-3.38237e-02,6.40066e-02,1.25387e-02,1.08417e-01,2.23128e-02,-7.20670e-02,
1.02779e-01,2.04711e-02,-5.22775e-03,-1.02524e-01,9.38930e-02,3.63128e-02,-3.83649e-03,-1.10242e-02,-1.25803e-01,-6.61595e-02,-1.06902e-03,-1.22047e-01,3.29981e-02,-6.16740e-03,-7.45890e-02,-6.92652e-02,5.20770e-02,-1.38613e-02,-2.51834e-02,1.17541e-01,1.10076e-01,-1.43703e-02,-5.32247e-02,-1.06812e-01,-9.54913e-02,6.39579e-02,5.79532e-02,9.79596e-02,3.92607e-02,8.40816e-02,-3.38486e-02,2.39734e-02,8.86455e-02,-4.73376e-02,8.26136e-02,-5.98131e-02,-1.42151e-02,8.17406e-02,9.87114e-02,2.44726e-02,6.93543e-02,-9.78321e-02,-4.32791e-02,-6.24005e-02,-1.66634e-02,1.17292e-01,-1.00403e-01,-1.14971e-01,-2.69996e-03,-2.92475e-02,1.14437e-01,-1.06479e-01,2.52487e-02,1.11686e-01,-5.02225e-02,7.28082e-02,-5.34715e-02,-1.10259e-01,1.11694e-01,-7.24017e-02,-7.87027e-02,2.05403e-02,-9.99006e-02,5.21140e-02,-1.14509e-01,6.11567e-02,-1.01579e-01,5.79287e-02,3.50403e-02,3.99658e-02,6.46919e-02,-4.69581e-02,-4.59303e-02,2.58587e-02,5.17247e-02,2.09213e-02,-1.12026e-01,-3.06045e-02,1.03912e-01,-5.96169e-02,7.61850e-02,8.06087e-02,1.10367e-01,-1.02038e-01,-5.84250e-02,3.14524e-03,-2.31217e-02,3.09876e-02,-6.61960e-02,-9.33608e-02,-2.14459e-02,-7.44517e-02,5.21619e-02,9.14977e-03,8.09257e-02,9.67909e-03,-5.66800e-02,-8.11359e-02,9.71081e-02,5.40307e-02,-1.25361e-01,4.08642e-02,-6.95648e-03,-1.04272e-01,1.48333e-02,2.90698e-02,2.71625e-02,7.08304e-02,1.69216e-02,7.40152e-03,3.94779e-02,2.61253e-02,-9.72117e-02,-1.14572e-02,-5.79769e-03,3.89676e-02,-6.44559e-02,5.43374e-02,-9.52736e-02,1.10648e-01,8.89544e-03,-1.20622e-01,-9.12894e-03,2.32044e-02,-3.54854e-02,4.14515e-02,-8.20217e-02,-9.33652e-02,1.18905e-01,7.68583e-02,6.73378e-02,-2.35712e-02,-6.50541e-02,-3.52523e-02,3.77969e-02,7.53174e-02,-2.00502e-02,9.50839e-02,4.84477e-03,4.21999e-02,-7.74115e-02,6.12485e-02,-8.20652e-02,4.85960e-03,-6.26305e-02,4.67886e-02,-1.94300e-02,-7.87721e-02,-3.09426e-02,7.41611e-02,1.40313e-03,-2.50018e-02,-8.62153e-02,-1.51810e-02,-1.21581e-01,-2.50410e-02,1.01466e-01,8.52155e-03,1.08691e-01,-8.01355e-02,-8.83455e-02,3.89832e-02,3.18404e-03,1.03304e-01,-1.05537e-01,-3.42137e-02,-4.29075e-02,-3.46984e-02,-8.62977e-02,-7.49361e-02,4.96634e-02,2.78163e-02,-1.27210e-02,1.03408e-01,-6.03005e-03,7.78089e-02,3.17898e-02,8.28267e-02,5.90190e-02,-2.96916e-02,-6.47521e-02,-6.87417e-03,9.08853e-02,9.64995e-02,-8.62691e-02,-6.99182e-02,-2.30520e-02,9.82377e-02,-5.57251e-03,8.76743e-02,-9.21689e-02,-9.11975e-03,-7.65358e-02,9.44347e-02,-5.35492e-02,2.82833e-02,-2.18868e-02,3.03319e-02,5.05540e-02,3.81266e-02,
1.02776e-01,7.00053e-02,6.52912e-02,-9.17876e-03,-3.51169e-02,-1.07298e-01,1.14751e-01,1.05033e-01,-8.23414e-02,3.09463e-02,-8.52020e-02,1.04367e-01,-7.80061e-02,-9.82835e-02,-1.30067e-02,-9.66900e-03,3.28064e-02,4.68981e-02,3.90225e-02,-1.04673e-01,-3.27896e-02,-2.83921e-03,8.14124e-02,-1.15722e-01,-7.24536e-02,-1.74772e-02,1.08945e-01,-9.59707e-02,-6.15121e-02,1.04574e-01,8.57284e-02,1.05917e-02,-1.00497e-01,-9.58493e-02,-5.40000e-02,-1.53847e-02,4.37275e-02,-8.73066e-02,-1.08523e-01,2.36370e-02,-6.99377e-02,2.32066e-03,-2.69025e-02,-2.52241e-02,-9.24996e-02,-6.69691e-02,2.31645e-02,-1.16591e-01,-1.09831e-01,2.21081e-02,3.51851e-02,2.74047e-02,-2.26035e-02,4.20046e-02,6.92795e-02,1.15689e-01,-1.68852e-02,3.83047e-02,6.24304e-02,-2.15323e-02,-3.70653e-02,5.04345e-02,-5.50421e-02,-9.77923e-03,1.11636e-01,-7.10890e-03,-4.01769e-02,9.04795e-02,-7.29698e-03,1.30378e-03,-1.10425e-02,1.08133e-01,-4.83755e-02,-1.64295e-03,2.90362e-02,-1.77628e-03,3.24522e-02,-7.01503e-02,8.35242e-02,5.53513e-02,-9.15508e-02,5.57382e-02,5.14426e-02,2.38665e-02,-6.19174e-02,2.00795e-03,5.41300e-02,1.80474e-02,-5.71758e-02,-1.18373e-01,-2.99305e-02,-4.69886e-02,-1.54519e-02,-7.73093e-02,4.77119e-03,4.73669e-02,-5.05830e-02,1.96784e-02,9.40266e-02,5.43406e-02,-1.26520e-01,-6.49520e-02,-5.40188e-02,3.52249e-02,1.17446e-01,-3.76478e-04,-7.96841e-02,9.55134e-02,4.74763e-02,1.09860e-02,-3.01474e-02,1.16557e-01,1.44140e-02,5.77211e-02,5.31116e-02,-1.00421e-01,9.93070e-02,8.29144e-02,1.66230e-02,7.32592e-02,-8.23546e-02,1.44892e-02,-7.51696e-02,-4.19443e-02,-2.65374e-02,-3.21317e-02,6.77740e-02,-8.07707e-02,3.86587e-02,8.71392e-03,-9.52233e-03,-7.87081e-02,-1.11193e-01,1.21970e-01,-4.04176e-02,-3.72592e-03,7.77829e-02,1.09926e-01,-8.76574e-02,-5.83974e-02,-6.15363e-02,-1.42211e-02,-7.09212e-02,9.39597e-02,3.71879e-02,9.30337e-02,-6.36574e-02,-8.69862e-02,1.08790e-02,-7.26371e-02,3.75881e-02,-1.01570e-01,9.94259e-02,1.71015e-02,-1.21374e-01,-5.52790e-02,1.57299e-02,6.26590e-02,-8.73157e-02,1.28617e-02,-7.58561e-02,-3.62775e-02,1.04542e-01,-7.37866e-02,-3.05608e-02,-4.40763e-02,5.28439e-03,-8.35132e-02,-8.98843e-02,2.06445e-03,7.04671e-02,-1.13568e-01,-1.64141e-02,-4.96612e-02,1.86342e-03,1.21816e-01,1.11754e-01,-7.14563e-02,6.10274e-02,-3.68013e-02,1.58295e-02,7.96800e-02,-5.62074e-02,5.80921e-02,1.11348e-01,-7.26493e-02,-2.96292e-02,-2.49183e-03,-8.66748e-02,-2.25660e-02,2.82003e-02,-5.58792e-02,-7.61114e-02,-8.56870e-02,4.97331e-02,9.05558e-02,4.38933e-02,1.09741e-01,6.03292e-02,-2.53597e-02,
5.43398e-02,-6.19371e-02,-9.75673e-03,7.58991e-02,-1.20380e-01,6.86114e-02,5.17813e-02,5.88576e-02,2.35013e-02,-3.88132e-03,-5.87500e-02,-3.57450e-02,-1.15769e-01,1.21955e-02,2.28692e-02,1.76159e-02,-1.61306e-02,2.43962e-02,1.83918e-02,4.01471e-02,1.09763e-01,1.08013e-01,1.84379e-02,8.42299e-02,9.48615e-02,1.93791e-02,5.98825e-02,5.30196e-02,1.20340e-01,-6.90291e-02,2.04074e-03,-8.50645e-03,-8.53342e-02,1.14146e-01,-7.48344e-02,-1.10049e-01,4.36347e-02,8.45767e-02,3.96013e-02,-1.15858e-01,-9.72259e-02,-5.58121e-02,5.84247e-02,-9.69481e-02,-4.43224e-02,2.52852e-02,8.95870e-02,-2.37611e-03,5.70101e-02,-6.50514e-02,-2.49924e-02,-4.71998e-03,-1.07192e-01,-1.68794e-02,-8.90535e-02,-4.23750e-02,-7.66293e-02,-4.46721e-02,-1.00341e-01,-1.19262e-01,9.62468e-03,2.34289e-02,-7.76114e-02,-9.69912e-02,-3.22246e-02,-3.80381e-02,-1.12839e-01,9.58720e-02,6.76022e-02,1.06864e-01,9.38163e-02,4.19097e-02,-3.19314e-02,-1.03904e-01,-7.17163e-02,6.32557e-02,8.02018e-02,6.87605e-02,-1.30937e-02,-3.53560e-02,-9.67856e-02,-5.55103e-02,-1.04047e-01,-7.85514e-02,1.10357e-01,1.17585e-01,1.39482e-02,3.61879e-02,8.00947e-02,-6.19111e-02,7.19023e-02,-7.07208e-02,-8.33634e-02,4.50845e-02,7.00695e-02,-1.08157e-01,1.16632e-01,1.16494e-01,-5.44960e-02,1.15701e-01,3.64338e-02,8.40273e-02,1.06403e-01,-2.38364e-02,-1.92092e-02,2.89729e-02,6.53910e-02,-6.70087e-02,-5.72930e-03,-5.81411e-02,1.63974e-02,7.52224e-02,7.95774e-02,-5.70913e-03,9.65692e-02,-5.29604e-02,4.72539e-02,-2.53176e-02,9.80792e-02,7.15524e-02,1.09494e-01,7.26530e-02,-1.09224e-01,-1.05247e-01,-6.02584e-02,8.75966e-02,-1.82238e-02,-5.75069e-02,-7.85685e-03,4.41302e-02,2.64892e-02,-4.64999e-02,4.70207e-02,-9.89752e-02,-4.07988e-03,-1.16495e-01,-2.56544e-02,-1.17335e-01,-2.42048e-02,-1.14148e-01,1.93242e-02,-5.95843e-02,3.20286e-02,-1.06228e-01,6.87206e-02,1.10691e-02,7.87551e-02,1.02955e-01,-2.12478e-02,-1.06861e-01,-8.44391e-02,-8.29617e-02,-6.70403e-02,-8.54665e-02,-1.19357e-01,3.25925e-03,2.91261e-02,7.83763e-02,4.12155e-02,-5.87328e-02,1.04362e-02,5.52214e-02,-2.18318e-02,-6.91843e-02,-4.43228e-02,-8.64234e-02,4.71589e-02,1.99169e-03,7.45920e-02,-1.18145e-01,1.80088e-02,-3.60636e-02,-4.06306e-02,-7.71765e-02,-1.05360e-01,-1.13122e-01,-5.08915e-02,9.77065e-03,5.00857e-03,7.52833e-02,-9.33885e-02,-6.28654e-02,2.07536e-02,5.51882e-02,-1.15063e-01,9.30640e-02,5.73187e-02,9.08711e-02,8.66351e-02,-1.11098e-02,-4.78830e-02,-8.37465e-02,1.48498e-02,-8.13987e-02,5.11402e-02,-4.68284e-02,1.16170e-01,1.07763e-01,3.33399e-02,-5.17314e-02,
-4.32090e-02,-7.99247e-03,6.14483e-03,4.43840e-02,2.42448e-02,-2.82164e-02,3.90544e-02,6.59189e-02,4.83687e-02,3.97573e-02,6.75678e-02,-1.14791e-02,-1.19948e-01,9.17085e-02,-7.77818e-02,-6.69133e-02,1.38037e-02,8.14859e-02,-1.15565e-01,-2.56865e-02,-5.01113e-02,4.37973e-02,-1.35673e-02,-1.01925e-01,-5.01688e-02,-8.88715e-03,-9.50832e-02,-2.37575e-02,7.81354e-02,-1.14593e-01,-1.50932e-02,3.97976e-02,1.13441e-01,4.86219e-02,2.09383e-02,1.15650e-02,6.34787e-02,9.98350e-02,2.34731e-02,-6.41437e-02,3.09836e-02,-7.56764e-02,9.91081e-02,4.63057e-03,-3.75433e-03,4.66623e-02,-8.72859e-02,-8.13204e-02,3.89145e-03,-7.53096e-02,8.42687e-02,-2.27587e-02,-4.60726e-02,3.55948e-02,7.21992e-02,1.23076e-01,9.11832e-02,-7.09929e-02,9.82205e-03,1.34571e-02,1.43506e-02,7.90078e-02,4.09945e-02,-4.25546e-02,6.22485e-02,-2.92519e-02,1.16890e-01,-7.81257e-03,-4.69510e-02,9.39726e-02,7.30275e-02,-1.12885e-01,1.10430e-02,1.26259e-02,-1.79720e-02,-4.75427e-02,8.58314e-02,9.50431e-02,7.99908e-02,6.83997e-02,-1.06071e-01,-9.21313e-02,1.14647e-01,1.02815e-01,4.15671e-02,-9.67805e-02,-1.41317e-02,4.09223e-02,2.83689e-02,1.93570e-02,-7.84267e-02,-4.41688e-02,7.35623e-02,-7.83547e-02,7.60735e-02,-6.67909e-02,-6.99763e-02,3.69046e-02,5.65169e-02,8.15658e-02,8.46431e-02,-2.84167e-02,5.55898e-02,-9.52152e-02,4.48359e-02,9.80228e-02,-4.27471e-02,-3.46267e-02,-8.95059e-02,1.80437e-02,1.08531e-01,-6.77267e-02,-7.63886e-02,-1.22208e-01,-3.10872e-02,5.83753e-02,-6.57270e-02,-1.21171e-02,-1.19045e-01,5.00627e-03,-1.60228e-02,3.05534e-02,1.14246e-01,-8.11704e-02,9.57267e-02,-1.02236e-01,7.01044e-02,-1.18118e-02,-3.98498e-02,8.00528e-02,-4.79419e-02,-8.95556e-02,-7.72508e-02,-1.02887e-01,-9.44721e-02,-1.10101e-01,4.61997e-02,-7.21212e-02,-6.37880e-02,6.36541e-02,-1.00727e-01,-3.33480e-02,-1.06566e-01,6.23806e-02,-5.48951e-02,4.06986e-02,-5.14904e-02,9.57761e-03,-9.63135e-02,7.42338e-05,6.23050e-02,-1.32890e-02,1.78297e-02,7.37846e-02,9.80728e-02,7.13232e-02,6.12473e-02,-6.68359e-02,5.70300e-02,1.59145e-02,-2.70336e-03,1.07010e-01,2.42558e-02,1.11513e-01,7.28785e-02,5.98945e-02,4.79290e-02,-2.16917e-02,-7.41517e-02,-9.76648e-02,-5.63505e-02,-1.00377e-01,-5.55336e-02,1.71133e-02,1.11807e-01,3.18052e-02,-2.88703e-03,5.37913e-02,7.04186e-02,1.03911e-01,2.71265e-02,1.18862e-01,-5.81300e-03,1.33952e-02,-2.84395e-02,9.33561e-02,1.95030e-02,8.68049e-02,-6.76602e-02,8.08677e-02,3.04544e-02,1.05318e-01,-4.42564e-02,-9.45847e-02,-5.84027e-02,-7.05920e-02,-8.03878e-02,-7.82599e-02,-1.00395e-02,4.72791e-02,
1.15573e-02,1.17999e-01,3.84983e-02,6.09294e-02,3.72689e-02,6.30492e-02,4.98451e-02,-1.98110e-02,-1.13866e-02,1.32390e-02,-4.28687e-02,8.05195e-03,-6.81345e-02,5.69069e-02,9.67774e-02,9.64672e-02,9.70548e-02,-4.75480e-02,3.58178e-02,-9.83072e-02,1.62164e-02,3.49411e-02,-7.88548e-02,-5.06419e-02,2.36818e-02,2.33092e-02,-3.89095e-03,1.20673e-01,2.53152e-02,6.84097e-02,5.63380e-02,2.08443e-02,9.61487e-02,9.73810e-03,-1.13544e-01,7.51023e-02,2.04134e-02,-2.13659e-02,-5.03736e-02,-7.53510e-02,5.39542e-02,-2.75239e-02,1.12330e-01,-8.20063e-02,-4.38092e-02,1.30369e-02,-1.15562e-02,1.22612e-02,3.73287e-03,-1.04556e-01,1.21712e-01,-1.70668e-02,-7.79804e-02,2.41541e-02,-3.22856e-02,-7.14068e-02,5.13588e-02,9.68010e-03,6.98961e-02,2.50719e-03,1.00121e-01,1.99898e-02,-1.06588e-01,-8.09826e-02,-4.86967e-02,-4.51805e-02,-7.15513e-02,-1.55260e-03,-8.51367e-02,4.72721e-02,-4.56256e-02,1.16941e-01,3.00450e-02,-1.09717e-01,9.84424e-02,1.00429e-02,-1.05793e-01,5.13804e-02,-3.64063e-02,-1.20281e-03,1.14829e-01,-8.78015e-02,1.22384e-01,-1.97852e-02,1.00670e-01,-7.10717e-02,7.25850e-02,-1.04752e-01,3.95626e-05,9.07008e-02,1.69706e-02,-8.30353e-02,-5.64599e-02,-1.02898e-01,-9.46050e-02,1.19104e-01,-3.14763e-02,6.29644e-02,1.63874e-02,-1.64780e-02,4.06576e-02,1.10517e-02,-3.94000e-02,8.17454e-02,9.69778e-02,1.19352e-01,5.62739e-02,-8.26853e-02,-9.17821e-03,-2.47594e-03,-8.23797e-02,-1.16095e-01,5.36665e-02,-2.10080e-02,3.18449e-02,-7.18849e-02,8.76372e-02,9.31681e-02,2.28614e-02,-6.57238e-02,-3.60158e-02,1.10840e-01,-4.79225e-02,4.55802e-02,3.50808e-02,-3.74130e-03,9.65490e-02,-1.64572e-02,-1.18767e-01,-1.21195e-01,1.08894e-02,-6.94622e-02,-4.54662e-02,7.61650e-03,6.71446e-02,7.28918e-02,-5.94307e-02,-9.80131e-02,8.33110e-02,-4.38611e-02,-7.17697e-02,4.00315e-02,-7.14086e-02,5.95352e-02,7.36961e-02,7.34363e-02,-3.65379e-02,-9.83327e-02,-9.61862e-02,-5.24524e-02,-4.29920e-02,7.20900e-02,5.63927e-02,9.03186e-02,7.02907e-02,-4.98011e-02,2.77379e-02,-1.98478e-02,-1.03859e-01,5.38182e-02,-4.52143e-02,1.02189e-01,-5.38715e-02,3.24425e-02,-1.00671e-01,7.84935e-02,2.48208e-02,-2.70921e-02,1.13851e-01,-1.21456e-02,2.29456e-04,6.22351e-02,4.47643e-02,1.11902e-01,1.05007e-01,-3.89237e-02,2.31756e-02,-9.80417e-02,1.26393e-02,4.61100e-02,8.37390e-02,-2.56936e-02,-8.48202e-02,3.77355e-02,4.43011e-02,4.91642e-02,1.16734e-01,5.76794e-02,9.33042e-02,1.13000e-01,-6.12386e-04,-6.06083e-02,5.87983e-02,1.75831e-02,-4.65460e-03,-4.77731e-02,1.02318e-01,1.17379e-01,-1.00840e-01,5.18398e-02,
-5.83949e-02,-7.39919e-02,1.16570e-01,-9.54862e-02,-4.09894e-03,9.50795e-02,-3.89765e-02,1.05818e-01,1.06427e-01,-3.11728e-02,7.72275e-02,2.00383e-02,-6.28680e-02,8.36894e-02,-5.44061e-02,1.28076e-02,8.28007e-02,9.21310e-02,1.12705e-01,7.20045e-02,-1.05876e-02,-3.07329e-03,4.85715e-02,1.00666e-01,-3.50427e-02,-5.41220e-02,1.55983e-02,-4.74085e-02,8.24267e-02,-1.05463e-01,-2.20516e-02,4.69459e-02,4.66081e-02,9.16175e-02,1.05219e-01,-1.16823e-01,-5.78827e-02,-1.22132e-01,-5.36219e-02,-1.22101e-01,8.28873e-02,2.85927e-02,-1.11861e-01,-7.78728e-03,-4.93162e-03,-1.16727e-01,1.07201e-01,1.06938e-01,-3.02514e-02,-1.87496e-02,-9.76780e-02,-1.51296e-02,8.12512e-02,7.94213e-02,-2.53442e-02,1.09556e-02,-5.63476e-02,-1.94017e-02,1.61632e-02,-4.27614e-02,9.77850e-02,-8.82424e-03,5.51357e-02,-1.45712e-03,-5.55238e-02,-1.18591e-01,1.97215e-03,9.28820e-02,-2.86363e-02,9.38902e-02,4.25891e-02,2.23840e-03,-1.16517e-01,5.02778e-02,-7.72644e-02,1.86969e-03,-3.04432e-02,3.69586e-04,-1.14437e-01,1.24413e-02,-9.03648e-02,-9.29256e-02,1.22104e-01,1.91025e-02,3.63402e-02,6.66363e-02,7.56821e-02,-6.43539e-02,-1.12072e-01,-8.84132e-02,3.20670e-02,-4.28162e-02,4.79321e-02,1.21967e-01,-6.00003e-04,-6.79648e-02,9.05942e-02,-9.84774e-02,-1.11224e-01,5.73934e-02,1.06182e-01,-9.72283e-02,-5.07928e-03,8.43217e-02,1.01653e-01,1.21108e-01,2.46483e-02,-6.10649e-03,-7.99502e-02,1.96537e-02,5.86110e-02,-5.60907e-02,3.10930e-02,-1.03863e-01,-3.56056e-02,1.00272e-01,1.02483e-02,1.17076e-02,-2.86602e-02,-9.25214e-02,6.01910e-02,-5.63839e-02,-8.58161e-02,-1.80656e-02,-8.69742e-02,6.35458e-03,5.57725e-02,-5.00179e-02,2.04565e-02,3.24205e-02,8.29710e-02,-5.39705e-02,-4.06867e-02,4.70713e-02,-1.22409e-01,-6.20318e-02,-4.68491e-02,-1.17680e-01,9.05070e-02,-6.15380e-02,-9.25144e-03,5.58104e-02,-9.07822e-03,-1.03365e-01,-6.53549e-02,7.22925e-02,8.01985e-02,-1.12140e-01,-9.03823e-02,-6.52959e-02,4.94129e-02,8.65854e-02,-9.23667e-02,6.76511e-02,-9.71056e-02,1.04850e-01,-9.65447e-02,-9.00522e-02,-4.17747e-03,-3.79626e-02,1.02808e-01,-7.65289e-02,7.52258e-02,1.03004e-01,1.19355e-01,-1.10341e-01,-5.63565e-02,-8.57233e-02,-5.38002e-02,-4.04078e-03,1.06998e-01,-9.91800e-02,7.20500e-02,-1.06281e-01,1.14130e-01,-1.08259e-01,4.69709e-02,-1.14817e-01,-5.38289e-02,9.71632e-02,3.88206e-02,-1.10647e-01,6.84281e-02,6.49420e-02,-5.85092e-02,-5.84149e-02,7.21356e-02,1.09827e-01,-8.07781e-02,7.29174e-02,-2.34737e-02,-2.46888e-02,-1.09539e-01,-2.30743e-02,1.60312e-02,-5.88775e-02,5.90732e-03,6.35086e-02,3.67590e-02,8.66169e-02,
4.83390e-02,6.03323e-02,-7.32367e-02,1.84585e-02,-4.60120e-02,-7.87729e-02,8.15429e-02,3.96019e-02,3.83584e-02,5.74346e-02,9.95874e-02,9.49740e-02,4.95368e-02,9.26718e-02,-8.87045e-02,9.07683e-03,1.16266e-01,-1.39466e-02,-1.54342e-02,-1.07560e-01,2.45623e-02,1.19569e-01,-5.62716e-02,9.75736e-02,-2.65740e-02,-9.16779e-02,-5.17390e-02,-9.66079e-02,1.18932e-01,-1.78897e-02,1.91330e-02,7.81044e-02,-8.79755e-02,6.88090e-02,-9.04460e-02,8.36508e-02,-5.09614e-02,-2.30504e-02,1.03293e-01,-9.27410e-02,1.37374e-02,-8.75897e-02,-7.50521e-02,-9.27051e-02,5.61556e-02,-2.00047e-02,-2.02723e-02,-4.97676e-02,-8.78354e-02,-4.45350e-02,-9.85076e-02,-8.25710e-02,4.57849e-02,1.23809e-02,-8.25727e-02,9.46520e-02,-6.95015e-02,9.91233e-02,-5.82194e-02,3.59757e-02,7.90746e-02,-7.56593e-02,-6.44382e-02,-7.66265e-03,4.30845e-02,-4.58454e-02,-4.06624e-02,3.21897e-03,2.57630e-02,7.26315e-03,1.23944e-02,2.32849e-02,-1.07058e-01,-7.25928e-02,1.40717e-02,1.17268e-01,-6.71141e-02,-1.88968e-02,-3.10433e-02,3.07601e-02,-1.72415e-02,-1.65039e-03,2.65875e-02,1.21973e-01,1.89647e-02,1.09656e-01,-1.07523e-01,-1.09990e-01,-4.77359e-02,2.93958e-02,1.05862e-01,-5.50347e-02,8.83592e-02,-6.85357e-02,-9.05176e-02,6.27957e-03,1.56466e-02,3.28085e-02,7.67905e-02,1.55791e-02,-9.24849e-02,8.77410e-04,-2.29607e-03,-1.01492e-01,1.51545e-05,-8.02204e-02,1.16370e-01,1.13219e-01,6.52917e-02,-5.67958e-05,5.43310e-02,8.91436e-02,1.09223e-01,3.28686e-02,-5.92077e-02,-9.61452e-02,-8.41546e-02,1.13407e-01,4.56211e-02,5.66392e-02,-3.98633e-02,6.36914e-02,1.14947e-01,-6.66836e-02,9.30088e-02,1.67599e-02,9.21020e-02,-7.49432e-02,-2.75724e-02,-6.89448e-02,-3.53000e-02,-4.21629e-02,7.85917e-02,-7.50723e-02,6.19509e-02,1.13393e-01,1.06836e-01,-2.92888e-02,-3.89015e-02,8.90992e-02,2.42802e-02,-4.27079e-02,9.53664e-02,-2.35370e-02,-1.41582e-02,7.96853e-02,3.39135e-02,-9.14715e-02,-4.87281e-02,-3.06513e-02,9.98482e-02,-8.40848e-02,-5.46454e-02,-4.22649e-02,-4.99628e-02,1.90696e-02,2.17886e-02,6.26334e-02,9.57943e-04,2.31396e-02,1.21111e-01,-1.18632e-01,3.91554e-02,-5.19274e-02,3.66855e-02,-1.08530e-01,-3.43161e-02,1.08533e-01,-8.49757e-02,-3.08666e-02,-3.65248e-02,-6.68964e-02,-7.95392e-02,3.36105e-03,-7.33963e-02,-2.35789e-02,7.23143e-02,7.79549e-02,6.45126e-03,2.36368e-02,9.73821e-02,-1.38438e-02,-4.36225e-02,6.29869e-02,-7.38268e-02,5.86812e-02,1.10320e-01,6.17602e-02,9.81174e-02,4.46696e-02,-2.39377e-02,9.72464e-02,-9.60252e-02,-1.65349e-02,-3.73313e-03,1.39460e-03,1.08179e-02,1.20731e-01,7.19274e-02,7.66595e-02,
-9.66302e-02,-3.56569e-02,-1.11767e-01,-3.38617e-02,-4.43630e-02,-4.77097e-02,2.18630e-02,5.40402e-02,1.57465e-02,-8.35839e-02,-8.00396e-02,-6.99172e-02,9.07198e-02,-5.43981e-02,-7.62428e-02,1.09866e-01,6.09094e-02,-3.44115e-02,-1.44788e-02,9.94612e-02,-4.72469e-02,-3.29526e-03,-7.88818e-02,4.85989e-02,-8.37303e-02,-4.69534e-02,-1.09274e-01,2.04837e-03,1.34308e-02,1.10009e-01,-3.43021e-02,-6.60382e-02,1.00536e-01,-9.61732e-02,-7.89012e-02,-1.08155e-01,1.86173e-02,-3.83951e-03,-8.23409e-02,-4.91787e-02,-3.05339e-02,1.20910e-01,-3.44402e-02,-9.86280e-02,-3.91090e-02,7.38941e-02,5.09626e-02,-4.93209e-02,1.18912e-01,1.03501e-01,1.05353e-03,-1.16680e-01,-6.61290e-02,-2.56271e-02,-2.81402e-02,-3.26328e-02,-2.76287e-02,-5.69477e-02,-3.95900e-02,6.13891e-02,4.35524e-03,-1.10318e-01,-2.72777e-02,-4.56780e-04,1.20175e-02,1.80354e-02,-6.56310e-02,-2.04496e-02,-4.16779e-02,1.98486e-02,1.04153e-02,9.13766e-02,-1.06293e-01,7.79814e-03,6.68117e-02,-2.37469e-02,-5.20174e-02,-2.31325e-02,3.26759e-03,-1.08058e-01,9.50517e-02,-9.36618e-02,6.67401e-02,-4.68784e-02,1.14878e-02,5.11458e-02,7.19226e-02,4.93197e-02,1.44338e-02,-3.28110e-02,4.44033e-02,7.46002e-02,1.17203e-01,2.88213e-02,-6.95179e-02,-5.04531e-02,-1.02918e-01,-1.15042e-01,5.19185e-02,7.12489e-02,-1.28840e-02,-5.03179e-03,-1.19735e-01,-4.57133e-02,3.02231e-02,-6.36229e-02,1.20779e-01,-6.50899e-02,7.55292e-02,-1.04801e-01,1.08719e-01,4.03901e-02,-3.32330e-02,8.18776e-03,5.96054e-02,6.60013e-02,-1.22361e-01,2.72303e-03,4.95184e-02,4.57582e-02,4.75622e-03,6.40570e-02,-1.97044e-02,1.12501e-01,-6.15177e-02,-8.48520e-02,-1.68854e-02,-3.72806e-02,3.96655e-02,1.47915e-02,-1.08223e-01,2.78012e-02,7.24405e-02,-2.88887e-02,-9.00409e-03,7.31648e-02,9.83939e-02,-1.16408e-01,-6.46503e-02,6.32841e-02,8.80157e-02,-4.97226e-02,-2.41146e-02,-3.62717e-02,-8.43608e-02,-7.44307e-02,9.80099e-03,-5.48788e-03,3.08854e-02,-1.13806e-01,1.08092e-01,1.14477e-01,-3.57132e-02,5.14597e-02,-7.68401e-02,-1.01459e-01,-4.08301e-02,-6.26379e-02,-9.04520e-02,-1.15804e-01,5.95864e-02,-1.07999e-01,4.97166e-03,-1.14374e-02,1.67089e-02,-7.86897e-02,2.67053e-02,4.60357e-02,-4.16459e-03,8.17052e-02,-1.22439e-01,1.15645e-02,-8.57910e-02,7.08695e-02,1.06303e-01,1.17222e-01,5.95718e-02,-7.51501e-02,8.59375e-02,4.76133e-02,4.40541e-02,-6.74412e-02,-8.29787e-02,1.01060e-01,-1.12790e-01,1.21711e-02,6.68296e-03,-3.63689e-02,-3.35464e-02,-5.96376e-02,-1.20457e-02,-2.08191e-02,1.16081e-01,4.20077e-02,-1.10757e-01,1.64045e-02,-1.12297e-01,6.65751e-02,7.02985e-02,2.24474e-02,
1.13778e-02,-8.43729e-02,7.14616e-02,-3.90739e-02,1.17988e-02,5.94100e-02,2.54962e-02,-6.74390e-02,4.02537e-02,3.99788e-03,3.84918e-02,-8.16875e-02,-6.69204e-02,-7.45837e-02,-4.03052e-02,-4.87411e-02,-3.30803e-02,-2.45628e-02,6.37904e-04,-1.44139e-02,1.60354e-02,8.06883e-02,1.08045e-01,5.79234e-02,-1.35710e-02,7.67719e-02,-5.58019e-03,1.20035e-01,-9.91467e-02,5.02855e-02,6.07173e-02,-6.17844e-02,-4.22198e-02,7.35480e-02,8.71541e-02,-5.59241e-02,-8.69794e-02,6.24618e-02,4.11714e-02,2.79116e-02,-1.02586e-01,5.08936e-02,7.98063e-02,6.13130e-02,4.61468e-02,5.80723e-02,7.45971e-02,-1.08211e-01,-7.51701e-02,1.07623e-02,-5.68495e-02,3.71762e-02,-3.97191e-02,4.96439e-02,-3.36009e-02,8.88046e-03,-4.58723e-02,-5.47072e-03,2.58408e-02,-1.13037e-01,-2.62025e-02,5.92455e-02,-1.08314e-01,-4.46807e-02,6.18907e-03,-2.00204e-02,-4.59562e-02,-3.76403e-05,-6.49547e-02,3.15935e-02,9.27033e-04,-1.90958e-02,-7.23220e-02,-2.50628e-02,-8.77956e-02,4.81522e-02,-4.52394e-02,8.13509e-03,7.97190e-02,2.78724e-02,1.14230e-01,7.09147e-03,9.76386e-02,-4.84901e-02,-1.00277e-01,4.41837e-02,-1.07832e-01,1.10732e-01,-7.84048e-02,-3.71401e-02,-1.17262e-02,9.54404e-02,1.17857e-01,1.12888e-01,5.67545e-03,-5.67958e-02,6.92240e-02,7.96196e-02,-1.20044e-01,1.18815e-01,-1.77226e-02,1.75390e-02,-3.05358e-02,3.52308e-02,-1.93244e-02,3.45499e-02,8.69439e-02,2.68887e-02,7.99522e-02,1.11717e-01,4.42351e-03,4.44298e-02,1.21194e-01,4.19563e-02,1.10218e-01,-5.45579e-02,-7.48340e-02,-3.03391e-02,-7.56168e-02,7.96268e-02,6.85083e-03,2.57441e-03,-8.85363e-02,-7.41763e-02,-8.26451e-02,-4.86483e-02,1.15714e-02,-3.63992e-02,9.22619e-02,6.67520e-02,6.98492e-02,-1.20430e-01,-5.60775e-02,-1.63440e-02,3.56547e-02,3.31489e-02,9.59533e-02,1.05395e-01,3.07927e-02,-1.01955e-01,-5.66747e-02,-9.33218e-02,-9.03210e-02,-1.15815e-01,-8.04628e-02,9.34183e-02,-1.53440e-02,1.58355e-02,3.74365e-03,-2.04249e-02,2.77887e-02,1.12961e-01,1.62212e-02,5.17016e-02,-7.16815e-02,-5.94769e-03,-7.15429e-02,5.10030e-02,5.44679e-02,-9.07892e-02,-8.30925e-02,3.48209e-02,7.17121e-02,1.06602e-01,-6.50790e-02,-3.60404e-02,5.92652e-02,-4.25856e-02,7.11782e-03,-1.08379e-01,-7.06437e-02,-9.21256e-02,-7.61106e-03,-9.33372e-03,-9.90994e-02,-1.09494e-01,4.25418e-02,6.68970e-03,-7.40671e-02,-7.26644e-02,-7.32676e-02,2.43840e-02,-3.35394e-02,5.60171e-02,4.03904e-02,-5.24327e-02,5.05561e-02,5.87736e-02,2.01784e-02,-6.27877e-02,-7.41190e-03,5.62634e-02,-1.49381e-02,-8.14424e-02,1.06981e-01,8.59644e-02,-8.35527e-02,-4.30145e-02,8.56568e-02,1.05878e-01,
5.26387e-02,1.08158e-02,7.62866e-02,1.18937e-01,-2.82725e-02,8.63888e-02,-7.92237e-02,4.59300e-02,-3.27705e-02,-8.15887e-02,8.26763e-02,5.35076e-02,-1.07830e-01,-1.01724e-01,-2.95281e-02,-4.92635e-02,6.57732e-03,-3.19727e-02,-2.35041e-02,-5.91027e-02,7.96319e-02,6.79254e-02,4.13254e-02,3.22744e-02,-2.62276e-03,-8.38709e-02,2.21215e-02,7.51780e-02,4.59324e-02,-2.89090e-02,9.26233e-02,3.52330e-03,-8.03751e-02,8.17166e-02,-1.38927e-02,-2.95502e-02,-1.19970e-01,1.09293e-01,7.59534e-02,9.02049e-02,1.18831e-01,-6.31287e-02,-4.01166e-02,2.41948e-02,3.64398e-02,4.60604e-02,-4.54192e-02,1.03596e-01,9.48725e-02,1.57637e-02,-7.95924e-03,1.10543e-02,6.09533e-02,-1.06528e-01,1.03940e-01,-5.97778e-02,-1.30118e-02,-9.80978e-02,4.82035e-02,-4.21000e-02,6.51966e-02,9.91848e-02,1.17606e-01,-5.51111e-02,-7.96844e-02,-8.34077e-02,4.47990e-02,-6.66519e-02,5.91885e-02,7.27245e-02,5.75329e-02,6.35805e-02,9.86084e-02,-3.81139e-02,-1.05493e-01,1.51379e-02,-2.13641e-02,4.78745e-02,4.55176e-02,1.57220e-03,2.42470e-02,-4.35509e-02,9.70053e-02,-2.47504e-03,3.55915e-02,1.22000e-01,-3.67578e-02,-1.25740e-02,-1.12641e-01,-1.71430e-02,1.19988e-02,-1.44975e-02,-1.17929e-01,8.17360e-02,1.07266e-01,7.45765e-02,-1.64502e-02,-1.00218e-01,-9.20362e-02,2.85462e-02,7.98040e-02,-8.40373e-02,-6.84457e-02,-8.86779e-02,1.19925e-01,1.03788e-01,-5.23730e-02,-1.15204e-01,7.42412e-02,-7.56518e-02,-5.89200e-02,3.38358e-02,-1.49066e-02,9.33323e-03,-5.86835e-02,-7.91301e-02,8.66911e-02,-7.45789e-02,-7.62012e-02,-3.37362e-02,1.09757e-02,7.03264e-02,-1.05262e-01,6.80735e-02,-9.59804e-02,3.99876e-03,1.12930e-02,-7.56365e-02,-1.38479e-02,8.84302e-02,4.16540e-03,1.11149e-01,5.34953e-02,-1.12187e-01,-1.09860e-01,1.04936e-01,-7.10654e-02,-1.20224e-01,-1.12310e-01,-1.02796e-03,-1.00662e-01,9.76437e-02,9.80132e-02,-2.49341e-02,5.82818e-02,-3.43567e-02,-2.08951e-02,-3.47342e-03,-4.73654e-03,2.97997e-02,3.55232e-02,3.65256e-02,-6.43469e-02,-3.30937e-02,-1.07126e-01,3.35229e-02,4.10927e-02,7.53673e-02,-5.86247e-02,6.39308e-02,-1.06032e-01,-2.70710e-02,-1.09867e-01,7.87287e-02,-9.56206e-02,-6.06530e-02,-4.53284e-02,-1.08587e-01,8.16578e-02,5.42009e-02,-1.13698e-01,7.10566e-02,3.67919e-02,9.79905e-02,1.49854e-02,1.09854e-01,-7.80825e-02,4.20434e-02,-3.51510e-02,8.33540e-02,2.07925e-02,3.09096e-02,6.44157e-02,2.52898e-02,-4.01018e-03,-2.91471e-02,1.03679e-01,1.09267e-01,1.05798e-01,1.19272e-01,5.26694e-02,3.14485e-02,-7.00255e-02,-9.42272e-02,2.02564e-02,-6.38985e-02,-9.72440e-02,-3.24273e-02,6.11378e-02,8.94605e-02,
8.58615e-02,-7.72111e-04,5.07641e-02,-1.13471e-01,-1.04507e-01,-1.00431e-01,-1.18063e-01,-1.20772e-01,-5.39279e-02,9.99085e-03,-7.67736e-02,-4.65350e-02,-1.40566e-02,4.19285e-03,2.79987e-02,4.10075e-02,1.03484e-01,1.17492e-02,9.47028e-02,-6.87458e-02,2.00566e-04,1.32229e-03,-8.59439e-02,-2.81155e-02,1.80512e-02,1.09346e-01,-3.82939e-02,-3.03626e-02,-6.52615e-02,-9.63145e-02,9.35499e-02,5.99538e-02,-1.25590e-01,5.80218e-02,-1.12916e-01,1.00773e-01,-6.64952e-03,-8.01944e-02,1.15747e-01,7.85049e-02,-2.88256e-02,8.49161e-03,-1.04660e-01,-1.13603e-01,9.97158e-02,-9.49181e-02,6.83166e-02,-3.01291e-02,-4.68731e-02,1.02532e-01,1.11384e-02,-5.03810e-02,-1.06962e-01,-1.08925e-01,1.07445e-01,-1.09200e-01,7.95327e-02,-9.71954e-02,-4.74767e-02,-1.07290e-01,-8.75234e-02,9.06872e-02,3.86424e-02,1.83669e-02,-7.20069e-02,4.49371e-03,1.43996e-02,1.01722e-01,9.36099e-02,-9.86434e-02,1.01342e-01,9.38520e-02,1.13564e-01,-6.12253e-02,-9.75355e-02,6.03498e-02,9.27382e-02,9.91681e-02,1.21734e-02,-3.87767e-02,-7.37173e-02,5.39315e-02,-4.55021e-03,2.44819e-02,-7.42165e-02,4.34471e-02,4.96638e-03,-1.20647e-01,8.96913e-02,8.45690e-03,-1.55606e-02,-7.81426e-02,-1.64565e-02,1.11058e-01,1.18815e-02,-5.50801e-02,5.68431e-02,-5.02753e-02,7.98863e-02,8.25913e-02,8.00745e-02,9.72713e-02,-6.05514e-02,-7.13186e-02,7.28670e-02,1.15708e-02,5.52091e-02,-1.06747e-01,-1.21507e-01,-8.34336e-02,-9.91186e-02,1.16399e-01,9.78331e-02,-1.03020e-01,6.35823e-02,-6.43008e-02,-1.74653e-02,7.01739e-02,6.54115e-02,1.02139e-01,-7.56529e-02,2.43007e-02,-1.03682e-01,-4.48017e-02,-5.87371e-02,2.43971e-02,2.70136e-02,4.61253e-03,1.08468e-01,1.27897e-02,-7.21586e-02,-5.81627e-02,-2.06278e-02,-7.27022e-02,-8.77889e-02,1.10788e-01,-7.28504e-02,-5.57376e-02,-6.09835e-02,6.57471e-02,-3.46422e-02,-1.13646e-01,-1.78228e-02,6.35496e-02,-1.08161e-01,8.69972e-02,1.12801e-02,1.13560e-01,-1.06187e-01,8.97787e-02,-8.54693e-02,-3.17702e-02,-5.64566e-02,5.29030e-02,1.52016e-02,-9.43561e-02,5.20471e-02,-7.24299e-03,-3.25362e-02,-1.15218e-01,-3.56564e-02,-1.11415e-01,1.01014e-01,-3.17424e-02,3.29322e-02,-1.13762e-01,-9.27455e-02,4.72783e-02,1.54169e-02,-1.14023e-01,1.08416e-01,-3.92928e-02,7.82978e-02,-3.92324e-02,8.79040e-02,-3.53206e-02,-6.17496e-02,-6.29293e-03,9.36360e-02,-5.49735e-02,-3.16422e-03,-1.27909e-01,9.46563e-02,1.14099e-01,4.73736e-03,-6.41483e-03,1.16028e-01,5.15567e-02,1.81851e-02,-3.68878e-02,-2.07438e-02,-1.32746e-02,1.12332e-01,-7.48583e-02,-1.78869e-02,-3.81186e-03,7.02264e-03,-5.96394e-02,-9.81989e-02,-6.57945e-02,
-3.92715e-02,-5.91967e-03,6.88227e-02,5.01163e-02,1.03317e-01,-1.13722e-01,1.16385e-01,1.08186e-02,-4.92925e-02,2.13896e-02,6.12768e-02,1.48654e-02,1.15426e-01,5.61388e-02,-1.18931e-01,-5.97903e-02,8.84127e-02,3.74201e-02,-2.02806e-02,-4.29281e-02,-9.25843e-02,4.89481e-02,-4.50386e-02,-2.40860e-02,8.44036e-02,2.25924e-02,-2.37829e-02,-3.57688e-02,1.01649e-01,-6.92532e-02,-7.64726e-02,1.78318e-02,9.49718e-02,4.28331e-02,-4.69837e-02,-5.40624e-02,-5.30454e-02,-1.09837e-01,6.22317e-02,-1.04110e-01,-1.18716e-01,2.89036e-02,-1.15470e-01,-1.15860e-01,1.00585e-01,-4.58846e-02,8.22123e-02,7.67722e-02,1.13405e-01,6.53964e-02,-5.90334e-02,4.09170e-03,9.00620e-02,7.19496e-02,-4.77763e-02,9.24114e-02,-8.20749e-02,1.03305e-01,-9.07915e-02,-5.32621e-02,7.89991e-02,8.14084e-02,2.51533e-02,-3.83251e-02,1.75531e-03,7.49510e-02,7.06985e-02,5.81347e-03,1.09089e-01,-7.63245e-02,1.17871e-01,-7.71160e-02,1.21077e-01,1.10683e-01,7.77517e-02,-1.15595e-01,-5.82867e-02,-1.20393e-01,1.13217e-01,6.08007e-02,-1.02990e-01,-7.91451e-03,4.59622e-02,-1.57208e-02,-1.05756e-01,5.24403e-02,-3.09767e-02,-1.01701e-01,-1.04511e-01,-6.43649e-02,-3.04243e-03,6.94190e-02,1.15758e-01,-1.51208e-02,8.59967e-02,7.16487e-02,-1.21914e-01,-9.70602e-02,-1.07975e-01,-1.16965e-01,1.07886e-01,-9.37316e-02,-6.51145e-02,2.46487e-02,-3.36124e-02,1.07360e-01,8.33860e-02,-7.12978e-02,3.83844e-02,5.56605e-02,-1.06836e-01,-1.19403e-01,2.50272e-04,1.05023e-01,-8.31992e-03,-1.11263e-01,5.27603e-02,-7.40428e-02,9.27545e-02,-4.13898e-02,-9.95797e-03,-6.40257e-02,-1.36742e-02,8.55712e-02,1.02583e-01,7.93516e-02,1.00652e-01,-6.90152e-02,-2.58094e-02,-7.80995e-02,-5.25972e-02,-8.19718e-02,-1.14658e-01,-9.51152e-03,6.59113e-02,6.37452e-03,-8.52888e-02,-7.34976e-02,-6.48144e-02,9.30023e-02,3.78647e-02,6.96769e-02,-9.66656e-02,1.01176e-01,9.56061e-02,-2.80408e-02,9.46084e-02,6.55939e-02,8.46651e-02,-1.07998e-01,6.78249e-02,-1.13947e-01,1.00371e-01,8.63774e-02,-6.82597e-02,-8.94492e-02,-4.93311e-03,-9.39237e-02,-5.72359e-02,4.82402e-02,1.19184e-01,-7.99682e-02,1.06582e-01,3.97413e-02,-8.31122e-03,5.98054e-02,3.66745e-02,8.91941e-02,1.49422e-02,5.19292e-02,-9.22899e-02,-9.55129e-03,2.26439e-02,-5.04294e-02,5.96615e-03,-6.10120e-02,3.58207e-02,-5.65498e-02,6.54184e-02,-1.10551e-01,-6.88161e-03,-4.73452e-02,-9.33917e-02,8.76218e-02,-5.25623e-02,-8.99767e-02,-6.63188e-02,-3.36327e-02,-4.76845e-02,-1.00226e-01,-1.16844e-01,6.52568e-02,-4.85140e-02,8.50559e-02,3.73549e-02,-1.16403e-01,7.01769e-02,4.97952e-02,1.10088e-01,-6.07733e-02,
-7.99082e-02,-7.39205e-02,2.08861e-02,8.74783e-02,1.13960e-01,3.00518e-02,-1.03912e-01,4.39698e-02,-3.30571e-02,1.17651e-01,6.00036e-02,5.22440e-02,-3.30078e-02,-7.57184e-02,7.53800e-02,9.94318e-02,6.31069e-02,7.70675e-02,-4.45829e-02,-1.90738e-02,3.27681e-02,9.99738e-02,-4.32814e-02,3.34599e-02,8.90785e-03,-1.15616e-01,1.00342e-01,1.01637e-01,-3.19221e-02,-8.95916e-02,3.48009e-02,1.12169e-01,7.01958e-02,-1.15386e-01,9.48321e-02,8.84958e-02,1.94266e-04,4.37368e-02,-2.32791e-02,-9.09996e-02,-5.89079e-03,-4.04142e-02,9.84582e-02,1.09839e-01,7.83804e-02,1.17384e-02,-9.94593e-02,3.90693e-02,1.05225e-01,5.26538e-02,-1.03311e-01,-1.15100e-01,-1.04936e-02,-1.61783e-02,-1.18679e-01,-1.84342e-02,-1.11540e-01,1.06120e-01,-8.62832e-02,7.68991e-02,-5.23213e-02,8.16926e-03,-9.04758e-02,6.71229e-02,-1.08366e-01,1.09855e-01,4.40928e-02,8.69238e-02,-1.04672e-01,-2.57769e-02,-1.95575e-02,-5.96167e-02,-4.80210e-02,9.85964e-03,-1.21146e-01,-4.00482e-02,-3.89347e-02,9.22121e-02,-9.87601e-02,-7.76207e-02,6.76284e-02,3.07126e-02,-4.33275e-02,8.82295e-02,-6.31826e-02,1.35339e-02,1.14845e-01,-4.53332e-02,4.16498e-02,1.21761e-02,9.33937e-02,-8.85630e-02,-3.44611e-02,1.15537e-01,5.46075e-02,4.28940e-02,-1.70337e-02,-1.19506e-01,4.74740e-02,2.89948e-02,3.77168e-02,1.01795e-01,2.24406e-02,-1.00012e-01,-9.78239e-02,-1.07247e-01,1.20485e-01,7.90668e-03,7.49173e-02,7.71756e-03,-2.72066e-02,1.09250e-02,-1.99842e-02,-1.63461e-02,7.21645e-02,-1.09355e-01,3.89025e-02,1.05116e-01,-3.10922e-02,-4.78977e-02,1.10152e-01,-7.12490e-02,-1.19906e-01,-4.19723e-02,8.73031e-02,-8.80077e-02,4.59607e-02,-3.12263e-02,-6.58528e-02,-1.20708e-01,8.50237e-02,7.64542e-02,2.68823e-02,2.96830e-02,4.88988e-02,2.71449e-02,-7.51961e-02,1.14097e-01,-2.21632e-02,3.48124e-02,-2.90625e-02,-6.16294e-02,-1.19100e-01,-1.07693e-01,-1.07717e-01,8.81020e-02,9.44118e-02,3.59901e-02,7.62986e-02,2.66061e-02,-2.96734e-04,-1.88972e-02,-9.35037e-02,3.34083e-02,-3.08650e-02,1.32477e-02,-7.74672e-02,-1.10279e-01,1.05468e-01,1.01804e-01,4.91294e-02,-6.74866e-02,1.14447e-01,-5.59100e-02,2.30718e-02,2.70482e-02,5.91325e-03,-1.06101e-01,-1.58887e-03,-6.75809e-02,3.35273e-02,9.57843e-02,-1.07131e-01,5.18110e-02,-3.31575e-02,-7.25144e-02,-2.99513e-02,3.24224e-02,1.72790e-02,4.52356e-02,3.85022e-02,5.75567e-02,-4.50264e-03,5.90489e-02,-3.65044e-02,-1.11069e-01,1.94199e-02,8.08642e-02,-1.19252e-01,-8.43461e-02,2.51330e-02,-9.82713e-02,-5.54814e-02,1.29601e-02,-8.04110e-02,-1.14679e-01,-1.03436e-01,1.11317e-01,7.26451e-02,-3.50684e-02,
