// Neural Network File Format by Kyle Julian, Stanford 2016
2,20,1,50,
20,50,1,
0,
0,0,0,0,0,0,0,1,0,1,0,0,0,0,1,0,1,0,0,0,
2,80,2,9,20000,2,2,4,2,4,2,1,2,2,4,3,2,1,1,1,
0,0,0,0,0,0,0,1,0,1,0,0,0,0,1,0,1,0,0,0,0,
2,80,2,9,20000,2,2,3,2,3,2,1,2,2,3,3,1,1,1,1,1,
1.00367e+00,-2.00343e-01,2.72002e-01,2.15961e-02,-8.19904e-04,3.15927e-01,2.32700e-01,-7.26754e-01,2.49027e-01,-4.89709e-01,-6.57441e-01,5.61831e-01,3.79359e-01,3.19226e-01,-4.62466e-02,-1.18615e-01,-3.15488e-01,4.56503e-01,1.07867e+00,2.39171e-01,
-1.53738e-03,-1.91620e-01,6.43678e-02,1.11348e-01,-2.76939e-01,-1.50464e-01,-1.60523e-01,-4.51380e-03,2.32673e-01,-3.42503e-02,3.46150e-02,2.62379e-01,-1.10734e-01,2.44640e-01,-1.96904e-01,2.28348e-03,-9.83796e-02,1.86787e-01,1.25693e-01,2.14980e-02,
1.89773e+00,-4.90174e-02,9.98091e-01,2.60150e-01,-2.38258e-03,3.79660e-01,5.42815e-01,-5.35669e-01,2.35700e-01,1.75887e-01,-9.00573e-01,1.05777e+00,3.48886e-01,5.23322e-01,-1.01233e-01,-1.15218e-01,6.70563e-02,7.11682e-01,2.55606e+00,1.01653e+00,
2.45620e-02,-9.85875e-02,-1.60110e-01,4.41853e-02,-1.30103e-01,-1.72529e-01,3.59195e-02,-8.85941e-02,-2.44549e-01,2.66824e-01,2.05622e-02,2.29297e-01,2.80897e-01,-1.99900e-01,-2.35752e-01,-2.86669e-01,-1.65946e-01,-1.38237e-01,-1.15921e-01,-2.08782e-01,
-1.13530e+00,-3.29872e-01,-9.13285e-01,-1.74130e-01,-2.72114e-05,-5.87083e-01,-6.70426e-01,8.37775e-02,-2.90496e-01,7.38441e-02,3.53419e-01,-9.25673e-01,-5.86378e-01,-4.58800e-01,8.35127e-03,-1.72351e-01,-3.85777e-01,-9.51765e-01,-9.24562e-01,-7.72797e-01,
1.71317e-01,2.85320e-01,-2.19038e-01,-1.43203e-01,-1.89416e-01,5.13692e-02,7.80159e-02,1.50919e-01,2.32498e-01,4.92388e-02,2.19473e-01,-8.20312e-03,-6.51865e-02,2.87436e-01,-1.71051e-01,2.45595e-01,1.38915e-01,5.69292e-02,-1.34769e-01,-1.27096e-01,
1.34329e-01,-2.08597e-01,-2.20421e-01,2.86446e-01,-2.70677e-01,-4.76030e-02,2.09706e-01,1.89178e-01,-7.15300e-03,4.17913e-02,-8.19229e-02,-1.59468e-01,-1.93295e-01,-1.63081e-01,-1.75556e-01,-1.65034e-01,1.82829e-01,-2.86314e-01,2.90760e-01,4.31671e-02,
-1.26455e-01,2.39999e-01,-1.55487e-01,7.32372e-02,-2.53008e-01,5.51797e-02,-5.81518e-02,-7.56784e-02,4.04863e-02,-2.02883e-02,1.18207e-01,4.32688e-02,6.68557e-02,-1.11132e-01,1.19537e-01,1.92059e-01,1.54920e-01,-3.16894e-02,-4.81190e-02,-2.46453e-01,
-1.90395e+00,6.70556e-02,-1.22056e+00,-1.38136e-01,4.54218e-03,-4.07537e-01,-6.31295e-01,5.91790e-01,-3.61633e-01,9.64394e-02,5.62465e-01,-1.51842e+00,-7.77617e-01,-4.29830e-01,-2.68900e-01,-2.04051e-02,1.40061e-01,-9.30412e-01,-1.81060e+00,-8.94051e-01,
1.52096e-01,-1.79362e-01,1.92949e-01,-8.29109e-02,-1.31678e-01,2.54319e-01,5.74087e-02,2.70509e-01,2.84588e-01,2.26882e-01,-2.16343e-01,8.02849e-02,2.84654e-01,-2.59558e-01,2.33620e-04,-6.70982e-02,-1.95249e-01,9.82862e-02,-4.68715e-02,1.29611e-01,
2.76329e-01,-1.15478e-02,-1.26830e-01,-1.35172e-02,-1.73431e-01,2.74337e-01,2.60850e-01,4.49726e-02,8.30340e-02,2.63673e-01,7.89393e-02,-2.19272e-01,2.19488e-01,1.28034e-01,9.73492e-02,-2.88244e-01,2.65975e-01,-2.39583e-01,1.59774e-01,-5.61788e-02,
-3.18866e-02,-6.79001e-02,9.53256e-02,2.89216e-03,-2.78242e-03,2.74508e-01,3.47547e-01,-3.18692e-01,-3.68834e-02,2.00473e-01,-2.36127e-01,3.77171e-01,-1.47307e-01,-1.34492e-01,2.42779e-01,1.69931e-01,1.95779e-01,-1.30611e-01,6.85501e-01,1.91541e-01,
1.98125e-01,1.02407e-01,2.92007e-01,-2.09506e-01,-2.48384e-01,-8.18399e-02,-1.71546e-01,2.60398e-01,1.27640e-01,-2.36728e-01,2.22718e-01,1.79735e-01,-2.72465e-01,-1.43607e-01,2.87059e-01,1.90600e-01,2.55221e-01,-1.03508e-01,1.87952e-01,2.08718e-01,
-2.90314e-01,7.90938e-02,-7.17589e-02,-5.61653e-02,-9.89645e-02,3.86855e-02,2.42147e-01,-1.04771e-01,-1.60990e-01,-1.30804e-01,-1.40747e-01,2.05659e-01,1.08144e-01,-2.31311e-02,-9.09106e-02,5.60583e-02,2.62854e-01,1.20234e-02,-1.77931e-01,-1.91041e-01,
-2.39428e+00,-1.47052e-02,-1.50378e+00,-2.31438e-01,7.64705e-03,-7.33542e-01,-8.47183e-01,7.85847e-01,-4.23427e-01,-1.07624e-01,9.06867e-01,-1.49264e+00,-9.61122e-01,-9.77469e-01,1.70941e-03,8.31726e-02,2.26205e-01,-1.32758e+00,-3.09337e+00,-1.36776e+00,
-3.06398e-01,-7.47715e-02,-4.38259e-01,-4.19479e-01,1.73952e-04,-1.41149e-01,-3.05413e-01,-1.78555e-01,-4.64835e-01,-5.15407e-01,-2.92943e-01,-3.01044e-01,-5.27588e-01,-4.83332e-01,-2.79151e-01,-1.96364e-01,-3.41549e-01,-5.91297e-01,-5.65888e-01,-3.10165e-01,
-1.08218e-01,-1.35923e-01,1.60136e-01,1.09108e-01,-1.51770e-02,1.68142e-01,-1.58865e-01,-2.57528e-02,2.42018e-01,-1.27970e-01,-8.99963e-02,2.26842e-01,-6.54267e-02,-1.67942e-01,5.52400e-02,-5.10127e-02,2.30949e-01,2.30919e-01,-1.48013e-01,8.90684e-02,
1.27813e-01,-2.47749e-01,-1.37560e-01,-1.10243e-01,-1.95681e-01,-2.02832e-01,-1.52997e-01,2.74459e-01,7.65601e-03,-3.03518e-02,2.25897e-02,-2.38192e-01,2.79744e-01,6.37627e-03,2.90373e-02,2.06794e-01,1.00257e-01,1.49373e-01,-1.38711e-01,-4.78452e-02,
-2.76194e-01,2.12417e-01,-6.23789e-02,-8.10109e-02,-1.61845e-01,2.55571e-02,2.59336e-01,-1.94282e-01,-7.07456e-03,4.83398e-02,-6.33206e-02,-2.57959e-01,-1.64309e-01,3.76100e-02,-2.88124e-01,-9.99806e-02,4.08968e-02,-7.48771e-03,-2.63974e-01,-2.89150e-01,
-8.24160e-02,-9.52911e-02,1.28849e-01,-1.55392e-03,-1.11940e-01,3.66560e-02,2.44430e-01,-1.43768e-01,-1.74583e-01,-2.09497e-01,2.32047e-01,1.99745e-01,-1.54868e-02,3.47007e-02,-9.37816e-02,-5.83637e-02,1.23644e-01,1.08681e-01,-1.30997e-01,-5.54226e-02,
-7.79931e-01,-4.46693e-01,-8.18473e-01,-2.37244e-01,-2.36795e-03,-6.69322e-01,-8.37660e-01,1.99316e-01,-2.36284e-01,5.07902e-03,1.09430e-01,-8.87824e-01,-4.49570e-01,-4.43750e-01,-7.73002e-02,-9.61126e-02,-2.74529e-01,-9.68011e-01,-7.68601e-01,-5.65121e-01,
9.40472e-02,-8.66620e-02,-1.76633e-01,-2.42367e-01,-2.92019e-01,2.57354e-01,-3.15821e-02,-7.39701e-02,-2.21669e-01,2.44014e-01,1.68409e-01,-2.11588e-01,-2.49716e-01,1.03715e-01,1.77793e-01,1.12179e-01,-2.08369e-01,-2.35524e-01,-4.02191e-02,1.46673e-01,
1.14902e-01,1.24352e-01,2.86902e-01,-1.44723e-01,-1.51511e-01,2.54564e-01,-2.03842e-01,-1.68575e-01,2.60049e-01,-1.80187e-01,-1.71973e-01,6.86892e-02,8.37831e-02,2.57739e-01,1.24568e-01,-9.03462e-02,-1.24263e-01,2.90599e-01,1.21962e-02,1.36797e-01,
-8.58294e-02,9.27007e-02,-1.50271e-01,-5.95885e-02,-1.24791e-01,1.76929e-01,-1.35398e-01,-2.45968e-01,-1.70857e-01,1.63112e-01,-2.35255e-01,-2.82353e-01,-1.43951e-02,2.12086e-01,-1.53250e-01,2.37511e-01,1.82524e-01,-1.01826e-01,-1.44741e-01,-2.26036e-01,
-8.48622e-02,-9.21398e-02,-1.63112e-01,-2.56887e-01,-3.02088e-04,7.15518e-02,-1.58474e-01,1.71159e-01,1.27111e-01,-2.19911e-01,1.37393e-01,-1.33645e-01,-1.65265e-01,3.21222e-01,-1.00099e-01,-2.47004e-01,-1.50875e-02,1.49291e-01,1.13329e-01,2.54212e-02,
-4.21857e-02,-1.19809e-01,1.55016e-01,-1.63630e-01,-1.01338e-01,9.75335e-03,-3.29804e-02,1.00522e-01,2.20722e-01,-5.94937e-02,2.37119e-01,2.28626e-01,1.90908e-01,6.52096e-02,-3.66984e-02,-8.69352e-02,2.56725e-01,1.33592e-01,-1.30027e-01,2.64157e-01,
2.74264e-01,-2.54063e-01,1.18528e-01,7.65382e-02,-2.45337e-01,1.72635e-01,-1.68763e-01,2.43942e-01,2.83365e-01,1.18547e-01,-2.37967e-01,-1.54381e-01,2.53415e-02,1.39767e-01,-1.75998e-01,2.80565e-01,-3.26478e-02,1.38916e-01,2.10015e-01,2.57795e-01,
2.56653e+00,-1.02361e-01,9.48070e-01,-7.90305e-02,2.83474e-03,6.51909e-01,7.78455e-01,-7.44467e-01,4.10099e-01,-2.79016e-01,-1.05641e+00,1.46812e+00,9.67285e-01,5.15480e-01,1.30906e-01,-1.68756e-01,-2.36351e-01,1.38771e+00,3.70204e+00,1.00394e+00,
2.31548e-02,-6.41951e-02,-1.94992e-01,-2.32365e-01,-1.90848e-01,2.60784e-01,-1.94668e-01,2.17849e-01,2.08919e-01,-1.02757e-01,-6.38874e-02,-2.44707e-01,1.34279e-01,1.80632e-01,2.82498e-02,-1.26598e-01,-1.15194e-01,1.95652e-02,-1.38342e-01,1.95579e-01,
2.59514e-01,-2.74447e-01,1.09984e-01,9.86460e-02,-1.42980e-01,2.74738e-01,1.69144e-01,-8.09117e-02,-8.10918e-02,-1.74605e-01,1.88317e-01,-2.26933e-01,1.25703e-02,-7.35188e-03,1.61365e-01,-2.05832e-01,-1.09338e-01,-1.29735e-01,-2.21641e-01,-2.90728e-01,
2.28790e+00,-5.65212e-01,1.03310e+00,-1.17139e-01,8.45238e-03,3.05827e-01,9.98515e-01,-6.64801e-01,6.43775e-01,-3.56486e-02,-6.43470e-01,1.60513e+00,5.32735e-01,5.51189e-01,2.87981e-02,4.01559e-02,-2.39919e-01,1.35319e+00,3.35948e+00,1.22676e+00,
-2.54338e+00,-1.80869e-01,-1.13146e+00,-2.44296e-01,7.68341e-03,-6.20723e-01,-8.61468e-01,8.41177e-01,-9.03477e-01,-1.54615e-01,3.96009e-01,-1.62704e+00,-7.99079e-01,-5.50091e-01,2.64317e-02,2.97253e-02,-2.93747e-01,-1.21980e+00,-3.37366e+00,-1.51537e+00,
-6.00764e-02,-4.95673e-01,-4.29008e-02,-5.17595e-01,-1.80343e-03,-1.97180e-01,-2.85981e-01,-3.48193e-01,6.04668e-02,-3.81589e-02,-5.80685e-01,-3.25043e-01,-1.99421e-01,5.79243e-02,-2.27039e-02,-1.17275e-01,-2.44204e-01,-1.78621e-02,3.27651e-02,-1.35612e-01,
4.57991e-01,-2.25238e-02,2.76391e-01,-2.18809e-01,-4.36190e-03,-9.57799e-02,3.59052e-01,-1.80935e-01,3.47866e-01,4.33484e-02,-1.94600e-01,4.53483e-01,2.45683e-01,7.65455e-03,2.42810e-01,-2.19884e-01,-1.18584e-01,4.15607e-01,8.11166e-01,2.63297e-01,
-2.46934e-01,-2.24126e-01,2.26513e-01,-2.35467e-01,-1.42069e-01,-1.68853e-01,1.36509e-01,2.42721e-01,4.71358e-02,1.17027e-01,-2.24213e-01,2.63158e-01,-2.76046e-01,1.86206e-01,1.07487e-01,-1.46446e-01,9.62510e-02,2.02752e-01,-8.37566e-02,6.38549e-02,
1.65196e-02,-2.81427e-01,-8.54314e-02,-8.83678e-02,-1.74579e-01,1.01091e-01,7.14954e-02,3.60262e-02,9.18310e-02,-1.73850e-01,-5.10861e-02,-2.83143e-01,9.04598e-02,-1.87157e-01,1.58260e-01,-1.54659e-01,1.90552e-01,-1.66808e-01,2.69730e-01,2.75908e-02,
3.81728e-02,-8.16978e-02,-1.48093e-01,-2.51228e-01,-6.00871e-02,6.58812e-02,-2.61273e-01,1.69100e-01,2.51046e-01,-1.82347e-01,-2.21984e-01,-1.59696e-01,6.72466e-02,3.30953e-02,9.97538e-02,-1.87056e-01,-2.02882e-01,4.30780e-02,-2.73156e-01,2.15999e-01,
1.09865e-01,-7.64548e-02,-4.09589e-02,-4.38726e-02,-8.60237e-02,-2.53516e-01,-1.78786e-01,-1.39619e-01,-4.97482e-02,1.00548e-01,6.52358e-02,-2.67185e-01,-1.81367e-01,2.67165e-01,2.05115e-01,-2.12182e-01,1.20357e-01,1.00910e-01,1.23430e-01,-2.92675e-01,
-1.02892e-01,-9.06265e-02,-1.00196e-02,-2.57241e-01,-1.84211e-02,1.93954e-01,-2.13513e-01,-1.58988e-01,5.70187e-02,2.70621e-01,2.08851e-01,-8.84011e-02,-2.86924e-01,-3.63407e-02,2.59653e-02,3.99546e-02,-1.22074e-01,1.80867e-01,2.83911e-01,1.16649e-01,
2.68535e+00,-1.77375e-01,1.30956e+00,3.08297e-01,5.62129e-03,7.08691e-01,7.14649e-01,-7.16062e-01,7.47784e-01,2.95001e-02,-8.92709e-01,1.63134e+00,7.56213e-01,7.76194e-01,-2.70916e-01,1.29726e-01,-1.99194e-01,1.63009e+00,4.09706e+00,1.55448e+00,
1.17799e-01,-5.28739e-03,-1.77209e-01,-1.64873e-02,-6.29095e-02,-2.18238e-01,-2.67879e-01,7.16934e-02,-4.32072e-01,-4.25749e-01,-4.31616e-01,-9.96778e-03,-1.08363e-01,-3.85003e-01,1.06012e-01,-3.79087e-01,-2.14319e-01,-4.82372e-02,6.77684e-02,-2.91599e-02,
4.46647e-03,1.39385e-04,2.41289e-01,2.11101e-01,-1.98374e-01,2.28524e-01,-1.53581e-01,4.84360e-02,1.82158e-01,-1.22831e-01,-2.42294e-01,-2.53709e-01,9.12498e-02,2.49343e-01,-1.95623e-01,1.17357e-01,2.36774e-01,-1.90658e-01,-1.62544e-01,-1.31456e-01,
2.03967e+00,-3.10806e-01,8.51898e-01,1.25875e-01,4.26999e-03,6.48972e-01,6.19718e-01,-6.29630e-01,5.76206e-01,-9.17806e-02,-6.94359e-01,1.14084e+00,6.72506e-01,6.79554e-01,-4.23144e-01,2.13155e-01,-2.51302e-01,1.14736e+00,3.08725e+00,1.31645e+00,
1.34093e-01,2.45395e-01,-1.26196e-01,-2.69392e-01,-1.37885e-01,1.42443e-01,9.80050e-02,2.43539e-01,1.65825e-01,2.26344e-01,-2.35171e-01,-2.80489e-01,2.71140e-01,-1.31442e-01,1.90569e-01,3.44846e-02,-6.17999e-02,2.26688e-01,2.47962e-01,2.73652e-01,
-2.28011e+00,1.78886e-01,-1.49884e+00,-3.35233e-01,7.17934e-03,-5.25678e-01,-8.53446e-01,7.10398e-01,-7.10294e-01,-2.09565e-01,9.66785e-01,-1.90454e+00,-1.05197e+00,-6.11406e-01,6.85816e-02,7.73807e-02,9.52901e-02,-1.10521e+00,-3.04979e+00,-1.36782e+00,
5.40802e-02,9.40394e-02,-2.97291e-01,5.98348e-02,-7.62486e-03,-7.20463e-02,2.87042e-01,-8.57213e-02,2.65136e-01,-1.90350e-01,-9.47568e-02,-1.68057e-01,1.19206e-01,-1.30036e-02,-2.37826e-02,2.17070e-01,-1.67681e-01,-6.02808e-02,1.14021e-01,-3.32007e-01,
1.69816e-01,1.18622e-01,-2.42163e-01,-2.47093e-01,-2.00451e-01,-8.54648e-02,1.08359e-01,3.81126e-02,9.21474e-02,2.15189e-01,2.50348e-01,2.39493e-01,2.74039e-01,1.84214e-01,3.10595e-02,-9.64175e-02,1.64446e-01,-1.75983e-01,1.48648e-01,-2.66976e-01,
6.01988e-01,-3.86548e-01,1.33073e-01,1.28367e-01,-7.62334e-04,2.50972e-01,1.37411e-01,-6.59371e-02,4.36671e-01,-2.13008e-01,-2.36455e-01,4.90735e-01,-1.91877e-02,-1.14434e-01,2.00216e-01,2.07436e-01,-2.79079e-01,3.74663e-01,5.76083e-01,8.11803e-02,
-6.56277e-04,-2.32313e-01,-2.40389e-01,2.52899e-01,-7.30117e-02,-1.03929e-01,-4.06882e-03,-4.00142e-02,2.66120e-01,-2.04468e-01,2.66893e-01,2.72548e-01,-1.14508e-01,1.18910e-01,-2.64451e-01,-1.60075e-01,-4.90114e-02,2.92628e-01,-1.47111e-01,1.30602e-02,
2.26343e-01,8.78206e-02,2.84163e-01,-2.16488e-01,-1.96863e-01,1.46709e-01,-1.40053e-01,-9.37833e-02,-2.08108e-02,7.63103e-02,7.81720e-02,-1.17830e-01,2.16952e-01,1.39668e-01,6.76232e-02,5.51134e-02,1.82863e-01,2.03609e-01,-9.18076e-02,8.86933e-02,
-1.87467e-01,
0.00000e+00,
-1.62015e-02,
0.00000e+00,
-2.49185e-01,
0.00000e+00,
0.00000e+00,
0.00000e+00,
-1.49805e-01,
0.00000e+00,
0.00000e+00,
-1.31847e-02,
0.00000e+00,
0.00000e+00,
-1.06929e-01,
-2.63669e-01,
0.00000e+00,
0.00000e+00,
0.00000e+00,
0.00000e+00,
-3.03370e-01,
0.00000e+00,
0.00000e+00,
0.00000e+00,
2.21044e-02,
0.00000e+00,
0.00000e+00,
-2.91843e-02,
0.00000e+00,
0.00000e+00,
-2.03612e-02,
-1.35687e-01,
-2.50234e-01,
-3.09055e-02,
0.00000e+00,
0.00000e+00,
-6.00302e-02,
0.00000e+00,
0.00000e+00,
-6.79686e-02,
-1.61261e-01,
0.00000e+00,
-4.43685e-02,
0.00000e+00,
-6.65518e-02,
-4.36599e-02,
0.00000e+00,
6.50767e-03,
0.00000e+00,
0.00000e+00,
-3.30048e-03,-2.12846e-01,3.08381e-03,-7.41972e-02,-6.95253e-03,2.27178e-01,-1.57151e-03,1.95226e-01,-4.86562e-03,-1.66669e-02,1.10318e-01,7.07338e-05,-1.22721e-01,1.93049e-01,-1.24045e-02,-1.83422e-03,-1.26111e-01,3.31175e-02,3.30415e-02,3.13157e-01,-6.62323e-03,-2.81650e-01,-5.72092e-02,-2.13669e-02,-3.66153e-03,-7.58297e-02,1.43060e-02,2.02538e-02,-8.58350e-02,-1.10358e-01,1.51338e-02,-1.76907e-02,-2.12796e-03,-2.06957e-03,-2.86332e-01,2.68369e-01,1.86156e-01,-2.20519e-01,2.65059e-01,1.86937e-02,-1.02177e-02,2.76376e-01,1.28223e-02,-4.61168e-02,-2.02050e-02,-2.93241e-03,-2.49567e-01,-8.62066e-03,2.38227e-01,-6.90528e-02,
6.02281e-01,
