// Neural Network File Format by Kyle Julian, Stanford 2016
2,20,1,100,
20,100,1,
0,
0,0,0,0,0,0,0,1,0,1,0,0,0,0,1,0,1,0,0,0,
2,80,2,9,20000,2,2,4,2,4,2,1,2,2,4,3,2,1,1,1,
0,0,0,0,0,0,0,1,0,1,0,0,0,0,1,0,1,0,0,0,0,
2,80,2,9,20000,2,2,3,2,3,2,1,2,2,3,3,1,1,1,1,1,
-2.64432e+00,2.53568e-01,-1.32600e+00,-3.72788e-01,6.20548e-03,-8.77466e-01,-1.25099e+00,8.41976e-01,-5.97587e-01,1.30167e-02,7.60353e-01,-1.77600e+00,-1.14441e+00,-9.42293e-01,-1.30109e-01,-1.26240e-01,8.97772e-02,-1.29790e+00,-3.63076e+00,-1.32867e+00,
-2.04522e-01,2.05848e-01,-2.04096e-01,-1.46369e-01,-1.20093e-01,5.28997e-02,-7.99819e-02,1.68453e-01,-5.68050e-03,-1.42836e-01,-1.64276e-01,7.64303e-02,8.11497e-02,-5.15047e-02,-1.90623e-01,1.00371e-01,-1.58695e-01,-1.19312e-01,1.86701e-01,-5.98695e-02,
8.25287e-02,2.00946e-01,-1.43959e-01,1.04781e-01,-7.98259e-02,1.94484e-01,1.78333e-01,-1.41937e-02,7.36676e-02,-1.10358e-01,4.91622e-02,-1.99867e-01,-6.07906e-02,-1.11107e-01,-1.97483e-01,6.38350e-02,1.23658e-01,1.61470e-01,-1.42614e-01,3.23743e-02,
6.78576e-02,-4.13585e-02,-1.38176e-01,2.52188e-02,-3.01719e-02,1.38918e-01,-5.67544e-02,-2.22466e-01,-1.19995e-02,2.50218e-02,1.88232e-01,-8.12317e-02,-1.19973e-01,-1.40707e-01,1.93219e-01,9.22371e-02,-1.22998e-02,-4.67254e-02,-1.23742e-01,-4.01515e-03,
2.13568e-01,-3.06951e-01,5.35437e-02,-1.66860e-01,-1.86277e-04,1.08678e-01,1.52144e-01,-4.54994e-01,1.60384e-02,-2.74346e-01,-2.12760e-01,6.43184e-02,-2.22431e-01,1.02385e-01,-6.38093e-02,-1.93642e-01,-3.12570e-01,4.93481e-02,7.03296e-01,-2.92594e-02,
-3.16765e-01,-3.88362e-02,-3.10598e-01,-3.48658e-01,-4.17491e-02,-2.10964e-02,-2.07698e-01,-1.07990e-01,-3.90750e-01,-1.58223e-02,-3.48148e-01,-2.64167e-01,-1.55347e-01,-3.68749e-01,-2.62056e-01,-6.97233e-02,-7.17315e-02,-7.75888e-02,-2.47198e-01,-2.76598e-01,
-1.09774e+00,-1.95034e-01,-8.13740e-01,5.09157e-02,5.16437e-05,-1.73224e-01,-6.76223e-01,-4.63993e-02,-3.61705e-01,-1.92222e-01,2.76344e-02,-8.31869e-01,-6.42452e-01,-1.98639e-01,-8.40333e-02,-2.42225e-01,-3.20826e-01,-6.92916e-01,-1.04477e+00,-8.10174e-01,
-1.16143e-01,-7.58595e-02,1.15553e-02,1.47006e-01,-1.00184e-01,1.75717e-01,-1.91317e-02,1.79393e-01,-1.09797e-01,8.22391e-02,1.62898e-01,-2.23584e-01,3.86919e-02,-8.56806e-02,-1.38204e-01,2.12667e-01,2.00468e-01,1.33953e-02,-1.41173e-01,-2.03329e-01,
-1.10140e-01,-9.93078e-02,-1.55977e-01,1.68704e-01,-1.61089e-02,-2.06723e-01,8.54060e-02,-1.47823e-02,-1.21207e-01,-1.88885e-01,5.57816e-02,1.24713e-01,-1.70410e-01,4.81597e-02,5.65279e-02,5.92954e-02,1.16677e-01,-2.26652e-01,-1.88451e-01,-8.05474e-02,
-2.09160e-01,2.78458e-02,-2.16522e-01,3.88616e-02,-2.10405e-01,1.80966e-01,-9.61385e-02,-2.03304e-01,1.65269e-01,1.33285e-01,3.08738e-02,-1.15323e-01,-1.24670e-01,9.30775e-02,2.29488e-02,-7.44874e-02,2.82869e-04,4.47230e-02,1.87922e-02,2.06528e-01,
1.10024e-01,1.82362e-01,2.18303e-01,-5.56881e-02,-1.62777e-01,2.20639e-02,1.35300e-01,-6.93062e-02,6.71683e-03,-1.24759e-01,-1.57110e-01,-5.86521e-02,2.00212e-01,1.95331e-01,-7.18440e-02,-2.87989e-02,-1.49929e-01,9.11652e-03,1.25867e-01,4.27592e-02,
1.79025e-01,-1.01599e-01,9.76987e-02,1.86082e-01,-1.15117e-01,1.23253e-01,1.04813e-01,-7.10282e-03,-2.16784e-01,9.81208e-02,-6.49279e-02,1.52407e-01,1.72905e-01,-8.79184e-02,-2.16850e-01,-1.75555e-01,-1.84399e-01,-1.82345e-01,-7.33453e-02,1.56844e-01,
-2.07468e-01,2.58978e-02,1.87653e-01,3.51001e-02,-5.98161e-03,-2.14445e-01,-1.19417e-01,3.98582e-02,-2.95782e-02,1.59385e-02,1.23348e-01,-2.02308e-01,5.53830e-03,9.62211e-02,-1.67843e-01,-2.33728e-01,-1.12621e-01,1.12226e-01,1.26821e-01,-8.36394e-02,
-1.45737e+00,-3.84548e-01,-9.57350e-01,-4.67118e-02,-2.08035e-04,-4.69606e-01,-6.67395e-01,4.03515e-01,-6.33253e-01,-1.92154e-01,3.77918e-01,-8.16266e-01,-7.66473e-01,-5.41139e-01,-3.16989e-01,-7.27347e-02,-5.70488e-02,-9.43163e-01,-1.48123e+00,-1.00738e+00,
1.31820e-01,1.01457e-01,1.88184e-01,-6.73220e-02,-4.20579e-03,-1.88355e-01,-4.77543e-02,-2.41106e-01,-8.35531e-02,-5.79723e-03,-8.16257e-02,1.23996e-01,-1.02984e-01,1.15012e-01,-2.08673e-01,6.40974e-02,3.74447e-02,2.38581e-01,1.56788e-01,2.31879e-01,
-1.37277e-01,-1.74129e-01,-6.77630e-02,-2.45939e-02,-4.36517e-02,1.63663e-01,9.05297e-02,-2.77036e-02,-1.75451e-01,-1.86650e-01,-7.29708e-02,-1.92168e-01,7.42822e-02,8.75272e-03,-2.10797e-01,1.12751e-01,-1.65859e-01,1.08709e-01,-1.41662e-02,-9.87688e-02,
1.63785e-01,-3.19290e-02,1.26308e-01,5.99317e-02,-3.50320e-03,6.71837e-02,1.37215e-01,7.40980e-02,1.58528e-01,-2.17497e-01,-2.10480e-01,1.03953e-01,-1.23946e-01,-1.31819e-01,4.81549e-02,2.13005e-01,1.89369e-01,5.09570e-02,-1.32806e-01,3.83298e-02,
-8.04386e-02,2.00694e-01,8.38207e-02,9.42527e-02,-1.47186e-01,-1.05008e-01,1.10473e-01,2.73876e-02,5.28153e-02,1.81286e-01,-1.61801e-01,-1.85698e-01,2.00942e-01,-1.10696e-02,-4.36482e-02,-2.08882e-01,-9.46584e-02,-6.99015e-02,-4.59229e-02,-1.43226e-01,
-1.14334e-01,-4.18981e-02,-1.91216e-02,-1.11769e-01,-4.91938e-04,-1.58953e-02,5.17263e-03,-6.23257e-03,-3.75014e-01,-1.36518e-01,-2.34359e-01,-7.96678e-02,-3.10342e-01,-1.41310e-01,-1.20775e-01,3.83182e-02,-3.11573e-01,-7.76551e-02,-4.93149e-01,-3.12532e-01,
-3.84406e-01,4.11910e-02,-1.30858e-01,6.85995e-02,-1.39790e-03,-1.77169e-01,-2.16175e-01,-7.00608e-02,-4.01645e-01,-3.01637e-01,9.62614e-02,-4.65063e-01,-2.31467e-01,-2.17896e-02,1.90346e-02,2.47640e-02,-8.35634e-02,-5.12772e-01,-7.22522e-01,-2.43847e-01,
1.48307e+00,-3.09642e-01,7.09326e-01,4.33804e-02,3.30553e-04,3.96490e-01,7.68819e-01,-6.21298e-01,5.95686e-01,9.22433e-02,-7.54711e-01,9.87263e-01,3.55892e-01,4.71129e-01,2.37701e-01,-1.51842e-01,-8.54673e-03,8.44993e-01,2.46634e+00,9.35330e-01,
1.24312e-01,-1.56801e-01,-2.83578e-02,1.31494e-01,-3.39663e-02,1.52451e-01,8.17536e-02,1.84063e-01,-1.13810e-01,-4.49269e-02,-1.53633e-01,5.05033e-02,1.88529e-01,1.75415e-01,5.69459e-02,-5.45062e-02,-1.20176e-01,-1.65808e-01,1.77472e-01,1.10796e-01,
-1.28528e-01,5.97404e-02,1.09657e-01,-1.12958e-01,-6.70115e-02,5.57036e-02,-1.14364e-01,-7.57249e-03,2.39453e-02,5.68599e-02,1.37282e-01,1.93699e-01,-1.63422e-01,2.05941e-01,7.08893e-02,1.28243e-01,-7.38004e-02,1.51473e-01,-1.18078e-01,4.37467e-02,
-2.11267e-01,-1.19592e-01,1.90969e-01,2.74518e-02,-1.38686e-01,1.63641e-01,-2.15582e-01,-6.70835e-03,1.44541e-01,-5.14912e-02,-2.01291e-01,1.74228e-01,6.71425e-02,1.19153e-01,1.69154e-01,-1.15527e-01,2.39256e-02,-1.29580e-02,-8.39459e-02,-1.69945e-01,
-1.72776e-01,-1.88897e-01,-3.97875e-01,-2.30720e-01,-5.57847e-04,-1.14704e-01,-3.41046e-02,1.22618e-01,-4.10345e-01,-1.57120e-01,1.58116e-01,-3.26155e-02,-3.81535e-01,-2.97043e-01,-3.65762e-01,-1.48740e-01,-2.37703e-01,-1.88836e-01,-5.89546e-01,-1.52197e-01,
-1.64505e-01,-7.32247e-02,-1.05986e-01,1.30465e-01,-1.38138e-01,-1.18966e-01,8.31818e-02,-8.72253e-02,2.21636e-01,-1.13907e-01,-1.76957e-01,1.65503e-01,8.62412e-03,2.04336e-01,-3.28889e-02,1.38236e-02,6.24723e-02,6.63321e-02,-5.34931e-02,1.90366e-01,
-1.06746e+00,1.63639e-01,-4.97294e-01,1.09622e-01,-2.70486e-03,-3.77081e-01,-5.19486e-01,2.21454e-01,-9.02937e-02,-2.69218e-02,1.88138e-01,-5.64930e-01,-2.11325e-01,-3.37313e-01,-1.07654e-01,-1.31533e-01,-2.34803e-01,-8.06758e-01,-1.30022e+00,-6.94386e-01,
-1.05302e-01,-3.15497e-02,-1.92504e-02,-1.69066e-02,-1.67584e-01,-2.09442e-01,1.90607e-01,-1.07121e-02,2.02220e-01,1.87207e-01,-1.24789e-01,-1.06065e-01,-3.21669e-02,-2.21830e-01,1.07232e-01,2.01192e-01,-6.61789e-02,4.71737e-02,1.19246e-01,8.60634e-02,
7.77027e-01,-3.14556e-01,4.54639e-01,-2.36137e-01,-1.97157e-03,-5.81608e-02,1.88005e-01,-3.19825e-01,2.43284e-01,3.50211e-02,-3.12617e-01,1.81566e-01,3.82407e-01,1.98006e-01,3.81495e-02,1.42102e-02,2.14169e-01,4.62538e-01,1.07161e+00,3.04953e-01,
1.41559e-01,9.53958e-02,2.11314e-01,1.77688e-02,-1.57165e-01,-1.81132e-02,-1.02941e-01,3.92009e-02,3.42314e-02,1.75820e-01,-3.58038e-02,2.90089e-02,2.04284e-01,1.38717e-01,-2.13362e-01,2.21363e-03,-6.20120e-02,4.35017e-02,3.67674e-02,-6.08654e-02,
3.43629e-02,-6.87901e-02,-1.64020e-02,1.75368e-01,-1.40923e-01,1.85347e-01,-1.73525e-01,1.26158e-02,2.21397e-01,1.86967e-01,2.00238e-01,8.06768e-02,-1.11083e-01,1.55167e-01,5.79963e-02,-1.09774e-01,6.32154e-02,-2.04647e-01,1.87582e-01,5.19165e-02,
1.35906e+00,-1.32862e-01,5.94962e-01,1.03149e-01,-2.14920e-03,4.81797e-01,3.75811e-01,-2.26931e-01,5.14792e-01,1.73757e-01,-5.57693e-01,8.42240e-01,3.07943e-01,2.23579e-01,2.72705e-01,1.65963e-01,3.01845e-01,8.91426e-01,2.39131e+00,6.56427e-01,
1.53986e-01,-9.69446e-02,1.37557e-01,1.42557e-01,-1.98603e-01,1.31041e-01,-1.39528e-02,1.93275e-01,-7.75715e-02,-9.23246e-03,1.64862e-01,2.13075e-01,-1.42222e-01,-2.98468e-02,1.35493e-01,-1.59671e-01,-1.91875e-01,1.72126e-01,-2.22840e-01,9.00097e-02,
-3.17781e+00,8.23363e-02,-1.82309e+00,-2.20952e-01,9.86374e-03,-7.65680e-01,-1.33785e+00,9.28908e-01,-7.42694e-01,-2.08420e-01,1.01487e+00,-1.96846e+00,-1.30294e+00,-1.03115e+00,-1.76166e-02,-4.90038e-02,-1.87796e-01,-1.61480e+00,-4.39366e+00,-1.64487e+00,
-1.94651e-01,1.12440e-01,-7.58597e-02,2.01705e-02,-3.62003e-02,5.24484e-03,1.85582e-01,1.60397e-01,-1.97789e-01,-9.42800e-02,2.01183e-01,-1.50419e-01,-9.78047e-02,-3.46515e-02,1.11983e-01,-1.79430e-01,1.93426e-01,-1.53088e-01,1.77765e-01,7.47419e-02,
6.56349e-03,-2.10448e-01,1.56430e-01,1.94906e-01,-3.44339e-03,-9.28089e-02,9.45581e-02,-1.46372e-01,1.94586e-01,3.19476e-02,-4.90894e-02,-1.44132e-02,4.75165e-02,2.56252e-01,1.24447e-01,1.17696e-01,1.28193e-01,3.07260e-01,4.58219e-01,2.20047e-01,
7.24482e-01,-3.35443e-01,2.59568e-01,3.11515e-02,-3.08884e-04,9.73750e-02,2.84308e-01,-4.84814e-01,-6.33339e-02,-2.21409e-01,-6.27949e-01,4.32553e-01,8.63007e-03,-4.96969e-02,1.17888e-01,-1.37563e-01,-1.79381e-01,3.24552e-01,1.12520e+00,3.51262e-01,
-1.98666e+00,-1.25333e-01,-9.82555e-01,-2.84556e-01,4.95945e-03,-5.94693e-01,-9.73378e-01,3.57788e-01,-6.46252e-01,-3.27133e-01,4.35149e-01,-1.61425e+00,-8.88369e-01,-9.10289e-01,-3.63507e-01,-3.11235e-01,-3.97203e-01,-1.17155e+00,-2.55634e+00,-1.41185e+00,
1.63780e-02,5.56808e-03,7.25168e-03,-4.27480e-03,-3.51661e-03,-8.12900e-02,8.25397e-02,-2.44814e-01,1.10438e-01,-1.66694e-01,-2.75312e-01,5.26033e-02,-1.98606e-02,-2.33075e-01,-2.51927e-01,-2.63499e-01,-2.69785e-01,3.05373e-02,-7.58704e-02,-5.65617e-02,
-1.72822e-01,-1.38190e-01,2.02843e-01,-6.47403e-02,-1.97228e-01,2.94509e-02,-1.60159e-01,6.39530e-02,1.89189e-01,3.19616e-03,1.53592e-01,5.59665e-02,-9.23481e-02,-2.75887e-02,1.40260e-01,-2.15119e-01,1.23030e-01,2.02876e-01,1.73840e-01,-8.12802e-02,
2.69287e-01,-9.38119e-02,-1.09955e-01,-6.20991e-03,-3.59730e-04,6.99077e-02,1.08709e-01,-3.16685e-02,3.88231e-02,-4.25451e-02,-2.65187e-02,-1.23630e-01,-3.92181e-03,1.31225e-01,-1.16981e-01,-1.34474e-02,-2.08978e-01,-1.85472e-01,2.99690e-01,-4.43250e-02,
-7.08041e-01,-8.94359e-02,-3.60845e-01,-1.57935e-01,-3.75287e-04,-4.88180e-01,-2.66245e-01,-5.55488e-02,-1.43160e-01,-3.04881e-01,1.02579e-01,-2.47929e-01,-2.79698e-01,-2.20233e-02,-2.14231e-01,-7.75740e-02,-3.95968e-01,-3.37001e-01,-8.91137e-01,-4.56601e-01,
-1.69056e+00,-1.67159e-01,-8.10212e-01,-2.58355e-01,3.79698e-03,-8.49266e-01,-7.11984e-01,4.72819e-02,-4.10701e-01,-5.32534e-02,4.77298e-02,-9.58070e-01,-7.30199e-01,-5.55052e-01,6.15364e-03,-3.17683e-01,-4.16743e-01,-7.15809e-01,-1.61746e+00,-9.70260e-01,
1.10537e-01,1.19807e-01,-1.74468e-01,-1.97833e-01,-5.63657e-02,-1.95653e-01,1.14901e-01,4.20955e-02,-1.90118e-01,6.09434e-02,-1.62834e-01,-1.04518e-01,1.06654e-01,-5.44747e-02,2.43656e-02,2.10393e-01,1.47260e-01,-2.20672e-01,-1.38196e-01,1.53153e-01,
-7.94505e-02,1.56067e-01,1.09426e-01,-1.14094e-01,-4.10904e-02,7.40126e-04,-1.53208e-01,7.82813e-02,1.92489e-01,2.08181e-01,-4.19568e-02,-8.07267e-02,3.18374e-02,-1.79203e-01,1.26320e-01,-1.65531e-01,1.66095e-01,1.38890e-01,-1.47171e-01,1.90262e-01,
-1.82108e-01,1.03278e-01,-2.84285e-02,-1.16788e-01,-1.77923e-01,-7.68268e-03,1.80234e-01,-7.46370e-02,1.71912e-01,-1.13389e-02,1.16177e-01,-1.99838e-02,-3.16001e-03,-9.59649e-02,9.65654e-02,-6.10258e-02,9.67745e-02,4.45530e-02,1.09196e-01,1.47117e-01,
-1.69962e-01,-8.88974e-02,-1.92218e-01,1.97969e-01,-1.81541e-01,1.64225e-01,-5.39209e-02,2.08006e-01,-1.96611e-01,9.77926e-02,1.42219e-01,4.27589e-02,1.51587e-02,1.02230e-01,-1.02127e-01,-1.91923e-01,-1.61411e-01,-4.96469e-02,7.93311e-02,-1.33728e-01,
1.82136e+00,-7.16764e-02,1.12601e+00,1.38661e-01,-4.06406e-03,5.19803e-01,4.62095e-01,-6.41565e-01,3.89612e-01,-1.54473e-01,-7.15214e-01,9.78233e-01,4.18624e-01,4.92473e-01,1.94842e-01,8.25038e-03,1.49843e-01,8.90677e-01,3.05571e+00,7.66896e-01,
5.26884e-01,-4.69822e-01,2.74013e-01,3.70217e-02,-1.90692e-03,-1.65727e-01,2.12893e-01,-2.24081e-01,2.27603e-01,-7.64896e-03,-3.50935e-01,4.14713e-02,-4.54716e-02,-2.73869e-01,6.79104e-02,-1.23961e-01,5.73340e-02,4.56001e-01,1.09600e+00,3.69102e-01,
1.52541e+00,5.06696e-03,7.68472e-01,2.35134e-02,-1.88088e-02,3.82177e-01,1.79854e-01,-3.15682e-01,2.82222e-01,-3.99900e-02,-6.70444e-01,7.89694e-01,5.10049e-01,2.40542e-01,9.65000e-02,1.44667e-01,1.62002e-01,8.49864e-01,2.59673e+00,8.97867e-01,
-5.74823e-02,5.74966e-02,-1.91008e-01,-1.13292e-01,-9.20671e-02,-2.18040e-01,5.28884e-02,-4.94346e-02,-4.93981e-02,-1.46549e-01,-2.17848e-01,-1.79189e-01,1.16142e-01,-2.14923e-01,-6.25746e-02,-7.56174e-04,1.92904e-01,-2.23071e-01,-1.87526e-01,3.69442e-02,
1.79422e+00,-9.22704e-02,8.62406e-01,1.56775e-01,-6.11640e-03,3.30722e-01,7.28885e-01,-5.79276e-01,3.61943e-01,8.10315e-02,-7.35756e-01,1.14414e+00,5.06673e-01,4.38829e-01,1.26832e-01,1.23184e-01,1.36146e-01,8.30368e-01,3.11628e+00,1.12099e+00,
-1.57741e-01,7.55870e-02,1.47384e-01,-1.14880e-01,-5.71000e-03,9.30171e-02,3.63915e-02,1.44167e-01,-1.25991e-01,1.41139e-01,1.02537e-01,-3.78868e-02,-1.40932e-01,-5.28257e-02,-1.14360e-01,1.34898e-01,-1.70219e-01,-6.92114e-02,7.66294e-02,8.63082e-02,
-1.60268e-02,-3.14713e-02,6.67509e-02,-5.85185e-03,-9.75564e-02,-7.66506e-02,1.44778e-01,1.35669e-01,8.11738e-02,-1.56446e-01,2.21436e-02,-9.07606e-02,-2.21393e-01,1.21323e-01,8.49550e-02,1.74807e-02,1.83185e-01,-5.48028e-02,1.37839e-01,-1.29372e-01,
-6.07381e-01,1.54330e-01,-2.21146e-01,-2.16295e-01,-1.53089e-03,-3.01431e-01,-1.57062e-01,-2.29518e-01,-1.32298e-01,-3.57125e-02,2.76424e-01,-2.31936e-01,-1.28936e-01,-1.97172e-01,-3.42836e-01,4.97319e-02,-3.73864e-01,-1.55123e-01,-7.95562e-01,-3.53722e-01,
-1.09775e-01,1.65819e-01,1.25252e-01,1.55602e-01,-1.28416e-01,-1.69947e-01,-1.60589e-01,-1.10537e-01,-2.09610e-01,4.04714e-02,1.54791e-01,1.74563e-01,-2.47365e-02,1.54760e-01,4.98803e-02,1.15092e-01,-5.26866e-03,1.74722e-01,9.65118e-02,2.11886e-01,
1.56804e-02,-1.49162e-01,1.35935e-01,-9.41718e-02,-1.63764e-01,-1.90090e-01,-1.89249e-01,-1.67448e-01,9.94476e-02,-4.07147e-02,6.92908e-02,-8.21449e-02,1.85018e-01,1.90282e-01,-2.20429e-01,-6.22752e-02,-1.14331e-01,1.30445e-01,-1.80808e-01,1.22670e-01,
-2.75726e-01,1.26468e-01,-3.55137e-01,-2.50211e-01,-2.36021e-03,-3.86623e-01,-2.25260e-01,-1.44001e-01,-1.29481e-01,-3.76941e-01,-5.35769e-02,-3.58531e-01,-1.84278e-01,-1.34987e-01,-1.10371e-01,-2.44407e-02,-2.12758e-02,-5.21791e-01,-4.56589e-01,-3.32473e-01,
1.03906e+00,-1.99107e-02,6.05276e-01,8.45715e-02,-1.34397e-02,2.10853e-01,5.70634e-03,-5.97216e-02,1.79094e-01,1.12275e-02,-5.46977e-01,7.77801e-01,4.67228e-01,-2.34887e-02,-1.18350e-01,1.76903e-01,1.85620e-01,8.47289e-01,1.83797e+00,3.88178e-01,
6.93169e-02,1.93746e-03,2.54787e-02,-2.03441e-01,-1.14357e-01,-2.15964e-01,-3.31818e-02,1.29876e-01,1.53103e-01,1.92822e-01,4.86102e-02,1.07348e-01,4.51320e-02,2.16400e-01,5.62231e-02,-5.95704e-02,-1.77089e-01,-3.08222e-02,2.02062e-01,1.32009e-01,
3.70918e-02,-2.00843e-01,1.25623e-01,-1.76931e-01,-1.64296e-01,1.52178e-01,1.71846e-01,1.48852e-01,1.62519e-01,-1.28173e-01,1.20973e-02,-1.13069e-01,-1.11982e-01,-6.26642e-02,-1.55033e-01,-5.53706e-02,9.89363e-02,7.99685e-02,-2.15842e-01,1.64533e-01,
-9.19436e-01,-2.99431e-01,-4.70767e-01,-5.10035e-01,1.88435e-04,-2.45389e-01,-5.34206e-01,6.15475e-03,-4.59001e-01,-3.70411e-01,1.99926e-01,-7.52794e-01,-6.20338e-01,-3.20944e-01,-3.58131e-01,-4.71860e-01,-4.81791e-01,-5.82419e-01,-1.03353e+00,-5.37786e-01,
1.08024e-02,2.01054e-01,-2.05251e-01,-7.41317e-02,-1.31133e-01,2.12813e-01,-3.54318e-02,-2.26411e-03,1.92722e-01,-1.35635e-01,1.19072e-01,8.90891e-02,9.42081e-04,-1.31207e-01,-7.44525e-02,-1.84892e-01,1.16544e-02,-1.05143e-01,-1.32066e-01,1.89620e-02,
9.11521e-01,1.41766e-03,5.10656e-01,-1.13549e-01,-1.88894e-02,1.65253e-01,1.19385e-01,-3.63382e-01,-6.12036e-02,1.86981e-01,-2.84764e-01,2.90043e-01,1.98749e-01,7.29830e-02,1.52933e-01,-1.72156e-01,1.87568e-01,4.42224e-01,1.68863e+00,2.94221e-01,
-4.26147e-02,-1.67551e-01,1.96189e-01,-2.14591e-01,-4.78086e-02,1.63067e-01,5.65389e-02,7.55058e-03,8.87966e-02,-2.56690e-02,-1.07339e-01,-1.77554e-01,2.05673e-02,-1.69022e-01,-5.36972e-02,-5.42764e-02,6.72206e-04,1.50565e-02,-5.23486e-02,-2.90722e-02,
-8.75428e-01,-8.47887e-02,-5.18349e-01,-2.22641e-01,-8.02704e-06,-1.68126e-01,-3.53881e-01,-7.08269e-02,-3.16722e-01,-1.44812e-01,2.79988e-01,-5.66836e-01,-2.24060e-01,-1.88524e-01,-4.16979e-01,-1.91863e-01,-1.50302e-01,-5.18320e-01,-1.02674e+00,-4.17618e-01,
-1.07779e+00,-1.91953e-01,-8.28817e-01,-3.03513e-01,-4.60184e-04,-2.75914e-01,-7.57266e-01,-1.73327e-01,-4.59731e-01,-2.05728e-01,6.99451e-02,-9.21830e-01,-4.74367e-01,-2.44039e-01,-4.76660e-01,-4.40022e-01,-3.21235e-01,-5.70675e-01,-1.29266e+00,-5.85403e-01,
1.81445e-01,-1.61624e-01,8.96165e-02,-1.31503e-01,-9.00673e-02,1.67891e-01,1.39796e-01,1.49893e-01,1.38020e-01,1.46224e-01,1.25048e-01,1.72331e-01,2.91846e-02,-2.87273e-02,7.60775e-02,-1.21790e-01,3.28783e-02,-1.71949e-01,-1.91725e-01,-1.90202e-01,
5.01528e-01,-7.72182e-02,2.65630e-01,6.59861e-02,-5.45152e-03,3.15621e-01,1.53122e-01,-1.72217e-02,4.04798e-01,-1.03418e-01,-3.47309e-01,3.48885e-01,7.50823e-02,-3.24610e-02,6.44379e-03,1.33240e-01,4.11396e-02,3.12969e-01,8.54706e-01,3.50968e-01,
1.79410e+00,-8.39230e-02,6.96839e-01,4.24490e-02,-5.69346e-04,4.82566e-01,7.33797e-01,-5.17556e-01,5.76741e-01,-6.58799e-03,-6.16764e-01,1.19341e+00,7.43156e-01,4.97009e-01,9.78498e-02,-8.26171e-02,-1.31968e-01,1.04944e+00,2.58731e+00,9.19305e-01,
1.54096e-01,1.89057e-01,-7.37800e-02,-4.87531e-02,-1.85863e-01,-9.33098e-02,-1.80234e-01,-1.61012e-01,-4.41904e-02,1.98832e-01,-1.84086e-01,-5.33757e-02,2.02923e-01,-9.15540e-02,-1.00247e-01,1.62368e-01,1.50736e-01,-1.53284e-01,1.53214e-01,-1.73536e-01,
-1.32546e+00,-7.72595e-02,-8.98015e-01,-2.21448e-01,2.29924e-03,-8.35304e-01,-8.98669e-01,3.07782e-01,-4.70772e-01,2.50304e-02,3.20333e-01,-1.04606e+00,-5.45121e-01,-5.73890e-01,-2.73923e-01,-7.88835e-02,-2.77023e-01,-9.02494e-01,-1.55107e+00,-8.90193e-01,
1.34433e-01,-1.41276e-03,-1.63610e-01,-1.80689e-01,-1.14268e-01,-1.83401e-01,-2.74746e-02,5.84635e-02,1.70040e-01,2.02027e-01,5.37919e-03,-1.63196e-01,-4.02458e-02,-1.70426e-01,1.11796e-01,-1.18542e-02,-5.22581e-03,1.39143e-01,-2.23354e-01,5.37030e-02,
-2.65439e-02,-9.92540e-02,-1.42416e-02,-1.53224e-01,-1.89032e-01,1.10648e-01,-2.01053e-01,-1.69979e-02,-1.10523e-01,-2.19847e-01,1.33121e-01,-2.04332e-01,2.51495e-02,7.39022e-02,-1.45518e-01,1.26446e-01,1.32346e-01,-2.03197e-01,-9.11837e-02,1.19654e-01,
-2.32225e-02,5.67992e-03,-4.15832e-04,-2.07660e-02,-5.72055e-02,1.83403e-01,2.16705e-01,2.15919e-02,4.11169e-03,2.01188e-01,-2.10032e-01,-9.00210e-03,-1.16272e-01,6.53446e-02,9.71461e-02,7.18201e-02,1.79726e-02,-6.52411e-02,-9.11598e-02,1.05425e-01,
1.15825e-02,4.91697e-03,1.92810e-01,1.64226e-01,-1.18112e-01,-1.04914e-01,-6.30803e-03,5.51852e-02,1.69603e-01,2.04728e-01,-2.90194e-02,-1.98048e-01,1.85894e-01,-2.18511e-01,1.47288e-01,-1.28795e-01,6.58548e-02,7.33581e-02,-1.11193e-01,2.18898e-02,
3.26074e+00,-3.10450e-01,1.52569e+00,1.99914e-01,4.81005e-03,5.75714e-01,1.09027e+00,-8.82851e-01,1.04689e+00,-1.48255e-01,-1.36932e+00,1.99549e+00,1.16976e+00,7.28186e-01,8.47965e-02,-7.31184e-02,-1.01305e-01,1.75353e+00,5.20034e+00,1.80498e+00,
-1.47722e-01,-2.76864e-01,-1.78499e-02,-2.88619e-01,-8.16720e-03,-1.47452e-01,-2.11046e-01,6.27473e-02,-2.17739e-01,-8.70952e-03,-2.35641e-01,1.61106e-01,-8.87724e-02,-5.25853e-02,1.24109e-01,-2.62754e-01,-2.47555e-01,-4.62028e-02,7.99550e-02,-1.49676e-01,
-7.23975e-02,-1.75497e-01,-2.12303e-01,-1.84089e-01,-3.43307e-02,4.50038e-02,3.78344e-02,-3.25257e-02,-1.80529e-01,-2.03068e-01,-6.32174e-02,6.39897e-02,-1.83657e-01,1.28867e-01,-1.38158e-03,-1.39367e-01,7.87586e-02,-7.35076e-02,-2.21353e-01,5.71785e-02,
-1.43026e+00,-2.68942e-01,-8.20021e-01,-3.57818e-01,5.08595e-04,-7.37477e-01,-9.20424e-01,4.47701e-01,-4.61788e-01,-3.01373e-01,6.89639e-02,-8.43537e-01,-5.68623e-01,-7.00775e-01,-2.49736e-01,-3.60760e-01,-3.38417e-01,-8.35171e-01,-1.52272e+00,-9.20280e-01,
-7.80658e-02,-8.69925e-02,1.83273e-01,1.02703e-02,-1.63317e-01,-3.00805e-02,-1.82216e-01,1.70882e-01,7.52793e-02,2.01870e-01,-4.52982e-03,1.67289e-01,-1.57916e-01,3.98758e-03,2.01343e-01,-1.97382e-01,-2.29857e-02,1.26356e-01,1.81898e-01,1.06982e-01,
1.58191e-01,2.03236e-01,7.72845e-02,-7.79805e-02,-2.51579e-02,1.97513e-02,-3.91719e-02,6.85952e-02,-1.65262e-01,-6.75931e-02,1.61717e-01,9.68885e-02,-6.11666e-02,1.29035e-01,4.42021e-02,1.49139e-01,6.88418e-02,-7.72015e-02,-9.84491e-02,1.66118e-01,
4.15171e-01,-1.45983e-01,4.11115e-01,-2.42573e-01,-2.08153e-04,-5.45395e-02,-6.45438e-02,-1.95120e-01,8.75902e-02,-1.83846e-01,-3.15177e-01,1.26802e-01,3.45444e-01,8.20171e-02,-2.51682e-01,-2.74679e-01,-2.77191e-01,5.97448e-01,8.31826e-01,2.23306e-01,
1.45211e-01,4.66963e-02,-2.78700e-02,-2.00255e-01,-1.35442e-02,-1.23806e-01,1.68476e-01,1.57357e-01,5.13959e-02,9.42185e-02,1.73216e-02,-1.20615e-01,-1.57381e-01,6.50286e-02,-3.92909e-02,-1.19078e-01,4.30187e-02,-2.00942e-01,-8.85539e-02,-1.14125e-01,
-1.36664e+00,-1.74100e-01,-1.00780e+00,-2.26130e-02,3.09048e-03,-8.78316e-01,-7.73743e-01,9.82029e-02,-3.95983e-01,-3.80177e-01,-2.58437e-02,-1.25280e+00,-7.63824e-01,-6.88453e-01,-1.84008e-01,-8.62000e-02,-3.55712e-01,-8.43271e-01,-1.40349e+00,-1.21778e+00,
1.63187e-01,-5.26744e-02,-3.62773e-02,-4.93056e-02,-2.39135e-02,-1.65853e-01,-2.71374e-01,-2.45550e-01,1.04381e-01,-2.17915e-01,3.14339e-02,-2.02487e-01,1.07866e-01,-1.02372e-01,-9.16241e-02,-1.69721e-01,-8.33076e-02,-1.00899e-01,1.41097e-02,1.78632e-01,
-1.05837e+00,-1.54492e-01,-8.16845e-01,-2.20714e-01,-4.46680e-04,-4.86702e-01,-8.08381e-01,9.54981e-02,-6.82144e-01,-4.81611e-01,-1.44722e-01,-1.05329e+00,-7.05608e-01,-5.90563e-01,-3.51411e-01,-2.68513e-01,-4.78916e-01,-7.32126e-01,-1.37953e+00,-1.11514e+00,
1.68947e+00,-2.10196e-01,1.10290e+00,1.84421e-01,-1.33518e-03,3.53813e-01,6.25491e-01,-2.37865e-01,6.02873e-01,3.54804e-01,-4.71625e-01,1.16315e+00,5.95228e-01,2.89125e-01,1.03409e-01,3.14009e-01,8.56990e-02,1.15385e+00,3.29159e+00,9.90881e-01,
-5.66966e-02,-3.01318e-01,-5.01411e-02,2.80198e-02,-4.46090e-04,-1.65341e-02,-2.26672e-01,-2.48278e-02,9.60133e-02,-8.48107e-02,-2.97673e-01,-5.68821e-02,-1.91946e-02,8.51221e-02,-1.63259e-01,-3.05224e-01,-2.30521e-01,-9.21682e-02,6.78319e-01,-9.23051e-02,
-8.19918e-01,-6.12192e-02,-5.04690e-01,-1.49549e-01,1.84442e-05,-3.78604e-01,-6.05671e-01,1.23259e-02,-1.47577e-01,-2.74283e-01,1.66125e-01,-5.33342e-01,-3.70380e-01,-3.36409e-01,-1.19786e-01,-2.96340e-02,-1.15582e-01,-5.10322e-01,-1.00868e+00,-4.63476e-01,
1.71590e-01,2.70991e-02,-1.28479e-01,1.41482e-02,-2.27856e-02,-9.60676e-02,7.56591e-02,-1.69903e-01,2.17861e-01,-3.50763e-02,-1.97656e-01,-1.50700e-02,-2.14482e-01,-4.17091e-02,-1.49849e-01,-2.76785e-02,2.17647e-01,-5.00716e-03,-2.71900e-02,1.62803e-01,
-2.14926e-01,-1.17139e-01,1.10042e-01,-2.01758e-01,-2.00760e-01,-1.55306e-01,7.69574e-02,1.59936e-03,-1.69318e-02,5.49649e-02,-1.92815e-02,1.53240e-01,-1.26884e-01,1.69018e-01,-6.03818e-02,-2.63548e-02,1.13720e-01,-5.52625e-02,-4.03356e-02,8.08580e-02,
1.93806e+00,-2.28796e-01,8.58595e-01,-3.68675e-02,3.06788e-03,4.73104e-01,6.48766e-01,-5.84193e-01,3.81112e-01,-9.88253e-02,-1.01037e+00,1.23418e+00,4.57919e-01,6.10251e-01,-3.85628e-02,-6.45160e-02,5.61031e-02,1.13765e+00,3.08450e+00,8.25321e-01,
9.85856e-03,-9.31129e-02,-4.48548e-02,-1.31874e-01,-1.05163e-01,1.09942e-01,-1.07340e-01,2.50529e-02,-8.07233e-02,8.27365e-03,-6.48077e-02,7.85281e-03,-1.46686e-01,-1.33552e-01,1.28057e-01,2.13588e-01,2.21525e-01,-4.42892e-02,-1.57839e-01,-6.74846e-02,
2.23140e-01,9.93912e-03,1.93714e-01,2.70636e-02,-1.28693e-01,5.41615e-02,-1.22515e-01,1.71907e-01,3.62556e-02,3.29987e-02,-2.18649e-01,-2.17967e-02,-4.82860e-02,1.39435e-01,-4.35523e-02,2.09914e-02,-1.84235e-01,1.32734e-02,1.74078e-01,-1.55031e-01,
-2.72249e-01,-1.77503e-01,-1.28893e-02,1.03534e-01,-5.39590e-02,4.91832e-02,-8.67582e-02,1.57858e-01,1.29899e-01,3.19850e-02,4.75685e-02,-1.40166e-01,6.36619e-02,-1.48077e-01,-1.72854e-01,-1.20851e-01,-2.19986e-01,-1.87079e-01,-1.36031e-01,8.49762e-02,
2.75923e+00,-2.72293e-01,1.33119e+00,2.40289e-01,3.86774e-03,4.00582e-01,9.00502e-01,-6.38555e-01,6.37287e-01,7.29858e-02,-1.44684e+00,2.14379e+00,7.87315e-01,5.11922e-01,-1.59479e-01,-1.46936e-01,-2.19131e-01,1.67270e+00,5.02636e+00,1.52851e+00,
4.60602e-02,2.12567e-01,-1.96442e-01,-1.10974e-01,-2.12359e-01,8.70686e-02,-1.38552e-01,1.95365e-01,1.38725e-01,-8.59900e-02,6.64534e-02,-1.60913e-01,-3.30853e-02,1.92269e-01,2.09969e-01,1.95851e-02,-1.59657e-01,2.16739e-01,-4.91020e-02,-7.58250e-02,
4.77299e-04,-1.29583e-01,8.16582e-02,9.78608e-02,-1.18914e-01,7.34080e-02,1.78897e-01,6.90951e-02,-5.16608e-02,-1.63428e-01,2.00967e-01,4.90338e-02,-9.69435e-02,4.34067e-02,1.14340e-01,2.04586e-01,4.29258e-02,9.25013e-02,-1.93120e-01,1.80100e-01,
-9.68708e-02,6.78822e-02,-1.19084e-01,1.50871e-02,-2.18288e-01,1.56956e-02,1.45155e-01,9.10705e-02,-1.29724e-01,-3.35625e-02,1.20536e-01,-1.97009e-01,3.51335e-02,1.67823e-01,-1.91039e-03,-2.14602e-01,1.78558e-01,-7.64479e-02,9.20584e-02,-8.22832e-02,
-1.36870e-01,
0.00000e+00,
0.00000e+00,
0.00000e+00,
-1.25157e-01,
-2.21331e-01,
-1.94506e-01,
0.00000e+00,
-2.67288e-02,
0.00000e+00,
0.00000e+00,
0.00000e+00,
-3.22330e-02,
-2.37013e-01,
-1.82371e-02,
0.00000e+00,
1.98249e-03,
0.00000e+00,
-1.23983e-01,
-1.20397e-01,
9.63440e-02,
0.00000e+00,
0.00000e+00,
0.00000e+00,
-1.38761e-01,
0.00000e+00,
-1.26814e-01,
0.00000e+00,
-1.50859e-02,
0.00000e+00,
0.00000e+00,
1.08297e-01,
0.00000e+00,
-2.10753e-01,
0.00000e+00,
6.61134e-02,
-7.51894e-02,
-3.21249e-01,
-1.06218e-01,
0.00000e+00,
-4.12470e-02,
-1.98595e-01,
-2.71397e-01,
0.00000e+00,
0.00000e+00,
0.00000e+00,
0.00000e+00,
4.25680e-02,
-1.47281e-01,
5.13504e-02,
0.00000e+00,
2.94205e-02,
-7.98102e-03,
0.00000e+00,
-1.45130e-01,
0.00000e+00,
0.00000e+00,
-1.90424e-01,
1.26520e-02,
0.00000e+00,
0.00000e+00,
-3.23338e-01,
0.00000e+00,
4.26367e-02,
0.00000e+00,
-2.14958e-01,
-2.98544e-01,
0.00000e+00,
2.62843e-02,
4.69344e-02,
0.00000e+00,
-2.84357e-01,
0.00000e+00,
0.00000e+00,
0.00000e+00,
0.00000e+00,
7.69331e-02,
-8.32798e-02,
0.00000e+00,
-2.61131e-01,
0.00000e+00,
0.00000e+00,
-8.13797e-02,
0.00000e+00,
-3.00791e-01,
-3.46844e-02,
-3.46648e-01,
1.91982e-01,
-1.53733e-01,
-1.83455e-01,
2.81960e-03,
0.00000e+00,
1.08801e-02,
0.00000e+00,
0.00000e+00,
-6.00522e-02,
5.33986e-02,
0.00000e+00,
0.00000e+00,
0.00000e+00,
-1.28418e-02,-7.25518e-02,-1.47048e-01,-2.44859e-02,-1.12355e-03,4.67157e-04,-9.65925e-03,-1.41776e-02,1.28659e-02,-9.39538e-03,1.52491e-01,1.27071e-01,-1.38539e-03,-1.46756e-02,7.26222e-05,-1.33709e-01,-1.67301e-02,-9.01818e-05,-2.21678e-03,-1.69594e-02,5.02980e-03,1.72906e-01,2.25721e-01,-3.73604e-02,-1.24838e-02,-1.79602e-01,-1.51841e-03,-4.74498e-02,-6.06729e-04,1.92153e-01,1.62530e-01,2.51344e-03,8.18773e-02,-1.36252e-02,2.34088e-01,1.04523e-02,-2.60266e-03,-4.28491e-03,2.74039e-04,-1.43628e-01,-1.12335e-04,-4.85976e-03,-4.43833e-03,-4.59327e-02,-1.25726e-01,8.28897e-02,-1.84202e-02,5.97950e-03,-1.77561e-03,1.42969e-02,-5.73811e-02,6.94730e-04,-1.41429e-02,-1.23733e-01,-6.02626e-03,-5.96659e-02,-1.75171e-01,-9.57063e-04,7.43196e-03,-1.78284e-01,-5.58149e-02,-3.63416e-03,-1.95228e-01,-7.68400e-03,-8.58223e-02,-2.57551e-03,-3.09961e-03,-5.88198e-02,-7.75294e-03,6.24455e-03,2.30592e-01,-1.84705e-03,8.47286e-02,1.51196e-01,5.96485e-02,-8.92003e-02,1.83632e-02,-1.15868e-03,-9.93140e-02,-7.00521e-03,4.85911e-02,-2.21807e-01,-1.35711e-03,-2.21770e-01,-4.06302e-03,-2.76928e-02,-1.36073e-03,4.51533e-03,-1.32701e-03,-3.97814e-03,5.57251e-02,1.51341e-01,5.44084e-03,5.33562e-02,2.59905e-02,1.83037e-01,1.43618e-02,-2.11643e-01,-1.93547e-01,-5.53394e-02,
6.76166e-01,
