// Neural Network File Format by Kyle Julian, Stanford 2016
2,20,1,20,
20,9,1,
0,
0,0,0,0,0,0,0,1,0,1,0,0,0,0,1,0,1,0,0,0,
2,80,2,9,20000,2,2,4,2,4,2,1,2,2,4,3,2,1,1,1,
0,0,0,0,0,0,0,1,0,1,0,0,0,0,1,0,1,0,0,0,0,
2,80,2,9,20000,2,2,3,2,3,2,1,2,2,3,3,1,1,1,1,1,
-4.20257e+00,2.34039e-01,-2.10884e+00,-3.84590e-01,1.38013e-02,-6.20587e-01,-1.91562e+00,1.52085e+00,-7.69430e-01,1.29379e-02,1.62015e+00,-2.41624e+00,-1.86596e+00,-1.31032e+00,4.40787e-01,-2.27697e-01,-3.45410e-01,-2.36325e+00,-5.52978e+00,-2.32478e+00,
9.48946e-02,-3.98605e-02,-3.73663e-01,2.73414e-01,-2.87844e-01,8.06638e-02,-3.68843e-01,-2.18690e-01,-9.01771e-02,4.33156e-01,1.08563e-01,-5.31555e-02,-4.47862e-01,-2.48108e-01,-2.25012e-01,2.72020e-01,-2.09854e-01,3.85381e-01,-1.62578e-01,5.80629e-02,
-4.48658e-01,1.42234e-01,3.68788e-01,1.73483e-01,-1.38332e-01,2.72726e-02,-2.41830e-01,1.33422e-02,-3.35891e-01,-1.75732e-01,-7.64124e-02,-4.68643e-02,-4.42683e-01,-3.46168e-01,4.23405e-02,-4.82250e-02,-8.67852e-02,-1.64599e-01,7.46882e-02,2.23318e-01,
9.27272e-02,-4.08479e-01,-4.62454e-02,-4.08652e-01,-4.56494e-02,-3.27214e-01,1.23063e-01,-4.49724e-01,1.90683e-01,-3.23811e-01,-3.65934e-01,-3.87351e-01,-2.44281e-01,-4.48167e-01,-9.94695e-02,-4.61973e-02,2.81966e-01,8.40362e-02,3.44625e-01,1.18499e-02,
-2.46074e-01,3.82151e-01,2.70612e-01,2.82990e-01,-2.56091e-01,-1.73313e-01,3.47934e-01,1.71021e-01,5.31836e-02,1.48997e-01,1.85106e-01,-4.18603e-01,-3.66544e-01,-2.07627e-01,3.34835e-02,-2.66755e-01,2.88164e-01,-1.48211e-01,-1.00496e-01,2.34318e-01,
4.07944e+00,-2.92792e-01,2.12746e+00,2.22962e-01,3.19924e-03,9.38030e-01,1.11942e+00,-1.01999e+00,1.18432e+00,-4.35113e-02,-1.45821e+00,2.66529e+00,1.17135e+00,1.02331e+00,3.05215e-01,4.02381e-02,-3.56528e-01,1.95246e+00,6.15060e+00,2.12954e+00,
2.48825e-02,-3.30575e-01,1.91980e-01,4.05897e-01,-1.66710e-01,1.29773e-01,7.91402e-02,-8.15915e-02,-2.96720e-01,1.42579e-01,2.41502e-01,3.93985e-01,3.28922e-01,-2.32114e-01,-2.21431e-01,-4.20148e-02,-2.84098e-01,-5.98481e-02,3.50322e-01,1.83166e-01,
-1.84211e-02,2.01380e-01,4.36715e-01,4.39929e-01,-1.32581e-01,-2.35585e-01,-3.04450e-01,4.17942e-01,-1.83357e-01,4.18999e-01,-2.13406e-01,-3.33289e-01,3.27656e-01,1.05659e-01,2.43405e-01,-7.36061e-03,9.48826e-02,1.75997e-01,-3.07407e-01,9.20736e-02,
-1.60458e-01,3.46585e-01,4.19624e-01,2.85973e-01,-2.62905e-01,-5.41598e-04,-3.93914e-01,-1.12724e-01,-8.61388e-02,4.38374e-01,-4.45788e-01,3.71518e-01,2.63419e-02,2.67820e-01,-9.66271e-02,1.19111e-01,-2.18438e-01,-1.84007e-01,-2.22357e-01,-5.58165e-03,
-1.51843e-01,
0.00000e+00,
0.00000e+00,
0.00000e+00,
0.00000e+00,
1.00433e-01,
0.00000e+00,
0.00000e+00,
0.00000e+00,
-2.61051e-02,-2.09052e-02,-1.08639e-01,4.74958e-01,2.62100e-01,5.41026e-02,-5.29789e-01,-1.68346e-01,-1.20706e-01,
5.44689e-01,
