// Neural Network File Format by Kyle Julian, Stanford 2016
3,20,1,20,
20,6,4,1,
0,
0,0,0,0,0,0,0,1,0,1,0,0,0,0,1,0,1,0,0,0,
2,80,2,9,20000,2,2,4,2,4,2,1,2,2,4,3,2,1,1,1,
0,0,0,0,0,0,0,1,0,1,0,0,0,0,1,0,1,0,0,0,0,
2,80,2,9,20000,2,2,3,2,3,2,1,2,2,3,3,1,1,1,1,1,
-5.20599e-01,-1.44672e-01,-2.48986e-01,-4.19919e-01,-2.55824e-02,1.18127e-01,-2.34979e-01,-1.38261e-01,6.91558e-02,2.49412e-01,-3.86433e-01,-4.45543e-01,-1.91835e-01,-4.05887e-01,-1.34970e-01,-2.02234e-01,2.24970e-01,-3.10488e-01,-3.22197e-02,-2.35810e-01,
-2.55901e-01,4.77454e-02,-3.50065e-01,-6.46469e-01,1.74103e-01,2.14161e-01,-1.01392e-01,-1.27427e-01,2.02006e-01,-7.24257e-02,-3.44614e-01,3.12508e-02,2.13683e-01,-4.56921e-01,6.14805e-02,-2.26996e-01,-1.30796e-01,-3.88394e-01,-1.08754e-01,-4.10744e-01,
-5.10039e-02,-9.30762e-02,-5.30746e-01,1.05991e-01,-9.01557e-02,-6.02583e-01,-4.07434e-01,1.29552e-01,-5.60300e-01,2.55472e-01,-4.82953e-01,-1.74230e-01,-5.82584e-01,-8.66349e-02,-5.28300e-01,-2.70771e-01,-7.08975e-02,-2.44120e-01,-4.61617e-01,-1.47732e-01,
2.74923e-01,-4.24923e-01,-4.39733e-01,3.92547e-02,-5.84941e-02,1.11192e-01,8.43016e-02,-9.91496e-03,-2.91379e-01,3.67594e-01,3.34305e-01,-1.95824e-01,-3.35810e-02,3.72213e-01,-8.64464e-02,-4.61496e-01,3.08963e-01,3.67522e-01,-3.47048e-01,-3.47145e-01,
6.34679e-02,2.84664e-01,1.96145e-01,5.25133e-01,4.51872e-01,5.50895e-01,6.70691e-01,4.88652e-01,6.10709e-01,-2.14942e-01,2.67079e-01,-2.02782e-01,2.06239e-01,1.77694e-01,2.31627e-01,2.36831e-01,5.22705e-01,7.11951e-02,1.09656e-01,5.40669e-02,
-1.59866e-01,-3.48744e-01,3.95483e-01,3.53848e-01,-3.83944e-01,-3.70815e-02,4.54163e-01,3.57597e-01,3.41329e-01,2.55339e-01,-1.79857e-01,4.26869e-01,-4.79081e-01,6.06716e-02,2.81701e-01,-1.01154e-01,3.97854e-01,2.88639e-01,1.91157e-01,-4.59539e-01,
-1.99206e-01,
-2.08220e-01,
-1.99936e-01,
0.00000e+00,
2.07820e-01,
0.00000e+00,
-8.96208e-01,3.70299e-01,2.95493e-01,-5.83724e-01,-7.43060e-02,-4.78226e-02,
1.74468e-01,3.24652e-01,-4.15556e-01,3.53863e-01,-7.50398e-01,-9.32503e-02,
5.87765e-01,-4.57068e-01,6.88734e-01,2.30694e-01,-3.18842e-01,-5.23234e-01,
4.58304e-01,3.90979e-01,2.16510e-01,3.73925e-01,-5.86610e-01,-6.97552e-01,
-2.87930e-01,
0.00000e+00,
0.00000e+00,
-2.05745e-01,
-3.04764e-03,8.50959e-01,-1.02786e+00,7.97934e-01,
1.21411e+00,
