// Neural Network File Format by Kyle Julian, Stanford 2016
6,20,1,64,
20,64,32,16,8,4,1,
0,
0,0,0,0,0,0,0,1,0,1,0,0,0,0,1,0,1,0,0,0,
2,80,2,9,20000,2,2,4,2,4,2,1,2,2,4,3,2,1,1,1,
0,0,0,0,0,0,0,1,0,1,0,0,0,0,1,0,1,0,0,0,0,
2,80,2,9,20000,2,2,3,2,3,2,1,2,2,3,3,1,1,1,1,1,
-2.54361e-01,6.55062e-02,1.86269e-01,1.74037e-01,-8.52068e-02,2.55504e-02,-2.55005e-01,4.01321e-03,7.18574e-02,6.49287e-02,-1.64926e-01,-8.86194e-02,2.01689e-01,-9.98435e-02,-1.92980e-01,-2.03764e-01,-8.50507e-02,-1.45227e-01,1.56025e-01,2.21375e-01,
-1.33699e-01,-3.24321e-01,-3.09578e-01,-1.26884e-01,1.63572e-01,-1.13750e-01,-1.67008e-02,8.36267e-02,-2.45076e-01,-2.67670e-02,-2.95396e-02,-1.15078e-01,-5.95844e-03,5.54503e-02,1.88230e-01,-1.21347e-01,-6.88769e-02,-3.07735e-01,-2.60381e-01,3.53528e-03,
2.44579e-01,-7.01082e-02,2.34272e-01,-8.80030e-02,-1.34282e-01,-1.66088e-01,-1.21549e-01,-1.77202e-01,2.63997e-01,-1.15595e-01,7.60007e-02,-1.62935e-02,-7.26876e-02,-2.55350e-01,-1.54697e-02,-8.85143e-02,-1.95604e-01,-2.15034e-01,2.08600e-01,4.55675e-02,
-4.96430e-02,-1.16826e-01,2.10593e-01,2.57591e-01,-1.86996e-01,1.48020e-01,2.07867e-01,1.52528e-01,4.16726e-04,2.78692e-02,-1.27968e-01,1.04641e-01,1.65097e-01,8.05645e-02,-1.39549e-02,4.74282e-02,-2.25966e-01,2.62387e-01,2.57038e-01,-1.04367e-01,
-2.48453e-01,1.80609e-01,2.26778e-02,1.44845e-01,-8.25243e-02,-2.37176e-01,-1.84289e-01,2.13238e-01,1.91445e-02,5.57398e-02,-1.01139e-01,-1.79950e-01,-8.62846e-03,-2.57479e-01,-1.53646e-01,-2.93117e-02,2.42381e-01,-7.60579e-02,-9.56994e-02,1.85761e-01,
-1.57259e-02,4.93356e-02,-1.54328e-02,2.29466e-01,-8.55413e-02,-2.63868e-01,-2.97012e-02,-1.47966e-01,2.06105e-01,-1.97788e-01,-6.30587e-02,-1.50342e-01,2.12339e-01,-5.88534e-02,-9.13287e-02,-3.23321e-02,1.84051e-01,-2.13603e-01,9.28932e-02,3.13267e-03,
-1.87121e-01,-2.13159e-01,2.21965e-01,1.97051e-01,-2.33436e-01,-1.67982e-01,1.57018e-01,-2.49765e-01,1.01980e-01,-2.78808e-02,8.51270e-02,2.19920e-01,-8.70626e-02,4.33156e-02,2.31569e-01,-5.81363e-02,6.79154e-02,2.57028e-01,-5.56404e-02,7.08373e-02,
5.40671e-03,5.70384e-02,-2.49991e-02,1.86022e-01,2.90956e-01,9.29073e-02,3.49653e-02,-2.02731e-01,1.58840e-01,1.35204e-01,2.79904e-01,-1.90842e-01,-5.99245e-02,-2.27979e-01,5.66588e-02,2.25523e-01,1.28955e-01,1.44858e-01,1.75088e-01,-7.88826e-02,
1.89776e-01,2.95091e-02,4.82856e-02,1.77000e-01,-2.35052e-01,-1.56682e-02,-1.57224e-01,-3.12946e-02,-1.13914e-01,1.15118e-02,2.73739e-02,9.84375e-02,2.30421e-01,2.03842e-01,-1.46643e-01,2.52889e-01,-1.04719e-01,2.39653e-01,-1.74967e-01,-9.41097e-02,
-2.44805e-03,1.18537e-01,6.77072e-02,1.73620e-02,-1.33377e-01,2.22198e-01,2.12944e-01,-2.52282e-01,-2.37880e-02,-2.11088e-01,3.11619e-02,-4.64762e-02,6.14237e-02,1.55849e-01,-1.87582e-01,-3.37085e-03,-7.01787e-02,-1.83310e-01,-1.33152e-02,-1.32072e-01,
-1.16847e-01,5.00668e-02,1.91441e-01,1.62076e-01,4.53769e-02,-2.70591e-01,-1.53312e-01,-1.27708e-01,-1.37181e-01,1.26375e-01,8.69325e-02,1.27762e-01,-8.19775e-02,-2.35938e-01,-5.48669e-02,2.11458e-01,1.43064e-01,-7.79152e-02,-2.70066e-01,2.08425e-01,
-2.47962e-02,1.98995e-01,2.46244e-02,-4.20056e-02,-1.33855e-01,-1.43027e-01,-9.34663e-02,-1.24596e-01,1.08911e-01,-1.46763e-01,-8.64189e-02,-2.65690e-01,-1.10173e-01,1.98929e-02,5.68072e-02,2.03733e-01,-2.83614e-02,1.47419e-01,-5.32610e-02,-2.10842e-01,
-9.18703e-02,5.66358e-02,-4.47783e-02,-2.39494e-01,7.94584e-02,3.70167e-02,-1.16046e-01,8.18306e-02,-1.40544e-01,4.91009e-02,-1.36724e-01,8.04815e-02,2.15811e-01,-1.66409e-01,-1.01934e-01,8.62260e-03,1.84364e-01,9.62772e-02,-1.29532e-01,8.89701e-02,
-1.62823e-01,-1.11249e-01,-1.37912e-01,5.66998e-02,2.14910e-01,-2.31773e-01,-1.58132e-01,1.23560e-01,1.55118e-01,-4.02281e-03,-1.19141e-01,-1.07576e-01,5.55315e-02,1.66765e-01,6.90615e-03,-1.53471e-01,-9.08519e-02,2.17269e-01,7.38816e-02,-1.43822e-01,
1.89496e-01,-1.56970e-01,-4.70490e-02,4.63021e-02,-1.16833e-01,-1.72726e-01,-2.35111e-01,-1.69580e-01,-1.72918e-01,1.47264e-01,-1.52192e-01,2.62162e-01,2.19459e-01,1.80692e-01,2.40533e-01,-2.27775e-01,-7.15707e-02,-1.41915e-01,2.61879e-01,-1.73693e-01,
1.88326e-01,1.60394e-01,2.80874e-02,-1.20550e-01,-1.78684e-02,1.00312e-01,-7.23236e-02,9.43357e-03,2.34479e-01,3.87262e-02,-2.13629e-01,1.54724e-01,2.49011e-01,-1.49180e-01,1.83259e-01,1.78302e-01,6.50833e-02,1.81527e-01,2.44996e-01,2.05021e-01,
-2.04535e-01,2.24257e-01,-1.39145e-01,-1.54701e-01,-2.22263e-01,-2.13673e-01,-1.00118e-03,1.90553e-01,1.56928e-01,-1.42432e-01,-1.63405e-01,-7.64788e-02,-7.36908e-02,-1.82309e-01,-1.75076e-02,1.06956e-01,2.13457e-01,-2.58382e-01,-2.26312e-01,-6.82310e-02,
-5.92339e-02,-1.12495e-01,-1.75235e-01,-2.48241e-01,4.00323e-02,-2.74983e-01,-2.95931e-01,1.27820e-02,1.77247e-01,1.80362e-01,-3.10888e-01,-1.71696e-01,-2.23229e-01,-2.21937e-01,1.13029e-01,-1.13692e-01,-7.56973e-02,-3.10488e-01,1.62745e-01,4.18589e-02,
3.42010e-02,-2.00391e-01,1.75701e-02,2.91206e-02,-1.43339e-01,2.96547e-02,-2.05192e-01,1.12484e-01,1.42800e-01,1.85949e-02,3.99978e-02,1.84948e-01,-1.51679e-01,2.04541e-01,1.03308e-01,-6.64285e-02,-1.05836e-01,4.91826e-02,-1.46124e-01,1.50220e-01,
-8.05712e-02,-1.44819e-01,9.37763e-03,2.53921e-01,-2.51286e-01,2.62320e-01,-4.98893e-02,2.20235e-01,2.47082e-01,1.28246e-01,1.65520e-01,2.31191e-01,-6.89358e-02,1.48273e-01,-1.41118e-01,1.63122e-01,-8.31956e-03,-2.63281e-01,-1.79784e-01,2.32746e-01,
7.92803e-02,5.64493e-02,-1.69428e-01,4.23346e-02,-1.84490e-01,4.53267e-02,1.42695e-01,1.68410e-01,1.03681e-01,6.09464e-02,2.20805e-01,-8.13925e-02,-1.57433e-01,1.87298e-01,1.28119e-02,-1.33919e-01,6.10315e-02,-9.25364e-02,-2.40569e-01,-1.59205e-01,
-1.97573e-01,6.14542e-02,7.25002e-02,-2.92744e-02,2.26068e-01,-7.23748e-02,1.01016e-01,1.57200e-01,-2.37500e-01,1.85413e-01,1.50865e-01,9.32574e-03,2.91221e-01,8.76824e-02,2.87995e-01,-1.32465e-01,-1.74692e-01,-3.52904e-02,5.27471e-02,2.92938e-01,
-1.33307e-01,-2.40482e-01,-8.57066e-02,-2.47160e-01,9.76996e-02,-3.03909e-01,-7.45102e-02,2.06799e-01,-6.35148e-03,-1.35592e-01,1.07603e-02,9.24152e-02,-2.25909e-02,1.30163e-01,1.42187e-01,1.66554e-01,-2.04296e-01,-4.42493e-02,-2.93790e-01,-9.39126e-02,
-1.44894e-01,3.25291e-02,-1.43688e-01,8.02111e-02,6.86215e-02,1.65782e-01,-8.47472e-03,-2.45785e-01,-2.53400e-02,2.31013e-01,2.00807e-01,2.80462e-01,2.44212e-01,-1.84957e-02,1.67313e-01,1.93195e-01,2.58419e-01,9.79279e-02,9.74331e-02,2.43359e-01,
-2.41194e-01,-1.48434e-01,-1.82230e-01,-2.13687e-01,6.86114e-02,-2.38665e-02,1.35133e-01,-1.80352e-01,-1.16762e-01,-1.17266e-02,3.67276e-02,-3.73793e-01,-2.41718e-01,-1.62911e-01,-1.51706e-01,-3.74092e-01,-1.19323e-01,-1.98248e-01,5.45596e-02,1.04324e-01,
-2.31475e-03,9.26874e-02,7.72044e-02,-2.57911e-02,-9.82469e-02,1.46489e-01,1.30892e-04,1.39853e-01,-1.30771e-01,-3.14660e-02,-2.44629e-01,-6.55290e-03,-6.50512e-02,8.78448e-02,-1.77802e-01,-2.14901e-01,-6.50834e-02,2.08074e-01,-1.38879e-01,8.50567e-03,
-1.32087e-01,-2.26742e-01,-2.60762e-01,2.23137e-01,-6.32225e-02,2.47165e-01,-1.19670e-01,-4.60344e-02,-4.98918e-02,-1.27371e-01,-2.28098e-03,-1.80946e-01,1.32339e-01,-1.85379e-01,4.19203e-02,-8.37779e-03,-8.70040e-02,-1.32746e-01,3.82594e-02,-1.64407e-01,
1.70425e-01,-2.47174e-01,5.05928e-02,1.79784e-01,-1.35113e-01,1.96065e-02,-2.19251e-01,1.09801e-01,6.90958e-02,4.98288e-02,-1.44992e-01,-5.66328e-02,-1.91372e-01,-6.12560e-03,-1.65487e-01,1.47698e-01,1.25019e-02,2.66068e-01,4.15826e-02,2.66650e-01,
-2.75490e-01,-1.28365e-01,-2.19607e-01,2.62329e-02,-5.77960e-02,-1.66102e-01,-1.49331e-01,-8.17319e-02,1.68320e-01,7.47474e-02,-1.06787e-01,-9.28260e-02,2.62040e-02,5.98500e-02,1.15600e-01,2.70057e-02,2.02200e-01,2.01605e-01,-3.58781e-02,1.83884e-01,
-4.14477e-02,1.95334e-01,-6.28698e-02,-1.33732e-01,-2.13934e-01,-6.44145e-02,1.60637e-01,-1.14483e-01,1.52481e-01,-2.26276e-01,1.98282e-01,-5.26986e-02,-4.47435e-02,2.28490e-01,2.30820e-01,1.97611e-01,9.96601e-02,-1.73887e-01,-7.20667e-02,8.84362e-02,
1.67443e-01,4.23034e-02,1.78346e-01,1.43294e-01,1.33009e-01,5.46885e-02,-2.36615e-01,-4.43022e-02,3.02633e-01,-4.26178e-02,-2.56538e-01,-1.74099e-01,-2.23005e-01,5.64092e-03,2.12672e-02,-1.90021e-01,-2.81329e-01,-1.24448e-02,-3.02148e-01,-2.29648e-01,
1.37419e-01,6.83940e-02,-2.64605e-01,-1.57907e-01,2.36917e-01,1.60391e-01,-1.70516e-02,3.54801e-03,-2.94658e-01,-2.09302e-01,-1.20470e-01,-2.56768e-01,-2.43871e-01,1.17685e-01,-2.29379e-01,5.72250e-02,-1.88259e-01,1.08684e-01,1.94426e-01,-1.69851e-01,
9.45479e-04,3.98487e-03,6.97338e-02,2.86069e-02,-1.23689e-01,-2.60189e-01,1.71541e-01,-9.02009e-03,2.23466e-01,2.61391e-01,-1.60279e-02,1.83198e-01,-1.78197e-01,1.47841e-01,-1.99766e-01,-2.64411e-01,-2.29639e-01,-1.16973e-01,-2.19456e-01,-2.49441e-01,
2.37649e-01,4.75368e-02,-1.95940e-01,9.42969e-02,-2.11981e-02,-9.59600e-02,1.63622e-01,-2.00799e-01,9.18061e-02,1.34835e-01,5.93962e-02,-1.22922e-01,9.94355e-02,-1.84843e-01,1.62388e-01,-1.95922e-01,-3.82659e-03,1.11499e-01,-1.05307e-01,2.40510e-01,
6.95530e-02,-1.25652e-01,1.03321e-01,2.26061e-01,-2.69640e-02,-3.43930e-02,1.78536e-01,8.54447e-02,-5.20706e-02,1.42455e-02,-5.63450e-02,-2.67560e-02,-1.10573e-01,1.68691e-01,-2.66123e-01,2.41812e-02,2.16571e-01,2.11601e-01,-1.47394e-02,-2.44256e-01,
2.81403e-01,2.62977e-01,-1.52556e-02,3.62459e-02,2.38398e-01,9.36929e-02,1.14176e-01,7.87234e-02,1.30476e-01,-2.36894e-01,-9.96402e-02,-2.33446e-01,-8.38932e-03,-3.11477e-02,-7.62568e-02,2.39901e-01,5.42153e-03,-1.03191e-01,1.65834e-01,1.46587e-02,
8.45327e-02,-1.19636e-01,-8.04325e-02,8.85965e-02,-1.48625e-01,4.46446e-02,3.69782e-02,-2.09928e-01,1.89653e-01,3.00971e-02,-2.08823e-01,-2.58569e-01,-1.00677e-01,2.47628e-01,1.61905e-02,-1.05127e-01,-1.22310e-01,-1.79913e-01,-4.99572e-02,2.37498e-01,
-3.79233e-02,1.20323e-01,-3.02164e-01,-9.52234e-02,1.38895e-01,-5.07752e-02,-1.70992e-01,-9.50899e-02,1.18362e-01,-1.31626e-01,-1.50505e-01,8.32097e-02,5.15368e-02,-1.41102e-01,-2.50374e-01,-1.54041e-01,1.05742e-01,-1.07460e-01,-2.75684e-01,-3.13776e-01,
2.58817e-01,1.28232e-01,-1.32345e-01,3.10382e-02,1.37514e-01,1.61421e-01,-2.31908e-02,2.98768e-02,-1.77772e-01,3.22949e-01,1.13300e-01,6.60737e-02,7.28233e-02,2.60927e-01,-8.12212e-02,-2.77927e-03,-1.26383e-01,1.16875e-01,9.29786e-02,2.15763e-01,
-1.09752e-01,1.74984e-01,-5.58358e-02,-1.51815e-01,1.44435e-01,1.51980e-01,2.99846e-01,3.50150e-02,-4.17204e-02,-6.82195e-02,4.92803e-02,2.53510e-01,-1.10381e-01,-6.03626e-02,3.34730e-01,6.59234e-02,3.31232e-01,-4.22846e-03,-1.83949e-02,-8.26950e-02,
2.48659e-01,3.38763e-02,-1.50631e-01,-1.78303e-01,-1.74394e-01,-2.40896e-01,2.61835e-01,-7.77328e-03,8.60842e-02,1.04342e-01,8.70977e-02,3.34336e-02,-1.43484e-02,-4.32365e-02,-4.20407e-02,-1.71000e-02,-1.44266e-01,1.59120e-01,2.38610e-01,-2.65269e-01,
-1.38014e-01,1.38968e-01,3.29091e-01,-1.94779e-01,1.51195e-01,6.05678e-02,2.87449e-01,-9.54168e-02,2.53680e-01,2.79068e-01,9.26097e-02,-7.64240e-03,2.28698e-01,2.73533e-01,3.32800e-01,4.78060e-02,2.83729e-01,7.74299e-02,-8.82382e-02,-7.10867e-02,
2.33006e-01,3.55444e-02,-2.02973e-01,2.14688e-01,1.14235e-01,2.09593e-01,3.05754e-01,-1.85270e-01,-2.06380e-01,-4.03624e-03,1.82977e-01,-6.40534e-02,-1.05819e-01,3.02423e-01,1.52340e-01,2.47367e-01,1.83944e-01,3.12497e-01,1.56958e-01,2.76463e-02,
-4.02647e-03,-2.02595e-01,1.69342e-01,-9.23219e-03,-3.05191e-02,-2.43142e-02,6.60828e-03,-2.20154e-01,-2.20060e-01,9.67986e-02,-2.16042e-02,1.86090e-02,-5.62852e-02,-2.13555e-01,8.39346e-02,-2.63472e-01,-8.03005e-02,-1.30539e-01,2.19506e-01,-9.77155e-02,
-1.65833e-01,4.61262e-02,2.64112e-01,-1.79909e-01,7.87286e-02,3.50404e-02,-2.01319e-01,3.13104e-01,2.07908e-02,-8.08088e-02,8.67605e-02,1.93790e-02,1.98702e-02,-9.26073e-02,1.14030e-01,1.81430e-01,-7.83921e-02,-4.20201e-03,2.61994e-01,9.83681e-02,
1.19313e-01,2.13929e-01,6.91420e-03,-2.08115e-02,-1.21081e-01,-2.06775e-01,-1.39731e-01,1.82984e-01,2.26425e-01,-4.34715e-02,1.72844e-01,1.94339e-01,-8.25913e-02,1.11433e-01,-8.85326e-03,2.59544e-01,-1.47638e-01,6.45471e-02,8.48764e-02,1.77568e-03,
1.61381e-01,-1.11315e-01,-2.12486e-01,1.54340e-01,-2.55345e-01,6.91387e-03,5.20086e-02,-2.03713e-01,2.00878e-01,7.90965e-02,-5.44365e-02,3.90408e-02,4.73779e-02,-1.85358e-01,1.06564e-01,-3.06089e-02,2.31233e-01,9.69564e-02,2.58486e-01,5.07407e-02,
-1.98145e-01,-2.38265e-01,-3.58936e-02,-1.77168e-01,-3.98213e-02,4.12131e-02,7.96541e-02,-4.64151e-02,2.40512e-01,-1.56230e-01,7.16166e-02,-1.67821e-01,1.79433e-01,-2.10037e-01,2.56099e-01,1.26971e-01,-9.28247e-02,2.00840e-01,1.64803e-01,-2.37539e-01,
8.67344e-02,1.14884e-01,-4.84444e-02,1.45267e-01,1.31318e-01,-1.01490e-01,-2.90363e-02,-1.51574e-01,-8.24400e-02,-1.53417e-01,-8.08385e-02,1.28547e-01,-9.42005e-02,-2.31028e-01,-1.39401e-01,1.26866e-01,1.71607e-01,-2.37722e-01,6.22642e-03,-3.02596e-01,
1.10459e-01,7.77844e-03,-2.51309e-01,1.36640e-01,-1.76069e-01,1.19635e-01,-1.89483e-01,1.45700e-01,6.24588e-02,2.38551e-01,-1.58150e-02,-1.86626e-01,2.62319e-01,2.13538e-01,-2.65837e-01,2.36809e-01,-2.42195e-01,-9.61013e-02,-2.76270e-02,-5.11453e-02,
2.45572e-01,2.43196e-01,-4.30556e-02,-6.87345e-02,4.75807e-02,1.56137e-01,-6.62475e-02,-1.73564e-01,3.64014e-02,-1.04896e-01,-4.78616e-03,1.12031e-01,-1.69843e-03,-1.92106e-01,1.30002e-01,2.68356e-01,2.43943e-01,-2.43195e-01,-3.13057e-02,3.70231e-02,
7.34321e-02,-1.58728e-01,-6.63942e-02,-6.77484e-03,-1.04979e-02,-7.52348e-02,-2.30929e-01,-2.40772e-01,-2.13886e-01,-1.64549e-01,-1.62396e-01,1.07600e-01,-7.98833e-03,-3.77134e-02,-1.01193e-01,-2.07970e-01,-1.39909e-01,1.32853e-01,-1.46087e-01,1.42996e-01,
1.00114e-01,1.27739e-01,1.75429e-01,2.72305e-01,2.86280e-01,-1.14547e-01,-1.65088e-01,-6.07582e-02,-2.29444e-01,1.88310e-01,8.14922e-02,-7.08147e-02,1.91600e-01,2.41276e-01,-1.07688e-01,-1.32867e-01,2.00560e-01,1.78693e-01,-1.52726e-01,3.02652e-01,
-1.37166e-02,-2.55650e-01,-8.26106e-02,2.02154e-01,5.06566e-03,9.41487e-02,-1.91197e-01,-7.35056e-03,8.40872e-02,-7.69288e-02,5.48789e-02,1.28104e-01,-2.27285e-01,8.26407e-02,-6.87963e-02,-1.99265e-01,1.98887e-01,2.23331e-01,-2.25259e-01,1.74604e-01,
1.50009e-01,-2.86047e-01,-2.23845e-01,-2.03316e-01,3.24819e-02,6.09045e-02,-2.16343e-01,-1.09541e-01,2.66948e-01,1.80435e-01,-1.74400e-01,-2.07206e-01,1.91120e-01,-1.43379e-01,-2.94542e-01,1.71330e-01,1.81300e-01,-2.42906e-01,1.26638e-02,1.20094e-02,
3.18757e-01,2.06128e-01,-2.05790e-02,2.70856e-01,2.26919e-01,-1.30542e-01,-4.28853e-02,1.18448e-01,-2.06832e-01,-1.89691e-02,1.08379e-01,-1.68044e-01,2.18371e-01,2.81784e-01,-5.91610e-02,2.56020e-01,-6.50914e-02,1.29471e-02,2.39721e-01,-6.52747e-02,
-3.27868e-01,1.97298e-01,-1.29227e-01,-2.22264e-01,1.78131e-01,-1.36469e-01,1.66786e-01,-2.53526e-01,1.34309e-01,-3.43707e-02,1.96587e-01,-2.56913e-01,-9.20975e-02,-2.23625e-01,1.79726e-01,-3.08859e-01,1.37001e-01,1.29515e-01,1.03036e-01,-2.25743e-01,
1.14101e-01,3.55505e-02,-1.79046e-01,-9.14513e-02,-1.83976e-02,5.33183e-02,-5.16984e-02,2.17972e-01,3.83080e-02,-1.45189e-01,-3.90926e-02,-1.82951e-01,-6.18967e-02,-1.45027e-01,-3.18018e-02,-2.59689e-01,2.29865e-01,-4.67618e-02,2.04178e-01,-6.02326e-03,
-2.17753e-01,2.06784e-01,2.16125e-01,1.94648e-01,-2.33477e-02,1.62566e-01,-2.13849e-01,-1.10515e-01,-1.63874e-01,-2.61063e-01,1.09153e-01,1.55236e-01,6.68162e-02,1.44312e-03,-2.46212e-01,1.24736e-01,4.77310e-02,-8.71218e-02,2.12284e-01,4.02898e-04,
9.15267e-02,-5.66543e-02,2.37211e-02,7.81598e-02,-8.67857e-02,-2.47801e-01,-5.77561e-02,-1.64380e-01,-2.23919e-01,-2.01331e-01,-2.11322e-03,-1.40930e-01,-5.03220e-02,1.12476e-01,1.18377e-01,-2.19881e-01,-2.17749e-02,-2.83429e-02,1.85457e-03,5.69140e-02,
1.89405e-01,-7.38648e-02,-1.92383e-02,1.64945e-01,-1.18825e-02,2.25223e-01,1.66720e-02,-2.10645e-01,2.41056e-01,2.04362e-01,9.37135e-02,-7.77804e-02,-1.35033e-01,-1.48834e-01,-8.66077e-02,6.25789e-03,1.06341e-01,2.32485e-02,4.27338e-02,-2.40858e-01,
-1.92234e-01,7.00659e-02,9.69514e-03,1.49835e-01,-5.44420e-02,1.36307e-02,8.33354e-02,-1.31624e-01,-2.08693e-01,-5.74184e-02,-3.57164e-02,2.33447e-01,-1.61142e-02,1.21475e-01,-2.13005e-01,-1.58112e-01,-1.10293e-01,-2.56988e-01,1.03660e-01,1.11775e-01,
1.08137e-01,2.62819e-01,-2.08729e-01,2.02492e-01,-1.23641e-01,-2.54869e-01,-3.99411e-04,2.27661e-01,-2.49498e-01,-1.11264e-01,-8.99034e-02,1.92091e-01,5.77220e-02,2.23273e-01,9.91392e-02,9.37624e-02,2.90128e-02,8.66907e-02,2.41743e-01,1.27101e-01,
-1.77066e-01,-1.13509e-01,-2.97764e-01,1.51137e-01,4.17318e-02,-2.96983e-01,-8.52132e-02,-3.04733e-01,1.33743e-01,2.11776e-01,-2.72187e-01,2.03186e-01,-2.44389e-01,-1.00083e-01,1.29868e-01,5.01266e-02,1.36639e-01,-1.59550e-01,-1.48675e-01,-1.25574e-01,
0.00000e+00,
-7.14291e-02,
0.00000e+00,
0.00000e+00,
0.00000e+00,
0.00000e+00,
0.00000e+00,
4.16435e-02,
0.00000e+00,
0.00000e+00,
-4.08040e-02,
0.00000e+00,
-4.24998e-02,
-2.52210e-02,
0.00000e+00,
0.00000e+00,
0.00000e+00,
-7.07560e-02,
0.00000e+00,
0.00000e+00,
0.00000e+00,
5.10101e-02,
-5.47219e-02,
1.81517e-02,
-1.07767e-01,
0.00000e+00,
0.00000e+00,
0.00000e+00,
-6.00460e-02,
0.00000e+00,
-5.89492e-02,
-9.82779e-03,
0.00000e+00,
0.00000e+00,
0.00000e+00,
1.68305e-02,
0.00000e+00,
-6.68051e-02,
6.35606e-02,
6.74898e-02,
0.00000e+00,
7.34966e-02,
5.02381e-02,
0.00000e+00,
5.43363e-02,
0.00000e+00,
0.00000e+00,
0.00000e+00,
-6.94886e-02,
0.00000e+00,
2.54204e-03,
0.00000e+00,
5.21012e-02,
-3.03382e-02,
-4.41542e-02,
6.48095e-02,
-7.00038e-02,
0.00000e+00,
0.00000e+00,
0.00000e+00,
0.00000e+00,
0.00000e+00,
0.00000e+00,
-4.70420e-02,
-1.70085e-02,5.22738e-02,1.81302e-02,-1.34999e-01,1.87331e-01,4.79481e-02,7.68735e-02,2.92265e-01,-1.96805e-01,-2.43663e-01,-9.30080e-02,-1.37650e-02,-4.77384e-02,2.47213e-01,1.20167e-01,-3.43083e-02,-8.80302e-02,7.16399e-02,-1.98740e-01,-1.88247e-01,2.45671e-01,1.70403e-01,-9.46112e-02,2.69909e-01,-1.00713e-01,-2.27310e-01,-9.39384e-02,-2.08801e-01,-6.19152e-02,1.89311e-01,-1.82745e-01,-5.66148e-02,1.97926e-01,-4.91648e-02,2.38753e-01,-4.20755e-02,-1.72870e-01,-9.58186e-02,5.24445e-02,1.03334e-01,-2.10545e-01,2.59112e-01,2.60944e-01,7.45740e-02,-1.81239e-01,-2.13766e-01,1.74531e-01,-1.14304e-01,1.94858e-01,9.79180e-02,-9.86638e-02,-3.05867e-02,2.56514e-01,3.23883e-02,2.53475e-01,-1.44496e-02,-1.63100e-01,2.09088e-01,-8.64029e-03,-1.98542e-01,-1.44295e-01,1.97653e-01,1.08130e-01,-1.25546e-01,
2.00395e-01,1.03180e-01,-3.16976e-02,2.06300e-01,-1.09202e-03,2.20181e-01,-1.86825e-01,2.17305e-01,1.77406e-01,1.11203e-02,1.51085e-01,1.64963e-01,-1.07842e-01,-2.47913e-01,1.71763e-01,-1.56314e-01,1.17622e-01,-6.19992e-02,-1.50661e-01,9.53969e-02,-1.94673e-01,-1.45885e-01,-1.29554e-01,-3.93061e-02,1.27791e-01,-2.48619e-01,1.80293e-01,-8.21480e-02,1.95469e-01,-1.54397e-01,-6.33222e-02,2.19498e-01,1.58963e-01,-3.09909e-02,2.24514e-01,-1.88285e-01,1.34143e-02,7.84086e-02,7.35269e-02,-1.71967e-01,-2.15814e-01,-1.39797e-01,-1.64511e-01,7.78220e-02,1.73747e-01,-2.01645e-01,2.22913e-01,1.46778e-01,1.10541e-01,-1.56682e-01,2.34953e-01,-2.14128e-01,-1.07151e-01,-7.91703e-02,-1.58934e-01,-1.80488e-01,1.55908e-01,2.27839e-01,1.15987e-01,1.82587e-01,1.73158e-01,1.39069e-01,2.49138e-01,1.22483e-01,
-8.00048e-02,-2.44708e-01,-3.43678e-02,-2.34833e-02,-1.26395e-01,-1.75598e-01,1.32227e-01,-1.72350e-01,-1.12859e-01,2.14039e-01,-1.15718e-01,-1.27351e-01,1.80290e-01,2.15409e-02,1.21498e-01,-1.97224e-02,2.60243e-02,-7.53105e-03,-1.74959e-01,-1.69237e-01,-1.76182e-01,2.67115e-02,-1.97984e-01,-1.99683e-01,-2.31525e-01,-1.41325e-01,-1.40912e-01,9.20185e-02,1.36303e-01,-2.49378e-01,-7.59271e-02,-4.02923e-02,2.10445e-01,1.62618e-01,7.72682e-02,7.29347e-02,-5.03136e-02,2.32001e-01,1.25284e-01,1.01642e-01,-2.00409e-01,-5.94458e-02,-2.05246e-01,1.25729e-01,2.48390e-02,-1.47233e-01,6.50684e-02,-1.63537e-01,2.47370e-01,9.62102e-02,-1.81280e-01,-1.46979e-01,-1.43011e-01,-9.94371e-02,-9.61915e-02,1.06073e-01,1.74558e-01,-1.92819e-01,-3.65106e-02,-1.62365e-01,-2.32504e-01,1.21720e-01,3.25112e-02,-5.41167e-02,
-2.32366e-01,-1.46836e-02,9.65098e-02,1.69897e-01,1.60552e-01,1.84247e-01,-2.43910e-01,9.08327e-03,-2.28594e-01,-7.32062e-02,3.95787e-02,-1.22130e-01,1.62679e-02,-1.25136e-01,5.72101e-02,-2.67546e-02,1.36657e-01,1.75220e-01,-6.97801e-02,-2.39992e-01,-1.42508e-01,-9.29366e-02,-3.00513e-01,-2.36345e-01,-1.14543e-01,-1.56094e-02,2.34237e-01,4.66214e-02,1.46622e-01,-1.46031e-05,1.39660e-01,-3.01205e-01,5.96038e-02,-9.78848e-02,8.14478e-02,1.63122e-01,-1.78652e-01,-1.19946e-01,-2.52106e-01,-1.24802e-01,-7.36524e-02,1.47181e-02,-3.86300e-02,8.11074e-02,-2.55771e-01,7.93961e-02,-1.52238e-01,2.28266e-01,1.75109e-01,2.07514e-01,-2.10547e-01,-2.26471e-01,-2.43536e-01,-9.47249e-02,-1.97552e-02,-1.31356e-01,4.05653e-02,1.73728e-01,1.25423e-01,-7.32914e-02,2.38135e-02,-1.71891e-01,2.34734e-01,2.94249e-02,
-2.08146e-01,2.53008e-01,1.43985e-01,-1.32796e-01,1.25002e-01,-2.22192e-01,1.69790e-01,9.47565e-02,1.84940e-01,1.70298e-01,-2.46721e-02,-9.58728e-02,2.47752e-02,2.49887e-01,-7.64402e-02,-1.75911e-01,-4.69953e-02,6.72295e-02,1.73716e-01,-1.06411e-01,1.48700e-01,-1.04023e-01,1.25194e-01,-1.34144e-01,4.58575e-02,-2.39377e-01,-2.25159e-01,1.47222e-01,1.54669e-01,-1.34996e-02,2.70599e-01,-1.19309e-01,-2.47270e-01,-7.31775e-02,-9.34024e-02,4.56182e-02,2.08101e-01,-1.44730e-01,9.98194e-02,-5.45547e-02,-1.88711e-01,5.86816e-02,1.12623e-01,3.07594e-02,-8.75132e-02,2.39749e-01,-3.37948e-02,-1.80197e-01,-1.67886e-01,8.11300e-02,-3.66324e-02,-1.68318e-01,1.01178e-01,1.71521e-01,-1.97001e-01,2.58286e-01,2.04343e-01,1.04750e-01,-2.33913e-01,-4.06991e-02,-2.04183e-01,-1.90985e-01,2.62381e-02,2.72234e-02,
-2.48380e-01,-2.49465e-01,2.27424e-01,-1.43335e-01,-1.45180e-01,-6.15311e-03,2.25104e-01,1.72814e-01,8.77076e-02,1.27611e-01,-2.52295e-01,3.50457e-02,-7.87205e-02,1.19851e-02,-1.67205e-01,7.49882e-02,1.63038e-01,1.13713e-02,-2.16039e-01,9.32368e-02,-1.09001e-01,-5.25130e-02,4.08665e-02,-2.50991e-02,-1.22418e-02,2.06950e-01,-4.57033e-02,1.25186e-01,1.83003e-01,-4.67123e-02,5.21413e-02,-1.54535e-01,-1.41155e-01,-2.02366e-01,-4.87383e-02,-5.05934e-02,-2.03357e-01,6.52568e-02,-1.31931e-01,4.41976e-02,9.28721e-02,-2.72712e-01,-2.50772e-01,-8.89266e-03,7.13066e-02,2.38968e-01,2.11527e-01,-2.23558e-01,1.25558e-01,-1.47535e-01,-6.11021e-02,8.97016e-02,-2.92124e-01,-1.64201e-01,-3.17480e-02,-6.68659e-02,2.80663e-02,1.09803e-01,-1.20362e-01,9.09837e-02,-2.83315e-02,1.12044e-02,4.22859e-02,-2.32583e-01,
-8.06004e-02,3.30886e-02,-2.66281e-02,-2.09047e-01,-2.00780e-01,-1.88648e-01,2.22230e-03,1.41829e-03,-6.93801e-02,8.54443e-02,2.18034e-01,-1.84640e-01,1.70597e-01,1.68652e-01,3.77074e-02,1.85489e-01,-1.45076e-01,-1.50691e-01,1.93866e-01,-2.00105e-02,1.80826e-01,1.41835e-03,-2.77802e-02,1.31851e-01,-2.20254e-01,-1.42997e-01,-1.97605e-01,-1.38012e-01,8.76220e-02,-1.58956e-01,-1.51308e-01,-3.26270e-02,-2.45887e-01,-9.41745e-02,2.00106e-01,-1.61443e-01,1.01905e-01,1.59510e-01,1.49222e-02,-2.04009e-01,1.37003e-01,-2.19725e-01,-2.38589e-01,3.38168e-02,-6.43599e-03,-9.94601e-02,-2.02860e-01,2.27078e-01,-5.47384e-02,-9.89740e-02,4.19086e-02,-7.11209e-03,1.57713e-01,6.27381e-03,8.08758e-03,-8.99427e-02,7.17849e-03,-6.80887e-02,9.03887e-02,-9.85168e-02,-1.52125e-02,-2.36055e-01,1.52753e-01,5.14385e-02,
-1.25884e-01,1.43259e-01,-2.33064e-01,1.77499e-01,-2.25343e-01,2.01127e-01,-1.51853e-02,-7.70456e-02,-1.83081e-02,2.00654e-01,-9.29087e-02,2.09942e-01,-1.24572e-01,-1.33316e-01,-2.31669e-01,4.83615e-02,-2.35678e-01,7.33567e-02,5.87151e-02,2.05955e-01,-1.24311e-01,9.83283e-02,-1.39398e-01,-2.54387e-01,5.34159e-02,3.97093e-02,8.04023e-02,7.33524e-02,1.02677e-01,5.08842e-02,-1.52578e-01,-1.27493e-01,8.38642e-02,1.17925e-01,7.11381e-02,-1.78810e-01,-1.01214e-01,-1.43037e-01,-1.17614e-01,1.49824e-01,-1.68408e-01,1.04263e-01,-7.66372e-02,-2.04734e-01,1.72067e-01,9.72673e-02,-1.47951e-02,1.15324e-01,-1.19457e-01,5.78693e-02,-1.55652e-01,1.97573e-01,-6.10855e-02,1.17346e-01,-1.39334e-01,2.08127e-03,2.18469e-02,-9.16064e-02,3.13155e-02,-1.45606e-01,2.05876e-01,1.81174e-01,2.28321e-01,-1.50074e-01,
2.49652e-01,2.04974e-03,1.59662e-01,-1.54712e-01,1.21524e-01,-2.49267e-02,-1.94797e-01,-2.26057e-01,1.21188e-01,1.06838e-01,1.76783e-01,4.92995e-02,8.84969e-02,-3.74709e-02,1.43411e-01,-5.40295e-02,-2.49914e-01,-1.26631e-01,1.41330e-01,2.08027e-01,4.35289e-02,-2.58928e-01,5.10669e-02,1.19218e-01,6.86576e-02,-1.50957e-01,-1.81971e-01,1.48621e-01,4.92867e-02,-7.29865e-02,5.85772e-02,9.99206e-02,1.85751e-01,1.14137e-01,1.01950e-01,-2.45071e-01,7.30577e-02,-1.99850e-01,1.62462e-01,-8.65848e-02,2.36676e-01,-1.55648e-01,-9.80015e-02,-3.21454e-02,-2.49020e-01,1.01743e-01,-6.82440e-02,-1.70112e-01,-1.77183e-01,-2.45975e-01,-8.91859e-02,-7.53981e-02,1.73189e-01,4.00355e-02,-1.42703e-01,-3.06154e-01,9.61229e-02,-1.11224e-01,-1.73229e-01,9.66772e-02,-2.16193e-01,2.07056e-01,2.06709e-01,1.52792e-02,
-3.28398e-02,-7.73675e-02,5.84443e-02,7.21633e-02,1.68676e-02,1.39546e-01,6.79587e-02,-2.08042e-01,2.55122e-02,-1.29488e-01,-1.16338e-01,-2.25584e-02,-2.64677e-01,-1.89094e-01,8.92766e-02,1.40278e-01,1.88702e-01,-9.79660e-02,8.90797e-02,4.22071e-02,-6.21718e-02,-1.79265e-02,-5.81163e-02,-2.32642e-01,1.20924e-01,1.80453e-01,-4.07176e-02,-2.13682e-01,4.67445e-02,2.26970e-01,-3.62379e-02,-1.97093e-01,-2.13443e-01,3.42131e-02,-4.25320e-02,4.97462e-02,1.71898e-01,2.28427e-02,-1.40040e-01,-1.50496e-01,1.73508e-01,7.56288e-02,-9.91091e-02,-6.88943e-02,-1.79745e-01,-1.69142e-01,-2.34254e-01,2.08185e-01,9.34652e-02,-1.06202e-01,-1.56441e-01,1.07288e-05,6.65491e-02,1.23758e-01,-2.61112e-01,-2.54009e-01,1.13987e-01,-1.34941e-01,-2.19595e-02,1.04044e-01,2.08020e-02,-7.48053e-02,-9.71566e-02,-1.73591e-01,
2.12021e-01,1.78530e-01,-1.59905e-01,-2.45218e-01,-1.86225e-01,-1.79768e-01,-9.49641e-02,-2.38407e-01,5.36474e-02,-7.98265e-02,-3.13305e-02,1.21912e-01,1.33079e-01,3.03177e-02,1.32981e-01,8.82081e-02,1.16794e-01,1.44167e-01,1.44660e-03,2.35291e-01,5.16168e-02,1.60437e-01,-5.03610e-02,1.10871e-01,-1.34210e-01,1.92115e-01,-6.51433e-02,-4.69008e-02,-2.69166e-01,-2.10863e-01,-5.46695e-02,-4.39716e-02,2.02022e-02,1.39053e-01,-1.46269e-01,-2.10250e-01,2.21419e-03,-1.35403e-01,-1.27118e-02,-4.67135e-02,2.42094e-01,-2.76429e-01,-1.18813e-01,-8.78957e-02,-4.58887e-02,-1.02738e-01,5.08243e-02,-5.40424e-02,-3.17337e-02,-4.42126e-02,-9.67763e-02,8.21149e-03,-1.31705e-01,-1.60059e-01,9.83087e-02,-1.52438e-01,-1.47583e-01,-3.04897e-02,-2.22273e-01,1.17032e-01,-1.62752e-01,9.64971e-02,5.91712e-02,7.79495e-02,
-9.68689e-03,-3.41818e-02,-2.17213e-01,-4.99586e-02,3.53512e-02,-8.67124e-02,-1.00654e-02,-5.93148e-02,9.51452e-02,-2.41092e-01,-1.43976e-01,-3.02477e-02,-1.25481e-01,2.02604e-01,1.68702e-01,9.91294e-02,1.74776e-01,-1.06125e-01,2.21704e-01,1.79692e-01,-2.84001e-02,1.43577e-01,-1.13668e-01,-2.13219e-01,-8.74792e-02,-1.45010e-01,3.11751e-02,2.06736e-01,4.93090e-02,5.70599e-02,1.42012e-01,1.77901e-01,-1.05279e-01,1.30067e-01,-1.96577e-02,-2.32344e-01,-9.56205e-02,-1.92866e-01,-2.24548e-01,-1.10940e-01,1.82866e-02,9.19511e-02,-1.08860e-01,-9.32729e-02,-1.27399e-01,2.09662e-01,1.81801e-01,-4.41028e-02,-1.97763e-01,2.17517e-01,8.20481e-02,2.37048e-01,1.09002e-01,2.10859e-01,9.84958e-02,-1.97681e-01,1.90253e-01,-1.42424e-01,2.30932e-01,-1.80309e-01,6.82985e-02,-1.64595e-01,2.63380e-02,2.04682e-01,
-9.76300e-03,-1.12347e-01,3.61243e-02,-2.13388e-01,-1.33092e-01,-1.59207e-01,-6.04772e-02,2.33026e-01,-1.85274e-01,-1.02782e-01,1.79255e-01,6.37439e-02,-4.21035e-02,-1.26414e-01,-1.55361e-02,3.77266e-02,2.30952e-01,1.25075e-01,1.71131e-01,4.22680e-02,-1.96299e-01,9.47148e-02,1.28469e-01,-2.34327e-01,-1.88225e-01,6.11256e-02,8.73213e-02,8.67700e-02,-1.41682e-01,-3.89138e-02,-1.81394e-01,-1.72254e-01,-1.66286e-01,2.41178e-01,-6.39433e-02,1.13162e-02,1.74463e-04,7.64429e-02,-3.48790e-02,-1.47011e-01,-8.44419e-02,8.32133e-02,2.29170e-01,2.25132e-01,1.06717e-01,1.35910e-01,-4.40376e-02,-2.31509e-01,-2.45633e-01,1.33752e-01,-1.97711e-02,1.97779e-01,1.57794e-01,1.01207e-01,1.80221e-01,2.31886e-02,-4.55552e-02,1.79029e-01,6.74592e-02,2.13014e-01,1.18197e-01,-1.49079e-01,-8.88774e-02,-1.31808e-01,
2.41443e-01,1.91678e-01,-2.76176e-02,7.91968e-02,-1.58713e-01,6.98271e-02,-1.97991e-01,-3.69396e-02,-1.31245e-01,1.44518e-01,5.01326e-02,-4.26840e-02,-5.22927e-03,1.75160e-01,-1.65433e-01,-2.17080e-01,2.39017e-01,-1.04093e-01,-9.26149e-03,-9.22946e-02,-6.37357e-02,-1.77914e-01,1.80634e-01,1.86202e-01,-5.61943e-02,-2.21859e-01,-4.59176e-03,7.52344e-02,-1.03867e-01,2.23063e-01,-8.48466e-02,-5.53479e-02,-1.10031e-02,2.00297e-01,2.28756e-01,-1.33308e-01,1.50380e-01,-3.52667e-02,1.69020e-03,-2.38777e-01,-7.05272e-02,-2.05576e-01,-4.09111e-03,1.51956e-01,-2.69489e-01,-2.35289e-01,2.14776e-01,-1.26671e-01,7.14024e-02,-3.12861e-02,-1.76118e-01,1.65512e-01,-6.45978e-02,2.27469e-02,1.09781e-01,-7.68310e-02,2.78150e-02,-2.34676e-01,-1.32630e-01,3.42367e-02,2.26891e-01,1.56339e-01,-6.56443e-02,7.11147e-02,
-2.21167e-01,-8.38708e-02,2.45117e-01,-1.27066e-01,2.44523e-01,-2.28417e-01,-2.81340e-03,-1.02408e-01,-9.12389e-02,1.24655e-01,-1.03936e-01,-2.97824e-02,-6.87325e-03,2.36642e-02,1.35505e-01,-2.34436e-01,-3.64295e-02,-2.43681e-01,-1.24824e-01,3.67657e-02,2.48000e-01,2.22158e-01,2.33114e-01,2.09476e-01,1.36365e-01,-5.08475e-02,-1.79067e-01,1.48124e-01,5.22000e-02,-2.49120e-01,-2.48406e-01,1.79164e-01,-1.63781e-01,2.34631e-01,1.18530e-01,-2.05984e-01,2.06111e-01,2.37963e-01,1.14489e-02,-3.20016e-02,-6.39591e-02,-2.11802e-01,-7.71055e-02,4.22016e-02,-1.39612e-01,-7.79851e-02,-6.66152e-02,-4.37722e-02,-1.63127e-01,-1.13426e-01,-1.54925e-02,1.84621e-01,-4.98638e-02,-4.77818e-02,-1.53969e-01,2.66263e-02,-2.47336e-01,-1.15007e-01,-3.52847e-02,-1.60262e-01,1.65812e-01,-1.90396e-01,-1.86052e-01,-1.06818e-01,
1.18886e-01,1.96451e-01,2.13399e-01,-1.95021e-01,7.47947e-02,-5.60420e-02,2.34145e-01,-6.39399e-02,8.74601e-02,1.98976e-01,-1.86689e-01,5.61468e-02,-9.30779e-02,-2.38923e-01,1.85101e-02,1.26912e-01,-1.81025e-01,1.94716e-01,-1.80970e-01,9.97909e-02,1.38347e-01,-2.04435e-01,8.38135e-02,-3.89357e-02,-1.60722e-01,-1.76862e-01,2.27252e-01,-2.45414e-01,-6.78608e-02,1.10689e-01,-4.52013e-02,7.21186e-02,9.72092e-03,-5.49927e-02,2.10970e-01,1.66260e-01,-1.24393e-02,-2.03964e-01,-2.06300e-01,-1.75449e-01,1.51259e-01,2.32790e-01,4.04405e-02,6.06660e-02,2.41434e-01,-1.85629e-02,-4.68304e-02,-8.53548e-02,4.89909e-02,7.93249e-02,2.23050e-02,-1.30148e-01,1.53317e-01,1.08834e-01,-2.08318e-01,-1.85218e-01,1.93404e-01,2.28129e-01,1.41211e-01,-5.45147e-02,-2.13327e-01,1.41209e-01,-6.82949e-02,-2.26634e-01,
2.26215e-01,4.21764e-02,3.87484e-03,-5.27484e-02,1.26794e-01,-1.35970e-01,5.96589e-02,-6.94847e-02,7.92264e-02,-1.70118e-02,-2.45819e-01,2.38245e-01,-1.43174e-01,-1.99208e-02,-1.21188e-03,8.74574e-02,1.94133e-01,-2.14948e-02,-1.49167e-01,-1.16604e-01,2.38215e-01,1.43712e-03,2.90677e-02,6.70637e-04,1.29935e-01,3.17312e-02,-1.74864e-01,-2.11899e-01,1.23442e-01,1.72297e-01,-3.44511e-01,1.03299e-01,-2.49756e-01,-1.09235e-01,1.10007e-01,1.65814e-02,1.59401e-01,-1.70926e-01,-1.98789e-01,-9.09913e-02,-1.64024e-01,-3.27179e-01,-1.38844e-02,1.87972e-01,-1.73819e-01,8.49215e-02,-1.67120e-01,1.95985e-01,2.84755e-02,7.92422e-02,-2.90174e-01,2.02143e-02,-1.21747e-01,-1.45014e-01,-2.57267e-01,1.19902e-01,-1.05660e-01,-8.20101e-02,2.02517e-01,-5.84491e-02,6.73398e-02,1.11869e-01,1.57541e-01,1.04913e-02,
4.52185e-03,-1.20691e-01,2.13091e-01,-2.09587e-01,5.33925e-02,2.00634e-01,-5.82915e-02,-4.82147e-02,-1.55415e-01,1.45569e-01,1.77715e-01,-5.69748e-02,-2.05280e-01,6.02236e-02,2.07349e-01,1.46366e-01,-1.22825e-01,-1.93647e-01,1.14769e-01,1.22346e-01,-7.73594e-02,2.35959e-01,1.06841e-01,-1.76844e-02,2.46628e-01,1.31893e-01,7.60162e-02,-1.58235e-01,2.48316e-01,2.28899e-01,1.31568e-02,1.29528e-01,-6.68675e-03,-1.44916e-01,-1.68161e-01,-8.97360e-02,2.93124e-02,2.38497e-02,-1.93915e-02,-1.87266e-01,-5.93849e-02,-5.26864e-02,5.43368e-03,2.38721e-01,3.33953e-03,-7.33049e-02,9.95762e-02,-1.60607e-01,-1.21183e-01,-2.42305e-01,1.26113e-02,1.00179e-01,-1.86959e-01,-2.14845e-01,-5.60295e-02,-1.05009e-01,8.86967e-02,-2.25283e-01,-1.99340e-01,1.30247e-01,-8.66975e-02,4.98741e-02,-2.11350e-02,1.84920e-01,
1.40296e-02,1.02616e-01,-2.33331e-01,2.16285e-02,6.93967e-02,1.43278e-01,1.24726e-01,3.48967e-02,1.79365e-01,-8.81767e-02,8.39683e-02,-2.36304e-01,3.57461e-03,-1.27603e-01,-2.08899e-01,3.48044e-02,-1.72567e-01,9.26641e-02,-2.16944e-01,-1.47072e-01,1.68437e-03,-1.24795e-01,-1.23052e-01,-6.84562e-02,-2.40741e-01,-1.37479e-01,4.47309e-02,-1.61274e-01,1.41138e-01,-1.15178e-01,1.03797e-01,-5.91640e-02,2.13331e-01,-8.11255e-03,8.47567e-02,-2.43024e-01,-1.83562e-01,-1.70017e-01,-9.38482e-02,-1.32746e-01,2.12113e-02,1.02655e-01,-2.98757e-01,-2.06128e-01,-1.49771e-01,2.01646e-01,1.61872e-01,-2.30798e-01,8.54981e-02,-7.88243e-02,-3.61129e-02,2.08489e-01,-1.42739e-01,-2.77242e-01,-8.28096e-02,4.87895e-02,4.79973e-02,-1.77627e-01,8.65436e-03,-2.16131e-01,-7.17678e-02,1.01027e-02,-2.35883e-01,1.81872e-01,
2.18043e-01,8.00433e-02,1.23585e-02,-5.76715e-02,-1.20297e-01,1.10089e-02,-5.26308e-02,-7.36260e-02,-2.45482e-01,-1.26775e-01,-3.38950e-01,-9.21843e-02,-8.40197e-02,-1.25869e-01,2.46589e-01,4.26099e-02,-7.13138e-02,-5.82871e-02,2.08519e-01,-9.02478e-02,-1.68569e-01,-2.74381e-01,-2.14518e-01,1.39236e-02,1.10266e-01,2.68987e-02,2.29309e-01,1.41440e-01,-7.29976e-02,-1.08685e-01,-1.56494e-01,1.23989e-01,1.77477e-01,-2.12575e-02,1.85966e-01,1.01290e-01,1.49580e-01,4.50075e-02,-3.52257e-01,-2.42117e-01,2.16101e-01,-1.05951e-01,5.27335e-02,1.65919e-01,8.76650e-02,9.95559e-02,-2.20037e-01,1.25175e-01,-1.90508e-01,1.48481e-01,-9.73070e-02,7.96223e-02,-1.15662e-01,9.83923e-02,3.47802e-02,-2.21940e-01,-2.09519e-01,1.52371e-01,-9.07433e-02,2.27984e-01,2.45528e-01,1.52841e-01,-1.62463e-01,-3.48652e-01,
-8.01504e-04,2.06008e-01,-1.87079e-01,-1.10385e-01,-2.47383e-01,1.32674e-01,-2.08330e-01,2.67399e-01,-2.10558e-01,-1.14993e-01,-7.50899e-02,4.83296e-02,-2.00397e-01,-5.33575e-02,1.75128e-01,1.61288e-01,1.49557e-01,-1.94150e-02,-2.39102e-01,-8.90685e-02,2.01953e-01,1.79708e-01,2.39523e-01,-5.77801e-02,1.29213e-01,-2.25456e-01,1.60326e-01,-1.95727e-01,-1.14449e-01,1.48231e-01,-2.07024e-01,-1.67343e-01,-2.20761e-01,1.77206e-02,-1.79791e-01,-3.83328e-03,-8.39741e-02,-1.21049e-02,2.01773e-01,-2.13083e-01,-8.07232e-02,-1.75871e-01,8.85281e-02,1.68130e-01,-6.58900e-02,2.00927e-03,5.68765e-02,-8.66944e-03,1.74211e-01,-1.23346e-01,-2.12171e-01,1.60638e-01,5.86781e-02,2.74880e-01,-4.18626e-02,-1.67771e-01,2.68699e-01,-1.68258e-01,-1.09842e-01,2.13330e-02,-1.60493e-01,-1.52431e-02,-1.17308e-01,-1.46552e-01,
2.14056e-01,8.71558e-02,3.71836e-02,3.87099e-02,-2.01122e-01,-1.20131e-01,9.73174e-02,-1.97857e-01,-2.42294e-01,-3.17137e-02,-5.46536e-02,-9.04834e-03,-1.39758e-01,1.27864e-01,-6.11407e-03,-2.64330e-02,1.99112e-01,-4.46230e-02,3.13038e-03,1.70605e-01,1.77235e-01,-9.75413e-02,-2.34434e-01,-2.44620e-01,-5.46273e-02,2.10186e-01,-2.35174e-01,-2.30030e-01,3.87253e-02,4.24602e-02,-1.14422e-01,7.63789e-02,-7.46154e-02,-1.34426e-01,2.18531e-01,2.32967e-01,-6.55273e-02,-1.11480e-01,-7.61743e-02,2.54551e-02,4.66706e-02,-5.76019e-02,1.11401e-01,1.08799e-02,-2.36304e-01,-1.19218e-01,-8.29709e-02,-2.25471e-01,-1.28668e-01,1.13012e-01,-1.15470e-01,2.53833e-02,-1.96884e-01,-1.13587e-02,-3.96282e-02,1.78141e-01,-1.68743e-01,2.28710e-01,-2.16169e-01,-6.06024e-02,-2.40084e-01,1.34424e-01,8.90852e-02,-4.19270e-02,
-2.38621e-01,-5.78192e-02,1.10195e-01,-6.84851e-03,-1.00993e-02,-1.20372e-01,-4.78358e-02,1.23703e-01,2.47915e-01,1.91516e-01,3.77078e-03,-1.11457e-02,-1.97526e-01,1.25275e-03,-2.04951e-01,-1.38364e-01,-7.96121e-03,-9.45238e-02,2.38556e-01,-1.63466e-01,-7.54371e-02,-1.69857e-02,-1.61863e-01,-1.94803e-02,-3.16775e-02,1.45319e-01,1.57713e-02,1.51896e-01,-9.03867e-02,1.68011e-01,-1.71669e-01,9.58287e-02,-7.51330e-02,7.43305e-02,7.01955e-02,-2.50490e-01,7.59929e-02,-2.86336e-01,1.61790e-01,1.15371e-01,4.45807e-02,8.66654e-02,-9.96666e-02,2.08436e-01,-7.78149e-02,-1.45604e-01,9.87519e-02,-1.70633e-01,4.27183e-02,-3.23263e-02,4.27493e-02,-1.90091e-01,1.29788e-01,-2.30772e-01,-1.29093e-01,-1.05286e-01,-1.91920e-01,4.21643e-03,-6.68393e-02,1.69932e-01,2.09653e-01,8.39007e-02,1.23970e-01,-2.98615e-01,
1.14335e-02,-1.25569e-02,-2.27186e-01,-2.21338e-02,5.49847e-02,-6.65671e-02,-1.28965e-01,-1.40274e-01,-2.21499e-01,-1.40578e-01,2.39683e-01,2.10178e-01,1.30537e-01,-7.48463e-02,2.70693e-02,-1.85816e-01,-1.25377e-01,1.63343e-01,-1.92724e-01,1.64248e-01,7.89011e-02,1.63221e-01,6.51843e-02,-9.68047e-02,1.82679e-01,4.10109e-02,-1.02971e-01,-1.56133e-01,6.54060e-02,1.76812e-01,2.79306e-01,2.66486e-01,-1.69191e-01,-7.97925e-02,2.14579e-01,2.51594e-01,1.05310e-01,4.69846e-02,2.56402e-01,-1.75103e-01,-1.64798e-01,-2.12533e-01,-1.65295e-01,-8.63045e-03,-6.36348e-02,-8.56073e-02,1.58019e-01,-5.89948e-02,2.16120e-02,2.06050e-01,-2.05027e-01,1.38019e-01,1.61678e-02,-8.05297e-02,-2.90282e-02,-3.10286e-02,1.41516e-01,2.27090e-01,3.64672e-02,2.22681e-01,-2.44898e-01,3.28936e-02,-1.39632e-01,2.61594e-01,
-1.66021e-01,-1.01003e-01,-5.11562e-02,-7.89382e-02,-9.39101e-03,9.32736e-02,-4.66323e-02,-1.96228e-01,-8.91434e-02,1.63719e-01,-1.22734e-01,1.67995e-01,5.70723e-02,9.27193e-02,-6.76973e-02,-1.73681e-01,2.45115e-01,-6.81794e-02,-3.17495e-02,-2.73907e-03,-2.06071e-01,1.72027e-01,-2.31826e-01,-2.05339e-01,2.48502e-01,-2.88987e-02,-1.47462e-01,-1.61596e-01,-8.96104e-02,4.88737e-02,4.35334e-03,1.90484e-01,7.39597e-02,-7.24136e-02,-1.68848e-01,-2.85697e-02,-6.36214e-02,1.71223e-01,9.54443e-02,-1.04276e-01,-2.91327e-02,1.58730e-01,2.29403e-01,5.71892e-02,2.16976e-02,1.42892e-01,-6.95441e-02,-5.01463e-02,6.51919e-02,1.35605e-01,-8.29570e-02,-8.08313e-02,-1.97685e-01,-6.87712e-02,2.01017e-02,-1.33703e-01,-1.29958e-01,-2.10121e-02,1.94384e-01,7.28118e-03,-1.93058e-01,9.50441e-02,1.45525e-01,-1.62621e-02,
-1.17834e-01,4.92137e-02,1.63482e-01,1.99377e-01,1.86248e-01,-1.42465e-01,2.28735e-01,-7.82542e-02,-7.45322e-02,6.12403e-02,1.48047e-01,1.81755e-01,-2.29007e-01,-1.95716e-01,1.37074e-01,-2.10719e-01,1.80992e-01,-1.98828e-01,-1.83226e-01,4.05354e-02,1.87849e-01,-1.04835e-01,-1.44965e-01,-2.88654e-02,-8.51012e-02,5.27690e-02,-7.18297e-02,2.33609e-01,-1.11328e-01,7.64520e-02,1.00994e-01,-6.31189e-02,-2.37435e-01,1.99357e-01,-1.44874e-01,-1.24516e-01,4.27607e-02,1.04588e-02,-1.04772e-01,-1.32013e-01,3.35367e-02,-2.97015e-01,7.93212e-02,-2.90202e-02,-2.48758e-01,-2.42661e-01,-1.22601e-01,-1.70709e-01,-1.79351e-01,1.65567e-01,-2.92310e-01,-4.70372e-02,1.26542e-01,7.25214e-02,1.59897e-01,-1.70432e-01,1.21461e-01,-8.07738e-03,1.06750e-01,1.50281e-01,5.44150e-02,-4.23601e-02,-9.14766e-02,1.31197e-01,
7.00343e-02,3.17888e-02,-4.31833e-02,1.27905e-01,-1.85577e-02,2.11698e-01,8.05169e-03,-1.52226e-01,1.69123e-01,1.53147e-01,2.74640e-03,1.33822e-01,2.48095e-02,-1.24377e-01,-8.44954e-02,-1.64934e-01,8.40189e-02,-1.36208e-01,7.22918e-02,5.88307e-02,6.64843e-02,-3.22307e-02,-2.26668e-01,1.76368e-02,1.29014e-03,1.16061e-01,-2.28453e-01,2.26286e-01,1.26597e-01,-1.20004e-01,-4.27240e-02,7.64728e-02,1.46814e-01,-2.32943e-01,1.76926e-01,2.09827e-01,-1.75843e-01,-1.45301e-01,6.38681e-02,-3.98928e-03,5.60134e-02,1.73938e-01,-1.82486e-01,-9.67252e-02,-4.43476e-02,2.09381e-01,-2.23301e-01,-1.76907e-01,-2.63112e-02,2.45715e-01,1.31840e-01,2.29594e-01,-3.67748e-02,-2.27094e-01,6.94291e-02,-1.07637e-01,1.60112e-01,-1.04633e-01,9.73285e-02,1.66316e-01,-1.30263e-01,3.10616e-02,9.43249e-02,-2.42638e-01,
1.44622e-01,1.36560e-02,-6.56408e-02,5.45126e-03,1.27822e-01,-5.67821e-02,1.74883e-01,2.17408e-01,2.18566e-01,-1.44775e-01,-7.54830e-03,5.44260e-02,7.03392e-02,-1.95426e-01,-1.57743e-01,2.24506e-01,1.34746e-01,-7.27920e-02,1.69451e-01,-2.00718e-01,-8.13984e-02,1.50935e-01,-8.41234e-02,2.87497e-01,1.98635e-01,2.19449e-01,1.31841e-01,-1.14525e-01,-8.08846e-02,1.52819e-01,6.44233e-02,1.37708e-02,1.05206e-02,-7.75304e-02,2.19345e-01,2.50957e-01,-9.07567e-02,-1.16896e-02,1.44203e-01,2.68302e-01,-2.26231e-01,-1.67193e-01,2.03979e-01,1.35740e-01,1.62075e-01,7.83956e-02,1.56291e-01,-1.42018e-01,1.91561e-01,1.43927e-01,-1.85782e-01,2.34600e-01,1.99215e-01,1.42669e-01,1.80131e-01,1.16000e-01,2.76609e-01,-6.49440e-02,2.49871e-02,-1.74690e-01,1.32613e-01,2.14131e-01,9.61944e-02,-1.68141e-02,
-1.46517e-01,-2.69720e-01,-2.02951e-01,-8.07357e-02,1.57094e-01,2.34715e-01,-1.17677e-01,6.20762e-02,-2.04229e-01,3.14187e-02,2.79708e-02,1.64643e-01,-9.38057e-02,8.73119e-02,-7.64757e-02,6.32271e-02,-5.50356e-02,-2.90329e-01,-2.18569e-01,6.85351e-02,-7.46544e-02,-1.29364e-01,8.14275e-02,-1.54585e-01,-5.03951e-02,-1.18408e-01,-5.60617e-03,2.07595e-01,-1.94037e-01,-3.06901e-02,-1.36988e-02,-2.02987e-01,3.24779e-02,1.41750e-01,-2.05256e-01,-2.00617e-01,-6.54776e-02,6.28266e-02,6.08869e-03,1.73759e-01,-1.84031e-01,-7.71873e-03,-2.12486e-02,-1.26962e-01,-7.91438e-02,-4.39721e-03,8.44283e-02,1.19720e-01,-2.59221e-01,1.04457e-01,7.37281e-02,-2.40988e-01,6.01579e-03,6.66425e-02,7.65856e-02,3.89417e-02,4.39913e-02,1.58047e-02,1.59649e-01,6.40823e-02,-2.77923e-02,-1.08359e-01,1.41754e-01,-2.24802e-01,
2.22805e-01,-4.62957e-02,-2.48891e-01,-3.08747e-02,1.70791e-01,1.16569e-01,2.02584e-01,1.53899e-01,1.14707e-02,-1.50816e-01,2.20349e-01,2.20268e-02,1.76951e-01,-5.35786e-04,-1.02946e-01,1.61165e-01,-3.77401e-02,4.97672e-02,1.66706e-01,-1.11859e-01,-5.48910e-02,-5.01716e-02,-9.07537e-02,-2.11891e-01,-1.49605e-01,1.49636e-01,-1.59514e-03,1.34496e-01,4.05669e-02,-1.58726e-01,1.86448e-02,-1.30464e-01,2.34013e-02,-9.31841e-02,1.58765e-01,-1.18811e-01,2.08229e-01,2.85450e-02,-2.13297e-01,-6.70213e-03,-7.03140e-02,1.70273e-02,4.07938e-02,-1.19497e-01,1.41031e-01,-1.13095e-01,-1.00014e-01,-2.12564e-01,-2.82463e-02,-8.67296e-02,-2.26383e-01,2.83212e-02,-1.98247e-01,-2.34314e-01,-4.50071e-02,2.50362e-02,-2.28023e-01,2.48710e-01,-5.77704e-02,1.85374e-01,-1.63028e-01,-1.08512e-01,-2.41232e-01,-2.07003e-01,
-1.14070e-01,2.12268e-01,-1.83085e-01,5.24927e-02,1.89498e-02,7.71778e-02,7.59643e-02,6.93336e-02,3.58687e-02,-1.07105e-02,1.03135e-01,1.08850e-01,2.68206e-02,-1.50929e-01,1.54698e-01,8.44619e-02,-7.88958e-02,-3.11869e-03,-7.90702e-02,3.78183e-02,5.75370e-02,6.84982e-02,-1.45943e-02,-8.86862e-02,1.97673e-01,-9.32748e-02,6.06978e-02,-1.73629e-01,2.34717e-01,-5.85337e-02,-7.79802e-02,-1.76879e-02,-1.31209e-01,1.76499e-01,-2.41708e-01,-1.45459e-01,-1.57867e-01,-1.18478e-01,-1.11186e-02,1.64969e-01,-1.85311e-02,-1.01389e-01,1.46169e-01,-3.99097e-02,1.01262e-01,-1.65949e-02,9.33906e-02,2.33923e-02,4.82541e-03,6.05506e-03,-8.69761e-02,-2.38060e-01,-1.58086e-01,-1.79787e-01,-2.38096e-01,1.21546e-03,-4.88089e-02,3.91629e-02,-7.94410e-02,1.67226e-01,-1.64897e-01,2.26831e-01,-1.74167e-01,7.51805e-02,
1.20119e-01,-8.36907e-02,-1.95991e-01,-5.84738e-02,-2.06029e-01,-6.17055e-02,1.64319e-01,1.98261e-01,-2.05203e-01,1.43623e-03,6.96443e-02,-8.71718e-02,-2.11256e-01,-1.51495e-01,1.93450e-02,-1.63365e-01,-2.19874e-01,6.16525e-02,-1.21979e-01,2.23626e-01,1.37161e-01,1.61463e-03,2.43710e-01,-2.01095e-01,9.89023e-02,-1.70774e-01,-1.86798e-01,1.27668e-01,7.47854e-02,-7.53363e-02,-9.76903e-02,-7.78350e-02,1.41795e-01,-2.77549e-02,-2.35472e-01,-2.49434e-01,-2.10395e-01,5.86615e-02,5.84762e-02,8.75320e-02,-1.21323e-02,-1.99710e-01,-5.38475e-02,5.94605e-02,-1.79136e-03,-4.89340e-02,6.17445e-04,7.10565e-02,-5.67455e-02,-4.74182e-02,-1.29886e-01,-2.39925e-01,-1.03631e-01,-2.38305e-01,-1.20644e-01,-1.41525e-01,1.19288e-01,-8.12621e-02,-1.86740e-01,9.62494e-02,-2.48767e-01,1.72418e-01,-2.39004e-01,-1.20296e-01,
5.06035e-02,
0.00000e+00,
0.00000e+00,
-6.00477e-02,
4.87979e-02,
-7.26548e-02,
0.00000e+00,
-5.12226e-02,
-6.00364e-02,
-9.10380e-02,
-6.00405e-02,
0.00000e+00,
0.00000e+00,
-6.02367e-02,
0.00000e+00,
0.00000e+00,
-1.15539e-01,
0.00000e+00,
-6.00481e-02,
-1.32060e-01,
9.44304e-03,
0.00000e+00,
-5.53132e-02,
3.36049e-02,
0.00000e+00,
-6.00425e-02,
0.00000e+00,
4.83934e-02,
-5.10946e-02,
0.00000e+00,
0.00000e+00,
0.00000e+00,
-1.18850e-01,-2.92739e-01,2.30882e-01,1.09777e-01,1.74356e-01,-5.21063e-02,2.57984e-01,2.64838e-01,1.43530e-01,1.85262e-01,2.59279e-01,-3.27205e-01,3.30084e-01,2.10972e-02,1.31774e-01,-1.56206e-01,-2.61519e-01,1.67014e-01,-2.89565e-02,-3.20767e-01,1.25237e-01,3.53023e-01,1.35371e-01,-1.35836e-01,2.83595e-01,-2.28608e-01,-8.87911e-02,-9.92532e-02,-2.09499e-01,9.59122e-02,-3.08435e-01,4.19960e-02,
4.71163e-04,-8.08797e-02,1.67621e-01,1.08762e-01,-3.57825e-01,1.71672e-01,-1.51726e-01,-3.22688e-01,2.41604e-02,-2.70633e-01,9.07709e-02,2.85747e-01,-3.38602e-01,-1.74798e-01,3.37578e-01,-8.18264e-02,-1.55416e-01,2.92778e-01,-1.96993e-01,6.75815e-02,-2.36137e-01,-1.18148e-02,3.18382e-01,1.78820e-01,-1.54449e-01,-1.42069e-02,-1.17889e-01,-1.88617e-02,-1.61417e-02,2.33766e-01,2.75992e-01,-3.31574e-01,
-3.38030e-01,2.23376e-01,3.18807e-01,1.07016e-03,2.68771e-01,-1.27477e-01,-3.05920e-01,2.59544e-01,8.15205e-02,1.08889e-01,7.55456e-02,-3.14841e-01,2.47010e-01,3.68135e-02,-4.56786e-03,-3.79695e-02,9.36385e-02,2.12324e-01,-2.33420e-01,3.83336e-02,-2.37117e-02,-1.89405e-01,-2.23596e-01,2.06544e-01,-2.21842e-01,-3.88706e-02,-2.29884e-01,2.03460e-01,1.20567e-01,2.74505e-01,2.04882e-01,8.43195e-02,
-2.89742e-01,1.67055e-01,-2.33785e-01,2.47858e-01,-2.23698e-01,6.32922e-02,-3.02933e-01,-1.90746e-01,-2.79769e-01,1.27951e-01,2.36837e-01,2.42405e-01,1.91224e-01,3.56048e-01,-5.90172e-03,-2.70001e-01,3.96307e-01,-1.67407e-01,-1.45414e-01,1.65930e-01,-2.45536e-01,-1.60287e-01,2.00454e-01,1.94520e-01,-2.11084e-01,4.96944e-02,-2.35260e-02,2.27080e-01,-8.97902e-02,-1.52685e-01,-1.04839e-01,2.69636e-01,
-2.34598e-01,-2.54985e-01,2.89820e-01,-1.71477e-01,2.80525e-01,-1.29278e-01,7.93249e-02,-2.18675e-01,-1.22045e-01,-1.57250e-01,1.55468e-01,3.85621e-02,3.00214e-01,2.70327e-01,-1.80444e-01,-2.48004e-01,1.23521e-01,-4.75428e-02,-1.39989e-01,-3.62480e-01,1.57293e-01,-2.89677e-01,-5.67588e-02,-6.16997e-02,-5.32518e-02,1.38551e-01,1.36552e-01,1.60471e-01,8.90660e-03,-7.46135e-02,-2.30139e-01,2.17437e-01,
-1.13427e-01,-1.15438e-01,2.87759e-01,-1.34014e-01,-3.27458e-01,1.22551e-01,1.14870e-01,1.10009e-01,-3.44954e-01,1.67185e-01,1.42407e-01,-3.17784e-01,-2.55173e-01,2.61144e-01,2.53859e-01,-1.85743e-01,1.19152e-01,3.23411e-02,1.19437e-01,-3.10685e-01,-8.10188e-02,-2.75408e-01,2.08190e-02,-3.72285e-01,2.24502e-01,1.28983e-01,2.47363e-02,-1.47006e-01,1.94495e-01,1.85439e-01,1.39414e-02,4.84043e-02,
-1.13658e-01,2.89948e-01,-1.67974e-01,2.61551e-01,-1.81429e-01,-2.51701e-01,1.97829e-01,1.24888e-01,-9.61208e-02,-3.63036e-02,-4.71832e-02,-1.74589e-01,7.52976e-02,2.44238e-01,-1.54652e-01,1.15226e-01,1.17356e-01,9.56848e-02,1.80090e-01,-2.07131e-01,1.96590e-01,-9.72021e-02,-6.97718e-02,3.42508e-02,-1.67506e-01,3.22658e-01,2.16150e-01,3.90922e-01,-2.18471e-01,-3.15424e-02,-2.55828e-02,1.40502e-01,
-2.78030e-02,-7.36177e-02,-2.79084e-01,-2.57877e-01,2.59579e-01,-3.56200e-02,3.16972e-01,-1.21267e-01,-1.52641e-01,3.44763e-01,1.64659e-01,6.83624e-02,-9.52779e-02,-1.66996e-01,-1.49240e-01,1.84911e-01,-1.27238e-01,-2.81107e-02,2.07181e-01,-7.39695e-02,2.86330e-01,1.95787e-01,-3.47294e-01,-2.17777e-01,1.78963e-01,2.16743e-01,6.52273e-02,2.74905e-01,-5.93327e-02,-3.41421e-01,-1.21171e-01,2.53763e-01,
-1.21397e-01,-1.59387e-01,3.04549e-01,5.14199e-02,-3.38111e-01,7.17432e-02,-5.41958e-03,-2.64206e-01,2.53487e-01,-3.88131e-02,-2.94377e-02,-1.41098e-02,1.82638e-02,-1.59627e-01,-2.54620e-01,1.99136e-01,2.01245e-01,-3.11269e-02,-3.88667e-01,2.83829e-01,-1.32386e-01,1.34286e-01,-8.79605e-02,2.14856e-01,3.48093e-02,1.78200e-01,1.44036e-01,2.59147e-01,-2.18143e-01,-1.58236e-01,-9.86439e-03,-3.30205e-01,
-2.18076e-01,-2.31081e-01,-1.57483e-01,9.59967e-02,-2.37975e-01,-8.33440e-02,3.35436e-01,-1.75606e-01,-2.58849e-01,-3.36654e-01,2.13350e-01,2.97830e-01,-1.31862e-02,-6.07541e-02,-6.51946e-02,-1.19030e-01,-1.28960e-01,2.01499e-01,-2.49447e-01,6.44350e-03,-2.76955e-01,2.67774e-01,-3.00767e-01,2.10859e-01,2.17722e-01,-2.06459e-01,-1.71830e-01,-1.67595e-01,-5.39958e-02,-1.97608e-01,8.20886e-02,-1.06737e-01,
3.20885e-01,-1.28270e-01,-2.51885e-01,-2.25606e-01,1.83868e-01,1.22562e-01,-5.35938e-02,8.85449e-02,-2.67375e-01,-8.27160e-03,-9.11509e-02,1.10449e-01,3.02404e-01,1.24064e-02,1.57326e-03,-2.91648e-01,2.29073e-01,1.55544e-01,-1.06088e-01,-1.06045e-01,1.01356e-01,-1.68469e-02,1.09615e-01,6.39325e-02,-4.63446e-02,-8.04314e-02,-3.30378e-01,2.64547e-01,-2.05541e-01,2.26501e-01,-2.87261e-01,2.99769e-01,
2.82736e-01,-3.05331e-01,2.59599e-01,2.91582e-02,1.31717e-01,-1.19760e-01,1.54272e-01,-2.41214e-01,3.42855e-02,1.34348e-01,1.53514e-01,1.34144e-01,-2.28613e-01,1.29205e-02,-1.57582e-01,-1.56375e-01,-3.17766e-01,-2.51671e-01,9.86971e-02,1.69446e-01,5.72215e-02,3.02747e-01,6.64766e-02,9.11527e-02,-7.32505e-02,-1.79841e-01,3.24796e-01,-3.89813e-01,-1.40092e-01,5.62346e-02,-1.98657e-01,1.53068e-01,
-3.52480e-01,-2.16310e-01,-2.59723e-01,-1.50315e-02,9.45825e-02,-4.12156e-02,4.94260e-02,2.63125e-01,-3.24733e-01,-2.36715e-02,-3.68901e-01,-3.06492e-01,8.91202e-02,1.14776e-01,-1.69335e-01,1.38457e-01,1.99839e-01,2.62786e-01,6.08121e-02,1.93647e-01,-4.65931e-02,-1.69710e-01,2.28649e-02,-1.60717e-01,-1.17977e-01,-3.86182e-01,-2.69967e-01,-1.13370e-01,-2.19115e-01,-2.91730e-01,2.42369e-01,-3.50196e-01,
-2.47454e-01,-1.30579e-01,-3.28046e-01,-3.33109e-01,1.64165e-01,-2.76380e-01,-9.56715e-02,1.42142e-01,-2.72043e-01,-6.98951e-02,-3.06562e-01,2.08593e-01,6.85877e-02,-6.22675e-02,2.80311e-01,2.19750e-01,-6.11865e-02,-4.93411e-02,-3.34779e-01,-1.47440e-01,1.71836e-01,-2.02608e-01,2.13081e-02,1.97000e-03,1.20779e-01,1.74267e-01,-2.03469e-01,1.82347e-01,2.94612e-01,2.01822e-01,1.81207e-01,-2.12935e-01,
3.31283e-01,7.50796e-02,2.78443e-01,-1.21384e-01,-3.27424e-01,-1.32108e-01,-1.30679e-01,2.36495e-01,1.66801e-03,-3.34278e-01,9.97927e-02,2.21180e-01,3.44990e-01,-8.93230e-02,-2.53641e-01,-2.56720e-02,1.88986e-01,-1.78182e-01,3.07256e-01,-2.87650e-01,-2.59708e-02,-2.96346e-01,-1.81943e-01,-7.67637e-02,-2.53181e-01,2.10275e-02,-2.75445e-01,-1.26859e-01,1.52653e-01,9.77260e-02,3.05435e-01,-1.55547e-01,
-2.89187e-02,1.21136e-01,2.41087e-01,2.26980e-01,1.43893e-01,4.57015e-02,-2.79635e-01,1.67972e-01,3.53948e-04,1.26710e-01,-1.65908e-01,-4.70578e-02,-2.10665e-01,1.06740e-01,2.07470e-01,-1.48232e-01,2.72612e-01,2.23084e-01,-1.67404e-01,-3.36646e-01,1.18671e-01,-1.01568e-01,-3.96865e-01,-3.17140e-01,8.60183e-02,9.18252e-04,2.85096e-02,5.46966e-02,-2.88826e-01,2.51798e-01,-1.95791e-01,1.18759e-01,
0.00000e+00,
-5.90831e-02,
-6.64489e-02,
4.61138e-02,
-2.67802e-02,
-6.00522e-02,
1.11172e-01,
7.27869e-02,
-3.77336e-02,
0.00000e+00,
5.25463e-02,
-5.12602e-02,
-5.37186e-02,
-1.17904e-02,
0.00000e+00,
-7.29660e-02,
-1.16071e-01,3.42323e-01,-1.32172e-01,3.19131e-01,1.75565e-01,2.97162e-01,1.17376e-01,-4.05639e-01,3.88177e-01,1.17784e-01,8.01517e-02,2.92433e-01,4.30095e-01,1.78627e-01,-2.27072e-01,4.48202e-01,
4.56095e-01,-4.73158e-01,-1.39003e-01,-3.29279e-01,4.83142e-01,1.71207e-01,-4.86493e-02,4.42959e-01,2.08460e-01,4.18706e-01,-3.13049e-01,2.03344e-01,2.63992e-01,5.83789e-01,-3.12741e-01,1.82901e-01,
3.23542e-01,4.13723e-01,-4.73007e-01,4.75361e-01,3.73798e-01,-4.83645e-01,-3.30309e-01,1.16597e-01,-2.52197e-01,-3.19577e-01,-4.71837e-01,2.75269e-01,1.30245e-01,-4.30262e-01,4.30715e-02,1.10532e-01,
-3.86022e-01,-7.75028e-02,-5.90682e-02,-1.04275e-01,-2.76190e-01,-1.99154e-01,5.35011e-01,-1.36269e-03,3.13666e-01,3.41243e-01,3.08953e-01,2.37953e-01,3.68741e-01,-2.12243e-01,3.68879e-01,1.85428e-01,
4.87289e-01,1.66392e-01,-4.34180e-01,-2.46680e-01,-1.24215e-01,-9.16871e-02,2.88242e-01,2.06165e-01,-1.84315e-01,-2.95782e-01,-1.77929e-01,-1.12152e-01,-2.25817e-02,4.98488e-01,-1.53680e-01,4.08456e-01,
2.00347e-01,2.39990e-01,3.79869e-02,-3.93391e-01,-1.21952e-01,2.26137e-01,3.39200e-01,-3.42633e-02,-2.24265e-02,3.49532e-01,-4.61825e-01,-2.56898e-01,2.58581e-01,4.74288e-02,-1.16104e-01,5.17073e-02,
2.52497e-01,3.87918e-01,4.79257e-01,2.02102e-01,-4.51367e-01,4.88580e-02,4.57147e-02,9.63488e-02,1.99635e-01,-3.09598e-01,3.67957e-01,3.48890e-02,1.42785e-01,-1.05997e-01,1.53390e-02,4.31366e-01,
1.48824e-01,-3.08569e-02,3.96033e-01,3.59437e-01,-1.20860e-01,2.65436e-01,-1.79068e-01,-4.24940e-01,-5.47351e-01,-2.80712e-01,-5.56934e-01,-4.17479e-01,-1.96967e-01,2.65368e-01,1.08922e-01,-3.56499e-01,
-4.14284e-02,
-2.14503e-02,
0.00000e+00,
6.57462e-02,
0.00000e+00,
-6.00537e-02,
1.90923e-02,
-6.00458e-02,
8.58007e-02,-5.53805e-01,6.24819e-01,-6.25368e-01,4.48531e-01,1.28608e-01,1.96839e-01,-3.14740e-01,
1.29194e-01,-1.69297e-01,6.89283e-01,1.91991e-01,6.97437e-01,4.39799e-01,-6.94656e-01,6.52557e-01,
-1.15851e-01,-5.72098e-01,-4.06540e-01,-4.95399e-01,-5.86952e-01,1.24039e-01,-5.33540e-02,2.18986e-01,
-7.59358e-02,-3.25338e-01,-1.93910e-01,-4.77757e-01,4.75238e-01,-5.49824e-01,3.28423e-01,-2.47030e-01,
-4.18650e-02,
0.00000e+00,
0.00000e+00,
3.38868e-02,
-1.96785e-01,-7.93014e-01,6.20167e-01,1.94041e-01,
8.67607e-01,
