// Neural Network File Format by Kyle Julian, Stanford 2016
3,20,1,20,
20,16,8,1,
0,
0,0,0,0,0,0,0,1,0,1,0,0,0,0,1,0,1,0,0,0,
2,80,2,9,20000,2,2,4,2,4,2,1,2,2,4,3,2,1,1,1,
0,0,0,0,0,0,0,1,0,1,0,0,0,0,1,0,1,0,0,0,0,
2,80,2,9,20000,2,2,3,2,3,2,1,2,2,3,3,1,1,1,1,1,
2.15133e-01,-8.48137e-02,-8.37842e-02,7.63718e-02,-1.20967e-01,-6.44363e-02,1.68922e-01,1.73258e-02,-1.69225e-01,-3.02107e-01,-1.63298e-01,2.29841e-01,-2.47782e-01,3.57127e-01,2.45970e-01,-3.85542e-01,-3.36906e-01,6.37919e-04,3.58569e-01,5.05523e-02,
-4.89983e-01,-2.39455e-01,-2.80846e-01,3.06546e-01,3.04070e-01,2.63220e-01,-4.12636e-01,2.87765e-01,2.97962e-02,-3.35849e-01,2.74359e-01,-3.44515e-02,-4.44167e-01,-6.20991e-02,3.11895e-01,2.65350e-01,3.50282e-02,-4.04759e-01,-1.28135e-01,-3.32762e-01,
-1.75714e-01,-5.35796e-02,-4.19070e-02,-2.67306e-01,3.28676e-01,1.65653e-01,-2.81922e-01,1.78034e-01,-5.84313e-01,1.64526e-01,-2.88166e-01,-4.60053e-02,3.02761e-01,-2.01392e-01,-5.15394e-03,-3.78510e-01,1.13721e-01,7.87638e-02,-2.57350e-01,-5.90441e-02,
-3.36311e-01,-1.89014e-01,1.93736e-01,-3.17491e-01,-3.69891e-01,2.25556e-01,-2.69434e-01,-3.18924e-03,-2.17499e-01,4.34628e-02,1.42030e-01,-2.84581e-01,1.27620e-01,2.83425e-01,-3.86965e-01,-6.24083e-02,-3.13722e-01,-2.50352e-01,3.35648e-01,7.03186e-02,
1.60452e-01,-4.69083e-03,-2.18560e-01,7.97243e-02,-3.81554e-01,3.47656e-01,-4.16473e-03,2.44061e-01,-3.11507e-01,-2.47843e-01,2.01508e-01,2.80690e-02,2.39840e-03,-1.58873e-01,3.12531e-01,-2.60205e-01,-5.64464e-02,2.50304e-01,1.81933e-01,-1.18541e-01,
1.61662e-02,-3.45133e-02,-7.75257e-02,-3.77313e-01,2.41015e-01,-1.14548e-01,2.92679e-02,-3.12515e-02,-9.97998e-02,-2.45548e-01,-4.29621e-01,-1.86543e-01,7.46886e-02,3.82447e-02,-1.58609e-01,-2.82231e-01,2.98696e-01,4.38732e-01,5.73401e-01,-1.56735e-01,
5.75172e-01,-1.91307e-01,1.18134e-01,3.06585e-01,3.89989e-01,2.15582e-01,-3.91182e-02,-1.13630e-02,3.22418e-01,-2.50128e-01,-2.54704e-01,-1.91816e-01,2.95487e-01,-8.71976e-02,2.17307e-01,2.56751e-01,-7.53305e-02,-1.55249e-01,4.99772e-01,2.55157e-01,
1.97511e-01,-3.88275e-01,-1.89584e-01,-2.25416e-01,-2.10332e-01,-2.40041e-01,1.02627e-01,2.92754e-01,5.97184e-02,2.89357e-01,2.44139e-01,8.30999e-03,2.21661e-01,-1.27006e-02,-1.38202e-01,-3.22983e-01,2.76842e-01,-7.43389e-02,-4.56910e-02,3.63740e-01,
4.03063e-02,-9.18541e-02,-1.77585e-01,8.86997e-02,-1.33108e-01,3.36425e-01,-3.19071e-01,-3.57263e-01,-3.57218e-02,-1.30960e-01,3.65564e-01,-1.45009e-01,-3.03811e-01,3.94333e-01,-1.39250e-01,-2.32053e-01,6.36992e-02,2.71781e-01,-2.08454e-01,2.55454e-02,
6.78043e-02,-4.07691e-01,1.75204e-01,-3.65227e-01,2.12975e-01,4.39538e-01,3.47676e-01,-1.50461e-01,1.83874e-02,-1.90975e-01,1.32132e-01,3.54405e-01,3.41220e-01,-2.52810e-01,-1.98713e-02,2.48436e-01,1.39544e-01,-1.50027e-01,3.34015e-01,1.81460e-01,
3.33453e-01,2.83747e-01,2.96643e-02,7.43157e-02,3.50271e-02,-3.09721e-01,1.64216e-01,-5.76159e-02,3.01143e-01,7.05708e-02,-1.26374e-02,4.85838e-01,3.74859e-01,-7.79258e-02,-1.75942e-01,-2.32918e-01,-2.93696e-02,-1.67034e-01,5.13272e-01,4.20472e-02,
-5.65422e-01,6.03065e-02,-5.10946e-01,-2.87126e-01,1.68906e-02,-4.75831e-01,-1.86148e-01,-1.98716e-01,1.75022e-01,1.31102e-01,3.05992e-01,9.32072e-02,-7.75555e-02,2.48855e-01,1.82788e-01,-2.69532e-01,-3.46174e-01,-2.22869e-01,-4.30950e-01,-4.11863e-02,
-2.61530e-01,4.47503e-01,-5.19376e-01,2.35617e-01,4.46194e-02,-2.49724e-01,-4.73584e-01,2.16992e-01,-8.58269e-04,-9.09606e-02,1.26160e-01,-3.43873e-01,-5.77099e-02,2.52089e-01,3.09826e-01,-1.79766e-02,2.12510e-01,-3.35903e-01,-2.92958e-01,1.88635e-01,
-1.89416e-02,5.54333e-03,-4.19347e-01,9.39681e-02,3.35066e-01,-3.04275e-01,-4.08363e-01,3.81262e-01,1.60746e-01,-4.27217e-01,7.34788e-02,-2.29437e-01,3.07914e-01,8.57833e-02,-3.34807e-01,1.52014e-01,-2.12650e-01,-2.43016e-01,-6.49002e-01,-4.78096e-01,
1.29179e-01,1.16270e-01,-8.88588e-02,3.17493e-01,-5.50916e-02,-3.78072e-01,-1.07834e-01,-1.00603e-02,3.50140e-01,1.11430e-01,-5.60393e-02,-1.33300e-01,-5.74304e-02,3.08062e-01,-2.21884e-01,2.07252e-01,3.90565e-02,-3.78183e-01,2.80507e-01,-5.78837e-02,
2.50731e-01,-1.30478e-01,3.73695e-01,3.40718e-01,1.54720e-01,2.94899e-01,1.62953e-01,1.63184e-02,3.09602e-01,2.23953e-01,-1.43663e-01,8.12847e-02,2.65083e-01,-3.93392e-02,1.36989e-01,2.33424e-02,1.95462e-01,3.12328e-02,4.40678e-01,4.92395e-01,
0.00000e+00,
-4.88941e-02,
-4.83057e-02,
0.00000e+00,
0.00000e+00,
4.57004e-02,
4.68522e-02,
0.00000e+00,
0.00000e+00,
4.58070e-02,
4.75282e-02,
-4.81366e-02,
-4.91361e-02,
-4.89243e-02,
0.00000e+00,
4.63914e-02,
9.79867e-02,-1.75955e-01,-1.02686e-01,-1.89204e-01,-9.46033e-03,4.53661e-01,4.58913e-01,1.92361e-01,3.39753e-01,3.62524e-01,1.61363e-01,1.93626e-03,-6.88447e-03,4.98890e-02,-3.71218e-01,-5.78966e-02,
-2.89735e-01,-3.89832e-01,-2.17794e-01,-1.02387e-01,3.58117e-01,3.84397e-01,-2.70683e-01,-2.86678e-01,3.47752e-01,1.85033e-01,-3.32850e-01,-6.80363e-03,-8.41651e-02,3.82663e-01,-2.40571e-01,-4.56531e-02,
3.41158e-01,2.56609e-01,1.04366e-01,-2.26822e-01,-3.21105e-01,2.89475e-01,-9.63008e-02,4.93177e-01,-3.89615e-01,2.79753e-01,-3.75527e-01,4.06353e-01,-1.57060e-02,1.09709e-01,-7.95475e-02,-5.20777e-01,
1.57723e-01,3.36053e-01,-2.96758e-01,1.33841e-01,-9.73580e-02,4.73234e-02,3.58965e-01,-4.07297e-01,2.46765e-01,4.53893e-02,-1.94514e-01,-1.29532e-01,4.82092e-01,1.34444e-01,9.68269e-02,1.02378e-01,
-2.14861e-01,-4.38223e-01,1.80825e-01,-2.03750e-01,5.91867e-02,-3.17413e-01,-3.54718e-01,-4.37729e-01,-3.70883e-01,4.84906e-02,3.67288e-01,-2.86676e-01,-1.03002e-01,3.17573e-01,-2.57615e-01,-1.26597e-01,
-4.01524e-01,1.85402e-01,-1.18335e-01,-1.90526e-01,4.83570e-01,-2.23613e-03,4.64746e-02,-4.75043e-01,-3.21252e-01,2.86578e-02,4.08235e-01,-2.54950e-01,-3.56501e-01,3.38192e-02,1.02756e-01,-3.91356e-01,
4.03456e-01,5.67014e-02,1.70051e-01,2.16658e-01,3.82228e-01,-1.06391e-01,-4.61353e-02,-2.00604e-01,4.77629e-02,-1.32153e-01,-4.38947e-01,2.42143e-01,3.44152e-01,2.13170e-01,4.80491e-01,1.27928e-01,
-2.62351e-01,-3.88820e-01,-3.08193e-01,1.17630e-02,-1.66317e-01,-4.45424e-01,-4.42582e-01,-2.05035e-01,4.16869e-01,2.27948e-02,-3.63398e-01,2.10384e-01,-3.83398e-01,-4.28691e-01,4.37832e-02,-3.25930e-01,
4.74518e-02,
0.00000e+00,
-4.81797e-02,
4.62414e-02,
0.00000e+00,
0.00000e+00,
-4.80524e-02,
0.00000e+00,
2.21564e-01,-2.42618e-01,-2.31068e-01,6.82424e-02,-3.69557e-01,4.41900e-01,-4.71112e-01,5.96152e-01,
4.79607e-02,
