// Neural Network File Format by Kyle Julian, Stanford 2016
6,20,1,64,
20,64,32,16,8,4,1,
0,
0,0,0,0,0,0,0,1,0,1,0,0,0,0,1,0,1,0,0,0,
2,80,2,9,20000,2,2,4,2,4,2,1,2,2,4,3,2,1,1,1,
0,0,0,0,0,0,0,1,0,1,0,0,0,0,1,0,1,0,0,0,0,
2,80,2,9,20000,2,2,3,2,3,2,1,2,2,3,3,1,1,1,1,1,
3.80566e-02,2.29571e-01,2.59418e-02,1.32956e-02,-2.09812e-01,1.16115e-01,-1.07221e-01,-2.09203e-01,1.74345e-01,1.94706e-01,1.97901e-01,-4.88884e-02,-3.69595e-02,2.46493e-01,-2.09975e-01,-2.18059e-01,-3.59326e-02,-1.76719e-01,-1.93551e-01,2.03600e-01,
-3.52600e-01,2.15567e-01,6.73558e-02,-1.35564e-01,1.19137e-01,-4.63526e-03,-1.10543e-02,-1.00058e-01,1.40095e-01,-2.97378e-01,-2.01378e-01,-1.81056e-01,-3.40186e-01,2.06596e-01,-1.03971e-01,-2.96264e-01,-2.02321e-01,1.53552e-02,-3.27760e-01,-3.51431e-01,
2.53347e-01,-2.20877e-01,1.67132e-01,7.84527e-03,8.47292e-02,2.96931e-01,-3.87803e-02,-1.78661e-01,-8.96017e-02,7.27103e-02,-2.54471e-01,1.44210e-01,-8.40618e-02,-1.12681e-01,1.15999e-01,2.15316e-01,6.40227e-02,-1.50139e-01,6.31389e-02,1.81472e-02,
2.72403e-02,1.23855e-02,2.05952e-01,-1.85021e-01,-2.43022e-01,1.51811e-01,4.36647e-02,5.43342e-02,-7.21214e-02,-1.47892e-01,-1.25469e-01,2.35117e-01,-7.92102e-02,-5.67783e-02,-5.71801e-02,-8.65779e-02,1.34328e-01,2.15657e-01,9.70809e-02,-1.10236e-01,
3.42255e-01,-1.39726e-01,6.86558e-02,8.77586e-02,1.40284e-01,7.28129e-02,4.43092e-02,4.84783e-02,2.85943e-01,2.21255e-01,5.64985e-02,-7.68508e-02,-7.56436e-02,-1.65401e-01,-2.07380e-01,2.32471e-01,1.96274e-01,-4.73664e-02,4.01878e-01,1.99248e-01,
9.27421e-02,9.39885e-03,1.50807e-01,1.34957e-01,-2.14765e-01,5.67656e-02,1.61209e-01,-2.50457e-01,-3.39997e-03,1.98661e-01,-4.98641e-03,-3.44975e-02,1.47179e-01,4.99603e-02,-2.04833e-01,2.30189e-01,1.53031e-01,-2.50239e-01,-2.28444e-01,2.16700e-01,
-2.63580e-01,1.19778e-01,4.33061e-03,-2.10680e-01,-1.91965e-01,-1.18584e-01,-2.33966e-01,1.61841e-01,-1.46325e-01,1.17097e-01,-1.68692e-01,2.45989e-01,1.74875e-02,-2.28738e-01,-2.55417e-01,-1.10554e-01,-1.44086e-01,2.57578e-01,-9.20702e-02,7.14693e-02,
5.20864e-02,-1.48305e-01,-8.08024e-02,1.52852e-01,-1.91170e-01,1.10099e-01,-2.11161e-01,-3.54679e-02,1.65599e-01,1.02049e-01,2.39925e-01,4.28715e-03,2.07357e-01,6.85220e-02,-1.63915e-01,1.96652e-02,5.95173e-02,1.16833e-01,4.07357e-02,2.09531e-01,
1.21685e-01,1.35969e-01,2.58569e-01,-9.91031e-02,-8.21593e-02,-1.25069e-01,-2.64294e-01,1.24391e-01,2.00347e-01,1.85388e-02,-2.24761e-01,-1.51891e-01,1.67103e-01,-2.27016e-01,4.95463e-02,-8.33056e-02,-2.54795e-01,1.74573e-01,7.71260e-02,-1.69612e-01,
-8.11583e-02,-9.46348e-02,1.82176e-01,1.83809e-02,2.50407e-01,2.37158e-01,1.37169e-01,-1.68983e-01,2.55803e-01,1.95814e-01,1.87226e-01,-1.06159e-01,6.82746e-02,-1.98299e-01,2.85993e-01,1.66582e-01,5.52015e-03,1.64246e-01,1.76919e-01,1.56741e-01,
-2.23352e-01,-6.13329e-02,-2.73979e-01,1.48868e-01,1.96859e-01,5.65864e-02,-1.29654e-02,-8.67566e-02,-2.42340e-02,7.59667e-02,4.68548e-02,-3.24132e-01,-1.99560e-03,-3.03408e-01,-6.28719e-02,-1.39646e-01,-1.32787e-01,-5.88964e-02,-3.90787e-02,1.38858e-02,
3.32783e-01,1.58035e-01,2.07789e-03,3.92377e-02,1.17159e-02,1.40792e-01,2.65656e-01,-1.05562e-01,1.85923e-01,-2.06099e-01,-3.83515e-02,1.06303e-01,2.17303e-01,2.48170e-01,2.09014e-02,1.97394e-01,9.33620e-02,-1.63905e-01,4.39877e-01,1.18336e-01,
9.81798e-02,1.75524e-01,1.59613e-01,1.26878e-01,-1.26502e-01,-7.02387e-02,1.56588e-01,6.84308e-02,-1.46606e-01,1.17202e-01,4.51539e-02,-1.59268e-01,2.65179e-01,1.99467e-02,1.35576e-01,-2.40920e-01,3.34758e-02,-1.33372e-01,-1.14545e-01,-1.21478e-01,
-9.62969e-02,1.28412e-02,-2.89564e-01,1.94860e-01,2.06183e-01,-2.08751e-01,-1.20157e-01,1.29820e-01,-3.34310e-01,4.11633e-02,-4.42254e-02,-1.05293e-01,-1.44494e-01,-3.92863e-02,1.49018e-01,-9.85665e-02,-1.31550e-01,-3.22506e-01,-2.96761e-01,-3.08748e-01,
3.39373e-01,2.20138e-01,2.99685e-01,2.52014e-01,6.57397e-02,2.47045e-01,2.63411e-01,-1.54204e-01,2.79054e-01,-2.33630e-01,1.48310e-01,-3.73553e-02,1.58411e-01,1.48671e-02,1.38119e-01,9.62741e-02,-1.26502e-01,-1.28973e-01,5.22642e-02,-1.62699e-01,
2.19643e-01,-9.19067e-02,-2.55279e-01,-1.80764e-01,-1.05159e-01,-8.35971e-02,-2.64504e-01,-1.23910e-01,-1.73834e-01,6.66499e-02,2.60067e-01,-3.36636e-02,9.23901e-02,1.53333e-01,-7.94853e-02,9.87867e-02,-7.49825e-02,1.33471e-01,5.19991e-02,8.60889e-02,
-8.64361e-02,-1.09353e-01,-1.96770e-02,1.55254e-02,1.14602e-01,-1.70578e-03,1.30021e-01,2.48832e-01,1.17810e-01,-1.12033e-02,-1.98671e-01,2.70390e-01,2.02710e-01,1.47391e-01,2.16628e-01,3.85029e-02,1.70041e-01,9.07251e-02,3.61244e-01,1.37440e-01,
-1.16100e-01,1.14127e-01,1.44491e-01,1.40376e-01,1.47724e-01,6.90646e-02,1.23574e-02,-4.00759e-02,1.66655e-01,-2.23977e-01,5.89345e-03,-5.30983e-02,-1.09736e-01,4.15339e-02,-4.85833e-02,2.62679e-01,6.04457e-02,-1.91144e-01,9.95833e-02,-1.47193e-01,
-2.37530e-01,3.04153e-02,2.30296e-01,-2.66104e-01,-1.29249e-01,-1.31286e-01,1.83281e-01,1.14150e-01,-2.40569e-01,8.69270e-02,2.40341e-01,-6.53490e-02,1.47469e-02,2.45546e-01,-1.61126e-01,1.22118e-02,8.70195e-02,-1.49759e-02,-2.10100e-01,1.66467e-01,
-1.32418e-01,-6.86005e-02,4.86280e-02,-1.81935e-01,7.10048e-02,4.95036e-02,-2.28873e-01,2.07779e-02,-2.30103e-01,-2.60623e-01,-5.41648e-02,1.48518e-01,-1.69463e-01,-5.52715e-02,2.80748e-02,-2.21420e-01,1.54259e-01,-1.54094e-01,-4.03306e-01,8.56498e-02,
6.41484e-02,-1.53871e-01,-1.25262e-01,1.98735e-01,6.44830e-02,2.88007e-02,-1.72781e-01,1.30230e-01,6.75689e-03,-1.46910e-01,-4.80751e-02,-1.06115e-01,2.38536e-01,1.63682e-01,-2.39987e-01,-8.73893e-02,-2.37902e-01,6.99046e-02,8.36924e-02,1.88034e-01,
8.10086e-02,1.73266e-01,8.87908e-02,2.61036e-01,-2.42676e-01,-1.40877e-01,1.57745e-01,-2.02082e-02,1.69999e-01,1.99476e-01,-2.58474e-01,1.16100e-01,7.72071e-02,-1.74345e-01,-7.19773e-02,3.57203e-02,-6.44959e-02,-2.83524e-02,-2.32732e-01,-2.62680e-01,
-9.39016e-02,-1.05578e-01,8.42494e-02,1.31452e-01,-2.60162e-01,-9.70336e-02,-8.23222e-02,-5.92722e-02,-1.68844e-01,-2.23929e-01,2.90048e-03,5.07727e-03,-5.69184e-02,-9.43773e-02,2.59886e-01,-2.62141e-01,-2.53583e-01,1.93424e-02,-1.48841e-01,-1.00886e-01,
2.41647e-01,-1.66299e-01,2.56040e-01,1.69703e-01,-5.88025e-02,1.06675e-01,1.23499e-02,1.98126e-01,-5.06494e-02,2.41719e-01,-1.30758e-01,1.45832e-01,-3.19093e-02,1.79540e-02,-1.22550e-01,-4.69513e-02,6.47806e-02,1.21559e-01,4.67986e-02,6.33952e-03,
-1.01768e-01,3.70475e-02,3.07851e-02,-1.04741e-01,2.65238e-02,1.56391e-01,-1.05685e-01,2.17588e-01,-3.74654e-02,-1.87421e-01,1.87018e-03,3.27912e-01,-1.94406e-01,1.64740e-02,-1.70970e-01,8.72712e-02,-1.82328e-01,-6.82745e-02,3.10647e-01,1.06227e-01,
-5.95254e-02,-1.51492e-01,-1.22371e-01,-1.11051e-02,-1.08610e-01,2.50848e-01,6.28475e-02,-2.46117e-01,-3.50236e-02,-1.08162e-01,2.46700e-01,1.23768e-01,1.60355e-02,8.44734e-02,1.01846e-01,-9.80845e-02,7.55807e-02,9.97503e-02,-9.06114e-02,-1.72731e-01,
1.78813e-01,-1.45143e-01,1.02248e-01,2.13557e-01,1.82734e-01,-1.54553e-01,-5.82371e-02,4.63978e-02,3.08791e-01,-1.02854e-01,-2.45612e-01,-2.37172e-02,-1.58451e-01,2.72188e-01,-9.11697e-02,1.33698e-01,-1.42859e-01,8.81369e-02,3.89845e-01,8.03548e-02,
1.56216e-01,-7.25426e-02,-8.89775e-02,2.02601e-01,-1.35498e-02,1.39078e-01,-3.82209e-02,1.06974e-01,5.96880e-02,-5.36964e-02,-1.49319e-01,1.06778e-01,-2.28035e-01,1.70158e-01,7.42104e-02,7.25850e-02,-3.54259e-02,-1.70250e-01,-9.58223e-02,2.46597e-01,
1.60851e-01,6.19951e-03,-2.26360e-02,5.52606e-02,-2.13729e-01,1.92526e-01,1.18164e-01,1.70055e-01,7.66436e-02,1.08245e-01,-1.06221e-02,2.47302e-01,-4.77270e-02,1.81170e-01,1.36330e-01,2.48652e-01,-1.46430e-01,1.06734e-01,2.67099e-01,-5.76081e-02,
-9.67029e-02,-8.81314e-02,-7.13276e-02,1.84065e-01,-2.20785e-01,-1.21107e-02,-6.22077e-02,-9.01282e-02,1.00359e-01,5.95342e-02,2.39150e-01,-2.26871e-01,1.54408e-01,-1.03139e-01,-1.64304e-01,-3.31026e-02,-2.54345e-03,1.36942e-01,2.26305e-01,-1.39770e-01,
-2.41669e-01,1.33816e-01,-1.23490e-01,1.37285e-01,-1.99789e-01,-9.73751e-02,-3.53220e-02,-1.24475e-01,-2.49222e-01,-2.26982e-01,4.80154e-02,-2.43285e-01,-2.16705e-01,2.31720e-01,-2.63834e-01,-2.25032e-01,-1.13715e-01,-2.29702e-01,-4.38095e-02,-1.15541e-01,
-1.38385e-01,2.88768e-03,1.41840e-01,2.31855e-02,2.52708e-01,-1.21034e-01,8.70197e-02,-2.77666e-01,-1.22858e-01,-2.35691e-02,-1.15379e-01,-1.00977e-01,-7.13714e-02,-2.16597e-01,-1.94064e-01,-7.93678e-02,-2.29826e-01,5.85385e-02,2.06101e-02,-2.96665e-01,
5.52671e-02,2.33204e-01,-2.54814e-02,9.77096e-03,-4.18602e-02,2.57203e-01,-6.96400e-02,1.84900e-01,-1.85029e-01,-1.51651e-01,1.17623e-01,-8.80985e-02,5.40141e-02,1.95294e-01,2.29395e-01,-2.32340e-01,-2.11257e-01,-1.40295e-01,1.36730e-01,-8.26570e-02,
-9.70632e-02,-2.73540e-01,1.06295e-01,2.67840e-01,7.87764e-02,-6.77257e-02,1.25440e-01,-1.83714e-01,-2.95080e-02,1.27772e-01,-2.16009e-01,5.42833e-02,3.01326e-01,-2.22292e-01,7.46173e-02,2.15383e-01,-3.59930e-02,-1.42473e-01,3.96545e-01,-1.05500e-01,
2.65226e-01,-2.07944e-01,-1.69792e-02,1.32366e-01,-1.74511e-01,2.63894e-02,-1.91885e-01,-2.01192e-01,-2.26122e-01,1.96532e-02,1.13524e-01,1.44589e-01,2.56227e-01,-2.08833e-01,-2.34955e-01,1.27549e-01,3.29571e-02,1.23990e-01,1.86282e-02,-1.79968e-01,
-1.22854e-04,-5.21099e-02,1.29634e-02,-1.28447e-01,1.67153e-01,-9.10137e-02,-3.03541e-01,-1.07507e-01,1.13127e-01,4.73120e-02,5.76513e-02,-3.06367e-02,-2.90260e-01,-2.34600e-02,1.25660e-01,2.77974e-02,-2.97423e-01,-2.72312e-02,-1.01537e-01,1.58205e-01,
1.72109e-02,-9.44643e-02,-1.79470e-01,-2.59143e-01,-1.19915e-01,-2.11439e-01,-1.12694e-01,-1.22005e-01,-2.80499e-02,5.22824e-02,1.95735e-01,3.05882e-03,-1.81249e-01,-1.63838e-01,-9.16381e-02,-2.19819e-01,5.52035e-02,-2.60161e-01,9.83506e-03,-1.77549e-01,
-3.08172e-02,2.66704e-01,1.72130e-01,2.29385e-01,-2.32038e-01,-2.25160e-01,4.19164e-03,-7.11989e-02,-2.66065e-01,2.65918e-01,-1.30446e-01,2.29863e-01,-2.35736e-02,-1.56333e-01,1.12964e-01,-6.46203e-02,4.65101e-02,1.65760e-01,-8.81978e-02,-2.82096e-02,
-1.36893e-01,-2.43221e-01,-7.41751e-02,2.81340e-01,2.09106e-01,1.92434e-01,7.34062e-02,-2.10268e-02,-9.84899e-02,2.69634e-01,-1.51602e-01,3.69701e-02,2.95804e-01,-1.66445e-01,-8.07980e-02,-2.64054e-02,2.03688e-01,2.60128e-01,-3.86262e-02,2.17531e-01,
-9.59251e-02,2.16232e-01,-1.46258e-01,7.83768e-03,-1.13380e-01,2.01970e-01,1.36238e-01,1.26724e-01,-2.08356e-01,1.74297e-01,1.47662e-01,1.82730e-01,1.88465e-01,1.31071e-01,-9.85069e-02,1.17456e-02,1.54472e-02,1.03864e-03,-1.42256e-01,2.42362e-01,
1.67640e-01,7.31671e-02,1.91814e-01,-1.28898e-01,6.25542e-02,2.74919e-02,-2.01452e-01,-2.35522e-01,-1.96215e-01,-3.80581e-03,-1.78467e-01,1.42103e-01,8.74740e-02,1.01230e-01,-1.28957e-01,5.67937e-02,-1.80030e-01,1.93452e-01,4.38571e-02,-6.87038e-02,
6.35986e-02,1.33812e-01,-2.49225e-01,6.41131e-02,-1.78433e-01,3.86557e-02,2.14728e-01,-1.68650e-01,1.25760e-01,2.50476e-01,1.03894e-01,-2.40204e-01,-6.40900e-02,-2.51622e-02,8.36556e-02,1.29452e-01,-2.24804e-01,-4.67599e-02,-2.32983e-01,-2.55562e-01,
2.22647e-01,-1.16032e-02,-2.22579e-01,2.46966e-03,-2.52995e-01,-6.02035e-02,-1.50330e-01,-1.30953e-01,-1.65261e-01,2.13844e-03,-3.00992e-02,-1.05112e-01,-2.12197e-02,-1.11373e-01,-1.47819e-01,1.78981e-01,1.22878e-01,1.86398e-02,6.77905e-02,-2.19739e-01,
1.82282e-01,-1.11731e-01,-1.90049e-01,2.34743e-01,1.19309e-01,1.08067e-02,2.37178e-01,-2.17824e-02,3.07021e-01,-1.56957e-01,5.13867e-02,1.77174e-01,2.00900e-01,-1.03470e-01,1.16383e-01,-7.01774e-02,2.73960e-01,-1.84249e-01,2.49995e-01,-1.32034e-01,
-5.56846e-02,-2.25250e-01,2.23639e-03,-2.77950e-01,2.69485e-01,-1.62973e-01,-2.84916e-01,2.10797e-01,-4.26717e-02,-1.66416e-01,-3.99938e-02,-2.41608e-02,-8.03483e-02,-2.23126e-01,-4.13659e-03,-5.17845e-02,-5.40852e-02,-2.50326e-01,-2.03425e-01,-1.59416e-01,
-1.70734e-01,1.86477e-01,6.06039e-02,-5.77308e-02,4.16787e-02,1.39999e-01,-6.74187e-02,2.37178e-01,8.91247e-02,-1.99885e-01,1.60212e-01,-1.82768e-01,-1.38291e-01,1.01295e-01,9.52861e-02,-1.77690e-02,-1.55981e-02,-9.53796e-02,-4.31767e-01,-3.13635e-01,
-1.56995e-01,-1.55511e-01,-1.10483e-02,6.02354e-02,-3.49762e-03,5.07319e-02,2.45885e-01,2.15522e-02,-1.57087e-01,-8.68973e-02,-1.54508e-01,4.46573e-02,-2.54870e-01,-1.74274e-01,-2.66440e-01,-8.79424e-02,-2.43253e-01,-2.18367e-01,-6.21632e-02,9.54177e-02,
1.37067e-01,-7.83073e-02,-1.31925e-01,9.19368e-02,-1.52193e-01,-8.14394e-02,-8.07071e-02,-1.64195e-01,7.68370e-02,1.01506e-01,1.98686e-02,-4.75106e-02,-2.63554e-02,-2.52061e-01,2.18215e-01,-7.93939e-02,2.14582e-01,1.07125e-01,2.34623e-01,1.74402e-02,
1.27064e-01,6.91606e-02,2.00414e-01,-5.26285e-02,-1.73091e-01,-3.49959e-02,-2.01131e-01,-2.55950e-01,2.09815e-01,-1.37830e-01,5.15462e-02,-2.29337e-01,1.80150e-01,-1.73156e-01,3.36326e-02,-1.32859e-01,1.18826e-01,1.15319e-01,-3.68871e-02,-2.38314e-01,
-2.50976e-02,1.07622e-01,1.05935e-01,-6.25125e-03,-2.54381e-01,-1.01659e-01,-2.07584e-01,-4.74761e-02,8.33549e-02,2.09266e-01,4.20480e-02,-1.27783e-01,-1.49426e-01,-9.56051e-02,-7.26323e-02,-4.05089e-02,-9.07992e-02,-2.11535e-01,-8.46836e-02,1.75572e-01,
5.00075e-02,1.57328e-01,8.73426e-02,-1.12154e-01,2.06653e-01,1.97778e-01,1.12481e-01,-2.49834e-01,2.15766e-01,-8.61727e-02,-1.95541e-01,1.67406e-01,1.49568e-01,-1.31430e-01,-1.39211e-01,1.06969e-01,2.31215e-01,-2.72092e-02,1.79969e-01,-1.99884e-01,
1.05987e-01,3.69996e-02,6.76828e-02,-3.62103e-02,-1.09766e-01,-5.47694e-02,1.82462e-01,1.19402e-01,-1.42184e-01,-1.35306e-01,-9.55836e-02,2.24518e-01,-1.54001e-01,1.11790e-01,-4.53518e-02,-1.23961e-02,1.80071e-01,-1.18586e-01,-6.78360e-02,2.53780e-01,
7.42342e-02,-2.68379e-02,1.43499e-01,-5.91239e-03,-1.42043e-01,1.24182e-02,-2.03226e-01,-2.15491e-01,-1.34841e-01,5.12395e-02,1.67596e-01,-1.73424e-01,1.20861e-01,-4.47861e-02,1.27931e-01,8.35825e-02,-7.95985e-02,2.29570e-01,-2.07459e-01,7.47191e-02,
-1.50899e-01,-5.51530e-02,-2.46025e-01,-1.59994e-01,-7.75508e-02,1.66269e-01,-3.29800e-02,1.29268e-01,2.16942e-01,1.20317e-01,-2.06617e-01,4.86695e-02,2.31993e-01,1.92436e-01,-7.42584e-02,-2.66180e-02,1.80149e-01,-2.21929e-01,-2.62499e-01,-2.46436e-01,
-8.26646e-02,1.36746e-01,-1.62490e-02,3.03119e-02,-2.84828e-02,4.50515e-02,-1.27241e-01,-1.36159e-01,-4.22033e-02,1.49835e-01,2.57364e-01,2.09302e-01,1.73639e-01,1.91384e-01,-1.90563e-01,-1.37273e-01,1.29597e-01,2.51096e-01,-8.69289e-03,1.52465e-02,
-1.25344e-03,-2.14504e-02,3.34551e-01,-2.35893e-01,1.59594e-01,-2.14650e-01,4.24780e-02,1.08315e-01,1.44425e-01,3.69702e-02,-2.95003e-01,-8.89720e-02,-9.80500e-02,1.68241e-01,9.48156e-03,-2.14560e-01,2.55394e-01,-1.51724e-01,4.48090e-01,2.79411e-01,
9.78769e-02,2.69436e-01,2.33097e-02,-1.30276e-01,1.13576e-01,-2.96408e-02,-1.74240e-01,6.55997e-03,1.26107e-01,2.12058e-02,-9.21762e-02,-3.25282e-01,1.75692e-01,-6.73533e-02,-2.12456e-02,-1.33993e-01,-3.04928e-01,1.38358e-01,-3.90897e-02,-2.86605e-01,
-1.56179e-01,-1.00253e-01,-1.25527e-01,-2.50916e-02,-1.67994e-01,1.03219e-02,-4.93503e-02,1.19310e-01,5.45143e-02,-7.94302e-02,1.58848e-01,-1.89314e-01,-1.68150e-01,-1.01987e-02,1.21448e-01,-2.46867e-01,1.48146e-01,2.21780e-02,1.19173e-01,2.59214e-01,
-3.06267e-02,-2.63980e-01,5.74474e-02,-2.56739e-01,-1.19925e-01,-1.64782e-01,8.07417e-02,-1.72733e-01,1.59085e-01,-1.18172e-01,1.72583e-02,2.41925e-01,-2.49354e-01,-2.06533e-02,-1.15348e-01,-1.72714e-01,6.63521e-02,-1.40884e-02,-1.89163e-01,-2.47787e-01,
1.29865e-01,1.79146e-01,-1.85616e-01,-1.30883e-01,-2.46974e-01,4.92659e-02,-7.05685e-02,8.18961e-02,1.91466e-01,-2.52106e-01,1.71932e-01,-1.77807e-01,1.34900e-01,7.96276e-02,3.75620e-02,1.03049e-01,-2.23772e-01,2.36149e-01,-2.50198e-01,5.72708e-03,
-8.89724e-02,1.43040e-01,-7.94813e-02,6.63744e-02,-1.63782e-01,-1.24015e-01,2.31374e-01,2.10985e-01,-1.40845e-01,6.71490e-02,-8.41874e-02,9.15851e-02,2.20559e-01,-1.61377e-01,-1.33167e-01,1.85078e-01,-1.90663e-01,1.54962e-01,-2.50540e-02,-2.29415e-01,
1.22194e-01,8.09728e-02,1.16240e-01,-1.19604e-01,2.00330e-01,-2.89264e-01,-1.94670e-01,-1.30204e-01,-2.18036e-01,-1.95571e-01,5.98857e-03,-2.82238e-01,1.32229e-01,1.26975e-01,-2.57082e-01,-2.13714e-01,3.02590e-02,-6.07593e-02,-1.26983e-01,-2.27369e-01,
-1.24159e-01,9.95733e-02,1.04318e-01,1.32020e-01,-8.71805e-03,-1.73330e-01,-4.76268e-02,-2.38368e-01,-1.20096e-01,2.58522e-03,-1.72816e-01,2.18991e-02,-2.36848e-01,6.94442e-02,-5.96246e-02,2.46484e-01,-2.59080e-01,-8.36145e-02,3.77176e-02,-5.07639e-02,
6.61539e-02,2.03721e-01,2.48299e-02,2.69083e-01,1.18612e-01,1.29028e-01,1.18465e-01,-7.88248e-02,1.86572e-01,2.40362e-01,-2.78543e-01,1.81118e-02,2.71257e-02,2.69247e-01,1.54801e-02,-1.87786e-01,2.78005e-01,-1.26945e-01,-1.81460e-02,-5.91727e-02,
0.00000e+00,
-5.44806e-02,
3.56199e-02,
0.00000e+00,
3.85397e-02,
0.00000e+00,
0.00000e+00,
0.00000e+00,
0.00000e+00,
3.60328e-02,
-3.64971e-02,
3.54672e-02,
0.00000e+00,
-4.49052e-02,
3.70202e-02,
0.00000e+00,
3.59034e-02,
3.84664e-02,
0.00000e+00,
-4.82219e-02,
-2.11459e-02,
0.00000e+00,
0.00000e+00,
0.00000e+00,
3.78940e-02,
0.00000e+00,
2.18067e-02,
0.00000e+00,
0.00000e+00,
0.00000e+00,
0.00000e+00,
-4.17533e-02,
0.00000e+00,
4.30279e-02,
0.00000e+00,
-3.46224e-02,
0.00000e+00,
0.00000e+00,
3.64851e-02,
0.00000e+00,
-7.92980e-03,
0.00000e+00,
0.00000e+00,
1.68076e-02,
-3.78725e-02,
-4.04483e-02,
-8.65039e-03,
0.00000e+00,
0.00000e+00,
0.00000e+00,
3.32427e-02,
0.00000e+00,
0.00000e+00,
0.00000e+00,
0.00000e+00,
3.69191e-02,
-4.00326e-02,
0.00000e+00,
0.00000e+00,
0.00000e+00,
0.00000e+00,
-3.31885e-02,
-1.03193e-02,
2.63630e-02,
-1.29991e-01,-7.60205e-02,2.44069e-01,1.34767e-01,-1.93244e-03,1.14977e-01,-1.14485e-01,-1.27234e-01,3.79694e-02,9.13282e-02,6.09100e-03,-1.34470e-01,-2.49586e-01,2.48233e-01,-1.81091e-01,1.98717e-01,2.65501e-02,5.60623e-02,-9.18612e-02,5.17433e-02,-1.36506e-01,8.08420e-02,-7.65072e-02,2.12034e-01,-2.19106e-01,-1.84099e-01,-1.51772e-01,1.44746e-01,1.93675e-01,1.93096e-01,-5.59941e-02,2.06669e-02,-2.49649e-01,9.49847e-02,1.83818e-01,-2.15070e-01,6.87353e-02,-1.00269e-01,-2.31341e-01,-1.92080e-01,1.11810e-01,-2.42971e-01,5.09567e-02,-1.02852e-01,-4.48160e-02,2.13090e-01,1.07592e-01,2.44459e-01,9.72438e-02,2.17006e-01,-1.15043e-01,-2.24637e-01,9.27706e-02,7.46992e-02,-1.85075e-01,-1.01776e-01,-5.46109e-02,-2.40067e-01,-1.03735e-01,-5.12357e-02,-2.13579e-01,-4.77691e-02,-1.80515e-01,6.07963e-02,
-1.09970e-01,-2.19010e-01,4.12477e-02,-1.09821e-01,-1.08502e-01,-2.11572e-01,2.46865e-01,2.79108e-02,2.31995e-01,-3.41433e-02,-4.12763e-02,-1.81930e-01,-1.30010e-01,2.76973e-02,-7.08662e-02,2.21206e-01,-1.75521e-01,-7.11189e-02,2.37019e-01,-1.58991e-02,-8.45465e-02,-1.01312e-01,-7.28030e-02,1.73584e-01,-1.64295e-01,-1.68267e-01,2.96357e-02,-9.42433e-02,-5.91896e-02,8.82589e-02,-2.27680e-01,-9.26822e-03,6.53912e-02,-1.88810e-01,-6.68868e-02,5.51595e-02,-2.33791e-01,-1.45072e-02,-1.14830e-01,1.84079e-01,1.41437e-01,1.24808e-01,3.48504e-02,-1.82795e-01,1.32282e-01,8.89522e-03,-2.23458e-01,-5.26763e-02,-1.29783e-01,2.12671e-01,7.51370e-02,-2.26843e-01,-1.80952e-01,-1.58826e-01,2.45999e-01,1.39777e-01,-1.74536e-01,-4.93811e-02,1.87152e-01,-2.14614e-01,-1.84859e-01,-2.43354e-01,-4.49263e-02,1.34551e-01,
-9.68006e-02,1.66827e-01,1.27781e-01,-1.25483e-01,-2.25598e-03,-1.64229e-01,-1.19302e-01,-5.38019e-02,-2.28323e-01,-1.38110e-01,-2.19564e-01,1.04546e-01,-1.17836e-01,1.39812e-01,5.43589e-02,1.19294e-01,-1.69215e-01,-1.65380e-01,-2.11828e-01,1.23472e-01,2.01817e-01,-1.39435e-01,2.17550e-01,-4.08177e-02,-1.94205e-02,4.28540e-03,1.38731e-02,-6.77192e-03,-4.12865e-02,-1.04549e-01,4.50069e-03,1.47426e-01,1.46158e-01,5.07922e-02,1.19380e-01,1.41622e-01,7.61679e-02,1.96280e-01,8.43304e-02,-1.39181e-01,1.85370e-01,-8.92322e-02,-2.33629e-01,-1.79916e-02,1.55932e-01,2.77697e-02,-1.72308e-01,-2.04463e-01,1.53533e-01,1.01197e-01,2.13966e-01,1.91872e-01,9.49073e-02,1.16662e-02,-1.26277e-01,-1.39630e-01,-1.32626e-01,1.00100e-01,1.05949e-01,-1.17803e-01,2.27165e-01,-2.42562e-01,-1.60497e-01,1.67952e-01,
-5.81646e-02,-6.04004e-02,3.85740e-02,-7.87319e-02,-1.65945e-01,1.89081e-01,1.27907e-01,-5.64234e-02,-1.00213e-01,4.50554e-02,-8.48851e-02,1.23104e-01,1.42592e-01,-2.19341e-01,-2.19233e-01,1.74951e-01,-2.12123e-01,6.03801e-02,9.63292e-02,-1.89245e-01,1.66510e-01,9.16643e-02,-2.19356e-01,-2.19906e-01,3.77518e-02,8.16975e-02,1.43406e-01,2.12824e-01,-6.30389e-02,2.51636e-02,6.52418e-02,-1.23209e-01,2.61278e-02,1.37092e-01,9.50448e-02,-3.10574e-02,-8.28636e-03,-5.88315e-02,-1.30337e-01,-9.75628e-02,2.38350e-01,-1.72540e-01,-2.46453e-01,1.98028e-01,-1.14403e-01,2.19891e-01,-8.80592e-02,1.49654e-01,-2.43933e-01,-1.19389e-02,7.46874e-02,1.34081e-01,1.67436e-01,1.53944e-01,-1.24827e-01,-5.86725e-02,-5.07682e-02,1.50202e-01,2.12725e-01,-4.83308e-02,6.62592e-02,-1.10590e-01,-5.10126e-03,1.23294e-01,
-1.94692e-01,-1.82719e-01,1.55395e-02,2.31215e-01,7.91186e-02,-1.63120e-01,-1.01234e-01,8.11493e-03,-1.59228e-01,-7.78784e-02,-1.86841e-01,-1.86419e-01,-1.56020e-01,1.71136e-01,1.69910e-01,-2.44370e-01,-1.01427e-01,8.56147e-02,-8.16628e-02,1.24638e-01,-2.19229e-01,1.12571e-01,-7.48213e-02,-2.42393e-01,1.90340e-01,-9.63025e-02,-2.42176e-01,2.05772e-01,-1.72813e-01,1.54685e-01,1.06337e-01,-1.83307e-01,-1.08927e-03,-1.93214e-03,7.52821e-02,1.35308e-01,1.37337e-01,-2.42101e-01,-4.94364e-02,-1.49979e-01,1.93584e-01,1.49833e-01,-1.55996e-01,-2.02842e-01,-1.02945e-01,-6.20468e-02,2.26692e-01,-2.49977e-01,-7.60552e-02,1.96242e-01,7.19254e-02,-5.17483e-02,-1.41765e-01,2.16915e-01,-1.73854e-01,-9.47652e-02,-4.32305e-02,-1.42317e-01,-2.40502e-01,2.67476e-03,-5.45263e-02,5.57282e-02,9.69411e-02,5.18566e-03,
-1.10555e-01,-1.37077e-01,4.75197e-02,2.28980e-01,1.00259e-01,-1.46322e-01,-6.98109e-02,1.74914e-01,-6.44637e-02,-1.45755e-02,-1.19980e-01,-1.85338e-01,-1.37055e-01,8.12971e-02,1.69566e-01,-2.76767e-02,-1.02978e-02,4.53469e-02,2.81146e-02,-3.34291e-02,6.23767e-02,1.97021e-01,-2.40991e-01,-1.32743e-01,-1.41617e-01,1.38761e-01,-1.76906e-01,1.40379e-01,2.18937e-01,2.34724e-01,-1.75542e-01,3.14503e-02,-1.39735e-01,-1.13339e-02,2.38478e-01,2.84160e-02,-2.05115e-01,-1.35201e-01,5.19860e-03,8.63873e-02,2.16629e-01,-1.95733e-01,-1.96684e-01,5.51293e-02,-2.25736e-01,-1.50898e-01,2.19715e-01,1.14926e-01,1.37385e-01,3.35597e-02,-1.44482e-01,2.43621e-01,8.12959e-02,-2.41620e-01,2.67965e-02,-1.54507e-01,7.78495e-02,3.13143e-02,-1.33587e-01,7.88893e-02,8.93429e-02,-2.24749e-01,-2.14446e-01,-9.63140e-03,
2.18735e-01,-1.11465e-01,-6.31658e-02,-1.81758e-01,-2.82827e-02,-2.63057e-02,1.86051e-01,-1.75588e-01,2.09230e-01,-1.51031e-01,2.15644e-01,2.19790e-01,2.17688e-01,4.31641e-03,-2.25243e-01,-5.49012e-02,-1.92247e-01,1.48307e-01,1.45164e-01,4.79744e-02,-5.15403e-02,8.92290e-02,2.28349e-01,-5.90565e-02,-1.51688e-01,-3.80367e-03,2.22363e-01,-9.96529e-02,7.50246e-02,8.30553e-02,2.44026e-01,1.65660e-01,1.83719e-01,2.07156e-02,2.15730e-01,8.78636e-02,8.54017e-02,5.60731e-02,-1.05593e-01,3.60329e-02,8.94182e-03,1.09035e-01,-1.52506e-01,8.29468e-03,2.15319e-01,-2.53897e-02,2.20742e-02,5.04972e-02,-2.18074e-01,5.89073e-03,-2.04760e-01,-1.01211e-01,1.28421e-01,1.39684e-01,-7.16366e-02,3.01007e-02,9.17000e-02,8.13501e-02,-1.43560e-01,-1.16052e-01,-1.25331e-01,2.08701e-01,1.52978e-02,6.51911e-02,
-2.49514e-01,-1.64923e-01,-1.74628e-01,-6.34060e-02,2.14603e-01,2.26000e-01,-2.07050e-01,1.77248e-01,-1.95349e-01,1.63374e-01,-2.67617e-02,2.38695e-01,1.85911e-01,-1.98987e-01,1.05942e-01,2.21922e-01,2.28166e-02,-5.82881e-02,1.90161e-01,8.59324e-02,9.76443e-03,-8.08139e-02,-1.91974e-01,-2.22867e-01,2.40513e-02,-2.17809e-01,-1.36831e-01,1.57295e-01,5.01674e-02,-2.01596e-01,2.81391e-02,2.20630e-01,-1.50702e-01,1.98337e-01,1.89565e-01,3.58626e-03,1.86424e-01,-1.70132e-02,1.77388e-02,-2.03165e-02,-1.38136e-01,-4.67921e-02,-5.14793e-02,-9.99436e-02,1.50046e-01,2.30157e-01,2.57453e-02,1.29837e-01,1.41785e-01,1.71491e-01,-5.48628e-03,8.25340e-02,-3.26577e-02,1.92331e-01,4.30328e-02,-1.00590e-01,-7.55921e-02,1.28643e-01,5.97841e-02,2.30308e-01,2.00733e-01,1.92408e-01,1.70383e-02,1.50430e-01,
1.03614e-02,-1.40387e-01,7.06107e-02,1.35687e-01,1.43582e-01,-4.45908e-02,-1.80070e-01,-2.12104e-01,-1.65824e-01,2.98319e-02,-1.63608e-01,1.84952e-01,-2.39307e-01,2.21603e-01,2.19340e-02,5.39256e-02,-1.30810e-02,3.53674e-02,1.17375e-02,-9.88801e-02,1.12028e-01,2.35138e-01,2.15295e-01,7.25783e-02,1.22041e-02,-2.48520e-02,-1.19593e-01,-1.84602e-01,-2.43245e-01,6.21979e-02,1.32149e-01,-1.09427e-01,1.55295e-01,-2.48231e-02,-1.37394e-01,-1.85253e-01,-7.69743e-02,1.08665e-01,-2.23432e-02,1.73328e-01,2.04659e-01,2.64170e-02,-1.87933e-01,9.74742e-02,2.06714e-01,1.91412e-01,5.53578e-03,3.53339e-02,-1.91805e-01,-6.21432e-03,-3.84637e-02,-1.10411e-01,-2.45812e-01,-2.20086e-01,-2.17426e-01,-1.99519e-02,-1.26640e-01,1.12322e-01,-5.57011e-03,-1.95877e-01,7.27185e-02,-2.47622e-01,-1.48751e-01,1.03240e-01,
1.89526e-01,8.58780e-02,-1.56540e-01,-9.08698e-02,1.75660e-01,9.40447e-02,-1.14713e-01,1.47084e-01,1.39479e-01,9.49824e-02,-1.89549e-01,1.10040e-01,-6.17067e-02,-1.36743e-01,-2.51667e-01,6.99520e-02,1.59778e-02,9.99287e-02,-1.56163e-01,5.92110e-02,1.12320e-01,-1.55762e-01,-1.44802e-01,-1.26678e-01,-5.49304e-02,-6.57567e-02,1.29273e-01,6.62899e-03,4.26216e-02,1.64760e-02,1.37179e-01,1.85776e-01,4.55388e-02,-2.28450e-01,4.45804e-02,-1.85527e-01,2.07167e-01,1.54799e-01,-1.85079e-01,1.82969e-01,2.01625e-01,-2.04904e-01,-1.08352e-01,1.69484e-01,-1.11461e-01,8.86107e-02,-2.09264e-02,-2.31853e-01,-3.22001e-02,-2.23646e-01,2.03706e-01,-2.59580e-02,2.01905e-02,1.41125e-01,-1.69439e-01,6.12964e-02,7.42392e-03,2.35837e-01,3.68820e-02,7.49730e-02,-1.01078e-01,9.72328e-02,6.06968e-02,-1.08508e-01,
-8.74144e-03,1.77661e-01,3.62847e-02,1.96515e-01,3.90980e-02,2.00954e-01,1.33955e-01,9.08865e-02,2.87019e-02,1.11305e-02,-1.52596e-01,-9.66681e-02,1.52632e-01,5.64730e-02,3.43548e-02,7.56223e-02,4.22655e-02,2.31247e-01,-1.71704e-01,-1.99122e-01,-9.71684e-02,2.78132e-02,5.25287e-02,8.75497e-02,-1.06946e-01,3.55190e-02,-2.05817e-01,-1.68615e-01,1.98180e-01,1.24332e-01,2.13825e-02,3.82526e-02,-2.00030e-01,-1.58757e-01,-1.77393e-01,-1.88843e-01,1.86563e-01,-2.07212e-01,-8.02796e-02,-6.07458e-02,-7.36082e-02,1.64690e-01,-2.40014e-01,5.34920e-02,-2.46676e-02,-7.91688e-02,1.63873e-01,-2.20730e-01,1.65900e-01,-2.38898e-01,2.21232e-01,-3.43893e-02,-1.28429e-01,2.13890e-01,-2.18013e-01,1.08316e-01,-2.37324e-01,-1.39229e-01,3.79944e-02,1.35984e-01,-1.78646e-01,-1.66662e-01,-2.23088e-01,1.28465e-01,
-1.46915e-01,2.71132e-02,-1.52861e-01,1.88178e-01,2.21485e-01,-2.48095e-01,-8.26323e-02,6.04143e-02,-2.10959e-01,-1.28066e-02,6.71715e-02,-2.40950e-01,2.18171e-01,1.18261e-01,-7.61190e-02,2.01311e-01,4.34581e-02,2.32733e-02,-1.54160e-01,-1.95484e-02,-8.08480e-02,1.80589e-01,9.73648e-02,-1.66991e-01,-2.31998e-01,-1.30131e-01,-2.24488e-01,-1.98874e-01,7.42667e-02,-9.08391e-02,1.36072e-01,9.54089e-02,-1.44852e-01,-6.65423e-02,-8.25620e-03,3.92990e-02,-6.55397e-02,-3.59563e-02,-2.23063e-01,1.51869e-01,-4.10097e-02,-2.28412e-01,1.43593e-01,2.39131e-01,1.69382e-01,-8.42150e-03,1.08979e-02,1.26761e-01,1.27015e-01,-2.28085e-01,-1.91675e-01,2.42897e-01,1.64456e-01,-1.85035e-01,1.86377e-01,-8.49286e-02,-6.49352e-02,-4.16084e-02,-1.08127e-01,-2.00112e-01,-1.84434e-01,2.33086e-01,4.75063e-02,2.33481e-02,
7.72081e-02,1.63943e-01,4.58741e-02,1.67699e-01,1.33283e-01,-4.69190e-02,-1.35341e-01,-2.40988e-01,-1.31221e-01,-6.94913e-02,2.11548e-02,-1.54086e-01,-4.18445e-02,-1.45423e-02,-1.84224e-02,2.33612e-01,-2.29079e-03,-4.44447e-02,-8.75351e-02,-6.37471e-02,-1.45267e-02,2.22308e-01,-2.11021e-01,2.70934e-02,-1.44515e-01,-2.05711e-01,-2.06996e-01,1.07803e-01,-2.47945e-01,2.21271e-01,1.94389e-01,-1.10463e-01,-8.94804e-02,1.69403e-01,2.24427e-01,-1.69131e-01,-2.31980e-01,-1.75466e-01,1.14600e-01,-2.14368e-01,-1.44912e-01,-1.11946e-01,-1.43488e-01,1.44102e-02,-3.34504e-02,-1.12759e-01,5.52931e-02,-2.31631e-02,-8.09596e-02,-1.15668e-01,-6.28030e-03,-1.38785e-01,-1.47064e-01,-6.79790e-02,2.12460e-01,-2.38874e-01,-1.64974e-01,-1.23196e-01,-1.55442e-01,8.49231e-02,-1.99392e-01,9.89013e-02,4.88424e-03,-1.21921e-01,
-8.01874e-02,2.35325e-01,-9.45744e-02,3.38401e-02,2.27608e-01,-1.73049e-01,-1.98299e-01,-2.58301e-02,-3.27390e-02,-3.38398e-02,-2.18620e-01,-2.22352e-01,-1.85371e-01,-1.87064e-01,1.62063e-02,7.54157e-02,2.45279e-01,-9.96565e-02,-6.46497e-02,-1.71422e-02,-1.01096e-01,2.64587e-02,7.75406e-02,-5.18009e-02,2.06667e-01,-1.72115e-01,2.45638e-01,-1.02654e-01,7.38822e-02,1.75158e-02,1.01560e-01,-8.03199e-02,-2.23341e-01,-1.23830e-01,8.82743e-02,-2.22296e-01,2.40378e-02,-1.89563e-01,-1.88915e-01,-7.03394e-02,1.30974e-01,-1.95005e-01,-8.13980e-02,1.65930e-01,1.54891e-01,4.34237e-02,2.10903e-02,8.40597e-02,-1.19295e-01,1.91975e-02,8.47597e-02,1.15045e-01,-4.55219e-03,8.31308e-02,-2.15929e-02,1.08670e-01,-1.50690e-01,-1.60332e-01,-1.54043e-01,2.07665e-01,6.63519e-04,-1.17856e-01,3.43920e-02,-1.19718e-01,
1.99206e-02,1.13380e-01,-1.51642e-01,-2.39159e-01,-2.40760e-01,-1.62782e-01,4.83618e-02,-4.49226e-02,2.09180e-01,-6.03752e-02,6.42693e-02,3.51881e-02,-9.79287e-02,-5.57291e-02,3.53486e-02,-3.09862e-02,-9.65989e-02,2.24252e-01,1.16708e-01,9.84165e-02,-1.83342e-01,1.37534e-01,-1.12753e-01,1.74992e-01,-2.43056e-01,-1.30519e-01,-1.96135e-01,-8.56187e-02,-1.92195e-01,2.32220e-01,6.03521e-02,-3.51946e-02,-1.02738e-01,3.64119e-03,1.42561e-01,-2.19045e-01,-1.68694e-01,1.45473e-02,-8.37880e-03,-1.60684e-01,1.99579e-01,1.37989e-01,2.44071e-01,6.08791e-02,1.76709e-01,-1.65249e-01,-9.97421e-02,8.26236e-02,2.44159e-01,2.12133e-02,-1.30343e-01,-6.08733e-02,-8.45186e-02,1.95476e-01,-1.35113e-01,1.52081e-01,-2.73728e-02,-1.41692e-01,2.98639e-02,-1.51624e-02,4.02803e-02,-1.55142e-01,-1.61156e-01,2.06016e-02,
8.69877e-02,7.90408e-02,-1.53849e-01,-3.77144e-02,-1.60884e-01,-1.05990e-01,-7.88739e-02,-3.12781e-03,-2.11903e-01,-3.07613e-02,-2.28382e-01,1.70365e-01,-1.50694e-01,2.09724e-01,-1.18541e-01,1.11226e-01,2.12505e-02,-8.52488e-02,3.53715e-02,1.12526e-01,4.70983e-02,-8.19115e-02,1.01448e-01,1.32427e-01,-1.53529e-01,2.37430e-01,1.63945e-01,-1.75029e-01,-1.02902e-01,-6.94119e-02,4.91530e-02,8.57283e-02,-1.43740e-01,2.00134e-01,5.75536e-02,6.59931e-02,4.09747e-02,1.48709e-01,1.39337e-02,-2.38517e-01,-2.24312e-01,-7.17846e-02,1.04121e-02,1.53047e-01,-2.44099e-02,-2.38441e-01,5.83676e-02,-1.98364e-01,7.66922e-02,-2.25812e-01,3.74996e-02,-1.50282e-01,-1.33852e-01,1.87544e-01,4.43383e-02,2.06467e-01,-1.79467e-01,5.34481e-02,-2.33039e-01,-3.01984e-02,-1.21605e-01,6.97021e-02,-2.28310e-01,1.48512e-01,
-2.13464e-01,1.74558e-01,-5.58701e-02,-1.51039e-01,-4.76295e-02,1.69668e-02,1.52177e-03,-1.72500e-01,-5.29731e-02,-2.08653e-01,-1.56774e-01,2.03897e-01,1.85688e-01,5.81549e-02,-2.31672e-01,-2.08912e-01,-2.24258e-01,1.57261e-01,1.40834e-01,-6.26634e-02,1.51855e-01,-1.51753e-04,1.47018e-01,-1.37541e-01,1.92602e-01,1.24290e-01,-1.59213e-01,2.23226e-01,1.25321e-01,2.35649e-01,-1.51399e-01,5.51657e-02,-1.11692e-01,7.49798e-02,2.89038e-02,3.82673e-02,-2.45861e-01,-2.05738e-01,-6.50264e-02,5.95077e-02,-1.15479e-01,-1.98929e-01,-1.02495e-01,-2.08367e-01,-1.17484e-02,-8.89667e-02,-2.26884e-02,1.19772e-01,-1.91728e-01,3.32089e-02,-1.15039e-01,2.35354e-01,-2.51665e-02,1.36178e-01,1.60939e-01,2.81358e-02,1.78269e-01,2.85011e-02,2.48679e-01,-1.62276e-01,-2.24714e-01,-1.40495e-01,6.02888e-02,1.04536e-01,
9.45311e-02,1.62615e-02,1.43305e-01,-1.41651e-01,2.27468e-01,-2.18017e-01,-1.24972e-01,4.30465e-03,1.40442e-01,-1.57604e-01,-2.26006e-01,4.48205e-02,2.43857e-01,-1.37028e-01,-4.43506e-02,1.10215e-01,1.79913e-01,1.67158e-01,-3.80617e-02,-2.34667e-01,-4.30816e-03,2.39255e-01,8.92971e-02,6.91598e-02,1.23175e-01,-6.12544e-02,1.56019e-01,2.23312e-01,-2.07807e-01,1.50243e-01,5.09035e-02,-1.55737e-01,-8.31200e-02,3.85803e-02,-1.63822e-01,-2.18074e-01,-8.37570e-02,2.02459e-01,-2.11156e-01,-1.38922e-01,-1.04318e-01,9.75373e-02,-2.77203e-02,1.54360e-01,-1.87181e-01,-1.94857e-01,1.70520e-01,-1.28267e-01,-1.39730e-01,1.16332e-01,-1.44374e-03,8.55285e-02,1.65915e-01,-8.02665e-02,1.49870e-01,-5.42024e-02,1.40882e-03,8.60301e-02,1.39390e-01,2.80153e-02,-1.57960e-01,-4.72563e-02,1.54407e-01,1.29371e-01,
-1.58134e-01,4.38983e-03,2.15276e-01,-9.21040e-02,9.72386e-02,1.73649e-01,1.85700e-01,1.97611e-01,1.42701e-01,1.98980e-01,-2.20816e-01,1.64812e-01,-3.26384e-02,7.01441e-02,1.33465e-01,2.13445e-02,7.13171e-02,2.33165e-01,-1.96570e-01,-1.42798e-01,-2.34361e-02,1.03143e-02,-6.34581e-02,-1.69137e-01,-3.89229e-02,-7.13902e-02,6.36762e-02,1.67349e-01,-1.28882e-01,-1.00054e-01,8.74475e-02,-1.01439e-01,-2.93917e-02,1.08572e-01,2.38122e-01,-3.18277e-02,-1.20370e-01,1.04370e-01,3.85196e-02,1.64620e-01,-7.96537e-02,-1.96087e-01,3.78723e-02,1.64995e-01,-1.92829e-01,-2.11621e-01,4.71270e-02,-1.02647e-01,-3.10221e-02,1.80862e-01,-7.94607e-02,1.54403e-01,-4.78275e-02,-1.60186e-01,-2.05365e-01,1.26619e-01,-9.57040e-02,-1.70145e-01,1.61658e-01,-2.49055e-01,-2.13328e-02,1.60177e-01,9.49900e-02,2.35714e-01,
-1.07445e-01,1.12075e-01,-6.40821e-02,1.46004e-01,-3.46144e-02,1.73434e-01,-1.66169e-01,-9.26165e-02,-1.13883e-01,2.41941e-01,-3.20203e-02,-1.79480e-01,1.75470e-01,-6.36742e-02,2.97934e-03,-4.94114e-02,1.33233e-01,6.55565e-02,-7.93113e-02,-6.85354e-02,5.19368e-02,-1.16268e-01,-4.68507e-02,5.17403e-02,9.01116e-02,1.75843e-01,-1.36872e-01,2.16391e-01,2.26758e-01,-2.01587e-01,5.36912e-02,-1.75772e-01,1.93582e-01,1.10225e-01,1.97743e-01,1.95194e-01,-1.66599e-01,-5.27126e-03,-1.10257e-01,-1.56826e-01,-1.64070e-01,-2.25609e-01,-2.18851e-01,7.00361e-03,6.42383e-03,-2.41774e-01,2.00730e-01,-1.93972e-01,-1.48136e-01,-7.35691e-02,-2.37252e-01,1.02064e-01,-1.80843e-01,-2.29163e-01,2.41739e-01,2.11746e-01,5.15598e-03,1.61845e-01,1.97010e-02,-6.47366e-02,2.13130e-01,-2.29808e-01,2.24957e-02,6.40380e-03,
-1.79361e-01,1.72474e-01,3.94164e-02,-1.09097e-01,-2.43760e-01,-9.50806e-02,1.94246e-01,2.46795e-01,2.07523e-02,1.14664e-01,-2.26729e-01,3.18758e-02,-1.39039e-01,-1.07925e-01,-1.94565e-01,1.38511e-01,5.32612e-02,-2.96330e-02,1.15711e-01,2.38523e-01,2.21101e-01,1.68842e-01,1.52727e-01,1.20291e-01,5.77675e-02,4.60185e-02,-6.08087e-02,8.32976e-02,-2.33162e-01,1.21405e-01,-1.75965e-01,-7.28226e-02,-1.19232e-01,-2.42464e-01,-3.80161e-02,-2.46595e-01,1.74184e-01,-4.34685e-03,-2.06788e-01,1.01491e-01,5.73617e-03,-5.60217e-02,-6.67477e-03,-1.14654e-01,-2.45463e-01,4.06144e-02,2.33795e-01,-1.11467e-01,-1.76314e-01,-2.44805e-01,9.99014e-02,1.20292e-01,-1.47264e-01,1.66818e-01,-1.75450e-01,1.76709e-01,3.90685e-03,-4.07877e-02,-9.81355e-03,-2.35057e-01,2.31459e-02,1.61966e-01,2.21835e-01,-5.11363e-02,
-1.27362e-01,1.08535e-02,-1.28862e-01,1.67616e-01,1.35909e-02,3.90987e-02,-2.45330e-01,1.58184e-01,6.06721e-02,-1.04780e-01,2.27448e-01,-2.08164e-01,1.87569e-01,-2.09006e-01,-1.15312e-01,2.38254e-01,8.05703e-02,1.85318e-01,1.61548e-01,9.67979e-04,-1.05738e-01,-2.13016e-01,5.85551e-02,8.72463e-03,-1.67209e-01,-7.53378e-02,-1.09150e-01,-4.46542e-02,-1.91652e-01,2.44249e-01,-1.55767e-01,-2.07655e-01,2.40233e-01,4.04945e-02,-1.43375e-01,-2.03100e-01,-1.94598e-01,-2.30009e-01,1.30695e-02,1.19868e-01,1.93397e-01,7.82648e-02,-7.98963e-02,-2.24223e-01,-5.11861e-02,1.66587e-01,-8.54820e-02,2.05595e-01,-2.44093e-01,1.99540e-01,1.89266e-01,-4.42017e-02,-6.16832e-02,1.54567e-01,7.48476e-02,9.42597e-02,1.07058e-01,-2.46390e-01,-2.04750e-02,1.10230e-01,9.28456e-02,-1.87761e-01,1.66645e-01,-7.16562e-02,
-8.13315e-02,-7.93351e-02,-9.29835e-02,1.02234e-01,1.21744e-01,-1.12595e-01,-2.35110e-01,5.55681e-02,1.94361e-01,-2.24236e-01,-2.32653e-01,-2.00786e-01,2.19963e-01,2.46380e-01,1.76845e-01,2.18858e-01,-1.62282e-01,-1.31622e-01,-1.98823e-01,1.14465e-02,1.68765e-01,2.00196e-01,-2.18589e-01,-6.49967e-02,1.10870e-01,-1.99348e-01,-6.54451e-02,-1.58883e-01,2.18211e-01,-2.13197e-01,-1.16066e-01,-5.11791e-02,-5.55330e-02,1.89361e-01,-5.26469e-02,-2.20265e-01,-2.18547e-01,-1.04523e-01,-7.73921e-02,-5.23336e-02,1.68049e-01,-1.88217e-01,-8.80480e-04,5.31092e-02,-1.31085e-01,-2.43874e-01,-1.32484e-01,6.06080e-02,1.07170e-01,-8.54305e-02,2.58052e-02,6.65844e-02,2.14920e-01,-1.43236e-01,7.15655e-03,1.02302e-01,2.03484e-01,3.20777e-02,-1.49490e-01,-1.32800e-01,1.09769e-01,1.20590e-01,2.21728e-01,1.86709e-01,
-1.18140e-01,5.23545e-02,2.06145e-01,-1.01757e-02,1.16758e-01,-1.71848e-01,2.14296e-01,8.33218e-02,-1.76507e-01,1.97898e-01,7.20401e-02,2.36704e-01,-1.22431e-01,8.69437e-02,-1.85491e-01,2.49320e-01,6.84411e-02,1.06237e-01,2.18163e-01,-1.38958e-01,-7.59227e-02,-2.13949e-02,-1.97075e-01,-2.36723e-01,-2.40131e-01,-1.34060e-01,-1.69532e-02,-2.18661e-02,-1.94759e-01,-7.64555e-02,-6.71961e-02,2.33877e-01,-6.17782e-02,-5.40003e-02,2.49373e-01,-1.68314e-01,-1.15366e-01,-2.38845e-01,2.71413e-02,1.71427e-01,-2.09344e-01,1.75735e-01,5.62292e-02,-1.59717e-01,-2.42468e-01,1.99047e-01,1.35041e-01,8.95310e-02,-8.75372e-02,1.42856e-01,1.02982e-01,6.95505e-02,-1.77266e-01,-9.69803e-02,-1.61559e-01,-2.26580e-01,1.15612e-01,-5.39143e-02,2.28855e-01,-1.60776e-01,1.83536e-02,1.61751e-01,-2.16436e-01,7.50778e-02,
-2.13581e-01,6.14589e-03,-2.58442e-01,1.37072e-01,4.57662e-02,1.66939e-01,1.45669e-01,-6.72616e-02,-4.19412e-02,1.63262e-02,-6.09169e-02,1.66775e-01,-1.14474e-01,2.01626e-01,1.61018e-01,9.21271e-02,8.15598e-02,2.13237e-01,-6.13650e-02,-4.52715e-02,1.51097e-01,-1.89255e-02,5.28708e-02,1.65696e-01,-1.66896e-01,1.03921e-01,1.11477e-01,2.12585e-01,2.09419e-01,-1.89570e-01,-9.57017e-02,6.74580e-02,-9.78804e-02,-2.21225e-01,-1.05085e-01,-8.95057e-02,-1.58567e-01,1.39698e-01,1.86880e-01,-2.07266e-01,-1.14941e-01,6.32076e-02,4.44846e-02,-6.99036e-02,-2.51285e-01,-1.91662e-01,1.09483e-01,4.97573e-02,2.67398e-03,1.61838e-01,-1.46479e-01,2.14142e-01,-7.38185e-02,1.89723e-01,7.76438e-02,2.15060e-01,3.61087e-02,-5.31960e-02,1.13698e-02,-4.06919e-02,4.87624e-02,-5.76810e-02,2.22134e-01,-1.15780e-01,
-1.66016e-01,1.66488e-01,1.81922e-01,1.38538e-01,-2.05137e-01,1.41653e-02,1.37748e-01,2.40828e-01,3.34851e-02,-9.30011e-03,-1.22764e-01,1.02847e-01,-2.31494e-01,3.06624e-02,-2.43282e-01,1.86394e-01,-1.34912e-01,-3.32536e-02,-1.63028e-01,-1.86246e-01,-1.64110e-01,2.93044e-02,-7.80886e-03,-1.19354e-01,-2.06842e-01,2.11595e-01,-2.48124e-01,-1.28161e-01,-1.01231e-01,-1.01138e-01,-1.38618e-02,6.71410e-02,1.29090e-01,1.60223e-01,1.36890e-01,2.47421e-01,-4.12737e-02,-4.37702e-02,1.08693e-01,2.09727e-01,3.41060e-02,-1.19663e-01,-9.67900e-02,2.07278e-02,-6.45673e-03,-1.05585e-01,8.75653e-02,-2.27605e-01,1.02923e-01,2.43106e-01,6.60344e-02,-1.62796e-01,1.07147e-02,9.55671e-03,-1.50561e-01,-8.72496e-02,1.00032e-01,-1.51244e-02,-4.47781e-02,-3.29031e-02,-1.05757e-01,-1.88796e-01,1.40355e-01,2.39255e-01,
-1.45614e-01,1.93086e-01,8.32132e-02,-1.08623e-01,-2.11572e-01,2.08351e-01,-9.90846e-02,1.83112e-01,1.38379e-01,-1.17982e-01,4.65462e-02,1.78535e-01,1.53828e-01,-1.45071e-02,9.76939e-02,-1.39968e-01,1.35036e-01,-1.46201e-02,1.33341e-01,5.62069e-02,-8.42714e-02,8.78897e-02,-1.53804e-01,2.22036e-01,-7.72812e-02,1.03323e-01,-6.19915e-02,-1.44914e-01,6.71512e-02,-1.10770e-01,-2.15826e-01,-1.73611e-01,2.03160e-01,-1.32522e-01,-1.88146e-01,1.75090e-01,-2.23625e-03,-1.59185e-01,4.87779e-02,2.33578e-01,1.36907e-01,1.57468e-01,7.12073e-02,1.96673e-01,-3.83475e-02,-2.40122e-01,-2.91668e-02,1.57121e-01,-6.01678e-02,-1.92376e-02,-3.47006e-02,-3.72825e-02,-2.00210e-01,-1.05916e-02,1.93529e-01,7.86475e-02,-5.57734e-02,-1.21746e-01,-3.85920e-02,-5.98619e-02,1.58264e-01,-1.33054e-01,8.24536e-02,1.94692e-01,
-2.18989e-01,-2.46465e-04,9.95195e-03,4.95847e-02,9.98983e-02,5.42018e-02,-2.12905e-01,1.56223e-01,1.59720e-01,-1.73484e-01,-2.24857e-01,-1.22946e-01,-2.17754e-01,9.56035e-03,1.45250e-01,1.41247e-01,1.43966e-01,-1.57039e-01,-6.04797e-02,-4.19715e-02,-2.16564e-01,-1.45414e-01,-8.89972e-02,-2.32215e-01,-3.05959e-02,9.90051e-02,-4.98096e-02,-1.90114e-01,-5.91180e-02,1.04528e-01,-9.57497e-02,-7.21800e-02,2.30692e-01,-2.20012e-01,-1.50943e-01,-1.41259e-01,3.89408e-02,-4.60232e-02,-8.18682e-03,-3.23867e-02,-1.98906e-01,1.95851e-01,-4.60557e-02,1.45572e-01,4.78338e-02,-1.81921e-01,8.45429e-02,-8.01255e-02,1.59051e-02,-1.06355e-01,-1.00235e-01,1.92770e-01,3.21316e-02,1.34765e-01,-3.25162e-02,-7.17883e-02,-2.37587e-01,1.19842e-01,-2.43317e-01,-8.82863e-02,7.82531e-02,-9.85667e-02,-9.40049e-03,1.39409e-03,
-4.26035e-02,-3.80360e-02,1.41399e-01,-4.85199e-02,2.95290e-02,2.29893e-01,-4.64349e-02,-2.17345e-01,-4.76311e-02,2.41715e-01,2.09539e-01,-2.23881e-01,4.51055e-02,1.31322e-01,-1.96360e-01,2.15702e-01,-2.12006e-01,-1.24235e-01,1.98978e-01,-1.77274e-01,-9.84570e-02,8.28472e-02,-6.43344e-02,2.43981e-01,1.42241e-01,-2.23690e-01,-9.96121e-02,-1.12596e-01,-8.64093e-02,2.02054e-02,-1.82252e-01,-2.33910e-01,-2.36408e-01,-8.74891e-02,1.51190e-01,1.26008e-01,-1.40570e-01,-2.34477e-01,-1.56896e-01,-8.85874e-03,4.08442e-03,-1.51094e-01,5.83587e-02,-1.01088e-01,1.21047e-01,1.03323e-02,-1.42048e-01,-2.95289e-02,-1.70022e-02,2.30624e-01,2.25502e-02,-8.07042e-02,-1.47214e-01,2.17278e-01,2.30127e-01,1.67161e-01,1.81433e-01,1.06295e-01,-1.41508e-01,-1.44940e-01,-7.80481e-03,-6.14573e-02,2.05811e-01,2.23060e-01,
-2.34695e-02,-8.31508e-02,1.20485e-01,1.06619e-01,-1.12116e-01,-8.18814e-02,2.48239e-01,1.98170e-01,-9.83174e-02,2.16668e-01,7.28028e-02,-1.21011e-01,-2.91157e-03,-1.49319e-03,7.46592e-03,2.94230e-02,6.75461e-02,-1.38744e-01,-2.16515e-01,2.48736e-02,2.23077e-01,1.05003e-01,2.17186e-01,1.37140e-02,-5.56617e-02,9.33082e-02,1.91062e-01,1.15210e-01,1.25473e-01,1.96098e-01,-4.94270e-02,-1.44835e-01,1.85426e-01,-7.66206e-02,-4.48878e-02,-2.53942e-01,-6.67240e-02,6.51451e-02,-2.44800e-01,2.23749e-01,2.42250e-01,1.20110e-01,-3.22645e-02,-6.90548e-02,1.06537e-01,1.45529e-01,1.86356e-01,1.63901e-01,-9.50203e-02,1.31156e-01,-1.82215e-01,9.08262e-03,4.92885e-02,-2.26161e-01,2.57157e-02,-2.15248e-02,1.73421e-01,-1.24982e-01,-2.92673e-02,-7.54547e-02,2.09333e-01,1.65255e-01,1.82303e-01,1.40376e-01,
-1.89079e-01,-5.81508e-02,7.40876e-02,2.38660e-01,2.29298e-01,1.44745e-02,6.78911e-02,-8.47726e-02,-2.13812e-01,1.03602e-01,1.34822e-01,1.56724e-02,-6.99596e-02,4.65975e-02,1.23865e-01,1.08602e-01,-1.30080e-01,-1.45038e-01,1.42406e-01,1.31785e-01,1.37291e-01,1.06736e-01,1.77094e-01,-1.35242e-02,-9.41050e-02,1.55580e-03,1.74094e-01,-1.23201e-01,-2.04677e-01,-8.20429e-02,1.73539e-01,-8.41276e-02,-1.84916e-01,-6.19913e-02,-2.05222e-01,-2.03985e-01,1.90431e-01,-1.74689e-01,1.26213e-01,2.33624e-01,1.90417e-01,7.44301e-02,-1.06811e-01,-2.16851e-01,-3.16811e-03,-2.29946e-02,6.60706e-02,-1.45768e-01,1.06098e-01,1.87379e-01,-4.58646e-02,-1.64001e-01,1.62284e-01,1.62972e-02,2.22233e-01,-2.22644e-01,-1.92949e-01,4.50889e-02,5.44616e-02,-8.72961e-02,2.07231e-01,-1.61682e-01,1.31970e-01,-1.72308e-01,
1.86967e-01,1.82882e-01,1.20832e-01,1.81789e-01,-1.97601e-02,-2.22073e-02,1.95825e-01,-5.19837e-02,1.63085e-01,-2.53181e-02,8.70676e-02,1.07547e-01,1.39039e-02,-1.81766e-01,1.18377e-02,-2.29676e-01,1.61434e-01,-1.06050e-01,-7.25555e-02,-2.28014e-01,-2.08657e-01,1.25719e-01,-3.53115e-02,1.71037e-01,9.66443e-02,5.70714e-03,-1.63377e-01,1.95291e-01,5.65936e-02,-2.22933e-02,2.60000e-02,1.62971e-01,8.86301e-02,1.53096e-01,-1.00770e-01,1.08685e-01,2.37369e-01,4.48461e-02,2.05585e-01,9.05660e-02,4.74668e-02,1.16242e-01,-9.03887e-03,2.34970e-01,-2.28897e-01,1.57045e-01,-1.00723e-02,-6.56304e-02,-1.99629e-01,1.45182e-01,-2.10616e-01,1.61993e-01,-2.13737e-01,-1.17435e-01,2.10908e-01,-1.43330e-01,-2.25655e-02,-1.96558e-01,-1.78432e-01,8.91834e-02,-1.37733e-01,1.38857e-01,1.92674e-01,-1.70315e-01,
0.00000e+00,
0.00000e+00,
-5.43789e-02,
0.00000e+00,
0.00000e+00,
0.00000e+00,
-3.44830e-02,
3.89032e-02,
0.00000e+00,
3.54818e-02,
0.00000e+00,
-3.71973e-02,
0.00000e+00,
0.00000e+00,
0.00000e+00,
-3.92967e-02,
0.00000e+00,
0.00000e+00,
3.83849e-02,
0.00000e+00,
0.00000e+00,
0.00000e+00,
0.00000e+00,
-3.96068e-02,
6.18253e-03,
0.00000e+00,
0.00000e+00,
0.00000e+00,
-1.66121e-02,
-4.71659e-02,
0.00000e+00,
0.00000e+00,
1.48456e-02,5.06669e-02,-1.42074e-01,5.36556e-02,-1.99825e-01,1.22620e-01,-2.46559e-01,-1.82525e-01,-3.08859e-01,-1.95535e-01,9.10068e-03,-2.30294e-02,-2.05738e-01,-2.54801e-01,1.18921e-01,1.32256e-01,4.58094e-03,-8.66313e-02,2.61402e-01,-1.07469e-01,-3.50194e-01,-2.25527e-01,-1.50862e-01,-2.21588e-01,-3.27880e-01,1.31451e-01,7.97582e-02,1.15679e-01,-3.68931e-02,-2.86945e-01,-1.09805e-01,1.71532e-01,
-1.43009e-01,-5.12398e-02,-8.59328e-02,1.55301e-02,2.67044e-01,3.64184e-02,3.29210e-02,-1.38468e-01,1.07064e-01,-1.95544e-01,1.28024e-01,9.26159e-02,1.96974e-01,-3.04176e-01,1.07614e-01,-1.63839e-01,-3.26088e-01,1.12034e-01,-9.98380e-02,2.48915e-01,-2.20954e-01,3.08769e-01,3.31611e-01,-2.93968e-01,1.81432e-01,2.76688e-01,-1.29298e-01,-2.69036e-01,8.95563e-03,9.16652e-02,-4.05603e-02,-8.39264e-02,
3.17185e-01,1.93216e-01,1.38031e-01,3.86595e-02,2.91142e-01,1.36677e-01,2.93549e-01,-1.97296e-01,9.46754e-03,2.29714e-01,1.61632e-02,5.51064e-02,-9.60938e-02,4.31697e-02,2.71914e-01,-1.87264e-02,-2.51526e-01,2.86244e-01,-2.89444e-01,2.92418e-01,-3.19323e-01,-2.49334e-01,-1.97473e-01,2.83466e-01,-2.32639e-01,-1.93396e-01,3.33857e-01,2.35224e-01,1.27494e-01,-1.04453e-01,-2.27695e-01,-1.79757e-01,
-1.62244e-01,-2.77813e-01,-2.36794e-02,-1.49554e-01,-2.90066e-01,-2.01708e-01,2.03794e-02,2.50715e-01,-5.26288e-02,-2.84924e-01,6.92945e-02,-2.22529e-01,-4.52985e-02,-3.01867e-01,9.05392e-02,7.95785e-02,5.39968e-02,-1.29465e-01,-2.94980e-01,5.11809e-02,-2.90271e-01,2.49485e-01,8.10145e-02,-1.26743e-01,-2.16030e-01,1.37953e-02,-1.16749e-01,6.70133e-02,-2.65879e-01,2.96786e-01,-1.35863e-01,-1.65631e-02,
2.55556e-02,-1.56979e-01,9.28311e-02,1.60490e-01,-1.00857e-01,3.05833e-01,9.19351e-02,1.50713e-01,2.16869e-01,1.08577e-01,3.49507e-01,-3.51827e-01,2.00978e-01,1.59483e-01,4.56922e-02,-2.89612e-01,2.89440e-01,-1.92026e-01,1.59410e-01,-1.59871e-01,-2.65272e-01,-6.68371e-02,2.24951e-01,-1.09766e-01,5.82546e-02,8.94832e-02,1.81296e-01,2.00408e-01,1.15851e-01,-3.01669e-01,3.43505e-01,-8.62842e-02,
1.34433e-01,-3.46950e-01,8.34634e-02,-2.79780e-01,-1.12112e-02,-1.10030e-01,1.10104e-01,-1.30929e-01,-2.86030e-02,-1.74704e-01,3.50456e-01,-2.44316e-01,-5.10296e-02,3.16775e-01,-1.93006e-01,-1.14492e-01,-2.68755e-01,5.77864e-02,8.58486e-02,-1.70821e-01,4.52854e-02,-2.13255e-01,-1.08763e-02,5.95695e-02,-2.85930e-01,1.83120e-01,-3.24659e-01,1.11933e-02,-1.71838e-01,3.37848e-01,3.29064e-02,-9.97221e-02,
8.54333e-02,1.25894e-01,2.51008e-01,3.20816e-01,-7.27204e-02,-3.73304e-03,-3.06996e-01,-1.10731e-02,-2.63280e-01,5.71060e-02,-1.55802e-01,-3.60054e-01,-2.02981e-01,3.48696e-01,-2.36923e-01,3.85105e-03,-3.33807e-01,1.20965e-01,3.61062e-02,-3.04771e-02,5.30373e-02,-2.61540e-01,3.24644e-01,-1.26330e-01,1.97803e-01,-6.05713e-02,2.02330e-01,1.96279e-01,-1.67885e-01,1.13604e-01,-5.33727e-02,1.59951e-01,
2.14432e-01,2.70570e-01,-4.72629e-02,-2.96682e-01,-1.38468e-01,-1.45579e-01,5.06494e-02,-4.74067e-02,-4.34572e-02,2.18395e-01,-2.57220e-01,3.44306e-01,-6.67751e-02,8.60405e-02,-6.73528e-02,-9.62652e-02,1.24476e-01,2.83812e-01,-1.41603e-01,-2.28775e-01,-2.27443e-01,-1.68229e-01,1.43915e-01,1.56967e-01,-1.23225e-01,-1.91889e-01,1.97754e-01,-1.08242e-01,-2.21924e-01,2.71451e-01,-2.33048e-01,8.91362e-02,
1.35884e-01,-1.66406e-01,8.46325e-02,-1.87129e-01,-3.01439e-01,-5.33068e-02,-3.23412e-01,-7.55633e-03,-3.46295e-01,4.84745e-02,5.91995e-02,3.28444e-01,7.12349e-02,2.24871e-01,1.49904e-01,-1.54140e-02,1.42673e-01,-2.39233e-01,-6.64818e-02,-3.28991e-01,-2.28477e-01,-1.66821e-02,-4.93317e-02,1.54452e-01,1.94770e-01,3.42492e-01,-5.84611e-02,-1.32940e-01,2.80009e-01,-7.09752e-02,-2.74884e-01,-1.42323e-01,
2.29578e-01,6.51748e-02,-1.58941e-01,3.47680e-01,7.47394e-02,2.55737e-01,-1.11292e-01,2.82754e-01,2.18591e-01,1.95327e-01,-8.83777e-02,2.29532e-02,-8.56437e-02,-2.63400e-01,3.08350e-01,-1.77420e-01,-9.46760e-02,-1.88507e-01,3.17863e-01,-2.54218e-01,2.57525e-01,3.51213e-01,-7.19964e-02,2.39811e-01,5.81351e-02,9.64826e-03,-2.05489e-01,-2.60080e-01,-1.44004e-01,-2.23932e-01,-1.32581e-01,-2.47825e-01,
-8.76960e-02,3.53379e-01,1.71241e-01,-3.10170e-01,-3.24107e-01,-3.43054e-01,1.53700e-02,-2.50743e-01,-1.55754e-01,1.23642e-01,-4.96362e-02,-2.55623e-01,6.78214e-02,7.06712e-02,-1.78436e-01,1.77032e-01,-7.25970e-03,-1.80168e-01,-1.11673e-01,2.44864e-01,2.94691e-01,-1.63734e-01,4.37612e-02,-2.94098e-01,-2.09098e-01,-1.35572e-01,-1.34236e-01,-2.04160e-02,-6.14348e-02,3.40788e-01,-1.14009e-01,8.13856e-02,
1.97069e-01,2.04009e-01,-3.21733e-01,-2.17123e-01,2.02800e-01,2.46006e-01,4.97702e-02,-2.39969e-01,2.80899e-01,2.32423e-01,2.95241e-01,-7.49347e-02,3.44550e-01,2.92044e-01,1.37667e-01,2.73103e-01,-2.84936e-01,-9.37542e-02,8.13716e-02,1.66697e-01,7.05580e-02,1.99932e-01,-2.98645e-01,-3.50626e-01,-3.02950e-01,2.02671e-01,-1.97199e-01,-2.78538e-01,9.88035e-02,3.40029e-01,1.71111e-01,-1.61132e-01,
-3.10663e-01,-1.53941e-02,1.73358e-01,2.00608e-01,7.80771e-02,-1.23741e-01,1.25107e-01,-2.59164e-01,-2.76127e-01,-1.74658e-01,3.29052e-01,9.24804e-02,-1.28853e-01,1.78153e-01,-3.81963e-02,2.64433e-01,1.76479e-01,1.67833e-01,-2.83816e-01,-8.72791e-04,1.21077e-01,-1.01566e-01,-5.55440e-02,-1.02423e-01,2.60389e-01,2.09020e-02,1.98499e-01,2.29883e-01,-2.07959e-01,-2.05435e-01,-2.54768e-01,3.00851e-01,
2.03817e-01,-9.12856e-02,2.40026e-01,-2.50694e-02,3.11817e-01,-2.55206e-01,-2.16359e-01,-5.54322e-02,1.81569e-01,1.14234e-01,1.41846e-01,2.02919e-01,2.84037e-01,8.96065e-02,-1.63764e-01,3.05252e-01,1.93133e-01,3.09347e-01,2.97480e-01,-1.63185e-01,3.33379e-01,-9.07813e-02,2.11585e-01,3.24902e-01,9.98133e-02,-2.42259e-01,1.02381e-01,-1.59810e-01,3.78968e-04,3.23662e-01,-1.88160e-01,2.96994e-01,
2.02430e-01,4.95823e-02,8.45159e-02,8.43124e-02,-2.03516e-01,3.40892e-02,-1.52226e-01,-1.06578e-01,3.42887e-01,-2.11368e-02,1.26450e-01,2.36436e-01,1.64360e-01,-1.48842e-01,2.75732e-01,-2.95889e-01,-2.24573e-01,-2.44647e-01,-6.45927e-02,-1.59851e-01,-1.45111e-01,-2.07424e-01,-4.74915e-02,-2.32054e-01,4.11294e-02,2.19423e-01,-2.69561e-01,1.79909e-01,-9.19767e-02,2.99471e-01,-3.05391e-01,-7.76768e-02,
3.16302e-01,-1.97081e-01,1.82509e-01,2.38424e-01,5.03479e-02,1.34615e-02,-8.10582e-02,-3.08533e-01,-1.01856e-01,2.33388e-01,-2.53464e-01,-3.20516e-01,2.46769e-01,-1.50570e-01,1.79370e-02,9.06018e-02,1.57059e-01,-4.65635e-02,2.09045e-01,1.28738e-01,-7.61240e-02,2.71707e-01,1.89916e-01,-1.02979e-01,-2.06876e-01,3.15439e-01,2.79751e-02,-9.79742e-02,3.18256e-01,2.66038e-02,-2.77606e-03,-1.15610e-01,
0.00000e+00,
0.00000e+00,
-3.97646e-02,
0.00000e+00,
3.65348e-02,
-3.40920e-03,
-9.64730e-03,
3.37632e-02,
-3.93268e-02,
4.00274e-02,
0.00000e+00,
0.00000e+00,
0.00000e+00,
-5.01371e-02,
0.00000e+00,
3.90765e-02,
4.47736e-01,1.05523e-01,-7.90727e-02,4.15451e-01,2.76622e-02,-2.13399e-01,-1.19758e-02,4.56189e-01,4.84887e-01,-3.67206e-01,-3.81860e-01,4.34451e-01,3.03466e-01,3.16408e-01,-4.74802e-02,-1.63898e-01,
9.84938e-02,3.17541e-01,3.50163e-01,2.06712e-01,-1.99008e-01,-1.33160e-01,-4.53005e-01,4.41980e-01,-2.75568e-01,-3.84667e-01,2.28396e-01,-4.24216e-01,-4.02769e-01,-4.73547e-01,2.04906e-01,-1.33270e-01,
1.49351e-01,2.21898e-01,3.51572e-01,-1.35489e-01,3.72676e-02,9.10311e-02,-6.38944e-02,-2.48646e-01,-3.44027e-01,-1.18663e-01,1.03466e-01,3.30131e-01,-2.62116e-02,3.97317e-01,4.28705e-01,1.63443e-01,
-1.65680e-01,4.19224e-01,-5.13698e-02,-3.11650e-01,1.98460e-01,1.32668e-01,-1.13310e-01,-4.90997e-01,-1.91149e-01,1.59328e-01,-4.61267e-01,-2.30848e-01,-1.13606e-01,-4.00771e-01,-4.65052e-02,1.65849e-01,
1.93924e-02,4.30973e-01,-1.95627e-01,3.39516e-01,2.11853e-01,2.56250e-01,2.19378e-01,3.84576e-01,-2.84283e-01,2.40094e-01,2.92882e-01,-2.85373e-01,-1.50088e-01,1.13301e-01,-1.95885e-01,3.16150e-01,
1.65716e-02,-4.38864e-01,3.20068e-01,2.22005e-01,-2.26837e-01,-3.95709e-01,-3.40788e-01,3.68245e-01,1.71755e-01,-6.26795e-02,-2.45809e-01,-2.19183e-01,2.83093e-01,-1.93685e-01,3.79571e-01,2.37748e-01,
2.30808e-01,-3.27323e-01,-1.91543e-01,-2.12525e-01,-4.85917e-01,-1.12606e-01,1.96806e-01,4.38696e-01,3.47041e-01,-3.75475e-01,3.13982e-01,-9.44508e-02,2.34015e-01,-4.03542e-01,3.23721e-01,1.28317e-02,
2.69530e-01,4.38572e-02,1.04305e-01,-1.59639e-01,3.23590e-02,1.90294e-01,-3.77006e-01,3.59533e-01,-3.34603e-01,2.65093e-02,4.59107e-01,-4.66410e-01,3.53403e-01,1.06404e-01,-2.90566e-01,1.05526e-01,
-4.76522e-02,
0.00000e+00,
-4.60112e-02,
0.00000e+00,
3.99274e-02,
0.00000e+00,
0.00000e+00,
-4.00864e-02,
6.27860e-01,5.16758e-01,6.65685e-02,-2.87842e-01,-6.82484e-01,2.66987e-01,3.60409e-01,4.17423e-01,
3.45248e-01,2.24882e-01,1.45229e-03,-5.68551e-01,5.86470e-01,6.59684e-01,6.61471e-01,-5.00578e-01,
-4.53597e-01,4.45770e-01,-3.05665e-01,-4.60982e-01,-6.60437e-01,2.56027e-02,-4.38348e-01,-1.95109e-01,
3.58140e-01,-7.35403e-02,-4.08426e-01,5.66506e-01,-3.77517e-01,1.71188e-01,-6.11712e-01,-5.34179e-02,
-4.32662e-02,
3.93777e-02,
0.00000e+00,
0.00000e+00,
-5.96457e-01,6.51881e-01,-1.01864e-01,-5.91890e-01,
3.95676e-02,
