// Neural Network File Format by Kyle Julian, Stanford 2016
10,20,1,20,
20,10,10,10,10,10,10,10,10,10,1,
0,
0,0,0,0,0,0,0,1,0,1,0,0,0,0,1,0,1,0,0,0,
2,80,2,9,20000,2,2,4,2,4,2,1,2,2,4,3,2,1,1,1,
0,0,0,0,0,0,0,1,0,1,0,0,0,0,1,0,1,0,0,0,0,
2,80,2,9,20000,2,2,3,2,3,2,1,2,2,3,3,1,1,1,1,1,
1.63769e-02,2.71122e-01,2.89701e-01,-2.04848e-02,8.25176e-02,-1.90826e-01,-2.70535e-01,-2.23789e-01,4.22832e-01,3.45133e-01,1.76637e-01,-1.75898e-01,-1.76558e-01,-1.79279e-01,-3.09138e-01,-3.09728e-01,-1.85329e-01,-4.07229e-01,5.25749e-01,3.17036e-01,
-6.17004e-01,-3.60028e-01,-2.68850e-01,-8.60795e-02,1.47278e-01,-5.68409e-01,-3.77129e-01,-3.64142e-02,-2.95731e-01,-6.25977e-01,-1.50252e-01,1.27312e-01,2.46387e-02,-5.64721e-01,1.98442e-01,-5.45187e-01,2.02068e-02,-1.76854e-01,-3.41884e-01,-1.18987e-01,
1.67669e-01,-1.27349e-01,1.45813e-02,1.80774e-01,8.53491e-02,3.89665e-02,3.72659e-01,9.96865e-02,-2.39211e-01,3.58190e-01,-1.27552e-01,6.33804e-01,-1.99323e-01,1.12442e-01,1.15393e-01,-1.47033e-01,3.61051e-01,5.47066e-01,-1.11725e-01,-2.15846e-01,
-1.72103e-01,-3.34734e-01,2.41443e-01,3.90802e-01,-2.77684e-02,1.21521e-01,-2.35814e-01,2.58070e-02,5.18697e-02,-1.04346e-01,-1.23386e-01,-4.21066e-01,1.73005e-02,-4.04968e-01,-2.59646e-01,2.15966e-01,-3.29073e-01,3.60604e-01,-3.38464e-01,2.29323e-01,
-4.31398e-01,-1.90239e-01,-4.00745e-02,-8.37798e-02,-3.91028e-01,-3.23310e-01,2.55614e-01,-2.52977e-02,3.70329e-01,2.81531e-01,2.54901e-01,1.03855e-01,2.99578e-01,-2.64813e-01,1.76563e-01,3.10221e-01,4.20649e-01,-1.68841e-01,2.40009e-01,-3.36891e-01,
2.22428e-01,-1.96669e-01,3.67935e-01,-1.78913e-01,-1.54375e-01,2.74164e-01,-2.85238e-01,6.79896e-02,-4.14833e-01,3.58447e-01,-3.89250e-02,6.30712e-02,-1.68783e-01,1.35835e-01,2.73426e-02,-2.17336e-01,2.07754e-01,8.84883e-02,-4.02083e-01,-3.36471e-01,
1.24730e-01,-2.10387e-01,1.98771e-01,-1.30488e-01,-1.20349e-01,-1.23645e-02,-1.02851e-01,-4.40073e-01,-1.89475e-01,-2.70387e-01,1.21383e-01,4.12329e-01,1.10371e-01,1.82678e-01,4.02839e-01,-4.39452e-01,2.56876e-01,2.78408e-01,-1.80411e-01,4.21967e-01,
7.51477e-03,-1.97779e-01,-2.30885e-01,-3.44250e-01,2.31603e-01,-2.75825e-01,-3.99539e-02,3.35593e-01,-2.88185e-01,2.34376e-01,-2.71912e-02,-5.03428e-01,1.82299e-01,-2.21158e-03,-3.60021e-01,2.28041e-01,2.39284e-02,-1.88670e-01,-3.87804e-01,1.83577e-02,
2.24850e-01,-6.25973e-02,7.77584e-01,5.75435e-01,2.20327e-01,1.82894e-01,2.12396e-02,-1.55972e-01,4.96664e-01,3.81708e-01,-4.23915e-01,5.56957e-01,5.28076e-01,1.27783e-01,-1.88643e-01,1.79476e-01,3.10792e-01,6.00339e-01,2.51175e-01,5.58116e-01,
3.52129e-02,-3.22515e-01,1.02842e-01,-1.88621e-01,-3.73889e-01,3.94007e-01,-3.91144e-01,3.19186e-01,8.80755e-02,4.09192e-01,2.55240e-02,-1.06058e-01,-1.64334e-01,-4.44078e-01,-2.92053e-01,-1.94527e-01,7.66301e-02,1.71169e-02,1.91052e-01,-3.70457e-01,
6.77253e-02,
-1.95247e-01,
2.05432e-01,
0.00000e+00,
0.00000e+00,
0.00000e+00,
0.00000e+00,
-5.06246e-02,
2.13365e-01,
0.00000e+00,
-4.13463e-01,-5.65699e-02,4.74757e-01,3.95265e-01,-3.91212e-01,-9.54523e-02,-9.08393e-03,-3.79750e-01,-4.68485e-01,1.82438e-01,
4.18819e-01,-2.71721e-01,1.54305e-01,3.82624e-01,4.12254e-01,-1.61725e-02,2.66765e-01,-2.43307e-01,3.13846e-01,-2.29679e-01,
1.96979e-01,4.30386e-01,-1.78351e-02,2.44757e-01,-2.27231e-01,1.44390e-01,-5.05070e-01,-5.47579e-01,4.57464e-01,2.39993e-01,
-2.50162e-01,-1.11305e-01,-2.88624e-02,4.36721e-01,3.89416e-01,5.41220e-01,5.08130e-04,-5.25252e-01,-3.64904e-01,-2.33595e-01,
-3.14994e-01,-5.21868e-01,3.86865e-01,2.00437e-01,-4.63290e-01,-3.46599e-02,1.92104e-01,-3.92943e-01,2.05138e-01,2.09667e-02,
3.65312e-01,3.57487e-01,-2.90020e-01,2.94076e-01,-1.80447e-01,1.86156e-01,-1.84959e-02,-4.83991e-01,-2.28692e-01,4.13276e-01,
-2.93283e-01,2.36368e-01,-1.23744e-01,4.35620e-01,2.45667e-01,-4.49332e-01,3.74358e-01,-2.56461e-01,-3.97796e-02,2.58434e-01,
1.75938e-01,-3.98306e-01,4.80867e-01,-3.47170e-01,3.24392e-01,-3.29176e-01,-9.01205e-02,3.65371e-01,2.62397e-02,9.39429e-03,
2.26162e-01,3.81203e-01,-2.17473e-01,2.69585e-01,-2.21994e-01,5.01508e-01,3.66627e-01,2.32760e-01,-2.09539e-01,-5.86827e-02,
-4.75451e-01,4.26437e-01,8.85483e-02,2.01251e-01,2.52063e-02,-1.96835e-01,-4.41994e-01,-3.64129e-01,4.66810e-01,-1.75765e-01,
0.00000e+00,
3.02630e-01,
-1.08283e-01,
0.00000e+00,
0.00000e+00,
0.00000e+00,
0.00000e+00,
9.75544e-02,
-2.64950e-01,
6.47464e-02,
2.90059e-02,-5.45652e-01,4.02997e-01,-3.39923e-01,-2.98072e-02,-2.90716e-01,-5.21394e-01,-5.11030e-01,5.28207e-01,2.31213e-01,
-3.78113e-01,1.24303e-01,-5.15683e-01,-8.25349e-02,-1.92000e-01,-3.33326e-01,4.07659e-02,3.60286e-01,3.13956e-01,4.91355e-02,
-1.18050e-01,2.81933e-01,-3.52508e-01,2.76327e-01,-3.19792e-01,5.02377e-01,4.25684e-02,1.46756e-01,1.96547e-01,-3.56487e-01,
-1.46899e-01,4.05606e-02,4.00485e-01,-5.47195e-01,2.16188e-01,-6.63674e-02,-1.95511e-01,-5.14937e-01,-1.51431e-03,-1.63647e-01,
5.43606e-01,4.88115e-01,-2.26927e-01,4.90137e-01,-2.91919e-01,1.67577e-01,-3.87419e-01,-2.45541e-01,-1.75284e-01,5.31764e-01,
-4.76986e-01,-2.51250e-01,-3.68170e-01,-2.78690e-01,-1.97623e-01,-3.30702e-01,-1.78403e-01,1.60182e-02,-9.41377e-02,-1.46636e-01,
-3.76720e-01,2.28444e-01,3.12418e-01,-3.86128e-01,1.97332e-02,4.30925e-01,2.15363e-01,1.25942e-01,-1.76211e-01,-3.00623e-01,
-1.42619e-01,-3.07651e-01,-1.50901e-02,-5.07109e-01,2.17364e-01,3.72201e-01,4.61033e-01,3.30901e-02,5.11959e-01,-2.31056e-01,
4.92429e-01,3.90831e-01,5.18444e-02,-3.86841e-01,4.14257e-01,1.59783e-01,3.76363e-01,-1.87132e-01,-5.12052e-01,-2.52358e-02,
9.15128e-02,-3.24771e-01,-8.17810e-02,1.20905e-01,-1.06294e-01,-5.61623e-02,-3.28364e-01,-4.39999e-01,-3.19272e-01,-1.40117e-01,
1.04660e-01,
8.82352e-02,
1.49811e-01,
7.73378e-03,
3.39831e-02,
0.00000e+00,
1.53406e-01,
-2.32268e-01,
0.00000e+00,
0.00000e+00,
-5.92879e-02,-2.70097e-01,-2.13645e-01,-5.03980e-01,1.21602e-01,3.07103e-02,4.29057e-01,2.63792e-01,5.47401e-01,-1.40969e-01,
4.46312e-01,3.71128e-02,-5.09592e-01,4.12940e-01,1.25287e-01,-2.46527e-01,-3.73423e-01,-3.14521e-01,1.22784e-01,-1.42718e-01,
-4.74168e-01,4.25194e-02,-7.62147e-03,-2.63756e-01,4.85269e-01,2.34531e-01,-2.73890e-01,-2.57420e-01,2.27666e-01,-5.11466e-02,
1.27183e-01,-5.35036e-01,5.10960e-01,1.94599e-01,-1.55145e-01,4.11753e-01,-3.48925e-01,-7.53772e-02,4.30202e-01,1.29186e-01,
1.33035e-02,2.25146e-01,1.41244e-01,-3.46181e-01,-3.32621e-01,3.96858e-01,-1.64729e-01,-5.70326e-01,-3.82375e-01,3.34032e-02,
-5.20816e-02,4.97597e-01,-4.59953e-01,-2.21924e-01,-1.95901e-01,4.85073e-01,3.97577e-01,-3.35476e-01,-1.70638e-01,-4.67939e-01,
-1.79795e-01,3.09577e-01,-2.68546e-01,1.64718e-01,-1.76102e-01,-2.28434e-01,-9.57688e-02,2.35804e-01,-3.52794e-01,4.13290e-01,
-2.30598e-01,5.10042e-02,2.01945e-01,6.36488e-02,-2.45658e-01,5.31126e-01,3.40530e-01,4.02095e-01,4.10985e-01,-3.96460e-01,
4.52988e-01,3.80766e-01,3.89161e-01,2.80812e-01,5.62373e-01,-2.84758e-01,3.70188e-01,-4.79504e-01,4.22621e-01,-5.35529e-01,
-3.85730e-01,-4.47360e-01,2.42470e-01,2.14585e-01,3.33085e-01,-3.86840e-01,5.02186e-01,-3.09878e-01,5.04674e-01,-3.03050e-01,
-1.20706e-01,
-1.17777e-02,
8.58657e-03,
0.00000e+00,
-1.34740e-01,
1.38887e-01,
-2.08582e-01,
-1.76440e-01,
1.55941e-01,
-2.03157e-02,
3.75166e-01,1.28213e-01,3.27408e-01,4.46162e-01,-1.54243e-01,3.69159e-02,3.56911e-01,4.43190e-03,-2.81531e-01,2.71633e-01,
-3.21040e-01,-1.07084e-01,-3.15305e-01,-1.57884e-01,-2.56464e-01,-1.58509e-01,1.09911e-01,-8.21794e-02,4.65184e-01,5.06965e-01,
5.10456e-01,4.70884e-01,-3.89203e-01,-6.60849e-02,4.37288e-01,-4.81262e-01,-6.09886e-02,4.89287e-02,4.00031e-01,3.52674e-01,
-2.50678e-02,3.14779e-01,-5.05845e-01,-1.12101e-01,-3.65079e-01,2.79646e-01,-3.59113e-01,3.40143e-01,5.30662e-01,-1.90587e-01,
3.17709e-01,9.29713e-03,-3.19168e-01,5.13381e-01,9.26942e-02,3.55565e-01,-3.68758e-01,-2.30421e-01,-5.21448e-01,-2.31009e-01,
-2.80419e-01,4.09156e-01,1.13539e-01,3.72741e-01,1.70912e-01,2.21653e-01,-4.16271e-01,5.04844e-01,-4.13169e-01,2.34473e-01,
-1.08381e-01,1.06936e-01,-5.01184e-01,-7.98772e-02,-1.30765e-01,5.35083e-01,4.13629e-01,5.41208e-01,-3.17163e-03,6.18769e-02,
-1.46500e-01,-1.69296e-01,3.55414e-01,3.39930e-02,5.08774e-01,3.62324e-01,-4.71066e-01,-5.68102e-01,2.57369e-01,1.09447e-01,
3.76075e-01,-6.31955e-02,-3.60294e-01,2.14180e-01,-1.42016e-01,-5.63051e-01,-1.06715e-01,3.15403e-01,2.77769e-01,-1.15506e-01,
-3.28066e-01,-2.79434e-02,7.16561e-02,1.06118e-01,4.11901e-01,1.24767e-01,-2.07817e-01,-2.03575e-01,-1.36683e-01,-4.37874e-01,
2.81126e-01,
-1.59964e-01,
-1.51586e-01,
2.63912e-01,
0.00000e+00,
-7.98928e-02,
-2.87238e-01,
1.65609e-01,
-1.65167e-01,
0.00000e+00,
-1.64694e-01,3.35757e-01,4.31692e-01,-4.77140e-01,4.47114e-01,1.85556e-01,3.47536e-01,1.54211e-01,2.87669e-01,-4.05217e-01,
4.96580e-01,-4.41241e-01,3.43196e-02,1.22994e-01,-1.01316e-01,-4.32102e-01,-6.07365e-02,-3.29890e-01,-1.11364e-01,-5.16195e-01,
-4.64344e-02,3.77132e-01,1.90931e-01,-2.47497e-02,-5.33651e-01,1.13742e-01,-4.33342e-01,-3.37622e-01,-2.65551e-01,-1.27098e-02,
3.66304e-01,2.64921e-01,5.21407e-01,1.03001e-01,-3.49097e-01,4.65569e-01,2.11772e-01,-5.75720e-02,8.54682e-02,-4.86164e-02,
-3.97221e-01,-1.88904e-02,3.33567e-01,-1.89305e-01,3.25383e-01,3.01493e-01,2.16302e-01,2.08782e-01,-1.05038e-01,-1.31405e-01,
3.95513e-01,3.27092e-01,3.62742e-01,1.92049e-01,3.11253e-01,-4.41343e-01,-1.58663e-01,-3.37561e-01,3.87828e-01,4.35929e-02,
1.35518e-01,2.37722e-01,5.25726e-01,-3.36885e-03,4.83513e-03,4.94665e-01,-7.75995e-02,5.31117e-01,-2.57905e-01,5.21668e-01,
-1.66643e-01,-9.26892e-02,5.00884e-01,4.71265e-01,5.03906e-01,-2.55836e-01,3.38016e-01,5.18717e-01,3.02868e-01,2.85695e-01,
2.56375e-01,-4.52392e-01,-1.67529e-01,-3.87496e-01,-7.24139e-02,-9.11165e-02,2.42560e-01,4.47398e-01,-6.96381e-02,-1.93535e-01,
-1.16412e-01,-1.96638e-01,-3.99616e-02,3.43024e-01,-5.27771e-01,-7.13296e-02,-3.21746e-01,1.51705e-01,4.20296e-01,-2.29468e-01,
-2.56398e-01,
-8.97093e-02,
-3.99505e-02,
-2.96383e-01,
-2.85078e-01,
3.03455e-01,
2.14604e-01,
2.55233e-01,
3.88723e-02,
-1.60007e-01,
2.96051e-01,3.19222e-01,2.32498e-01,1.50039e-01,1.04658e-01,3.89992e-01,2.64809e-01,3.55720e-01,3.79197e-01,9.98623e-03,
3.05087e-01,-1.03982e-01,7.98622e-02,-4.60596e-01,-4.81967e-01,-1.49284e-01,1.52343e-01,1.98427e-01,-2.25697e-01,-6.29317e-02,
4.82018e-01,2.83806e-01,-1.94266e-02,3.54733e-01,4.80785e-01,2.87711e-01,-1.80787e-01,9.89855e-02,-4.78546e-01,5.43456e-01,
-3.26062e-01,-7.69615e-02,-4.09500e-01,-2.02686e-01,-3.85795e-01,-7.93390e-02,-6.52603e-02,3.24751e-01,3.90675e-01,5.34554e-01,
-4.89825e-01,-2.87810e-01,4.57583e-01,6.82308e-02,-3.34776e-01,-1.96749e-02,3.99951e-01,-2.26709e-01,2.00503e-01,-1.57757e-01,
-3.37703e-02,-4.60946e-01,-1.48976e-01,-2.97845e-02,-4.27877e-01,3.35280e-01,-1.62801e-01,5.43022e-01,-3.60507e-01,2.65683e-01,
-3.26662e-01,1.99540e-01,2.66269e-01,2.26749e-01,3.16670e-01,-2.99733e-01,4.45669e-01,-7.71395e-02,-3.36866e-01,-3.23750e-01,
-1.58364e-02,3.98212e-01,-1.47526e-01,-5.13574e-01,-1.75025e-01,3.90233e-01,-5.25855e-01,-3.57649e-01,1.65206e-02,5.58935e-02,
7.22958e-02,2.03334e-01,-5.37674e-01,1.09994e-01,3.66672e-02,-2.02738e-01,4.47388e-02,2.08468e-01,1.53404e-01,2.38607e-01,
5.11732e-01,-2.91096e-02,-4.64290e-02,-4.34032e-01,-5.17704e-01,-2.17383e-01,5.40866e-01,-3.31839e-01,-1.80441e-01,-1.76146e-01,
2.94117e-01,
5.49392e-02,
-3.14320e-01,
6.11041e-02,
-5.92299e-02,
2.52603e-01,
-8.64041e-02,
0.00000e+00,
-2.47064e-01,
0.00000e+00,
2.61802e-01,-2.70289e-01,3.51634e-01,3.66100e-01,4.25554e-01,-5.07720e-01,-2.42672e-01,1.19093e-01,4.44319e-01,4.00765e-01,
3.38468e-01,2.06504e-01,-1.35869e-01,-3.26410e-01,3.77994e-01,-5.58671e-01,1.62083e-01,-4.71847e-01,-1.22210e-01,4.98377e-01,
-3.50377e-01,-2.43861e-03,4.12497e-01,1.64103e-01,-2.24394e-01,4.48219e-01,2.50926e-01,4.08094e-01,4.03606e-02,-5.49938e-02,
2.32490e-02,2.58460e-01,-1.97308e-02,-2.74466e-01,-8.79031e-02,1.89965e-01,-1.92777e-01,-2.78143e-01,2.35250e-01,-9.42269e-02,
-3.62182e-01,4.34454e-01,-2.92926e-01,3.53083e-01,1.17807e-01,5.17520e-01,3.77648e-01,-4.14916e-01,-1.44052e-01,2.63547e-01,
-3.93749e-01,4.40896e-01,-4.84537e-02,4.14394e-02,2.39816e-01,4.81259e-02,-5.22065e-01,3.65387e-01,-5.38550e-01,-1.68255e-01,
-1.41046e-01,-5.32210e-01,-3.84324e-01,-3.47769e-01,2.41784e-01,-1.60015e-01,-3.25527e-01,1.97016e-01,-3.02090e-01,4.56948e-02,
-3.30544e-01,-4.37103e-01,-1.29655e-01,-8.85258e-02,1.59449e-01,4.15689e-01,-3.83862e-01,3.77082e-02,-1.73921e-01,-2.79293e-01,
-1.76967e-01,2.79030e-01,3.96974e-01,1.01557e-01,6.27164e-02,-1.82168e-01,3.14788e-01,-4.54938e-01,7.33097e-02,5.23654e-01,
3.04346e-01,3.18138e-01,-5.61632e-03,-1.99268e-01,-2.19124e-01,-1.30883e-01,5.58841e-01,-5.30446e-01,3.14262e-01,1.18203e-01,
7.63897e-02,
-2.88363e-02,
1.78575e-01,
-2.24235e-01,
4.62955e-02,
0.00000e+00,
0.00000e+00,
-2.13749e-02,
-3.05860e-01,
3.03162e-01,
2.44909e-01,3.76364e-01,-3.56744e-01,3.27798e-01,1.09760e-01,-2.10813e-01,-4.32553e-01,-3.71924e-01,4.02177e-01,8.78501e-02,
-2.07992e-01,-2.70839e-01,-2.16711e-01,3.81065e-01,2.22410e-01,-3.14374e-01,-5.05152e-01,-1.28088e-01,-5.32084e-02,1.73628e-01,
-2.37727e-01,3.25179e-01,4.35943e-01,5.61070e-02,5.94608e-01,-3.05341e-01,5.23701e-01,-4.52122e-01,-4.05511e-01,-1.57146e-01,
1.29576e-02,2.75196e-01,-3.91047e-01,3.92163e-01,5.85338e-01,-2.58533e-01,-4.88923e-01,2.59667e-01,-2.67803e-01,-3.47734e-02,
-3.89874e-01,-1.30528e-01,2.09017e-01,6.90210e-02,4.22989e-01,-3.89193e-01,2.50885e-01,5.52227e-01,-3.25729e-02,1.27903e-01,
-3.07443e-01,2.29060e-01,3.45519e-02,2.69429e-01,3.39754e-01,5.01461e-01,-3.18066e-01,-2.62095e-01,3.52095e-01,-5.39601e-01,
3.08924e-01,2.87111e-02,-3.65343e-01,-6.08203e-02,3.87319e-01,-1.00500e-01,2.02207e-01,5.15872e-02,-5.40676e-01,4.84514e-01,
4.81178e-01,-1.25208e-01,3.84297e-01,-4.82411e-01,2.23752e-01,-9.24107e-02,3.49468e-01,-4.95445e-01,-5.11158e-01,2.38154e-01,
5.32442e-01,4.86404e-01,-1.51221e-01,-9.09999e-02,-2.81176e-01,4.73266e-01,1.59369e-01,2.87645e-02,-3.71927e-01,5.22621e-01,
3.28128e-01,3.08792e-01,-5.28851e-01,-5.18799e-01,3.10373e-01,-2.74958e-01,-4.75770e-01,-4.04450e-01,1.27584e-01,-4.21053e-01,
2.91062e-01,
1.38463e-01,
2.16102e-01,
7.09621e-02,
1.86137e-01,
0.00000e+00,
2.81035e-01,
2.80410e-01,
-2.79266e-01,
-3.32125e-02,
6.24161e-02,5.04499e-01,2.66193e-02,7.53391e-01,1.75479e-01,-2.23474e-01,6.33575e-01,4.74354e-01,-7.24876e-01,-3.26793e-01,
2.80595e-01,
