// Neural Network File Format by Kyle Julian, Stanford 2016
2,20,1,20,
20,5,1,
0,
0,0,0,0,0,0,0,1,0,1,0,0,0,0,1,0,1,0,0,0,
2,80,2,9,20000,2,2,4,2,4,2,1,2,2,4,3,2,1,1,1,
0,0,0,0,0,0,0,1,0,1,0,0,0,0,1,0,1,0,0,0,0,
2,80,2,9,20000,2,2,3,2,3,2,1,2,2,3,3,1,1,1,1,1,
-3.03640e-01,4.64134e-01,7.59920e-02,-3.25247e-01,-2.71048e-02,2.48507e-01,4.24737e-01,4.55164e-01,4.25876e-01,4.18986e-01,-1.03909e-01,8.93303e-02,-2.77708e-01,8.61640e-02,2.18561e-01,-1.96475e-01,-3.97526e-01,-1.70120e-01,4.32754e-01,4.73534e-01,
5.23651e-01,-1.56118e-01,-1.13501e-01,1.57691e-01,3.05766e-01,-4.42049e-01,4.70470e-01,-1.71578e-01,3.33604e-01,1.20838e-01,6.67614e-02,1.72834e-01,-1.31565e-01,4.55638e-01,-1.63761e-01,3.89401e-01,1.37341e-01,3.34226e-01,3.95517e-01,4.90906e-01,
1.36080e-01,-7.42075e-02,-4.38845e-01,3.27476e-01,1.69307e-01,-3.68324e-01,6.18963e-02,4.12596e-01,1.33950e-01,3.24123e-01,2.41757e-02,3.53455e-04,-4.37816e-01,8.97168e-02,-2.06541e-01,1.46879e-01,2.10051e-01,-4.97638e-01,-5.44406e-01,3.18546e-01,
-1.21390e-01,-2.52875e-01,2.24428e-01,-6.98812e-02,3.88764e-01,-3.87470e-01,2.00866e-01,-3.48304e-01,-2.10563e-01,-3.66639e-03,4.64625e-02,-1.52218e-01,-1.06410e-01,2.11780e-01,3.39369e-01,-7.70142e-03,-1.89007e-01,3.08481e-01,-2.82424e-01,-9.48023e-02,
4.31644e-01,-3.02907e-01,-1.43609e-01,-3.36144e-01,1.24731e-01,4.35059e-01,4.33882e-01,-2.95786e-01,2.12971e-01,-6.22235e-02,-6.19680e-01,1.46960e-01,8.03429e-02,-2.70259e-01,5.56485e-01,-3.50485e-01,-2.61414e-01,2.17755e-01,7.55395e-01,9.45938e-02,
-1.43967e-02,
9.72649e-03,
-2.79938e-02,
-1.44346e-02,
4.70869e-03,
-7.33716e-01,8.18461e-01,-8.40619e-02,-7.11448e-01,3.24666e-01,
1.20939e-02,
